Pesos inciales:
------------------------------------------------------------------------

Layer 0:
[[-0.         -0.         -0.         ... -0.         -0.
   0.24161111]
 [-0.1493325  -0.         -0.08459821 ... -0.         -0.
  -0.        ]
 [-0.          0.         -0.02391209 ...  0.          0.30664125
   0.18791725]
 ...
 [-0.          0.          0.         ...  0.          0.
   0.1340092 ]
 [-0.          0.         -0.         ...  0.04146692  0.11030919
  -0.        ]
 [-0.         -0.03993638 -0.         ... -0.          0.30546403
   0.        ]]

Layer 1:
[[-1.43097773e-01  2.27002621e-01 -1.33113205e-01  2.33361423e-02
  -2.36644849e-01 -1.80684835e-01  4.61797714e-02  4.21446562e-03
   6.59211278e-02  9.79998410e-02 -4.83569354e-02  2.16743946e-01
   8.30713212e-02  1.22268051e-01  7.38388300e-02 -1.35230005e-01
  -4.31812555e-02 -1.40722737e-01 -1.34264216e-01 -2.07370311e-01
   1.00135505e-02  1.53041929e-01 -4.11615670e-02 -1.69170290e-01
   2.17268467e-01  7.95356929e-02  3.49870920e-02 -1.43453866e-01
   4.90196347e-02 -1.65300548e-01  1.51219994e-01 -2.06535503e-01
   1.50444686e-01 -8.85593295e-02 -1.26455843e-01  2.19705909e-01
  -2.85028815e-02  4.40543592e-02  1.05705380e-01 -8.80149454e-02
   1.41319931e-01  2.32270926e-01 -6.12996519e-03  1.71193808e-01
   1.12965703e-04 -2.23104268e-01  2.95698345e-02 -2.43444070e-01
   1.37314022e-01  2.07742274e-01 -2.20985621e-01 -8.32204819e-02
   7.90964961e-02 -1.34374201e-03 -2.04435438e-01  2.09718227e-01
  -1.42612904e-01 -2.35538483e-01 -2.01704070e-01 -2.62408108e-02
   4.51714396e-02 -1.60547152e-01 -4.32003140e-02  2.59990096e-02
   1.46002144e-01  3.04854512e-02  2.31924236e-01  1.33523941e-01
  -3.18187326e-02  1.13775134e-02  2.37017393e-01 -1.86670274e-02
  -1.42841399e-01  2.11323112e-01 -2.73990631e-03  5.44842780e-02
  -9.06000584e-02  6.77803755e-02  1.26441717e-02 -1.54971331e-01
  -1.05483040e-01  8.99592042e-03  1.38625771e-01  1.31307095e-01
   1.16807103e-01 -7.39899129e-02  1.01306468e-01 -1.37941390e-01
  -2.43415013e-01  7.24548101e-02  1.25765830e-01 -7.19965994e-02
  -6.48689270e-02 -1.80190727e-01  6.89341724e-02 -3.41317654e-02
   7.17190504e-02 -1.44604459e-01 -2.39844128e-01  1.21149063e-01]]

Layer 2:
[0. 0. 0. 0. 0. 0. 0. 0. 0. 0. 0. 0. 0. 0. 0. 0. 0. 0. 0. 0. 0. 0. 0. 0.
 0. 0. 0. 0. 0. 0. 0. 0. 0. 0. 0. 0. 0. 0. 0. 0. 0. 0. 0. 0. 0. 0. 0. 0.
 0. 0. 0. 0. 0. 0. 0. 0. 0. 0. 0. 0. 0. 0. 0. 0. 0. 0. 0. 0. 0. 0. 0. 0.
 0. 0. 0. 0. 0. 0. 0. 0. 0. 0. 0. 0. 0. 0. 0. 0. 0. 0. 0. 0. 0. 0. 0. 0.
 0. 0. 0. 0.]

Layer 3:
[[-0.14190465]
 [ 0.10621679]
 [ 0.19894388]
 [-0.0718784 ]
 [ 0.1952889 ]
 [-0.06066225]
 [-0.01576731]
 [ 0.0018059 ]
 [ 0.00686267]
 [ 0.14138892]
 [-0.12281609]
 [ 0.00474693]
 [ 0.09605443]
 [ 0.09710726]
 [ 0.22784626]
 [-0.02559991]
 [-0.05080438]
 [ 0.04160413]
 [-0.07055424]
 [ 0.0618583 ]
 [ 0.09255043]
 [-0.1344038 ]
 [ 0.07248712]
 [ 0.21536064]
 [-0.0133294 ]
 [ 0.01080483]
 [ 0.00773296]
 [-0.02829897]
 [-0.01055044]
 [ 0.11068249]
 [-0.02475539]
 [ 0.15550339]
 [-0.01660626]
 [ 0.1612139 ]
 [ 0.16474923]
 [ 0.135539  ]
 [-0.1823192 ]
 [ 0.08939752]
 [ 0.12208876]
 [ 0.21298078]
 [ 0.06984016]
 [-0.22425126]
 [ 0.02053127]
 [ 0.08997896]
 [ 0.13010651]
 [ 0.06524083]
 [-0.17962456]
 [-0.10371277]
 [-0.04981336]
 [-0.12410381]
 [-0.05905782]
 [ 0.05152982]
 [-0.04734644]
 [-0.20924467]
 [ 0.24316758]
 [-0.2132203 ]
 [ 0.18775794]
 [ 0.00727028]
 [-0.2417734 ]
 [-0.11037339]
 [-0.01723816]
 [-0.13119057]
 [-0.06874688]
 [-0.12335959]
 [ 0.05613765]
 [-0.14617431]
 [-0.06591579]
 [-0.18848072]
 [ 0.06735989]
 [-0.07537177]
 [-0.1534988 ]
 [ 0.04695007]
 [-0.0025173 ]
 [-0.08094342]
 [ 0.09547845]
 [-0.01750331]
 [-0.14283419]
 [ 0.16385823]
 [ 0.15472588]
 [ 0.14085129]
 [-0.05395815]
 [ 0.22038779]
 [-0.17476064]
 [-0.11416011]
 [ 0.2149466 ]
 [ 0.03832397]
 [-0.15378559]
 [ 0.18440247]
 [-0.13647108]
 [ 0.20918512]
 [ 0.12838173]
 [-0.20090772]
 [ 0.23520133]
 [-0.15564081]
 [-0.13549331]
 [ 0.12386131]
 [-0.17527464]
 [ 0.06734741]
 [-0.24173115]
 [-0.16269492]]

Layer 4:
[0.]



Entrenamiento 0:
------------------------------------------------------------------------

Layer 0:
[[-0.         -0.         -0.         ... -0.         -0.
   0.24161111]
 [-0.1493325  -0.         -0.08459821 ... -0.         -0.
  -0.        ]
 [-0.          0.         -0.02391209 ...  0.          0.30664125
   0.18791725]
 ...
 [-0.          0.          0.         ...  0.          0.
   0.1340092 ]
 [-0.          0.         -0.         ...  0.04146692  0.11030919
  -0.        ]
 [-0.         -0.03993638 -0.         ... -0.          0.30546403
   0.        ]]

Layer 1:
[[-1.43097773e-01  2.27002621e-01 -1.33113205e-01  2.33361423e-02
  -2.36644849e-01 -1.80684835e-01  4.61797714e-02  4.21446562e-03
   6.59211278e-02  9.79998410e-02 -4.83569354e-02  2.16743946e-01
   8.30713212e-02  1.22268051e-01  7.38388300e-02 -1.35230005e-01
  -4.31812555e-02 -1.40722737e-01 -1.34264216e-01 -2.07370311e-01
   1.00135505e-02  1.53041929e-01 -4.11615670e-02 -1.69170290e-01
   2.17268467e-01  7.95356929e-02  3.49870920e-02 -1.43453866e-01
   4.90196347e-02 -1.65300548e-01  1.51219994e-01 -2.06535503e-01
   1.50444686e-01 -8.85593295e-02 -1.26455843e-01  2.19705909e-01
  -2.85028815e-02  4.40543592e-02  1.05705380e-01 -8.80149454e-02
   1.41319931e-01  2.32270926e-01 -6.12996519e-03  1.71193808e-01
   1.12965703e-04 -2.23104268e-01  2.95698345e-02 -2.43444070e-01
   1.37314022e-01  2.07742274e-01 -2.20985621e-01 -8.32204819e-02
   7.90964961e-02 -1.34374201e-03 -2.04435438e-01  2.09718227e-01
  -1.42612904e-01 -2.35538483e-01 -2.01704070e-01 -2.62408108e-02
   4.51714396e-02 -1.60547152e-01 -4.32003140e-02  2.59990096e-02
   1.46002144e-01  3.04854512e-02  2.31924236e-01  1.33523941e-01
  -3.18187326e-02  1.13775134e-02  2.37017393e-01 -1.86670274e-02
  -1.42841399e-01  2.11323112e-01 -2.73990631e-03  5.44842780e-02
  -9.06000584e-02  6.77803755e-02  1.26441717e-02 -1.54971331e-01
  -1.05483040e-01  8.99592042e-03  1.38625771e-01  1.31307095e-01
   1.16807103e-01 -7.39899129e-02  1.01306468e-01 -1.37941390e-01
  -2.43415013e-01  7.24548101e-02  1.25765830e-01 -7.19965994e-02
  -6.48689270e-02 -1.80190727e-01  6.89341724e-02 -3.41317654e-02
   7.17190504e-02 -1.44604459e-01 -2.39844128e-01  1.21149063e-01]]

Layer 2:
[0. 0. 0. 0. 0. 0. 0. 0. 0. 0. 0. 0. 0. 0. 0. 0. 0. 0. 0. 0. 0. 0. 0. 0.
 0. 0. 0. 0. 0. 0. 0. 0. 0. 0. 0. 0. 0. 0. 0. 0. 0. 0. 0. 0. 0. 0. 0. 0.
 0. 0. 0. 0. 0. 0. 0. 0. 0. 0. 0. 0. 0. 0. 0. 0. 0. 0. 0. 0. 0. 0. 0. 0.
 0. 0. 0. 0. 0. 0. 0. 0. 0. 0. 0. 0. 0. 0. 0. 0. 0. 0. 0. 0. 0. 0. 0. 0.
 0. 0. 0. 0.]

Layer 3:
[[-1.32181001e+00]
 [ 3.10206831e-01]
 [-1.29781172e-01]
 [ 2.90405488e+00]
 [-3.80446166e-02]
 [-1.44047034e+00]
 [ 8.54916513e-01]
 [ 3.72327971e+00]
 [ 5.38704991e-01]
 [ 7.12746620e-01]
 [-1.31707013e+00]
 [ 4.58148926e-01]
 [ 1.79096758e+00]
 [ 5.81557691e-01]
 [ 8.13161731e-01]
 [-3.16670984e-01]
 [-3.03342152e+00]
 [-9.35702682e-01]
 [-3.65469366e-01]
 [-5.43444812e-01]
 [ 3.91129375e+00]
 [ 3.33537132e-01]
 [-1.09919035e+00]
 [-8.21986645e-02]
 [ 2.51004785e-01]
 [ 3.39185667e+00]
 [ 4.87237215e-01]
 [-4.12233859e-01]
 [ 7.32834160e-01]
 [-1.23083651e-01]
 [ 6.77801728e-01]
 [-1.26294658e-01]
 [ 3.59815985e-01]
 [-9.05144587e-02]
 [-7.38966614e-02]
 [ 3.19091171e-01]
 [-5.06633472e+00]
 [ 1.50509524e+00]
 [ 5.82499325e-01]
 [-6.40715539e-01]
 [ 2.90289164e-01]
 [-3.14228162e-02]
 [-4.85652828e+00]
 [ 5.76767027e-01]
 [ 1.99283266e+00]
 [-3.13717842e-01]
 [ 2.34019113e+00]
 [-2.29797959e-01]
 [ 2.55968034e-01]
 [ 1.33188650e-01]
 [-2.19000623e-01]
 [-1.02590621e+00]
 [ 3.17728877e-01]
 [-2.30202913e+00]
 [ 4.70130369e-02]
 [-3.82108614e-02]
 [-7.46974707e-01]
 [-2.91831821e-01]
 [-3.84431154e-01]
 [-8.22546840e-01]
 [ 2.08162832e+00]
 [-7.77276039e-01]
 [-1.19405603e+00]
 [ 3.36622477e+00]
 [ 3.23937625e-01]
 [ 2.14654136e+00]
 [ 1.15677327e-01]
 [ 7.85447180e-01]
 [-5.66599548e-01]
 [ 2.66358685e+00]
 [ 4.45709098e-04]
 [-3.47306490e+00]
 [-2.85726279e-01]
 [ 1.11350246e-01]
 [-3.49198866e+00]
 [ 2.33045101e+00]
 [-8.23866189e-01]
 [ 2.08278036e+00]
 [ 3.93414927e+00]
 [-6.39737904e-01]
 [-5.18555522e-01]
 [ 3.24170947e+00]
 [ 1.35306919e+00]
 [ 5.28358996e-01]
 [ 1.20047760e+00]
 [-6.52376413e-01]
 [ 6.14424765e-01]
 [-3.49908590e-01]
 [-2.51833260e-01]
 [ 1.15347254e+00]
 [ 6.49182558e-01]
 [-5.42830765e-01]
 [-3.19833255e+00]
 [-3.65204334e-01]
 [ 2.40008807e+00]
 [-4.82502317e+00]
 [ 4.24386710e-01]
 [-7.86029041e-01]
 [-3.83533329e-01]
 [ 5.68582416e-01]]

Layer 4:
[-0.11394603]



Entrenamiento 0 WITH NO CONSENSUS:
------------------------------------------------------------------------

Layer 0:
[[-0.         -0.         -0.         ... -0.         -0.
   0.24161111]
 [-0.1493325  -0.         -0.08459821 ... -0.         -0.
  -0.        ]
 [-0.          0.         -0.02391209 ...  0.          0.30664125
   0.18791725]
 ...
 [-0.          0.          0.         ...  0.          0.
   0.1340092 ]
 [-0.          0.         -0.         ...  0.04146692  0.11030919
  -0.        ]
 [-0.         -0.03993638 -0.         ... -0.          0.30546403
   0.        ]]

Layer 1:
[[-1.43097773e-01  2.27002621e-01 -1.33113205e-01  2.33361423e-02
  -2.36644849e-01 -1.80684835e-01  4.61797714e-02  4.21446562e-03
   6.59211278e-02  9.79998410e-02 -4.83569354e-02  2.16743946e-01
   8.30713212e-02  1.22268051e-01  7.38388300e-02 -1.35230005e-01
  -4.31812555e-02 -1.40722737e-01 -1.34264216e-01 -2.07370311e-01
   1.00135505e-02  1.53041929e-01 -4.11615670e-02 -1.69170290e-01
   2.17268467e-01  7.95356929e-02  3.49870920e-02 -1.43453866e-01
   4.90196347e-02 -1.65300548e-01  1.51219994e-01 -2.06535503e-01
   1.50444686e-01 -8.85593295e-02 -1.26455843e-01  2.19705909e-01
  -2.85028815e-02  4.40543592e-02  1.05705380e-01 -8.80149454e-02
   1.41319931e-01  2.32270926e-01 -6.12996519e-03  1.71193808e-01
   1.12965703e-04 -2.23104268e-01  2.95698345e-02 -2.43444070e-01
   1.37314022e-01  2.07742274e-01 -2.20985621e-01 -8.32204819e-02
   7.90964961e-02 -1.34374201e-03 -2.04435438e-01  2.09718227e-01
  -1.42612904e-01 -2.35538483e-01 -2.01704070e-01 -2.62408108e-02
   4.51714396e-02 -1.60547152e-01 -4.32003140e-02  2.59990096e-02
   1.46002144e-01  3.04854512e-02  2.31924236e-01  1.33523941e-01
  -3.18187326e-02  1.13775134e-02  2.37017393e-01 -1.86670274e-02
  -1.42841399e-01  2.11323112e-01 -2.73990631e-03  5.44842780e-02
  -9.06000584e-02  6.77803755e-02  1.26441717e-02 -1.54971331e-01
  -1.05483040e-01  8.99592042e-03  1.38625771e-01  1.31307095e-01
   1.16807103e-01 -7.39899129e-02  1.01306468e-01 -1.37941390e-01
  -2.43415013e-01  7.24548101e-02  1.25765830e-01 -7.19965994e-02
  -6.48689270e-02 -1.80190727e-01  6.89341724e-02 -3.41317654e-02
   7.17190504e-02 -1.44604459e-01 -2.39844128e-01  1.21149063e-01]]

Layer 2:
[0. 0. 0. 0. 0. 0. 0. 0. 0. 0. 0. 0. 0. 0. 0. 0. 0. 0. 0. 0. 0. 0. 0. 0.
 0. 0. 0. 0. 0. 0. 0. 0. 0. 0. 0. 0. 0. 0. 0. 0. 0. 0. 0. 0. 0. 0. 0. 0.
 0. 0. 0. 0. 0. 0. 0. 0. 0. 0. 0. 0. 0. 0. 0. 0. 0. 0. 0. 0. 0. 0. 0. 0.
 0. 0. 0. 0. 0. 0. 0. 0. 0. 0. 0. 0. 0. 0. 0. 0. 0. 0. 0. 0. 0. 0. 0. 0.
 0. 0. 0. 0.]

Layer 3:
[[-1.3248845 ]
 [ 0.2931963 ]
 [-0.12116393]
 [ 2.9108908 ]
 [-0.03480886]
 [-1.4451842 ]
 [ 0.84886956]
 [ 3.7517507 ]
 [ 0.53003263]
 [ 0.7061053 ]
 [-1.3161856 ]
 [ 0.4458266 ]
 [ 1.7967397 ]
 [ 0.5730288 ]
 [ 0.8078555 ]
 [-0.30558866]
 [-3.047383  ]
 [-0.93548083]
 [-0.3564017 ]
 [-0.5400407 ]
 [ 3.9502604 ]
 [ 0.32808477]
 [-1.0967307 ]
 [-0.0730437 ]
 [ 0.24327476]
 [ 3.419757  ]
 [ 0.47734252]
 [-0.40652728]
 [ 0.7254563 ]
 [-0.11314268]
 [ 0.6740242 ]
 [-0.11630035]
 [ 0.35321394]
 [-0.07679177]
 [-0.06601783]
 [ 0.3064796 ]
 [-5.0154033 ]
 [ 1.5044736 ]
 [ 0.57791275]
 [-0.63315445]
 [ 0.2768689 ]
 [-0.03397952]
 [-4.8742356 ]
 [ 0.5733139 ]
 [ 1.9934157 ]
 [-0.30665144]
 [ 2.3504221 ]
 [-0.21773082]
 [ 0.24212605]
 [ 0.12258457]
 [-0.20558938]
 [-1.0231346 ]
 [ 0.3064307 ]
 [-2.307948  ]
 [ 0.06405187]
 [-0.05062906]
 [-0.74796015]
 [-0.28312078]
 [-0.36880583]
 [-0.81927615]
 [ 2.0939271 ]
 [-0.77516377]
 [-1.1903695 ]
 [ 3.3828712 ]
 [ 0.31043547]
 [ 2.1563835 ]
 [ 0.10526429]
 [ 0.7838071 ]
 [-0.5575994 ]
 [ 2.671845  ]
 [-0.01713807]
 [-3.5002532 ]
 [-0.27520937]
 [ 0.0993188 ]
 [-3.5354662 ]
 [ 2.3420799 ]
 [-0.8212467 ]
 [ 2.0920851 ]
 [ 3.9486809 ]
 [-0.63772964]
 [-0.5073666 ]
 [ 3.2393491 ]
 [ 1.3583409 ]
 [ 0.5255125 ]
 [ 1.1964614 ]
 [-0.6491411 ]
 [ 0.61219347]
 [-0.3407231 ]
 [-0.24011761]
 [ 1.1518389 ]
 [ 0.6422857 ]
 [-0.5313197 ]
 [-3.2181141 ]
 [-0.35109597]
 [ 2.41959   ]
 [-4.835602  ]
 [ 0.41619802]
 [-0.78415006]
 [-0.3732902 ]
 [ 0.561428  ]]

Layer 4:
[-0.11140899]



Consenso 0:
------------------------------------------------------------------------

Layer 0:
[[ 0.          0.03821182  0.         ... -0.05011819  0.05810013
   0.06495992]
 [-0.04014975 -0.00565422 -0.0227452  ...  0.         -0.00427525
   0.04371312]
 [ 0.00109112  0.         -0.00642904 ...  0.          0.08244401
   0.05052371]
 ...
 [ 0.         -0.01904387  0.01040575 ...  0.06322321  0.
   0.00332094]
 [-0.04519086  0.03787899  0.         ...  0.01114886  0.02965789
   0.05179845]
 [ 0.         -0.01716163 -0.0424097  ... -0.02673132  0.1109734
   0.        ]]

Layer 1:
[[ 0.00588722  0.09870297 -0.02056212 -0.01774085 -0.08076151  0.0606085
  -0.02819255  0.1372421  -0.06794398  0.04757022 -0.06787841  0.07711422
  -0.07151171 -0.02793572  0.0808011   0.00640897  0.0611224  -0.1312865
  -0.18440665  0.01897819 -0.03779685  0.10382681  0.08122739 -0.10588706
   0.1206879   0.01446617  0.01385529  0.06756634 -0.02066086 -0.09766631
   0.09175951 -0.03974405  0.04282956 -0.07580389 -0.06518038  0.06652222
   0.0068611  -0.02582063 -0.06915133  0.01502787  0.14195293  0.05010674
   0.0642989  -0.09732717 -0.0331808  -0.1286251  -0.01385557 -0.06672008
  -0.03023268  0.05247121 -0.01706644  0.06519201 -0.01414154 -0.07547998
   0.02026878  0.05377239  0.0627662  -0.15343398 -0.0754583   0.0142462
   0.0346811  -0.00184704  0.06185801 -0.06322839  0.09438331  0.0140939
   0.14767313  0.05616244  0.11898401 -0.04971401  0.09060347 -0.02511215
  -0.06223663 -0.00831934  0.02626536  0.08946352  0.02010229  0.06577794
   0.14131507 -0.05949287 -0.09724344  0.02994763  0.06170565  0.05650178
  -0.05059415 -0.05904213 -0.03263097  0.03732232 -0.15965714 -0.02476923
   0.04598426  0.00214286 -0.01710391 -0.03855287  0.00976409 -0.06724609
  -0.05787352 -0.08101733 -0.08528    -0.02208688]]

Layer 2:
[0. 0. 0. 0. 0. 0. 0. 0. 0. 0. 0. 0. 0. 0. 0. 0. 0. 0. 0. 0. 0. 0. 0. 0.
 0. 0. 0. 0. 0. 0. 0. 0. 0. 0. 0. 0. 0. 0. 0. 0. 0. 0. 0. 0. 0. 0. 0. 0.
 0. 0. 0. 0. 0. 0. 0. 0. 0. 0. 0. 0. 0. 0. 0. 0. 0. 0. 0. 0. 0. 0. 0. 0.
 0. 0. 0. 0. 0. 0. 0. 0. 0. 0. 0. 0. 0. 0. 0. 0. 0. 0. 0. 0. 0. 0. 0. 0.
 0. 0. 0. 0.]

Layer 3:
[[-0.34805205]
 [ 0.10978244]
 [ 0.7027493 ]
 [ 0.69156015]
 [-0.7696633 ]
 [ 0.67835927]
 [ 0.35997084]
 [ 1.1082777 ]
 [-0.12112018]
 [ 0.25235364]
 [ 0.18666647]
 [ 0.5344395 ]
 [ 0.38178685]
 [ 0.25113025]
 [ 0.1429016 ]
 [-0.04422677]
 [-0.9311724 ]
 [-0.38263968]
 [-0.16862819]
 [-0.82530934]
 [ 1.0432214 ]
 [ 0.50294435]
 [ 0.31263873]
 [ 0.08910202]
 [ 1.1463548 ]
 [ 1.2001488 ]
 [-0.0970697 ]
 [ 0.16425596]
 [-0.19793335]
 [ 1.0522587 ]
 [ 0.01877955]
 [ 0.54189026]
 [ 0.05593246]
 [ 0.32657796]
 [-1.0075091 ]
 [-0.6549936 ]
 [-1.153389  ]
 [ 0.68990487]
 [-0.76828   ]
 [-0.13963583]
 [ 0.9896082 ]
 [-0.3193124 ]
 [-1.1738552 ]
 [ 0.05935148]
 [ 0.35569808]
 [-0.63299775]
 [ 0.3562911 ]
 [-0.5400962 ]
 [-0.9619957 ]
 [ 0.64237976]
 [-0.21577108]
 [-0.07926212]
 [ 0.41140446]
 [-0.30131537]
 [ 0.05750425]
 [-0.6754663 ]
 [-0.01592252]
 [-0.3538024 ]
 [ 0.408424  ]
 [-0.09057628]
 [ 0.84270906]
 [-1.2689234 ]
 [-0.45633128]
 [ 1.8975329 ]
 [ 0.10805991]
 [ 0.36396417]
 [ 0.13050467]
 [ 0.3437722 ]
 [ 0.18972574]
 [ 1.4096438 ]
 [ 0.22784372]
 [-1.1852583 ]
 [-0.8635078 ]
 [ 0.23046876]
 [-0.77303874]
 [ 0.54454905]
 [ 0.20944746]
 [ 1.7809709 ]
 [ 1.1117433 ]
 [ 0.18012795]
 [-1.5225657 ]
 [ 1.1440823 ]
 [ 0.55655813]
 [ 0.32402852]
 [-0.39024016]
 [-1.7457329 ]
 [-0.6622582 ]
 [-1.0131701 ]
 [ 0.28372422]
 [ 0.18006112]
 [ 0.2852012 ]
 [ 0.04332181]
 [-0.44973224]
 [-0.34173083]
 [ 0.85200936]
 [-1.4444453 ]
 [-0.0139976 ]
 [ 0.9774399 ]
 [-0.9538993 ]
 [ 0.07830162]]

Layer 4:
[0.08630342]



Entrenamiento 1:
------------------------------------------------------------------------

Layer 0:
[[ 0.          0.03821182  0.         ... -0.05011819  0.05810013
   0.06495992]
 [-0.04014975 -0.00565422 -0.0227452  ...  0.         -0.00427525
   0.04371312]
 [ 0.00109112  0.         -0.00642904 ...  0.          0.08244401
   0.05052371]
 ...
 [ 0.         -0.01904387  0.01040575 ...  0.06322321  0.
   0.00332094]
 [-0.04519086  0.03787899  0.         ...  0.01114886  0.02965789
   0.05179845]
 [ 0.         -0.01716163 -0.0424097  ... -0.02673132  0.1109734
   0.        ]]

Layer 1:
[[ 0.00588722  0.09870297 -0.02056212 -0.01774085 -0.08076151  0.0606085
  -0.02819255  0.1372421  -0.06794398  0.04757022 -0.06787841  0.07711422
  -0.07151171 -0.02793572  0.0808011   0.00640897  0.0611224  -0.1312865
  -0.18440665  0.01897819 -0.03779685  0.10382681  0.08122739 -0.10588706
   0.1206879   0.01446617  0.01385529  0.06756634 -0.02066086 -0.09766631
   0.09175951 -0.03974405  0.04282956 -0.07580389 -0.06518038  0.06652222
   0.0068611  -0.02582063 -0.06915133  0.01502787  0.14195293  0.05010674
   0.0642989  -0.09732717 -0.0331808  -0.1286251  -0.01385557 -0.06672008
  -0.03023268  0.05247121 -0.01706644  0.06519201 -0.01414154 -0.07547998
   0.02026878  0.05377239  0.0627662  -0.15343398 -0.0754583   0.0142462
   0.0346811  -0.00184704  0.06185801 -0.06322839  0.09438331  0.0140939
   0.14767313  0.05616244  0.11898401 -0.04971401  0.09060347 -0.02511215
  -0.06223663 -0.00831934  0.02626536  0.08946352  0.02010229  0.06577794
   0.14131507 -0.05949287 -0.09724344  0.02994763  0.06170565  0.05650178
  -0.05059415 -0.05904213 -0.03263097  0.03732232 -0.15965714 -0.02476923
   0.04598426  0.00214286 -0.01710391 -0.03855287  0.00976409 -0.06724609
  -0.05787352 -0.08101733 -0.08528    -0.02208688]]

Layer 2:
[0. 0. 0. 0. 0. 0. 0. 0. 0. 0. 0. 0. 0. 0. 0. 0. 0. 0. 0. 0. 0. 0. 0. 0.
 0. 0. 0. 0. 0. 0. 0. 0. 0. 0. 0. 0. 0. 0. 0. 0. 0. 0. 0. 0. 0. 0. 0. 0.
 0. 0. 0. 0. 0. 0. 0. 0. 0. 0. 0. 0. 0. 0. 0. 0. 0. 0. 0. 0. 0. 0. 0. 0.
 0. 0. 0. 0. 0. 0. 0. 0. 0. 0. 0. 0. 0. 0. 0. 0. 0. 0. 0. 0. 0. 0. 0. 0.
 0. 0. 0. 0.]

Layer 3:
[[ 2.3020163 ]
 [-0.08849417]
 [-0.2918509 ]
 [-3.0592275 ]
 [-0.75357944]
 [ 0.77091104]
 [-1.9003944 ]
 [ 1.0582639 ]
 [-0.42547488]
 [ 1.6738973 ]
 [ 0.07209967]
 [ 0.24125277]
 [ 0.2579294 ]
 [-2.2254672 ]
 [-0.07801774]
 [ 4.235599  ]
 [-1.1729084 ]
 [ 0.21481667]
 [ 0.4812502 ]
 [ 3.0638373 ]
 [-0.3410095 ]
 [ 0.38349536]
 [ 0.31417364]
 [ 0.47441489]
 [ 0.9508331 ]
 [ 4.7015305 ]
 [ 3.6776183 ]
 [ 0.13587566]
 [-2.5723937 ]
 [ 1.1725221 ]
 [-0.46785155]
 [ 0.16162543]
 [ 1.0520195 ]
 [ 0.6495514 ]
 [-1.3849823 ]
 [-0.8240852 ]
 [ 0.754284  ]
 [-0.34566796]
 [-1.6247356 ]
 [ 2.3652391 ]
 [ 0.48878253]
 [ 1.3063849 ]
 [-1.7730596 ]
 [ 0.20637313]
 [-1.6713644 ]
 [-0.20008188]
 [-4.17077   ]
 [-0.4867913 ]
 [-1.0454416 ]
 [ 1.6448649 ]
 [-3.178172  ]
 [ 0.06668284]
 [-2.0744803 ]
 [-0.2702167 ]
 [ 5.0349174 ]
 [-0.40368652]
 [-0.43838578]
 [ 0.20124157]
 [ 0.5468137 ]
 [ 2.6974201 ]
 [ 3.9950497 ]
 [-1.8972722 ]
 [-0.25475496]
 [ 2.1054657 ]
 [-0.15066351]
 [ 1.9877063 ]
 [-0.3616576 ]
 [ 1.8176637 ]
 [-0.35725567]
 [ 0.7019448 ]
 [ 0.26416996]
 [-4.113782  ]
 [-1.6222681 ]
 [-3.03468   ]
 [ 1.7622563 ]
 [ 0.3764643 ]
 [ 2.504181  ]
 [ 3.9156432 ]
 [ 0.99481636]
 [-0.09485613]
 [-1.7000619 ]
 [ 3.1809595 ]
 [ 1.791991  ]
 [ 0.2592076 ]
 [-0.5137458 ]
 [-3.9459717 ]
 [-2.4319031 ]
 [-0.4677468 ]
 [ 0.7357294 ]
 [-2.9725778 ]
 [ 0.788884  ]
 [ 1.7160289 ]
 [-4.576457  ]
 [-0.33923447]
 [ 3.0761747 ]
 [-2.1815367 ]
 [-0.9078892 ]
 [ 1.4002018 ]
 [-0.49546698]
 [-1.833121  ]]

Layer 4:
[-0.39943838]



Entrenamiento 1 WITH NO CONSENSUS:
------------------------------------------------------------------------

Layer 0:
[[-0.         -0.         -0.         ... -0.         -0.
   0.24161111]
 [-0.1493325  -0.         -0.08459821 ... -0.         -0.
  -0.        ]
 [-0.          0.         -0.02391209 ...  0.          0.30664125
   0.18791725]
 ...
 [-0.          0.          0.         ...  0.          0.
   0.1340092 ]
 [-0.          0.         -0.         ...  0.04146692  0.11030919
  -0.        ]
 [-0.         -0.03993638 -0.         ... -0.          0.30546403
   0.        ]]

Layer 1:
[[-1.43097773e-01  2.27002621e-01 -1.33113205e-01  2.33361423e-02
  -2.36644849e-01 -1.80684835e-01  4.61797714e-02  4.21446562e-03
   6.59211278e-02  9.79998410e-02 -4.83569354e-02  2.16743946e-01
   8.30713212e-02  1.22268051e-01  7.38388300e-02 -1.35230005e-01
  -4.31812555e-02 -1.40722737e-01 -1.34264216e-01 -2.07370311e-01
   1.00135505e-02  1.53041929e-01 -4.11615670e-02 -1.69170290e-01
   2.17268467e-01  7.95356929e-02  3.49870920e-02 -1.43453866e-01
   4.90196347e-02 -1.65300548e-01  1.51219994e-01 -2.06535503e-01
   1.50444686e-01 -8.85593295e-02 -1.26455843e-01  2.19705909e-01
  -2.85028815e-02  4.40543592e-02  1.05705380e-01 -8.80149454e-02
   1.41319931e-01  2.32270926e-01 -6.12996519e-03  1.71193808e-01
   1.12965703e-04 -2.23104268e-01  2.95698345e-02 -2.43444070e-01
   1.37314022e-01  2.07742274e-01 -2.20985621e-01 -8.32204819e-02
   7.90964961e-02 -1.34374201e-03 -2.04435438e-01  2.09718227e-01
  -1.42612904e-01 -2.35538483e-01 -2.01704070e-01 -2.62408108e-02
   4.51714396e-02 -1.60547152e-01 -4.32003140e-02  2.59990096e-02
   1.46002144e-01  3.04854512e-02  2.31924236e-01  1.33523941e-01
  -3.18187326e-02  1.13775134e-02  2.37017393e-01 -1.86670274e-02
  -1.42841399e-01  2.11323112e-01 -2.73990631e-03  5.44842780e-02
  -9.06000584e-02  6.77803755e-02  1.26441717e-02 -1.54971331e-01
  -1.05483040e-01  8.99592042e-03  1.38625771e-01  1.31307095e-01
   1.16807103e-01 -7.39899129e-02  1.01306468e-01 -1.37941390e-01
  -2.43415013e-01  7.24548101e-02  1.25765830e-01 -7.19965994e-02
  -6.48689270e-02 -1.80190727e-01  6.89341724e-02 -3.41317654e-02
   7.17190504e-02 -1.44604459e-01 -2.39844128e-01  1.21149063e-01]]

Layer 2:
[0. 0. 0. 0. 0. 0. 0. 0. 0. 0. 0. 0. 0. 0. 0. 0. 0. 0. 0. 0. 0. 0. 0. 0.
 0. 0. 0. 0. 0. 0. 0. 0. 0. 0. 0. 0. 0. 0. 0. 0. 0. 0. 0. 0. 0. 0. 0. 0.
 0. 0. 0. 0. 0. 0. 0. 0. 0. 0. 0. 0. 0. 0. 0. 0. 0. 0. 0. 0. 0. 0. 0. 0.
 0. 0. 0. 0. 0. 0. 0. 0. 0. 0. 0. 0. 0. 0. 0. 0. 0. 0. 0. 0. 0. 0. 0. 0.
 0. 0. 0. 0.]

Layer 3:
[[ 0.12788488]
 [ 0.66549796]
 [-0.20298126]
 [ 5.18406   ]
 [ 0.30369827]
 [ 0.63342625]
 [ 0.8185268 ]
 [ 6.8231444 ]
 [ 0.7974097 ]
 [ 0.04657445]
 [-1.80913   ]
 [ 0.04109724]
 [ 1.4728713 ]
 [ 0.62425274]
 [ 0.46318924]
 [-0.43284684]
 [-4.1390214 ]
 [ 0.3298262 ]
 [-0.9038411 ]
 [ 0.9478604 ]
 [ 7.9695144 ]
 [ 0.2929866 ]
 [-1.7904633 ]
 [-0.53880507]
 [ 0.5028221 ]
 [ 4.1169496 ]
 [ 0.96192896]
 [ 0.1499838 ]
 [ 0.5881928 ]
 [-0.12196139]
 [-0.38366744]
 [-0.8700692 ]
 [ 0.518717  ]
 [-0.71426296]
 [-0.08037755]
 [ 0.70047927]
 [-8.767244  ]
 [ 1.6372086 ]
 [ 1.0286621 ]
 [ 0.22607742]
 [ 1.0886853 ]
 [ 0.01884041]
 [-9.304845  ]
 [-0.4289892 ]
 [ 3.8068428 ]
 [ 0.30761907]
 [ 2.86291   ]
 [ 0.06073989]
 [-0.44185063]
 [ 0.6388093 ]
 [-0.8342346 ]
 [-0.91825324]
 [ 0.99455523]
 [-3.488429  ]
 [-0.34484208]
 [ 0.40988237]
 [-0.09522089]
 [-1.244193  ]
 [-0.75470215]
 [-1.5151958 ]
 [ 1.7224264 ]
 [ 0.02229022]
 [-1.5994238 ]
 [ 5.0018716 ]
 [ 0.4696955 ]
 [ 2.9654992 ]
 [ 0.16057234]
 [-0.3303465 ]
 [-1.1927534 ]
 [ 5.053608  ]
 [ 0.14124767]
 [-7.6908965 ]
 [-0.6430457 ]
 [ 0.47641176]
 [-6.2638836 ]
 [ 3.3457377 ]
 [-0.2862803 ]
 [ 1.2537109 ]
 [ 6.409555  ]
 [ 0.19156615]
 [-0.4674826 ]
 [ 6.4750037 ]
 [-0.49074772]
 [ 0.16279699]
 [ 1.4767388 ]
 [-0.81889325]
 [ 0.21945173]
 [ 0.09717612]
 [-0.13043194]
 [ 0.9673463 ]
 [ 0.23728326]
 [-0.88122576]
 [-4.9172235 ]
 [-0.9778639 ]
 [ 1.6773189 ]
 [-8.4732895 ]
 [ 0.9447139 ]
 [ 0.5547636 ]
 [-0.10272225]
 [-0.36746302]]

Layer 4:
[-0.169373]



Consenso 1:
------------------------------------------------------------------------

Layer 0:
[[ 0.          0.03550326  0.         ... -0.05011819  0.06900804
   0.06035539]
 [-0.03730383 -0.00525344 -0.02113296 ...  0.         -0.00397221
   0.04113155]
 [ 0.00129597  0.         -0.00597333 ...  0.          0.07660016
   0.04694245]
 ...
 [ 0.         -0.02716209  0.01235936 ...  0.05874178  0.
   0.00076705]
 [-0.04519086  0.04499052  0.         ...  0.0103586   0.02755566
   0.05179845]
 [ 0.         -0.01760665 -0.03940358 ... -0.03174995  0.10310732
   0.        ]]

Layer 1:
[[ 0.00283487  0.10512628 -0.01256793 -0.02182819 -0.07899963  0.06082708
  -0.02052828  0.14327416 -0.07105209  0.05123238 -0.07242221  0.07585155
  -0.07572859 -0.02297239  0.08729383  0.01713192  0.0699079  -0.13260706
  -0.18646327  0.01886689 -0.0466965   0.09828036  0.08968621 -0.09777762
   0.11023158  0.0208575   0.00330273  0.07299095 -0.02229891 -0.0988171
   0.08473894 -0.04247994  0.0369928  -0.0684156  -0.07115866  0.05311674
   0.01309754 -0.01947528 -0.07849228  0.0258026   0.13692376  0.04797967
   0.05469046 -0.10346727 -0.02520983 -0.12560914 -0.01815055 -0.06926886
  -0.02984763  0.05002038 -0.01147626  0.06628237 -0.01946069 -0.07005754
   0.02813948  0.04580665  0.06756818 -0.15710078 -0.07009584  0.01924955
   0.03085365 -0.00315122  0.07181197 -0.06846393  0.09321482  0.02029226
   0.14498028  0.04507251  0.12447392 -0.05622864  0.09086161 -0.02322241
  -0.06250443 -0.01323156  0.0356827   0.08089501  0.02209624  0.06934275
   0.14305282 -0.06351943 -0.10169507  0.02170432  0.0523123   0.05943236
  -0.05054666 -0.06148374 -0.03296692  0.04611865 -0.14945245 -0.02385973
   0.04590822  0.00455748 -0.01894761 -0.03637291 -0.00176743 -0.05566759
  -0.06269196 -0.07860296 -0.08253663 -0.03253159]]

Layer 2:
[0. 0. 0. 0. 0. 0. 0. 0. 0. 0. 0. 0. 0. 0. 0. 0. 0. 0. 0. 0. 0. 0. 0. 0.
 0. 0. 0. 0. 0. 0. 0. 0. 0. 0. 0. 0. 0. 0. 0. 0. 0. 0. 0. 0. 0. 0. 0. 0.
 0. 0. 0. 0. 0. 0. 0. 0. 0. 0. 0. 0. 0. 0. 0. 0. 0. 0. 0. 0. 0. 0. 0. 0.
 0. 0. 0. 0. 0. 0. 0. 0. 0. 0. 0. 0. 0. 0. 0. 0. 0. 0. 0. 0. 0. 0. 0. 0.
 0. 0. 0. 0.]

Layer 3:
[[-3.6561888e-01]
 [-1.5447829e-03]
 [ 9.6745235e-01]
 [-6.3537258e-01]
 [-8.8283008e-01]
 [ 9.8228031e-01]
 [-3.7519673e-01]
 [ 8.8501585e-01]
 [-1.7502128e-01]
 [ 8.5218263e-01]
 [ 2.9187849e-01]
 [ 3.9015502e-01]
 [ 3.3445108e-01]
 [-8.4135550e-01]
 [ 2.9816981e-02]
 [ 1.2621617e+00]
 [-9.5503300e-01]
 [-1.5068884e-01]
 [ 5.4050557e-02]
 [ 3.6984384e-01]
 [ 4.6630242e-01]
 [ 3.7600961e-01]
 [ 2.3614030e-01]
 [ 2.2139844e-01]
 [ 1.1459625e+00]
 [ 2.2753375e+00]
 [ 5.2425516e-01]
 [ 1.4837864e-01]
 [-1.1200930e+00]
 [ 1.0746980e+00]
 [-1.4361478e-01]
 [ 4.2371595e-01]
 [ 8.0836242e-01]
 [ 5.0046676e-01]
 [-1.0287808e+00]
 [-5.0810742e-01]
 [-7.7662632e-02]
 [ 3.6069274e-02]
 [-8.9344990e-01]
 [ 4.8804465e-01]
 [ 1.0400802e+00]
 [ 3.1588122e-01]
 [-1.0992533e+00]
 [ 1.4855193e-01]
 [-5.5524254e-01]
 [-5.3904074e-01]
 [-1.2467668e+00]
 [-5.0478774e-01]
 [-1.2212886e+00]
 [ 9.1981387e-01]
 [-6.4007175e-01]
 [-3.2857995e-02]
 [-3.0753481e-01]
 [-1.4828297e-01]
 [ 1.4180260e+00]
 [-4.8079035e-01]
 [-1.4975241e-01]
 [-1.2150049e-01]
 [ 3.9201140e-01]
 [ 8.5044646e-01]
 [ 1.9699570e+00]
 [-2.0760098e+00]
 [-4.4072229e-01]
 [ 1.8991107e+00]
 [ 2.8154166e-02]
 [ 7.0234507e-01]
 [-5.6169894e-02]
 [ 1.3630475e+00]
 [ 5.0303388e-02]
 [ 1.1826389e+00]
 [ 2.2328208e-01]
 [-2.7495835e+00]
 [-1.2961794e+00]
 [-8.6729616e-01]
 [-1.5697730e-01]
 [ 5.0701076e-01]
 [ 1.0772235e+00]
 [ 2.2967603e+00]
 [ 8.9252293e-01]
 [ 1.3883966e-01]
 [-1.4193846e+00]
 [ 1.7148004e+00]
 [ 1.3899715e+00]
 [ 3.5362753e-01]
 [-6.6571480e-01]
 [-2.5002191e+00]
 [-1.6956924e+00]
 [-8.4114599e-01]
 [ 5.4119265e-01]
 [-1.3077804e+00]
 [ 5.2995825e-01]
 [ 8.1068975e-01]
 [-2.0057113e+00]
 [-3.6034390e-01]
 [ 7.8318870e-01]
 [-2.2566149e+00]
 [-3.1735998e-01]
 [ 1.3332605e+00]
 [-1.0742463e+00]
 [-2.7818388e-01]]

Layer 4:
[0.08236307]



Entrenamiento 2:
------------------------------------------------------------------------

Layer 0:
[[ 0.          0.03550326  0.         ... -0.05011819  0.06900804
   0.06035539]
 [-0.03730383 -0.00525344 -0.02113296 ...  0.         -0.00397221
   0.04113155]
 [ 0.00129597  0.         -0.00597333 ...  0.          0.07660016
   0.04694245]
 ...
 [ 0.         -0.02716209  0.01235936 ...  0.05874178  0.
   0.00076705]
 [-0.04519086  0.04499052  0.         ...  0.0103586   0.02755566
   0.05179845]
 [ 0.         -0.01760665 -0.03940358 ... -0.03174995  0.10310732
   0.        ]]

Layer 1:
[[ 0.00283487  0.10512628 -0.01256793 -0.02182819 -0.07899963  0.06082708
  -0.02052828  0.14327416 -0.07105209  0.05123238 -0.07242221  0.07585155
  -0.07572859 -0.02297239  0.08729383  0.01713192  0.0699079  -0.13260706
  -0.18646327  0.01886689 -0.0466965   0.09828036  0.08968621 -0.09777762
   0.11023158  0.0208575   0.00330273  0.07299095 -0.02229891 -0.0988171
   0.08473894 -0.04247994  0.0369928  -0.0684156  -0.07115866  0.05311674
   0.01309754 -0.01947528 -0.07849228  0.0258026   0.13692376  0.04797967
   0.05469046 -0.10346727 -0.02520983 -0.12560914 -0.01815055 -0.06926886
  -0.02984763  0.05002038 -0.01147626  0.06628237 -0.01946069 -0.07005754
   0.02813948  0.04580665  0.06756818 -0.15710078 -0.07009584  0.01924955
   0.03085365 -0.00315122  0.07181197 -0.06846393  0.09321482  0.02029226
   0.14498028  0.04507251  0.12447392 -0.05622864  0.09086161 -0.02322241
  -0.06250443 -0.01323156  0.0356827   0.08089501  0.02209624  0.06934275
   0.14305282 -0.06351943 -0.10169507  0.02170432  0.0523123   0.05943236
  -0.05054666 -0.06148374 -0.03296692  0.04611865 -0.14945245 -0.02385973
   0.04590822  0.00455748 -0.01894761 -0.03637291 -0.00176743 -0.05566759
  -0.06269196 -0.07860296 -0.08253663 -0.03253159]]

Layer 2:
[0. 0. 0. 0. 0. 0. 0. 0. 0. 0. 0. 0. 0. 0. 0. 0. 0. 0. 0. 0. 0. 0. 0. 0.
 0. 0. 0. 0. 0. 0. 0. 0. 0. 0. 0. 0. 0. 0. 0. 0. 0. 0. 0. 0. 0. 0. 0. 0.
 0. 0. 0. 0. 0. 0. 0. 0. 0. 0. 0. 0. 0. 0. 0. 0. 0. 0. 0. 0. 0. 0. 0. 0.
 0. 0. 0. 0. 0. 0. 0. 0. 0. 0. 0. 0. 0. 0. 0. 0. 0. 0. 0. 0. 0. 0. 0. 0.
 0. 0. 0. 0.]

Layer 3:
[[ 1.7585531 ]
 [-0.291121  ]
 [-0.35502008]
 [-3.5337126 ]
 [-0.7111283 ]
 [ 0.9184498 ]
 [-2.9976957 ]
 [ 0.47502968]
 [ 0.06639695]
 [ 1.4417459 ]
 [ 0.53993183]
 [ 0.27299142]
 [ 0.5505289 ]
 [-3.2263494 ]
 [-0.20502184]
 [ 5.378016  ]
 [-1.1977222 ]
 [ 0.08030396]
 [ 0.17477791]
 [ 3.856604  ]
 [-0.3304977 ]
 [ 0.08981147]
 [-0.04324293]
 [ 0.43912664]
 [ 0.76380074]
 [ 4.5731955 ]
 [ 3.1047482 ]
 [-0.03674045]
 [-2.8475878 ]
 [ 1.4556001 ]
 [-0.34224486]
 [ 0.26398507]
 [ 1.6922387 ]
 [ 0.63349706]
 [-1.0281633 ]
 [-0.47661284]
 [ 2.645435  ]
 [-1.0375459 ]
 [-0.8134142 ]
 [ 1.594758  ]
 [ 0.835251  ]
 [ 1.1136546 ]
 [-1.2804971 ]
 [ 0.36895573]
 [-2.3375103 ]
 [-0.20739907]
 [-6.030358  ]
 [-0.28239128]
 [-1.2901849 ]
 [ 1.1434689 ]
 [-4.352141  ]
 [-0.17537503]
 [-1.572431  ]
 [ 0.05786538]
 [ 4.1360292 ]
 [-0.4293994 ]
 [-0.25560752]
 [-0.06825851]
 [ 0.5705108 ]
 [ 3.0134897 ]
 [ 4.786225  ]
 [-4.2797446 ]
 [-0.5887617 ]
 [ 2.0394711 ]
 [-0.28731316]
 [ 1.3251016 ]
 [-0.32314658]
 [ 2.5525656 ]
 [-0.14992128]
 [ 1.0921903 ]
 [-0.13777101]
 [-5.2225904 ]
 [-1.2169534 ]
 [-3.8026075 ]
 [ 0.83217776]
 [ 0.3009672 ]
 [ 2.6379218 ]
 [ 3.061233  ]
 [ 0.5189478 ]
 [ 0.15963557]
 [-0.969865  ]
 [ 3.7365332 ]
 [ 2.0220947 ]
 [ 0.27922717]
 [-0.63604224]
 [-3.4526355 ]
 [-2.7637444 ]
 [-0.7785556 ]
 [ 1.0172007 ]
 [-4.1591    ]
 [ 0.8068078 ]
 [ 2.8311188 ]
 [-5.6695232 ]
 [-0.4228936 ]
 [-0.12039977]
 [-2.5117514 ]
 [-0.47002348]
 [ 1.5009106 ]
 [-0.9090916 ]
 [-0.94697624]]

Layer 4:
[-0.7372461]



Entrenamiento 2 WITH NO CONSENSUS:
------------------------------------------------------------------------

Layer 0:
[[-0.         -0.         -0.         ... -0.         -0.
   0.24161111]
 [-0.1493325  -0.         -0.08459821 ... -0.         -0.
  -0.        ]
 [-0.          0.         -0.02391209 ...  0.          0.30664125
   0.18791725]
 ...
 [-0.          0.          0.         ...  0.          0.
   0.1340092 ]
 [-0.          0.         -0.         ...  0.04146692  0.11030919
  -0.        ]
 [-0.         -0.03993638 -0.         ... -0.          0.30546403
   0.        ]]

Layer 1:
[[-1.43097773e-01  2.27002621e-01 -1.33113205e-01  2.33361423e-02
  -2.36644849e-01 -1.80684835e-01  4.61797714e-02  4.21446562e-03
   6.59211278e-02  9.79998410e-02 -4.83569354e-02  2.16743946e-01
   8.30713212e-02  1.22268051e-01  7.38388300e-02 -1.35230005e-01
  -4.31812555e-02 -1.40722737e-01 -1.34264216e-01 -2.07370311e-01
   1.00135505e-02  1.53041929e-01 -4.11615670e-02 -1.69170290e-01
   2.17268467e-01  7.95356929e-02  3.49870920e-02 -1.43453866e-01
   4.90196347e-02 -1.65300548e-01  1.51219994e-01 -2.06535503e-01
   1.50444686e-01 -8.85593295e-02 -1.26455843e-01  2.19705909e-01
  -2.85028815e-02  4.40543592e-02  1.05705380e-01 -8.80149454e-02
   1.41319931e-01  2.32270926e-01 -6.12996519e-03  1.71193808e-01
   1.12965703e-04 -2.23104268e-01  2.95698345e-02 -2.43444070e-01
   1.37314022e-01  2.07742274e-01 -2.20985621e-01 -8.32204819e-02
   7.90964961e-02 -1.34374201e-03 -2.04435438e-01  2.09718227e-01
  -1.42612904e-01 -2.35538483e-01 -2.01704070e-01 -2.62408108e-02
   4.51714396e-02 -1.60547152e-01 -4.32003140e-02  2.59990096e-02
   1.46002144e-01  3.04854512e-02  2.31924236e-01  1.33523941e-01
  -3.18187326e-02  1.13775134e-02  2.37017393e-01 -1.86670274e-02
  -1.42841399e-01  2.11323112e-01 -2.73990631e-03  5.44842780e-02
  -9.06000584e-02  6.77803755e-02  1.26441717e-02 -1.54971331e-01
  -1.05483040e-01  8.99592042e-03  1.38625771e-01  1.31307095e-01
   1.16807103e-01 -7.39899129e-02  1.01306468e-01 -1.37941390e-01
  -2.43415013e-01  7.24548101e-02  1.25765830e-01 -7.19965994e-02
  -6.48689270e-02 -1.80190727e-01  6.89341724e-02 -3.41317654e-02
   7.17190504e-02 -1.44604459e-01 -2.39844128e-01  1.21149063e-01]]

Layer 2:
[0. 0. 0. 0. 0. 0. 0. 0. 0. 0. 0. 0. 0. 0. 0. 0. 0. 0. 0. 0. 0. 0. 0. 0.
 0. 0. 0. 0. 0. 0. 0. 0. 0. 0. 0. 0. 0. 0. 0. 0. 0. 0. 0. 0. 0. 0. 0. 0.
 0. 0. 0. 0. 0. 0. 0. 0. 0. 0. 0. 0. 0. 0. 0. 0. 0. 0. 0. 0. 0. 0. 0. 0.
 0. 0. 0. 0. 0. 0. 0. 0. 0. 0. 0. 0. 0. 0. 0. 0. 0. 0. 0. 0. 0. 0. 0. 0.
 0. 0. 0. 0.]

Layer 3:
[[ 7.6975441e-01]
 [ 7.5546759e-01]
 [-4.0415120e-01]
 [ 5.9613557e+00]
 [-1.2363127e-01]
 [ 1.3287989e+00]
 [ 8.1875855e-01]
 [ 9.4383583e+00]
 [ 1.0491208e+00]
 [ 7.4656539e-02]
 [-1.8212668e+00]
 [-4.9217138e-01]
 [ 5.0948501e-01]
 [ 6.1233157e-01]
 [ 7.5369889e-01]
 [-6.5840399e-01]
 [-2.9258974e+00]
 [ 6.9316912e-01]
 [-1.3052874e+00]
 [ 9.3250531e-01]
 [ 1.1625567e+01]
 [ 5.4141498e-01]
 [-2.0130997e+00]
 [-9.1264099e-01]
 [ 7.8708291e-01]
 [ 2.2522528e+00]
 [ 1.4016985e+00]
 [-1.2297438e-01]
 [ 6.9008321e-01]
 [-4.1365975e-01]
 [-5.1081204e-01]
 [-1.1952478e+00]
 [ 8.7709796e-01]
 [-1.0401727e+00]
 [-4.0551093e-01]
 [ 9.1737664e-01]
 [-1.1398698e+01]
 [ 1.1507889e+00]
 [ 1.5091176e+00]
 [ 6.0813743e-01]
 [ 1.3870347e+00]
 [ 3.9659163e-01]
 [-1.2429618e+01]
 [-3.3070186e-01]
 [ 5.3269081e+00]
 [ 4.2188260e-01]
 [ 2.5857172e+00]
 [ 1.3168766e-03]
 [-2.6935440e-01]
 [ 9.1243082e-01]
 [-1.0277989e+00]
 [-4.6572515e-01]
 [ 1.4375098e+00]
 [-4.3361416e+00]
 [-4.6208560e-01]
 [ 6.1497557e-01]
 [ 1.7004307e-01]
 [-1.7441291e+00]
 [-9.5059597e-01]
 [-2.1420386e+00]
 [ 8.2385629e-01]
 [ 1.3255049e-01]
 [-1.8077142e+00]
 [ 4.6517973e+00]
 [ 7.3971397e-01]
 [ 3.2275624e+00]
 [ 3.0879334e-01]
 [-7.6167858e-01]
 [-1.5912895e+00]
 [ 6.7284360e+00]
 [ 1.7669480e-01]
 [-1.1801258e+01]
 [-9.8604465e-01]
 [ 7.0941800e-01]
 [-8.9313450e+00]
 [ 2.4765332e+00]
 [-3.6864465e-01]
 [ 8.7579399e-02]
 [ 7.7849865e+00]
 [ 5.3082079e-01]
 [-5.6303895e-01]
 [ 9.1462107e+00]
 [-1.5111666e+00]
 [ 1.8615690e-01]
 [ 1.0820621e+00]
 [-1.1236047e+00]
 [ 3.5033521e-01]
 [ 2.4527004e-01]
 [-2.4815708e-01]
 [ 8.2512915e-01]
 [ 4.9229851e-01]
 [-1.4351447e+00]
 [-3.5719256e+00]
 [-1.2549231e+00]
 [-2.4551155e-01]
 [-1.0616592e+01]
 [ 1.2471288e+00]
 [ 8.5697353e-01]
 [-1.3239782e-01]
 [-6.6438067e-01]]

Layer 4:
[0.05823927]



Consenso 2:
------------------------------------------------------------------------

Layer 0:
[[ 0.          0.03514658  0.         ... -0.05011819  0.07044447
   0.05974903]
 [-0.03692906 -0.00520066 -0.02092065 ...  0.         -0.00393231
   0.04079159]
 [ 0.00132294  0.         -0.00591332 ...  0.          0.0758306
   0.04647084]
 ...
 [ 0.         -0.02823115  0.01261663 ...  0.05815163  0.
   0.00043073]
 [-0.04519086  0.04592701  0.         ...  0.01025453  0.02727882
   0.05179845]
 [ 0.         -0.01766526 -0.03900772 ... -0.03241084  0.10207145
   0.        ]]

Layer 1:
[[ 0.00243291  0.10597214 -0.0115152  -0.02236644 -0.07876762  0.06085587
  -0.01951899  0.14406851 -0.07146139  0.05171464 -0.07302057  0.07568528
  -0.0762839  -0.02231879  0.08814884  0.018544    0.07106483 -0.13278097
  -0.18673408  0.01885224 -0.04786847  0.09754996  0.09080014 -0.09670971
   0.10885462  0.02169916  0.0019131   0.0737053  -0.02251462 -0.09896865
   0.08381442 -0.04284022  0.03622418 -0.06744266 -0.07194592  0.05135141
   0.0139188  -0.01863967 -0.07972237  0.0272215   0.1362615   0.04769956
   0.05342515 -0.10427584 -0.02416015 -0.12521198 -0.01871614 -0.0696045
  -0.02979693  0.04969764 -0.0107401   0.06642596 -0.02016116 -0.06934348
   0.02917595  0.04475766  0.06820054 -0.15758365 -0.06938966  0.01990843
   0.03034962 -0.00332297  0.07312278 -0.06915338  0.09306095  0.02110851
   0.14462566  0.04361212  0.12519687 -0.05708653  0.09089561 -0.02297356
  -0.0625397  -0.01387843  0.03692284  0.07976665  0.02235883  0.06981219
   0.14328165 -0.06404968 -0.10228129  0.02061879  0.05107531  0.05981828
  -0.05054041 -0.06180527 -0.03301116  0.04727701 -0.14810862 -0.02373996
   0.04589821  0.00487545 -0.0191904  -0.03608584 -0.00328598 -0.05414285
  -0.06332649 -0.07828502 -0.08217537 -0.03390702]]

Layer 2:
[0. 0. 0. 0. 0. 0. 0. 0. 0. 0. 0. 0. 0. 0. 0. 0. 0. 0. 0. 0. 0. 0. 0. 0.
 0. 0. 0. 0. 0. 0. 0. 0. 0. 0. 0. 0. 0. 0. 0. 0. 0. 0. 0. 0. 0. 0. 0. 0.
 0. 0. 0. 0. 0. 0. 0. 0. 0. 0. 0. 0. 0. 0. 0. 0. 0. 0. 0. 0. 0. 0. 0. 0.
 0. 0. 0. 0. 0. 0. 0. 0. 0. 0. 0. 0. 0. 0. 0. 0. 0. 0. 0. 0. 0. 0. 0. 0.
 0. 0. 0. 0.]

Layer 3:
[[-0.10058934]
 [-0.08970755]
 [ 0.6351352 ]
 [-1.6626209 ]
 [-0.79376775]
 [ 1.0112976 ]
 [-1.4925094 ]
 [ 0.7444353 ]
 [-0.01080215]
 [ 0.9270495 ]
 [ 0.4019684 ]
 [ 0.3926299 ]
 [ 0.46098915]
 [-1.8016465 ]
 [-0.03403074]
 [ 2.7176101 ]
 [-1.0347791 ]
 [-0.15321901]
 [-0.02649775]
 [ 1.64105   ]
 [ 0.26550278]
 [ 0.23994322]
 [ 0.10131774]
 [ 0.2533202 ]
 [ 0.96983624]
 [ 3.076779  ]
 [ 0.81057745]
 [ 0.08557781]
 [-1.7128545 ]
 [ 1.2019851 ]
 [-0.16539842]
 [ 0.3589866 ]
 [ 1.2421247 ]
 [ 0.4937781 ]
 [-0.957576  ]
 [-0.3861738 ]
 [ 1.3385842 ]
 [-0.440209  ]
 [-0.69648457]
 [ 0.75121427]
 [ 1.0777645 ]
 [ 0.518802  ]
 [-1.1050828 ]
 [ 0.19717687]
 [-1.2348316 ]
 [-0.44379577]
 [-3.0925395 ]
 [-0.38105485]
 [-1.3168911 ]
 [ 0.90068865]
 [-2.006342  ]
 [-0.10812628]
 [-0.62443054]
 [-0.07361929]
 [ 2.2802114 ]
 [-0.46187994]
 [-0.0919034 ]
 [-0.23581663]
 [ 0.4419729 ]
 [ 1.5899022 ]
 [ 3.0339932 ]
 [-2.7745993 ]
 [-0.515416  ]
 [ 1.9543293 ]
 [-0.07848763]
 [ 0.82416636]
 [-0.08552975]
 [ 1.883713  ]
 [ 0.05971472]
 [ 1.2465822 ]
 [ 0.03601917]
 [-3.9688041 ]
 [-1.1686015 ]
 [-1.8585908 ]
 [ 0.04089904]
 [ 0.4558214 ]
 [ 1.6252562 ]
 [ 2.3512557 ]
 [ 0.766574  ]
 [ 0.16877027]
 [-1.1711444 ]
 [ 2.547173  ]
 [ 1.590846  ]
 [ 0.35275567]
 [-0.6648689 ]
 [-2.6536036 ]
 [-2.0810008 ]
 [-0.8484754 ]
 [ 0.7278634 ]
 [-2.4698744 ]
 [ 0.6302275 ]
 [ 1.5179862 ]
 [-3.5066228 ]
 [-0.43353117]
 [ 0.0736282 ]
 [-2.4746227 ]
 [-0.24839543]
 [ 1.380175  ]
 [-1.1070603 ]
 [-0.40518793]]

Layer 4:
[0.09611456]



Entrenamiento 3:
------------------------------------------------------------------------

Layer 0:
[[ 0.          0.03514658  0.         ... -0.05011819  0.07044447
   0.05974903]
 [-0.03692906 -0.00520066 -0.02092065 ...  0.         -0.00393231
   0.04079159]
 [ 0.00132294  0.         -0.00591332 ...  0.          0.0758306
   0.04647084]
 ...
 [ 0.         -0.02823115  0.01261663 ...  0.05815163  0.
   0.00043073]
 [-0.04519086  0.04592701  0.         ...  0.01025453  0.02727882
   0.05179845]
 [ 0.         -0.01766526 -0.03900772 ... -0.03241084  0.10207145
   0.        ]]

Layer 1:
[[ 0.00243291  0.10597214 -0.0115152  -0.02236644 -0.07876762  0.06085587
  -0.01951899  0.14406851 -0.07146139  0.05171464 -0.07302057  0.07568528
  -0.0762839  -0.02231879  0.08814884  0.018544    0.07106483 -0.13278097
  -0.18673408  0.01885224 -0.04786847  0.09754996  0.09080014 -0.09670971
   0.10885462  0.02169916  0.0019131   0.0737053  -0.02251462 -0.09896865
   0.08381442 -0.04284022  0.03622418 -0.06744266 -0.07194592  0.05135141
   0.0139188  -0.01863967 -0.07972237  0.0272215   0.1362615   0.04769956
   0.05342515 -0.10427584 -0.02416015 -0.12521198 -0.01871614 -0.0696045
  -0.02979693  0.04969764 -0.0107401   0.06642596 -0.02016116 -0.06934348
   0.02917595  0.04475766  0.06820054 -0.15758365 -0.06938966  0.01990843
   0.03034962 -0.00332297  0.07312278 -0.06915338  0.09306095  0.02110851
   0.14462566  0.04361212  0.12519687 -0.05708653  0.09089561 -0.02297356
  -0.0625397  -0.01387843  0.03692284  0.07976665  0.02235883  0.06981219
   0.14328165 -0.06404968 -0.10228129  0.02061879  0.05107531  0.05981828
  -0.05054041 -0.06180527 -0.03301116  0.04727701 -0.14810862 -0.02373996
   0.04589821  0.00487545 -0.0191904  -0.03608584 -0.00328598 -0.05414285
  -0.06332649 -0.07828502 -0.08217537 -0.03390702]]

Layer 2:
[0. 0. 0. 0. 0. 0. 0. 0. 0. 0. 0. 0. 0. 0. 0. 0. 0. 0. 0. 0. 0. 0. 0. 0.
 0. 0. 0. 0. 0. 0. 0. 0. 0. 0. 0. 0. 0. 0. 0. 0. 0. 0. 0. 0. 0. 0. 0. 0.
 0. 0. 0. 0. 0. 0. 0. 0. 0. 0. 0. 0. 0. 0. 0. 0. 0. 0. 0. 0. 0. 0. 0. 0.
 0. 0. 0. 0. 0. 0. 0. 0. 0. 0. 0. 0. 0. 0. 0. 0. 0. 0. 0. 0. 0. 0. 0. 0.
 0. 0. 0. 0.]

Layer 3:
[[ 2.0647411e+00]
 [-2.3664533e-01]
 [-7.5461805e-01]
 [-3.8268521e+00]
 [-4.9604440e-01]
 [ 9.8636752e-01]
 [-3.7357609e+00]
 [ 4.9808824e-01]
 [ 4.4237438e-01]
 [ 7.3915154e-01]
 [ 6.4688927e-01]
 [ 5.1934063e-01]
 [ 8.1326324e-01]
 [-3.7527647e+00]
 [-1.1849034e-01]
 [ 5.9653544e+00]
 [-1.2168111e+00]
 [-2.9628477e-01]
 [-4.3533182e-01]
 [ 4.7406154e+00]
 [ 3.9053718e-03]
 [-5.0775073e-02]
 [-1.8739690e-01]
 [ 2.3346788e-01]
 [ 4.9644065e-01]
 [ 4.7446237e+00]
 [ 2.6012030e+00]
 [-1.8900912e-02]
 [-2.9055409e+00]
 [ 1.5627363e+00]
 [-1.1687377e-01]
 [ 2.0152140e-01]
 [ 1.8046039e+00]
 [ 3.7980580e-01]
 [-7.8250235e-01]
 [-2.0372629e-01]
 [ 3.8626318e+00]
 [-1.2569697e+00]
 [-9.3459874e-02]
 [ 1.3273335e+00]
 [ 1.2309551e+00]
 [ 5.9225261e-01]
 [-1.1743973e+00]
 [ 2.2436316e-01]
 [-2.4270792e+00]
 [-2.7467409e-01]
 [-7.4697151e+00]
 [-7.3544279e-02]
 [-1.4941692e+00]
 [ 6.7060846e-01]
 [-5.6800475e+00]
 [-3.3443117e-01]
 [-1.2775844e+00]
 [ 5.7598941e-02]
 [ 4.0647836e+00]
 [-6.0703492e-01]
 [ 1.8879226e-01]
 [-7.3466694e-01]
 [ 5.8126074e-01]
 [ 3.2780633e+00]
 [ 5.2265625e+00]
 [-5.3426614e+00]
 [-6.8087882e-01]
 [ 2.0812738e+00]
 [-2.9498023e-01]
 [ 1.1042463e+00]
 [-3.5933707e-02]
 [ 2.3746088e+00]
 [ 2.1789497e-01]
 [ 1.5289458e+00]
 [-4.5607683e-01]
 [-6.0178566e+00]
 [-6.1183435e-01]
 [-4.3598151e+00]
 [ 4.5743993e-01]
 [ 3.6041877e-01]
 [ 2.7008879e+00]
 [ 2.1788437e+00]
 [ 5.7152146e-01]
 [ 2.4793762e-01]
 [-5.1458907e-01]
 [ 4.1949120e+00]
 [ 1.3915033e+00]
 [ 3.6503842e-01]
 [-5.1234019e-01]
 [-2.6554215e+00]
 [-2.4471216e+00]
 [-9.0815657e-01]
 [ 1.1045672e+00]
 [-4.7693100e+00]
 [ 7.3667610e-01]
 [ 3.5367289e+00]
 [-6.8578763e+00]
 [-6.4808619e-01]
 [-2.5242631e+00]
 [-2.3745062e+00]
 [ 1.1506146e-01]
 [ 1.3211335e+00]
 [-1.1925328e+00]
 [-6.9735515e-01]]

Layer 4:
[-0.5705466]



Entrenamiento 3 WITH NO CONSENSUS:
------------------------------------------------------------------------

Layer 0:
[[-0.         -0.         -0.         ... -0.         -0.
   0.24161111]
 [-0.1493325  -0.         -0.08459821 ... -0.         -0.
  -0.        ]
 [-0.          0.         -0.02391209 ...  0.          0.30664125
   0.18791725]
 ...
 [-0.          0.          0.         ...  0.          0.
   0.1340092 ]
 [-0.          0.         -0.         ...  0.04146692  0.11030919
  -0.        ]
 [-0.         -0.03993638 -0.         ... -0.          0.30546403
   0.        ]]

Layer 1:
[[-1.43097773e-01  2.27002621e-01 -1.33113205e-01  2.33361423e-02
  -2.36644849e-01 -1.80684835e-01  4.61797714e-02  4.21446562e-03
   6.59211278e-02  9.79998410e-02 -4.83569354e-02  2.16743946e-01
   8.30713212e-02  1.22268051e-01  7.38388300e-02 -1.35230005e-01
  -4.31812555e-02 -1.40722737e-01 -1.34264216e-01 -2.07370311e-01
   1.00135505e-02  1.53041929e-01 -4.11615670e-02 -1.69170290e-01
   2.17268467e-01  7.95356929e-02  3.49870920e-02 -1.43453866e-01
   4.90196347e-02 -1.65300548e-01  1.51219994e-01 -2.06535503e-01
   1.50444686e-01 -8.85593295e-02 -1.26455843e-01  2.19705909e-01
  -2.85028815e-02  4.40543592e-02  1.05705380e-01 -8.80149454e-02
   1.41319931e-01  2.32270926e-01 -6.12996519e-03  1.71193808e-01
   1.12965703e-04 -2.23104268e-01  2.95698345e-02 -2.43444070e-01
   1.37314022e-01  2.07742274e-01 -2.20985621e-01 -8.32204819e-02
   7.90964961e-02 -1.34374201e-03 -2.04435438e-01  2.09718227e-01
  -1.42612904e-01 -2.35538483e-01 -2.01704070e-01 -2.62408108e-02
   4.51714396e-02 -1.60547152e-01 -4.32003140e-02  2.59990096e-02
   1.46002144e-01  3.04854512e-02  2.31924236e-01  1.33523941e-01
  -3.18187326e-02  1.13775134e-02  2.37017393e-01 -1.86670274e-02
  -1.42841399e-01  2.11323112e-01 -2.73990631e-03  5.44842780e-02
  -9.06000584e-02  6.77803755e-02  1.26441717e-02 -1.54971331e-01
  -1.05483040e-01  8.99592042e-03  1.38625771e-01  1.31307095e-01
   1.16807103e-01 -7.39899129e-02  1.01306468e-01 -1.37941390e-01
  -2.43415013e-01  7.24548101e-02  1.25765830e-01 -7.19965994e-02
  -6.48689270e-02 -1.80190727e-01  6.89341724e-02 -3.41317654e-02
   7.17190504e-02 -1.44604459e-01 -2.39844128e-01  1.21149063e-01]]

Layer 2:
[0. 0. 0. 0. 0. 0. 0. 0. 0. 0. 0. 0. 0. 0. 0. 0. 0. 0. 0. 0. 0. 0. 0. 0.
 0. 0. 0. 0. 0. 0. 0. 0. 0. 0. 0. 0. 0. 0. 0. 0. 0. 0. 0. 0. 0. 0. 0. 0.
 0. 0. 0. 0. 0. 0. 0. 0. 0. 0. 0. 0. 0. 0. 0. 0. 0. 0. 0. 0. 0. 0. 0. 0.
 0. 0. 0. 0. 0. 0. 0. 0. 0. 0. 0. 0. 0. 0. 0. 0. 0. 0. 0. 0. 0. 0. 0. 0.
 0. 0. 0. 0.]

Layer 3:
[[  0.5276576 ]
 [  0.7248561 ]
 [ -0.46613458]
 [  5.8827643 ]
 [ -0.30555034]
 [  1.0219231 ]
 [  1.0139732 ]
 [ 11.609537  ]
 [  1.2500142 ]
 [  0.03734737]
 [ -1.8168668 ]
 [ -0.8479555 ]
 [ -0.2567645 ]
 [  0.688225  ]
 [  1.0739732 ]
 [ -0.6722905 ]
 [ -1.8520116 ]
 [  0.7103372 ]
 [ -1.6223361 ]
 [  0.82328856]
 [ 14.565879  ]
 [  1.0012556 ]
 [ -2.0914857 ]
 [ -1.3017118 ]
 [  1.0328356 ]
 [ -0.10777451]
 [  1.6612053 ]
 [ -0.25427946]
 [  0.9229945 ]
 [ -0.47029048]
 [ -0.33945876]
 [ -1.5881144 ]
 [  1.3563465 ]
 [ -1.1460652 ]
 [ -0.37211227]
 [  0.8743676 ]
 [-12.871223  ]
 [  0.6985319 ]
 [  2.1428995 ]
 [  0.88199824]
 [  1.5488597 ]
 [  0.4224496 ]
 [-14.550733  ]
 [ -0.22972867]
 [  6.2988644 ]
 [  0.44976583]
 [  2.1321108 ]
 [  0.45267326]
 [ -0.47193253]
 [  1.1524129 ]
 [ -0.9399327 ]
 [ -0.33396593]
 [  1.9129604 ]
 [ -5.0992994 ]
 [ -0.35721043]
 [  0.56540823]
 [ -0.40228507]
 [ -2.3317215 ]
 [ -0.745728  ]
 [ -2.5396304 ]
 [  0.4555522 ]
 [ -0.226821  ]
 [ -2.0850263 ]
 [  3.7799299 ]
 [  0.81580186]
 [  3.165924  ]
 [  0.19814545]
 [ -0.6534628 ]
 [ -2.1642334 ]
 [  7.5157757 ]
 [ -0.08923896]
 [-15.369443  ]
 [ -1.2184902 ]
 [  0.7053019 ]
 [-11.740507  ]
 [  1.066289  ]
 [ -0.6047549 ]
 [ -0.29459146]
 [  8.19294   ]
 [  0.34154832]
 [ -0.6649078 ]
 [ 11.320717  ]
 [ -1.5740442 ]
 [  0.5154639 ]
 [  1.2817962 ]
 [ -1.842522  ]
 [  0.94778633]
 [  0.35198078]
 [  0.12955318]
 [  1.0318258 ]
 [  0.85930705]
 [ -1.8322414 ]
 [ -1.4408761 ]
 [ -1.3376747 ]
 [ -1.6417707 ]
 [-11.248525  ]
 [  1.7233517 ]
 [  0.78783214]
 [  0.3463344 ]
 [ -0.6752853 ]]

Layer 4:
[-0.41047114]



Consenso 3:
------------------------------------------------------------------------

Layer 0:
[[ 0.          0.03509961  0.         ... -0.05011819  0.07063363
   0.05966918]
 [-0.0368797  -0.00519371 -0.02089269 ...  0.         -0.00392705
   0.04074682]
 [ 0.0013265   0.         -0.00590542 ...  0.          0.07572926
   0.04640874]
 ...
 [ 0.         -0.02837194  0.01265051 ...  0.05807392  0.
   0.00038644]
 [-0.04519086  0.04605034  0.         ...  0.01024082  0.02724237
   0.05179845]
 [ 0.         -0.01767297 -0.03895558 ... -0.03249787  0.10193504
   0.        ]]

Layer 1:
[[ 0.00237998  0.10608353 -0.01137657 -0.02243732 -0.07873707  0.06085966
  -0.01938608  0.14417312 -0.07151528  0.05177815 -0.07309937  0.07566338
  -0.07635702 -0.02223272  0.08826143  0.01872995  0.07121719 -0.13280387
  -0.18676975  0.01885031 -0.0480228   0.09745378  0.09094682 -0.09656908
   0.10867329  0.02181     0.0017301   0.07379937 -0.02254303 -0.09898861
   0.08369267 -0.04288767  0.03612296 -0.06731453 -0.0720496   0.05111894
   0.01402695 -0.01852963 -0.07988436  0.02740835  0.13617426  0.04766268
   0.05325852 -0.10438232 -0.02402193 -0.1251597  -0.01879062 -0.0696487
  -0.02979025  0.04965514 -0.01064316  0.06644487 -0.0202534  -0.06924944
   0.02931244  0.04461952  0.06828381 -0.15764724 -0.06929667  0.01999519
   0.03028325 -0.00334558  0.07329539 -0.06924418  0.09304069  0.021216
   0.14457896  0.0434198   0.12529208 -0.0571995   0.09090009 -0.02294079
  -0.06254434 -0.01396362  0.03708615  0.07961806  0.0223934   0.06987401
   0.14331178 -0.0641195  -0.10235849  0.02047583  0.05091242  0.0598691
  -0.05053958 -0.06184762 -0.03301699  0.04742955 -0.14793165 -0.02372419
   0.04589689  0.00491733 -0.01922238 -0.03604803 -0.00348596 -0.05394206
  -0.06341005 -0.07824315 -0.08212779 -0.03408815]]

Layer 2:
[0. 0. 0. 0. 0. 0. 0. 0. 0. 0. 0. 0. 0. 0. 0. 0. 0. 0. 0. 0. 0. 0. 0. 0.
 0. 0. 0. 0. 0. 0. 0. 0. 0. 0. 0. 0. 0. 0. 0. 0. 0. 0. 0. 0. 0. 0. 0. 0.
 0. 0. 0. 0. 0. 0. 0. 0. 0. 0. 0. 0. 0. 0. 0. 0. 0. 0. 0. 0. 0. 0. 0. 0.
 0. 0. 0. 0. 0. 0. 0. 0. 0. 0. 0. 0. 0. 0. 0. 0. 0. 0. 0. 0. 0. 0. 0. 0.
 0. 0. 0. 0.]

Layer 3:
[[ 0.41694143]
 [-0.10679294]
 [ 0.13295886]
 [-2.4267867 ]
 [-0.6289597 ]
 [ 1.015374  ]
 [-2.3722641 ]
 [ 0.6904182 ]
 [ 0.2365189 ]
 [ 0.6208823 ]
 [ 0.49435338]
 [ 0.51265055]
 [ 0.6455234 ]
 [-2.488539  ]
 [-0.02113682]
 [ 3.9219341 ]
 [-1.0816177 ]
 [-0.32240278]
 [-0.32967672]
 [ 2.803987  ]
 [ 0.2889247 ]
 [ 0.10866832]
 [-0.02098563]
 [ 0.17858091]
 [ 0.73338336]
 [ 3.6686156 ]
 [ 1.1562976 ]
 [ 0.06653304]
 [-2.0614467 ]
 [ 1.329106  ]
 [-0.07287649]
 [ 0.28670573]
 [ 1.4074543 ]
 [ 0.3755282 ]
 [-0.83246434]
 [-0.25809795]
 [ 2.6651986 ]
 [-0.7099043 ]
 [-0.2927484 ]
 [ 0.8831389 ]
 [ 1.2436576 ]
 [ 0.3478741 ]
 [-1.0915056 ]
 [ 0.15642619]
 [-1.5621164 ]
 [-0.41982883]
 [-4.834073  ]
 [-0.22809966]
 [-1.4326197 ]
 [ 0.681156  ]
 [-3.5211434 ]
 [-0.22182   ]
 [-0.7459532 ]
 [-0.04326851]
 [ 2.8983185 ]
 [-0.58619213]
 [ 0.13694121]
 [-0.5825716 ]
 [ 0.4877414 ]
 [ 2.1738536 ]
 [ 3.7842383 ]
 [-3.368272  ]
 [-0.5848141 ]
 [ 2.0000236 ]
 [-0.13512391]
 [ 0.86732185]
 [ 0.02067057]
 [ 1.9092523 ]
 [ 0.2256009 ]
 [ 1.4581006 ]
 [-0.21105503]
 [-4.853629  ]
 [-0.8001658 ]
 [-2.6898036 ]
 [ 0.09614809]
 [ 0.44798288]
 [ 1.9547005 ]
 [ 2.0242953 ]
 [ 0.74215966]
 [ 0.21323083]
 [-0.8503098 ]
 [ 3.1414557 ]
 [ 1.2581944 ]
 [ 0.39008167]
 [-0.57581925]
 [-2.3679209 ]
 [-2.0627363 ]
 [-0.8905144 ]
 [ 0.8532036 ]
 [-3.279263  ]
 [ 0.6397889 ]
 [ 2.1577117 ]
 [-4.871364  ]
 [-0.576493  ]
 [-0.69739217]
 [-2.2630444 ]
 [ 0.04964424]
 [ 1.3007545 ]
 [-1.2114844 ]
 [-0.45813105]]

Layer 4:
[0.10914446]



Entrenamiento 4:
------------------------------------------------------------------------

Layer 0:
[[ 0.          0.03509961  0.         ... -0.05011819  0.07063363
   0.05966918]
 [-0.0368797  -0.00519371 -0.02089269 ...  0.         -0.00392705
   0.04074682]
 [ 0.0013265   0.         -0.00590542 ...  0.          0.07572926
   0.04640874]
 ...
 [ 0.         -0.02837194  0.01265051 ...  0.05807392  0.
   0.00038644]
 [-0.04519086  0.04605034  0.         ...  0.01024082  0.02724237
   0.05179845]
 [ 0.         -0.01767297 -0.03895558 ... -0.03249787  0.10193504
   0.        ]]

Layer 1:
[[ 0.00237998  0.10608353 -0.01137657 -0.02243732 -0.07873707  0.06085966
  -0.01938608  0.14417312 -0.07151528  0.05177815 -0.07309937  0.07566338
  -0.07635702 -0.02223272  0.08826143  0.01872995  0.07121719 -0.13280387
  -0.18676975  0.01885031 -0.0480228   0.09745378  0.09094682 -0.09656908
   0.10867329  0.02181     0.0017301   0.07379937 -0.02254303 -0.09898861
   0.08369267 -0.04288767  0.03612296 -0.06731453 -0.0720496   0.05111894
   0.01402695 -0.01852963 -0.07988436  0.02740835  0.13617426  0.04766268
   0.05325852 -0.10438232 -0.02402193 -0.1251597  -0.01879062 -0.0696487
  -0.02979025  0.04965514 -0.01064316  0.06644487 -0.0202534  -0.06924944
   0.02931244  0.04461952  0.06828381 -0.15764724 -0.06929667  0.01999519
   0.03028325 -0.00334558  0.07329539 -0.06924418  0.09304069  0.021216
   0.14457896  0.0434198   0.12529208 -0.0571995   0.09090009 -0.02294079
  -0.06254434 -0.01396362  0.03708615  0.07961806  0.0223934   0.06987401
   0.14331178 -0.0641195  -0.10235849  0.02047583  0.05091242  0.0598691
  -0.05053958 -0.06184762 -0.03301699  0.04742955 -0.14793165 -0.02372419
   0.04589689  0.00491733 -0.01922238 -0.03604803 -0.00348596 -0.05394206
  -0.06341005 -0.07824315 -0.08212779 -0.03408815]]

Layer 2:
[0. 0. 0. 0. 0. 0. 0. 0. 0. 0. 0. 0. 0. 0. 0. 0. 0. 0. 0. 0. 0. 0. 0. 0.
 0. 0. 0. 0. 0. 0. 0. 0. 0. 0. 0. 0. 0. 0. 0. 0. 0. 0. 0. 0. 0. 0. 0. 0.
 0. 0. 0. 0. 0. 0. 0. 0. 0. 0. 0. 0. 0. 0. 0. 0. 0. 0. 0. 0. 0. 0. 0. 0.
 0. 0. 0. 0. 0. 0. 0. 0. 0. 0. 0. 0. 0. 0. 0. 0. 0. 0. 0. 0. 0. 0. 0. 0.
 0. 0. 0. 0.]

Layer 3:
[[ 2.7759502 ]
 [-0.19432019]
 [-1.2433387 ]
 [-4.1608453 ]
 [-0.21424718]
 [ 0.9764753 ]
 [-4.208854  ]
 [ 0.51006216]
 [ 0.83322656]
 [-0.12784778]
 [ 0.75355583]
 [ 0.7509447 ]
 [ 1.1035625 ]
 [-4.0571804 ]
 [-0.03841491]
 [ 6.697868  ]
 [-1.2382218 ]
 [-0.64791906]
 [-0.9845619 ]
 [ 5.6355047 ]
 [ 0.38212147]
 [-0.21732779]
 [-0.33577368]
 [ 0.04627175]
 [ 0.17850117]
 [ 4.9905443 ]
 [ 2.9353993 ]
 [-0.01167962]
 [-2.8848834 ]
 [ 1.6943489 ]
 [ 0.09737545]
 [ 0.16349682]
 [ 1.655733  ]
 [ 0.14309728]
 [-0.5123074 ]
 [-0.03951567]
 [ 5.073738  ]
 [-1.2786136 ]
 [ 0.6627937 ]
 [ 1.1892313 ]
 [ 1.5719504 ]
 [-0.11746174]
 [-1.1151766 ]
 [ 0.09853026]
 [-2.2580478 ]
 [-0.32043415]
 [-8.981093  ]
 [ 0.15048794]
 [-1.6480955 ]
 [ 0.12690243]
 [-7.0489836 ]
 [-0.52716285]
 [-1.0589098 ]
 [ 0.07297233]
 [ 4.2073183 ]
 [-0.9120182 ]
 [ 0.6190052 ]
 [-1.3409188 ]
 [ 0.63511235]
 [ 3.5774164 ]
 [ 5.4592314 ]
 [-6.1044044 ]
 [-0.7824012 ]
 [ 2.140589  ]
 [-0.3125838 ]
 [ 0.96886295]
 [ 0.21590991]
 [ 1.7819614 ]
 [ 0.5599272 ]
 [ 1.9929144 ]
 [-0.8030805 ]
 [-6.554912  ]
 [ 0.07827092]
 [-4.9499435 ]
 [ 0.19653483]
 [ 0.39153612]
 [ 2.6941302 ]
 [ 1.1974343 ]
 [ 0.6306132 ]
 [ 0.35679203]
 [-0.05638149]
 [ 4.3813925 ]
 [ 0.40451244]
 [ 0.42689508]
 [-0.3122661 ]
 [-1.6839195 ]
 [-1.8989898 ]
 [-1.0318406 ]
 [ 1.1896217 ]
 [-5.1354504 ]
 [ 0.5891243 ]
 [ 4.1387005 ]
 [-8.010538  ]
 [-0.8540765 ]
 [-3.7187374 ]
 [-1.8365886 ]
 [ 0.77473193]
 [ 1.1337472 ]
 [-1.4196056 ]
 [-0.5599356 ]]

Layer 4:
[-0.30573446]



Entrenamiento 4 WITH NO CONSENSUS:
------------------------------------------------------------------------

Layer 0:
[[-0.         -0.         -0.         ... -0.         -0.
   0.24161111]
 [-0.1493325  -0.         -0.08459821 ... -0.         -0.
  -0.        ]
 [-0.          0.         -0.02391209 ...  0.          0.30664125
   0.18791725]
 ...
 [-0.          0.          0.         ...  0.          0.
   0.1340092 ]
 [-0.          0.         -0.         ...  0.04146692  0.11030919
  -0.        ]
 [-0.         -0.03993638 -0.         ... -0.          0.30546403
   0.        ]]

Layer 1:
[[-1.43097773e-01  2.27002621e-01 -1.33113205e-01  2.33361423e-02
  -2.36644849e-01 -1.80684835e-01  4.61797714e-02  4.21446562e-03
   6.59211278e-02  9.79998410e-02 -4.83569354e-02  2.16743946e-01
   8.30713212e-02  1.22268051e-01  7.38388300e-02 -1.35230005e-01
  -4.31812555e-02 -1.40722737e-01 -1.34264216e-01 -2.07370311e-01
   1.00135505e-02  1.53041929e-01 -4.11615670e-02 -1.69170290e-01
   2.17268467e-01  7.95356929e-02  3.49870920e-02 -1.43453866e-01
   4.90196347e-02 -1.65300548e-01  1.51219994e-01 -2.06535503e-01
   1.50444686e-01 -8.85593295e-02 -1.26455843e-01  2.19705909e-01
  -2.85028815e-02  4.40543592e-02  1.05705380e-01 -8.80149454e-02
   1.41319931e-01  2.32270926e-01 -6.12996519e-03  1.71193808e-01
   1.12965703e-04 -2.23104268e-01  2.95698345e-02 -2.43444070e-01
   1.37314022e-01  2.07742274e-01 -2.20985621e-01 -8.32204819e-02
   7.90964961e-02 -1.34374201e-03 -2.04435438e-01  2.09718227e-01
  -1.42612904e-01 -2.35538483e-01 -2.01704070e-01 -2.62408108e-02
   4.51714396e-02 -1.60547152e-01 -4.32003140e-02  2.59990096e-02
   1.46002144e-01  3.04854512e-02  2.31924236e-01  1.33523941e-01
  -3.18187326e-02  1.13775134e-02  2.37017393e-01 -1.86670274e-02
  -1.42841399e-01  2.11323112e-01 -2.73990631e-03  5.44842780e-02
  -9.06000584e-02  6.77803755e-02  1.26441717e-02 -1.54971331e-01
  -1.05483040e-01  8.99592042e-03  1.38625771e-01  1.31307095e-01
   1.16807103e-01 -7.39899129e-02  1.01306468e-01 -1.37941390e-01
  -2.43415013e-01  7.24548101e-02  1.25765830e-01 -7.19965994e-02
  -6.48689270e-02 -1.80190727e-01  6.89341724e-02 -3.41317654e-02
   7.17190504e-02 -1.44604459e-01 -2.39844128e-01  1.21149063e-01]]

Layer 2:
[0. 0. 0. 0. 0. 0. 0. 0. 0. 0. 0. 0. 0. 0. 0. 0. 0. 0. 0. 0. 0. 0. 0. 0.
 0. 0. 0. 0. 0. 0. 0. 0. 0. 0. 0. 0. 0. 0. 0. 0. 0. 0. 0. 0. 0. 0. 0. 0.
 0. 0. 0. 0. 0. 0. 0. 0. 0. 0. 0. 0. 0. 0. 0. 0. 0. 0. 0. 0. 0. 0. 0. 0.
 0. 0. 0. 0. 0. 0. 0. 0. 0. 0. 0. 0. 0. 0. 0. 0. 0. 0. 0. 0. 0. 0. 0. 0.
 0. 0. 0. 0.]

Layer 3:
[[  0.13101414]
 [  0.7083034 ]
 [ -0.3884928 ]
 [  5.511824  ]
 [ -0.07153501]
 [  0.5358222 ]
 [  1.3556203 ]
 [ 13.403294  ]
 [  1.4588218 ]
 [ -0.11827478]
 [ -1.8803068 ]
 [ -1.074838  ]
 [ -0.5882225 ]
 [  0.79883224]
 [  1.3070656 ]
 [ -0.6289614 ]
 [ -1.4139804 ]
 [  0.7547426 ]
 [ -1.880147  ]
 [  1.0655667 ]
 [ 16.806452  ]
 [  1.3051368 ]
 [ -2.121694  ]
 [ -1.638788  ]
 [  1.0755478 ]
 [ -1.7994207 ]
 [  1.910973  ]
 [ -0.06746154]
 [  1.1920804 ]
 [ -0.3414311 ]
 [ -0.33106688]
 [ -1.9892564 ]
 [  1.6824495 ]
 [ -1.307977  ]
 [ -0.12539494]
 [  0.7762115 ]
 [-13.319234  ]
 [  0.53980905]
 [  2.6904519 ]
 [  1.0042264 ]
 [  1.7942692 ]
 [  0.09233751]
 [-16.024628  ]
 [ -0.4603536 ]
 [  6.8307533 ]
 [  0.67343664]
 [  1.8162227 ]
 [  1.1386049 ]
 [ -0.92765194]
 [  1.32692   ]
 [ -0.8723389 ]
 [ -0.5408902 ]
 [  2.4066746 ]
 [ -5.7616796 ]
 [ -0.28861177]
 [  0.4823589 ]
 [ -1.0978247 ]
 [ -2.8867123 ]
 [ -0.5564078 ]
 [ -2.8343062 ]
 [  0.5360559 ]
 [ -0.4245998 ]
 [ -2.291442  ]
 [  3.0622914 ]
 [  0.845899  ]
 [  2.9270186 ]
 [ -0.07959422]
 [ -0.42226705]
 [ -2.839854  ]
 [  7.79285   ]
 [ -0.42105404]
 [-18.379229  ]
 [ -1.3606234 ]
 [  0.60306585]
 [-14.982611  ]
 [  0.04540944]
 [ -0.7041951 ]
 [ -0.13396707]
 [  8.057143  ]
 [  0.08697604]
 [ -0.7758243 ]
 [ 12.848158  ]
 [ -1.2823544 ]
 [  0.79111785]
 [  1.8305119 ]
 [ -2.5842094 ]
 [  1.4947535 ]
 [  0.42756227]
 [  0.73537004]
 [  1.4526795 ]
 [  1.0201788 ]
 [ -2.1429284 ]
 [  0.2026166 ]
 [ -1.4204865 ]
 [ -2.1457746 ]
 [-10.727277  ]
 [  2.2614732 ]
 [  0.7851096 ]
 [  1.0674456 ]
 [ -0.5980764 ]]

Layer 4:
[-0.38654673]



Consenso 4:
------------------------------------------------------------------------

Layer 0:
[[ 0.          0.03509343  0.         ... -0.05011819  0.07065854
   0.05965867]
 [-0.03687321 -0.00519279 -0.020889   ...  0.         -0.00392636
   0.04074093]
 [ 0.00132696  0.         -0.00590438 ...  0.          0.07571591
   0.04640056]
 ...
 [ 0.         -0.02839047  0.01265497 ...  0.05806368  0.
   0.00038061]
 [-0.04519086  0.04606658  0.         ...  0.01023902  0.02723756
   0.05179845]
 [ 0.         -0.01767399 -0.03894872 ... -0.03250933  0.10191708
   0.        ]]

Layer 1:
[[ 0.00237301  0.1060982  -0.01135831 -0.02244665 -0.07873304  0.06086015
  -0.01936857  0.1441869  -0.07152238  0.05178651 -0.07310975  0.0756605
  -0.07636666 -0.02222138  0.08827626  0.01875444  0.07123724 -0.13280688
  -0.18677446  0.01885005 -0.04804312  0.09744111  0.09096614 -0.09655056
   0.10864941  0.02182459  0.001706    0.07381176 -0.02254677 -0.09899123
   0.08367664 -0.04289391  0.03610963 -0.06729765 -0.07206324  0.05108833
   0.01404119 -0.01851514 -0.07990569  0.02743296  0.13616279  0.04765782
   0.05323658 -0.10439634 -0.02400372 -0.1251528  -0.01880043 -0.06965452
  -0.02978937  0.04964954 -0.0106304   0.06644735 -0.02026555 -0.06923706
   0.02933041  0.04460133  0.06829478 -0.15765561 -0.06928442  0.02000662
   0.0302745  -0.00334856  0.07331812 -0.06925613  0.09303802  0.02123015
   0.14457282  0.04339447  0.12530462 -0.05721438  0.09090067 -0.02293647
  -0.06254495 -0.01397484  0.03710766  0.07959849  0.02239796  0.06988215
   0.14331575 -0.0641287  -0.10236865  0.02045701  0.05089097  0.05987579
  -0.05053947 -0.06185319 -0.03301776  0.04744964 -0.14790834 -0.02372211
   0.04589672  0.00492284 -0.01922659 -0.03604306 -0.00351229 -0.05391562
  -0.06342106 -0.07823765 -0.08212152 -0.034112  ]]

Layer 2:
[0. 0. 0. 0. 0. 0. 0. 0. 0. 0. 0. 0. 0. 0. 0. 0. 0. 0. 0. 0. 0. 0. 0. 0.
 0. 0. 0. 0. 0. 0. 0. 0. 0. 0. 0. 0. 0. 0. 0. 0. 0. 0. 0. 0. 0. 0. 0. 0.
 0. 0. 0. 0. 0. 0. 0. 0. 0. 0. 0. 0. 0. 0. 0. 0. 0. 0. 0. 0. 0. 0. 0. 0.
 0. 0. 0. 0. 0. 0. 0. 0. 0. 0. 0. 0. 0. 0. 0. 0. 0. 0. 0. 0. 0. 0. 0. 0.
 0. 0. 0. 0.]

Layer 3:
[[ 1.0472786 ]
 [-0.09147981]
 [-0.3828058 ]
 [-3.018241  ]
 [-0.43546197]
 [ 1.0153947 ]
 [-3.026147  ]
 [ 0.6698357 ]
 [ 0.5057654 ]
 [ 0.11030104]
 [ 0.5697674 ]
 [ 0.67206323]
 [ 0.8450427 ]
 [-2.983995  ]
 [ 0.02616367]
 [ 4.948866  ]
 [-1.0989329 ]
 [-0.55079883]
 [-0.68992937]
 [ 3.8589063 ]
 [ 0.45646232]
 [-0.01882599]
 [-0.13575582]
 [ 0.05723978]
 [ 0.49309224]
 [ 4.123286  ]
 [ 1.5863638 ]
 [ 0.07174879]
 [-2.2647693 ]
 [ 1.4372263 ]
 [ 0.07131318]
 [ 0.2234698 ]
 [ 1.4241061 ]
 [ 0.210504  ]
 [-0.66128457]
 [-0.1294654 ]
 [ 3.8852224 ]
 [-0.8666547 ]
 [ 0.21542056]
 [ 0.9412578 ]
 [ 1.4620882 ]
 [-0.04310442]
 [-1.0448093 ]
 [ 0.08223029]
 [-1.6821029 ]
 [-0.43306425]
 [-6.477176  ]
 [-0.07690752]
 [-1.5684744 ]
 [ 0.35789204]
 [-4.944524  ]
 [-0.34747866]
 [-0.76300293]
 [-0.03451984]
 [ 3.3372393 ]
 [-0.77462065]
 [ 0.43240556]
 [-0.9867738 ]
 [ 0.52250075]
 [ 2.6570942 ]
 [ 4.30853   ]
 [-3.9396374 ]
 [-0.65494686]
 [ 2.0360417 ]
 [-0.1571894 ]
 [ 0.87611204]
 [ 0.17235038]
 [ 1.6520394 ]
 [ 0.44789863]
 [ 1.7425706 ]
 [-0.46542987]
 [-5.5266576 ]
 [-0.34013724]
 [-3.417124  ]
 [ 0.06411152]
 [ 0.46926603]
 [ 2.1565006 ]
 [ 1.457255  ]
 [ 0.7644206 ]
 [ 0.2750211 ]
 [-0.51571745]
 [ 3.5224257 ]
 [ 0.6554221 ]
 [ 0.44517392]
 [-0.45975313]
 [-1.8096148 ]
 [-1.8336776 ]
 [-0.94285434]
 [ 0.93628466]
 [-3.8819501 ]
 [ 0.59468997]
 [ 2.7576246 ]
 [-6.1222568 ]
 [-0.74725294]
 [-1.4188797 ]
 [-1.8542737 ]
 [ 0.46215728]
 [ 1.1769811 ]
 [-1.3564117 ]
 [-0.4668583 ]]

Layer 4:
[0.02509467]



Entrenamiento 5:
------------------------------------------------------------------------

Layer 0:
[[ 0.          0.03509343  0.         ... -0.05011819  0.07065854
   0.05965867]
 [-0.03687321 -0.00519279 -0.020889   ...  0.         -0.00392636
   0.04074093]
 [ 0.00132696  0.         -0.00590438 ...  0.          0.07571591
   0.04640056]
 ...
 [ 0.         -0.02839047  0.01265497 ...  0.05806368  0.
   0.00038061]
 [-0.04519086  0.04606658  0.         ...  0.01023902  0.02723756
   0.05179845]
 [ 0.         -0.01767399 -0.03894872 ... -0.03250933  0.10191708
   0.        ]]

Layer 1:
[[ 0.00237301  0.1060982  -0.01135831 -0.02244665 -0.07873304  0.06086015
  -0.01936857  0.1441869  -0.07152238  0.05178651 -0.07310975  0.0756605
  -0.07636666 -0.02222138  0.08827626  0.01875444  0.07123724 -0.13280688
  -0.18677446  0.01885005 -0.04804312  0.09744111  0.09096614 -0.09655056
   0.10864941  0.02182459  0.001706    0.07381176 -0.02254677 -0.09899123
   0.08367664 -0.04289391  0.03610963 -0.06729765 -0.07206324  0.05108833
   0.01404119 -0.01851514 -0.07990569  0.02743296  0.13616279  0.04765782
   0.05323658 -0.10439634 -0.02400372 -0.1251528  -0.01880043 -0.06965452
  -0.02978937  0.04964954 -0.0106304   0.06644735 -0.02026555 -0.06923706
   0.02933041  0.04460133  0.06829478 -0.15765561 -0.06928442  0.02000662
   0.0302745  -0.00334856  0.07331812 -0.06925613  0.09303802  0.02123015
   0.14457282  0.04339447  0.12530462 -0.05721438  0.09090067 -0.02293647
  -0.06254495 -0.01397484  0.03710766  0.07959849  0.02239796  0.06988215
   0.14331575 -0.0641287  -0.10236865  0.02045701  0.05089097  0.05987579
  -0.05053947 -0.06185319 -0.03301776  0.04744964 -0.14790834 -0.02372211
   0.04589672  0.00492284 -0.01922659 -0.03604306 -0.00351229 -0.05391562
  -0.06342106 -0.07823765 -0.08212152 -0.034112  ]]

Layer 2:
[0. 0. 0. 0. 0. 0. 0. 0. 0. 0. 0. 0. 0. 0. 0. 0. 0. 0. 0. 0. 0. 0. 0. 0.
 0. 0. 0. 0. 0. 0. 0. 0. 0. 0. 0. 0. 0. 0. 0. 0. 0. 0. 0. 0. 0. 0. 0. 0.
 0. 0. 0. 0. 0. 0. 0. 0. 0. 0. 0. 0. 0. 0. 0. 0. 0. 0. 0. 0. 0. 0. 0. 0.
 0. 0. 0. 0. 0. 0. 0. 0. 0. 0. 0. 0. 0. 0. 0. 0. 0. 0. 0. 0. 0. 0. 0. 0.
 0. 0. 0. 0.]

Layer 3:
[[ 3.5827432e+00]
 [-1.2663120e-01]
 [-1.7661096e+00]
 [-4.4754977e+00]
 [-7.0663542e-04]
 [ 9.7661656e-01]
 [-4.5766644e+00]
 [ 5.4356742e-01]
 [ 1.0863117e+00]
 [-9.1623443e-01]
 [ 7.7434015e-01]
 [ 9.4593811e-01]
 [ 1.2903930e+00]
 [-4.2613535e+00]
 [ 6.4311437e-02]
 [ 7.4102168e+00]
 [-1.1847607e+00]
 [-9.2784953e-01]
 [-1.3351059e+00]
 [ 6.4756293e+00]
 [ 7.6981515e-01]
 [-3.2332534e-01]
 [-4.1852996e-01]
 [-1.2873155e-01]
 [-2.7668899e-02]
 [ 5.2443228e+00]
 [ 3.4515810e+00]
 [ 3.5604611e-02]
 [-2.8738232e+00]
 [ 1.7266587e+00]
 [ 3.0601043e-01]
 [ 1.2528259e-01]
 [ 1.4732567e+00]
 [-7.8322835e-02]
 [-2.6229292e-01]
 [ 8.3872929e-02]
 [ 6.1969371e+00]
 [-1.3011849e+00]
 [ 1.2903543e+00]
 [ 1.1160581e+00]
 [ 1.8310833e+00]
 [-8.1168008e-01]
 [-9.9498868e-01]
 [-1.0423919e-02]
 [-2.1032939e+00]
 [-3.9041755e-01]
 [-1.0444092e+01]
 [ 2.6505342e-01]
 [-1.8171272e+00]
 [-3.1857607e-01]
 [-8.2990570e+00]
 [-6.4548802e-01]
 [-9.1612715e-01]
 [ 3.4851767e-02]
 [ 4.3200932e+00]
 [-1.1664170e+00]
 [ 9.8188937e-01]
 [-1.7314636e+00]
 [ 6.3772714e-01]
 [ 3.8927078e+00]
 [ 5.6156812e+00]
 [-6.7588120e+00]
 [-8.4435189e-01]
 [ 2.1504908e+00]
 [-2.6213661e-01]
 [ 9.3599916e-01]
 [ 4.0289384e-01]
 [ 1.1271126e+00]
 [ 8.2908553e-01]
 [ 2.3629920e+00]
 [-1.0167611e+00]
 [-6.9705429e+00]
 [ 6.1213994e-01]
 [-5.5210652e+00]
 [-1.1392256e-02]
 [ 4.6103323e-01]
 [ 2.7173123e+00]
 [ 2.6039127e-01]
 [ 7.2415340e-01]
 [ 4.4252309e-01]
 [ 2.3033127e-01]
 [ 4.4739656e+00]
 [-5.4251587e-01]
 [ 5.0861615e-01]
 [-1.8703821e-01]
 [-7.1530211e-01]
 [-1.3860797e+00]
 [-1.0853223e+00]
 [ 1.1864101e+00]
 [-5.4473476e+00]
 [ 4.6977746e-01]
 [ 4.7104449e+00]
 [-9.0867615e+00]
 [-1.0570593e+00]
 [-4.5472226e+00]
 [-1.2440274e+00]
 [ 1.3269411e+00]
 [ 9.5620215e-01]
 [-1.6214510e+00]
 [-4.9039686e-01]]

Layer 4:
[0.15303683]



Entrenamiento 5 WITH NO CONSENSUS:
------------------------------------------------------------------------

Layer 0:
[[-0.         -0.         -0.         ... -0.         -0.
   0.24161111]
 [-0.1493325  -0.         -0.08459821 ... -0.         -0.
  -0.        ]
 [-0.          0.         -0.02391209 ...  0.          0.30664125
   0.18791725]
 ...
 [-0.          0.          0.         ...  0.          0.
   0.1340092 ]
 [-0.          0.         -0.         ...  0.04146692  0.11030919
  -0.        ]
 [-0.         -0.03993638 -0.         ... -0.          0.30546403
   0.        ]]

Layer 1:
[[-1.43097773e-01  2.27002621e-01 -1.33113205e-01  2.33361423e-02
  -2.36644849e-01 -1.80684835e-01  4.61797714e-02  4.21446562e-03
   6.59211278e-02  9.79998410e-02 -4.83569354e-02  2.16743946e-01
   8.30713212e-02  1.22268051e-01  7.38388300e-02 -1.35230005e-01
  -4.31812555e-02 -1.40722737e-01 -1.34264216e-01 -2.07370311e-01
   1.00135505e-02  1.53041929e-01 -4.11615670e-02 -1.69170290e-01
   2.17268467e-01  7.95356929e-02  3.49870920e-02 -1.43453866e-01
   4.90196347e-02 -1.65300548e-01  1.51219994e-01 -2.06535503e-01
   1.50444686e-01 -8.85593295e-02 -1.26455843e-01  2.19705909e-01
  -2.85028815e-02  4.40543592e-02  1.05705380e-01 -8.80149454e-02
   1.41319931e-01  2.32270926e-01 -6.12996519e-03  1.71193808e-01
   1.12965703e-04 -2.23104268e-01  2.95698345e-02 -2.43444070e-01
   1.37314022e-01  2.07742274e-01 -2.20985621e-01 -8.32204819e-02
   7.90964961e-02 -1.34374201e-03 -2.04435438e-01  2.09718227e-01
  -1.42612904e-01 -2.35538483e-01 -2.01704070e-01 -2.62408108e-02
   4.51714396e-02 -1.60547152e-01 -4.32003140e-02  2.59990096e-02
   1.46002144e-01  3.04854512e-02  2.31924236e-01  1.33523941e-01
  -3.18187326e-02  1.13775134e-02  2.37017393e-01 -1.86670274e-02
  -1.42841399e-01  2.11323112e-01 -2.73990631e-03  5.44842780e-02
  -9.06000584e-02  6.77803755e-02  1.26441717e-02 -1.54971331e-01
  -1.05483040e-01  8.99592042e-03  1.38625771e-01  1.31307095e-01
   1.16807103e-01 -7.39899129e-02  1.01306468e-01 -1.37941390e-01
  -2.43415013e-01  7.24548101e-02  1.25765830e-01 -7.19965994e-02
  -6.48689270e-02 -1.80190727e-01  6.89341724e-02 -3.41317654e-02
   7.17190504e-02 -1.44604459e-01 -2.39844128e-01  1.21149063e-01]]

Layer 2:
[0. 0. 0. 0. 0. 0. 0. 0. 0. 0. 0. 0. 0. 0. 0. 0. 0. 0. 0. 0. 0. 0. 0. 0.
 0. 0. 0. 0. 0. 0. 0. 0. 0. 0. 0. 0. 0. 0. 0. 0. 0. 0. 0. 0. 0. 0. 0. 0.
 0. 0. 0. 0. 0. 0. 0. 0. 0. 0. 0. 0. 0. 0. 0. 0. 0. 0. 0. 0. 0. 0. 0. 0.
 0. 0. 0. 0. 0. 0. 0. 0. 0. 0. 0. 0. 0. 0. 0. 0. 0. 0. 0. 0. 0. 0. 0. 0.
 0. 0. 0. 0.]

Layer 3:
[[-2.96253376e-02]
 [ 7.02196479e-01]
 [-2.93472230e-01]
 [ 5.08882523e+00]
 [ 3.17467928e-01]
 [ 3.17735612e-01]
 [ 1.68191326e+00]
 [ 1.49172287e+01]
 [ 1.67007232e+00]
 [-2.54553914e-01]
 [-1.96976876e+00]
 [-1.27957034e+00]
 [-6.22718632e-01]
 [ 8.70905101e-01]
 [ 1.49119401e+00]
 [-6.79853737e-01]
 [-1.28480005e+00]
 [ 8.77672911e-01]
 [-2.11773181e+00]
 [ 1.48152339e+00]
 [ 1.85770988e+01]
 [ 1.41668153e+00]
 [-2.11949062e+00]
 [-1.93346334e+00]
 [ 9.52449977e-01]
 [-2.86321878e+00]
 [ 2.21599007e+00]
 [ 2.29399264e-01]
 [ 1.43320096e+00]
 [-1.83462247e-01]
 [-5.20927608e-01]
 [-2.32689524e+00]
 [ 1.80667007e+00]
 [-1.57945466e+00]
 [ 1.02082066e-01]
 [ 7.39803851e-01]
 [-1.30712929e+01]
 [ 5.49665868e-01]
 [ 3.08354545e+00]
 [ 1.01203597e+00]
 [ 2.09766984e+00]
 [-3.05408746e-01]
 [-1.71230717e+01]
 [-8.50962579e-01]
 [ 7.08538580e+00]
 [ 1.04619861e+00]
 [ 1.61844707e+00]
 [ 1.73761952e+00]
 [-1.34599257e+00]
 [ 1.43057358e+00]
 [-8.83151412e-01]
 [-8.93008411e-01]
 [ 2.84285188e+00]
 [-6.28148794e+00]
 [-2.87705749e-01]
 [ 4.33669776e-01]
 [-1.58999038e+00]
 [-3.31683183e+00]
 [-5.31321943e-01]
 [-3.17560267e+00]
 [ 6.97066247e-01]
 [-3.40705931e-01]
 [-2.35182214e+00]
 [ 2.48870063e+00]
 [ 9.25120234e-01]
 [ 2.61144781e+00]
 [-3.72392118e-01]
 [-2.78360516e-01]
 [-3.46832871e+00]
 [ 7.87748575e+00]
 [-7.26244748e-01]
 [-2.09957561e+01]
 [-1.45875335e+00]
 [ 5.03328979e-01]
 [-1.83962326e+01]
 [-5.23021996e-01]
 [-6.73387647e-01]
 [ 6.39839023e-02]
 [ 7.65493965e+00]
 [-8.96900520e-03]
 [-9.02228653e-01]
 [ 1.38389997e+01]
 [-1.08532774e+00]
 [ 9.30379987e-01]
 [ 2.35288715e+00]
 [-3.15332532e+00]
 [ 1.86832166e+00]
 [ 4.71634895e-01]
 [ 1.29499018e+00]
 [ 1.90754688e+00]
 [ 1.02249718e+00]
 [-2.43073559e+00]
 [ 1.31264305e+00]
 [-1.51447248e+00]
 [-2.18514848e+00]
 [-9.58317280e+00]
 [ 2.73875070e+00]
 [ 8.95319164e-01]
 [ 1.67365336e+00]
 [-5.59858680e-01]]

Layer 4:
[-0.07563776]



Consenso 5:
------------------------------------------------------------------------

Layer 0:
[[ 0.          0.03509261  0.         ... -0.05011819  0.07066182
   0.05965728]
 [-0.03687235 -0.00519267 -0.02088852 ...  0.         -0.00392627
   0.04074015]
 [ 0.00132703  0.         -0.00590424 ...  0.          0.07571416
   0.04639949]
 ...
 [ 0.         -0.02839292  0.01265556 ...  0.05806233  0.
   0.00037984]
 [-0.04519086  0.04606872  0.         ...  0.01023878  0.02723693
   0.05179845]
 [ 0.         -0.01767412 -0.03894782 ... -0.03251084  0.10191472
   0.        ]]

Layer 1:
[[ 0.00237209  0.10610013 -0.0113559  -0.02244788 -0.07873251  0.06086022
  -0.01936627  0.14418872 -0.07152332  0.05178761 -0.07311111  0.07566011
  -0.07636792 -0.02221989  0.08827822  0.01875766  0.07123989 -0.13280728
  -0.18677507  0.01885002 -0.0480458   0.09743945  0.09096868 -0.09654812
   0.10864627  0.02182651  0.00170283  0.07381339 -0.02254726 -0.09899158
   0.08367453 -0.04289474  0.03610787 -0.06729543 -0.07206504  0.05108429
   0.01404307 -0.01851323 -0.0799085   0.0274362   0.13616127  0.04765718
   0.05323369 -0.10439818 -0.02400132 -0.12515189 -0.01880172 -0.06965529
  -0.02978925  0.0496488  -0.01062872  0.06644768 -0.02026715 -0.06923543
   0.02933278  0.04459893  0.06829622 -0.15765671 -0.06928281  0.02000813
   0.03027336 -0.00334896  0.07332112 -0.06925771  0.09303766  0.02123201
   0.14457202  0.04339113  0.12530626 -0.05721634  0.09090076 -0.0229359
  -0.06254503 -0.01397631  0.03711049  0.07959592  0.02239856  0.06988322
   0.14331628 -0.0641299  -0.10236999  0.02045453  0.05088814  0.05987667
  -0.05053946 -0.06185392 -0.03301786  0.04745229 -0.14790528 -0.02372184
   0.04589669  0.00492357 -0.01922714 -0.0360424  -0.00351576 -0.05391214
  -0.06342251 -0.07823692 -0.0821207  -0.03411515]]

Layer 2:
[0. 0. 0. 0. 0. 0. 0. 0. 0. 0. 0. 0. 0. 0. 0. 0. 0. 0. 0. 0. 0. 0. 0. 0.
 0. 0. 0. 0. 0. 0. 0. 0. 0. 0. 0. 0. 0. 0. 0. 0. 0. 0. 0. 0. 0. 0. 0. 0.
 0. 0. 0. 0. 0. 0. 0. 0. 0. 0. 0. 0. 0. 0. 0. 0. 0. 0. 0. 0. 0. 0. 0. 0.
 0. 0. 0. 0. 0. 0. 0. 0. 0. 0. 0. 0. 0. 0. 0. 0. 0. 0. 0. 0. 0. 0. 0. 0.
 0. 0. 0. 0.]

Layer 3:
[[ 1.7220345 ]
 [-0.06246899]
 [-0.8754311 ]
 [-3.480347  ]
 [-0.26098964]
 [ 1.0089991 ]
 [-3.5257227 ]
 [ 0.6675353 ]
 [ 0.7182275 ]
 [-0.44458702]
 [ 0.60765535]
 [ 0.80879325]
 [ 1.0055238 ]
 [-3.3309186 ]
 [ 0.08395276]
 [ 5.8131638 ]
 [-1.0801778 ]
 [-0.7474263 ]
 [-0.9582442 ]
 [ 4.7880983 ]
 [ 0.7042727 ]
 [-0.11990052]
 [-0.220172  ]
 [-0.05949637]
 [ 0.31063166]
 [ 4.4862113 ]
 [ 2.0262663 ]
 [ 0.09115081]
 [-2.3900406 ]
 [ 1.4951938 ]
 [ 0.2133417 ]
 [ 0.18521604]
 [ 1.3602448 ]
 [ 0.0559959 ]
 [-0.47137564]
 [-0.03452682]
 [ 4.96935   ]
 [-0.96699566]
 [ 0.69937885]
 [ 0.9591739 ]
 [ 1.6455052 ]
 [-0.5161383 ]
 [-0.9720682 ]
 [ 0.01554413]
 [-1.7157595 ]
 [-0.46362817]
 [-8.009487  ]
 [ 0.02800532]
 [-1.696504  ]
 [ 0.03565723]
 [-6.203214  ]
 [-0.45099804]
 [-0.7422918 ]
 [-0.04433052]
 [ 3.619168  ]
 [-0.9634114 ]
 [ 0.6948649 ]
 [-1.2892338 ]
 [ 0.53951895]
 [ 3.0598063 ]
 [ 4.673077  ]
 [-4.5034137 ]
 [-0.7159369 ]
 [ 2.0565555 ]
 [-0.14463396]
 [ 0.88994074]
 [ 0.29892978]
 [ 1.2642862 ]
 [ 0.63815266]
 [ 2.018384  ]
 [-0.65393484]
 [-6.0437098 ]
 [ 0.07251209]
 [-4.0497246 ]
 [-0.02013097]
 [ 0.5050991 ]
 [ 2.2934945 ]
 [ 0.80447525]
 [ 0.81113344]
 [ 0.3461984 ]
 [-0.26249343]
 [ 3.7593768 ]
 [-0.01016737]
 [ 0.49757004]
 [-0.3596926 ]
 [-1.1406009 ]
 [-1.5308112 ]
 [-0.98431176]
 [ 0.9651569 ]
 [-4.356357  ]
 [ 0.5242204 ]
 [ 3.3018107 ]
 [-7.247344  ]
 [-0.90139234]
 [-2.1060429 ]
 [-1.3963052 ]
 [ 0.87212336]
 [ 1.0590698 ]
 [-1.4920123 ]
 [-0.4559129 ]]

Layer 4:
[0.0301081]



