Pesos inciales:
------------------------------------------------------------------------

Layer 0:
[[ 0.         -0.         -0.         ...  0.         -0.
  -0.        ]
 [-0.         -0.         -0.         ...  0.          0.05082037
   0.091976  ]
 [ 0.          0.04015364  0.         ...  0.          0.
   0.        ]
 ...
 [ 0.         -0.         -0.         ... -0.         -0.
  -0.        ]
 [-0.         -0.          0.         ...  0.         -0.
   0.        ]
 [-0.          0.          0.         ... -0.          0.
  -0.        ]]

Layer 1:
[[-0.18967384 -0.02734369 -0.13468516  0.1868617   0.10087603 -0.09638031
  -0.00200313 -0.07605207  0.04874697 -0.11016285 -0.10870869  0.09570548
   0.1927534   0.20267212  0.2099717  -0.2254384   0.01820338 -0.18933053
  -0.20620857 -0.11397213 -0.02449982 -0.13892555 -0.15874596 -0.08825152
   0.19410676 -0.14976409 -0.16985413  0.05679923 -0.23050807 -0.20760602
  -0.23698473 -0.09203126  0.20280993  0.17894024 -0.23883109 -0.20144263
  -0.2146396  -0.09892143 -0.0588195   0.22112712  0.02154768 -0.09626095
   0.22478366  0.02115637 -0.11719453  0.16019413 -0.10968089 -0.13521072
   0.15942249 -0.21668747 -0.05892794 -0.10747571 -0.00909361  0.12430581
   0.10458413  0.17102444 -0.01117402  0.05753335  0.05751011  0.08837593
  -0.09040882 -0.1469903  -0.16500103 -0.05289625  0.01497102 -0.16902083
  -0.09263957  0.13149959  0.04647601  0.1532411  -0.10858028  0.23964363
  -0.19103032  0.15220305 -0.03297222  0.19718063 -0.10861763  0.24056888
   0.11422437  0.14231858  0.15148696 -0.12166265  0.11440483  0.13188574
   0.12830243 -0.13343742  0.12975064 -0.06602044 -0.04912557 -0.158963
  -0.04631202  0.15831468 -0.02703844 -0.10864751 -0.15726024 -0.01802044
  -0.0086325   0.10590068 -0.24127004 -0.02963029]]

Layer 2:
[0. 0. 0. 0. 0. 0. 0. 0. 0. 0. 0. 0. 0. 0. 0. 0. 0. 0. 0. 0. 0. 0. 0. 0.
 0. 0. 0. 0. 0. 0. 0. 0. 0. 0. 0. 0. 0. 0. 0. 0. 0. 0. 0. 0. 0. 0. 0. 0.
 0. 0. 0. 0. 0. 0. 0. 0. 0. 0. 0. 0. 0. 0. 0. 0. 0. 0. 0. 0. 0. 0. 0. 0.
 0. 0. 0. 0. 0. 0. 0. 0. 0. 0. 0. 0. 0. 0. 0. 0. 0. 0. 0. 0. 0. 0. 0. 0.
 0. 0. 0. 0.]

Layer 3:
[[ 0.22911888]
 [-0.14582548]
 [ 0.1562376 ]
 [ 0.06409773]
 [ 0.11654037]
 [ 0.04957232]
 [-0.05642599]
 [ 0.20014626]
 [ 0.11706993]
 [ 0.09176779]
 [ 0.077986  ]
 [ 0.0374071 ]
 [-0.19366466]
 [ 0.1250391 ]
 [ 0.1491063 ]
 [ 0.15251121]
 [-0.14811817]
 [-0.22077352]
 [ 0.02975017]
 [-0.05706678]
 [ 0.08022627]
 [-0.00625437]
 [ 0.09237999]
 [-0.15202558]
 [ 0.14656925]
 [ 0.03350386]
 [-0.10095942]
 [-0.1734961 ]
 [ 0.04179701]
 [-0.10563099]
 [-0.20902833]
 [ 0.02288237]
 [ 0.03374487]
 [ 0.10712856]
 [-0.09182131]
 [-0.10675211]
 [-0.05694799]
 [ 0.20467299]
 [ 0.19185022]
 [ 0.19288945]
 [-0.00560337]
 [ 0.12673941]
 [-0.03653584]
 [-0.22828907]
 [ 0.22927538]
 [-0.18968907]
 [ 0.20437977]
 [ 0.13254786]
 [-0.01969013]
 [ 0.05431339]
 [-0.15970898]
 [-0.14454532]
 [ 0.08075112]
 [-0.0335137 ]
 [ 0.00929421]
 [-0.05221443]
 [ 0.06055185]
 [-0.00359403]
 [ 0.22261399]
 [ 0.04968801]
 [ 0.00907037]
 [ 0.23534393]
 [ 0.11602989]
 [-0.11469235]
 [-0.11611895]
 [ 0.19166279]
 [-0.17519206]
 [ 0.06919676]
 [ 0.00407751]
 [ 0.18709716]
 [-0.10116275]
 [ 0.03568867]
 [-0.07317828]
 [ 0.07144693]
 [ 0.14566422]
 [ 0.21968609]
 [-0.13872856]
 [ 0.05565166]
 [ 0.16579011]
 [ 0.19811273]
 [ 0.16615227]
 [-0.19410816]
 [ 0.04208571]
 [-0.15815085]
 [-0.00972654]
 [-0.14147149]
 [-0.04069465]
 [ 0.23067021]
 [ 0.14488205]
 [ 0.0814431 ]
 [-0.10589772]
 [ 0.09241793]
 [ 0.11698765]
 [-0.0653265 ]
 [-0.06330925]
 [-0.05702139]
 [ 0.02665165]
 [ 0.0304389 ]
 [-0.05230519]
 [-0.03619683]]

Layer 4:
[0.]



Entrenamiento 0:
------------------------------------------------------------------------

Layer 0:
[[ 0.         -0.         -0.         ...  0.         -0.
  -0.        ]
 [-0.         -0.         -0.         ...  0.          0.05082037
   0.091976  ]
 [ 0.          0.04015364  0.         ...  0.          0.
   0.        ]
 ...
 [ 0.         -0.         -0.         ... -0.         -0.
  -0.        ]
 [-0.         -0.          0.         ...  0.         -0.
   0.        ]
 [-0.          0.          0.         ... -0.          0.
  -0.        ]]

Layer 1:
[[-0.18967384 -0.02734369 -0.13468516  0.1868617   0.10087603 -0.09638031
  -0.00200313 -0.07605207  0.04874697 -0.11016285 -0.10870869  0.09570548
   0.1927534   0.20267212  0.2099717  -0.2254384   0.01820338 -0.18933053
  -0.20620857 -0.11397213 -0.02449982 -0.13892555 -0.15874596 -0.08825152
   0.19410676 -0.14976409 -0.16985413  0.05679923 -0.23050807 -0.20760602
  -0.23698473 -0.09203126  0.20280993  0.17894024 -0.23883109 -0.20144263
  -0.2146396  -0.09892143 -0.0588195   0.22112712  0.02154768 -0.09626095
   0.22478366  0.02115637 -0.11719453  0.16019413 -0.10968089 -0.13521072
   0.15942249 -0.21668747 -0.05892794 -0.10747571 -0.00909361  0.12430581
   0.10458413  0.17102444 -0.01117402  0.05753335  0.05751011  0.08837593
  -0.09040882 -0.1469903  -0.16500103 -0.05289625  0.01497102 -0.16902083
  -0.09263957  0.13149959  0.04647601  0.1532411  -0.10858028  0.23964363
  -0.19103032  0.15220305 -0.03297222  0.19718063 -0.10861763  0.24056888
   0.11422437  0.14231858  0.15148696 -0.12166265  0.11440483  0.13188574
   0.12830243 -0.13343742  0.12975064 -0.06602044 -0.04912557 -0.158963
  -0.04631202  0.15831468 -0.02703844 -0.10864751 -0.15726024 -0.01802044
  -0.0086325   0.10590068 -0.24127004 -0.02963029]]

Layer 2:
[0. 0. 0. 0. 0. 0. 0. 0. 0. 0. 0. 0. 0. 0. 0. 0. 0. 0. 0. 0. 0. 0. 0. 0.
 0. 0. 0. 0. 0. 0. 0. 0. 0. 0. 0. 0. 0. 0. 0. 0. 0. 0. 0. 0. 0. 0. 0. 0.
 0. 0. 0. 0. 0. 0. 0. 0. 0. 0. 0. 0. 0. 0. 0. 0. 0. 0. 0. 0. 0. 0. 0. 0.
 0. 0. 0. 0. 0. 0. 0. 0. 0. 0. 0. 0. 0. 0. 0. 0. 0. 0. 0. 0. 0. 0. 0. 0.
 0. 0. 0. 0.]

Layer 3:
[[ 0.25278488]
 [-4.9802356 ]
 [-0.13123322]
 [ 0.7763047 ]
 [ 1.2972779 ]
 [-1.644387  ]
 [-0.37172738]
 [-0.0160575 ]
 [ 1.0277519 ]
 [-0.6729563 ]
 [-0.22905815]
 [ 0.24929625]
 [-0.14504755]
 [ 0.07492221]
 [ 0.07458771]
 [ 0.00625642]
 [ 3.5405667 ]
 [-0.28791636]
 [ 0.13293247]
 [-0.4421557 ]
 [-1.8341243 ]
 [-0.07429964]
 [-0.75720835]
 [-0.35308117]
 [ 0.10643798]
 [-0.29385018]
 [-1.2455074 ]
 [ 2.809002  ]
 [ 0.0539502 ]
 [-0.00689077]
 [-0.24570613]
 [-0.8565157 ]
 [-0.05443736]
 [ 0.6845172 ]
 [-0.2593463 ]
 [-0.25812554]
 [-0.52777845]
 [ 0.16008744]
 [-1.1319779 ]
 [ 0.15939185]
 [ 0.82304907]
 [-0.14500006]
 [-0.04536304]
 [ 4.6295443 ]
 [ 0.1746418 ]
 [-0.08839799]
 [-0.17569467]
 [ 0.15921848]
 [ 1.567319  ]
 [ 0.0969599 ]
 [-3.6541584 ]
 [-0.37261444]
 [-2.1304889 ]
 [ 0.18535838]
 [ 0.7740968 ]
 [-0.01769135]
 [-4.173135  ]
 [ 2.9216518 ]
 [ 1.1098347 ]
 [ 1.2933595 ]
 [-2.5090542 ]
 [ 0.14112104]
 [ 0.11860708]
 [-1.0073136 ]
 [ 1.068176  ]
 [ 0.22263905]
 [-1.1595255 ]
 [ 0.04608086]
 [ 0.69061065]
 [ 0.29916796]
 [-0.46469563]
 [-0.10740209]
 [-0.11329765]
 [ 0.17019057]
 [-3.4945738 ]
 [ 0.2833309 ]
 [-0.2174281 ]
 [-0.01013416]
 [ 0.5955643 ]
 [ 0.2636842 ]
 [ 0.38923046]
 [-0.41766703]
 [ 0.6417285 ]
 [-0.11911201]
 [ 0.31549618]
 [-0.18110795]
 [ 0.2801012 ]
 [-1.7183232 ]
 [-0.56249076]
 [ 0.0393425 ]
 [-2.2036319 ]
 [ 1.1681399 ]
 [-4.192837  ]
 [-0.2860556 ]
 [-0.02496154]
 [-0.13449068]
 [-2.4067397 ]
 [ 0.01862704]
 [ 0.04458256]
 [-0.15558796]]

Layer 4:
[0.19173625]



Entrenamiento 0 WITH NO CONSENSUS:
------------------------------------------------------------------------

Layer 0:
[[ 0.         -0.         -0.         ...  0.         -0.
  -0.        ]
 [-0.         -0.         -0.         ...  0.          0.05082037
   0.091976  ]
 [ 0.          0.04015364  0.         ...  0.          0.
   0.        ]
 ...
 [ 0.         -0.         -0.         ... -0.         -0.
  -0.        ]
 [-0.         -0.          0.         ...  0.         -0.
   0.        ]
 [-0.          0.          0.         ... -0.          0.
  -0.        ]]

Layer 1:
[[-0.18967384 -0.02734369 -0.13468516  0.1868617   0.10087603 -0.09638031
  -0.00200313 -0.07605207  0.04874697 -0.11016285 -0.10870869  0.09570548
   0.1927534   0.20267212  0.2099717  -0.2254384   0.01820338 -0.18933053
  -0.20620857 -0.11397213 -0.02449982 -0.13892555 -0.15874596 -0.08825152
   0.19410676 -0.14976409 -0.16985413  0.05679923 -0.23050807 -0.20760602
  -0.23698473 -0.09203126  0.20280993  0.17894024 -0.23883109 -0.20144263
  -0.2146396  -0.09892143 -0.0588195   0.22112712  0.02154768 -0.09626095
   0.22478366  0.02115637 -0.11719453  0.16019413 -0.10968089 -0.13521072
   0.15942249 -0.21668747 -0.05892794 -0.10747571 -0.00909361  0.12430581
   0.10458413  0.17102444 -0.01117402  0.05753335  0.05751011  0.08837593
  -0.09040882 -0.1469903  -0.16500103 -0.05289625  0.01497102 -0.16902083
  -0.09263957  0.13149959  0.04647601  0.1532411  -0.10858028  0.23964363
  -0.19103032  0.15220305 -0.03297222  0.19718063 -0.10861763  0.24056888
   0.11422437  0.14231858  0.15148696 -0.12166265  0.11440483  0.13188574
   0.12830243 -0.13343742  0.12975064 -0.06602044 -0.04912557 -0.158963
  -0.04631202  0.15831468 -0.02703844 -0.10864751 -0.15726024 -0.01802044
  -0.0086325   0.10590068 -0.24127004 -0.02963029]]

Layer 2:
[0. 0. 0. 0. 0. 0. 0. 0. 0. 0. 0. 0. 0. 0. 0. 0. 0. 0. 0. 0. 0. 0. 0. 0.
 0. 0. 0. 0. 0. 0. 0. 0. 0. 0. 0. 0. 0. 0. 0. 0. 0. 0. 0. 0. 0. 0. 0. 0.
 0. 0. 0. 0. 0. 0. 0. 0. 0. 0. 0. 0. 0. 0. 0. 0. 0. 0. 0. 0. 0. 0. 0. 0.
 0. 0. 0. 0. 0. 0. 0. 0. 0. 0. 0. 0. 0. 0. 0. 0. 0. 0. 0. 0. 0. 0. 0. 0.
 0. 0. 0. 0.]

Layer 3:
[[ 2.36023307e-01]
 [-4.97791386e+00]
 [-1.42812818e-01]
 [ 7.72686660e-01]
 [ 1.29068506e+00]
 [-1.63251960e+00]
 [-3.87470484e-01]
 [-3.34618278e-02]
 [ 1.03502154e+00]
 [-6.74427807e-01]
 [-2.43283778e-01]
 [ 2.65670538e-01]
 [-1.27714872e-01]
 [ 9.75423902e-02]
 [ 9.22107175e-02]
 [-3.44204344e-03]
 [ 3.50176859e+00]
 [-3.08657229e-01]
 [ 1.12760663e-01]
 [-4.52800333e-01]
 [-1.82116556e+00]
 [-9.61600691e-02]
 [-7.53512263e-01]
 [-3.70131940e-01]
 [ 1.23747729e-01]
 [-3.03496897e-01]
 [-1.23551512e+00]
 [ 2.78613424e+00]
 [ 3.94343063e-02]
 [-3.58168371e-02]
 [-2.61437804e-01]
 [-8.54904473e-01]
 [-2.60881670e-02]
 [ 6.84024334e-01]
 [-2.70108819e-01]
 [-2.70296097e-01]
 [-5.28332651e-01]
 [ 1.37699962e-01]
 [-1.12710190e+00]
 [ 1.78140447e-01]
 [ 8.34507227e-01]
 [-1.59178048e-01]
 [-3.02725788e-02]
 [ 4.76783037e+00]
 [ 1.50375932e-01]
 [-7.03760684e-02]
 [-1.85756803e-01]
 [ 1.35134712e-01]
 [ 1.55323565e+00]
 [ 7.67094716e-02]
 [-3.63629055e+00]
 [-3.89564514e-01]
 [-2.10668898e+00]
 [ 1.99178770e-01]
 [ 7.75639713e-01]
 [-3.95045965e-04]
 [-4.18259621e+00]
 [ 2.89873338e+00]
 [ 1.11265373e+00]
 [ 1.28519237e+00]
 [-2.48552990e+00]
 [ 1.22132376e-01]
 [ 9.38790292e-02]
 [-1.00860918e+00]
 [ 1.06867671e+00]
 [ 1.97382495e-01]
 [-1.15695620e+00]
 [ 7.10744485e-02]
 [ 6.97632909e-01]
 [ 3.13318938e-01]
 [-4.79238451e-01]
 [-9.16534513e-02]
 [-1.30950138e-01]
 [ 1.85288429e-01]
 [-3.47886467e+00]
 [ 3.02585632e-01]
 [-2.36663133e-01]
 [ 1.10401763e-02]
 [ 6.05268180e-01]
 [ 2.82339573e-01]
 [ 4.00799513e-01]
 [-4.32250887e-01]
 [ 6.48366392e-01]
 [-9.56194103e-02]
 [ 3.25573921e-01]
 [-2.05150485e-01]
 [ 2.89065331e-01]
 [-1.70338523e+00]
 [-5.67692459e-01]
 [ 1.48125645e-02]
 [-2.18695402e+00]
 [ 1.16184866e+00]
 [-4.16307402e+00]
 [-2.98643380e-01]
 [-5.04483990e-02]
 [-1.57068461e-01]
 [-2.37966681e+00]
 [ 4.44491468e-02]
 [ 2.50501484e-02]
 [-1.76562890e-01]]

Layer 4:
[0.22751322]



Consenso 0:
------------------------------------------------------------------------

Layer 0:
[[0. 0. 0. ... 0. 0. 0.]
 [0. 0. 0. ... 0. 0. 0.]
 [0. 0. 0. ... 0. 0. 0.]
 ...
 [0. 0. 0. ... 0. 0. 0.]
 [0. 0. 0. ... 0. 0. 0.]
 [0. 0. 0. ... 0. 0. 0.]]

Layer 1:
[[-0.10788709 -0.04050288 -0.06913026  0.11130063 -0.02324761 -0.01760141
   0.02117728  0.01411964 -0.02598254  0.02743044 -0.08664718  0.07719475
   0.13424586 -0.02604542  0.08825726 -0.0656574  -0.01082813 -0.01198226
  -0.07475417 -0.06085336  0.06498784 -0.06097576 -0.0609544  -0.10594767
   0.02778429  0.01038802  0.05512648 -0.09253868 -0.04328617  0.01906348
  -0.05332122 -0.02590352  0.08664931  0.06853124 -0.13314469 -0.09109053
  -0.06576645 -0.14200428  0.01666877  0.06312189 -0.07937455 -0.03103632
   0.01937761  0.06591405 -0.01563309 -0.01522154  0.01119146 -0.06091078
  -0.05443135 -0.0777944  -0.06531312 -0.11120217 -0.02619856  0.02924467
   0.07102328  0.0164724   0.0099117  -0.01608273  0.05635991 -0.07318839
  -0.06650067 -0.11018943 -0.14464763 -0.06761208 -0.11495917  0.06579836
   0.03104635  0.01096187  0.02130223  0.02657649  0.03464264  0.04246349
  -0.03422507  0.00439493 -0.03015075  0.07375874 -0.09921313 -0.02755658
   0.10943291 -0.0816555   0.04541463 -0.06145008  0.05748538 -0.03097825
   0.08753002  0.01780034  0.07060485 -0.01350456  0.00628462 -0.00263624
  -0.02672622  0.03921702 -0.0467534   0.00092345 -0.09130839 -0.15351374
   0.08237077  0.00984571 -0.0727635  -0.1058217 ]]

Layer 2:
[0. 0. 0. 0. 0. 0. 0. 0. 0. 0. 0. 0. 0. 0. 0. 0. 0. 0. 0. 0. 0. 0. 0. 0.
 0. 0. 0. 0. 0. 0. 0. 0. 0. 0. 0. 0. 0. 0. 0. 0. 0. 0. 0. 0. 0. 0. 0. 0.
 0. 0. 0. 0. 0. 0. 0. 0. 0. 0. 0. 0. 0. 0. 0. 0. 0. 0. 0. 0. 0. 0. 0. 0.
 0. 0. 0. 0. 0. 0. 0. 0. 0. 0. 0. 0. 0. 0. 0. 0. 0. 0. 0. 0. 0. 0. 0. 0.
 0. 0. 0. 0.]

Layer 3:
[[ 0.12530963]
 [-1.3747987 ]
 [-1.0082079 ]
 [ 0.3448439 ]
 [-0.38412085]
 [-1.2611992 ]
 [-0.17085633]
 [-1.1728158 ]
 [ 0.6558286 ]
 [ 0.0110783 ]
 [-0.2975681 ]
 [ 0.6444204 ]
 [ 0.2719504 ]
 [-0.7124989 ]
 [ 0.06965722]
 [-0.05323539]
 [ 1.107643  ]
 [-0.26994577]
 [ 0.8116093 ]
 [-0.1489198 ]
 [-0.5434653 ]
 [-0.11753255]
 [ 1.1693271 ]
 [ 0.31879693]
 [-0.7811246 ]
 [-0.34136003]
 [ 0.28919655]
 [-0.09359683]
 [ 1.0412961 ]
 [ 0.50932527]
 [-0.5812092 ]
 [ 0.35775638]
 [ 0.5626077 ]
 [ 0.32912776]
 [-0.33924288]
 [-0.11872239]
 [ 0.7033634 ]
 [-0.12895618]
 [-0.22004172]
 [-0.37438107]
 [ 0.5774682 ]
 [-0.4023886 ]
 [-0.09667412]
 [ 1.1642822 ]
 [ 0.46274388]
 [-1.8511213 ]
 [ 0.06376073]
 [-0.12945628]
 [ 0.47778738]
 [-0.14944638]
 [-0.8850011 ]
 [-1.1935779 ]
 [-0.92205226]
 [-1.1712542 ]
 [ 0.37819177]
 [-0.45271307]
 [-0.30478343]
 [ 0.5524364 ]
 [-1.2689967 ]
 [ 0.17359471]
 [ 0.15093681]
 [ 0.06814396]
 [-0.5679595 ]
 [ 0.8282145 ]
 [ 0.13460405]
 [ 0.74437976]
 [-0.29469043]
 [-0.94465536]
 [ 0.24813204]
 [-0.41456854]
 [-0.02891313]
 [-0.06036869]
 [-0.4945737 ]
 [ 0.13573681]
 [-0.76947033]
 [ 0.18836729]
 [-0.68023235]
 [-0.13211426]
 [ 1.1196922 ]
 [-0.12533109]
 [-0.37777844]
 [-0.6890752 ]
 [ 0.9621809 ]
 [ 0.05257861]
 [ 0.3874279 ]
 [ 1.1990825 ]
 [-0.03948158]
 [-0.00854857]
 [-0.3663572 ]
 [-0.02640156]
 [-0.5707332 ]
 [ 0.845499  ]
 [-0.9478966 ]
 [-0.03958562]
 [ 0.07397681]
 [-0.07673483]
 [-0.00529122]
 [-0.1963913 ]
 [-0.73374707]
 [-0.59680384]]

Layer 4:
[0.17159277]



Entrenamiento 1:
------------------------------------------------------------------------

Layer 0:
[[0. 0. 0. ... 0. 0. 0.]
 [0. 0. 0. ... 0. 0. 0.]
 [0. 0. 0. ... 0. 0. 0.]
 ...
 [0. 0. 0. ... 0. 0. 0.]
 [0. 0. 0. ... 0. 0. 0.]
 [0. 0. 0. ... 0. 0. 0.]]

Layer 1:
[[-0.10788709 -0.04050288 -0.06913026  0.11130063 -0.02324761 -0.01760141
   0.02117728  0.01411964 -0.02598254  0.02743044 -0.08664718  0.07719475
   0.13424586 -0.02604542  0.08825726 -0.0656574  -0.01082813 -0.01198226
  -0.07475417 -0.06085336  0.06498784 -0.06097576 -0.0609544  -0.10594767
   0.02778429  0.01038802  0.05512648 -0.09253868 -0.04328617  0.01906348
  -0.05332122 -0.02590352  0.08664931  0.06853124 -0.13314469 -0.09109053
  -0.06576645 -0.14200428  0.01666877  0.06312189 -0.07937455 -0.03103632
   0.01937761  0.06591405 -0.01563309 -0.01522154  0.01119146 -0.06091078
  -0.05443135 -0.0777944  -0.06531312 -0.11120217 -0.02619856  0.02924467
   0.07102328  0.0164724   0.0099117  -0.01608273  0.05635991 -0.07318839
  -0.06650067 -0.11018943 -0.14464763 -0.06761208 -0.11495917  0.06579836
   0.03104635  0.01096187  0.02130223  0.02657649  0.03464264  0.04246349
  -0.03422507  0.00439493 -0.03015075  0.07375874 -0.09921313 -0.02755658
   0.10943291 -0.0816555   0.04541463 -0.06145008  0.05748538 -0.03097825
   0.08753002  0.01780034  0.07060485 -0.01350456  0.00628462 -0.00263624
  -0.02672622  0.03921702 -0.0467534   0.00092345 -0.09130839 -0.15351374
   0.08237077  0.00984571 -0.0727635  -0.1058217 ]]

Layer 2:
[0. 0. 0. 0. 0. 0. 0. 0. 0. 0. 0. 0. 0. 0. 0. 0. 0. 0. 0. 0. 0. 0. 0. 0.
 0. 0. 0. 0. 0. 0. 0. 0. 0. 0. 0. 0. 0. 0. 0. 0. 0. 0. 0. 0. 0. 0. 0. 0.
 0. 0. 0. 0. 0. 0. 0. 0. 0. 0. 0. 0. 0. 0. 0. 0. 0. 0. 0. 0. 0. 0. 0. 0.
 0. 0. 0. 0. 0. 0. 0. 0. 0. 0. 0. 0. 0. 0. 0. 0. 0. 0. 0. 0. 0. 0. 0. 0.
 0. 0. 0. 0.]

Layer 3:
[[-3.2038906e-01]
 [-2.2570231e+00]
 [-1.4357569e+00]
 [ 4.1792732e-01]
 [-2.2026229e+00]
 [-2.5770721e+00]
 [ 1.3239735e+00]
 [ 3.9781962e-02]
 [ 1.3698778e-01]
 [ 4.4941335e+00]
 [-8.9687431e-01]
 [ 1.6050828e+00]
 [ 7.5046256e-02]
 [-3.8537211e+00]
 [ 4.9493515e-01]
 [-4.5874509e-01]
 [ 2.2639616e+00]
 [-2.5412388e+00]
 [ 3.1993482e-01]
 [-6.9876099e-01]
 [-5.1104810e-02]
 [-5.8396697e-01]
 [ 6.1885673e-01]
 [-5.4249674e-01]
 [ 2.5743196e+00]
 [ 1.5569899e+00]
 [ 1.2406811e+00]
 [-3.5150126e-01]
 [ 6.2142706e-01]
 [ 3.1830144e+00]
 [-1.2782297e+00]
 [-6.9264102e-01]
 [ 1.3459709e+00]
 [ 4.2008445e-01]
 [-7.3292887e-01]
 [-7.0703906e-01]
 [ 1.6303711e-01]
 [-6.0585481e-01]
 [ 7.1345806e-01]
 [ 4.5466778e-01]
 [ 3.2311253e-02]
 [-1.5371335e+00]
 [ 3.5019176e+00]
 [ 1.8258116e+00]
 [-1.3911781e+00]
 [-2.2844257e+00]
 [-6.4062558e-02]
 [-5.4787195e-01]
 [-2.0219553e-01]
 [-1.2428446e+00]
 [-1.4039260e+00]
 [-2.0406265e+00]
 [-5.2373915e+00]
 [-7.5533563e-01]
 [ 8.7426895e-01]
 [ 3.0673158e+00]
 [-1.5312359e-03]
 [-9.6526998e-01]
 [-7.9535979e-01]
 [-1.9402161e-01]
 [-4.8712263e-01]
 [-4.7166967e-01]
 [-1.3066905e+00]
 [ 9.5533311e-02]
 [-1.7667073e-01]
 [ 1.3446865e+00]
 [ 4.2370009e+00]
 [ 3.3962324e+00]
 [ 2.5942187e+00]
 [-2.9243222e-02]
 [ 8.0465615e-01]
 [ 1.2552288e+00]
 [-1.5398024e+00]
 [ 8.5800481e-01]
 [-1.5499362e+00]
 [-8.3977826e-02]
 [-1.2388684e+00]
 [-5.5029452e-01]
 [ 1.4907672e+00]
 [-7.5653183e-01]
 [ 2.7958485e-01]
 [-2.7740290e+00]
 [ 2.3856795e+00]
 [-8.6766601e-01]
 [ 1.0144236e+00]
 [ 4.4310637e+00]
 [ 2.0379302e-01]
 [-3.4218150e-01]
 [ 1.0615493e+00]
 [-1.6915809e-01]
 [-1.0277807e+00]
 [ 1.3012220e+00]
 [-1.6188847e+00]
 [-5.5593598e-01]
 [-3.9970970e-01]
 [-1.1113757e+00]
 [ 3.9102194e-01]
 [ 1.7972336e+00]
 [-1.5929046e+00]
 [-1.0813906e+00]]

Layer 4:
[0.5625472]



Entrenamiento 1 WITH NO CONSENSUS:
------------------------------------------------------------------------

Layer 0:
[[ 0.         -0.         -0.         ...  0.         -0.
  -0.        ]
 [-0.         -0.         -0.         ...  0.          0.05082037
   0.091976  ]
 [ 0.          0.04015364  0.         ...  0.          0.
   0.        ]
 ...
 [ 0.         -0.         -0.         ... -0.         -0.
  -0.        ]
 [-0.         -0.          0.         ...  0.         -0.
   0.        ]
 [-0.          0.          0.         ... -0.          0.
  -0.        ]]

Layer 1:
[[-0.18967384 -0.02734369 -0.13468516  0.1868617   0.10087603 -0.09638031
  -0.00200313 -0.07605207  0.04874697 -0.11016285 -0.10870869  0.09570548
   0.1927534   0.20267212  0.2099717  -0.2254384   0.01820338 -0.18933053
  -0.20620857 -0.11397213 -0.02449982 -0.13892555 -0.15874596 -0.08825152
   0.19410676 -0.14976409 -0.16985413  0.05679923 -0.23050807 -0.20760602
  -0.23698473 -0.09203126  0.20280993  0.17894024 -0.23883109 -0.20144263
  -0.2146396  -0.09892143 -0.0588195   0.22112712  0.02154768 -0.09626095
   0.22478366  0.02115637 -0.11719453  0.16019413 -0.10968089 -0.13521072
   0.15942249 -0.21668747 -0.05892794 -0.10747571 -0.00909361  0.12430581
   0.10458413  0.17102444 -0.01117402  0.05753335  0.05751011  0.08837593
  -0.09040882 -0.1469903  -0.16500103 -0.05289625  0.01497102 -0.16902083
  -0.09263957  0.13149959  0.04647601  0.1532411  -0.10858028  0.23964363
  -0.19103032  0.15220305 -0.03297222  0.19718063 -0.10861763  0.24056888
   0.11422437  0.14231858  0.15148696 -0.12166265  0.11440483  0.13188574
   0.12830243 -0.13343742  0.12975064 -0.06602044 -0.04912557 -0.158963
  -0.04631202  0.15831468 -0.02703844 -0.10864751 -0.15726024 -0.01802044
  -0.0086325   0.10590068 -0.24127004 -0.02963029]]

Layer 2:
[0. 0. 0. 0. 0. 0. 0. 0. 0. 0. 0. 0. 0. 0. 0. 0. 0. 0. 0. 0. 0. 0. 0. 0.
 0. 0. 0. 0. 0. 0. 0. 0. 0. 0. 0. 0. 0. 0. 0. 0. 0. 0. 0. 0. 0. 0. 0. 0.
 0. 0. 0. 0. 0. 0. 0. 0. 0. 0. 0. 0. 0. 0. 0. 0. 0. 0. 0. 0. 0. 0. 0. 0.
 0. 0. 0. 0. 0. 0. 0. 0. 0. 0. 0. 0. 0. 0. 0. 0. 0. 0. 0. 0. 0. 0. 0. 0.
 0. 0. 0. 0.]

Layer 3:
[[ 0.11071431]
 [-8.456078  ]
 [ 0.42571175]
 [-0.37251005]
 [ 0.61099803]
 [-0.90042204]
 [-0.71626055]
 [-0.37658632]
 [ 1.5398605 ]
 [-0.24175267]
 [ 0.08299017]
 [ 0.48052567]
 [-0.2336173 ]
 [ 0.5088969 ]
 [ 0.25780118]
 [ 0.31078607]
 [ 6.5438156 ]
 [-0.73338026]
 [ 0.24021654]
 [-0.27991956]
 [-2.5959365 ]
 [-0.32290298]
 [ 0.42378145]
 [-0.6567832 ]
 [ 0.17457019]
 [ 0.23506024]
 [-0.24446172]
 [ 3.2746127 ]
 [ 0.23375988]
 [-0.46735123]
 [ 0.22366741]
 [-0.55907404]
 [ 0.28501835]
 [-0.51155233]
 [ 0.30509737]
 [-0.0880595 ]
 [ 0.5235763 ]
 [-0.29748613]
 [-0.6644794 ]
 [ 0.38870206]
 [ 1.7811494 ]
 [-0.09443389]
 [ 0.22126335]
 [ 8.488028  ]
 [-0.2515405 ]
 [-0.01768426]
 [-0.02909058]
 [ 0.03275616]
 [-0.18035704]
 [-0.10979223]
 [-4.5085955 ]
 [-0.4385221 ]
 [-5.965666  ]
 [-0.0732398 ]
 [ 0.55936533]
 [ 0.19815007]
 [-8.3371105 ]
 [ 3.3464782 ]
 [ 0.86436313]
 [ 1.4803413 ]
 [-3.2103114 ]
 [-0.281354  ]
 [-0.43952656]
 [-1.4875278 ]
 [ 2.4051526 ]
 [-0.17800397]
 [-0.7693164 ]
 [ 0.30783752]
 [ 1.0992239 ]
 [ 0.46937403]
 [-0.52411824]
 [-0.31705832]
 [-0.1166193 ]
 [ 0.49036446]
 [-4.9131136 ]
 [-0.01819528]
 [-0.600317  ]
 [ 0.18626702]
 [ 0.6406351 ]
 [ 0.60961044]
 [ 0.1217063 ]
 [-0.5588784 ]
 [ 0.4383205 ]
 [ 0.25423375]
 [ 0.16140044]
 [-0.35108918]
 [-0.27787286]
 [-1.3072964 ]
 [-0.5850479 ]
 [-0.48492613]
 [-1.9429795 ]
 [-0.29178855]
 [-6.7328825 ]
 [-0.6078034 ]
 [-0.4490425 ]
 [-0.7250875 ]
 [-5.4221725 ]
 [ 0.55379385]
 [ 0.12808816]
 [-0.7253976 ]]

Layer 4:
[-0.05846418]



Consenso 1:
------------------------------------------------------------------------

Layer 0:
[[0. 0. 0. ... 0. 0. 0.]
 [0. 0. 0. ... 0. 0. 0.]
 [0. 0. 0. ... 0. 0. 0.]
 ...
 [0. 0. 0. ... 0. 0. 0.]
 [0. 0. 0. ... 0. 0. 0.]
 [0. 0. 0. ... 0. 0. 0.]]

Layer 1:
[[-1.15443446e-01 -5.07386550e-02 -5.97598441e-02  1.08274586e-01
  -2.98929773e-02 -1.93043742e-02  2.81387568e-02  2.33303010e-02
  -2.80636474e-02  3.55963893e-02 -8.26149136e-02  8.38019550e-02
   1.29219294e-01 -3.24700214e-02  7.56729394e-02 -6.33158758e-02
  -2.27988455e-02 -1.30443899e-02 -7.16547370e-02 -5.71753867e-02
   5.92820235e-02 -6.44112602e-02 -5.47901951e-02 -1.05688274e-01
   3.22654843e-02  1.27668772e-02  5.59355579e-02 -1.02147445e-01
  -3.16048115e-02  2.80374121e-02 -4.94225658e-02 -1.99227929e-02
   7.93078169e-02  5.29323779e-02 -1.35253996e-01 -9.15335119e-02
  -5.76916747e-02 -1.41142428e-01  2.10171603e-02  6.03754558e-02
  -8.65780562e-02 -2.69612130e-02  2.39958558e-02  5.91087975e-02
  -2.23464854e-02 -1.77923795e-02  9.77516174e-05 -6.33149073e-02
  -6.29981384e-02 -7.72793964e-02 -6.18203208e-02 -1.15023755e-01
  -2.51031928e-02  3.35527807e-02  6.08981550e-02  9.46225040e-03
   5.45197492e-03 -1.89991109e-02  5.35080470e-02 -7.36923292e-02
  -5.88133484e-02 -1.00503996e-01 -1.41390100e-01 -7.32983276e-02
  -1.14861436e-01  6.74281344e-02  3.41496207e-02  6.70360262e-03
   3.26782018e-02  3.22047025e-02  4.25443873e-02  3.21564414e-02
  -3.47111151e-02  7.38056703e-03 -3.95768136e-02  7.13991895e-02
  -9.81739759e-02 -3.36196870e-02  1.14184320e-01 -8.24510157e-02
   4.01850827e-02 -6.20283000e-02  5.89625910e-02 -3.87487076e-02
   8.04141462e-02  2.08002497e-02  5.98874427e-02 -1.97234806e-02
  -9.05175344e-04 -8.78526457e-03 -3.66835743e-02  3.84679772e-02
  -5.01550436e-02  6.60111057e-03 -9.27729607e-02 -1.58687606e-01
   8.94912854e-02  5.37019270e-03 -6.04000278e-02 -1.04128905e-01]]

Layer 2:
[0. 0. 0. 0. 0. 0. 0. 0. 0. 0. 0. 0. 0. 0. 0. 0. 0. 0. 0. 0. 0. 0. 0. 0.
 0. 0. 0. 0. 0. 0. 0. 0. 0. 0. 0. 0. 0. 0. 0. 0. 0. 0. 0. 0. 0. 0. 0. 0.
 0. 0. 0. 0. 0. 0. 0. 0. 0. 0. 0. 0. 0. 0. 0. 0. 0. 0. 0. 0. 0. 0. 0. 0.
 0. 0. 0. 0. 0. 0. 0. 0. 0. 0. 0. 0. 0. 0. 0. 0. 0. 0. 0. 0. 0. 0. 0. 0.
 0. 0. 0. 0.]

Layer 3:
[[-0.0757282 ]
 [-1.5954055 ]
 [-1.1566659 ]
 [ 0.35247386]
 [-1.0334269 ]
 [-1.7821188 ]
 [ 0.33727628]
 [-0.8125636 ]
 [ 0.19748168]
 [ 1.4995612 ]
 [-0.48617324]
 [ 0.9778295 ]
 [ 0.24438839]
 [-1.7019204 ]
 [ 0.30776465]
 [-0.2578729 ]
 [ 1.0117427 ]
 [-1.043165  ]
 [ 0.7689096 ]
 [-0.38590237]
 [-0.24994488]
 [-0.35232466]
 [ 0.91580045]
 [ 0.00476046]
 [ 0.6011062 ]
 [ 0.9905444 ]
 [ 0.8740746 ]
 [-0.30200619]
 [ 0.875776  ]
 [ 1.5770903 ]
 [-0.88969505]
 [ 0.49179974]
 [ 0.7930069 ]
 [ 0.7940507 ]
 [-0.54440707]
 [-0.40750414]
 [ 0.4376436 ]
 [-0.33777276]
 [ 0.0995813 ]
 [ 0.14812638]
 [ 0.28399897]
 [-0.92311   ]
 [ 1.1486923 ]
 [ 1.4012839 ]
 [-0.14115536]
 [-2.1725898 ]
 [-0.54572946]
 [-0.34032843]
 [ 0.14470086]
 [-0.64088297]
 [-0.9199371 ]
 [-1.4971985 ]
 [-2.4172235 ]
 [-0.9824102 ]
 [ 1.02106   ]
 [ 0.4293969 ]
 [ 0.06229182]
 [-0.37696096]
 [-1.0474786 ]
 [-0.04268406]
 [ 0.20342124]
 [-0.11466035]
 [-0.88954836]
 [ 0.51924515]
 [-0.06553473]
 [ 1.0928634 ]
 [ 1.4214122 ]
 [ 0.3492586 ]
 [ 1.686319  ]
 [-0.07626702]
 [ 0.29585776]
 [ 0.7161881 ]
 [-0.88900375]
 [ 0.62324303]
 [-1.0171438 ]
 [ 0.24210542]
 [-0.99995524]
 [-0.31108624]
 [ 1.2035533 ]
 [-0.42381924]
 [-0.07945974]
 [-1.548166  ]
 [ 1.5302944 ]
 [-0.28787637]
 [ 0.57335514]
 [ 2.445913  ]
 [ 0.19319314]
 [-0.562841  ]
 [ 0.08732091]
 [-0.6578939 ]
 [-0.71245   ]
 [ 1.172024  ]
 [-1.0802499 ]
 [ 0.3652118 ]
 [-0.10410682]
 [-0.476665  ]
 [ 0.24824832]
 [ 0.10609733]
 [-1.4314754 ]
 [-0.84271204]]

Layer 4:
[0.24761532]



Entrenamiento 2:
------------------------------------------------------------------------

Layer 0:
[[0. 0. 0. ... 0. 0. 0.]
 [0. 0. 0. ... 0. 0. 0.]
 [0. 0. 0. ... 0. 0. 0.]
 ...
 [0. 0. 0. ... 0. 0. 0.]
 [0. 0. 0. ... 0. 0. 0.]
 [0. 0. 0. ... 0. 0. 0.]]

Layer 1:
[[-1.15443446e-01 -5.07386550e-02 -5.97598441e-02  1.08274586e-01
  -2.98929773e-02 -1.93043742e-02  2.81387568e-02  2.33303010e-02
  -2.80636474e-02  3.55963893e-02 -8.26149136e-02  8.38019550e-02
   1.29219294e-01 -3.24700214e-02  7.56729394e-02 -6.33158758e-02
  -2.27988455e-02 -1.30443899e-02 -7.16547370e-02 -5.71753867e-02
   5.92820235e-02 -6.44112602e-02 -5.47901951e-02 -1.05688274e-01
   3.22654843e-02  1.27668772e-02  5.59355579e-02 -1.02147445e-01
  -3.16048115e-02  2.80374121e-02 -4.94225658e-02 -1.99227929e-02
   7.93078169e-02  5.29323779e-02 -1.35253996e-01 -9.15335119e-02
  -5.76916747e-02 -1.41142428e-01  2.10171603e-02  6.03754558e-02
  -8.65780562e-02 -2.69612130e-02  2.39958558e-02  5.91087975e-02
  -2.23464854e-02 -1.77923795e-02  9.77516174e-05 -6.33149073e-02
  -6.29981384e-02 -7.72793964e-02 -6.18203208e-02 -1.15023755e-01
  -2.51031928e-02  3.35527807e-02  6.08981550e-02  9.46225040e-03
   5.45197492e-03 -1.89991109e-02  5.35080470e-02 -7.36923292e-02
  -5.88133484e-02 -1.00503996e-01 -1.41390100e-01 -7.32983276e-02
  -1.14861436e-01  6.74281344e-02  3.41496207e-02  6.70360262e-03
   3.26782018e-02  3.22047025e-02  4.25443873e-02  3.21564414e-02
  -3.47111151e-02  7.38056703e-03 -3.95768136e-02  7.13991895e-02
  -9.81739759e-02 -3.36196870e-02  1.14184320e-01 -8.24510157e-02
   4.01850827e-02 -6.20283000e-02  5.89625910e-02 -3.87487076e-02
   8.04141462e-02  2.08002497e-02  5.98874427e-02 -1.97234806e-02
  -9.05175344e-04 -8.78526457e-03 -3.66835743e-02  3.84679772e-02
  -5.01550436e-02  6.60111057e-03 -9.27729607e-02 -1.58687606e-01
   8.94912854e-02  5.37019270e-03 -6.04000278e-02 -1.04128905e-01]]

Layer 2:
[0. 0. 0. 0. 0. 0. 0. 0. 0. 0. 0. 0. 0. 0. 0. 0. 0. 0. 0. 0. 0. 0. 0. 0.
 0. 0. 0. 0. 0. 0. 0. 0. 0. 0. 0. 0. 0. 0. 0. 0. 0. 0. 0. 0. 0. 0. 0. 0.
 0. 0. 0. 0. 0. 0. 0. 0. 0. 0. 0. 0. 0. 0. 0. 0. 0. 0. 0. 0. 0. 0. 0. 0.
 0. 0. 0. 0. 0. 0. 0. 0. 0. 0. 0. 0. 0. 0. 0. 0. 0. 0. 0. 0. 0. 0. 0. 0.
 0. 0. 0. 0.]

Layer 3:
[[-0.28903812]
 [-1.7616849 ]
 [-1.3101593 ]
 [ 0.5876111 ]
 [-2.052429  ]
 [-2.2215412 ]
 [ 1.0416675 ]
 [-0.6142144 ]
 [-0.12216492]
 [ 4.273601  ]
 [-0.9317579 ]
 [ 1.8100617 ]
 [ 0.2754958 ]
 [-3.5689805 ]
 [ 0.6247063 ]
 [-0.46700373]
 [ 0.42990008]
 [-2.178676  ]
 [ 0.42090598]
 [-0.7168563 ]
 [ 0.03822286]
 [-0.56058824]
 [ 0.4849583 ]
 [-0.7313469 ]
 [ 3.1030824 ]
 [ 2.7808566 ]
 [ 1.7611107 ]
 [-0.5351194 ]
 [ 0.65804356]
 [ 3.547948  ]
 [-1.23014   ]
 [-0.01097608]
 [ 1.450775  ]
 [ 1.1454806 ]
 [-0.75740683]
 [-0.78236055]
 [-0.0062351 ]
 [-0.5363453 ]
 [ 0.2308612 ]
 [ 0.4810232 ]
 [-0.15486903]
 [-1.5081326 ]
 [ 3.2948232 ]
 [ 1.5933012 ]
 [-1.0574032 ]
 [-2.403146  ]
 [-0.3891748 ]
 [-0.55990356]
 [-0.3777252 ]
 [-1.6620405 ]
 [-1.0983638 ]
 [-2.2717223 ]
 [-4.90248   ]
 [-0.5484058 ]
 [ 0.94278914]
 [ 1.9831289 ]
 [ 0.13597777]
 [-2.2837012 ]
 [-0.8279614 ]
 [-0.23293045]
 [-0.07964242]
 [-0.35975206]
 [-1.3790207 ]
 [-0.07622401]
 [-0.2719336 ]
 [ 1.6448622 ]
 [ 4.2926764 ]
 [ 2.843512  ]
 [ 5.359415  ]
 [ 0.27445272]
 [ 0.7810628 ]
 [ 1.8131675 ]
 [-1.3189172 ]
 [ 1.2949481 ]
 [-1.3711098 ]
 [ 0.18678674]
 [-1.241679  ]
 [-0.5242885 ]
 [ 1.0344192 ]
 [-1.0516928 ]
 [ 0.5856868 ]
 [-2.4507535 ]
 [ 1.4332383 ]
 [-0.78542674]
 [ 1.2291436 ]
 [ 4.396837  ]
 [ 0.03600555]
 [-1.3277475 ]
 [ 0.5485995 ]
 [-1.6055714 ]
 [-0.9222341 ]
 [ 1.4575802 ]
 [-1.2718589 ]
 [ 0.9430591 ]
 [-0.30298927]
 [-1.355451  ]
 [ 0.07910954]
 [ 1.271614  ]
 [-1.8266599 ]
 [-1.0374962 ]]

Layer 4:
[0.36838615]



Entrenamiento 2 WITH NO CONSENSUS:
------------------------------------------------------------------------

Layer 0:
[[ 0.         -0.         -0.         ...  0.         -0.
  -0.        ]
 [-0.         -0.         -0.         ...  0.          0.05082037
   0.091976  ]
 [ 0.          0.04015364  0.         ...  0.          0.
   0.        ]
 ...
 [ 0.         -0.         -0.         ... -0.         -0.
  -0.        ]
 [-0.         -0.          0.         ...  0.         -0.
   0.        ]
 [-0.          0.          0.         ... -0.          0.
  -0.        ]]

Layer 1:
[[-0.18967384 -0.02734369 -0.13468516  0.1868617   0.10087603 -0.09638031
  -0.00200313 -0.07605207  0.04874697 -0.11016285 -0.10870869  0.09570548
   0.1927534   0.20267212  0.2099717  -0.2254384   0.01820338 -0.18933053
  -0.20620857 -0.11397213 -0.02449982 -0.13892555 -0.15874596 -0.08825152
   0.19410676 -0.14976409 -0.16985413  0.05679923 -0.23050807 -0.20760602
  -0.23698473 -0.09203126  0.20280993  0.17894024 -0.23883109 -0.20144263
  -0.2146396  -0.09892143 -0.0588195   0.22112712  0.02154768 -0.09626095
   0.22478366  0.02115637 -0.11719453  0.16019413 -0.10968089 -0.13521072
   0.15942249 -0.21668747 -0.05892794 -0.10747571 -0.00909361  0.12430581
   0.10458413  0.17102444 -0.01117402  0.05753335  0.05751011  0.08837593
  -0.09040882 -0.1469903  -0.16500103 -0.05289625  0.01497102 -0.16902083
  -0.09263957  0.13149959  0.04647601  0.1532411  -0.10858028  0.23964363
  -0.19103032  0.15220305 -0.03297222  0.19718063 -0.10861763  0.24056888
   0.11422437  0.14231858  0.15148696 -0.12166265  0.11440483  0.13188574
   0.12830243 -0.13343742  0.12975064 -0.06602044 -0.04912557 -0.158963
  -0.04631202  0.15831468 -0.02703844 -0.10864751 -0.15726024 -0.01802044
  -0.0086325   0.10590068 -0.24127004 -0.02963029]]

Layer 2:
[0. 0. 0. 0. 0. 0. 0. 0. 0. 0. 0. 0. 0. 0. 0. 0. 0. 0. 0. 0. 0. 0. 0. 0.
 0. 0. 0. 0. 0. 0. 0. 0. 0. 0. 0. 0. 0. 0. 0. 0. 0. 0. 0. 0. 0. 0. 0. 0.
 0. 0. 0. 0. 0. 0. 0. 0. 0. 0. 0. 0. 0. 0. 0. 0. 0. 0. 0. 0. 0. 0. 0. 0.
 0. 0. 0. 0. 0. 0. 0. 0. 0. 0. 0. 0. 0. 0. 0. 0. 0. 0. 0. 0. 0. 0. 0. 0.
 0. 0. 0. 0.]

Layer 3:
[[-5.3008649e-02]
 [-1.0884312e+01]
 [-4.4332534e-02]
 [-5.0706863e-01]
 [ 5.1301621e-02]
 [-1.5164568e-01]
 [-1.2365818e+00]
 [-5.1208025e-01]
 [ 1.4292444e+00]
 [-5.0981089e-02]
 [-3.5612991e-01]
 [ 6.4468318e-01]
 [ 4.9924206e-02]
 [ 5.6399441e-01]
 [ 1.7382021e-01]
 [-2.4904960e-03]
 [ 8.3035860e+00]
 [-6.5325725e-01]
 [-1.9973160e-01]
 [-3.0135059e-01]
 [-3.3614278e+00]
 [-4.6700287e-01]
 [ 7.9349107e-01]
 [-7.6681989e-01]
 [ 3.3399573e-01]
 [-6.5447241e-02]
 [ 1.1860930e+00]
 [ 2.2960973e+00]
 [ 1.0271769e-03]
 [-4.8965690e-01]
 [-5.6777519e-01]
 [-1.3553818e-01]
 [ 6.0263962e-01]
 [-4.6403030e-01]
 [ 1.8258737e-01]
 [-1.6187473e-01]
 [ 3.2371515e-01]
 [-4.3422019e-01]
 [-4.7996536e-01]
 [ 4.3793780e-01]
 [ 2.4177756e+00]
 [-4.7318524e-01]
 [ 1.8711220e-01]
 [ 1.1090186e+01]
 [-3.4739771e-01]
 [ 9.6794643e-02]
 [ 2.8906940e-02]
 [-5.7910532e-01]
 [-1.3806794e+00]
 [-2.0843077e-01]
 [-3.6987071e+00]
 [-8.1111324e-01]
 [-8.0492649e+00]
 [ 1.7693265e-01]
 [ 4.1525596e-01]
 [ 1.9970743e-01]
 [-1.1720539e+01]
 [ 2.4168012e+00]
 [ 1.0600350e+00]
 [ 6.8621171e-01]
 [-2.2864914e+00]
 [-1.4510548e-01]
 [-2.4837981e-01]
 [-1.6278574e+00]
 [ 3.3348114e+00]
 [-3.9000553e-01]
 [-2.6733410e-01]
 [ 5.8404922e-01]
 [ 9.2406207e-01]
 [ 4.8542809e-01]
 [-3.8378790e-01]
 [ 1.5886435e-01]
 [-4.0366805e-01]
 [ 3.7180775e-01]
 [-5.0663676e+00]
 [ 6.3602471e-01]
 [-6.1231083e-01]
 [ 2.6882410e-01]
 [ 5.2906519e-01]
 [ 5.6860375e-01]
 [ 1.9595085e-01]
 [-6.1009240e-01]
 [ 1.5661824e-01]
 [ 3.2873878e-01]
 [ 3.1468192e-01]
 [-6.9491541e-01]
 [ 1.3218823e-01]
 [-9.0295810e-01]
 [-9.4021505e-01]
 [-3.5426915e-01]
 [-1.6756258e+00]
 [-8.4456450e-01]
 [-7.3573704e+00]
 [-5.0146657e-01]
 [-3.4089810e-01]
 [-7.0865035e-01]
 [-7.9841318e+00]
 [ 3.8536435e-01]
 [-3.4795192e-01]
 [-7.4584019e-01]]

Layer 4:
[-0.02430154]



Consenso 2:
------------------------------------------------------------------------

Layer 0:
[[0. 0. 0. ... 0. 0. 0.]
 [0. 0. 0. ... 0. 0. 0.]
 [0. 0. 0. ... 0. 0. 0.]
 ...
 [0. 0. 0. ... 0. 0. 0.]
 [0. 0. 0. ... 0. 0. 0.]
 [0. 0. 0. ... 0. 0. 0.]]

Layer 1:
[[-0.11643852 -0.05208658 -0.05852588  0.10787609 -0.03076809 -0.01952863
   0.02905549  0.02454323 -0.0283377   0.03667174 -0.08208392  0.08467203
   0.12855735 -0.03331606  0.07401574 -0.06300753 -0.02437524 -0.01318426
  -0.07124658 -0.05669104  0.05853064 -0.06486367 -0.05397845 -0.10565411
   0.0328556   0.01308014  0.0560421  -0.10341279 -0.03006653  0.02921917
  -0.04890916 -0.01913521  0.07834104  0.0508782  -0.13553175 -0.09159185
  -0.05662833 -0.14102894  0.02158979  0.06001379 -0.08752666 -0.02642457
   0.02460402  0.05821263 -0.02323055 -0.01813093 -0.00136315 -0.0636315
  -0.06412628 -0.07721158 -0.06136037 -0.115527   -0.02495895  0.0341201
   0.0595648   0.0085391   0.00486469 -0.01938316  0.05313249 -0.07375868
  -0.05780103 -0.09922855 -0.14096113 -0.07404713 -0.11484857  0.06764276
   0.03455828  0.00614284  0.03417628  0.03294587  0.04358495  0.03079913
  -0.03477512  0.00777374 -0.04081811  0.07108847 -0.09803712 -0.03441812
   0.11481002 -0.08255577  0.03949642 -0.06210444  0.05915712 -0.03977198
   0.07947707  0.0211953   0.0584761  -0.02054243 -0.00185198 -0.00959501
  -0.03799483  0.03836934 -0.05060299  0.00734879 -0.09296582 -0.15936895
   0.09042896  0.00478082 -0.05877192 -0.10390598]]

Layer 2:
[0. 0. 0. 0. 0. 0. 0. 0. 0. 0. 0. 0. 0. 0. 0. 0. 0. 0. 0. 0. 0. 0. 0. 0.
 0. 0. 0. 0. 0. 0. 0. 0. 0. 0. 0. 0. 0. 0. 0. 0. 0. 0. 0. 0. 0. 0. 0. 0.
 0. 0. 0. 0. 0. 0. 0. 0. 0. 0. 0. 0. 0. 0. 0. 0. 0. 0. 0. 0. 0. 0. 0. 0.
 0. 0. 0. 0. 0. 0. 0. 0. 0. 0. 0. 0. 0. 0. 0. 0. 0. 0. 0. 0. 0. 0. 0. 0.
 0. 0. 0. 0.]

Layer 3:
[[-0.17971563]
 [-1.7023182 ]
 [-1.2179834 ]
 [ 0.42646205]
 [-1.4029092 ]
 [-1.9775937 ]
 [ 0.61687183]
 [-0.75451076]
 [ 0.03357593]
 [ 2.5272377 ]
 [-0.67833835]
 [ 1.3453481 ]
 [ 0.24980491]
 [-2.4474435 ]
 [ 0.4576175 ]
 [-0.3620833 ]
 [ 0.3149594 ]
 [-1.5885673 ]
 [ 0.6444893 ]
 [-0.54641587]
 [-0.09959739]
 [-0.47240564]
 [ 0.7065515 ]
 [-0.31752938]
 [ 1.7503433 ]
 [ 2.1421058 ]
 [ 1.329855  ]
 [-0.4181716 ]
 [ 0.7698436 ]
 [ 2.5042603 ]
 [-1.056235  ]
 [ 0.28815562]
 [ 1.0577369 ]
 [ 1.0674238 ]
 [-0.64649355]
 [-0.59324324]
 [ 0.20723723]
 [-0.44452706]
 [ 0.15507197]
 [ 0.30922693]
 [ 0.06102057]
 [-1.2506086 ]
 [ 2.0088863 ]
 [ 1.5412117 ]
 [-0.49829248]
 [-2.2888188 ]
 [-0.60035396]
 [-0.45652074]
 [-0.10745376]
 [-1.1252972 ]
 [-1.0043349 ]
 [-1.8236555 ]
 [-3.5090017 ]
 [-0.8012602 ]
 [ 1.1902065 ]
 [ 1.1690091 ]
 [ 0.18098621]
 [-1.6197634 ]
 [-0.9198303 ]
 [-0.1515974 ]
 [ 0.11369168]
 [-0.23284726]
 [-1.132448  ]
 [ 0.253539  ]
 [-0.16887295]
 [ 1.353587  ]
 [ 2.6623394 ]
 [ 1.4969636 ]
 [ 3.4021137 ]
 [ 0.10759056]
 [ 0.5114842 ]
 [ 1.325819  ]
 [-1.0975727 ]
 [ 1.350766  ]
 [-1.190556  ]
 [ 0.23356335]
 [-1.1400993 ]
 [-0.4171978 ]
 [ 1.1338806 ]
 [-0.7057122 ]
 [ 0.21953872]
 [-1.9350033 ]
 [ 1.536145  ]
 [-0.5052785 ]
 [ 0.83129305]
 [ 3.310629  ]
 [ 0.18390484]
 [-1.0711528 ]
 [ 0.43127418]
 [-1.7323512 ]
 [-0.80957687]
 [ 1.3640487 ]
 [-1.1715494 ]
 [ 1.1679364 ]
 [-0.20265462]
 [-0.87686557]
 [ 0.21232669]
 [ 0.60592145]
 [-1.7612071 ]
 [-0.94789654]]

Layer 4:
[0.28826296]



Entrenamiento 3:
------------------------------------------------------------------------

Layer 0:
[[0. 0. 0. ... 0. 0. 0.]
 [0. 0. 0. ... 0. 0. 0.]
 [0. 0. 0. ... 0. 0. 0.]
 ...
 [0. 0. 0. ... 0. 0. 0.]
 [0. 0. 0. ... 0. 0. 0.]
 [0. 0. 0. ... 0. 0. 0.]]

Layer 1:
[[-0.11643852 -0.05208658 -0.05852588  0.10787609 -0.03076809 -0.01952863
   0.02905549  0.02454323 -0.0283377   0.03667174 -0.08208392  0.08467203
   0.12855735 -0.03331606  0.07401574 -0.06300753 -0.02437524 -0.01318426
  -0.07124658 -0.05669104  0.05853064 -0.06486367 -0.05397845 -0.10565411
   0.0328556   0.01308014  0.0560421  -0.10341279 -0.03006653  0.02921917
  -0.04890916 -0.01913521  0.07834104  0.0508782  -0.13553175 -0.09159185
  -0.05662833 -0.14102894  0.02158979  0.06001379 -0.08752666 -0.02642457
   0.02460402  0.05821263 -0.02323055 -0.01813093 -0.00136315 -0.0636315
  -0.06412628 -0.07721158 -0.06136037 -0.115527   -0.02495895  0.0341201
   0.0595648   0.0085391   0.00486469 -0.01938316  0.05313249 -0.07375868
  -0.05780103 -0.09922855 -0.14096113 -0.07404713 -0.11484857  0.06764276
   0.03455828  0.00614284  0.03417628  0.03294587  0.04358495  0.03079913
  -0.03477512  0.00777374 -0.04081811  0.07108847 -0.09803712 -0.03441812
   0.11481002 -0.08255577  0.03949642 -0.06210444  0.05915712 -0.03977198
   0.07947707  0.0211953   0.0584761  -0.02054243 -0.00185198 -0.00959501
  -0.03799483  0.03836934 -0.05060299  0.00734879 -0.09296582 -0.15936895
   0.09042896  0.00478082 -0.05877192 -0.10390598]]

Layer 2:
[0. 0. 0. 0. 0. 0. 0. 0. 0. 0. 0. 0. 0. 0. 0. 0. 0. 0. 0. 0. 0. 0. 0. 0.
 0. 0. 0. 0. 0. 0. 0. 0. 0. 0. 0. 0. 0. 0. 0. 0. 0. 0. 0. 0. 0. 0. 0. 0.
 0. 0. 0. 0. 0. 0. 0. 0. 0. 0. 0. 0. 0. 0. 0. 0. 0. 0. 0. 0. 0. 0. 0. 0.
 0. 0. 0. 0. 0. 0. 0. 0. 0. 0. 0. 0. 0. 0. 0. 0. 0. 0. 0. 0. 0. 0. 0. 0.
 0. 0. 0. 0.]

Layer 3:
[[-0.33331516]
 [-1.7465782 ]
 [-1.2563058 ]
 [ 0.7339182 ]
 [-1.7871014 ]
 [-2.1264787 ]
 [ 0.90860164]
 [-0.7685527 ]
 [-0.15901951]
 [ 3.8312294 ]
 [-0.9177484 ]
 [ 1.810884  ]
 [ 0.5410199 ]
 [-3.2807038 ]
 [ 0.63373595]
 [-0.5146117 ]
 [-0.32965848]
 [-2.016237  ]
 [ 0.427242  ]
 [-0.74304307]
 [-0.03493254]
 [-0.62909055]
 [ 0.44698474]
 [-0.717319  ]
 [ 3.2140582 ]
 [ 3.5028946 ]
 [ 1.8315347 ]
 [-0.5806591 ]
 [ 0.6143708 ]
 [ 3.4467676 ]
 [-1.2219694 ]
 [-0.1005594 ]
 [ 1.4261601 ]
 [ 1.5139909 ]
 [-0.7826763 ]
 [-0.81181204]
 [-0.08050457]
 [-0.58610505]
 [ 0.12781183]
 [ 0.3383408 ]
 [-0.19035   ]
 [-1.5110394 ]
 [ 3.043397  ]
 [ 1.5846025 ]
 [-0.896304  ]
 [-2.4519792 ]
 [-0.24157326]
 [-0.6083199 ]
 [-0.42000479]
 [-1.7179203 ]
 [-1.1407624 ]
 [-2.2393517 ]
 [-4.7565985 ]
 [-0.4415884 ]
 [ 0.9465753 ]
 [ 2.0743403 ]
 [ 0.3923617 ]
 [-2.7427032 ]
 [-0.9017516 ]
 [-0.27461502]
 [-0.07303927]
 [-0.40077883]
 [-1.4103938 ]
 [-0.09328719]
 [-0.32087976]
 [ 1.6753724 ]
 [ 4.2335887 ]
 [ 2.890284  ]
 [ 6.0560665 ]
 [ 0.51170635]
 [ 0.7609927 ]
 [ 1.7327969 ]
 [-1.1796303 ]
 [ 1.7684354 ]
 [-1.4184558 ]
 [ 0.5054973 ]
 [-1.2837858 ]
 [-0.5676791 ]
 [ 1.061465  ]
 [-1.0637387 ]
 [ 0.6441613 ]
 [-1.8848808 ]
 [ 0.84805447]
 [-0.74549574]
 [ 1.2786713 ]
 [ 4.355269  ]
 [-0.11662749]
 [-1.7440104 ]
 [ 0.65369266]
 [-2.4997473 ]
 [-0.96746   ]
 [ 1.5475868 ]
 [-1.3044261 ]
 [ 1.6416953 ]
 [-0.34868035]
 [-1.3338447 ]
 [-0.01617746]
 [ 1.369483  ]
 [-1.6212233 ]
 [-1.0938599 ]]

Layer 4:
[0.37067202]



Entrenamiento 3 WITH NO CONSENSUS:
------------------------------------------------------------------------

Layer 0:
[[ 0.         -0.         -0.         ...  0.         -0.
  -0.        ]
 [-0.         -0.         -0.         ...  0.          0.05082037
   0.091976  ]
 [ 0.          0.04015364  0.         ...  0.          0.
   0.        ]
 ...
 [ 0.         -0.         -0.         ... -0.         -0.
  -0.        ]
 [-0.         -0.          0.         ...  0.         -0.
   0.        ]
 [-0.          0.          0.         ... -0.          0.
  -0.        ]]

Layer 1:
[[-0.18967384 -0.02734369 -0.13468516  0.1868617   0.10087603 -0.09638031
  -0.00200313 -0.07605207  0.04874697 -0.11016285 -0.10870869  0.09570548
   0.1927534   0.20267212  0.2099717  -0.2254384   0.01820338 -0.18933053
  -0.20620857 -0.11397213 -0.02449982 -0.13892555 -0.15874596 -0.08825152
   0.19410676 -0.14976409 -0.16985413  0.05679923 -0.23050807 -0.20760602
  -0.23698473 -0.09203126  0.20280993  0.17894024 -0.23883109 -0.20144263
  -0.2146396  -0.09892143 -0.0588195   0.22112712  0.02154768 -0.09626095
   0.22478366  0.02115637 -0.11719453  0.16019413 -0.10968089 -0.13521072
   0.15942249 -0.21668747 -0.05892794 -0.10747571 -0.00909361  0.12430581
   0.10458413  0.17102444 -0.01117402  0.05753335  0.05751011  0.08837593
  -0.09040882 -0.1469903  -0.16500103 -0.05289625  0.01497102 -0.16902083
  -0.09263957  0.13149959  0.04647601  0.1532411  -0.10858028  0.23964363
  -0.19103032  0.15220305 -0.03297222  0.19718063 -0.10861763  0.24056888
   0.11422437  0.14231858  0.15148696 -0.12166265  0.11440483  0.13188574
   0.12830243 -0.13343742  0.12975064 -0.06602044 -0.04912557 -0.158963
  -0.04631202  0.15831468 -0.02703844 -0.10864751 -0.15726024 -0.01802044
  -0.0086325   0.10590068 -0.24127004 -0.02963029]]

Layer 2:
[0. 0. 0. 0. 0. 0. 0. 0. 0. 0. 0. 0. 0. 0. 0. 0. 0. 0. 0. 0. 0. 0. 0. 0.
 0. 0. 0. 0. 0. 0. 0. 0. 0. 0. 0. 0. 0. 0. 0. 0. 0. 0. 0. 0. 0. 0. 0. 0.
 0. 0. 0. 0. 0. 0. 0. 0. 0. 0. 0. 0. 0. 0. 0. 0. 0. 0. 0. 0. 0. 0. 0. 0.
 0. 0. 0. 0. 0. 0. 0. 0. 0. 0. 0. 0. 0. 0. 0. 0. 0. 0. 0. 0. 0. 0. 0. 0.
 0. 0. 0. 0.]

Layer 3:
[[-6.74182475e-02]
 [-1.24850435e+01]
 [-5.80682158e-01]
 [-8.19160715e-02]
 [-2.19059691e-01]
 [ 3.29789072e-01]
 [-1.76363611e+00]
 [-6.43948913e-01]
 [ 1.01373529e+00]
 [-2.30699420e-01]
 [-9.40961003e-01]
 [ 9.64361608e-01]
 [ 2.40266293e-01]
 [ 4.60285962e-01]
 [-7.55193532e-02]
 [-3.81505758e-01]
 [ 9.12804604e+00]
 [-7.16947317e-01]
 [-3.04823965e-01]
 [-3.79046768e-01]
 [-3.90326858e+00]
 [-6.15273416e-01]
 [ 6.73742592e-01]
 [-9.70321894e-01]
 [ 2.79101193e-01]
 [-5.88809073e-01]
 [ 2.07860851e+00]
 [ 1.00245476e+00]
 [-1.26663685e-01]
 [-2.42123723e-01]
 [-1.21350312e+00]
 [-1.95043497e-02]
 [ 6.07233465e-01]
 [-5.62249310e-03]
 [-1.03179954e-01]
 [-3.47997755e-01]
 [-3.83537680e-01]
 [-5.42641163e-01]
 [-4.22764242e-01]
 [ 3.49846750e-01]
 [ 2.70064783e+00]
 [-8.62502992e-01]
 [ 1.12145521e-01]
 [ 1.28973589e+01]
 [-4.25979614e-01]
 [ 2.67747909e-01]
 [-6.74092397e-02]
 [-8.39536488e-01]
 [-1.70615900e+00]
 [-1.60090193e-01]
 [-2.25059295e+00]
 [-1.17175174e+00]
 [-9.49987221e+00]
 [ 4.02936339e-01]
 [ 3.50067616e-01]
 [ 1.89219341e-01]
 [-1.43093615e+01]
 [ 1.28478146e+00]
 [ 1.27243578e+00]
 [-5.53824268e-02]
 [-7.55734324e-01]
 [-1.84495315e-01]
 [-7.57391825e-02]
 [-1.59743083e+00]
 [ 4.07857227e+00]
 [-4.11216825e-01]
 [ 1.28516527e-02]
 [ 6.97314560e-01]
 [ 7.66139805e-01]
 [ 6.10217214e-01]
 [-4.09577280e-01]
 [ 2.62076676e-01]
 [-6.23644531e-01]
 [ 3.54100257e-01]
 [-4.45266294e+00]
 [ 1.21585989e+00]
 [-5.64233124e-01]
 [ 1.67351663e-01]
 [ 3.67972583e-01]
 [ 6.03040814e-01]
 [ 4.87783402e-01]
 [-7.79048026e-01]
 [ 7.79795572e-02]
 [ 3.59292597e-01]
 [ 4.51182783e-01]
 [-9.20793653e-01]
 [ 8.03464949e-01]
 [-5.41353047e-01]
 [-1.21644330e+00]
 [-3.31471831e-01]
 [-1.58808792e+00]
 [-6.97258651e-01]
 [-7.15997839e+00]
 [-4.55293804e-01]
 [-1.46499455e-01]
 [-7.07950473e-01]
 [-9.98289871e+00]
 [ 1.92289546e-01]
 [-4.62454438e-01]
 [-7.81551361e-01]]

Layer 4:
[0.10053065]



Consenso 3:
------------------------------------------------------------------------

Layer 0:
[[0. 0. 0. ... 0. 0. 0.]
 [0. 0. 0. ... 0. 0. 0.]
 [0. 0. 0. ... 0. 0. 0.]
 ...
 [0. 0. 0. ... 0. 0. 0.]
 [0. 0. 0. ... 0. 0. 0.]
 [0. 0. 0. ... 0. 0. 0.]]

Layer 1:
[[-0.11656956 -0.05226408 -0.05836338  0.10782362 -0.03088333 -0.01955816
   0.02917622  0.02470296 -0.02837379  0.03681335 -0.08201399  0.08478662
   0.12847018 -0.03342747  0.07379751 -0.06296692 -0.02458283 -0.01320268
  -0.07119283 -0.05662726  0.05843169 -0.06492325 -0.05387155 -0.10564961
   0.03293331  0.0131214   0.05605613 -0.10357943 -0.02986395  0.02937479
  -0.04884155 -0.01903149  0.07821372  0.0506077  -0.13556832 -0.09159953
  -0.0564883  -0.141014    0.0216652   0.05996616 -0.08765158 -0.0263539
   0.02468411  0.05809462 -0.02334698 -0.01817551 -0.00155553 -0.06367319
  -0.06427483 -0.07720265 -0.0612998  -0.11559328 -0.02493995  0.03419481
   0.05938922  0.00841754  0.00478735 -0.01943373  0.05308304 -0.07376742
  -0.05766772 -0.09906059 -0.14090464 -0.07414574 -0.11484688  0.06767102
   0.0346121   0.006069    0.03437355  0.03304347  0.04372198  0.03062039
  -0.03478355  0.00782551 -0.04098157  0.07104755 -0.09801911 -0.03452326
   0.11489242 -0.08256957  0.03940573 -0.06211447  0.05918274 -0.03990673
   0.07935367  0.02124732  0.05829025 -0.02065028 -0.00197666 -0.00970165
  -0.03816751  0.03835635 -0.05066199  0.00744724 -0.09299122 -0.15945867
   0.09055245  0.00470321 -0.05855752 -0.10387664]]

Layer 2:
[0. 0. 0. 0. 0. 0. 0. 0. 0. 0. 0. 0. 0. 0. 0. 0. 0. 0. 0. 0. 0. 0. 0. 0.
 0. 0. 0. 0. 0. 0. 0. 0. 0. 0. 0. 0. 0. 0. 0. 0. 0. 0. 0. 0. 0. 0. 0. 0.
 0. 0. 0. 0. 0. 0. 0. 0. 0. 0. 0. 0. 0. 0. 0. 0. 0. 0. 0. 0. 0. 0. 0. 0.
 0. 0. 0. 0. 0. 0. 0. 0. 0. 0. 0. 0. 0. 0. 0. 0. 0. 0. 0. 0. 0. 0. 0. 0.
 0. 0. 0. 0.]

Layer 3:
[[-0.25741798]
 [-1.7613342 ]
 [-1.237807  ]
 [ 0.5453351 ]
 [-1.609898  ]
 [-2.0698352 ]
 [ 0.75815547]
 [-0.7633694 ]
 [-0.05232894]
 [ 3.110016  ]
 [-0.7996368 ]
 [ 1.5823464 ]
 [ 0.35120255]
 [-2.8807595 ]
 [ 0.537869  ]
 [-0.44510314]
 [-0.330789  ]
 [-1.9113693 ]
 [ 0.5437346 ]
 [-0.65481055]
 [-0.06408173]
 [-0.5764896 ]
 [ 0.5729915 ]
 [-0.5130251 ]
 [ 2.4763646 ]
 [ 3.0330079 ]
 [ 1.6067555 ]
 [-0.503241  ]
 [ 0.6881387 ]
 [ 3.0097346 ]
 [-1.15514   ]
 [-0.03501158]
 [ 1.2337804 ]
 [ 1.2799047 ]
 [-0.71458405]
 [-0.7120671 ]
 [ 0.05161355]
 [-0.5295537 ]
 [ 0.14763504]
 [ 0.32845888]
 [-0.07599586]
 [-1.4258379 ]
 [ 2.5061097 ]
 [ 1.580772  ]
 [-0.6923728 ]
 [-2.3703341 ]
 [-0.46296504]
 [-0.55158913]
 [-0.26135626]
 [-1.438078  ]
 [-1.0861232 ]
 [-2.021096  ]
 [-4.1174893 ]
 [-0.6448744 ]
 [ 1.1280009 ]
 [ 1.872647  ]
 [ 0.39836097]
 [-2.5124438 ]
 [-0.9042924 ]
 [-0.2304983 ]
 [ 0.02867817]
 [-0.32363695]
 [-1.2776726 ]
 [ 0.09381954]
 [-0.24927732]
 [ 1.5111732 ]
 [ 3.4164317 ]
 [ 2.335986  ]
 [ 4.676956  ]
 [ 0.2802031 ]
 [ 0.63363594]
 [ 1.5709769 ]
 [-1.1727624 ]
 [ 1.9774415 ]
 [-1.3199788 ]
 [ 0.32397744]
 [-1.2266846 ]
 [-0.4997109 ]
 [ 1.0888051 ]
 [-0.8808353 ]
 [ 0.42236432]
 [-1.9400672 ]
 [ 1.3002142 ]
 [-0.6239118 ]
 [ 1.0246285 ]
 [ 3.8535724 ]
 [ 0.05928854]
 [-1.5326052 ]
 [ 0.7638123 ]
 [-2.5258398 ]
 [-0.8948275 ]
 [ 1.4658089 ]
 [-1.2487799 ]
 [ 1.7877189 ]
 [-0.28449658]
 [-1.1069254 ]
 [ 0.11497426]
 [ 1.131777  ]
 [-1.7564813 ]
 [-1.0295917 ]]

Layer 4:
[0.31755087]



Entrenamiento 4:
------------------------------------------------------------------------

Layer 0:
[[0. 0. 0. ... 0. 0. 0.]
 [0. 0. 0. ... 0. 0. 0.]
 [0. 0. 0. ... 0. 0. 0.]
 ...
 [0. 0. 0. ... 0. 0. 0.]
 [0. 0. 0. ... 0. 0. 0.]
 [0. 0. 0. ... 0. 0. 0.]]

Layer 1:
[[-0.11656956 -0.05226408 -0.05836338  0.10782362 -0.03088333 -0.01955816
   0.02917622  0.02470296 -0.02837379  0.03681335 -0.08201399  0.08478662
   0.12847018 -0.03342747  0.07379751 -0.06296692 -0.02458283 -0.01320268
  -0.07119283 -0.05662726  0.05843169 -0.06492325 -0.05387155 -0.10564961
   0.03293331  0.0131214   0.05605613 -0.10357943 -0.02986395  0.02937479
  -0.04884155 -0.01903149  0.07821372  0.0506077  -0.13556832 -0.09159953
  -0.0564883  -0.141014    0.0216652   0.05996616 -0.08765158 -0.0263539
   0.02468411  0.05809462 -0.02334698 -0.01817551 -0.00155553 -0.06367319
  -0.06427483 -0.07720265 -0.0612998  -0.11559328 -0.02493995  0.03419481
   0.05938922  0.00841754  0.00478735 -0.01943373  0.05308304 -0.07376742
  -0.05766772 -0.09906059 -0.14090464 -0.07414574 -0.11484688  0.06767102
   0.0346121   0.006069    0.03437355  0.03304347  0.04372198  0.03062039
  -0.03478355  0.00782551 -0.04098157  0.07104755 -0.09801911 -0.03452326
   0.11489242 -0.08256957  0.03940573 -0.06211447  0.05918274 -0.03990673
   0.07935367  0.02124732  0.05829025 -0.02065028 -0.00197666 -0.00970165
  -0.03816751  0.03835635 -0.05066199  0.00744724 -0.09299122 -0.15945867
   0.09055245  0.00470321 -0.05855752 -0.10387664]]

Layer 2:
[0. 0. 0. 0. 0. 0. 0. 0. 0. 0. 0. 0. 0. 0. 0. 0. 0. 0. 0. 0. 0. 0. 0. 0.
 0. 0. 0. 0. 0. 0. 0. 0. 0. 0. 0. 0. 0. 0. 0. 0. 0. 0. 0. 0. 0. 0. 0. 0.
 0. 0. 0. 0. 0. 0. 0. 0. 0. 0. 0. 0. 0. 0. 0. 0. 0. 0. 0. 0. 0. 0. 0. 0.
 0. 0. 0. 0. 0. 0. 0. 0. 0. 0. 0. 0. 0. 0. 0. 0. 0. 0. 0. 0. 0. 0. 0. 0.
 0. 0. 0. 0.]

Layer 3:
[[-0.38061577]
 [-1.7528584 ]
 [-1.2197286 ]
 [ 0.8303802 ]
 [-1.7136136 ]
 [-2.0724866 ]
 [ 0.8345973 ]
 [-0.7942387 ]
 [-0.17803778]
 [ 3.5901618 ]
 [-0.9249919 ]
 [ 1.8216149 ]
 [ 0.740964  ]
 [-3.1058562 ]
 [ 0.6340665 ]
 [-0.56848353]
 [-0.93251115]
 [-1.9365304 ]
 [ 0.39842796]
 [-0.78094375]
 [-0.11024041]
 [-0.7061977 ]
 [ 0.4047378 ]
 [-0.70971763]
 [ 3.245804  ]
 [ 4.0050855 ]
 [ 1.8779892 ]
 [-0.6270962 ]
 [ 0.56195146]
 [ 3.2528808 ]
 [-1.2384126 ]
 [-0.41529667]
 [ 1.4322062 ]
 [ 1.773493  ]
 [-0.81124365]
 [-0.84779054]
 [-0.154574  ]
 [-0.6427227 ]
 [ 0.10744289]
 [ 0.22619374]
 [-0.22471617]
 [-1.4999325 ]
 [ 2.9063506 ]
 [ 1.5403149 ]
 [-0.81721187]
 [-2.498404  ]
 [ 0.01686922]
 [-0.6711702 ]
 [-0.42923966]
 [-1.7960858 ]
 [-1.1997333 ]
 [-2.221449  ]
 [-4.5567436 ]
 [-0.354119  ]
 [ 0.9000672 ]
 [ 2.4877975 ]
 [ 0.7662534 ]
 [-3.0410774 ]
 [-0.98315585]
 [-0.31840846]
 [-0.11012863]
 [-0.4518291 ]
 [-1.4406717 ]
 [-0.09042265]
 [-0.37223256]
 [ 1.6840665 ]
 [ 4.2024517 ]
 [ 3.0929122 ]
 [ 6.5381665 ]
 [ 0.69969934]
 [ 0.7412782 ]
 [ 1.5276718 ]
 [-1.0774258 ]
 [ 2.2366822 ]
 [-1.485337  ]
 [ 0.7979818 ]
 [-1.323989  ]
 [-0.62060606]
 [ 1.1212108 ]
 [-1.0679394 ]
 [ 0.70670104]
 [-1.2884561 ]
 [ 0.4551777 ]
 [-0.7152609 ]
 [ 1.3226541 ]
 [ 4.303253  ]
 [-0.26571575]
 [-2.1780367 ]
 [ 0.894781  ]
 [-3.0046625 ]
 [-1.025258  ]
 [ 1.6151607 ]
 [-1.3529508 ]
 [ 2.0895803 ]
 [-0.4037576 ]
 [-1.319653  ]
 [-0.0131565 ]
 [ 1.661747  ]
 [-1.3304081 ]
 [-1.1489354 ]]

Layer 4:
[0.37732062]



Entrenamiento 4 WITH NO CONSENSUS:
------------------------------------------------------------------------

Layer 0:
[[ 0.         -0.         -0.         ...  0.         -0.
  -0.        ]
 [-0.         -0.         -0.         ...  0.          0.05082037
   0.091976  ]
 [ 0.          0.04015364  0.         ...  0.          0.
   0.        ]
 ...
 [ 0.         -0.         -0.         ... -0.         -0.
  -0.        ]
 [-0.         -0.          0.         ...  0.         -0.
   0.        ]
 [-0.          0.          0.         ... -0.          0.
  -0.        ]]

Layer 1:
[[-0.18967384 -0.02734369 -0.13468516  0.1868617   0.10087603 -0.09638031
  -0.00200313 -0.07605207  0.04874697 -0.11016285 -0.10870869  0.09570548
   0.1927534   0.20267212  0.2099717  -0.2254384   0.01820338 -0.18933053
  -0.20620857 -0.11397213 -0.02449982 -0.13892555 -0.15874596 -0.08825152
   0.19410676 -0.14976409 -0.16985413  0.05679923 -0.23050807 -0.20760602
  -0.23698473 -0.09203126  0.20280993  0.17894024 -0.23883109 -0.20144263
  -0.2146396  -0.09892143 -0.0588195   0.22112712  0.02154768 -0.09626095
   0.22478366  0.02115637 -0.11719453  0.16019413 -0.10968089 -0.13521072
   0.15942249 -0.21668747 -0.05892794 -0.10747571 -0.00909361  0.12430581
   0.10458413  0.17102444 -0.01117402  0.05753335  0.05751011  0.08837593
  -0.09040882 -0.1469903  -0.16500103 -0.05289625  0.01497102 -0.16902083
  -0.09263957  0.13149959  0.04647601  0.1532411  -0.10858028  0.23964363
  -0.19103032  0.15220305 -0.03297222  0.19718063 -0.10861763  0.24056888
   0.11422437  0.14231858  0.15148696 -0.12166265  0.11440483  0.13188574
   0.12830243 -0.13343742  0.12975064 -0.06602044 -0.04912557 -0.158963
  -0.04631202  0.15831468 -0.02703844 -0.10864751 -0.15726024 -0.01802044
  -0.0086325   0.10590068 -0.24127004 -0.02963029]]

Layer 2:
[0. 0. 0. 0. 0. 0. 0. 0. 0. 0. 0. 0. 0. 0. 0. 0. 0. 0. 0. 0. 0. 0. 0. 0.
 0. 0. 0. 0. 0. 0. 0. 0. 0. 0. 0. 0. 0. 0. 0. 0. 0. 0. 0. 0. 0. 0. 0. 0.
 0. 0. 0. 0. 0. 0. 0. 0. 0. 0. 0. 0. 0. 0. 0. 0. 0. 0. 0. 0. 0. 0. 0. 0.
 0. 0. 0. 0. 0. 0. 0. 0. 0. 0. 0. 0. 0. 0. 0. 0. 0. 0. 0. 0. 0. 0. 0. 0.
 0. 0. 0. 0.]

Layer 3:
[[ 8.6285211e-02]
 [-1.3481074e+01]
 [-9.2185766e-01]
 [ 4.7621694e-01]
 [-1.8532012e-01]
 [ 4.8391479e-01]
 [-2.2366157e+00]
 [-7.7893430e-01]
 [ 5.3892165e-01]
 [-5.8997053e-01]
 [-1.4360955e+00]
 [ 1.3130383e+00]
 [ 2.3129581e-01]
 [ 2.8442213e-01]
 [-4.5413092e-01]
 [-5.8870673e-01]
 [ 9.3218937e+00]
 [-8.6717910e-01]
 [-3.4714948e-02]
 [-4.2678028e-01]
 [-4.3099027e+00]
 [-7.0034975e-01]
 [ 3.7689650e-01]
 [-1.1990199e+00]
 [ 3.5432398e-02]
 [-1.0265474e+00]
 [ 2.5079756e+00]
 [-8.2703710e-02]
 [-2.6754162e-03]
 [ 1.0068286e-01]
 [-1.4279257e+00]
 [-1.4660518e-01]
 [ 3.8436610e-01]
 [ 4.5242244e-01]
 [-2.3992224e-01]
 [-4.7401282e-01]
 [-1.0763324e+00]
 [-6.4250755e-01]
 [-5.0425857e-01]
 [ 1.5887280e-01]
 [ 2.7931888e+00]
 [-1.1437840e+00]
 [-1.5884910e-02]
 [ 1.4102703e+01]
 [-5.0352836e-01]
 [ 3.8556808e-01]
 [-2.2597203e-01]
 [-7.8836113e-01]
 [-1.3949479e+00]
 [ 3.1620458e-02]
 [-8.3814734e-01]
 [-1.4325156e+00]
 [-1.0549355e+01]
 [ 4.8779756e-01]
 [ 3.6746311e-01]
 [ 1.3908975e-01]
 [-1.6308079e+01]
 [ 4.5370418e-01]
 [ 1.4813503e+00]
 [-5.7396859e-01]
 [ 7.1683264e-01]
 [-3.3770081e-01]
 [ 5.3162980e-03]
 [-1.5117223e+00]
 [ 4.6877246e+00]
 [-3.1019038e-01]
 [ 5.7156224e-02]
 [ 6.4488184e-01]
 [ 6.7865741e-01]
 [ 7.3856401e-01]
 [-5.3466487e-01]
 [-8.6243570e-02]
 [-6.5900761e-01]
 [ 3.9809835e-01]
 [-3.6357121e+00]
 [ 1.4924607e+00]
 [-5.1057822e-01]
 [-1.0147816e-01]
 [ 2.0676309e-01]
 [ 6.7651427e-01]
 [ 7.5086677e-01]
 [-9.8362303e-01]
 [ 1.1559663e-01]
 [ 3.6837640e-01]
 [ 5.1096147e-01]
 [-9.9468791e-01]
 [ 1.3535005e+00]
 [-3.7949666e-01]
 [-1.3727571e+00]
 [-4.2129028e-01]
 [-1.7425401e+00]
 [-2.1469587e-01]
 [-6.6344786e+00]
 [-4.7866711e-01]
 [ 5.1632550e-02]
 [-7.6467693e-01]
 [-1.1551688e+01]
 [ 6.4251356e-02]
 [-1.9245051e-01]
 [-8.6556727e-01]]

Layer 4:
[0.12070902]



Consenso 4:
------------------------------------------------------------------------

Layer 0:
[[0. 0. 0. ... 0. 0. 0.]
 [0. 0. 0. ... 0. 0. 0.]
 [0. 0. 0. ... 0. 0. 0.]
 ...
 [0. 0. 0. ... 0. 0. 0.]
 [0. 0. 0. ... 0. 0. 0.]
 [0. 0. 0. ... 0. 0. 0.]]

Layer 1:
[[-0.11658682 -0.05228746 -0.05834198  0.10781671 -0.0308985  -0.01956205
   0.02919211  0.02472399 -0.02837855  0.036832   -0.08200478  0.0848017
   0.12845871 -0.03344214  0.07376877 -0.06296157 -0.02461016 -0.0132051
  -0.07118575 -0.05661886  0.05841866 -0.0649311  -0.05385747 -0.10564902
   0.03294354  0.01312683  0.05605798 -0.10360137 -0.02983728  0.02939528
  -0.04883265 -0.01901783  0.07819696  0.05057207 -0.13557315 -0.09160054
  -0.05646986 -0.14101203  0.02167512  0.05995988 -0.08766803 -0.0263446
   0.02469465  0.05807908 -0.02336231 -0.01818138 -0.00158086 -0.06367869
  -0.0642944  -0.07720147 -0.06129182 -0.11560201 -0.02493745  0.03420465
   0.0593661   0.00840153  0.00477716 -0.0194404   0.05307652 -0.07376858
  -0.05765016 -0.09903847 -0.14089718 -0.07415872 -0.11484665  0.06767475
   0.03461918  0.00605927  0.03439953  0.03305632  0.04374002  0.03059686
  -0.03478466  0.00783233 -0.04100309  0.07104217 -0.09801674 -0.03453711
   0.11490327 -0.08257139  0.03939379 -0.06211579  0.05918611 -0.03992448
   0.07933743  0.02125417  0.05826577 -0.02066448 -0.00199308 -0.00971569
  -0.03819025  0.03835464 -0.05066976  0.00746021 -0.09299456 -0.15947047
   0.09056871  0.00469299 -0.05852928 -0.10387277]]

Layer 2:
[0. 0. 0. 0. 0. 0. 0. 0. 0. 0. 0. 0. 0. 0. 0. 0. 0. 0. 0. 0. 0. 0. 0. 0.
 0. 0. 0. 0. 0. 0. 0. 0. 0. 0. 0. 0. 0. 0. 0. 0. 0. 0. 0. 0. 0. 0. 0. 0.
 0. 0. 0. 0. 0. 0. 0. 0. 0. 0. 0. 0. 0. 0. 0. 0. 0. 0. 0. 0. 0. 0. 0. 0.
 0. 0. 0. 0. 0. 0. 0. 0. 0. 0. 0. 0. 0. 0. 0. 0. 0. 0. 0. 0. 0. 0. 0. 0.
 0. 0. 0. 0.]

Layer 3:
[[-3.21891576e-01]
 [-1.78872275e+00]
 [-1.23390818e+00]
 [ 6.71410382e-01]
 [-1.71493375e+00]
 [-2.10911751e+00]
 [ 8.13337445e-01]
 [-7.89993227e-01]
 [-1.13776572e-01]
 [ 3.37892032e+00]
 [-8.73470604e-01]
 [ 1.71297991e+00]
 [ 5.01304090e-01]
 [-3.06337166e+00]
 [ 5.85186839e-01]
 [-5.17345667e-01]
 [-9.35716212e-01]
 [-2.06609154e+00]
 [ 4.67070431e-01]
 [-7.33426273e-01]
 [-8.25779065e-02]
 [-6.72096014e-01]
 [ 4.80595887e-01]
 [-6.24479115e-01]
 [ 2.90377569e+00]
 [ 3.75187993e+00]
 [ 1.76366305e+00]
 [-5.69619477e-01]
 [ 6.17011786e-01]
 [ 3.20497370e+00]
 [-1.21728647e+00]
 [-3.80303621e-01]
 [ 1.34455025e+00]
 [ 1.49935508e+00]
 [-7.66265810e-01]
 [-7.92312860e-01]
 [-5.99933825e-02]
 [-6.04872823e-01]
 [ 1.23000234e-01]
 [ 2.90419102e-01]
 [-1.63147017e-01]
 [-1.50817394e+00]
 [ 2.75539732e+00]
 [ 1.56870031e+00]
 [-7.80131459e-01]
 [-2.44068480e+00]
 [-2.67302811e-01]
 [-6.35952473e-01]
 [-3.54297221e-01]
 [-1.64565837e+00]
 [-1.15711868e+00]
 [-2.13098741e+00]
 [-4.39461327e+00]
 [-5.07035375e-01]
 [ 1.01226103e+00]
 [ 2.49562049e+00]
 [ 7.13389993e-01]
 [-3.11341286e+00]
 [-9.37641025e-01]
 [-2.97202915e-01]
 [-4.02733162e-02]
 [-3.97105962e-01]
 [-1.36369514e+00]
 [-1.21139805e-03]
 [-3.18845332e-01]
 [ 1.60686338e+00]
 [ 3.83847141e+00]
 [ 2.90781140e+00]
 [ 5.63772821e+00]
 [ 4.54664260e-01]
 [ 6.96604609e-01]
 [ 1.59566152e+00]
 [-1.16591966e+00]
 [ 2.51723266e+00]
 [-1.41847003e+00]
 [ 4.92479414e-01]
 [-1.28901792e+00]
 [-5.71030438e-01]
 [ 1.07256162e+00]
 [-9.85604763e-01]
 [ 5.69488347e-01]
 [-1.69747293e+00]
 [ 9.67956960e-01]
 [-6.80233121e-01]
 [ 1.15951180e+00]
 [ 4.16578150e+00]
 [-9.41472948e-02]
 [-1.98929536e+00]
 [ 1.07460701e+00]
 [-3.12176108e+00]
 [-9.70881999e-01]
 [ 1.53228676e+00]
 [-1.31573689e+00]
 [ 2.28487182e+00]
 [-3.56512904e-01]
 [-1.22893310e+00]
 [ 2.92382464e-02]
 [ 1.59955633e+00]
 [-1.59725642e+00]
 [-1.10103023e+00]]

Layer 4:
[0.34776354]



Entrenamiento 5:
------------------------------------------------------------------------

Layer 0:
[[0. 0. 0. ... 0. 0. 0.]
 [0. 0. 0. ... 0. 0. 0.]
 [0. 0. 0. ... 0. 0. 0.]
 ...
 [0. 0. 0. ... 0. 0. 0.]
 [0. 0. 0. ... 0. 0. 0.]
 [0. 0. 0. ... 0. 0. 0.]]

Layer 1:
[[-0.11658682 -0.05228746 -0.05834198  0.10781671 -0.0308985  -0.01956205
   0.02919211  0.02472399 -0.02837855  0.036832   -0.08200478  0.0848017
   0.12845871 -0.03344214  0.07376877 -0.06296157 -0.02461016 -0.0132051
  -0.07118575 -0.05661886  0.05841866 -0.0649311  -0.05385747 -0.10564902
   0.03294354  0.01312683  0.05605798 -0.10360137 -0.02983728  0.02939528
  -0.04883265 -0.01901783  0.07819696  0.05057207 -0.13557315 -0.09160054
  -0.05646986 -0.14101203  0.02167512  0.05995988 -0.08766803 -0.0263446
   0.02469465  0.05807908 -0.02336231 -0.01818138 -0.00158086 -0.06367869
  -0.0642944  -0.07720147 -0.06129182 -0.11560201 -0.02493745  0.03420465
   0.0593661   0.00840153  0.00477716 -0.0194404   0.05307652 -0.07376858
  -0.05765016 -0.09903847 -0.14089718 -0.07415872 -0.11484665  0.06767475
   0.03461918  0.00605927  0.03439953  0.03305632  0.04374002  0.03059686
  -0.03478466  0.00783233 -0.04100309  0.07104217 -0.09801674 -0.03453711
   0.11490327 -0.08257139  0.03939379 -0.06211579  0.05918611 -0.03992448
   0.07933743  0.02125417  0.05826577 -0.02066448 -0.00199308 -0.00971569
  -0.03819025  0.03835464 -0.05066976  0.00746021 -0.09299456 -0.15947047
   0.09056871  0.00469299 -0.05852928 -0.10387277]]

Layer 2:
[0. 0. 0. 0. 0. 0. 0. 0. 0. 0. 0. 0. 0. 0. 0. 0. 0. 0. 0. 0. 0. 0. 0. 0.
 0. 0. 0. 0. 0. 0. 0. 0. 0. 0. 0. 0. 0. 0. 0. 0. 0. 0. 0. 0. 0. 0. 0. 0.
 0. 0. 0. 0. 0. 0. 0. 0. 0. 0. 0. 0. 0. 0. 0. 0. 0. 0. 0. 0. 0. 0. 0. 0.
 0. 0. 0. 0. 0. 0. 0. 0. 0. 0. 0. 0. 0. 0. 0. 0. 0. 0. 0. 0. 0. 0. 0. 0.
 0. 0. 0. 0.]

Layer 3:
[[-0.43306446]
 [-1.7640728 ]
 [-1.183369  ]
 [ 0.8804805 ]
 [-1.675804  ]
 [-2.0347834 ]
 [ 0.7707826 ]
 [-0.816661  ]
 [-0.21029665]
 [ 3.3654366 ]
 [-0.94458526]
 [ 1.8150405 ]
 [ 0.8693148 ]
 [-2.9099543 ]
 [ 0.6175963 ]
 [-0.6282275 ]
 [-1.505527  ]
 [-1.913782  ]
 [ 0.35855752]
 [-0.82779086]
 [-0.19119999]
 [-0.7900217 ]
 [ 0.35810262]
 [-0.7087682 ]
 [ 3.2458322 ]
 [ 4.4338245 ]
 [ 1.8999484 ]
 [-0.6771894 ]
 [ 0.5012164 ]
 [ 3.038084  ]
 [-1.2683733 ]
 [-0.7635614 ]
 [ 1.4452991 ]
 [ 1.9464812 ]
 [-0.84447217]
 [-0.8906113 ]
 [-0.2289972 ]
 [-0.70877206]
 [ 0.09274042]
 [ 0.12556927]
 [-0.2645096 ]
 [-1.488719  ]
 [ 2.7906024 ]
 [ 1.478863  ]
 [-0.75221384]
 [-2.5545502 ]
 [ 0.24025562]
 [-0.7431966 ]
 [-0.4348206 ]
 [-1.8940694 ]
 [-1.259161  ]
 [-2.2141778 ]
 [-4.322792  ]
 [-0.28485045]
 [ 0.8642707 ]
 [ 2.944122  ]
 [ 1.1251745 ]
 [-3.295026  ]
 [-1.0759836 ]
 [-0.37623477]
 [-0.15826121]
 [-0.5079749 ]
 [-1.4707817 ]
 [-0.08959883]
 [-0.42803496]
 [ 1.6903559 ]
 [ 4.1430044 ]
 [ 3.290285  ]
 [ 7.0115175 ]
 [ 0.8004337 ]
 [ 0.7212036 ]
 [ 1.3028623 ]
 [-0.99529964]
 [ 2.690789  ]
 [-1.5503738 ]
 [ 1.0198351 ]
 [-1.3678968 ]
 [-0.68648106]
 [ 1.1579753 ]
 [-1.0733188 ]
 [ 0.7572048 ]
 [-0.72100127]
 [ 0.15634255]
 [-0.68570894]
 [ 1.3291696 ]
 [ 4.216685  ]
 [-0.41358006]
 [-2.619515  ]
 [ 1.1614817 ]
 [-3.4279358 ]
 [-1.0883067 ]
 [ 1.662565  ]
 [-1.4111754 ]
 [ 2.4921641 ]
 [-0.4647189 ]
 [-1.3133097 ]
 [ 0.02096489]
 [ 1.9753736 ]
 [-1.0707167 ]
 [-1.207458  ]]

Layer 4:
[0.3873423]



Entrenamiento 5 WITH NO CONSENSUS:
------------------------------------------------------------------------

Layer 0:
[[ 0.         -0.         -0.         ...  0.         -0.
  -0.        ]
 [-0.         -0.         -0.         ...  0.          0.05082037
   0.091976  ]
 [ 0.          0.04015364  0.         ...  0.          0.
   0.        ]
 ...
 [ 0.         -0.         -0.         ... -0.         -0.
  -0.        ]
 [-0.         -0.          0.         ...  0.         -0.
   0.        ]
 [-0.          0.          0.         ... -0.          0.
  -0.        ]]

Layer 1:
[[-0.18967384 -0.02734369 -0.13468516  0.1868617   0.10087603 -0.09638031
  -0.00200313 -0.07605207  0.04874697 -0.11016285 -0.10870869  0.09570548
   0.1927534   0.20267212  0.2099717  -0.2254384   0.01820338 -0.18933053
  -0.20620857 -0.11397213 -0.02449982 -0.13892555 -0.15874596 -0.08825152
   0.19410676 -0.14976409 -0.16985413  0.05679923 -0.23050807 -0.20760602
  -0.23698473 -0.09203126  0.20280993  0.17894024 -0.23883109 -0.20144263
  -0.2146396  -0.09892143 -0.0588195   0.22112712  0.02154768 -0.09626095
   0.22478366  0.02115637 -0.11719453  0.16019413 -0.10968089 -0.13521072
   0.15942249 -0.21668747 -0.05892794 -0.10747571 -0.00909361  0.12430581
   0.10458413  0.17102444 -0.01117402  0.05753335  0.05751011  0.08837593
  -0.09040882 -0.1469903  -0.16500103 -0.05289625  0.01497102 -0.16902083
  -0.09263957  0.13149959  0.04647601  0.1532411  -0.10858028  0.23964363
  -0.19103032  0.15220305 -0.03297222  0.19718063 -0.10861763  0.24056888
   0.11422437  0.14231858  0.15148696 -0.12166265  0.11440483  0.13188574
   0.12830243 -0.13343742  0.12975064 -0.06602044 -0.04912557 -0.158963
  -0.04631202  0.15831468 -0.02703844 -0.10864751 -0.15726024 -0.01802044
  -0.0086325   0.10590068 -0.24127004 -0.02963029]]

Layer 2:
[0. 0. 0. 0. 0. 0. 0. 0. 0. 0. 0. 0. 0. 0. 0. 0. 0. 0. 0. 0. 0. 0. 0. 0.
 0. 0. 0. 0. 0. 0. 0. 0. 0. 0. 0. 0. 0. 0. 0. 0. 0. 0. 0. 0. 0. 0. 0. 0.
 0. 0. 0. 0. 0. 0. 0. 0. 0. 0. 0. 0. 0. 0. 0. 0. 0. 0. 0. 0. 0. 0. 0. 0.
 0. 0. 0. 0. 0. 0. 0. 0. 0. 0. 0. 0. 0. 0. 0. 0. 0. 0. 0. 0. 0. 0. 0. 0.
 0. 0. 0. 0.]

Layer 3:
[[ 3.19687426e-01]
 [-1.40366640e+01]
 [-1.07440603e+00]
 [ 9.29343879e-01]
 [ 8.03011581e-02]
 [ 4.10703152e-01]
 [-2.71640849e+00]
 [-9.64304268e-01]
 [ 1.52680233e-01]
 [-1.00098443e+00]
 [-1.82451904e+00]
 [ 1.66506565e+00]
 [ 8.69650692e-02]
 [ 1.39531314e-01]
 [-8.79999340e-01]
 [-6.30180717e-01]
 [ 9.12872696e+00]
 [-1.06674945e+00]
 [ 4.42713946e-01]
 [-4.49888915e-01]
 [-4.65232372e+00]
 [-7.31273055e-01]
 [ 1.02595456e-01]
 [-1.44974029e+00]
 [-2.46523142e-01]
 [-1.29983008e+00]
 [ 2.72033906e+00]
 [-8.72669578e-01]
 [ 3.06211263e-01]
 [ 3.99839103e-01]
 [-1.30928183e+00]
 [-4.09229815e-01]
 [ 8.48166943e-02]
 [ 7.42776453e-01]
 [-1.65247455e-01]
 [-5.19671082e-01]
 [-1.55353093e+00]
 [-7.86565304e-01]
 [-6.83645666e-01]
 [-3.66327465e-02]
 [ 2.85696006e+00]
 [-1.34168708e+00]
 [-1.56592160e-01]
 [ 1.48410864e+01]
 [-6.22128010e-01]
 [ 4.47807491e-01]
 [-4.13839519e-01]
 [-6.34727597e-01]
 [-8.24533105e-01]
 [ 2.79979557e-01]
 [ 3.12101752e-01]
 [-1.64507902e+00]
 [-1.13089008e+01]
 [ 4.73022997e-01]
 [ 4.77551073e-01]
 [ 8.22475180e-02]
 [-1.78995495e+01]
 [-8.09620880e-03]
 [ 1.72189677e+00]
 [-8.86596799e-01]
 [ 1.87444854e+00]
 [-5.58523059e-01]
 [-3.47882360e-02]
 [-1.45831656e+00]
 [ 5.23809385e+00]
 [-1.99085638e-01]
 [-7.15793595e-02]
 [ 5.24353266e-01]
 [ 6.78498924e-01]
 [ 8.58651221e-01]
 [-7.15018332e-01]
 [-6.92607403e-01]
 [-5.48726857e-01]
 [ 4.95667368e-01]
 [-2.85920477e+00]
 [ 1.54305863e+00]
 [-5.16756117e-01]
 [-4.57865477e-01]
 [ 1.03562035e-01]
 [ 7.86563277e-01]
 [ 9.01385725e-01]
 [-1.20912468e+00]
 [ 1.93413317e-01]
 [ 4.06344146e-01]
 [ 5.46475053e-01]
 [-1.00989032e+00]
 [ 1.70207381e+00]
 [-4.04853046e-01]
 [-1.47741807e+00]
 [-6.09986901e-01]
 [-2.03380823e+00]
 [ 2.77244806e-01]
 [-5.96536064e+00]
 [-5.88290751e-01]
 [ 1.98476821e-01]
 [-9.16442215e-01]
 [-1.28025417e+01]
 [ 4.88686599e-02]
 [ 2.68170446e-01]
 [-1.03477657e+00]]

Layer 4:
[0.1004035]



Consenso 5:
------------------------------------------------------------------------

Layer 0:
[[0. 0. 0. ... 0. 0. 0.]
 [0. 0. 0. ... 0. 0. 0.]
 [0. 0. 0. ... 0. 0. 0.]
 ...
 [0. 0. 0. ... 0. 0. 0.]
 [0. 0. 0. ... 0. 0. 0.]
 [0. 0. 0. ... 0. 0. 0.]]

Layer 1:
[[-0.11658909 -0.05229054 -0.05833917  0.1078158  -0.0309005  -0.01956256
   0.02919421  0.02472676 -0.02837917  0.03683446 -0.08200357  0.08480369
   0.12845719 -0.03344407  0.07376499 -0.06296087 -0.02461376 -0.01320542
  -0.07118482 -0.05661776  0.05841695 -0.06493213 -0.05385562 -0.10564893
   0.03294489  0.01312754  0.05605822 -0.10360426 -0.02983376  0.02939798
  -0.04883147 -0.01901603  0.07819475  0.05056738 -0.13557377 -0.09160067
  -0.05646743 -0.14101177  0.02167643  0.05995906 -0.0876702  -0.02634337
   0.02469604  0.05807703 -0.02336432 -0.01818215 -0.0015842  -0.0636794
  -0.06429697 -0.07720131 -0.06129077 -0.11560316 -0.02493712  0.03420594
   0.05936305  0.00839942  0.00477582 -0.01944127  0.05307567 -0.07376873
  -0.05764785 -0.09903555 -0.14089622 -0.07416043 -0.11484662  0.06767523
   0.03462012  0.00605799  0.03440295  0.03305801  0.0437424   0.03059376
  -0.03478481  0.00783323 -0.04100593  0.07104146 -0.09801643 -0.03453894
   0.1149047  -0.08257163  0.03939221 -0.06211597  0.05918656 -0.03992681
   0.07933528  0.02125507  0.05826255 -0.02066635 -0.00199524 -0.00971754
  -0.03819324  0.03835441 -0.05067078  0.00746192 -0.092995   -0.15947203
   0.09057085  0.00469164 -0.05852556 -0.10387225]]

Layer 2:
[0. 0. 0. 0. 0. 0. 0. 0. 0. 0. 0. 0. 0. 0. 0. 0. 0. 0. 0. 0. 0. 0. 0. 0.
 0. 0. 0. 0. 0. 0. 0. 0. 0. 0. 0. 0. 0. 0. 0. 0. 0. 0. 0. 0. 0. 0. 0. 0.
 0. 0. 0. 0. 0. 0. 0. 0. 0. 0. 0. 0. 0. 0. 0. 0. 0. 0. 0. 0. 0. 0. 0. 0.
 0. 0. 0. 0. 0. 0. 0. 0. 0. 0. 0. 0. 0. 0. 0. 0. 0. 0. 0. 0. 0. 0. 0. 0.
 0. 0. 0. 0.]

Layer 3:
[[-0.37921202]
 [-1.8028274 ]
 [-1.2145416 ]
 [ 0.7814479 ]
 [-1.7540678 ]
 [-2.1251771 ]
 [ 0.81682616]
 [-0.8216139 ]
 [-0.16510314]
 [ 3.4436266 ]
 [-0.91905737]
 [ 1.764186  ]
 [ 0.6597524 ]
 [-3.0745878 ]
 [ 0.610439  ]
 [-0.5836602 ]
 [-1.5179656 ]
 [-2.134874  ]
 [ 0.40654176]
 [-0.7966229 ]
 [-0.13064192]
 [-0.764207  ]
 [ 0.41210616]
 [-0.6849886 ]
 [ 3.1490343 ]
 [ 4.3576174 ]
 [ 1.8357495 ]
 [-0.6249476 ]
 [ 0.5508821 ]
 [ 3.2144432 ]
 [-1.2614446 ]
 [-0.7292455 ]
 [ 1.4135544 ]
 [ 1.7095898 ]
 [-0.80953914]
 [-0.8512949 ]
 [-0.14462154]
 [-0.67608494]
 [ 0.09452748]
 [ 0.2226854 ]
 [-0.22310886]
 [-1.541403  ]
 [ 2.851693  ]
 [ 1.5297135 ]
 [-0.8024648 ]
 [-2.506342  ]
 [-0.05319797]
 [-0.715195  ]
 [-0.41018516]
 [-1.7982721 ]
 [-1.2201421 ]
 [-2.1881845 ]
 [-4.462084  ]
 [-0.38656652]
 [ 0.900967  ]
 [ 3.0540893 ]
 [ 1.0665959 ]
 [-3.5448437 ]
 [-0.9974908 ]
 [-0.358904  ]
 [-0.09745388]
 [-0.46095267]
 [-1.4145534 ]
 [-0.05706545]
 [-0.38212082]
 [ 1.6646028 ]
 [ 4.051778  ]
 [ 3.3102705 ]
 [ 6.408068  ]
 [ 0.6056277 ]
 [ 0.7239457 ]
 [ 1.5001432 ]
 [-1.1179132 ]
 [ 3.0101452 ]
 [-1.4954114 ]
 [ 0.69218695]
 [-1.339116  ]
 [-0.6397797 ]
 [ 1.0737473 ]
 [-1.0469996 ]
 [ 0.67962146]
 [-1.316346  ]
 [ 0.61512274]
 [-0.6991644 ]
 [ 1.2415497 ]
 [ 4.3215976 ]
 [-0.25230592]
 [-2.4418383 ]
 [ 1.3704969 ]
 [-3.6193814 ]
 [-1.0413078 ]
 [ 1.5854392 ]
 [-1.3802243 ]
 [ 2.727895  ]
 [-0.42379355]
 [-1.2873698 ]
 [-0.02624892]
 [ 2.0131123 ]
 [-1.3725191 ]
 [-1.1661464 ]]

Layer 4:
[0.36597034]



