:
------------------------------------------------------------------------



Entrenamiento 0:
------------------------------------------------------------------------

Layer 0:
[[ 0.          0.         -0.         ...  0.          0.10808834
   0.        ]
 [-0.         -0.         -0.         ...  0.         -0.
  -0.2988074 ]
 [-0.          0.31018808 -0.         ... -0.40869853  0.
   0.        ]
 ...
 [ 0.2763262  -0.         -0.         ... -0.         -0.
   0.47066647]
 [ 0.         -0.         -0.         ... -0.15437691 -0.
  -0.        ]
 [ 0.         -0.         -0.         ... -0.          0.
   0.        ]]

Layer 1:
[[ 0.09640622  0.22158328 -0.12136605  0.01718178 -0.09360419  0.07193696
  -0.08393379 -0.18854272  0.10820162 -0.2127775  -0.23142374  0.06286424
  -0.10415784 -0.03106962 -0.14720108 -0.01897919 -0.13875808  0.0044658
  -0.15952685  0.14002419 -0.16663527  0.21559832  0.09735093  0.1930399
  -0.04599817 -0.13565509 -0.01472226  0.05694997 -0.10023572 -0.18030718
   0.21888277 -0.03957039 -0.19647023 -0.2262401  -0.20218569  0.06280705
  -0.21943401  0.10146731  0.2353755   0.09222257 -0.03626005 -0.02174288
   0.20122209  0.04908022 -0.19440283 -0.06956775 -0.1282984  -0.13040125
   0.08922923 -0.17869723  0.22221589  0.23006076 -0.05141193  0.00386783
  -0.20407167 -0.09146683 -0.18206729 -0.1657678  -0.0789368   0.06438085
   0.14501867  0.15276784  0.03587216  0.10536775 -0.08189254 -0.14624748
   0.07498401  0.1222308   0.22344846 -0.16198301  0.01810819 -0.14021613
   0.14589539 -0.16143867  0.18297893 -0.23125893  0.22105971 -0.06871271
  -0.21410522  0.05023012  0.12964442 -0.10689123  0.1964854  -0.16969985
   0.12394458  0.22580925 -0.22047059  0.05912936 -0.03194419 -0.22852686
  -0.04940745  0.19668064 -0.02719121 -0.1274321   0.07366478 -0.06806025
  -0.22637996  0.00733984  0.05788684  0.12965733]]

Layer 2:
[0. 0. 0. 0. 0. 0. 0. 0. 0. 0. 0. 0. 0. 0. 0. 0. 0. 0. 0. 0. 0. 0. 0. 0.
 0. 0. 0. 0. 0. 0. 0. 0. 0. 0. 0. 0. 0. 0. 0. 0. 0. 0. 0. 0. 0. 0. 0. 0.
 0. 0. 0. 0. 0. 0. 0. 0. 0. 0. 0. 0. 0. 0. 0. 0. 0. 0. 0. 0. 0. 0. 0. 0.
 0. 0. 0. 0. 0. 0. 0. 0. 0. 0. 0. 0. 0. 0. 0. 0. 0. 0. 0. 0. 0. 0. 0. 0.
 0. 0. 0. 0.]

Layer 3:
[[ 1.7466643e-01]
 [ 3.7969649e-01]
 [-2.0025629e-01]
 [ 4.7448936e+00]
 [-3.8809448e-01]
 [ 7.7418500e-01]
 [-2.0951122e-02]
 [-3.7519476e-01]
 [ 4.4375551e-01]
 [-3.1177038e-01]
 [-1.7298631e-01]
 [ 1.2830025e+00]
 [-4.1219509e-01]
 [-5.0577801e-01]
 [-1.6839607e-01]
 [-3.9950347e+00]
 [-1.7501359e-01]
 [-1.2936161e-01]
 [-3.6546057e-01]
 [ 2.5587168e-01]
 [-3.7730229e-01]
 [ 4.0186506e-02]
 [ 1.4905438e-01]
 [-1.4186026e-01]
 [-5.2360469e-01]
 [-1.5582331e-01]
 [-4.4167018e+00]
 [ 1.0749878e+00]
 [-2.8738105e-01]
 [-1.9939215e-01]
 [-4.9968872e-02]
 [-1.7733967e+00]
 [-2.0892631e-01]
 [-2.1465099e-01]
 [-4.3753956e-02]
 [ 2.3835157e-01]
 [-3.0357650e-01]
 [ 4.1845852e-01]
 [ 1.9725884e-01]
 [ 2.6640195e-01]
 [-5.1030600e-01]
 [-4.0000825e+00]
 [-8.7718867e-02]
 [ 5.0139612e-01]
 [-3.0089414e-01]
 [-5.2169722e-01]
 [-1.6826883e-01]
 [-4.1479383e-02]
 [ 1.3365922e+00]
 [-3.1130877e-01]
 [ 2.4395901e-01]
 [ 2.0700708e-01]
 [-3.7795792e+00]
 [ 1.0782218e+00]
 [-2.9957500e-01]
 [-4.5472533e-01]
 [ 1.0880356e-01]
 [-2.2233576e-01]
 [-3.2686357e+00]
 [ 6.8925893e-01]
 [ 1.6983323e-01]
 [ 4.3823746e-01]
 [ 8.3308309e-01]
 [ 7.0712304e-01]
 [-2.7562621e+00]
 [-9.3591623e-02]
 [ 8.7537926e-01]
 [-1.0590070e-02]
 [ 1.4942971e-01]
 [-9.5170550e-02]
 [ 4.0781379e-01]
 [-2.9307145e-01]
 [ 2.1843296e-01]
 [-1.9253393e-01]
 [-8.0932491e-02]
 [-2.5252017e-01]
 [ 1.1935475e-01]
 [-3.4097126e-01]
 [-2.6644149e-01]
 [ 6.6605699e-01]
 [ 5.3627038e-01]
 [-1.2053591e+00]
 [ 3.9827362e-01]
 [-2.6800117e-01]
 [ 1.0142731e-03]
 [ 3.4800360e-01]
 [-4.4400033e-02]
 [ 2.0137808e+00]
 [-2.5463691e+00]
 [ 1.7299303e-01]
 [-1.3835292e+00]
 [-2.0701632e-01]
 [-3.9257298e+00]
 [-3.5436764e-01]
 [ 2.2405694e+00]
 [-3.3070886e+00]
 [ 2.3182681e-01]
 [ 1.0290571e+00]
 [ 2.5473157e-01]
 [ 2.8094456e-01]]

Layer 4:
[0.22860487]



Consenso 0:
------------------------------------------------------------------------

Layer 0:
[[ 5.6346506e-03 -1.4360631e-01  7.5295990e-05 ...  7.2349882e-05
   1.6308612e-01 -9.3019083e-03]
 [-3.7755179e-03  0.0000000e+00 -2.8888401e-02 ... -7.5118481e-03
  -6.1998842e-03 -8.5562821e-03]
 [ 7.2814710e-02 -9.8789344e-03  5.2712834e-03 ... -9.3099149e-03
   2.1529280e-02  1.8138601e-02]
 ...
 [-1.6160639e-02  0.0000000e+00 -2.4953648e-04 ... -2.1441830e-03
   1.5672398e-01 -3.1161860e-03]
 [ 2.8045464e-03  3.4516598e-03 -8.3696824e-03 ...  4.0283968e-04
  -1.0358759e-03 -1.6804958e-03]
 [ 1.0065473e-02  8.6103808e-03 -1.5847665e-01 ...  7.6246681e-03
  -1.6776900e-01 -1.6962825e-03]]

Layer 1:
[[ 6.36795163e-02 -1.08086534e-01  5.60223609e-02 -5.24139777e-02
   5.06392159e-02 -6.86543882e-02 -8.27209949e-02 -6.10667057e-02
   9.35539529e-02 -1.42207388e-02  3.26593891e-02  2.54269596e-02
  -1.64772533e-02 -4.75848131e-02 -2.40209885e-02 -2.17165183e-02
  -9.81248729e-03  3.16695124e-02 -7.23527968e-02 -4.19806913e-02
   1.42325843e-02 -5.70725016e-02 -1.58481561e-02 -3.23297083e-02
  -1.50473164e-02 -6.30322397e-02  5.33235855e-02 -1.09473262e-02
  -1.54773397e-02  2.75786389e-02  2.30162181e-02 -3.53203192e-02
  -1.72653180e-02  5.94195239e-02  5.92614748e-02  1.40461735e-02
  -1.13462573e-02  1.44275323e-01  1.35889500e-01 -7.28296209e-03
  -7.18676224e-02  8.61023553e-03  9.75125097e-03 -6.54500443e-04
   7.12313652e-02  7.31526362e-03 -1.08678684e-01  3.83191817e-02
   5.24201505e-02  6.91123828e-02 -2.82532685e-02 -4.95797731e-02
  -8.18340294e-03  2.87019257e-02 -6.89545199e-02 -1.27555220e-04
  -6.50553629e-02  6.49850816e-02 -5.90508394e-02 -8.07982236e-02
  -3.72070931e-02  1.50706787e-02 -8.96596611e-02 -1.03185117e-01
   4.45088260e-02  2.15414204e-02 -5.57292365e-02  9.73955542e-02
  -1.18215904e-02  7.34794736e-02  3.07418429e-03 -6.94262907e-02
  -2.10495386e-02 -9.16002616e-02  3.10232006e-02  6.43967018e-02
   3.35747078e-02  7.61987418e-02  3.33174691e-02  2.80504227e-02
  -7.72773027e-02  4.21438441e-02 -9.27217081e-02 -5.00995889e-02
  -1.04338676e-01  2.84026675e-02  3.38866040e-02  1.07156061e-01
  -2.68166233e-03 -6.94542006e-02  2.99998559e-02  8.88511240e-02
  -5.07771634e-02 -2.73385495e-02 -5.89803644e-02 -7.12027773e-02
  -4.63151336e-02 -7.80844614e-02 -6.98187202e-02  8.73337761e-02]]

Layer 2:
[0. 0. 0. 0. 0. 0. 0. 0. 0. 0. 0. 0. 0. 0. 0. 0. 0. 0. 0. 0. 0. 0. 0. 0.
 0. 0. 0. 0. 0. 0. 0. 0. 0. 0. 0. 0. 0. 0. 0. 0. 0. 0. 0. 0. 0. 0. 0. 0.
 0. 0. 0. 0. 0. 0. 0. 0. 0. 0. 0. 0. 0. 0. 0. 0. 0. 0. 0. 0. 0. 0. 0. 0.
 0. 0. 0. 0. 0. 0. 0. 0. 0. 0. 0. 0. 0. 0. 0. 0. 0. 0. 0. 0. 0. 0. 0. 0.
 0. 0. 0. 0.]

Layer 3:
[[-0.3283426 ]
 [-0.00979831]
 [ 0.25531963]
 [-0.4264925 ]
 [ 0.14618273]
 [ 0.07693496]
 [-0.1379471 ]
 [-0.44527146]
 [ 0.15278366]
 [-0.87370276]
 [-0.12810014]
 [ 0.37254804]
 [-0.27718127]
 [-0.47456443]
 [-1.051616  ]
 [ 0.14276114]
 [ 0.6043599 ]
 [ 0.3045053 ]
 [-0.25558537]
 [-0.19347022]
 [ 1.1677972 ]
 [ 0.07889967]
 [ 0.15644981]
 [-0.08655183]
 [-0.81842303]
 [-0.44777668]
 [ 1.1056452 ]
 [ 0.29774904]
 [-2.1472332 ]
 [ 0.6802254 ]
 [-0.9631217 ]
 [-1.3099482 ]
 [-1.5370319 ]
 [-0.1994095 ]
 [ 0.00458069]
 [ 0.44815522]
 [-0.2889217 ]
 [ 0.17803468]
 [ 0.3610701 ]
 [ 1.0829675 ]
 [ 0.64663446]
 [-0.06298212]
 [ 0.7484436 ]
 [ 0.2942805 ]
 [ 1.1492548 ]
 [-1.2845324 ]
 [-0.07191246]
 [-0.01669189]
 [-0.49721527]
 [ 0.62338954]
 [-0.08232375]
 [ 0.12949595]
 [ 0.09969106]
 [-0.07891283]
 [-0.10544966]
 [ 0.06048565]
 [-0.31456548]
 [ 0.63269407]
 [-0.5301944 ]
 [ 0.28226632]
 [ 0.97813195]
 [ 0.43373185]
 [-1.444091  ]
 [-0.24511819]
 [ 0.2967489 ]
 [-0.8190065 ]
 [ 0.17554641]
 [-0.13545156]
 [-0.04634381]
 [ 0.26354325]
 [ 1.0390613 ]
 [ 0.83974695]
 [-0.27207032]
 [-0.3122585 ]
 [ 0.05551476]
 [-0.206409  ]
 [ 0.20534164]
 [ 0.40877286]
 [ 0.43368807]
 [ 0.75241715]
 [ 0.18951854]
 [-0.01532016]
 [-0.07296763]
 [-0.20160954]
 [-0.46581832]
 [-0.02517629]
 [ 0.28145322]
 [ 0.27509642]
 [-0.3749284 ]
 [ 0.07393517]
 [ 0.3831356 ]
 [ 0.19154027]
 [-0.0464959 ]
 [-0.8977362 ]
 [-0.19985034]
 [-0.10311942]
 [-0.11638147]
 [-0.29937437]
 [-0.32067984]
 [ 0.11072774]]

Layer 4:
[-0.01678428]



Entrenamiento 1:
------------------------------------------------------------------------

Layer 0:
[[ 5.6346506e-03 -1.4360631e-01  7.5295990e-05 ...  7.2349882e-05
   1.6308612e-01 -9.3019083e-03]
 [-3.7755179e-03  0.0000000e+00 -2.8888401e-02 ... -7.5118481e-03
  -6.1998842e-03 -8.5562821e-03]
 [ 7.2814710e-02 -9.8789344e-03  5.2712834e-03 ... -9.3099149e-03
   2.1529280e-02  1.8138601e-02]
 ...
 [-1.6160639e-02  0.0000000e+00 -2.4953648e-04 ... -2.1441830e-03
   1.5672398e-01 -3.1161860e-03]
 [ 2.8045464e-03  3.4516598e-03 -8.3696824e-03 ...  4.0283968e-04
  -1.0358759e-03 -1.6804958e-03]
 [ 1.0065473e-02  8.6103808e-03 -1.5847665e-01 ...  7.6246681e-03
  -1.6776900e-01 -1.6962825e-03]]

Layer 1:
[[ 6.36795163e-02 -1.08086534e-01  5.60223609e-02 -5.24139777e-02
   5.06392159e-02 -6.86543882e-02 -8.27209949e-02 -6.10667057e-02
   9.35539529e-02 -1.42207388e-02  3.26593891e-02  2.54269596e-02
  -1.64772533e-02 -4.75848131e-02 -2.40209885e-02 -2.17165183e-02
  -9.81248729e-03  3.16695124e-02 -7.23527968e-02 -4.19806913e-02
   1.42325843e-02 -5.70725016e-02 -1.58481561e-02 -3.23297083e-02
  -1.50473164e-02 -6.30322397e-02  5.33235855e-02 -1.09473262e-02
  -1.54773397e-02  2.75786389e-02  2.30162181e-02 -3.53203192e-02
  -1.72653180e-02  5.94195239e-02  5.92614748e-02  1.40461735e-02
  -1.13462573e-02  1.44275323e-01  1.35889500e-01 -7.28296209e-03
  -7.18676224e-02  8.61023553e-03  9.75125097e-03 -6.54500443e-04
   7.12313652e-02  7.31526362e-03 -1.08678684e-01  3.83191817e-02
   5.24201505e-02  6.91123828e-02 -2.82532685e-02 -4.95797731e-02
  -8.18340294e-03  2.87019257e-02 -6.89545199e-02 -1.27555220e-04
  -6.50553629e-02  6.49850816e-02 -5.90508394e-02 -8.07982236e-02
  -3.72070931e-02  1.50706787e-02 -8.96596611e-02 -1.03185117e-01
   4.45088260e-02  2.15414204e-02 -5.57292365e-02  9.73955542e-02
  -1.18215904e-02  7.34794736e-02  3.07418429e-03 -6.94262907e-02
  -2.10495386e-02 -9.16002616e-02  3.10232006e-02  6.43967018e-02
   3.35747078e-02  7.61987418e-02  3.33174691e-02  2.80504227e-02
  -7.72773027e-02  4.21438441e-02 -9.27217081e-02 -5.00995889e-02
  -1.04338676e-01  2.84026675e-02  3.38866040e-02  1.07156061e-01
  -2.68166233e-03 -6.94542006e-02  2.99998559e-02  8.88511240e-02
  -5.07771634e-02 -2.73385495e-02 -5.89803644e-02 -7.12027773e-02
  -4.63151336e-02 -7.80844614e-02 -6.98187202e-02  8.73337761e-02]]

Layer 2:
[0. 0. 0. 0. 0. 0. 0. 0. 0. 0. 0. 0. 0. 0. 0. 0. 0. 0. 0. 0. 0. 0. 0. 0.
 0. 0. 0. 0. 0. 0. 0. 0. 0. 0. 0. 0. 0. 0. 0. 0. 0. 0. 0. 0. 0. 0. 0. 0.
 0. 0. 0. 0. 0. 0. 0. 0. 0. 0. 0. 0. 0. 0. 0. 0. 0. 0. 0. 0. 0. 0. 0. 0.
 0. 0. 0. 0. 0. 0. 0. 0. 0. 0. 0. 0. 0. 0. 0. 0. 0. 0. 0. 0. 0. 0. 0. 0.
 0. 0. 0. 0.]

Layer 3:
[[-0.37426424]
 [ 0.3165967 ]
 [ 0.7661067 ]
 [-0.4493069 ]
 [ 0.42593125]
 [ 0.31345403]
 [ 0.04914402]
 [-0.982618  ]
 [-0.06025505]
 [-4.0854616 ]
 [ 0.72061044]
 [ 2.137669  ]
 [-4.0071564 ]
 [-0.939247  ]
 [-5.798841  ]
 [-1.1140041 ]
 [-3.2829018 ]
 [ 1.0311971 ]
 [-0.18459646]
 [-0.90877616]
 [ 5.259932  ]
 [-0.01519389]
 [-2.3568351 ]
 [-0.52198553]
 [-5.146253  ]
 [-0.5145385 ]
 [ 1.2381291 ]
 [-1.6576483 ]
 [-4.9198365 ]
 [ 1.8359579 ]
 [-0.29895845]
 [-2.418664  ]
 [-4.5892854 ]
 [-0.33759466]
 [ 0.11800951]
 [ 3.2643588 ]
 [-3.1934066 ]
 [-0.10295387]
 [ 0.11736956]
 [-1.2843379 ]
 [ 0.75658053]
 [ 2.7548912 ]
 [ 3.0728917 ]
 [-0.25692174]
 [ 1.2923312 ]
 [ 0.05867926]
 [ 0.19822766]
 [ 0.40878505]
 [-0.20614865]
 [ 0.40465647]
 [-1.8583515 ]
 [-0.20719293]
 [-1.8046179 ]
 [ 0.8167838 ]
 [-0.03968973]
 [-0.48698807]
 [-1.2470117 ]
 [ 0.52732885]
 [-0.81315124]
 [ 0.51513964]
 [ 0.11485137]
 [ 4.695987  ]
 [-1.0959067 ]
 [-0.00863507]
 [ 1.143391  ]
 [ 2.0512345 ]
 [ 0.15899697]
 [-0.41753644]
 [-1.8606619 ]
 [ 0.1502362 ]
 [ 2.008176  ]
 [ 0.98107976]
 [-1.685763  ]
 [-0.09225718]
 [ 1.7949302 ]
 [-0.41447118]
 [ 2.1941483 ]
 [ 0.15026629]
 [ 1.1214277 ]
 [ 2.771359  ]
 [ 0.3012892 ]
 [ 0.5115751 ]
 [ 0.08049583]
 [-0.18729079]
 [-0.12453694]
 [ 2.0346627 ]
 [ 0.69569564]
 [ 0.04625185]
 [-1.2488296 ]
 [ 0.14985335]
 [ 3.0901494 ]
 [-0.11091278]
 [-0.705814  ]
 [-3.506914  ]
 [ 0.00877915]
 [-0.02821919]
 [-0.15577199]
 [-0.16390634]
 [-0.20587128]
 [ 0.03576013]]

Layer 4:
[0.344159]



Consenso 1:
------------------------------------------------------------------------

Layer 0:
[[ 7.2797289e-04 -1.7337738e-01  9.7067859e-06 ...  9.3470044e-06
   1.9098416e-01 -1.2011465e-03]
 [ 3.1125003e-03  0.0000000e+00 -2.8752845e-02 ... -9.3791466e-03
  -6.5981257e-03 -9.3487008e-03]
 [ 9.6624374e-02 -1.0631767e-02  6.8097928e-04 ... -1.5224713e-02
   2.3120945e-02  3.0254142e-02]
 ...
 [-1.7357251e-02  0.0000000e+00 -3.2238040e-05 ... -2.7595024e-04
   1.8679082e-01 -3.3654924e-03]
 [ 3.6217770e-04  6.2963194e-03 -9.0115927e-03 ...  5.1904633e-05
  -1.3298383e-04 -2.1595506e-04]
 [ 8.7174661e-03  6.4021233e-03 -1.8039249e-01 ...  8.2094399e-03
  -1.9535115e-01 -2.1903466e-04]]

Layer 1:
[[ 0.07156321 -0.13370413  0.05893726 -0.06585221  0.06866992 -0.07743585
  -0.08830249 -0.07769925  0.11150013 -0.0118078   0.03277482  0.02097118
  -0.02049961 -0.06419209 -0.03971979 -0.02079966 -0.01115023  0.04217665
  -0.08490008 -0.0528577   0.00966782 -0.0691926  -0.00633932 -0.02890123
  -0.02127332 -0.06741647  0.0489128  -0.00768542 -0.00825178  0.03302209
   0.01993357 -0.03414349 -0.02324559  0.06497252  0.07603735  0.01909688
  -0.02045082  0.1650125   0.14477652 -0.00019989 -0.089138    0.0077535
   0.01784595  0.00039815  0.07683375  0.00598275 -0.12209065  0.05526341
   0.06778559  0.08435572 -0.02576132 -0.06148856 -0.02215399  0.03719027
  -0.07185795 -0.01231069 -0.07084209  0.06269055 -0.06518121 -0.09296335
  -0.04986978  0.0197801  -0.08887817 -0.11761217  0.06295664  0.02557282
  -0.07540081  0.11086781  0.00017098  0.08127543 -0.00356554 -0.08480506
  -0.0285115  -0.10377156  0.04262019  0.080208    0.04080713  0.08207276
   0.04065973  0.03591534 -0.08758722  0.04975843 -0.11187482 -0.05937931
  -0.13165914  0.0417325   0.04449657  0.10839152  0.00115621 -0.07674357
   0.04138048  0.10796311 -0.07097547 -0.03082424 -0.06937416 -0.07836516
  -0.05924855 -0.09862848 -0.07706466  0.11360274]]

Layer 2:
[0. 0. 0. 0. 0. 0. 0. 0. 0. 0. 0. 0. 0. 0. 0. 0. 0. 0. 0. 0. 0. 0. 0. 0.
 0. 0. 0. 0. 0. 0. 0. 0. 0. 0. 0. 0. 0. 0. 0. 0. 0. 0. 0. 0. 0. 0. 0. 0.
 0. 0. 0. 0. 0. 0. 0. 0. 0. 0. 0. 0. 0. 0. 0. 0. 0. 0. 0. 0. 0. 0. 0. 0.
 0. 0. 0. 0. 0. 0. 0. 0. 0. 0. 0. 0. 0. 0. 0. 0. 0. 0. 0. 0. 0. 0. 0. 0.
 0. 0. 0. 0.]

Layer 3:
[[-6.4042658e-01]
 [-3.8180569e-01]
 [-9.2245512e-02]
 [ 2.4034309e-01]
 [-3.7361737e-02]
 [-6.4632393e-02]
 [ 2.2609489e-01]
 [-2.0968306e-01]
 [ 5.7186300e-01]
 [-2.9607646e+00]
 [-4.4482700e-03]
 [ 3.7962940e-01]
 [-4.6348128e-01]
 [-1.2033283e+00]
 [-4.0128093e+00]
 [ 1.4639727e+00]
 [ 8.1330866e-01]
 [ 3.6316270e-01]
 [-8.3723032e-01]
 [-1.3328686e+00]
 [ 2.0076544e+00]
 [-3.9392900e-01]
 [ 1.9397424e+00]
 [ 5.3821552e-01]
 [-1.5568243e+00]
 [-1.2201416e+00]
 [ 1.6937037e+00]
 [ 6.2414879e-01]
 [-1.4025583e+00]
 [ 8.6319637e-01]
 [-3.6859322e-01]
 [-2.5171134e+00]
 [-5.5419903e+00]
 [-1.0637569e+00]
 [ 6.5141165e-01]
 [ 9.6983165e-01]
 [-4.3224981e-01]
 [-1.7916398e-02]
 [ 3.8487497e-01]
 [ 2.1580935e+00]
 [ 4.1332781e-01]
 [ 2.7245460e+00]
 [-1.5503362e+00]
 [-1.0328268e+00]
 [ 2.1069193e+00]
 [-1.4974774e+00]
 [ 5.7231158e-02]
 [-1.5526959e-01]
 [-3.7140062e-01]
 [ 1.1355097e+00]
 [ 6.9992363e-02]
 [ 7.9520577e-01]
 [-4.6483159e-01]
 [-1.6690168e-01]
 [-4.0389469e-01]
 [-3.0711809e-01]
 [-1.5984493e-01]
 [ 9.0424347e-01]
 [-1.1820320e+00]
 [ 3.7487715e-01]
 [ 5.7227826e-01]
 [ 9.3695265e-01]
 [-2.4700174e+00]
 [-2.4465682e-02]
 [ 9.1855174e-01]
 [ 1.9239402e+00]
 [ 5.1989324e-02]
 [-9.8413122e-01]
 [ 1.3737804e+00]
 [ 6.3965988e-01]
 [ 3.3340260e-01]
 [ 1.6312077e+00]
 [-1.6169174e+00]
 [-8.6065400e-01]
 [ 6.5546751e-01]
 [-3.7159708e-01]
 [ 3.3802524e+00]
 [ 3.7335747e-01]
 [ 1.8064657e+00]
 [ 9.6678317e-01]
 [-2.7582774e-02]
 [-3.7222812e-01]
 [-2.4423590e-03]
 [ 7.1623996e-02]
 [-5.5698735e-01]
 [-1.9798677e-02]
 [-8.8941447e-02]
 [ 5.9314549e-02]
 [-8.3922818e-02]
 [ 1.5929344e-01]
 [ 2.2171414e+00]
 [ 4.8493773e-01]
 [-3.4836191e-01]
 [-2.0579650e+00]
 [-2.1360995e-01]
 [-3.6308333e-01]
 [-1.8591547e-01]
 [-2.5345930e-01]
 [-2.7376279e-01]
 [-6.6457140e-01]]

Layer 4:
[-0.19269983]



Entrenamiento 2:
------------------------------------------------------------------------

Layer 0:
[[ 7.2797289e-04 -1.7337738e-01  9.7067859e-06 ...  9.3470044e-06
   1.9098416e-01 -1.2011465e-03]
 [ 3.1125003e-03  0.0000000e+00 -2.8752845e-02 ... -9.3791466e-03
  -6.5981257e-03 -9.3487008e-03]
 [ 9.6624374e-02 -1.0631767e-02  6.8097928e-04 ... -1.5224713e-02
   2.3120945e-02  3.0254142e-02]
 ...
 [-1.7357251e-02  0.0000000e+00 -3.2238040e-05 ... -2.7595024e-04
   1.8679082e-01 -3.3654924e-03]
 [ 3.6217770e-04  6.2963194e-03 -9.0115927e-03 ...  5.1904633e-05
  -1.3298383e-04 -2.1595506e-04]
 [ 8.7174661e-03  6.4021233e-03 -1.8039249e-01 ...  8.2094399e-03
  -1.9535115e-01 -2.1903466e-04]]

Layer 1:
[[ 0.07156321 -0.13370413  0.05893726 -0.06585221  0.06866992 -0.07743585
  -0.08830249 -0.07769925  0.11150013 -0.0118078   0.03277482  0.02097118
  -0.02049961 -0.06419209 -0.03971979 -0.02079966 -0.01115023  0.04217665
  -0.08490008 -0.0528577   0.00966782 -0.0691926  -0.00633932 -0.02890123
  -0.02127332 -0.06741647  0.0489128  -0.00768542 -0.00825178  0.03302209
   0.01993357 -0.03414349 -0.02324559  0.06497252  0.07603735  0.01909688
  -0.02045082  0.1650125   0.14477652 -0.00019989 -0.089138    0.0077535
   0.01784595  0.00039815  0.07683375  0.00598275 -0.12209065  0.05526341
   0.06778559  0.08435572 -0.02576132 -0.06148856 -0.02215399  0.03719027
  -0.07185795 -0.01231069 -0.07084209  0.06269055 -0.06518121 -0.09296335
  -0.04986978  0.0197801  -0.08887817 -0.11761217  0.06295664  0.02557282
  -0.07540081  0.11086781  0.00017098  0.08127543 -0.00356554 -0.08480506
  -0.0285115  -0.10377156  0.04262019  0.080208    0.04080713  0.08207276
   0.04065973  0.03591534 -0.08758722  0.04975843 -0.11187482 -0.05937931
  -0.13165914  0.0417325   0.04449657  0.10839152  0.00115621 -0.07674357
   0.04138048  0.10796311 -0.07097547 -0.03082424 -0.06937416 -0.07836516
  -0.05924855 -0.09862848 -0.07706466  0.11360274]]

Layer 2:
[0. 0. 0. 0. 0. 0. 0. 0. 0. 0. 0. 0. 0. 0. 0. 0. 0. 0. 0. 0. 0. 0. 0. 0.
 0. 0. 0. 0. 0. 0. 0. 0. 0. 0. 0. 0. 0. 0. 0. 0. 0. 0. 0. 0. 0. 0. 0. 0.
 0. 0. 0. 0. 0. 0. 0. 0. 0. 0. 0. 0. 0. 0. 0. 0. 0. 0. 0. 0. 0. 0. 0. 0.
 0. 0. 0. 0. 0. 0. 0. 0. 0. 0. 0. 0. 0. 0. 0. 0. 0. 0. 0. 0. 0. 0. 0. 0.
 0. 0. 0. 0.]

Layer 3:
[[-0.746858  ]
 [-0.89579797]
 [-0.49083006]
 [ 0.3501801 ]
 [-0.28353065]
 [-0.23845807]
 [ 0.23436297]
 [ 0.47359538]
 [ 0.59330475]
 [-5.4719586 ]
 [ 0.62284344]
 [ 1.8211663 ]
 [-3.33922   ]
 [-1.1141046 ]
 [-6.574365  ]
 [ 0.68008786]
 [-2.6880376 ]
 [ 0.32112437]
 [-0.69556004]
 [-1.337636  ]
 [ 5.0287538 ]
 [-0.3173756 ]
 [ 0.5857701 ]
 [ 0.42276752]
 [-5.60672   ]
 [-1.0577229 ]
 [ 1.6731241 ]
 [-0.9591165 ]
 [-3.8633792 ]
 [ 1.4041773 ]
 [ 0.32501262]
 [-2.7705038 ]
 [-7.3136435 ]
 [-0.7601697 ]
 [ 0.5255955 ]
 [ 2.9897335 ]
 [-2.237186  ]
 [ 0.3127212 ]
 [ 0.5948588 ]
 [ 2.2324972 ]
 [ 0.44403377]
 [ 5.202691  ]
 [-0.49786374]
 [-1.052863  ]
 [ 1.998214  ]
 [-0.16005602]
 [-0.19147673]
 [-0.1716993 ]
 [-0.50918525]
 [ 1.2101781 ]
 [-1.2324377 ]
 [ 0.7808954 ]
 [-2.4436088 ]
 [-0.02137278]
 [-0.4270234 ]
 [-3.997993  ]
 [ 0.47323787]
 [ 0.6683338 ]
 [-1.0349405 ]
 [ 0.27458298]
 [ 0.73661894]
 [ 4.8996797 ]
 [-2.748136  ]
 [ 0.05126169]
 [ 0.693334  ]
 [ 4.0639195 ]
 [-0.09594405]
 [-0.7123809 ]
 [ 2.8236866 ]
 [ 0.6796593 ]
 [-1.5643287 ]
 [ 1.5165472 ]
 [-2.0223007 ]
 [-0.98469865]
 [ 0.9833958 ]
 [-0.3707397 ]
 [ 4.0503974 ]
 [ 0.45329723]
 [ 1.9752756 ]
 [ 1.5928204 ]
 [-0.0728277 ]
 [-0.59327656]
 [-0.04025268]
 [ 0.01293422]
 [-0.8439961 ]
 [ 0.24618575]
 [ 0.06617166]
 [ 0.22402528]
 [ 0.398393  ]
 [ 0.22261454]
 [ 2.749697  ]
 [ 0.6754226 ]
 [ 0.05335572]
 [-3.9221053 ]
 [-0.35924867]
 [-0.43854657]
 [-0.25408792]
 [ 0.09006586]
 [-0.12010711]
 [-1.0324229 ]]

Layer 4:
[0.49567538]



Consenso 2:
------------------------------------------------------------------------

Layer 0:
[[ 9.3823299e-05 -1.7721783e-01  1.2510326e-06 ...  1.2046695e-06
   1.9458160e-01 -1.5480713e-04]
 [ 4.0016593e-03  0.0000000e+00 -2.8735615e-02 ... -9.6195731e-03
  -6.6493442e-03 -9.4510233e-03]
 [ 9.9695958e-02 -1.0728461e-02  8.7766624e-05 ... -1.5988354e-02
   2.3325920e-02  3.1817704e-02]
 ...
 [-1.7511128e-02  0.0000000e+00 -4.1549347e-06 ... -3.5564932e-05
   1.9066817e-01 -3.3961050e-03]
 [ 4.6678491e-05  6.6633699e-03 -9.0942504e-03 ...  6.6895759e-06
  -1.7139064e-05 -2.7832548e-05]
 [ 8.5414024e-03  6.1168363e-03 -1.8321776e-01 ...  8.2847401e-03
  -1.9890752e-01 -2.8229801e-05]]

Layer 1:
[[ 0.0725765  -0.13701154  0.05930868 -0.0675838   0.0709943  -0.07856941
  -0.08901965 -0.07984544  0.11381608 -0.01149738  0.03279006  0.02039338
  -0.02102108 -0.06633399 -0.04174656 -0.02068057 -0.01132077  0.04352981
  -0.08651371 -0.05426075  0.00908089 -0.07075762 -0.0051126  -0.02846123
  -0.02207413 -0.06798279  0.04834561 -0.00726243 -0.00731568  0.03372555
   0.01953761 -0.03398989 -0.02401656  0.06569116  0.07820307  0.01974718
  -0.02162827  0.16768445  0.14591917  0.00071245 -0.09136543  0.00764564
   0.01889056  0.00053108  0.07755817  0.00580939 -0.12382213  0.05744999
   0.06977102  0.08632072 -0.02543992 -0.06302645 -0.02395956  0.03828578
  -0.07222924 -0.01388197 -0.07158652  0.06239176 -0.06597286 -0.09453407
  -0.0515014   0.02038566 -0.08877702 -0.11947363  0.06533805  0.02609459
  -0.07793704  0.11260264  0.00172128  0.0822771  -0.00442437 -0.08678961
  -0.02947246 -0.10534184  0.04411597  0.08224893  0.04174242  0.08282687
   0.04160866  0.0369295  -0.08891309  0.05074336 -0.1143463  -0.06057766
  -0.13518384  0.0434531   0.04586209  0.10854667  0.00165237 -0.07768124
   0.04285086  0.11042559 -0.07358    -0.03127272 -0.07071234 -0.07928929
  -0.06091349 -0.10127718 -0.07799899  0.116994  ]]

Layer 2:
[0. 0. 0. 0. 0. 0. 0. 0. 0. 0. 0. 0. 0. 0. 0. 0. 0. 0. 0. 0. 0. 0. 0. 0.
 0. 0. 0. 0. 0. 0. 0. 0. 0. 0. 0. 0. 0. 0. 0. 0. 0. 0. 0. 0. 0. 0. 0. 0.
 0. 0. 0. 0. 0. 0. 0. 0. 0. 0. 0. 0. 0. 0. 0. 0. 0. 0. 0. 0. 0. 0. 0. 0.
 0. 0. 0. 0. 0. 0. 0. 0. 0. 0. 0. 0. 0. 0. 0. 0. 0. 0. 0. 0. 0. 0. 0. 0.
 0. 0. 0. 0.]

Layer 3:
[[-0.89228016]
 [-1.0747837 ]
 [-0.66241604]
 [ 0.99588484]
 [-0.22389023]
 [-0.16160153]
 [ 0.29137218]
 [ 0.5193111 ]
 [ 0.9195127 ]
 [-4.911185  ]
 [ 0.07779478]
 [-0.25760278]
 [-0.32087156]
 [-1.4932102 ]
 [-5.1763306 ]
 [ 1.7460463 ]
 [ 0.92051035]
 [ 0.6221528 ]
 [-0.5185729 ]
 [-1.8168107 ]
 [ 1.2362881 ]
 [-0.2726821 ]
 [ 3.2207096 ]
 [ 0.5707855 ]
 [-0.82127774]
 [-1.0243443 ]
 [ 0.9393718 ]
 [ 0.59279007]
 [-1.3112946 ]
 [ 0.7021174 ]
 [ 0.16055278]
 [-2.5201316 ]
 [-8.022172  ]
 [-1.1289477 ]
 [ 1.2298119 ]
 [ 0.9163376 ]
 [-0.4584355 ]
 [ 0.22347963]
 [ 0.35562578]
 [ 3.0032258 ]
 [-0.11142959]
 [ 5.6942515 ]
 [-4.1073303 ]
 [-1.7981268 ]
 [ 1.5747601 ]
 [-1.456427  ]
 [-0.02020475]
 [ 0.3190903 ]
 [-0.37949976]
 [ 1.3972294 ]
 [-0.09009141]
 [ 1.2529556 ]
 [ 0.42648387]
 [-0.06442156]
 [-0.04811934]
 [ 0.595213  ]
 [ 0.4765617 ]
 [ 1.2680156 ]
 [-0.8629269 ]
 [ 0.01584457]
 [ 1.1750246 ]
 [ 0.11633854]
 [-2.985497  ]
 [ 0.08881255]
 [ 0.8326252 ]
 [ 4.098224  ]
 [-0.33373392]
 [-0.9974991 ]
 [ 2.1493917 ]
 [ 0.15738928]
 [-0.71426684]
 [ 1.4020382 ]
 [-2.153009  ]
 [-1.5550364 ]
 [ 0.46498093]
 [-0.248419  ]
 [ 4.5668015 ]
 [ 0.639071  ]
 [ 3.2080457 ]
 [ 0.797415  ]
 [-0.46834955]
 [-0.45080477]
 [ 0.04968617]
 [-0.2378995 ]
 [-0.6082108 ]
 [-0.05542371]
 [ 0.09579616]
 [ 0.29650363]
 [ 0.4028278 ]
 [ 0.09699475]
 [ 2.2577333 ]
 [ 0.879742  ]
 [-0.06124309]
 [-1.8199542 ]
 [-0.38708806]
 [-0.8899888 ]
 [-0.71507   ]
 [ 0.17086625]
 [-0.51523113]
 [-1.3715332 ]]

Layer 4:
[0.25994083]



Entrenamiento 3:
------------------------------------------------------------------------

Layer 0:
[[ 9.3823299e-05 -1.7721783e-01  1.2510326e-06 ...  1.2046695e-06
   1.9458160e-01 -1.5480713e-04]
 [ 4.0016593e-03  0.0000000e+00 -2.8735615e-02 ... -9.6195731e-03
  -6.6493442e-03 -9.4510233e-03]
 [ 9.9695958e-02 -1.0728461e-02  8.7766624e-05 ... -1.5988354e-02
   2.3325920e-02  3.1817704e-02]
 ...
 [-1.7511128e-02  0.0000000e+00 -4.1549347e-06 ... -3.5564932e-05
   1.9066817e-01 -3.3961050e-03]
 [ 4.6678491e-05  6.6633699e-03 -9.0942504e-03 ...  6.6895759e-06
  -1.7139064e-05 -2.7832548e-05]
 [ 8.5414024e-03  6.1168363e-03 -1.8321776e-01 ...  8.2847401e-03
  -1.9890752e-01 -2.8229801e-05]]

Layer 1:
[[ 0.0725765  -0.13701154  0.05930868 -0.0675838   0.0709943  -0.07856941
  -0.08901965 -0.07984544  0.11381608 -0.01149738  0.03279006  0.02039338
  -0.02102108 -0.06633399 -0.04174656 -0.02068057 -0.01132077  0.04352981
  -0.08651371 -0.05426075  0.00908089 -0.07075762 -0.0051126  -0.02846123
  -0.02207413 -0.06798279  0.04834561 -0.00726243 -0.00731568  0.03372555
   0.01953761 -0.03398989 -0.02401656  0.06569116  0.07820307  0.01974718
  -0.02162827  0.16768445  0.14591917  0.00071245 -0.09136543  0.00764564
   0.01889056  0.00053108  0.07755817  0.00580939 -0.12382213  0.05744999
   0.06977102  0.08632072 -0.02543992 -0.06302645 -0.02395956  0.03828578
  -0.07222924 -0.01388197 -0.07158652  0.06239176 -0.06597286 -0.09453407
  -0.0515014   0.02038566 -0.08877702 -0.11947363  0.06533805  0.02609459
  -0.07793704  0.11260264  0.00172128  0.0822771  -0.00442437 -0.08678961
  -0.02947246 -0.10534184  0.04411597  0.08224893  0.04174242  0.08282687
   0.04160866  0.0369295  -0.08891309  0.05074336 -0.1143463  -0.06057766
  -0.13518384  0.0434531   0.04586209  0.10854667  0.00165237 -0.07768124
   0.04285086  0.11042559 -0.07358    -0.03127272 -0.07071234 -0.07928929
  -0.06091349 -0.10127718 -0.07799899  0.116994  ]]

Layer 2:
[0. 0. 0. 0. 0. 0. 0. 0. 0. 0. 0. 0. 0. 0. 0. 0. 0. 0. 0. 0. 0. 0. 0. 0.
 0. 0. 0. 0. 0. 0. 0. 0. 0. 0. 0. 0. 0. 0. 0. 0. 0. 0. 0. 0. 0. 0. 0. 0.
 0. 0. 0. 0. 0. 0. 0. 0. 0. 0. 0. 0. 0. 0. 0. 0. 0. 0. 0. 0. 0. 0. 0. 0.
 0. 0. 0. 0. 0. 0. 0. 0. 0. 0. 0. 0. 0. 0. 0. 0. 0. 0. 0. 0. 0. 0. 0. 0.
 0. 0. 0. 0.]

Layer 3:
[[-1.0616992e+00]
 [-1.5045747e+00]
 [-1.2189685e+00]
 [ 1.1984322e+00]
 [-5.3310734e-01]
 [-2.9030886e-01]
 [ 3.8821831e-01]
 [ 1.3097516e+00]
 [ 9.0335375e-01]
 [-7.5125899e+00]
 [ 6.6194391e-01]
 [ 1.3233769e+00]
 [-3.1017985e+00]
 [-1.3619667e+00]
 [-7.2796659e+00]
 [ 9.6392781e-01]
 [-2.5877881e+00]
 [ 5.1315671e-01]
 [-3.1402564e-01]
 [-1.7386287e+00]
 [ 4.2210040e+00]
 [-1.3098797e-01]
 [ 2.1385472e+00]
 [ 5.0432068e-01]
 [-4.6417279e+00]
 [-7.6674694e-01]
 [ 8.1613499e-01]
 [-1.0100340e+00]
 [-3.8406236e+00]
 [ 1.1187991e+00]
 [ 8.5912871e-01]
 [-2.6602659e+00]
 [-9.5725756e+00]
 [-8.6573386e-01]
 [ 1.0411303e+00]
 [ 2.8408337e+00]
 [-2.0282490e+00]
 [ 4.7453639e-01]
 [ 4.9335331e-01]
 [ 3.4939938e+00]
 [-5.3705215e-02]
 [ 8.2651339e+00]
 [-3.2450788e+00]
 [-1.6994321e+00]
 [ 1.3435912e+00]
 [-3.3677805e-02]
 [-1.9741781e-01]
 [ 2.1913454e-01]
 [-5.6038731e-01]
 [ 1.4366020e+00]
 [-1.3675050e+00]
 [ 1.3068262e+00]
 [-1.5054017e+00]
 [-1.0617983e-02]
 [-7.6911650e-03]
 [-3.0409744e+00]
 [ 1.3128154e+00]
 [ 9.6052790e-01]
 [-6.4491189e-01]
 [-3.2180108e-02]
 [ 1.4397714e+00]
 [ 3.9629529e+00]
 [-3.1983392e+00]
 [ 2.1518712e-01]
 [ 4.5875856e-01]
 [ 6.1761522e+00]
 [-4.4896987e-01]
 [-7.9922658e-01]
 [ 4.5752134e+00]
 [ 1.4733477e-01]
 [-3.2116864e+00]
 [ 1.3129263e+00]
 [-2.4321365e+00]
 [-1.6388413e+00]
 [ 5.9582430e-01]
 [-2.7327216e-01]
 [ 5.0341191e+00]
 [ 6.8442404e-01]
 [ 3.2532041e+00]
 [ 1.2320765e+00]
 [-4.6483579e-01]
 [-7.4568772e-01]
 [ 5.2252371e-02]
 [-2.5489679e-01]
 [-8.4270978e-01]
 [-1.9698998e-02]
 [ 1.9961101e-01]
 [ 3.9986163e-01]
 [ 1.0622633e+00]
 [ 2.0810692e-01]
 [ 2.4851663e+00]
 [ 1.0310944e+00]
 [ 3.9473698e-01]
 [-3.5179260e+00]
 [-4.9997443e-01]
 [-9.3100744e-01]
 [-7.6022571e-01]
 [ 5.6260061e-01]
 [-3.0684516e-01]
 [-1.7624516e+00]]

Layer 4:
[0.330436]



Consenso 3:
------------------------------------------------------------------------

Layer 0:
[[ 1.2092150e-05 -1.7771280e-01  1.6123579e-07 ...  1.5526042e-07
   1.9504523e-01 -1.9951878e-05]
 [ 4.1162567e-03  0.0000000e+00 -2.8733397e-02 ... -9.6505601e-03
  -6.6559445e-03 -9.4642108e-03]
 [ 1.0009184e-01 -1.0740923e-02  1.1311551e-05 ... -1.6086774e-02
   2.3352338e-02  3.2019220e-02]
 ...
 [-1.7530959e-02  0.0000000e+00 -5.3549695e-07 ... -4.5836859e-06
   1.9116791e-01 -3.4000499e-03]
 [ 6.0160241e-06  6.7106751e-03 -9.1049038e-03 ...  8.6216710e-07
  -2.2089198e-06 -3.5871190e-06]
 [ 8.5187098e-03  6.0800682e-03 -1.8358189e-01 ...  8.2944445e-03
  -1.9936585e-01 -3.6383180e-06]]

Layer 1:
[[ 0.07270709 -0.1374378   0.05935654 -0.06780698  0.07129387 -0.07871551
  -0.08911207 -0.08012205  0.11411455 -0.01145737  0.03279202  0.02031891
  -0.02108829 -0.06661004 -0.04200777 -0.02066522 -0.01134275  0.04370421
  -0.08672166 -0.05444158  0.00900524 -0.07095932 -0.0049545  -0.02840452
  -0.02217734 -0.06805577  0.04827252 -0.00720791 -0.00719504  0.03381621
   0.01948658 -0.03397009 -0.02411592  0.06578378  0.0784822   0.01983099
  -0.02178003  0.16802883  0.14606646  0.00083003 -0.09165251  0.00763174
   0.0190252   0.00054821  0.07765154  0.00578705 -0.12404529  0.05773179
   0.0700269   0.08657397 -0.02539849 -0.06322466 -0.02419227  0.03842697
  -0.07227708 -0.01408448 -0.07168247  0.06235324 -0.06607489 -0.09473652
  -0.05171169  0.0204637  -0.08876398 -0.11971354  0.06564496  0.02616183
  -0.07826391  0.11282623  0.00192109  0.08240619 -0.00453506 -0.08704539
  -0.02959632 -0.10554422  0.04430875  0.08251197  0.04186297  0.08292406
   0.04173097  0.0370602  -0.08908398  0.0508703  -0.11466484 -0.06073211
  -0.1356381   0.04367485  0.04603807  0.10856667  0.00171631 -0.07780208
   0.04304036  0.11074295 -0.07391568 -0.03133053 -0.07088481 -0.0794084
  -0.06112808 -0.10161854 -0.07811941  0.11743109]]

Layer 2:
[0. 0. 0. 0. 0. 0. 0. 0. 0. 0. 0. 0. 0. 0. 0. 0. 0. 0. 0. 0. 0. 0. 0. 0.
 0. 0. 0. 0. 0. 0. 0. 0. 0. 0. 0. 0. 0. 0. 0. 0. 0. 0. 0. 0. 0. 0. 0. 0.
 0. 0. 0. 0. 0. 0. 0. 0. 0. 0. 0. 0. 0. 0. 0. 0. 0. 0. 0. 0. 0. 0. 0. 0.
 0. 0. 0. 0. 0. 0. 0. 0. 0. 0. 0. 0. 0. 0. 0. 0. 0. 0. 0. 0. 0. 0. 0. 0.
 0. 0. 0. 0.]

Layer 3:
[[-0.8977051 ]
 [-1.0954006 ]
 [-0.6387776 ]
 [ 1.3691521 ]
 [-0.02016405]
 [ 0.02659106]
 [ 0.17108059]
 [ 0.5751692 ]
 [ 1.0152462 ]
 [-6.8415895 ]
 [ 0.01715367]
 [-0.8788727 ]
 [-0.4535461 ]
 [-1.6620773 ]
 [-5.521134  ]
 [ 1.564999  ]
 [ 1.0127834 ]
 [ 0.9316302 ]
 [-0.16546601]
 [-1.9635853 ]
 [ 0.6375061 ]
 [-0.25163904]
 [ 3.4562237 ]
 [ 0.37262684]
 [-0.47464672]
 [-0.5623031 ]
 [ 0.25976938]
 [ 0.94426847]
 [-1.2990044 ]
 [ 0.72599214]
 [ 0.47808585]
 [-2.9254653 ]
 [-9.680126  ]
 [-1.3902382 ]
 [ 1.752495  ]
 [ 0.8554902 ]
 [-0.54875326]
 [ 0.2821228 ]
 [ 0.2462636 ]
 [ 3.3952472 ]
 [-0.49266714]
 [ 8.5044985 ]
 [-6.0647416 ]
 [-2.1766956 ]
 [ 0.8130944 ]
 [-1.4662517 ]
 [-0.06983914]
 [ 0.7100592 ]
 [-0.30307704]
 [ 1.5787972 ]
 [-0.02679428]
 [ 1.5599288 ]
 [ 1.152276  ]
 [ 0.1704204 ]
 [ 0.3850746 ]
 [ 1.0527948 ]
 [ 0.2976933 ]
 [ 1.7712756 ]
 [-0.541121  ]
 [-0.03918142]
 [ 1.5532914 ]
 [-0.25367016]
 [-2.9473898 ]
 [ 0.04383996]
 [ 1.1489398 ]
 [ 5.5966024 ]
 [-0.24731757]
 [-0.99705726]
 [ 2.261992  ]
 [-0.492862  ]
 [-1.2931116 ]
 [ 1.1896106 ]
 [-2.6281428 ]
 [-2.052908  ]
 [ 0.255139  ]
 [-0.27125108]
 [ 4.750776  ]
 [ 0.7710491 ]
 [ 4.3804197 ]
 [ 0.8475664 ]
 [-0.8306021 ]
 [ 0.11226805]
 [ 0.03568302]
 [-0.5121707 ]
 [-0.44748688]
 [ 0.20742872]
 [ 0.08487007]
 [ 0.45279112]
 [ 0.6040296 ]
 [ 0.19352575]
 [ 1.8250409 ]
 [ 1.0973462 ]
 [-0.61506665]
 [-0.78571045]
 [-0.42430115]
 [-1.245646  ]
 [-0.8259858 ]
 [ 0.13597216]
 [-0.75374705]
 [-1.5619268 ]]

Layer 4:
[0.35268673]



Entrenamiento 4:
------------------------------------------------------------------------

Layer 0:
[[ 1.2092150e-05 -1.7771280e-01  1.6123579e-07 ...  1.5526042e-07
   1.9504523e-01 -1.9951878e-05]
 [ 4.1162567e-03  0.0000000e+00 -2.8733397e-02 ... -9.6505601e-03
  -6.6559445e-03 -9.4642108e-03]
 [ 1.0009184e-01 -1.0740923e-02  1.1311551e-05 ... -1.6086774e-02
   2.3352338e-02  3.2019220e-02]
 ...
 [-1.7530959e-02  0.0000000e+00 -5.3549695e-07 ... -4.5836859e-06
   1.9116791e-01 -3.4000499e-03]
 [ 6.0160241e-06  6.7106751e-03 -9.1049038e-03 ...  8.6216710e-07
  -2.2089198e-06 -3.5871190e-06]
 [ 8.5187098e-03  6.0800682e-03 -1.8358189e-01 ...  8.2944445e-03
  -1.9936585e-01 -3.6383180e-06]]

Layer 1:
[[ 0.07270709 -0.1374378   0.05935654 -0.06780698  0.07129387 -0.07871551
  -0.08911207 -0.08012205  0.11411455 -0.01145737  0.03279202  0.02031891
  -0.02108829 -0.06661004 -0.04200777 -0.02066522 -0.01134275  0.04370421
  -0.08672166 -0.05444158  0.00900524 -0.07095932 -0.0049545  -0.02840452
  -0.02217734 -0.06805577  0.04827252 -0.00720791 -0.00719504  0.03381621
   0.01948658 -0.03397009 -0.02411592  0.06578378  0.0784822   0.01983099
  -0.02178003  0.16802883  0.14606646  0.00083003 -0.09165251  0.00763174
   0.0190252   0.00054821  0.07765154  0.00578705 -0.12404529  0.05773179
   0.0700269   0.08657397 -0.02539849 -0.06322466 -0.02419227  0.03842697
  -0.07227708 -0.01408448 -0.07168247  0.06235324 -0.06607489 -0.09473652
  -0.05171169  0.0204637  -0.08876398 -0.11971354  0.06564496  0.02616183
  -0.07826391  0.11282623  0.00192109  0.08240619 -0.00453506 -0.08704539
  -0.02959632 -0.10554422  0.04430875  0.08251197  0.04186297  0.08292406
   0.04173097  0.0370602  -0.08908398  0.0508703  -0.11466484 -0.06073211
  -0.1356381   0.04367485  0.04603807  0.10856667  0.00171631 -0.07780208
   0.04304036  0.11074295 -0.07391568 -0.03133053 -0.07088481 -0.0794084
  -0.06112808 -0.10161854 -0.07811941  0.11743109]]

Layer 2:
[0. 0. 0. 0. 0. 0. 0. 0. 0. 0. 0. 0. 0. 0. 0. 0. 0. 0. 0. 0. 0. 0. 0. 0.
 0. 0. 0. 0. 0. 0. 0. 0. 0. 0. 0. 0. 0. 0. 0. 0. 0. 0. 0. 0. 0. 0. 0. 0.
 0. 0. 0. 0. 0. 0. 0. 0. 0. 0. 0. 0. 0. 0. 0. 0. 0. 0. 0. 0. 0. 0. 0. 0.
 0. 0. 0. 0. 0. 0. 0. 0. 0. 0. 0. 0. 0. 0. 0. 0. 0. 0. 0. 0. 0. 0. 0. 0.
 0. 0. 0. 0.]

Layer 3:
[[ -1.1163836 ]
 [ -1.6112273 ]
 [ -1.4115927 ]
 [  1.6637051 ]
 [ -0.41510785]
 [ -0.12835577]
 [  0.2985102 ]
 [  1.5659553 ]
 [  1.00732   ]
 [ -9.432429  ]
 [  0.58385694]
 [  0.6570234 ]
 [ -3.1741304 ]
 [ -1.4868449 ]
 [ -7.385875  ]
 [  0.7815478 ]
 [ -2.478225  ]
 [  0.7492694 ]
 [  0.09041829]
 [ -1.8103622 ]
 [  3.6675706 ]
 [ -0.05953559]
 [  2.3944077 ]
 [  0.4079776 ]
 [ -4.152639  ]
 [ -0.21362889]
 [ -0.02777176]
 [ -0.72884893]
 [ -4.022335  ]
 [  1.068541  ]
 [  1.2043545 ]
 [ -2.8796897 ]
 [-11.122499  ]
 [ -1.0757768 ]
 [  1.5066768 ]
 [  2.7502706 ]
 [ -2.064781  ]
 [  0.5934929 ]
 [  0.42236835]
 [  3.9606624 ]
 [ -0.4308125 ]
 [ 11.14148   ]
 [ -5.3203993 ]
 [ -2.0065107 ]
 [  0.49063852]
 [  0.06332873]
 [ -0.2893684 ]
 [  0.55262035]
 [ -0.53890526]
 [  1.6292684 ]
 [ -1.227133  ]
 [  1.6600472 ]
 [ -0.7329211 ]
 [  0.1585981 ]
 [  0.45118597]
 [ -2.3585477 ]
 [  1.4285737 ]
 [  1.3601744 ]
 [ -0.24375077]
 [ -0.09972147]
 [  1.939043  ]
 [  3.4521992 ]
 [ -3.2061756 ]
 [  0.18594757]
 [  0.623596  ]
 [  7.6006675 ]
 [ -0.38664228]
 [ -0.75290596]
 [  4.9567122 ]
 [ -0.50503504]
 [ -3.9640381 ]
 [  1.0750086 ]
 [ -2.7946782 ]
 [ -2.162364  ]
 [  0.25892386]
 [ -0.29807398]
 [  5.0381675 ]
 [  0.8293399 ]
 [  4.325734  ]
 [  1.149767  ]
 [ -0.8283139 ]
 [ -0.29490384]
 [  0.02755139]
 [ -0.5224547 ]
 [ -0.7399421 ]
 [  0.08025985]
 [  0.17931768]
 [  0.583797  ]
 [  1.3455335 ]
 [  0.3374819 ]
 [  1.8249843 ]
 [  1.2898867 ]
 [ -0.03814271]
 [ -2.3545613 ]
 [ -0.56130254]
 [ -1.2959137 ]
 [ -0.8738101 ]
 [  0.60620606]
 [ -0.48846883]
 [ -2.0218542 ]]

Layer 4:
[0.3751516]



Consenso 4:
------------------------------------------------------------------------

Layer 0:
[[ 1.5584626e-06 -1.7777658e-01  2.0780416e-08 ...  2.0010299e-08
   1.9510499e-01 -2.5714414e-06]
 [ 4.1310266e-03  0.0000000e+00 -2.8733110e-02 ... -9.6545517e-03
  -6.6567957e-03 -9.4659105e-03]
 [ 1.0014285e-01 -1.0742528e-02  1.4578573e-06 ... -1.6099459e-02
   2.3355743e-02  3.2045189e-02]
 ...
 [-1.7533517e-02  0.0000000e+00 -6.9016004e-08 ... -5.9075541e-07
   1.9123231e-01 -3.4005584e-03]
 [ 7.7535822e-07  6.7167715e-03 -9.1062756e-03 ...  1.1111797e-07
  -2.8469034e-07 -4.6231568e-07]
 [ 8.5157854e-03  6.0753287e-03 -1.8362881e-01 ...  8.2956953e-03
  -1.9942492e-01 -4.6891435e-07]]

Layer 1:
[[ 0.07272393 -0.13749275  0.05936271 -0.06783574  0.07133248 -0.07873434
  -0.08912398 -0.08015769  0.11415303 -0.01145221  0.03279228  0.02030931
  -0.02109695 -0.06664561 -0.04204144 -0.02066324 -0.01134558  0.04372669
  -0.08674847 -0.05446488  0.0089955  -0.07098531 -0.00493412 -0.02839722
  -0.02219064 -0.06806517  0.0482631  -0.00720089 -0.00717949  0.03382789
   0.01948    -0.03396754 -0.02412873  0.06579572  0.07851817  0.01984179
  -0.02179959  0.16807322  0.1460854   0.00084519 -0.09168952  0.00762995
   0.01904255  0.00055042  0.07766357  0.00578417 -0.12407405  0.05776812
   0.07005988  0.08660661 -0.02539316 -0.0632502  -0.02422226  0.03844517
  -0.07228325 -0.01411058 -0.07169484  0.06234828 -0.06608805 -0.09476262
  -0.05173879  0.02047376 -0.08876231 -0.11974446  0.06568452  0.0261705
  -0.07830604  0.11285505  0.00194684  0.08242283 -0.00454932 -0.08707836
  -0.02961228 -0.10557029  0.04433359  0.08254588  0.04187851  0.08293658
   0.04174673  0.03707705 -0.08910599  0.05088666 -0.11470588 -0.06075202
  -0.13569665  0.04370343  0.04606076  0.10856924  0.00172455 -0.07781766
   0.04306479  0.11078386 -0.07395895 -0.03133797 -0.07090704 -0.07942374
  -0.06115573 -0.10166255 -0.07813493  0.11748742]]

Layer 2:
[0. 0. 0. 0. 0. 0. 0. 0. 0. 0. 0. 0. 0. 0. 0. 0. 0. 0. 0. 0. 0. 0. 0. 0.
 0. 0. 0. 0. 0. 0. 0. 0. 0. 0. 0. 0. 0. 0. 0. 0. 0. 0. 0. 0. 0. 0. 0. 0.
 0. 0. 0. 0. 0. 0. 0. 0. 0. 0. 0. 0. 0. 0. 0. 0. 0. 0. 0. 0. 0. 0. 0. 0.
 0. 0. 0. 0. 0. 0. 0. 0. 0. 0. 0. 0. 0. 0. 0. 0. 0. 0. 0. 0. 0. 0. 0. 0.
 0. 0. 0. 0.]

Layer 3:
[[-8.1392235e-01]
 [-9.8520899e-01]
 [-3.9199018e-01]
 [ 1.6475581e+00]
 [ 2.3328327e-01]
 [ 1.8067412e-01]
 [ 5.3317413e-02]
 [ 4.4032905e-01]
 [ 9.7857720e-01]
 [-8.6638088e+00]
 [ 2.2433395e-02]
 [-1.2822547e+00]
 [-6.7824548e-01]
 [-1.7813989e+00]
 [-5.2876244e+00]
 [ 1.1651436e+00]
 [ 1.0413702e+00]
 [ 1.1288875e+00]
 [ 1.1190761e-01]
 [-2.0468493e+00]
 [ 2.8595236e-01]
 [-2.8598285e-01]
 [ 3.2488501e+00]
 [ 2.3769759e-01]
 [-2.9716116e-01]
 [-1.5090889e-01]
 [-2.4889015e-01]
 [ 1.2880161e+00]
 [-1.3616556e+00]
 [ 8.6557794e-01]
 [ 8.3493084e-01]
 [-3.4466395e+00]
 [-1.0996884e+01]
 [-1.5706869e+00]
 [ 2.1455531e+00]
 [ 8.0371338e-01]
 [-6.9080091e-01]
 [ 2.0470995e-01]
 [ 6.8993844e-02]
 [ 3.6708367e+00]
 [-7.7318746e-01]
 [ 1.1045319e+01]
 [-7.6103415e+00]
 [-2.2958109e+00]
 [ 2.1834014e-01]
 [-1.5227032e+00]
 [-1.4079194e-01]
 [ 9.4406778e-01]
 [-1.8478161e-01]
 [ 1.6754488e+00]
 [ 1.6326477e-01]
 [ 1.8048979e+00]
 [ 1.6904557e+00]
 [ 4.1589448e-01]
 [ 6.4898479e-01]
 [ 1.1476870e+00]
 [-1.7453801e-02]
 [ 2.1880453e+00]
 [-3.5269237e-01]
 [ 1.2613253e-01]
 [ 1.7345093e+00]
 [-3.1931338e-01]
 [-2.6403952e+00]
 [ 2.3544127e-02]
 [ 1.5897834e+00]
 [ 6.6918435e+00]
 [-2.7313812e-02]
 [-9.9490988e-01]
 [ 2.0725565e+00]
 [-1.0480652e+00]
 [-1.5246521e+00]
 [ 1.0096526e+00]
 [-2.9702547e+00]
 [-2.4186554e+00]
 [ 1.3932550e-01]
 [-3.3259591e-01]
 [ 4.3499537e+00]
 [ 7.1386623e-01]
 [ 5.4011483e+00]
 [ 9.4569284e-01]
 [-1.0923359e+00]
 [ 6.2257755e-01]
 [ 3.9536972e-02]
 [-7.1821469e-01]
 [-2.6169571e-01]
 [ 4.2968816e-01]
 [-3.9333656e-02]
 [ 5.5430281e-01]
 [ 7.6163805e-01]
 [ 2.6604021e-01]
 [ 1.1630912e+00]
 [ 1.2361047e+00]
 [-1.3572397e+00]
 [ 3.1691471e-01]
 [-4.1003051e-01]
 [-1.5242745e+00]
 [-8.0051661e-01]
 [ 7.9545369e-03]
 [-7.5098425e-01]
 [-1.7226810e+00]]

Layer 4:
[0.18038622]



Entrenamiento 5:
------------------------------------------------------------------------

Layer 0:
[[ 1.5584626e-06 -1.7777658e-01  2.0780416e-08 ...  2.0010299e-08
   1.9510499e-01 -2.5714414e-06]
 [ 4.1310266e-03  0.0000000e+00 -2.8733110e-02 ... -9.6545517e-03
  -6.6567957e-03 -9.4659105e-03]
 [ 1.0014285e-01 -1.0742528e-02  1.4578573e-06 ... -1.6099459e-02
   2.3355743e-02  3.2045189e-02]
 ...
 [-1.7533517e-02  0.0000000e+00 -6.9016004e-08 ... -5.9075541e-07
   1.9123231e-01 -3.4005584e-03]
 [ 7.7535822e-07  6.7167715e-03 -9.1062756e-03 ...  1.1111797e-07
  -2.8469034e-07 -4.6231568e-07]
 [ 8.5157854e-03  6.0753287e-03 -1.8362881e-01 ...  8.2956953e-03
  -1.9942492e-01 -4.6891435e-07]]

Layer 1:
[[ 0.07272393 -0.13749275  0.05936271 -0.06783574  0.07133248 -0.07873434
  -0.08912398 -0.08015769  0.11415303 -0.01145221  0.03279228  0.02030931
  -0.02109695 -0.06664561 -0.04204144 -0.02066324 -0.01134558  0.04372669
  -0.08674847 -0.05446488  0.0089955  -0.07098531 -0.00493412 -0.02839722
  -0.02219064 -0.06806517  0.0482631  -0.00720089 -0.00717949  0.03382789
   0.01948    -0.03396754 -0.02412873  0.06579572  0.07851817  0.01984179
  -0.02179959  0.16807322  0.1460854   0.00084519 -0.09168952  0.00762995
   0.01904255  0.00055042  0.07766357  0.00578417 -0.12407405  0.05776812
   0.07005988  0.08660661 -0.02539316 -0.0632502  -0.02422226  0.03844517
  -0.07228325 -0.01411058 -0.07169484  0.06234828 -0.06608805 -0.09476262
  -0.05173879  0.02047376 -0.08876231 -0.11974446  0.06568452  0.0261705
  -0.07830604  0.11285505  0.00194684  0.08242283 -0.00454932 -0.08707836
  -0.02961228 -0.10557029  0.04433359  0.08254588  0.04187851  0.08293658
   0.04174673  0.03707705 -0.08910599  0.05088666 -0.11470588 -0.06075202
  -0.13569665  0.04370343  0.04606076  0.10856924  0.00172455 -0.07781766
   0.04306479  0.11078386 -0.07395895 -0.03133797 -0.07090704 -0.07942374
  -0.06115573 -0.10166255 -0.07813493  0.11748742]]

Layer 2:
[0. 0. 0. 0. 0. 0. 0. 0. 0. 0. 0. 0. 0. 0. 0. 0. 0. 0. 0. 0. 0. 0. 0. 0.
 0. 0. 0. 0. 0. 0. 0. 0. 0. 0. 0. 0. 0. 0. 0. 0. 0. 0. 0. 0. 0. 0. 0. 0.
 0. 0. 0. 0. 0. 0. 0. 0. 0. 0. 0. 0. 0. 0. 0. 0. 0. 0. 0. 0. 0. 0. 0. 0.
 0. 0. 0. 0. 0. 0. 0. 0. 0. 0. 0. 0. 0. 0. 0. 0. 0. 0. 0. 0. 0. 0. 0. 0.
 0. 0. 0. 0.]

Layer 3:
[[-1.0813631e+00]
 [-1.6426082e+00]
 [-1.3951703e+00]
 [ 2.0371265e+00]
 [-2.5808179e-01]
 [-2.5360011e-02]
 [ 2.0115493e-01]
 [ 1.6699491e+00]
 [ 9.9067122e-01]
 [-1.1250634e+01]
 [ 5.9658271e-01]
 [ 2.0357233e-01]
 [-3.3801296e+00]
 [-1.5625014e+00]
 [-6.9927368e+00]
 [ 3.6514139e-01]
 [-2.4602270e+00]
 [ 8.6867416e-01]
 [ 4.2116898e-01]
 [-1.8213164e+00]
 [ 3.3837111e+00]
 [-4.6616390e-02]
 [ 2.1511254e+00]
 [ 3.7934312e-01]
 [-3.9140239e+00]
 [ 2.9336336e-01]
 [-7.1012431e-01]
 [-4.8267907e-01]
 [-4.3043647e+00]
 [ 1.1550750e+00]
 [ 1.6132982e+00]
 [-3.2069218e+00]
 [-1.2373228e+01]
 [-1.1705545e+00]
 [ 1.8423645e+00]
 [ 2.7066779e+00]
 [-2.2041144e+00]
 [ 6.1730963e-01]
 [ 3.1123939e-01]
 [ 4.2906103e+00]
 [-7.1138555e-01]
 [ 1.3745784e+01]
 [-6.9623556e+00]
 [-2.0531077e+00]
 [-1.8916686e-01]
 [ 1.3083445e-01]
 [-4.3385321e-01]
 [ 7.3267108e-01]
 [-4.7813278e-01]
 [ 1.7519872e+00]
 [-9.7851723e-01]
 [ 1.9429851e+00]
 [-1.7759627e-01]
 [ 3.4686744e-01]
 [ 7.2795057e-01]
 [-2.1469889e+00]
 [ 1.4318577e+00]
 [ 1.6616094e+00]
 [ 2.8027507e-02]
 [ 3.4553114e-02]
 [ 2.2534299e+00]
 [ 3.3116443e+00]
 [-2.9788229e+00]
 [ 1.7760538e-01]
 [ 9.0135235e-01]
 [ 8.6545420e+00]
 [-2.1231300e-01]
 [-6.7101085e-01]
 [ 4.9275928e+00]
 [-1.0502385e+00]
 [-4.3377991e+00]
 [ 8.5179031e-01]
 [-3.0274875e+00]
 [-2.5745928e+00]
 [ 2.7333781e-02]
 [-3.5300770e-01]
 [ 4.4751110e+00]
 [ 7.9823029e-01]
 [ 5.2565789e+00]
 [ 1.1294196e+00]
 [-1.1035980e+00]
 [ 8.4721163e-02]
 [ 9.5408680e-03]
 [-7.3402470e-01]
 [-6.4827234e-01]
 [ 1.4576930e-01]
 [ 6.0123459e-02]
 [ 7.3597831e-01]
 [ 1.5978779e+00]
 [ 4.3763641e-01]
 [ 9.4766027e-01]
 [ 1.4957920e+00]
 [-6.3230288e-01]
 [-1.1713116e+00]
 [-5.9131557e-01]
 [-1.5976667e+00]
 [-8.6590564e-01]
 [ 5.7676923e-01]
 [-4.2309764e-01]
 [-2.2743907e+00]]

Layer 4:
[0.35704586]



