Pesos inciales:
------------------------------------------------------------------------

Layer 0:
[[ 0.          0.          0.         ... -0.19331299  0.
  -0.        ]
 [ 0.         -0.          0.         ...  0.          0.
   0.0281295 ]
 [-0.          0.          0.         ... -0.         -0.
  -0.        ]
 ...
 [ 0.          0.09333193  0.         ... -0.         -0.
  -0.12616315]
 [-0.1743076   0.          0.         ...  0.         -0.
   0.19979402]
 [-0.          0.         -0.         ... -0.         -0.
  -0.        ]]

Layer 1:
[[ 0.10307103  0.08996618  0.01516604  0.23199564  0.01918811  0.21406233
   0.01001525  0.22976178 -0.2115182   0.22095326  0.05209136 -0.01565737
  -0.13885501 -0.10057171  0.18986341  0.20139974  0.19598722 -0.15143536
  -0.19946943  0.16480416 -0.21836036  0.22868863  0.17619881 -0.09639856
   0.0321317   0.09346631  0.01052323  0.20518616 -0.09012942 -0.1596415
   0.23183149  0.04896557  0.24166611 -0.11769125  0.09091049 -0.03454393
   0.05547047  0.02089491 -0.15969507  0.13879287  0.23542097  0.1041387
   0.15287045 -0.1571145  -0.18498352 -0.07498109 -0.15517554  0.16838685
  -0.03772177 -0.10816148  0.15822697  0.19100446 -0.12771562 -0.16963604
  -0.08373487 -0.07966208  0.19883493 -0.12882495 -0.16797629 -0.12232261
   0.10885873 -0.07126179  0.14996302  0.01681122 -0.05981477 -0.11117782
   0.09075987  0.0790453   0.20467451  0.07715914 -0.08054146  0.21822566
  -0.23515007  0.01239732  0.06733614  0.17329457  0.04620668  0.01924556
   0.15996873  0.07605353 -0.01410611  0.1824117   0.06909433  0.18629739
  -0.08128063 -0.05477321 -0.11349358  0.21932748 -0.20072886 -0.0959539
  -0.08968452 -0.04054548 -0.24103126 -0.05097516  0.08168253 -0.14053515
   0.00366457 -0.23340403 -0.0983054   0.03551579]]

Layer 2:
[0. 0. 0. 0. 0. 0. 0. 0. 0. 0. 0. 0. 0. 0. 0. 0. 0. 0. 0. 0. 0. 0. 0. 0.
 0. 0. 0. 0. 0. 0. 0. 0. 0. 0. 0. 0. 0. 0. 0. 0. 0. 0. 0. 0. 0. 0. 0. 0.
 0. 0. 0. 0. 0. 0. 0. 0. 0. 0. 0. 0. 0. 0. 0. 0. 0. 0. 0. 0. 0. 0. 0. 0.
 0. 0. 0. 0. 0. 0. 0. 0. 0. 0. 0. 0. 0. 0. 0. 0. 0. 0. 0. 0. 0. 0. 0. 0.
 0. 0. 0. 0.]

Layer 3:
[[-0.05909611]
 [-0.05917479]
 [ 0.23397294]
 [-0.18616973]
 [ 0.24235067]
 [ 0.19970512]
 [ 0.09639326]
 [ 0.21102488]
 [-0.17294672]
 [ 0.17780557]
 [-0.15140542]
 [ 0.21227652]
 [-0.11690536]
 [ 0.1836271 ]
 [ 0.00143951]
 [ 0.00964716]
 [-0.16710714]
 [ 0.0377574 ]
 [ 0.16964227]
 [ 0.15423977]
 [ 0.12582877]
 [ 0.23068777]
 [ 0.00249702]
 [-0.22306888]
 [ 0.03359616]
 [-0.17865127]
 [-0.05622406]
 [ 0.06803554]
 [ 0.09664926]
 [ 0.08646479]
 [-0.10348159]
 [ 0.1536898 ]
 [ 0.18453154]
 [ 0.13610178]
 [ 0.08673936]
 [-0.16789216]
 [ 0.21897012]
 [ 0.22383374]
 [-0.07252738]
 [-0.02805078]
 [ 0.15630054]
 [-0.021604  ]
 [-0.13533136]
 [ 0.20072863]
 [-0.16850057]
 [ 0.00081024]
 [-0.02329989]
 [ 0.02982071]
 [-0.09656458]
 [-0.06458814]
 [-0.14211135]
 [ 0.11327288]
 [ 0.11224955]
 [-0.07788338]
 [ 0.00386493]
 [-0.05012478]
 [ 0.1923011 ]
 [ 0.09943396]
 [ 0.15326723]
 [-0.09793571]
 [ 0.20436466]
 [-0.21677649]
 [ 0.23428586]
 [-0.03656241]
 [-0.18077463]
 [-0.14593658]
 [-0.00961474]
 [ 0.05385152]
 [-0.03765175]
 [ 0.20921531]
 [-0.11225577]
 [ 0.12327248]
 [ 0.09831139]
 [ 0.03371602]
 [-0.00956942]
 [-0.1872288 ]
 [ 0.05835503]
 [-0.13053879]
 [-0.06261872]
 [-0.0372151 ]
 [-0.23375425]
 [-0.03956731]
 [-0.01280071]
 [-0.07704583]
 [ 0.1083487 ]
 [ 0.13995138]
 [ 0.20029604]
 [ 0.19842571]
 [-0.06494407]
 [-0.21555263]
 [-0.09562773]
 [-0.13317569]
 [ 0.08609655]
 [-0.15306717]
 [-0.15930098]
 [-0.1818699 ]
 [-0.11211747]
 [ 0.0652273 ]
 [ 0.17048958]
 [-0.01758809]]

Layer 4:
[0.]



Entrenamiento 0:
------------------------------------------------------------------------

Layer 0:
[[ 0.          0.          0.         ... -0.19331299  0.
  -0.        ]
 [ 0.         -0.          0.         ...  0.          0.
   0.0281295 ]
 [-0.          0.          0.         ... -0.         -0.
  -0.        ]
 ...
 [ 0.          0.09333193  0.         ... -0.         -0.
  -0.12616315]
 [-0.1743076   0.          0.         ...  0.         -0.
   0.19979402]
 [-0.          0.         -0.         ... -0.         -0.
  -0.        ]]

Layer 1:
[[ 0.10307103  0.08996618  0.01516604  0.23199564  0.01918811  0.21406233
   0.01001525  0.22976178 -0.2115182   0.22095326  0.05209136 -0.01565737
  -0.13885501 -0.10057171  0.18986341  0.20139974  0.19598722 -0.15143536
  -0.19946943  0.16480416 -0.21836036  0.22868863  0.17619881 -0.09639856
   0.0321317   0.09346631  0.01052323  0.20518616 -0.09012942 -0.1596415
   0.23183149  0.04896557  0.24166611 -0.11769125  0.09091049 -0.03454393
   0.05547047  0.02089491 -0.15969507  0.13879287  0.23542097  0.1041387
   0.15287045 -0.1571145  -0.18498352 -0.07498109 -0.15517554  0.16838685
  -0.03772177 -0.10816148  0.15822697  0.19100446 -0.12771562 -0.16963604
  -0.08373487 -0.07966208  0.19883493 -0.12882495 -0.16797629 -0.12232261
   0.10885873 -0.07126179  0.14996302  0.01681122 -0.05981477 -0.11117782
   0.09075987  0.0790453   0.20467451  0.07715914 -0.08054146  0.21822566
  -0.23515007  0.01239732  0.06733614  0.17329457  0.04620668  0.01924556
   0.15996873  0.07605353 -0.01410611  0.1824117   0.06909433  0.18629739
  -0.08128063 -0.05477321 -0.11349358  0.21932748 -0.20072886 -0.0959539
  -0.08968452 -0.04054548 -0.24103126 -0.05097516  0.08168253 -0.14053515
   0.00366457 -0.23340403 -0.0983054   0.03551579]]

Layer 2:
[0. 0. 0. 0. 0. 0. 0. 0. 0. 0. 0. 0. 0. 0. 0. 0. 0. 0. 0. 0. 0. 0. 0. 0.
 0. 0. 0. 0. 0. 0. 0. 0. 0. 0. 0. 0. 0. 0. 0. 0. 0. 0. 0. 0. 0. 0. 0. 0.
 0. 0. 0. 0. 0. 0. 0. 0. 0. 0. 0. 0. 0. 0. 0. 0. 0. 0. 0. 0. 0. 0. 0. 0.
 0. 0. 0. 0. 0. 0. 0. 0. 0. 0. 0. 0. 0. 0. 0. 0. 0. 0. 0. 0. 0. 0. 0. 0.
 0. 0. 0. 0.]

Layer 3:
[[-8.53419304e-02]
 [ 2.59037942e-01]
 [ 2.75228882e+00]
 [-2.82416791e-01]
 [ 9.93857443e-01]
 [ 4.09788013e-01]
 [ 9.95225012e-02]
 [ 1.09025136e-01]
 [-3.04831564e-01]
 [-2.23973021e-01]
 [ 2.56833839e+00]
 [-2.81873059e+00]
 [-6.27665734e-03]
 [-1.10611379e+00]
 [-4.15657125e-02]
 [ 2.18833890e-02]
 [-2.68760603e-04]
 [-1.58399835e-01]
 [ 2.61498988e-01]
 [ 6.78067505e-02]
 [ 2.58881539e-01]
 [ 3.16308439e-01]
 [-4.91216034e-02]
 [-3.26045692e-01]
 [ 4.50828266e+00]
 [ 5.27583241e-01]
 [-1.05034018e+00]
 [-2.42603809e-01]
 [-8.46263543e-02]
 [ 2.37430856e-01]
 [-8.83809924e-02]
 [ 2.57926512e+00]
 [ 1.23271987e-01]
 [-5.92681289e-01]
 [ 5.34010708e-01]
 [-2.49065185e+00]
 [ 1.48063457e+00]
 [ 9.05958474e-01]
 [ 4.71757203e-02]
 [ 1.86523929e-01]
 [ 6.57960549e-02]
 [ 1.90519560e-02]
 [ 1.47805482e-01]
 [ 6.05890974e-02]
 [-1.16551787e-01]
 [-3.15485090e-01]
 [-8.61250937e-01]
 [-2.04536423e-01]
 [-7.98791289e-01]
 [-1.08630240e-01]
 [ 5.74220456e-02]
 [-1.81127682e-01]
 [ 3.49647522e-01]
 [-2.49621987e-01]
 [-3.06377470e-01]
 [-1.25649285e+00]
 [ 1.81696162e-01]
 [ 4.20422912e-01]
 [ 3.33365917e-01]
 [-3.48230958e-01]
 [ 4.92387921e-01]
 [-1.00123513e+00]
 [ 2.09775478e-01]
 [ 4.07175398e+00]
 [-1.07539845e+00]
 [-6.45228028e-01]
 [ 1.03330024e-01]
 [ 2.22890362e-01]
 [ 2.43718680e-02]
 [ 3.21058345e+00]
 [-3.26440185e-01]
 [ 2.85535678e-02]
 [ 2.35450193e-01]
 [ 1.47143078e+00]
 [ 5.05238771e-01]
 [-2.80515313e-01]
 [ 9.64492798e-01]
 [ 1.12812459e+00]
 [ 4.05375138e-02]
 [ 5.40671885e-01]
 [-2.10694838e+00]
 [-1.57813326e-01]
 [ 3.57419461e-01]
 [ 1.17347129e-01]
 [-3.07858527e-01]
 [-2.51212478e+00]
 [ 6.88739046e-02]
 [ 1.67370588e-01]
 [-2.90536910e-01]
 [-2.18457520e-01]
 [-4.73775655e-01]
 [-2.22330523e+00]
 [ 5.01910567e-01]
 [-1.50623524e+00]
 [ 1.68919951e-01]
 [ 9.72362161e-02]
 [ 1.04972556e-01]
 [ 2.91626960e-01]
 [-8.01024362e-02]
 [ 2.24487305e+00]]

Layer 4:
[-0.12551962]



Entrenamiento 0 WITH NO CONSENSUS:
------------------------------------------------------------------------

Layer 0:
[[ 0.          0.          0.         ... -0.19331299  0.
  -0.        ]
 [ 0.         -0.          0.         ...  0.          0.
   0.0281295 ]
 [-0.          0.          0.         ... -0.         -0.
  -0.        ]
 ...
 [ 0.          0.09333193  0.         ... -0.         -0.
  -0.12616315]
 [-0.1743076   0.          0.         ...  0.         -0.
   0.19979402]
 [-0.          0.         -0.         ... -0.         -0.
  -0.        ]]

Layer 1:
[[ 0.10307103  0.08996618  0.01516604  0.23199564  0.01918811  0.21406233
   0.01001525  0.22976178 -0.2115182   0.22095326  0.05209136 -0.01565737
  -0.13885501 -0.10057171  0.18986341  0.20139974  0.19598722 -0.15143536
  -0.19946943  0.16480416 -0.21836036  0.22868863  0.17619881 -0.09639856
   0.0321317   0.09346631  0.01052323  0.20518616 -0.09012942 -0.1596415
   0.23183149  0.04896557  0.24166611 -0.11769125  0.09091049 -0.03454393
   0.05547047  0.02089491 -0.15969507  0.13879287  0.23542097  0.1041387
   0.15287045 -0.1571145  -0.18498352 -0.07498109 -0.15517554  0.16838685
  -0.03772177 -0.10816148  0.15822697  0.19100446 -0.12771562 -0.16963604
  -0.08373487 -0.07966208  0.19883493 -0.12882495 -0.16797629 -0.12232261
   0.10885873 -0.07126179  0.14996302  0.01681122 -0.05981477 -0.11117782
   0.09075987  0.0790453   0.20467451  0.07715914 -0.08054146  0.21822566
  -0.23515007  0.01239732  0.06733614  0.17329457  0.04620668  0.01924556
   0.15996873  0.07605353 -0.01410611  0.1824117   0.06909433  0.18629739
  -0.08128063 -0.05477321 -0.11349358  0.21932748 -0.20072886 -0.0959539
  -0.08968452 -0.04054548 -0.24103126 -0.05097516  0.08168253 -0.14053515
   0.00366457 -0.23340403 -0.0983054   0.03551579]]

Layer 2:
[0. 0. 0. 0. 0. 0. 0. 0. 0. 0. 0. 0. 0. 0. 0. 0. 0. 0. 0. 0. 0. 0. 0. 0.
 0. 0. 0. 0. 0. 0. 0. 0. 0. 0. 0. 0. 0. 0. 0. 0. 0. 0. 0. 0. 0. 0. 0. 0.
 0. 0. 0. 0. 0. 0. 0. 0. 0. 0. 0. 0. 0. 0. 0. 0. 0. 0. 0. 0. 0. 0. 0. 0.
 0. 0. 0. 0. 0. 0. 0. 0. 0. 0. 0. 0. 0. 0. 0. 0. 0. 0. 0. 0. 0. 0. 0. 0.
 0. 0. 0. 0.]

Layer 3:
[[-8.40132311e-02]
 [ 2.67175764e-01]
 [ 2.78059292e+00]
 [-2.65898496e-01]
 [ 9.88732755e-01]
 [ 4.11482245e-01]
 [ 1.14087537e-01]
 [ 1.10587284e-01]
 [-3.08762640e-01]
 [-2.25106642e-01]
 [ 2.55028415e+00]
 [-2.81990004e+00]
 [-5.42527903e-03]
 [-1.12246394e+00]
 [-3.86589058e-02]
 [ 2.24109050e-02]
 [ 2.87389196e-03]
 [-1.63694471e-01]
 [ 2.56581336e-01]
 [ 7.53804445e-02]
 [ 2.52881646e-01]
 [ 3.18321079e-01]
 [-4.80046421e-02]
 [-3.29573452e-01]
 [ 4.50030613e+00]
 [ 5.34773648e-01]
 [-1.03636563e+00]
 [-2.39645019e-01]
 [-8.44856799e-02]
 [ 2.26144284e-01]
 [-8.48295167e-02]
 [ 2.57638836e+00]
 [ 1.28258586e-01]
 [-6.00831091e-01]
 [ 5.38276672e-01]
 [-2.48937225e+00]
 [ 1.48120964e+00]
 [ 9.01693583e-01]
 [ 3.97003666e-02]
 [ 1.96830988e-01]
 [ 6.51085824e-02]
 [ 2.00821087e-02]
 [ 1.50672391e-01]
 [ 5.70588149e-02]
 [-1.19605243e-01]
 [-3.18099320e-01]
 [-8.80937457e-01]
 [-1.97145939e-01]
 [-7.98152983e-01]
 [-1.11457117e-01]
 [ 6.08843938e-02]
 [-1.76745802e-01]
 [ 3.47613841e-01]
 [-2.54454941e-01]
 [-3.11043680e-01]
 [-1.25662112e+00]
 [ 1.81403339e-01]
 [ 4.17125255e-01]
 [ 3.31331998e-01]
 [-3.57803404e-01]
 [ 5.04692316e-01]
 [-1.00164449e+00]
 [ 2.14314088e-01]
 [ 4.03865433e+00]
 [-1.07350600e+00]
 [-6.52578175e-01]
 [ 1.07485093e-01]
 [ 2.25393370e-01]
 [ 2.78847814e-02]
 [ 3.21327877e+00]
 [-3.29696894e-01]
 [ 2.83670984e-02]
 [ 2.34156057e-01]
 [ 1.46999741e+00]
 [ 5.06347120e-01]
 [-2.79839575e-01]
 [ 9.60687876e-01]
 [ 1.10570502e+00]
 [ 4.72418740e-02]
 [ 5.43368518e-01]
 [-2.09298158e+00]
 [-1.56007677e-01]
 [ 3.56612116e-01]
 [ 1.23543024e-01]
 [-3.07985395e-01]
 [-2.51517296e+00]
 [ 6.05889745e-02]
 [ 1.71204343e-01]
 [-2.91071236e-01]
 [-2.20826343e-01]
 [-4.75588024e-01]
 [-2.20902610e+00]
 [ 4.90813136e-01]
 [-1.49744403e+00]
 [ 1.69229344e-01]
 [ 9.56045538e-02]
 [ 1.06939159e-01]
 [ 2.86627263e-01]
 [-8.31804127e-02]
 [ 2.23264813e+00]]

Layer 4:
[-0.11886952]



Consenso 0:
------------------------------------------------------------------------

Layer 0:
[[ 0.          0.03509249  0.         ... -0.05011819  0.07066232
   0.05965707]
 [-0.03687222 -0.00519265 -0.02088845 ...  0.         -0.00392625
   0.04074003]
 [ 0.00132704  0.         -0.00590422 ...  0.          0.07571389
   0.04639932]
 ...
 [ 0.         -0.02839329  0.01265564 ...  0.05806213  0.
   0.00037973]
 [-0.04519086  0.04606904  0.         ...  0.01023875  0.02723684
   0.05179845]
 [ 0.         -0.01767414 -0.03894768 ... -0.03251107  0.10191435
   0.        ]]

Layer 1:
[[ 0.00237196  0.10610043 -0.01135554 -0.02244807 -0.07873243  0.06086023
  -0.01936592  0.14418899 -0.07152346  0.05178778 -0.07311132  0.07566006
  -0.07636812 -0.02221966  0.08827851  0.01875815  0.07124029 -0.13280734
  -0.18677516  0.01885001 -0.04804621  0.09743919  0.09096907 -0.09654775
   0.10864579  0.02182681  0.00170235  0.07381364 -0.02254734 -0.09899163
   0.08367421 -0.04289486  0.03610761 -0.0672951  -0.07206532  0.05108368
   0.01404335 -0.01851295 -0.07990892  0.02743669  0.13616104  0.04765708
   0.05323325 -0.10439847 -0.02400096 -0.12515175 -0.01880192 -0.0696554
  -0.02978924  0.04964869 -0.01062846  0.06644773 -0.02026739 -0.06923518
   0.02933314  0.04459857  0.06829644 -0.15765688 -0.06928257  0.02000835
   0.03027318 -0.00334901  0.07332157 -0.06925794  0.09303761  0.0212323
   0.14457189  0.04339063  0.12530652 -0.05721664  0.09090076 -0.02293582
  -0.06254505 -0.01397654  0.03711092  0.07959552  0.02239865  0.06988338
   0.14331636 -0.06413009 -0.1023702   0.02045415  0.05088772  0.0598768
  -0.05053946 -0.06185403 -0.03301787  0.04745268 -0.14790481 -0.0237218
   0.04589669  0.00492368 -0.01922723 -0.0360423  -0.00351629 -0.05391161
  -0.06342272 -0.0782368  -0.08212058 -0.03411562]]

Layer 2:
[0. 0. 0. 0. 0. 0. 0. 0. 0. 0. 0. 0. 0. 0. 0. 0. 0. 0. 0. 0. 0. 0. 0. 0.
 0. 0. 0. 0. 0. 0. 0. 0. 0. 0. 0. 0. 0. 0. 0. 0. 0. 0. 0. 0. 0. 0. 0. 0.
 0. 0. 0. 0. 0. 0. 0. 0. 0. 0. 0. 0. 0. 0. 0. 0. 0. 0. 0. 0. 0. 0. 0. 0.
 0. 0. 0. 0. 0. 0. 0. 0. 0. 0. 0. 0. 0. 0. 0. 0. 0. 0. 0. 0. 0. 0. 0. 0.
 0. 0. 0. 0.]

Layer 3:
[[-0.33323094]
 [ 0.09824439]
 [ 0.73309183]
 [ 0.6419591 ]
 [-0.83505404]
 [ 0.92225015]
 [ 0.39234972]
 [ 1.0062218 ]
 [-0.15181345]
 [ 0.25943652]
 [ 0.23930821]
 [ 0.44499755]
 [ 0.33410498]
 [ 0.34941095]
 [ 0.13486215]
 [-0.02329887]
 [-0.85549337]
 [-0.37092522]
 [-0.14562653]
 [-1.0004295 ]
 [ 0.9192988 ]
 [ 0.386756  ]
 [ 0.27733472]
 [ 0.14281379]
 [ 1.1197884 ]
 [ 1.1674647 ]
 [-0.11355471]
 [ 0.20356275]
 [-0.2284634 ]
 [ 0.9374715 ]
 [-0.04640367]
 [ 0.5270481 ]
 [ 0.05234005]
 [ 0.43676278]
 [-0.9203913 ]
 [-0.6706189 ]
 [-1.0356833 ]
 [ 0.68031836]
 [-0.70101804]
 [-0.12777169]
 [ 1.1804547 ]
 [-0.3488061 ]
 [-1.0822132 ]
 [ 0.04807763]
 [ 0.33146626]
 [-0.685967  ]
 [ 0.28666344]
 [-0.49708232]
 [-1.103312  ]
 [ 0.60061437]
 [-0.08643264]
 [-0.04957593]
 [ 0.3762592 ]
 [-0.13838683]
 [ 0.05293596]
 [-0.75910574]
 [-0.00238178]
 [-0.31083286]
 [ 0.4113177 ]
 [-0.05992912]
 [ 0.58059937]
 [-1.4400462 ]
 [-0.4183249 ]
 [ 1.8360975 ]
 [ 0.13166317]
 [ 0.31208664]
 [ 0.11084992]
 [ 0.31751466]
 [ 0.25247517]
 [ 1.3528231 ]
 [ 0.24383774]
 [-1.1440289 ]
 [-1.0712183 ]
 [ 0.18332419]
 [-0.6932349 ]
 [ 0.48192266]
 [ 0.26140758]
 [ 1.670324  ]
 [ 1.0200689 ]
 [ 0.19297677]
 [-1.4610085 ]
 [ 1.0591089 ]
 [ 0.52069765]
 [ 0.36336726]
 [-0.527014  ]
 [-1.6808941 ]
 [-0.8495774 ]
 [-0.87755024]
 [ 0.38635218]
 [ 0.19494635]
 [ 0.3022208 ]
 [ 0.1404294 ]
 [-0.3355431 ]
 [-0.32544532]
 [ 0.7727665 ]
 [-1.3346554 ]
 [-0.04143015]
 [ 1.1908617 ]
 [-1.1531707 ]
 [ 0.13498683]]

Layer 4:
[0.09295686]



Entrenamiento 1:
------------------------------------------------------------------------

Layer 0:
[[ 0.          0.03509249  0.         ... -0.05011819  0.07066232
   0.05965707]
 [-0.03687222 -0.00519265 -0.02088845 ...  0.         -0.00392625
   0.04074003]
 [ 0.00132704  0.         -0.00590422 ...  0.          0.07571389
   0.04639932]
 ...
 [ 0.         -0.02839329  0.01265564 ...  0.05806213  0.
   0.00037973]
 [-0.04519086  0.04606904  0.         ...  0.01023875  0.02723684
   0.05179845]
 [ 0.         -0.01767414 -0.03894768 ... -0.03251107  0.10191435
   0.        ]]

Layer 1:
[[ 0.00237196  0.10610043 -0.01135554 -0.02244807 -0.07873243  0.06086023
  -0.01936592  0.14418899 -0.07152346  0.05178778 -0.07311132  0.07566006
  -0.07636812 -0.02221966  0.08827851  0.01875815  0.07124029 -0.13280734
  -0.18677516  0.01885001 -0.04804621  0.09743919  0.09096907 -0.09654775
   0.10864579  0.02182681  0.00170235  0.07381364 -0.02254734 -0.09899163
   0.08367421 -0.04289486  0.03610761 -0.0672951  -0.07206532  0.05108368
   0.01404335 -0.01851295 -0.07990892  0.02743669  0.13616104  0.04765708
   0.05323325 -0.10439847 -0.02400096 -0.12515175 -0.01880192 -0.0696554
  -0.02978924  0.04964869 -0.01062846  0.06644773 -0.02026739 -0.06923518
   0.02933314  0.04459857  0.06829644 -0.15765688 -0.06928257  0.02000835
   0.03027318 -0.00334901  0.07332157 -0.06925794  0.09303761  0.0212323
   0.14457189  0.04339063  0.12530652 -0.05721664  0.09090076 -0.02293582
  -0.06254505 -0.01397654  0.03711092  0.07959552  0.02239865  0.06988338
   0.14331636 -0.06413009 -0.1023702   0.02045415  0.05088772  0.0598768
  -0.05053946 -0.06185403 -0.03301787  0.04745268 -0.14790481 -0.0237218
   0.04589669  0.00492368 -0.01922723 -0.0360423  -0.00351629 -0.05391161
  -0.06342272 -0.0782368  -0.08212058 -0.03411562]]

Layer 2:
[0. 0. 0. 0. 0. 0. 0. 0. 0. 0. 0. 0. 0. 0. 0. 0. 0. 0. 0. 0. 0. 0. 0. 0.
 0. 0. 0. 0. 0. 0. 0. 0. 0. 0. 0. 0. 0. 0. 0. 0. 0. 0. 0. 0. 0. 0. 0. 0.
 0. 0. 0. 0. 0. 0. 0. 0. 0. 0. 0. 0. 0. 0. 0. 0. 0. 0. 0. 0. 0. 0. 0. 0.
 0. 0. 0. 0. 0. 0. 0. 0. 0. 0. 0. 0. 0. 0. 0. 0. 0. 0. 0. 0. 0. 0. 0. 0.
 0. 0. 0. 0.]

Layer 3:
[[-0.36593342]
 [-0.06631524]
 [ 0.11410459]
 [-0.92093766]
 [-0.9366577 ]
 [ 1.0744745 ]
 [-2.691372  ]
 [ 0.7541019 ]
 [-0.14412847]
 [ 1.0309033 ]
 [ 0.2989078 ]
 [ 0.6448892 ]
 [ 0.34928182]
 [-1.0101058 ]
 [ 0.05483156]
 [ 1.3015101 ]
 [-0.8882841 ]
 [-0.28435722]
 [-0.0763937 ]
 [ 0.0873595 ]
 [ 0.17736146]
 [ 0.30367607]
 [ 0.1687871 ]
 [ 0.22079083]
 [ 1.1528382 ]
 [ 2.3905983 ]
 [-0.46566227]
 [ 0.17350864]
 [-1.222984  ]
 [ 1.1976452 ]
 [-0.05547099]
 [ 0.21686187]
 [ 0.7927054 ]
 [ 0.42162582]
 [-1.1861123 ]
 [-0.41981965]
 [ 0.23985091]
 [-0.19280383]
 [-0.80261105]
 [ 0.53293663]
 [ 1.0785036 ]
 [ 0.580275  ]
 [-1.0247729 ]
 [ 0.13856553]
 [-0.7479254 ]
 [-0.500929  ]
 [-0.06242852]
 [-0.5950339 ]
 [-1.3789508 ]
 [ 1.125524  ]
 [-0.9585127 ]
 [-0.01830701]
 [-0.40780398]
 [-0.16811551]
 [ 1.5388572 ]
 [-0.32582095]
 [ 0.06273091]
 [-0.32050067]
 [ 0.37719494]
 [ 1.0202255 ]
 [ 2.273325  ]
 [-1.2808652 ]
 [-0.39599168]
 [ 1.8153863 ]
 [ 0.06791301]
 [ 0.91259104]
 [-0.0253168 ]
 [ 1.5687872 ]
 [ 0.17775777]
 [ 1.1127268 ]
 [ 0.14571917]
 [-2.8341312 ]
 [-1.276566  ]
 [-1.1415346 ]
 [-0.0811466 ]
 [ 0.49242043]
 [ 1.2500993 ]
 [ 2.878338  ]
 [ 0.7585515 ]
 [-0.07133088]
 [-1.3960856 ]
 [ 2.2907455 ]
 [ 1.6531585 ]
 [ 0.4708378 ]
 [-0.7273841 ]
 [-2.9292266 ]
 [-1.843349  ]
 [-0.7098778 ]
 [ 0.6697194 ]
 [-1.2654765 ]
 [ 0.7835019 ]
 [ 0.80680716]
 [-1.2970005 ]
 [-0.6087735 ]
 [ 0.6302334 ]
 [-2.0580075 ]
 [-0.50679684]
 [ 1.2257575 ]
 [-1.1729743 ]
 [-0.39989695]]

Layer 4:
[0.19848974]



Entrenamiento 1 WITH NO CONSENSUS:
------------------------------------------------------------------------

Layer 0:
[[ 0.          0.          0.         ... -0.19331299  0.
  -0.        ]
 [ 0.         -0.          0.         ...  0.          0.
   0.0281295 ]
 [-0.          0.          0.         ... -0.         -0.
  -0.        ]
 ...
 [ 0.          0.09333193  0.         ... -0.         -0.
  -0.12616315]
 [-0.1743076   0.          0.         ...  0.         -0.
   0.19979402]
 [-0.          0.         -0.         ... -0.         -0.
  -0.        ]]

Layer 1:
[[ 0.10307103  0.08996618  0.01516604  0.23199564  0.01918811  0.21406233
   0.01001525  0.22976178 -0.2115182   0.22095326  0.05209136 -0.01565737
  -0.13885501 -0.10057171  0.18986341  0.20139974  0.19598722 -0.15143536
  -0.19946943  0.16480416 -0.21836036  0.22868863  0.17619881 -0.09639856
   0.0321317   0.09346631  0.01052323  0.20518616 -0.09012942 -0.1596415
   0.23183149  0.04896557  0.24166611 -0.11769125  0.09091049 -0.03454393
   0.05547047  0.02089491 -0.15969507  0.13879287  0.23542097  0.1041387
   0.15287045 -0.1571145  -0.18498352 -0.07498109 -0.15517554  0.16838685
  -0.03772177 -0.10816148  0.15822697  0.19100446 -0.12771562 -0.16963604
  -0.08373487 -0.07966208  0.19883493 -0.12882495 -0.16797629 -0.12232261
   0.10885873 -0.07126179  0.14996302  0.01681122 -0.05981477 -0.11117782
   0.09075987  0.0790453   0.20467451  0.07715914 -0.08054146  0.21822566
  -0.23515007  0.01239732  0.06733614  0.17329457  0.04620668  0.01924556
   0.15996873  0.07605353 -0.01410611  0.1824117   0.06909433  0.18629739
  -0.08128063 -0.05477321 -0.11349358  0.21932748 -0.20072886 -0.0959539
  -0.08968452 -0.04054548 -0.24103126 -0.05097516  0.08168253 -0.14053515
   0.00366457 -0.23340403 -0.0983054   0.03551579]]

Layer 2:
[0. 0. 0. 0. 0. 0. 0. 0. 0. 0. 0. 0. 0. 0. 0. 0. 0. 0. 0. 0. 0. 0. 0. 0.
 0. 0. 0. 0. 0. 0. 0. 0. 0. 0. 0. 0. 0. 0. 0. 0. 0. 0. 0. 0. 0. 0. 0. 0.
 0. 0. 0. 0. 0. 0. 0. 0. 0. 0. 0. 0. 0. 0. 0. 0. 0. 0. 0. 0. 0. 0. 0. 0.
 0. 0. 0. 0. 0. 0. 0. 0. 0. 0. 0. 0. 0. 0. 0. 0. 0. 0. 0. 0. 0. 0. 0. 0.
 0. 0. 0. 0.]

Layer 3:
[[ 0.17885749]
 [-0.24025032]
 [ 3.7952962 ]
 [-1.0113926 ]
 [ 1.2257156 ]
 [ 0.6050447 ]
 [ 1.7486876 ]
 [ 0.31273347]
 [-0.2734437 ]
 [-0.27176812]
 [ 3.4837267 ]
 [-4.4996467 ]
 [-0.15702258]
 [-0.02393556]
 [-0.22463769]
 [-0.20125142]
 [ 0.02239905]
 [-0.2235863 ]
 [ 0.505623  ]
 [-0.19898686]
 [ 0.5658188 ]
 [ 0.47868738]
 [-0.16356891]
 [-0.3370754 ]
 [ 6.5667405 ]
 [-0.02495365]
 [-0.30917504]
 [-0.2734431 ]
 [-0.65594476]
 [ 1.0010927 ]
 [ 0.2707784 ]
 [ 2.9309285 ]
 [ 0.16442776]
 [ 0.11044289]
 [ 0.4459701 ]
 [-3.3189156 ]
 [ 1.1381781 ]
 [ 1.2682483 ]
 [ 0.77609265]
 [-0.01452732]
 [ 0.15024905]
 [ 0.28418535]
 [ 0.28287387]
 [ 0.25620282]
 [-0.581745  ]
 [-0.40913162]
 [ 0.3200152 ]
 [-0.12886824]
 [-1.1773456 ]
 [-0.2599424 ]
 [ 0.10009287]
 [-0.50287247]
 [ 0.33416417]
 [-0.31592217]
 [-0.6299908 ]
 [-0.7014631 ]
 [ 0.35983723]
 [ 0.35979044]
 [ 0.06924972]
 [ 0.26773936]
 [-0.62427   ]
 [-0.9455497 ]
 [ 0.04000864]
 [ 6.506749  ]
 [-1.5321575 ]
 [-0.19404128]
 [ 0.3464999 ]
 [-0.01598441]
 [ 0.08124787]
 [ 3.8456128 ]
 [-0.6687913 ]
 [-0.08998134]
 [-0.04411069]
 [ 2.0074239 ]
 [ 0.2172877 ]
 [ 0.27304485]
 [ 1.0313941 ]
 [ 2.022455  ]
 [ 0.07633207]
 [ 0.24867912]
 [-4.2556696 ]
 [-0.02832479]
 [ 0.4735891 ]
 [ 0.14847209]
 [-0.35550448]
 [-2.9485645 ]
 [ 1.3056167 ]
 [ 0.02547367]
 [-0.76853   ]
 [-0.18892986]
 [-0.35193235]
 [-2.7447164 ]
 [ 0.41776904]
 [-1.770852  ]
 [ 0.22916882]
 [ 0.63770545]
 [ 0.46490833]
 [ 0.5742449 ]
 [-0.39326254]
 [ 3.190184  ]]

Layer 4:
[0.00427072]



Consenso 1:
------------------------------------------------------------------------

Layer 0:
[[ 0.          0.03509249  0.         ... -0.05011819  0.07066232
   0.05965707]
 [-0.03687222 -0.00519265 -0.02088845 ...  0.         -0.00392625
   0.04074003]
 [ 0.00132704  0.         -0.00590422 ...  0.          0.07571389
   0.04639932]
 ...
 [ 0.         -0.02839329  0.01265564 ...  0.05806213  0.
   0.00037973]
 [-0.04519086  0.04606904  0.         ...  0.01023875  0.02723684
   0.05179845]
 [ 0.         -0.01767414 -0.03894768 ... -0.03251107  0.10191435
   0.        ]]

Layer 1:
[[ 0.00237195  0.10610043 -0.01135554 -0.02244807 -0.07873243  0.06086023
  -0.01936592  0.14418899 -0.07152346  0.05178778 -0.07311132  0.07566006
  -0.07636812 -0.02221966  0.08827851  0.01875815  0.07124029 -0.13280734
  -0.18677516  0.01885001 -0.04804621  0.09743919  0.09096907 -0.09654775
   0.10864579  0.02182681  0.00170235  0.07381364 -0.02254734 -0.09899163
   0.08367421 -0.04289486  0.03610761 -0.0672951  -0.07206532  0.05108368
   0.01404335 -0.01851295 -0.07990892  0.02743669  0.13616104  0.04765708
   0.05323325 -0.10439847 -0.02400096 -0.12515175 -0.01880192 -0.0696554
  -0.02978924  0.04964869 -0.01062846  0.06644773 -0.02026739 -0.06923518
   0.02933314  0.04459857  0.06829644 -0.15765688 -0.06928257  0.02000835
   0.03027318 -0.00334901  0.07332157 -0.06925794  0.09303761  0.0212323
   0.14457189  0.04339063  0.12530652 -0.05721664  0.09090076 -0.02293582
  -0.06254505 -0.01397654  0.03711092  0.07959552  0.02239865  0.06988338
   0.14331636 -0.06413009 -0.1023702   0.02045415  0.05088772  0.0598768
  -0.05053946 -0.06185403 -0.03301787  0.04745268 -0.14790481 -0.0237218
   0.04589669  0.00492368 -0.01922723 -0.0360423  -0.00351629 -0.05391161
  -0.06342272 -0.0782368  -0.08212058 -0.03411562]]

Layer 2:
[0. 0. 0. 0. 0. 0. 0. 0. 0. 0. 0. 0. 0. 0. 0. 0. 0. 0. 0. 0. 0. 0. 0. 0.
 0. 0. 0. 0. 0. 0. 0. 0. 0. 0. 0. 0. 0. 0. 0. 0. 0. 0. 0. 0. 0. 0. 0. 0.
 0. 0. 0. 0. 0. 0. 0. 0. 0. 0. 0. 0. 0. 0. 0. 0. 0. 0. 0. 0. 0. 0. 0. 0.
 0. 0. 0. 0. 0. 0. 0. 0. 0. 0. 0. 0. 0. 0. 0. 0. 0. 0. 0. 0. 0. 0. 0. 0.
 0. 0. 0. 0.]

Layer 3:
[[-0.5364475 ]
 [-0.01207939]
 [ 1.1076137 ]
 [-0.6600652 ]
 [-0.90772605]
 [ 1.0364002 ]
 [-0.38575274]
 [ 0.85660356]
 [-0.17236696]
 [ 0.88717085]
 [ 0.30560857]
 [ 0.37258455]
 [ 0.3293949 ]
 [-0.92431444]
 [ 0.01767321]
 [ 1.299244  ]
 [-0.9527822 ]
 [-0.13847941]
 [ 0.06995197]
 [ 0.37677056]
 [ 0.46613786]
 [ 0.36408833]
 [ 0.21784088]
 [ 0.2232127 ]
 [ 1.1698962 ]
 [ 2.2698042 ]
 [ 0.40583158]
 [ 0.14574647]
 [-1.1633034 ]
 [ 1.0654424 ]
 [-0.14813755]
 [ 0.4240585 ]
 [ 0.917832  ]
 [ 0.50658554]
 [-1.0079763 ]
 [-0.45680264]
 [-0.0209    ]
 [-0.0454528 ]
 [-0.8717357 ]
 [ 0.44924664]
 [ 1.0730402 ]
 [ 0.35627654]
 [-1.0556889 ]
 [ 0.15600654]
 [-0.6419385 ]
 [-0.5423629 ]
 [-1.3312851 ]
 [-0.50298715]
 [-1.267277  ]
 [ 0.92241323]
 [-0.50018746]
 [-0.02608705]
 [-0.28478128]
 [-0.1319903 ]
 [ 1.3673538 ]
 [-0.43710107]
 [-0.15522094]
 [-0.10587558]
 [ 0.37506062]
 [ 0.8712487 ]
 [ 2.0192637 ]
 [-2.2353046 ]
 [-0.45130897]
 [ 1.894701  ]
 [ 0.02472995]
 [ 0.6682452 ]
 [-0.06627748]
 [ 1.5073954 ]
 [ 0.04524589]
 [ 1.1839997 ]
 [ 0.22589463]
 [-2.8748264 ]
 [-1.3416839 ]
 [-0.90774983]
 [-0.18584512]
 [ 0.5200266 ]
 [ 1.1153482 ]
 [ 2.277041  ]
 [ 0.8658034 ]
 [ 0.14695953]
 [-1.4000647 ]
 [ 1.7235186 ]
 [ 1.5127865 ]
 [ 0.36213297]
 [-0.712827  ]
 [-2.4958372 ]
 [-1.8037744 ]
 [-0.83455616]
 [ 0.5581487 ]
 [-1.4325517 ]
 [ 0.55142033]
 [ 0.8796155 ]
 [-2.0739763 ]
 [-0.36345068]
 [ 0.60106146]
 [-2.4208968 ]
 [-0.32747847]
 [ 1.375512  ]
 [-1.1184807 ]
 [-0.23566444]]

Layer 4:
[0.09137496]



Entrenamiento 2:
------------------------------------------------------------------------

Layer 0:
[[ 0.          0.03509249  0.         ... -0.05011819  0.07066232
   0.05965707]
 [-0.03687222 -0.00519265 -0.02088845 ...  0.         -0.00392625
   0.04074003]
 [ 0.00132704  0.         -0.00590422 ...  0.          0.07571389
   0.04639932]
 ...
 [ 0.         -0.02839329  0.01265564 ...  0.05806213  0.
   0.00037973]
 [-0.04519086  0.04606904  0.         ...  0.01023875  0.02723684
   0.05179845]
 [ 0.         -0.01767414 -0.03894768 ... -0.03251107  0.10191435
   0.        ]]

Layer 1:
[[ 0.00237195  0.10610043 -0.01135554 -0.02244807 -0.07873243  0.06086023
  -0.01936592  0.14418899 -0.07152346  0.05178778 -0.07311132  0.07566006
  -0.07636812 -0.02221966  0.08827851  0.01875815  0.07124029 -0.13280734
  -0.18677516  0.01885001 -0.04804621  0.09743919  0.09096907 -0.09654775
   0.10864579  0.02182681  0.00170235  0.07381364 -0.02254734 -0.09899163
   0.08367421 -0.04289486  0.03610761 -0.0672951  -0.07206532  0.05108368
   0.01404335 -0.01851295 -0.07990892  0.02743669  0.13616104  0.04765708
   0.05323325 -0.10439847 -0.02400096 -0.12515175 -0.01880192 -0.0696554
  -0.02978924  0.04964869 -0.01062846  0.06644773 -0.02026739 -0.06923518
   0.02933314  0.04459857  0.06829644 -0.15765688 -0.06928257  0.02000835
   0.03027318 -0.00334901  0.07332157 -0.06925794  0.09303761  0.0212323
   0.14457189  0.04339063  0.12530652 -0.05721664  0.09090076 -0.02293582
  -0.06254505 -0.01397654  0.03711092  0.07959552  0.02239865  0.06988338
   0.14331636 -0.06413009 -0.1023702   0.02045415  0.05088772  0.0598768
  -0.05053946 -0.06185403 -0.03301787  0.04745268 -0.14790481 -0.0237218
   0.04589669  0.00492368 -0.01922723 -0.0360423  -0.00351629 -0.05391161
  -0.06342272 -0.0782368  -0.08212058 -0.03411562]]

Layer 2:
[0. 0. 0. 0. 0. 0. 0. 0. 0. 0. 0. 0. 0. 0. 0. 0. 0. 0. 0. 0. 0. 0. 0. 0.
 0. 0. 0. 0. 0. 0. 0. 0. 0. 0. 0. 0. 0. 0. 0. 0. 0. 0. 0. 0. 0. 0. 0. 0.
 0. 0. 0. 0. 0. 0. 0. 0. 0. 0. 0. 0. 0. 0. 0. 0. 0. 0. 0. 0. 0. 0. 0. 0.
 0. 0. 0. 0. 0. 0. 0. 0. 0. 0. 0. 0. 0. 0. 0. 0. 0. 0. 0. 0. 0. 0. 0. 0.
 0. 0. 0. 0.]

Layer 3:
[[-3.3352119e-01]
 [-2.5314862e-02]
 [ 5.5544454e-01]
 [-1.2615049e+00]
 [-7.1840632e-01]
 [ 1.1730540e+00]
 [-1.4374266e+00]
 [ 6.9718456e-01]
 [ 1.1988620e-01]
 [ 6.2188882e-01]
 [ 3.6706471e-01]
 [ 7.3052317e-01]
 [ 5.3906339e-01]
 [-1.6068593e+00]
 [ 9.8542497e-02]
 [ 2.0983067e+00]
 [-9.4350982e-01]
 [-4.2308545e-01]
 [-4.4680363e-01]
 [ 1.2447841e+00]
 [ 3.3151427e-01]
 [ 1.8602900e-01]
 [ 6.8468004e-02]
 [ 4.4575632e-02]
 [ 7.3998535e-01]
 [ 2.7265537e+00]
 [ 4.3185949e-01]
 [ 2.1621835e-01]
 [-1.4812022e+00]
 [ 1.2876623e+00]
 [ 7.9375483e-02]
 [ 1.2481400e-01]
 [ 1.1621064e+00]
 [ 1.7950368e-01]
 [-9.4532400e-01]
 [-9.2853487e-02]
 [ 9.6164155e-01]
 [-4.3748394e-01]
 [-2.9847044e-01]
 [ 7.3744208e-01]
 [ 1.3540154e+00]
 [ 3.0959365e-01]
 [-9.0657657e-01]
 [ 5.8231775e-02]
 [-8.8575441e-01]
 [-4.7705695e-01]
 [-1.6373227e+00]
 [-3.5627678e-01]
 [-1.6501833e+00]
 [ 7.6033711e-01]
 [-1.3513688e+00]
 [-8.7987386e-02]
 [-5.3910041e-01]
 [-1.9164196e-01]
 [ 2.0269530e+00]
 [-4.3231824e-01]
 [ 3.3409873e-01]
 [-7.4790525e-01]
 [ 3.4384015e-01]
 [ 1.4009403e+00]
 [ 2.7370965e+00]
 [-1.9582006e+00]
 [-4.5969075e-01]
 [ 1.8507639e+00]
 [-2.9975904e-02]
 [ 8.9273781e-01]
 [ 8.3098821e-02]
 [ 1.6134926e+00]
 [ 3.4196985e-01]
 [ 1.3558106e+00]
 [-1.5169208e-01]
 [-3.6058490e+00]
 [-8.8547736e-01]
 [-1.6069775e+00]
 [ 5.4484099e-02]
 [ 5.9143078e-01]
 [ 1.4802773e+00]
 [ 1.9305757e+00]
 [ 7.6115096e-01]
 [ 6.5194346e-02]
 [-7.5325632e-01]
 [ 2.2782898e+00]
 [ 1.1643978e+00]
 [ 5.5175614e-01]
 [-7.2224617e-01]
 [-2.3194184e+00]
 [-1.9116043e+00]
 [-7.4272770e-01]
 [ 8.5469282e-01]
 [-1.9915507e+00]
 [ 7.1465290e-01]
 [ 1.5250603e+00]
 [-2.8036335e+00]
 [-7.7775699e-01]
 [ 6.0760564e-01]
 [-2.2028630e+00]
 [-2.0269421e-03]
 [ 1.1292638e+00]
 [-1.3926033e+00]
 [-4.6992940e-01]]

Layer 4:
[0.01111574]



Entrenamiento 2 WITH NO CONSENSUS:
------------------------------------------------------------------------

Layer 0:
[[ 0.          0.          0.         ... -0.19331299  0.
  -0.        ]
 [ 0.         -0.          0.         ...  0.          0.
   0.0281295 ]
 [-0.          0.          0.         ... -0.         -0.
  -0.        ]
 ...
 [ 0.          0.09333193  0.         ... -0.         -0.
  -0.12616315]
 [-0.1743076   0.          0.         ...  0.         -0.
   0.19979402]
 [-0.          0.         -0.         ... -0.         -0.
  -0.        ]]

Layer 1:
[[ 0.10307103  0.08996618  0.01516604  0.23199564  0.01918811  0.21406233
   0.01001525  0.22976178 -0.2115182   0.22095326  0.05209136 -0.01565737
  -0.13885501 -0.10057171  0.18986341  0.20139974  0.19598722 -0.15143536
  -0.19946943  0.16480416 -0.21836036  0.22868863  0.17619881 -0.09639856
   0.0321317   0.09346631  0.01052323  0.20518616 -0.09012942 -0.1596415
   0.23183149  0.04896557  0.24166611 -0.11769125  0.09091049 -0.03454393
   0.05547047  0.02089491 -0.15969507  0.13879287  0.23542097  0.1041387
   0.15287045 -0.1571145  -0.18498352 -0.07498109 -0.15517554  0.16838685
  -0.03772177 -0.10816148  0.15822697  0.19100446 -0.12771562 -0.16963604
  -0.08373487 -0.07966208  0.19883493 -0.12882495 -0.16797629 -0.12232261
   0.10885873 -0.07126179  0.14996302  0.01681122 -0.05981477 -0.11117782
   0.09075987  0.0790453   0.20467451  0.07715914 -0.08054146  0.21822566
  -0.23515007  0.01239732  0.06733614  0.17329457  0.04620668  0.01924556
   0.15996873  0.07605353 -0.01410611  0.1824117   0.06909433  0.18629739
  -0.08128063 -0.05477321 -0.11349358  0.21932748 -0.20072886 -0.0959539
  -0.08968452 -0.04054548 -0.24103126 -0.05097516  0.08168253 -0.14053515
   0.00366457 -0.23340403 -0.0983054   0.03551579]]

Layer 2:
[0. 0. 0. 0. 0. 0. 0. 0. 0. 0. 0. 0. 0. 0. 0. 0. 0. 0. 0. 0. 0. 0. 0. 0.
 0. 0. 0. 0. 0. 0. 0. 0. 0. 0. 0. 0. 0. 0. 0. 0. 0. 0. 0. 0. 0. 0. 0. 0.
 0. 0. 0. 0. 0. 0. 0. 0. 0. 0. 0. 0. 0. 0. 0. 0. 0. 0. 0. 0. 0. 0. 0. 0.
 0. 0. 0. 0. 0. 0. 0. 0. 0. 0. 0. 0. 0. 0. 0. 0. 0. 0. 0. 0. 0. 0. 0. 0.
 0. 0. 0. 0.]

Layer 3:
[[ 0.31001577]
 [-0.28069627]
 [ 4.256326  ]
 [-1.2917581 ]
 [ 1.2922446 ]
 [ 0.5441628 ]
 [ 3.1013331 ]
 [ 0.38623193]
 [-0.29794946]
 [-0.18662985]
 [ 3.469609  ]
 [-5.3724213 ]
 [-0.56213564]
 [ 0.8774007 ]
 [-0.2507269 ]
 [-0.3317448 ]
 [-0.0564327 ]
 [-0.22906552]
 [ 0.43700933]
 [-0.17014246]
 [ 0.4281976 ]
 [ 0.50033677]
 [-0.0510703 ]
 [-0.56971556]
 [ 7.6560893 ]
 [-0.31716225]
 [ 0.70972073]
 [-0.09288989]
 [-0.72114307]
 [ 1.1647154 ]
 [ 0.33800566]
 [ 2.7719622 ]
 [ 0.04927305]
 [ 0.32104212]
 [ 0.34363616]
 [-3.8170826 ]
 [ 0.98183215]
 [ 1.4445072 ]
 [ 0.9787124 ]
 [-0.08211654]
 [ 0.14294825]
 [ 0.3746059 ]
 [ 0.25656238]
 [ 0.37319463]
 [-0.6756222 ]
 [-0.614071  ]
 [ 1.0408317 ]
 [-0.02457329]
 [-1.5236855 ]
 [-0.39881268]
 [ 0.2496477 ]
 [-0.63299584]
 [ 0.16118611]
 [-0.25576743]
 [-0.7907266 ]
 [-0.48320526]
 [ 0.18399   ]
 [ 0.40398905]
 [ 0.1282991 ]
 [ 0.5726962 ]
 [-1.095162  ]
 [-0.8547137 ]
 [-0.10870162]
 [ 7.467644  ]
 [-1.555291  ]
 [ 0.22570549]
 [ 0.4424464 ]
 [ 0.025696  ]
 [ 0.09293721]
 [ 3.709159  ]
 [-0.78675014]
 [-0.30491078]
 [-0.09383459]
 [ 2.42481   ]
 [ 0.17923309]
 [ 0.23579481]
 [ 1.2809066 ]
 [ 2.6752565 ]
 [ 0.18714827]
 [ 0.08348616]
 [-6.0623746 ]
 [-0.30638656]
 [ 0.49528447]
 [ 0.21563952]
 [-0.24355155]
 [-3.1797447 ]
 [ 1.5376589 ]
 [ 0.16811158]
 [-0.8268511 ]
 [-0.3914749 ]
 [-0.17905211]
 [-2.8676357 ]
 [ 0.45375398]
 [-1.7264637 ]
 [ 0.37819108]
 [ 0.23509006]
 [ 0.63856256]
 [ 0.6173021 ]
 [-0.4951045 ]
 [ 3.649852  ]]

Layer 4:
[0.02007351]



Consenso 2:
------------------------------------------------------------------------

Layer 0:
[[ 0.          0.03509249  0.         ... -0.05011819  0.07066232
   0.05965707]
 [-0.03687222 -0.00519265 -0.02088845 ...  0.         -0.00392625
   0.04074003]
 [ 0.00132704  0.         -0.00590422 ...  0.          0.07571389
   0.04639932]
 ...
 [ 0.         -0.02839329  0.01265564 ...  0.05806213  0.
   0.00037973]
 [-0.04519086  0.04606904  0.         ...  0.01023875  0.02723684
   0.05179845]
 [ 0.         -0.01767414 -0.03894768 ... -0.03251107  0.10191435
   0.        ]]

Layer 1:
[[ 0.00237195  0.10610043 -0.01135554 -0.02244807 -0.07873243  0.06086023
  -0.01936592  0.14418899 -0.07152346  0.05178778 -0.07311132  0.07566006
  -0.07636812 -0.02221966  0.08827851  0.01875815  0.07124029 -0.13280734
  -0.18677516  0.01885001 -0.04804621  0.09743919  0.09096907 -0.09654775
   0.10864579  0.02182681  0.00170235  0.07381364 -0.02254734 -0.09899163
   0.08367421 -0.04289486  0.03610761 -0.0672951  -0.07206532  0.05108368
   0.01404335 -0.01851295 -0.07990892  0.02743669  0.13616104  0.04765708
   0.05323325 -0.10439847 -0.02400096 -0.12515175 -0.01880192 -0.0696554
  -0.02978924  0.04964869 -0.01062846  0.06644773 -0.02026739 -0.06923518
   0.02933314  0.04459857  0.06829644 -0.15765688 -0.06928257  0.02000835
   0.03027318 -0.00334901  0.07332157 -0.06925794  0.09303761  0.0212323
   0.14457189  0.04339063  0.12530652 -0.05721664  0.09090076 -0.02293582
  -0.06254505 -0.01397654  0.03711092  0.07959552  0.02239865  0.06988338
   0.14331636 -0.06413009 -0.1023702   0.02045415  0.05088772  0.0598768
  -0.05053946 -0.06185403 -0.03301787  0.04745268 -0.14790481 -0.0237218
   0.04589669  0.00492368 -0.01922723 -0.0360423  -0.00351629 -0.05391161
  -0.06342272 -0.0782368  -0.08212058 -0.03411562]]

Layer 2:
[0. 0. 0. 0. 0. 0. 0. 0. 0. 0. 0. 0. 0. 0. 0. 0. 0. 0. 0. 0. 0. 0. 0. 0.
 0. 0. 0. 0. 0. 0. 0. 0. 0. 0. 0. 0. 0. 0. 0. 0. 0. 0. 0. 0. 0. 0. 0. 0.
 0. 0. 0. 0. 0. 0. 0. 0. 0. 0. 0. 0. 0. 0. 0. 0. 0. 0. 0. 0. 0. 0. 0. 0.
 0. 0. 0. 0. 0. 0. 0. 0. 0. 0. 0. 0. 0. 0. 0. 0. 0. 0. 0. 0. 0. 0. 0. 0.
 0. 0. 0. 0.]

Layer 3:
[[-1.45561859e-01]
 [-9.29683298e-02]
 [ 6.35300517e-01]
 [-1.69634700e+00]
 [-7.89554358e-01]
 [ 1.01856291e+00]
 [-1.58172548e+00]
 [ 7.37362921e-01]
 [ 6.16883219e-04]
 [ 9.24096107e-01]
 [ 4.07397747e-01]
 [ 3.95439804e-01]
 [ 4.69584405e-01]
 [-1.86129951e+00]
 [-3.53055559e-02]
 [ 2.75683832e+00]
 [-1.03611815e+00]
 [-1.57808825e-01]
 [-3.64000909e-02]
 [ 1.68425226e+00]
 [ 2.68077403e-01]
 [ 2.31155202e-01]
 [ 9.41749513e-02]
 [ 2.53358513e-01]
 [ 9.57497299e-01]
 [ 3.09868646e+00]
 [ 7.32101440e-01]
 [ 8.21209550e-02]
 [-1.73865461e+00]
 [ 1.20752847e+00]
 [-1.64282069e-01]
 [ 3.55078876e-01]
 [ 1.28318000e+00]
 [ 4.90244687e-01]
 [-9.48376536e-01]
 [-3.67139399e-01]
 [ 1.41141653e+00]
 [-4.81252968e-01]
 [-6.76891744e-01]
 [ 7.42620885e-01]
 [ 1.08505261e+00]
 [ 5.27306139e-01]
 [-1.09987414e+00]
 [ 1.98376492e-01]
 [-1.28495562e+00]
 [-4.38769639e-01]
 [-3.16975045e+00]
 [-3.72796863e-01]
 [-1.32802033e+00]
 [ 8.96537066e-01]
 [-2.07056975e+00]
 [-1.11434646e-01]
 [-6.20824695e-01]
 [-7.03429878e-02]
 [ 2.28951478e+00]
 [-4.54751253e-01]
 [-8.30432251e-02]
 [-2.48170525e-01]
 [ 4.42169189e-01]
 [ 1.61398947e+00]
 [ 3.08526492e+00]
 [-2.81681514e+00]
 [-5.18809140e-01]
 [ 1.95688426e+00]
 [-8.37976635e-02]
 [ 8.17731857e-01]
 [-8.35886225e-02]
 [ 1.93309486e+00]
 [ 6.36832938e-02]
 [ 1.25453997e+00]
 [ 2.47590896e-02]
 [-4.05083370e+00]
 [-1.16044152e+00]
 [-1.89292753e+00]
 [ 3.21680866e-02]
 [ 4.53583658e-01]
 [ 1.65016031e+00]
 [ 2.33569336e+00]
 [ 7.59493053e-01]
 [ 1.70495600e-01]
 [-1.15309167e+00]
 [ 2.61278534e+00]
 [ 1.61464190e+00]
 [ 3.54871064e-01]
 [-6.68962121e-01]
 [-2.64546061e+00]
 [-2.10641456e+00]
 [-8.51682961e-01]
 [ 7.41189897e-01]
 [-2.53787065e+00]
 [ 6.37668371e-01]
 [ 1.55285370e+00]
 [-3.58390594e+00]
 [-4.41195220e-01]
 [-4.09460887e-02]
 [-2.51275277e+00]
 [-2.37739295e-01]
 [ 1.38331532e+00]
 [-1.11470985e+00]
 [-3.97130042e-01]]

Layer 4:
[0.11622212]



Entrenamiento 3:
------------------------------------------------------------------------

Layer 0:
[[ 0.          0.03509249  0.         ... -0.05011819  0.07066232
   0.05965707]
 [-0.03687222 -0.00519265 -0.02088845 ...  0.         -0.00392625
   0.04074003]
 [ 0.00132704  0.         -0.00590422 ...  0.          0.07571389
   0.04639932]
 ...
 [ 0.         -0.02839329  0.01265564 ...  0.05806213  0.
   0.00037973]
 [-0.04519086  0.04606904  0.         ...  0.01023875  0.02723684
   0.05179845]
 [ 0.         -0.01767414 -0.03894768 ... -0.03251107  0.10191435
   0.        ]]

Layer 1:
[[ 0.00237195  0.10610043 -0.01135554 -0.02244807 -0.07873243  0.06086023
  -0.01936592  0.14418899 -0.07152346  0.05178778 -0.07311132  0.07566006
  -0.07636812 -0.02221966  0.08827851  0.01875815  0.07124029 -0.13280734
  -0.18677516  0.01885001 -0.04804621  0.09743919  0.09096907 -0.09654775
   0.10864579  0.02182681  0.00170235  0.07381364 -0.02254734 -0.09899163
   0.08367421 -0.04289486  0.03610761 -0.0672951  -0.07206532  0.05108368
   0.01404335 -0.01851295 -0.07990892  0.02743669  0.13616104  0.04765708
   0.05323325 -0.10439847 -0.02400096 -0.12515175 -0.01880192 -0.0696554
  -0.02978924  0.04964869 -0.01062846  0.06644773 -0.02026739 -0.06923518
   0.02933314  0.04459857  0.06829644 -0.15765688 -0.06928257  0.02000835
   0.03027318 -0.00334901  0.07332157 -0.06925794  0.09303761  0.0212323
   0.14457189  0.04339063  0.12530652 -0.05721664  0.09090076 -0.02293582
  -0.06254505 -0.01397654  0.03711092  0.07959552  0.02239865  0.06988338
   0.14331636 -0.06413009 -0.1023702   0.02045415  0.05088772  0.0598768
  -0.05053946 -0.06185403 -0.03301787  0.04745268 -0.14790481 -0.0237218
   0.04589669  0.00492368 -0.01922723 -0.0360423  -0.00351629 -0.05391161
  -0.06342272 -0.0782368  -0.08212058 -0.03411562]]

Layer 2:
[0. 0. 0. 0. 0. 0. 0. 0. 0. 0. 0. 0. 0. 0. 0. 0. 0. 0. 0. 0. 0. 0. 0. 0.
 0. 0. 0. 0. 0. 0. 0. 0. 0. 0. 0. 0. 0. 0. 0. 0. 0. 0. 0. 0. 0. 0. 0. 0.
 0. 0. 0. 0. 0. 0. 0. 0. 0. 0. 0. 0. 0. 0. 0. 0. 0. 0. 0. 0. 0. 0. 0. 0.
 0. 0. 0. 0. 0. 0. 0. 0. 0. 0. 0. 0. 0. 0. 0. 0. 0. 0. 0. 0. 0. 0. 0. 0.
 0. 0. 0. 0.]

Layer 3:
[[ 0.16042589]
 [-0.03727154]
 [ 0.1393904 ]
 [-1.7017953 ]
 [-0.5422585 ]
 [ 1.1485947 ]
 [-1.6648523 ]
 [ 0.65173215]
 [ 0.30823755]
 [ 0.16648847]
 [ 0.41246173]
 [ 0.80898607]
 [ 0.69162065]
 [-1.9528315 ]
 [ 0.11657987]
 [ 2.9964118 ]
 [-0.94647366]
 [-0.5467926 ]
 [-0.6190632 ]
 [ 2.1779857 ]
 [ 0.52398217]
 [ 0.06386022]
 [-0.0284599 ]
 [-0.01346237]
 [ 0.5454871 ]
 [ 3.0253394 ]
 [ 0.8100609 ]
 [ 0.20432003]
 [-1.6849772 ]
 [ 1.3481735 ]
 [ 0.16188106]
 [ 0.09730646]
 [ 1.2167463 ]
 [ 0.07732195]
 [-0.7561532 ]
 [-0.01013367]
 [ 1.9192823 ]
 [-0.63247544]
 [ 0.13405997]
 [ 0.82188493]
 [ 1.4585427 ]
 [-0.02194017]
 [-0.86497825]
 [ 0.04239043]
 [-1.0939828 ]
 [-0.4550257 ]
 [-3.2305946 ]
 [-0.24925295]
 [-1.7513573 ]
 [ 0.5110079 ]
 [-2.674122  ]
 [-0.1916442 ]
 [-0.59877557]
 [-0.1779208 ]
 [ 2.2987278 ]
 [-0.5668318 ]
 [ 0.5219528 ]
 [-0.9509011 ]
 [ 0.38116896]
 [ 1.8499093 ]
 [ 2.9826972 ]
 [-2.438925  ]
 [-0.5303695 ]
 [ 1.8932718 ]
 [-0.04570993]
 [ 0.9629599 ]
 [ 0.14376166]
 [ 1.3572901 ]
 [ 0.45508102]
 [ 1.5833437 ]
 [-0.33553103]
 [-4.062613  ]
 [-0.5401812 ]
 [-2.1443636 ]
 [ 0.04501181]
 [ 0.5841808 ]
 [ 1.6829693 ]
 [ 1.3011988 ]
 [ 0.76686484]
 [ 0.14020574]
 [-0.5298985 ]
 [ 2.6766162 ]
 [ 0.58949184]
 [ 0.57259244]
 [-0.6315637 ]
 [-1.7450672 ]
 [-1.7154799 ]
 [-0.7803894 ]
 [ 0.9251166 ]
 [-2.4389951 ]
 [ 0.67780155]
 [ 2.0550783 ]
 [-3.9162834 ]
 [-0.90294397]
 [ 0.10517013]
 [-1.7978809 ]
 [ 0.3517926 ]
 [ 1.0580711 ]
 [-1.4752892 ]
 [-0.49142283]]

Layer 4:
[0.00102077]



Entrenamiento 3 WITH NO CONSENSUS:
------------------------------------------------------------------------

Layer 0:
[[ 0.          0.          0.         ... -0.19331299  0.
  -0.        ]
 [ 0.         -0.          0.         ...  0.          0.
   0.0281295 ]
 [-0.          0.          0.         ... -0.         -0.
  -0.        ]
 ...
 [ 0.          0.09333193  0.         ... -0.         -0.
  -0.12616315]
 [-0.1743076   0.          0.         ...  0.         -0.
   0.19979402]
 [-0.          0.         -0.         ... -0.         -0.
  -0.        ]]

Layer 1:
[[ 0.10307103  0.08996618  0.01516604  0.23199564  0.01918811  0.21406233
   0.01001525  0.22976178 -0.2115182   0.22095326  0.05209136 -0.01565737
  -0.13885501 -0.10057171  0.18986341  0.20139974  0.19598722 -0.15143536
  -0.19946943  0.16480416 -0.21836036  0.22868863  0.17619881 -0.09639856
   0.0321317   0.09346631  0.01052323  0.20518616 -0.09012942 -0.1596415
   0.23183149  0.04896557  0.24166611 -0.11769125  0.09091049 -0.03454393
   0.05547047  0.02089491 -0.15969507  0.13879287  0.23542097  0.1041387
   0.15287045 -0.1571145  -0.18498352 -0.07498109 -0.15517554  0.16838685
  -0.03772177 -0.10816148  0.15822697  0.19100446 -0.12771562 -0.16963604
  -0.08373487 -0.07966208  0.19883493 -0.12882495 -0.16797629 -0.12232261
   0.10885873 -0.07126179  0.14996302  0.01681122 -0.05981477 -0.11117782
   0.09075987  0.0790453   0.20467451  0.07715914 -0.08054146  0.21822566
  -0.23515007  0.01239732  0.06733614  0.17329457  0.04620668  0.01924556
   0.15996873  0.07605353 -0.01410611  0.1824117   0.06909433  0.18629739
  -0.08128063 -0.05477321 -0.11349358  0.21932748 -0.20072886 -0.0959539
  -0.08968452 -0.04054548 -0.24103126 -0.05097516  0.08168253 -0.14053515
   0.00366457 -0.23340403 -0.0983054   0.03551579]]

Layer 2:
[0. 0. 0. 0. 0. 0. 0. 0. 0. 0. 0. 0. 0. 0. 0. 0. 0. 0. 0. 0. 0. 0. 0. 0.
 0. 0. 0. 0. 0. 0. 0. 0. 0. 0. 0. 0. 0. 0. 0. 0. 0. 0. 0. 0. 0. 0. 0. 0.
 0. 0. 0. 0. 0. 0. 0. 0. 0. 0. 0. 0. 0. 0. 0. 0. 0. 0. 0. 0. 0. 0. 0. 0.
 0. 0. 0. 0. 0. 0. 0. 0. 0. 0. 0. 0. 0. 0. 0. 0. 0. 0. 0. 0. 0. 0. 0. 0.
 0. 0. 0. 0.]

Layer 3:
[[ 0.32582572]
 [-0.21481305]
 [ 4.422845  ]
 [-1.2802504 ]
 [ 1.2847668 ]
 [ 0.52514416]
 [ 4.0397415 ]
 [ 0.36085367]
 [-0.30585024]
 [-0.18249553]
 [ 3.1704485 ]
 [-5.4118595 ]
 [-0.83901703]
 [ 1.492841  ]
 [-0.321108  ]
 [-0.48337832]
 [-0.1316725 ]
 [-0.30358586]
 [ 0.36796814]
 [-0.03816567]
 [ 0.28602958]
 [ 0.49205142]
 [-0.00843465]
 [-0.7863454 ]
 [ 8.325465  ]
 [-0.4909965 ]
 [ 1.4118575 ]
 [ 0.02290092]
 [-0.68573636]
 [ 1.123383  ]
 [ 0.32371855]
 [ 2.5385485 ]
 [-0.03136608]
 [ 0.3326539 ]
 [ 0.27769968]
 [-4.217565  ]
 [ 0.89696574]
 [ 1.5564743 ]
 [ 1.0658112 ]
 [-0.03230464]
 [ 0.0340898 ]
 [ 0.32072222]
 [ 0.22246918]
 [ 0.4853594 ]
 [-0.73305786]
 [-0.80117494]
 [ 1.2869714 ]
 [ 0.05701416]
 [-1.8197497 ]
 [-0.48630774]
 [ 0.4121118 ]
 [-0.7298523 ]
 [ 0.07131216]
 [-0.23378035]
 [-0.99193907]
 [-0.38619578]
 [-0.11226081]
 [ 0.5514692 ]
 [ 0.3066329 ]
 [ 0.74199086]
 [-1.3152303 ]
 [-0.8108976 ]
 [-0.3049744 ]
 [ 7.9605837 ]
 [-1.5498941 ]
 [ 0.46507946]
 [ 0.5003047 ]
 [ 0.04751143]
 [ 0.0691985 ]
 [ 3.4072487 ]
 [-0.8902427 ]
 [-0.57657695]
 [-0.07786758]
 [ 2.649006  ]
 [ 0.13530931]
 [ 0.09666228]
 [ 1.5027801 ]
 [ 3.0911007 ]
 [ 0.32389063]
 [-0.06934945]
 [-7.2491508 ]
 [-0.66116416]
 [ 0.483668  ]
 [ 0.33139107]
 [-0.01407089]
 [-3.256501  ]
 [ 1.5190916 ]
 [ 0.31454492]
 [-0.9079875 ]
 [-0.5823615 ]
 [-0.01006493]
 [-2.9125557 ]
 [ 0.41139528]
 [-1.608181  ]
 [ 0.4894151 ]
 [-0.28172237]
 [ 0.7222343 ]
 [ 0.6379252 ]
 [-0.5579487 ]
 [ 3.8663857 ]]

Layer 4:
[0.00783893]



Consenso 3:
------------------------------------------------------------------------

Layer 0:
[[ 0.          0.03509249  0.         ... -0.05011819  0.07066232
   0.05965707]
 [-0.03687222 -0.00519265 -0.02088845 ...  0.         -0.00392625
   0.04074003]
 [ 0.00132704  0.         -0.00590422 ...  0.          0.07571389
   0.04639932]
 ...
 [ 0.         -0.02839329  0.01265564 ...  0.05806213  0.
   0.00037973]
 [-0.04519086  0.04606904  0.         ...  0.01023875  0.02723684
   0.05179845]
 [ 0.         -0.01767414 -0.03894768 ... -0.03251107  0.10191435
   0.        ]]

Layer 1:
[[ 0.00237195  0.10610043 -0.01135554 -0.02244807 -0.07873243  0.06086023
  -0.01936592  0.14418899 -0.07152346  0.05178778 -0.07311132  0.07566006
  -0.07636812 -0.02221966  0.08827851  0.01875815  0.07124029 -0.13280734
  -0.18677516  0.01885001 -0.04804621  0.09743919  0.09096907 -0.09654775
   0.10864579  0.02182681  0.00170235  0.07381364 -0.02254734 -0.09899163
   0.08367421 -0.04289486  0.03610761 -0.0672951  -0.07206532  0.05108368
   0.01404335 -0.01851295 -0.07990892  0.02743669  0.13616104  0.04765708
   0.05323325 -0.10439847 -0.02400096 -0.12515175 -0.01880192 -0.0696554
  -0.02978924  0.04964869 -0.01062846  0.06644773 -0.02026739 -0.06923518
   0.02933314  0.04459857  0.06829644 -0.15765688 -0.06928257  0.02000835
   0.03027318 -0.00334901  0.07332157 -0.06925794  0.09303761  0.0212323
   0.14457189  0.04339063  0.12530652 -0.05721664  0.09090076 -0.02293582
  -0.06254505 -0.01397654  0.03711092  0.07959552  0.02239865  0.06988338
   0.14331636 -0.06413009 -0.1023702   0.02045415  0.05088772  0.0598768
  -0.05053946 -0.06185403 -0.03301787  0.04745268 -0.14790481 -0.0237218
   0.04589669  0.00492368 -0.01922723 -0.0360423  -0.00351629 -0.05391161
  -0.06342272 -0.0782368  -0.08212058 -0.03411562]]

Layer 2:
[0. 0. 0. 0. 0. 0. 0. 0. 0. 0. 0. 0. 0. 0. 0. 0. 0. 0. 0. 0. 0. 0. 0. 0.
 0. 0. 0. 0. 0. 0. 0. 0. 0. 0. 0. 0. 0. 0. 0. 0. 0. 0. 0. 0. 0. 0. 0. 0.
 0. 0. 0. 0. 0. 0. 0. 0. 0. 0. 0. 0. 0. 0. 0. 0. 0. 0. 0. 0. 0. 0. 0. 0.
 0. 0. 0. 0. 0. 0. 0. 0. 0. 0. 0. 0. 0. 0. 0. 0. 0. 0. 0. 0. 0. 0. 0. 0.
 0. 0. 0. 0.]

Layer 3:
[[ 0.42032412]
 [-0.10647976]
 [ 0.10565177]
 [-2.4597502 ]
 [-0.61858386]
 [ 1.0169419 ]
 [-2.432294  ]
 [ 0.6880217 ]
 [ 0.2527316 ]
 [ 0.59544283]
 [ 0.4987516 ]
 [ 0.5226127 ]
 [ 0.6576962 ]
 [-2.523069  ]
 [-0.01842593]
 [ 3.968163  ]
 [-1.0824503 ]
 [-0.3357401 ]
 [-0.35164487]
 [ 2.849912  ]
 [ 0.29636267]
 [ 0.10001916]
 [-0.02754759]
 [ 0.17200278]
 [ 0.71590436]
 [ 3.6953812 ]
 [ 1.1376488 ]
 [ 0.06631095]
 [-2.0750427 ]
 [ 1.336996  ]
 [-0.06472034]
 [ 0.28143373]
 [ 1.4168328 ]
 [ 0.3659133 ]
 [-0.82228833]
 [-0.24672343]
 [ 2.7460017 ]
 [-0.7264904 ]
 [-0.26310828]
 [ 0.8838322 ]
 [ 1.2558072 ]
 [ 0.32970452]
 [-1.0882878 ]
 [ 0.15254623]
 [-1.5772492 ]
 [-0.4189054 ]
 [-4.9092855 ]
 [-0.21869043]
 [-1.4423101 ]
 [ 0.6656903 ]
 [-3.6146736 ]
 [-0.2284175 ]
 [-0.7456295 ]
 [-0.04278257]
 [ 2.9242148 ]
 [-0.5944604 ]
 [ 0.15502694]
 [-0.60700065]
 [ 0.48960721]
 [ 2.1984172 ]
 [ 3.8127434 ]
 [-3.3771708 ]
 [-0.58798784]
 [ 2.0021782 ]
 [-0.13761802]
 [ 0.8667949 ]
 [ 0.02910691]
 [ 1.9080365 ]
 [ 0.2383364 ]
 [ 1.4725083 ]
 [-0.22754247]
 [-4.905521  ]
 [-0.77487904]
 [-2.7217667 ]
 [ 0.09311178]
 [ 0.44831485]
 [ 1.9684504 ]
 [ 1.99236   ]
 [ 0.74148333]
 [ 0.21510524]
 [-0.82721716]
 [ 3.1793058 ]
 [ 1.2350746 ]
 [ 0.39413875]
 [-0.5707086 ]
 [-2.3433194 ]
 [-2.0566645 ]
 [-0.8936271 ]
 [ 0.8616364 ]
 [-3.3141274 ]
 [ 0.639912  ]
 [ 2.1823568 ]
 [-4.9424    ]
 [-0.58779496]
 [-0.7319266 ]
 [-2.248719  ]
 [ 0.07227569]
 [ 1.2952459 ]
 [-1.2190663 ]
 [-0.45763242]]

Layer 4:
[0.12416527]



Entrenamiento 4:
------------------------------------------------------------------------

Layer 0:
[[ 0.          0.03509249  0.         ... -0.05011819  0.07066232
   0.05965707]
 [-0.03687222 -0.00519265 -0.02088845 ...  0.         -0.00392625
   0.04074003]
 [ 0.00132704  0.         -0.00590422 ...  0.          0.07571389
   0.04639932]
 ...
 [ 0.         -0.02839329  0.01265564 ...  0.05806213  0.
   0.00037973]
 [-0.04519086  0.04606904  0.         ...  0.01023875  0.02723684
   0.05179845]
 [ 0.         -0.01767414 -0.03894768 ... -0.03251107  0.10191435
   0.        ]]

Layer 1:
[[ 0.00237195  0.10610043 -0.01135554 -0.02244807 -0.07873243  0.06086023
  -0.01936592  0.14418899 -0.07152346  0.05178778 -0.07311132  0.07566006
  -0.07636812 -0.02221966  0.08827851  0.01875815  0.07124029 -0.13280734
  -0.18677516  0.01885001 -0.04804621  0.09743919  0.09096907 -0.09654775
   0.10864579  0.02182681  0.00170235  0.07381364 -0.02254734 -0.09899163
   0.08367421 -0.04289486  0.03610761 -0.0672951  -0.07206532  0.05108368
   0.01404335 -0.01851295 -0.07990892  0.02743669  0.13616104  0.04765708
   0.05323325 -0.10439847 -0.02400096 -0.12515175 -0.01880192 -0.0696554
  -0.02978924  0.04964869 -0.01062846  0.06644773 -0.02026739 -0.06923518
   0.02933314  0.04459857  0.06829644 -0.15765688 -0.06928257  0.02000835
   0.03027318 -0.00334901  0.07332157 -0.06925794  0.09303761  0.0212323
   0.14457189  0.04339063  0.12530652 -0.05721664  0.09090076 -0.02293582
  -0.06254505 -0.01397654  0.03711092  0.07959552  0.02239865  0.06988338
   0.14331636 -0.06413009 -0.1023702   0.02045415  0.05088772  0.0598768
  -0.05053946 -0.06185403 -0.03301787  0.04745268 -0.14790481 -0.0237218
   0.04589669  0.00492368 -0.01922723 -0.0360423  -0.00351629 -0.05391161
  -0.06342272 -0.0782368  -0.08212058 -0.03411562]]

Layer 2:
[0. 0. 0. 0. 0. 0. 0. 0. 0. 0. 0. 0. 0. 0. 0. 0. 0. 0. 0. 0. 0. 0. 0. 0.
 0. 0. 0. 0. 0. 0. 0. 0. 0. 0. 0. 0. 0. 0. 0. 0. 0. 0. 0. 0. 0. 0. 0. 0.
 0. 0. 0. 0. 0. 0. 0. 0. 0. 0. 0. 0. 0. 0. 0. 0. 0. 0. 0. 0. 0. 0. 0. 0.
 0. 0. 0. 0. 0. 0. 0. 0. 0. 0. 0. 0. 0. 0. 0. 0. 0. 0. 0. 0. 0. 0. 0. 0.
 0. 0. 0. 0.]

Layer 3:
[[ 7.4006790e-01]
 [-2.3798710e-02]
 [-2.7421093e-01]
 [-2.0611057e+00]
 [-4.4753772e-01]
 [ 1.1266154e+00]
 [-1.9208740e+00]
 [ 6.5091389e-01]
 [ 3.9829531e-01]
 [-1.7240758e-01]
 [ 4.1050121e-01]
 [ 8.3600730e-01]
 [ 7.6405519e-01]
 [-2.1780221e+00]
 [ 1.4359525e-01]
 [ 3.6878016e+00]
 [-9.1920066e-01]
 [-6.2192172e-01]
 [-6.8295592e-01]
 [ 2.8613102e+00]
 [ 7.2073644e-01]
 [ 8.9602936e-03]
 [-6.6577666e-02]
 [-6.0869910e-02]
 [ 4.8366067e-01]
 [ 3.3321111e+00]
 [ 9.7292334e-01]
 [ 2.1234119e-01]
 [-1.8536326e+00]
 [ 1.3376830e+00]
 [ 2.2714156e-01]
 [ 9.9535450e-02]
 [ 1.1913098e+00]
 [ 1.7247582e-02]
 [-6.1834836e-01]
 [ 4.1710115e-03]
 [ 2.6614881e+00]
 [-7.5266767e-01]
 [ 3.8548630e-01]
 [ 8.6599660e-01]
 [ 1.5180519e+00]
 [-3.3207312e-01]
 [-8.1615311e-01]
 [ 2.4975635e-02]
 [-1.2394519e+00]
 [-4.7112545e-01]
 [-4.6137400e+00]
 [-2.1508956e-01]
 [-1.8122478e+00]
 [ 3.3673957e-01]
 [-3.7783058e+00]
 [-2.4607258e-01]
 [-6.5157980e-01]
 [-1.8377103e-01]
 [ 2.4463949e+00]
 [-6.7310941e-01]
 [ 6.3335019e-01]
 [-1.0230085e+00]
 [ 3.9077798e-01]
 [ 2.2023482e+00]
 [ 3.1445971e+00]
 [-2.9390817e+00]
 [-5.7013088e-01]
 [ 1.9034449e+00]
 [-2.0703042e-02]
 [ 1.0236006e+00]
 [ 1.8123737e-01]
 [ 1.0913619e+00]
 [ 5.2224046e-01]
 [ 1.7354172e+00]
 [-4.0200469e-01]
 [-4.3823423e+00]
 [-3.4452054e-01]
 [-2.6152511e+00]
 [-6.1347708e-03]
 [ 5.9891343e-01]
 [ 1.8446039e+00]
 [ 8.5281181e-01]
 [ 8.0260956e-01]
 [ 2.0418207e-01]
 [-4.9863538e-01]
 [ 2.9196270e+00]
 [ 1.9473043e-01]
 [ 5.8782625e-01]
 [-5.8539140e-01]
 [-1.2672383e+00]
 [-1.5516559e+00]
 [-7.9742026e-01]
 [ 9.1493034e-01]
 [-2.8138258e+00]
 [ 6.2595022e-01]
 [ 2.4822888e+00]
 [-4.7944922e+00]
 [-9.7186726e-01]
 [-4.3394038e-01]
 [-1.4920478e+00]
 [ 5.8257532e-01]
 [ 1.0165772e+00]
 [-1.5207715e+00]
 [-4.9710169e-01]]

Layer 4:
[-0.00920634]



Entrenamiento 4 WITH NO CONSENSUS:
------------------------------------------------------------------------

Layer 0:
[[ 0.          0.          0.         ... -0.19331299  0.
  -0.        ]
 [ 0.         -0.          0.         ...  0.          0.
   0.0281295 ]
 [-0.          0.          0.         ... -0.         -0.
  -0.        ]
 ...
 [ 0.          0.09333193  0.         ... -0.         -0.
  -0.12616315]
 [-0.1743076   0.          0.         ...  0.         -0.
   0.19979402]
 [-0.          0.         -0.         ... -0.         -0.
  -0.        ]]

Layer 1:
[[ 0.10307103  0.08996618  0.01516604  0.23199564  0.01918811  0.21406233
   0.01001525  0.22976178 -0.2115182   0.22095326  0.05209136 -0.01565737
  -0.13885501 -0.10057171  0.18986341  0.20139974  0.19598722 -0.15143536
  -0.19946943  0.16480416 -0.21836036  0.22868863  0.17619881 -0.09639856
   0.0321317   0.09346631  0.01052323  0.20518616 -0.09012942 -0.1596415
   0.23183149  0.04896557  0.24166611 -0.11769125  0.09091049 -0.03454393
   0.05547047  0.02089491 -0.15969507  0.13879287  0.23542097  0.1041387
   0.15287045 -0.1571145  -0.18498352 -0.07498109 -0.15517554  0.16838685
  -0.03772177 -0.10816148  0.15822697  0.19100446 -0.12771562 -0.16963604
  -0.08373487 -0.07966208  0.19883493 -0.12882495 -0.16797629 -0.12232261
   0.10885873 -0.07126179  0.14996302  0.01681122 -0.05981477 -0.11117782
   0.09075987  0.0790453   0.20467451  0.07715914 -0.08054146  0.21822566
  -0.23515007  0.01239732  0.06733614  0.17329457  0.04620668  0.01924556
   0.15996873  0.07605353 -0.01410611  0.1824117   0.06909433  0.18629739
  -0.08128063 -0.05477321 -0.11349358  0.21932748 -0.20072886 -0.0959539
  -0.08968452 -0.04054548 -0.24103126 -0.05097516  0.08168253 -0.14053515
   0.00366457 -0.23340403 -0.0983054   0.03551579]]

Layer 2:
[0. 0. 0. 0. 0. 0. 0. 0. 0. 0. 0. 0. 0. 0. 0. 0. 0. 0. 0. 0. 0. 0. 0. 0.
 0. 0. 0. 0. 0. 0. 0. 0. 0. 0. 0. 0. 0. 0. 0. 0. 0. 0. 0. 0. 0. 0. 0. 0.
 0. 0. 0. 0. 0. 0. 0. 0. 0. 0. 0. 0. 0. 0. 0. 0. 0. 0. 0. 0. 0. 0. 0. 0.
 0. 0. 0. 0. 0. 0. 0. 0. 0. 0. 0. 0. 0. 0. 0. 0. 0. 0. 0. 0. 0. 0. 0. 0.
 0. 0. 0. 0.]

Layer 3:
[[ 3.07361811e-01]
 [-1.61015838e-01]
 [ 4.57247639e+00]
 [-1.19446671e+00]
 [ 1.28538847e+00]
 [ 5.56198657e-01]
 [ 4.65122509e+00]
 [ 2.97763437e-01]
 [-2.81733751e-01]
 [-2.11537018e-01]
 [ 2.79634285e+00]
 [-5.13852978e+00]
 [-1.02079499e+00]
 [ 1.96398270e+00]
 [-4.19928759e-01]
 [-6.18575513e-01]
 [-2.00991943e-01]
 [-3.92722875e-01]
 [ 3.37332815e-01]
 [ 1.02452785e-01]
 [ 2.00041384e-01]
 [ 4.93711650e-01]
 [-5.62121626e-04]
 [-9.59097087e-01]
 [ 8.83855343e+00]
 [-6.17011011e-01]
 [ 1.73468280e+00]
 [ 7.42659569e-02]
 [-6.58519506e-01]
 [ 1.05420423e+00]
 [ 2.85240740e-01]
 [ 2.33718371e+00]
 [-7.04325587e-02]
 [ 3.44704300e-01]
 [ 2.20994607e-01]
 [-4.57249975e+00]
 [ 8.20392311e-01]
 [ 1.65025878e+00]
 [ 1.12412560e+00]
 [ 1.43432347e-02]
 [-9.18832123e-02]
 [ 2.16800302e-01]
 [ 2.10072130e-01]
 [ 5.84596336e-01]
 [-8.05368602e-01]
 [-9.53855276e-01]
 [ 1.40640080e+00]
 [ 1.08674116e-01]
 [-2.06147885e+00]
 [-5.33600509e-01]
 [ 5.47811747e-01]
 [-8.02207649e-01]
 [ 2.82995123e-02]
 [-2.28636369e-01]
 [-1.19514990e+00]
 [-3.12550485e-01]
 [-3.79875213e-01]
 [ 7.07570195e-01]
 [ 4.72859859e-01]
 [ 8.68578255e-01]
 [-1.45039165e+00]
 [-7.69732714e-01]
 [-5.06725788e-01]
 [ 8.30368996e+00]
 [-1.56503773e+00]
 [ 6.16929650e-01]
 [ 5.42800605e-01]
 [ 5.14831096e-02]
 [ 1.67723708e-02]
 [ 3.05658889e+00]
 [-9.95663702e-01]
 [-7.99860060e-01]
 [-5.65270595e-02]
 [ 2.82206011e+00]
 [ 7.35297501e-02]
 [-6.30451273e-03]
 [ 1.70240831e+00]
 [ 3.42324138e+00]
 [ 4.33316201e-01]
 [-2.28650585e-01]
 [-8.07577038e+00]
 [-9.63194907e-01]
 [ 4.98089701e-01]
 [ 4.26635355e-01]
 [ 2.33722106e-01]
 [-3.28792477e+00]
 [ 1.47186720e+00]
 [ 4.14110929e-01]
 [-1.02887213e+00]
 [-7.36711979e-01]
 [ 1.36593238e-01]
 [-2.94192767e+00]
 [ 3.53129566e-01]
 [-1.48642254e+00]
 [ 5.57657778e-01]
 [-7.32562184e-01]
 [ 7.95130432e-01]
 [ 6.48865163e-01]
 [-6.11956477e-01]
 [ 3.99848080e+00]]

Layer 4:
[0.01397844]



Consenso 4:
------------------------------------------------------------------------

Layer 0:
[[ 0.          0.03509249  0.         ... -0.05011819  0.07066232
   0.05965707]
 [-0.03687222 -0.00519265 -0.02088845 ...  0.         -0.00392625
   0.04074003]
 [ 0.00132704  0.         -0.00590422 ...  0.          0.07571389
   0.04639932]
 ...
 [ 0.         -0.02839329  0.01265564 ...  0.05806213  0.
   0.00037973]
 [-0.04519086  0.04606904  0.         ...  0.01023875  0.02723684
   0.05179845]
 [ 0.         -0.01767414 -0.03894768 ... -0.03251107  0.10191435
   0.        ]]

Layer 1:
[[ 0.00237195  0.10610043 -0.01135554 -0.02244807 -0.07873243  0.06086023
  -0.01936592  0.14418899 -0.07152346  0.05178778 -0.07311132  0.07566006
  -0.07636812 -0.02221966  0.08827851  0.01875815  0.07124029 -0.13280734
  -0.18677516  0.01885001 -0.04804621  0.09743919  0.09096907 -0.09654775
   0.10864579  0.02182681  0.00170235  0.07381364 -0.02254734 -0.09899163
   0.08367421 -0.04289486  0.03610761 -0.0672951  -0.07206532  0.05108368
   0.01404335 -0.01851295 -0.07990892  0.02743669  0.13616104  0.04765708
   0.05323325 -0.10439847 -0.02400096 -0.12515175 -0.01880192 -0.0696554
  -0.02978924  0.04964869 -0.01062846  0.06644773 -0.02026739 -0.06923518
   0.02933314  0.04459857  0.06829644 -0.15765688 -0.06928257  0.02000835
   0.03027318 -0.00334901  0.07332157 -0.06925794  0.09303761  0.0212323
   0.14457189  0.04339063  0.12530652 -0.05721664  0.09090076 -0.02293582
  -0.06254505 -0.01397654  0.03711092  0.07959552  0.02239865  0.06988338
   0.14331636 -0.06413009 -0.1023702   0.02045415  0.05088772  0.0598768
  -0.05053946 -0.06185403 -0.03301787  0.04745268 -0.14790481 -0.0237218
   0.04589669  0.00492368 -0.01922723 -0.0360423  -0.00351629 -0.05391161
  -0.06342272 -0.0782368  -0.08212058 -0.03411562]]

Layer 2:
[0. 0. 0. 0. 0. 0. 0. 0. 0. 0. 0. 0. 0. 0. 0. 0. 0. 0. 0. 0. 0. 0. 0. 0.
 0. 0. 0. 0. 0. 0. 0. 0. 0. 0. 0. 0. 0. 0. 0. 0. 0. 0. 0. 0. 0. 0. 0. 0.
 0. 0. 0. 0. 0. 0. 0. 0. 0. 0. 0. 0. 0. 0. 0. 0. 0. 0. 0. 0. 0. 0. 0. 0.
 0. 0. 0. 0. 0. 0. 0. 0. 0. 0. 0. 0. 0. 0. 0. 0. 0. 0. 0. 0. 0. 0. 0. 0.
 0. 0. 0. 0.]

Layer 3:
[[ 1.0623416 ]
 [-0.08928113]
 [-0.41270095]
 [-3.0447934 ]
 [-0.42437363]
 [ 1.016874  ]
 [-3.065626  ]
 [ 0.66893154]
 [ 0.5218469 ]
 [ 0.07512821]
 [ 0.57241803]
 [ 0.68429583]
 [ 0.8567715 ]
 [-3.0059533 ]
 [ 0.03093707]
 [ 4.991972  ]
 [-1.0976689 ]
 [-0.56686985]
 [-0.71360487]
 [ 3.9016726 ]
 [ 0.47029313]
 [-0.02666391]
 [-0.1415878 ]
 [ 0.04755723]
 [ 0.47659233]
 [ 4.1455493 ]
 [ 1.5865139 ]
 [ 0.07387775]
 [-2.2715611 ]
 [ 1.4432979 ]
 [ 0.08294819]
 [ 0.2179155 ]
 [ 1.4230579 ]
 [ 0.19795379]
 [-0.64925086]
 [-0.11884261]
 [ 3.961156  ]
 [-0.8752724 ]
 [ 0.24946135]
 [ 0.9426378 ]
 [ 1.4764826 ]
 [-0.07437178]
 [-1.0386484 ]
 [ 0.0764666 ]
 [-1.6835285 ]
 [-0.43466115]
 [-6.5495934 ]
 [-0.06904932]
 [-1.5800602 ]
 [ 0.33805194]
 [-5.030688  ]
 [-0.35396123]
 [-0.76135737]
 [-0.03610178]
 [ 3.3583872 ]
 [-0.78625566]
 [ 0.4539651 ]
 [-1.0127649 ]
 [ 0.5229954 ]
 [ 2.6789942 ]
 [ 4.325132  ]
 [-3.9398382 ]
 [-0.65785867]
 [ 2.0368304 ]
 [-0.15681405]
 [ 0.87718534]
 [ 0.18251751]
 [ 1.6327894 ]
 [ 0.46338865]
 [ 1.7594305 ]
 [-0.4814778 ]
 [-5.5632715 ]
 [-0.31099585]
 [-3.4453325 ]
 [ 0.06064973]
 [ 0.47240227]
 [ 2.1644812 ]
 [ 1.4134208 ]
 [ 0.76662815]
 [ 0.2772492 ]
 [-0.49303946]
 [ 3.542672  ]
 [ 0.61642295]
 [ 0.4508979 ]
 [-0.4538515 ]
 [-1.773491  ]
 [-1.816061  ]
 [-0.9449439 ]
 [ 0.9413651 ]
 [-3.9042053 ]
 [ 0.59242254]
 [ 2.7789407 ]
 [-6.186327  ]
 [-0.7607492 ]
 [-1.4264108 ]
 [-1.8240287 ]
 [ 0.4893411 ]
 [ 1.1688812 ]
 [-1.3656683 ]
 [-0.46707788]]

Layer 4:
[0.02582965]



Entrenamiento 5:
------------------------------------------------------------------------

Layer 0:
[[ 0.          0.03509249  0.         ... -0.05011819  0.07066232
   0.05965707]
 [-0.03687222 -0.00519265 -0.02088845 ...  0.         -0.00392625
   0.04074003]
 [ 0.00132704  0.         -0.00590422 ...  0.          0.07571389
   0.04639932]
 ...
 [ 0.         -0.02839329  0.01265564 ...  0.05806213  0.
   0.00037973]
 [-0.04519086  0.04606904  0.         ...  0.01023875  0.02723684
   0.05179845]
 [ 0.         -0.01767414 -0.03894768 ... -0.03251107  0.10191435
   0.        ]]

Layer 1:
[[ 0.00237195  0.10610043 -0.01135554 -0.02244807 -0.07873243  0.06086023
  -0.01936592  0.14418899 -0.07152346  0.05178778 -0.07311132  0.07566006
  -0.07636812 -0.02221966  0.08827851  0.01875815  0.07124029 -0.13280734
  -0.18677516  0.01885001 -0.04804621  0.09743919  0.09096907 -0.09654775
   0.10864579  0.02182681  0.00170235  0.07381364 -0.02254734 -0.09899163
   0.08367421 -0.04289486  0.03610761 -0.0672951  -0.07206532  0.05108368
   0.01404335 -0.01851295 -0.07990892  0.02743669  0.13616104  0.04765708
   0.05323325 -0.10439847 -0.02400096 -0.12515175 -0.01880192 -0.0696554
  -0.02978924  0.04964869 -0.01062846  0.06644773 -0.02026739 -0.06923518
   0.02933314  0.04459857  0.06829644 -0.15765688 -0.06928257  0.02000835
   0.03027318 -0.00334901  0.07332157 -0.06925794  0.09303761  0.0212323
   0.14457189  0.04339063  0.12530652 -0.05721664  0.09090076 -0.02293582
  -0.06254505 -0.01397654  0.03711092  0.07959552  0.02239865  0.06988338
   0.14331636 -0.06413009 -0.1023702   0.02045415  0.05088772  0.0598768
  -0.05053946 -0.06185403 -0.03301787  0.04745268 -0.14790481 -0.0237218
   0.04589669  0.00492368 -0.01922723 -0.0360423  -0.00351629 -0.05391161
  -0.06342272 -0.0782368  -0.08212058 -0.03411562]]

Layer 2:
[0. 0. 0. 0. 0. 0. 0. 0. 0. 0. 0. 0. 0. 0. 0. 0. 0. 0. 0. 0. 0. 0. 0. 0.
 0. 0. 0. 0. 0. 0. 0. 0. 0. 0. 0. 0. 0. 0. 0. 0. 0. 0. 0. 0. 0. 0. 0. 0.
 0. 0. 0. 0. 0. 0. 0. 0. 0. 0. 0. 0. 0. 0. 0. 0. 0. 0. 0. 0. 0. 0. 0. 0.
 0. 0. 0. 0. 0. 0. 0. 0. 0. 0. 0. 0. 0. 0. 0. 0. 0. 0. 0. 0. 0. 0. 0. 0.
 0. 0. 0. 0.]

Layer 3:
[[ 1.36039269e+00]
 [-8.56091734e-03]
 [-6.74259782e-01]
 [-2.38521481e+00]
 [-3.55655521e-01]
 [ 1.09723163e+00]
 [-2.24742746e+00]
 [ 6.54806733e-01]
 [ 4.71292108e-01]
 [-5.37770689e-01]
 [ 3.99711519e-01]
 [ 8.50124598e-01]
 [ 8.25065732e-01]
 [-2.36308026e+00]
 [ 1.71169698e-01]
 [ 4.27445269e+00]
 [-8.81796241e-01]
 [-6.84656382e-01]
 [-7.13263094e-01]
 [ 3.44915962e+00]
 [ 9.53800142e-01]
 [-3.97602096e-02]
 [-9.70633626e-02]
 [-1.05832703e-01]
 [ 4.39052403e-01]
 [ 3.63560724e+00]
 [ 1.12268245e+00]
 [ 2.22986445e-01]
 [-1.98762751e+00]
 [ 1.31466007e+00]
 [ 2.90908992e-01]
 [ 1.18960045e-01]
 [ 1.11697376e+00]
 [-3.44533995e-02]
 [-4.70030189e-01]
 [-3.31416493e-04]
 [ 3.29592013e+00]
 [-8.41563821e-01]
 [ 6.31542623e-01]
 [ 8.84418905e-01]
 [ 1.56330466e+00]
 [-6.90164328e-01]
 [-7.58781850e-01]
 [ 1.18516255e-02]
 [-1.33375549e+00]
 [-4.93295759e-01]
 [-5.88403177e+00]
 [-1.94412261e-01]
 [-1.86294413e+00]
 [ 1.52986586e-01]
 [-4.71365404e+00]
 [-2.98815340e-01]
 [-6.83338225e-01]
 [-1.92915708e-01]
 [ 2.53490567e+00]
 [-7.83938169e-01]
 [ 7.30850399e-01]
 [-1.05743170e+00]
 [ 3.97535920e-01]
 [ 2.51349568e+00]
 [ 3.29474020e+00]
 [-3.47052813e+00]
 [-6.11742556e-01]
 [ 1.91409373e+00]
 [ 1.32745877e-02]
 [ 1.07717323e+00]
 [ 2.07639426e-01]
 [ 7.81258821e-01]
 [ 5.75880408e-01]
 [ 1.89158189e+00]
 [-4.48614955e-01]
 [-4.66094542e+00]
 [-1.60835460e-01]
 [-3.07530379e+00]
 [-9.11881551e-02]
 [ 6.16505384e-01]
 [ 1.97907174e+00]
 [ 3.88854295e-01]
 [ 8.46372187e-01]
 [ 2.79138267e-01]
 [-4.86251175e-01]
 [ 3.07858682e+00]
 [-2.16095120e-01]
 [ 5.96436381e-01]
 [-5.37335336e-01]
 [-7.42751420e-01]
 [-1.35767782e+00]
 [-8.17361712e-01]
 [ 8.83148909e-01]
 [-3.17537928e+00]
 [ 5.53377867e-01]
 [ 2.87783074e+00]
 [-5.57556200e+00]
 [-1.02827740e+00]
 [-9.86250579e-01]
 [-1.19036448e+00]
 [ 8.17451835e-01]
 [ 9.84065413e-01]
 [-1.55599713e+00]
 [-4.85812187e-01]]

Layer 4:
[-0.0478814]



Entrenamiento 5 WITH NO CONSENSUS:
------------------------------------------------------------------------

Layer 0:
[[ 0.          0.          0.         ... -0.19331299  0.
  -0.        ]
 [ 0.         -0.          0.         ...  0.          0.
   0.0281295 ]
 [-0.          0.          0.         ... -0.         -0.
  -0.        ]
 ...
 [ 0.          0.09333193  0.         ... -0.         -0.
  -0.12616315]
 [-0.1743076   0.          0.         ...  0.         -0.
   0.19979402]
 [-0.          0.         -0.         ... -0.         -0.
  -0.        ]]

Layer 1:
[[ 0.10307103  0.08996618  0.01516604  0.23199564  0.01918811  0.21406233
   0.01001525  0.22976178 -0.2115182   0.22095326  0.05209136 -0.01565737
  -0.13885501 -0.10057171  0.18986341  0.20139974  0.19598722 -0.15143536
  -0.19946943  0.16480416 -0.21836036  0.22868863  0.17619881 -0.09639856
   0.0321317   0.09346631  0.01052323  0.20518616 -0.09012942 -0.1596415
   0.23183149  0.04896557  0.24166611 -0.11769125  0.09091049 -0.03454393
   0.05547047  0.02089491 -0.15969507  0.13879287  0.23542097  0.1041387
   0.15287045 -0.1571145  -0.18498352 -0.07498109 -0.15517554  0.16838685
  -0.03772177 -0.10816148  0.15822697  0.19100446 -0.12771562 -0.16963604
  -0.08373487 -0.07966208  0.19883493 -0.12882495 -0.16797629 -0.12232261
   0.10885873 -0.07126179  0.14996302  0.01681122 -0.05981477 -0.11117782
   0.09075987  0.0790453   0.20467451  0.07715914 -0.08054146  0.21822566
  -0.23515007  0.01239732  0.06733614  0.17329457  0.04620668  0.01924556
   0.15996873  0.07605353 -0.01410611  0.1824117   0.06909433  0.18629739
  -0.08128063 -0.05477321 -0.11349358  0.21932748 -0.20072886 -0.0959539
  -0.08968452 -0.04054548 -0.24103126 -0.05097516  0.08168253 -0.14053515
   0.00366457 -0.23340403 -0.0983054   0.03551579]]

Layer 2:
[0. 0. 0. 0. 0. 0. 0. 0. 0. 0. 0. 0. 0. 0. 0. 0. 0. 0. 0. 0. 0. 0. 0. 0.
 0. 0. 0. 0. 0. 0. 0. 0. 0. 0. 0. 0. 0. 0. 0. 0. 0. 0. 0. 0. 0. 0. 0. 0.
 0. 0. 0. 0. 0. 0. 0. 0. 0. 0. 0. 0. 0. 0. 0. 0. 0. 0. 0. 0. 0. 0. 0. 0.
 0. 0. 0. 0. 0. 0. 0. 0. 0. 0. 0. 0. 0. 0. 0. 0. 0. 0. 0. 0. 0. 0. 0. 0.
 0. 0. 0. 0.]

Layer 3:
[[ 2.78073728e-01]
 [-9.64979082e-02]
 [ 4.76617050e+00]
 [-1.06525111e+00]
 [ 1.32560492e+00]
 [ 6.26142144e-01]
 [ 4.91731787e+00]
 [ 2.34258637e-01]
 [-2.53244460e-01]
 [-2.38606781e-01]
 [ 2.40548873e+00]
 [-4.78618336e+00]
 [-1.14921975e+00]
 [ 2.29325843e+00]
 [-5.05485713e-01]
 [-6.95753992e-01]
 [-2.44069338e-01]
 [-4.84390378e-01]
 [ 3.13974559e-01]
 [ 2.53237695e-01]
 [ 1.38832510e-01]
 [ 5.20304978e-01]
 [ 2.07300670e-02]
 [-1.11794388e+00]
 [ 9.27612591e+00]
 [-6.91157579e-01]
 [ 1.71149218e+00]
 [ 1.03194490e-01]
 [-6.49573922e-01]
 [ 9.54725444e-01]
 [ 2.41972476e-01]
 [ 2.18508244e+00]
 [-6.53432086e-02]
 [ 3.64692569e-01]
 [ 1.82046816e-01]
 [-4.89234686e+00]
 [ 7.74573743e-01]
 [ 1.74856794e+00]
 [ 1.12880242e+00]
 [ 5.40233813e-02]
 [-1.95350170e-01]
 [ 1.09864645e-01]
 [ 2.36938342e-01]
 [ 6.34263217e-01]
 [-8.84195030e-01]
 [-1.09508634e+00]
 [ 1.43887591e+00]
 [ 1.45339772e-01]
 [-2.26334405e+00]
 [-5.65015972e-01]
 [ 6.65268064e-01]
 [-8.24757040e-01]
 [-7.08640739e-03]
 [-2.44436651e-01]
 [-1.38805890e+00]
 [-2.82246202e-01]
 [-5.74364603e-01]
 [ 8.44243526e-01]
 [ 5.88388503e-01]
 [ 9.45840478e-01]
 [-1.49264586e+00]
 [-7.36141622e-01]
 [-6.68957233e-01]
 [ 8.54990292e+00]
 [-1.59218884e+00]
 [ 7.02329755e-01]
 [ 5.81816971e-01]
 [ 8.18196386e-02]
 [-3.55191231e-02]
 [ 2.69045496e+00]
 [-1.10236096e+00]
 [-9.21953976e-01]
 [-4.76266108e-02]
 [ 2.98087430e+00]
 [ 3.12322993e-02]
 [-5.69401011e-02]
 [ 1.90074134e+00]
 [ 3.72541237e+00]
 [ 5.20498753e-01]
 [-3.55235010e-01]
 [-8.72362900e+00]
 [-1.18505824e+00]
 [ 5.48436046e-01]
 [ 5.03098071e-01]
 [ 4.62737888e-01]
 [-3.34477162e+00]
 [ 1.38279355e+00]
 [ 4.93879229e-01]
 [-1.16067815e+00]
 [-8.60280573e-01]
 [ 2.40526557e-01]
 [-2.98778534e+00]
 [ 3.01098764e-01]
 [-1.39767456e+00]
 [ 6.04449928e-01]
 [-1.12775397e+00]
 [ 8.75753462e-01]
 [ 6.18512809e-01]
 [-6.67674303e-01]
 [ 4.09907246e+00]]

Layer 4:
[0.01497535]



Consenso 5:
------------------------------------------------------------------------

Layer 0:
[[ 0.          0.03509249  0.         ... -0.05011819  0.07066232
   0.05965707]
 [-0.03687222 -0.00519265 -0.02088845 ...  0.         -0.00392625
   0.04074003]
 [ 0.00132704  0.         -0.00590422 ...  0.          0.07571389
   0.04639932]
 ...
 [ 0.         -0.02839329  0.01265564 ...  0.05806213  0.
   0.00037973]
 [-0.04519086  0.04606904  0.         ...  0.01023875  0.02723684
   0.05179845]
 [ 0.         -0.01767414 -0.03894768 ... -0.03251107  0.10191435
   0.        ]]

Layer 1:
[[ 0.00237195  0.10610043 -0.01135554 -0.02244807 -0.07873243  0.06086023
  -0.01936592  0.14418899 -0.07152346  0.05178778 -0.07311132  0.07566006
  -0.07636812 -0.02221966  0.08827851  0.01875815  0.07124029 -0.13280734
  -0.18677516  0.01885001 -0.04804621  0.09743919  0.09096907 -0.09654775
   0.10864579  0.02182681  0.00170235  0.07381364 -0.02254734 -0.09899163
   0.08367421 -0.04289486  0.03610761 -0.0672951  -0.07206532  0.05108368
   0.01404335 -0.01851295 -0.07990892  0.02743669  0.13616104  0.04765708
   0.05323325 -0.10439847 -0.02400096 -0.12515175 -0.01880192 -0.0696554
  -0.02978924  0.04964869 -0.01062846  0.06644773 -0.02026739 -0.06923518
   0.02933314  0.04459857  0.06829644 -0.15765688 -0.06928257  0.02000835
   0.03027318 -0.00334901  0.07332157 -0.06925794  0.09303761  0.0212323
   0.14457189  0.04339063  0.12530652 -0.05721664  0.09090076 -0.02293582
  -0.06254505 -0.01397654  0.03711092  0.07959552  0.02239865  0.06988338
   0.14331636 -0.06413009 -0.1023702   0.02045415  0.05088772  0.0598768
  -0.05053946 -0.06185403 -0.03301787  0.04745268 -0.14790481 -0.0237218
   0.04589669  0.00492368 -0.01922723 -0.0360423  -0.00351629 -0.05391161
  -0.06342272 -0.0782368  -0.08212058 -0.03411562]]

Layer 2:
[0. 0. 0. 0. 0. 0. 0. 0. 0. 0. 0. 0. 0. 0. 0. 0. 0. 0. 0. 0. 0. 0. 0. 0.
 0. 0. 0. 0. 0. 0. 0. 0. 0. 0. 0. 0. 0. 0. 0. 0. 0. 0. 0. 0. 0. 0. 0. 0.
 0. 0. 0. 0. 0. 0. 0. 0. 0. 0. 0. 0. 0. 0. 0. 0. 0. 0. 0. 0. 0. 0. 0. 0.
 0. 0. 0. 0. 0. 0. 0. 0. 0. 0. 0. 0. 0. 0. 0. 0. 0. 0. 0. 0. 0. 0. 0. 0.
 0. 0. 0. 0.]

Layer 3:
[[ 1.7388136 ]
 [-0.06024142]
 [-0.90271294]
 [-3.5004458 ]
 [-0.25147623]
 [ 1.0095314 ]
 [-3.553452  ]
 [ 0.66698784]
 [ 0.7293973 ]
 [-0.4796991 ]
 [ 0.6078975 ]
 [ 0.8178402 ]
 [ 1.013947  ]
 [-3.3437839 ]
 [ 0.08839723]
 [ 5.849103  ]
 [-1.0769976 ]
 [-0.75937754]
 [-0.9728263 ]
 [ 4.824844  ]
 [ 0.72220993]
 [-0.12606047]
 [-0.22426078]
 [-0.06755656]
 [ 0.29892546]
 [ 4.503687  ]
 [ 2.0279891 ]
 [ 0.09374367]
 [-2.393213  ]
 [ 1.4972179 ]
 [ 0.22346297]
 [ 0.1819042 ]
 [ 1.3543905 ]
 [ 0.04558988]
 [-0.45833388]
 [-0.02761207]
 [ 5.0352263 ]
 [-0.9720966 ]
 [ 0.72956663]
 [ 0.9596834 ]
 [ 1.6557219 ]
 [-0.5507119 ]
 [-0.9646619 ]
 [ 0.01146384]
 [-1.7133589 ]
 [-0.4656171 ]
 [-8.076998  ]
 [ 0.0323496 ]
 [-1.706593  ]
 [ 0.01760684]
 [-6.27471   ]
 [-0.4559013 ]
 [-0.7402988 ]
 [-0.04666537]
 [ 3.6313527 ]
 [-0.9741297 ]
 [ 0.71195817]
 [-1.3054632 ]
 [ 0.5391301 ]
 [ 3.0776982 ]
 [ 4.6827936 ]
 [-4.500496  ]
 [-0.7186211 ]
 [ 2.05656   ]
 [-0.14222586]
 [ 0.89248145]
 [ 0.3056615 ]
 [ 1.2393    ]
 [ 0.64947504]
 [ 2.033371  ]
 [-0.66468364]
 [-6.070372  ]
 [ 0.09626839]
 [-4.0723557 ]
 [-0.02503707]
 [ 0.5086205 ]
 [ 2.298718  ]
 [ 0.7584503 ]
 [ 0.8143293 ]
 [ 0.34934634]
 [-0.247283  ]
 [ 3.7694988 ]
 [-0.0501445 ]
 [ 0.5022313 ]
 [-0.3552014 ]
 [-1.1007991 ]
 [-1.5110397 ]
 [-0.9853319 ]
 [ 0.9665031 ]
 [-4.3725357 ]
 [ 0.520613  ]
 [ 3.3182561 ]
 [-7.3029923 ]
 [-0.91265774]
 [-2.1058195 ]
 [-1.3632574 ]
 [ 0.89694947]
 [ 1.0525386 ]
 [-1.4993471 ]
 [-0.45571437]]

Layer 4:
[0.02773743]



