:
------------------------------------------------------------------------



Entrenamiento 0:
------------------------------------------------------------------------

Layer 0:
[[-0.          0.         -0.         ...  0.          0.
  -0.        ]
 [-0.41031906  0.          0.         ... -0.         -0.
  -0.        ]
 [-0.          0.         -0.         ... -0.          0.
  -0.        ]
 ...
 [ 0.         -0.         -0.         ...  0.          0.
   0.        ]
 [ 0.          0.          0.         ...  0.          0.02196809
   0.        ]
 [ 0.          0.         -0.1835086  ...  0.         -0.
   0.        ]]

Layer 1:
[[-4.70940173e-02  2.38300055e-01 -2.11559683e-02 -5.49718887e-02
  -1.77049398e-01 -6.40743971e-03  7.31874704e-02 -3.58066261e-02
  -1.69585139e-01 -1.07323930e-01 -1.61235765e-01  1.78280175e-01
  -2.00026542e-01 -1.14445552e-01  5.65392971e-02 -1.36258751e-02
  -1.62987858e-01 -1.51055306e-01 -8.81277472e-02  1.87320709e-01
   1.63986951e-01  7.54157007e-02 -1.56454429e-01  1.83595717e-02
   1.54436022e-01 -7.00414628e-02  1.07707173e-01 -1.74490377e-01
  -1.75193399e-02  9.20278430e-02  7.15374947e-03 -2.35185221e-01
  -3.78339291e-02  9.33382809e-02 -1.85175627e-01  1.88575566e-01
   1.54410332e-01 -2.24580228e-01 -4.28075492e-02 -2.29709297e-02
   2.25295842e-01  1.01996630e-01  1.02222055e-01 -1.64523020e-01
  -7.27067888e-03 -1.67148277e-01 -5.06381840e-02 -6.84936345e-02
  -5.24408221e-02  1.57620460e-01 -1.46624088e-01  1.40838087e-01
   1.55298382e-01  3.28350365e-02  8.89825523e-02 -1.10501125e-01
   2.18995571e-01  1.79065704e-01  3.97004485e-02 -2.06674218e-01
   2.33421445e-01 -6.64540082e-02  5.67139387e-02  1.78677887e-01
   3.40238512e-02 -1.48153916e-01  2.06094742e-01  7.86570013e-02
   1.18311167e-01  4.22387123e-02  1.06366843e-01 -3.87353897e-02
   1.87345654e-01 -1.42864749e-01 -2.33740240e-01 -6.14436120e-02
  -1.00894108e-01  2.04707056e-01  1.94886893e-01 -2.02643305e-01
  -6.47691637e-02 -1.77530497e-01  5.68309128e-02  1.54257417e-02
   1.01625919e-05  4.89223599e-02 -1.59123331e-01  2.42070109e-01
  -2.01402187e-01  1.74192041e-01 -1.55649483e-01 -1.56566471e-01
   4.06347513e-02 -6.22667372e-02  4.35229540e-02 -2.35932350e-01
   7.85775483e-02 -1.78770572e-01 -1.74104989e-01  3.96682918e-02]]

Layer 2:
[0. 0. 0. 0. 0. 0. 0. 0. 0. 0. 0. 0. 0. 0. 0. 0. 0. 0. 0. 0. 0. 0. 0. 0.
 0. 0. 0. 0. 0. 0. 0. 0. 0. 0. 0. 0. 0. 0. 0. 0. 0. 0. 0. 0. 0. 0. 0. 0.
 0. 0. 0. 0. 0. 0. 0. 0. 0. 0. 0. 0. 0. 0. 0. 0. 0. 0. 0. 0. 0. 0. 0. 0.
 0. 0. 0. 0. 0. 0. 0. 0. 0. 0. 0. 0. 0. 0. 0. 0. 0. 0. 0. 0. 0. 0. 0. 0.
 0. 0. 0. 0.]

Layer 3:
[[-7.77067184e-01]
 [-2.15941966e-01]
 [ 5.50661646e-02]
 [-2.80410230e-01]
 [-7.51869567e-03]
 [-5.65493405e-01]
 [ 2.47588587e+00]
 [-9.72497344e-01]
 [ 2.21012443e-01]
 [-1.41701114e+00]
 [-1.86885938e-01]
 [ 1.37952164e-01]
 [-3.69193442e-02]
 [-4.08928424e-01]
 [ 2.50336933e+00]
 [-1.00464058e+00]
 [-1.74169689e-01]
 [-2.03699082e-01]
 [-1.87060073e-01]
 [ 4.38507050e-01]
 [ 3.24725091e-01]
 [ 3.43405104e+00]
 [ 1.73505470e-02]
 [ 9.60621119e-01]
 [ 1.74895808e-01]
 [-4.16033030e-01]
 [ 2.14786157e-01]
 [-9.88304242e-02]
 [-2.49693179e+00]
 [ 6.04298651e-01]
 [ 4.65916276e-01]
 [ 1.80754513e-01]
 [-5.64751565e-01]
 [ 2.73766726e-01]
 [-7.97220767e-02]
 [ 3.87876719e-01]
 [-8.80602002e-02]
 [-2.13341415e-01]
 [-2.86979938e+00]
 [-9.22919750e-01]
 [ 4.04633433e-01]
 [ 1.94508612e-01]
 [ 6.47971779e-02]
 [-4.37986106e-04]
 [-2.64935285e-01]
 [-1.06265783e-01]
 [-1.65182018e+00]
 [-3.86241049e-01]
 [-7.76439369e-01]
 [-2.92323194e-02]
 [-3.94394249e-01]
 [-1.34343933e-03]
 [-2.39219636e-01]
 [ 9.45459008e-01]
 [-1.93409845e-01]
 [-2.93634057e-01]
 [ 3.30540389e-01]
 [-3.87982205e-02]
 [ 2.96348739e+00]
 [-1.28481742e-02]
 [ 2.61054635e-01]
 [-7.47182965e-01]
 [ 2.22908601e-01]
 [-1.24780849e-01]
 [ 1.33994472e+00]
 [-1.40967950e-01]
 [ 2.56567031e-01]
 [ 3.61924142e-01]
 [ 1.70700371e-01]
 [ 1.12230909e+00]
 [ 2.70954728e-01]
 [-6.63650632e-01]
 [ 1.40289634e-01]
 [-9.78615731e-02]
 [-6.76625669e-02]
 [-7.59146869e-01]
 [-1.45590022e-01]
 [-1.01972826e-01]
 [ 2.70849448e-02]
 [-7.54266698e-03]
 [-6.50450826e-01]
 [-2.39230841e-01]
 [ 1.42994308e+00]
 [ 3.36268902e+00]
 [-1.50490940e+00]
 [ 6.95018828e-01]
 [ 9.09479335e-04]
 [-7.60741383e-02]
 [ 3.06351990e-01]
 [-1.48656696e-01]
 [-8.78039971e-02]
 [ 2.08379626e-01]
 [ 6.75993919e-01]
 [-8.63266170e-01]
 [ 6.36327267e-01]
 [-4.55975413e-01]
 [ 5.49928904e-01]
 [ 6.92214966e-02]
 [-2.94919342e-01]
 [ 1.07647133e+00]]

Layer 4:
[-0.07908171]



Consenso 0:
------------------------------------------------------------------------

Layer 0:
[[ 5.6495029e-03 -1.8718326e-01  7.5330005e-05 ...  7.2538300e-05
   1.8002644e-01 -9.3215993e-03]
 [-5.5018412e-03  0.0000000e+00 -1.6972976e-02 ... -9.8816473e-03
  -7.8335684e-03 -4.6296460e-03]
 [ 1.1424198e-01 -5.4270891e-03  5.2848030e-03 ... -2.6221676e-03
   1.1846020e-02  4.8312116e-03]
 ...
 [-8.8929888e-03  0.0000000e+00 -2.5018633e-04 ... -2.1415162e-03
   2.0215100e-01 -1.7179505e-03]
 [ 2.8107113e-03  2.5981884e-02 -4.5943004e-03 ...  4.0280799e-04
  -1.0320162e-03 -1.6759163e-03]
 [ 6.5531977e-03  3.5347324e-03 -2.0351186e-01 ...  4.1853460e-03
  -1.8697956e-01 -1.6998368e-03]]

Layer 1:
[[ 0.0813806  -0.13719788  0.07960989 -0.07133125  0.08156939 -0.07193756
  -0.11278243 -0.08597007  0.11432423 -0.01193427  0.05417867  0.03833605
  -0.03290222 -0.05723433 -0.02438058  0.00191897 -0.00479487  0.0561084
  -0.05762119 -0.04893685  0.04349839 -0.06541333 -0.00285625 -0.04432541
  -0.04038812 -0.05203914  0.07008599  0.02322323  0.00063205  0.05178546
   0.01809945 -0.04253121 -0.01299463  0.08100164  0.0739369   0.02997829
  -0.02740447  0.14942455  0.15704735  0.00331461 -0.09195564  0.00962859
  -0.00338011 -0.00917422  0.07951887  0.01376174 -0.09578817  0.06659146
   0.0627157   0.08175463  0.01617515 -0.06811584 -0.03511211  0.05186593
  -0.06809205 -0.03489279 -0.10577326  0.07763004 -0.06340996 -0.1195358
  -0.04107678  0.04860941 -0.07120346 -0.11752312  0.05970626  0.01625153
  -0.10094959  0.13441879 -0.00024388  0.0713918  -0.00140125 -0.10155696
  -0.01878041 -0.11525257  0.03131907  0.08940285  0.03105796  0.11354873
   0.0201081   0.05923031 -0.09823784  0.06319607 -0.10321253 -0.07630435
  -0.11550746  0.06112388  0.04701183  0.11001976  0.01348552 -0.0962783
   0.03084821  0.11360977 -0.06534091 -0.04493633 -0.08387149 -0.08782223
  -0.07544575 -0.0923764  -0.10828639  0.11786379]]

Layer 2:
[0. 0. 0. 0. 0. 0. 0. 0. 0. 0. 0. 0. 0. 0. 0. 0. 0. 0. 0. 0. 0. 0. 0. 0.
 0. 0. 0. 0. 0. 0. 0. 0. 0. 0. 0. 0. 0. 0. 0. 0. 0. 0. 0. 0. 0. 0. 0. 0.
 0. 0. 0. 0. 0. 0. 0. 0. 0. 0. 0. 0. 0. 0. 0. 0. 0. 0. 0. 0. 0. 0. 0. 0.
 0. 0. 0. 0. 0. 0. 0. 0. 0. 0. 0. 0. 0. 0. 0. 0. 0. 0. 0. 0. 0. 0. 0. 0.
 0. 0. 0. 0.]

Layer 3:
[[-0.48816016]
 [-0.03708978]
 [ 0.4393414 ]
 [-0.5102289 ]
 [ 0.27489442]
 [ 0.1054642 ]
 [-0.2315541 ]
 [-0.469018  ]
 [ 0.21870333]
 [-0.870763  ]
 [-0.08416231]
 [ 0.25267074]
 [-0.13092542]
 [-0.31675357]
 [-1.091662  ]
 [ 0.41234866]
 [ 0.8054898 ]
 [ 0.09074448]
 [-0.27842328]
 [-0.04573289]
 [ 1.5675099 ]
 [ 0.07425088]
 [ 0.27168247]
 [-0.08754692]
 [-1.1689926 ]
 [-0.48148417]
 [ 1.4483963 ]
 [ 0.43819898]
 [-2.5677352 ]
 [ 0.657508  ]
 [-1.2733855 ]
 [-1.5609926 ]
 [-1.7592951 ]
 [-0.09624408]
 [-0.03287931]
 [ 0.6631726 ]
 [-0.5708354 ]
 [ 0.24689831]
 [ 0.24789375]
 [ 1.1931041 ]
 [ 0.8336751 ]
 [-0.24321392]
 [ 0.94268113]
 [ 0.12735623]
 [ 1.4032365 ]
 [-1.701332  ]
 [-0.04182911]
 [-0.03988846]
 [-0.20272133]
 [ 0.5580216 ]
 [-0.04745114]
 [ 0.17658801]
 [ 0.05720564]
 [-0.04825443]
 [-0.09853723]
 [-0.00981944]
 [-0.48644763]
 [ 0.73468506]
 [-0.61449224]
 [ 0.10221152]
 [ 1.3084282 ]
 [ 0.972496  ]
 [-1.9515975 ]
 [-0.26102927]
 [ 0.510722  ]
 [-0.9615899 ]
 [ 0.08906821]
 [-0.13439354]
 [-0.0166093 ]
 [ 0.16970046]
 [ 1.354263  ]
 [ 0.6952486 ]
 [-0.46530125]
 [-0.32839438]
 [ 0.11572707]
 [-0.14636722]
 [ 0.32324848]
 [ 0.37281832]
 [ 0.34988776]
 [ 0.98929316]
 [ 0.2908636 ]
 [ 0.00301892]
 [-0.04610391]
 [-0.16396262]
 [-0.5577864 ]
 [ 0.06078912]
 [ 0.23959346]
 [ 0.30000895]
 [-0.1804702 ]
 [ 0.15338442]
 [ 0.5602366 ]
 [ 0.1449435 ]
 [-0.01322496]
 [-1.3891128 ]
 [-0.02281912]
 [-0.03487141]
 [-0.09255528]
 [-0.3974518 ]
 [-0.36533046]
 [ 0.20981042]]

Layer 4:
[-0.02787287]



Entrenamiento 1:
------------------------------------------------------------------------

Layer 0:
[[ 5.6495029e-03 -1.8718326e-01  7.5330005e-05 ...  7.2538300e-05
   1.8002644e-01 -9.3215993e-03]
 [-5.5018412e-03  0.0000000e+00 -1.6972976e-02 ... -9.8816473e-03
  -7.8335684e-03 -4.6296460e-03]
 [ 1.1424198e-01 -5.4270891e-03  5.2848030e-03 ... -2.6221676e-03
   1.1846020e-02  4.8312116e-03]
 ...
 [-8.8929888e-03  0.0000000e+00 -2.5018633e-04 ... -2.1415162e-03
   2.0215100e-01 -1.7179505e-03]
 [ 2.8107113e-03  2.5981884e-02 -4.5943004e-03 ...  4.0280799e-04
  -1.0320162e-03 -1.6759163e-03]
 [ 6.5531977e-03  3.5347324e-03 -2.0351186e-01 ...  4.1853460e-03
  -1.8697956e-01 -1.6998368e-03]]

Layer 1:
[[ 0.0813806  -0.13719788  0.07960989 -0.07133125  0.08156939 -0.07193756
  -0.11278243 -0.08597007  0.11432423 -0.01193427  0.05417867  0.03833605
  -0.03290222 -0.05723433 -0.02438058  0.00191897 -0.00479487  0.0561084
  -0.05762119 -0.04893685  0.04349839 -0.06541333 -0.00285625 -0.04432541
  -0.04038812 -0.05203914  0.07008599  0.02322323  0.00063205  0.05178546
   0.01809945 -0.04253121 -0.01299463  0.08100164  0.0739369   0.02997829
  -0.02740447  0.14942455  0.15704735  0.00331461 -0.09195564  0.00962859
  -0.00338011 -0.00917422  0.07951887  0.01376174 -0.09578817  0.06659146
   0.0627157   0.08175463  0.01617515 -0.06811584 -0.03511211  0.05186593
  -0.06809205 -0.03489279 -0.10577326  0.07763004 -0.06340996 -0.1195358
  -0.04107678  0.04860941 -0.07120346 -0.11752312  0.05970626  0.01625153
  -0.10094959  0.13441879 -0.00024388  0.0713918  -0.00140125 -0.10155696
  -0.01878041 -0.11525257  0.03131907  0.08940285  0.03105796  0.11354873
   0.0201081   0.05923031 -0.09823784  0.06319607 -0.10321253 -0.07630435
  -0.11550746  0.06112388  0.04701183  0.11001976  0.01348552 -0.0962783
   0.03084821  0.11360977 -0.06534091 -0.04493633 -0.08387149 -0.08782223
  -0.07544575 -0.0923764  -0.10828639  0.11786379]]

Layer 2:
[0. 0. 0. 0. 0. 0. 0. 0. 0. 0. 0. 0. 0. 0. 0. 0. 0. 0. 0. 0. 0. 0. 0. 0.
 0. 0. 0. 0. 0. 0. 0. 0. 0. 0. 0. 0. 0. 0. 0. 0. 0. 0. 0. 0. 0. 0. 0. 0.
 0. 0. 0. 0. 0. 0. 0. 0. 0. 0. 0. 0. 0. 0. 0. 0. 0. 0. 0. 0. 0. 0. 0. 0.
 0. 0. 0. 0. 0. 0. 0. 0. 0. 0. 0. 0. 0. 0. 0. 0. 0. 0. 0. 0. 0. 0. 0. 0.
 0. 0. 0. 0.]

Layer 3:
[[-6.3482857e-01]
 [-1.4430863e-01]
 [ 4.3474844e-01]
 [-7.1627557e-01]
 [ 1.9595437e-01]
 [ 8.7676719e-03]
 [ 4.4233985e-02]
 [-5.2661407e-01]
 [ 2.0523164e-02]
 [-1.9249918e+00]
 [ 1.6131790e-01]
 [ 1.1511655e+00]
 [-1.0149689e+00]
 [-4.7401923e-01]
 [-1.8574725e+00]
 [ 3.0813688e-01]
 [ 4.9117672e-01]
 [ 1.6169788e-01]
 [-6.1689943e-01]
 [-3.3843821e-01]
 [ 2.8477659e+00]
 [-1.5633497e-02]
 [-1.4441831e-01]
 [-1.8484992e-01]
 [-3.2064087e+00]
 [-1.0155244e+00]
 [ 2.0065804e+00]
 [ 1.3673495e+00]
 [-1.2379357e+00]
 [ 1.0730745e+00]
 [-6.9513947e-01]
 [-2.1256864e+00]
 [-2.8218827e+00]
 [-6.1020590e-02]
 [ 1.5485426e-03]
 [ 1.4353082e+00]
 [-1.5228900e+00]
 [ 9.3168363e-02]
 [-5.9514768e-02]
 [ 1.3912308e+00]
 [ 9.6156979e-01]
 [ 4.9079642e-02]
 [ 9.9794102e-01]
 [-6.2464947e-01]
 [ 1.8650658e+00]
 [-1.2610197e+00]
 [ 3.7804842e-02]
 [-7.5468449e-03]
 [-1.7303273e-02]
 [ 4.5762715e-01]
 [ 5.1505393e-01]
 [-6.8782456e-02]
 [-1.1371686e+00]
 [ 2.1918081e-01]
 [-2.8438404e-01]
 [-1.4748396e+00]
 [-2.2802210e-01]
 [ 5.6882620e-01]
 [-8.5564083e-01]
 [ 2.4136582e-01]
 [ 5.8460546e-01]
 [ 2.7232518e+00]
 [-1.9812838e+00]
 [-6.9267470e-03]
 [ 1.0568287e+00]
 [-4.1540051e-03]
 [ 1.1603680e-01]
 [-2.3705237e-01]
 [ 2.4995998e-01]
 [ 3.1142050e-01]
 [ 1.1500931e+00]
 [ 8.4972399e-01]
 [-1.2883952e+00]
 [-1.4508586e-01]
 [ 1.0551174e+00]
 [-2.1656854e-01]
 [ 1.9006604e+00]
 [ 2.1337239e-01]
 [ 1.0165317e+00]
 [ 1.4162564e+00]
 [ 4.1997680e-01]
 [-8.4319994e-02]
 [ 1.8111394e-01]
 [-8.8418305e-02]
 [-4.2351368e-01]
 [ 2.8716773e-01]
 [ 4.9116746e-01]
 [ 1.5552013e-01]
 [ 3.4773397e-01]
 [ 2.6310933e-01]
 [ 1.8164960e+00]
 [ 1.8554615e-02]
 [-4.2689174e-01]
 [-2.9377372e+00]
 [ 1.4464132e-02]
 [ 6.4084232e-02]
 [-1.0609429e-01]
 [-2.0799108e-01]
 [-1.2365543e-01]
 [-2.6600555e-01]]

Layer 4:
[0.44014928]



Consenso 1:
------------------------------------------------------------------------

Layer 0:
[[ 7.28120096e-04 -2.16987133e-01  9.70869405e-06 ...  9.34889431e-06
   2.07944378e-01 -1.20138773e-03]
 [ 1.39854779e-03  0.00000000e+00 -1.68392882e-02 ... -1.17474841e-02
  -8.23104568e-03 -5.42373350e-03]
 [ 1.38079226e-01 -6.17748452e-03  6.81116886e-04 ... -8.54845997e-03
   1.34367263e-02  1.69653315e-02]
 ...
 [-1.00871585e-02  0.00000000e+00 -3.22445594e-05 ... -2.76003266e-04
   2.32241407e-01 -1.95548893e-03]
 [ 3.62250546e-04  2.88304072e-02 -5.23576559e-03 ...  5.19147652e-05
  -1.33008492e-04 -2.15995722e-04]
 [ 5.18680038e-03  1.32073392e-03 -2.25437418e-01 ...  4.76971222e-03
  -2.14578912e-01 -2.19078647e-04]]

Layer 1:
[[ 0.08924424 -0.16286537  0.08249217 -0.08476938  0.09960793 -0.08073465
  -0.11834787 -0.10262565  0.1322973  -0.00952518  0.05429696  0.03385193
  -0.03694912 -0.07385664 -0.04010944  0.00284315 -0.0061183   0.06660966
  -0.07014372 -0.05982529  0.0389435  -0.07755881  0.0066638  -0.04091082
  -0.04660281 -0.05643405  0.0656843   0.02650591  0.00789678  0.0572447
   0.01502664 -0.04133916 -0.01897776  0.08657873  0.09074418  0.03502493
  -0.0365422   0.17016043  0.16591494  0.01039481 -0.10924181  0.00879162
   0.00472674 -0.00814269  0.08514079  0.01241636 -0.10922546  0.08356049
   0.07812385  0.09700412  0.01866943 -0.08005068 -0.04912442  0.0603677
  -0.07097331 -0.04708678 -0.11155041  0.07531123 -0.06955362 -0.13172558
  -0.05373906  0.05330883 -0.07041842 -0.13196898  0.07818734  0.02030078
  -0.12063207  0.14788206  0.01178739  0.07916512 -0.00806628 -0.11695818
  -0.02623804 -0.12743881  0.04292714  0.10524163  0.03831644  0.11940097
   0.02747243  0.06710063 -0.10852731  0.07083972 -0.12239271 -0.08560432
  -0.14286107  0.07447669  0.05760891  0.11122378  0.01733595 -0.1035551
   0.04225926  0.13271987 -0.08555358 -0.0484168  -0.09425644 -0.09499396
  -0.08836662 -0.11293175 -0.11553726  0.14418203]]

Layer 2:
[0. 0. 0. 0. 0. 0. 0. 0. 0. 0. 0. 0. 0. 0. 0. 0. 0. 0. 0. 0. 0. 0. 0. 0.
 0. 0. 0. 0. 0. 0. 0. 0. 0. 0. 0. 0. 0. 0. 0. 0. 0. 0. 0. 0. 0. 0. 0. 0.
 0. 0. 0. 0. 0. 0. 0. 0. 0. 0. 0. 0. 0. 0. 0. 0. 0. 0. 0. 0. 0. 0. 0. 0.
 0. 0. 0. 0. 0. 0. 0. 0. 0. 0. 0. 0. 0. 0. 0. 0. 0. 0. 0. 0. 0. 0. 0. 0.
 0. 0. 0. 0.]

Layer 3:
[[-8.0121100e-01]
 [-3.5229802e-01]
 [ 1.8884620e-01]
 [-1.2845454e-01]
 [ 3.5564654e-02]
 [-4.4072948e-02]
 [ 4.3324616e-02]
 [-2.0802176e-01]
 [ 4.6621174e-01]
 [-3.4322033e+00]
 [ 5.6509830e-02]
 [ 8.7881923e-01]
 [-4.1636592e-01]
 [-7.5631642e-01]
 [-4.6072049e+00]
 [ 2.0394037e+00]
 [ 1.1998435e+00]
 [ 1.2601514e-01]
 [-1.1185434e+00]
 [-8.1278503e-01]
 [ 2.4662333e+00]
 [-2.3151024e-01]
 [ 2.6797659e+00]
 [ 2.5499046e-01]
 [-1.9247435e+00]
 [-1.5337015e+00]
 [ 2.1473668e+00]
 [ 6.6323066e-01]
 [-1.5852304e+00]
 [ 8.2197040e-01]
 [-6.0231316e-01]
 [-2.5902662e+00]
 [-6.6011577e+00]
 [-4.8168209e-01]
 [ 2.7059984e-01]
 [ 1.3072971e+00]
 [-9.1770768e-01]
 [ 8.2759768e-02]
 [ 2.0040259e-01]
 [ 2.5818202e+00]
 [ 8.1556648e-01]
 [ 2.9856627e+00]
 [-2.1066203e+00]
 [-1.9370475e+00]
 [ 2.3184600e+00]
 [-1.5792036e+00]
 [ 9.6841818e-03]
 [-1.3980308e-01]
 [-1.4588511e-01]
 [ 8.2210773e-01]
 [ 4.8404068e-02]
 [ 5.7625651e-01]
 [-5.5758697e-01]
 [-1.1398682e-01]
 [-4.9784076e-01]
 [-3.3091056e-01]
 [-1.6525668e-01]
 [ 9.0185684e-01]
 [-1.1609691e+00]
 [ 2.3352805e-01]
 [ 9.4480753e-01]
 [ 1.4753478e+00]
 [-3.2804248e+00]
 [-6.4119962e-03]
 [ 8.6892176e-01]
 [ 2.5834422e+00]
 [ 4.5513818e-03]
 [-6.8179923e-01]
 [ 1.9044969e+00]
 [ 7.4251521e-01]
 [-6.4203441e-02]
 [ 1.2558534e+00]
 [-2.1624665e+00]
 [-5.9271008e-01]
 [ 8.4858114e-01]
 [-2.0954926e-01]
 [ 4.2079830e+00]
 [ 2.6237324e-01]
 [ 2.1917260e+00]
 [ 1.1374650e+00]
 [ 2.7875745e-01]
 [-3.8962930e-01]
 [ 4.9206916e-02]
 [-8.4871976e-03]
 [-6.5847188e-01]
 [-2.1459993e-02]
 [ 1.0779675e-01]
 [ 1.4421555e-01]
 [ 2.2599611e-01]
 [ 2.0887585e-01]
 [ 2.5555651e+00]
 [ 2.7359006e-01]
 [-3.3828896e-02]
 [-2.9658117e+00]
 [-1.9823248e-02]
 [-1.7012873e-01]
 [-2.0104700e-01]
 [-2.5237960e-01]
 [-2.3064092e-01]
 [-4.5867637e-01]]

Layer 4:
[-0.26834062]



Entrenamiento 2:
------------------------------------------------------------------------

Layer 0:
[[ 7.28120096e-04 -2.16987133e-01  9.70869405e-06 ...  9.34889431e-06
   2.07944378e-01 -1.20138773e-03]
 [ 1.39854779e-03  0.00000000e+00 -1.68392882e-02 ... -1.17474841e-02
  -8.23104568e-03 -5.42373350e-03]
 [ 1.38079226e-01 -6.17748452e-03  6.81116886e-04 ... -8.54845997e-03
   1.34367263e-02  1.69653315e-02]
 ...
 [-1.00871585e-02  0.00000000e+00 -3.22445594e-05 ... -2.76003266e-04
   2.32241407e-01 -1.95548893e-03]
 [ 3.62250546e-04  2.88304072e-02 -5.23576559e-03 ...  5.19147652e-05
  -1.33008492e-04 -2.15995722e-04]
 [ 5.18680038e-03  1.32073392e-03 -2.25437418e-01 ...  4.76971222e-03
  -2.14578912e-01 -2.19078647e-04]]

Layer 1:
[[ 0.08924424 -0.16286537  0.08249217 -0.08476938  0.09960793 -0.08073465
  -0.11834787 -0.10262565  0.1322973  -0.00952518  0.05429696  0.03385193
  -0.03694912 -0.07385664 -0.04010944  0.00284315 -0.0061183   0.06660966
  -0.07014372 -0.05982529  0.0389435  -0.07755881  0.0066638  -0.04091082
  -0.04660281 -0.05643405  0.0656843   0.02650591  0.00789678  0.0572447
   0.01502664 -0.04133916 -0.01897776  0.08657873  0.09074418  0.03502493
  -0.0365422   0.17016043  0.16591494  0.01039481 -0.10924181  0.00879162
   0.00472674 -0.00814269  0.08514079  0.01241636 -0.10922546  0.08356049
   0.07812385  0.09700412  0.01866943 -0.08005068 -0.04912442  0.0603677
  -0.07097331 -0.04708678 -0.11155041  0.07531123 -0.06955362 -0.13172558
  -0.05373906  0.05330883 -0.07041842 -0.13196898  0.07818734  0.02030078
  -0.12063207  0.14788206  0.01178739  0.07916512 -0.00806628 -0.11695818
  -0.02623804 -0.12743881  0.04292714  0.10524163  0.03831644  0.11940097
   0.02747243  0.06710063 -0.10852731  0.07083972 -0.12239271 -0.08560432
  -0.14286107  0.07447669  0.05760891  0.11122378  0.01733595 -0.1035551
   0.04225926  0.13271987 -0.08555358 -0.0484168  -0.09425644 -0.09499396
  -0.08836662 -0.11293175 -0.11553726  0.14418203]]

Layer 2:
[0. 0. 0. 0. 0. 0. 0. 0. 0. 0. 0. 0. 0. 0. 0. 0. 0. 0. 0. 0. 0. 0. 0. 0.
 0. 0. 0. 0. 0. 0. 0. 0. 0. 0. 0. 0. 0. 0. 0. 0. 0. 0. 0. 0. 0. 0. 0. 0.
 0. 0. 0. 0. 0. 0. 0. 0. 0. 0. 0. 0. 0. 0. 0. 0. 0. 0. 0. 0. 0. 0. 0. 0.
 0. 0. 0. 0. 0. 0. 0. 0. 0. 0. 0. 0. 0. 0. 0. 0. 0. 0. 0. 0. 0. 0. 0. 0.
 0. 0. 0. 0.]

Layer 3:
[[-8.45797539e-01]
 [-6.37368083e-01]
 [-3.84481102e-01]
 [ 1.67793468e-01]
 [-1.78351924e-01]
 [-3.04586738e-01]
 [ 1.54383391e-01]
 [ 5.94053447e-01]
 [ 5.05470216e-01]
 [-3.24234486e+00]
 [ 1.79797947e-01]
 [ 7.05191851e-01]
 [-3.44730616e-01]
 [-8.35204005e-01]
 [-4.38023376e+00]
 [ 1.72901595e+00]
 [ 1.38230920e+00]
 [ 3.12868029e-01]
 [-8.85010660e-01]
 [-8.69983971e-01]
 [ 2.20470691e+00]
 [-1.75308466e-01]
 [ 2.68345904e+00]
 [ 3.11357016e-03]
 [-1.57414460e+00]
 [-1.26389861e+00]
 [ 1.55409050e+00]
 [ 7.88839996e-01]
 [-1.03233945e+00]
 [ 7.36731768e-01]
 [-1.46222085e-01]
 [-2.39062858e+00]
 [-6.68979073e+00]
 [-1.46118551e-01]
 [ 2.22740412e-01]
 [ 1.36698472e+00]
 [-1.05950773e+00]
 [ 1.19669296e-01]
 [ 2.78636813e-01]
 [ 3.11116052e+00]
 [ 7.04187512e-01]
 [ 2.59726381e+00]
 [-1.89642572e+00]
 [-2.00821757e+00]
 [ 1.63509488e+00]
 [-1.22764742e+00]
 [-7.63532296e-02]
 [-5.26448712e-03]
 [-2.13719532e-01]
 [ 9.37555969e-01]
 [ 2.79207528e-01]
 [ 6.52296901e-01]
 [-2.36625671e-01]
 [-1.52009558e-02]
 [-3.86345267e-01]
 [-1.00312959e-02]
 [ 6.86224163e-01]
 [ 9.11553383e-01]
 [-9.32193995e-01]
 [ 1.25442252e-01]
 [ 1.12259614e+00]
 [ 8.25058222e-01]
 [-3.42287683e+00]
 [ 1.39129564e-01]
 [ 4.37401623e-01]
 [ 2.63346004e+00]
 [-1.80617556e-01]
 [-5.53564072e-01]
 [ 1.99070489e+00]
 [ 5.30054092e-01]
 [-3.07706058e-01]
 [ 1.08367980e+00]
 [-2.20516443e+00]
 [-6.88151836e-01]
 [ 8.26612473e-01]
 [-2.03357730e-02]
 [ 4.01844072e+00]
 [ 4.59742457e-01]
 [ 2.38319945e+00]
 [ 9.38903809e-01]
 [ 1.95151299e-01]
 [-3.38521481e-01]
 [-4.97899093e-02]
 [-2.81833619e-01]
 [-8.43522370e-01]
 [-2.71797299e-01]
 [ 4.93728966e-01]
 [ 3.00253510e-01]
 [ 6.85054660e-01]
 [ 1.72168493e-01]
 [ 2.33771634e+00]
 [ 3.79495949e-01]
 [ 5.56727946e-01]
 [-2.70674944e+00]
 [-2.79848844e-01]
 [-3.24500769e-01]
 [-3.92286509e-01]
 [ 4.13592346e-02]
 [-2.72534370e-01]
 [-8.97473395e-01]]

Layer 4:
[-0.01044198]



Consenso 2:
------------------------------------------------------------------------

Layer 0:
[[ 9.3841678e-05 -2.2082834e-01  1.2512777e-06 ...  1.2049055e-06
   2.1154250e-01 -1.5483747e-04]
 [ 2.2878849e-03  0.0000000e+00 -1.6822057e-02 ... -1.1987957e-02
  -8.2822749e-03 -5.5260765e-03]
 [ 1.4115143e-01 -6.2741973e-03  8.7783817e-05 ... -9.3122525e-03
   1.3641741e-02  1.8529205e-02]
 ...
 [-1.0241065e-02  0.0000000e+00 -4.1557487e-06 ... -3.5571898e-05
   2.3611949e-01 -1.9861034e-03]
 [ 4.6687634e-05  2.9197531e-02 -5.3184391e-03 ...  6.6908860e-06
  -1.7142420e-05 -2.7837999e-05]
 [ 5.0106966e-03  1.0353893e-03 -2.2826323e-01 ...  4.8450269e-03
  -2.1813598e-01 -2.8235330e-05]]

Layer 1:
[[ 0.09025772 -0.16617344  0.08286364 -0.08650132  0.10193277 -0.08186843
  -0.11906517 -0.10477225  0.13461371 -0.00921469  0.0543122   0.03327401
  -0.03747069 -0.07599895 -0.04213661  0.00296226 -0.00628887  0.06796308
  -0.07175765 -0.06122861  0.03835646 -0.07912415  0.00789076 -0.04047074
  -0.04740377 -0.05700047  0.06511699  0.02692899  0.00883307  0.05794831
   0.0146306  -0.04118552 -0.01974888  0.08729751  0.09291034  0.03567536
  -0.03771989  0.1728329   0.1670578   0.01130732 -0.11146968  0.00868375
   0.00577157 -0.00800974  0.08586536  0.01224296 -0.11095728  0.0857475
   0.08010969  0.09896951  0.0189909  -0.08158889 -0.05093036  0.06146343
  -0.07134466 -0.04865837 -0.11229496  0.07501238 -0.07034543 -0.13329661
  -0.05537099  0.05391451 -0.07031725 -0.1338308   0.08056922  0.02082265
  -0.12316878  0.14961722  0.01333801  0.08016697 -0.00892528 -0.11894313
  -0.0271992  -0.1290094   0.04442322  0.10728297  0.03925192  0.12015522
   0.02842157  0.06811497 -0.10985343  0.07182485 -0.12486469 -0.08680291
  -0.14638647  0.07619763  0.05897468  0.11137895  0.01783221 -0.10449295
   0.04372994  0.13518284 -0.08815863 -0.04886536 -0.09559488 -0.09591828
  -0.09003188 -0.11558096 -0.11647176  0.14757396]]

Layer 2:
[0. 0. 0. 0. 0. 0. 0. 0. 0. 0. 0. 0. 0. 0. 0. 0. 0. 0. 0. 0. 0. 0. 0. 0.
 0. 0. 0. 0. 0. 0. 0. 0. 0. 0. 0. 0. 0. 0. 0. 0. 0. 0. 0. 0. 0. 0. 0. 0.
 0. 0. 0. 0. 0. 0. 0. 0. 0. 0. 0. 0. 0. 0. 0. 0. 0. 0. 0. 0. 0. 0. 0. 0.
 0. 0. 0. 0. 0. 0. 0. 0. 0. 0. 0. 0. 0. 0. 0. 0. 0. 0. 0. 0. 0. 0. 0. 0.
 0. 0. 0. 0.]

Layer 3:
[[-1.02296519e+00]
 [-1.03162587e+00]
 [-4.71821040e-01]
 [ 5.14364243e-01]
 [-2.46177912e-01]
 [-3.03321868e-01]
 [ 1.55773014e-01]
 [ 6.17506742e-01]
 [ 8.13144982e-01]
 [-5.85602808e+00]
 [ 1.77555352e-01]
 [ 1.64816529e-01]
 [-1.36203468e-01]
 [-1.02399623e+00]
 [-6.05620193e+00]
 [ 2.38211036e+00]
 [ 1.33267593e+00]
 [ 3.95613760e-01]
 [-7.16189146e-01]
 [-1.19761634e+00]
 [ 1.52532840e+00]
 [-6.57501221e-02]
 [ 4.05758715e+00]
 [ 1.15371846e-01]
 [-1.03253949e+00]
 [-1.20934904e+00]
 [ 1.25654078e+00]
 [ 5.95135510e-01]
 [-1.55823278e+00]
 [ 5.20745814e-01]
 [ 1.28853351e-01]
 [-2.27760410e+00]
 [-9.75468445e+00]
 [-2.56638825e-01]
 [ 6.31246388e-01]
 [ 1.15698993e+00]
 [-9.18559313e-01]
 [ 2.81709194e-01]
 [ 3.03055316e-01]
 [ 3.63342762e+00]
 [ 3.71164590e-01]
 [ 6.53506279e+00]
 [-5.09923220e+00]
 [-2.92062736e+00]
 [ 1.57764304e+00]
 [-1.26423407e+00]
 [-2.03630682e-02]
 [ 2.53153086e-01]
 [-1.85696572e-01]
 [ 1.09714961e+00]
 [-6.07217383e-03]
 [ 9.20118213e-01]
 [ 5.73550642e-01]
 [-4.66025993e-02]
 [-1.45326555e-01]
 [ 7.08158910e-01]
 [ 5.90190649e-01]
 [ 1.22658527e+00]
 [-8.02362859e-01]
 [-1.23019084e-01]
 [ 1.67615962e+00]
 [ 3.95363748e-01]
 [-3.76458836e+00]
 [ 9.19765010e-02]
 [ 5.37433207e-01]
 [ 5.29176712e+00]
 [-4.26200479e-01]
 [-5.96773446e-01]
 [ 2.67786002e+00]
 [ 8.00134391e-02]
 [-1.53133953e+00]
 [ 1.01068008e+00]
 [-2.76165390e+00]
 [-1.13514781e+00]
 [ 6.75032139e-01]
 [ 2.94054262e-02]
 [ 5.74396229e+00]
 [ 5.75883269e-01]
 [ 4.02238989e+00]
 [ 9.64750111e-01]
 [-6.65324926e-02]
 [-4.65782493e-01]
 [-3.16613801e-02]
 [-3.19530070e-01]
 [-8.68687868e-01]
 [-1.49130791e-01]
 [ 4.81805414e-01]
 [ 4.47391272e-01]
 [ 7.08690405e-01]
 [ 6.67327046e-02]
 [ 2.60731721e+00]
 [ 6.17065370e-01]
 [ 6.19991422e-01]
 [-2.55916810e+00]
 [-2.97537714e-01]
 [-6.33284032e-01]
 [-7.03434825e-01]
 [ 1.88127771e-01]
 [-4.80343729e-01]
 [-1.12662482e+00]]

Layer 4:
[0.28450277]



Entrenamiento 3:
------------------------------------------------------------------------

Layer 0:
[[ 9.3841678e-05 -2.2082834e-01  1.2512777e-06 ...  1.2049055e-06
   2.1154250e-01 -1.5483747e-04]
 [ 2.2878849e-03  0.0000000e+00 -1.6822057e-02 ... -1.1987957e-02
  -8.2822749e-03 -5.5260765e-03]
 [ 1.4115143e-01 -6.2741973e-03  8.7783817e-05 ... -9.3122525e-03
   1.3641741e-02  1.8529205e-02]
 ...
 [-1.0241065e-02  0.0000000e+00 -4.1557487e-06 ... -3.5571898e-05
   2.3611949e-01 -1.9861034e-03]
 [ 4.6687634e-05  2.9197531e-02 -5.3184391e-03 ...  6.6908860e-06
  -1.7142420e-05 -2.7837999e-05]
 [ 5.0106966e-03  1.0353893e-03 -2.2826323e-01 ...  4.8450269e-03
  -2.1813598e-01 -2.8235330e-05]]

Layer 1:
[[ 0.09025772 -0.16617344  0.08286364 -0.08650132  0.10193277 -0.08186843
  -0.11906517 -0.10477225  0.13461371 -0.00921469  0.0543122   0.03327401
  -0.03747069 -0.07599895 -0.04213661  0.00296226 -0.00628887  0.06796308
  -0.07175765 -0.06122861  0.03835646 -0.07912415  0.00789076 -0.04047074
  -0.04740377 -0.05700047  0.06511699  0.02692899  0.00883307  0.05794831
   0.0146306  -0.04118552 -0.01974888  0.08729751  0.09291034  0.03567536
  -0.03771989  0.1728329   0.1670578   0.01130732 -0.11146968  0.00868375
   0.00577157 -0.00800974  0.08586536  0.01224296 -0.11095728  0.0857475
   0.08010969  0.09896951  0.0189909  -0.08158889 -0.05093036  0.06146343
  -0.07134466 -0.04865837 -0.11229496  0.07501238 -0.07034543 -0.13329661
  -0.05537099  0.05391451 -0.07031725 -0.1338308   0.08056922  0.02082265
  -0.12316878  0.14961722  0.01333801  0.08016697 -0.00892528 -0.11894313
  -0.0271992  -0.1290094   0.04442322  0.10728297  0.03925192  0.12015522
   0.02842157  0.06811497 -0.10985343  0.07182485 -0.12486469 -0.08680291
  -0.14638647  0.07619763  0.05897468  0.11137895  0.01783221 -0.10449295
   0.04372994  0.13518284 -0.08815863 -0.04886536 -0.09559488 -0.09591828
  -0.09003188 -0.11558096 -0.11647176  0.14757396]]

Layer 2:
[0. 0. 0. 0. 0. 0. 0. 0. 0. 0. 0. 0. 0. 0. 0. 0. 0. 0. 0. 0. 0. 0. 0. 0.
 0. 0. 0. 0. 0. 0. 0. 0. 0. 0. 0. 0. 0. 0. 0. 0. 0. 0. 0. 0. 0. 0. 0. 0.
 0. 0. 0. 0. 0. 0. 0. 0. 0. 0. 0. 0. 0. 0. 0. 0. 0. 0. 0. 0. 0. 0. 0. 0.
 0. 0. 0. 0. 0. 0. 0. 0. 0. 0. 0. 0. 0. 0. 0. 0. 0. 0. 0. 0. 0. 0. 0. 0.
 0. 0. 0. 0.]

Layer 3:
[[-8.45556259e-01]
 [-4.58729237e-01]
 [-3.82069111e-01]
 [ 5.93075395e-01]
 [-1.26533493e-01]
 [-1.80363357e-01]
 [ 2.56404281e-01]
 [ 3.88513029e-01]
 [ 6.37855947e-01]
 [-5.52674246e+00]
 [ 1.31828666e-01]
 [-1.27965167e-01]
 [-6.91035688e-02]
 [-1.10116470e+00]
 [-5.34192085e+00]
 [ 2.07540250e+00]
 [ 1.80123580e+00]
 [ 7.05494523e-01]
 [-7.37577021e-01]
 [-1.23970151e+00]
 [ 9.86954629e-01]
 [-1.48703679e-01]
 [ 3.60986257e+00]
 [-3.92747432e-01]
 [-5.03665924e-01]
 [-1.11008513e+00]
 [ 9.93614256e-01]
 [ 8.82715523e-01]
 [-4.09553885e-01]
 [ 5.76078355e-01]
 [ 3.01355869e-01]
 [-2.60958052e+00]
 [-9.14434433e+00]
 [-4.76244092e-01]
 [ 6.43296897e-01]
 [ 1.14724004e+00]
 [-8.97026241e-01]
 [-4.99236397e-02]
 [-3.10169929e-03]
 [ 3.96343350e+00]
 [ 3.33097875e-01]
 [ 6.11620188e+00]
 [-4.56785488e+00]
 [-2.80278993e+00]
 [ 9.84950066e-01]
 [-1.01916659e+00]
 [ 1.29929304e-01]
 [ 3.66996378e-01]
 [-1.05715014e-01]
 [ 1.11915362e+00]
 [ 2.12628022e-01]
 [ 9.67441142e-01]
 [ 1.01413047e+00]
 [ 1.51834920e-01]
 [ 3.13874036e-02]
 [ 1.12034857e+00]
 [ 3.80203396e-01]
 [ 1.52771521e+00]
 [-8.17458689e-01]
 [ 7.18912557e-02]
 [ 1.53290749e+00]
 [-3.05876672e-01]
 [-3.79293084e+00]
 [ 1.24789573e-01]
 [ 5.91769993e-01]
 [ 4.80137253e+00]
 [-2.10518301e-01]
 [-9.35364306e-01]
 [ 2.36699533e+00]
 [ 5.46615496e-02]
 [-1.49553573e+00]
 [ 1.11960185e+00]
 [-3.11323619e+00]
 [-9.65573967e-01]
 [ 6.23690844e-01]
 [-2.20869631e-02]
 [ 5.02745152e+00]
 [ 5.59723198e-01]
 [ 3.97589850e+00]
 [ 9.80763495e-01]
 [-3.00658215e-02]
 [ 1.41029283e-01]
 [-3.47356386e-02]
 [-4.22665089e-01]
 [-4.79880780e-01]
 [ 1.21833887e-02]
 [ 6.27413273e-01]
 [ 3.60247433e-01]
 [ 9.04810011e-01]
 [ 1.90985367e-01]
 [ 2.42572689e+00]
 [ 3.82178724e-01]
 [ 2.57207453e-01]
 [-1.39966619e+00]
 [-2.97965825e-01]
 [-6.04455352e-01]
 [-6.08364642e-01]
 [ 4.94084135e-02]
 [-5.66150308e-01]
 [-1.01926851e+00]]

Layer 4:
[-0.00737446]



Consenso 3:
------------------------------------------------------------------------

Layer 0:
[[ 1.2094520e-05 -2.2132340e-01  1.6126737e-07 ...  1.5529082e-07
   2.1200624e-01 -1.9955787e-05]
 [ 2.4025044e-03  0.0000000e+00 -1.6819837e-02 ... -1.2018951e-02
  -8.2888771e-03 -5.5392664e-03]
 [ 1.4154738e-01 -6.2866616e-03  1.1313767e-05 ... -9.4106924e-03
   1.3668164e-02  1.8730760e-02]
 ...
 [-1.0260901e-02  0.0000000e+00 -5.3560188e-07 ... -4.5845841e-06
   2.3661934e-01 -1.9900489e-03]
 [ 6.0172024e-06  2.9244844e-02 -5.3290944e-03 ...  8.6233598e-07
  -2.2093525e-06 -3.5878215e-06]
 [ 4.9879998e-03  9.9861342e-04 -2.2862743e-01 ...  4.8547331e-03
  -2.1859440e-01 -3.6390306e-06]]

Layer 1:
[[ 0.09038834 -0.16659978  0.08291152 -0.08672454  0.1022324  -0.08201456
  -0.1191576  -0.10504892  0.13491224 -0.00917467  0.05431416  0.03319953
  -0.03753791 -0.07627505 -0.04239788  0.00297761 -0.00631085  0.06813751
  -0.07196565 -0.06140948  0.0382808  -0.0793259   0.0080489  -0.04041402
  -0.047507   -0.05707348  0.06504389  0.02698352  0.00895374  0.05803898
   0.01457956 -0.04116572 -0.01984826  0.08739015  0.09318952  0.03575918
  -0.03787168  0.17317735  0.16720513  0.01142493 -0.11175682  0.00866985
   0.00590623 -0.00799261  0.08595875  0.01222061 -0.11118049  0.08602936
   0.08036562  0.09922281  0.01903233 -0.08178713 -0.05116311  0.06160465
  -0.07139251 -0.04886092 -0.11239093  0.07497384 -0.07044748 -0.1334991
  -0.05558132  0.05399257 -0.07030421 -0.13407075  0.08087619  0.02088992
  -0.12349573  0.14984086  0.01353786  0.08029608 -0.00903599 -0.11919896
  -0.02732307 -0.12921183  0.04461604  0.10754605  0.03937249  0.12025244
   0.02854389  0.06824571 -0.11002435  0.07195181 -0.1251833  -0.08695738
  -0.14684083  0.07641942  0.0591507   0.11139895  0.01789616 -0.10461382
   0.04391949  0.13550025 -0.08849438 -0.04892318 -0.09576738 -0.0960374
  -0.09024651 -0.1159224  -0.11659221  0.14801113]]

Layer 2:
[0. 0. 0. 0. 0. 0. 0. 0. 0. 0. 0. 0. 0. 0. 0. 0. 0. 0. 0. 0. 0. 0. 0. 0.
 0. 0. 0. 0. 0. 0. 0. 0. 0. 0. 0. 0. 0. 0. 0. 0. 0. 0. 0. 0. 0. 0. 0. 0.
 0. 0. 0. 0. 0. 0. 0. 0. 0. 0. 0. 0. 0. 0. 0. 0. 0. 0. 0. 0. 0. 0. 0. 0.
 0. 0. 0. 0. 0. 0. 0. 0. 0. 0. 0. 0. 0. 0. 0. 0. 0. 0. 0. 0. 0. 0. 0. 0.
 0. 0. 0. 0.]

Layer 3:
[[-9.46222961e-01]
 [-8.97489130e-01]
 [-4.26410109e-01]
 [ 7.06064284e-01]
 [-1.13009010e-02]
 [-1.77217752e-01]
 [ 5.85444607e-02]
 [ 6.20305657e-01]
 [ 8.95907819e-01]
 [-8.22170258e+00]
 [ 1.14743993e-01]
 [-6.45911813e-01]
 [-2.26876497e-01]
 [-1.20278299e+00]
 [-6.51096821e+00]
 [ 2.18250608e+00]
 [ 1.45103419e+00]
 [ 7.56138086e-01]
 [-2.45133281e-01]
 [-1.29655290e+00]
 [ 8.22053850e-01]
 [-8.84984061e-02]
 [ 4.20565605e+00]
 [-2.41917133e-01]
 [-6.46733761e-01]
 [-5.64378202e-01]
 [ 4.85808760e-01]
 [ 1.06148481e+00]
 [-1.56718600e+00]
 [ 5.12928009e-01]
 [ 5.87263167e-01]
 [-2.54086018e+00]
 [-1.19020424e+01]
 [-4.52807426e-01]
 [ 1.01356041e+00]
 [ 1.03854823e+00]
 [-9.57978964e-01]
 [ 2.94943810e-01]
 [ 2.69115955e-01]
 [ 4.10055494e+00]
 [ 9.39007625e-02]
 [ 9.87992477e+00]
 [-7.38473558e+00]
 [-3.33874965e+00]
 [ 6.40487432e-01]
 [-1.07535660e+00]
 [-2.98138913e-02]
 [ 5.73680103e-01]
 [-1.07391424e-01]
 [ 1.33091819e+00]
 [ 1.41859174e-01]
 [ 1.11682773e+00]
 [ 1.44147205e+00]
 [ 1.79561093e-01]
 [ 3.31435680e-01]
 [ 1.20244646e+00]
 [ 3.14263016e-01]
 [ 1.72353613e+00]
 [-5.06388605e-01]
 [-1.61134720e-01]
 [ 2.10402989e+00]
 [-6.08070865e-02]
 [-3.63217163e+00]
 [ 1.74838603e-02]
 [ 7.50551164e-01]
 [ 7.12236738e+00]
 [-3.03389966e-01]
 [-6.37107611e-01]
 [ 2.70101142e+00]
 [-7.78893650e-01]
 [-2.37822270e+00]
 [ 8.82941961e-01]
 [-3.29558206e+00]
 [-1.46544206e+00]
 [ 4.25333917e-01]
 [ 3.94917019e-02]
 [ 6.03238487e+00]
 [ 7.49145389e-01]
 [ 5.49208355e+00]
 [ 1.08253300e+00]
 [-3.47522736e-01]
 [ 2.58961380e-01]
 [-1.42424405e-01]
 [-5.51108956e-01]
 [-7.82967508e-01]
 [ 1.45305485e-01]
 [ 5.79756439e-01]
 [ 6.09815001e-01]
 [ 8.61754954e-01]
 [ 1.51645869e-01]
 [ 2.11641192e+00]
 [ 7.53849268e-01]
 [ 1.71671689e-01]
 [-1.17170191e+00]
 [-3.91958356e-01]
 [-8.89629364e-01]
 [-7.45052814e-01]
 [ 6.55203387e-02]
 [-7.66054094e-01]
 [-1.15540218e+00]]

Layer 4:
[0.41611543]



Entrenamiento 4:
------------------------------------------------------------------------

Layer 0:
[[ 1.2094520e-05 -2.2132340e-01  1.6126737e-07 ...  1.5529082e-07
   2.1200624e-01 -1.9955787e-05]
 [ 2.4025044e-03  0.0000000e+00 -1.6819837e-02 ... -1.2018951e-02
  -8.2888771e-03 -5.5392664e-03]
 [ 1.4154738e-01 -6.2866616e-03  1.1313767e-05 ... -9.4106924e-03
   1.3668164e-02  1.8730760e-02]
 ...
 [-1.0260901e-02  0.0000000e+00 -5.3560188e-07 ... -4.5845841e-06
   2.3661934e-01 -1.9900489e-03]
 [ 6.0172024e-06  2.9244844e-02 -5.3290944e-03 ...  8.6233598e-07
  -2.2093525e-06 -3.5878215e-06]
 [ 4.9879998e-03  9.9861342e-04 -2.2862743e-01 ...  4.8547331e-03
  -2.1859440e-01 -3.6390306e-06]]

Layer 1:
[[ 0.09038834 -0.16659978  0.08291152 -0.08672454  0.1022324  -0.08201456
  -0.1191576  -0.10504892  0.13491224 -0.00917467  0.05431416  0.03319953
  -0.03753791 -0.07627505 -0.04239788  0.00297761 -0.00631085  0.06813751
  -0.07196565 -0.06140948  0.0382808  -0.0793259   0.0080489  -0.04041402
  -0.047507   -0.05707348  0.06504389  0.02698352  0.00895374  0.05803898
   0.01457956 -0.04116572 -0.01984826  0.08739015  0.09318952  0.03575918
  -0.03787168  0.17317735  0.16720513  0.01142493 -0.11175682  0.00866985
   0.00590623 -0.00799261  0.08595875  0.01222061 -0.11118049  0.08602936
   0.08036562  0.09922281  0.01903233 -0.08178713 -0.05116311  0.06160465
  -0.07139251 -0.04886092 -0.11239093  0.07497384 -0.07044748 -0.1334991
  -0.05558132  0.05399257 -0.07030421 -0.13407075  0.08087619  0.02088992
  -0.12349573  0.14984086  0.01353786  0.08029608 -0.00903599 -0.11919896
  -0.02732307 -0.12921183  0.04461604  0.10754605  0.03937249  0.12025244
   0.02854389  0.06824571 -0.11002435  0.07195181 -0.1251833  -0.08695738
  -0.14684083  0.07641942  0.0591507   0.11139895  0.01789616 -0.10461382
   0.04391949  0.13550025 -0.08849438 -0.04892318 -0.09576738 -0.0960374
  -0.09024651 -0.1159224  -0.11659221  0.14801113]]

Layer 2:
[0. 0. 0. 0. 0. 0. 0. 0. 0. 0. 0. 0. 0. 0. 0. 0. 0. 0. 0. 0. 0. 0. 0. 0.
 0. 0. 0. 0. 0. 0. 0. 0. 0. 0. 0. 0. 0. 0. 0. 0. 0. 0. 0. 0. 0. 0. 0. 0.
 0. 0. 0. 0. 0. 0. 0. 0. 0. 0. 0. 0. 0. 0. 0. 0. 0. 0. 0. 0. 0. 0. 0. 0.
 0. 0. 0. 0. 0. 0. 0. 0. 0. 0. 0. 0. 0. 0. 0. 0. 0. 0. 0. 0. 0. 0. 0. 0.
 0. 0. 0. 0.]

Layer 3:
[[-8.0399251e-01]
 [-3.5618463e-01]
 [-2.6115611e-01]
 [ 7.6115066e-01]
 [ 7.6568238e-02]
 [-5.9014633e-02]
 [ 2.1026006e-01]
 [ 3.9784795e-01]
 [ 6.5982002e-01]
 [-7.8118877e+00]
 [ 9.7780943e-02]
 [-9.0413010e-01]
 [-1.9866519e-01]
 [-1.2669265e+00]
 [-5.6119285e+00]
 [ 1.8140684e+00]
 [ 1.9623508e+00]
 [ 1.0021411e+00]
 [-3.1230482e-01]
 [-1.3704853e+00]
 [ 2.6596907e-01]
 [-1.6587433e-01]
 [ 3.6539671e+00]
 [-7.1865553e-01]
 [-1.2621512e-01]
 [-5.7775539e-01]
 [ 3.2162663e-01]
 [ 1.3472470e+00]
 [-5.2211428e-01]
 [ 6.1413258e-01]
 [ 7.9994994e-01]
 [-2.9372418e+00]
 [-1.1245513e+01]
 [-6.6141003e-01]
 [ 9.9021119e-01]
 [ 1.0480050e+00]
 [-9.6367651e-01]
 [-9.9860556e-02]
 [-1.3445124e-01]
 [ 4.4381776e+00]
 [ 1.2484729e-01]
 [ 9.3599720e+00]
 [-6.7862372e+00]
 [-3.1836734e+00]
 [ 2.1784912e-01]
 [-8.3979934e-01]
 [ 1.6231452e-01]
 [ 6.4643455e-01]
 [-3.1103363e-02]
 [ 1.3012978e+00]
 [ 3.6308423e-01]
 [ 1.1573189e+00]
 [ 1.8857493e+00]
 [ 3.7150246e-01]
 [ 4.4442421e-01]
 [ 1.5186671e+00]
 [ 6.0916085e-02]
 [ 1.9848676e+00]
 [-5.6645131e-01]
 [ 1.0221934e-01]
 [ 1.8952395e+00]
 [-6.5864146e-01]
 [-3.6586242e+00]
 [ 1.4111009e-01]
 [ 8.5887778e-01]
 [ 6.5308633e+00]
 [-4.9450554e-02]
 [-1.0190700e+00]
 [ 2.3211288e+00]
 [-7.6794690e-01]
 [-2.2844949e+00]
 [ 1.0501181e+00]
 [-3.7035236e+00]
 [-1.2380319e+00]
 [ 4.2955118e-01]
 [-6.7589112e-02]
 [ 5.2649312e+00]
 [ 6.3345701e-01]
 [ 5.4727221e+00]
 [ 1.1323369e+00]
 [-2.5319636e-01]
 [ 7.7619231e-01]
 [-3.4074739e-02]
 [-5.8500677e-01]
 [-3.6729226e-01]
 [ 3.1730917e-01]
 [ 6.8626863e-01]
 [ 4.7386172e-01]
 [ 1.0840174e+00]
 [ 2.8962117e-01]
 [ 1.9829594e+00]
 [ 4.6724045e-01]
 [-1.8116194e-01]
 [-2.9414592e-02]
 [-3.3833578e-01]
 [-8.3336979e-01]
 [-6.5133053e-01]
 [ 6.5749316e-03]
 [-7.3609781e-01]
 [-1.1845338e+00]]

Layer 4:
[0.00192144]



Consenso 4:
------------------------------------------------------------------------

Layer 0:
[[ 1.55876796e-06 -2.21387193e-01  2.07844870e-08 ...  2.00142196e-08
   2.12066010e-01 -2.57194506e-06]
 [ 2.41727731e-03  0.00000000e+00 -1.68195516e-02 ... -1.20229432e-02
  -8.28972738e-03 -5.54096652e-03]
 [ 1.41598403e-01 -6.28826767e-03  1.45814283e-06 ... -9.42337979e-03
   1.36715695e-02  1.87567361e-02]
 ...
 [-1.02634579e-02  0.00000000e+00 -6.90295252e-08 ... -5.90871196e-07
   2.36683756e-01 -1.99055742e-03]
 [ 7.75510046e-07  2.92509440e-02 -5.33046667e-03 ...  1.11139741e-07
  -2.84746136e-07 -4.62406263e-07]
 [ 4.98507451e-03  9.93873458e-04 -2.28674367e-01 ...  4.85598436e-03
  -2.18653485e-01 -4.69006210e-07]]

Layer 1:
[[ 0.09040517 -0.16665475  0.08291769 -0.0867533   0.10227102 -0.08203339
  -0.11916951 -0.10508458  0.13495073 -0.00916952  0.05431442  0.03318993
  -0.03754658 -0.07631063 -0.04243155  0.00297959 -0.00631369  0.06816
  -0.07199246 -0.06143279  0.03827105 -0.07935189  0.00806928 -0.04040671
  -0.0475203  -0.05708288  0.06503447  0.02699055  0.00896929  0.05805067
   0.01457298 -0.04116317 -0.01986107  0.0874021   0.0932255   0.03576998
  -0.03789124  0.17322175  0.16722406  0.01144008 -0.11179382  0.00866806
   0.00592358 -0.0079904   0.08597077  0.01221773 -0.11120925  0.08606569
   0.0803986   0.09925546  0.01903767 -0.08181267 -0.05119311  0.06162285
  -0.07139868 -0.04888703 -0.1124033   0.07496889 -0.07046064 -0.13352521
  -0.05560843  0.05400263 -0.07030252 -0.13410169  0.08091576  0.02089858
  -0.12353786  0.14986968  0.01356361  0.08031274 -0.00905026 -0.11923192
  -0.02733904 -0.12923789  0.04464088  0.10757997  0.03938803  0.12026496
   0.02855966  0.06826256 -0.11004637  0.07196818 -0.12522435 -0.0869773
  -0.14689939  0.07644801  0.05917339  0.11140152  0.01790441 -0.1046294
   0.04394392  0.13554119 -0.08853764 -0.04893063 -0.09578963 -0.09605275
  -0.09027417 -0.1159664  -0.11660774  0.14806747]]

Layer 2:
[0. 0. 0. 0. 0. 0. 0. 0. 0. 0. 0. 0. 0. 0. 0. 0. 0. 0. 0. 0. 0. 0. 0. 0.
 0. 0. 0. 0. 0. 0. 0. 0. 0. 0. 0. 0. 0. 0. 0. 0. 0. 0. 0. 0. 0. 0. 0. 0.
 0. 0. 0. 0. 0. 0. 0. 0. 0. 0. 0. 0. 0. 0. 0. 0. 0. 0. 0. 0. 0. 0. 0. 0.
 0. 0. 0. 0. 0. 0. 0. 0. 0. 0. 0. 0. 0. 0. 0. 0. 0. 0. 0. 0. 0. 0. 0. 0.
 0. 0. 0. 0.]

Layer 3:
[[ -0.7716353 ]
 [ -0.63469094]
 [ -0.13271585]
 [  0.7868621 ]
 [  0.29288286]
 [ -0.06500899]
 [ -0.02678449]
 [  0.4177259 ]
 [  0.84112805]
 [-10.452048  ]
 [  0.12146985]
 [ -1.2304943 ]
 [ -0.45948482]
 [ -1.3385856 ]
 [ -6.255504  ]
 [  1.7106282 ]
 [  1.4857211 ]
 [  0.99492484]
 [  0.13111861]
 [ -1.3902724 ]
 [  0.41102108]
 [ -0.19764292]
 [  3.851052  ]
 [ -0.5007743 ]
 [ -0.46121588]
 [ -0.02961301]
 [ -0.0784956 ]
 [  1.5270323 ]
 [ -1.6365494 ]
 [  0.6851205 ]
 [  1.0834911 ]
 [ -2.9702308 ]
 [-13.608938  ]
 [ -0.6329397 ]
 [  1.2962815 ]
 [  0.9605217 ]
 [ -1.0544525 ]
 [  0.19311588]
 [  0.09988738]
 [  4.4037557 ]
 [ -0.07405671]
 [ 12.885051  ]
 [ -9.231385  ]
 [ -3.4030938 ]
 [ -0.04290618]
 [ -0.98300743]
 [ -0.09608841]
 [  0.75998974]
 [  0.03871178]
 [  1.4695866 ]
 [  0.35727942]
 [  1.2435944 ]
 [  2.0764213 ]
 [  0.42135155]
 [  0.6241285 ]
 [  1.2917868 ]
 [ -0.11046236]
 [  2.1225774 ]
 [ -0.39409792]
 [  0.03364688]
 [  2.2768266 ]
 [ -0.11991912]
 [ -3.2467835 ]
 [ -0.01498481]
 [  1.1295086 ]
 [  8.4516735 ]
 [ -0.04064735]
 [ -0.7439657 ]
 [  2.3986464 ]
 [ -1.48835   ]
 [ -2.7894819 ]
 [  0.8182964 ]
 [ -3.696625  ]
 [ -1.6437634 ]
 [  0.26668167]
 [ -0.03147943]
 [  5.5832067 ]
 [  0.68869317]
 [  6.744402  ]
 [  1.2448668 ]
 [ -0.52862924]
 [  0.8983966 ]
 [ -0.17947268]
 [ -0.69737786]
 [ -0.6234276 ]
 [  0.42243573]
 [  0.5428313 ]
 [  0.6971448 ]
 [  0.998361  ]
 [  0.23155487]
 [  1.3622897 ]
 [  0.79745996]
 [ -0.5406332 ]
 [  0.27210242]
 [ -0.3930169 ]
 [ -1.0680208 ]
 [ -0.6870096 ]
 [ -0.14216283]
 [ -0.7675807 ]
 [ -1.1473984 ]]

Layer 4:
[0.22035135]



Entrenamiento 5:
------------------------------------------------------------------------

Layer 0:
[[ 1.55876796e-06 -2.21387193e-01  2.07844870e-08 ...  2.00142196e-08
   2.12066010e-01 -2.57194506e-06]
 [ 2.41727731e-03  0.00000000e+00 -1.68195516e-02 ... -1.20229432e-02
  -8.28972738e-03 -5.54096652e-03]
 [ 1.41598403e-01 -6.28826767e-03  1.45814283e-06 ... -9.42337979e-03
   1.36715695e-02  1.87567361e-02]
 ...
 [-1.02634579e-02  0.00000000e+00 -6.90295252e-08 ... -5.90871196e-07
   2.36683756e-01 -1.99055742e-03]
 [ 7.75510046e-07  2.92509440e-02 -5.33046667e-03 ...  1.11139741e-07
  -2.84746136e-07 -4.62406263e-07]
 [ 4.98507451e-03  9.93873458e-04 -2.28674367e-01 ...  4.85598436e-03
  -2.18653485e-01 -4.69006210e-07]]

Layer 1:
[[ 0.09040517 -0.16665475  0.08291769 -0.0867533   0.10227102 -0.08203339
  -0.11916951 -0.10508458  0.13495073 -0.00916952  0.05431442  0.03318993
  -0.03754658 -0.07631063 -0.04243155  0.00297959 -0.00631369  0.06816
  -0.07199246 -0.06143279  0.03827105 -0.07935189  0.00806928 -0.04040671
  -0.0475203  -0.05708288  0.06503447  0.02699055  0.00896929  0.05805067
   0.01457298 -0.04116317 -0.01986107  0.0874021   0.0932255   0.03576998
  -0.03789124  0.17322175  0.16722406  0.01144008 -0.11179382  0.00866806
   0.00592358 -0.0079904   0.08597077  0.01221773 -0.11120925  0.08606569
   0.0803986   0.09925546  0.01903767 -0.08181267 -0.05119311  0.06162285
  -0.07139868 -0.04888703 -0.1124033   0.07496889 -0.07046064 -0.13352521
  -0.05560843  0.05400263 -0.07030252 -0.13410169  0.08091576  0.02089858
  -0.12353786  0.14986968  0.01356361  0.08031274 -0.00905026 -0.11923192
  -0.02733904 -0.12923789  0.04464088  0.10757997  0.03938803  0.12026496
   0.02855966  0.06826256 -0.11004637  0.07196818 -0.12522435 -0.0869773
  -0.14689939  0.07644801  0.05917339  0.11140152  0.01790441 -0.1046294
   0.04394392  0.13554119 -0.08853764 -0.04893063 -0.09578963 -0.09605275
  -0.09027417 -0.1159664  -0.11660774  0.14806747]]

Layer 2:
[0. 0. 0. 0. 0. 0. 0. 0. 0. 0. 0. 0. 0. 0. 0. 0. 0. 0. 0. 0. 0. 0. 0. 0.
 0. 0. 0. 0. 0. 0. 0. 0. 0. 0. 0. 0. 0. 0. 0. 0. 0. 0. 0. 0. 0. 0. 0. 0.
 0. 0. 0. 0. 0. 0. 0. 0. 0. 0. 0. 0. 0. 0. 0. 0. 0. 0. 0. 0. 0. 0. 0. 0.
 0. 0. 0. 0. 0. 0. 0. 0. 0. 0. 0. 0. 0. 0. 0. 0. 0. 0. 0. 0. 0. 0. 0. 0.
 0. 0. 0. 0.]

Layer 3:
[[-7.07981288e-01]
 [-3.29580605e-01]
 [-6.34460002e-02]
 [ 8.82333219e-01]
 [ 2.74319202e-01]
 [-4.32985909e-02]
 [ 1.80199131e-01]
 [ 4.32771504e-01]
 [ 6.04346156e-01]
 [-9.98806763e+00]
 [ 1.79754078e-01]
 [-1.40490425e+00]
 [-4.66514111e-01]
 [-1.40104640e+00]
 [-5.33004141e+00]
 [ 1.26837778e+00]
 [ 1.96626413e+00]
 [ 1.15921032e+00]
 [ 9.49391201e-02]
 [-1.50595486e+00]
 [-7.07016215e-02]
 [-2.38070115e-01]
 [ 3.35255671e+00]
 [-9.00198579e-01]
 [ 2.36783735e-02]
 [-9.42852199e-02]
 [-2.38835573e-01]
 [ 1.77152705e+00]
 [-7.31653333e-01]
 [ 7.96323597e-01]
 [ 1.41672456e+00]
 [-3.28434896e+00]
 [-1.31145535e+01]
 [-6.91419423e-01]
 [ 1.22719908e+00]
 [ 1.00579405e+00]
 [-1.12295592e+00]
 [-1.67283624e-01]
 [-3.05652857e-01]
 [ 4.81809282e+00]
 [-1.59711123e-03]
 [ 1.22585945e+01]
 [-8.63334942e+00]
 [-3.27390337e+00]
 [-3.58336449e-01]
 [-7.14006007e-01]
 [ 7.76382014e-02]
 [ 8.07818770e-01]
 [ 8.81270021e-02]
 [ 1.42290890e+00]
 [ 5.94666541e-01]
 [ 1.27793610e+00]
 [ 2.51292920e+00]
 [ 5.95951021e-01]
 [ 6.58980846e-01]
 [ 1.51777697e+00]
 [-1.19016938e-01]
 [ 2.28239918e+00]
 [-4.44511801e-01]
 [ 2.86163390e-01]
 [ 2.09809637e+00]
 [-6.21882617e-01]
 [-3.30553389e+00]
 [ 2.20142171e-01]
 [ 1.15996563e+00]
 [ 7.92539072e+00]
 [ 1.43550605e-01]
 [-1.06177902e+00]
 [ 2.08515954e+00]
 [-1.49015558e+00]
 [-2.73929691e+00]
 [ 9.65793848e-01]
 [-4.08258438e+00]
 [-1.43268347e+00]
 [ 3.25235516e-01]
 [-1.26937121e-01]
 [ 4.91299105e+00]
 [ 5.35051882e-01]
 [ 6.81877947e+00]
 [ 1.27031648e+00]
 [-4.12945479e-01]
 [ 1.19985318e+00]
 [-2.64958059e-03]
 [-7.17921793e-01]
 [-3.08558285e-01]
 [ 5.06450653e-01]
 [ 6.76380455e-01]
 [ 5.79419434e-01]
 [ 1.32371700e+00]
 [ 3.37861836e-01]
 [ 1.24829352e+00]
 [ 5.46819091e-01]
 [-6.56467915e-01]
 [ 1.16208982e+00]
 [-3.58844995e-01]
 [-1.03401995e+00]
 [-6.74235404e-01]
 [-2.04562545e-02]
 [-6.18486404e-01]
 [-1.41862285e+00]]

Layer 4:
[-0.00043053]



