:
------------------------------------------------------------------------



Entrenamiento 0:
------------------------------------------------------------------------

Layer 0:
[[ 0.         -0.         -0.         ...  0.          0.
   0.        ]
 [ 0.          0.         -0.38650343 ... -0.          0.
   0.        ]
 [ 0.         -0.          0.         ...  0.43811733  0.314177
   0.        ]
 ...
 [-0.23585755  0.          0.         ...  0.         -0.
   0.        ]
 [-0.          0.          0.         ...  0.          0.
   0.        ]
 [ 0.         -0.         -0.         ...  0.         -0.
  -0.        ]]

Layer 1:
[[ 0.11819443 -0.19695388  0.13872176 -0.18064964 -0.01032816  0.18095455
   0.13431594 -0.05800039  0.1848791  -0.10241951 -0.11018401  0.02209079
  -0.03925316  0.10623389  0.08695105 -0.07269846 -0.01851659 -0.12560086
  -0.02120605 -0.0137399  -0.17901224 -0.22564028  0.04345363 -0.18408337
   0.07344767 -0.20353356 -0.21191834 -0.09470516 -0.1032566  -0.23580231
  -0.19821948 -0.0239591  -0.09017834 -0.00364824  0.07685837  0.18889779
  -0.14149538  0.07599595  0.12379035 -0.04306865 -0.19926645  0.03299993
   0.145365   -0.07301922 -0.01793629  0.15493011 -0.13808724 -0.1884315
   0.16641185 -0.22807965 -0.1859833   0.1281794  -0.00691196 -0.12219616
  -0.1568669   0.15596682  0.17537934 -0.12884906 -0.04563899  0.15903977
  -0.24224183 -0.10330361 -0.1714928  -0.21822003  0.01912448 -0.0888876
   0.06674516  0.1677917  -0.011813    0.1882331   0.1098761   0.03033313
  -0.06726715 -0.16200311  0.21843904  0.06861225 -0.00432639 -0.1939452
   0.09766939 -0.15670389 -0.15752006 -0.19177216 -0.00693062 -0.03031035
  -0.04333101 -0.24267027 -0.23077585  0.22669917 -0.23118861 -0.16444004
   0.09120899 -0.16927925  0.10103443  0.0989534   0.0667254  -0.2320168
   0.10796854  0.16403362 -0.2434508  -0.00713266]]

Layer 2:
[0. 0. 0. 0. 0. 0. 0. 0. 0. 0. 0. 0. 0. 0. 0. 0. 0. 0. 0. 0. 0. 0. 0. 0.
 0. 0. 0. 0. 0. 0. 0. 0. 0. 0. 0. 0. 0. 0. 0. 0. 0. 0. 0. 0. 0. 0. 0. 0.
 0. 0. 0. 0. 0. 0. 0. 0. 0. 0. 0. 0. 0. 0. 0. 0. 0. 0. 0. 0. 0. 0. 0. 0.
 0. 0. 0. 0. 0. 0. 0. 0. 0. 0. 0. 0. 0. 0. 0. 0. 0. 0. 0. 0. 0. 0. 0. 0.
 0. 0. 0. 0.]

Layer 3:
[[ 1.11792624e-01]
 [ 3.51765484e-01]
 [-9.77288410e-02]
 [ 2.94851214e-01]
 [-2.62621307e+00]
 [ 4.21337076e-02]
 [ 4.30767536e-01]
 [-2.83933377e+00]
 [-1.03843793e-01]
 [-1.32168978e-01]
 [-5.40300965e-01]
 [ 1.99346352e+00]
 [-9.21308398e-01]
 [ 1.88331366e-01]
 [ 5.33474624e-01]
 [-9.91546065e-02]
 [-2.96536595e-01]
 [-1.85355738e-01]
 [-1.09703422e+00]
 [-3.26235616e-03]
 [-2.55304426e-01]
 [-1.03454866e-01]
 [ 1.32249784e+00]
 [ 4.39522304e-02]
 [ 9.85138237e-01]
 [ 3.19497995e-02]
 [-2.68284321e-01]
 [-1.85435638e-01]
 [-1.41761050e-01]
 [-5.07967949e-01]
 [-3.28130752e-01]
 [-1.00271785e+00]
 [-3.46747786e-01]
 [-1.80855259e-01]
 [ 3.10432523e-01]
 [-1.98561437e-02]
 [-1.19366750e-01]
 [ 5.46680033e-01]
 [ 4.62171525e-01]
 [-1.26035064e-01]
 [-3.00403655e-01]
 [ 8.87797534e-01]
 [ 2.59451382e-03]
 [-4.74876732e-01]
 [-6.56498551e-01]
 [ 7.73922652e-02]
 [-1.66209430e-01]
 [-1.70658052e-01]
 [ 1.28111929e-01]
 [-1.41108185e-01]
 [ 1.36183128e-01]
 [ 3.08705866e-01]
 [ 7.58392215e-01]
 [-5.22638559e-01]
 [ 2.72781760e-01]
 [ 8.34214836e-02]
 [ 4.20628458e-01]
 [ 1.15014434e-01]
 [-1.34467399e+00]
 [-3.59255105e-01]
 [-5.80836907e-02]
 [-6.70779943e-01]
 [ 1.98748529e-01]
 [-1.88770369e-01]
 [ 1.19440830e+00]
 [-1.80930936e+00]
 [ 2.00043201e+00]
 [-4.72496217e-03]
 [-9.23224092e-01]
 [ 3.59486789e-01]
 [ 7.30406642e-01]
 [ 2.35519576e+00]
 [-9.26880240e-02]
 [-5.27345061e-01]
 [-6.85335090e-03]
 [ 4.73591208e-01]
 [-5.17352939e-01]
 [ 1.56849399e-01]
 [ 1.23124051e+00]
 [-4.31313813e-01]
 [-1.64999217e-01]
 [-4.17414606e-01]
 [ 3.26925755e-01]
 [-3.32477975e+00]
 [-7.84047008e-01]
 [-3.66090804e-01]
 [-1.83792710e-02]
 [ 4.08163220e-01]
 [ 2.39705145e-01]
 [ 5.67674972e-02]
 [ 4.43207949e-01]
 [ 8.83364826e-02]
 [ 3.29007626e-01]
 [ 3.66899282e-01]
 [ 3.24435920e-01]
 [-8.00852180e-02]
 [ 2.58454680e-01]
 [ 7.95031488e-02]
 [-3.08528990e-01]
 [-7.35858262e-01]]

Layer 4:
[-0.02690331]



Consenso 0:
------------------------------------------------------------------------

Layer 0:
[[ 0.          0.          0.         ...  0.          0.1259694
   0.        ]
 [ 0.0111196   0.         -0.07730069 ...  0.          0.
  -0.02546686]
 [-0.06885014 -0.02890131  0.         ... -0.04331749  0.0628354
   0.08622164]
 ...
 [-0.04717151  0.          0.         ...  0.          0.00595135
  -0.00914874]
 [ 0.         -0.08514666 -0.0244992  ...  0.          0.
   0.        ]
 [ 0.02290889  0.02679003  0.         ...  0.02231844 -0.12104519
   0.        ]]

Layer 1:
[[ 0.00064583 -0.01861708 -0.03666219  0.00928062 -0.05478794 -0.06528799
   0.03335992  0.02145567  0.02937338 -0.02075724 -0.05494631 -0.03220208
   0.04596144 -0.02724978 -0.04045607 -0.11704695 -0.03185935 -0.05587648
  -0.14690776 -0.02606251 -0.11035265 -0.0368814  -0.05794165  0.02056258
   0.08106801 -0.11283772 -0.0201096  -0.14658698 -0.0730104  -0.06491859
   0.0394833  -0.00463297 -0.04152845 -0.02228456  0.01856658 -0.04509058
   0.04379786  0.14709094  0.05991289 -0.04234445 -0.00973641  0.00339768
   0.07252678  0.03536883  0.04379962 -0.02044377 -0.1765238  -0.05758633
   0.02791723  0.03504628 -0.2065221   0.01241908  0.08572451 -0.05603988
  -0.07589025  0.12765758  0.09425823  0.01089754 -0.04826437  0.06325573
  -0.03596757 -0.11621081 -0.16401643 -0.06121937  0.00359766  0.04766364
   0.10608287 -0.03803707 -0.04540706  0.09102745  0.0137974   0.04399621
  -0.03888187 -0.00908919  0.04308454 -0.01950479  0.05203365 -0.06923696
   0.09550837 -0.09005343 -0.00374228 -0.03505327 -0.07183167  0.04615679
  -0.0900355  -0.08978112 -0.00739176  0.09702335 -0.06423413  0.03148258
   0.03948447  0.00986254 -0.01453283  0.04038033  0.03052769 -0.01163506
   0.05754639 -0.04335695  0.07870365 -0.00716898]]

Layer 2:
[0. 0. 0. 0. 0. 0. 0. 0. 0. 0. 0. 0. 0. 0. 0. 0. 0. 0. 0. 0. 0. 0. 0. 0.
 0. 0. 0. 0. 0. 0. 0. 0. 0. 0. 0. 0. 0. 0. 0. 0. 0. 0. 0. 0. 0. 0. 0. 0.
 0. 0. 0. 0. 0. 0. 0. 0. 0. 0. 0. 0. 0. 0. 0. 0. 0. 0. 0. 0. 0. 0. 0. 0.
 0. 0. 0. 0. 0. 0. 0. 0. 0. 0. 0. 0. 0. 0. 0. 0. 0. 0. 0. 0. 0. 0. 0. 0.
 0. 0. 0. 0.]

Layer 3:
[[ 0.22635263]
 [ 0.07161553]
 [-0.40990493]
 [-0.18963361]
 [-0.2848722 ]
 [ 0.03280458]
 [ 0.15922889]
 [-0.42593178]
 [-0.02615659]
 [-0.9948208 ]
 [-0.3223957 ]
 [ 0.8758114 ]
 [-0.92498136]
 [-1.1799629 ]
 [-1.1141105 ]
 [-1.0639553 ]
 [-0.07562525]
 [ 1.2277551 ]
 [-0.2293119 ]
 [-0.81842685]
 [-0.24021691]
 [-0.04587775]
 [-0.25722137]
 [-0.06506151]
 [ 0.35608318]
 [-0.37012535]
 [-0.07944404]
 [-0.10635268]
 [-0.8057489 ]
 [ 0.8333539 ]
 [-0.00779499]
 [-0.54792714]
 [-0.9694035 ]
 [-0.6154975 ]
 [ 0.18068156]
 [-0.29300237]
 [ 0.7741796 ]
 [-0.07740212]
 [ 0.9438555 ]
 [ 0.7605429 ]
 [ 0.0130149 ]
 [ 0.5863547 ]
 [ 0.14959721]
 [ 1.032116  ]
 [ 0.44460565]
 [ 0.10293081]
 [-0.17995118]
 [ 0.12851353]
 [-1.7564412 ]
 [ 0.9636152 ]
 [-0.18348846]
 [-0.02267964]
 [ 0.2629772 ]
 [-0.20417783]
 [-0.16218802]
 [ 0.27925843]
 [ 0.27189454]
 [ 0.32918435]
 [-0.347421  ]
 [ 1.0817379 ]
 [-0.08146538]
 [-1.5780429 ]
 [ 0.2658478 ]
 [-0.18846194]
 [-0.48303577]
 [-0.34360167]
 [ 0.5571831 ]
 [-0.16604678]
 [-0.1121647 ]
 [ 0.64184743]
 [-0.00420537]
 [ 1.5190043 ]
 [ 0.40943444]
 [-0.26442266]
 [-0.16662884]
 [-0.38183743]
 [-0.23476012]
 [ 0.59305304]
 [ 0.69542605]
 [-0.11862078]
 [-0.16085711]
 [-0.1706553 ]
 [-0.20219994]
 [-0.40431687]
 [-0.18322068]
 [-0.32329944]
 [ 0.4405375 ]
 [ 0.0819369 ]
 [-1.1714656 ]
 [-0.21386363]
 [-0.21374577]
 [ 0.4455113 ]
 [-0.22407566]
 [ 0.91462773]
 [-0.957979  ]
 [-0.3373514 ]
 [-0.21968937]
 [ 0.01894747]
 [-0.18599673]
 [-0.23236914]]

Layer 4:
[0.01604926]



Entrenamiento 1:
------------------------------------------------------------------------

Layer 0:
[[ 0.          0.          0.         ...  0.          0.1259694
   0.        ]
 [ 0.0111196   0.         -0.07730069 ...  0.          0.
  -0.02546686]
 [-0.06885014 -0.02890131  0.         ... -0.04331749  0.0628354
   0.08622164]
 ...
 [-0.04717151  0.          0.         ...  0.          0.00595135
  -0.00914874]
 [ 0.         -0.08514666 -0.0244992  ...  0.          0.
   0.        ]
 [ 0.02290889  0.02679003  0.         ...  0.02231844 -0.12104519
   0.        ]]

Layer 1:
[[ 0.00064583 -0.01861708 -0.03666219  0.00928062 -0.05478794 -0.06528799
   0.03335992  0.02145567  0.02937338 -0.02075724 -0.05494631 -0.03220208
   0.04596144 -0.02724978 -0.04045607 -0.11704695 -0.03185935 -0.05587648
  -0.14690776 -0.02606251 -0.11035265 -0.0368814  -0.05794165  0.02056258
   0.08106801 -0.11283772 -0.0201096  -0.14658698 -0.0730104  -0.06491859
   0.0394833  -0.00463297 -0.04152845 -0.02228456  0.01856658 -0.04509058
   0.04379786  0.14709094  0.05991289 -0.04234445 -0.00973641  0.00339768
   0.07252678  0.03536883  0.04379962 -0.02044377 -0.1765238  -0.05758633
   0.02791723  0.03504628 -0.2065221   0.01241908  0.08572451 -0.05603988
  -0.07589025  0.12765758  0.09425823  0.01089754 -0.04826437  0.06325573
  -0.03596757 -0.11621081 -0.16401643 -0.06121937  0.00359766  0.04766364
   0.10608287 -0.03803707 -0.04540706  0.09102745  0.0137974   0.04399621
  -0.03888187 -0.00908919  0.04308454 -0.01950479  0.05203365 -0.06923696
   0.09550837 -0.09005343 -0.00374228 -0.03505327 -0.07183167  0.04615679
  -0.0900355  -0.08978112 -0.00739176  0.09702335 -0.06423413  0.03148258
   0.03948447  0.00986254 -0.01453283  0.04038033  0.03052769 -0.01163506
   0.05754639 -0.04335695  0.07870365 -0.00716898]]

Layer 2:
[0. 0. 0. 0. 0. 0. 0. 0. 0. 0. 0. 0. 0. 0. 0. 0. 0. 0. 0. 0. 0. 0. 0. 0.
 0. 0. 0. 0. 0. 0. 0. 0. 0. 0. 0. 0. 0. 0. 0. 0. 0. 0. 0. 0. 0. 0. 0. 0.
 0. 0. 0. 0. 0. 0. 0. 0. 0. 0. 0. 0. 0. 0. 0. 0. 0. 0. 0. 0. 0. 0. 0. 0.
 0. 0. 0. 0. 0. 0. 0. 0. 0. 0. 0. 0. 0. 0. 0. 0. 0. 0. 0. 0. 0. 0. 0. 0.
 0. 0. 0. 0.]

Layer 3:
[[ 0.23503537]
 [-0.01861663]
 [-0.88069737]
 [ 0.18151446]
 [-0.67683035]
 [-0.30796042]
 [ 0.6979162 ]
 [-0.14130287]
 [ 0.4322961 ]
 [-1.1529775 ]
 [-0.35919258]
 [-1.2335702 ]
 [-0.4549859 ]
 [-1.8089039 ]
 [-1.6443439 ]
 [-0.8496341 ]
 [-0.38854405]
 [ 1.1393312 ]
 [ 0.13480406]
 [-2.572314  ]
 [-0.03959728]
 [-0.5726646 ]
 [-0.7582354 ]
 [ 0.5460259 ]
 [ 0.2463887 ]
 [-0.18027663]
 [-0.12023585]
 [ 0.24120171]
 [-0.7791109 ]
 [ 0.79475445]
 [ 0.40169734]
 [-1.131554  ]
 [-1.5278852 ]
 [-1.9634948 ]
 [ 0.5037558 ]
 [-0.51135814]
 [ 1.2854635 ]
 [-0.2850888 ]
 [ 1.2860137 ]
 [ 0.5216573 ]
 [-0.3138459 ]
 [ 0.9215449 ]
 [ 0.4355568 ]
 [ 1.7371441 ]
 [ 0.90366536]
 [-0.13168158]
 [ 0.12362615]
 [-0.3709925 ]
 [-1.4579748 ]
 [ 1.5289208 ]
 [ 0.06264866]
 [ 0.4800234 ]
 [ 0.20458461]
 [-0.45397806]
 [-0.23361494]
 [ 0.01692264]
 [ 0.10922085]
 [ 0.5635789 ]
 [-1.1861657 ]
 [ 1.0905432 ]
 [-0.5579092 ]
 [-1.3666129 ]
 [ 0.49460164]
 [-0.24189916]
 [ 0.30678222]
 [-0.2706855 ]
 [ 0.34684244]
 [-0.9992106 ]
 [-0.8653167 ]
 [ 0.4974796 ]
 [ 0.8559459 ]
 [ 3.3792584 ]
 [ 0.3451027 ]
 [-0.4334699 ]
 [-0.04764903]
 [-0.82302296]
 [ 0.41515142]
 [ 0.6745368 ]
 [ 0.55792826]
 [ 0.05525565]
 [-0.50165635]
 [-0.33993006]
 [-0.3793512 ]
 [ 0.61174136]
 [-0.38986105]
 [-0.24879819]
 [-0.07757622]
 [-0.11037886]
 [-1.434268  ]
 [-0.08520094]
 [ 0.5064016 ]
 [ 0.82373255]
 [-0.49267066]
 [ 1.489481  ]
 [-0.8512206 ]
 [-0.51001185]
 [-0.00826009]
 [-0.32957762]
 [-0.25751474]
 [-0.93269044]]

Layer 4:
[0.15628226]



Consenso 1:
------------------------------------------------------------------------

Layer 0:
[[ 0.          0.          0.         ...  0.          0.1259694
   0.        ]
 [ 0.0111196   0.         -0.07730069 ...  0.          0.
  -0.02546686]
 [-0.06885014 -0.02890131  0.         ... -0.04331749  0.0628354
   0.08622164]
 ...
 [-0.04717151  0.          0.         ...  0.          0.00595135
  -0.00914874]
 [ 0.         -0.08514666 -0.0244992  ...  0.          0.
   0.        ]
 [ 0.02290889  0.02679003  0.         ...  0.02231844 -0.12104519
   0.        ]]

Layer 1:
[[ 0.00064583 -0.01861708 -0.03666219  0.00928062 -0.05478794 -0.06528799
   0.03335992  0.02145567  0.02937338 -0.02075724 -0.05494631 -0.03220208
   0.04596144 -0.02724978 -0.04045607 -0.11704695 -0.03185935 -0.05587648
  -0.14690776 -0.02606251 -0.11035265 -0.0368814  -0.05794165  0.02056258
   0.08106801 -0.11283772 -0.0201096  -0.14658698 -0.0730104  -0.06491859
   0.0394833  -0.00463297 -0.04152845 -0.02228456  0.01856658 -0.04509058
   0.04379786  0.14709094  0.05991289 -0.04234445 -0.00973641  0.00339768
   0.07252678  0.03536883  0.04379962 -0.02044377 -0.1765238  -0.05758633
   0.02791723  0.03504628 -0.2065221   0.01241908  0.08572451 -0.05603988
  -0.07589025  0.12765758  0.09425823  0.01089754 -0.04826437  0.06325573
  -0.03596757 -0.11621081 -0.16401643 -0.06121937  0.00359766  0.04766364
   0.10608287 -0.03803707 -0.04540706  0.09102745  0.0137974   0.04399621
  -0.03888187 -0.00908919  0.04308454 -0.01950479  0.05203365 -0.06923696
   0.09550837 -0.09005343 -0.00374228 -0.03505327 -0.07183167  0.04615679
  -0.0900355  -0.08978112 -0.00739176  0.09702335 -0.06423413  0.03148258
   0.03948447  0.00986254 -0.01453283  0.04038033  0.03052769 -0.01163506
   0.05754639 -0.04335695  0.07870365 -0.00716898]]

Layer 2:
[0. 0. 0. 0. 0. 0. 0. 0. 0. 0. 0. 0. 0. 0. 0. 0. 0. 0. 0. 0. 0. 0. 0. 0.
 0. 0. 0. 0. 0. 0. 0. 0. 0. 0. 0. 0. 0. 0. 0. 0. 0. 0. 0. 0. 0. 0. 0. 0.
 0. 0. 0. 0. 0. 0. 0. 0. 0. 0. 0. 0. 0. 0. 0. 0. 0. 0. 0. 0. 0. 0. 0. 0.
 0. 0. 0. 0. 0. 0. 0. 0. 0. 0. 0. 0. 0. 0. 0. 0. 0. 0. 0. 0. 0. 0. 0. 0.
 0. 0. 0. 0.]

Layer 3:
[[-0.02699414]
 [-0.56314254]
 [-1.2957245 ]
 [ 1.8420506 ]
 [-0.37716267]
 [-0.16629837]
 [ 0.99226046]
 [-0.15463662]
 [ 1.065252  ]
 [-1.21519   ]
 [-0.26723236]
 [-1.6944654 ]
 [-0.5360624 ]
 [-3.0659404 ]
 [-1.8345054 ]
 [-0.7526001 ]
 [-0.53829354]
 [ 1.3110846 ]
 [ 0.22388452]
 [-3.5159175 ]
 [ 0.09990726]
 [-1.0874417 ]
 [-0.6085831 ]
 [ 1.7771591 ]
 [ 0.04079157]
 [-0.03293125]
 [-0.10685026]
 [ 0.3948903 ]
 [-0.59957135]
 [ 0.9968621 ]
 [ 0.603061  ]
 [-2.287901  ]
 [-1.7728478 ]
 [-3.4926527 ]
 [ 2.2497814 ]
 [-0.44501472]
 [ 1.6433886 ]
 [-0.42537212]
 [ 1.1681749 ]
 [ 0.6016595 ]
 [-1.2432188 ]
 [ 1.9804847 ]
 [ 0.27282298]
 [ 2.5379736 ]
 [ 1.3599725 ]
 [-1.2680018 ]
 [ 0.24353653]
 [-0.24511823]
 [-1.3114537 ]
 [ 2.4584439 ]
 [ 0.13534528]
 [ 1.7742323 ]
 [-0.017394  ]
 [-0.42660946]
 [-0.06426898]
 [-0.07225908]
 [-0.07417109]
 [ 0.9423988 ]
 [-1.3180981 ]
 [ 0.9497474 ]
 [-0.8873546 ]
 [-1.357388  ]
 [ 0.62733114]
 [-0.08576676]
 [ 1.1120794 ]
 [-0.45414189]
 [ 0.22195826]
 [-2.2789078 ]
 [-0.55257076]
 [ 0.2916418 ]
 [ 1.8143247 ]
 [ 3.2319107 ]
 [ 0.5074913 ]
 [-2.0165918 ]
 [-0.16302451]
 [-1.0318056 ]
 [ 0.36882412]
 [ 0.8290971 ]
 [ 0.38921243]
 [ 0.23380902]
 [-1.2914017 ]
 [-0.3749922 ]
 [-0.21664324]
 [ 0.42265436]
 [-0.1782712 ]
 [-0.07743423]
 [-0.93923974]
 [-0.29804775]
 [-1.3575664 ]
 [-0.03962343]
 [ 0.92323595]
 [ 1.3912389 ]
 [-1.5811603 ]
 [ 1.5919186 ]
 [-1.0145671 ]
 [-1.1760688 ]
 [-0.13673803]
 [-0.24581842]
 [-0.4504224 ]
 [-1.5732671 ]]

Layer 4:
[0.05316976]



Entrenamiento 2:
------------------------------------------------------------------------

Layer 0:
[[ 0.          0.          0.         ...  0.          0.1259694
   0.        ]
 [ 0.0111196   0.         -0.07730069 ...  0.          0.
  -0.02546686]
 [-0.06885014 -0.02890131  0.         ... -0.04331749  0.0628354
   0.08622164]
 ...
 [-0.04717151  0.          0.         ...  0.          0.00595135
  -0.00914874]
 [ 0.         -0.08514666 -0.0244992  ...  0.          0.
   0.        ]
 [ 0.02290889  0.02679003  0.         ...  0.02231844 -0.12104519
   0.        ]]

Layer 1:
[[ 0.00064583 -0.01861708 -0.03666219  0.00928062 -0.05478794 -0.06528799
   0.03335992  0.02145567  0.02937338 -0.02075724 -0.05494631 -0.03220208
   0.04596144 -0.02724978 -0.04045607 -0.11704695 -0.03185935 -0.05587648
  -0.14690776 -0.02606251 -0.11035265 -0.0368814  -0.05794165  0.02056258
   0.08106801 -0.11283772 -0.0201096  -0.14658698 -0.0730104  -0.06491859
   0.0394833  -0.00463297 -0.04152845 -0.02228456  0.01856658 -0.04509058
   0.04379786  0.14709094  0.05991289 -0.04234445 -0.00973641  0.00339768
   0.07252678  0.03536883  0.04379962 -0.02044377 -0.1765238  -0.05758633
   0.02791723  0.03504628 -0.2065221   0.01241908  0.08572451 -0.05603988
  -0.07589025  0.12765758  0.09425823  0.01089754 -0.04826437  0.06325573
  -0.03596757 -0.11621081 -0.16401643 -0.06121937  0.00359766  0.04766364
   0.10608287 -0.03803707 -0.04540706  0.09102745  0.0137974   0.04399621
  -0.03888187 -0.00908919  0.04308454 -0.01950479  0.05203365 -0.06923696
   0.09550837 -0.09005343 -0.00374228 -0.03505327 -0.07183167  0.04615679
  -0.0900355  -0.08978112 -0.00739176  0.09702335 -0.06423413  0.03148258
   0.03948447  0.00986254 -0.01453283  0.04038033  0.03052769 -0.01163506
   0.05754639 -0.04335695  0.07870365 -0.00716898]]

Layer 2:
[0. 0. 0. 0. 0. 0. 0. 0. 0. 0. 0. 0. 0. 0. 0. 0. 0. 0. 0. 0. 0. 0. 0. 0.
 0. 0. 0. 0. 0. 0. 0. 0. 0. 0. 0. 0. 0. 0. 0. 0. 0. 0. 0. 0. 0. 0. 0. 0.
 0. 0. 0. 0. 0. 0. 0. 0. 0. 0. 0. 0. 0. 0. 0. 0. 0. 0. 0. 0. 0. 0. 0. 0.
 0. 0. 0. 0. 0. 0. 0. 0. 0. 0. 0. 0. 0. 0. 0. 0. 0. 0. 0. 0. 0. 0. 0. 0.
 0. 0. 0. 0.]

Layer 3:
[[-0.04866727]
 [-0.82159597]
 [-1.1843616 ]
 [ 1.5852149 ]
 [-0.32308513]
 [ 0.16810231]
 [ 0.7762765 ]
 [ 0.16478708]
 [ 0.9549349 ]
 [-1.4018539 ]
 [-0.43303436]
 [-0.68076617]
 [-0.86255306]
 [-2.7033892 ]
 [-1.6502866 ]
 [-0.9184221 ]
 [-0.5532447 ]
 [ 1.3448279 ]
 [ 0.20313206]
 [-2.6761715 ]
 [-0.1106348 ]
 [-0.8642036 ]
 [-0.23596616]
 [ 1.4442503 ]
 [ 0.25346982]
 [-0.30096912]
 [-0.40555778]
 [ 0.4128999 ]
 [-0.57619196]
 [ 1.1316283 ]
 [ 0.34694284]
 [-1.9129705 ]
 [-1.4067296 ]
 [-2.9205213 ]
 [ 2.1400878 ]
 [-0.3217283 ]
 [ 1.3419043 ]
 [-0.02768819]
 [ 0.7989421 ]
 [ 0.4322192 ]
 [-1.2499701 ]
 [ 1.5498204 ]
 [-0.28265804]
 [ 2.1983397 ]
 [ 1.1725674 ]
 [-1.2788138 ]
 [-0.0094278 ]
 [ 0.2907436 ]
 [-1.250101  ]
 [ 2.0929167 ]
 [-0.35071898]
 [ 1.5469469 ]
 [ 0.15605344]
 [-0.29104295]
 [ 0.1507393 ]
 [ 0.26566872]
 [ 0.11666865]
 [ 1.1150254 ]
 [-0.8521843 ]
 [ 0.82496035]
 [-0.6645037 ]
 [-1.2431605 ]
 [ 0.18437958]
 [-0.11153055]
 [ 0.9948509 ]
 [-0.27506012]
 [ 0.1653994 ]
 [-1.8234231 ]
 [-0.15764117]
 [ 0.479725  ]
 [ 1.4087565 ]
 [ 2.330116  ]
 [ 0.2141271 ]
 [-1.8843553 ]
 [-0.19689389]
 [-1.1981484 ]
 [-0.08856018]
 [ 0.7489737 ]
 [ 0.30651307]
 [ 0.0160325 ]
 [-1.4025145 ]
 [-0.4577845 ]
 [ 0.14583404]
 [-0.0592269 ]
 [ 0.21591082]
 [ 0.07556082]
 [-0.8263997 ]
 [-0.17800748]
 [-1.0977718 ]
 [ 0.19633421]
 [ 0.54090804]
 [ 1.4643724 ]
 [-1.6790364 ]
 [ 1.3108809 ]
 [-0.7149359 ]
 [-1.3077469 ]
 [-0.45859823]
 [-0.04041585]
 [-0.48272333]
 [-1.4216306 ]]

Layer 4:
[0.0147991]



Consenso 2:
------------------------------------------------------------------------

Layer 0:
[[ 0.          0.          0.         ...  0.          0.1259694
   0.        ]
 [ 0.0111196   0.         -0.07730069 ...  0.          0.
  -0.02546686]
 [-0.06885014 -0.02890131  0.         ... -0.04331749  0.0628354
   0.08622164]
 ...
 [-0.04717151  0.          0.         ...  0.          0.00595135
  -0.00914874]
 [ 0.         -0.08514666 -0.0244992  ...  0.          0.
   0.        ]
 [ 0.02290889  0.02679003  0.         ...  0.02231844 -0.12104519
   0.        ]]

Layer 1:
[[ 0.00064583 -0.01861708 -0.03666219  0.00928062 -0.05478794 -0.06528799
   0.03335992  0.02145567  0.02937338 -0.02075724 -0.05494631 -0.03220208
   0.04596144 -0.02724978 -0.04045607 -0.11704695 -0.03185935 -0.05587648
  -0.14690776 -0.02606251 -0.11035265 -0.0368814  -0.05794165  0.02056258
   0.08106801 -0.11283772 -0.0201096  -0.14658698 -0.0730104  -0.06491859
   0.0394833  -0.00463297 -0.04152845 -0.02228456  0.01856658 -0.04509058
   0.04379786  0.14709094  0.05991289 -0.04234445 -0.00973641  0.00339768
   0.07252678  0.03536883  0.04379962 -0.02044377 -0.1765238  -0.05758633
   0.02791723  0.03504628 -0.2065221   0.01241908  0.08572451 -0.05603988
  -0.07589025  0.12765758  0.09425823  0.01089754 -0.04826437  0.06325573
  -0.03596757 -0.11621081 -0.16401643 -0.06121937  0.00359766  0.04766364
   0.10608287 -0.03803707 -0.04540706  0.09102745  0.0137974   0.04399621
  -0.03888187 -0.00908919  0.04308454 -0.01950479  0.05203365 -0.06923696
   0.09550837 -0.09005343 -0.00374228 -0.03505327 -0.07183167  0.04615679
  -0.0900355  -0.08978112 -0.00739176  0.09702335 -0.06423413  0.03148258
   0.03948447  0.00986254 -0.01453283  0.04038033  0.03052769 -0.01163506
   0.05754639 -0.04335695  0.07870365 -0.00716898]]

Layer 2:
[0. 0. 0. 0. 0. 0. 0. 0. 0. 0. 0. 0. 0. 0. 0. 0. 0. 0. 0. 0. 0. 0. 0. 0.
 0. 0. 0. 0. 0. 0. 0. 0. 0. 0. 0. 0. 0. 0. 0. 0. 0. 0. 0. 0. 0. 0. 0. 0.
 0. 0. 0. 0. 0. 0. 0. 0. 0. 0. 0. 0. 0. 0. 0. 0. 0. 0. 0. 0. 0. 0. 0. 0.
 0. 0. 0. 0. 0. 0. 0. 0. 0. 0. 0. 0. 0. 0. 0. 0. 0. 0. 0. 0. 0. 0. 0. 0.
 0. 0. 0. 0.]

Layer 3:
[[-3.84576350e-01]
 [-1.31564200e+00]
 [-1.47615767e+00]
 [ 3.01424098e+00]
 [-1.41788334e-01]
 [ 4.06089604e-01]
 [ 8.45574141e-01]
 [ 1.55397326e-01]
 [ 1.40366304e+00]
 [-1.31736243e+00]
 [-3.35009307e-01]
 [-2.10981441e+00]
 [-1.00498629e+00]
 [-3.43975973e+00]
 [-1.73387027e+00]
 [-8.39336812e-01]
 [-6.34075999e-01]
 [ 1.56232178e+00]
 [ 3.07756364e-01]
 [-4.39073896e+00]
 [-3.76809947e-02]
 [-1.10098338e+00]
 [-8.87428448e-02]
 [ 2.43841481e+00]
 [ 1.13388725e-01]
 [-2.71597475e-01]
 [-4.14995342e-01]
 [ 5.24672568e-01]
 [-3.68830085e-01]
 [ 1.39786959e+00]
 [ 3.24527323e-01]
 [-3.47882152e+00]
 [-1.34649551e+00]
 [-4.69454241e+00]
 [ 3.73524332e+00]
 [-1.23876639e-01]
 [ 1.46025217e+00]
 [ 9.13148560e-03]
 [ 5.76512158e-01]
 [ 4.89464372e-01]
 [-2.13603520e+00]
 [ 2.72474265e+00]
 [-6.05681360e-01]
 [ 2.73402238e+00]
 [ 1.52524185e+00]
 [-2.30885768e+00]
 [-1.50622958e-02]
 [ 6.32852554e-01]
 [-1.16372240e+00]
 [ 2.64686275e+00]
 [-4.49029982e-01]
 [ 2.65229011e+00]
 [-1.53452912e-02]
 [-1.39888227e-01]
 [ 3.84870857e-01]
 [ 2.40812808e-01]
 [ 2.69389488e-02]
 [ 1.48516369e+00]
 [-1.08161902e+00]
 [ 5.41705728e-01]
 [-7.93357611e-01]
 [-1.10992467e+00]
 [ 1.30513743e-01]
 [ 6.63938597e-02]
 [ 2.04201460e+00]
 [-4.56157774e-01]
 [ 1.35812943e-03]
 [-2.63336039e+00]
 [-9.38010402e-03]
 [ 4.08017099e-01]
 [ 2.55258298e+00]
 [ 2.97954631e+00]
 [ 2.72949785e-01]
 [-3.33881950e+00]
 [-4.21227157e-01]
 [-1.36341357e+00]
 [-1.45811578e-02]
 [ 9.20011282e-01]
 [ 1.26048565e-01]
 [ 1.02474608e-01]
 [-2.15134025e+00]
 [-4.09815401e-01]
 [ 3.77224654e-01]
 [ 7.35856295e-02]
 [ 4.42471236e-01]
 [ 3.31460088e-01]
 [-1.46274233e+00]
 [-2.91948169e-01]
 [-8.44672143e-01]
 [ 2.00327218e-01]
 [ 8.40471983e-01]
 [ 1.99035656e+00]
 [-2.81956673e+00]
 [ 1.25815630e+00]
 [-7.63633251e-01]
 [-1.98818350e+00]
 [-8.17155957e-01]
 [ 1.24863654e-01]
 [-6.91689253e-01]
 [-2.40652251e+00]]

Layer 4:
[0.20395622]



Entrenamiento 3:
------------------------------------------------------------------------

Layer 0:
[[ 0.          0.          0.         ...  0.          0.1259694
   0.        ]
 [ 0.0111196   0.         -0.07730069 ...  0.          0.
  -0.02546686]
 [-0.06885014 -0.02890131  0.         ... -0.04331749  0.0628354
   0.08622164]
 ...
 [-0.04717151  0.          0.         ...  0.          0.00595135
  -0.00914874]
 [ 0.         -0.08514666 -0.0244992  ...  0.          0.
   0.        ]
 [ 0.02290889  0.02679003  0.         ...  0.02231844 -0.12104519
   0.        ]]

Layer 1:
[[ 0.00064583 -0.01861708 -0.03666219  0.00928062 -0.05478794 -0.06528799
   0.03335992  0.02145567  0.02937338 -0.02075724 -0.05494631 -0.03220208
   0.04596144 -0.02724978 -0.04045607 -0.11704695 -0.03185935 -0.05587648
  -0.14690776 -0.02606251 -0.11035265 -0.0368814  -0.05794165  0.02056258
   0.08106801 -0.11283772 -0.0201096  -0.14658698 -0.0730104  -0.06491859
   0.0394833  -0.00463297 -0.04152845 -0.02228456  0.01856658 -0.04509058
   0.04379786  0.14709094  0.05991289 -0.04234445 -0.00973641  0.00339768
   0.07252678  0.03536883  0.04379962 -0.02044377 -0.1765238  -0.05758633
   0.02791723  0.03504628 -0.2065221   0.01241908  0.08572451 -0.05603988
  -0.07589025  0.12765758  0.09425823  0.01089754 -0.04826437  0.06325573
  -0.03596757 -0.11621081 -0.16401643 -0.06121937  0.00359766  0.04766364
   0.10608287 -0.03803707 -0.04540706  0.09102745  0.0137974   0.04399621
  -0.03888187 -0.00908919  0.04308454 -0.01950479  0.05203365 -0.06923696
   0.09550837 -0.09005343 -0.00374228 -0.03505327 -0.07183167  0.04615679
  -0.0900355  -0.08978112 -0.00739176  0.09702335 -0.06423413  0.03148258
   0.03948447  0.00986254 -0.01453283  0.04038033  0.03052769 -0.01163506
   0.05754639 -0.04335695  0.07870365 -0.00716898]]

Layer 2:
[0. 0. 0. 0. 0. 0. 0. 0. 0. 0. 0. 0. 0. 0. 0. 0. 0. 0. 0. 0. 0. 0. 0. 0.
 0. 0. 0. 0. 0. 0. 0. 0. 0. 0. 0. 0. 0. 0. 0. 0. 0. 0. 0. 0. 0. 0. 0. 0.
 0. 0. 0. 0. 0. 0. 0. 0. 0. 0. 0. 0. 0. 0. 0. 0. 0. 0. 0. 0. 0. 0. 0. 0.
 0. 0. 0. 0. 0. 0. 0. 0. 0. 0. 0. 0. 0. 0. 0. 0. 0. 0. 0. 0. 0. 0. 0. 0.
 0. 0. 0. 0.]

Layer 3:
[[-0.35665354]
 [-1.3994952 ]
 [-1.2629309 ]
 [ 2.7895918 ]
 [-0.22383912]
 [ 0.566659  ]
 [ 0.6339795 ]
 [ 0.302698  ]
 [ 1.1811376 ]
 [-1.5506477 ]
 [-0.42710578]
 [-0.6677687 ]
 [-1.090637  ]
 [-3.0389116 ]
 [-1.5298007 ]
 [-0.99921525]
 [-0.6376874 ]
 [ 1.4558933 ]
 [ 0.13011388]
 [-3.0088832 ]
 [-0.15018594]
 [-0.80767417]
 [ 0.1118928 ]
 [ 2.0609133 ]
 [ 0.32132792]
 [-0.39420807]
 [-0.67636216]
 [ 0.35031474]
 [-0.523124  ]
 [ 1.2931436 ]
 [ 0.20087421]
 [-2.853559  ]
 [-1.1286726 ]
 [-3.4340396 ]
 [ 3.3324952 ]
 [-0.19774386]
 [ 1.1435622 ]
 [ 0.03946566]
 [ 0.46672222]
 [ 0.5098524 ]
 [-2.0877407 ]
 [ 2.1838455 ]
 [-0.6851018 ]
 [ 2.1878295 ]
 [ 1.1682794 ]
 [-2.17513   ]
 [-0.09790915]
 [ 0.8254112 ]
 [-1.1498585 ]
 [ 2.262071  ]
 [-0.35081246]
 [ 2.3809705 ]
 [ 0.20463441]
 [-0.02690933]
 [ 0.37536272]
 [ 0.34048933]
 [ 0.18118687]
 [ 1.6254214 ]
 [-0.5469928 ]
 [ 0.74691683]
 [-0.6052623 ]
 [-1.2095431 ]
 [ 0.14793979]
 [-0.02656953]
 [ 1.8147832 ]
 [-0.230048  ]
 [ 0.14918365]
 [-1.8795375 ]
 [ 0.08174627]
 [ 0.5485948 ]
 [ 2.1322262 ]
 [ 1.9222927 ]
 [ 0.11088011]
 [-3.149642  ]
 [-0.21387476]
 [-1.3274448 ]
 [-0.3048324 ]
 [ 0.7450251 ]
 [ 0.26746583]
 [-0.0962439 ]
 [-2.1072307 ]
 [-0.49400768]
 [ 0.39929217]
 [-0.4088776 ]
 [ 0.61712444]
 [ 0.23065442]
 [-1.401855  ]
 [-0.09823653]
 [-0.7659336 ]
 [ 0.29982263]
 [ 0.40611875]
 [ 2.0601277 ]
 [-2.720834  ]
 [ 1.0701382 ]
 [-0.59853977]
 [-2.0826821 ]
 [-0.74744517]
 [ 0.14361593]
 [-0.5485324 ]
 [-2.2395186 ]]

Layer 4:
[-0.00641334]



Consenso 3:
------------------------------------------------------------------------

Layer 0:
[[ 0.          0.          0.         ...  0.          0.1259694
   0.        ]
 [ 0.0111196   0.         -0.07730069 ...  0.          0.
  -0.02546686]
 [-0.06885014 -0.02890131  0.         ... -0.04331749  0.0628354
   0.08622164]
 ...
 [-0.04717151  0.          0.         ...  0.          0.00595135
  -0.00914874]
 [ 0.         -0.08514666 -0.0244992  ...  0.          0.
   0.        ]
 [ 0.02290889  0.02679003  0.         ...  0.02231844 -0.12104519
   0.        ]]

Layer 1:
[[ 0.00064583 -0.01861708 -0.03666219  0.00928062 -0.05478794 -0.06528799
   0.03335992  0.02145567  0.02937338 -0.02075724 -0.05494631 -0.03220208
   0.04596144 -0.02724978 -0.04045607 -0.11704695 -0.03185935 -0.05587648
  -0.14690776 -0.02606251 -0.11035265 -0.0368814  -0.05794165  0.02056258
   0.08106801 -0.11283772 -0.0201096  -0.14658698 -0.0730104  -0.06491859
   0.0394833  -0.00463297 -0.04152845 -0.02228456  0.01856658 -0.04509058
   0.04379786  0.14709094  0.05991289 -0.04234445 -0.00973641  0.00339768
   0.07252678  0.03536883  0.04379962 -0.02044377 -0.1765238  -0.05758633
   0.02791723  0.03504628 -0.2065221   0.01241908  0.08572451 -0.05603988
  -0.07589025  0.12765758  0.09425823  0.01089754 -0.04826437  0.06325573
  -0.03596757 -0.11621081 -0.16401643 -0.06121937  0.00359766  0.04766364
   0.10608287 -0.03803707 -0.04540706  0.09102745  0.0137974   0.04399621
  -0.03888187 -0.00908919  0.04308454 -0.01950479  0.05203365 -0.06923696
   0.09550837 -0.09005343 -0.00374228 -0.03505327 -0.07183167  0.04615679
  -0.0900355  -0.08978112 -0.00739176  0.09702335 -0.06423413  0.03148258
   0.03948447  0.00986254 -0.01453283  0.04038033  0.03052769 -0.01163506
   0.05754639 -0.04335695  0.07870365 -0.00716898]]

Layer 2:
[0. 0. 0. 0. 0. 0. 0. 0. 0. 0. 0. 0. 0. 0. 0. 0. 0. 0. 0. 0. 0. 0. 0. 0.
 0. 0. 0. 0. 0. 0. 0. 0. 0. 0. 0. 0. 0. 0. 0. 0. 0. 0. 0. 0. 0. 0. 0. 0.
 0. 0. 0. 0. 0. 0. 0. 0. 0. 0. 0. 0. 0. 0. 0. 0. 0. 0. 0. 0. 0. 0. 0. 0.
 0. 0. 0. 0. 0. 0. 0. 0. 0. 0. 0. 0. 0. 0. 0. 0. 0. 0. 0. 0. 0. 0. 0. 0.
 0. 0. 0. 0.]

Layer 3:
[[-0.6962131 ]
 [-1.9416363 ]
 [-1.4844602 ]
 [ 4.0798817 ]
 [-0.01853142]
 [ 0.86645776]
 [ 0.59652835]
 [ 0.3772133 ]
 [ 1.5381929 ]
 [-1.4727918 ]
 [-0.39494404]
 [-1.9711032 ]
 [-1.3522922 ]
 [-3.5577075 ]
 [-1.5395983 ]
 [-1.0052916 ]
 [-0.6825644 ]
 [ 1.6669304 ]
 [ 0.21650472]
 [-4.695267  ]
 [-0.1882146 ]
 [-0.9178085 ]
 [ 0.35313994]
 [ 2.8782725 ]
 [ 0.25938168]
 [-0.48627412]
 [-0.74061716]
 [ 0.44612968]
 [-0.32352066]
 [ 1.5814916 ]
 [ 0.0484112 ]
 [-4.477862  ]
 [-0.9244897 ]
 [-5.2251954 ]
 [ 4.830086  ]
 [ 0.05066321]
 [ 1.1427419 ]
 [ 0.26490405]
 [ 0.17423715]
 [ 0.49944985]
 [-2.9270773 ]
 [ 3.3258345 ]
 [-1.1746539 ]
 [ 2.5874038 ]
 [ 1.4504519 ]
 [-3.1409423 ]
 [-0.24901971]
 [ 1.3064873 ]
 [-1.0871993 ]
 [ 2.6226528 ]
 [-0.70977336]
 [ 3.3856688 ]
 [ 0.0914986 ]
 [ 0.14818637]
 [ 0.6500201 ]
 [ 0.47794017]
 [ 0.18165399]
 [ 2.0120795 ]
 [-0.6480199 ]
 [ 0.4279276 ]
 [-0.6147451 ]
 [-1.0560266 ]
 [-0.13132064]
 [ 0.12414413]
 [ 2.819148  ]
 [-0.37234563]
 [-0.02264231]
 [-2.4399843 ]
 [ 0.38553065]
 [ 0.55909103]
 [ 3.1329622 ]
 [ 2.407664  ]
 [ 0.08236998]
 [-4.517439  ]
 [-0.4774942 ]
 [-1.5280132 ]
 [-0.39051253]
 [ 0.88724494]
 [ 0.06512231]
 [-0.10018022]
 [-2.8506    ]
 [-0.44696307]
 [ 0.74346036]
 [-0.3796713 ]
 [ 0.9009479 ]
 [ 0.4897839 ]
 [-1.9377275 ]
 [-0.15191513]
 [-0.47443783]
 [ 0.357984  ]
 [ 0.56227326]
 [ 2.5434983 ]
 [-3.8788908 ]
 [ 0.9222343 ]
 [-0.5673406 ]
 [-2.7416666 ]
 [-1.1726296 ]
 [ 0.4012139 ]
 [-0.74179333]
 [-3.2104394 ]]

Layer 4:
[0.15640336]



Entrenamiento 4:
------------------------------------------------------------------------

Layer 0:
[[ 0.          0.          0.         ...  0.          0.1259694
   0.        ]
 [ 0.0111196   0.         -0.07730069 ...  0.          0.
  -0.02546686]
 [-0.06885014 -0.02890131  0.         ... -0.04331749  0.0628354
   0.08622164]
 ...
 [-0.04717151  0.          0.         ...  0.          0.00595135
  -0.00914874]
 [ 0.         -0.08514666 -0.0244992  ...  0.          0.
   0.        ]
 [ 0.02290889  0.02679003  0.         ...  0.02231844 -0.12104519
   0.        ]]

Layer 1:
[[ 0.00064583 -0.01861708 -0.03666219  0.00928062 -0.05478794 -0.06528799
   0.03335992  0.02145567  0.02937338 -0.02075724 -0.05494631 -0.03220208
   0.04596144 -0.02724978 -0.04045607 -0.11704695 -0.03185935 -0.05587648
  -0.14690776 -0.02606251 -0.11035265 -0.0368814  -0.05794165  0.02056258
   0.08106801 -0.11283772 -0.0201096  -0.14658698 -0.0730104  -0.06491859
   0.0394833  -0.00463297 -0.04152845 -0.02228456  0.01856658 -0.04509058
   0.04379786  0.14709094  0.05991289 -0.04234445 -0.00973641  0.00339768
   0.07252678  0.03536883  0.04379962 -0.02044377 -0.1765238  -0.05758633
   0.02791723  0.03504628 -0.2065221   0.01241908  0.08572451 -0.05603988
  -0.07589025  0.12765758  0.09425823  0.01089754 -0.04826437  0.06325573
  -0.03596757 -0.11621081 -0.16401643 -0.06121937  0.00359766  0.04766364
   0.10608287 -0.03803707 -0.04540706  0.09102745  0.0137974   0.04399621
  -0.03888187 -0.00908919  0.04308454 -0.01950479  0.05203365 -0.06923696
   0.09550837 -0.09005343 -0.00374228 -0.03505327 -0.07183167  0.04615679
  -0.0900355  -0.08978112 -0.00739176  0.09702335 -0.06423413  0.03148258
   0.03948447  0.00986254 -0.01453283  0.04038033  0.03052769 -0.01163506
   0.05754639 -0.04335695  0.07870365 -0.00716898]]

Layer 2:
[0. 0. 0. 0. 0. 0. 0. 0. 0. 0. 0. 0. 0. 0. 0. 0. 0. 0. 0. 0. 0. 0. 0. 0.
 0. 0. 0. 0. 0. 0. 0. 0. 0. 0. 0. 0. 0. 0. 0. 0. 0. 0. 0. 0. 0. 0. 0. 0.
 0. 0. 0. 0. 0. 0. 0. 0. 0. 0. 0. 0. 0. 0. 0. 0. 0. 0. 0. 0. 0. 0. 0. 0.
 0. 0. 0. 0. 0. 0. 0. 0. 0. 0. 0. 0. 0. 0. 0. 0. 0. 0. 0. 0. 0. 0. 0. 0.
 0. 0. 0. 0.]

Layer 3:
[[-0.62720394]
 [-1.8580863 ]
 [-1.225581  ]
 [ 3.9406176 ]
 [-0.15620868]
 [ 0.87447244]
 [ 0.43972707]
 [ 0.35323992]
 [ 1.2699273 ]
 [-1.687239  ]
 [-0.38480827]
 [-0.509102  ]
 [-1.2438903 ]
 [-3.2212586 ]
 [-1.3562638 ]
 [-1.0803547 ]
 [-0.66556424]
 [ 1.4918045 ]
 [ 0.02652197]
 [-3.1877434 ]
 [-0.15678836]
 [-0.6312612 ]
 [ 0.39615527]
 [ 2.5589292 ]
 [ 0.38008967]
 [-0.4278967 ]
 [-0.9041744 ]
 [ 0.21842772]
 [-0.5478509 ]
 [ 1.3305001 ]
 [ 0.05783953]
 [-3.787428  ]
 [-0.87290764]
 [-3.6906443 ]
 [ 4.254501  ]
 [-0.15214123]
 [ 0.8796319 ]
 [-0.04085745]
 [ 0.2713708 ]
 [ 0.6822642 ]
 [-2.8495548 ]
 [ 2.823604  ]
 [-0.88244015]
 [ 1.9940443 ]
 [ 1.0201997 ]
 [-2.9091864 ]
 [-0.12811777]
 [ 1.1915909 ]
 [-1.1189047 ]
 [ 2.3052452 ]
 [-0.13017787]
 [ 3.1550877 ]
 [ 0.25241542]
 [ 0.23294881]
 [ 0.49805963]
 [ 0.32692412]
 [ 0.23665385]
 [ 2.0966434 ]
 [-0.16967554]
 [ 0.8199042 ]
 [-0.49535954]
 [-1.2435635 ]
 [ 0.28625962]
 [ 0.02174425]
 [ 2.5738378 ]
 [-0.18238996]
 [ 0.20005827]
 [-1.6100336 ]
 [ 0.24122234]
 [ 0.5979606 ]
 [ 2.811163  ]
 [ 1.4521272 ]
 [ 0.07873588]
 [-4.319891  ]
 [-0.13933867]
 [-1.3387136 ]
 [-0.5107338 ]
 [ 0.7056912 ]
 [ 0.30321768]
 [-0.2035074 ]
 [-2.6974602 ]
 [-0.50239164]
 [ 0.529636  ]
 [-0.7643857 ]
 [ 0.905984  ]
 [ 0.24473007]
 [-1.95325   ]
 [ 0.02076477]
 [-0.5349952 ]
 [ 0.31422713]
 [ 0.1818476 ]
 [ 2.6029558 ]
 [-3.6264486 ]
 [ 0.8435712 ]
 [-0.5585339 ]
 [-2.7831779 ]
 [-0.82686424]
 [ 0.2745703 ]
 [-0.5236746 ]
 [-3.0877461 ]]

Layer 4:
[-0.02995312]



Consenso 4:
------------------------------------------------------------------------

Layer 0:
[[ 0.          0.          0.         ...  0.          0.1259694
   0.        ]
 [ 0.0111196   0.         -0.07730069 ...  0.          0.
  -0.02546686]
 [-0.06885014 -0.02890131  0.         ... -0.04331749  0.0628354
   0.08622164]
 ...
 [-0.04717151  0.          0.         ...  0.          0.00595135
  -0.00914874]
 [ 0.         -0.08514666 -0.0244992  ...  0.          0.
   0.        ]
 [ 0.02290889  0.02679003  0.         ...  0.02231844 -0.12104519
   0.        ]]

Layer 1:
[[ 0.00064583 -0.01861708 -0.03666219  0.00928062 -0.05478794 -0.06528799
   0.03335992  0.02145567  0.02937338 -0.02075724 -0.05494631 -0.03220208
   0.04596144 -0.02724978 -0.04045607 -0.11704695 -0.03185935 -0.05587648
  -0.14690776 -0.02606251 -0.11035265 -0.0368814  -0.05794165  0.02056258
   0.08106801 -0.11283772 -0.0201096  -0.14658698 -0.0730104  -0.06491859
   0.0394833  -0.00463297 -0.04152845 -0.02228456  0.01856658 -0.04509058
   0.04379786  0.14709094  0.05991289 -0.04234445 -0.00973641  0.00339768
   0.07252678  0.03536883  0.04379962 -0.02044377 -0.1765238  -0.05758633
   0.02791723  0.03504628 -0.2065221   0.01241908  0.08572451 -0.05603988
  -0.07589025  0.12765758  0.09425823  0.01089754 -0.04826437  0.06325573
  -0.03596757 -0.11621081 -0.16401643 -0.06121937  0.00359766  0.04766364
   0.10608287 -0.03803707 -0.04540706  0.09102745  0.0137974   0.04399621
  -0.03888187 -0.00908919  0.04308454 -0.01950479  0.05203365 -0.06923696
   0.09550837 -0.09005343 -0.00374228 -0.03505327 -0.07183167  0.04615679
  -0.0900355  -0.08978112 -0.00739176  0.09702335 -0.06423413  0.03148258
   0.03948447  0.00986254 -0.01453283  0.04038033  0.03052769 -0.01163506
   0.05754639 -0.04335695  0.07870365 -0.00716898]]

Layer 2:
[0. 0. 0. 0. 0. 0. 0. 0. 0. 0. 0. 0. 0. 0. 0. 0. 0. 0. 0. 0. 0. 0. 0. 0.
 0. 0. 0. 0. 0. 0. 0. 0. 0. 0. 0. 0. 0. 0. 0. 0. 0. 0. 0. 0. 0. 0. 0. 0.
 0. 0. 0. 0. 0. 0. 0. 0. 0. 0. 0. 0. 0. 0. 0. 0. 0. 0. 0. 0. 0. 0. 0. 0.
 0. 0. 0. 0. 0. 0. 0. 0. 0. 0. 0. 0. 0. 0. 0. 0. 0. 0. 0. 0. 0. 0. 0. 0.
 0. 0. 0. 0.]

Layer 3:
[[-9.63195622e-01]
 [-2.42287755e+00]
 [-1.39364874e+00]
 [ 5.14649487e+00]
 [ 4.52777483e-02]
 [ 1.19142354e+00]
 [ 3.41419160e-01]
 [ 4.81357753e-01]
 [ 1.56063294e+00]
 [-1.61954248e+00]
 [-3.89245063e-01]
 [-1.60311592e+00]
 [-1.56251669e+00]
 [-3.60548019e+00]
 [-1.31784534e+00]
 [-1.13505375e+00]
 [-6.90073729e-01]
 [ 1.68703270e+00]
 [ 8.21975768e-02]
 [-4.73086071e+00]
 [-2.56053567e-01]
 [-6.62584245e-01]
 [ 6.83001339e-01]
 [ 3.25822854e+00]
 [ 3.73306364e-01]
 [-5.79281449e-01]
 [-9.96593833e-01]
 [ 2.94905692e-01]
 [-3.68647784e-01]
 [ 1.61183178e+00]
 [-1.64668858e-01]
 [-5.39915705e+00]
 [-5.94736457e-01]
 [-5.40878344e+00]
 [ 5.66348028e+00]
 [ 1.10527612e-01]
 [ 8.07776630e-01]
 [ 2.75405496e-01]
 [-4.52681817e-02]
 [ 6.33114815e-01]
 [-3.65800691e+00]
 [ 3.93425918e+00]
 [-1.43428206e+00]
 [ 2.29207850e+00]
 [ 1.24295545e+00]
 [-3.81924343e+00]
 [-3.50509197e-01]
 [ 1.71916521e+00]
 [-1.07134330e+00]
 [ 2.53996205e+00]
 [-6.11878216e-01]
 [ 4.10208464e+00]
 [ 1.95223972e-01]
 [ 4.12789017e-01]
 [ 7.77319074e-01]
 [ 5.48153102e-01]
 [ 2.85828710e-01]
 [ 2.49607515e+00]
 [-1.73911542e-01]
 [ 5.01033604e-01]
 [-4.34044152e-01]
 [-1.09738433e+00]
 [-1.01659119e-01]
 [ 1.48442924e-01]
 [ 3.53643417e+00]
 [-2.88098633e-01]
 [ 4.21504602e-02]
 [-1.99902987e+00]
 [ 6.18732631e-01]
 [ 6.48212850e-01]
 [ 3.69031262e+00]
 [ 1.76122367e+00]
 [ 5.21276752e-03]
 [-5.63019323e+00]
 [-4.09471065e-01]
 [-1.55687761e+00]
 [-6.94490731e-01]
 [ 8.20770204e-01]
 [ 1.08721785e-01]
 [-2.56854862e-01]
 [-3.43227959e+00]
 [-4.56778675e-01]
 [ 9.13713515e-01]
 [-8.22946072e-01]
 [ 1.20241535e+00]
 [ 4.88930702e-01]
 [-2.43462920e+00]
 [ 2.99090025e-04]
 [-2.39785522e-01]
 [ 3.98656815e-01]
 [ 2.36971617e-01]
 [ 3.06057954e+00]
 [-4.78933716e+00]
 [ 6.44378006e-01]
 [-4.82057989e-01]
 [-3.41924453e+00]
 [-1.26280749e+00]
 [ 5.72367668e-01]
 [-6.95201218e-01]
 [-4.03561449e+00]]

Layer 4:
[0.04751137]



Entrenamiento 5:
------------------------------------------------------------------------

Layer 0:
[[ 0.          0.          0.         ...  0.          0.1259694
   0.        ]
 [ 0.0111196   0.         -0.07730069 ...  0.          0.
  -0.02546686]
 [-0.06885014 -0.02890131  0.         ... -0.04331749  0.0628354
   0.08622164]
 ...
 [-0.04717151  0.          0.         ...  0.          0.00595135
  -0.00914874]
 [ 0.         -0.08514666 -0.0244992  ...  0.          0.
   0.        ]
 [ 0.02290889  0.02679003  0.         ...  0.02231844 -0.12104519
   0.        ]]

Layer 1:
[[ 0.00064583 -0.01861708 -0.03666219  0.00928062 -0.05478794 -0.06528799
   0.03335992  0.02145567  0.02937338 -0.02075724 -0.05494631 -0.03220208
   0.04596144 -0.02724978 -0.04045607 -0.11704695 -0.03185935 -0.05587648
  -0.14690776 -0.02606251 -0.11035265 -0.0368814  -0.05794165  0.02056258
   0.08106801 -0.11283772 -0.0201096  -0.14658698 -0.0730104  -0.06491859
   0.0394833  -0.00463297 -0.04152845 -0.02228456  0.01856658 -0.04509058
   0.04379786  0.14709094  0.05991289 -0.04234445 -0.00973641  0.00339768
   0.07252678  0.03536883  0.04379962 -0.02044377 -0.1765238  -0.05758633
   0.02791723  0.03504628 -0.2065221   0.01241908  0.08572451 -0.05603988
  -0.07589025  0.12765758  0.09425823  0.01089754 -0.04826437  0.06325573
  -0.03596757 -0.11621081 -0.16401643 -0.06121937  0.00359766  0.04766364
   0.10608287 -0.03803707 -0.04540706  0.09102745  0.0137974   0.04399621
  -0.03888187 -0.00908919  0.04308454 -0.01950479  0.05203365 -0.06923696
   0.09550837 -0.09005343 -0.00374228 -0.03505327 -0.07183167  0.04615679
  -0.0900355  -0.08978112 -0.00739176  0.09702335 -0.06423413  0.03148258
   0.03948447  0.00986254 -0.01453283  0.04038033  0.03052769 -0.01163506
   0.05754639 -0.04335695  0.07870365 -0.00716898]]

Layer 2:
[0. 0. 0. 0. 0. 0. 0. 0. 0. 0. 0. 0. 0. 0. 0. 0. 0. 0. 0. 0. 0. 0. 0. 0.
 0. 0. 0. 0. 0. 0. 0. 0. 0. 0. 0. 0. 0. 0. 0. 0. 0. 0. 0. 0. 0. 0. 0. 0.
 0. 0. 0. 0. 0. 0. 0. 0. 0. 0. 0. 0. 0. 0. 0. 0. 0. 0. 0. 0. 0. 0. 0. 0.
 0. 0. 0. 0. 0. 0. 0. 0. 0. 0. 0. 0. 0. 0. 0. 0. 0. 0. 0. 0. 0. 0. 0. 0.
 0. 0. 0. 0.]

Layer 3:
[[-0.8713194 ]
 [-2.2550998 ]
 [-1.1346776 ]
 [ 5.0705676 ]
 [-0.12390672]
 [ 1.0989331 ]
 [ 0.23402652]
 [ 0.37272546]
 [ 1.2895725 ]
 [-1.813555  ]
 [-0.32993522]
 [-0.21041647]
 [-1.3420738 ]
 [-3.3333426 ]
 [-1.1672047 ]
 [-1.1657805 ]
 [-0.6697841 ]
 [ 1.4741954 ]
 [-0.1127033 ]
 [-3.2414649 ]
 [-0.15447673]
 [-0.4055161 ]
 [ 0.62357813]
 [ 2.9968154 ]
 [ 0.44733033]
 [-0.4296879 ]
 [-1.0973178 ]
 [ 0.04296285]
 [-0.62770015]
 [ 1.281649  ]
 [-0.06962266]
 [-4.708374  ]
 [-0.6530461 ]
 [-3.8129346 ]
 [ 5.018734  ]
 [-0.16213211]
 [ 0.60279244]
 [-0.19194116]
 [ 0.17462869]
 [ 0.88712126]
 [-3.5705867 ]
 [ 3.4826896 ]
 [-0.9330871 ]
 [ 1.7134366 ]
 [ 0.8107013 ]
 [-3.5470984 ]
 [-0.12681554]
 [ 1.4201374 ]
 [-1.1203192 ]
 [ 2.2907877 ]
 [ 0.19193889]
 [ 3.9127393 ]
 [ 0.3251588 ]
 [ 0.46521112]
 [ 0.5428766 ]
 [ 0.27512878]
 [ 0.2892677 ]
 [ 2.5465639 ]
 [ 0.23000164]
 [ 0.9828789 ]
 [-0.37102744]
 [-1.335504  ]
 [ 0.5063555 ]
 [ 0.03845009]
 [ 3.294922  ]
 [-0.12244799]
 [ 0.30321336]
 [-1.1765248 ]
 [ 0.3465751 ]
 [ 0.633301  ]
 [ 3.4487295 ]
 [ 0.92687976]
 [ 0.08525006]
 [-5.4396405 ]
 [-0.01135021]
 [-1.2988945 ]
 [-0.70079273]
 [ 0.6379715 ]
 [ 0.39609995]
 [-0.30678132]
 [-3.2231631 ]
 [-0.49849454]
 [ 0.56887954]
 [-1.1182958 ]
 [ 1.0953051 ]
 [ 0.16500379]
 [-2.4987528 ]
 [ 0.15722288]
 [-0.38808352]
 [ 0.2827286 ]
 [-0.07813033]
 [ 3.1134458 ]
 [-4.4671035 ]
 [ 0.6422855 ]
 [-0.55567586]
 [-3.4297416 ]
 [-0.7707992 ]
 [ 0.36168748]
 [-0.43898287]
 [-3.9498084 ]]

Layer 4:
[-0.00241198]



