Pesos inciales:
------------------------------------------------------------------------

Layer 0:
[[-0.          0.          0.         ... -0.          0.
   0.        ]
 [-0.         -0.          0.         ...  0.          0.
  -0.        ]
 [-0.         -0.          0.         ...  0.         -0.
   0.        ]
 ...
 [-0.          0.         -0.         ...  0.          0.
  -0.70939267]
 [-0.         -0.         -0.         ...  0.          0.7421668
   0.        ]
 [-0.          0.          0.         ...  0.         -0.
  -0.        ]]

Layer 1:
[[ 1.78653002e-02 -1.92793533e-01 -3.60790789e-02 -1.46647558e-01
   3.36189181e-01 -2.70376742e-01 -2.00407445e-01 -2.54969478e-01
  -1.66668504e-01  8.54273438e-02  1.93629295e-01  1.53012246e-01
  -1.53016016e-01 -2.79830158e-01  2.89922953e-03  6.60269856e-02
  -2.84405977e-01  2.62436837e-01  3.19104999e-01 -1.04028806e-01
  -7.03755617e-02 -9.08565819e-02  2.05382079e-01 -4.66448069e-02
   1.21613950e-01  2.62283117e-01  2.98918873e-01 -1.92649856e-01
  -6.81574345e-02  2.66783386e-01  4.28283215e-03 -4.39510643e-02
  -5.49562871e-02  1.60424113e-02  2.88466603e-01  6.48957789e-02
  -1.07435703e-01  3.51057649e-02  1.23791158e-01  1.85235411e-01
  -5.67252934e-02  2.80667812e-01  1.12818092e-01  2.78833061e-01
  -2.13078216e-01 -1.02594793e-02  3.03126782e-01  3.33815813e-04
   1.31042004e-01  9.85889137e-02]]

Layer 2:
[0. 0. 0. 0. 0. 0. 0. 0. 0. 0. 0. 0. 0. 0. 0. 0. 0. 0. 0. 0. 0. 0. 0. 0.
 0. 0. 0. 0. 0. 0. 0. 0. 0. 0. 0. 0. 0. 0. 0. 0. 0. 0. 0. 0. 0. 0. 0. 0.
 0. 0.]

Layer 3:
[[ 0.03320166]
 [ 0.18005022]
 [-0.27301905]
 [-0.18217152]
 [ 0.25186893]
 [-0.3066995 ]
 [ 0.08725432]
 [ 0.14329422]
 [-0.31059986]
 [ 0.2584984 ]
 [ 0.26481262]
 [-0.1061994 ]
 [ 0.22685775]
 [ 0.05269113]
 [ 0.00063124]
 [ 0.07232618]
 [ 0.06204012]
 [ 0.09464213]
 [-0.24759328]
 [ 0.2890179 ]
 [ 0.30282363]
 [-0.12876606]
 [-0.2845037 ]
 [-0.02883053]
 [-0.20073497]
 [-0.10341351]
 [ 0.01502773]
 [ 0.08889017]
 [ 0.02872643]
 [ 0.25128528]
 [-0.18522729]
 [ 0.20331618]
 [-0.19236477]
 [ 0.31983444]
 [-0.04245406]
 [ 0.19699964]
 [-0.3151158 ]
 [ 0.07799405]
 [-0.2187025 ]
 [ 0.25094816]
 [ 0.30874684]
 [ 0.1464648 ]
 [-0.15358616]
 [ 0.20901343]
 [ 0.2942411 ]
 [-0.01390094]
 [-0.21687691]
 [ 0.1153464 ]
 [ 0.00773323]
 [-0.15968779]]

Layer 4:
[0.]



Entrenamiento 0:
------------------------------------------------------------------------

Layer 0:
[[-0.          0.          0.         ... -0.          0.
   0.        ]
 [-0.         -0.          0.         ...  0.          0.
  -0.        ]
 [-0.         -0.          0.         ...  0.         -0.
   0.        ]
 ...
 [-0.          0.         -0.         ...  0.          0.
  -0.70939267]
 [-0.         -0.         -0.         ...  0.          0.7421668
   0.        ]
 [-0.          0.          0.         ...  0.         -0.
  -0.        ]]

Layer 1:
[[ 1.78653002e-02 -1.92793533e-01 -3.60790789e-02 -1.46647558e-01
   3.36189181e-01 -2.70376742e-01 -2.00407445e-01 -2.54969478e-01
  -1.66668504e-01  8.54273438e-02  1.93629295e-01  1.53012246e-01
  -1.53016016e-01 -2.79830158e-01  2.89922953e-03  6.60269856e-02
  -2.84405977e-01  2.62436837e-01  3.19104999e-01 -1.04028806e-01
  -7.03755617e-02 -9.08565819e-02  2.05382079e-01 -4.66448069e-02
   1.21613950e-01  2.62283117e-01  2.98918873e-01 -1.92649856e-01
  -6.81574345e-02  2.66783386e-01  4.28283215e-03 -4.39510643e-02
  -5.49562871e-02  1.60424113e-02  2.88466603e-01  6.48957789e-02
  -1.07435703e-01  3.51057649e-02  1.23791158e-01  1.85235411e-01
  -5.67252934e-02  2.80667812e-01  1.12818092e-01  2.78833061e-01
  -2.13078216e-01 -1.02594793e-02  3.03126782e-01  3.33815813e-04
   1.31042004e-01  9.85889137e-02]]

Layer 2:
[0. 0. 0. 0. 0. 0. 0. 0. 0. 0. 0. 0. 0. 0. 0. 0. 0. 0. 0. 0. 0. 0. 0. 0.
 0. 0. 0. 0. 0. 0. 0. 0. 0. 0. 0. 0. 0. 0. 0. 0. 0. 0. 0. 0. 0. 0. 0. 0.
 0. 0.]

Layer 3:
[[ 1.241268  ]
 [-1.1516957 ]
 [-5.4388638 ]
 [-0.6875966 ]
 [ 0.85949653]
 [-0.3935801 ]
 [-0.83501947]
 [-0.0253556 ]
 [-1.0526158 ]
 [ 1.2366176 ]
 [ 1.361707  ]
 [ 0.6607759 ]
 [-0.21338312]
 [-0.12268831]
 [ 1.3819423 ]
 [ 0.7809332 ]
 [-0.08412615]
 [ 0.47021535]
 [ 0.43511853]
 [-0.287021  ]
 [-2.4964569 ]
 [-1.0598943 ]
 [ 0.02609985]
 [-4.0651984 ]
 [ 0.3139149 ]
 [ 0.09392915]
 [ 0.29599312]
 [-0.5085805 ]
 [-2.6128428 ]
 [ 0.9268209 ]
 [-0.30046862]
 [-1.0750697 ]
 [-1.6111109 ]
 [ 1.7670814 ]
 [ 0.61796093]
 [ 3.6068208 ]
 [-0.91483665]
 [ 3.554947  ]
 [ 0.22554636]
 [ 1.3649065 ]
 [-1.5588167 ]
 [ 0.8339639 ]
 [ 2.4189987 ]
 [ 0.60201544]
 [-0.04773673]
 [-0.7698934 ]
 [-0.02442894]
 [ 4.083848  ]
 [ 0.9342679 ]
 [ 1.3593711 ]]

Layer 4:
[0.6903032]



Entrenamiento 0 WITH NO CONSENSUS:
------------------------------------------------------------------------

Layer 0:
[[-0.          0.          0.         ... -0.          0.
   0.        ]
 [-0.         -0.          0.         ...  0.          0.
  -0.        ]
 [-0.         -0.          0.         ...  0.         -0.
   0.        ]
 ...
 [-0.          0.         -0.         ...  0.          0.
  -0.70939267]
 [-0.         -0.         -0.         ...  0.          0.7421668
   0.        ]
 [-0.          0.          0.         ...  0.         -0.
  -0.        ]]

Layer 1:
[[ 1.78653002e-02 -1.92793533e-01 -3.60790789e-02 -1.46647558e-01
   3.36189181e-01 -2.70376742e-01 -2.00407445e-01 -2.54969478e-01
  -1.66668504e-01  8.54273438e-02  1.93629295e-01  1.53012246e-01
  -1.53016016e-01 -2.79830158e-01  2.89922953e-03  6.60269856e-02
  -2.84405977e-01  2.62436837e-01  3.19104999e-01 -1.04028806e-01
  -7.03755617e-02 -9.08565819e-02  2.05382079e-01 -4.66448069e-02
   1.21613950e-01  2.62283117e-01  2.98918873e-01 -1.92649856e-01
  -6.81574345e-02  2.66783386e-01  4.28283215e-03 -4.39510643e-02
  -5.49562871e-02  1.60424113e-02  2.88466603e-01  6.48957789e-02
  -1.07435703e-01  3.51057649e-02  1.23791158e-01  1.85235411e-01
  -5.67252934e-02  2.80667812e-01  1.12818092e-01  2.78833061e-01
  -2.13078216e-01 -1.02594793e-02  3.03126782e-01  3.33815813e-04
   1.31042004e-01  9.85889137e-02]]

Layer 2:
[0. 0. 0. 0. 0. 0. 0. 0. 0. 0. 0. 0. 0. 0. 0. 0. 0. 0. 0. 0. 0. 0. 0. 0.
 0. 0. 0. 0. 0. 0. 0. 0. 0. 0. 0. 0. 0. 0. 0. 0. 0. 0. 0. 0. 0. 0. 0. 0.
 0. 0.]

Layer 3:
[[ 1.23505032e+00]
 [-1.14573491e+00]
 [-5.43434668e+00]
 [-6.70238912e-01]
 [ 8.45462084e-01]
 [-3.74015629e-01]
 [-8.23826075e-01]
 [-5.25040273e-03]
 [-1.03912079e+00]
 [ 1.22509325e+00]
 [ 1.35139954e+00]
 [ 6.47186160e-01]
 [-1.97528586e-01]
 [-1.02936834e-01]
 [ 1.37871659e+00]
 [ 7.66903937e-01]
 [-6.41680658e-02]
 [ 4.51519608e-01]
 [ 4.20586467e-01]
 [-2.70859450e-01]
 [-2.50152183e+00]
 [-1.04814076e+00]
 [ 8.30090046e-03]
 [-4.07469320e+00]
 [ 2.98069417e-01]
 [ 7.48781636e-02]
 [ 2.77638197e-01]
 [-4.93696570e-01]
 [-2.61810398e+00]
 [ 9.13220108e-01]
 [-2.72545338e-01]
 [-1.06878507e+00]
 [-1.60640883e+00]
 [ 1.76333714e+00]
 [ 6.03309631e-01]
 [ 3.61362815e+00]
 [-8.99206161e-01]
 [ 3.56327462e+00]
 [ 2.08869055e-01]
 [ 1.35450137e+00]
 [-1.55825186e+00]
 [ 8.19721162e-01]
 [ 2.42477059e+00]
 [ 5.84943235e-01]
 [-2.98952721e-02]
 [-7.55998731e-01]
 [-4.39067036e-02]
 [ 4.09797144e+00]
 [ 9.24493194e-01]
 [ 1.35474098e+00]]

Layer 4:
[0.7019942]



