:
------------------------------------------------------------------------



Entrenamiento 0:
------------------------------------------------------------------------

Layer 0:
[[ 0.          0.         -0.         ...  0.         -0.
  -0.        ]
 [ 0.          0.         -0.         ...  0.          0.
  -0.        ]
 [ 0.         -0.         -0.         ... -0.         -0.
  -0.        ]
 ...
 [-0.         -0.          0.         ...  0.         -0.
   0.        ]
 [ 0.31848782  0.         -0.         ...  0.          0.
  -0.        ]
 [-0.         -0.         -0.         ...  0.          0.
   0.        ]]

Layer 1:
[[-0.17412806  0.0807291  -0.09317882 -0.1626289  -0.0962434   0.1899755
  -0.14980513  0.14453751  0.15572658  0.19600755 -0.17275856  0.20151642
   0.05214825  0.0315094  -0.20393598 -0.24147552  0.10026553 -0.0118538
  -0.19170795 -0.18509021  0.21971962  0.19219056  0.01784721 -0.1360091
   0.03074414 -0.23429206  0.0699482  -0.12380815  0.10053331 -0.08657044
  -0.14397198  0.01425928 -0.08273666  0.03340089  0.19497794  0.1583586
   0.16420749  0.11713323 -0.02175781  0.11117545 -0.14428474 -0.1279595
  -0.1708816  -0.00858659 -0.19910514  0.16276994  0.07602802 -0.15966323
   0.12871292  0.06887048  0.20392954 -0.04242082 -0.24361812 -0.21008042
   0.06117544 -0.09079537 -0.05941752  0.03479818  0.05948487  0.23581257
  -0.11865856 -0.19815683 -0.11861224 -0.1413751   0.17013237 -0.16881943
   0.02019614 -0.08507031 -0.08489953 -0.07767969  0.0335857  -0.04269092
   0.17419633 -0.13431843 -0.00867358 -0.0486927  -0.22445923 -0.14734606
   0.06708944  0.19080096 -0.07830729  0.23617741  0.1422027  -0.22329447
  -0.20986483  0.11625901 -0.05912866  0.01050726 -0.010859    0.01146016
  -0.05533449  0.09442252 -0.08813001  0.04445335  0.08027828  0.190429
  -0.11641851  0.20492083 -0.12351974  0.02356213]]

Layer 2:
[0. 0. 0. 0. 0. 0. 0. 0. 0. 0. 0. 0. 0. 0. 0. 0. 0. 0. 0. 0. 0. 0. 0. 0.
 0. 0. 0. 0. 0. 0. 0. 0. 0. 0. 0. 0. 0. 0. 0. 0. 0. 0. 0. 0. 0. 0. 0. 0.
 0. 0. 0. 0. 0. 0. 0. 0. 0. 0. 0. 0. 0. 0. 0. 0. 0. 0. 0. 0. 0. 0. 0. 0.
 0. 0. 0. 0. 0. 0. 0. 0. 0. 0. 0. 0. 0. 0. 0. 0. 0. 0. 0. 0. 0. 0. 0. 0.
 0. 0. 0. 0.]

Layer 3:
[[-0.06758779]
 [ 1.6129298 ]
 [-0.41790232]
 [-0.11233971]
 [-0.4243151 ]
 [ 0.2542518 ]
 [-0.38392797]
 [ 0.17575328]
 [ 0.02094964]
 [ 0.43731284]
 [-0.46198916]
 [ 0.22428381]
 [ 2.2985256 ]
 [ 2.20754   ]
 [-0.25988713]
 [-0.05645218]
 [ 0.46968994]
 [-2.1375782 ]
 [-0.04923446]
 [-0.33340546]
 [ 0.21551347]
 [-0.03200036]
 [ 0.46383592]
 [-0.19778572]
 [ 3.1138206 ]
 [-0.19375332]
 [ 1.4422427 ]
 [-0.3184972 ]
 [ 0.47535172]
 [-0.02617868]
 [-0.09918962]
 [ 1.3642552 ]
 [-0.3213646 ]
 [ 1.5824596 ]
 [ 0.30971313]
 [ 0.06902622]
 [ 0.21718225]
 [ 0.18472806]
 [-4.5354986 ]
 [-0.09484848]
 [-0.1901041 ]
 [-0.42165148]
 [-0.30688262]
 [-2.8008063 ]
 [-0.25149268]
 [ 0.31233945]
 [ 1.6754154 ]
 [ 0.12606543]
 [ 0.306877  ]
 [ 2.5746202 ]
 [ 0.22432455]
 [-1.3274835 ]
 [-0.07460641]
 [ 0.07235637]
 [ 0.10489336]
 [-0.24140719]
 [-3.5464551 ]
 [ 1.0304219 ]
 [ 1.6639022 ]
 [ 0.33896023]
 [-0.11406352]
 [-0.02373857]
 [-0.8999198 ]
 [ 0.06509592]
 [ 0.23639277]
 [-0.4207082 ]
 [ 4.0519905 ]
 [-1.0233471 ]
 [-0.48184606]
 [-0.35076028]
 [ 0.5398126 ]
 [-2.69458   ]
 [ 0.12430508]
 [-0.2744528 ]
 [-4.14444   ]
 [-1.2113135 ]
 [ 0.10452675]
 [-0.13187578]
 [ 1.6900408 ]
 [ 0.42038777]
 [-1.0451603 ]
 [-0.16980822]
 [ 0.57889247]
 [-0.13460428]
 [ 0.16221279]
 [ 0.33845204]
 [-2.044558  ]
 [ 1.7180816 ]
 [-5.055147  ]
 [ 3.0127711 ]
 [-1.7963487 ]
 [-0.02751783]
 [-0.88104886]
 [ 4.171027  ]
 [ 1.3711312 ]
 [ 0.30883694]
 [-0.308276  ]
 [ 0.3450513 ]
 [ 0.10658301]
 [ 1.1355163 ]]

Layer 4:
[-0.07970832]



Consenso 0:
------------------------------------------------------------------------

Layer 0:
[[ 5.6081079e-03 -1.9510061e-01  7.4778043e-05 ...  7.2006798e-05
   1.8324298e-01 -9.2532979e-03]
 [-5.7450738e-03  0.0000000e+00 -1.4877473e-02 ... -1.0313699e-02
  -8.1239780e-03 -3.9463281e-03]
 [ 1.2173028e-01 -4.6503507e-03  5.2460805e-03 ... -1.4983743e-03
   1.0156942e-02  2.5971921e-03]
 ...
 [-7.6249721e-03  0.0000000e+00 -2.4835317e-04 ... -2.1258248e-03
   2.1039437e-01 -1.4720733e-03]
 [ 2.7901167e-03  2.9967306e-02 -3.9359163e-03 ...  3.9985654e-04
  -1.0244545e-03 -1.6636364e-03]
 [ 5.9210127e-03  2.6228004e-03 -2.1161520e-01 ...  3.5855670e-03
  -1.9059205e-01 -1.6873818e-03]]

Layer 1:
[[ 0.08455507 -0.1425404   0.08377504 -0.07476995  0.08716005 -0.07259152
  -0.11811119 -0.09049226  0.1181316  -0.01151272  0.05796322  0.04056271
  -0.03582807 -0.05907324 -0.02458146  0.00608311 -0.00392141  0.06049205
  -0.05513244 -0.05025338  0.04860666 -0.06698632 -0.0004902  -0.04640793
  -0.04489329 -0.05014544  0.07299734  0.02926162  0.00353208  0.05608969
   0.01721096 -0.04378616 -0.01229471  0.0848469   0.07666378  0.03282088
  -0.03031021  0.15050408  0.16083807  0.00523673 -0.09563533  0.00980404
  -0.00561821 -0.010667    0.08102655  0.01488143 -0.09363959  0.07170885
   0.06466283  0.08410654  0.02400698 -0.07147947 -0.03997139  0.05601203
  -0.06796078 -0.04110898 -0.11297831  0.07982921 -0.06423033 -0.12645271
  -0.04186356  0.05454325 -0.06795166 -0.1201686   0.06253933  0.0153588
  -0.10906681  0.14103912  0.00189952  0.07108623 -0.00224857 -0.10733904
  -0.0184435  -0.11951578  0.03147073  0.09393702  0.03068119  0.12016021
   0.01785178  0.06477886 -0.10200566  0.06696645 -0.10522299 -0.08099293
  -0.11770696  0.06699263  0.04940614  0.1105278   0.01636229 -0.10105295
   0.03109874  0.11812279 -0.06807383 -0.04805836 -0.08833314 -0.0908059
  -0.0806734  -0.09506389 -0.11511081  0.12346107]]

Layer 2:
[0. 0. 0. 0. 0. 0. 0. 0. 0. 0. 0. 0. 0. 0. 0. 0. 0. 0. 0. 0. 0. 0. 0. 0.
 0. 0. 0. 0. 0. 0. 0. 0. 0. 0. 0. 0. 0. 0. 0. 0. 0. 0. 0. 0. 0. 0. 0. 0.
 0. 0. 0. 0. 0. 0. 0. 0. 0. 0. 0. 0. 0. 0. 0. 0. 0. 0. 0. 0. 0. 0. 0. 0.
 0. 0. 0. 0. 0. 0. 0. 0. 0. 0. 0. 0. 0. 0. 0. 0. 0. 0. 0. 0. 0. 0. 0. 0.
 0. 0. 0. 0.]

Layer 3:
[[-0.5169743 ]
 [-0.04212208]
 [ 0.47232363]
 [-0.52571094]
 [ 0.2982159 ]
 [ 0.11102625]
 [-0.24863662]
 [-0.47379154]
 [ 0.2310575 ]
 [-0.8711369 ]
 [-0.07659224]
 [ 0.23168655]
 [-0.10560349]
 [-0.2895549 ]
 [-1.1004268 ]
 [ 0.45884398]
 [ 0.84195197]
 [ 0.05353285]
 [-0.28293723]
 [-0.01990741]
 [ 1.6394371 ]
 [ 0.07233183]
 [ 0.29232386]
 [-0.08761813]
 [-1.2325104 ]
 [-0.48785195]
 [ 1.5102105 ]
 [ 0.46414593]
 [-2.6444273 ]
 [ 0.65395546]
 [-1.3302555 ]
 [-1.6070826 ]
 [-1.8009092 ]
 [-0.0780697 ]
 [-0.03927395]
 [ 0.7019516 ]
 [-0.62105507]
 [ 0.25930017]
 [ 0.22885673]
 [ 1.2133533 ]
 [ 0.86750674]
 [-0.27552804]
 [ 0.9782207 ]
 [ 0.0984381 ]
 [ 1.4503698 ]
 [-1.7769505 ]
 [-0.03642086]
 [-0.0435527 ]
 [-0.15136766]
 [ 0.54696786]
 [-0.04103394]
 [ 0.18515562]
 [ 0.04966117]
 [-0.0428664 ]
 [-0.09752587]
 [-0.0226338 ]
 [-0.51751375]
 [ 0.7534769 ]
 [-0.6306071 ]
 [ 0.07103019]
 [ 1.3686694 ]
 [ 1.0685586 ]
 [-2.0435057 ]
 [-0.2638908 ]
 [ 0.54902   ]
 [-0.9874265 ]
 [ 0.07408138]
 [-0.13439998]
 [-0.01096507]
 [ 0.15314081]
 [ 1.4114815 ]
 [ 0.67046475]
 [-0.50005645]
 [-0.33135644]
 [ 0.12639427]
 [-0.13525705]
 [ 0.3442997 ]
 [ 0.36675957]
 [ 0.3345609 ]
 [ 1.0316556 ]
 [ 0.30916   ]
 [ 0.00563952]
 [-0.04151834]
 [-0.1577098 ]
 [-0.5746969 ]
 [ 0.07637475]
 [ 0.23213096]
 [ 0.3037004 ]
 [-0.14629126]
 [ 0.16769382]
 [ 0.5923462 ]
 [ 0.13722344]
 [-0.00767155]
 [-1.476861  ]
 [ 0.00803742]
 [-0.02252112]
 [-0.08839171]
 [-0.4152897 ]
 [-0.37357086]
 [ 0.22769049]]

Layer 4:
[-0.02991639]



Entrenamiento 1:
------------------------------------------------------------------------

Layer 0:
[[ 5.6081079e-03 -1.9510061e-01  7.4778043e-05 ...  7.2006798e-05
   1.8324298e-01 -9.2532979e-03]
 [-5.7450738e-03  0.0000000e+00 -1.4877473e-02 ... -1.0313699e-02
  -8.1239780e-03 -3.9463281e-03]
 [ 1.2173028e-01 -4.6503507e-03  5.2460805e-03 ... -1.4983743e-03
   1.0156942e-02  2.5971921e-03]
 ...
 [-7.6249721e-03  0.0000000e+00 -2.4835317e-04 ... -2.1258248e-03
   2.1039437e-01 -1.4720733e-03]
 [ 2.7901167e-03  2.9967306e-02 -3.9359163e-03 ...  3.9985654e-04
  -1.0244545e-03 -1.6636364e-03]
 [ 5.9210127e-03  2.6228004e-03 -2.1161520e-01 ...  3.5855670e-03
  -1.9059205e-01 -1.6873818e-03]]

Layer 1:
[[ 0.08455507 -0.1425404   0.08377504 -0.07476995  0.08716005 -0.07259152
  -0.11811119 -0.09049226  0.1181316  -0.01151272  0.05796322  0.04056271
  -0.03582807 -0.05907324 -0.02458146  0.00608311 -0.00392141  0.06049205
  -0.05513244 -0.05025338  0.04860666 -0.06698632 -0.0004902  -0.04640793
  -0.04489329 -0.05014544  0.07299734  0.02926162  0.00353208  0.05608969
   0.01721096 -0.04378616 -0.01229471  0.0848469   0.07666378  0.03282088
  -0.03031021  0.15050408  0.16083807  0.00523673 -0.09563533  0.00980404
  -0.00561821 -0.010667    0.08102655  0.01488143 -0.09363959  0.07170885
   0.06466283  0.08410654  0.02400698 -0.07147947 -0.03997139  0.05601203
  -0.06796078 -0.04110898 -0.11297831  0.07982921 -0.06423033 -0.12645271
  -0.04186356  0.05454325 -0.06795166 -0.1201686   0.06253933  0.0153588
  -0.10906681  0.14103912  0.00189952  0.07108623 -0.00224857 -0.10733904
  -0.0184435  -0.11951578  0.03147073  0.09393702  0.03068119  0.12016021
   0.01785178  0.06477886 -0.10200566  0.06696645 -0.10522299 -0.08099293
  -0.11770696  0.06699263  0.04940614  0.1105278   0.01636229 -0.10105295
   0.03109874  0.11812279 -0.06807383 -0.04805836 -0.08833314 -0.0908059
  -0.0806734  -0.09506389 -0.11511081  0.12346107]]

Layer 2:
[0. 0. 0. 0. 0. 0. 0. 0. 0. 0. 0. 0. 0. 0. 0. 0. 0. 0. 0. 0. 0. 0. 0. 0.
 0. 0. 0. 0. 0. 0. 0. 0. 0. 0. 0. 0. 0. 0. 0. 0. 0. 0. 0. 0. 0. 0. 0. 0.
 0. 0. 0. 0. 0. 0. 0. 0. 0. 0. 0. 0. 0. 0. 0. 0. 0. 0. 0. 0. 0. 0. 0. 0.
 0. 0. 0. 0. 0. 0. 0. 0. 0. 0. 0. 0. 0. 0. 0. 0. 0. 0. 0. 0. 0. 0. 0. 0.
 0. 0. 0. 0.]

Layer 3:
[[-5.4590702e-01]
 [ 4.4444287e-01]
 [ 7.6601493e-01]
 [-8.5864437e-01]
 [ 4.0739727e-01]
 [ 2.8202277e-01]
 [ 2.7222172e-03]
 [-8.6614257e-01]
 [-6.6075146e-02]
 [-5.0409799e+00]
 [ 9.8984204e-02]
 [ 1.9539411e+00]
 [-1.7926124e+00]
 [-4.6386901e-01]
 [-6.8618598e+00]
 [ 3.0904543e+00]
 [-1.5237519e+00]
 [ 1.1592859e-02]
 [-1.0163395e+00]
 [-3.2517859e-01]
 [ 3.5548165e+00]
 [-1.2983061e-01]
 [-5.4111278e-01]
 [-1.0684824e-01]
 [-3.4189086e+00]
 [-1.3611569e+00]
 [ 2.3280289e+00]
 [ 2.2518141e+00]
 [-2.6885886e-02]
 [ 1.0857913e+00]
 [-3.9226443e-01]
 [-2.6528425e+00]
 [-5.6784353e+00]
 [-3.4144300e-01]
 [-9.4776921e-02]
 [ 2.3366733e+00]
 [-2.4841807e+00]
 [-1.4178804e-01]
 [-4.1999781e-01]
 [ 2.0964606e+00]
 [ 1.2112734e+00]
 [ 3.8063569e+00]
 [-1.4032977e+00]
 [-3.6444151e+00]
 [ 1.9355010e+00]
 [-1.3323030e-01]
 [ 2.0372605e-01]
 [-1.3755822e-01]
 [ 9.9421173e-02]
 [ 4.7569385e-01]
 [ 1.4098918e+00]
 [-1.3206533e-01]
 [-2.2594974e+00]
 [ 1.8956698e-01]
 [-3.3195263e-01]
 [-2.3664858e+00]
 [-9.8247755e-01]
 [ 7.6214534e-01]
 [-1.0123363e+00]
 [ 4.6755677e-01]
 [-6.3785248e-02]
 [ 3.1490612e+00]
 [-2.0481138e+00]
 [-4.2699397e-02]
 [ 1.2261115e+00]
 [ 3.3751218e+00]
 [ 6.5319800e-01]
 [-5.4318988e-01]
 [ 2.1526513e+00]
 [ 5.3208405e-01]
 [-2.7766731e-01]
 [ 8.6826760e-01]
 [-3.0595980e+00]
 [-1.3309718e-02]
 [ 2.4384546e+00]
 [-4.3127397e-01]
 [ 4.4173164e+00]
 [-6.2287380e-03]
 [ 2.3216608e+00]
 [ 1.3639326e+00]
 [ 5.1530093e-01]
 [ 6.2799841e-02]
 [ 1.6526107e-01]
 [ 3.1906005e-02]
 [-2.0683488e-01]
 [ 4.9368787e-01]
 [ 1.0624512e-01]
 [ 1.4258656e-01]
 [ 3.9027759e-01]
 [ 5.4057086e-01]
 [ 3.8590627e+00]
 [-1.3086064e-01]
 [-8.0457115e-01]
 [-2.5558221e+00]
 [ 3.0422178e-01]
 [ 2.2668171e-01]
 [ 1.8614542e-01]
 [-5.9940541e-01]
 [-4.7033519e-02]
 [ 2.4445304e-01]]

Layer 4:
[-0.07003564]



Consenso 1:
------------------------------------------------------------------------

Layer 0:
[[ 7.22785015e-04 -2.24686101e-01  9.63755610e-06 ...  9.28039299e-06
   2.10956350e-01 -1.19258498e-03]
 [ 1.10475475e-03  0.00000000e+00 -1.47447642e-02 ... -1.21658649e-02
  -8.51854309e-03 -4.73459717e-03]
 [ 1.45392880e-01 -5.39524807e-03  6.76126219e-04 ... -7.38124363e-03
   1.17359925e-02  1.46424025e-02]
 ...
 [-8.81039165e-03  0.00000000e+00 -3.20082945e-05 ... -2.73980928e-04
   2.40264297e-01 -1.70787110e-03]
 [ 3.59596248e-04  3.27949561e-02 -4.57268162e-03 ...  5.15343745e-05
  -1.32033907e-04 -2.14413070e-04]
 [ 4.56462754e-03  4.25024366e-04 -2.33380094e-01 ...  4.16565128e-03
  -2.17989177e-01 -2.17473411e-04]]

Layer 1:
[[ 0.09236109 -0.16801982  0.08663621 -0.08810962  0.10506641 -0.08132415
  -0.12363584 -0.1070258   0.13597298 -0.00912127  0.05808063  0.03611146
  -0.03984531 -0.07557374 -0.04019507  0.00700052 -0.00523514  0.07091636
  -0.06756322 -0.06106203  0.04408514 -0.07904281  0.00896009 -0.04301836
  -0.05106245 -0.05450815  0.06862789  0.03252026  0.01074357  0.06150893
   0.01416066 -0.04260284 -0.018234    0.09038313  0.09334792  0.03783055
  -0.03938099  0.17108801  0.16964069  0.01226504 -0.11279484  0.00897321
   0.00242924 -0.00964303  0.08660728  0.01354591 -0.10697842  0.08855354
   0.07995808  0.0992443   0.02648299 -0.08332687 -0.05388103  0.06445151
  -0.07082094 -0.05321363 -0.11871313  0.07752739 -0.07032897 -0.13855317
  -0.05443306  0.05920823 -0.06717239 -0.13450861  0.08088499  0.01937838
  -0.12860507  0.15440376  0.01384264  0.0788026  -0.00886476 -0.12262741
  -0.0258465  -0.13161273  0.04299375  0.10965975  0.03788648  0.12596957
   0.02516215  0.07259151 -0.11221974  0.07455409 -0.12426263 -0.09022475
  -0.14486013  0.0802476   0.05992557  0.11172299  0.02018451 -0.10827644
   0.04242618  0.13709289 -0.08813839 -0.05151332 -0.09864201 -0.09792508
  -0.09349959 -0.11546862 -0.12230857  0.14958647]]

Layer 2:
[0. 0. 0. 0. 0. 0. 0. 0. 0. 0. 0. 0. 0. 0. 0. 0. 0. 0. 0. 0. 0. 0. 0. 0.
 0. 0. 0. 0. 0. 0. 0. 0. 0. 0. 0. 0. 0. 0. 0. 0. 0. 0. 0. 0. 0. 0. 0. 0.
 0. 0. 0. 0. 0. 0. 0. 0. 0. 0. 0. 0. 0. 0. 0. 0. 0. 0. 0. 0. 0. 0. 0. 0.
 0. 0. 0. 0. 0. 0. 0. 0. 0. 0. 0. 0. 0. 0. 0. 0. 0. 0. 0. 0. 0. 0. 0. 0.
 0. 0. 0. 0.]

Layer 3:
[[-8.29783022e-01]
 [-3.47540706e-01]
 [ 2.37863049e-01]
 [-1.92590058e-01]
 [ 4.80887257e-02]
 [-4.05802242e-02]
 [ 1.13510834e-02]
 [-2.07301050e-01]
 [ 4.48100090e-01]
 [-3.51646686e+00]
 [ 6.71368837e-02]
 [ 9.66339588e-01]
 [-4.07283366e-01]
 [-6.78042054e-01]
 [-4.71362495e+00]
 [ 2.14144993e+00]
 [ 1.26936686e+00]
 [ 8.42086598e-02]
 [-1.16863298e+00]
 [-7.21821189e-01]
 [ 2.54665732e+00]
 [-2.03186110e-01]
 [ 2.81328344e+00]
 [ 2.05800146e-01]
 [-1.98879123e+00]
 [-1.58949697e+00]
 [ 2.22750211e+00]
 [ 6.69502258e-01]
 [-1.61701298e+00]
 [ 8.14497411e-01]
 [-6.43256605e-01]
 [-2.60364914e+00]
 [-6.79150915e+00]
 [-3.79760116e-01]
 [ 2.03990534e-01]
 [ 1.36639619e+00]
 [-1.00241470e+00]
 [ 1.00480154e-01]
 [ 1.68188661e-01]
 [ 2.65746355e+00]
 [ 8.86163592e-01]
 [ 3.03405905e+00]
 [-2.20764709e+00]
 [-2.09688282e+00]
 [ 2.35649943e+00]
 [-1.59428728e+00]
 [ 1.28045923e-03]
 [-1.37257740e-01]
 [-1.06384560e-01]
 [ 7.67329037e-01]
 [ 4.43749651e-02]
 [ 5.38384259e-01]
 [-5.73430240e-01]
 [-1.04983635e-01]
 [-5.14675260e-01]
 [-3.34006399e-01]
 [-1.65780053e-01]
 [ 9.01655197e-01]
 [-1.15764177e+00]
 [ 2.08674565e-01]
 [ 1.01072550e+00]
 [ 1.56934786e+00]
 [-3.42441463e+00]
 [-3.14268516e-03]
 [ 8.60156775e-01]
 [ 2.70175862e+00]
 [-3.96052562e-03]
 [-6.29111350e-01]
 [ 1.99948180e+00]
 [ 7.61118889e-01]
 [-1.35082245e-01]
 [ 1.19038153e+00]
 [-2.25914836e+00]
 [-5.46060920e-01]
 [ 8.82309675e-01]
 [-1.81053370e-01]
 [ 4.35622597e+00]
 [ 2.42879301e-01]
 [ 2.26060939e+00]
 [ 1.16724646e+00]
 [ 3.32511246e-01]
 [-3.93212259e-01]
 [ 5.82662299e-02]
 [-2.23935898e-02]
 [-6.76563263e-01]
 [-2.21680850e-02]
 [ 1.42045826e-01]
 [ 1.59047291e-01]
 [ 2.80337423e-01]
 [ 2.17615888e-01]
 [ 2.61575246e+00]
 [ 2.36754164e-01]
 [ 2.18180865e-02]
 [-3.12583923e+00]
 [ 1.41681163e-02]
 [-1.36391133e-01]
 [-2.03807324e-01]
 [-2.52104342e-01]
 [-2.23072663e-01]
 [-4.22974616e-01]]

Layer 4:
[-0.28211236]



Entrenamiento 2:
------------------------------------------------------------------------

Layer 0:
[[ 7.22785015e-04 -2.24686101e-01  9.63755610e-06 ...  9.28039299e-06
   2.10956350e-01 -1.19258498e-03]
 [ 1.10475475e-03  0.00000000e+00 -1.47447642e-02 ... -1.21658649e-02
  -8.51854309e-03 -4.73459717e-03]
 [ 1.45392880e-01 -5.39524807e-03  6.76126219e-04 ... -7.38124363e-03
   1.17359925e-02  1.46424025e-02]
 ...
 [-8.81039165e-03  0.00000000e+00 -3.20082945e-05 ... -2.73980928e-04
   2.40264297e-01 -1.70787110e-03]
 [ 3.59596248e-04  3.27949561e-02 -4.57268162e-03 ...  5.15343745e-05
  -1.32033907e-04 -2.14413070e-04]
 [ 4.56462754e-03  4.25024366e-04 -2.33380094e-01 ...  4.16565128e-03
  -2.17989177e-01 -2.17473411e-04]]

Layer 1:
[[ 0.09236109 -0.16801982  0.08663621 -0.08810962  0.10506641 -0.08132415
  -0.12363584 -0.1070258   0.13597298 -0.00912127  0.05808063  0.03611146
  -0.03984531 -0.07557374 -0.04019507  0.00700052 -0.00523514  0.07091636
  -0.06756322 -0.06106203  0.04408514 -0.07904281  0.00896009 -0.04301836
  -0.05106245 -0.05450815  0.06862789  0.03252026  0.01074357  0.06150893
   0.01416066 -0.04260284 -0.018234    0.09038313  0.09334792  0.03783055
  -0.03938099  0.17108801  0.16964069  0.01226504 -0.11279484  0.00897321
   0.00242924 -0.00964303  0.08660728  0.01354591 -0.10697842  0.08855354
   0.07995808  0.0992443   0.02648299 -0.08332687 -0.05388103  0.06445151
  -0.07082094 -0.05321363 -0.11871313  0.07752739 -0.07032897 -0.13855317
  -0.05443306  0.05920823 -0.06717239 -0.13450861  0.08088499  0.01937838
  -0.12860507  0.15440376  0.01384264  0.0788026  -0.00886476 -0.12262741
  -0.0258465  -0.13161273  0.04299375  0.10965975  0.03788648  0.12596957
   0.02516215  0.07259151 -0.11221974  0.07455409 -0.12426263 -0.09022475
  -0.14486013  0.0802476   0.05992557  0.11172299  0.02018451 -0.10827644
   0.04242618  0.13709289 -0.08813839 -0.05151332 -0.09864201 -0.09792508
  -0.09349959 -0.11546862 -0.12230857  0.14958647]]

Layer 2:
[0. 0. 0. 0. 0. 0. 0. 0. 0. 0. 0. 0. 0. 0. 0. 0. 0. 0. 0. 0. 0. 0. 0. 0.
 0. 0. 0. 0. 0. 0. 0. 0. 0. 0. 0. 0. 0. 0. 0. 0. 0. 0. 0. 0. 0. 0. 0. 0.
 0. 0. 0. 0. 0. 0. 0. 0. 0. 0. 0. 0. 0. 0. 0. 0. 0. 0. 0. 0. 0. 0. 0. 0.
 0. 0. 0. 0. 0. 0. 0. 0. 0. 0. 0. 0. 0. 0. 0. 0. 0. 0. 0. 0. 0. 0. 0. 0.
 0. 0. 0. 0.]

Layer 3:
[[-1.0434303 ]
 [-1.1148566 ]
 [-0.554858  ]
 [ 0.24950238]
 [-0.35813686]
 [-0.3546331 ]
 [ 0.11367487]
 [ 0.6936349 ]
 [ 0.615058  ]
 [-6.4001884 ]
 [ 0.19021653]
 [ 1.5561507 ]
 [-0.4804314 ]
 [-0.6603337 ]
 [-7.116157  ]
 [ 4.89385   ]
 [-1.143806  ]
 [ 0.01779221]
 [-0.72336   ]
 [-0.71745384]
 [ 2.8143291 ]
 [ 0.00971486]
 [ 6.533523  ]
 [ 0.29487738]
 [-2.0155416 ]
 [-1.182722  ]
 [ 1.6648171 ]
 [ 0.70437574]
 [ 0.13973498]
 [ 0.5616261 ]
 [ 0.27770296]
 [-2.0133398 ]
 [-9.642036  ]
 [ 0.1821013 ]
 [ 0.07500035]
 [ 1.6597624 ]
 [-1.2973202 ]
 [ 0.40719655]
 [ 0.36553264]
 [ 4.120591  ]
 [ 0.7674147 ]
 [ 6.0390806 ]
 [-2.026362  ]
 [-4.7889795 ]
 [ 1.8968087 ]
 [-0.06994862]
 [-0.10978373]
 [-0.09774318]
 [-0.3000336 ]
 [ 0.85040724]
 [ 0.63267773]
 [ 0.6813438 ]
 [-0.556357  ]
 [-0.22489981]
 [-0.40784162]
 [-0.02345818]
 [ 0.91524225]
 [ 0.65829575]
 [-0.83716893]
 [-0.07871834]
 [ 1.442731  ]
 [ 1.0457948 ]
 [-3.4992268 ]
 [ 0.15247484]
 [ 0.21522768]
 [ 5.807734  ]
 [-0.34452802]
 [-0.27272624]
 [ 5.1346617 ]
 [ 0.4195448 ]
 [-3.1179607 ]
 [ 0.9409689 ]
 [-2.8790185 ]
 [-0.77899563]
 [ 0.95828557]
 [ 0.03989848]
 [ 5.8431945 ]
 [ 0.48080903]
 [ 3.1909907 ]
 [ 0.80774724]
 [ 0.24345632]
 [-0.858229  ]
 [-0.02610872]
 [-0.1641528 ]
 [-1.0331594 ]
 [-0.5293603 ]
 [ 0.4240871 ]
 [ 0.40326655]
 [ 1.0219707 ]
 [ 0.08837076]
 [ 2.9929802 ]
 [ 0.48631316]
 [ 1.0147145 ]
 [-3.6414607 ]
 [-0.2665918 ]
 [-0.34366703]
 [-0.522336  ]
 [ 0.24718088]
 [-0.21264324]
 [-0.99164677]]

Layer 4:
[0.33395714]



Consenso 2:
------------------------------------------------------------------------

Layer 0:
[[ 9.3154085e-05 -2.2849916e-01  1.2421093e-06 ...  1.1960769e-06
   2.1452811e-01 -1.5370295e-04]
 [ 1.9875756e-03  0.0000000e+00 -1.4727659e-02 ... -1.2404577e-02
  -8.5693970e-03 -4.8361900e-03]
 [ 1.4844257e-01 -5.4912521e-03  8.7140608e-05 ... -8.1394399e-03
   1.1939505e-02  1.6194817e-02]
 ...
 [-8.9631705e-03  0.0000000e+00 -4.1252988e-06 ... -3.5311255e-05
   2.4411397e-01 -1.7382612e-03]
 [ 4.6345544e-05  3.3159390e-02 -4.6547493e-03 ...  6.6418606e-06
  -1.7016815e-05 -2.7634025e-05]
 [ 4.3898136e-03  1.4177040e-04 -2.3618521e-01 ...  4.2404141e-03
  -2.2152019e-01 -2.8028444e-05]]

Layer 1:
[[ 0.09336714 -0.17130366  0.08700497 -0.08982886  0.10737422 -0.08244962
  -0.12434789 -0.10915668  0.13827242 -0.00881306  0.05809576  0.03553777
  -0.04036307 -0.07770036 -0.04220739  0.00711876 -0.00540446  0.07225987
  -0.06916533 -0.06245508  0.04350241 -0.08059668  0.01017806 -0.04258151
  -0.05185754 -0.05507042  0.06806475  0.03294024  0.01167301  0.06220739
   0.01376753 -0.04245033 -0.01899947  0.09109665  0.09549821  0.03847621
  -0.04055005  0.17374091  0.17077518  0.01317087 -0.11500639  0.00886613
   0.00346641 -0.00951106  0.08732654  0.01337378 -0.10869756  0.09072452
   0.08192936  0.10119529  0.0268021  -0.0848538  -0.05567374  0.06553921
  -0.07118955 -0.0547737  -0.11945224  0.07723073 -0.07111498 -0.1401127
  -0.05605303  0.05980947 -0.06707194 -0.13635679  0.08324942  0.01989643
  -0.1311232   0.1561262   0.0153819   0.07979711 -0.00971747 -0.12459781
  -0.02680061 -0.13317183  0.04447886  0.11168613  0.03881511  0.1267183
   0.02610433  0.07359842 -0.11353615  0.075532   -0.1267165  -0.09141456
  -0.1483597   0.08195592  0.06128134  0.11187703  0.02067713 -0.10920742
   0.04388609  0.1395378  -0.09072436 -0.0519586  -0.09997063 -0.09884262
  -0.09515265 -0.11809842 -0.12323622  0.15295355]]

Layer 2:
[0. 0. 0. 0. 0. 0. 0. 0. 0. 0. 0. 0. 0. 0. 0. 0. 0. 0. 0. 0. 0. 0. 0. 0.
 0. 0. 0. 0. 0. 0. 0. 0. 0. 0. 0. 0. 0. 0. 0. 0. 0. 0. 0. 0. 0. 0. 0. 0.
 0. 0. 0. 0. 0. 0. 0. 0. 0. 0. 0. 0. 0. 0. 0. 0. 0. 0. 0. 0. 0. 0. 0. 0.
 0. 0. 0. 0. 0. 0. 0. 0. 0. 0. 0. 0. 0. 0. 0. 0. 0. 0. 0. 0. 0. 0. 0. 0.
 0. 0. 0. 0.]

Layer 3:
[[-1.0461242e+00]
 [-1.0245101e+00]
 [-4.3856597e-01]
 [ 4.3010288e-01]
 [-2.5015724e-01]
 [-3.2830781e-01]
 [ 1.3194685e-01]
 [ 6.3502485e-01]
 [ 7.9481262e-01]
 [-6.0241389e+00]
 [ 1.9506916e-01]
 [ 2.3817420e-01]
 [-1.0331618e-01]
 [-9.4175625e-01]
 [-6.2120366e+00]
 [ 2.4939408e+00]
 [ 1.4059570e+00]
 [ 3.5591230e-01]
 [-7.5077951e-01]
 [-1.0891327e+00]
 [ 1.5755666e+00]
 [-2.9258620e-02]
 [ 4.2053742e+00]
 [ 3.5378188e-02]
 [-1.0692616e+00]
 [-1.2418917e+00]
 [ 1.3118787e+00]
 [ 5.9504390e-01]
 [-1.6022315e+00]
 [ 4.8856324e-01]
 [ 1.2355473e-01]
 [-2.2347686e+00]
 [-1.0062201e+01]
 [-1.0335722e-01]
 [ 5.2649462e-01]
 [ 1.1989207e+00]
 [-9.9918938e-01]
 [ 2.9210985e-01]
 [ 2.9385972e-01]
 [ 3.7446091e+00]
 [ 4.5559186e-01]
 [ 6.6863971e+00]
 [-5.2775979e+00]
 [-3.1182845e+00]
 [ 1.5778821e+00]
 [-1.2309047e+00]
 [-2.0350413e-02]
 [ 2.4189238e-01]
 [-1.5158214e-01]
 [ 1.0445846e+00]
 [ 8.5289869e-03]
 [ 8.6190963e-01]
 [ 6.0047919e-01]
 [-4.3482617e-02]
 [-1.6214800e-01]
 [ 7.2867405e-01]
 [ 6.1022979e-01]
 [ 1.2196555e+00]
 [-7.9151231e-01]
 [-1.4772111e-01]
 [ 1.7647976e+00]
 [ 4.4388655e-01]
 [-3.9019899e+00]
 [ 9.2464104e-02]
 [ 4.8559630e-01]
 [ 5.5039768e+00]
 [-4.4276050e-01]
 [-5.2634531e-01]
 [ 2.7707548e+00]
 [ 6.5931484e-02]
 [-1.6755089e+00]
 [ 9.4175488e-01]
 [-2.8690870e+00]
 [-1.0618521e+00]
 [ 7.1175653e-01]
 [ 7.8372270e-02]
 [ 5.9525681e+00]
 [ 5.6493926e-01]
 [ 4.1673326e+00]
 [ 9.9411398e-01]
 [ 3.7834835e-03]
 [-4.6856266e-01]
 [-4.5988660e-02]
 [-3.3403131e-01]
 [-9.1455966e-01]
 [-1.6553803e-01]
 [ 5.4977942e-01]
 [ 4.7410756e-01]
 [ 7.6245362e-01]
 [ 6.1264008e-02]
 [ 2.6688755e+00]
 [ 5.7117265e-01]
 [ 7.3988765e-01]
 [-2.6887162e+00]
 [-2.8187424e-01]
 [-5.8852851e-01]
 [-7.0178765e-01]
 [ 1.9134176e-01]
 [-4.7445896e-01]
 [-1.0838349e+00]]

Layer 4:
[0.28915182]



Entrenamiento 3:
------------------------------------------------------------------------

Layer 0:
[[ 9.3154085e-05 -2.2849916e-01  1.2421093e-06 ...  1.1960769e-06
   2.1452811e-01 -1.5370295e-04]
 [ 1.9875756e-03  0.0000000e+00 -1.4727659e-02 ... -1.2404577e-02
  -8.5693970e-03 -4.8361900e-03]
 [ 1.4844257e-01 -5.4912521e-03  8.7140608e-05 ... -8.1394399e-03
   1.1939505e-02  1.6194817e-02]
 ...
 [-8.9631705e-03  0.0000000e+00 -4.1252988e-06 ... -3.5311255e-05
   2.4411397e-01 -1.7382612e-03]
 [ 4.6345544e-05  3.3159390e-02 -4.6547493e-03 ...  6.6418606e-06
  -1.7016815e-05 -2.7634025e-05]
 [ 4.3898136e-03  1.4177040e-04 -2.3618521e-01 ...  4.2404141e-03
  -2.2152019e-01 -2.8028444e-05]]

Layer 1:
[[ 0.09336714 -0.17130366  0.08700497 -0.08982886  0.10737422 -0.08244962
  -0.12434789 -0.10915668  0.13827242 -0.00881306  0.05809576  0.03553777
  -0.04036307 -0.07770036 -0.04220739  0.00711876 -0.00540446  0.07225987
  -0.06916533 -0.06245508  0.04350241 -0.08059668  0.01017806 -0.04258151
  -0.05185754 -0.05507042  0.06806475  0.03294024  0.01167301  0.06220739
   0.01376753 -0.04245033 -0.01899947  0.09109665  0.09549821  0.03847621
  -0.04055005  0.17374091  0.17077518  0.01317087 -0.11500639  0.00886613
   0.00346641 -0.00951106  0.08732654  0.01337378 -0.10869756  0.09072452
   0.08192936  0.10119529  0.0268021  -0.0848538  -0.05567374  0.06553921
  -0.07118955 -0.0547737  -0.11945224  0.07723073 -0.07111498 -0.1401127
  -0.05605303  0.05980947 -0.06707194 -0.13635679  0.08324942  0.01989643
  -0.1311232   0.1561262   0.0153819   0.07979711 -0.00971747 -0.12459781
  -0.02680061 -0.13317183  0.04447886  0.11168613  0.03881511  0.1267183
   0.02610433  0.07359842 -0.11353615  0.075532   -0.1267165  -0.09141456
  -0.1483597   0.08195592  0.06128134  0.11187703  0.02067713 -0.10920742
   0.04388609  0.1395378  -0.09072436 -0.0519586  -0.09997063 -0.09884262
  -0.09515265 -0.11809842 -0.12323622  0.15295355]]

Layer 2:
[0. 0. 0. 0. 0. 0. 0. 0. 0. 0. 0. 0. 0. 0. 0. 0. 0. 0. 0. 0. 0. 0. 0. 0.
 0. 0. 0. 0. 0. 0. 0. 0. 0. 0. 0. 0. 0. 0. 0. 0. 0. 0. 0. 0. 0. 0. 0. 0.
 0. 0. 0. 0. 0. 0. 0. 0. 0. 0. 0. 0. 0. 0. 0. 0. 0. 0. 0. 0. 0. 0. 0. 0.
 0. 0. 0. 0. 0. 0. 0. 0. 0. 0. 0. 0. 0. 0. 0. 0. 0. 0. 0. 0. 0. 0. 0. 0.
 0. 0. 0. 0.]

Layer 3:
[[-1.1327326e+00]
 [-1.3037506e+00]
 [-1.0175629e+00]
 [ 7.9591489e-01]
 [-4.5263767e-01]
 [-4.8595107e-01]
 [ 2.1120963e-01]
 [ 1.1955918e+00]
 [ 9.0825123e-01]
 [-8.8054152e+00]
 [ 1.9191155e-01]
 [ 6.4833117e-01]
 [-1.7439028e-02]
 [-9.5274234e-01]
 [-7.8335934e+00]
 [ 5.3171916e+00]
 [-1.0316056e+00]
 [ 4.0754786e-01]
 [-3.2265785e-01]
 [-1.0514172e+00]
 [ 1.5554721e+00]
 [ 1.1604450e-01]
 [ 7.8628283e+00]
 [-7.7918619e-03]
 [-7.9597443e-01]
 [-7.1470362e-01]
 [ 7.0806229e-01]
 [ 6.0294265e-01]
 [ 3.5199393e-02]
 [ 2.3975052e-01]
 [ 9.2377692e-01]
 [-1.7738106e+00]
 [-1.2366440e+01]
 [ 1.7516904e-01]
 [ 4.5885676e-01]
 [ 1.2966342e+00]
 [-1.0482633e+00]
 [ 4.4798607e-01]
 [ 4.1142502e-01]
 [ 5.1834102e+00]
 [ 3.1937709e-01]
 [ 9.6495924e+00]
 [-4.4094138e+00]
 [-5.6357183e+00]
 [ 9.7761083e-01]
 [ 2.7205503e-01]
 [-7.3706940e-02]
 [ 3.1055287e-01]
 [-2.6543736e-01]
 [ 1.1449386e+00]
 [ 5.3093529e-01]
 [ 9.8512220e-01]
 [ 9.8896563e-01]
 [-1.0555063e-01]
 [ 3.0382445e-02]
 [ 1.3761631e+00]
 [ 1.2811131e+00]
 [ 1.1644824e+00]
 [-4.9498144e-01]
 [-3.0746880e-01]
 [ 2.1804602e+00]
 [-3.7629944e-01]
 [-3.9366269e+00]
 [ 1.3536488e-01]
 [-7.1415881e-04]
 [ 8.1699533e+00]
 [-6.2266564e-01]
 [-3.5615742e-01]
 [ 5.3889093e+00]
 [-2.6142249e-01]
 [-4.5273829e+00]
 [ 7.7712774e-01]
 [-3.3946836e+00]
 [-1.2072846e+00]
 [ 5.1264006e-01]
 [ 2.3934737e-01]
 [ 6.8076720e+00]
 [ 7.6330274e-01]
 [ 4.7655592e+00]
 [ 6.8762422e-01]
 [-7.4772350e-02]
 [-5.4212475e-01]
 [-1.7148416e-01]
 [-4.6424913e-01]
 [-1.0996388e+00]
 [-4.7268519e-01]
 [ 7.6579040e-01]
 [ 6.3443941e-01]
 [ 1.3548912e+00]
 [-5.1163770e-03]
 [ 2.6519544e+00]
 [ 7.1522933e-01]
 [ 1.3522080e+00]
 [-2.7842855e+00]
 [-4.8807216e-01]
 [-7.2557575e-01]
 [-8.7935185e-01]
 [ 4.3788499e-01]
 [-5.5223644e-01]
 [-1.3046886e+00]]

Layer 4:
[0.10391964]



Consenso 3:
------------------------------------------------------------------------

Layer 0:
[[ 1.2005900e-05 -2.2899058e-01  1.6008573e-07 ...  1.5415297e-07
   2.1498846e-01 -1.9809566e-05]
 [ 2.1013552e-03  0.0000000e+00 -1.4725455e-02 ... -1.2435342e-02
  -8.5759507e-03 -4.8492835e-03]
 [ 1.4883561e-01 -5.5036251e-03  1.1230868e-05 ... -8.2371579e-03
   1.1965734e-02  1.6394896e-02]
 ...
 [-8.9828614e-03  0.0000000e+00 -5.3167741e-07 ... -4.5509919e-06
   2.4461016e-01 -1.7421779e-03]
 [ 5.9731133e-06  3.3206355e-02 -4.6653263e-03 ...  8.5601744e-07
  -2.1931639e-06 -3.5615328e-06]
 [ 4.3672835e-03  1.0526404e-04 -2.3654674e-01 ...  4.2500496e-03
  -2.2197524e-01 -3.6123668e-06]]

Layer 1:
[[ 0.09349681 -0.17172687  0.08705249 -0.09005045  0.10767165 -0.08259469
  -0.12443965 -0.10943131  0.13856876 -0.00877334  0.05809771  0.03546383
  -0.04042979 -0.07797445 -0.04246674  0.00713399 -0.00542628  0.07243303
  -0.0693718  -0.06263462  0.0434273  -0.08079694  0.01033504 -0.0425252
  -0.05196001 -0.05514289  0.06799218  0.03299437  0.01179279  0.0622974
   0.01371686 -0.04243067 -0.01909812  0.09118861  0.09577534  0.03855942
  -0.04070073  0.17408282  0.17092142  0.01328761 -0.11529142  0.00885233
   0.00360009 -0.00949405  0.08741924  0.0133516  -0.10891913  0.09100432
   0.08218342  0.10144673  0.02684323 -0.08505059 -0.05590479  0.06567939
  -0.07123706 -0.05497477 -0.11954749  0.07719248 -0.07121629 -0.1403137
  -0.05626183  0.05988696 -0.06705901 -0.136595    0.08355415  0.0199632
  -0.13144775  0.1563482   0.01558028  0.07992528 -0.00982737 -0.12485176
  -0.02692358 -0.13337277  0.04467027  0.11194728  0.0389348   0.1268148
   0.02622577  0.0737282  -0.11370581  0.07565804 -0.12703277 -0.0915679
  -0.14881073  0.0821761   0.06145607  0.11189688  0.02074062 -0.1093274
   0.04407424  0.13985288 -0.09105764 -0.05201599 -0.10014188 -0.09896088
  -0.09536571 -0.11843736 -0.12335578  0.15338752]]

Layer 2:
[0. 0. 0. 0. 0. 0. 0. 0. 0. 0. 0. 0. 0. 0. 0. 0. 0. 0. 0. 0. 0. 0. 0. 0.
 0. 0. 0. 0. 0. 0. 0. 0. 0. 0. 0. 0. 0. 0. 0. 0. 0. 0. 0. 0. 0. 0. 0. 0.
 0. 0. 0. 0. 0. 0. 0. 0. 0. 0. 0. 0. 0. 0. 0. 0. 0. 0. 0. 0. 0. 0. 0. 0.
 0. 0. 0. 0. 0. 0. 0. 0. 0. 0. 0. 0. 0. 0. 0. 0. 0. 0. 0. 0. 0. 0. 0. 0.
 0. 0. 0. 0.]

Layer 3:
[[-9.5472974e-01]
 [-8.6299443e-01]
 [-3.8891953e-01]
 [ 5.8953828e-01]
 [-9.4675133e-03]
 [-2.1298088e-01]
 [ 3.8517721e-02]
 [ 6.2814158e-01]
 [ 8.7519485e-01]
 [-8.4663343e+00]
 [ 1.3181859e-01]
 [-6.0594857e-01]
 [-1.8692295e-01]
 [-1.1222074e+00]
 [-6.6854620e+00]
 [ 2.2906311e+00]
 [ 1.5286403e+00]
 [ 7.2542965e-01]
 [-2.5870708e-01]
 [-1.1793832e+00]
 [ 8.5408145e-01]
 [-5.9823327e-02]
 [ 4.3369756e+00]
 [-3.4995854e-01]
 [-6.7685735e-01]
 [-5.6424087e-01]
 [ 5.2498806e-01]
 [ 1.0818614e+00]
 [-1.6153252e+00]
 [ 4.7539684e-01]
 [ 6.0659099e-01]
 [-2.4731429e+00]
 [-1.2294972e+01]
 [-2.8810278e-01]
 [ 8.8412976e-01]
 [ 1.0703565e+00]
 [-1.0298008e+00]
 [ 2.9745665e-01]
 [ 2.7329060e-01]
 [ 4.2244000e+00]
 [ 1.9671068e-01]
 [ 1.0125020e+01]
 [-7.6204162e+00]
 [-3.5428290e+00]
 [ 6.0966170e-01]
 [-1.0071836e+00]
 [-2.2891048e-02]
 [ 5.5000013e-01]
 [-7.2893769e-02]
 [ 1.2875843e+00]
 [ 1.7148939e-01]
 [ 1.0390682e+00]
 [ 1.4930973e+00]
 [ 1.8128265e-01]
 [ 3.2234693e-01]
 [ 1.2288960e+00]
 [ 3.1679985e-01]
 [ 1.7154740e+00]
 [-5.0002635e-01]
 [-1.8279476e-01]
 [ 2.2014213e+00]
 [-2.6900919e-02]
 [-3.7523654e+00]
 [ 1.2655916e-02]
 [ 6.8085641e-01]
 [ 7.3925457e+00]
 [-3.1327653e-01]
 [-5.7364798e-01]
 [ 2.7776246e+00]
 [-8.3003062e-01]
 [-2.5690496e+00]
 [ 8.2879835e-01]
 [-3.4130063e+00]
 [-1.3626729e+00]
 [ 4.5497939e-01]
 [ 9.4190672e-02]
 [ 6.2583613e+00]
 [ 7.4548906e-01]
 [ 5.6891370e+00]
 [ 1.1239486e+00]
 [-2.6296490e-01]
 [ 2.8502485e-01]
 [-1.7386541e-01]
 [-5.5814135e-01]
 [-8.4209079e-01]
 [ 1.3461845e-01]
 [ 6.6672021e-01]
 [ 6.3767707e-01]
 [ 9.0687108e-01]
 [ 1.4423639e-01]
 [ 2.1671152e+00]
 [ 6.9379866e-01]
 [ 3.0957544e-01]
 [-1.2386489e+00]
 [-3.8635221e-01]
 [-8.2736492e-01]
 [-7.3094618e-01]
 [ 5.2980959e-02]
 [-7.6849437e-01]
 [-1.0838764e+00]]

Layer 4:
[0.42773157]



Entrenamiento 4:
------------------------------------------------------------------------

Layer 0:
[[ 1.2005900e-05 -2.2899058e-01  1.6008573e-07 ...  1.5415297e-07
   2.1498846e-01 -1.9809566e-05]
 [ 2.1013552e-03  0.0000000e+00 -1.4725455e-02 ... -1.2435342e-02
  -8.5759507e-03 -4.8492835e-03]
 [ 1.4883561e-01 -5.5036251e-03  1.1230868e-05 ... -8.2371579e-03
   1.1965734e-02  1.6394896e-02]
 ...
 [-8.9828614e-03  0.0000000e+00 -5.3167741e-07 ... -4.5509919e-06
   2.4461016e-01 -1.7421779e-03]
 [ 5.9731133e-06  3.3206355e-02 -4.6653263e-03 ...  8.5601744e-07
  -2.1931639e-06 -3.5615328e-06]
 [ 4.3672835e-03  1.0526404e-04 -2.3654674e-01 ...  4.2500496e-03
  -2.2197524e-01 -3.6123668e-06]]

Layer 1:
[[ 0.09349681 -0.17172687  0.08705249 -0.09005045  0.10767165 -0.08259469
  -0.12443965 -0.10943131  0.13856876 -0.00877334  0.05809771  0.03546383
  -0.04042979 -0.07797445 -0.04246674  0.00713399 -0.00542628  0.07243303
  -0.0693718  -0.06263462  0.0434273  -0.08079694  0.01033504 -0.0425252
  -0.05196001 -0.05514289  0.06799218  0.03299437  0.01179279  0.0622974
   0.01371686 -0.04243067 -0.01909812  0.09118861  0.09577534  0.03855942
  -0.04070073  0.17408282  0.17092142  0.01328761 -0.11529142  0.00885233
   0.00360009 -0.00949405  0.08741924  0.0133516  -0.10891913  0.09100432
   0.08218342  0.10144673  0.02684323 -0.08505059 -0.05590479  0.06567939
  -0.07123706 -0.05497477 -0.11954749  0.07719248 -0.07121629 -0.1403137
  -0.05626183  0.05988696 -0.06705901 -0.136595    0.08355415  0.0199632
  -0.13144775  0.1563482   0.01558028  0.07992528 -0.00982737 -0.12485176
  -0.02692358 -0.13337277  0.04467027  0.11194728  0.0389348   0.1268148
   0.02622577  0.0737282  -0.11370581  0.07565804 -0.12703277 -0.0915679
  -0.14881073  0.0821761   0.06145607  0.11189688  0.02074062 -0.1093274
   0.04407424  0.13985288 -0.09105764 -0.05201599 -0.10014188 -0.09896088
  -0.09536571 -0.11843736 -0.12335578  0.15338752]]

Layer 2:
[0. 0. 0. 0. 0. 0. 0. 0. 0. 0. 0. 0. 0. 0. 0. 0. 0. 0. 0. 0. 0. 0. 0. 0.
 0. 0. 0. 0. 0. 0. 0. 0. 0. 0. 0. 0. 0. 0. 0. 0. 0. 0. 0. 0. 0. 0. 0. 0.
 0. 0. 0. 0. 0. 0. 0. 0. 0. 0. 0. 0. 0. 0. 0. 0. 0. 0. 0. 0. 0. 0. 0. 0.
 0. 0. 0. 0. 0. 0. 0. 0. 0. 0. 0. 0. 0. 0. 0. 0. 0. 0. 0. 0. 0. 0. 0. 0.
 0. 0. 0. 0.]

Layer 3:
[[-9.88802075e-01]
 [-9.98629034e-01]
 [-8.69836092e-01]
 [ 9.20991302e-01]
 [-1.36423245e-01]
 [-3.26958030e-01]
 [ 1.07472502e-01]
 [ 1.05401206e+00]
 [ 9.63283896e-01]
 [-1.12663965e+01]
 [ 9.09607932e-02]
 [-3.31415087e-01]
 [-2.78043244e-02]
 [-1.14627731e+00]
 [-8.00241661e+00]
 [ 5.15277338e+00]
 [-9.77164626e-01]
 [ 8.04558933e-01]
 [ 1.48648545e-01]
 [-1.14384711e+00]
 [ 6.09152317e-01]
 [ 5.36467135e-02]
 [ 7.76868296e+00]
 [-4.33981329e-01]
 [-2.55797058e-01]
 [-6.69079833e-03]
 [-1.19405203e-01]
 [ 1.06079578e+00]
 [-1.35109983e-02]
 [ 2.37932116e-01]
 [ 1.38572311e+00]
 [-2.03196120e+00]
 [-1.44022093e+01]
 [-9.22909603e-02]
 [ 8.33475173e-01]
 [ 1.08390391e+00]
 [-1.00673652e+00]
 [ 3.91773343e-01]
 [ 3.50117415e-01]
 [ 5.67455006e+00]
 [ 6.49053082e-02]
 [ 1.31380806e+01]
 [-6.61254644e+00]
 [-5.99179840e+00]
 [-2.05088519e-02]
 [ 5.04844189e-01]
 [-5.78538924e-02]
 [ 6.29642963e-01]
 [-1.52081147e-01]
 [ 1.38588238e+00]
 [ 6.63174510e-01]
 [ 1.15110183e+00]
 [ 2.05677772e+00]
 [ 1.42712399e-01]
 [ 5.33087194e-01]
 [ 1.99229050e+00]
 [ 8.26785862e-01]
 [ 1.72038376e+00]
 [-2.24535152e-01]
 [-2.88053960e-01]
 [ 2.59072948e+00]
 [-9.88850474e-01]
 [-3.77507949e+00]
 [ 2.83880737e-02]
 [ 2.67930716e-01]
 [ 9.86886597e+00]
 [-4.35704827e-01]
 [-4.66522485e-01]
 [ 5.13210249e+00]
 [-1.14018416e+00]
 [-5.30456161e+00]
 [ 6.99878752e-01]
 [-3.93294716e+00]
 [-1.46953917e+00]
 [ 1.79538876e-01]
 [ 2.29715243e-01]
 [ 6.83150244e+00]
 [ 9.06945467e-01]
 [ 6.17023802e+00]
 [ 8.38163972e-01]
 [-3.35336059e-01]
 [ 3.28527331e-01]
 [-2.95101672e-01]
 [-6.81362987e-01]
 [-9.64316964e-01]
 [-9.89475399e-02]
 [ 8.55122149e-01]
 [ 7.66277432e-01]
 [ 1.46487677e+00]
 [ 9.29474458e-02]
 [ 2.01927567e+00]
 [ 7.95262992e-01]
 [ 7.77787805e-01]
 [-1.12458241e+00]
 [-5.60688436e-01]
 [-9.43526268e-01]
 [-8.72378051e-01]
 [ 2.19458073e-01]
 [-8.49500835e-01]
 [-1.20744443e+00]]

Layer 4:
[0.05747153]



Consenso 4:
------------------------------------------------------------------------

Layer 0:
[[ 1.54734664e-06 -2.29053915e-01  2.06321946e-08 ...  1.98675725e-08
   2.15047777e-01 -2.55309988e-06]
 [ 2.11601984e-03  0.00000000e+00 -1.47251710e-02 ... -1.24393059e-02
  -8.57679453e-03 -4.85097151e-03]
 [ 1.48886263e-01 -5.50521957e-03  1.44745866e-06 ... -8.24975315e-03
   1.19691156e-02  1.64206810e-02]
 ...
 [-8.98539927e-03  0.00000000e+00 -6.85237254e-08 ... -5.86541717e-07
   2.44674087e-01 -1.74268277e-03]
 [ 7.69827750e-07  3.32124121e-02 -4.66668885e-03 ...  1.10325395e-07
  -2.82659727e-07 -4.59018111e-07]
 [ 4.36437968e-03  1.00558864e-04 -2.36593321e-01 ...  4.25129151e-03
  -2.22033903e-01 -4.65569713e-07]]

Layer 1:
[[ 0.09351352 -0.17178144  0.08705861 -0.090079    0.10771    -0.08261337
  -0.12445147 -0.1094667   0.13860697 -0.00876822  0.05809796  0.0354543
  -0.04043839 -0.07800976 -0.04250017  0.00713596 -0.00542909  0.07245535
  -0.06939841 -0.06265775  0.04341762 -0.08082275  0.01035527 -0.04251795
  -0.05197322 -0.05515223  0.06798283  0.03300134  0.01180823  0.06230899
   0.01371033 -0.04242814 -0.01911084  0.09120047  0.09581106  0.03857014
  -0.04072014  0.17412691  0.17094024  0.01330266 -0.11532816  0.00885055
   0.00361732 -0.00949186  0.08743118  0.01334874 -0.10894768  0.0910404
   0.08221616  0.10147914  0.02684853 -0.08507594 -0.05593456  0.06569746
  -0.07124318 -0.05500069 -0.11955977  0.07718756 -0.07122935 -0.14033963
  -0.05628873  0.05989694 -0.06705733 -0.13662569  0.08359342  0.0199718
  -0.13148957  0.15637681  0.01560585  0.0799418  -0.00984153 -0.12488449
  -0.02693943 -0.13339864  0.04469493  0.11198094  0.03895023  0.12682723
   0.02624141  0.07374493 -0.11372767  0.07567429 -0.12707353 -0.09158767
  -0.14886887  0.08220447  0.06147859  0.11189944  0.0207488  -0.10934287
   0.04409849  0.13989352 -0.0911006  -0.05202339 -0.10016395 -0.09897611
  -0.09539317 -0.11848104 -0.1233712   0.15344344]]

Layer 2:
[0. 0. 0. 0. 0. 0. 0. 0. 0. 0. 0. 0. 0. 0. 0. 0. 0. 0. 0. 0. 0. 0. 0. 0.
 0. 0. 0. 0. 0. 0. 0. 0. 0. 0. 0. 0. 0. 0. 0. 0. 0. 0. 0. 0. 0. 0. 0. 0.
 0. 0. 0. 0. 0. 0. 0. 0. 0. 0. 0. 0. 0. 0. 0. 0. 0. 0. 0. 0. 0. 0. 0. 0.
 0. 0. 0. 0. 0. 0. 0. 0. 0. 0. 0. 0. 0. 0. 0. 0. 0. 0. 0. 0. 0. 0. 0. 0.
 0. 0. 0. 0.]

Layer 3:
[[-7.64036477e-01]
 [-5.73140323e-01]
 [-8.67238417e-02]
 [ 6.35471582e-01]
 [ 3.03761482e-01]
 [-1.08130306e-01]
 [-4.11463305e-02]
 [ 4.13383454e-01]
 [ 8.17122340e-01]
 [-1.07683430e+01]
 [ 1.38844371e-01]
 [-1.22214484e+00]
 [-4.21052694e-01]
 [-1.26087356e+00]
 [-6.42556190e+00]
 [ 1.80592060e+00]
 [ 1.56431746e+00]
 [ 9.71458495e-01]
 [ 1.34867981e-01]
 [-1.27490175e+00]
 [ 4.32893932e-01]
 [-1.82230309e-01]
 [ 3.95602465e+00]
 [-6.30528092e-01]
 [-4.90152717e-01]
 [-7.79253896e-03]
 [-4.89118434e-02]
 [ 1.56883013e+00]
 [-1.68594337e+00]
 [ 6.53496623e-01]
 [ 1.12730861e+00]
 [-2.88656378e+00]
 [-1.40700378e+01]
 [-4.68196303e-01]
 [ 1.14738333e+00]
 [ 9.87750411e-01]
 [-1.11831427e+00]
 [ 1.91253334e-01]
 [ 1.05405428e-01]
 [ 4.53223896e+00]
 [ 4.86044027e-02]
 [ 1.32114773e+01]
 [-9.51955795e+00]
 [-3.59719300e+00]
 [-8.91262516e-02]
 [-8.88786137e-01]
 [-8.84296373e-02]
 [ 7.27807283e-01]
 [ 7.81770349e-02]
 [ 1.43357992e+00]
 [ 3.91449094e-01]
 [ 1.14498019e+00]
 [ 2.14476395e+00]
 [ 4.22454327e-01]
 [ 6.19960725e-01]
 [ 1.31692016e+00]
 [-1.27385914e-01]
 [ 2.11135936e+00]
 [-4.01301056e-01]
 [ 1.73735097e-02]
 [ 2.37248302e+00]
 [-8.44929293e-02]
 [-3.35288310e+00]
 [-2.19897218e-02]
 [ 1.04910910e+00]
 [ 8.76258087e+00]
 [-4.28794138e-02]
 [-6.99711621e-01]
 [ 2.45513821e+00]
 [-1.56649148e+00]
 [-3.01149106e+00]
 [ 7.84451723e-01]
 [-3.82422209e+00]
 [-1.50791883e+00]
 [ 2.88860351e-01]
 [ 2.14753188e-02]
 [ 5.79993486e+00]
 [ 6.84294999e-01]
 [ 6.98191929e+00]
 [ 1.29761887e+00]
 [-4.29832727e-01]
 [ 9.47206080e-01]
 [-2.18105987e-01]
 [-6.93853736e-01]
 [-6.87100947e-01]
 [ 4.21397358e-01]
 [ 6.45012200e-01]
 [ 7.22460687e-01]
 [ 1.03972483e+00]
 [ 2.25435197e-01]
 [ 1.39649343e+00]
 [ 7.20612168e-01]
 [-3.97821307e-01]
 [ 2.65212595e-01]
 [-3.90041649e-01]
 [-9.88062680e-01]
 [-6.67049468e-01]
 [-1.68895245e-01]
 [-7.70579696e-01]
 [-1.04603052e+00]]

Layer 4:
[0.22760324]



Entrenamiento 5:
------------------------------------------------------------------------

Layer 0:
[[ 1.54734664e-06 -2.29053915e-01  2.06321946e-08 ...  1.98675725e-08
   2.15047777e-01 -2.55309988e-06]
 [ 2.11601984e-03  0.00000000e+00 -1.47251710e-02 ... -1.24393059e-02
  -8.57679453e-03 -4.85097151e-03]
 [ 1.48886263e-01 -5.50521957e-03  1.44745866e-06 ... -8.24975315e-03
   1.19691156e-02  1.64206810e-02]
 ...
 [-8.98539927e-03  0.00000000e+00 -6.85237254e-08 ... -5.86541717e-07
   2.44674087e-01 -1.74268277e-03]
 [ 7.69827750e-07  3.32124121e-02 -4.66668885e-03 ...  1.10325395e-07
  -2.82659727e-07 -4.59018111e-07]
 [ 4.36437968e-03  1.00558864e-04 -2.36593321e-01 ...  4.25129151e-03
  -2.22033903e-01 -4.65569713e-07]]

Layer 1:
[[ 0.09351352 -0.17178144  0.08705861 -0.090079    0.10771    -0.08261337
  -0.12445147 -0.1094667   0.13860697 -0.00876822  0.05809796  0.0354543
  -0.04043839 -0.07800976 -0.04250017  0.00713596 -0.00542909  0.07245535
  -0.06939841 -0.06265775  0.04341762 -0.08082275  0.01035527 -0.04251795
  -0.05197322 -0.05515223  0.06798283  0.03300134  0.01180823  0.06230899
   0.01371033 -0.04242814 -0.01911084  0.09120047  0.09581106  0.03857014
  -0.04072014  0.17412691  0.17094024  0.01330266 -0.11532816  0.00885055
   0.00361732 -0.00949186  0.08743118  0.01334874 -0.10894768  0.0910404
   0.08221616  0.10147914  0.02684853 -0.08507594 -0.05593456  0.06569746
  -0.07124318 -0.05500069 -0.11955977  0.07718756 -0.07122935 -0.14033963
  -0.05628873  0.05989694 -0.06705733 -0.13662569  0.08359342  0.0199718
  -0.13148957  0.15637681  0.01560585  0.0799418  -0.00984153 -0.12488449
  -0.02693943 -0.13339864  0.04469493  0.11198094  0.03895023  0.12682723
   0.02624141  0.07374493 -0.11372767  0.07567429 -0.12707353 -0.09158767
  -0.14886887  0.08220447  0.06147859  0.11189944  0.0207488  -0.10934287
   0.04409849  0.13989352 -0.0911006  -0.05202339 -0.10016395 -0.09897611
  -0.09539317 -0.11848104 -0.1233712   0.15344344]]

Layer 2:
[0. 0. 0. 0. 0. 0. 0. 0. 0. 0. 0. 0. 0. 0. 0. 0. 0. 0. 0. 0. 0. 0. 0. 0.
 0. 0. 0. 0. 0. 0. 0. 0. 0. 0. 0. 0. 0. 0. 0. 0. 0. 0. 0. 0. 0. 0. 0. 0.
 0. 0. 0. 0. 0. 0. 0. 0. 0. 0. 0. 0. 0. 0. 0. 0. 0. 0. 0. 0. 0. 0. 0. 0.
 0. 0. 0. 0. 0. 0. 0. 0. 0. 0. 0. 0. 0. 0. 0. 0. 0. 0. 0. 0. 0. 0. 0. 0.
 0. 0. 0. 0.]

Layer 3:
[[-8.13596547e-01]
 [-7.82752335e-01]
 [-6.06480420e-01]
 [ 9.99446273e-01]
 [ 1.46932110e-01]
 [-2.55142957e-01]
 [ 5.02941981e-02]
 [ 9.00336564e-01]
 [ 9.06187296e-01]
 [-1.36219540e+01]
 [ 1.07751094e-01]
 [-1.02878225e+00]
 [-1.88855112e-01]
 [-1.28661871e+00]
 [-7.59818792e+00]
 [ 4.72790337e+00]
 [-1.06348693e+00]
 [ 1.02483141e+00]
 [ 5.78362584e-01]
 [-1.25025403e+00]
 [ 4.08476703e-02]
 [-5.26865907e-02]
 [ 7.34133005e+00]
 [-6.88559830e-01]
 [ 5.64389750e-02]
 [ 5.85895181e-01]
 [-7.71619260e-01]
 [ 1.46078730e+00]
 [-1.10079236e-01]
 [ 3.95670533e-01]
 [ 1.95237064e+00]
 [-2.34518504e+00]
 [-1.61527615e+01]
 [-2.17862055e-01]
 [ 1.07731390e+00]
 [ 9.40402865e-01]
 [-1.05755746e+00]
 [ 2.93345660e-01]
 [ 1.72995389e-01]
 [ 6.04404926e+00]
 [-7.57285953e-02]
 [ 1.62874279e+01]
 [-8.47668076e+00]
 [-6.04755878e+00]
 [-7.38610923e-01]
 [ 6.59560859e-01]
 [-1.26179919e-01]
 [ 8.06407273e-01]
 [-6.86141429e-03]
 [ 1.52861464e+00]
 [ 8.52523685e-01]
 [ 1.26224279e+00]
 [ 2.85026073e+00]
 [ 3.76323789e-01]
 [ 8.26658130e-01]
 [ 2.17189097e+00]
 [ 4.56155539e-01]
 [ 2.08678865e+00]
 [-1.08573481e-01]
 [-8.65491852e-02]
 [ 2.81095934e+00]
 [-1.16795182e+00]
 [-3.38016295e+00]
 [ 2.85748560e-02]
 [ 5.98546863e-01]
 [ 1.11985941e+01]
 [-1.88086852e-01]
 [-5.79085112e-01]
 [ 4.72765875e+00]
 [-1.89473128e+00]
 [-5.73638535e+00]
 [ 6.48085237e-01]
 [-4.29675531e+00]
 [-1.61863041e+00]
 [-3.75280939e-02]
 [ 1.63841307e-01]
 [ 6.24575090e+00]
 [ 8.27725470e-01]
 [ 7.43431759e+00]
 [ 9.79463279e-01]
 [-4.97070611e-01]
 [ 9.21062589e-01]
 [-3.18691313e-01]
 [-8.17664802e-01]
 [-8.29232574e-01]
 [ 1.50932521e-01]
 [ 8.45369875e-01]
 [ 8.58793616e-01]
 [ 1.62673032e+00]
 [ 1.57880828e-01]
 [ 1.14291513e+00]
 [ 8.29795480e-01]
 [ 1.43350184e-01]
 [ 4.54560012e-01]
 [-5.72763801e-01]
 [-1.11764145e+00]
 [-8.46979856e-01]
 [ 5.45319803e-02]
 [-8.05378914e-01]
 [-1.24217248e+00]]

Layer 4:
[0.04121738]



