:
------------------------------------------------------------------------



Entrenamiento 0:
------------------------------------------------------------------------

Layer 0:
[[ 0.         -0.         -0.         ...  0.          0.
  -0.        ]
 [ 0.         -0.         -0.         ... -0.05378527 -0.03708327
   0.        ]
 [-0.         -0.         -0.         ... -0.          0.
  -0.        ]
 ...
 [ 0.          0.          0.         ... -0.         -0.
  -0.        ]
 [ 0.          0.21372922  0.         ...  0.         -0.
   0.        ]
 [ 0.         -0.02163281  0.         ... -0.         -0.
   0.        ]]

Layer 1:
[[-0.00415729 -0.17199592  0.19426721 -0.15367924  0.07093248  0.0983882
  -0.0113713  -0.08285339  0.01591992  0.21537116 -0.1396736  -0.12165143
   0.21287677  0.19171178  0.0285593  -0.14295545 -0.02883126 -0.17544316
  -0.0047406   0.2023376   0.06216487  0.16143683 -0.11414698  0.1114417
  -0.13562493  0.20658198  0.12208918  0.16037986  0.12281865  0.01281029
   0.14050871 -0.05128838 -0.04284997 -0.11539932 -0.06563669  0.11444432
  -0.17958719  0.06664583  0.16097084  0.09811452  0.04480806  0.06922677
  -0.14989212  0.12719885  0.08503023  0.1854757   0.18984056 -0.16022894
  -0.10347097  0.10254711 -0.16036904  0.07226536  0.06244794 -0.19036171
   0.19070432  0.14195415 -0.23974493  0.04592645 -0.02077609 -0.21241978
  -0.24123935  0.15454608 -0.10599464 -0.1504118   0.03383884  0.09533983
  -0.06146935  0.11752966 -0.05888465 -0.2254166  -0.10966153  0.0097377
   0.12173742 -0.04803576 -0.17459643  0.07709447  0.1204589   0.18653211
  -0.18034309  0.24148759  0.02453956 -0.15538013 -0.05208088 -0.07835843
  -0.00423795 -0.13479277  0.10126004  0.19141084 -0.15655491  0.06867111
  -0.05589521  0.11374497  0.07893384 -0.03288476  0.13024324  0.09537366
  -0.2000445  -0.17671612 -0.02327327  0.21402276]]

Layer 2:
[0. 0. 0. 0. 0. 0. 0. 0. 0. 0. 0. 0. 0. 0. 0. 0. 0. 0. 0. 0. 0. 0. 0. 0.
 0. 0. 0. 0. 0. 0. 0. 0. 0. 0. 0. 0. 0. 0. 0. 0. 0. 0. 0. 0. 0. 0. 0. 0.
 0. 0. 0. 0. 0. 0. 0. 0. 0. 0. 0. 0. 0. 0. 0. 0. 0. 0. 0. 0. 0. 0. 0. 0.
 0. 0. 0. 0. 0. 0. 0. 0. 0. 0. 0. 0. 0. 0. 0. 0. 0. 0. 0. 0. 0. 0. 0. 0.
 0. 0. 0. 0.]

Layer 3:
[[-3.6279843e+00]
 [-3.2780680e-01]
 [-2.3701578e-01]
 [ 9.4800875e-02]
 [ 7.1429175e-01]
 [ 1.6638327e-01]
 [-1.9161736e+00]
 [-1.6178675e-01]
 [ 2.2960103e+00]
 [ 3.9659506e-01]
 [-3.7979025e-01]
 [-6.8526745e-01]
 [-3.9000979e-01]
 [ 8.8234790e-02]
 [ 4.8151951e+00]
 [ 7.3062271e-02]
 [-4.0209126e+00]
 [ 1.5197182e-01]
 [-4.2759061e-01]
 [ 3.8973605e-03]
 [ 1.0257000e+00]
 [-2.5931984e-01]
 [-1.4044671e-01]
 [ 2.2130464e-01]
 [ 8.3773203e-02]
 [-4.9997956e-01]
 [ 2.2016066e-01]
 [ 7.0347518e-02]
 [ 3.0170241e-03]
 [ 1.4367173e+00]
 [ 7.0916641e-01]
 [-1.9629058e+00]
 [-3.4960359e-01]
 [-2.6475128e-02]
 [-1.1076097e+00]
 [-1.0066982e-01]
 [-1.5005791e-01]
 [ 1.4047554e+00]
 [ 3.4459451e-01]
 [ 1.1417805e+00]
 [ 4.0856576e+00]
 [ 2.3170841e-01]
 [-3.1536415e-01]
 [ 1.3429368e+00]
 [ 8.4446514e-01]
 [ 6.2398195e-01]
 [-3.0011690e-01]
 [-2.6455265e-01]
 [-3.5984361e-01]
 [ 7.3553687e-01]
 [-3.5954401e-01]
 [ 4.5675036e-01]
 [ 2.2005279e+00]
 [ 6.8839140e-02]
 [ 4.1484335e-01]
 [ 4.1822609e-01]
 [-4.5670387e-03]
 [ 2.7619886e+00]
 [-2.0599699e+00]
 [-6.6736627e-01]
 [ 3.4599963e-01]
 [ 4.6581683e-01]
 [-3.8416532e-01]
 [-1.6742198e-01]
 [ 3.6000165e-01]
 [ 1.2109604e+00]
 [-7.2062510e-01]
 [-1.2486733e-03]
 [-2.4852636e+00]
 [ 2.3770972e-01]
 [-3.5717356e-01]
 [ 2.0228748e+00]
 [ 2.0568149e-02]
 [-1.0622636e+00]
 [ 3.0638772e-01]
 [ 8.5142571e-01]
 [ 1.2007804e+00]
 [ 2.1020461e-02]
 [ 1.1674592e-01]
 [-4.8156896e-01]
 [ 1.8263623e+00]
 [ 3.9667258e-01]
 [-6.1982828e-01]
 [-3.5060948e-01]
 [-2.6189706e+00]
 [ 1.2461774e-01]
 [ 2.1612680e-01]
 [ 1.3562681e-01]
 [-7.8517132e-02]
 [ 7.2360992e-01]
 [-4.9418178e-01]
 [ 1.4848123e-01]
 [ 6.7332774e-01]
 [-1.6672267e+00]
 [-9.5447659e-02]
 [ 4.6457288e-01]
 [ 2.2208063e-01]
 [-2.6282616e-02]
 [-1.0202153e+00]
 [-3.1934392e-01]]

Layer 4:
[0.02746183]



Consenso 0:
------------------------------------------------------------------------

Layer 0:
[[ 0.         -0.2829659   0.         ...  0.          0.23602034
   0.        ]
 [ 0.          0.          0.         ... -0.01536722 -0.01059522
   0.        ]
 [ 0.20013273  0.          0.         ...  0.          0.
   0.        ]
 ...
 [ 0.          0.          0.         ...  0.          0.30086145
   0.        ]
 [ 0.          0.06106549  0.         ...  0.          0.
   0.        ]
 [ 0.         -0.0061808  -0.2922764  ...  0.         -0.24580905
   0.        ]]

Layer 1:
[[ 0.11536998 -0.20783366  0.11617342 -0.11346529  0.14595562 -0.08669376
  -0.16158943 -0.14028151  0.16431852 -0.00594605  0.08469932  0.0513733
  -0.06077137 -0.08996094 -0.04298729  0.03635874  0.0007899   0.10265816
  -0.05116397 -0.07127349  0.0796007  -0.09116764  0.02643043 -0.05736058
  -0.08328258 -0.04157953  0.08871081  0.0752629   0.03177037  0.09225
   0.00764431 -0.05132154 -0.0138379   0.11790765  0.11399458  0.05825894
  -0.06061226  0.18049698  0.19707038  0.02640015 -0.14018247  0.01013338
  -0.01259514 -0.02004796  0.09770064  0.02130019 -0.09305105  0.12602146
   0.09499964  0.11711788  0.08176571 -0.10802288 -0.08927488  0.0943477
  -0.07015077 -0.09798811 -0.16987716  0.09278587 -0.07663579 -0.18825391
  -0.06107558  0.10134002 -0.04424085 -0.15437573  0.10242502  0.013457
  -0.18740219  0.20213103  0.02996793  0.07733617 -0.01540678 -0.16463107
  -0.02413206 -0.16265559  0.04507839  0.142928    0.03587428  0.17296685
   0.00994454  0.11229262 -0.13961317  0.10173339 -0.14008035 -0.12400497
  -0.16272402  0.1226809   0.07768911  0.11540052  0.04074828 -0.1424844
   0.04518868  0.1704995  -0.1091262  -0.07376896 -0.13092202 -0.11953179
  -0.13138755 -0.13616705 -0.17092578  0.1912486 ]]

Layer 2:
[0. 0. 0. 0. 0. 0. 0. 0. 0. 0. 0. 0. 0. 0. 0. 0. 0. 0. 0. 0. 0. 0. 0. 0.
 0. 0. 0. 0. 0. 0. 0. 0. 0. 0. 0. 0. 0. 0. 0. 0. 0. 0. 0. 0. 0. 0. 0. 0.
 0. 0. 0. 0. 0. 0. 0. 0. 0. 0. 0. 0. 0. 0. 0. 0. 0. 0. 0. 0. 0. 0. 0. 0.
 0. 0. 0. 0. 0. 0. 0. 0. 0. 0. 0. 0. 0. 0. 0. 0. 0. 0. 0. 0. 0. 0. 0. 0.
 0. 0. 0. 0.]

Layer 3:
[[-0.8108929 ]
 [-0.10594677]
 [ 0.78438675]
 [-0.732821  ]
 [ 0.5505109 ]
 [ 0.21845877]
 [-0.44837925]
 [-0.58096397]
 [ 0.40484133]
 [-0.97852075]
 [-0.03861416]
 [ 0.09748274]
 [ 0.02363701]
 [-0.15873775]
 [-1.3760993 ]
 [ 0.68194836]
 [ 1.2317894 ]
 [-0.15960792]
 [-0.37778178]
 [ 0.14076297]
 [ 2.3543892 ]
 [-0.07752398]
 [ 0.48963007]
 [-0.07224943]
 [-1.9192604 ]
 [-0.5889625 ]
 [ 2.1446187 ]
 [ 0.8056145 ]
 [-3.5353038 ]
 [ 0.68588275]
 [-2.022708  ]
 [-2.178088  ]
 [-2.4133966 ]
 [ 0.05404779]
 [-0.06178618]
 [ 1.1017425 ]
 [-1.0558739 ]
 [ 0.372781  ]
 [ 0.20858878]
 [ 1.4739394 ]
 [ 1.2268019 ]
 [-0.58319217]
 [ 1.4092557 ]
 [-0.05076289]
 [ 2.094399  ]
 [-2.6033509 ]
 [ 0.01562957]
 [-0.02069859]
 [ 0.15474187]
 [ 0.53635585]
 [ 0.04236255]
 [ 0.2827924 ]
 [-0.012779  ]
 [-0.0052395 ]
 [-0.11717192]
 [-0.17562808]
 [-0.84373677]
 [ 0.9921504 ]
 [-0.8979403 ]
 [-0.08677293]
 [ 2.0638916 ]
 [ 1.9176033 ]
 [-3.0288913 ]
 [-0.2918298 ]
 [ 0.90544677]
 [-1.2686002 ]
 [-0.00384552]
 [-0.15917757]
 [ 0.08110352]
 [ 0.03200619]
 [ 2.0420592 ]
 [ 0.5801473 ]
 [-0.8445562 ]
 [-0.36893496]
 [ 0.22134873]
 [ 0.00916918]
 [ 0.5310726 ]
 [ 0.35932848]
 [ 0.15139927]
 [ 1.4191527 ]
 [ 0.49733165]
 [-0.05205899]
 [-0.02766825]
 [-0.16018946]
 [-0.78196913]
 [ 0.23721503]
 [ 0.16835569]
 [ 0.24306457]
 [ 0.09092136]
 [ 0.30401495]
 [ 0.9371648 ]
 [ 0.14324693]
 [-0.00783943]
 [-2.2726448 ]
 [ 0.19073491]
 [ 0.10638992]
 [-0.06447767]
 [-0.61739033]
 [-0.47705105]
 [ 0.41100714]]

Layer 4:
[-0.05600604]



Entrenamiento 1:
------------------------------------------------------------------------

Layer 0:
[[ 0.         -0.2829659   0.         ...  0.          0.23602034
   0.        ]
 [ 0.          0.          0.         ... -0.01536722 -0.01059522
   0.        ]
 [ 0.20013273  0.          0.         ...  0.          0.
   0.        ]
 ...
 [ 0.          0.          0.         ...  0.          0.30086145
   0.        ]
 [ 0.          0.06106549  0.         ...  0.          0.
   0.        ]
 [ 0.         -0.0061808  -0.2922764  ...  0.         -0.24580905
   0.        ]]

Layer 1:
[[ 0.11536998 -0.20783366  0.11617342 -0.11346529  0.14595562 -0.08669376
  -0.16158943 -0.14028151  0.16431852 -0.00594605  0.08469932  0.0513733
  -0.06077137 -0.08996094 -0.04298729  0.03635874  0.0007899   0.10265816
  -0.05116397 -0.07127349  0.0796007  -0.09116764  0.02643043 -0.05736058
  -0.08328258 -0.04157953  0.08871081  0.0752629   0.03177037  0.09225
   0.00764431 -0.05132154 -0.0138379   0.11790765  0.11399458  0.05825894
  -0.06061226  0.18049698  0.19707038  0.02640015 -0.14018247  0.01013338
  -0.01259514 -0.02004796  0.09770064  0.02130019 -0.09305105  0.12602146
   0.09499964  0.11711788  0.08176571 -0.10802288 -0.08927488  0.0943477
  -0.07015077 -0.09798811 -0.16987716  0.09278587 -0.07663579 -0.18825391
  -0.06107558  0.10134002 -0.04424085 -0.15437573  0.10242502  0.013457
  -0.18740219  0.20213103  0.02996793  0.07733617 -0.01540678 -0.16463107
  -0.02413206 -0.16265559  0.04507839  0.142928    0.03587428  0.17296685
   0.00994454  0.11229262 -0.13961317  0.10173339 -0.14008035 -0.12400497
  -0.16272402  0.1226809   0.07768911  0.11540052  0.04074828 -0.1424844
   0.04518868  0.1704995  -0.1091262  -0.07376896 -0.13092202 -0.11953179
  -0.13138755 -0.13616705 -0.17092578  0.1912486 ]]

Layer 2:
[0. 0. 0. 0. 0. 0. 0. 0. 0. 0. 0. 0. 0. 0. 0. 0. 0. 0. 0. 0. 0. 0. 0. 0.
 0. 0. 0. 0. 0. 0. 0. 0. 0. 0. 0. 0. 0. 0. 0. 0. 0. 0. 0. 0. 0. 0. 0. 0.
 0. 0. 0. 0. 0. 0. 0. 0. 0. 0. 0. 0. 0. 0. 0. 0. 0. 0. 0. 0. 0. 0. 0. 0.
 0. 0. 0. 0. 0. 0. 0. 0. 0. 0. 0. 0. 0. 0. 0. 0. 0. 0. 0. 0. 0. 0. 0. 0.
 0. 0. 0. 0.]

Layer 3:
[[-1.4154694 ]
 [-0.7943918 ]
 [ 0.03511503]
 [-0.28133935]
 [-0.15886822]
 [-0.27554485]
 [-0.18969119]
 [ 0.25596306]
 [ 0.7339759 ]
 [-3.1866124 ]
 [ 0.15951183]
 [ 1.046378  ]
 [ 0.03698063]
 [-0.25780496]
 [-4.9247704 ]
 [ 2.3881502 ]
 [ 1.1988492 ]
 [-0.03565969]
 [-1.2148198 ]
 [-0.18432078]
 [ 2.410331  ]
 [ 0.13424338]
 [ 3.7246864 ]
 [-0.28032976]
 [-1.5982538 ]
 [-1.7552863 ]
 [ 2.08555   ]
 [ 0.51064277]
 [-2.4612083 ]
 [ 0.52367   ]
 [-0.6465347 ]
 [-2.1516564 ]
 [-6.461845  ]
 [ 0.60721266]
 [-0.23547961]
 [ 1.412014  ]
 [-1.3784428 ]
 [ 0.36911374]
 [ 0.12672123]
 [ 2.9148967 ]
 [ 1.4138938 ]
 [ 2.5972102 ]
 [-2.4012573 ]
 [-2.868747  ]
 [ 2.1789231 ]
 [-1.4486766 ]
 [-0.03625557]
 [ 0.01570138]
 [ 0.11423811]
 [ 0.54107046]
 [-0.0181609 ]
 [ 0.44576722]
 [ 0.29952765]
 [-0.10154209]
 [-0.37588227]
 [ 0.35441473]
 [ 0.4811615 ]
 [ 1.1528001 ]
 [-1.0898796 ]
 [-0.25897387]
 [ 1.9805354 ]
 [ 1.327678  ]
 [-4.336359  ]
 [ 0.04053769]
 [ 0.42495897]
 [ 3.2983282 ]
 [-0.45508963]
 [-0.11664335]
 [ 2.1315062 ]
 [ 0.40136832]
 [-0.68247324]
 [ 0.70339465]
 [-2.3662324 ]
 [-0.5192077 ]
 [ 0.856387  ]
 [ 0.2788832 ]
 [ 4.9715986 ]
 [ 0.3935539 ]
 [ 2.32403   ]
 [ 1.0684336 ]
 [ 0.70685226]
 [-0.5857102 ]
 [-0.03272148]
 [-0.30648157]
 [-1.3168323 ]
 [-0.24439292]
 [ 0.723274  ]
 [ 0.4841747 ]
 [ 0.84674823]
 [ 0.18888505]
 [ 2.6032383 ]
 [ 0.21358874]
 [ 1.1388985 ]
 [-3.9902563 ]
 [ 0.06468072]
 [-0.06498577]
 [-0.48621187]
 [-0.03189127]
 [-0.4284538 ]
 [-0.53204966]]

Layer 4:
[0.03026709]



Consenso 1:
------------------------------------------------------------------------

Layer 0:
[[ 0.         -0.2829659   0.         ...  0.          0.23602034
   0.        ]
 [ 0.          0.          0.         ... -0.01536722 -0.01059522
   0.        ]
 [ 0.20013273  0.          0.         ...  0.          0.
   0.        ]
 ...
 [ 0.          0.          0.         ...  0.          0.30086145
   0.        ]
 [ 0.          0.06106549  0.         ...  0.          0.
   0.        ]
 [ 0.         -0.0061808  -0.2922764  ...  0.         -0.24580905
   0.        ]]

Layer 1:
[[ 0.11536998 -0.20783366  0.11617342 -0.11346529  0.14595562 -0.08669376
  -0.16158943 -0.14028151  0.16431852 -0.00594605  0.08469932  0.0513733
  -0.06077137 -0.08996094 -0.04298729  0.03635874  0.0007899   0.10265816
  -0.05116397 -0.07127349  0.0796007  -0.09116764  0.02643043 -0.05736058
  -0.08328258 -0.04157953  0.08871081  0.0752629   0.03177037  0.09225
   0.00764431 -0.05132154 -0.0138379   0.11790765  0.11399458  0.05825894
  -0.06061226  0.18049698  0.19707038  0.02640015 -0.14018247  0.01013338
  -0.01259514 -0.02004796  0.09770064  0.02130019 -0.09305105  0.12602146
   0.09499964  0.11711788  0.08176571 -0.10802288 -0.08927488  0.0943477
  -0.07015077 -0.09798811 -0.16987716  0.09278587 -0.07663579 -0.18825391
  -0.06107558  0.10134002 -0.04424085 -0.15437573  0.10242502  0.013457
  -0.18740219  0.20213103  0.02996793  0.07733617 -0.01540678 -0.16463107
  -0.02413206 -0.16265559  0.04507839  0.142928    0.03587428  0.17296685
   0.00994454  0.11229262 -0.13961317  0.10173339 -0.14008035 -0.12400497
  -0.16272402  0.1226809   0.07768911  0.11540052  0.04074828 -0.1424844
   0.04518868  0.1704995  -0.1091262  -0.07376896 -0.13092202 -0.11953179
  -0.13138755 -0.13616705 -0.17092578  0.1912486 ]]

Layer 2:
[0. 0. 0. 0. 0. 0. 0. 0. 0. 0. 0. 0. 0. 0. 0. 0. 0. 0. 0. 0. 0. 0. 0. 0.
 0. 0. 0. 0. 0. 0. 0. 0. 0. 0. 0. 0. 0. 0. 0. 0. 0. 0. 0. 0. 0. 0. 0. 0.
 0. 0. 0. 0. 0. 0. 0. 0. 0. 0. 0. 0. 0. 0. 0. 0. 0. 0. 0. 0. 0. 0. 0. 0.
 0. 0. 0. 0. 0. 0. 0. 0. 0. 0. 0. 0. 0. 0. 0. 0. 0. 0. 0. 0. 0. 0. 0. 0.
 0. 0. 0. 0.]

Layer 3:
[[-1.07019091e+00]
 [-3.71158451e-01]
 [ 5.28837502e-01]
 [-5.51533937e-01]
 [ 9.64806154e-02]
 [-3.26182768e-02]
 [-1.93555176e-01]
 [-1.44597977e-01]
 [ 3.79808933e-01]
 [-4.27696133e+00]
 [ 1.28760025e-01]
 [ 1.54603338e+00]
 [-2.32663751e-01]
 [-1.65951982e-01]
 [-5.69524336e+00]
 [ 2.97921920e+00]
 [ 1.96755266e+00]
 [-2.26977736e-01]
 [-1.60163009e+00]
 [-1.41538009e-01]
 [ 3.07803702e+00]
 [-3.35563533e-02]
 [ 4.19272947e+00]
 [-6.10796288e-02]
 [-2.34900808e+00]
 [-2.06760240e+00]
 [ 2.83746195e+00]
 [ 6.45837963e-01]
 [-1.78776681e+00]
 [ 7.30176806e-01]
 [-9.13241804e-01]
 [-2.76307201e+00]
 [-8.64922142e+00]
 [ 2.84256041e-01]
 [-2.21099034e-01]
 [ 1.74644256e+00]
 [-1.50868964e+00]
 [ 2.27860689e-01]
 [-2.91683823e-02]
 [ 3.34796190e+00]
 [ 1.36690891e+00]
 [ 3.67914152e+00]
 [-3.33585501e+00]
 [-3.32992911e+00]
 [ 2.73270559e+00]
 [-1.79695821e+00]
 [-6.46627173e-02]
 [-1.44072473e-01]
 [ 1.52010486e-01]
 [ 4.24484879e-01]
 [-6.79877726e-03]
 [ 3.53136688e-01]
 [-6.20600522e-01]
 [-8.25667009e-02]
 [-6.73871577e-01]
 [-2.24299744e-01]
 [-1.10445604e-01]
 [ 9.27206337e-01]
 [-1.18166459e+00]
 [ 3.27733047e-02]
 [ 1.52964830e+00]
 [ 2.13841319e+00]
 [-4.63125563e+00]
 [ 3.15384604e-02]
 [ 7.90799081e-01]
 [ 3.82812858e+00]
 [-8.58658329e-02]
 [-3.17396194e-01]
 [ 2.88937974e+00]
 [ 9.59001482e-01]
 [-7.64149845e-01]
 [ 7.96376050e-01]
 [-3.03367019e+00]
 [-2.77702421e-01]
 [ 1.09024107e+00]
 [ 1.97952781e-02]
 [ 5.74167013e+00]
 [ 1.08758189e-01]
 [ 2.88993406e+00]
 [ 1.34274161e+00]
 [ 6.96565628e-01]
 [-4.87406671e-01]
 [ 1.18669346e-01]
 [-9.72084999e-02]
 [-8.36571574e-01]
 [-8.65108743e-02]
 [ 3.37792218e-01]
 [ 2.52485961e-01]
 [ 6.51289761e-01]
 [ 2.82090157e-01]
 [ 3.12106037e+00]
 [ 1.96439885e-02]
 [ 4.59383190e-01]
 [-4.30029440e+00]
 [ 2.42942095e-01]
 [ 7.62094110e-02]
 [-2.35179707e-01]
 [-2.38897771e-01]
 [-1.70814678e-01]
 [-2.36903697e-01]]

Layer 4:
[-0.43812087]



Entrenamiento 2:
------------------------------------------------------------------------

Layer 0:
[[ 0.         -0.2829659   0.         ...  0.          0.23602034
   0.        ]
 [ 0.          0.          0.         ... -0.01536722 -0.01059522
   0.        ]
 [ 0.20013273  0.          0.         ...  0.          0.
   0.        ]
 ...
 [ 0.          0.          0.         ...  0.          0.30086145
   0.        ]
 [ 0.          0.06106549  0.         ...  0.          0.
   0.        ]
 [ 0.         -0.0061808  -0.2922764  ...  0.         -0.24580905
   0.        ]]

Layer 1:
[[ 0.11536998 -0.20783366  0.11617342 -0.11346529  0.14595562 -0.08669376
  -0.16158943 -0.14028151  0.16431852 -0.00594605  0.08469932  0.0513733
  -0.06077137 -0.08996094 -0.04298729  0.03635874  0.0007899   0.10265816
  -0.05116397 -0.07127349  0.0796007  -0.09116764  0.02643043 -0.05736058
  -0.08328258 -0.04157953  0.08871081  0.0752629   0.03177037  0.09225
   0.00764431 -0.05132154 -0.0138379   0.11790765  0.11399458  0.05825894
  -0.06061226  0.18049698  0.19707038  0.02640015 -0.14018247  0.01013338
  -0.01259514 -0.02004796  0.09770064  0.02130019 -0.09305105  0.12602146
   0.09499964  0.11711788  0.08176571 -0.10802288 -0.08927488  0.0943477
  -0.07015077 -0.09798811 -0.16987716  0.09278587 -0.07663579 -0.18825391
  -0.06107558  0.10134002 -0.04424085 -0.15437573  0.10242502  0.013457
  -0.18740219  0.20213103  0.02996793  0.07733617 -0.01540678 -0.16463107
  -0.02413206 -0.16265559  0.04507839  0.142928    0.03587428  0.17296685
   0.00994454  0.11229262 -0.13961317  0.10173339 -0.14008035 -0.12400497
  -0.16272402  0.1226809   0.07768911  0.11540052  0.04074828 -0.1424844
   0.04518868  0.1704995  -0.1091262  -0.07376896 -0.13092202 -0.11953179
  -0.13138755 -0.13616705 -0.17092578  0.1912486 ]]

Layer 2:
[0. 0. 0. 0. 0. 0. 0. 0. 0. 0. 0. 0. 0. 0. 0. 0. 0. 0. 0. 0. 0. 0. 0. 0.
 0. 0. 0. 0. 0. 0. 0. 0. 0. 0. 0. 0. 0. 0. 0. 0. 0. 0. 0. 0. 0. 0. 0. 0.
 0. 0. 0. 0. 0. 0. 0. 0. 0. 0. 0. 0. 0. 0. 0. 0. 0. 0. 0. 0. 0. 0. 0. 0.
 0. 0. 0. 0. 0. 0. 0. 0. 0. 0. 0. 0. 0. 0. 0. 0. 0. 0. 0. 0. 0. 0. 0. 0.
 0. 0. 0. 0.]

Layer 3:
[[ -1.0939999 ]
 [ -0.75905323]
 [ -0.04117345]
 [ -0.22892323]
 [ -0.06633721]
 [ -0.39598206]
 [ -0.11938652]
 [  0.5133478 ]
 [  0.7152906 ]
 [ -6.621498  ]
 [  0.23702785]
 [  0.05028993]
 [  0.10127584]
 [ -0.42472243]
 [ -6.862932  ]
 [  2.708846  ]
 [  2.043692  ]
 [  0.31251845]
 [ -0.6076134 ]
 [ -0.29028112]
 [  1.3707185 ]
 [  0.15449038]
 [  4.452704  ]
 [ -0.7674907 ]
 [ -1.146388  ]
 [ -0.9981605 ]
 [  1.2223217 ]
 [  0.9100673 ]
 [ -2.1796632 ]
 [  0.29054457]
 [  0.01851181]
 [ -1.9686089 ]
 [-11.374591  ]
 [  0.77950865]
 [ -0.06983673]
 [  1.336056  ]
 [ -1.4981416 ]
 [  0.3293552 ]
 [  0.2747845 ]
 [  4.1369066 ]
 [  1.0408845 ]
 [  7.5251646 ]
 [ -6.16799   ]
 [ -3.9574    ]
 [  1.0258218 ]
 [ -1.054669  ]
 [ -0.03846274]
 [  0.24681732]
 [  0.11227803]
 [  0.8118622 ]
 [  0.20587444]
 [  0.4897473 ]
 [  1.2303524 ]
 [  0.07822587]
 [ -0.03863146]
 [  0.91021115]
 [  0.39665762]
 [  1.4034355 ]
 [ -0.6133785 ]
 [ -0.2725651 ]
 [  2.572123  ]
 [  0.7042781 ]
 [ -4.5051436 ]
 [  0.02237319]
 [  0.29306737]
 [  6.6541495 ]
 [ -0.41108277]
 [ -0.11335861]
 [  2.791644  ]
 [ -0.54091316]
 [ -2.310856  ]
 [  0.5036521 ]
 [ -3.3552964 ]
 [ -0.6254723 ]
 [  0.70545065]
 [  0.38223127]
 [  6.710427  ]
 [  0.5718469 ]
 [  4.7364993 ]
 [  1.3481084 ]
 [  0.38859105]
 [  0.0506791 ]
 [ -0.21141507]
 [ -0.50381726]
 [ -1.3496302 ]
 [ -0.07930261]
 [  1.0590025 ]
 [  0.68160075]
 [  1.0441055 ]
 [  0.11862141]
 [  2.460088  ]
 [  0.26376918]
 [  1.1751579 ]
 [ -2.3727026 ]
 [ -0.19321144]
 [ -0.29298463]
 [ -0.5708028 ]
 [ -0.05848006]
 [ -0.61870223]
 [ -0.58734673]]

Layer 4:
[0.05930615]



Consenso 2:
------------------------------------------------------------------------

Layer 0:
[[ 0.         -0.2829659   0.         ...  0.          0.23602034
   0.        ]
 [ 0.          0.          0.         ... -0.01536722 -0.01059522
   0.        ]
 [ 0.20013273  0.          0.         ...  0.          0.
   0.        ]
 ...
 [ 0.          0.          0.         ...  0.          0.30086145
   0.        ]
 [ 0.          0.06106549  0.         ...  0.          0.
   0.        ]
 [ 0.         -0.0061808  -0.2922764  ...  0.         -0.24580905
   0.        ]]

Layer 1:
[[ 0.11536998 -0.20783366  0.11617342 -0.11346529  0.14595562 -0.08669376
  -0.16158943 -0.14028151  0.16431852 -0.00594605  0.08469932  0.0513733
  -0.06077137 -0.08996094 -0.04298729  0.03635874  0.0007899   0.10265816
  -0.05116397 -0.07127349  0.0796007  -0.09116764  0.02643043 -0.05736058
  -0.08328258 -0.04157953  0.08871081  0.0752629   0.03177037  0.09225
   0.00764431 -0.05132154 -0.0138379   0.11790765  0.11399458  0.05825894
  -0.06061226  0.18049698  0.19707038  0.02640015 -0.14018247  0.01013338
  -0.01259514 -0.02004796  0.09770064  0.02130019 -0.09305105  0.12602146
   0.09499964  0.11711788  0.08176571 -0.10802288 -0.08927488  0.0943477
  -0.07015077 -0.09798811 -0.16987716  0.09278587 -0.07663579 -0.18825391
  -0.06107558  0.10134002 -0.04424085 -0.15437573  0.10242502  0.013457
  -0.18740219  0.20213103  0.02996793  0.07733617 -0.01540678 -0.16463107
  -0.02413206 -0.16265559  0.04507839  0.142928    0.03587428  0.17296685
   0.00994454  0.11229262 -0.13961317  0.10173339 -0.14008035 -0.12400497
  -0.16272402  0.1226809   0.07768911  0.11540052  0.04074828 -0.1424844
   0.04518868  0.1704995  -0.1091262  -0.07376896 -0.13092202 -0.11953179
  -0.13138755 -0.13616705 -0.17092578  0.1912486 ]]

Layer 2:
[0. 0. 0. 0. 0. 0. 0. 0. 0. 0. 0. 0. 0. 0. 0. 0. 0. 0. 0. 0. 0. 0. 0. 0.
 0. 0. 0. 0. 0. 0. 0. 0. 0. 0. 0. 0. 0. 0. 0. 0. 0. 0. 0. 0. 0. 0. 0. 0.
 0. 0. 0. 0. 0. 0. 0. 0. 0. 0. 0. 0. 0. 0. 0. 0. 0. 0. 0. 0. 0. 0. 0. 0.
 0. 0. 0. 0. 0. 0. 0. 0. 0. 0. 0. 0. 0. 0. 0. 0. 0. 0. 0. 0. 0. 0. 0. 0.
 0. 0. 0. 0.]

Layer 3:
[[-1.23255968e+00]
 [-1.03548038e+00]
 [-2.38937557e-01]
 [-1.10594958e-01]
 [-2.86311150e-01]
 [-5.13400435e-01]
 [-3.42082009e-02]
 [ 7.92195797e-01]
 [ 7.13399172e-01]
 [-7.45155907e+00]
 [ 3.12920004e-01]
 [ 6.32586539e-01]
 [ 1.90774232e-01]
 [-3.95276248e-01]
 [-7.44581985e+00]
 [ 3.28639841e+00]
 [ 2.03726864e+00]
 [ 9.24826190e-02]
 [-9.74518061e-01]
 [-3.73282611e-01]
 [ 1.84159410e+00]
 [ 2.41724908e-01]
 [ 5.33877373e+00]
 [-5.16943455e-01]
 [-1.26104963e+00]
 [-1.47225785e+00]
 [ 1.64385879e+00]
 [ 5.37609279e-01]
 [-1.97464430e+00]
 [ 2.21714616e-01]
 [ 1.19439974e-01]
 [-1.90581250e+00]
 [-1.25910959e+01]
 [ 9.65431154e-01]
 [-1.48632675e-01]
 [ 1.43935704e+00]
 [-1.52694082e+00]
 [ 3.86806548e-01]
 [ 2.35349730e-01]
 [ 4.57813311e+00]
 [ 9.95488644e-01]
 [ 8.18531895e+00]
 [-7.04219723e+00]
 [-4.54934454e+00]
 [ 1.54421616e+00]
 [-1.06037819e+00]
 [-1.58599224e-02]
 [ 2.05067307e-01]
 [ 9.38046277e-02]
 [ 6.99675441e-01]
 [ 9.46350098e-02]
 [ 4.92455006e-01]
 [ 9.36422408e-01]
 [-2.40225568e-02]
 [-2.45903105e-01]
 [ 9.70078290e-01]
 [ 7.63110995e-01]
 [ 1.21634650e+00]
 [-6.88746691e-01]
 [-3.59160632e-01]
 [ 2.45802784e+00]
 [ 7.04211175e-01]
 [-4.92455435e+00]
 [ 8.69578719e-02]
 [ 1.27079293e-01]
 [ 7.29134321e+00]
 [-5.98541737e-01]
 [-3.33350189e-02]
 [ 3.42027807e+00]
 [-9.41728801e-02]
 [-2.75079346e+00]
 [ 4.40420479e-01]
 [-3.67712045e+00]
 [-6.14144981e-01]
 [ 9.42196310e-01]
 [ 4.39145476e-01]
 [ 7.62550497e+00]
 [ 5.09813845e-01]
 [ 5.41111565e+00]
 [ 1.18944848e+00]
 [ 4.56031948e-01]
 [-5.06999850e-01]
 [-1.50492117e-01]
 [-4.55911070e-01]
 [-1.24757588e+00]
 [-2.75623202e-01]
 [ 1.04197872e+00]
 [ 6.86933577e-01]
 [ 1.13983321e+00]
 [ 3.91564518e-03]
 [ 3.11009097e+00]
 [ 2.85802186e-01]
 [ 1.60055268e+00]
 [-3.54030514e+00]
 [-1.82443097e-01]
 [-3.22377980e-01]
 [-7.41594911e-01]
 [ 2.36891538e-01]
 [-4.65247452e-01]
 [-8.17333043e-01]]

Layer 4:
[0.36355817]



Entrenamiento 3:
------------------------------------------------------------------------

Layer 0:
[[ 0.         -0.2829659   0.         ...  0.          0.23602034
   0.        ]
 [ 0.          0.          0.         ... -0.01536722 -0.01059522
   0.        ]
 [ 0.20013273  0.          0.         ...  0.          0.
   0.        ]
 ...
 [ 0.          0.          0.         ...  0.          0.30086145
   0.        ]
 [ 0.          0.06106549  0.         ...  0.          0.
   0.        ]
 [ 0.         -0.0061808  -0.2922764  ...  0.         -0.24580905
   0.        ]]

Layer 1:
[[ 0.11536998 -0.20783366  0.11617342 -0.11346529  0.14595562 -0.08669376
  -0.16158943 -0.14028151  0.16431852 -0.00594605  0.08469932  0.0513733
  -0.06077137 -0.08996094 -0.04298729  0.03635874  0.0007899   0.10265816
  -0.05116397 -0.07127349  0.0796007  -0.09116764  0.02643043 -0.05736058
  -0.08328258 -0.04157953  0.08871081  0.0752629   0.03177037  0.09225
   0.00764431 -0.05132154 -0.0138379   0.11790765  0.11399458  0.05825894
  -0.06061226  0.18049698  0.19707038  0.02640015 -0.14018247  0.01013338
  -0.01259514 -0.02004796  0.09770064  0.02130019 -0.09305105  0.12602146
   0.09499964  0.11711788  0.08176571 -0.10802288 -0.08927488  0.0943477
  -0.07015077 -0.09798811 -0.16987716  0.09278587 -0.07663579 -0.18825391
  -0.06107558  0.10134002 -0.04424085 -0.15437573  0.10242502  0.013457
  -0.18740219  0.20213103  0.02996793  0.07733617 -0.01540678 -0.16463107
  -0.02413206 -0.16265559  0.04507839  0.142928    0.03587428  0.17296685
   0.00994454  0.11229262 -0.13961317  0.10173339 -0.14008035 -0.12400497
  -0.16272402  0.1226809   0.07768911  0.11540052  0.04074828 -0.1424844
   0.04518868  0.1704995  -0.1091262  -0.07376896 -0.13092202 -0.11953179
  -0.13138755 -0.13616705 -0.17092578  0.1912486 ]]

Layer 2:
[0. 0. 0. 0. 0. 0. 0. 0. 0. 0. 0. 0. 0. 0. 0. 0. 0. 0. 0. 0. 0. 0. 0. 0.
 0. 0. 0. 0. 0. 0. 0. 0. 0. 0. 0. 0. 0. 0. 0. 0. 0. 0. 0. 0. 0. 0. 0. 0.
 0. 0. 0. 0. 0. 0. 0. 0. 0. 0. 0. 0. 0. 0. 0. 0. 0. 0. 0. 0. 0. 0. 0. 0.
 0. 0. 0. 0. 0. 0. 0. 0. 0. 0. 0. 0. 0. 0. 0. 0. 0. 0. 0. 0. 0. 0. 0. 0.
 0. 0. 0. 0.]

Layer 3:
[[-8.6363745e-01]
 [-3.5295808e-01]
 [ 1.2073289e-01]
 [-3.6077070e-01]
 [ 2.7149180e-01]
 [-3.3609307e-01]
 [-1.8403497e-01]
 [ 4.2140540e-01]
 [ 6.6327178e-01]
 [-9.7684116e+00]
 [ 2.0558453e-01]
 [-7.6765817e-01]
 [-7.9326965e-02]
 [-5.9994322e-01]
 [-7.2029114e+00]
 [ 2.5350935e+00]
 [ 2.1914947e+00]
 [ 6.8430686e-01]
 [-1.4969900e-01]
 [-3.4040660e-01]
 [ 8.7934762e-01]
 [ 7.9445345e-03]
 [ 4.3143024e+00]
 [-1.3039122e+00]
 [-9.6530038e-01]
 [-2.8815335e-01]
 [ 5.6783277e-01]
 [ 1.5332290e+00]
 [-2.0940208e+00]
 [ 3.6939496e-01]
 [ 6.7842376e-01]
 [-2.3361254e+00]
 [-1.4319019e+01]
 [ 6.6237092e-01]
 [ 7.9656556e-02]
 [ 1.2388861e+00]
 [-1.5383401e+00]
 [ 2.2543898e-01]
 [ 2.4738364e-01]
 [ 4.8142924e+00]
 [ 9.5703626e-01]
 [ 1.1766479e+01]
 [-8.9667368e+00]
 [-4.3841438e+00]
 [ 7.9899341e-02]
 [-6.2884402e-01]
 [-3.3208534e-02]
 [ 4.2027077e-01]
 [ 2.3413348e-01]
 [ 1.0696361e+00]
 [ 4.6923539e-01]
 [ 4.9473232e-01]
 [ 2.0056815e+00]
 [ 2.9374218e-01]
 [ 3.6659962e-01]
 [ 1.2419847e+00]
 [-7.8264125e-02]
 [ 1.8396029e+00]
 [-4.9125636e-01]
 [-2.0221567e-01]
 [ 2.8715258e+00]
 [ 4.0893644e-01]
 [-4.1695518e+00]
 [-6.0312953e-02]
 [ 4.7072762e-01]
 [ 8.8432589e+00]
 [-1.4226256e-01]
 [-2.7333730e-01]
 [ 2.7347534e+00]
 [-1.4745688e+00]
 [-3.4259253e+00]
 [ 4.9354401e-01]
 [-4.0813522e+00]
 [-6.1459202e-01]
 [ 5.1740670e-01]
 [ 3.5329625e-01]
 [ 6.8884492e+00]
 [ 6.8856251e-01]
 [ 6.6857624e+00]
 [ 1.5777632e+00]
 [ 2.8260350e-01]
 [ 9.8661482e-01]
 [-4.0105399e-01]
 [-6.0632378e-01]
 [-1.1626107e+00]
 [ 2.5473535e-01]
 [ 1.2155645e+00]
 [ 8.2725334e-01]
 [ 1.1425158e+00]
 [ 2.0633809e-01]
 [ 1.9142621e+00]
 [ 2.2722681e-01]
 [ 7.3938626e-01]
 [-6.1084729e-01]
 [-3.1159621e-01]
 [-3.6823827e-01]
 [-4.6943521e-01]
 [-3.0093926e-01]
 [-8.1677121e-01]
 [-3.7340400e-01]]

Layer 4:
[0.02638274]



Consenso 3:
------------------------------------------------------------------------

Layer 0:
[[ 0.         -0.2829659   0.         ...  0.          0.23602034
   0.        ]
 [ 0.          0.          0.         ... -0.01536722 -0.01059522
   0.        ]
 [ 0.20013273  0.          0.         ...  0.          0.
   0.        ]
 ...
 [ 0.          0.          0.         ...  0.          0.30086145
   0.        ]
 [ 0.          0.06106549  0.         ...  0.          0.
   0.        ]
 [ 0.         -0.0061808  -0.2922764  ...  0.         -0.24580905
   0.        ]]

Layer 1:
[[ 0.11536998 -0.20783366  0.11617342 -0.11346529  0.14595562 -0.08669376
  -0.16158943 -0.14028151  0.16431852 -0.00594605  0.08469932  0.0513733
  -0.06077137 -0.08996094 -0.04298729  0.03635874  0.0007899   0.10265816
  -0.05116397 -0.07127349  0.0796007  -0.09116764  0.02643043 -0.05736058
  -0.08328258 -0.04157953  0.08871081  0.0752629   0.03177037  0.09225
   0.00764431 -0.05132154 -0.0138379   0.11790765  0.11399458  0.05825894
  -0.06061226  0.18049698  0.19707038  0.02640015 -0.14018247  0.01013338
  -0.01259514 -0.02004796  0.09770064  0.02130019 -0.09305105  0.12602146
   0.09499964  0.11711788  0.08176571 -0.10802288 -0.08927488  0.0943477
  -0.07015077 -0.09798811 -0.16987716  0.09278587 -0.07663579 -0.18825391
  -0.06107558  0.10134002 -0.04424085 -0.15437573  0.10242502  0.013457
  -0.18740219  0.20213103  0.02996793  0.07733617 -0.01540678 -0.16463107
  -0.02413206 -0.16265559  0.04507839  0.142928    0.03587428  0.17296685
   0.00994454  0.11229262 -0.13961317  0.10173339 -0.14008035 -0.12400497
  -0.16272402  0.1226809   0.07768911  0.11540052  0.04074828 -0.1424844
   0.04518868  0.1704995  -0.1091262  -0.07376896 -0.13092202 -0.11953179
  -0.13138755 -0.13616705 -0.17092578  0.1912486 ]]

Layer 2:
[0. 0. 0. 0. 0. 0. 0. 0. 0. 0. 0. 0. 0. 0. 0. 0. 0. 0. 0. 0. 0. 0. 0. 0.
 0. 0. 0. 0. 0. 0. 0. 0. 0. 0. 0. 0. 0. 0. 0. 0. 0. 0. 0. 0. 0. 0. 0. 0.
 0. 0. 0. 0. 0. 0. 0. 0. 0. 0. 0. 0. 0. 0. 0. 0. 0. 0. 0. 0. 0. 0. 0. 0.
 0. 0. 0. 0. 0. 0. 0. 0. 0. 0. 0. 0. 0. 0. 0. 0. 0. 0. 0. 0. 0. 0. 0. 0.
 0. 0. 0. 0.]

Layer 3:
[[-1.01115775e+00]
 [-6.57765388e-01]
 [-1.06224403e-01]
 [-2.22897336e-01]
 [ 3.89327519e-02]
 [-4.55946684e-01]
 [-1.33625939e-01]
 [ 6.70178235e-01]
 [ 7.63852894e-01]
 [-1.04313841e+01]
 [ 2.38963827e-01]
 [-4.57915187e-01]
 [ 1.16009235e-01]
 [-5.77505469e-01]
 [-7.96482515e+00]
 [ 3.00004935e+00]
 [ 2.15777564e+00]
 [ 5.28168738e-01]
 [-3.00032854e-01]
 [-3.67317855e-01]
 [ 1.01293790e+00]
 [ 1.40825510e-01]
 [ 5.21341705e+00]
 [-1.10942996e+00]
 [-8.60521674e-01]
 [-4.99524772e-01]
 [ 7.26644039e-01]
 [ 1.20421255e+00]
 [-2.06757689e+00]
 [ 1.99672878e-01]
 [ 7.57466972e-01]
 [-1.98263812e+00]
 [-1.53445511e+01]
 [ 8.57415795e-01]
 [ 3.53779718e-02]
 [ 1.24013793e+00]
 [-1.51405334e+00]
 [ 3.48157495e-01]
 [ 3.22586983e-01]
 [ 5.07591963e+00]
 [ 8.79114449e-01]
 [ 1.22550869e+01]
 [-9.74031067e+00]
 [-4.95220184e+00]
 [ 3.30621570e-01]
 [-6.03141606e-01]
 [ 1.07984114e-02]
 [ 4.21559781e-01]
 [ 1.82399288e-01]
 [ 1.01425111e+00]
 [ 3.82939398e-01]
 [ 5.10467589e-01]
 [ 1.96547580e+00]
 [ 2.07633212e-01]
 [ 3.02039921e-01]
 [ 1.44538414e+00]
 [ 2.88532108e-01]
 [ 1.70207846e+00]
 [-4.22593772e-01]
 [-3.63383055e-01]
 [ 2.95892787e+00]
 [ 1.98993608e-01]
 [-4.57418680e+00]
 [-4.67363298e-02]
 [ 2.34319344e-01]
 [ 9.53094959e+00]
 [-3.86480033e-01]
 [-1.04403719e-01]
 [ 3.23622012e+00]
 [-1.29733539e+00]
 [-3.91031218e+00]
 [ 4.17963386e-01]
 [-4.24869347e+00]
 [-7.05564559e-01]
 [ 6.27110004e-01]
 [ 4.88154173e-01]
 [ 7.92702675e+00]
 [ 7.45037377e-01]
 [ 7.27927399e+00]
 [ 1.42544746e+00]
 [ 2.83980936e-01]
 [ 5.04572392e-01]
 [-4.12059367e-01]
 [-6.32165849e-01]
 [-1.27598011e+00]
 [ 8.73358697e-02]
 [ 1.27336037e+00]
 [ 8.66867721e-01]
 [ 1.19817829e+00]
 [ 8.62133950e-02]
 [ 2.45373392e+00]
 [ 3.14721048e-01]
 [ 1.22617209e+00]
 [-1.58454669e+00]
 [-3.57414722e-01]
 [-4.31522489e-01]
 [-6.47462606e-01]
 [-5.57010621e-02]
 [-8.21547270e-01]
 [-5.72858989e-01]]

Layer 4:
[0.5682341]



Entrenamiento 4:
------------------------------------------------------------------------

Layer 0:
[[ 0.         -0.2829659   0.         ...  0.          0.23602034
   0.        ]
 [ 0.          0.          0.         ... -0.01536722 -0.01059522
   0.        ]
 [ 0.20013273  0.          0.         ...  0.          0.
   0.        ]
 ...
 [ 0.          0.          0.         ...  0.          0.30086145
   0.        ]
 [ 0.          0.06106549  0.         ...  0.          0.
   0.        ]
 [ 0.         -0.0061808  -0.2922764  ...  0.         -0.24580905
   0.        ]]

Layer 1:
[[ 0.11536998 -0.20783366  0.11617342 -0.11346529  0.14595562 -0.08669376
  -0.16158943 -0.14028151  0.16431852 -0.00594605  0.08469932  0.0513733
  -0.06077137 -0.08996094 -0.04298729  0.03635874  0.0007899   0.10265816
  -0.05116397 -0.07127349  0.0796007  -0.09116764  0.02643043 -0.05736058
  -0.08328258 -0.04157953  0.08871081  0.0752629   0.03177037  0.09225
   0.00764431 -0.05132154 -0.0138379   0.11790765  0.11399458  0.05825894
  -0.06061226  0.18049698  0.19707038  0.02640015 -0.14018247  0.01013338
  -0.01259514 -0.02004796  0.09770064  0.02130019 -0.09305105  0.12602146
   0.09499964  0.11711788  0.08176571 -0.10802288 -0.08927488  0.0943477
  -0.07015077 -0.09798811 -0.16987716  0.09278587 -0.07663579 -0.18825391
  -0.06107558  0.10134002 -0.04424085 -0.15437573  0.10242502  0.013457
  -0.18740219  0.20213103  0.02996793  0.07733617 -0.01540678 -0.16463107
  -0.02413206 -0.16265559  0.04507839  0.142928    0.03587428  0.17296685
   0.00994454  0.11229262 -0.13961317  0.10173339 -0.14008035 -0.12400497
  -0.16272402  0.1226809   0.07768911  0.11540052  0.04074828 -0.1424844
   0.04518868  0.1704995  -0.1091262  -0.07376896 -0.13092202 -0.11953179
  -0.13138755 -0.13616705 -0.17092578  0.1912486 ]]

Layer 2:
[0. 0. 0. 0. 0. 0. 0. 0. 0. 0. 0. 0. 0. 0. 0. 0. 0. 0. 0. 0. 0. 0. 0. 0.
 0. 0. 0. 0. 0. 0. 0. 0. 0. 0. 0. 0. 0. 0. 0. 0. 0. 0. 0. 0. 0. 0. 0. 0.
 0. 0. 0. 0. 0. 0. 0. 0. 0. 0. 0. 0. 0. 0. 0. 0. 0. 0. 0. 0. 0. 0. 0. 0.
 0. 0. 0. 0. 0. 0. 0. 0. 0. 0. 0. 0. 0. 0. 0. 0. 0. 0. 0. 0. 0. 0. 0. 0.
 0. 0. 0. 0.]

Layer 3:
[[ -0.60325193]
 [  0.0193014 ]
 [  0.41314274]
 [ -0.5045086 ]
 [  0.5368858 ]
 [ -0.35940653]
 [ -0.14284608]
 [  0.22382982]
 [  0.5578047 ]
 [-12.672964  ]
 [  0.26339617]
 [ -1.3639468 ]
 [ -0.33579773]
 [ -0.75364494]
 [ -6.805826  ]
 [  2.0800238 ]
 [  2.2786777 ]
 [  0.9202162 ]
 [  0.20135744]
 [ -0.49276808]
 [  0.5734231 ]
 [ -0.18699451]
 [  3.874396  ]
 [ -1.673568  ]
 [ -0.80900556]
 [  0.19339995]
 [  0.05333243]
 [  2.0610306 ]
 [ -2.0695808 ]
 [  0.5917266 ]
 [  1.4961848 ]
 [ -2.67866   ]
 [-16.66211   ]
 [  0.57951885]
 [  0.15431051]
 [  1.1772343 ]
 [ -1.6092743 ]
 [  0.06211681]
 [  0.04219981]
 [  5.265739  ]
 [  0.9461828 ]
 [ 15.426046  ]
 [-11.27734   ]
 [ -4.448721  ]
 [ -0.5447147 ]
 [ -0.31596714]
 [ -0.11668754]
 [  0.5174144 ]
 [  0.41967672]
 [  1.2186717 ]
 [  0.7050902 ]
 [  0.46218443]
 [  2.6658492 ]
 [  0.5062441 ]
 [  0.6040227 ]
 [  1.2906703 ]
 [ -0.46572712]
 [  2.1481893 ]
 [ -0.56266564]
 [  0.03238141]
 [  2.9453626 ]
 [  0.40858576]
 [ -3.742661  ]
 [ -0.04601619]
 [  0.71783155]
 [ 10.482493  ]
 [  0.12291683]
 [ -0.5349669 ]
 [  2.4098709 ]
 [ -2.2399979 ]
 [ -4.0802116 ]
 [  0.5712877 ]
 [ -4.636786  ]
 [ -0.4959461 ]
 [  0.40745252]
 [  0.28170708]
 [  6.3546867 ]
 [  0.57672834]
 [  8.33193   ]
 [  1.773873  ]
 [  0.25672442]
 [  1.6134487 ]
 [ -0.46131456]
 [ -0.6490792 ]
 [ -1.007724  ]
 [  0.5087732 ]
 [  1.3309132 ]
 [  0.9047571 ]
 [  1.3272151 ]
 [  0.26279414]
 [  1.147834  ]
 [  0.12560356]
 [  0.17519747]
 [  0.9661384 ]
 [ -0.32926834]
 [ -0.41729897]
 [ -0.41820848]
 [ -0.5277844 ]
 [ -0.7235976 ]
 [ -0.26599595]]

Layer 4:
[0.01588994]



Consenso 4:
------------------------------------------------------------------------

Layer 0:
[[ 0.         -0.2829659   0.         ...  0.          0.23602034
   0.        ]
 [ 0.          0.          0.         ... -0.01536722 -0.01059522
   0.        ]
 [ 0.20013273  0.          0.         ...  0.          0.
   0.        ]
 ...
 [ 0.          0.          0.         ...  0.          0.30086145
   0.        ]
 [ 0.          0.06106549  0.         ...  0.          0.
   0.        ]
 [ 0.         -0.0061808  -0.2922764  ...  0.         -0.24580905
   0.        ]]

Layer 1:
[[ 0.11536998 -0.20783366  0.11617342 -0.11346529  0.14595562 -0.08669376
  -0.16158943 -0.14028151  0.16431852 -0.00594605  0.08469932  0.0513733
  -0.06077137 -0.08996094 -0.04298729  0.03635874  0.0007899   0.10265816
  -0.05116397 -0.07127349  0.0796007  -0.09116764  0.02643043 -0.05736058
  -0.08328258 -0.04157953  0.08871081  0.0752629   0.03177037  0.09225
   0.00764431 -0.05132154 -0.0138379   0.11790765  0.11399458  0.05825894
  -0.06061226  0.18049698  0.19707038  0.02640015 -0.14018247  0.01013338
  -0.01259514 -0.02004796  0.09770064  0.02130019 -0.09305105  0.12602146
   0.09499964  0.11711788  0.08176571 -0.10802288 -0.08927488  0.0943477
  -0.07015077 -0.09798811 -0.16987716  0.09278587 -0.07663579 -0.18825391
  -0.06107558  0.10134002 -0.04424085 -0.15437573  0.10242502  0.013457
  -0.18740219  0.20213103  0.02996793  0.07733617 -0.01540678 -0.16463107
  -0.02413206 -0.16265559  0.04507839  0.142928    0.03587428  0.17296685
   0.00994454  0.11229262 -0.13961317  0.10173339 -0.14008035 -0.12400497
  -0.16272402  0.1226809   0.07768911  0.11540052  0.04074828 -0.1424844
   0.04518868  0.1704995  -0.1091262  -0.07376896 -0.13092202 -0.11953179
  -0.13138755 -0.13616705 -0.17092578  0.1912486 ]]

Layer 2:
[0. 0. 0. 0. 0. 0. 0. 0. 0. 0. 0. 0. 0. 0. 0. 0. 0. 0. 0. 0. 0. 0. 0. 0.
 0. 0. 0. 0. 0. 0. 0. 0. 0. 0. 0. 0. 0. 0. 0. 0. 0. 0. 0. 0. 0. 0. 0. 0.
 0. 0. 0. 0. 0. 0. 0. 0. 0. 0. 0. 0. 0. 0. 0. 0. 0. 0. 0. 0. 0. 0. 0. 0.
 0. 0. 0. 0. 0. 0. 0. 0. 0. 0. 0. 0. 0. 0. 0. 0. 0. 0. 0. 0. 0. 0. 0. 0.
 0. 0. 0. 0.]

Layer 3:
[[ -0.68895715]
 [ -0.14873175]
 [  0.2888504 ]
 [ -0.43839875]
 [  0.4319392 ]
 [ -0.40262145]
 [ -0.17826985]
 [  0.33487135]
 [  0.66875124]
 [-13.226254  ]
 [  0.2540284 ]
 [ -1.2655946 ]
 [ -0.14555755]
 [ -0.7321577 ]
 [ -7.6004224 ]
 [  2.4030063 ]
 [  2.1898506 ]
 [  0.81769615]
 [  0.20733388]
 [ -0.47069442]
 [  0.5591525 ]
 [ -0.08929313]
 [  4.587903  ]
 [ -1.5334836 ]
 [ -0.69446385]
 [  0.20812324]
 [  0.10953917]
 [  1.8432093 ]
 [ -2.1563363 ]
 [  0.4416264 ]
 [  1.4487368 ]
 [ -2.308259  ]
 [-17.546019  ]
 [  0.6757805 ]
 [  0.15282483]
 [  1.1297175 ]
 [ -1.553298  ]
 [  0.20029937]
 [  0.15522738]
 [  5.3887286 ]
 [  0.8785692 ]
 [ 15.8760195 ]
 [-11.953257  ]
 [ -4.8919444 ]
 [ -0.45205528]
 [ -0.31592104]
 [ -0.06041219]
 [  0.5247    ]
 [  0.37865502]
 [  1.2041767 ]
 [  0.64535177]
 [  0.45997185]
 [  2.6970372 ]
 [  0.4482936 ]
 [  0.61616236]
 [  1.4797741 ]
 [ -0.3181669 ]
 [  2.0709782 ]
 [ -0.442487  ]
 [ -0.09902451]
 [  3.0850132 ]
 [  0.19997725]
 [ -4.0357738 ]
 [ -0.10142526]
 [  0.5499908 ]
 [ 11.133816  ]
 [ -0.04432592]
 [ -0.37078512]
 [  2.7369258 ]
 [ -2.2090957 ]
 [ -4.5190663 ]
 [  0.51974964]
 [ -4.708043  ]
 [ -0.6021757 ]
 [  0.4170772 ]
 [  0.39675722]
 [  7.3089037 ]
 [  0.6573073 ]
 [  8.82531   ]
 [  1.6853207 ]
 [  0.22546346]
 [  1.3325828 ]
 [ -0.5071757 ]
 [ -0.68756276]
 [ -1.1447995 ]
 [  0.44245654]
 [  1.3426871 ]
 [  0.9270336 ]
 [  1.2966409 ]
 [  0.1749358 ]
 [  1.5300971 ]
 [  0.21442784]
 [  0.50946766]
 [  0.3513995 ]
 [ -0.37154853]
 [ -0.45867717]
 [ -0.5262416 ]
 [ -0.40146738]
 [ -0.8027152 ]
 [ -0.30298597]]

Layer 4:
[0.3070041]



Entrenamiento 5:
------------------------------------------------------------------------

Layer 0:
[[ 0.         -0.2829659   0.         ...  0.          0.23602034
   0.        ]
 [ 0.          0.          0.         ... -0.01536722 -0.01059522
   0.        ]
 [ 0.20013273  0.          0.         ...  0.          0.
   0.        ]
 ...
 [ 0.          0.          0.         ...  0.          0.30086145
   0.        ]
 [ 0.          0.06106549  0.         ...  0.          0.
   0.        ]
 [ 0.         -0.0061808  -0.2922764  ...  0.         -0.24580905
   0.        ]]

Layer 1:
[[ 0.11536998 -0.20783366  0.11617342 -0.11346529  0.14595562 -0.08669376
  -0.16158943 -0.14028151  0.16431852 -0.00594605  0.08469932  0.0513733
  -0.06077137 -0.08996094 -0.04298729  0.03635874  0.0007899   0.10265816
  -0.05116397 -0.07127349  0.0796007  -0.09116764  0.02643043 -0.05736058
  -0.08328258 -0.04157953  0.08871081  0.0752629   0.03177037  0.09225
   0.00764431 -0.05132154 -0.0138379   0.11790765  0.11399458  0.05825894
  -0.06061226  0.18049698  0.19707038  0.02640015 -0.14018247  0.01013338
  -0.01259514 -0.02004796  0.09770064  0.02130019 -0.09305105  0.12602146
   0.09499964  0.11711788  0.08176571 -0.10802288 -0.08927488  0.0943477
  -0.07015077 -0.09798811 -0.16987716  0.09278587 -0.07663579 -0.18825391
  -0.06107558  0.10134002 -0.04424085 -0.15437573  0.10242502  0.013457
  -0.18740219  0.20213103  0.02996793  0.07733617 -0.01540678 -0.16463107
  -0.02413206 -0.16265559  0.04507839  0.142928    0.03587428  0.17296685
   0.00994454  0.11229262 -0.13961317  0.10173339 -0.14008035 -0.12400497
  -0.16272402  0.1226809   0.07768911  0.11540052  0.04074828 -0.1424844
   0.04518868  0.1704995  -0.1091262  -0.07376896 -0.13092202 -0.11953179
  -0.13138755 -0.13616705 -0.17092578  0.1912486 ]]

Layer 2:
[0. 0. 0. 0. 0. 0. 0. 0. 0. 0. 0. 0. 0. 0. 0. 0. 0. 0. 0. 0. 0. 0. 0. 0.
 0. 0. 0. 0. 0. 0. 0. 0. 0. 0. 0. 0. 0. 0. 0. 0. 0. 0. 0. 0. 0. 0. 0. 0.
 0. 0. 0. 0. 0. 0. 0. 0. 0. 0. 0. 0. 0. 0. 0. 0. 0. 0. 0. 0. 0. 0. 0. 0.
 0. 0. 0. 0. 0. 0. 0. 0. 0. 0. 0. 0. 0. 0. 0. 0. 0. 0. 0. 0. 0. 0. 0. 0.
 0. 0. 0. 0.]

Layer 3:
[[-3.53986949e-01]
 [ 2.92175591e-01]
 [ 7.53138721e-01]
 [-6.25032365e-01]
 [ 6.88446343e-01]
 [-4.81021821e-01]
 [ 2.73556961e-03]
 [ 3.81532907e-02]
 [ 3.77774000e-01]
 [-1.53773575e+01]
 [ 4.42984462e-01]
 [-1.61358476e+00]
 [-6.64518833e-01]
 [-8.84529352e-01]
 [-5.82845306e+00]
 [ 1.47122109e+00]
 [ 2.28805089e+00]
 [ 1.01091671e+00]
 [ 3.56075853e-01]
 [-7.66976297e-01]
 [ 5.45292854e-01]
 [-4.17521805e-01]
 [ 3.26875758e+00]
 [-1.87670219e+00]
 [-7.46182561e-01]
 [ 3.08851957e-01]
 [-2.18649715e-01]
 [ 2.41498947e+00]
 [-2.04879832e+00]
 [ 9.44343150e-01]
 [ 2.42738175e+00]
 [-3.06365156e+00]
 [-1.86234837e+01]
 [ 5.81676602e-01]
 [ 1.51295424e-01]
 [ 1.18677282e+00]
 [-1.73750865e+00]
 [-1.72303647e-01]
 [-3.42873067e-01]
 [ 5.62914801e+00]
 [ 1.00291729e+00]
 [ 1.86448746e+01]
 [-1.32473793e+01]
 [-4.26640654e+00]
 [-7.43308306e-01]
 [-9.96936411e-02]
 [-2.86274314e-01]
 [ 5.32276154e-01]
 [ 6.52165592e-01]
 [ 1.24425185e+00]
 [ 8.82894874e-01]
 [ 3.97151917e-01]
 [ 3.09443736e+00]
 [ 6.88833833e-01]
 [ 6.02332115e-01]
 [ 1.04787564e+00]
 [-6.56073391e-01]
 [ 2.30981159e+00]
 [-8.45698595e-01]
 [ 4.18598682e-01]
 [ 2.74871135e+00]
 [ 7.14121699e-01]
 [-3.27965212e+00]
 [ 8.22359696e-02]
 [ 9.99118328e-01]
 [ 1.17031183e+01]
 [ 3.59503806e-01]
 [-8.97678196e-01]
 [ 1.96124041e+00]
 [-2.68207121e+00]
 [-4.36578083e+00]
 [ 7.04916716e-01]
 [-5.07489443e+00]
 [-2.61081398e-01]
 [ 4.31418449e-01]
 [ 1.57332554e-01]
 [ 5.29736423e+00]
 [ 2.30270714e-01]
 [ 9.75279617e+00]
 [ 1.90698647e+00]
 [ 3.21486920e-01]
 [ 1.87589681e+00]
 [-3.69512886e-01]
 [-6.21492207e-01]
 [-8.12415779e-01]
 [ 6.35274410e-01]
 [ 1.40850854e+00]
 [ 9.19424534e-01]
 [ 1.61672378e+00]
 [ 2.75547743e-01]
 [ 2.88417906e-01]
 [-5.18410951e-02]
 [-4.00184780e-01]
 [ 2.30048776e+00]
 [-2.49888077e-01]
 [-4.41610932e-01]
 [-4.38531876e-01]
 [-6.52372003e-01]
 [-3.16043019e-01]
 [-3.35075676e-01]]

Layer 4:
[0.00218177]



