Pesos inciales:
------------------------------------------------------------------------

Layer 0:
[[-0.          0.          0.         ... -0.         -0.
  -0.        ]
 [-0.          0.         -0.         ...  0.          0.
  -0.23489767]
 [ 0.          0.          0.         ...  0.          0.
  -0.        ]
 ...
 [ 0.         -0.85083973  0.         ...  0.          0.
  -0.        ]
 [ 0.         -0.         -0.         ... -0.         -0.
   0.        ]
 [ 0.         -0.          0.         ...  0.         -0.
   0.        ]]

Layer 1:
[[-0.30231577  0.16442505 -0.05660409 -0.30291668 -0.3135022  -0.01298878
   0.09143859 -0.02931407  0.09049448 -0.26525384  0.31038132 -0.02455556
   0.03874311 -0.17386168  0.18845186 -0.22628844  0.25940236  0.1377342
   0.1488494  -0.04161307  0.06965706 -0.2547366   0.16170087 -0.18986158
   0.19253078  0.21236905 -0.09459192 -0.19928245 -0.10904582  0.322615
   0.33233854  0.28602132  0.20267347  0.06131059  0.13684294  0.33097246
   0.01730284  0.01737571  0.31443247  0.1002875   0.2077885  -0.17460619
   0.17016628 -0.23453057 -0.23836346  0.26271328 -0.23300698  0.0083037
  -0.25675598  0.17828926]]

Layer 2:
[0. 0. 0. 0. 0. 0. 0. 0. 0. 0. 0. 0. 0. 0. 0. 0. 0. 0. 0. 0. 0. 0. 0. 0.
 0. 0. 0. 0. 0. 0. 0. 0. 0. 0. 0. 0. 0. 0. 0. 0. 0. 0. 0. 0. 0. 0. 0. 0.
 0. 0.]

Layer 3:
[[-0.1032825 ]
 [ 0.23854062]
 [-0.23871388]
 [-0.24600445]
 [-0.10824023]
 [ 0.32991627]
 [-0.29454115]
 [-0.00315544]
 [-0.23239833]
 [ 0.1804125 ]
 [-0.02848405]
 [-0.19334872]
 [-0.3422417 ]
 [-0.06708568]
 [-0.2805834 ]
 [ 0.16485438]
 [-0.02281535]
 [ 0.23261502]
 [-0.1363673 ]
 [-0.18755123]
 [-0.03196111]
 [ 0.23755208]
 [-0.13039261]
 [-0.20366634]
 [-0.30388343]
 [-0.18844798]
 [-0.1638764 ]
 [ 0.27754173]
 [-0.06199899]
 [-0.23670101]
 [-0.04333496]
 [-0.24857184]
 [-0.33701935]
 [ 0.01108855]
 [ 0.00842032]
 [-0.03852493]
 [-0.1456619 ]
 [-0.22156501]
 [ 0.30773422]
 [ 0.23555109]
 [-0.07533622]
 [-0.14701237]
 [ 0.02369976]
 [ 0.28601363]
 [ 0.15892956]
 [ 0.09115246]
 [-0.13449208]
 [-0.10905865]
 [ 0.21553013]
 [-0.30868432]]

Layer 4:
[0.]



Entrenamiento 0:
------------------------------------------------------------------------

Layer 0:
[[-0.          0.          0.         ... -0.         -0.
  -0.        ]
 [-0.          0.         -0.         ...  0.          0.
  -0.23489767]
 [ 0.          0.          0.         ...  0.          0.
  -0.        ]
 ...
 [ 0.         -0.85083973  0.         ...  0.          0.
  -0.        ]
 [ 0.         -0.         -0.         ... -0.         -0.
   0.        ]
 [ 0.         -0.          0.         ...  0.         -0.
   0.        ]]

Layer 1:
[[-0.30231577  0.16442505 -0.05660409 -0.30291668 -0.3135022  -0.01298878
   0.09143859 -0.02931407  0.09049448 -0.26525384  0.31038132 -0.02455556
   0.03874311 -0.17386168  0.18845186 -0.22628844  0.25940236  0.1377342
   0.1488494  -0.04161307  0.06965706 -0.2547366   0.16170087 -0.18986158
   0.19253078  0.21236905 -0.09459192 -0.19928245 -0.10904582  0.322615
   0.33233854  0.28602132  0.20267347  0.06131059  0.13684294  0.33097246
   0.01730284  0.01737571  0.31443247  0.1002875   0.2077885  -0.17460619
   0.17016628 -0.23453057 -0.23836346  0.26271328 -0.23300698  0.0083037
  -0.25675598  0.17828926]]

Layer 2:
[0. 0. 0. 0. 0. 0. 0. 0. 0. 0. 0. 0. 0. 0. 0. 0. 0. 0. 0. 0. 0. 0. 0. 0.
 0. 0. 0. 0. 0. 0. 0. 0. 0. 0. 0. 0. 0. 0. 0. 0. 0. 0. 0. 0. 0. 0. 0. 0.
 0. 0.]

Layer 3:
[[-1.1116146 ]
 [ 1.0051683 ]
 [-2.2788482 ]
 [-0.51595974]
 [-0.7401993 ]
 [-3.601436  ]
 [ 1.6072774 ]
 [-1.3689487 ]
 [ 3.3308496 ]
 [-1.2622695 ]
 [ 0.21472651]
 [-3.0241413 ]
 [ 0.31136575]
 [-0.30143538]
 [-0.05293733]
 [-0.37197137]
 [ 0.88603187]
 [ 2.769397  ]
 [ 1.0262194 ]
 [-2.0561697 ]
 [ 2.556105  ]
 [-0.541038  ]
 [ 1.681562  ]
 [-1.1123369 ]
 [ 0.22003868]
 [ 1.2420247 ]
 [-1.7732952 ]
 [-0.45316708]
 [-1.0862306 ]
 [-0.16740587]
 [ 0.5483109 ]
 [ 0.44753867]
 [ 0.54462534]
 [ 2.7695634 ]
 [ 1.6547421 ]
 [ 0.5263822 ]
 [ 3.54339   ]
 [ 0.56551576]
 [ 0.9589968 ]
 [ 1.8482469 ]
 [ 1.2431452 ]
 [-1.9006507 ]
 [ 2.777268  ]
 [-1.6376381 ]
 [-0.6544191 ]
 [ 0.51148415]
 [-1.2462573 ]
 [ 1.5072074 ]
 [-0.5840361 ]
 [ 0.6807753 ]]

Layer 4:
[1.3731011]



Entrenamiento 0 WITH NO CONSENSUS:
------------------------------------------------------------------------

Layer 0:
[[-0.          0.          0.         ... -0.         -0.
  -0.        ]
 [-0.          0.         -0.         ...  0.          0.
  -0.23489767]
 [ 0.          0.          0.         ...  0.          0.
  -0.        ]
 ...
 [ 0.         -0.85083973  0.         ...  0.          0.
  -0.        ]
 [ 0.         -0.         -0.         ... -0.         -0.
   0.        ]
 [ 0.         -0.          0.         ...  0.         -0.
   0.        ]]

Layer 1:
[[-0.30231577  0.16442505 -0.05660409 -0.30291668 -0.3135022  -0.01298878
   0.09143859 -0.02931407  0.09049448 -0.26525384  0.31038132 -0.02455556
   0.03874311 -0.17386168  0.18845186 -0.22628844  0.25940236  0.1377342
   0.1488494  -0.04161307  0.06965706 -0.2547366   0.16170087 -0.18986158
   0.19253078  0.21236905 -0.09459192 -0.19928245 -0.10904582  0.322615
   0.33233854  0.28602132  0.20267347  0.06131059  0.13684294  0.33097246
   0.01730284  0.01737571  0.31443247  0.1002875   0.2077885  -0.17460619
   0.17016628 -0.23453057 -0.23836346  0.26271328 -0.23300698  0.0083037
  -0.25675598  0.17828926]]

Layer 2:
[0. 0. 0. 0. 0. 0. 0. 0. 0. 0. 0. 0. 0. 0. 0. 0. 0. 0. 0. 0. 0. 0. 0. 0.
 0. 0. 0. 0. 0. 0. 0. 0. 0. 0. 0. 0. 0. 0. 0. 0. 0. 0. 0. 0. 0. 0. 0. 0.
 0. 0.]

Layer 3:
[[-1.1005744 ]
 [ 1.0005801 ]
 [-2.2762682 ]
 [-0.512267  ]
 [-0.73216254]
 [-3.5894868 ]
 [ 1.6043297 ]
 [-1.3631419 ]
 [ 3.3390918 ]
 [-1.250629  ]
 [ 0.21178955]
 [-3.0227458 ]
 [ 0.3103748 ]
 [-0.3000423 ]
 [-0.0547452 ]
 [-0.36389688]
 [ 0.8768031 ]
 [ 2.7703605 ]
 [ 1.0185343 ]
 [-2.0542383 ]
 [ 2.557505  ]
 [-0.5329718 ]
 [ 1.674456  ]
 [-1.1050018 ]
 [ 0.21503925]
 [ 1.2345856 ]
 [-1.7682632 ]
 [-0.44722903]
 [-1.080661  ]
 [-0.16856097]
 [ 0.5402847 ]
 [ 0.43948403]
 [ 0.5373412 ]
 [ 2.7717633 ]
 [ 1.6484921 ]
 [ 0.51826096]
 [ 3.5355034 ]
 [ 0.56431973]
 [ 0.95135564]
 [ 1.8428689 ]
 [ 1.2344052 ]
 [-1.8907089 ]
 [ 2.7792854 ]
 [-1.6266948 ]
 [-0.649374  ]
 [ 0.5066529 ]
 [-1.2381777 ]
 [ 1.5168085 ]
 [-0.57584846]
 [ 0.674032  ]]

Layer 4:
[1.368792]



Consenso 0:
------------------------------------------------------------------------

Layer 0:
[[ 0.0000000e+00  1.2690687e-01 -1.8369234e-01 ...  0.0000000e+00
   0.0000000e+00  0.0000000e+00]
 [-8.5586775e-03  0.0000000e+00 -5.8717683e-02 ...  0.0000000e+00
   0.0000000e+00  0.0000000e+00]
 [ 3.8612570e-04  0.0000000e+00  0.0000000e+00 ... -2.0005827e-01
   0.0000000e+00  1.3181907e-01]
 ...
 [-3.8248282e-03  9.3132257e-10  0.0000000e+00 ...  0.0000000e+00
  -1.7047140e-01 -7.8706458e-02]
 [ 0.0000000e+00  0.0000000e+00  0.0000000e+00 ... -8.8035315e-03
   0.0000000e+00  0.0000000e+00]
 [ 0.0000000e+00 -1.1361842e-01  6.4500898e-02 ...  0.0000000e+00
   2.6661330e-03  2.3100581e-03]]

Layer 1:
[[-0.03168663 -0.00140547 -0.0270606  -0.18866986 -0.03313284 -0.09228815
   0.26858237  0.17318203 -0.00041787  0.14977278  0.13187712 -0.06300986
   0.03160267  0.15891458  0.0350253   0.04191587 -0.01367696 -0.00626583
   0.03780643  0.13284656 -0.00443644  0.17341597 -0.0004439   0.11692241
   0.0015498   0.1916385  -0.08064333  0.13745916  0.04786467  0.05064778
  -0.12923759 -0.04736021 -0.03354376 -0.0359439   0.13818002  0.00057797
   0.00297384 -0.00599443 -0.12476994  0.07663303 -0.04231846 -0.02470481
   0.00766582  0.04075674  0.06650336 -0.16312872  0.06941248  0.03285918
   0.00143565 -0.01471065]]

Layer 2:
[0. 0. 0. 0. 0. 0. 0. 0. 0. 0. 0. 0. 0. 0. 0. 0. 0. 0. 0. 0. 0. 0. 0. 0.
 0. 0. 0. 0. 0. 0. 0. 0. 0. 0. 0. 0. 0. 0. 0. 0. 0. 0. 0. 0. 0. 0. 0. 0.
 0. 0.]

Layer 3:
[[ 0.80957097]
 [ 0.20214555]
 [-0.07673387]
 [-0.8927976 ]
 [ 1.0724131 ]
 [-0.6402289 ]
 [ 0.2524015 ]
 [-0.08316592]
 [ 0.16500002]
 [-0.07232633]
 [-0.17410877]
 [-1.63983   ]
 [ 0.18010843]
 [ 1.0519948 ]
 [ 0.8811581 ]
 [-0.09851275]
 [ 0.7081711 ]
 [-0.1949797 ]
 [ 0.26503712]
 [ 0.09655584]
 [-0.32517415]
 [ 0.64689106]
 [-0.5218537 ]
 [ 0.7512663 ]
 [-0.814072  ]
 [ 0.3684582 ]
 [ 0.47107348]
 [-0.38780722]
 [ 0.25919393]
 [-0.1247986 ]
 [-0.5974503 ]
 [ 0.48134795]
 [ 0.44241053]
 [-1.239291  ]
 [ 1.1082485 ]
 [ 0.38031003]
 [-0.05935442]
 [-0.2710547 ]
 [-0.34768295]
 [-0.58481514]
 [-0.3239328 ]
 [ 0.5667121 ]
 [-0.09100862]
 [ 1.0144916 ]
 [-0.22267775]
 [-0.26045734]
 [-0.67481834]
 [ 0.20123702]
 [ 0.6310683 ]
 [-0.24344951]]

Layer 4:
[-0.0736459]



Entrenamiento 1:
------------------------------------------------------------------------

Layer 0:
[[ 0.0000000e+00  1.2690687e-01 -1.8369234e-01 ...  0.0000000e+00
   0.0000000e+00  0.0000000e+00]
 [-8.5586775e-03  0.0000000e+00 -5.8717683e-02 ...  0.0000000e+00
   0.0000000e+00  0.0000000e+00]
 [ 3.8612570e-04  0.0000000e+00  0.0000000e+00 ... -2.0005827e-01
   0.0000000e+00  1.3181907e-01]
 ...
 [-3.8248282e-03  9.3132257e-10  0.0000000e+00 ...  0.0000000e+00
  -1.7047140e-01 -7.8706458e-02]
 [ 0.0000000e+00  0.0000000e+00  0.0000000e+00 ... -8.8035315e-03
   0.0000000e+00  0.0000000e+00]
 [ 0.0000000e+00 -1.1361842e-01  6.4500898e-02 ...  0.0000000e+00
   2.6661330e-03  2.3100581e-03]]

Layer 1:
[[-0.03168663 -0.00140547 -0.0270606  -0.18866986 -0.03313284 -0.09228815
   0.26858237  0.17318203 -0.00041787  0.14977278  0.13187712 -0.06300986
   0.03160267  0.15891458  0.0350253   0.04191587 -0.01367696 -0.00626583
   0.03780643  0.13284656 -0.00443644  0.17341597 -0.0004439   0.11692241
   0.0015498   0.1916385  -0.08064333  0.13745916  0.04786467  0.05064778
  -0.12923759 -0.04736021 -0.03354376 -0.0359439   0.13818002  0.00057797
   0.00297384 -0.00599443 -0.12476994  0.07663303 -0.04231846 -0.02470481
   0.00766582  0.04075674  0.06650336 -0.16312872  0.06941248  0.03285918
   0.00143565 -0.01471065]]

Layer 2:
[0. 0. 0. 0. 0. 0. 0. 0. 0. 0. 0. 0. 0. 0. 0. 0. 0. 0. 0. 0. 0. 0. 0. 0.
 0. 0. 0. 0. 0. 0. 0. 0. 0. 0. 0. 0. 0. 0. 0. 0. 0. 0. 0. 0. 0. 0. 0. 0.
 0. 0.]

Layer 3:
[[-1.0981907e+00]
 [ 2.5601122e-01]
 [-4.0085621e+00]
 [-9.1804850e-01]
 [-5.0208277e-01]
 [-1.3051474e+00]
 [ 4.0345529e-01]
 [ 5.2860394e-02]
 [ 7.4954224e-01]
 [ 9.6995473e-02]
 [ 7.0531607e-01]
 [-3.4409227e+00]
 [ 9.8332858e-01]
 [ 2.2883968e+00]
 [ 4.5190964e+00]
 [ 1.6860536e+00]
 [-1.8407614e+00]
 [-2.9295683e+00]
 [ 2.8565729e+00]
 [ 6.7178899e-01]
 [-2.2034736e+00]
 [ 7.6829106e-01]
 [-1.6249155e+00]
 [ 9.0683901e-01]
 [ 9.0507805e-01]
 [ 5.6204557e-01]
 [-3.7815815e-01]
 [-2.1193577e-03]
 [ 2.9694929e+00]
 [ 2.8415747e+00]
 [-1.1410295e+00]
 [-1.1046554e+00]
 [-1.8278449e+00]
 [-3.3282328e+00]
 [ 1.5682800e+00]
 [ 2.3438821e+00]
 [ 1.7263037e+00]
 [-3.6720378e+00]
 [-5.5992478e-01]
 [ 1.0229508e+00]
 [-2.2404613e+00]
 [-2.6523149e+00]
 [ 2.9344573e+00]
 [ 3.7817428e+00]
 [ 1.5516585e+00]
 [-5.2738625e-01]
 [ 5.9708558e-02]
 [ 2.2221186e+00]
 [ 1.4271477e+00]
 [-4.5106616e+00]]

Layer 4:
[0.5598065]



Entrenamiento 1 WITH NO CONSENSUS:
------------------------------------------------------------------------

Layer 0:
[[-0.          0.          0.         ... -0.         -0.
  -0.        ]
 [-0.          0.         -0.         ...  0.          0.
  -0.23489767]
 [ 0.          0.          0.         ...  0.          0.
  -0.        ]
 ...
 [ 0.         -0.85083973  0.         ...  0.          0.
  -0.        ]
 [ 0.         -0.         -0.         ... -0.         -0.
   0.        ]
 [ 0.         -0.          0.         ...  0.         -0.
   0.        ]]

Layer 1:
[[-0.30231577  0.16442505 -0.05660409 -0.30291668 -0.3135022  -0.01298878
   0.09143859 -0.02931407  0.09049448 -0.26525384  0.31038132 -0.02455556
   0.03874311 -0.17386168  0.18845186 -0.22628844  0.25940236  0.1377342
   0.1488494  -0.04161307  0.06965706 -0.2547366   0.16170087 -0.18986158
   0.19253078  0.21236905 -0.09459192 -0.19928245 -0.10904582  0.322615
   0.33233854  0.28602132  0.20267347  0.06131059  0.13684294  0.33097246
   0.01730284  0.01737571  0.31443247  0.1002875   0.2077885  -0.17460619
   0.17016628 -0.23453057 -0.23836346  0.26271328 -0.23300698  0.0083037
  -0.25675598  0.17828926]]

Layer 2:
[0. 0. 0. 0. 0. 0. 0. 0. 0. 0. 0. 0. 0. 0. 0. 0. 0. 0. 0. 0. 0. 0. 0. 0.
 0. 0. 0. 0. 0. 0. 0. 0. 0. 0. 0. 0. 0. 0. 0. 0. 0. 0. 0. 0. 0. 0. 0. 0.
 0. 0.]

Layer 3:
[[-4.36565489e-01]
 [ 1.14568281e+00]
 [-3.40661311e+00]
 [ 1.53522730e-01]
 [ 1.71109848e-02]
 [-7.60607338e+00]
 [ 2.59945130e+00]
 [-1.53984439e+00]
 [ 6.87115431e+00]
 [-9.71377313e-01]
 [-2.31981486e-01]
 [-5.59070349e+00]
 [ 2.88057417e-01]
 [-2.80537885e-02]
 [-3.45033705e-01]
 [ 1.18133686e-01]
 [ 3.40505630e-01]
 [ 4.39111805e+00]
 [ 1.08768404e-01]
 [-2.86855626e+00]
 [ 4.67411327e+00]
 [ 1.09050795e-01]
 [ 2.06845975e+00]
 [-6.79006279e-01]
 [-3.46088231e-01]
 [ 1.23695898e+00]
 [-2.24412107e+00]
 [ 1.04618430e-01]
 [-9.50721204e-01]
 [-5.36723733e-01]
 [-2.32702225e-01]
 [-2.66933680e-01]
 [-9.33198724e-04]
 [ 5.16084766e+00]
 [ 2.00677133e+00]
 [-1.58503279e-01]
 [ 7.27397108e+00]
 [ 8.03761899e-01]
 [ 1.92425102e-01]
 [ 2.26768303e+00]
 [ 8.73783469e-01]
 [-1.72082126e+00]
 [ 4.68550777e+00]
 [-1.21505582e+00]
 [ 2.83675008e-02]
 [-1.48972645e-01]
 [-9.27010536e-01]
 [ 4.26545238e+00]
 [-1.11704841e-01]
 [ 5.40337920e-01]]

Layer 4:
[0.02895821]



