:
------------------------------------------------------------------------



Entrenamiento 0:
------------------------------------------------------------------------

Layer 0:
[[ 0.21520367  0.         -0.         ...  0.          0.01347484
  -0.1614491 ]
 [ 0.         -0.         -0.         ...  0.         -0.
  -0.        ]
 [-0.         -0.         -0.         ... -0.          0.
   0.        ]
 ...
 [-0.         -0.          0.         ...  0.         -0.
  -0.        ]
 [ 0.0088564  -0.         -0.         ... -0.         -0.
  -0.        ]
 [-0.          0.          0.         ... -0.          0.
  -0.        ]]

Layer 1:
[[-0.07512847 -0.06973615 -0.00761266  0.06170854 -0.07011405 -0.1566506
  -0.09176971 -0.12694612 -0.06046526  0.13246122 -0.0775815  -0.04114942
  -0.15541017  0.11789238 -0.22104664  0.12822828  0.23807159 -0.21953373
   0.02195191 -0.03627737  0.11195493  0.01392817 -0.23821384  0.08423382
   0.20488405 -0.12897569  0.113206   -0.08721569  0.21790668  0.1655482
  -0.07752466  0.21943441  0.23184758 -0.04934359 -0.09625694  0.08351871
  -0.22858788  0.1897802  -0.03553769 -0.07696407  0.01208851 -0.09351988
   0.22400424 -0.07489736 -0.13947457  0.19161004 -0.16378134 -0.08097817
   0.02313301  0.04671785  0.20165735  0.0465523   0.08521354  0.20418453
  -0.19755986 -0.20222607 -0.10710183  0.09221286 -0.01469262 -0.19695929
  -0.18195026 -0.23036084  0.03725299  0.14378661  0.06547421 -0.2315915
  -0.04021668  0.22599062  0.17125008  0.07182959  0.04509944 -0.18188518
   0.04698211  0.21116179  0.10163826  0.04502437  0.21974781  0.09030339
  -0.16153091 -0.04473728 -0.15261135 -0.14011344 -0.00335948  0.09623784
   0.17394415 -0.12113407 -0.04450008  0.00740165 -0.01290658  0.15495843
   0.1483548   0.15180564 -0.1960746   0.14104718 -0.00658613 -0.04951549
   0.20928791  0.20615342 -0.2434916  -0.15527001]]

Layer 2:
[0. 0. 0. 0. 0. 0. 0. 0. 0. 0. 0. 0. 0. 0. 0. 0. 0. 0. 0. 0. 0. 0. 0. 0.
 0. 0. 0. 0. 0. 0. 0. 0. 0. 0. 0. 0. 0. 0. 0. 0. 0. 0. 0. 0. 0. 0. 0. 0.
 0. 0. 0. 0. 0. 0. 0. 0. 0. 0. 0. 0. 0. 0. 0. 0. 0. 0. 0. 0. 0. 0. 0. 0.
 0. 0. 0. 0. 0. 0. 0. 0. 0. 0. 0. 0. 0. 0. 0. 0. 0. 0. 0. 0. 0. 0. 0. 0.
 0. 0. 0. 0.]

Layer 3:
[[-0.21171458]
 [-2.3226628 ]
 [-0.14071657]
 [ 0.34420836]
 [-0.44782904]
 [ 0.04897576]
 [-0.22128534]
 [ 0.07031763]
 [-0.49981126]
 [ 0.08801578]
 [-0.44310173]
 [-0.8758064 ]
 [ 0.2383407 ]
 [ 0.35049683]
 [ 0.41275263]
 [ 0.21820207]
 [-0.20848337]
 [-0.05365586]
 [ 2.8790464 ]
 [-0.5407386 ]
 [-0.0109906 ]
 [ 1.6604488 ]
 [-0.33332714]
 [ 0.85644805]
 [ 0.19154006]
 [ 0.14252225]
 [-0.06738435]
 [-1.043583  ]
 [ 0.07543062]
 [-0.14813653]
 [-1.8698126 ]
 [-0.15908119]
 [ 0.2642714 ]
 [-0.1843261 ]
 [-0.2894056 ]
 [ 1.683761  ]
 [ 0.37007156]
 [-0.21485351]
 [-3.750353  ]
 [-0.26290232]
 [ 0.10718551]
 [-0.1675557 ]
 [-0.23696731]
 [-2.167198  ]
 [-0.05884854]
 [-0.09566703]
 [-0.5088548 ]
 [-0.47310755]
 [ 2.6259756 ]
 [ 0.658093  ]
 [ 0.4033654 ]
 [ 2.6978548 ]
 [ 0.4775193 ]
 [-0.21808927]
 [ 0.01237394]
 [ 0.1869399 ]
 [-2.2218678 ]
 [ 0.46213493]
 [-2.291846  ]
 [ 0.02256018]
 [-0.3937579 ]
 [ 0.04482597]
 [ 2.8314528 ]
 [ 0.18122678]
 [ 1.0211637 ]
 [ 0.13117668]
 [-0.1872106 ]
 [ 0.1710858 ]
 [-0.33994612]
 [ 0.42235923]
 [ 2.325665  ]
 [-0.03121105]
 [ 1.039651  ]
 [ 0.22957446]
 [ 0.6056659 ]
 [ 0.46859324]
 [ 0.40252   ]
 [ 0.04871544]
 [ 0.11167167]
 [-0.63042533]
 [ 0.0563903 ]
 [-0.02499961]
 [-0.03985319]
 [ 0.53002894]
 [-0.09263153]
 [-0.1186785 ]
 [-0.8935514 ]
 [ 0.8601664 ]
 [-2.1918895 ]
 [ 0.37768596]
 [ 0.10644041]
 [-0.21887533]
 [-0.16239347]
 [ 1.2572038 ]
 [-1.7480911 ]
 [-1.5296501 ]
 [-0.17473498]
 [-0.31504256]
 [ 0.00882354]
 [-0.09054279]]

Layer 4:
[-0.03800884]



Consenso 0:
------------------------------------------------------------------------

Layer 0:
[[ 0.01856897 -0.11135401  0.02010014 ... -0.00876697  0.05750625
  -0.0992898 ]
 [ 0.          0.          0.         ...  0.11712269  0.10766722
   0.        ]
 [ 0.          0.          0.         ...  0.          0.01017458
   0.        ]
 ...
 [ 0.          0.          0.         ...  0.         -0.00059172
  -0.09734078]
 [ 0.00059043  0.          0.         ...  0.         -0.05778326
   0.        ]
 [ 0.          0.          0.1043616  ...  0.08810823  0.06809408
   0.        ]]

Layer 1:
[[ 0.08418494 -0.08467447  0.03732584  0.05869002  0.07755668 -0.00129675
   0.05977086 -0.08580748 -0.00808084  0.05412387  0.04670785  0.05569715
  -0.01892931  0.15814109  0.02363214  0.03578486  0.05251755  0.04595396
  -0.01483839 -0.02762249  0.01569586  0.02112216  0.01433758 -0.04199359
   0.07675787  0.06249537  0.08506727  0.02342576  0.04760216  0.14507951
  -0.14197712  0.01078871  0.01708458 -0.00663079  0.17290202  0.11536147
  -0.11363835  0.06259077  0.08633072  0.07878649 -0.01993375 -0.09424227
  -0.02547417 -0.03796608 -0.08191342 -0.05963286 -0.07222159 -0.02874461
  -0.01118246 -0.05519197  0.02958324 -0.04850402  0.01375037  0.06104109
  -0.02257297 -0.08640479  0.02897014  0.04964225  0.02962034 -0.02257634
   0.04481524 -0.00619091  0.03263306  0.02763302  0.02284294 -0.02309746
   0.03304246  0.00357042  0.03713256  0.11782747 -0.05589237 -0.13513432
   0.13862543  0.03316561  0.03258423  0.09027854 -0.03464279  0.06951088
   0.03909435  0.00957567 -0.18972519  0.02648583  0.09312271  0.07315302
   0.01988347 -0.08369503 -0.03421795  0.0155627  -0.05339612  0.05237119
  -0.02458737 -0.05842055 -0.03118261 -0.04880786 -0.1647505  -0.09512632
   0.03572048 -0.05937243  0.04727435  0.09332737]]

Layer 2:
[0. 0. 0. 0. 0. 0. 0. 0. 0. 0. 0. 0. 0. 0. 0. 0. 0. 0. 0. 0. 0. 0. 0. 0.
 0. 0. 0. 0. 0. 0. 0. 0. 0. 0. 0. 0. 0. 0. 0. 0. 0. 0. 0. 0. 0. 0. 0. 0.
 0. 0. 0. 0. 0. 0. 0. 0. 0. 0. 0. 0. 0. 0. 0. 0. 0. 0. 0. 0. 0. 0. 0. 0.
 0. 0. 0. 0. 0. 0. 0. 0. 0. 0. 0. 0. 0. 0. 0. 0. 0. 0. 0. 0. 0. 0. 0. 0.
 0. 0. 0. 0.]

Layer 3:
[[ 0.05149595]
 [ 0.4650451 ]
 [-1.9427587 ]
 [-0.162508  ]
 [ 0.6911372 ]
 [-0.08760496]
 [ 0.09139585]
 [ 0.11260442]
 [-0.32783106]
 [ 0.24064414]
 [-0.7437904 ]
 [-1.1912646 ]
 [ 0.76343995]
 [-0.16246393]
 [-0.65858936]
 [ 0.831063  ]
 [ 0.1453725 ]
 [-0.13709445]
 [ 0.276856  ]
 [-0.38751176]
 [-0.95835185]
 [ 0.64678407]
 [ 0.36485353]
 [-0.46647078]
 [ 0.08162454]
 [ 0.24407871]
 [-0.48011935]
 [ 0.01280853]
 [ 0.5344766 ]
 [ 0.08778483]
 [-0.65008086]
 [ 0.48343945]
 [-0.8737018 ]
 [-0.47376463]
 [ 0.13056906]
 [ 0.03908301]
 [-0.35276726]
 [ 1.6655328 ]
 [ 0.25136194]
 [ 0.14544651]
 [ 0.07897775]
 [-0.584341  ]
 [ 0.94000906]
 [ 0.41460893]
 [ 0.00801587]
 [ 0.10601137]
 [ 0.05642133]
 [-0.1653871 ]
 [ 0.2838347 ]
 [ 0.4336884 ]
 [-0.04442086]
 [ 0.1738295 ]
 [-0.4566073 ]
 [ 1.2592602 ]
 [-1.3241622 ]
 [ 0.3495331 ]
 [ 0.6261465 ]
 [ 0.03907269]
 [ 0.02168991]
 [ 0.59821653]
 [-0.63499033]
 [-0.10645552]
 [ 1.3955729 ]
 [ 0.34951985]
 [ 0.1833988 ]
 [-0.104977  ]
 [ 0.7731678 ]
 [ 0.47372675]
 [-0.02856705]
 [ 0.7102058 ]
 [-0.26491168]
 [-0.01993637]
 [ 0.2514679 ]
 [-0.06560313]
 [ 0.17831634]
 [-0.5798881 ]
 [-0.07499057]
 [ 0.1407826 ]
 [ 0.08976071]
 [-0.03777711]
 [-0.15683621]
 [ 0.21739687]
 [ 0.17908908]
 [ 0.7727698 ]
 [ 0.628316  ]
 [-0.60848206]
 [-1.059389  ]
 [-0.6857588 ]
 [-1.1807834 ]
 [-0.12640965]
 [ 0.19937421]
 [-0.24849553]
 [-1.0724922 ]
 [-0.78508383]
 [-0.41293558]
 [ 0.02112836]
 [-1.0496454 ]
 [ 1.3622013 ]
 [ 0.6653682 ]
 [ 0.16022597]]

Layer 4:
[-0.2004803]



Entrenamiento 1:
------------------------------------------------------------------------

Layer 0:
[[ 0.01856897 -0.11135401  0.02010014 ... -0.00876697  0.05750625
  -0.0992898 ]
 [ 0.          0.          0.         ...  0.11712269  0.10766722
   0.        ]
 [ 0.          0.          0.         ...  0.          0.01017458
   0.        ]
 ...
 [ 0.          0.          0.         ...  0.         -0.00059172
  -0.09734078]
 [ 0.00059043  0.          0.         ...  0.         -0.05778326
   0.        ]
 [ 0.          0.          0.1043616  ...  0.08810823  0.06809408
   0.        ]]

Layer 1:
[[ 0.08418494 -0.08467447  0.03732584  0.05869002  0.07755668 -0.00129675
   0.05977086 -0.08580748 -0.00808084  0.05412387  0.04670785  0.05569715
  -0.01892931  0.15814109  0.02363214  0.03578486  0.05251755  0.04595396
  -0.01483839 -0.02762249  0.01569586  0.02112216  0.01433758 -0.04199359
   0.07675787  0.06249537  0.08506727  0.02342576  0.04760216  0.14507951
  -0.14197712  0.01078871  0.01708458 -0.00663079  0.17290202  0.11536147
  -0.11363835  0.06259077  0.08633072  0.07878649 -0.01993375 -0.09424227
  -0.02547417 -0.03796608 -0.08191342 -0.05963286 -0.07222159 -0.02874461
  -0.01118246 -0.05519197  0.02958324 -0.04850402  0.01375037  0.06104109
  -0.02257297 -0.08640479  0.02897014  0.04964225  0.02962034 -0.02257634
   0.04481524 -0.00619091  0.03263306  0.02763302  0.02284294 -0.02309746
   0.03304246  0.00357042  0.03713256  0.11782747 -0.05589237 -0.13513432
   0.13862543  0.03316561  0.03258423  0.09027854 -0.03464279  0.06951088
   0.03909435  0.00957567 -0.18972519  0.02648583  0.09312271  0.07315302
   0.01988347 -0.08369503 -0.03421795  0.0155627  -0.05339612  0.05237119
  -0.02458737 -0.05842055 -0.03118261 -0.04880786 -0.1647505  -0.09512632
   0.03572048 -0.05937243  0.04727435  0.09332737]]

Layer 2:
[0. 0. 0. 0. 0. 0. 0. 0. 0. 0. 0. 0. 0. 0. 0. 0. 0. 0. 0. 0. 0. 0. 0. 0.
 0. 0. 0. 0. 0. 0. 0. 0. 0. 0. 0. 0. 0. 0. 0. 0. 0. 0. 0. 0. 0. 0. 0. 0.
 0. 0. 0. 0. 0. 0. 0. 0. 0. 0. 0. 0. 0. 0. 0. 0. 0. 0. 0. 0. 0. 0. 0. 0.
 0. 0. 0. 0. 0. 0. 0. 0. 0. 0. 0. 0. 0. 0. 0. 0. 0. 0. 0. 0. 0. 0. 0. 0.
 0. 0. 0. 0.]

Layer 3:
[[-2.1683307e-02]
 [ 4.9262783e-01]
 [-1.8446822e+00]
 [ 2.5750387e-01]
 [ 9.4376898e-01]
 [-2.9535845e-01]
 [ 9.0845250e-02]
 [ 1.3927877e-01]
 [-1.0956993e+00]
 [ 7.9580992e-01]
 [-8.1158483e-01]
 [-6.0575956e-01]
 [-7.9727852e-01]
 [-4.6861225e-01]
 [ 5.0633615e-01]
 [ 2.3334379e+00]
 [ 4.2771286e-01]
 [ 6.6940501e-02]
 [-4.0084946e-01]
 [-1.8340181e+00]
 [-4.0895647e-01]
 [ 1.1431712e+00]
 [ 1.3749681e+00]
 [-1.4541171e+00]
 [-1.3760661e-02]
 [ 3.1745487e-01]
 [-5.2921760e-01]
 [ 1.0561579e+00]
 [ 1.9637473e+00]
 [-1.0535470e-01]
 [-4.6236610e-01]
 [ 1.5332491e+00]
 [-1.6803467e-03]
 [-1.2894642e+00]
 [-1.5685360e-01]
 [-9.2414483e-02]
 [-1.5610796e-01]
 [ 2.0141964e+00]
 [ 7.6055408e-02]
 [-9.7734872e-03]
 [-1.8856721e+00]
 [-5.3686422e-01]
 [-3.3273169e-01]
 [-7.7753377e-01]
 [ 3.2901697e-02]
 [-1.4335713e-01]
 [ 1.2907816e-01]
 [-6.9520426e-01]
 [-9.6960700e-01]
 [ 3.7884369e-01]
 [ 5.6538337e-01]
 [-5.2431399e-01]
 [ 4.6807218e-02]
 [ 1.5102247e+00]
 [-2.3602214e+00]
 [ 4.1159111e-01]
 [ 1.3331015e+00]
 [ 1.7247392e-01]
 [ 3.0314052e-01]
 [-7.3408443e-01]
 [-1.6751568e-01]
 [-9.9688882e-01]
 [ 3.5823219e+00]
 [ 1.2801448e+00]
 [ 1.9823706e+00]
 [-9.2238361e-01]
 [ 3.3794677e+00]
 [ 3.1528187e-01]
 [ 5.3311992e-01]
 [ 4.8264045e-01]
 [-6.0611546e-01]
 [ 1.8003234e-01]
 [ 5.7759922e-02]
 [ 4.4893786e-01]
 [ 9.9687964e-01]
 [-6.9654423e-01]
 [-3.5826084e-01]
 [ 1.6460037e-01]
 [ 4.5935774e-01]
 [ 3.7370163e-01]
 [ 2.5412366e-01]
 [ 1.1933941e+00]
 [ 4.5403056e-02]
 [ 9.6923995e-01]
 [ 1.4916668e+00]
 [-1.1007589e+00]
 [-2.2674639e+00]
 [ 1.2653024e+00]
 [-2.2009950e+00]
 [-1.6030811e-02]
 [-3.0985662e-01]
 [-4.2047989e-01]
 [-1.5304482e+00]
 [-1.2551112e+00]
 [-3.9073634e-01]
 [-2.0364944e-02]
 [-7.0563728e-01]
 [ 1.0518206e+00]
 [ 2.0273740e+00]
 [ 1.1746589e-03]]

Layer 4:
[0.25661305]



Consenso 1:
------------------------------------------------------------------------

Layer 0:
[[ 0.01856897 -0.11135401  0.02010014 ... -0.00876697  0.05750625
  -0.0992898 ]
 [ 0.          0.          0.         ...  0.11712269  0.10766722
   0.        ]
 [ 0.          0.          0.         ...  0.          0.01017458
   0.        ]
 ...
 [ 0.          0.          0.         ...  0.         -0.00059172
  -0.09734078]
 [ 0.00059043  0.          0.         ...  0.         -0.05778326
   0.        ]
 [ 0.          0.          0.1043616  ...  0.08810823  0.06809408
   0.        ]]

Layer 1:
[[ 0.08418494 -0.08467447  0.03732584  0.05869002  0.07755668 -0.00129675
   0.05977086 -0.08580748 -0.00808084  0.05412387  0.04670785  0.05569715
  -0.01892931  0.15814109  0.02363214  0.03578486  0.05251755  0.04595396
  -0.01483839 -0.02762249  0.01569586  0.02112216  0.01433758 -0.04199359
   0.07675787  0.06249537  0.08506727  0.02342576  0.04760216  0.14507951
  -0.14197712  0.01078871  0.01708458 -0.00663079  0.17290202  0.11536147
  -0.11363835  0.06259077  0.08633072  0.07878649 -0.01993375 -0.09424227
  -0.02547417 -0.03796608 -0.08191342 -0.05963286 -0.07222159 -0.02874461
  -0.01118246 -0.05519197  0.02958324 -0.04850402  0.01375037  0.06104109
  -0.02257297 -0.08640479  0.02897014  0.04964225  0.02962034 -0.02257634
   0.04481524 -0.00619091  0.03263306  0.02763302  0.02284294 -0.02309746
   0.03304246  0.00357042  0.03713256  0.11782747 -0.05589237 -0.13513432
   0.13862543  0.03316561  0.03258423  0.09027854 -0.03464279  0.06951088
   0.03909435  0.00957567 -0.18972519  0.02648583  0.09312271  0.07315302
   0.01988347 -0.08369503 -0.03421795  0.0155627  -0.05339612  0.05237119
  -0.02458737 -0.05842055 -0.03118261 -0.04880786 -0.1647505  -0.09512632
   0.03572048 -0.05937243  0.04727435  0.09332737]]

Layer 2:
[0. 0. 0. 0. 0. 0. 0. 0. 0. 0. 0. 0. 0. 0. 0. 0. 0. 0. 0. 0. 0. 0. 0. 0.
 0. 0. 0. 0. 0. 0. 0. 0. 0. 0. 0. 0. 0. 0. 0. 0. 0. 0. 0. 0. 0. 0. 0. 0.
 0. 0. 0. 0. 0. 0. 0. 0. 0. 0. 0. 0. 0. 0. 0. 0. 0. 0. 0. 0. 0. 0. 0. 0.
 0. 0. 0. 0. 0. 0. 0. 0. 0. 0. 0. 0. 0. 0. 0. 0. 0. 0. 0. 0. 0. 0. 0. 0.
 0. 0. 0. 0.]

Layer 3:
[[-1.0402104e-01]
 [ 7.6548898e-01]
 [-2.1295922e+00]
 [ 1.8366089e-01]
 [ 1.0157373e+00]
 [-5.4114002e-01]
 [-3.0978059e-02]
 [ 2.1454170e-01]
 [-1.7952768e+00]
 [ 8.5186321e-01]
 [-9.2250431e-01]
 [-6.4355314e-01]
 [-2.6324782e+00]
 [-5.9985417e-01]
 [ 1.1520286e+00]
 [ 2.7129810e+00]
 [ 3.8778219e-01]
 [ 1.2142376e-01]
 [-8.5153407e-01]
 [-2.4178936e+00]
 [-1.4368096e-01]
 [ 1.1106826e+00]
 [ 3.5423629e+00]
 [-1.6362609e+00]
 [-2.0026956e-02]
 [ 1.9621643e-01]
 [-5.9314770e-01]
 [ 1.8676670e+00]
 [ 2.4168239e+00]
 [-2.9853153e-01]
 [-2.5624111e-01]
 [ 3.0422606e+00]
 [ 6.5831631e-01]
 [-2.5447273e+00]
 [-3.0124995e-01]
 [-3.2854331e-01]
 [-9.4135463e-02]
 [ 2.0152330e+00]
 [ 1.7730924e-01]
 [-1.5113179e-01]
 [-2.8252966e+00]
 [-4.7897595e-01]
 [-7.2493899e-01]
 [-1.0369508e+00]
 [ 1.4345682e-01]
 [-1.3509542e-01]
 [ 3.2871422e-01]
 [-8.7095630e-01]
 [-1.4397646e+00]
 [ 4.8908964e-01]
 [ 6.9942987e-01]
 [-7.1400410e-01]
 [ 2.7571866e-01]
 [ 1.5749279e+00]
 [-2.8523707e+00]
 [ 4.0450343e-01]
 [ 1.5952258e+00]
 [ 6.1819658e-02]
 [ 4.6501642e-01]
 [-1.3317578e+00]
 [-6.1502334e-02]
 [-1.6887455e+00]
 [ 3.3281689e+00]
 [ 1.7473454e+00]
 [ 2.7010550e+00]
 [-1.2232475e+00]
 [ 4.7272515e+00]
 [ 4.2771009e-01]
 [ 6.2635994e-01]
 [ 3.6429495e-01]
 [-7.0854014e-01]
 [ 3.7402245e-01]
 [-1.3979705e-01]
 [ 6.7649126e-01]
 [ 1.1474253e+00]
 [-9.3537635e-01]
 [-5.0386834e-01]
 [ 2.1213550e-02]
 [ 5.1663858e-01]
 [ 1.6351061e+00]
 [ 3.4242126e-01]
 [ 1.7557391e+00]
 [-7.6790914e-02]
 [ 8.8488680e-01]
 [ 2.2316818e+00]
 [-1.0447434e+00]
 [-2.4633787e+00]
 [ 1.3723783e+00]
 [-1.9963999e+00]
 [-1.5214263e-01]
 [-4.7904375e-01]
 [-3.8054451e-01]
 [-1.6071236e+00]
 [-1.2409626e+00]
 [-4.4047907e-03]
 [ 6.8216361e-02]
 [-7.4254966e-01]
 [ 1.1856885e+00]
 [ 2.5773327e+00]
 [-3.8184609e-02]]

Layer 4:
[-0.1403316]



Entrenamiento 2:
------------------------------------------------------------------------

Layer 0:
[[ 0.01856897 -0.11135401  0.02010014 ... -0.00876697  0.05750625
  -0.0992898 ]
 [ 0.          0.          0.         ...  0.11712269  0.10766722
   0.        ]
 [ 0.          0.          0.         ...  0.          0.01017458
   0.        ]
 ...
 [ 0.          0.          0.         ...  0.         -0.00059172
  -0.09734078]
 [ 0.00059043  0.          0.         ...  0.         -0.05778326
   0.        ]
 [ 0.          0.          0.1043616  ...  0.08810823  0.06809408
   0.        ]]

Layer 1:
[[ 0.08418494 -0.08467447  0.03732584  0.05869002  0.07755668 -0.00129675
   0.05977086 -0.08580748 -0.00808084  0.05412387  0.04670785  0.05569715
  -0.01892931  0.15814109  0.02363214  0.03578486  0.05251755  0.04595396
  -0.01483839 -0.02762249  0.01569586  0.02112216  0.01433758 -0.04199359
   0.07675787  0.06249537  0.08506727  0.02342576  0.04760216  0.14507951
  -0.14197712  0.01078871  0.01708458 -0.00663079  0.17290202  0.11536147
  -0.11363835  0.06259077  0.08633072  0.07878649 -0.01993375 -0.09424227
  -0.02547417 -0.03796608 -0.08191342 -0.05963286 -0.07222159 -0.02874461
  -0.01118246 -0.05519197  0.02958324 -0.04850402  0.01375037  0.06104109
  -0.02257297 -0.08640479  0.02897014  0.04964225  0.02962034 -0.02257634
   0.04481524 -0.00619091  0.03263306  0.02763302  0.02284294 -0.02309746
   0.03304246  0.00357042  0.03713256  0.11782747 -0.05589237 -0.13513432
   0.13862543  0.03316561  0.03258423  0.09027854 -0.03464279  0.06951088
   0.03909435  0.00957567 -0.18972519  0.02648583  0.09312271  0.07315302
   0.01988347 -0.08369503 -0.03421795  0.0155627  -0.05339612  0.05237119
  -0.02458737 -0.05842055 -0.03118261 -0.04880786 -0.1647505  -0.09512632
   0.03572048 -0.05937243  0.04727435  0.09332737]]

Layer 2:
[0. 0. 0. 0. 0. 0. 0. 0. 0. 0. 0. 0. 0. 0. 0. 0. 0. 0. 0. 0. 0. 0. 0. 0.
 0. 0. 0. 0. 0. 0. 0. 0. 0. 0. 0. 0. 0. 0. 0. 0. 0. 0. 0. 0. 0. 0. 0. 0.
 0. 0. 0. 0. 0. 0. 0. 0. 0. 0. 0. 0. 0. 0. 0. 0. 0. 0. 0. 0. 0. 0. 0. 0.
 0. 0. 0. 0. 0. 0. 0. 0. 0. 0. 0. 0. 0. 0. 0. 0. 0. 0. 0. 0. 0. 0. 0. 0.
 0. 0. 0. 0.]

Layer 3:
[[-0.11029873]
 [ 0.5319061 ]
 [-1.6728762 ]
 [-0.20142974]
 [ 0.2947736 ]
 [-0.41937762]
 [ 0.18975471]
 [ 0.60879636]
 [-1.9204427 ]
 [ 0.17842442]
 [-0.5847044 ]
 [-1.079802  ]
 [-2.629421  ]
 [-0.4363388 ]
 [ 1.0470947 ]
 [ 1.8813457 ]
 [ 0.00813458]
 [-0.05566555]
 [-0.8148593 ]
 [-2.1460135 ]
 [ 0.1672746 ]
 [ 1.2732753 ]
 [ 3.599474  ]
 [-1.3708984 ]
 [-0.14309157]
 [ 0.37616712]
 [-0.7347206 ]
 [ 2.1059258 ]
 [ 1.5930357 ]
 [ 0.2921125 ]
 [-0.8430867 ]
 [ 2.6364167 ]
 [ 0.8085293 ]
 [-2.1814332 ]
 [ 0.20363818]
 [ 0.20181425]
 [ 0.02272834]
 [ 1.4636166 ]
 [-0.15633179]
 [ 0.320873  ]
 [-2.6931636 ]
 [-0.21980458]
 [-0.26476398]
 [-0.6287169 ]
 [ 0.27008083]
 [ 0.2334483 ]
 [-0.15540709]
 [-0.85380274]
 [-1.0682945 ]
 [ 0.34115037]
 [ 0.41618595]
 [-0.33501902]
 [ 0.45323122]
 [ 1.25408   ]
 [-2.6723592 ]
 [ 0.7319313 ]
 [ 1.3847286 ]
 [ 0.08440156]
 [ 0.62022626]
 [-1.146199  ]
 [-0.51482475]
 [-1.4618988 ]
 [ 2.764747  ]
 [ 1.5455431 ]
 [ 2.4535668 ]
 [-1.258405  ]
 [ 4.166342  ]
 [ 0.3418131 ]
 [ 0.39045423]
 [ 0.36432707]
 [-0.19588791]
 [-0.22005066]
 [ 0.15982807]
 [ 0.85486263]
 [ 1.0522612 ]
 [-0.41272774]
 [-0.8839744 ]
 [ 0.20061146]
 [ 0.6107459 ]
 [ 1.7787218 ]
 [ 0.00678383]
 [ 1.7349602 ]
 [ 0.12388893]
 [ 0.36406437]
 [ 2.296256  ]
 [-0.22314173]
 [-2.0902483 ]
 [ 1.1490709 ]
 [-1.6534578 ]
 [ 0.00926155]
 [-0.57439977]
 [-0.43386433]
 [-1.6945887 ]
 [-0.86251813]
 [-1.1570013 ]
 [ 0.5687813 ]
 [-0.7014312 ]
 [ 1.4588882 ]
 [ 1.5101365 ]
 [-0.16043843]]

Layer 4:
[-0.00170071]



Consenso 2:
------------------------------------------------------------------------

Layer 0:
[[ 0.01856897 -0.11135401  0.02010014 ... -0.00876697  0.05750625
  -0.0992898 ]
 [ 0.          0.          0.         ...  0.11712269  0.10766722
   0.        ]
 [ 0.          0.          0.         ...  0.          0.01017458
   0.        ]
 ...
 [ 0.          0.          0.         ...  0.         -0.00059172
  -0.09734078]
 [ 0.00059043  0.          0.         ...  0.         -0.05778326
   0.        ]
 [ 0.          0.          0.1043616  ...  0.08810823  0.06809408
   0.        ]]

Layer 1:
[[ 0.08418494 -0.08467447  0.03732584  0.05869002  0.07755668 -0.00129675
   0.05977086 -0.08580748 -0.00808084  0.05412387  0.04670785  0.05569715
  -0.01892931  0.15814109  0.02363214  0.03578486  0.05251755  0.04595396
  -0.01483839 -0.02762249  0.01569586  0.02112216  0.01433758 -0.04199359
   0.07675787  0.06249537  0.08506727  0.02342576  0.04760216  0.14507951
  -0.14197712  0.01078871  0.01708458 -0.00663079  0.17290202  0.11536147
  -0.11363835  0.06259077  0.08633072  0.07878649 -0.01993375 -0.09424227
  -0.02547417 -0.03796608 -0.08191342 -0.05963286 -0.07222159 -0.02874461
  -0.01118246 -0.05519197  0.02958324 -0.04850402  0.01375037  0.06104109
  -0.02257297 -0.08640479  0.02897014  0.04964225  0.02962034 -0.02257634
   0.04481524 -0.00619091  0.03263306  0.02763302  0.02284294 -0.02309746
   0.03304246  0.00357042  0.03713256  0.11782747 -0.05589237 -0.13513432
   0.13862543  0.03316561  0.03258423  0.09027854 -0.03464279  0.06951088
   0.03909435  0.00957567 -0.18972519  0.02648583  0.09312271  0.07315302
   0.01988347 -0.08369503 -0.03421795  0.0155627  -0.05339612  0.05237119
  -0.02458737 -0.05842055 -0.03118261 -0.04880786 -0.1647505  -0.09512632
   0.03572048 -0.05937243  0.04727435  0.09332737]]

Layer 2:
[0. 0. 0. 0. 0. 0. 0. 0. 0. 0. 0. 0. 0. 0. 0. 0. 0. 0. 0. 0. 0. 0. 0. 0.
 0. 0. 0. 0. 0. 0. 0. 0. 0. 0. 0. 0. 0. 0. 0. 0. 0. 0. 0. 0. 0. 0. 0. 0.
 0. 0. 0. 0. 0. 0. 0. 0. 0. 0. 0. 0. 0. 0. 0. 0. 0. 0. 0. 0. 0. 0. 0. 0.
 0. 0. 0. 0. 0. 0. 0. 0. 0. 0. 0. 0. 0. 0. 0. 0. 0. 0. 0. 0. 0. 0. 0. 0.
 0. 0. 0. 0.]

Layer 3:
[[-0.19561328]
 [ 0.6130183 ]
 [-1.8236034 ]
 [-0.31482437]
 [ 0.16276279]
 [-0.656215  ]
 [ 0.08959644]
 [ 0.72889006]
 [-2.6102526 ]
 [ 0.07231479]
 [-0.6928612 ]
 [-1.1231338 ]
 [-4.1683607 ]
 [-0.44012234]
 [ 1.550734  ]
 [ 2.1089344 ]
 [-0.12459382]
 [-0.1839264 ]
 [-1.1248442 ]
 [-2.6087282 ]
 [ 0.39143744]
 [ 1.2330217 ]
 [ 5.4071054 ]
 [-1.4679017 ]
 [-0.27945226]
 [ 0.28080532]
 [-0.84324867]
 [ 2.8492436 ]
 [ 1.7401606 ]
 [ 0.3151459 ]
 [-0.8543344 ]
 [ 3.890768  ]
 [ 1.5374492 ]
 [-3.2335382 ]
 [ 0.22404127]
 [ 0.16644374]
 [ 0.08634941]
 [ 1.3756311 ]
 [-0.24226019]
 [ 0.25422668]
 [-3.934866  ]
 [-0.13210435]
 [-0.5287842 ]
 [-0.8006479 ]
 [ 0.37789094]
 [ 0.35992607]
 [-0.11728926]
 [-0.8822596 ]
 [-1.6582967 ]
 [ 0.4496346 ]
 [ 0.38342482]
 [-0.3026285 ]
 [ 0.59586453]
 [ 1.1917942 ]
 [-2.9470234 ]
 [ 0.83549654]
 [ 1.41211   ]
 [-0.04188875]
 [ 0.5992866 ]
 [-1.6428214 ]
 [-0.6276445 ]
 [-2.0210876 ]
 [ 3.1834269 ]
 [ 1.6803553 ]
 [ 3.273646  ]
 [-1.4743178 ]
 [ 5.3112617 ]
 [ 0.6052382 ]
 [ 0.35676146]
 [ 0.3157525 ]
 [-0.07717354]
 [-0.2368657 ]
 [ 0.14445744]
 [ 0.9846892 ]
 [ 1.1564234 ]
 [-0.44604677]
 [-0.9876573 ]
 [ 0.11366975]
 [ 0.5695415 ]
 [ 2.9841204 ]
 [-0.03349127]
 [ 2.1109257 ]
 [ 0.05550215]
 [ 0.25074476]
 [ 2.95779   ]
 [-0.09919949]
 [-2.237261  ]
 [ 1.8346432 ]
 [-1.6763676 ]
 [-0.0907415 ]
 [-0.6480016 ]
 [-0.3474738 ]
 [-1.6906432 ]
 [-0.73982084]
 [-1.1302619 ]
 [ 0.6624265 ]
 [-0.7679035 ]
 [ 1.5402101 ]
 [ 1.4673226 ]
 [-0.25166377]]

Layer 4:
[0.14774781]



Entrenamiento 3:
------------------------------------------------------------------------

Layer 0:
[[ 0.01856897 -0.11135401  0.02010014 ... -0.00876697  0.05750625
  -0.0992898 ]
 [ 0.          0.          0.         ...  0.11712269  0.10766722
   0.        ]
 [ 0.          0.          0.         ...  0.          0.01017458
   0.        ]
 ...
 [ 0.          0.          0.         ...  0.         -0.00059172
  -0.09734078]
 [ 0.00059043  0.          0.         ...  0.         -0.05778326
   0.        ]
 [ 0.          0.          0.1043616  ...  0.08810823  0.06809408
   0.        ]]

Layer 1:
[[ 0.08418494 -0.08467447  0.03732584  0.05869002  0.07755668 -0.00129675
   0.05977086 -0.08580748 -0.00808084  0.05412387  0.04670785  0.05569715
  -0.01892931  0.15814109  0.02363214  0.03578486  0.05251755  0.04595396
  -0.01483839 -0.02762249  0.01569586  0.02112216  0.01433758 -0.04199359
   0.07675787  0.06249537  0.08506727  0.02342576  0.04760216  0.14507951
  -0.14197712  0.01078871  0.01708458 -0.00663079  0.17290202  0.11536147
  -0.11363835  0.06259077  0.08633072  0.07878649 -0.01993375 -0.09424227
  -0.02547417 -0.03796608 -0.08191342 -0.05963286 -0.07222159 -0.02874461
  -0.01118246 -0.05519197  0.02958324 -0.04850402  0.01375037  0.06104109
  -0.02257297 -0.08640479  0.02897014  0.04964225  0.02962034 -0.02257634
   0.04481524 -0.00619091  0.03263306  0.02763302  0.02284294 -0.02309746
   0.03304246  0.00357042  0.03713256  0.11782747 -0.05589237 -0.13513432
   0.13862543  0.03316561  0.03258423  0.09027854 -0.03464279  0.06951088
   0.03909435  0.00957567 -0.18972519  0.02648583  0.09312271  0.07315302
   0.01988347 -0.08369503 -0.03421795  0.0155627  -0.05339612  0.05237119
  -0.02458737 -0.05842055 -0.03118261 -0.04880786 -0.1647505  -0.09512632
   0.03572048 -0.05937243  0.04727435  0.09332737]]

Layer 2:
[0. 0. 0. 0. 0. 0. 0. 0. 0. 0. 0. 0. 0. 0. 0. 0. 0. 0. 0. 0. 0. 0. 0. 0.
 0. 0. 0. 0. 0. 0. 0. 0. 0. 0. 0. 0. 0. 0. 0. 0. 0. 0. 0. 0. 0. 0. 0. 0.
 0. 0. 0. 0. 0. 0. 0. 0. 0. 0. 0. 0. 0. 0. 0. 0. 0. 0. 0. 0. 0. 0. 0. 0.
 0. 0. 0. 0. 0. 0. 0. 0. 0. 0. 0. 0. 0. 0. 0. 0. 0. 0. 0. 0. 0. 0. 0. 0.
 0. 0. 0. 0.]

Layer 3:
[[-0.16378316]
 [ 0.43691963]
 [-1.5153315 ]
 [-0.5250402 ]
 [-0.23192246]
 [-0.4948456 ]
 [ 0.2732036 ]
 [ 0.8057604 ]
 [-2.687956  ]
 [-0.30016968]
 [-0.43350253]
 [-1.4629164 ]
 [-3.8580923 ]
 [-0.32247326]
 [ 1.4172796 ]
 [ 1.5579215 ]
 [-0.24747096]
 [-0.20431253]
 [-1.1238809 ]
 [-2.293209  ]
 [ 0.5756121 ]
 [ 1.4007646 ]
 [ 5.133387  ]
 [-1.1838628 ]
 [-0.21800347]
 [ 0.38193455]
 [-0.83919597]
 [ 2.8314388 ]
 [ 1.1048542 ]
 [ 0.52158463]
 [-1.0959253 ]
 [ 3.628259  ]
 [ 1.526188  ]
 [-2.9139793 ]
 [ 0.42287678]
 [ 0.41486898]
 [ 0.05199797]
 [ 1.1269283 ]
 [-0.34154353]
 [ 0.5425748 ]
 [-3.6400926 ]
 [-0.06488881]
 [-0.24261102]
 [-0.425609  ]
 [ 0.3562509 ]
 [ 0.5299958 ]
 [-0.3816821 ]
 [-0.9263207 ]
 [-1.4978509 ]
 [ 0.34045532]
 [ 0.28835067]
 [ 0.04314914]
 [ 0.7722188 ]
 [ 1.0012419 ]
 [-2.8202841 ]
 [ 0.9279324 ]
 [ 1.3061159 ]
 [ 0.05876996]
 [ 0.70069474]
 [-1.4084675 ]
 [-0.8334197 ]
 [-1.9432352 ]
 [ 2.6287363 ]
 [ 1.5093135 ]
 [ 3.0057948 ]
 [-1.4733505 ]
 [ 4.577488  ]
 [ 0.54329735]
 [ 0.23899947]
 [ 0.39152715]
 [ 0.1752697 ]
 [-0.4727006 ]
 [ 0.29099762]
 [ 1.0447121 ]
 [ 1.0242478 ]
 [-0.14903902]
 [-1.1188967 ]
 [ 0.22590859]
 [ 0.5733684 ]
 [ 2.997598  ]
 [-0.12672377]
 [ 1.9939632 ]
 [ 0.18975969]
 [ 0.02348248]
 [ 2.95919   ]
 [ 0.43891743]
 [-1.9228739 ]
 [ 1.6599491 ]
 [-1.299339  ]
 [ 0.05457511]
 [-0.71417195]
 [-0.35671198]
 [-1.7492838 ]
 [-0.58457   ]
 [-1.4569776 ]
 [ 0.8324231 ]
 [-0.6969169 ]
 [ 1.699939  ]
 [ 0.7151025 ]
 [-0.21124187]]

Layer 4:
[-0.03169341]



Consenso 3:
------------------------------------------------------------------------

Layer 0:
[[ 0.01856897 -0.11135401  0.02010014 ... -0.00876697  0.05750625
  -0.0992898 ]
 [ 0.          0.          0.         ...  0.11712269  0.10766722
   0.        ]
 [ 0.          0.          0.         ...  0.          0.01017458
   0.        ]
 ...
 [ 0.          0.          0.         ...  0.         -0.00059172
  -0.09734078]
 [ 0.00059043  0.          0.         ...  0.         -0.05778326
   0.        ]
 [ 0.          0.          0.1043616  ...  0.08810823  0.06809408
   0.        ]]

Layer 1:
[[ 0.08418494 -0.08467447  0.03732584  0.05869002  0.07755668 -0.00129675
   0.05977086 -0.08580748 -0.00808084  0.05412387  0.04670785  0.05569715
  -0.01892931  0.15814109  0.02363214  0.03578486  0.05251755  0.04595396
  -0.01483839 -0.02762249  0.01569586  0.02112216  0.01433758 -0.04199359
   0.07675787  0.06249537  0.08506727  0.02342576  0.04760216  0.14507951
  -0.14197712  0.01078871  0.01708458 -0.00663079  0.17290202  0.11536147
  -0.11363835  0.06259077  0.08633072  0.07878649 -0.01993375 -0.09424227
  -0.02547417 -0.03796608 -0.08191342 -0.05963286 -0.07222159 -0.02874461
  -0.01118246 -0.05519197  0.02958324 -0.04850402  0.01375037  0.06104109
  -0.02257297 -0.08640479  0.02897014  0.04964225  0.02962034 -0.02257634
   0.04481524 -0.00619091  0.03263306  0.02763302  0.02284294 -0.02309746
   0.03304246  0.00357042  0.03713256  0.11782747 -0.05589237 -0.13513432
   0.13862543  0.03316561  0.03258423  0.09027854 -0.03464279  0.06951088
   0.03909435  0.00957567 -0.18972519  0.02648583  0.09312271  0.07315302
   0.01988347 -0.08369503 -0.03421795  0.0155627  -0.05339612  0.05237119
  -0.02458737 -0.05842055 -0.03118261 -0.04880786 -0.1647505  -0.09512632
   0.03572048 -0.05937243  0.04727435  0.09332737]]

Layer 2:
[0. 0. 0. 0. 0. 0. 0. 0. 0. 0. 0. 0. 0. 0. 0. 0. 0. 0. 0. 0. 0. 0. 0. 0.
 0. 0. 0. 0. 0. 0. 0. 0. 0. 0. 0. 0. 0. 0. 0. 0. 0. 0. 0. 0. 0. 0. 0. 0.
 0. 0. 0. 0. 0. 0. 0. 0. 0. 0. 0. 0. 0. 0. 0. 0. 0. 0. 0. 0. 0. 0. 0. 0.
 0. 0. 0. 0. 0. 0. 0. 0. 0. 0. 0. 0. 0. 0. 0. 0. 0. 0. 0. 0. 0. 0. 0. 0.
 0. 0. 0. 0.]

Layer 3:
[[-2.3361713e-01]
 [ 4.4585869e-01]
 [-1.5460130e+00]
 [-7.1946901e-01]
 [-5.1462102e-01]
 [-7.2174799e-01]
 [ 2.3301946e-01]
 [ 1.0228986e+00]
 [-3.3928444e+00]
 [-5.7399535e-01]
 [-4.5442775e-01]
 [-1.5920488e+00]
 [-5.4032106e+00]
 [-2.6844668e-01]
 [ 1.8627727e+00]
 [ 1.5375099e+00]
 [-4.7828525e-01]
 [-3.8069129e-01]
 [-1.3941377e+00]
 [-2.6644232e+00]
 [ 8.4715158e-01]
 [ 1.3796418e+00]
 [ 6.9660306e+00]
 [-1.2193848e+00]
 [-3.7001598e-01]
 [ 3.4934160e-01]
 [-9.6591991e-01]
 [ 3.6354165e+00]
 [ 1.0270419e+00]
 [ 7.2898984e-01]
 [-1.2846105e+00]
 [ 4.7650781e+00]
 [ 2.2914729e+00]
 [-3.8938007e+00]
 [ 6.0267317e-01]
 [ 5.4141027e-01]
 [ 1.3770637e-01]
 [ 8.9798510e-01]
 [-5.0785834e-01]
 [ 6.0639852e-01]
 [-4.8680878e+00]
 [ 7.5811848e-02]
 [-3.4217906e-01]
 [-4.8520145e-01]
 [ 4.8665521e-01]
 [ 7.3975241e-01]
 [-4.7395250e-01]
 [-9.2705351e-01]
 [-1.9197992e+00]
 [ 4.0105480e-01]
 [ 1.6170874e-01]
 [ 1.5130231e-01]
 [ 9.2538303e-01]
 [ 8.7037235e-01]
 [-3.0140429e+00]
 [ 1.1032248e+00]
 [ 1.2590781e+00]
 [-6.2271800e-02]
 [ 7.0944715e-01]
 [-1.8350047e+00]
 [-1.0653021e+00]
 [-2.4047453e+00]
 [ 2.9153724e+00]
 [ 1.5634416e+00]
 [ 3.7209566e+00]
 [-1.6683563e+00]
 [ 5.5822754e+00]
 [ 8.4251362e-01]
 [ 1.3297452e-01]
 [ 3.5022250e-01]
 [ 4.1474542e-01]
 [-6.6519988e-01]
 [ 3.7447244e-01]
 [ 1.2099692e+00]
 [ 1.0993441e+00]
 [-4.1482441e-02]
 [-1.3178514e+00]
 [ 2.0182884e-01]
 [ 5.5940229e-01]
 [ 4.2513528e+00]
 [-2.8720495e-01]
 [ 2.3444796e+00]
 [ 1.9018027e-01]
 [-2.1188615e-01]
 [ 3.6211579e+00]
 [ 7.1602958e-01]
 [-1.9602684e+00]
 [ 2.2540407e+00]
 [-1.2757155e+00]
 [-6.6256202e-05]
 [-7.9326046e-01]
 [-3.0253172e-01]
 [-1.7570926e+00]
 [-3.6484268e-01]
 [-1.8138708e+00]
 [ 1.0448934e+00]
 [-7.5997734e-01]
 [ 1.8351042e+00]
 [ 4.2560598e-01]
 [-3.2845956e-01]]

Layer 4:
[0.1179212]



Entrenamiento 4:
------------------------------------------------------------------------

Layer 0:
[[ 0.01856897 -0.11135401  0.02010014 ... -0.00876697  0.05750625
  -0.0992898 ]
 [ 0.          0.          0.         ...  0.11712269  0.10766722
   0.        ]
 [ 0.          0.          0.         ...  0.          0.01017458
   0.        ]
 ...
 [ 0.          0.          0.         ...  0.         -0.00059172
  -0.09734078]
 [ 0.00059043  0.          0.         ...  0.         -0.05778326
   0.        ]
 [ 0.          0.          0.1043616  ...  0.08810823  0.06809408
   0.        ]]

Layer 1:
[[ 0.08418494 -0.08467447  0.03732584  0.05869002  0.07755668 -0.00129675
   0.05977086 -0.08580748 -0.00808084  0.05412387  0.04670785  0.05569715
  -0.01892931  0.15814109  0.02363214  0.03578486  0.05251755  0.04595396
  -0.01483839 -0.02762249  0.01569586  0.02112216  0.01433758 -0.04199359
   0.07675787  0.06249537  0.08506727  0.02342576  0.04760216  0.14507951
  -0.14197712  0.01078871  0.01708458 -0.00663079  0.17290202  0.11536147
  -0.11363835  0.06259077  0.08633072  0.07878649 -0.01993375 -0.09424227
  -0.02547417 -0.03796608 -0.08191342 -0.05963286 -0.07222159 -0.02874461
  -0.01118246 -0.05519197  0.02958324 -0.04850402  0.01375037  0.06104109
  -0.02257297 -0.08640479  0.02897014  0.04964225  0.02962034 -0.02257634
   0.04481524 -0.00619091  0.03263306  0.02763302  0.02284294 -0.02309746
   0.03304246  0.00357042  0.03713256  0.11782747 -0.05589237 -0.13513432
   0.13862543  0.03316561  0.03258423  0.09027854 -0.03464279  0.06951088
   0.03909435  0.00957567 -0.18972519  0.02648583  0.09312271  0.07315302
   0.01988347 -0.08369503 -0.03421795  0.0155627  -0.05339612  0.05237119
  -0.02458737 -0.05842055 -0.03118261 -0.04880786 -0.1647505  -0.09512632
   0.03572048 -0.05937243  0.04727435  0.09332737]]

Layer 2:
[0. 0. 0. 0. 0. 0. 0. 0. 0. 0. 0. 0. 0. 0. 0. 0. 0. 0. 0. 0. 0. 0. 0. 0.
 0. 0. 0. 0. 0. 0. 0. 0. 0. 0. 0. 0. 0. 0. 0. 0. 0. 0. 0. 0. 0. 0. 0. 0.
 0. 0. 0. 0. 0. 0. 0. 0. 0. 0. 0. 0. 0. 0. 0. 0. 0. 0. 0. 0. 0. 0. 0. 0.
 0. 0. 0. 0. 0. 0. 0. 0. 0. 0. 0. 0. 0. 0. 0. 0. 0. 0. 0. 0. 0. 0. 0. 0.
 0. 0. 0. 0.]

Layer 3:
[[-0.15655811]
 [ 0.32881373]
 [-1.3972248 ]
 [-0.73857427]
 [-0.55203253]
 [-0.5258666 ]
 [ 0.37080443]
 [ 0.78942   ]
 [-3.3811169 ]
 [-0.6270031 ]
 [-0.2911126 ]
 [-1.7990578 ]
 [-4.73219   ]
 [-0.18844052]
 [ 1.6791481 ]
 [ 1.2709457 ]
 [-0.3461097 ]
 [-0.24929969]
 [-1.4012775 ]
 [-2.3021927 ]
 [ 0.8790237 ]
 [ 1.5280776 ]
 [ 6.319863  ]
 [-0.9366159 ]
 [-0.13753644]
 [ 0.3809037 ]
 [-0.8184463 ]
 [ 3.3355749 ]
 [ 0.6112001 ]
 [ 0.585979  ]
 [-1.2080994 ]
 [ 4.6229258 ]
 [ 2.0818284 ]
 [-3.6154878 ]
 [ 0.5227159 ]
 [ 0.526027  ]
 [-0.04504019]
 [ 0.9580099 ]
 [-0.36929446]
 [ 0.7073319 ]
 [-4.358061  ]
 [-0.05413612]
 [-0.2194724 ]
 [-0.1600482 ]
 [ 0.31768906]
 [ 0.69946206]
 [-0.5207126 ]
 [-1.0129036 ]
 [-1.9268166 ]
 [ 0.32724229]
 [ 0.24373402]
 [ 0.42495477]
 [ 1.0641869 ]
 [ 0.82880974]
 [-2.9242353 ]
 [ 0.95737696]
 [ 1.2504612 ]
 [ 0.10617921]
 [ 0.7460542 ]
 [-1.5418961 ]
 [-1.0207722 ]
 [-2.45043   ]
 [ 2.3872297 ]
 [ 1.4247141 ]
 [ 3.3916879 ]
 [-1.611355  ]
 [ 4.659464  ]
 [ 0.81701773]
 [ 0.13308036]
 [ 0.5006282 ]
 [ 0.394835  ]
 [-0.56966937]
 [ 0.38739398]
 [ 1.1433387 ]
 [ 0.9367835 ]
 [ 0.02899483]
 [-1.200075  ]
 [ 0.252448  ]
 [ 0.48370475]
 [ 4.0964656 ]
 [-0.1747562 ]
 [ 2.1152894 ]
 [ 0.26487118]
 [-0.1344218 ]
 [ 3.5230556 ]
 [ 0.9176931 ]
 [-1.7140485 ]
 [ 2.082883  ]
 [-0.913203  ]
 [ 0.12113369]
 [-0.8164753 ]
 [-0.28056213]
 [-1.7779753 ]
 [-0.43545592]
 [-1.4086863 ]
 [ 0.8806562 ]
 [-0.67114383]
 [ 1.8638445 ]
 [ 0.02965108]
 [-0.1330742 ]]

Layer 4:
[-0.03663111]



Consenso 4:
------------------------------------------------------------------------

Layer 0:
[[ 0.01856897 -0.11135401  0.02010014 ... -0.00876697  0.05750625
  -0.0992898 ]
 [ 0.          0.          0.         ...  0.11712269  0.10766722
   0.        ]
 [ 0.          0.          0.         ...  0.          0.01017458
   0.        ]
 ...
 [ 0.          0.          0.         ...  0.         -0.00059172
  -0.09734078]
 [ 0.00059043  0.          0.         ...  0.         -0.05778326
   0.        ]
 [ 0.          0.          0.1043616  ...  0.08810823  0.06809408
   0.        ]]

Layer 1:
[[ 0.08418494 -0.08467447  0.03732584  0.05869002  0.07755668 -0.00129675
   0.05977086 -0.08580748 -0.00808084  0.05412387  0.04670785  0.05569715
  -0.01892931  0.15814109  0.02363214  0.03578486  0.05251755  0.04595396
  -0.01483839 -0.02762249  0.01569586  0.02112216  0.01433758 -0.04199359
   0.07675787  0.06249537  0.08506727  0.02342576  0.04760216  0.14507951
  -0.14197712  0.01078871  0.01708458 -0.00663079  0.17290202  0.11536147
  -0.11363835  0.06259077  0.08633072  0.07878649 -0.01993375 -0.09424227
  -0.02547417 -0.03796608 -0.08191342 -0.05963286 -0.07222159 -0.02874461
  -0.01118246 -0.05519197  0.02958324 -0.04850402  0.01375037  0.06104109
  -0.02257297 -0.08640479  0.02897014  0.04964225  0.02962034 -0.02257634
   0.04481524 -0.00619091  0.03263306  0.02763302  0.02284294 -0.02309746
   0.03304246  0.00357042  0.03713256  0.11782747 -0.05589237 -0.13513432
   0.13862543  0.03316561  0.03258423  0.09027854 -0.03464279  0.06951088
   0.03909435  0.00957567 -0.18972519  0.02648583  0.09312271  0.07315302
   0.01988347 -0.08369503 -0.03421795  0.0155627  -0.05339612  0.05237119
  -0.02458737 -0.05842055 -0.03118261 -0.04880786 -0.1647505  -0.09512632
   0.03572048 -0.05937243  0.04727435  0.09332737]]

Layer 2:
[0. 0. 0. 0. 0. 0. 0. 0. 0. 0. 0. 0. 0. 0. 0. 0. 0. 0. 0. 0. 0. 0. 0. 0.
 0. 0. 0. 0. 0. 0. 0. 0. 0. 0. 0. 0. 0. 0. 0. 0. 0. 0. 0. 0. 0. 0. 0. 0.
 0. 0. 0. 0. 0. 0. 0. 0. 0. 0. 0. 0. 0. 0. 0. 0. 0. 0. 0. 0. 0. 0. 0. 0.
 0. 0. 0. 0. 0. 0. 0. 0. 0. 0. 0. 0. 0. 0. 0. 0. 0. 0. 0. 0. 0. 0. 0. 0.
 0. 0. 0. 0.]

Layer 3:
[[-2.0973827e-01]
 [ 3.1463227e-01]
 [-1.3886238e+00]
 [-9.3692893e-01]
 [-8.3848500e-01]
 [-7.3857516e-01]
 [ 3.5000440e-01]
 [ 9.9174541e-01]
 [-4.0403485e+00]
 [-9.3105245e-01]
 [-2.8738609e-01]
 [-1.9573117e+00]
 [-6.1837354e+00]
 [-1.1366279e-01]
 [ 2.0392132e+00]
 [ 1.1397254e+00]
 [-5.7685214e-01]
 [-4.1970336e-01]
 [-1.6261054e+00]
 [-2.5790398e+00]
 [ 1.1152788e+00]
 [ 1.5061575e+00]
 [ 8.0606146e+00]
 [-9.2439336e-01]
 [-2.5024527e-01]
 [ 3.6450747e-01]
 [-9.1892266e-01]
 [ 4.0910087e+00]
 [ 4.4226655e-01]
 [ 8.0262810e-01]
 [-1.4096550e+00]
 [ 5.6301823e+00]
 [ 2.8047760e+00]
 [-4.5110650e+00]
 [ 7.2019726e-01]
 [ 6.7843115e-01]
 [ 1.8972049e-02]
 [ 7.0804417e-01]
 [-5.3445810e-01]
 [ 7.9514104e-01]
 [-5.5107436e+00]
 [ 7.4483141e-02]
 [-2.2567458e-01]
 [-1.5056531e-01]
 [ 4.2821673e-01]
 [ 9.0944898e-01]
 [-6.2526345e-01]
 [-9.9445337e-01]
 [-2.2258511e+00]
 [ 3.7231204e-01]
 [ 9.5687456e-02]
 [ 5.6687856e-01]
 [ 1.1954401e+00]
 [ 6.8374938e-01]
 [-3.0499213e+00]
 [ 1.1202401e+00]
 [ 1.1723255e+00]
 [ 2.3902187e-03]
 [ 7.4903494e-01]
 [-1.8811136e+00]
 [-1.2642967e+00]
 [-2.8305631e+00]
 [ 2.5707204e+00]
 [ 1.4230107e+00]
 [ 3.9874942e+00]
 [-1.7596807e+00]
 [ 5.5077066e+00]
 [ 1.1454335e+00]
 [ 2.5637385e-03]
 [ 4.8073858e-01]
 [ 6.4778203e-01]
 [-7.7169597e-01]
 [ 4.9194661e-01]
 [ 1.2831284e+00]
 [ 9.7474110e-01]
 [ 1.5321471e-01]
 [-1.3812548e+00]
 [ 2.4941924e-01]
 [ 4.5829371e-01]
 [ 5.2903070e+00]
 [-3.5063171e-01]
 [ 2.4048982e+00]
 [ 2.8737360e-01]
 [-3.7399295e-01]
 [ 4.1279273e+00]
 [ 1.2040068e+00]
 [-1.6849673e+00]
 [ 2.5829887e+00]
 [-8.5684353e-01]
 [ 8.4438078e-02]
 [-8.7442964e-01]
 [-2.3758931e-01]
 [-1.7759240e+00]
 [-2.1072277e-01]
 [-1.8054833e+00]
 [ 1.0876596e+00]
 [-7.3251152e-01]
 [ 2.0069911e+00]
 [-3.1939527e-01]
 [-2.2786416e-01]]

Layer 4:
[0.13810152]



Entrenamiento 5:
------------------------------------------------------------------------

Layer 0:
[[ 0.01856897 -0.11135401  0.02010014 ... -0.00876697  0.05750625
  -0.0992898 ]
 [ 0.          0.          0.         ...  0.11712269  0.10766722
   0.        ]
 [ 0.          0.          0.         ...  0.          0.01017458
   0.        ]
 ...
 [ 0.          0.          0.         ...  0.         -0.00059172
  -0.09734078]
 [ 0.00059043  0.          0.         ...  0.         -0.05778326
   0.        ]
 [ 0.          0.          0.1043616  ...  0.08810823  0.06809408
   0.        ]]

Layer 1:
[[ 0.08418494 -0.08467447  0.03732584  0.05869002  0.07755668 -0.00129675
   0.05977086 -0.08580748 -0.00808084  0.05412387  0.04670785  0.05569715
  -0.01892931  0.15814109  0.02363214  0.03578486  0.05251755  0.04595396
  -0.01483839 -0.02762249  0.01569586  0.02112216  0.01433758 -0.04199359
   0.07675787  0.06249537  0.08506727  0.02342576  0.04760216  0.14507951
  -0.14197712  0.01078871  0.01708458 -0.00663079  0.17290202  0.11536147
  -0.11363835  0.06259077  0.08633072  0.07878649 -0.01993375 -0.09424227
  -0.02547417 -0.03796608 -0.08191342 -0.05963286 -0.07222159 -0.02874461
  -0.01118246 -0.05519197  0.02958324 -0.04850402  0.01375037  0.06104109
  -0.02257297 -0.08640479  0.02897014  0.04964225  0.02962034 -0.02257634
   0.04481524 -0.00619091  0.03263306  0.02763302  0.02284294 -0.02309746
   0.03304246  0.00357042  0.03713256  0.11782747 -0.05589237 -0.13513432
   0.13862543  0.03316561  0.03258423  0.09027854 -0.03464279  0.06951088
   0.03909435  0.00957567 -0.18972519  0.02648583  0.09312271  0.07315302
   0.01988347 -0.08369503 -0.03421795  0.0155627  -0.05339612  0.05237119
  -0.02458737 -0.05842055 -0.03118261 -0.04880786 -0.1647505  -0.09512632
   0.03572048 -0.05937243  0.04727435  0.09332737]]

Layer 2:
[0. 0. 0. 0. 0. 0. 0. 0. 0. 0. 0. 0. 0. 0. 0. 0. 0. 0. 0. 0. 0. 0. 0. 0.
 0. 0. 0. 0. 0. 0. 0. 0. 0. 0. 0. 0. 0. 0. 0. 0. 0. 0. 0. 0. 0. 0. 0. 0.
 0. 0. 0. 0. 0. 0. 0. 0. 0. 0. 0. 0. 0. 0. 0. 0. 0. 0. 0. 0. 0. 0. 0. 0.
 0. 0. 0. 0. 0. 0. 0. 0. 0. 0. 0. 0. 0. 0. 0. 0. 0. 0. 0. 0. 0. 0. 0. 0.
 0. 0. 0. 0.]

Layer 3:
[[-0.12251384]
 [ 0.24335434]
 [-1.3234557 ]
 [-0.85654825]
 [-0.69359785]
 [-0.51784295]
 [ 0.4520141 ]
 [ 0.6383795 ]
 [-3.96462   ]
 [-0.81711817]
 [-0.18375845]
 [-2.0718496 ]
 [-5.2846007 ]
 [-0.08456276]
 [ 1.8275721 ]
 [ 1.0314555 ]
 [-0.32842967]
 [-0.22030263]
 [-1.6381301 ]
 [-2.2086632 ]
 [ 1.0721257 ]
 [ 1.640424  ]
 [ 7.185867  ]
 [-0.6656483 ]
 [ 0.03875308]
 [ 0.3642    ]
 [-0.7225072 ]
 [ 3.6487336 ]
 [ 0.16393343]
 [ 0.49525675]
 [-1.1770828 ]
 [ 5.525343  ]
 [ 2.483689  ]
 [-4.2412558 ]
 [ 0.49467412]
 [ 0.5293574 ]
 [-0.20322421]
 [ 0.9132254 ]
 [-0.29907203]
 [ 0.79203796]
 [-4.8596406 ]
 [-0.13061215]
 [-0.19078541]
 [ 0.1256112 ]
 [ 0.20667222]
 [ 0.7654752 ]
 [-0.5635193 ]
 [-1.0929403 ]
 [-2.3100197 ]
 [ 0.31592378]
 [ 0.26252133]
 [ 0.76975876]
 [ 1.304232  ]
 [ 0.7217695 ]
 [-2.982339  ]
 [ 0.8773241 ]
 [ 1.2169808 ]
 [ 0.19238795]
 [ 0.75612915]
 [-1.5706896 ]
 [-1.0952896 ]
 [-2.9301178 ]
 [ 2.0938175 ]
 [ 1.3172171 ]
 [ 3.6139886 ]
 [-1.6745423 ]
 [ 4.4767513 ]
 [ 1.1328319 ]
 [ 0.06628143]
 [ 0.6359664 ]
 [ 0.48999304]
 [-0.5158659 ]
 [ 0.4257076 ]
 [ 1.1567092 ]
 [ 0.81484354]
 [ 0.10257615]
 [-1.1544383 ]
 [ 0.26639143]
 [ 0.35876638]
 [ 5.021957  ]
 [-0.12811117]
 [ 2.1268492 ]
 [ 0.32092115]
 [-0.15542473]
 [ 3.9649894 ]
 [ 1.2194642 ]
 [-1.492143  ]
 [ 2.4149632 ]
 [-0.54479307]
 [ 0.18543778]
 [-0.87988454]
 [-0.20672742]
 [-1.7808005 ]
 [-0.3893633 ]
 [-1.096811  ]
 [ 0.7841834 ]
 [-0.63963646]
 [ 1.9653491 ]
 [-0.498907  ]
 [ 0.01336937]]

Layer 4:
[-0.0344785]



