:
------------------------------------------------------------------------



Entrenamiento 0:
------------------------------------------------------------------------

Layer 0:
[[ 0.         -0.          0.         ...  0.         -0.
   0.        ]
 [ 0.         -0.          0.         ...  0.          0.
   0.        ]
 [-0.30830184 -0.          0.4365515  ... -0.         -0.
  -0.        ]
 ...
 [-0.         -0.          0.         ... -0.         -0.
   0.        ]
 [ 0.          0.          0.         ...  0.          0.
  -0.        ]
 [-0.          0.         -0.25566742 ...  0.         -0.
   0.        ]]

Layer 1:
[[ 0.13212132 -0.06510904  0.14234886  0.18683353  0.07686064 -0.23701786
  -0.22901307 -0.04642773 -0.05869032  0.19494861  0.05601916  0.07066977
  -0.14927016  0.20612168  0.13772875  0.06975946  0.02141282 -0.12517503
   0.1208598  -0.16340572 -0.0389611   0.01204097 -0.19807507 -0.14482859
   0.07717246  0.1633353   0.10108647  0.00068472 -0.22656615  0.08986652
   0.13653842  0.16840503 -0.09122324  0.02213728 -0.09312241  0.08451867
   0.10907492  0.13829806  0.13876331  0.0136576  -0.0886354   0.04782
  -0.10341983 -0.05137914  0.15797076  0.05010444 -0.03637831  0.2243661
   0.09301496 -0.04096301 -0.1313799   0.02657095  0.18522152  0.05718312
  -0.23510271  0.19377175 -0.06675974  0.07265505  0.15804458  0.12210619
  -0.04469898  0.06950539 -0.23741353  0.03517425  0.17518735  0.17049888
   0.10240406  0.0296655  -0.0470745   0.10328734  0.04112589 -0.1529496
   0.00284289 -0.14337473 -0.04283667 -0.03894342 -0.10174641 -0.00803745
  -0.09831597  0.18172827 -0.01739196  0.16794899 -0.06460081 -0.06199618
   0.12771642  0.1460728  -0.07190536  0.02146843  0.16628784 -0.11759293
  -0.17846386 -0.07219087 -0.04622532 -0.21658827  0.08385271  0.08983409
   0.19669065  0.16933236 -0.1941418  -0.04772957]]

Layer 2:
[0. 0. 0. 0. 0. 0. 0. 0. 0. 0. 0. 0. 0. 0. 0. 0. 0. 0. 0. 0. 0. 0. 0. 0.
 0. 0. 0. 0. 0. 0. 0. 0. 0. 0. 0. 0. 0. 0. 0. 0. 0. 0. 0. 0. 0. 0. 0. 0.
 0. 0. 0. 0. 0. 0. 0. 0. 0. 0. 0. 0. 0. 0. 0. 0. 0. 0. 0. 0. 0. 0. 0. 0.
 0. 0. 0. 0. 0. 0. 0. 0. 0. 0. 0. 0. 0. 0. 0. 0. 0. 0. 0. 0. 0. 0. 0. 0.
 0. 0. 0. 0.]

Layer 3:
[[ 6.35670722e-01]
 [-1.03660643e+00]
 [ 3.25088203e-01]
 [-2.72084713e-01]
 [ 6.17439985e-01]
 [ 3.90698493e-01]
 [ 1.81036100e-01]
 [ 1.08792558e-01]
 [-4.53174978e-01]
 [-7.50310766e-03]
 [-1.22970141e-01]
 [ 1.96157187e-01]
 [ 8.24988782e-02]
 [ 1.51965275e-01]
 [ 2.54426539e-01]
 [ 9.59535003e-01]
 [ 6.53186083e-01]
 [-1.85399160e-01]
 [-3.54667008e-02]
 [ 6.49240687e-02]
 [ 9.22477841e-01]
 [ 3.35010231e-01]
 [-2.12410092e-01]
 [-5.73210977e-02]
 [ 1.64475286e+00]
 [-1.88882966e-02]
 [ 7.79072225e-01]
 [-1.00182846e-01]
 [ 2.06524849e-01]
 [ 5.78120708e-01]
 [ 1.86329544e-01]
 [-8.04632753e-02]
 [-1.01644464e-01]
 [-2.69618750e-01]
 [ 9.78259444e-02]
 [ 1.36705995e-01]
 [-1.45684108e-02]
 [ 2.13652834e-01]
 [ 2.70205289e-01]
 [ 6.84666276e-01]
 [-5.59973300e-01]
 [ 4.27344292e-01]
 [-3.31581384e-01]
 [-6.89196289e-01]
 [ 1.86678884e-03]
 [ 3.35761011e-01]
 [-4.04517561e-01]
 [-4.41889018e-02]
 [ 6.13897085e-01]
 [ 2.48417914e-01]
 [-1.60790592e-01]
 [ 2.45915636e-01]
 [ 1.17308341e-01]
 [ 6.16699398e-01]
 [ 2.21773803e-01]
 [ 2.02372879e-01]
 [-1.67660981e-01]
 [ 4.39013064e-01]
 [-1.86444119e-01]
 [ 3.37162286e-01]
 [-1.89103246e+00]
 [ 3.01006258e-01]
 [-4.11402732e-02]
 [-2.69190431e-01]
 [ 1.74379855e-01]
 [-2.88931102e-01]
 [ 6.57535121e-02]
 [ 3.52338880e-01]
 [-3.50713491e-01]
 [ 2.60625452e-01]
 [-8.46254528e-01]
 [-2.37102464e-01]
 [-1.33342519e-01]
 [-6.78349882e-02]
 [-1.99386925e-01]
 [-5.16581595e-01]
 [-2.23570228e-01]
 [-4.80100244e-01]
 [ 7.01816678e-02]
 [ 4.55447555e-01]
 [-1.65233195e-01]
 [ 1.70033470e-01]
 [-1.45113289e-01]
 [-6.51414216e-01]
 [ 2.71739274e-01]
 [-1.23875119e-01]
 [-2.34964967e-01]
 [ 5.71160913e-01]
 [ 1.24059960e-01]
 [-2.64553159e-01]
 [-1.00130931e-01]
 [-5.24587214e-01]
 [-4.73968983e-01]
 [ 7.35796057e-03]
 [ 1.92819014e-01]
 [ 2.81521022e-01]
 [-2.08128747e-02]
 [ 1.86388999e-01]
 [ 1.14379404e-02]
 [-5.75198412e-01]]

Layer 4:
[-0.03234415]



Consenso 0:
------------------------------------------------------------------------

Layer 0:
[[ 5.4558171e-03 -1.9678421e-01  7.2747411e-05 ...  7.0051421e-05
   1.8440299e-01 -9.0020206e-03]
 [-5.5614612e-03  0.0000000e+00 -1.4665354e-02 ... -1.0412783e-02
  -8.1647849e-03 -3.9023806e-03]
 [ 1.2319164e-01 -4.5958110e-03  5.1036202e-03 ... -1.5652135e-03
   1.0037103e-02  2.7406947e-03]
 ...
 [-7.5350073e-03  0.0000000e+00 -2.4160903e-04 ... -2.0680972e-03
   2.1211898e-01 -1.4548085e-03]
 [ 2.7143497e-03  3.0448845e-02 -3.8898499e-03 ...  3.8899822e-04
  -9.9663495e-04 -1.6184596e-03]
 [ 5.8170920e-03  2.4655787e-03 -2.1308006e-01 ...  3.5436011e-03
  -1.9178179e-01 -1.6415601e-03]]

Layer 1:
[[ 8.51070732e-02 -1.43843770e-01  8.42754543e-02 -7.55160451e-02
   8.82583559e-02 -7.29213357e-02 -1.18807934e-01 -9.14428234e-02
   1.19050846e-01 -1.13983154e-02  5.83426021e-02  4.06488180e-02
  -3.62404734e-02 -5.97563386e-02 -2.50749979e-02  6.52445666e-03
  -3.87451821e-03  6.12435564e-02 -5.52623458e-02 -5.07119596e-02
   4.89767864e-02 -6.75082207e-02  3.14046629e-05 -4.65119258e-02
  -4.55278009e-02 -5.00897206e-02  7.31539130e-02  2.99601052e-02
   4.03880049e-03  5.66814952e-02  1.70302056e-02 -4.38748896e-02
  -1.24053527e-02  8.53966773e-02  7.74406418e-02  3.32551189e-02
  -3.08738947e-02  1.51235625e-01  1.61481515e-01  5.64078195e-03
  -9.65212211e-02  9.79626831e-03 -5.59636904e-03 -1.07841790e-02
   8.13455433e-02  1.49521129e-02 -9.38308164e-02  7.27279633e-02
   6.53201193e-02  8.47992525e-02  2.48598196e-02 -7.21728429e-02
  -4.08758447e-02  5.66797443e-02 -6.80344924e-02 -4.20934334e-02
  -1.13867752e-01  7.99777806e-02 -6.44967780e-02 -1.27506629e-01
  -4.23229448e-02  5.52740060e-02 -6.76051080e-02 -1.20866269e-01
   6.33771271e-02  1.53920650e-02 -1.10465519e-01  1.42101929e-01
   2.47462420e-03  7.12899342e-02 -2.53338902e-03 -1.08376950e-01
  -1.86345950e-02 -1.20306067e-01  3.18353064e-02  9.48641822e-02
   3.08623295e-02  1.20992966e-01  1.78494547e-02  6.55668303e-02
  -1.02689639e-01  6.75710142e-02 -1.06000133e-01 -8.17385390e-02
  -1.18748985e-01  6.79774657e-02  4.99629788e-02  1.10614493e-01
   1.67639032e-02 -1.01746202e-01  3.14672031e-02  1.19146362e-01
  -6.89538121e-02 -4.84731831e-02 -8.90888944e-02 -9.13181230e-02
  -8.15815628e-02 -9.59496796e-02 -1.16006836e-01  1.24809332e-01]]

Layer 2:
[0. 0. 0. 0. 0. 0. 0. 0. 0. 0. 0. 0. 0. 0. 0. 0. 0. 0. 0. 0. 0. 0. 0. 0.
 0. 0. 0. 0. 0. 0. 0. 0. 0. 0. 0. 0. 0. 0. 0. 0. 0. 0. 0. 0. 0. 0. 0. 0.
 0. 0. 0. 0. 0. 0. 0. 0. 0. 0. 0. 0. 0. 0. 0. 0. 0. 0. 0. 0. 0. 0. 0. 0.
 0. 0. 0. 0. 0. 0. 0. 0. 0. 0. 0. 0. 0. 0. 0. 0. 0. 0. 0. 0. 0. 0. 0. 0.
 0. 0. 0. 0.]

Layer 3:
[[-0.52238095]
 [-0.0434145 ]
 [ 0.4778332 ]
 [-0.52998674]
 [ 0.3029934 ]
 [ 0.11348277]
 [-0.25255245]
 [-0.47631702]
 [ 0.23470679]
 [-0.8740934 ]
 [-0.07626537]
 [ 0.22997425]
 [-0.10444868]
 [-0.2885375 ]
 [-1.1072625 ]
 [ 0.46056858]
 [ 0.84929276]
 [ 0.0511888 ]
 [-0.28514424]
 [-0.01792536]
 [ 1.6524112 ]
 [ 0.06834098]
 [ 0.29582787]
 [-0.08718294]
 [-1.2455113 ]
 [-0.49005443]
 [ 1.5219172 ]
 [ 0.47115487]
 [-2.6618438 ]
 [ 0.65518856]
 [-1.3440577 ]
 [-1.618542  ]
 [-1.8139571 ]
 [-0.07614402]
 [-0.0392834 ]
 [ 0.7093459 ]
 [-0.62832   ]
 [ 0.26126432]
 [ 0.2301315 ]
 [ 1.2186587 ]
 [ 0.87425053]
 [-0.2809796 ]
 [ 0.98679876]
 [ 0.09707454]
 [ 1.4637635 ]
 [-1.7926738 ]
 [-0.0354929 ]
 [-0.04256169]
 [-0.1477993 ]
 [ 0.5477403 ]
 [-0.03932991]
 [ 0.18704872]
 [ 0.04865009]
 [-0.04233845]
 [-0.09817111]
 [-0.02565925]
 [-0.52360314]
 [ 0.7583125 ]
 [-0.6365001 ]
 [ 0.06964561]
 [ 1.382223  ]
 [ 1.0829375 ]
 [-2.0620856 ]
 [-0.26439288]
 [ 0.55525225]
 [-0.9927658 ]
 [ 0.0733579 ]
 [-0.13508987]
 [-0.00894466]
 [ 0.15136518]
 [ 1.4235257 ]
 [ 0.6703427 ]
 [-0.50629866]
 [-0.33211747]
 [ 0.1280097 ]
 [-0.1323057 ]
 [ 0.34747055]
 [ 0.36713797]
 [ 0.33093753]
 [ 1.038361  ]
 [ 0.31263605]
 [ 0.00377829]
 [-0.04157548]
 [-0.15838315]
 [-0.5788392 ]
 [ 0.07935106]
 [ 0.23107475]
 [ 0.30165383]
 [-0.14298329]
 [ 0.17011015]
 [ 0.598853  ]
 [ 0.13813733]
 [-0.00821288]
 [-1.490559  ]
 [ 0.01014717]
 [-0.020122  ]
 [-0.0881276 ]
 [-0.41919824]
 [-0.3756584 ]
 [ 0.23107147]]

Layer 4:
[-0.030446]



Entrenamiento 1:
------------------------------------------------------------------------

Layer 0:
[[ 5.4558171e-03 -1.9678421e-01  7.2747411e-05 ...  7.0051421e-05
   1.8440299e-01 -9.0020206e-03]
 [-5.5614612e-03  0.0000000e+00 -1.4665354e-02 ... -1.0412783e-02
  -8.1647849e-03 -3.9023806e-03]
 [ 1.2319164e-01 -4.5958110e-03  5.1036202e-03 ... -1.5652135e-03
   1.0037103e-02  2.7406947e-03]
 ...
 [-7.5350073e-03  0.0000000e+00 -2.4160903e-04 ... -2.0680972e-03
   2.1211898e-01 -1.4548085e-03]
 [ 2.7143497e-03  3.0448845e-02 -3.8898499e-03 ...  3.8899822e-04
  -9.9663495e-04 -1.6184596e-03]
 [ 5.8170920e-03  2.4655787e-03 -2.1308006e-01 ...  3.5436011e-03
  -1.9178179e-01 -1.6415601e-03]]

Layer 1:
[[ 8.51070732e-02 -1.43843770e-01  8.42754543e-02 -7.55160451e-02
   8.82583559e-02 -7.29213357e-02 -1.18807934e-01 -9.14428234e-02
   1.19050846e-01 -1.13983154e-02  5.83426021e-02  4.06488180e-02
  -3.62404734e-02 -5.97563386e-02 -2.50749979e-02  6.52445666e-03
  -3.87451821e-03  6.12435564e-02 -5.52623458e-02 -5.07119596e-02
   4.89767864e-02 -6.75082207e-02  3.14046629e-05 -4.65119258e-02
  -4.55278009e-02 -5.00897206e-02  7.31539130e-02  2.99601052e-02
   4.03880049e-03  5.66814952e-02  1.70302056e-02 -4.38748896e-02
  -1.24053527e-02  8.53966773e-02  7.74406418e-02  3.32551189e-02
  -3.08738947e-02  1.51235625e-01  1.61481515e-01  5.64078195e-03
  -9.65212211e-02  9.79626831e-03 -5.59636904e-03 -1.07841790e-02
   8.13455433e-02  1.49521129e-02 -9.38308164e-02  7.27279633e-02
   6.53201193e-02  8.47992525e-02  2.48598196e-02 -7.21728429e-02
  -4.08758447e-02  5.66797443e-02 -6.80344924e-02 -4.20934334e-02
  -1.13867752e-01  7.99777806e-02 -6.44967780e-02 -1.27506629e-01
  -4.23229448e-02  5.52740060e-02 -6.76051080e-02 -1.20866269e-01
   6.33771271e-02  1.53920650e-02 -1.10465519e-01  1.42101929e-01
   2.47462420e-03  7.12899342e-02 -2.53338902e-03 -1.08376950e-01
  -1.86345950e-02 -1.20306067e-01  3.18353064e-02  9.48641822e-02
   3.08623295e-02  1.20992966e-01  1.78494547e-02  6.55668303e-02
  -1.02689639e-01  6.75710142e-02 -1.06000133e-01 -8.17385390e-02
  -1.18748985e-01  6.79774657e-02  4.99629788e-02  1.10614493e-01
   1.67639032e-02 -1.01746202e-01  3.14672031e-02  1.19146362e-01
  -6.89538121e-02 -4.84731831e-02 -8.90888944e-02 -9.13181230e-02
  -8.15815628e-02 -9.59496796e-02 -1.16006836e-01  1.24809332e-01]]

Layer 2:
[0. 0. 0. 0. 0. 0. 0. 0. 0. 0. 0. 0. 0. 0. 0. 0. 0. 0. 0. 0. 0. 0. 0. 0.
 0. 0. 0. 0. 0. 0. 0. 0. 0. 0. 0. 0. 0. 0. 0. 0. 0. 0. 0. 0. 0. 0. 0. 0.
 0. 0. 0. 0. 0. 0. 0. 0. 0. 0. 0. 0. 0. 0. 0. 0. 0. 0. 0. 0. 0. 0. 0. 0.
 0. 0. 0. 0. 0. 0. 0. 0. 0. 0. 0. 0. 0. 0. 0. 0. 0. 0. 0. 0. 0. 0. 0. 0.
 0. 0. 0. 0.]

Layer 3:
[[-0.4574387 ]
 [ 0.03378531]
 [ 0.5949243 ]
 [-0.550772  ]
 [ 0.39201328]
 [ 0.02918663]
 [-0.2314514 ]
 [-0.5759099 ]
 [ 0.20036228]
 [-0.76535183]
 [ 0.06028137]
 [ 0.38607794]
 [-0.25137275]
 [-0.33999962]
 [-0.788465  ]
 [ 0.31376478]
 [ 1.4857123 ]
 [ 0.1894412 ]
 [-0.3318963 ]
 [-0.22700739]
 [ 1.8294351 ]
 [-0.09318127]
 [ 0.09426487]
 [-0.30465552]
 [-0.962378  ]
 [-0.56599087]
 [ 1.4986606 ]
 [ 0.64356303]
 [-2.4919546 ]
 [ 0.86826116]
 [-1.0404547 ]
 [-2.0135262 ]
 [-1.7104366 ]
 [-0.04220049]
 [-0.06695971]
 [ 0.90201825]
 [-0.72183263]
 [ 0.15427092]
 [ 0.07388507]
 [ 1.7649511 ]
 [ 0.7716717 ]
 [-0.5629829 ]
 [ 1.028014  ]
 [-0.03990284]
 [ 1.4115546 ]
 [-1.5139457 ]
 [-0.0925874 ]
 [ 0.01908528]
 [ 0.14492683]
 [ 0.68877846]
 [ 0.2106858 ]
 [ 0.07919186]
 [ 0.08619469]
 [ 0.22852759]
 [-0.16629115]
 [-0.0068346 ]
 [-0.5791146 ]
 [ 0.87529004]
 [-0.71206   ]
 [ 0.23986088]
 [ 0.62426364]
 [ 1.0910968 ]
 [-2.1679296 ]
 [-0.1287854 ]
 [ 0.695036  ]
 [-1.148795  ]
 [ 0.1618148 ]
 [-0.16017635]
 [-0.22293022]
 [ 0.25229672]
 [ 1.2007012 ]
 [ 0.65266347]
 [-0.9054466 ]
 [-0.3104917 ]
 [ 0.18895267]
 [-0.04448453]
 [ 0.15172197]
 [ 0.330545  ]
 [ 0.36485508]
 [ 1.2299315 ]
 [ 0.25907964]
 [ 0.1727135 ]
 [-0.05681754]
 [-0.2597865 ]
 [-0.47275782]
 [ 0.22971305]
 [ 0.422584  ]
 [ 0.280579  ]
 [ 0.138846  ]
 [ 0.13865459]
 [ 0.52515787]
 [-0.01449881]
 [-0.15728638]
 [-1.4596508 ]
 [ 0.00943081]
 [-0.09561333]
 [-0.07023459]
 [-0.3798562 ]
 [-0.18552195]
 [-0.01877245]]

Layer 4:
[0.01379752]



Consenso 1:
------------------------------------------------------------------------

Layer 0:
[[ 7.03157391e-04 -2.25566298e-01  9.37584446e-06 ...  9.02837928e-06
   2.11363792e-01 -1.16019975e-03]
 [ 1.10235717e-03  0.00000000e+00 -1.45362485e-02 ... -1.22146532e-02
  -8.54863506e-03 -4.66924394e-03]
 [ 1.46211654e-01 -5.32048009e-03  6.57765660e-04 ... -7.28833070e-03
   1.15732746e-02  1.44588118e-02]
 ...
 [-8.68823659e-03  0.00000000e+00 -3.11390941e-05 ... -2.66540854e-04
   2.41177782e-01 -1.68420328e-03]
 [ 3.49831244e-04  3.31997089e-02 -4.50932328e-03 ...  5.01349350e-05
  -1.28448475e-04 -2.08590587e-04]
 [ 4.49754018e-03  3.27484478e-04 -2.34253928e-01 ...  4.10793303e-03
  -2.18434930e-01 -2.11567822e-04]]

Layer 1:
[[ 0.09270112 -0.16863129  0.08705892 -0.08849347  0.10567847 -0.08141682
  -0.12418257 -0.10752739  0.13640775 -0.00907181  0.05845683  0.03631844
  -0.04014862 -0.07580876 -0.04026461  0.00741695 -0.00515258  0.0713848
  -0.06735556 -0.0612271   0.04457806 -0.0792373   0.00922507 -0.0432144
  -0.05152943 -0.05433395  0.06890313  0.03313025  0.01105447  0.06195358
   0.01406274 -0.0427237  -0.01818336  0.09078258  0.09367171  0.03812874
  -0.03969835  0.1712606   0.17004508  0.01247824 -0.11321475  0.008988
   0.00223255 -0.00978802  0.08677472  0.01365285 -0.10680743  0.08911522
   0.08020002  0.09952594  0.02726859 -0.08369853 -0.05440776  0.06489004
  -0.07081699 -0.05386937 -0.11944684  0.07773846 -0.07042981 -0.1392785
  -0.05455111  0.05981231 -0.06684699 -0.13481687  0.0812246   0.01930249
  -0.12947321  0.15510364  0.01409343  0.07879677 -0.00896992 -0.12325016
  -0.02583656 -0.13207452  0.04304541  0.11015995  0.03787195  0.12664457
   0.02496131  0.07316732 -0.11262634  0.07495261 -0.12452275 -0.09071967
  -0.1451648   0.08087249  0.06019675  0.11177724  0.02048233 -0.10877353
   0.04248704  0.1376013  -0.08847351 -0.05183433 -0.09911781 -0.09824399
  -0.09405946 -0.11580031 -0.12300913  0.15022528]]

Layer 2:
[0. 0. 0. 0. 0. 0. 0. 0. 0. 0. 0. 0. 0. 0. 0. 0. 0. 0. 0. 0. 0. 0. 0. 0.
 0. 0. 0. 0. 0. 0. 0. 0. 0. 0. 0. 0. 0. 0. 0. 0. 0. 0. 0. 0. 0. 0. 0. 0.
 0. 0. 0. 0. 0. 0. 0. 0. 0. 0. 0. 0. 0. 0. 0. 0. 0. 0. 0. 0. 0. 0. 0. 0.
 0. 0. 0. 0. 0. 0. 0. 0. 0. 0. 0. 0. 0. 0. 0. 0. 0. 0. 0. 0. 0. 0. 0. 0.
 0. 0. 0. 0.]

Layer 3:
[[-8.33721876e-01]
 [-3.48658621e-01]
 [ 2.41235435e-01]
 [-1.96395680e-01]
 [ 4.82270941e-02]
 [-4.06958535e-02]
 [ 8.73034261e-03]
 [-2.05623239e-01]
 [ 4.47947115e-01]
 [-3.52951837e+00]
 [ 6.78273067e-02]
 [ 9.74037468e-01]
 [-4.03294593e-01]
 [-6.71334743e-01]
 [-4.73069763e+00]
 [ 2.15493631e+00]
 [ 1.28210604e+00]
 [ 7.95762241e-02]
 [-1.17585969e+00]
 [-7.14439690e-01]
 [ 2.55369449e+00]
 [-2.01195806e-01]
 [ 2.83882451e+00]
 [ 2.03116015e-01]
 [-1.99264085e+00]
 [-1.59742939e+00]
 [ 2.23675704e+00]
 [ 6.68236732e-01]
 [-1.61870039e+00]
 [ 8.12869668e-01]
 [-6.46824181e-01]
 [-2.60679889e+00]
 [-6.82488680e+00]
 [-3.71103972e-01]
 [ 1.98580563e-01]
 [ 1.37127662e+00]
 [-1.00833845e+00]
 [ 1.02317691e-01]
 [ 1.65801540e-01]
 [ 2.66939712e+00]
 [ 8.92739236e-01]
 [ 3.04735994e+00]
 [-2.22932625e+00]
 [-2.11580062e+00]
 [ 2.36330795e+00]
 [-1.59847784e+00]
 [ 2.54793034e-04]
 [-1.37693629e-01]
 [-1.03000522e-01]
 [ 7.63067901e-01]
 [ 4.33381647e-02]
 [ 5.36881387e-01]
 [-5.73213816e-01]
 [-1.05228916e-01]
 [-5.17485082e-01]
 [-3.30649853e-01]
 [-1.64187372e-01]
 [ 9.02386725e-01]
 [-1.15863287e+00]
 [ 2.06174120e-01]
 [ 1.01881731e+00]
 [ 1.57612336e+00]
 [-3.44413328e+00]
 [-2.49209255e-03]
 [ 8.59070897e-01]
 [ 2.72171569e+00]
 [-5.42058237e-03]
 [-6.25515699e-01]
 [ 2.01510334e+00]
 [ 7.64835894e-01]
 [-1.45764247e-01]
 [ 1.18572783e+00]
 [-2.27139068e+00]
 [-5.43089986e-01]
 [ 8.84845138e-01]
 [-1.78209648e-01]
 [ 4.38051128e+00]
 [ 2.41025299e-01]
 [ 2.27149129e+00]
 [ 1.16925931e+00]
 [ 3.37462515e-01]
 [-3.95491093e-01]
 [ 5.90741485e-02]
 [-2.31347531e-02]
 [-6.79274261e-01]
 [-2.38928124e-02]
 [ 1.44191399e-01]
 [ 1.60218045e-01]
 [ 2.85424143e-01]
 [ 2.18568116e-01]
 [ 2.62401867e+00]
 [ 2.34263197e-01]
 [ 2.86350716e-02]
 [-3.14310551e+00]
 [ 1.72590278e-02]
 [-1.33726433e-01]
 [-2.04414889e-01]
 [-2.51762897e-01]
 [-2.22347647e-01]
 [-4.21239078e-01]]

Layer 4:
[-0.2851293]



Entrenamiento 2:
------------------------------------------------------------------------

Layer 0:
[[ 7.03157391e-04 -2.25566298e-01  9.37584446e-06 ...  9.02837928e-06
   2.11363792e-01 -1.16019975e-03]
 [ 1.10235717e-03  0.00000000e+00 -1.45362485e-02 ... -1.22146532e-02
  -8.54863506e-03 -4.66924394e-03]
 [ 1.46211654e-01 -5.32048009e-03  6.57765660e-04 ... -7.28833070e-03
   1.15732746e-02  1.44588118e-02]
 ...
 [-8.68823659e-03  0.00000000e+00 -3.11390941e-05 ... -2.66540854e-04
   2.41177782e-01 -1.68420328e-03]
 [ 3.49831244e-04  3.31997089e-02 -4.50932328e-03 ...  5.01349350e-05
  -1.28448475e-04 -2.08590587e-04]
 [ 4.49754018e-03  3.27484478e-04 -2.34253928e-01 ...  4.10793303e-03
  -2.18434930e-01 -2.11567822e-04]]

Layer 1:
[[ 0.09270112 -0.16863129  0.08705892 -0.08849347  0.10567847 -0.08141682
  -0.12418257 -0.10752739  0.13640775 -0.00907181  0.05845683  0.03631844
  -0.04014862 -0.07580876 -0.04026461  0.00741695 -0.00515258  0.0713848
  -0.06735556 -0.0612271   0.04457806 -0.0792373   0.00922507 -0.0432144
  -0.05152943 -0.05433395  0.06890313  0.03313025  0.01105447  0.06195358
   0.01406274 -0.0427237  -0.01818336  0.09078258  0.09367171  0.03812874
  -0.03969835  0.1712606   0.17004508  0.01247824 -0.11321475  0.008988
   0.00223255 -0.00978802  0.08677472  0.01365285 -0.10680743  0.08911522
   0.08020002  0.09952594  0.02726859 -0.08369853 -0.05440776  0.06489004
  -0.07081699 -0.05386937 -0.11944684  0.07773846 -0.07042981 -0.1392785
  -0.05455111  0.05981231 -0.06684699 -0.13481687  0.0812246   0.01930249
  -0.12947321  0.15510364  0.01409343  0.07879677 -0.00896992 -0.12325016
  -0.02583656 -0.13207452  0.04304541  0.11015995  0.03787195  0.12664457
   0.02496131  0.07316732 -0.11262634  0.07495261 -0.12452275 -0.09071967
  -0.1451648   0.08087249  0.06019675  0.11177724  0.02048233 -0.10877353
   0.04248704  0.1376013  -0.08847351 -0.05183433 -0.09911781 -0.09824399
  -0.09405946 -0.11580031 -0.12300913  0.15022528]]

Layer 2:
[0. 0. 0. 0. 0. 0. 0. 0. 0. 0. 0. 0. 0. 0. 0. 0. 0. 0. 0. 0. 0. 0. 0. 0.
 0. 0. 0. 0. 0. 0. 0. 0. 0. 0. 0. 0. 0. 0. 0. 0. 0. 0. 0. 0. 0. 0. 0. 0.
 0. 0. 0. 0. 0. 0. 0. 0. 0. 0. 0. 0. 0. 0. 0. 0. 0. 0. 0. 0. 0. 0. 0. 0.
 0. 0. 0. 0. 0. 0. 0. 0. 0. 0. 0. 0. 0. 0. 0. 0. 0. 0. 0. 0. 0. 0. 0. 0.
 0. 0. 0. 0.]

Layer 3:
[[-8.3899629e-01]
 [-3.0262142e-01]
 [ 1.2053012e-02]
 [ 5.5875510e-02]
 [-2.1890558e-01]
 [-1.8463005e-01]
 [ 1.5670176e-01]
 [ 3.3970201e-01]
 [ 3.4898841e-01]
 [-3.2811048e+00]
 [ 2.1471837e-01]
 [ 6.9519317e-01]
 [-3.2353255e-01]
 [-7.5837654e-01]
 [-3.9517584e+00]
 [ 1.5231391e+00]
 [ 2.7498953e+00]
 [ 4.3847847e-01]
 [-1.0610231e+00]
 [-8.1747806e-01]
 [ 3.6570236e-01]
 [-1.8580702e-01]
 [ 2.5570109e+00]
 [-1.7289671e-01]
 [-1.2041765e-01]
 [-1.4528948e+00]
 [ 1.3836073e+00]
 [ 9.5949888e-01]
 [-1.4177895e+00]
 [ 7.8888607e-01]
 [-2.7109006e-01]
 [-2.7365520e+00]
 [-6.4491491e+00]
 [-1.7346546e-01]
 [ 1.8285276e-01]
 [ 1.3824302e+00]
 [-1.0905240e+00]
 [-7.1918935e-02]
 [ 4.5126475e-02]
 [ 3.4018631e+00]
 [ 7.8273624e-01]
 [ 2.1926513e+00]
 [-1.9865885e+00]
 [-1.7502998e+00]
 [ 1.5805852e+00]
 [-1.1477723e+00]
 [-3.0082935e-03]
 [ 2.9520592e-02]
 [-1.2431693e-01]
 [ 9.1770673e-01]
 [ 3.7367669e-01]
 [ 6.1848384e-01]
 [-1.5945615e-01]
 [ 1.3295475e-01]
 [-3.7227282e-01]
 [ 2.5409234e-01]
 [ 3.8314220e-01]
 [ 1.1518155e+00]
 [-1.0753303e+00]
 [ 2.3818608e-01]
 [ 1.4393809e+00]
 [ 2.7057853e-01]
 [-3.5469015e+00]
 [ 2.8717825e-01]
 [ 6.0071748e-01]
 [ 2.1721084e+00]
 [-3.0977266e-02]
 [-7.2146684e-01]
 [ 1.7057060e+00]
 [ 5.3213364e-01]
 [-5.2448553e-01]
 [ 1.1485105e+00]
 [-2.4340007e+00]
 [-5.1084304e-01]
 [ 8.1374443e-01]
 [-7.8043930e-02]
 [ 3.6308174e+00]
 [ 4.1179529e-01]
 [ 2.3604002e+00]
 [ 1.1018556e+00]
 [ 3.1276926e-01]
 [-9.8015428e-02]
 [ 4.0838275e-02]
 [-2.3356353e-01]
 [-6.1630088e-01]
 [-1.5954447e-01]
 [ 4.4171551e-01]
 [ 2.6636568e-01]
 [ 6.2734824e-01]
 [ 2.7760401e-01]
 [ 2.3661966e+00]
 [ 1.6682553e-01]
 [ 4.7775719e-01]
 [-2.5169561e+00]
 [-1.6416410e-01]
 [-2.6033270e-01]
 [-2.6139683e-01]
 [-4.3819122e-02]
 [-2.9441974e-01]
 [-1.1791501e+00]]

Layer 4:
[-0.01593854]



Consenso 2:
------------------------------------------------------------------------

Layer 0:
[[ 9.0624439e-05 -2.2927581e-01  1.2083792e-06 ...  1.1635968e-06
   2.1483856e-01 -1.4952906e-04]
 [ 1.9612045e-03  0.0000000e+00 -1.4519608e-02 ... -1.2446882e-02
  -8.5981078e-03 -4.7680782e-03]
 [ 1.4917853e-01 -5.4138773e-03  8.4774263e-05 ... -8.0259377e-03
   1.1771261e-02  1.5969070e-02]
 ...
 [-8.8368673e-03  0.0000000e+00 -4.0132745e-06 ... -3.4352361e-05
   2.4492291e-01 -1.7137681e-03]
 [ 4.5087010e-05  3.3554245e-02 -4.5891623e-03 ...  6.4614978e-06
  -1.6554715e-05 -2.6883610e-05]
 [ 4.3274737e-03  5.1922387e-05 -2.3698287e-01 ...  4.1806656e-03
  -2.2187005e-01 -2.7267319e-05]]

Layer 1:
[[ 0.09367986 -0.17182595  0.08741766 -0.09016602  0.1079236  -0.08251174
  -0.12487527 -0.1096004   0.13864474 -0.00877197  0.05847155  0.03576033
  -0.04065232 -0.07787763 -0.04222228  0.00753198 -0.00531729  0.07269182
  -0.06891416 -0.06258232  0.04401115 -0.08074898  0.01040997 -0.04278941
  -0.05230293 -0.05488096  0.06835528  0.03353883  0.01195866  0.06263307
   0.01368029 -0.04257534 -0.01892804  0.09147672  0.09576361  0.03875687
  -0.04083567  0.17384145  0.17114876  0.01335947 -0.11536625  0.00888382
   0.00324156 -0.00965963  0.08747445  0.0134854  -0.10847987  0.09122726
   0.08211777  0.10142394  0.02757904 -0.08518399 -0.05615178  0.0659482
  -0.07117559 -0.05538708 -0.12016588  0.07744986 -0.07119448 -0.14079566
  -0.0561271   0.06039722 -0.06674928 -0.13661486  0.08352482  0.01980647
  -0.13192295  0.1567793   0.01559088  0.07976427 -0.00979947 -0.12516704
  -0.02676476 -0.13359126  0.04449019  0.1121313   0.03877536  0.12737297
   0.0258779   0.07414689 -0.11390701  0.07590397 -0.12690997 -0.09187717
  -0.14856935  0.08253443  0.0615157   0.11192709  0.02096157 -0.10967923
   0.0439073   0.13997982 -0.09098926 -0.05226752 -0.10041036 -0.09913661
  -0.09566764 -0.1183587  -0.12391158  0.15350093]]

Layer 2:
[0. 0. 0. 0. 0. 0. 0. 0. 0. 0. 0. 0. 0. 0. 0. 0. 0. 0. 0. 0. 0. 0. 0. 0.
 0. 0. 0. 0. 0. 0. 0. 0. 0. 0. 0. 0. 0. 0. 0. 0. 0. 0. 0. 0. 0. 0. 0. 0.
 0. 0. 0. 0. 0. 0. 0. 0. 0. 0. 0. 0. 0. 0. 0. 0. 0. 0. 0. 0. 0. 0. 0. 0.
 0. 0. 0. 0. 0. 0. 0. 0. 0. 0. 0. 0. 0. 0. 0. 0. 0. 0. 0. 0. 0. 0. 0. 0.
 0. 0. 0. 0.]

Layer 3:
[[-1.0490819e+00]
 [-1.0255034e+00]
 [-4.3621618e-01]
 [ 4.2317685e-01]
 [-2.5078028e-01]
 [-3.3105162e-01]
 [ 1.2961875e-01]
 [ 6.3771218e-01]
 [ 7.9431528e-01]
 [-6.0476737e+00]
 [ 1.9666108e-01]
 [ 2.4207711e-01]
 [-9.8298289e-02]
 [-9.3447375e-01]
 [-6.2313614e+00]
 [ 2.5052190e+00]
 [ 1.4164693e+00]
 [ 3.5240737e-01]
 [-7.5367218e-01]
 [-1.0796660e+00]
 [ 1.5781257e+00]
 [-2.5232978e-02]
 [ 4.2226796e+00]
 [ 2.7715808e-02]
 [-1.0710578e+00]
 [-1.2451670e+00]
 [ 1.3157830e+00]
 [ 5.9345210e-01]
 [-1.6083584e+00]
 [ 4.8423645e-01]
 [ 1.2395208e-01]
 [-2.2297404e+00]
 [-1.0102962e+01]
 [-8.8383675e-02]
 [ 5.1780230e-01]
 [ 1.2015694e+00]
 [-1.0061055e+00]
 [ 2.9374385e-01]
 [ 2.9311773e-01]
 [ 3.7570944e+00]
 [ 4.6247953e-01]
 [ 6.7135463e+00]
 [-5.3095384e+00]
 [-3.1390660e+00]
 [ 1.5769206e+00]
 [-1.2293731e+00]
 [-2.0226492e-02]
 [ 2.4195428e-01]
 [-1.4804013e-01]
 [ 1.0400521e+00]
 [ 9.5176809e-03]
 [ 8.5723835e-01]
 [ 6.0723931e-01]
 [-4.3241788e-02]
 [-1.6285662e-01]
 [ 7.3341924e-01]
 [ 6.1255395e-01]
 [ 1.2202328e+00]
 [-7.8969687e-01]
 [-1.5122660e-01]
 [ 1.7755516e+00]
 [ 4.4645250e-01]
 [-3.9172099e+00]
 [ 9.2263527e-02]
 [ 4.8061410e-01]
 [ 5.5332818e+00]
 [-4.4550166e-01]
 [-5.1941150e-01]
 [ 2.7798796e+00]
 [ 6.2830374e-02]
 [-1.6915439e+00]
 [ 9.3444383e-01]
 [-2.8812242e+00]
 [-1.0564580e+00]
 [ 7.1462977e-01]
 [ 8.3694696e-02]
 [ 5.9790325e+00]
 [ 5.6446058e-01]
 [ 4.1879888e+00]
 [ 9.9672014e-01]
 [ 9.5921466e-03]
 [-4.6936521e-01]
 [-4.7516536e-02]
 [-3.3602664e-01]
 [-9.1940761e-01]
 [-1.6702047e-01]
 [ 5.5692774e-01]
 [ 4.7745705e-01]
 [ 7.6777536e-01]
 [ 6.0194246e-02]
 [ 2.6752231e+00]
 [ 5.6765455e-01]
 [ 7.5228721e-01]
 [-2.6999302e+00]
 [-2.8061685e-01]
 [-5.8543617e-01]
 [-7.0305622e-01]
 [ 1.9230059e-01]
 [-4.7477090e-01]
 [-1.0805428e+00]]

Layer 4:
[0.2907762]



Entrenamiento 3:
------------------------------------------------------------------------

Layer 0:
[[ 9.0624439e-05 -2.2927581e-01  1.2083792e-06 ...  1.1635968e-06
   2.1483856e-01 -1.4952906e-04]
 [ 1.9612045e-03  0.0000000e+00 -1.4519608e-02 ... -1.2446882e-02
  -8.5981078e-03 -4.7680782e-03]
 [ 1.4917853e-01 -5.4138773e-03  8.4774263e-05 ... -8.0259377e-03
   1.1771261e-02  1.5969070e-02]
 ...
 [-8.8368673e-03  0.0000000e+00 -4.0132745e-06 ... -3.4352361e-05
   2.4492291e-01 -1.7137681e-03]
 [ 4.5087010e-05  3.3554245e-02 -4.5891623e-03 ...  6.4614978e-06
  -1.6554715e-05 -2.6883610e-05]
 [ 4.3274737e-03  5.1922387e-05 -2.3698287e-01 ...  4.1806656e-03
  -2.2187005e-01 -2.7267319e-05]]

Layer 1:
[[ 0.09367986 -0.17182595  0.08741766 -0.09016602  0.1079236  -0.08251174
  -0.12487527 -0.1096004   0.13864474 -0.00877197  0.05847155  0.03576033
  -0.04065232 -0.07787763 -0.04222228  0.00753198 -0.00531729  0.07269182
  -0.06891416 -0.06258232  0.04401115 -0.08074898  0.01040997 -0.04278941
  -0.05230293 -0.05488096  0.06835528  0.03353883  0.01195866  0.06263307
   0.01368029 -0.04257534 -0.01892804  0.09147672  0.09576361  0.03875687
  -0.04083567  0.17384145  0.17114876  0.01335947 -0.11536625  0.00888382
   0.00324156 -0.00965963  0.08747445  0.0134854  -0.10847987  0.09122726
   0.08211777  0.10142394  0.02757904 -0.08518399 -0.05615178  0.0659482
  -0.07117559 -0.05538708 -0.12016588  0.07744986 -0.07119448 -0.14079566
  -0.0561271   0.06039722 -0.06674928 -0.13661486  0.08352482  0.01980647
  -0.13192295  0.1567793   0.01559088  0.07976427 -0.00979947 -0.12516704
  -0.02676476 -0.13359126  0.04449019  0.1121313   0.03877536  0.12737297
   0.0258779   0.07414689 -0.11390701  0.07590397 -0.12690997 -0.09187717
  -0.14856935  0.08253443  0.0615157   0.11192709  0.02096157 -0.10967923
   0.0439073   0.13997982 -0.09098926 -0.05226752 -0.10041036 -0.09913661
  -0.09566764 -0.1183587  -0.12391158  0.15350093]]

Layer 2:
[0. 0. 0. 0. 0. 0. 0. 0. 0. 0. 0. 0. 0. 0. 0. 0. 0. 0. 0. 0. 0. 0. 0. 0.
 0. 0. 0. 0. 0. 0. 0. 0. 0. 0. 0. 0. 0. 0. 0. 0. 0. 0. 0. 0. 0. 0. 0. 0.
 0. 0. 0. 0. 0. 0. 0. 0. 0. 0. 0. 0. 0. 0. 0. 0. 0. 0. 0. 0. 0. 0. 0. 0.
 0. 0. 0. 0. 0. 0. 0. 0. 0. 0. 0. 0. 0. 0. 0. 0. 0. 0. 0. 0. 0. 0. 0. 0.
 0. 0. 0. 0.]

Layer 3:
[[-0.98324823]
 [-0.22843413]
 [-0.49175063]
 [ 0.58830583]
 [-0.31711873]
 [-0.1746634 ]
 [ 0.3519602 ]
 [ 0.71974504]
 [ 0.45212883]
 [-5.8417287 ]
 [ 0.13901047]
 [ 0.01471295]
 [-0.19334285]
 [-0.9706884 ]
 [-5.58258   ]
 [ 1.9332703 ]
 [ 3.2063348 ]
 [ 0.7531902 ]
 [-0.7625405 ]
 [-1.1029676 ]
 [ 0.01530216]
 [-0.07231367]
 [ 3.7735603 ]
 [-0.5027442 ]
 [-0.23687786]
 [-1.167207  ]
 [ 0.8763241 ]
 [ 1.4734597 ]
 [-0.8781907 ]
 [ 0.546522  ]
 [ 0.38592646]
 [-3.2629921 ]
 [-9.578963  ]
 [-0.39281946]
 [ 0.47484115]
 [ 1.3657614 ]
 [-1.1292748 ]
 [-0.17827201]
 [-0.07470614]
 [ 4.308487  ]
 [ 0.5325455 ]
 [ 5.962984  ]
 [-4.8344326 ]
 [-2.961632  ]
 [ 0.706797  ]
 [-0.745814  ]
 [ 0.22704275]
 [ 0.2900927 ]
 [-0.16234632]
 [ 1.0159054 ]
 [ 0.5103661 ]
 [ 1.00115   ]
 [ 0.87234235]
 [ 0.18455897]
 [ 0.11428559]
 [ 1.1301328 ]
 [ 0.6661716 ]
 [ 1.6511421 ]
 [-0.75680184]
 [ 0.1743919 ]
 [ 1.3669752 ]
 [-0.45405224]
 [-3.9374988 ]
 [ 0.36918208]
 [ 0.45534188]
 [ 4.7778997 ]
 [-0.08251922]
 [-0.8935098 ]
 [ 2.558318  ]
 [-0.10672586]
 [-1.9133974 ]
 [ 1.1195776 ]
 [-3.640674  ]
 [-0.7988772 ]
 [ 0.7494875 ]
 [-0.09648228]
 [ 5.1910386 ]
 [ 0.4828127 ]
 [ 4.25832   ]
 [ 1.0353124 ]
 [ 0.16056703]
 [ 0.20370348]
 [ 0.03105238]
 [-0.36559802]
 [-0.49332216]
 [-0.03120385]
 [ 0.7095964 ]
 [ 0.2803411 ]
 [ 1.0004815 ]
 [ 0.3543341 ]
 [ 2.6105373 ]
 [ 0.18725574]
 [ 0.38910377]
 [-1.7716299 ]
 [-0.23702985]
 [-0.46656936]
 [-0.5205391 ]
 [ 0.20413674]
 [-0.5165969 ]
 [-1.3609855 ]]

Layer 4:
[0.0054968]



Consenso 3:
------------------------------------------------------------------------

Layer 0:
[[ 1.1679875e-05 -2.2975390e-01  1.5573852e-07 ...  1.4996688e-07
   2.1528640e-01 -1.9271629e-05]
 [ 2.0718945e-03  0.0000000e+00 -1.4517465e-02 ... -1.2476812e-02
  -8.6044837e-03 -4.7808164e-03]
 [ 1.4956090e-01 -5.4259142e-03  1.0925889e-05 ... -8.1210025e-03
   1.1796777e-02  1.6163714e-02]
 ...
 [-8.8560227e-03  0.0000000e+00 -5.1723947e-07 ... -4.4274075e-06
   2.4540563e-01 -1.7175785e-03]
 [ 5.8109104e-06  3.3599939e-02 -4.5994520e-03 ...  8.3277189e-07
  -2.1336077e-06 -3.4648178e-06]
 [ 4.3055555e-03  1.6407397e-05 -2.3733458e-01 ...  4.1900389e-03
  -2.2231275e-01 -3.5142714e-06]]

Layer 1:
[[ 0.09380601 -0.17223766  0.08746389 -0.09038159  0.10821296 -0.08265286
  -0.12496454 -0.10986758  0.13893303 -0.00873333  0.05847344  0.0356884
  -0.04071723 -0.07814427 -0.04247459  0.0075468  -0.00533852  0.07286027
  -0.06911503 -0.06275698  0.04393808 -0.08094381  0.01056268 -0.04273463
  -0.05240262 -0.05495146  0.06828468  0.03359149  0.01207519  0.06272063
   0.013631   -0.04255621 -0.01902402  0.09156618  0.09603322  0.03883782
  -0.04098225  0.17417407  0.17129104  0.01347305 -0.11564354  0.0088704
   0.0033716  -0.00964308  0.08756463  0.01346382 -0.10869543  0.09149946
   0.08236493  0.10166855  0.02761905 -0.08537544 -0.05637656  0.06608458
  -0.07122181 -0.05558269 -0.12025855  0.07741265 -0.07129303 -0.14099121
  -0.05633022  0.0604726  -0.0667367  -0.13684659  0.08382127  0.01987143
  -0.13223869  0.15699528  0.01578387  0.07988895 -0.00990639 -0.1254141
  -0.02688439 -0.13378675  0.0446764   0.11238536  0.0388918   0.12746684
   0.02599604  0.07427314 -0.11407206  0.07602658 -0.12721767 -0.09202635
  -0.14900813  0.08274862  0.06168569  0.1119464   0.02102333 -0.10979595
   0.04409034  0.14028636 -0.0913135  -0.05232335 -0.10057695 -0.09925166
  -0.09587491 -0.11868843 -0.12402791  0.15392311]]

Layer 2:
[0. 0. 0. 0. 0. 0. 0. 0. 0. 0. 0. 0. 0. 0. 0. 0. 0. 0. 0. 0. 0. 0. 0. 0.
 0. 0. 0. 0. 0. 0. 0. 0. 0. 0. 0. 0. 0. 0. 0. 0. 0. 0. 0. 0. 0. 0. 0. 0.
 0. 0. 0. 0. 0. 0. 0. 0. 0. 0. 0. 0. 0. 0. 0. 0. 0. 0. 0. 0. 0. 0. 0. 0.
 0. 0. 0. 0. 0. 0. 0. 0. 0. 0. 0. 0. 0. 0. 0. 0. 0. 0. 0. 0. 0. 0. 0. 0.
 0. 0. 0. 0.]

Layer 3:
[[-9.55480278e-01]
 [-8.60608280e-01]
 [-3.84664059e-01]
 [ 5.78157127e-01]
 [-8.29582661e-03]
 [-2.16296092e-01]
 [ 3.56555618e-02]
 [ 6.28555894e-01]
 [ 8.74093473e-01]
 [-8.49745750e+00]
 [ 1.33154616e-01]
 [-6.05684876e-01]
 [-1.82341501e-01]
 [-1.11481357e+00]
 [-6.70425415e+00]
 [ 2.29995322e+00]
 [ 1.53867400e+00]
 [ 7.22899735e-01]
 [-2.58547068e-01]
 [-1.16807449e+00]
 [ 8.55413616e-01]
 [-5.70024922e-02]
 [ 4.34871101e+00]
 [-3.60683531e-01]
 [-6.79064870e-01]
 [-5.62450588e-01]
 [ 5.26821852e-01]
 [ 1.08330214e+00]
 [-1.62327707e+00]
 [ 4.71339554e-01]
 [ 6.08927965e-01]
 [-2.46601677e+00]
 [-1.23419895e+01]
 [-2.72094727e-01]
 [ 8.72983575e-01]
 [ 1.07201433e+00]
 [-1.03635585e+00]
 [ 2.98626781e-01]
 [ 2.74261028e-01]
 [ 4.23616314e+00]
 [ 2.05793455e-01]
 [ 1.01606979e+01]
 [-7.65672016e+00]
 [-3.56238532e+00]
 [ 6.04864001e-01]
 [-1.00251126e+00]
 [-2.26211511e-02]
 [ 5.48708975e-01]
 [-6.91127256e-02]
 [ 1.28415442e+00]
 [ 1.74518943e-01]
 [ 1.03185105e+00]
 [ 1.50127316e+00]
 [ 1.81850642e-01]
 [ 3.22659284e-01]
 [ 1.23237336e+00]
 [ 3.15766901e-01]
 [ 1.71587968e+00]
 [-4.98483241e-01]
 [-1.85734436e-01]
 [ 2.21312070e+00]
 [-2.38820203e-02]
 [-3.76365376e+00]
 [ 1.14672733e-02]
 [ 6.75146937e-01]
 [ 7.42603207e+00]
 [-3.14361244e-01]
 [-5.66703081e-01]
 [ 2.78300166e+00]
 [-8.38112235e-01]
 [-2.58798838e+00]
 [ 8.22581053e-01]
 [-3.42494869e+00]
 [-1.35429120e+00]
 [ 4.56911683e-01]
 [ 9.98841524e-02]
 [ 6.28302765e+00]
 [ 7.45829821e-01]
 [ 5.71440983e+00]
 [ 1.12834883e+00]
 [-2.55893379e-01]
 [ 2.88624734e-01]
 [-1.77465305e-01]
 [-5.59524775e-01]
 [-8.48469436e-01]
 [ 1.34333476e-01]
 [ 6.75222814e-01]
 [ 6.41371906e-01]
 [ 9.10629690e-01]
 [ 1.43335372e-01]
 [ 2.17020321e+00]
 [ 6.89037204e-01]
 [ 3.21793616e-01]
 [-1.24181926e+00]
 [-3.86087507e-01]
 [-8.22350144e-01]
 [-7.29982793e-01]
 [ 5.11638597e-02]
 [-7.69737065e-01]
 [-1.07654679e+00]]

Layer 4:
[0.4305247]



Entrenamiento 4:
------------------------------------------------------------------------

Layer 0:
[[ 1.1679875e-05 -2.2975390e-01  1.5573852e-07 ...  1.4996688e-07
   2.1528640e-01 -1.9271629e-05]
 [ 2.0718945e-03  0.0000000e+00 -1.4517465e-02 ... -1.2476812e-02
  -8.6044837e-03 -4.7808164e-03]
 [ 1.4956090e-01 -5.4259142e-03  1.0925889e-05 ... -8.1210025e-03
   1.1796777e-02  1.6163714e-02]
 ...
 [-8.8560227e-03  0.0000000e+00 -5.1723947e-07 ... -4.4274075e-06
   2.4540563e-01 -1.7175785e-03]
 [ 5.8109104e-06  3.3599939e-02 -4.5994520e-03 ...  8.3277189e-07
  -2.1336077e-06 -3.4648178e-06]
 [ 4.3055555e-03  1.6407397e-05 -2.3733458e-01 ...  4.1900389e-03
  -2.2231275e-01 -3.5142714e-06]]

Layer 1:
[[ 0.09380601 -0.17223766  0.08746389 -0.09038159  0.10821296 -0.08265286
  -0.12496454 -0.10986758  0.13893303 -0.00873333  0.05847344  0.0356884
  -0.04071723 -0.07814427 -0.04247459  0.0075468  -0.00533852  0.07286027
  -0.06911503 -0.06275698  0.04393808 -0.08094381  0.01056268 -0.04273463
  -0.05240262 -0.05495146  0.06828468  0.03359149  0.01207519  0.06272063
   0.013631   -0.04255621 -0.01902402  0.09156618  0.09603322  0.03883782
  -0.04098225  0.17417407  0.17129104  0.01347305 -0.11564354  0.0088704
   0.0033716  -0.00964308  0.08756463  0.01346382 -0.10869543  0.09149946
   0.08236493  0.10166855  0.02761905 -0.08537544 -0.05637656  0.06608458
  -0.07122181 -0.05558269 -0.12025855  0.07741265 -0.07129303 -0.14099121
  -0.05633022  0.0604726  -0.0667367  -0.13684659  0.08382127  0.01987143
  -0.13223869  0.15699528  0.01578387  0.07988895 -0.00990639 -0.1254141
  -0.02688439 -0.13378675  0.0446764   0.11238536  0.0388918   0.12746684
   0.02599604  0.07427314 -0.11407206  0.07602658 -0.12721767 -0.09202635
  -0.14900813  0.08274862  0.06168569  0.1119464   0.02102333 -0.10979595
   0.04409034  0.14028636 -0.0913135  -0.05232335 -0.10057695 -0.09925166
  -0.09587491 -0.11868843 -0.12402791  0.15392311]]

Layer 2:
[0. 0. 0. 0. 0. 0. 0. 0. 0. 0. 0. 0. 0. 0. 0. 0. 0. 0. 0. 0. 0. 0. 0. 0.
 0. 0. 0. 0. 0. 0. 0. 0. 0. 0. 0. 0. 0. 0. 0. 0. 0. 0. 0. 0. 0. 0. 0. 0.
 0. 0. 0. 0. 0. 0. 0. 0. 0. 0. 0. 0. 0. 0. 0. 0. 0. 0. 0. 0. 0. 0. 0. 0.
 0. 0. 0. 0. 0. 0. 0. 0. 0. 0. 0. 0. 0. 0. 0. 0. 0. 0. 0. 0. 0. 0. 0. 0.
 0. 0. 0. 0.]

Layer 3:
[[-9.05508399e-01]
 [-2.84925729e-01]
 [-4.36210275e-01]
 [ 7.45956957e-01]
 [-1.16149366e-01]
 [-1.31479099e-01]
 [ 2.85744518e-01]
 [ 7.95124769e-01]
 [ 5.46454430e-01]
 [-8.23452282e+00]
 [ 1.60371900e-01]
 [-8.11608315e-01]
 [-3.01031798e-01]
 [-1.16416299e+00]
 [-5.99801445e+00]
 [ 1.64729667e+00]
 [ 3.08067155e+00]
 [ 1.02281106e+00]
 [-2.79026479e-01]
 [-1.26559567e+00]
 [-6.28478885e-01]
 [-1.00532331e-01]
 [ 3.88109231e+00]
 [-8.61629307e-01]
 [ 2.16880500e-01]
 [-5.47365069e-01]
 [ 1.32988200e-01]
 [ 1.88381553e+00]
 [-8.62378061e-01]
 [ 5.73636293e-01]
 [ 9.60870326e-01]
 [-3.38836622e+00]
 [-1.18288584e+01]
 [-4.54865515e-01]
 [ 8.03961694e-01]
 [ 1.25752091e+00]
 [-1.19893146e+00]
 [-1.60960510e-01]
 [-1.30299181e-01]
 [ 4.81957912e+00]
 [ 3.11937541e-01]
 [ 9.34811783e+00]
 [-7.13980770e+00]
 [-3.32977462e+00]
 [-9.96752605e-02]
 [-5.04243970e-01]
 [ 1.94720954e-01]
 [ 5.85129261e-01]
 [-5.83022051e-02]
 [ 1.23388839e+00]
 [ 6.70157611e-01]
 [ 1.13620019e+00]
 [ 1.84317172e+00]
 [ 3.94093454e-01]
 [ 4.83035117e-01]
 [ 1.60176671e+00]
 [ 4.52855915e-01]
 [ 2.03431869e+00]
 [-5.01809716e-01]
 [ 1.49001285e-01]
 [ 1.81027484e+00]
 [-9.23135698e-01]
 [-3.82652712e+00]
 [ 3.55479360e-01]
 [ 6.39804661e-01]
 [ 6.64209270e+00]
 [-4.37511038e-03]
 [-9.25196528e-01]
 [ 2.51001835e+00]
 [-9.53356206e-01]
 [-2.76828289e+00]
 [ 1.00696123e+00]
 [-4.24618196e+00]
 [-1.09640622e+00]
 [ 5.62768042e-01]
 [-6.73975721e-02]
 [ 5.46666002e+00]
 [ 5.77890396e-01]
 [ 5.82734108e+00]
 [ 1.16065085e+00]
 [-9.54334289e-02]
 [ 8.22618783e-01]
 [-3.93626876e-02]
 [-5.70337594e-01]
 [-4.72242028e-01]
 [ 2.30400220e-01]
 [ 8.23752642e-01]
 [ 4.66017783e-01]
 [ 1.22398686e+00]
 [ 3.73070300e-01]
 [ 2.10878372e+00]
 [ 3.38547587e-01]
 [ 1.18155614e-01]
 [-3.56584489e-01]
 [-3.37061703e-01]
 [-7.31400788e-01]
 [-6.16198838e-01]
 [ 1.77054435e-01]
 [-6.62740231e-01]
 [-1.51877141e+00]]

Layer 4:
[0.01373609]



Consenso 4:
------------------------------------------------------------------------

Layer 0:
[[ 1.50532765e-06 -2.29815498e-01  2.00719175e-08 ...  1.93280592e-08
   2.15344116e-01 -2.48376932e-06]
 [ 2.08616070e-03  0.00000000e+00 -1.45171881e-02 ... -1.24806687e-02
  -8.60530511e-03 -4.78245830e-03]
 [ 1.49610177e-01 -5.42746531e-03  1.40815234e-06 ... -8.13325495e-03
   1.18000666e-02  1.61888003e-02]
 ...
 [-8.85849167e-03  0.00000000e+00 -6.66629347e-08 ... -5.70613906e-07
   2.45467827e-01 -1.71806954e-03]
 [ 7.48922730e-07  3.36058289e-02 -4.60077776e-03 ...  1.07329456e-07
  -2.74983989e-07 -4.46553258e-07]
 [ 4.30273032e-03  1.18299859e-05 -2.37379909e-01 ...  4.19124728e-03
  -2.22369820e-01 -4.52926940e-07]]

Layer 1:
[[ 0.09382226 -0.17229074  0.08746985 -0.09040937  0.10825026 -0.08267105
  -0.12497604 -0.10990201  0.1389702  -0.00872834  0.05847369  0.03567913
  -0.0407256  -0.07817864 -0.04250711  0.00754871 -0.00534126  0.07288199
  -0.06914091 -0.06277949  0.04392866 -0.08096892  0.01058236 -0.04272757
  -0.05241547 -0.05496054  0.06827558  0.03359827  0.01209021  0.06273191
   0.01362464 -0.04255375 -0.01903639  0.09157771  0.09606796  0.03884825
  -0.04100114  0.17421696  0.17130934  0.01348768 -0.11567928  0.00886867
   0.00338836 -0.00964095  0.08757625  0.01346104 -0.1087232   0.09153454
   0.08239678  0.10170008  0.0276242  -0.0854001  -0.05640553  0.06610216
  -0.07122777 -0.0556079  -0.1202705   0.07740787 -0.07130574 -0.14101642
  -0.0563564   0.06048232 -0.06673507 -0.13687646  0.08385948  0.0198798
  -0.13227938  0.1570231   0.01580875  0.07990503 -0.00992017 -0.12544595
  -0.02689981 -0.13381192  0.0447004   0.11241812  0.03890681  0.12747894
   0.02601126  0.07428942 -0.11409333  0.07604238 -0.12725732 -0.09204558
  -0.14906467  0.08277623  0.0617076   0.11194889  0.0210313  -0.109811
   0.04411394  0.14032589 -0.09135528 -0.05233054 -0.10059843 -0.09926648
  -0.09590161 -0.11873093 -0.12404291  0.15397753]]

Layer 2:
[0. 0. 0. 0. 0. 0. 0. 0. 0. 0. 0. 0. 0. 0. 0. 0. 0. 0. 0. 0. 0. 0. 0. 0.
 0. 0. 0. 0. 0. 0. 0. 0. 0. 0. 0. 0. 0. 0. 0. 0. 0. 0. 0. 0. 0. 0. 0. 0.
 0. 0. 0. 0. 0. 0. 0. 0. 0. 0. 0. 0. 0. 0. 0. 0. 0. 0. 0. 0. 0. 0. 0. 0.
 0. 0. 0. 0. 0. 0. 0. 0. 0. 0. 0. 0. 0. 0. 0. 0. 0. 0. 0. 0. 0. 0. 0. 0.
 0. 0. 0. 0.]

Layer 3:
[[-7.6267844e-01]
 [-5.6726050e-01]
 [-8.0701463e-02]
 [ 6.2017369e-01]
 [ 3.0628237e-01]
 [-1.1217041e-01]
 [-4.3579947e-02]
 [ 4.1161504e-01]
 [ 8.1530720e-01]
 [-1.0806276e+01]
 [ 1.4037544e-01]
 [-1.2241626e+00]
 [-4.1708884e-01]
 [-1.2536485e+00]
 [-6.4418707e+00]
 [ 1.8133521e+00]
 [ 1.5741552e+00]
 [ 9.6944100e-01]
 [ 1.3652520e-01]
 [-1.2636383e+00]
 [ 4.3429893e-01]
 [-1.8112965e-01]
 [ 3.9634902e+00]
 [-6.4315367e-01]
 [-4.9305031e-01]
 [-3.8838419e-03]
 [-4.7354817e-02]
 [ 1.5724375e+00]
 [-1.6942794e+00]
 [ 6.5064800e-01]
 [ 1.1320322e+00]
 [-2.8785322e+00]
 [-1.4122351e+01]
 [-4.5223495e-01]
 [ 1.1340549e+00]
 [ 9.8907560e-01]
 [-1.1242654e+00]
 [ 1.9168542e-01]
 [ 1.0626067e-01]
 [ 4.5436926e+00]
 [ 5.9881210e-02]
 [ 1.3254190e+01]
 [-9.5595350e+00]
 [-3.6145194e+00]
 [-9.4774179e-02]
 [-8.8192612e-01]
 [-8.8388927e-02]
 [ 7.2525686e-01]
 [ 8.2737289e-02]
 [ 1.4306662e+00]
 [ 3.9522308e-01]
 [ 1.1354194e+00]
 [ 2.1535509e+00]
 [ 4.2306787e-01]
 [ 6.2025762e-01]
 [ 1.3190299e+00]
 [-1.3106735e-01]
 [ 2.1113181e+00]
 [-4.0175280e-01]
 [ 1.5702209e-02]
 [ 2.3830967e+00]
 [-7.9988487e-02]
 [-3.3616614e+00]
 [-2.3526575e-02]
 [ 1.0429688e+00]
 [ 8.7986202e+00]
 [-4.2704035e-02]
 [-6.9482136e-01]
 [ 2.4575322e+00]
 [-1.5768489e+00]
 [-3.0320516e+00]
 [ 7.8034538e-01]
 [-3.8365228e+00]
 [-1.4958042e+00]
 [ 2.9029036e-01]
 [ 2.6816709e-02]
 [ 5.8210444e+00]
 [ 6.8396789e-01]
 [ 7.0103397e+00]
 [ 1.3033260e+00]
 [-4.2111760e-01]
 [ 9.5322937e-01]
 [-2.2242869e-01]
 [-6.9401896e-01]
 [-6.9370341e-01]
 [ 4.2208460e-01]
 [ 6.5458131e-01]
 [ 7.2571546e-01]
 [ 1.0428876e+00]
 [ 2.2461921e-01]
 [ 1.3969115e+00]
 [ 7.1393156e-01]
 [-3.8633683e-01]
 [ 2.6828033e-01]
 [-3.8981378e-01]
 [-9.8103607e-01]
 [-6.6505414e-01]
 [-1.7279346e-01]
 [-7.7118546e-01]
 [-1.0351185e+00]]

Layer 4:
[0.22911526]



Entrenamiento 5:
------------------------------------------------------------------------

Layer 0:
[[ 1.50532765e-06 -2.29815498e-01  2.00719175e-08 ...  1.93280592e-08
   2.15344116e-01 -2.48376932e-06]
 [ 2.08616070e-03  0.00000000e+00 -1.45171881e-02 ... -1.24806687e-02
  -8.60530511e-03 -4.78245830e-03]
 [ 1.49610177e-01 -5.42746531e-03  1.40815234e-06 ... -8.13325495e-03
   1.18000666e-02  1.61888003e-02]
 ...
 [-8.85849167e-03  0.00000000e+00 -6.66629347e-08 ... -5.70613906e-07
   2.45467827e-01 -1.71806954e-03]
 [ 7.48922730e-07  3.36058289e-02 -4.60077776e-03 ...  1.07329456e-07
  -2.74983989e-07 -4.46553258e-07]
 [ 4.30273032e-03  1.18299859e-05 -2.37379909e-01 ...  4.19124728e-03
  -2.22369820e-01 -4.52926940e-07]]

Layer 1:
[[ 0.09382226 -0.17229074  0.08746985 -0.09040937  0.10825026 -0.08267105
  -0.12497604 -0.10990201  0.1389702  -0.00872834  0.05847369  0.03567913
  -0.0407256  -0.07817864 -0.04250711  0.00754871 -0.00534126  0.07288199
  -0.06914091 -0.06277949  0.04392866 -0.08096892  0.01058236 -0.04272757
  -0.05241547 -0.05496054  0.06827558  0.03359827  0.01209021  0.06273191
   0.01362464 -0.04255375 -0.01903639  0.09157771  0.09606796  0.03884825
  -0.04100114  0.17421696  0.17130934  0.01348768 -0.11567928  0.00886867
   0.00338836 -0.00964095  0.08757625  0.01346104 -0.1087232   0.09153454
   0.08239678  0.10170008  0.0276242  -0.0854001  -0.05640553  0.06610216
  -0.07122777 -0.0556079  -0.1202705   0.07740787 -0.07130574 -0.14101642
  -0.0563564   0.06048232 -0.06673507 -0.13687646  0.08385948  0.0198798
  -0.13227938  0.1570231   0.01580875  0.07990503 -0.00992017 -0.12544595
  -0.02689981 -0.13381192  0.0447004   0.11241812  0.03890681  0.12747894
   0.02601126  0.07428942 -0.11409333  0.07604238 -0.12725732 -0.09204558
  -0.14906467  0.08277623  0.0617076   0.11194889  0.0210313  -0.109811
   0.04411394  0.14032589 -0.09135528 -0.05233054 -0.10059843 -0.09926648
  -0.09590161 -0.11873093 -0.12404291  0.15397753]]

Layer 2:
[0. 0. 0. 0. 0. 0. 0. 0. 0. 0. 0. 0. 0. 0. 0. 0. 0. 0. 0. 0. 0. 0. 0. 0.
 0. 0. 0. 0. 0. 0. 0. 0. 0. 0. 0. 0. 0. 0. 0. 0. 0. 0. 0. 0. 0. 0. 0. 0.
 0. 0. 0. 0. 0. 0. 0. 0. 0. 0. 0. 0. 0. 0. 0. 0. 0. 0. 0. 0. 0. 0. 0. 0.
 0. 0. 0. 0. 0. 0. 0. 0. 0. 0. 0. 0. 0. 0. 0. 0. 0. 0. 0. 0. 0. 0. 0. 0.
 0. 0. 0. 0.]

Layer 3:
[[ -0.73038656]
 [ -0.21719451]
 [ -0.15122443]
 [  0.80164105]
 [  0.15429293]
 [ -0.12214324]
 [  0.22142243]
 [  0.7017798 ]
 [  0.52011657]
 [-10.482395  ]
 [  0.26515007]
 [ -1.396064  ]
 [ -0.538928  ]
 [ -1.324177  ]
 [ -5.6503077 ]
 [  1.0458009 ]
 [  2.878263  ]
 [  1.1927252 ]
 [  0.10770278]
 [ -1.4407239 ]
 [ -1.0518919 ]
 [ -0.21868473]
 [  3.5033178 ]
 [ -1.101571  ]
 [  0.6130983 ]
 [ -0.07419256]
 [ -0.44565755]
 [  2.2307923 ]
 [ -0.9684244 ]
 [  0.7849476 ]
 [  1.5946392 ]
 [ -3.6018476 ]
 [-13.653461  ]
 [ -0.49146277]
 [  1.0433851 ]
 [  1.1746184 ]
 [ -1.3239516 ]
 [ -0.23080045]
 [ -0.30715367]
 [  5.192549  ]
 [  0.17897916]
 [ 12.343681  ]
 [ -9.027179  ]
 [ -3.3286064 ]
 [ -0.6442797 ]
 [ -0.36436293]
 [  0.07909258]
 [  0.76859707]
 [  0.11712694]
 [  1.3802078 ]
 [  0.87149966]
 [  1.1997422 ]
 [  2.595304  ]
 [  0.6366737 ]
 [  0.6584189 ]
 [  1.6644183 ]
 [  0.1593618 ]
 [  2.3302815 ]
 [ -0.44400644]
 [  0.33200556]
 [  2.0277379 ]
 [ -1.0119312 ]
 [ -3.4694555 ]
 [  0.38328692]
 [  0.97720903]
 [  8.021102  ]
 [  0.186403  ]
 [ -1.0118687 ]
 [  2.133937  ]
 [ -1.6428937 ]
 [ -3.1959507 ]
 [  0.93711317]
 [ -4.646375  ]
 [ -1.262019  ]
 [  0.44892055]
 [ -0.10541572]
 [  4.9822564 ]
 [  0.4709207 ]
 [  7.173653  ]
 [  1.3307517 ]
 [ -0.2710533 ]
 [  1.3115101 ]
 [ -0.03916637]
 [ -0.71109706]
 [ -0.39276212]
 [  0.45624632]
 [  0.82082456]
 [  0.5947718 ]
 [  1.4507211 ]
 [  0.3809318 ]
 [  1.3030792 ]
 [  0.41537306]
 [ -0.37995672]
 [  1.0557433 ]
 [ -0.36198834]
 [ -0.9379107 ]
 [ -0.6404114 ]
 [  0.0692454 ]
 [ -0.54625547]
 [ -1.6387225 ]]

Layer 4:
[-0.02718312]



