:
------------------------------------------------------------------------



Entrenamiento 0:
------------------------------------------------------------------------

Layer 0:
[[-0.         -0.11473238  0.         ... -0.         -0.
   0.        ]
 [ 0.          0.         -0.         ... -0.          0.32300162
   0.        ]
 [-0.          0.          0.         ... -0.          0.
  -0.        ]
 ...
 [-0.         -0.         -0.         ...  0.         -0.
  -0.        ]
 [-0.         -0.          0.         ... -0.         -0.
  -0.        ]
 [ 0.          0.          0.         ... -0.         -0.
   0.        ]]

Layer 1:
[[ 0.08457226 -0.1319989  -0.01837642 -0.10562681  0.13081047  0.02357057
   0.2347857  -0.19767375 -0.05948749  0.10665026  0.07299516 -0.02796257
   0.06528249  0.24239263 -0.05543184 -0.11572891 -0.19677594 -0.08853358
   0.03227589  0.07828754  0.19382247  0.07143542  0.16076633 -0.10921392
   0.23243734  0.0957014   0.14013833 -0.04940519 -0.1173391   0.19355434
  -0.13338204 -0.11936705 -0.14015731 -0.05789427  0.22934645  0.24337643
  -0.1867893   0.01819855  0.22543496  0.19363949  0.05883995 -0.02531017
   0.06807384  0.02988207  0.09019217 -0.20554513 -0.14890882 -0.03597404
  -0.10559542 -0.10708991  0.1124444   0.05237144 -0.21953872  0.03164551
  -0.02690548  0.06319827  0.07460043 -0.05984138  0.04459289  0.08315179
   0.08435473  0.03981206  0.03251198  0.01809952  0.06221902  0.19799006
   0.03440267  0.0870316   0.21748945  0.10629943  0.09126467 -0.22219287
   0.16859412 -0.10990462 -0.15461436  0.20472181 -0.22347693 -0.1590368
   0.10952491  0.07703745 -0.21746959  0.12820902  0.15381464  0.10296005
  -0.14248559 -0.20435119 -0.05484818 -0.06891447  0.11423898 -0.13585529
  -0.1401718  -0.13015753 -0.03887695 -0.03471559 -0.2376694  -0.14412093
   0.16401589  0.01847801  0.17819783  0.24246776]]

Layer 2:
[0. 0. 0. 0. 0. 0. 0. 0. 0. 0. 0. 0. 0. 0. 0. 0. 0. 0. 0. 0. 0. 0. 0. 0.
 0. 0. 0. 0. 0. 0. 0. 0. 0. 0. 0. 0. 0. 0. 0. 0. 0. 0. 0. 0. 0. 0. 0. 0.
 0. 0. 0. 0. 0. 0. 0. 0. 0. 0. 0. 0. 0. 0. 0. 0. 0. 0. 0. 0. 0. 0. 0. 0.
 0. 0. 0. 0. 0. 0. 0. 0. 0. 0. 0. 0. 0. 0. 0. 0. 0. 0. 0. 0. 0. 0. 0. 0.
 0. 0. 0. 0.]

Layer 3:
[[ 0.22531259]
 [-0.36404464]
 [-4.0257535 ]
 [ 0.05518816]
 [ 0.3489081 ]
 [ 2.8283727 ]
 [-0.14590743]
 [-0.08086675]
 [-0.543922  ]
 [ 0.20106094]
 [ 0.18115304]
 [-3.6687572 ]
 [ 2.224701  ]
 [-0.14721213]
 [-1.645865  ]
 [-0.18615104]
 [-0.09874793]
 [-0.67428136]
 [ 0.28537643]
 [ 0.09751772]
 [-0.18077931]
 [ 0.2588335 ]
 [-0.05292484]
 [-0.8401559 ]
 [ 0.09238858]
 [ 0.22959454]
 [-0.05832918]
 [ 0.07110724]
 [ 0.19895364]
 [ 0.10178442]
 [-0.09413377]
 [-0.1955995 ]
 [ 0.03901445]
 [-1.0556102 ]
 [-0.11427616]
 [ 0.13689013]
 [ 0.10114408]
 [ 4.4580927 ]
 [ 0.205308  ]
 [ 0.08503431]
 [ 0.42249724]
 [-1.4769112 ]
 [ 1.907451  ]
 [ 1.3436296 ]
 [ 0.39911485]
 [-0.08185399]
 [-0.16046382]
 [ 0.03579428]
 [-0.37918574]
 [-0.2533228 ]
 [ 0.12600383]
 [ 1.5005141 ]
 [-0.17008309]
 [ 3.8031719 ]
 [-4.123107  ]
 [ 2.1382341 ]
 [ 1.4766172 ]
 [-0.31069067]
 [ 1.1852309 ]
 [ 1.8191756 ]
 [ 0.18606737]
 [ 0.23527157]
 [ 4.2035093 ]
 [ 2.5502386 ]
 [ 1.0203935 ]
 [-0.18238941]
 [ 2.0970879 ]
 [ 1.3650559 ]
 [ 0.13569383]
 [ 2.240319  ]
 [-0.05785486]
 [ 0.25509503]
 [ 0.24633552]
 [-1.3224727 ]
 [-0.03821416]
 [ 0.163099  ]
 [-0.31371108]
 [ 0.18459515]
 [ 0.1181154 ]
 [ 1.6006702 ]
 [-0.1694401 ]
 [ 0.24911737]
 [-0.00567691]
 [ 0.43837446]
 [-0.5526331 ]
 [-0.06537341]
 [-1.0664618 ]
 [-0.7425911 ]
 [ 0.02160884]
 [-0.19386779]
 [-0.12884597]
 [-0.28368825]
 [-2.2639928 ]
 [-1.0562842 ]
 [-0.1157408 ]
 [-0.35445526]
 [ 0.191158  ]
 [ 4.0760098 ]
 [-0.02840972]
 [ 0.02154434]]

Layer 4:
[-0.17502698]



Consenso 0:
------------------------------------------------------------------------

Layer 0:
[[ 0.01856897 -0.11135401  0.02010014 ... -0.00876697  0.05750625
  -0.0992898 ]
 [ 0.          0.          0.         ...  0.11712269  0.10766722
   0.        ]
 [ 0.          0.          0.         ...  0.          0.01017458
   0.        ]
 ...
 [ 0.          0.          0.         ...  0.         -0.00059172
  -0.09734078]
 [ 0.00059043  0.          0.         ...  0.         -0.05778326
   0.        ]
 [ 0.          0.          0.1043616  ...  0.08810823  0.06809408
   0.        ]]

Layer 1:
[[ 0.08418494 -0.08467447  0.03732584  0.05869002  0.07755668 -0.00129675
   0.05977086 -0.08580748 -0.00808084  0.05412387  0.04670785  0.05569715
  -0.01892931  0.15814109  0.02363214  0.03578486  0.05251755  0.04595396
  -0.01483839 -0.02762249  0.01569586  0.02112216  0.01433758 -0.04199359
   0.07675787  0.06249537  0.08506727  0.02342576  0.04760216  0.14507951
  -0.14197712  0.01078871  0.01708458 -0.00663079  0.17290202  0.11536147
  -0.11363835  0.06259077  0.08633072  0.07878649 -0.01993375 -0.09424227
  -0.02547417 -0.03796608 -0.08191342 -0.05963286 -0.07222159 -0.02874461
  -0.01118246 -0.05519197  0.02958324 -0.04850402  0.01375037  0.06104109
  -0.02257297 -0.08640479  0.02897014  0.04964225  0.02962034 -0.02257634
   0.04481524 -0.00619091  0.03263306  0.02763302  0.02284294 -0.02309746
   0.03304246  0.00357042  0.03713256  0.11782747 -0.05589237 -0.13513432
   0.13862543  0.03316561  0.03258423  0.09027854 -0.03464279  0.06951088
   0.03909435  0.00957567 -0.18972519  0.02648583  0.09312271  0.07315302
   0.01988347 -0.08369503 -0.03421795  0.0155627  -0.05339612  0.05237119
  -0.02458737 -0.05842055 -0.03118261 -0.04880786 -0.1647505  -0.09512632
   0.03572048 -0.05937243  0.04727435  0.09332737]]

Layer 2:
[0. 0. 0. 0. 0. 0. 0. 0. 0. 0. 0. 0. 0. 0. 0. 0. 0. 0. 0. 0. 0. 0. 0. 0.
 0. 0. 0. 0. 0. 0. 0. 0. 0. 0. 0. 0. 0. 0. 0. 0. 0. 0. 0. 0. 0. 0. 0. 0.
 0. 0. 0. 0. 0. 0. 0. 0. 0. 0. 0. 0. 0. 0. 0. 0. 0. 0. 0. 0. 0. 0. 0. 0.
 0. 0. 0. 0. 0. 0. 0. 0. 0. 0. 0. 0. 0. 0. 0. 0. 0. 0. 0. 0. 0. 0. 0. 0.
 0. 0. 0. 0.]

Layer 3:
[[ 0.05149595]
 [ 0.4650451 ]
 [-1.9427587 ]
 [-0.162508  ]
 [ 0.6911372 ]
 [-0.08760496]
 [ 0.09139585]
 [ 0.11260442]
 [-0.32783106]
 [ 0.24064414]
 [-0.7437904 ]
 [-1.1912646 ]
 [ 0.76343995]
 [-0.16246393]
 [-0.65858936]
 [ 0.831063  ]
 [ 0.1453725 ]
 [-0.13709445]
 [ 0.276856  ]
 [-0.38751176]
 [-0.95835185]
 [ 0.64678407]
 [ 0.36485353]
 [-0.46647078]
 [ 0.08162454]
 [ 0.24407871]
 [-0.48011935]
 [ 0.01280853]
 [ 0.5344766 ]
 [ 0.08778483]
 [-0.65008086]
 [ 0.48343945]
 [-0.8737018 ]
 [-0.47376463]
 [ 0.13056906]
 [ 0.03908301]
 [-0.35276726]
 [ 1.6655328 ]
 [ 0.25136194]
 [ 0.14544651]
 [ 0.07897775]
 [-0.584341  ]
 [ 0.94000906]
 [ 0.41460893]
 [ 0.00801587]
 [ 0.10601137]
 [ 0.05642133]
 [-0.1653871 ]
 [ 0.2838347 ]
 [ 0.4336884 ]
 [-0.04442086]
 [ 0.1738295 ]
 [-0.4566073 ]
 [ 1.2592602 ]
 [-1.3241622 ]
 [ 0.3495331 ]
 [ 0.6261465 ]
 [ 0.03907269]
 [ 0.02168991]
 [ 0.59821653]
 [-0.63499033]
 [-0.10645552]
 [ 1.3955729 ]
 [ 0.34951985]
 [ 0.1833988 ]
 [-0.104977  ]
 [ 0.7731678 ]
 [ 0.47372675]
 [-0.02856705]
 [ 0.7102058 ]
 [-0.26491168]
 [-0.01993637]
 [ 0.2514679 ]
 [-0.06560313]
 [ 0.17831634]
 [-0.5798881 ]
 [-0.07499057]
 [ 0.1407826 ]
 [ 0.08976071]
 [-0.03777711]
 [-0.15683621]
 [ 0.21739687]
 [ 0.17908908]
 [ 0.7727698 ]
 [ 0.628316  ]
 [-0.60848206]
 [-1.059389  ]
 [-0.6857588 ]
 [-1.1807834 ]
 [-0.12640965]
 [ 0.19937421]
 [-0.24849553]
 [-1.0724922 ]
 [-0.78508383]
 [-0.41293558]
 [ 0.02112836]
 [-1.0496454 ]
 [ 1.3622013 ]
 [ 0.6653682 ]
 [ 0.16022597]]

Layer 4:
[-0.2004803]



Entrenamiento 1:
------------------------------------------------------------------------

Layer 0:
[[ 0.01856897 -0.11135401  0.02010014 ... -0.00876697  0.05750625
  -0.0992898 ]
 [ 0.          0.          0.         ...  0.11712269  0.10766722
   0.        ]
 [ 0.          0.          0.         ...  0.          0.01017458
   0.        ]
 ...
 [ 0.          0.          0.         ...  0.         -0.00059172
  -0.09734078]
 [ 0.00059043  0.          0.         ...  0.         -0.05778326
   0.        ]
 [ 0.          0.          0.1043616  ...  0.08810823  0.06809408
   0.        ]]

Layer 1:
[[ 0.08418494 -0.08467447  0.03732584  0.05869002  0.07755668 -0.00129675
   0.05977086 -0.08580748 -0.00808084  0.05412387  0.04670785  0.05569715
  -0.01892931  0.15814109  0.02363214  0.03578486  0.05251755  0.04595396
  -0.01483839 -0.02762249  0.01569586  0.02112216  0.01433758 -0.04199359
   0.07675787  0.06249537  0.08506727  0.02342576  0.04760216  0.14507951
  -0.14197712  0.01078871  0.01708458 -0.00663079  0.17290202  0.11536147
  -0.11363835  0.06259077  0.08633072  0.07878649 -0.01993375 -0.09424227
  -0.02547417 -0.03796608 -0.08191342 -0.05963286 -0.07222159 -0.02874461
  -0.01118246 -0.05519197  0.02958324 -0.04850402  0.01375037  0.06104109
  -0.02257297 -0.08640479  0.02897014  0.04964225  0.02962034 -0.02257634
   0.04481524 -0.00619091  0.03263306  0.02763302  0.02284294 -0.02309746
   0.03304246  0.00357042  0.03713256  0.11782747 -0.05589237 -0.13513432
   0.13862543  0.03316561  0.03258423  0.09027854 -0.03464279  0.06951088
   0.03909435  0.00957567 -0.18972519  0.02648583  0.09312271  0.07315302
   0.01988347 -0.08369503 -0.03421795  0.0155627  -0.05339612  0.05237119
  -0.02458737 -0.05842055 -0.03118261 -0.04880786 -0.1647505  -0.09512632
   0.03572048 -0.05937243  0.04727435  0.09332737]]

Layer 2:
[0. 0. 0. 0. 0. 0. 0. 0. 0. 0. 0. 0. 0. 0. 0. 0. 0. 0. 0. 0. 0. 0. 0. 0.
 0. 0. 0. 0. 0. 0. 0. 0. 0. 0. 0. 0. 0. 0. 0. 0. 0. 0. 0. 0. 0. 0. 0. 0.
 0. 0. 0. 0. 0. 0. 0. 0. 0. 0. 0. 0. 0. 0. 0. 0. 0. 0. 0. 0. 0. 0. 0. 0.
 0. 0. 0. 0. 0. 0. 0. 0. 0. 0. 0. 0. 0. 0. 0. 0. 0. 0. 0. 0. 0. 0. 0. 0.
 0. 0. 0. 0.]

Layer 3:
[[-9.1615573e-02]
 [ 8.9408386e-01]
 [-2.3016100e+00]
 [ 1.9551595e-01]
 [ 1.0004601e+00]
 [-5.3904194e-01]
 [-9.1534235e-02]
 [ 2.2481570e-01]
 [-2.3499222e+00]
 [ 9.0273517e-01]
 [-9.1082853e-01]
 [-8.2223922e-01]
 [-3.1458921e+00]
 [-6.7569041e-01]
 [ 1.4576304e+00]
 [ 2.9211354e+00]
 [ 3.9923999e-01]
 [ 2.1466956e-01]
 [-1.1393496e+00]
 [-2.6167884e+00]
 [-6.8669952e-02]
 [ 1.0327907e+00]
 [ 4.6780343e+00]
 [-1.7052779e+00]
 [-8.8560812e-02]
 [ 1.0722625e-01]
 [-5.9880358e-01]
 [ 2.1854212e+00]
 [ 2.3924916e+00]
 [-4.7587448e-01]
 [-6.7156054e-02]
 [ 3.5570807e+00]
 [ 1.4158860e+00]
 [-3.4650972e+00]
 [-4.0758014e-01]
 [-3.8450107e-01]
 [-1.0488691e-02]
 [ 2.2085392e+00]
 [ 2.1859065e-01]
 [-2.3782432e-01]
 [-3.6367397e+00]
 [-5.1392490e-01]
 [-9.8992765e-01]
 [-1.2104371e+00]
 [ 1.7181976e-01]
 [-1.4671545e-01]
 [ 3.9837658e-01]
 [-9.5246571e-01]
 [-1.8353012e+00]
 [ 5.2943420e-01]
 [ 8.0214238e-01]
 [-7.1644646e-01]
 [ 3.7498170e-01]
 [ 1.6495806e+00]
 [-3.1467533e+00]
 [ 4.3979010e-01]
 [ 1.7089432e+00]
 [-1.1340840e-02]
 [ 5.0190353e-01]
 [-1.7299273e+00]
 [ 4.8727514e-03]
 [-2.1163328e+00]
 [ 3.4042139e+00]
 [ 1.9483300e+00]
 [ 3.1233156e+00]
 [-1.4342422e+00]
 [ 5.4026475e+00]
 [ 6.2626618e-01]
 [ 6.8620336e-01]
 [ 3.0774209e-01]
 [-6.5480733e-01]
 [ 4.9796391e-01]
 [-2.1757852e-01]
 [ 8.1945199e-01]
 [ 1.3497778e+00]
 [-9.9384260e-01]
 [-5.2394009e-01]
 [-7.6912552e-02]
 [ 5.0658625e-01]
 [ 2.2656579e+00]
 [ 3.8211322e-01]
 [ 1.9276124e+00]
 [-2.0320456e-01]
 [ 8.5847610e-01]
 [ 2.8533242e+00]
 [-1.0604039e+00]
 [-2.6437900e+00]
 [ 1.7094823e+00]
 [-1.9525936e+00]
 [-1.8442369e-01]
 [-6.0350007e-01]
 [-3.2874969e-01]
 [-1.7342390e+00]
 [-1.2942485e+00]
 [ 1.9749337e-01]
 [ 4.5606147e-02]
 [-7.6481986e-01]
 [ 1.4550482e+00]
 [ 2.5022101e+00]
 [-6.2646233e-02]]

Layer 4:
[-0.21596797]



Consenso 1:
------------------------------------------------------------------------

Layer 0:
[[ 0.01856897 -0.11135401  0.02010014 ... -0.00876697  0.05750625
  -0.0992898 ]
 [ 0.          0.          0.         ...  0.11712269  0.10766722
   0.        ]
 [ 0.          0.          0.         ...  0.          0.01017458
   0.        ]
 ...
 [ 0.          0.          0.         ...  0.         -0.00059172
  -0.09734078]
 [ 0.00059043  0.          0.         ...  0.         -0.05778326
   0.        ]
 [ 0.          0.          0.1043616  ...  0.08810823  0.06809408
   0.        ]]

Layer 1:
[[ 0.08418494 -0.08467447  0.03732584  0.05869002  0.07755668 -0.00129675
   0.05977086 -0.08580748 -0.00808084  0.05412387  0.04670785  0.05569715
  -0.01892931  0.15814109  0.02363214  0.03578486  0.05251755  0.04595396
  -0.01483839 -0.02762249  0.01569586  0.02112216  0.01433758 -0.04199359
   0.07675787  0.06249537  0.08506727  0.02342576  0.04760216  0.14507951
  -0.14197712  0.01078871  0.01708458 -0.00663079  0.17290202  0.11536147
  -0.11363835  0.06259077  0.08633072  0.07878649 -0.01993375 -0.09424227
  -0.02547417 -0.03796608 -0.08191342 -0.05963286 -0.07222159 -0.02874461
  -0.01118246 -0.05519197  0.02958324 -0.04850402  0.01375037  0.06104109
  -0.02257297 -0.08640479  0.02897014  0.04964225  0.02962034 -0.02257634
   0.04481524 -0.00619091  0.03263306  0.02763302  0.02284294 -0.02309746
   0.03304246  0.00357042  0.03713256  0.11782747 -0.05589237 -0.13513432
   0.13862543  0.03316561  0.03258423  0.09027854 -0.03464279  0.06951088
   0.03909435  0.00957567 -0.18972519  0.02648583  0.09312271  0.07315302
   0.01988347 -0.08369503 -0.03421795  0.0155627  -0.05339612  0.05237119
  -0.02458737 -0.05842055 -0.03118261 -0.04880786 -0.1647505  -0.09512632
   0.03572048 -0.05937243  0.04727435  0.09332737]]

Layer 2:
[0. 0. 0. 0. 0. 0. 0. 0. 0. 0. 0. 0. 0. 0. 0. 0. 0. 0. 0. 0. 0. 0. 0. 0.
 0. 0. 0. 0. 0. 0. 0. 0. 0. 0. 0. 0. 0. 0. 0. 0. 0. 0. 0. 0. 0. 0. 0. 0.
 0. 0. 0. 0. 0. 0. 0. 0. 0. 0. 0. 0. 0. 0. 0. 0. 0. 0. 0. 0. 0. 0. 0. 0.
 0. 0. 0. 0. 0. 0. 0. 0. 0. 0. 0. 0. 0. 0. 0. 0. 0. 0. 0. 0. 0. 0. 0. 0.
 0. 0. 0. 0.]

Layer 3:
[[-1.0402104e-01]
 [ 7.6548898e-01]
 [-2.1295922e+00]
 [ 1.8366089e-01]
 [ 1.0157373e+00]
 [-5.4114002e-01]
 [-3.0978059e-02]
 [ 2.1454170e-01]
 [-1.7952768e+00]
 [ 8.5186321e-01]
 [-9.2250431e-01]
 [-6.4355314e-01]
 [-2.6324782e+00]
 [-5.9985417e-01]
 [ 1.1520286e+00]
 [ 2.7129810e+00]
 [ 3.8778219e-01]
 [ 1.2142376e-01]
 [-8.5153407e-01]
 [-2.4178936e+00]
 [-1.4368096e-01]
 [ 1.1106826e+00]
 [ 3.5423629e+00]
 [-1.6362609e+00]
 [-2.0026956e-02]
 [ 1.9621643e-01]
 [-5.9314770e-01]
 [ 1.8676670e+00]
 [ 2.4168239e+00]
 [-2.9853153e-01]
 [-2.5624111e-01]
 [ 3.0422606e+00]
 [ 6.5831631e-01]
 [-2.5447273e+00]
 [-3.0124995e-01]
 [-3.2854331e-01]
 [-9.4135463e-02]
 [ 2.0152330e+00]
 [ 1.7730924e-01]
 [-1.5113179e-01]
 [-2.8252966e+00]
 [-4.7897595e-01]
 [-7.2493899e-01]
 [-1.0369508e+00]
 [ 1.4345682e-01]
 [-1.3509542e-01]
 [ 3.2871422e-01]
 [-8.7095630e-01]
 [-1.4397646e+00]
 [ 4.8908964e-01]
 [ 6.9942987e-01]
 [-7.1400410e-01]
 [ 2.7571866e-01]
 [ 1.5749279e+00]
 [-2.8523707e+00]
 [ 4.0450343e-01]
 [ 1.5952258e+00]
 [ 6.1819658e-02]
 [ 4.6501642e-01]
 [-1.3317578e+00]
 [-6.1502334e-02]
 [-1.6887455e+00]
 [ 3.3281689e+00]
 [ 1.7473454e+00]
 [ 2.7010550e+00]
 [-1.2232475e+00]
 [ 4.7272515e+00]
 [ 4.2771009e-01]
 [ 6.2635994e-01]
 [ 3.6429495e-01]
 [-7.0854014e-01]
 [ 3.7402245e-01]
 [-1.3979705e-01]
 [ 6.7649126e-01]
 [ 1.1474253e+00]
 [-9.3537635e-01]
 [-5.0386834e-01]
 [ 2.1213550e-02]
 [ 5.1663858e-01]
 [ 1.6351061e+00]
 [ 3.4242126e-01]
 [ 1.7557391e+00]
 [-7.6790914e-02]
 [ 8.8488680e-01]
 [ 2.2316818e+00]
 [-1.0447434e+00]
 [-2.4633787e+00]
 [ 1.3723783e+00]
 [-1.9963999e+00]
 [-1.5214263e-01]
 [-4.7904375e-01]
 [-3.8054451e-01]
 [-1.6071236e+00]
 [-1.2409626e+00]
 [-4.4047907e-03]
 [ 6.8216361e-02]
 [-7.4254966e-01]
 [ 1.1856885e+00]
 [ 2.5773327e+00]
 [-3.8184609e-02]]

Layer 4:
[-0.1403316]



Entrenamiento 2:
------------------------------------------------------------------------

Layer 0:
[[ 0.01856897 -0.11135401  0.02010014 ... -0.00876697  0.05750625
  -0.0992898 ]
 [ 0.          0.          0.         ...  0.11712269  0.10766722
   0.        ]
 [ 0.          0.          0.         ...  0.          0.01017458
   0.        ]
 ...
 [ 0.          0.          0.         ...  0.         -0.00059172
  -0.09734078]
 [ 0.00059043  0.          0.         ...  0.         -0.05778326
   0.        ]
 [ 0.          0.          0.1043616  ...  0.08810823  0.06809408
   0.        ]]

Layer 1:
[[ 0.08418494 -0.08467447  0.03732584  0.05869002  0.07755668 -0.00129675
   0.05977086 -0.08580748 -0.00808084  0.05412387  0.04670785  0.05569715
  -0.01892931  0.15814109  0.02363214  0.03578486  0.05251755  0.04595396
  -0.01483839 -0.02762249  0.01569586  0.02112216  0.01433758 -0.04199359
   0.07675787  0.06249537  0.08506727  0.02342576  0.04760216  0.14507951
  -0.14197712  0.01078871  0.01708458 -0.00663079  0.17290202  0.11536147
  -0.11363835  0.06259077  0.08633072  0.07878649 -0.01993375 -0.09424227
  -0.02547417 -0.03796608 -0.08191342 -0.05963286 -0.07222159 -0.02874461
  -0.01118246 -0.05519197  0.02958324 -0.04850402  0.01375037  0.06104109
  -0.02257297 -0.08640479  0.02897014  0.04964225  0.02962034 -0.02257634
   0.04481524 -0.00619091  0.03263306  0.02763302  0.02284294 -0.02309746
   0.03304246  0.00357042  0.03713256  0.11782747 -0.05589237 -0.13513432
   0.13862543  0.03316561  0.03258423  0.09027854 -0.03464279  0.06951088
   0.03909435  0.00957567 -0.18972519  0.02648583  0.09312271  0.07315302
   0.01988347 -0.08369503 -0.03421795  0.0155627  -0.05339612  0.05237119
  -0.02458737 -0.05842055 -0.03118261 -0.04880786 -0.1647505  -0.09512632
   0.03572048 -0.05937243  0.04727435  0.09332737]]

Layer 2:
[0. 0. 0. 0. 0. 0. 0. 0. 0. 0. 0. 0. 0. 0. 0. 0. 0. 0. 0. 0. 0. 0. 0. 0.
 0. 0. 0. 0. 0. 0. 0. 0. 0. 0. 0. 0. 0. 0. 0. 0. 0. 0. 0. 0. 0. 0. 0. 0.
 0. 0. 0. 0. 0. 0. 0. 0. 0. 0. 0. 0. 0. 0. 0. 0. 0. 0. 0. 0. 0. 0. 0. 0.
 0. 0. 0. 0. 0. 0. 0. 0. 0. 0. 0. 0. 0. 0. 0. 0. 0. 0. 0. 0. 0. 0. 0. 0.
 0. 0. 0. 0.]

Layer 3:
[[-2.5462767e-01]
 [ 6.7118144e-01]
 [-1.8964686e+00]
 [-3.6380228e-01]
 [ 1.0400864e-01]
 [-8.1293106e-01]
 [ 2.2148047e-02]
 [ 7.9492646e-01]
 [-3.1580334e+00]
 [ 3.6298458e-02]
 [-7.4911016e-01]
 [-1.1185499e+00]
 [-4.9420848e+00]
 [-4.7595936e-01]
 [ 1.8625879e+00]
 [ 2.2366807e+00]
 [-1.8158969e-01]
 [-2.4810445e-01]
 [-1.3560376e+00]
 [-2.8571908e+00]
 [ 4.9815911e-01]
 [ 1.2217343e+00]
 [ 6.4468985e+00]
 [-1.5212538e+00]
 [-3.3545357e-01]
 [ 2.1602425e-01]
 [-8.9611089e-01]
 [ 3.2499232e+00]
 [ 1.8777876e+00]
 [ 2.8792715e-01]
 [-8.1682914e-01]
 [ 4.6032109e+00]
 [ 2.1571765e+00]
 [-4.0610976e+00]
 [ 2.0134324e-01]
 [ 1.1883481e-01]
 [ 1.4619787e-01]
 [ 1.3647168e+00]
 [-3.0031782e-01]
 [ 1.9635926e-01]
 [-4.6612148e+00]
 [-6.2264882e-02]
 [-6.9457281e-01]
 [-8.9273590e-01]
 [ 4.4779900e-01]
 [ 4.1993943e-01]
 [-4.6308961e-02]
 [-9.1000736e-01]
 [-2.0423660e+00]
 [ 5.1747251e-01]
 [ 3.9203534e-01]
 [-2.9770073e-01]
 [ 7.0660985e-01]
 [ 1.1943766e+00]
 [-3.1132731e+00]
 [ 8.9461869e-01]
 [ 1.4527352e+00]
 [-1.1486207e-01]
 [ 5.9377056e-01]
 [-1.9421819e+00]
 [-6.6802770e-01]
 [-2.4409490e+00]
 [ 3.3666329e+00]
 [ 1.7664503e+00]
 [ 3.7110841e+00]
 [-1.6050564e+00]
 [ 5.8628907e+00]
 [ 8.8741714e-01]
 [ 3.4962499e-01]
 [ 2.6551807e-01]
 [-3.4272972e-02]
 [-2.0055492e-01]
 [ 9.9506915e-02]
 [ 1.0460759e+00]
 [ 1.2132479e+00]
 [-5.1120192e-01]
 [-1.0251862e+00]
 [ 5.2097950e-02]
 [ 5.4114139e-01]
 [ 3.7077472e+00]
 [-9.9672731e-03]
 [ 2.3268549e+00]
 [-7.3613902e-04]
 [ 1.7862967e-01]
 [ 3.4511580e+00]
 [-6.7186236e-02]
 [-2.3261907e+00]
 [ 2.2742174e+00]
 [-1.6617627e+00]
 [-1.5786518e-01]
 [-6.9808364e-01]
 [-2.9163891e-01]
 [-1.6918982e+00]
 [-6.8257958e-01]
 [-1.1108886e+00]
 [ 7.1842486e-01]
 [-8.0039966e-01]
 [ 1.5378003e+00]
 [ 1.6237602e+00]
 [-3.1519696e-01]]

Layer 4:
[0.5180717]



Consenso 2:
------------------------------------------------------------------------

Layer 0:
[[ 0.01856897 -0.11135401  0.02010014 ... -0.00876697  0.05750625
  -0.0992898 ]
 [ 0.          0.          0.         ...  0.11712269  0.10766722
   0.        ]
 [ 0.          0.          0.         ...  0.          0.01017458
   0.        ]
 ...
 [ 0.          0.          0.         ...  0.         -0.00059172
  -0.09734078]
 [ 0.00059043  0.          0.         ...  0.         -0.05778326
   0.        ]
 [ 0.          0.          0.1043616  ...  0.08810823  0.06809408
   0.        ]]

Layer 1:
[[ 0.08418494 -0.08467447  0.03732584  0.05869002  0.07755668 -0.00129675
   0.05977086 -0.08580748 -0.00808084  0.05412387  0.04670785  0.05569715
  -0.01892931  0.15814109  0.02363214  0.03578486  0.05251755  0.04595396
  -0.01483839 -0.02762249  0.01569586  0.02112216  0.01433758 -0.04199359
   0.07675787  0.06249537  0.08506727  0.02342576  0.04760216  0.14507951
  -0.14197712  0.01078871  0.01708458 -0.00663079  0.17290202  0.11536147
  -0.11363835  0.06259077  0.08633072  0.07878649 -0.01993375 -0.09424227
  -0.02547417 -0.03796608 -0.08191342 -0.05963286 -0.07222159 -0.02874461
  -0.01118246 -0.05519197  0.02958324 -0.04850402  0.01375037  0.06104109
  -0.02257297 -0.08640479  0.02897014  0.04964225  0.02962034 -0.02257634
   0.04481524 -0.00619091  0.03263306  0.02763302  0.02284294 -0.02309746
   0.03304246  0.00357042  0.03713256  0.11782747 -0.05589237 -0.13513432
   0.13862543  0.03316561  0.03258423  0.09027854 -0.03464279  0.06951088
   0.03909435  0.00957567 -0.18972519  0.02648583  0.09312271  0.07315302
   0.01988347 -0.08369503 -0.03421795  0.0155627  -0.05339612  0.05237119
  -0.02458737 -0.05842055 -0.03118261 -0.04880786 -0.1647505  -0.09512632
   0.03572048 -0.05937243  0.04727435  0.09332737]]

Layer 2:
[0. 0. 0. 0. 0. 0. 0. 0. 0. 0. 0. 0. 0. 0. 0. 0. 0. 0. 0. 0. 0. 0. 0. 0.
 0. 0. 0. 0. 0. 0. 0. 0. 0. 0. 0. 0. 0. 0. 0. 0. 0. 0. 0. 0. 0. 0. 0. 0.
 0. 0. 0. 0. 0. 0. 0. 0. 0. 0. 0. 0. 0. 0. 0. 0. 0. 0. 0. 0. 0. 0. 0. 0.
 0. 0. 0. 0. 0. 0. 0. 0. 0. 0. 0. 0. 0. 0. 0. 0. 0. 0. 0. 0. 0. 0. 0. 0.
 0. 0. 0. 0.]

Layer 3:
[[-0.19561328]
 [ 0.6130183 ]
 [-1.8236034 ]
 [-0.31482437]
 [ 0.16276279]
 [-0.656215  ]
 [ 0.08959644]
 [ 0.72889006]
 [-2.6102526 ]
 [ 0.07231479]
 [-0.6928612 ]
 [-1.1231338 ]
 [-4.1683607 ]
 [-0.44012234]
 [ 1.550734  ]
 [ 2.1089344 ]
 [-0.12459382]
 [-0.1839264 ]
 [-1.1248442 ]
 [-2.6087282 ]
 [ 0.39143744]
 [ 1.2330217 ]
 [ 5.4071054 ]
 [-1.4679017 ]
 [-0.27945226]
 [ 0.28080532]
 [-0.84324867]
 [ 2.8492436 ]
 [ 1.7401606 ]
 [ 0.3151459 ]
 [-0.8543344 ]
 [ 3.890768  ]
 [ 1.5374492 ]
 [-3.2335382 ]
 [ 0.22404127]
 [ 0.16644374]
 [ 0.08634941]
 [ 1.3756311 ]
 [-0.24226019]
 [ 0.25422668]
 [-3.934866  ]
 [-0.13210435]
 [-0.5287842 ]
 [-0.8006479 ]
 [ 0.37789094]
 [ 0.35992607]
 [-0.11728926]
 [-0.8822596 ]
 [-1.6582967 ]
 [ 0.4496346 ]
 [ 0.38342482]
 [-0.3026285 ]
 [ 0.59586453]
 [ 1.1917942 ]
 [-2.9470234 ]
 [ 0.83549654]
 [ 1.41211   ]
 [-0.04188875]
 [ 0.5992866 ]
 [-1.6428214 ]
 [-0.6276445 ]
 [-2.0210876 ]
 [ 3.1834269 ]
 [ 1.6803553 ]
 [ 3.273646  ]
 [-1.4743178 ]
 [ 5.3112617 ]
 [ 0.6052382 ]
 [ 0.35676146]
 [ 0.3157525 ]
 [-0.07717354]
 [-0.2368657 ]
 [ 0.14445744]
 [ 0.9846892 ]
 [ 1.1564234 ]
 [-0.44604677]
 [-0.9876573 ]
 [ 0.11366975]
 [ 0.5695415 ]
 [ 2.9841204 ]
 [-0.03349127]
 [ 2.1109257 ]
 [ 0.05550215]
 [ 0.25074476]
 [ 2.95779   ]
 [-0.09919949]
 [-2.237261  ]
 [ 1.8346432 ]
 [-1.6763676 ]
 [-0.0907415 ]
 [-0.6480016 ]
 [-0.3474738 ]
 [-1.6906432 ]
 [-0.73982084]
 [-1.1302619 ]
 [ 0.6624265 ]
 [-0.7679035 ]
 [ 1.5402101 ]
 [ 1.4673226 ]
 [-0.25166377]]

Layer 4:
[0.14774781]



Entrenamiento 3:
------------------------------------------------------------------------

Layer 0:
[[ 0.01856897 -0.11135401  0.02010014 ... -0.00876697  0.05750625
  -0.0992898 ]
 [ 0.          0.          0.         ...  0.11712269  0.10766722
   0.        ]
 [ 0.          0.          0.         ...  0.          0.01017458
   0.        ]
 ...
 [ 0.          0.          0.         ...  0.         -0.00059172
  -0.09734078]
 [ 0.00059043  0.          0.         ...  0.         -0.05778326
   0.        ]
 [ 0.          0.          0.1043616  ...  0.08810823  0.06809408
   0.        ]]

Layer 1:
[[ 0.08418494 -0.08467447  0.03732584  0.05869002  0.07755668 -0.00129675
   0.05977086 -0.08580748 -0.00808084  0.05412387  0.04670785  0.05569715
  -0.01892931  0.15814109  0.02363214  0.03578486  0.05251755  0.04595396
  -0.01483839 -0.02762249  0.01569586  0.02112216  0.01433758 -0.04199359
   0.07675787  0.06249537  0.08506727  0.02342576  0.04760216  0.14507951
  -0.14197712  0.01078871  0.01708458 -0.00663079  0.17290202  0.11536147
  -0.11363835  0.06259077  0.08633072  0.07878649 -0.01993375 -0.09424227
  -0.02547417 -0.03796608 -0.08191342 -0.05963286 -0.07222159 -0.02874461
  -0.01118246 -0.05519197  0.02958324 -0.04850402  0.01375037  0.06104109
  -0.02257297 -0.08640479  0.02897014  0.04964225  0.02962034 -0.02257634
   0.04481524 -0.00619091  0.03263306  0.02763302  0.02284294 -0.02309746
   0.03304246  0.00357042  0.03713256  0.11782747 -0.05589237 -0.13513432
   0.13862543  0.03316561  0.03258423  0.09027854 -0.03464279  0.06951088
   0.03909435  0.00957567 -0.18972519  0.02648583  0.09312271  0.07315302
   0.01988347 -0.08369503 -0.03421795  0.0155627  -0.05339612  0.05237119
  -0.02458737 -0.05842055 -0.03118261 -0.04880786 -0.1647505  -0.09512632
   0.03572048 -0.05937243  0.04727435  0.09332737]]

Layer 2:
[0. 0. 0. 0. 0. 0. 0. 0. 0. 0. 0. 0. 0. 0. 0. 0. 0. 0. 0. 0. 0. 0. 0. 0.
 0. 0. 0. 0. 0. 0. 0. 0. 0. 0. 0. 0. 0. 0. 0. 0. 0. 0. 0. 0. 0. 0. 0. 0.
 0. 0. 0. 0. 0. 0. 0. 0. 0. 0. 0. 0. 0. 0. 0. 0. 0. 0. 0. 0. 0. 0. 0. 0.
 0. 0. 0. 0. 0. 0. 0. 0. 0. 0. 0. 0. 0. 0. 0. 0. 0. 0. 0. 0. 0. 0. 0. 0.
 0. 0. 0. 0.]

Layer 3:
[[-2.7767032e-01]
 [ 4.5350912e-01]
 [-1.5456371e+00]
 [-8.2369930e-01]
 [-6.7440164e-01]
 [-8.6726528e-01]
 [ 2.0718534e-01]
 [ 1.1511235e+00]
 [-3.9619155e+00]
 [-7.1391928e-01]
 [-4.5373681e-01]
 [-1.6409177e+00]
 [-6.2585020e+00]
 [-2.5512135e-01]
 [ 2.1448424e+00]
 [ 1.5094388e+00]
 [-6.0105634e-01]
 [-4.7553602e-01]
 [-1.6104144e+00]
 [-2.8686891e+00]
 [ 1.0054009e+00]
 [ 1.3819522e+00]
 [ 8.0617533e+00]
 [-1.2323725e+00]
 [-4.5543125e-01]
 [ 3.3025500e-01]
 [-1.0375749e+00]
 [ 4.0906000e+00]
 [ 1.0376160e+00]
 [ 8.3547240e-01]
 [-1.3735359e+00]
 [ 5.4372263e+00]
 [ 2.9384418e+00]
 [-4.6908669e+00]
 [ 6.9323742e-01]
 [ 6.0547686e-01]
 [ 2.0099525e-01]
 [ 7.9506671e-01]
 [-6.0744166e-01]
 [ 6.3832140e-01]
 [-5.5811248e+00]
 [ 1.6931000e-01]
 [-4.1001520e-01]
 [-5.0736403e-01]
 [ 5.6720209e-01]
 [ 8.5280424e-01]
 [-5.0718254e-01]
 [-9.3860835e-01]
 [-2.2369413e+00]
 [ 4.3404242e-01]
 [ 1.0454485e-01]
 [ 2.0684730e-01]
 [ 1.0466222e+00]
 [ 8.2975531e-01]
 [-3.1371377e+00]
 [ 1.2059654e+00]
 [ 1.2497175e+00]
 [-1.2887061e-01]
 [ 7.2481668e-01]
 [-2.0990009e+00]
 [-1.1867036e+00]
 [-2.7752259e+00]
 [ 3.0431602e+00]
 [ 1.6093125e+00]
 [ 4.1074233e+00]
 [-1.7902470e+00]
 [ 6.0594068e+00]
 [ 1.1594733e+00]
 [ 8.0701560e-02]
 [ 3.1368762e-01]
 [ 5.4140693e-01]
 [-7.6180041e-01]
 [ 4.0718848e-01]
 [ 1.3027306e+00]
 [ 1.1402779e+00]
 [ 6.4552878e-05]
 [-1.4286884e+00]
 [ 1.8771228e-01]
 [ 5.5367833e-01]
 [ 5.0513587e+00]
 [-3.6002713e-01]
 [ 2.5497632e+00]
 [ 1.8571094e-01]
 [-3.5511985e-01]
 [ 4.1198354e+00]
 [ 8.5830134e-01]
 [-1.9806098e+00]
 [ 2.6550722e+00]
 [-1.2333027e+00]
 [-3.2748494e-02]
 [-8.5249156e-01]
 [-2.7305773e-01]
 [-1.7689335e+00]
 [-2.4353763e-01]
 [-2.0223529e+00]
 [ 1.1702044e+00]
 [-7.8925461e-01]
 [ 1.8733073e+00]
 [ 3.8579211e-01]
 [-4.0121743e-01]]

Layer 4:
[0.17723036]



Consenso 3:
------------------------------------------------------------------------

Layer 0:
[[ 0.01856897 -0.11135401  0.02010014 ... -0.00876697  0.05750625
  -0.0992898 ]
 [ 0.          0.          0.         ...  0.11712269  0.10766722
   0.        ]
 [ 0.          0.          0.         ...  0.          0.01017458
   0.        ]
 ...
 [ 0.          0.          0.         ...  0.         -0.00059172
  -0.09734078]
 [ 0.00059043  0.          0.         ...  0.         -0.05778326
   0.        ]
 [ 0.          0.          0.1043616  ...  0.08810823  0.06809408
   0.        ]]

Layer 1:
[[ 0.08418494 -0.08467447  0.03732584  0.05869002  0.07755668 -0.00129675
   0.05977086 -0.08580748 -0.00808084  0.05412387  0.04670785  0.05569715
  -0.01892931  0.15814109  0.02363214  0.03578486  0.05251755  0.04595396
  -0.01483839 -0.02762249  0.01569586  0.02112216  0.01433758 -0.04199359
   0.07675787  0.06249537  0.08506727  0.02342576  0.04760216  0.14507951
  -0.14197712  0.01078871  0.01708458 -0.00663079  0.17290202  0.11536147
  -0.11363835  0.06259077  0.08633072  0.07878649 -0.01993375 -0.09424227
  -0.02547417 -0.03796608 -0.08191342 -0.05963286 -0.07222159 -0.02874461
  -0.01118246 -0.05519197  0.02958324 -0.04850402  0.01375037  0.06104109
  -0.02257297 -0.08640479  0.02897014  0.04964225  0.02962034 -0.02257634
   0.04481524 -0.00619091  0.03263306  0.02763302  0.02284294 -0.02309746
   0.03304246  0.00357042  0.03713256  0.11782747 -0.05589237 -0.13513432
   0.13862543  0.03316561  0.03258423  0.09027854 -0.03464279  0.06951088
   0.03909435  0.00957567 -0.18972519  0.02648583  0.09312271  0.07315302
   0.01988347 -0.08369503 -0.03421795  0.0155627  -0.05339612  0.05237119
  -0.02458737 -0.05842055 -0.03118261 -0.04880786 -0.1647505  -0.09512632
   0.03572048 -0.05937243  0.04727435  0.09332737]]

Layer 2:
[0. 0. 0. 0. 0. 0. 0. 0. 0. 0. 0. 0. 0. 0. 0. 0. 0. 0. 0. 0. 0. 0. 0. 0.
 0. 0. 0. 0. 0. 0. 0. 0. 0. 0. 0. 0. 0. 0. 0. 0. 0. 0. 0. 0. 0. 0. 0. 0.
 0. 0. 0. 0. 0. 0. 0. 0. 0. 0. 0. 0. 0. 0. 0. 0. 0. 0. 0. 0. 0. 0. 0. 0.
 0. 0. 0. 0. 0. 0. 0. 0. 0. 0. 0. 0. 0. 0. 0. 0. 0. 0. 0. 0. 0. 0. 0. 0.
 0. 0. 0. 0.]

Layer 3:
[[-2.3361713e-01]
 [ 4.4585869e-01]
 [-1.5460130e+00]
 [-7.1946901e-01]
 [-5.1462102e-01]
 [-7.2174799e-01]
 [ 2.3301946e-01]
 [ 1.0228986e+00]
 [-3.3928444e+00]
 [-5.7399535e-01]
 [-4.5442775e-01]
 [-1.5920488e+00]
 [-5.4032106e+00]
 [-2.6844668e-01]
 [ 1.8627727e+00]
 [ 1.5375099e+00]
 [-4.7828525e-01]
 [-3.8069129e-01]
 [-1.3941377e+00]
 [-2.6644232e+00]
 [ 8.4715158e-01]
 [ 1.3796418e+00]
 [ 6.9660306e+00]
 [-1.2193848e+00]
 [-3.7001598e-01]
 [ 3.4934160e-01]
 [-9.6591991e-01]
 [ 3.6354165e+00]
 [ 1.0270419e+00]
 [ 7.2898984e-01]
 [-1.2846105e+00]
 [ 4.7650781e+00]
 [ 2.2914729e+00]
 [-3.8938007e+00]
 [ 6.0267317e-01]
 [ 5.4141027e-01]
 [ 1.3770637e-01]
 [ 8.9798510e-01]
 [-5.0785834e-01]
 [ 6.0639852e-01]
 [-4.8680878e+00]
 [ 7.5811848e-02]
 [-3.4217906e-01]
 [-4.8520145e-01]
 [ 4.8665521e-01]
 [ 7.3975241e-01]
 [-4.7395250e-01]
 [-9.2705351e-01]
 [-1.9197992e+00]
 [ 4.0105480e-01]
 [ 1.6170874e-01]
 [ 1.5130231e-01]
 [ 9.2538303e-01]
 [ 8.7037235e-01]
 [-3.0140429e+00]
 [ 1.1032248e+00]
 [ 1.2590781e+00]
 [-6.2271800e-02]
 [ 7.0944715e-01]
 [-1.8350047e+00]
 [-1.0653021e+00]
 [-2.4047453e+00]
 [ 2.9153724e+00]
 [ 1.5634416e+00]
 [ 3.7209566e+00]
 [-1.6683563e+00]
 [ 5.5822754e+00]
 [ 8.4251362e-01]
 [ 1.3297452e-01]
 [ 3.5022250e-01]
 [ 4.1474542e-01]
 [-6.6519988e-01]
 [ 3.7447244e-01]
 [ 1.2099692e+00]
 [ 1.0993441e+00]
 [-4.1482441e-02]
 [-1.3178514e+00]
 [ 2.0182884e-01]
 [ 5.5940229e-01]
 [ 4.2513528e+00]
 [-2.8720495e-01]
 [ 2.3444796e+00]
 [ 1.9018027e-01]
 [-2.1188615e-01]
 [ 3.6211579e+00]
 [ 7.1602958e-01]
 [-1.9602684e+00]
 [ 2.2540407e+00]
 [-1.2757155e+00]
 [-6.6256202e-05]
 [-7.9326046e-01]
 [-3.0253172e-01]
 [-1.7570926e+00]
 [-3.6484268e-01]
 [-1.8138708e+00]
 [ 1.0448934e+00]
 [-7.5997734e-01]
 [ 1.8351042e+00]
 [ 4.2560598e-01]
 [-3.2845956e-01]]

Layer 4:
[0.1179212]



Entrenamiento 4:
------------------------------------------------------------------------

Layer 0:
[[ 0.01856897 -0.11135401  0.02010014 ... -0.00876697  0.05750625
  -0.0992898 ]
 [ 0.          0.          0.         ...  0.11712269  0.10766722
   0.        ]
 [ 0.          0.          0.         ...  0.          0.01017458
   0.        ]
 ...
 [ 0.          0.          0.         ...  0.         -0.00059172
  -0.09734078]
 [ 0.00059043  0.          0.         ...  0.         -0.05778326
   0.        ]
 [ 0.          0.          0.1043616  ...  0.08810823  0.06809408
   0.        ]]

Layer 1:
[[ 0.08418494 -0.08467447  0.03732584  0.05869002  0.07755668 -0.00129675
   0.05977086 -0.08580748 -0.00808084  0.05412387  0.04670785  0.05569715
  -0.01892931  0.15814109  0.02363214  0.03578486  0.05251755  0.04595396
  -0.01483839 -0.02762249  0.01569586  0.02112216  0.01433758 -0.04199359
   0.07675787  0.06249537  0.08506727  0.02342576  0.04760216  0.14507951
  -0.14197712  0.01078871  0.01708458 -0.00663079  0.17290202  0.11536147
  -0.11363835  0.06259077  0.08633072  0.07878649 -0.01993375 -0.09424227
  -0.02547417 -0.03796608 -0.08191342 -0.05963286 -0.07222159 -0.02874461
  -0.01118246 -0.05519197  0.02958324 -0.04850402  0.01375037  0.06104109
  -0.02257297 -0.08640479  0.02897014  0.04964225  0.02962034 -0.02257634
   0.04481524 -0.00619091  0.03263306  0.02763302  0.02284294 -0.02309746
   0.03304246  0.00357042  0.03713256  0.11782747 -0.05589237 -0.13513432
   0.13862543  0.03316561  0.03258423  0.09027854 -0.03464279  0.06951088
   0.03909435  0.00957567 -0.18972519  0.02648583  0.09312271  0.07315302
   0.01988347 -0.08369503 -0.03421795  0.0155627  -0.05339612  0.05237119
  -0.02458737 -0.05842055 -0.03118261 -0.04880786 -0.1647505  -0.09512632
   0.03572048 -0.05937243  0.04727435  0.09332737]]

Layer 2:
[0. 0. 0. 0. 0. 0. 0. 0. 0. 0. 0. 0. 0. 0. 0. 0. 0. 0. 0. 0. 0. 0. 0. 0.
 0. 0. 0. 0. 0. 0. 0. 0. 0. 0. 0. 0. 0. 0. 0. 0. 0. 0. 0. 0. 0. 0. 0. 0.
 0. 0. 0. 0. 0. 0. 0. 0. 0. 0. 0. 0. 0. 0. 0. 0. 0. 0. 0. 0. 0. 0. 0. 0.
 0. 0. 0. 0. 0. 0. 0. 0. 0. 0. 0. 0. 0. 0. 0. 0. 0. 0. 0. 0. 0. 0. 0. 0.
 0. 0. 0. 0.]

Layer 3:
[[-2.55144417e-01]
 [ 3.12454462e-01]
 [-1.36985981e+00]
 [-1.06972420e+00]
 [-1.03825009e+00]
 [-8.74583185e-01]
 [ 3.33577245e-01]
 [ 1.13539100e+00]
 [-4.59740782e+00]
 [-1.11961234e+00]
 [-2.74613410e-01]
 [-2.05096173e+00]
 [-7.10134172e+00]
 [-8.86530802e-02]
 [ 2.28465343e+00]
 [ 1.03764772e+00]
 [-7.24203646e-01]
 [-5.26332319e-01]
 [-1.81769145e+00]
 [-2.73864388e+00]
 [ 1.28285766e+00]
 [ 1.50696659e+00]
 [ 9.18925858e+00]
 [-8.97138000e-01]
 [-3.45506310e-01]
 [ 3.48827213e-01]
 [-1.00037920e+00]
 [ 4.54857397e+00]
 [ 3.70120198e-01]
 [ 9.22966003e-01]
 [-1.51870215e+00]
 [ 6.26371622e+00]
 [ 3.42327142e+00]
 [-5.27860498e+00]
 [ 8.26745272e-01]
 [ 7.62515128e-01]
 [ 7.74096772e-02]
 [ 5.58991909e-01]
 [-6.51250303e-01]
 [ 8.46534491e-01]
 [-6.19467258e+00]
 [ 1.73682332e-01]
 [-2.35183313e-01]
 [-1.21603765e-01]
 [ 5.10542274e-01]
 [ 1.04610205e+00]
 [-6.83423579e-01]
 [-9.91586387e-01]
 [-2.49557209e+00]
 [ 4.03728813e-01]
 [ 8.87789112e-03]
 [ 6.64977729e-01]
 [ 1.31007910e+00]
 [ 6.03879631e-01]
 [-3.13803554e+00]
 [ 1.23774815e+00]
 [ 1.13142133e+00]
 [-6.29305616e-02]
 [ 7.57543206e-01]
 [-2.10322452e+00]
 [-1.41683006e+00]
 [-3.16662526e+00]
 [ 2.65054011e+00]
 [ 1.43197453e+00]
 [ 4.32974291e+00]
 [-1.85831225e+00]
 [ 5.92494535e+00]
 [ 1.48354638e+00]
 [-7.77588189e-02]
 [ 4.48043883e-01]
 [ 8.12261641e-01]
 [-8.86370897e-01]
 [ 5.38651884e-01]
 [ 1.36735785e+00]
 [ 9.86165166e-01]
 [ 2.22125903e-01]
 [-1.49162805e+00]
 [ 2.42475197e-01]
 [ 4.40198779e-01]
 [ 6.12625742e+00]
 [-4.36566800e-01]
 [ 2.58101654e+00]
 [ 2.91526139e-01]
 [-5.39555490e-01]
 [ 4.59588194e+00]
 [ 1.40397334e+00]
 [-1.65648150e+00]
 [ 2.94526124e+00]
 [-7.77279675e-01]
 [ 5.86325936e-02]
 [-9.23170924e-01]
 [-2.04297319e-01]
 [-1.77819037e+00]
 [-6.52353093e-02]
 [-2.03062963e+00]
 [ 1.23531818e+00]
 [-7.67631352e-01]
 [ 2.08268237e+00]
 [-4.75678474e-01]
 [-2.98243195e-01]]

Layer 4:
[0.16276394]



Consenso 4:
------------------------------------------------------------------------

Layer 0:
[[ 0.01856897 -0.11135401  0.02010014 ... -0.00876697  0.05750625
  -0.0992898 ]
 [ 0.          0.          0.         ...  0.11712269  0.10766722
   0.        ]
 [ 0.          0.          0.         ...  0.          0.01017458
   0.        ]
 ...
 [ 0.          0.          0.         ...  0.         -0.00059172
  -0.09734078]
 [ 0.00059043  0.          0.         ...  0.         -0.05778326
   0.        ]
 [ 0.          0.          0.1043616  ...  0.08810823  0.06809408
   0.        ]]

Layer 1:
[[ 0.08418494 -0.08467447  0.03732584  0.05869002  0.07755668 -0.00129675
   0.05977086 -0.08580748 -0.00808084  0.05412387  0.04670785  0.05569715
  -0.01892931  0.15814109  0.02363214  0.03578486  0.05251755  0.04595396
  -0.01483839 -0.02762249  0.01569586  0.02112216  0.01433758 -0.04199359
   0.07675787  0.06249537  0.08506727  0.02342576  0.04760216  0.14507951
  -0.14197712  0.01078871  0.01708458 -0.00663079  0.17290202  0.11536147
  -0.11363835  0.06259077  0.08633072  0.07878649 -0.01993375 -0.09424227
  -0.02547417 -0.03796608 -0.08191342 -0.05963286 -0.07222159 -0.02874461
  -0.01118246 -0.05519197  0.02958324 -0.04850402  0.01375037  0.06104109
  -0.02257297 -0.08640479  0.02897014  0.04964225  0.02962034 -0.02257634
   0.04481524 -0.00619091  0.03263306  0.02763302  0.02284294 -0.02309746
   0.03304246  0.00357042  0.03713256  0.11782747 -0.05589237 -0.13513432
   0.13862543  0.03316561  0.03258423  0.09027854 -0.03464279  0.06951088
   0.03909435  0.00957567 -0.18972519  0.02648583  0.09312271  0.07315302
   0.01988347 -0.08369503 -0.03421795  0.0155627  -0.05339612  0.05237119
  -0.02458737 -0.05842055 -0.03118261 -0.04880786 -0.1647505  -0.09512632
   0.03572048 -0.05937243  0.04727435  0.09332737]]

Layer 2:
[0. 0. 0. 0. 0. 0. 0. 0. 0. 0. 0. 0. 0. 0. 0. 0. 0. 0. 0. 0. 0. 0. 0. 0.
 0. 0. 0. 0. 0. 0. 0. 0. 0. 0. 0. 0. 0. 0. 0. 0. 0. 0. 0. 0. 0. 0. 0. 0.
 0. 0. 0. 0. 0. 0. 0. 0. 0. 0. 0. 0. 0. 0. 0. 0. 0. 0. 0. 0. 0. 0. 0. 0.
 0. 0. 0. 0. 0. 0. 0. 0. 0. 0. 0. 0. 0. 0. 0. 0. 0. 0. 0. 0. 0. 0. 0. 0.
 0. 0. 0. 0.]

Layer 3:
[[-2.0973827e-01]
 [ 3.1463227e-01]
 [-1.3886238e+00]
 [-9.3692893e-01]
 [-8.3848500e-01]
 [-7.3857516e-01]
 [ 3.5000440e-01]
 [ 9.9174541e-01]
 [-4.0403485e+00]
 [-9.3105245e-01]
 [-2.8738609e-01]
 [-1.9573117e+00]
 [-6.1837354e+00]
 [-1.1366279e-01]
 [ 2.0392132e+00]
 [ 1.1397254e+00]
 [-5.7685214e-01]
 [-4.1970336e-01]
 [-1.6261054e+00]
 [-2.5790398e+00]
 [ 1.1152788e+00]
 [ 1.5061575e+00]
 [ 8.0606146e+00]
 [-9.2439336e-01]
 [-2.5024527e-01]
 [ 3.6450747e-01]
 [-9.1892266e-01]
 [ 4.0910087e+00]
 [ 4.4226655e-01]
 [ 8.0262810e-01]
 [-1.4096550e+00]
 [ 5.6301823e+00]
 [ 2.8047760e+00]
 [-4.5110650e+00]
 [ 7.2019726e-01]
 [ 6.7843115e-01]
 [ 1.8972049e-02]
 [ 7.0804417e-01]
 [-5.3445810e-01]
 [ 7.9514104e-01]
 [-5.5107436e+00]
 [ 7.4483141e-02]
 [-2.2567458e-01]
 [-1.5056531e-01]
 [ 4.2821673e-01]
 [ 9.0944898e-01]
 [-6.2526345e-01]
 [-9.9445337e-01]
 [-2.2258511e+00]
 [ 3.7231204e-01]
 [ 9.5687456e-02]
 [ 5.6687856e-01]
 [ 1.1954401e+00]
 [ 6.8374938e-01]
 [-3.0499213e+00]
 [ 1.1202401e+00]
 [ 1.1723255e+00]
 [ 2.3902187e-03]
 [ 7.4903494e-01]
 [-1.8811136e+00]
 [-1.2642967e+00]
 [-2.8305631e+00]
 [ 2.5707204e+00]
 [ 1.4230107e+00]
 [ 3.9874942e+00]
 [-1.7596807e+00]
 [ 5.5077066e+00]
 [ 1.1454335e+00]
 [ 2.5637385e-03]
 [ 4.8073858e-01]
 [ 6.4778203e-01]
 [-7.7169597e-01]
 [ 4.9194661e-01]
 [ 1.2831284e+00]
 [ 9.7474110e-01]
 [ 1.5321471e-01]
 [-1.3812548e+00]
 [ 2.4941924e-01]
 [ 4.5829371e-01]
 [ 5.2903070e+00]
 [-3.5063171e-01]
 [ 2.4048982e+00]
 [ 2.8737360e-01]
 [-3.7399295e-01]
 [ 4.1279273e+00]
 [ 1.2040068e+00]
 [-1.6849673e+00]
 [ 2.5829887e+00]
 [-8.5684353e-01]
 [ 8.4438078e-02]
 [-8.7442964e-01]
 [-2.3758931e-01]
 [-1.7759240e+00]
 [-2.1072277e-01]
 [-1.8054833e+00]
 [ 1.0876596e+00]
 [-7.3251152e-01]
 [ 2.0069911e+00]
 [-3.1939527e-01]
 [-2.2786416e-01]]

Layer 4:
[0.13810152]



Entrenamiento 5:
------------------------------------------------------------------------

Layer 0:
[[ 0.01856897 -0.11135401  0.02010014 ... -0.00876697  0.05750625
  -0.0992898 ]
 [ 0.          0.          0.         ...  0.11712269  0.10766722
   0.        ]
 [ 0.          0.          0.         ...  0.          0.01017458
   0.        ]
 ...
 [ 0.          0.          0.         ...  0.         -0.00059172
  -0.09734078]
 [ 0.00059043  0.          0.         ...  0.         -0.05778326
   0.        ]
 [ 0.          0.          0.1043616  ...  0.08810823  0.06809408
   0.        ]]

Layer 1:
[[ 0.08418494 -0.08467447  0.03732584  0.05869002  0.07755668 -0.00129675
   0.05977086 -0.08580748 -0.00808084  0.05412387  0.04670785  0.05569715
  -0.01892931  0.15814109  0.02363214  0.03578486  0.05251755  0.04595396
  -0.01483839 -0.02762249  0.01569586  0.02112216  0.01433758 -0.04199359
   0.07675787  0.06249537  0.08506727  0.02342576  0.04760216  0.14507951
  -0.14197712  0.01078871  0.01708458 -0.00663079  0.17290202  0.11536147
  -0.11363835  0.06259077  0.08633072  0.07878649 -0.01993375 -0.09424227
  -0.02547417 -0.03796608 -0.08191342 -0.05963286 -0.07222159 -0.02874461
  -0.01118246 -0.05519197  0.02958324 -0.04850402  0.01375037  0.06104109
  -0.02257297 -0.08640479  0.02897014  0.04964225  0.02962034 -0.02257634
   0.04481524 -0.00619091  0.03263306  0.02763302  0.02284294 -0.02309746
   0.03304246  0.00357042  0.03713256  0.11782747 -0.05589237 -0.13513432
   0.13862543  0.03316561  0.03258423  0.09027854 -0.03464279  0.06951088
   0.03909435  0.00957567 -0.18972519  0.02648583  0.09312271  0.07315302
   0.01988347 -0.08369503 -0.03421795  0.0155627  -0.05339612  0.05237119
  -0.02458737 -0.05842055 -0.03118261 -0.04880786 -0.1647505  -0.09512632
   0.03572048 -0.05937243  0.04727435  0.09332737]]

Layer 2:
[0. 0. 0. 0. 0. 0. 0. 0. 0. 0. 0. 0. 0. 0. 0. 0. 0. 0. 0. 0. 0. 0. 0. 0.
 0. 0. 0. 0. 0. 0. 0. 0. 0. 0. 0. 0. 0. 0. 0. 0. 0. 0. 0. 0. 0. 0. 0. 0.
 0. 0. 0. 0. 0. 0. 0. 0. 0. 0. 0. 0. 0. 0. 0. 0. 0. 0. 0. 0. 0. 0. 0. 0.
 0. 0. 0. 0. 0. 0. 0. 0. 0. 0. 0. 0. 0. 0. 0. 0. 0. 0. 0. 0. 0. 0. 0. 0.
 0. 0. 0. 0.]

Layer 3:
[[-0.18281177]
 [ 0.18982138]
 [-1.2599149 ]
 [-1.1668674 ]
 [-1.1464221 ]
 [-0.84402084]
 [ 0.44837296]
 [ 0.92353714]
 [-5.132165  ]
 [-1.3045433 ]
 [-0.13637975]
 [-2.345115  ]
 [-7.6129484 ]
 [ 0.05625079]
 [ 2.3421266 ]
 [ 0.7062965 ]
 [-0.67205334]
 [-0.46516708]
 [-2.010303  ]
 [-2.541495  ]
 [ 1.4460461 ]
 [ 1.6291829 ]
 [ 9.996441  ]
 [-0.57654357]
 [-0.11222803]
 [ 0.3584547 ]
 [-0.855323  ]
 [ 4.789827  ]
 [-0.16564548]
 [ 0.83609706]
 [-1.4982913 ]
 [ 7.061814  ]
 [ 3.7530618 ]
 [-5.819457  ]
 [ 0.81364596]
 [ 0.78856397]
 [-0.13864985]
 [ 0.5262577 ]
 [-0.5362607 ]
 [ 0.95916635]
 [-6.6036887 ]
 [ 0.0449405 ]
 [-0.12653631]
 [ 0.23295479]
 [ 0.34953526]
 [ 1.0833578 ]
 [-0.7468623 ]
 [-1.0643066 ]
 [-2.7832277 ]
 [ 0.36397424]
 [ 0.02601931]
 [ 1.0384676 ]
 [ 1.5333618 ]
 [ 0.49843848]
 [-3.1316972 ]
 [ 1.1078523 ]
 [ 1.0778668 ]
 [ 0.06321943]
 [ 0.7652546 ]
 [-2.032061  ]
 [-1.4761647 ]
 [-3.5745506 ]
 [ 2.242013  ]
 [ 1.274878  ]
 [ 4.427867  ]
 [-1.8742445 ]
 [ 5.5709677 ]
 [ 1.836855  ]
 [-0.15115413]
 [ 0.63479173]
 [ 0.8891025 ]
 [-0.8405971 ]
 [ 0.60864466]
 [ 1.3541627 ]
 [ 0.82550716]
 [ 0.3183474 ]
 [-1.4173304 ]
 [ 0.28882384]
 [ 0.30864465]
 [ 7.024791  ]
 [-0.41098943]
 [ 2.5166333 ]
 [ 0.3838114 ]
 [-0.5195376 ]
 [ 4.9643908 ]
 [ 1.6890446 ]
 [-1.3717804 ]
 [ 3.1780229 ]
 [-0.37409937]
 [ 0.15548752]
 [-0.96909267]
 [-0.15229234]
 [-1.7771512 ]
 [-0.04464759]
 [-1.6967114 ]
 [ 1.0848334 ]
 [-0.72093296]
 [ 2.1813402 ]
 [-1.075707  ]
 [-0.09562105]]

Layer 4:
[0.13450538]



