:
------------------------------------------------------------------------



Entrenamiento 0:
------------------------------------------------------------------------

Layer 0:
[[ 0.          0.          0.         ... -0.         -0.
  -0.        ]
 [-0.          0.          0.         ... -0.         -0.
   0.        ]
 [ 0.         -0.45115075 -0.         ...  0.         -0.
  -0.        ]
 ...
 [-0.          0.         -0.         ... -0.         -0.
  -0.        ]
 [ 0.         -0.          0.         ...  0.          0.
  -0.        ]
 [ 0.          0.23892668 -0.         ... -0.          0.
  -0.        ]]

Layer 1:
[[ 0.03106391  0.06077197 -0.23616944 -0.16532877 -0.03923142 -0.22815205
  -0.10610709 -0.21842828 -0.00200354  0.07239822 -0.18738098 -0.05064654
   0.04520187 -0.08579879 -0.14129618 -0.0022741   0.12457365  0.0860202
   0.07776657 -0.1897538   0.05342498  0.21451578  0.08634147 -0.19107309
   0.00685796  0.12257761  0.05662885 -0.04723622 -0.19454357  0.19862202
   0.2271927   0.12265885  0.10546172  0.10622987 -0.15878513 -0.08484967
   0.240751    0.15501055 -0.21341108  0.16754058  0.04229182  0.10589564
  -0.02281526 -0.07998441 -0.14641657 -0.01544793  0.1116567   0.08191165
   0.07767192  0.18877959 -0.00846833 -0.09027331 -0.24158174  0.07861203
  -0.14319174 -0.2064377  -0.19706999  0.08607656  0.01690397 -0.12227763
  -0.13975921 -0.14434052 -0.18588364 -0.05962846  0.04100722 -0.12769109
   0.00316069  0.21730652 -0.03601483 -0.06164868  0.16898742  0.17132148
   0.0872784  -0.11082044  0.09306377  0.02942416  0.13344398  0.05414096
   0.02219597  0.05139059 -0.0110513  -0.23599337 -0.22719194  0.07365635
  -0.18206172 -0.00713673 -0.2405623   0.15834069 -0.06290288 -0.13947794
   0.2413289  -0.11972797 -0.1934855  -0.05952381  0.01843378  0.1310533
  -0.11691043  0.00687611  0.22478437 -0.07690264]]

Layer 2:
[0. 0. 0. 0. 0. 0. 0. 0. 0. 0. 0. 0. 0. 0. 0. 0. 0. 0. 0. 0. 0. 0. 0. 0.
 0. 0. 0. 0. 0. 0. 0. 0. 0. 0. 0. 0. 0. 0. 0. 0. 0. 0. 0. 0. 0. 0. 0. 0.
 0. 0. 0. 0. 0. 0. 0. 0. 0. 0. 0. 0. 0. 0. 0. 0. 0. 0. 0. 0. 0. 0. 0. 0.
 0. 0. 0. 0. 0. 0. 0. 0. 0. 0. 0. 0. 0. 0. 0. 0. 0. 0. 0. 0. 0. 0. 0. 0.
 0. 0. 0. 0.]

Layer 3:
[[ 0.3704595 ]
 [ 0.21392691]
 [-0.24861822]
 [-0.03656179]
 [-0.97526515]
 [ 0.42672047]
 [-0.06367865]
 [-0.02018012]
 [-0.26981047]
 [ 1.6980196 ]
 [ 0.0382286 ]
 [-0.398916  ]
 [ 0.8023744 ]
 [-1.8182926 ]
 [-0.35647216]
 [-0.78457946]
 [ 0.05396518]
 [ 0.33288574]
 [ 0.8543654 ]
 [-0.15942432]
 [ 2.1338468 ]
 [-0.44285402]
 [ 0.5922644 ]
 [-0.0904057 ]
 [-1.498341  ]
 [ 0.2881977 ]
 [ 1.0272685 ]
 [-2.09115   ]
 [ 0.0613987 ]
 [ 0.32238072]
 [ 0.04426546]
 [ 0.93821824]
 [-0.03008314]
 [ 0.16144101]
 [ 0.0948671 ]
 [-0.26204407]
 [-0.18917954]
 [-0.1943496 ]
 [-0.02235498]
 [ 0.10933761]
 [ 0.58094615]
 [ 0.3038042 ]
 [-2.1771617 ]
 [-0.21113007]
 [-0.19063736]
 [-1.9654766 ]
 [ 0.33139113]
 [ 0.51817006]
 [ 1.9944892 ]
 [-0.29238638]
 [-1.1114277 ]
 [-0.08914551]
 [ 0.03051487]
 [ 0.4375453 ]
 [-0.15826768]
 [ 0.05053082]
 [ 0.09152597]
 [-0.05261776]
 [ 0.32404426]
 [-0.08491658]
 [-0.24453795]
 [ 0.06207212]
 [ 0.00341677]
 [-0.37549862]
 [ 0.4407145 ]
 [-0.20184053]
 [ 0.79053223]
 [ 0.19940451]
 [-0.9469872 ]
 [-2.1476305 ]
 [ 0.2783146 ]
 [ 0.10447442]
 [ 0.9764794 ]
 [-0.13661194]
 [ 0.4883692 ]
 [ 1.2263237 ]
 [ 0.36794215]
 [ 1.1249422 ]
 [ 0.96190274]
 [ 0.43571576]
 [ 0.6275293 ]
 [ 0.1453352 ]
 [ 0.10130963]
 [ 0.37164146]
 [-0.2550869 ]
 [-0.12971626]
 [ 0.12426223]
 [ 0.20627429]
 [-0.39242336]
 [-0.17290394]
 [ 0.17768103]
 [-0.08598565]
 [-0.02549664]
 [-0.33091462]
 [ 0.15090412]
 [ 0.23716287]
 [-0.24406919]
 [ 0.40654647]
 [ 0.0793339 ]
 [-0.3262137 ]]

Layer 4:
[0.04589536]



Consenso 0:
------------------------------------------------------------------------

Layer 0:
[[ 0.01768827 -0.106209    0.01633883 ... -0.00834972  0.05476958
  -0.09454037]
 [ 0.          0.          0.         ...  0.11479066  0.10264022
   0.        ]
 [-0.0062734  -0.0100876   0.         ...  0.          0.00968722
  -0.00106959]
 ...
 [ 0.          0.          0.00041214 ...  0.00068932 -0.00056355
  -0.092868  ]
 [ 0.00056251  0.00780515  0.         ...  0.         -0.05503314
   0.00081824]
 [ 0.          0.00438393  0.09956621 ...  0.08405968  0.06496517
   0.        ]]

Layer 1:
[[ 0.08323088 -0.08018325  0.03012098  0.05117037  0.06936169 -0.00209445
   0.05509132 -0.0850115  -0.00394116  0.05644782  0.04012423  0.05346246
  -0.01906813  0.15013246  0.02122923  0.03346344  0.05061402  0.04286288
  -0.01312455 -0.02634752  0.01617757  0.02353166  0.01365815 -0.03946352
   0.07096     0.05845464  0.08208424  0.0230627   0.04081677  0.1463669
  -0.13164075  0.01485493  0.01752289 -0.00233773  0.16411299  0.11049892
  -0.10119402  0.06131024  0.07816913  0.07545335 -0.01973222 -0.08791003
  -0.02381236 -0.03800425 -0.07811107 -0.05852149 -0.06915171 -0.02419009
  -0.01042271 -0.04594669  0.02656399 -0.04767029  0.01092223  0.06069127
  -0.02589347 -0.08788355  0.02410843  0.04894475  0.02820584 -0.02223473
   0.03743671 -0.01113777  0.02653153  0.02665835  0.02839595 -0.02350225
   0.03383308  0.00706669  0.03521905  0.10679561 -0.05392018 -0.12989011
   0.13520057  0.03115426  0.03249245  0.08434879 -0.03483786  0.06197973
   0.03571276  0.00997394 -0.18093711  0.01544985  0.08366039  0.07324859
   0.01454886 -0.07833701 -0.03474955  0.01677052 -0.04844712  0.0447239
  -0.02313622 -0.05536139 -0.03498018 -0.04906021 -0.15907773 -0.08780861
   0.03181751 -0.05376657  0.0512713   0.08462943]]

Layer 2:
[0. 0. 0. 0. 0. 0. 0. 0. 0. 0. 0. 0. 0. 0. 0. 0. 0. 0. 0. 0. 0. 0. 0. 0.
 0. 0. 0. 0. 0. 0. 0. 0. 0. 0. 0. 0. 0. 0. 0. 0. 0. 0. 0. 0. 0. 0. 0. 0.
 0. 0. 0. 0. 0. 0. 0. 0. 0. 0. 0. 0. 0. 0. 0. 0. 0. 0. 0. 0. 0. 0. 0. 0.
 0. 0. 0. 0. 0. 0. 0. 0. 0. 0. 0. 0. 0. 0. 0. 0. 0. 0. 0. 0. 0. 0. 0. 0.
 0. 0. 0. 0.]

Layer 3:
[[ 0.06846961]
 [ 0.50078404]
 [-1.8528323 ]
 [-0.15650693]
 [ 0.6375316 ]
 [-0.02803441]
 [ 0.08086891]
 [ 0.12885433]
 [-0.34821135]
 [ 0.2631465 ]
 [-0.69362336]
 [-1.1389548 ]
 [ 0.73736584]
 [-0.12757824]
 [-0.65552366]
 [ 0.8005245 ]
 [ 0.1356151 ]
 [-0.13599701]
 [ 0.24850278]
 [-0.35264775]
 [-0.85775894]
 [ 0.5422406 ]
 [ 0.36087298]
 [-0.4486956 ]
 [ 0.04527913]
 [ 0.24331965]
 [-0.42783588]
 [-0.03124695]
 [ 0.51511276]
 [ 0.08839291]
 [-0.6940938 ]
 [ 0.46130732]
 [-0.835841  ]
 [-0.3885972 ]
 [ 0.09998378]
 [ 0.03691288]
 [-0.33265325]
 [ 1.5936105 ]
 [ 0.23877001]
 [ 0.11653976]
 [ 0.08721328]
 [-0.4879884 ]
 [ 0.84200156]
 [ 0.4188862 ]
 [ 0.02357925]
 [ 0.06161403]
 [ 0.06481732]
 [-0.14066228]
 [ 0.29596338]
 [ 0.4126079 ]
 [-0.09664946]
 [ 0.17301789]
 [-0.41789836]
 [ 1.2412221 ]
 [-1.2774535 ]
 [ 0.3497442 ]
 [ 0.5789215 ]
 [ 0.040506  ]
 [ 0.02057037]
 [ 0.5930993 ]
 [-0.61167145]
 [-0.10401807]
 [ 1.3231484 ]
 [ 0.3729869 ]
 [ 0.18626429]
 [-0.08496328]
 [ 0.7449427 ]
 [ 0.381415  ]
 [-0.04712411]
 [ 0.6424619 ]
 [-0.24271765]
 [-0.01956956]
 [ 0.2490566 ]
 [-0.08567051]
 [ 0.17566615]
 [-0.54983675]
 [-0.07278891]
 [ 0.15698719]
 [ 0.08834504]
 [-0.08368301]
 [-0.13978377]
 [ 0.20287788]
 [ 0.16817236]
 [ 0.7442906 ]
 [ 0.59029526]
 [-0.586966  ]
 [-1.0013201 ]
 [-0.6560866 ]
 [-1.1292312 ]
 [-0.13242157]
 [ 0.17696501]
 [-0.24234633]
 [-0.9776238 ]
 [-0.7612303 ]
 [-0.3994431 ]
 [ 0.04560481]
 [-1.0619644 ]
 [ 1.279736  ]
 [ 0.5849597 ]
 [ 0.13494875]]

Layer 4:
[-0.19130969]



Entrenamiento 1:
------------------------------------------------------------------------

Layer 0:
[[ 0.01768827 -0.106209    0.01633883 ... -0.00834972  0.05476958
  -0.09454037]
 [ 0.          0.          0.         ...  0.11479066  0.10264022
   0.        ]
 [-0.0062734  -0.0100876   0.         ...  0.          0.00968722
  -0.00106959]
 ...
 [ 0.          0.          0.00041214 ...  0.00068932 -0.00056355
  -0.092868  ]
 [ 0.00056251  0.00780515  0.         ...  0.         -0.05503314
   0.00081824]
 [ 0.          0.00438393  0.09956621 ...  0.08405968  0.06496517
   0.        ]]

Layer 1:
[[ 0.08323088 -0.08018325  0.03012098  0.05117037  0.06936169 -0.00209445
   0.05509132 -0.0850115  -0.00394116  0.05644782  0.04012423  0.05346246
  -0.01906813  0.15013246  0.02122923  0.03346344  0.05061402  0.04286288
  -0.01312455 -0.02634752  0.01617757  0.02353166  0.01365815 -0.03946352
   0.07096     0.05845464  0.08208424  0.0230627   0.04081677  0.1463669
  -0.13164075  0.01485493  0.01752289 -0.00233773  0.16411299  0.11049892
  -0.10119402  0.06131024  0.07816913  0.07545335 -0.01973222 -0.08791003
  -0.02381236 -0.03800425 -0.07811107 -0.05852149 -0.06915171 -0.02419009
  -0.01042271 -0.04594669  0.02656399 -0.04767029  0.01092223  0.06069127
  -0.02589347 -0.08788355  0.02410843  0.04894475  0.02820584 -0.02223473
   0.03743671 -0.01113777  0.02653153  0.02665835  0.02839595 -0.02350225
   0.03383308  0.00706669  0.03521905  0.10679561 -0.05392018 -0.12989011
   0.13520057  0.03115426  0.03249245  0.08434879 -0.03483786  0.06197973
   0.03571276  0.00997394 -0.18093711  0.01544985  0.08366039  0.07324859
   0.01454886 -0.07833701 -0.03474955  0.01677052 -0.04844712  0.0447239
  -0.02313622 -0.05536139 -0.03498018 -0.04906021 -0.15907773 -0.08780861
   0.03181751 -0.05376657  0.0512713   0.08462943]]

Layer 2:
[0. 0. 0. 0. 0. 0. 0. 0. 0. 0. 0. 0. 0. 0. 0. 0. 0. 0. 0. 0. 0. 0. 0. 0.
 0. 0. 0. 0. 0. 0. 0. 0. 0. 0. 0. 0. 0. 0. 0. 0. 0. 0. 0. 0. 0. 0. 0. 0.
 0. 0. 0. 0. 0. 0. 0. 0. 0. 0. 0. 0. 0. 0. 0. 0. 0. 0. 0. 0. 0. 0. 0. 0.
 0. 0. 0. 0. 0. 0. 0. 0. 0. 0. 0. 0. 0. 0. 0. 0. 0. 0. 0. 0. 0. 0. 0. 0.
 0. 0. 0. 0.]

Layer 3:
[[ 0.10094913]
 [ 0.5232398 ]
 [-1.6914158 ]
 [ 0.4744305 ]
 [ 1.2577918 ]
 [ 0.0148883 ]
 [ 0.23172796]
 [ 0.09983766]
 [-0.573264  ]
 [ 0.78726345]
 [-0.5751676 ]
 [-0.61388713]
 [ 0.03314033]
 [-0.37213552]
 [-0.15559377]
 [ 3.1068277 ]
 [ 0.40257987]
 [ 0.14849417]
 [-0.40503812]
 [-0.92658025]
 [-0.3011148 ]
 [ 0.8334433 ]
 [ 0.5356063 ]
 [-0.9283304 ]
 [ 0.2668816 ]
 [ 0.31537452]
 [-0.33196878]
 [ 0.56649345]
 [ 1.4324442 ]
 [-0.13866578]
 [-0.5297297 ]
 [ 1.2445296 ]
 [-0.48489156]
 [-0.53354007]
 [-0.1397467 ]
 [-0.10388291]
 [-0.34822544]
 [ 1.9369972 ]
 [ 0.44041052]
 [ 0.03693483]
 [-0.56518954]
 [-0.55096465]
 [-0.8861149 ]
 [-0.30767086]
 [-0.01999724]
 [-0.6229615 ]
 [ 0.01613782]
 [-0.6289158 ]
 [-0.7278489 ]
 [ 0.13542306]
 [ 0.84565467]
 [-0.4583235 ]
 [-0.06946687]
 [ 1.5797541 ]
 [-1.8497214 ]
 [ 0.34575224]
 [ 1.1599895 ]
 [ 0.20219658]
 [ 0.3308108 ]
 [-0.0267427 ]
 [-0.11844203]
 [-0.69673723]
 [ 2.2830415 ]
 [ 0.9147244 ]
 [ 0.98926485]
 [-0.57551616]
 [ 2.6578014 ]
 [ 0.3546365 ]
 [ 0.3860719 ]
 [ 0.5051456 ]
 [-0.70466423]
 [ 0.13897918]
 [ 0.03262852]
 [ 0.2265155 ]
 [ 0.7420584 ]
 [-0.5586281 ]
 [-0.2775327 ]
 [ 0.32562736]
 [ 0.5679651 ]
 [ 0.10483194]
 [ 0.1787223 ]
 [ 0.5363424 ]
 [ 0.17366944]
 [ 0.9334837 ]
 [ 0.8359779 ]
 [-1.5145134 ]
 [-1.5503256 ]
 [-0.16310419]
 [-1.7702221 ]
 [ 0.1157879 ]
 [-0.21345462]
 [-0.3976285 ]
 [-1.2152647 ]
 [-1.1072118 ]
 [-0.27100182]
 [-0.1777589 ]
 [-0.6195119 ]
 [ 0.92255837]
 [ 1.4569969 ]
 [ 0.15764883]]

Layer 4:
[0.14696692]



Consenso 1:
------------------------------------------------------------------------

Layer 0:
[[ 1.85282733e-02 -1.11116275e-01  1.99263487e-02 ... -8.74769036e-03
   5.73798008e-02 -9.90703404e-02]
 [ 0.00000000e+00  0.00000000e+00  0.00000000e+00 ...  1.17014930e-01
   1.07434951e-01  0.00000000e+00]
 [-2.89865478e-04 -4.66102909e-04  0.00000000e+00 ...  0.00000000e+00
   1.01520615e-02 -4.94208070e-05]
 ...
 [ 0.00000000e+00  0.00000000e+00  1.90430419e-05 ...  3.18504863e-05
  -5.90414740e-04 -9.71341208e-02]
 [ 5.89137024e-04  3.60641076e-04  0.00000000e+00 ...  0.00000000e+00
  -5.76561913e-02  3.78071090e-05]
 [ 0.00000000e+00  2.02561961e-04  1.04140021e-01 ...  8.79211575e-02
   6.79495111e-02  0.00000000e+00]]

Layer 1:
[[ 0.08414085 -0.08446694  0.03699294  0.05834257  0.07717802 -0.00133361
   0.05955464 -0.0857707  -0.00788956  0.05423125  0.04640365  0.0555939
  -0.01893573  0.15777102  0.02352111  0.0356776   0.0524296   0.04581114
  -0.0147592  -0.02756358  0.01571812  0.02123349  0.01430619 -0.04187669
   0.07648998  0.06230867  0.08492944  0.02340898  0.04728864  0.145139
  -0.14149952  0.01097659  0.01710483 -0.00643243  0.17249592  0.1151368
  -0.11306336  0.06253161  0.08595361  0.07863248 -0.01992443 -0.09394968
  -0.02539738 -0.03796785 -0.08173773 -0.05958151 -0.07207974 -0.02853417
  -0.01114736 -0.05476478  0.02944374 -0.0484655   0.01361969  0.06102493
  -0.0227264  -0.08647311  0.02874551  0.04961002  0.02955499 -0.02256055
   0.0444743  -0.00641948  0.03235114  0.02758799  0.02309952 -0.02311617
   0.033079    0.00373197  0.03704414  0.11731773 -0.05580125 -0.13489202
   0.1384672   0.03307267  0.03257998  0.09000456 -0.03465179  0.06916289
   0.03893811  0.00959407 -0.18931913  0.02597591  0.09268551  0.07315743
   0.01963698 -0.08344746 -0.03424251  0.01561851 -0.05316745  0.05201785
  -0.02452032 -0.05827919 -0.03135808 -0.04881952 -0.16448839 -0.09478819
   0.03554013 -0.05911341  0.04745904  0.09292547]]

Layer 2:
[0. 0. 0. 0. 0. 0. 0. 0. 0. 0. 0. 0. 0. 0. 0. 0. 0. 0. 0. 0. 0. 0. 0. 0.
 0. 0. 0. 0. 0. 0. 0. 0. 0. 0. 0. 0. 0. 0. 0. 0. 0. 0. 0. 0. 0. 0. 0. 0.
 0. 0. 0. 0. 0. 0. 0. 0. 0. 0. 0. 0. 0. 0. 0. 0. 0. 0. 0. 0. 0. 0. 0. 0.
 0. 0. 0. 0. 0. 0. 0. 0. 0. 0. 0. 0. 0. 0. 0. 0. 0. 0. 0. 0. 0. 0. 0. 0.
 0. 0. 0. 0.]

Layer 3:
[[-0.10042338]
 [ 0.7660332 ]
 [-2.1147966 ]
 [ 0.19568014]
 [ 1.0229882 ]
 [-0.54148626]
 [-0.02616207]
 [ 0.21573065]
 [-1.7689134 ]
 [ 0.8454012 ]
 [-0.91250575]
 [-0.64138573]
 [-2.586342  ]
 [-0.5924829 ]
 [ 1.1394506 ]
 [ 2.716151  ]
 [ 0.38718712]
 [ 0.12303602]
 [-0.8545977 ]
 [-2.393454  ]
 [-0.14143074]
 [ 1.095971  ]
 [ 3.4889655 ]
 [-1.6208693 ]
 [-0.01709277]
 [ 0.1980454 ]
 [-0.5885295 ]
 [ 1.8384631 ]
 [ 2.4109774 ]
 [-0.29830757]
 [-0.26440543]
 [ 3.0129218 ]
 [ 0.65019953]
 [-2.477575  ]
 [-0.3025235 ]
 [-0.32639438]
 [-0.09643606]
 [ 2.0112283 ]
 [ 0.1831483 ]
 [-0.15008809]
 [-2.7936199 ]
 [-0.4728719 ]
 [-0.7356391 ]
 [-1.0271965 ]
 [ 0.14274177]
 [-0.14408188]
 [ 0.32519087]
 [-0.8724744 ]
 [-1.4324371 ]
 [ 0.47887868]
 [ 0.7020067 ]
 [-0.70660734]
 [ 0.27557504]
 [ 1.5736933 ]
 [-2.8314867 ]
 [ 0.4090866 ]
 [ 1.596187  ]
 [ 0.06250732]
 [ 0.4650882 ]
 [-1.3049686 ]
 [-0.05391047]
 [-1.6758982 ]
 [ 3.3302321 ]
 [ 1.7285218 ]
 [ 2.6619546 ]
 [-1.2094936 ]
 [ 4.679122  ]
 [ 0.4518202 ]
 [ 0.62405944]
 [ 0.36577755]
 [-0.70740557]
 [ 0.37222883]
 [-0.13798283]
 [ 0.66669816]
 [ 1.1452171 ]
 [-0.9288669 ]
 [-0.4987535 ]
 [ 0.02783032]
 [ 0.5229286 ]
 [ 1.6054974 ]
 [ 0.33946794]
 [ 1.7476499 ]
 [-0.07288238]
 [ 0.8819609 ]
 [ 2.2212725 ]
 [-1.0557396 ]
 [-2.4424357 ]
 [ 1.3512988 ]
 [-1.99964   ]
 [-0.14627874]
 [-0.47991765]
 [-0.38059995]
 [-1.5879989 ]
 [-1.2339118 ]
 [-0.00865823]
 [ 0.06533527]
 [-0.74212795]
 [ 1.1714512 ]
 [ 2.5369449 ]
 [-0.03618957]]

Layer 4:
[-0.13147053]



Entrenamiento 2:
------------------------------------------------------------------------

Layer 0:
[[ 1.85282733e-02 -1.11116275e-01  1.99263487e-02 ... -8.74769036e-03
   5.73798008e-02 -9.90703404e-02]
 [ 0.00000000e+00  0.00000000e+00  0.00000000e+00 ...  1.17014930e-01
   1.07434951e-01  0.00000000e+00]
 [-2.89865478e-04 -4.66102909e-04  0.00000000e+00 ...  0.00000000e+00
   1.01520615e-02 -4.94208070e-05]
 ...
 [ 0.00000000e+00  0.00000000e+00  1.90430419e-05 ...  3.18504863e-05
  -5.90414740e-04 -9.71341208e-02]
 [ 5.89137024e-04  3.60641076e-04  0.00000000e+00 ...  0.00000000e+00
  -5.76561913e-02  3.78071090e-05]
 [ 0.00000000e+00  2.02561961e-04  1.04140021e-01 ...  8.79211575e-02
   6.79495111e-02  0.00000000e+00]]

Layer 1:
[[ 0.08414085 -0.08446694  0.03699294  0.05834257  0.07717802 -0.00133361
   0.05955464 -0.0857707  -0.00788956  0.05423125  0.04640365  0.0555939
  -0.01893573  0.15777102  0.02352111  0.0356776   0.0524296   0.04581114
  -0.0147592  -0.02756358  0.01571812  0.02123349  0.01430619 -0.04187669
   0.07648998  0.06230867  0.08492944  0.02340898  0.04728864  0.145139
  -0.14149952  0.01097659  0.01710483 -0.00643243  0.17249592  0.1151368
  -0.11306336  0.06253161  0.08595361  0.07863248 -0.01992443 -0.09394968
  -0.02539738 -0.03796785 -0.08173773 -0.05958151 -0.07207974 -0.02853417
  -0.01114736 -0.05476478  0.02944374 -0.0484655   0.01361969  0.06102493
  -0.0227264  -0.08647311  0.02874551  0.04961002  0.02955499 -0.02256055
   0.0444743  -0.00641948  0.03235114  0.02758799  0.02309952 -0.02311617
   0.033079    0.00373197  0.03704414  0.11731773 -0.05580125 -0.13489202
   0.1384672   0.03307267  0.03257998  0.09000456 -0.03465179  0.06916289
   0.03893811  0.00959407 -0.18931913  0.02597591  0.09268551  0.07315743
   0.01963698 -0.08344746 -0.03424251  0.01561851 -0.05316745  0.05201785
  -0.02452032 -0.05827919 -0.03135808 -0.04881952 -0.16448839 -0.09478819
   0.03554013 -0.05911341  0.04745904  0.09292547]]

Layer 2:
[0. 0. 0. 0. 0. 0. 0. 0. 0. 0. 0. 0. 0. 0. 0. 0. 0. 0. 0. 0. 0. 0. 0. 0.
 0. 0. 0. 0. 0. 0. 0. 0. 0. 0. 0. 0. 0. 0. 0. 0. 0. 0. 0. 0. 0. 0. 0. 0.
 0. 0. 0. 0. 0. 0. 0. 0. 0. 0. 0. 0. 0. 0. 0. 0. 0. 0. 0. 0. 0. 0. 0. 0.
 0. 0. 0. 0. 0. 0. 0. 0. 0. 0. 0. 0. 0. 0. 0. 0. 0. 0. 0. 0. 0. 0. 0. 0.
 0. 0. 0. 0.]

Layer 3:
[[-0.07078012]
 [ 0.5260675 ]
 [-1.6696854 ]
 [-0.17420317]
 [ 0.18135193]
 [-0.34628066]
 [ 0.25008   ]
 [ 0.5166812 ]
 [-1.7604958 ]
 [ 0.25387627]
 [-0.54839474]
 [-1.0363568 ]
 [-1.7830385 ]
 [-0.45408598]
 [ 0.9099734 ]
 [ 0.992942  ]
 [ 0.1326752 ]
 [ 0.03703473]
 [-0.78152597]
 [-1.9988092 ]
 [ 0.24528238]
 [ 1.3157448 ]
 [ 2.9245121 ]
 [-1.3289559 ]
 [-0.09243437]
 [ 0.4112656 ]
 [-0.6928753 ]
 [ 1.7511604 ]
 [ 1.4798375 ]
 [ 0.15969867]
 [-0.7270571 ]
 [ 2.2533169 ]
 [ 0.5769323 ]
 [-1.8223948 ]
 [ 0.07966311]
 [ 0.12497302]
 [ 0.00679203]
 [ 1.5062321 ]
 [-0.06832378]
 [ 0.32203332]
 [-2.2123804 ]
 [-0.28513855]
 [ 0.20731907]
 [-0.492563  ]
 [ 0.21411005]
 [ 0.27205452]
 [-0.20846803]
 [-0.88401556]
 [-0.9348647 ]
 [ 0.27168307]
 [ 0.34525678]
 [-0.27224192]
 [ 0.45898294]
 [ 1.2890375 ]
 [-2.6009703 ]
 [ 0.6452331 ]
 [ 1.3977983 ]
 [ 0.1658175 ]
 [ 0.6443251 ]
 [-0.9609141 ]
 [-0.38598844]
 [-1.422541  ]
 [ 2.6310687 ]
 [ 1.5116036 ]
 [ 2.1297843 ]
 [-1.182744  ]
 [ 2.9865818 ]
 [ 0.37601084]
 [ 0.4261746 ]
 [ 0.36930344]
 [-0.3024461 ]
 [-0.11745479]
 [ 0.13184996]
 [ 0.7970545 ]
 [ 0.99400854]
 [-0.3644148 ]
 [-0.7892524 ]
 [ 0.26429984]
 [ 0.6653383 ]
 [ 1.5360574 ]
 [ 0.07693607]
 [ 1.5785534 ]
 [ 0.11197873]
 [ 0.49016064]
 [ 2.1173112 ]
 [ 0.10011286]
 [-2.074804  ]
 [ 1.1065644 ]
 [-1.6274004 ]
 [ 0.08613814]
 [-0.5753907 ]
 [-0.45733005]
 [-1.6807704 ]
 [-0.9333308 ]
 [-0.8926416 ]
 [ 0.524028  ]
 [-0.63958913]
 [ 1.3895957 ]
 [ 1.4811121 ]
 [-0.11456921]]

Layer 4:
[0.01250941]



Consenso 2:
------------------------------------------------------------------------

Layer 0:
[[ 1.85670871e-02 -1.11343026e-01  2.00921129e-02 ... -8.76607839e-03
   5.75004108e-02 -9.92796496e-02]
 [ 0.00000000e+00  0.00000000e+00  0.00000000e+00 ...  1.17117703e-01
   1.07656486e-01  0.00000000e+00]
 [-1.33933863e-05 -2.15365308e-05  0.00000000e+00 ...  0.00000000e+00
   1.01735396e-02 -2.28351360e-06]
 ...
 [ 0.00000000e+00  0.00000000e+00  8.79893605e-07 ...  1.47166861e-06
  -5.91655960e-04 -9.73312333e-02]
 [ 5.90367534e-04  1.66636091e-05  0.00000000e+00 ...  0.00000000e+00
  -5.77773862e-02  1.74689694e-06]
 [ 0.00000000e+00  9.35948083e-06  1.04351357e-01 ...  8.80995840e-02
   6.80873990e-02  0.00000000e+00]]

Layer 1:
[[ 0.0841829  -0.08466488  0.03731046  0.05867397  0.07753918 -0.00129846
   0.05976087 -0.08580578 -0.008072    0.05412883  0.0466938   0.05569238
  -0.01892961  0.158124    0.02362701  0.0357799   0.05251349  0.04594736
  -0.01483473 -0.02761976  0.01569689  0.0211273   0.01433613 -0.04198819
   0.0767455   0.06248675  0.08506089  0.02342498  0.04758768  0.14508224
  -0.14195505  0.01079739  0.01708551 -0.00662163  0.17288324  0.1153511
  -0.11361177  0.06258803  0.08631329  0.07877938 -0.01993331 -0.09422874
  -0.02547062 -0.03796616 -0.08190531 -0.05963048 -0.07221504 -0.02873489
  -0.01118084 -0.05517223  0.0295768  -0.04850224  0.01374433  0.06104035
  -0.02258006 -0.08640794  0.02895977  0.04964076  0.02961732 -0.02257561
   0.04479948 -0.00620147  0.03262004  0.02763094  0.0228548  -0.02309833
   0.03304416  0.00357789  0.03712847  0.11780392 -0.05588816 -0.13512313
   0.13861813  0.03316132  0.03258403  0.09026589 -0.0346432   0.0694948
   0.03908714  0.00957652 -0.18970643  0.02646227  0.09310251  0.07315322
   0.01987207 -0.0836836  -0.03421909  0.01556528 -0.05338556  0.05235486
  -0.02458427 -0.05841401 -0.03119071 -0.0488084  -0.1647384  -0.09511069
   0.03571214 -0.05936045  0.04728289  0.09330879]]

Layer 2:
[0. 0. 0. 0. 0. 0. 0. 0. 0. 0. 0. 0. 0. 0. 0. 0. 0. 0. 0. 0. 0. 0. 0. 0.
 0. 0. 0. 0. 0. 0. 0. 0. 0. 0. 0. 0. 0. 0. 0. 0. 0. 0. 0. 0. 0. 0. 0. 0.
 0. 0. 0. 0. 0. 0. 0. 0. 0. 0. 0. 0. 0. 0. 0. 0. 0. 0. 0. 0. 0. 0. 0. 0.
 0. 0. 0. 0. 0. 0. 0. 0. 0. 0. 0. 0. 0. 0. 0. 0. 0. 0. 0. 0. 0. 0. 0. 0.
 0. 0. 0. 0.]

Layer 3:
[[-0.19489516]
 [ 0.61205953]
 [-1.8190045 ]
 [-0.31478077]
 [ 0.15857266]
 [-0.6563412 ]
 [ 0.09204078]
 [ 0.73016006]
 [-2.6104124 ]
 [ 0.07467636]
 [-0.68953973]
 [-1.122378  ]
 [-4.137328  ]
 [-0.44264328]
 [ 1.5475693 ]
 [ 2.0895734 ]
 [-0.1221231 ]
 [-0.18134433]
 [-1.1259645 ]
 [-2.602979  ]
 [ 0.39486036]
 [ 1.235323  ]
 [ 5.3740454 ]
 [-1.4672998 ]
 [-0.27880162]
 [ 0.28311142]
 [-0.84320724]
 [ 2.836403  ]
 [ 1.7375071 ]
 [ 0.31325102]
 [-0.8527478 ]
 [ 3.8723707 ]
 [ 1.5359987 ]
 [-3.227075  ]
 [ 0.22198379]
 [ 0.16581768]
 [ 0.08884612]
 [ 1.3743535 ]
 [-0.24232867]
 [ 0.2555496 ]
 [-3.9141982 ]
 [-0.13118114]
 [-0.5188334 ]
 [-0.7970383 ]
 [ 0.3781302 ]
 [ 0.35966724]
 [-0.1190046 ]
 [-0.884242  ]
 [-1.6554362 ]
 [ 0.44649374]
 [ 0.38250116]
 [-0.30298597]
 [ 0.5993686 ]
 [ 1.1910326 ]
 [-2.9443386 ]
 [ 0.83633184]
 [ 1.4138662 ]
 [-0.03924493]
 [ 0.60211307]
 [-1.6355246 ]
 [-0.6253353 ]
 [-2.0209246 ]
 [ 3.1780822 ]
 [ 1.6790217 ]
 [ 3.2562256 ]
 [-1.4733163 ]
 [ 5.274148  ]
 [ 0.6123189 ]
 [ 0.35854205]
 [ 0.3135074 ]
 [-0.07870066]
 [-0.23536287]
 [ 0.14301682]
 [ 0.984541  ]
 [ 1.1560788 ]
 [-0.4440101 ]
 [-0.98687273]
 [ 0.11587105]
 [ 0.57371306]
 [ 2.967065  ]
 [-0.03057624]
 [ 2.1093662 ]
 [ 0.05532629]
 [ 0.2514023 ]
 [ 2.9570513 ]
 [-0.09216764]
 [-2.2364042 ]
 [ 1.8305058 ]
 [-1.6762689 ]
 [-0.08764797]
 [-0.65002626]
 [-0.34941626]
 [-1.690767  ]
 [-0.74224764]
 [-1.1301783 ]
 [ 0.6661749 ]
 [-0.7648982 ]
 [ 1.5391952 ]
 [ 1.4668883 ]
 [-0.25279182]]

Layer 4:
[0.14091483]



Entrenamiento 3:
------------------------------------------------------------------------

Layer 0:
[[ 1.85670871e-02 -1.11343026e-01  2.00921129e-02 ... -8.76607839e-03
   5.75004108e-02 -9.92796496e-02]
 [ 0.00000000e+00  0.00000000e+00  0.00000000e+00 ...  1.17117703e-01
   1.07656486e-01  0.00000000e+00]
 [-1.33933863e-05 -2.15365308e-05  0.00000000e+00 ...  0.00000000e+00
   1.01735396e-02 -2.28351360e-06]
 ...
 [ 0.00000000e+00  0.00000000e+00  8.79893605e-07 ...  1.47166861e-06
  -5.91655960e-04 -9.73312333e-02]
 [ 5.90367534e-04  1.66636091e-05  0.00000000e+00 ...  0.00000000e+00
  -5.77773862e-02  1.74689694e-06]
 [ 0.00000000e+00  9.35948083e-06  1.04351357e-01 ...  8.80995840e-02
   6.80873990e-02  0.00000000e+00]]

Layer 1:
[[ 0.0841829  -0.08466488  0.03731046  0.05867397  0.07753918 -0.00129846
   0.05976087 -0.08580578 -0.008072    0.05412883  0.0466938   0.05569238
  -0.01892961  0.158124    0.02362701  0.0357799   0.05251349  0.04594736
  -0.01483473 -0.02761976  0.01569689  0.0211273   0.01433613 -0.04198819
   0.0767455   0.06248675  0.08506089  0.02342498  0.04758768  0.14508224
  -0.14195505  0.01079739  0.01708551 -0.00662163  0.17288324  0.1153511
  -0.11361177  0.06258803  0.08631329  0.07877938 -0.01993331 -0.09422874
  -0.02547062 -0.03796616 -0.08190531 -0.05963048 -0.07221504 -0.02873489
  -0.01118084 -0.05517223  0.0295768  -0.04850224  0.01374433  0.06104035
  -0.02258006 -0.08640794  0.02895977  0.04964076  0.02961732 -0.02257561
   0.04479948 -0.00620147  0.03262004  0.02763094  0.0228548  -0.02309833
   0.03304416  0.00357789  0.03712847  0.11780392 -0.05588816 -0.13512313
   0.13861813  0.03316132  0.03258403  0.09026589 -0.0346432   0.0694948
   0.03908714  0.00957652 -0.18970643  0.02646227  0.09310251  0.07315322
   0.01987207 -0.0836836  -0.03421909  0.01556528 -0.05338556  0.05235486
  -0.02458427 -0.05841401 -0.03119071 -0.0488084  -0.1647384  -0.09511069
   0.03571214 -0.05936045  0.04728289  0.09330879]]

Layer 2:
[0. 0. 0. 0. 0. 0. 0. 0. 0. 0. 0. 0. 0. 0. 0. 0. 0. 0. 0. 0. 0. 0. 0. 0.
 0. 0. 0. 0. 0. 0. 0. 0. 0. 0. 0. 0. 0. 0. 0. 0. 0. 0. 0. 0. 0. 0. 0. 0.
 0. 0. 0. 0. 0. 0. 0. 0. 0. 0. 0. 0. 0. 0. 0. 0. 0. 0. 0. 0. 0. 0. 0. 0.
 0. 0. 0. 0. 0. 0. 0. 0. 0. 0. 0. 0. 0. 0. 0. 0. 0. 0. 0. 0. 0. 0. 0. 0.
 0. 0. 0. 0.]

Layer 3:
[[-1.4712858e-01]
 [ 4.4860286e-01]
 [-1.5123529e+00]
 [-4.8731786e-01]
 [-2.5416932e-01]
 [-4.4241294e-01]
 [ 3.2279032e-01]
 [ 6.8801618e-01]
 [-2.6272416e+00]
 [-2.0241846e-01]
 [-3.9406759e-01]
 [-1.4604708e+00]
 [-3.0268595e+00]
 [-3.7144071e-01]
 [ 1.3569208e+00]
 [ 1.2226377e+00]
 [-1.1301960e-01]
 [-9.3337819e-02]
 [-1.1745635e+00]
 [-2.2228832e+00]
 [ 6.3182920e-01]
 [ 1.4970875e+00]
 [ 4.4649353e+00]
 [-1.1532675e+00]
 [-4.4135503e-02]
 [ 3.7645453e-01]
 [-7.5770825e-01]
 [ 2.4193656e+00]
 [ 1.0519677e+00]
 [ 3.2300025e-01]
 [-9.2540604e-01]
 [ 3.4448283e+00]
 [ 1.3477780e+00]
 [-2.7397625e+00]
 [ 2.5778130e-01]
 [ 2.9232594e-01]
 [-1.4161477e-03]
 [ 1.2416439e+00]
 [-2.7242219e-01]
 [ 5.0948286e-01]
 [-3.3018174e+00]
 [-1.1575770e-01]
 [-8.7425344e-02]
 [-3.3522198e-01]
 [ 2.8402641e-01]
 [ 4.8351213e-01]
 [-3.6045101e-01]
 [-1.0369864e+00]
 [-1.5733443e+00]
 [ 3.1345728e-01]
 [ 4.2219737e-01]
 [ 1.3251817e-01]
 [ 8.3668303e-01]
 [ 1.0239481e+00]
 [-2.8346393e+00]
 [ 8.4431481e-01]
 [ 1.3805858e+00]
 [ 1.5616587e-01]
 [ 7.3614943e-01]
 [-1.3030229e+00]
 [-6.9179374e-01]
 [-2.0141478e+00]
 [ 2.5123971e+00]
 [ 1.5170147e+00]
 [ 2.8457751e+00]
 [-1.4556763e+00]
 [ 3.6697955e+00]
 [ 5.3051609e-01]
 [ 3.0832094e-01]
 [ 4.2276669e-01]
 [ 6.5307304e-02]
 [-2.9913324e-01]
 [ 1.9965336e-01]
 [ 9.9680382e-01]
 [ 9.5994794e-01]
 [-1.7244628e-01]
 [-1.0209869e+00]
 [ 2.5244182e-01]
 [ 5.4491705e-01]
 [ 2.7786927e+00]
 [ 4.3355647e-02]
 [ 1.9094197e+00]
 [ 1.5735354e-01]
 [ 1.3532689e-01]
 [ 2.8579888e+00]
 [ 6.7653710e-01]
 [-1.9458997e+00]
 [ 1.6919698e+00]
 [-1.1968046e+00]
 [ 1.2891445e-01]
 [-7.4818021e-01]
 [-3.5463983e-01]
 [-1.7747877e+00]
 [-6.9549441e-01]
 [-1.0791563e+00]
 [ 7.4381047e-01]
 [-6.0134250e-01]
 [ 1.6591567e+00]
 [ 7.6782000e-01]
 [-1.2915799e-01]]

Layer 4:
[0.01696776]



Consenso 3:
------------------------------------------------------------------------

Layer 0:
[[ 1.85688790e-02 -1.11353502e-01  2.00997703e-02 ... -8.76692776e-03
   5.75059801e-02 -9.92893279e-02]
 [ 0.00000000e+00  0.00000000e+00  0.00000000e+00 ...  1.17122456e-01
   1.07666716e-01  0.00000000e+00]
 [-6.18848389e-07 -9.95106461e-07  0.00000000e+00 ...  0.00000000e+00
   1.01745324e-02 -1.05510942e-07]
 ...
 [ 0.00000000e+00  0.00000000e+00  4.06559373e-08 ...  6.79992098e-08
  -5.91713237e-04 -9.73403454e-02]
 [ 5.90424403e-04  7.69950873e-07  0.00000000e+00 ...  0.00000000e+00
  -5.77829927e-02  8.07162834e-08]
 [ 0.00000000e+00  4.32459785e-07  1.04361124e-01 ...  8.81078318e-02
   6.80937767e-02  0.00000000e+00]]

Layer 1:
[[ 0.08418484 -0.08467403  0.03732513  0.05868928  0.07755587 -0.00129683
   0.05977041 -0.08580741 -0.00808043  0.0541241   0.04670721  0.05569693
  -0.01892933  0.1581403   0.0236319   0.03578463  0.05251737  0.04595366
  -0.01483822 -0.02762236  0.01569591  0.02112239  0.01433751 -0.04199334
   0.0767573   0.06249497  0.08506698  0.02342572  0.04760149  0.14507966
  -0.1419761   0.01078911  0.01708462 -0.00663037  0.17290115  0.115361
  -0.11363712  0.06259064  0.08632991  0.07878616 -0.01993372 -0.09424164
  -0.02547401 -0.03796611 -0.08191305 -0.05963275 -0.07222129 -0.02874416
  -0.01118239 -0.05519105  0.02958295 -0.04850394  0.01375009  0.06104106
  -0.0225733  -0.08640494  0.02896966  0.04964218  0.0296202  -0.0225763
   0.04481451 -0.00619139  0.03263246  0.02763293  0.02284349 -0.02309751
   0.03304255  0.00357077  0.03713237  0.11782638 -0.05589218 -0.1351338
   0.13862509  0.03316541  0.03258419  0.09027796 -0.03464282  0.06951015
   0.03909402  0.0095757  -0.18972433  0.02648474  0.09312179  0.07315309
   0.01988294 -0.0836945  -0.03421801  0.01556282 -0.05339563  0.05237044
  -0.02458723 -0.05842024 -0.03118298 -0.0488079  -0.16474995 -0.0951256
   0.0357201  -0.05937187  0.04727474  0.0933265 ]]

Layer 2:
[0. 0. 0. 0. 0. 0. 0. 0. 0. 0. 0. 0. 0. 0. 0. 0. 0. 0. 0. 0. 0. 0. 0. 0.
 0. 0. 0. 0. 0. 0. 0. 0. 0. 0. 0. 0. 0. 0. 0. 0. 0. 0. 0. 0. 0. 0. 0. 0.
 0. 0. 0. 0. 0. 0. 0. 0. 0. 0. 0. 0. 0. 0. 0. 0. 0. 0. 0. 0. 0. 0. 0. 0.
 0. 0. 0. 0. 0. 0. 0. 0. 0. 0. 0. 0. 0. 0. 0. 0. 0. 0. 0. 0. 0. 0. 0. 0.
 0. 0. 0. 0.]

Layer 3:
[[-2.3325145e-01]
 [ 4.4663253e-01]
 [-1.5440248e+00]
 [-7.1764761e-01]
 [-5.1360780e-01]
 [-7.2148263e-01]
 [ 2.3450248e-01]
 [ 1.0196557e+00]
 [-3.3972273e+00]
 [-5.6826425e-01]
 [-4.5229572e-01]
 [-1.5916874e+00]
 [-5.3729143e+00]
 [-2.7181929e-01]
 [ 1.8615187e+00]
 [ 1.5323896e+00]
 [-4.7288635e-01]
 [-3.7641317e-01]
 [-1.3979906e+00]
 [-2.6615810e+00]
 [ 8.4946764e-01]
 [ 1.3834231e+00]
 [ 6.9332252e+00]
 [-1.2194868e+00]
 [-3.6524439e-01]
 [ 3.4958205e-01]
 [-9.6356040e-01]
 [ 3.6217413e+00]
 [ 1.0280063e+00]
 [ 7.2112703e-01]
 [-1.2779280e+00]
 [ 4.7555485e+00]
 [ 2.2911551e+00]
 [-3.8995087e+00]
 [ 5.9612781e-01]
 [ 5.3665441e-01]
 [ 1.3677715e-01]
 [ 9.0174538e-01]
 [-5.0596952e-01]
 [ 6.0487276e-01]
 [-4.8505764e+00]
 [ 7.4525073e-02]
 [-3.4030333e-01]
 [-4.8378381e-01]
 [ 4.8483729e-01]
 [ 7.3657262e-01]
 [-4.7211435e-01]
 [-9.3108314e-01]
 [-1.9252354e+00]
 [ 3.9982238e-01]
 [ 1.6679674e-01]
 [ 1.5117130e-01]
 [ 9.3016392e-01]
 [ 8.7086284e-01]
 [-3.0154829e+00]
 [ 1.1008708e+00]
 [ 1.2628721e+00]
 [-5.8764663e-02]
 [ 7.1162671e-01]
 [-1.8313892e+00]
 [-1.0599911e+00]
 [-2.4102252e+00]
 [ 2.9091887e+00]
 [ 1.5647293e+00]
 [ 3.7119360e+00]
 [-1.6690985e+00]
 [ 5.5535989e+00]
 [ 8.4554046e-01]
 [ 1.3639112e-01]
 [ 3.5018235e-01]
 [ 4.1036895e-01]
 [-6.5826714e-01]
 [ 3.7039438e-01]
 [ 1.2089487e+00]
 [ 1.0982754e+00]
 [-4.3431230e-02]
 [-1.3150285e+00]
 [ 2.0252192e-01]
 [ 5.5971837e-01]
 [ 4.2359023e+00]
 [-2.8015158e-01]
 [ 2.3421507e+00]
 [ 1.8890855e-01]
 [-2.0832555e-01]
 [ 3.6210735e+00]
 [ 7.1954697e-01]
 [-1.9620848e+00]
 [ 2.2546079e+00]
 [-1.2724911e+00]
 [ 2.5708044e-03]
 [-7.9564959e-01]
 [-3.0320802e-01]
 [-1.7586728e+00]
 [-3.7008616e-01]
 [-1.8007482e+00]
 [ 1.0431502e+00]
 [-7.5623327e-01]
 [ 1.8341944e+00]
 [ 4.3160054e-01]
 [-3.2615504e-01]]

Layer 4:
[0.11630374]



Entrenamiento 4:
------------------------------------------------------------------------

Layer 0:
[[ 1.85688790e-02 -1.11353502e-01  2.00997703e-02 ... -8.76692776e-03
   5.75059801e-02 -9.92893279e-02]
 [ 0.00000000e+00  0.00000000e+00  0.00000000e+00 ...  1.17122456e-01
   1.07666716e-01  0.00000000e+00]
 [-6.18848389e-07 -9.95106461e-07  0.00000000e+00 ...  0.00000000e+00
   1.01745324e-02 -1.05510942e-07]
 ...
 [ 0.00000000e+00  0.00000000e+00  4.06559373e-08 ...  6.79992098e-08
  -5.91713237e-04 -9.73403454e-02]
 [ 5.90424403e-04  7.69950873e-07  0.00000000e+00 ...  0.00000000e+00
  -5.77829927e-02  8.07162834e-08]
 [ 0.00000000e+00  4.32459785e-07  1.04361124e-01 ...  8.81078318e-02
   6.80937767e-02  0.00000000e+00]]

Layer 1:
[[ 0.08418484 -0.08467403  0.03732513  0.05868928  0.07755587 -0.00129683
   0.05977041 -0.08580741 -0.00808043  0.0541241   0.04670721  0.05569693
  -0.01892933  0.1581403   0.0236319   0.03578463  0.05251737  0.04595366
  -0.01483822 -0.02762236  0.01569591  0.02112239  0.01433751 -0.04199334
   0.0767573   0.06249497  0.08506698  0.02342572  0.04760149  0.14507966
  -0.1419761   0.01078911  0.01708462 -0.00663037  0.17290115  0.115361
  -0.11363712  0.06259064  0.08632991  0.07878616 -0.01993372 -0.09424164
  -0.02547401 -0.03796611 -0.08191305 -0.05963275 -0.07222129 -0.02874416
  -0.01118239 -0.05519105  0.02958295 -0.04850394  0.01375009  0.06104106
  -0.0225733  -0.08640494  0.02896966  0.04964218  0.0296202  -0.0225763
   0.04481451 -0.00619139  0.03263246  0.02763293  0.02284349 -0.02309751
   0.03304255  0.00357077  0.03713237  0.11782638 -0.05589218 -0.1351338
   0.13862509  0.03316541  0.03258419  0.09027796 -0.03464282  0.06951015
   0.03909402  0.0095757  -0.18972433  0.02648474  0.09312179  0.07315309
   0.01988294 -0.0836945  -0.03421801  0.01556282 -0.05339563  0.05237044
  -0.02458723 -0.05842024 -0.03118298 -0.0488079  -0.16474995 -0.0951256
   0.0357201  -0.05937187  0.04727474  0.0933265 ]]

Layer 2:
[0. 0. 0. 0. 0. 0. 0. 0. 0. 0. 0. 0. 0. 0. 0. 0. 0. 0. 0. 0. 0. 0. 0. 0.
 0. 0. 0. 0. 0. 0. 0. 0. 0. 0. 0. 0. 0. 0. 0. 0. 0. 0. 0. 0. 0. 0. 0. 0.
 0. 0. 0. 0. 0. 0. 0. 0. 0. 0. 0. 0. 0. 0. 0. 0. 0. 0. 0. 0. 0. 0. 0. 0.
 0. 0. 0. 0. 0. 0. 0. 0. 0. 0. 0. 0. 0. 0. 0. 0. 0. 0. 0. 0. 0. 0. 0. 0.
 0. 0. 0. 0.]

Layer 3:
[[-0.16638383]
 [ 0.35805055]
 [-1.3864552 ]
 [-0.7039913 ]
 [-0.51566195]
 [-0.49009547]
 [ 0.40222025]
 [ 0.66790664]
 [-3.3858387 ]
 [-0.56156766]
 [-0.24899387]
 [-1.8641635 ]
 [-3.9403226 ]
 [-0.25567192]
 [ 1.6625997 ]
 [ 1.2363176 ]
 [-0.22980389]
 [-0.14559355]
 [-1.5161526 ]
 [-2.260149  ]
 [ 0.9006444 ]
 [ 1.6441476 ]
 [ 5.713987  ]
 [-0.8741354 ]
 [ 0.11039422]
 [ 0.3351392 ]
 [-0.71811706]
 [ 2.8838813 ]
 [ 0.54081255]
 [ 0.35412818]
 [-1.0157104 ]
 [ 4.5905805 ]
 [ 1.9699346 ]
 [-3.5425458 ]
 [ 0.3364791 ]
 [ 0.37822205]
 [-0.12286391]
 [ 1.0966212 ]
 [-0.32800394]
 [ 0.65199095]
 [-4.1485744 ]
 [-0.07402023]
 [-0.26401162]
 [-0.06543212]
 [ 0.2456205 ]
 [ 0.6042406 ]
 [-0.44724172]
 [-1.1610624 ]
 [-2.1356788 ]
 [ 0.33932817]
 [ 0.50370735]
 [ 0.5742165 ]
 [ 1.170565  ]
 [ 0.81902164]
 [-2.973819  ]
 [ 0.8948979 ]
 [ 1.3505574 ]
 [ 0.20110536]
 [ 0.77780116]
 [-1.470276  ]
 [-0.89472616]
 [-2.5928063 ]
 [ 2.242983  ]
 [ 1.4313446 ]
 [ 3.346333  ]
 [-1.6174783 ]
 [ 3.8570793 ]
 [ 0.78297293]
 [ 0.201567  ]
 [ 0.550749  ]
 [ 0.3166906 ]
 [-0.35833243]
 [ 0.25552988]
 [ 1.0917091 ]
 [ 0.8481051 ]
 [-0.04144209]
 [-1.1046975 ]
 [ 0.24731879]
 [ 0.37595356]
 [ 3.927161  ]
 [ 0.05853997]
 [ 2.072651  ]
 [ 0.21489374]
 [-0.06376982]
 [ 3.4940107 ]
 [ 1.0987787 ]
 [-1.7189189 ]
 [ 2.1749756 ]
 [-0.7257142 ]
 [ 0.18550263]
 [-0.8661508 ]
 [-0.24774568]
 [-1.8109683 ]
 [-0.54239535]
 [-0.9793755 ]
 [ 0.7708801 ]
 [-0.56847227]
 [ 1.8593788 ]
 [ 0.03147357]
 [-0.03039319]]

Layer 4:
[0.02168479]



Consenso 4:
------------------------------------------------------------------------

Layer 0:
[[ 1.85689479e-02 -1.11353934e-01  2.01001242e-02 ... -8.76695942e-03
   5.75062111e-02 -9.92897227e-02]
 [ 0.00000000e+00  0.00000000e+00  0.00000000e+00 ...  1.17122613e-01
   1.07667141e-01  0.00000000e+00]
 [-2.85942114e-08 -4.59794158e-08  0.00000000e+00 ...  0.00000000e+00
   1.01745706e-02 -4.87518914e-09]
 ...
 [ 0.00000000e+00  0.00000000e+00  1.87852844e-09 ...  3.14193871e-09
  -5.91715390e-04 -9.73407105e-02]
 [ 5.90426556e-04  3.55759759e-08  0.00000000e+00 ...  0.00000000e+00
  -5.77832237e-02  3.72953801e-09]
 [ 0.00000000e+00  1.99820249e-08  1.04361527e-01 ...  8.81081522e-02
   6.80940077e-02  0.00000000e+00]]

Layer 1:
[[ 0.08418486 -0.0846744   0.03732581  0.05868999  0.0775566  -0.00129676
   0.05977083 -0.08580741 -0.00808082  0.0541239   0.04670782  0.05569712
  -0.01892933  0.15814094  0.02363212  0.03578482  0.05251751  0.04595393
  -0.01483838 -0.02762247  0.01569588  0.02112218  0.01433757 -0.04199355
   0.0767578   0.06249534  0.0850672   0.02342574  0.04760212  0.14507966
  -0.14197697  0.01078873  0.0170846  -0.00663077  0.17290187  0.1153614
  -0.11363827  0.0625907   0.08633064  0.07878642 -0.01993373 -0.09424219
  -0.02547415 -0.03796611 -0.08191334 -0.05963282 -0.07222152 -0.02874459
  -0.01118245 -0.05519192  0.02958322 -0.04850399  0.01375036  0.06104106
  -0.02257299 -0.08640487  0.02897012  0.04964221  0.02962032 -0.02257632
   0.0448152  -0.00619093  0.03263303  0.027633    0.02284297 -0.02309748
   0.0330425   0.00357044  0.03713252  0.11782739 -0.05589234 -0.13513418
   0.13862528  0.03316557  0.03258419  0.09027847 -0.03464282  0.0695108
   0.03909431  0.00957568 -0.18972504  0.02648578  0.09312264  0.07315309
   0.01988344 -0.08369496 -0.03421799  0.01556271 -0.05339608  0.05237116
  -0.02458736 -0.05842051 -0.03118262 -0.0488079  -0.16475035 -0.09512624
   0.03572044 -0.05937239  0.04727439  0.09332729]]

Layer 2:
[0. 0. 0. 0. 0. 0. 0. 0. 0. 0. 0. 0. 0. 0. 0. 0. 0. 0. 0. 0. 0. 0. 0. 0.
 0. 0. 0. 0. 0. 0. 0. 0. 0. 0. 0. 0. 0. 0. 0. 0. 0. 0. 0. 0. 0. 0. 0. 0.
 0. 0. 0. 0. 0. 0. 0. 0. 0. 0. 0. 0. 0. 0. 0. 0. 0. 0. 0. 0. 0. 0. 0. 0.
 0. 0. 0. 0. 0. 0. 0. 0. 0. 0. 0. 0. 0. 0. 0. 0. 0. 0. 0. 0. 0. 0. 0. 0.
 0. 0. 0. 0.]

Layer 3:
[[-2.1060964e-01]
 [ 3.1651145e-01]
 [-1.3879858e+00]
 [-9.3537015e-01]
 [-8.3643633e-01]
 [-7.3929864e-01]
 [ 3.5043448e-01]
 [ 9.8771626e-01]
 [-4.0482016e+00]
 [-9.2695439e-01]
 [-2.8605029e-01]
 [-1.9593618e+00]
 [-6.1592832e+00]
 [-1.1752350e-01]
 [ 2.0409296e+00]
 [ 1.1424733e+00]
 [-5.7201368e-01]
 [-4.1603112e-01]
 [-1.6329787e+00]
 [-2.5788414e+00]
 [ 1.1179211e+00]
 [ 1.5103091e+00]
 [ 8.0344934e+00]
 [-9.2370713e-01]
 [-2.4450058e-01]
 [ 3.6279440e-01]
 [-9.1655308e-01]
 [ 4.0794592e+00]
 [ 4.4377545e-01]
 [ 7.9278594e-01]
 [-1.4015083e+00]
 [ 5.6287317e+00]
 [ 2.8077421e+00]
 [-4.5224538e+00]
 [ 7.1191192e-01]
 [ 6.7208040e-01]
 [ 1.7104628e-02]
 [ 7.1271002e-01]
 [-5.3338253e-01]
 [ 7.9239106e-01]
 [-5.4986567e+00]
 [ 7.3924288e-02]
 [-2.2959624e-01]
 [-1.4957394e-01]
 [ 4.2652273e-01]
 [ 9.0620631e-01]
 [-6.2186927e-01]
 [-9.9968100e-01]
 [-2.2376478e+00]
 [ 3.7291849e-01]
 [ 1.0380347e-01]
 [ 5.6912309e-01]
 [ 1.2018346e+00]
 [ 6.8328506e-01]
 [-3.0536902e+00]
 [ 1.1179074e+00]
 [ 1.1770874e+00]
 [ 5.2420069e-03]
 [ 7.5067538e-01]
 [-1.8806095e+00]
 [-1.2588862e+00]
 [-2.8406143e+00]
 [ 2.5647748e+00]
 [ 1.4250795e+00]
 [ 3.9852977e+00]
 [-1.7618078e+00]
 [ 5.4857750e+00]
 [ 1.1480567e+00]
 [ 5.6968294e-03]
 [ 4.8125088e-01]
 [ 6.4431238e-01]
 [-7.6292706e-01]
 [ 4.8648337e-01]
 [ 1.2819476e+00]
 [ 9.7296345e-01]
 [ 1.4967462e-01]
 [-1.3783754e+00]
 [ 2.4864286e-01]
 [ 4.5558581e-01]
 [ 5.2804909e+00]
 [-3.4155670e-01]
 [ 2.4050491e+00]
 [ 2.8498939e-01]
 [-3.7137467e-01]
 [ 4.1306705e+00]
 [ 1.2077855e+00]
 [-1.6869158e+00]
 [ 2.5881302e+00]
 [-8.5043281e-01]
 [ 8.6188063e-02]
 [-8.7723047e-01]
 [-2.3655137e-01]
 [-1.7776077e+00]
 [-2.1506467e-01]
 [-1.7881159e+00]
 [ 1.0845267e+00]
 [-7.2896415e-01]
 [ 2.0074086e+00]
 [-3.1524277e-01]
 [-2.2470714e-01]]

Layer 4:
[0.13670705]



Entrenamiento 5:
------------------------------------------------------------------------

Layer 0:
[[ 1.85689479e-02 -1.11353934e-01  2.01001242e-02 ... -8.76695942e-03
   5.75062111e-02 -9.92897227e-02]
 [ 0.00000000e+00  0.00000000e+00  0.00000000e+00 ...  1.17122613e-01
   1.07667141e-01  0.00000000e+00]
 [-2.85942114e-08 -4.59794158e-08  0.00000000e+00 ...  0.00000000e+00
   1.01745706e-02 -4.87518914e-09]
 ...
 [ 0.00000000e+00  0.00000000e+00  1.87852844e-09 ...  3.14193871e-09
  -5.91715390e-04 -9.73407105e-02]
 [ 5.90426556e-04  3.55759759e-08  0.00000000e+00 ...  0.00000000e+00
  -5.77832237e-02  3.72953801e-09]
 [ 0.00000000e+00  1.99820249e-08  1.04361527e-01 ...  8.81081522e-02
   6.80940077e-02  0.00000000e+00]]

Layer 1:
[[ 0.08418486 -0.0846744   0.03732581  0.05868999  0.0775566  -0.00129676
   0.05977083 -0.08580741 -0.00808082  0.0541239   0.04670782  0.05569712
  -0.01892933  0.15814094  0.02363212  0.03578482  0.05251751  0.04595393
  -0.01483838 -0.02762247  0.01569588  0.02112218  0.01433757 -0.04199355
   0.0767578   0.06249534  0.0850672   0.02342574  0.04760212  0.14507966
  -0.14197697  0.01078873  0.0170846  -0.00663077  0.17290187  0.1153614
  -0.11363827  0.0625907   0.08633064  0.07878642 -0.01993373 -0.09424219
  -0.02547415 -0.03796611 -0.08191334 -0.05963282 -0.07222152 -0.02874459
  -0.01118245 -0.05519192  0.02958322 -0.04850399  0.01375036  0.06104106
  -0.02257299 -0.08640487  0.02897012  0.04964221  0.02962032 -0.02257632
   0.0448152  -0.00619093  0.03263303  0.027633    0.02284297 -0.02309748
   0.0330425   0.00357044  0.03713252  0.11782739 -0.05589234 -0.13513418
   0.13862528  0.03316557  0.03258419  0.09027847 -0.03464282  0.0695108
   0.03909431  0.00957568 -0.18972504  0.02648578  0.09312264  0.07315309
   0.01988344 -0.08369496 -0.03421799  0.01556271 -0.05339608  0.05237116
  -0.02458736 -0.05842051 -0.03118262 -0.0488079  -0.16475035 -0.09512624
   0.03572044 -0.05937239  0.04727439  0.09332729]]

Layer 2:
[0. 0. 0. 0. 0. 0. 0. 0. 0. 0. 0. 0. 0. 0. 0. 0. 0. 0. 0. 0. 0. 0. 0. 0.
 0. 0. 0. 0. 0. 0. 0. 0. 0. 0. 0. 0. 0. 0. 0. 0. 0. 0. 0. 0. 0. 0. 0. 0.
 0. 0. 0. 0. 0. 0. 0. 0. 0. 0. 0. 0. 0. 0. 0. 0. 0. 0. 0. 0. 0. 0. 0. 0.
 0. 0. 0. 0. 0. 0. 0. 0. 0. 0. 0. 0. 0. 0. 0. 0. 0. 0. 0. 0. 0. 0. 0. 0.
 0. 0. 0. 0.]

Layer 3:
[[-0.14856052]
 [ 0.27931952]
 [-1.2912948 ]
 [-0.82942116]
 [-0.6483252 ]
 [-0.48301712]
 [ 0.4813386 ]
 [ 0.5286865 ]
 [-4.02771   ]
 [-0.7761683 ]
 [-0.12866251]
 [-2.1756449 ]
 [-4.562524  ]
 [-0.18862948]
 [ 1.8424829 ]
 [ 1.1176443 ]
 [-0.22060195]
 [-0.11554918]
 [-1.8097888 ]
 [-2.1805089 ]
 [ 1.1145016 ]
 [ 1.7868987 ]
 [ 6.658983  ]
 [-0.5812599 ]
 [ 0.29037112]
 [ 0.3081251 ]
 [-0.6313529 ]
 [ 3.2239738 ]
 [ 0.06576088]
 [ 0.25526148]
 [-0.97900724]
 [ 5.581153  ]
 [ 2.4294453 ]
 [-4.2138395 ]
 [ 0.2924607 ]
 [ 0.3742991 ]
 [-0.2683655 ]
 [ 1.0478718 ]
 [-0.2777355 ]
 [ 0.7353839 ]
 [-4.742187  ]
 [-0.12716606]
 [-0.3391399 ]
 [ 0.226654  ]
 [ 0.14359151]
 [ 0.6582765 ]
 [-0.48007628]
 [-1.2653435 ]
 [-2.6106505 ]
 [ 0.3345338 ]
 [ 0.58071244]
 [ 0.944309  ]
 [ 1.4527024 ]
 [ 0.695448  ]
 [-3.0616603 ]
 [ 0.83423036]
 [ 1.3391144 ]
 [ 0.29157844]
 [ 0.79999393]
 [-1.5265326 ]
 [-0.9806225 ]
 [-3.1231625 ]
 [ 1.9287038 ]
 [ 1.3334415 ]
 [ 3.6343513 ]
 [-1.7087044 ]
 [ 3.7383893 ]
 [ 1.082887  ]
 [ 0.14269987]
 [ 0.66822296]
 [ 0.430622  ]
 [-0.295818  ]
 [ 0.26529658]
 [ 1.1170131 ]
 [ 0.7303184 ]
 [ 0.01852242]
 [-1.0753833 ]
 [ 0.24792826]
 [ 0.23917551]
 [ 4.909751  ]
 [ 0.15064996]
 [ 2.1128309 ]
 [ 0.26246998]
 [-0.11311179]
 [ 3.992361  ]
 [ 1.3955115 ]
 [-1.4822004 ]
 [ 2.5505757 ]
 [-0.3144257 ]
 [ 0.2509998 ]
 [-0.95264363]
 [-0.16207291]
 [-1.8271362 ]
 [-0.49231407]
 [-0.68188924]
 [ 0.68517333]
 [-0.52597195]
 [ 1.9814332 ]
 [-0.54493815]
 [ 0.10842119]]

Layer 4:
[0.02555994]



