:
------------------------------------------------------------------------



Entrenamiento 0:
------------------------------------------------------------------------

Layer 0:
[[ 0.          0.         -0.         ... -0.         -0.4027289
  -0.        ]
 [-0.         -0.          0.         ...  0.         -0.16609684
   0.        ]
 [-0.         -0.         -0.         ...  0.         -0.
   0.        ]
 ...
 [-0.         -0.          0.         ...  0.          0.
  -0.        ]
 [ 0.4468151   0.          0.         ...  0.         -0.
  -0.        ]
 [-0.         -0.          0.         ...  0.          0.
  -0.36267313]]

Layer 1:
[[-0.09785743  0.18534955 -0.09971412  0.04309887  0.11445978 -0.16716287
   0.01636776  0.0612376  -0.02004942  0.21751466 -0.17335868 -0.10695666
  -0.21584266  0.08952764  0.12120125  0.07024485 -0.2365009  -0.20653939
  -0.23773418 -0.20805445  0.20578617  0.02535683  0.04217723  0.11937547
   0.16158709  0.1297639   0.22941205  0.03788245 -0.14019665 -0.04655015
   0.16634107  0.1921421   0.14892039  0.14610761  0.23003232  0.11041361
  -0.17779896 -0.11242376  0.20832253 -0.23425266 -0.08899544 -0.12909463
   0.1015195  -0.00061242 -0.1638712  -0.24100238 -0.19770315 -0.02014123
   0.20991671  0.01058373 -0.06713083 -0.09896117  0.22400701 -0.10255729
  -0.19631803  0.11071101  0.03582627 -0.15370248  0.16835245  0.07536417
   0.13966665 -0.00518759 -0.15873057  0.10753846 -0.15967533 -0.14217079
   0.15748438  0.03043321 -0.12642364 -0.17210999  0.06708881  0.08190125
   0.18807295 -0.03590582 -0.1975111  -0.19655629 -0.15404452 -0.10766032
  -0.20483024  0.24305165  0.10856086  0.21848083 -0.217258   -0.05523874
   0.07492682  0.17346781 -0.10453276 -0.11838655 -0.20247148 -0.13510826
   0.19600117 -0.10181533  0.01988852  0.15741861 -0.08435248 -0.19642112
  -0.03149813  0.0547471   0.06252807  0.09660387]]

Layer 2:
[0. 0. 0. 0. 0. 0. 0. 0. 0. 0. 0. 0. 0. 0. 0. 0. 0. 0. 0. 0. 0. 0. 0. 0.
 0. 0. 0. 0. 0. 0. 0. 0. 0. 0. 0. 0. 0. 0. 0. 0. 0. 0. 0. 0. 0. 0. 0. 0.
 0. 0. 0. 0. 0. 0. 0. 0. 0. 0. 0. 0. 0. 0. 0. 0. 0. 0. 0. 0. 0. 0. 0. 0.
 0. 0. 0. 0. 0. 0. 0. 0. 0. 0. 0. 0. 0. 0. 0. 0. 0. 0. 0. 0. 0. 0. 0. 0.
 0. 0. 0. 0.]

Layer 3:
[[-0.5858346 ]
 [ 0.73531973]
 [-1.1484114 ]
 [ 0.91009986]
 [ 0.62615275]
 [-1.0560424 ]
 [ 5.022858  ]
 [ 2.9380488 ]
 [-3.3128412 ]
 [ 0.15323764]
 [-1.1161997 ]
 [-1.9979964 ]
 [-1.6553086 ]
 [ 1.0695579 ]
 [ 0.70510143]
 [ 1.735724  ]
 [-0.37694052]
 [-0.27340043]
 [-0.27438083]
 [-0.78362054]
 [ 1.7568269 ]
 [ 3.790671  ]
 [ 1.5562366 ]
 [ 2.1210942 ]
 [ 0.1244    ]
 [ 0.53347   ]
 [ 0.24276474]
 [ 1.5571146 ]
 [-0.7218205 ]
 [-0.7551118 ]
 [ 0.9094245 ]
 [ 0.51841176]
 [ 0.6693527 ]
 [ 0.7858522 ]
 [ 0.29275176]
 [ 1.9589912 ]
 [-0.34047356]
 [-1.5511616 ]
 [ 1.1295751 ]
 [-0.24706128]
 [-0.84492934]
 [-0.4796402 ]
 [ 0.4522535 ]
 [-4.180594  ]
 [-0.25931463]
 [-0.48720807]
 [-0.9192098 ]
 [-2.5717573 ]
 [ 1.1219461 ]
 [ 0.7388342 ]
 [-3.8234546 ]
 [-0.6938757 ]
 [ 0.6819462 ]
 [-2.7627475 ]
 [-0.7079783 ]
 [ 2.056585  ]
 [ 1.2087235 ]
 [-0.72458494]
 [ 0.33245778]
 [ 1.2487282 ]
 [ 0.5309795 ]
 [-5.1761384 ]
 [-0.625693  ]
 [ 0.8439662 ]
 [-1.0123286 ]
 [-0.5803236 ]
 [ 0.19835831]
 [ 1.3057892 ]
 [-0.6621564 ]
 [-0.7168365 ]
 [ 1.5782375 ]
 [ 1.6204302 ]
 [ 0.52658296]
 [-1.9995395 ]
 [-0.13425745]
 [-0.28035575]
 [-1.433415  ]
 [-1.6464256 ]
 [-0.18640262]
 [ 1.40166   ]
 [ 0.5300942 ]
 [ 0.27329624]
 [-0.10342808]
 [-1.1955663 ]
 [ 1.8674967 ]
 [ 0.14837459]
 [-1.6845055 ]
 [-0.77406067]
 [-0.10704897]
 [-0.17526893]
 [ 0.6310244 ]
 [-0.9162206 ]
 [ 2.4631164 ]
 [ 0.6952095 ]
 [-0.4508015 ]
 [-0.28020307]
 [-3.0187883 ]
 [ 1.5418326 ]
 [ 1.5972203 ]
 [ 1.5017164 ]]

Layer 4:
[1.467731]



Consenso 0:
------------------------------------------------------------------------

Layer 0:
[[ 5.5301334e-03 -1.9835170e-01  7.3738338e-05 ...  7.1005619e-05
   1.8476607e-01 -9.1246413e-03]
 [-5.7449443e-03  0.0000000e+00 -1.4116220e-02 ... -1.0494176e-02
  -8.2343267e-03 -3.7088112e-03]
 [ 1.2474952e-01 -4.3784138e-03  5.1731393e-03 ... -1.1668697e-03
   9.5650665e-03  1.9427026e-03]
 ...
 [-7.1806428e-03  0.0000000e+00 -2.4490009e-04 ... -2.0962676e-03
   2.1376729e-01 -1.3859912e-03]
 [ 2.7513232e-03  3.1448320e-02 -3.7054843e-03 ...  3.9429695e-04
  -1.0102106e-03 -1.6405054e-03]
 [ 5.6743859e-03  2.2639302e-03 -2.1483290e-01 ...  3.3756467e-03
  -1.9225457e-01 -1.6639206e-03]]

Layer 1:
[[ 0.08580631 -0.14480528  0.08532164 -0.0761883   0.08941726 -0.07294112
  -0.12011387 -0.09234449  0.1197416  -0.01132909  0.05933649  0.04131242
  -0.03694037 -0.05995246 -0.02485553  0.00760428 -0.00362175  0.06221533
  -0.0543906  -0.05086989  0.05039993 -0.06771187  0.00048922 -0.04711908
  -0.04660577 -0.04951528  0.07399628  0.03149232  0.00467618  0.05771967
   0.01684959 -0.04422578 -0.01211757  0.08631203  0.07786723  0.03391579
  -0.03148035  0.15116069  0.16232553  0.00602401 -0.09719027  0.00985693
  -0.00632571 -0.01119488  0.08164496  0.01527006 -0.09303274  0.07378083
   0.06556574  0.08515414  0.02687764 -0.07285137 -0.04191199  0.05762362
  -0.06795007 -0.04351814 -0.1156638   0.08059666 -0.06460629 -0.1291158
  -0.04231076  0.05675417 -0.06676297 -0.12131233  0.06380269  0.01508703
  -0.11226085  0.14361101  0.00283037  0.07107493 -0.00264097 -0.10963189
  -0.01841681 -0.12121697  0.03167424  0.09578314  0.0306375   0.1226315
   0.01712818  0.0668907  -0.10350301  0.06843088 -0.10619711 -0.08281136
  -0.11885419  0.06929068  0.05040958  0.11072735  0.01745428 -0.1028767
   0.03133556  0.12000312 -0.06932304 -0.04923451 -0.09008321 -0.09197913
  -0.08273355 -0.09630102 -0.1176772   0.12582663]]

Layer 2:
[0. 0. 0. 0. 0. 0. 0. 0. 0. 0. 0. 0. 0. 0. 0. 0. 0. 0. 0. 0. 0. 0. 0. 0.
 0. 0. 0. 0. 0. 0. 0. 0. 0. 0. 0. 0. 0. 0. 0. 0. 0. 0. 0. 0. 0. 0. 0. 0.
 0. 0. 0. 0. 0. 0. 0. 0. 0. 0. 0. 0. 0. 0. 0. 0. 0. 0. 0. 0. 0. 0. 0. 0.
 0. 0. 0. 0. 0. 0. 0. 0. 0. 0. 0. 0. 0. 0. 0. 0. 0. 0. 0. 0. 0. 0. 0. 0.
 0. 0. 0. 0.]

Layer 3:
[[-0.52849996]
 [-0.04428296]
 [ 0.48522794]
 [-0.5324863 ]
 [ 0.30771512]
 [ 0.11385148]
 [-0.25577158]
 [-0.47639352]
 [ 0.23656486]
 [-0.87251306]
 [-0.07402893]
 [ 0.22423846]
 [-0.09700309]
 [-0.28041184]
 [-1.1061387 ]
 [ 0.47446755]
 [ 0.85674894]
 [ 0.04061925]
 [-0.28532076]
 [-0.0107942 ]
 [ 1.6679862 ]
 [ 0.07002128]
 [ 0.3004236 ]
 [-0.08745599]
 [-1.2583776 ]
 [-0.49082726]
 [ 1.5349821 ]
 [ 0.47543427]
 [-2.6763902 ]
 [ 0.6533417 ]
 [-1.3543342 ]
 [-1.6267133 ]
 [-1.8197814 ]
 [-0.0714308 ]
 [-0.04132593]
 [ 0.7175133 ]
 [-0.6402258 ]
 [ 0.26410672]
 [ 0.22330162]
 [ 1.2220929 ]
 [ 0.8812075 ]
 [-0.2881937 ]
 [ 0.993248  ]
 [ 0.08859725]
 [ 1.4711566 ]
 [-1.80785   ]
 [-0.03429446]
 [-0.04430509]
 [-0.13340461]
 [ 0.543756  ]
 [-0.03825461]
 [ 0.18870398]
 [ 0.04681529]
 [-0.04091646]
 [-0.09747618]
 [-0.02802345]
 [-0.53005075]
 [ 0.7615502 ]
 [-0.6382724 ]
 [ 0.0604556 ]
 [ 1.393722  ]
 [ 1.1054343 ]
 [-2.0808363 ]
 [-0.2650206 ]
 [ 0.56393385]
 [-0.99797   ]
 [ 0.06897422]
 [-0.13469522]
 [-0.00829884]
 [ 0.14708282]
 [ 1.4349247 ]
 [ 0.6624755 ]
 [-0.5138399 ]
 [-0.3326285 ]
 [ 0.13049707]
 [-0.13044468]
 [ 0.3523891 ]
 [ 0.36497998]
 [ 0.3281125 ]
 [ 1.0480721 ]
 [ 0.31649682]
 [ 0.00568785]
 [-0.04007403]
 [-0.15599342]
 [-0.581873  ]
 [ 0.08263104]
 [ 0.22929215]
 [ 0.30401292]
 [-0.13393928]
 [ 0.17330343]
 [ 0.60539484]
 [ 0.13513936]
 [-0.00612305]
 [-1.5107845 ]
 [ 0.01881616]
 [-0.01754626]
 [-0.08694603]
 [-0.42266348]
 [-0.37709707]
 [ 0.23485358]]

Layer 4:
[-0.03079591]



Entrenamiento 1:
------------------------------------------------------------------------

Layer 0:
[[ 5.5301334e-03 -1.9835170e-01  7.3738338e-05 ...  7.1005619e-05
   1.8476607e-01 -9.1246413e-03]
 [-5.7449443e-03  0.0000000e+00 -1.4116220e-02 ... -1.0494176e-02
  -8.2343267e-03 -3.7088112e-03]
 [ 1.2474952e-01 -4.3784138e-03  5.1731393e-03 ... -1.1668697e-03
   9.5650665e-03  1.9427026e-03]
 ...
 [-7.1806428e-03  0.0000000e+00 -2.4490009e-04 ... -2.0962676e-03
   2.1376729e-01 -1.3859912e-03]
 [ 2.7513232e-03  3.1448320e-02 -3.7054843e-03 ...  3.9429695e-04
  -1.0102106e-03 -1.6405054e-03]
 [ 5.6743859e-03  2.2639302e-03 -2.1483290e-01 ...  3.3756467e-03
  -1.9225457e-01 -1.6639206e-03]]

Layer 1:
[[ 0.08580631 -0.14480528  0.08532164 -0.0761883   0.08941726 -0.07294112
  -0.12011387 -0.09234449  0.1197416  -0.01132909  0.05933649  0.04131242
  -0.03694037 -0.05995246 -0.02485553  0.00760428 -0.00362175  0.06221533
  -0.0543906  -0.05086989  0.05039993 -0.06771187  0.00048922 -0.04711908
  -0.04660577 -0.04951528  0.07399628  0.03149232  0.00467618  0.05771967
   0.01684959 -0.04422578 -0.01211757  0.08631203  0.07786723  0.03391579
  -0.03148035  0.15116069  0.16232553  0.00602401 -0.09719027  0.00985693
  -0.00632571 -0.01119488  0.08164496  0.01527006 -0.09303274  0.07378083
   0.06556574  0.08515414  0.02687764 -0.07285137 -0.04191199  0.05762362
  -0.06795007 -0.04351814 -0.1156638   0.08059666 -0.06460629 -0.1291158
  -0.04231076  0.05675417 -0.06676297 -0.12131233  0.06380269  0.01508703
  -0.11226085  0.14361101  0.00283037  0.07107493 -0.00264097 -0.10963189
  -0.01841681 -0.12121697  0.03167424  0.09578314  0.0306375   0.1226315
   0.01712818  0.0668907  -0.10350301  0.06843088 -0.10619711 -0.08281136
  -0.11885419  0.06929068  0.05040958  0.11072735  0.01745428 -0.1028767
   0.03133556  0.12000312 -0.06932304 -0.04923451 -0.09008321 -0.09197913
  -0.08273355 -0.09630102 -0.1176772   0.12582663]]

Layer 2:
[0. 0. 0. 0. 0. 0. 0. 0. 0. 0. 0. 0. 0. 0. 0. 0. 0. 0. 0. 0. 0. 0. 0. 0.
 0. 0. 0. 0. 0. 0. 0. 0. 0. 0. 0. 0. 0. 0. 0. 0. 0. 0. 0. 0. 0. 0. 0. 0.
 0. 0. 0. 0. 0. 0. 0. 0. 0. 0. 0. 0. 0. 0. 0. 0. 0. 0. 0. 0. 0. 0. 0. 0.
 0. 0. 0. 0. 0. 0. 0. 0. 0. 0. 0. 0. 0. 0. 0. 0. 0. 0. 0. 0. 0. 0. 0. 0.
 0. 0. 0. 0.]

Layer 3:
[[-1.4308390e-01]
 [ 4.0440840e-01]
 [ 1.1672435e+00]
 [-1.3006452e+00]
 [ 7.8591764e-01]
 [ 7.8296214e-02]
 [ 1.9146772e-01]
 [-1.0108093e+00]
 [-7.8378581e-02]
 [-5.9645643e+00]
 [ 3.0371219e-01]
 [ 1.8014945e+00]
 [-1.8770193e+00]
 [-8.0184197e-01]
 [-6.8493371e+00]
 [ 5.5298243e+00]
 [-3.9354329e+00]
 [ 4.5220220e-01]
 [-1.2564650e+00]
 [-5.9656394e-01]
 [ 3.6347821e+00]
 [ 3.0561358e-02]
 [ 9.3383449e-01]
 [-2.9506129e-01]
 [-3.7416480e+00]
 [-1.6971285e+00]
 [ 2.6784334e+00]
 [ 2.2650044e+00]
 [ 1.5430329e+00]
 [ 1.3904088e+00]
 [-2.8864947e-01]
 [-3.0462952e+00]
 [-6.5031219e+00]
 [-2.9993480e-01]
 [ 2.4311711e-01]
 [ 2.3549294e+00]
 [-2.2375727e+00]
 [ 2.6824627e-02]
 [-9.0722032e-03]
 [ 3.7856915e+00]
 [ 8.3555335e-01]
 [ 5.6141491e+00]
 [-4.4549541e+00]
 [-5.8100686e+00]
 [ 2.3305495e+00]
 [ 9.0262167e-02]
 [-1.0327084e-01]
 [-6.0047086e-02]
 [ 4.7509307e-01]
 [ 6.9676644e-01]
 [ 6.8937087e-01]
 [-2.8638470e-01]
 [-2.1642880e+00]
 [ 1.5675420e-01]
 [-6.6226679e-01]
 [-1.9666945e+00]
 [-1.4014474e+00]
 [ 1.1141350e+00]
 [-1.4416431e+00]
 [ 2.5873736e-01]
 [-3.2134840e-01]
 [ 2.4473290e+00]
 [-2.3858759e+00]
 [-4.3598273e-01]
 [ 1.5628822e+00]
 [ 3.2864265e+00]
 [ 1.7652559e-01]
 [-3.5678262e-01]
 [ 4.5415530e+00]
 [ 8.8275123e-01]
 [-1.9894960e+00]
 [ 7.8376317e-01]
 [-3.2736835e+00]
 [-3.6191148e-01]
 [ 1.9727859e+00]
 [-8.7624967e-02]
 [ 3.9626169e+00]
 [ 1.5069078e-01]
 [ 2.4707923e+00]
 [ 1.7347387e+00]
 [ 2.3293237e-01]
 [ 4.6910247e-01]
 [ 3.7493734e-03]
 [-2.0780101e-01]
 [-3.6772135e-01]
 [ 8.2831258e-01]
 [ 2.5183037e-01]
 [ 2.4343963e-01]
 [ 9.7980684e-01]
 [ 1.6692287e-01]
 [ 3.5272496e+00]
 [ 9.9367522e-02]
 [-1.0024321e+00]
 [-3.4942243e+00]
 [ 1.1784104e-01]
 [ 9.0319410e-02]
 [-3.0635679e-01]
 [-8.8301009e-01]
 [-3.1251550e-01]
 [ 7.9713833e-01]]

Layer 4:
[0.7732476]



Consenso 1:
------------------------------------------------------------------------

Layer 0:
[[ 7.1273546e-04 -2.2752583e-01  9.5035566e-06 ...  9.1513593e-06
   2.1209411e-01 -1.1760034e-03]
 [ 1.0096451e-03  0.0000000e+00 -1.3985356e-02 ... -1.2320589e-02
  -8.6234054e-03 -4.4861203e-03]
 [ 1.4808311e-01 -5.1129539e-03  6.6672539e-04 ... -6.9679441e-03
   1.1122163e-02  1.3820438e-02]
 ...
 [-8.3495807e-03  0.0000000e+00 -3.1563257e-05 ... -2.7017150e-04
   2.4322192e-01 -1.6185106e-03]
 [ 3.5459647e-04  3.4236655e-02 -4.3333960e-03 ...  5.0817845e-05
  -1.3019812e-04 -2.1143189e-04]
 [ 4.3368596e-03  9.6711905e-05 -2.3629518e-01 ...  3.9476654e-03
  -2.1927078e-01 -2.1444967e-04]]

Layer 1:
[[ 0.0935038  -0.16993044  0.08814302 -0.08934249  0.10707466 -0.08155233
  -0.12556171 -0.10864816  0.13733491 -0.0089709   0.05945227  0.03692306
  -0.04090175 -0.07622354 -0.04025205  0.00850893 -0.00491721  0.0724947
  -0.06664854 -0.06152827  0.04594129 -0.07960073  0.00980811 -0.04377664
  -0.05268915 -0.05381733  0.06968758  0.03470564  0.01178741  0.06306356
   0.01384171 -0.04305891 -0.01797428  0.09177128  0.0943194   0.0388558
  -0.04042501  0.17145842  0.17100576  0.01295461 -0.11411119  0.00903765
   0.00160985 -0.01018514  0.08714809  0.01395311 -0.10618611  0.09039132
   0.08064833  0.10008142  0.02931922 -0.08453405 -0.05562823  0.06594576
  -0.07077046 -0.05545449 -0.12131888  0.07832684 -0.07062014 -0.14104803
  -0.05470549  0.06135429 -0.06599452 -0.13545296  0.08189327  0.01905072
  -0.13152745  0.15678982  0.01460743  0.07868402 -0.00916517 -0.12470769
  -0.02571688 -0.13314572  0.04303703  0.11128727  0.03774261  0.1283601
   0.02433691  0.07459473 -0.11357508  0.07591302 -0.12497204 -0.09191482
  -0.14562984  0.08236136  0.06078275  0.11190592  0.02122336 -0.10999975
   0.04250551  0.13870946 -0.08910862 -0.05264144 -0.10024873 -0.09899933
  -0.09538141 -0.11642204 -0.12477487  0.15158877]]

Layer 2:
[0. 0. 0. 0. 0. 0. 0. 0. 0. 0. 0. 0. 0. 0. 0. 0. 0. 0. 0. 0. 0. 0. 0. 0.
 0. 0. 0. 0. 0. 0. 0. 0. 0. 0. 0. 0. 0. 0. 0. 0. 0. 0. 0. 0. 0. 0. 0. 0.
 0. 0. 0. 0. 0. 0. 0. 0. 0. 0. 0. 0. 0. 0. 0. 0. 0. 0. 0. 0. 0. 0. 0. 0.
 0. 0. 0. 0. 0. 0. 0. 0. 0. 0. 0. 0. 0. 0. 0. 0. 0. 0. 0. 0. 0. 0. 0. 0.
 0. 0. 0. 0.]

Layer 3:
[[-8.40607405e-01]
 [-3.46492171e-01]
 [ 2.54994422e-01]
 [-2.14747474e-01]
 [ 5.21585159e-02]
 [-3.95107754e-02]
 [-2.53942562e-06]
 [-2.06357241e-01]
 [ 4.42234576e-01]
 [-3.54899979e+00]
 [ 7.08337277e-02]
 [ 9.97640371e-01]
 [-4.02679503e-01]
 [-6.50123417e-01]
 [-4.75496244e+00]
 [ 2.17986274e+00]
 [ 1.29704618e+00]
 [ 6.88510314e-02]
 [-1.18774593e+00]
 [-6.89552069e-01]
 [ 2.57540464e+00]
 [-1.93269163e-01]
 [ 2.86689806e+00]
 [ 1.88905701e-01]
 [-2.01093912e+00]
 [-1.61073709e+00]
 [ 2.25709939e+00]
 [ 6.70973003e-01]
 [-1.62790883e+00]
 [ 8.11412394e-01]
 [-6.57885313e-01]
 [-2.60927367e+00]
 [-6.86665535e+00]
 [-3.43439847e-01]
 [ 1.80359066e-01]
 [ 1.38739741e+00]
 [-1.03206050e+00]
 [ 1.06936201e-01]
 [ 1.56857327e-01]
 [ 2.68676066e+00]
 [ 9.11567569e-01]
 [ 3.05521083e+00]
 [-2.24921489e+00]
 [-2.15611124e+00]
 [ 2.37157536e+00]
 [-1.60089886e+00]
 [-1.84680219e-03]
 [-1.36627793e-01]
 [-9.22959521e-02]
 [ 7.47974694e-01]
 [ 4.26439978e-02]
 [ 5.25616586e-01]
 [-5.78412235e-01]
 [-1.02204487e-01]
 [-5.21260738e-01]
 [-3.33571464e-01]
 [-1.65270850e-01]
 [ 9.01901484e-01]
 [-1.15699732e+00]
 [ 1.99652359e-01]
 [ 1.03527522e+00]
 [ 1.60233188e+00]
 [-3.47890878e+00]
 [-1.81917287e-03]
 [ 8.56888235e-01]
 [ 2.74813199e+00]
 [-7.30703212e-03]
 [-6.10709369e-01]
 [ 2.03654051e+00]
 [ 7.68656492e-01]
 [-1.62321463e-01]
 [ 1.16743577e+00]
 [-2.29531431e+00]
 [-5.29858410e-01]
 [ 8.94189119e-01]
 [-1.70718744e-01]
 [ 4.41402292e+00]
 [ 2.35848248e-01]
 [ 2.28729439e+00]
 [ 1.17763972e+00]
 [ 3.51830661e-01]
 [-3.95328164e-01]
 [ 6.15109168e-02]
 [-2.71622464e-02]
 [-6.83509350e-01]
 [-2.31277980e-02]
 [ 1.53926283e-01]
 [ 1.64294854e-01]
 [ 2.99902529e-01]
 [ 2.20819652e-01]
 [ 2.63854074e+00]
 [ 2.23898456e-01]
 [ 4.25366536e-02]
 [-3.18442750e+00]
 [ 2.63677780e-02]
 [-1.24453865e-01]
 [-2.04949543e-01]
 [-2.51871079e-01]
 [-2.20340744e-01]
 [-4.10803139e-01]]

Layer 4:
[-0.28780502]



Entrenamiento 2:
------------------------------------------------------------------------

Layer 0:
[[ 7.1273546e-04 -2.2752583e-01  9.5035566e-06 ...  9.1513593e-06
   2.1209411e-01 -1.1760034e-03]
 [ 1.0096451e-03  0.0000000e+00 -1.3985356e-02 ... -1.2320589e-02
  -8.6234054e-03 -4.4861203e-03]
 [ 1.4808311e-01 -5.1129539e-03  6.6672539e-04 ... -6.9679441e-03
   1.1122163e-02  1.3820438e-02]
 ...
 [-8.3495807e-03  0.0000000e+00 -3.1563257e-05 ... -2.7017150e-04
   2.4322192e-01 -1.6185106e-03]
 [ 3.5459647e-04  3.4236655e-02 -4.3333960e-03 ...  5.0817845e-05
  -1.3019812e-04 -2.1143189e-04]
 [ 4.3368596e-03  9.6711905e-05 -2.3629518e-01 ...  3.9476654e-03
  -2.1927078e-01 -2.1444967e-04]]

Layer 1:
[[ 0.0935038  -0.16993044  0.08814302 -0.08934249  0.10707466 -0.08155233
  -0.12556171 -0.10864816  0.13733491 -0.0089709   0.05945227  0.03692306
  -0.04090175 -0.07622354 -0.04025205  0.00850893 -0.00491721  0.0724947
  -0.06664854 -0.06152827  0.04594129 -0.07960073  0.00980811 -0.04377664
  -0.05268915 -0.05381733  0.06968758  0.03470564  0.01178741  0.06306356
   0.01384171 -0.04305891 -0.01797428  0.09177128  0.0943194   0.0388558
  -0.04042501  0.17145842  0.17100576  0.01295461 -0.11411119  0.00903765
   0.00160985 -0.01018514  0.08714809  0.01395311 -0.10618611  0.09039132
   0.08064833  0.10008142  0.02931922 -0.08453405 -0.05562823  0.06594576
  -0.07077046 -0.05545449 -0.12131888  0.07832684 -0.07062014 -0.14104803
  -0.05470549  0.06135429 -0.06599452 -0.13545296  0.08189327  0.01905072
  -0.13152745  0.15678982  0.01460743  0.07868402 -0.00916517 -0.12470769
  -0.02571688 -0.13314572  0.04303703  0.11128727  0.03774261  0.1283601
   0.02433691  0.07459473 -0.11357508  0.07591302 -0.12497204 -0.09191482
  -0.14562984  0.08236136  0.06078275  0.11190592  0.02122336 -0.10999975
   0.04250551  0.13870946 -0.08910862 -0.05264144 -0.10024873 -0.09899933
  -0.09538141 -0.11642204 -0.12477487  0.15158877]]

Layer 2:
[0. 0. 0. 0. 0. 0. 0. 0. 0. 0. 0. 0. 0. 0. 0. 0. 0. 0. 0. 0. 0. 0. 0. 0.
 0. 0. 0. 0. 0. 0. 0. 0. 0. 0. 0. 0. 0. 0. 0. 0. 0. 0. 0. 0. 0. 0. 0. 0.
 0. 0. 0. 0. 0. 0. 0. 0. 0. 0. 0. 0. 0. 0. 0. 0. 0. 0. 0. 0. 0. 0. 0. 0.
 0. 0. 0. 0. 0. 0. 0. 0. 0. 0. 0. 0. 0. 0. 0. 0. 0. 0. 0. 0. 0. 0. 0. 0.
 0. 0. 0. 0.]

Layer 3:
[[-9.2753839e-01]
 [-2.6613593e-01]
 [ 2.8015932e-01]
 [-2.9581407e-01]
 [-7.7100642e-02]
 [-3.8995776e-02]
 [ 1.0625830e-01]
 [-1.1579381e-01]
 [ 2.8934568e-01]
 [-8.6293583e+00]
 [ 2.5663540e-01]
 [ 2.5743463e+00]
 [-1.3740923e+00]
 [-6.8443125e-01]
 [-8.1833601e+00]
 [ 7.1470828e+00]
 [-4.3300896e+00]
 [ 1.8076792e-02]
 [-1.4641640e+00]
 [-8.7672681e-01]
 [ 4.2162232e+00]
 [-2.2335032e-01]
 [ 8.6810665e+00]
 [ 8.3838202e-02]
 [-3.3454373e+00]
 [-2.1364961e+00]
 [ 2.8410275e+00]
 [ 1.4942458e+00]
 [ 1.2790017e+00]
 [ 1.0322381e+00]
 [ 5.4213345e-01]
 [-3.2711208e+00]
 [-1.0457531e+01]
 [-3.7070304e-01]
 [ 1.2633382e-01]
 [ 2.3083413e+00]
 [-1.8016994e+00]
 [-8.8528126e-02]
 [-8.6892411e-02]
 [ 4.8089256e+00]
 [ 1.0550205e+00]
 [ 8.8213005e+00]
 [-1.3121302e+00]
 [-7.0743818e+00]
 [ 2.6396351e+00]
 [ 3.7726796e-01]
 [ 1.0523916e-01]
 [-2.0642507e-01]
 [-5.7132185e-02]
 [ 6.4284927e-01]
 [ 7.8601629e-01]
 [ 4.8620245e-01]
 [-1.8108777e+00]
 [-5.0459869e-02]
 [-7.3196226e-01]
 [-1.2831225e+00]
 [-1.2064838e-02]
 [ 8.2954603e-01]
 [-1.3100040e+00]
 [ 3.7781546e-01]
 [ 4.9021578e-01]
 [ 2.6155035e+00]
 [-3.6214216e+00]
 [ 2.1159902e-01]
 [ 9.6143311e-01]
 [ 6.6385393e+00]
 [ 1.1641887e-01]
 [-7.9125029e-01]
 [ 5.8001771e+00]
 [ 9.3651664e-01]
 [-4.1110587e+00]
 [ 1.3148347e+00]
 [-3.8858154e+00]
 [-3.6715311e-01]
 [ 1.6749814e+00]
 [-2.8814965e-01]
 [ 7.1251731e+00]
 [ 4.8753619e-02]
 [ 3.7616506e+00]
 [ 1.2930630e+00]
 [ 4.9506375e-01]
 [-5.3987664e-01]
 [ 2.4361084e-01]
 [ 7.0178039e-02]
 [-5.3315222e-01]
 [ 2.2421364e-02]
 [ 1.6917925e-01]
 [ 3.1867541e-02]
 [ 1.1391181e+00]
 [ 3.0871838e-01]
 [ 4.1791277e+00]
 [ 6.5302223e-02]
 [ 2.0534618e-02]
 [-4.8979974e+00]
 [ 1.3600937e-01]
 [-3.8274072e-02]
 [-1.7298009e-01]
 [-7.1524717e-02]
 [ 2.1260171e-03]
 [-6.9993716e-01]]

Layer 4:
[-0.583511]



Consenso 2:
------------------------------------------------------------------------

Layer 0:
[[ 9.18588776e-05 -2.31285885e-01  1.22483914e-06 ...  1.17944671e-06
   2.15616226e-01 -1.51565866e-04]
 [ 1.88019115e-03  0.00000000e+00 -1.39684891e-02 ... -1.25559820e-02
  -8.67355242e-03 -4.58630081e-03]
 [ 1.51090398e-01 -5.20762336e-03  8.59290158e-05 ... -7.71559868e-03
   1.13228466e-02  1.53512675e-02]
 ...
 [-8.50023516e-03  0.00000000e+00 -4.06794106e-06 ... -3.48202921e-05
   2.47018069e-01 -1.64847821e-03]
 [ 4.57011593e-05  3.45960222e-02 -4.41432279e-03 ...  6.54951282e-06
  -1.67802154e-05 -2.72498037e-05]
 [ 4.16447641e-03 -1.82603733e-04 -2.39061296e-01 ...  4.02138848e-03
  -2.22752690e-01 -2.76387400e-05]]

Layer 1:
[[ 0.09449587 -0.17316861  0.08850665 -0.09103782  0.10935038 -0.08266216
  -0.12626386 -0.1107494   0.13960238 -0.00866697  0.05946719  0.03635734
  -0.04141231 -0.07832059 -0.04223638  0.00862553 -0.00508417  0.07381953
  -0.06822837 -0.06290194  0.04536665 -0.08113299  0.01100915 -0.04334586
  -0.05347319 -0.05437179  0.06913227  0.03511979  0.01270392  0.0637523
   0.01345405 -0.04290852 -0.01872911  0.09247489  0.09643979  0.03949248
  -0.04157782  0.17407444  0.17212448  0.01384784 -0.11629199  0.00893206
   0.0026326  -0.01005501  0.08785736  0.01378337 -0.10788134  0.09253211
   0.0825922   0.10200529  0.0296339  -0.08603974 -0.05739601  0.06701833
  -0.07113395 -0.05699287 -0.12204771  0.0780343  -0.07139523 -0.14258587
  -0.05630294  0.06194717 -0.06589548 -0.13727544  0.08422482  0.01956157
  -0.13401055  0.15848832  0.01612529  0.0796647  -0.01000603 -0.12665069
  -0.02665772 -0.13468313  0.0445015   0.11328547  0.03865832  0.12909842
   0.02526599  0.07558765 -0.11487318  0.07687734 -0.12739179 -0.09308808
  -0.14908074  0.08404593  0.06211967  0.11205782  0.02170913 -0.11091778
   0.04394511  0.14112037 -0.09165864 -0.05308053 -0.10155889 -0.09990411
  -0.09701149 -0.11901528 -0.12568963  0.15490904]]

Layer 2:
[0. 0. 0. 0. 0. 0. 0. 0. 0. 0. 0. 0. 0. 0. 0. 0. 0. 0. 0. 0. 0. 0. 0. 0.
 0. 0. 0. 0. 0. 0. 0. 0. 0. 0. 0. 0. 0. 0. 0. 0. 0. 0. 0. 0. 0. 0. 0. 0.
 0. 0. 0. 0. 0. 0. 0. 0. 0. 0. 0. 0. 0. 0. 0. 0. 0. 0. 0. 0. 0. 0. 0. 0.
 0. 0. 0. 0. 0. 0. 0. 0. 0. 0. 0. 0. 0. 0. 0. 0. 0. 0. 0. 0. 0. 0. 0. 0.
 0. 0. 0. 0.]

Layer 3:
[[-1.05479813e+00]
 [-1.02265334e+00]
 [-4.26917076e-01]
 [ 4.00173873e-01]
 [-2.51696438e-01]
 [-3.37475866e-01]
 [ 1.23326883e-01]
 [ 6.41777217e-01]
 [ 7.88730145e-01]
 [-6.08797979e+00]
 [ 2.01354668e-01]
 [ 2.63326466e-01]
 [-9.06512216e-02]
 [-9.12323117e-01]
 [-6.27015686e+00]
 [ 2.53454876e+00]
 [ 1.43389344e+00]
 [ 3.41707975e-01]
 [-7.63086736e-01]
 [-1.05036652e+00]
 [ 1.59274352e+00]
 [-1.58610363e-02]
 [ 4.26005888e+00]
 [ 6.50304323e-03]
 [-1.08178556e+00]
 [-1.25370586e+00]
 [ 1.33126056e+00]
 [ 5.94338119e-01]
 [-1.61892641e+00]
 [ 4.76417661e-01]
 [ 1.22026645e-01]
 [-2.21891332e+00]
 [-1.01780081e+01]
 [-4.79037613e-02]
 [ 4.89252687e-01]
 [ 1.21347523e+00]
 [-1.02795124e+00]
 [ 2.96135157e-01]
 [ 2.90599406e-01]
 [ 3.78552222e+00]
 [ 4.85557705e-01]
 [ 6.74640083e+00]
 [-5.34829473e+00]
 [-3.19041800e+00]
 [ 1.57755005e+00]
 [-1.21957958e+00]
 [-2.02936977e-02]
 [ 2.38312304e-01]
 [-1.39151365e-01]
 [ 1.02582383e+00]
 [ 1.36253424e-02]
 [ 8.41282547e-01]
 [ 6.11976147e-01]
 [-4.23810631e-02]
 [-1.67836413e-01]
 [ 7.37260818e-01]
 [ 6.17635250e-01]
 [ 1.21768153e+00]
 [-7.87265778e-01]
 [-1.57121927e-01]
 [ 1.79775500e+00]
 [ 4.60516989e-01]
 [-3.95246243e+00]
 [ 9.25350264e-02]
 [ 4.66877669e-01]
 [ 5.58439302e+00]
 [-4.49228913e-01]
 [-5.00843287e-01]
 [ 2.80438304e+00]
 [ 6.01037182e-02]
 [-1.72849512e+00]
 [ 9.16573822e-01]
 [-2.90865159e+00]
 [-1.03608596e+00]
 [ 7.24738955e-01]
 [ 9.63163152e-02]
 [ 6.03062296e+00]
 [ 5.61230898e-01]
 [ 4.22253036e+00]
 [ 1.00462568e+00]
 [ 2.87714805e-02]
 [-4.69794095e-01]
 [-5.12264334e-02]
 [-3.39523464e-01]
 [-9.31310833e-01]
 [-1.71422631e-01]
 [ 5.74586630e-01]
 [ 4.84087199e-01]
 [ 7.81933486e-01]
 [ 5.90579882e-02]
 [ 2.69128776e+00]
 [ 5.54979861e-01]
 [ 7.83555150e-01]
 [-2.73497105e+00]
 [-2.76323497e-01]
 [-5.72880924e-01]
 [-7.01799214e-01]
 [ 1.92778528e-01]
 [-4.72706854e-01]
 [-1.06873190e+00]]

Layer 4:
[0.29133102]



Entrenamiento 3:
------------------------------------------------------------------------

Layer 0:
[[ 9.18588776e-05 -2.31285885e-01  1.22483914e-06 ...  1.17944671e-06
   2.15616226e-01 -1.51565866e-04]
 [ 1.88019115e-03  0.00000000e+00 -1.39684891e-02 ... -1.25559820e-02
  -8.67355242e-03 -4.58630081e-03]
 [ 1.51090398e-01 -5.20762336e-03  8.59290158e-05 ... -7.71559868e-03
   1.13228466e-02  1.53512675e-02]
 ...
 [-8.50023516e-03  0.00000000e+00 -4.06794106e-06 ... -3.48202921e-05
   2.47018069e-01 -1.64847821e-03]
 [ 4.57011593e-05  3.45960222e-02 -4.41432279e-03 ...  6.54951282e-06
  -1.67802154e-05 -2.72498037e-05]
 [ 4.16447641e-03 -1.82603733e-04 -2.39061296e-01 ...  4.02138848e-03
  -2.22752690e-01 -2.76387400e-05]]

Layer 1:
[[ 0.09449587 -0.17316861  0.08850665 -0.09103782  0.10935038 -0.08266216
  -0.12626386 -0.1107494   0.13960238 -0.00866697  0.05946719  0.03635734
  -0.04141231 -0.07832059 -0.04223638  0.00862553 -0.00508417  0.07381953
  -0.06822837 -0.06290194  0.04536665 -0.08113299  0.01100915 -0.04334586
  -0.05347319 -0.05437179  0.06913227  0.03511979  0.01270392  0.0637523
   0.01345405 -0.04290852 -0.01872911  0.09247489  0.09643979  0.03949248
  -0.04157782  0.17407444  0.17212448  0.01384784 -0.11629199  0.00893206
   0.0026326  -0.01005501  0.08785736  0.01378337 -0.10788134  0.09253211
   0.0825922   0.10200529  0.0296339  -0.08603974 -0.05739601  0.06701833
  -0.07113395 -0.05699287 -0.12204771  0.0780343  -0.07139523 -0.14258587
  -0.05630294  0.06194717 -0.06589548 -0.13727544  0.08422482  0.01956157
  -0.13401055  0.15848832  0.01612529  0.0796647  -0.01000603 -0.12665069
  -0.02665772 -0.13468313  0.0445015   0.11328547  0.03865832  0.12909842
   0.02526599  0.07558765 -0.11487318  0.07687734 -0.12739179 -0.09308808
  -0.14908074  0.08404593  0.06211967  0.11205782  0.02170913 -0.11091778
   0.04394511  0.14112037 -0.09165864 -0.05308053 -0.10155889 -0.09990411
  -0.09701149 -0.11901528 -0.12568963  0.15490904]]

Layer 2:
[0. 0. 0. 0. 0. 0. 0. 0. 0. 0. 0. 0. 0. 0. 0. 0. 0. 0. 0. 0. 0. 0. 0. 0.
 0. 0. 0. 0. 0. 0. 0. 0. 0. 0. 0. 0. 0. 0. 0. 0. 0. 0. 0. 0. 0. 0. 0. 0.
 0. 0. 0. 0. 0. 0. 0. 0. 0. 0. 0. 0. 0. 0. 0. 0. 0. 0. 0. 0. 0. 0. 0. 0.
 0. 0. 0. 0. 0. 0. 0. 0. 0. 0. 0. 0. 0. 0. 0. 0. 0. 0. 0. 0. 0. 0. 0. 0.
 0. 0. 0. 0.]

Layer 3:
[[-1.18375766e+00]
 [-9.83507216e-01]
 [-5.13279021e-01]
 [ 4.36345071e-01]
 [-4.59270805e-01]
 [-3.39901567e-01]
 [ 2.47229427e-01]
 [ 8.64097238e-01]
 [ 6.33189082e-01]
 [-1.10178776e+01]
 [ 3.59235197e-01]
 [ 1.86603701e+00]
 [-9.17330444e-01]
 [-8.87215853e-01]
 [-9.26514626e+00]
 [ 7.33729029e+00]
 [-3.97373247e+00]
 [ 2.60369062e-01]
 [-8.89945626e-01]
 [-1.16884601e+00]
 [ 3.20343876e+00]
 [ 9.14394669e-03]
 [ 9.47687912e+00]
 [-9.39962193e-02]
 [-2.18410110e+00]
 [-1.63608980e+00]
 [ 1.79643071e+00]
 [ 1.27463603e+00]
 [ 9.95169103e-01]
 [ 6.08830869e-01]
 [ 1.41578281e+00]
 [-2.77543259e+00]
 [-1.35007582e+01]
 [-4.23316360e-02]
 [ 3.83739948e-01]
 [ 2.02089167e+00]
 [-1.61716163e+00]
 [ 1.10122293e-01]
 [ 6.57347515e-02]
 [ 5.83419514e+00]
 [ 6.29739702e-01]
 [ 1.21903572e+01]
 [-3.11399794e+00]
 [-7.78756046e+00]
 [ 1.71344185e+00]
 [ 8.93010080e-01]
 [ 1.02623455e-01]
 [ 1.46442518e-01]
 [-1.82920709e-01]
 [ 9.05649483e-01]
 [ 7.31284320e-01]
 [ 8.71058524e-01]
 [-4.03484046e-01]
 [-4.00602147e-02]
 [-3.12134564e-01]
 [ 4.71476652e-02]
 [ 9.18520510e-01]
 [ 1.11969507e+00]
 [-8.40404272e-01]
 [ 4.38583596e-03]
 [ 1.46000397e+00]
 [ 1.29503918e+00]
 [-4.07424545e+00]
 [ 3.35457921e-01]
 [ 4.15673018e-01]
 [ 9.32733822e+00]
 [-3.46678048e-01]
 [-6.64147258e-01]
 [ 6.12428665e+00]
 [ 1.24835134e-01]
 [-5.52066851e+00]
 [ 1.05492818e+00]
 [-4.30514812e+00]
 [-8.81763399e-01]
 [ 1.30930340e+00]
 [-1.66980699e-02]
 [ 8.50773048e+00]
 [ 3.97192985e-01]
 [ 5.57839537e+00]
 [ 1.03130352e+00]
 [ 1.78082734e-01]
 [-6.62680566e-01]
 [ 1.32969335e-01]
 [-2.43308872e-01]
 [-7.90505230e-01]
 [-2.36319333e-01]
 [ 5.91193497e-01]
 [ 3.66407633e-01]
 [ 1.60733974e+00]
 [ 1.57450899e-01]
 [ 3.93279624e+00]
 [ 3.99692893e-01]
 [ 9.43362713e-01]
 [-4.35976219e+00]
 [-1.83310181e-01]
 [-4.92118776e-01]
 [-6.74615264e-01]
 [ 4.57186699e-01]
 [-2.52345800e-01]
 [-1.43334603e+00]]

Layer 4:
[-0.19255416]



Consenso 3:
------------------------------------------------------------------------

Layer 0:
[[ 1.1838972e-05 -2.3177047e-01  1.5785992e-07 ...  1.5200965e-07
   2.1607016e-01 -1.9534136e-05]
 [ 1.9923889e-03  0.0000000e+00 -1.3966316e-02 ... -1.2586320e-02
  -8.6800149e-03 -4.5992122e-03]
 [ 1.5147798e-01 -5.2198241e-03  1.1074715e-05 ... -7.8119580e-03
   1.1348710e-02  1.5548564e-02]
 ...
 [-8.5196523e-03  0.0000000e+00 -5.2428499e-07 ... -4.4877152e-06
   2.4750736e-01 -1.6523404e-03]
 [ 5.8900637e-06  3.4642335e-02 -4.4247527e-03 ...  8.4411545e-07
  -2.1626704e-06 -3.5120136e-06]
 [ 4.1422597e-03 -2.1860251e-04 -2.3941779e-01 ...  4.0308903e-03
  -2.2320142e-01 -3.5621408e-06]]

Layer 1:
[[ 0.09462373 -0.17358595  0.08855352 -0.09125634  0.10964368 -0.0828052
  -0.12635435 -0.11102022  0.1398946  -0.0086278   0.05946911  0.03628444
  -0.0414781  -0.07859087 -0.04249213  0.00864055 -0.00510569  0.07399029
  -0.06843197 -0.06307898  0.04529259 -0.08133048  0.01116394 -0.04329034
  -0.05357424 -0.05444325  0.06906071  0.03517316  0.01282204  0.06384106
   0.01340408 -0.04288914 -0.01882639  0.09256557  0.09671307  0.03957454
  -0.0417264   0.1744116   0.17226867  0.01396296 -0.11657306  0.00891845
   0.00276442 -0.01003824  0.08794877  0.0137615  -0.10809983  0.09280802
   0.08284273  0.10225324  0.02967446 -0.0862338  -0.05762385  0.06715657
  -0.0711808  -0.05719114 -0.12214164  0.07799659 -0.07149512 -0.14278407
  -0.05650883  0.06202358 -0.06588272 -0.13751033  0.08452532  0.01962741
  -0.1343306   0.15870723  0.01632091  0.07979108 -0.0101144  -0.12690112
  -0.02677898 -0.13488129  0.04469024  0.113543    0.03877635  0.12919357
   0.02538573  0.07571561 -0.11504049  0.07700162 -0.12770365 -0.09323929
  -0.14952551  0.08426304  0.06229197  0.11207739  0.02177173 -0.1110361
   0.04413065  0.14143108 -0.09198729 -0.05313712 -0.10172775 -0.10002073
  -0.09722158 -0.1193495  -0.12580752  0.15533698]]

Layer 2:
[0. 0. 0. 0. 0. 0. 0. 0. 0. 0. 0. 0. 0. 0. 0. 0. 0. 0. 0. 0. 0. 0. 0. 0.
 0. 0. 0. 0. 0. 0. 0. 0. 0. 0. 0. 0. 0. 0. 0. 0. 0. 0. 0. 0. 0. 0. 0. 0.
 0. 0. 0. 0. 0. 0. 0. 0. 0. 0. 0. 0. 0. 0. 0. 0. 0. 0. 0. 0. 0. 0. 0. 0.
 0. 0. 0. 0. 0. 0. 0. 0. 0. 0. 0. 0. 0. 0. 0. 0. 0. 0. 0. 0. 0. 0. 0. 0.
 0. 0. 0. 0.]

Layer 3:
[[-9.5777309e-01]
 [-8.5093307e-01]
 [-3.7510431e-01]
 [ 5.4738283e-01]
 [-8.3824294e-03]
 [-2.2584330e-01]
 [ 3.0887613e-02]
 [ 6.3082719e-01]
 [ 8.6809319e-01]
 [-8.5579071e+00]
 [ 1.3785470e-01]
 [-5.9303778e-01]
 [-1.7218041e-01]
 [-1.0932600e+00]
 [-6.7493315e+00]
 [ 2.3292210e+00]
 [ 1.5577585e+00]
 [ 7.1451980e-01]
 [-2.6298624e-01]
 [-1.1370524e+00]
 [ 8.6490476e-01]
 [-4.9441040e-02]
 [ 4.3840194e+00]
 [-3.8911781e-01]
 [-6.8744296e-01]
 [-5.6343609e-01]
 [ 5.3831500e-01]
 [ 1.0889995e+00]
 [-1.6341217e+00]
 [ 4.6165285e-01]
 [ 6.1377406e-01]
 [-2.4484272e+00]
 [-1.2440794e+01]
 [-2.2855133e-01]
 [ 8.3794135e-01]
 [ 1.0812480e+00]
 [-1.0555882e+00]
 [ 2.9875869e-01]
 [ 2.7503997e-01]
 [ 4.2690616e+00]
 [ 2.3349662e-01]
 [ 1.0218677e+01]
 [-7.7113237e+00]
 [-3.6164987e+00]
 [ 5.9775060e-01]
 [-9.8336482e-01]
 [-2.0559229e-02]
 [ 5.4186767e-01]
 [-6.0238682e-02]
 [ 1.2722485e+00]
 [ 1.8226627e-01]
 [ 1.0110978e+00]
 [ 1.5131053e+00]
 [ 1.8207538e-01]
 [ 3.1956887e-01]
 [ 1.2388445e+00]
 [ 3.1717333e-01]
 [ 1.7130644e+00]
 [-4.9733299e-01]
 [-1.9098090e-01]
 [ 2.2375839e+00]
 [-1.4759145e-02]
 [-3.7956560e+00]
 [ 1.0604583e-02]
 [ 6.5610951e-01]
 [ 7.4933043e+00]
 [-3.1690377e-01]
 [-5.5037296e-01]
 [ 2.8044457e+00]
 [-8.4984219e-01]
 [-2.6382124e+00]
 [ 8.0881608e-01]
 [-3.4556880e+00]
 [-1.3261980e+00]
 [ 4.6529487e-01]
 [ 1.1412819e-01]
 [ 6.3412151e+00]
 [ 7.4446285e-01]
 [ 5.7629857e+00]
 [ 1.1390824e+00]
 [-2.3287912e-01]
 [ 2.9490179e-01]
 [-1.8546458e-01]
 [-5.6098145e-01]
 [-8.6373639e-01]
 [ 1.3107470e-01]
 [ 6.9818467e-01]
 [ 6.4817035e-01]
 [ 9.2291731e-01]
 [ 1.4148051e-01]
 [ 2.1846659e+00]
 [ 6.7254329e-01]
 [ 3.5893303e-01]
 [-1.2614368e+00]
 [-3.8444430e-01]
 [-8.0529290e-01]
 [-7.2601897e-01]
 [ 4.8192877e-02]
 [-7.6980400e-01]
 [-1.0578547e+00]]

Layer 4:
[0.43263876]



Entrenamiento 4:
------------------------------------------------------------------------

Layer 0:
[[ 1.1838972e-05 -2.3177047e-01  1.5785992e-07 ...  1.5200965e-07
   2.1607016e-01 -1.9534136e-05]
 [ 1.9923889e-03  0.0000000e+00 -1.3966316e-02 ... -1.2586320e-02
  -8.6800149e-03 -4.5992122e-03]
 [ 1.5147798e-01 -5.2198241e-03  1.1074715e-05 ... -7.8119580e-03
   1.1348710e-02  1.5548564e-02]
 ...
 [-8.5196523e-03  0.0000000e+00 -5.2428499e-07 ... -4.4877152e-06
   2.4750736e-01 -1.6523404e-03]
 [ 5.8900637e-06  3.4642335e-02 -4.4247527e-03 ...  8.4411545e-07
  -2.1626704e-06 -3.5120136e-06]
 [ 4.1422597e-03 -2.1860251e-04 -2.3941779e-01 ...  4.0308903e-03
  -2.2320142e-01 -3.5621408e-06]]

Layer 1:
[[ 0.09462373 -0.17358595  0.08855352 -0.09125634  0.10964368 -0.0828052
  -0.12635435 -0.11102022  0.1398946  -0.0086278   0.05946911  0.03628444
  -0.0414781  -0.07859087 -0.04249213  0.00864055 -0.00510569  0.07399029
  -0.06843197 -0.06307898  0.04529259 -0.08133048  0.01116394 -0.04329034
  -0.05357424 -0.05444325  0.06906071  0.03517316  0.01282204  0.06384106
   0.01340408 -0.04288914 -0.01882639  0.09256557  0.09671307  0.03957454
  -0.0417264   0.1744116   0.17226867  0.01396296 -0.11657306  0.00891845
   0.00276442 -0.01003824  0.08794877  0.0137615  -0.10809983  0.09280802
   0.08284273  0.10225324  0.02967446 -0.0862338  -0.05762385  0.06715657
  -0.0711808  -0.05719114 -0.12214164  0.07799659 -0.07149512 -0.14278407
  -0.05650883  0.06202358 -0.06588272 -0.13751033  0.08452532  0.01962741
  -0.1343306   0.15870723  0.01632091  0.07979108 -0.0101144  -0.12690112
  -0.02677898 -0.13488129  0.04469024  0.113543    0.03877635  0.12919357
   0.02538573  0.07571561 -0.11504049  0.07700162 -0.12770365 -0.09323929
  -0.14952551  0.08426304  0.06229197  0.11207739  0.02177173 -0.1110361
   0.04413065  0.14143108 -0.09198729 -0.05313712 -0.10172775 -0.10002073
  -0.09722158 -0.1193495  -0.12580752  0.15533698]]

Layer 2:
[0. 0. 0. 0. 0. 0. 0. 0. 0. 0. 0. 0. 0. 0. 0. 0. 0. 0. 0. 0. 0. 0. 0. 0.
 0. 0. 0. 0. 0. 0. 0. 0. 0. 0. 0. 0. 0. 0. 0. 0. 0. 0. 0. 0. 0. 0. 0. 0.
 0. 0. 0. 0. 0. 0. 0. 0. 0. 0. 0. 0. 0. 0. 0. 0. 0. 0. 0. 0. 0. 0. 0. 0.
 0. 0. 0. 0. 0. 0. 0. 0. 0. 0. 0. 0. 0. 0. 0. 0. 0. 0. 0. 0. 0. 0. 0. 0.
 0. 0. 0. 0.]

Layer 3:
[[-1.1492862e+00]
 [-8.7359095e-01]
 [-5.9729886e-01]
 [ 6.8429917e-01]
 [-3.0353042e-01]
 [-2.4062423e-01]
 [ 1.9559224e-01]
 [ 9.9723309e-01]
 [ 6.9795865e-01]
 [-1.3379086e+01]
 [ 2.7467856e-01]
 [ 9.6244180e-01]
 [-9.0605146e-01]
 [-1.0361114e+00]
 [-9.6401587e+00]
 [ 7.0454917e+00]
 [-3.6835003e+00]
 [ 5.8293849e-01]
 [-2.7791050e-01]
 [-1.2276084e+00]
 [ 2.3639770e+00]
 [ 2.9495066e-02]
 [ 9.2667065e+00]
 [-4.3851155e-01]
 [-1.6398611e+00]
 [-8.3338046e-01]
 [ 8.6983055e-01]
 [ 1.6642224e+00]
 [ 9.5768774e-01]
 [ 5.1624662e-01]
 [ 1.9873079e+00]
 [-2.8530719e+00]
 [-1.5749767e+01]
 [-1.7900886e-01]
 [ 6.7474431e-01]
 [ 1.8277719e+00]
 [-1.5876775e+00]
 [ 1.1042318e-01]
 [ 3.0271407e-02]
 [ 6.4062362e+00]
 [ 3.9873284e-01]
 [ 1.5461005e+01]
 [-5.2301850e+00]
 [-8.0333157e+00]
 [ 6.2557024e-01]
 [ 1.2287779e+00]
 [ 1.2984473e-01]
 [ 4.2300233e-01]
 [-1.5762314e-01]
 [ 1.1276240e+00]
 [ 8.8444281e-01]
 [ 1.0922656e+00]
 [ 6.5741849e-01]
 [ 1.4126754e-01]
 [ 2.2357596e-01]
 [ 6.9731003e-01]
 [ 8.1483036e-01]
 [ 1.5488731e+00]
 [-4.6815148e-01]
 [-1.8437471e-02]
 [ 2.0183029e+00]
 [ 6.5879399e-01]
 [-3.8943362e+00]
 [ 3.1934753e-01]
 [ 4.7988975e-01]
 [ 1.1202603e+01]
 [-2.3298888e-01]
 [-7.1325624e-01]
 [ 6.0392442e+00]
 [-8.7036026e-01]
 [-6.4195004e+00]
 [ 9.5185649e-01]
 [-4.7948031e+00]
 [-1.1624206e+00]
 [ 9.7407842e-01]
 [-5.9890794e-03]
 [ 8.7298079e+00]
 [ 5.6128442e-01]
 [ 7.1139197e+00]
 [ 1.0748607e+00]
 [-5.4678675e-02]
 [-6.6832500e-03]
 [ 3.1134332e-02]
 [-4.4551152e-01]
 [-7.3116493e-01]
 [-3.4472957e-02]
 [ 7.1740842e-01]
 [ 5.2329028e-01]
 [ 1.7823825e+00]
 [ 2.5097311e-01]
 [ 3.3131847e+00]
 [ 5.1095557e-01]
 [ 6.8261814e-01]
 [-2.8306248e+00]
 [-2.8961098e-01]
 [-7.1846378e-01]
 [-7.1785206e-01]
 [ 4.2458615e-01]
 [-4.9181208e-01]
 [-1.5359209e+00]]

Layer 4:
[-0.28481072]



Consenso 4:
------------------------------------------------------------------------

Layer 0:
[[ 1.52583243e-06 -2.31832922e-01  2.03453254e-08 ...  1.95913348e-08
   2.16128662e-01 -2.51760184e-06]
 [ 2.00684951e-03  0.00000000e+00 -1.39660360e-02 ... -1.25902286e-02
  -8.68084654e-03 -4.60087648e-03]
 [ 1.51527926e-01 -5.22139622e-03  1.42733336e-06 ... -7.82437809e-03
   1.13520445e-02  1.55739915e-02]
 ...
 [-8.52215476e-03  0.00000000e+00 -6.75709799e-08 ... -5.78386505e-07
   2.47570395e-01 -1.65283831e-03]
 [ 7.59124134e-07  3.46483067e-02 -4.42609657e-03 ...  1.08791440e-07
  -2.78729658e-07 -4.52635959e-07]
 [ 4.13939636e-03 -2.23242241e-04 -2.39463732e-01 ...  4.03211452e-03
  -2.23259270e-01 -4.59096469e-07]]

Layer 1:
[[ 0.0946402  -0.17363974  0.08855955 -0.09128449  0.10968148 -0.08282363
  -0.126366   -0.11105512  0.13993227 -0.00862275  0.05946936  0.03627504
  -0.04148659 -0.07862569 -0.0425251   0.00864249 -0.00510846  0.07401229
  -0.06845821 -0.0631018   0.04528304 -0.08135592  0.01118389 -0.04328318
  -0.05358726 -0.05445246  0.06905149  0.03518004  0.01283727  0.0638525
   0.01339764 -0.04288664 -0.01883893  0.09257726  0.09674828  0.03958511
  -0.04174555  0.17445506  0.17228723  0.0139778  -0.11660928  0.0089167
   0.00278141 -0.01003607  0.08796054  0.01375868 -0.10812799  0.09284359
   0.08287501  0.10228519  0.02967968 -0.08625881 -0.05765321  0.06717439
  -0.07118683 -0.0572167  -0.12215375  0.07799174 -0.071508   -0.14280963
  -0.05653536  0.06203343 -0.06588107 -0.13754061  0.08456404  0.01963589
  -0.13437185  0.15873545  0.01634612  0.07980738 -0.01012836 -0.1269334
  -0.02679461 -0.1349068   0.04471456  0.1135762   0.03879156  0.12920582
   0.02540116  0.07573211 -0.11506205  0.07701764 -0.12774384 -0.09325879
  -0.14958283  0.08429102  0.06231418  0.11207991  0.0217798  -0.11105135
   0.04415456  0.14147115 -0.09202964 -0.05314441 -0.10174952 -0.10003575
  -0.09724865 -0.11939258 -0.12582272  0.15539213]]

Layer 2:
[0. 0. 0. 0. 0. 0. 0. 0. 0. 0. 0. 0. 0. 0. 0. 0. 0. 0. 0. 0. 0. 0. 0. 0.
 0. 0. 0. 0. 0. 0. 0. 0. 0. 0. 0. 0. 0. 0. 0. 0. 0. 0. 0. 0. 0. 0. 0. 0.
 0. 0. 0. 0. 0. 0. 0. 0. 0. 0. 0. 0. 0. 0. 0. 0. 0. 0. 0. 0. 0. 0. 0. 0.
 0. 0. 0. 0. 0. 0. 0. 0. 0. 0. 0. 0. 0. 0. 0. 0. 0. 0. 0. 0. 0. 0. 0. 0.
 0. 0. 0. 0.]

Layer 3:
[[-7.61025786e-01]
 [-5.50929308e-01]
 [-6.94350749e-02]
 [ 5.80485940e-01]
 [ 3.08316767e-01]
 [-1.23657316e-01]
 [-4.67800759e-02]
 [ 4.11241204e-01]
 [ 8.08662891e-01]
 [-1.08857603e+01]
 [ 1.45059407e-01]
 [-1.22032821e+00]
 [-4.07059848e-01]
 [-1.23291492e+00]
 [-6.48695564e+00]
 [ 1.83959723e+00]
 [ 1.59366953e+00]
 [ 9.63085771e-01]
 [ 1.36773020e-01]
 [-1.23316634e+00]
 [ 4.40496057e-01]
 [-1.76826492e-01]
 [ 3.99281597e+00]
 [-6.77448690e-01]
 [-5.00651419e-01]
 [ 8.56771367e-04]
 [-3.87756079e-02]
 [ 1.58374941e+00]
 [-1.70530486e+00]
 [ 6.42158151e-01]
 [ 1.14334905e+00]
 [-2.85635519e+00]
 [-1.42399416e+01]
 [-4.08652306e-01]
 [ 1.09403288e+00]
 [ 9.97033894e-01]
 [-1.14129579e+00]
 [ 1.90840453e-01]
 [ 1.07536092e-01]
 [ 4.57825470e+00]
 [ 9.26803127e-02]
 [ 1.33341703e+01]
 [-9.62883759e+00]
 [-3.66671872e+00]
 [-1.06328934e-01]
 [-8.55695367e-01]
 [-8.59595165e-02]
 [ 7.16416657e-01]
 [ 9.27541927e-02]
 [ 1.42081010e+00]
 [ 4.03996140e-01]
 [ 1.10933483e+00]
 [ 2.17038560e+00]
 [ 4.23068225e-01]
 [ 6.18752122e-01]
 [ 1.32586598e+00]
 [-1.34370357e-01]
 [ 2.10774922e+00]
 [-4.03799921e-01]
 [ 1.14515275e-02]
 [ 2.40762854e+00]
 [-7.12330490e-02]
 [-3.39059305e+00]
 [-2.48862319e-02]
 [ 1.02075076e+00]
 [ 8.87746811e+00]
 [-4.35197316e-02]
 [-6.83460534e-01]
 [ 2.47424769e+00]
 [-1.59591866e+00]
 [-3.09132957e+00]
 [ 7.71867514e-01]
 [-3.87031388e+00]
 [-1.45926476e+00]
 [ 2.96571016e-01]
 [ 4.07045968e-02]
 [ 5.87831545e+00]
 [ 6.82747424e-01]
 [ 7.07006454e+00]
 [ 1.31693864e+00]
 [-3.94488364e-01]
 [ 9.65397537e-01]
 [-2.32315749e-01]
 [-6.92795277e-01]
 [-7.10298896e-01]
 [ 4.21356857e-01]
 [ 6.81803346e-01]
 [ 7.31951535e-01]
 [ 1.05431616e+00]
 [ 2.23128542e-01]
 [ 1.40762532e+00]
 [ 6.93161726e-01]
 [-3.47203612e-01]
 [ 2.64309704e-01]
 [-3.88991952e-01]
 [-9.59469080e-01]
 [-6.59809053e-01]
 [-1.79113209e-01]
 [-7.71797597e-01]
 [-1.00892901e+00]]

Layer 4:
[0.23056829]



Entrenamiento 5:
------------------------------------------------------------------------

Layer 0:
[[ 1.52583243e-06 -2.31832922e-01  2.03453254e-08 ...  1.95913348e-08
   2.16128662e-01 -2.51760184e-06]
 [ 2.00684951e-03  0.00000000e+00 -1.39660360e-02 ... -1.25902286e-02
  -8.68084654e-03 -4.60087648e-03]
 [ 1.51527926e-01 -5.22139622e-03  1.42733336e-06 ... -7.82437809e-03
   1.13520445e-02  1.55739915e-02]
 ...
 [-8.52215476e-03  0.00000000e+00 -6.75709799e-08 ... -5.78386505e-07
   2.47570395e-01 -1.65283831e-03]
 [ 7.59124134e-07  3.46483067e-02 -4.42609657e-03 ...  1.08791440e-07
  -2.78729658e-07 -4.52635959e-07]
 [ 4.13939636e-03 -2.23242241e-04 -2.39463732e-01 ...  4.03211452e-03
  -2.23259270e-01 -4.59096469e-07]]

Layer 1:
[[ 0.0946402  -0.17363974  0.08855955 -0.09128449  0.10968148 -0.08282363
  -0.126366   -0.11105512  0.13993227 -0.00862275  0.05946936  0.03627504
  -0.04148659 -0.07862569 -0.0425251   0.00864249 -0.00510846  0.07401229
  -0.06845821 -0.0631018   0.04528304 -0.08135592  0.01118389 -0.04328318
  -0.05358726 -0.05445246  0.06905149  0.03518004  0.01283727  0.0638525
   0.01339764 -0.04288664 -0.01883893  0.09257726  0.09674828  0.03958511
  -0.04174555  0.17445506  0.17228723  0.0139778  -0.11660928  0.0089167
   0.00278141 -0.01003607  0.08796054  0.01375868 -0.10812799  0.09284359
   0.08287501  0.10228519  0.02967968 -0.08625881 -0.05765321  0.06717439
  -0.07118683 -0.0572167  -0.12215375  0.07799174 -0.071508   -0.14280963
  -0.05653536  0.06203343 -0.06588107 -0.13754061  0.08456404  0.01963589
  -0.13437185  0.15873545  0.01634612  0.07980738 -0.01012836 -0.1269334
  -0.02679461 -0.1349068   0.04471456  0.1135762   0.03879156  0.12920582
   0.02540116  0.07573211 -0.11506205  0.07701764 -0.12774384 -0.09325879
  -0.14958283  0.08429102  0.06231418  0.11207991  0.0217798  -0.11105135
   0.04415456  0.14147115 -0.09202964 -0.05314441 -0.10174952 -0.10003575
  -0.09724865 -0.11939258 -0.12582272  0.15539213]]

Layer 2:
[0. 0. 0. 0. 0. 0. 0. 0. 0. 0. 0. 0. 0. 0. 0. 0. 0. 0. 0. 0. 0. 0. 0. 0.
 0. 0. 0. 0. 0. 0. 0. 0. 0. 0. 0. 0. 0. 0. 0. 0. 0. 0. 0. 0. 0. 0. 0. 0.
 0. 0. 0. 0. 0. 0. 0. 0. 0. 0. 0. 0. 0. 0. 0. 0. 0. 0. 0. 0. 0. 0. 0. 0.
 0. 0. 0. 0. 0. 0. 0. 0. 0. 0. 0. 0. 0. 0. 0. 0. 0. 0. 0. 0. 0. 0. 0. 0.
 0. 0. 0. 0.]

Layer 3:
[[-9.88484681e-01]
 [-6.71929419e-01]
 [-4.05194908e-01]
 [ 7.90045679e-01]
 [-4.49058563e-02]
 [-1.81813955e-01]
 [ 1.37911618e-01]
 [ 8.98759782e-01]
 [ 6.56130135e-01]
 [-1.56056156e+01]
 [ 2.84373313e-01]
 [ 2.49716803e-01]
 [-1.04479873e+00]
 [-1.17092991e+00]
 [-9.25365734e+00]
 [ 6.47473621e+00]
 [-3.52922630e+00]
 [ 8.05213213e-01]
 [ 2.13944852e-01]
 [-1.31726837e+00]
 [ 1.78761065e+00]
 [-6.40224665e-02]
 [ 8.68344498e+00]
 [-6.87664568e-01]
 [-1.29901445e+00]
 [-1.69026598e-01]
 [ 1.61883846e-01]
 [ 2.05042815e+00]
 [ 8.56135428e-01]
 [ 6.38869941e-01]
 [ 2.57769585e+00]
 [-3.09813213e+00]
 [-1.75190926e+01]
 [-2.82863915e-01]
 [ 9.04971719e-01]
 [ 1.68240130e+00]
 [-1.63020039e+00]
 [ 3.83945033e-02]
 [-1.18705235e-01]
 [ 6.79180813e+00]
 [ 2.47347221e-01]
 [ 1.84313450e+01]
 [-7.01593018e+00]
 [-7.92406893e+00]
 [-1.56230986e-01]
 [ 1.41664314e+00]
 [ 5.86492531e-02]
 [ 5.98200798e-01]
 [-3.19422483e-02]
 [ 1.28168082e+00]
 [ 1.08405399e+00]
 [ 1.21267867e+00]
 [ 1.47418129e+00]
 [ 3.58445525e-01]
 [ 5.46427488e-01]
 [ 9.26185429e-01]
 [ 5.35229802e-01]
 [ 1.89964044e+00]
 [-3.15553933e-01]
 [ 1.57936364e-01]
 [ 2.29479074e+00]
 [ 4.29746151e-01]
 [-3.48729396e+00]
 [ 3.13976973e-01]
 [ 7.43787885e-01]
 [ 1.25169201e+01]
 [-1.36869531e-02]
 [-8.06566834e-01]
 [ 5.64178181e+00]
 [-1.67798412e+00]
 [-6.85432911e+00]
 [ 8.85671616e-01]
 [-5.13603210e+00]
 [-1.32077324e+00]
 [ 7.41187930e-01]
 [-5.36665060e-02]
 [ 8.15614605e+00]
 [ 5.12285054e-01]
 [ 8.41182232e+00]
 [ 1.18460727e+00]
 [-2.20545471e-01]
 [ 5.70861518e-01]
 [-1.62091497e-02]
 [-5.88593066e-01]
 [-6.21762574e-01]
 [ 1.78144947e-01]
 [ 7.29302168e-01]
 [ 6.31736040e-01]
 [ 1.95030844e+00]
 [ 3.10486853e-01]
 [ 2.41974616e+00]
 [ 5.61610639e-01]
 [ 1.21963799e-01]
 [-1.23583972e+00]
 [-3.23313385e-01]
 [-8.97174120e-01]
 [-7.00260103e-01]
 [ 2.78917074e-01]
 [-4.68191803e-01]
 [-1.56704867e+00]]

Layer 4:
[-0.44766963]



