:
------------------------------------------------------------------------



Entrenamiento 0:
------------------------------------------------------------------------

Layer 0:
[[-0.         -0.         -0.         ...  0.         -0.
  -0.        ]
 [ 0.          0.          0.         ...  0.          0.
   0.        ]
 [ 0.         -0.          0.         ... -0.          0.
   0.        ]
 ...
 [-0.         -0.          0.         ... -0.          0.
  -0.        ]
 [-0.         -0.          0.         ... -0.29951778 -0.
   0.        ]
 [ 0.         -0.          0.         ...  0.          0.060243
   0.        ]]

Layer 1:
[[ 0.19052988  0.03521946  0.2336689  -0.22859538  0.01849356 -0.2432082
   0.03375897 -0.14899245 -0.22607297 -0.05873054 -0.15933427  0.09900355
  -0.11353385 -0.05821824 -0.20399334  0.10909903  0.16422862  0.09875029
   0.01246217 -0.01891673 -0.04151371  0.15927139  0.05581361  0.12579316
   0.04666883 -0.10859463  0.16597375 -0.10427091 -0.10050111  0.03666562
   0.0133594  -0.03170611  0.02571821 -0.20349637 -0.03375933  0.17537701
   0.04213667 -0.05618699  0.132799    0.19575837  0.03701532 -0.20621601
   0.02688247 -0.07604191  0.16279122 -0.23483679 -0.01802218 -0.03439698
  -0.23328094  0.19611645 -0.22457384 -0.09186035  0.15537983 -0.20471996
   0.15020627 -0.08392152 -0.03089012  0.02540222  0.1425553   0.03270707
  -0.04716247 -0.0786979  -0.16970085 -0.04600991 -0.16145548 -0.13081634
  -0.04587212 -0.08335517  0.21270427 -0.11797565 -0.20885812 -0.21830295
   0.07705182  0.13841692  0.23383039 -0.00477599 -0.09778677 -0.00562574
   0.16030261  0.20357278  0.1469619   0.07032987 -0.07765861 -0.1266812
   0.02473301  0.03840667  0.12662727 -0.19699287  0.12569487  0.13121015
  -0.17340592 -0.08438914  0.0808304  -0.0127071  -0.03669833 -0.08497867
   0.07695797 -0.18921489 -0.21554577  0.07065606]]

Layer 2:
[0. 0. 0. 0. 0. 0. 0. 0. 0. 0. 0. 0. 0. 0. 0. 0. 0. 0. 0. 0. 0. 0. 0. 0.
 0. 0. 0. 0. 0. 0. 0. 0. 0. 0. 0. 0. 0. 0. 0. 0. 0. 0. 0. 0. 0. 0. 0. 0.
 0. 0. 0. 0. 0. 0. 0. 0. 0. 0. 0. 0. 0. 0. 0. 0. 0. 0. 0. 0. 0. 0. 0. 0.
 0. 0. 0. 0. 0. 0. 0. 0. 0. 0. 0. 0. 0. 0. 0. 0. 0. 0. 0. 0. 0. 0. 0. 0.
 0. 0. 0. 0.]

Layer 3:
[[-1.17622782e-04]
 [ 2.02889895e+00]
 [ 3.12223524e-01]
 [-5.29662609e-01]
 [ 1.01621377e+00]
 [ 1.93088606e-01]
 [ 2.01651788e+00]
 [-2.38829404e-01]
 [ 3.39134395e-01]
 [-1.95197448e-01]
 [-1.36352360e-01]
 [ 2.85284519e-01]
 [ 3.42237689e-02]
 [-5.01492858e-01]
 [ 1.11591555e-01]
 [ 2.24742904e-01]
 [ 2.13794410e-01]
 [ 2.61612773e-01]
 [ 1.25270748e+00]
 [-3.34042788e+00]
 [-5.99394858e-01]
 [ 9.19152573e-02]
 [ 9.81514156e-01]
 [ 3.80065262e-01]
 [ 1.03430331e+00]
 [-1.90895244e-01]
 [ 5.39400429e-02]
 [-7.45633915e-02]
 [-4.55047309e-01]
 [ 6.17419660e-01]
 [ 2.02272940e+00]
 [-1.07353282e+00]
 [ 1.10581148e+00]
 [-3.81469369e-01]
 [-1.37979043e+00]
 [-1.18680410e-01]
 [ 1.85197902e+00]
 [-4.67474431e-01]
 [ 4.61670786e-01]
 [ 3.10932040e-01]
 [ 3.36675024e+00]
 [ 1.67142183e-01]
 [ 6.18353426e-01]
 [-1.71106428e-01]
 [ 2.28281245e-01]
 [-1.67925134e-01]
 [-3.38951945e+00]
 [-3.61198604e-01]
 [ 1.40543327e-01]
 [ 2.35521555e-01]
 [-8.87658596e-02]
 [-5.63900098e-02]
 [ 4.63160723e-01]
 [ 6.38065100e-01]
 [ 3.34408283e-01]
 [ 4.13310528e-02]
 [-4.20026922e+00]
 [ 7.42466927e-01]
 [ 3.06422263e-01]
 [ 3.76313615e+00]
 [-1.63762891e+00]
 [-2.02300102e-02]
 [-1.53655391e-02]
 [-3.72098660e+00]
 [-2.83576459e-01]
 [ 9.84101370e-03]
 [-1.07811713e+00]
 [-1.49125075e+00]
 [-2.07016990e-02]
 [-1.90414548e-01]
 [ 3.74823749e-01]
 [-2.11964801e-01]
 [ 3.24965656e-01]
 [ 1.10846303e-01]
 [ 1.94136515e-01]
 [-1.58593380e+00]
 [-2.06613734e-01]
 [-2.86944687e-01]
 [ 6.50354698e-02]
 [ 2.21982166e-01]
 [ 6.98613599e-02]
 [ 9.13518012e-01]
 [-3.74336779e-01]
 [ 6.32087737e-02]
 [ 3.35559273e+00]
 [ 4.94792402e-01]
 [ 1.77779779e-01]
 [-3.51828605e-01]
 [ 2.97584891e-01]
 [ 7.66699016e-02]
 [-3.49402070e-01]
 [-1.59512445e-01]
 [ 2.13522720e+00]
 [-2.75846124e+00]
 [-1.40219927e+00]
 [-1.31888002e-01]
 [ 3.32369715e-01]
 [ 2.41990119e-01]
 [-7.97381848e-02]
 [ 2.88807005e-01]]

Layer 4:
[0.2983497]



Consenso 0:
------------------------------------------------------------------------

Layer 0:
[[ 0.0000000e+00 -2.8296059e-01  0.0000000e+00 ...  0.0000000e+00
   2.3601593e-01  0.0000000e+00]
 [ 0.0000000e+00  0.0000000e+00  0.0000000e+00 ... -1.5367171e-02
  -1.0595187e-02  0.0000000e+00]
 [ 2.0012899e-01  0.0000000e+00  0.0000000e+00 ...  0.0000000e+00
   0.0000000e+00  0.0000000e+00]
 ...
 [ 0.0000000e+00  0.0000000e+00  0.0000000e+00 ...  0.0000000e+00
   3.0085579e-01  0.0000000e+00]
 [ 0.0000000e+00  6.1065298e-02  0.0000000e+00 ... -4.2748607e-06
   0.0000000e+00  0.0000000e+00]
 [ 0.0000000e+00 -6.1807842e-03 -2.9227093e-01 ...  0.0000000e+00
  -2.4580359e-01  0.0000000e+00]]

Layer 1:
[[ 0.11537052 -0.20783004  0.11617544 -0.11346711  0.14595346 -0.08669518
  -0.16158597 -0.14028138  0.16431229 -0.00594582  0.08469483  0.05137321
  -0.0607709  -0.08995923 -0.04298927  0.03635898  0.0007921   0.10265686
  -0.05116285 -0.07127152  0.0795989  -0.09116294  0.02643023 -0.05735721
  -0.08328095 -0.04157938  0.08871206  0.07526072  0.03176889  0.09224886
   0.00764498 -0.05132126 -0.01383747  0.11790202  0.11399167  0.05826087
  -0.06061133  0.18049309  0.19706929  0.02640289 -0.1401791   0.01013056
  -0.01259519 -0.02004811  0.09770151  0.02129726 -0.09304872  0.1260179
   0.09499407  0.11711894  0.08176026 -0.10802185 -0.08927071  0.09434216
  -0.07014646 -0.09798684 -0.16987549  0.0927847  -0.0766324  -0.18825088
  -0.06107618  0.10133769 -0.04424291 -0.15437415  0.10242095  0.0134553
  -0.18739961  0.20212658  0.02997014  0.07733203 -0.01540996 -0.16463104
  -0.02412996 -0.1626508   0.0450801   0.14292559  0.03587275  0.17296436
   0.00994584  0.1122945  -0.13960834  0.10173179 -0.14007907 -0.1240048
  -0.16272065  0.12267855  0.07768991  0.1153964   0.04074861 -0.14247955
   0.04518512  0.17049561 -0.10912265 -0.0737679  -0.13091952 -0.11953034
  -0.13138488 -0.13616797 -0.17092575  0.19124697]]

Layer 2:
[0. 0. 0. 0. 0. 0. 0. 0. 0. 0. 0. 0. 0. 0. 0. 0. 0. 0. 0. 0. 0. 0. 0. 0.
 0. 0. 0. 0. 0. 0. 0. 0. 0. 0. 0. 0. 0. 0. 0. 0. 0. 0. 0. 0. 0. 0. 0. 0.
 0. 0. 0. 0. 0. 0. 0. 0. 0. 0. 0. 0. 0. 0. 0. 0. 0. 0. 0. 0. 0. 0. 0. 0.
 0. 0. 0. 0. 0. 0. 0. 0. 0. 0. 0. 0. 0. 0. 0. 0. 0. 0. 0. 0. 0. 0. 0. 0.
 0. 0. 0. 0.]

Layer 3:
[[-0.8108939 ]
 [-0.10591729]
 [ 0.7843754 ]
 [-0.73281443]
 [ 0.5505183 ]
 [ 0.21845818]
 [-0.44835058]
 [-0.5809572 ]
 [ 0.4048488 ]
 [-0.97850347]
 [-0.03861707]
 [ 0.09748193]
 [ 0.02363531]
 [-0.15874153]
 [-1.3760505 ]
 [ 0.6819391 ]
 [ 1.2317514 ]
 [-0.15960051]
 [-0.37775874]
 [ 0.14071268]
 [ 2.354341  ]
 [-0.07752237]
 [ 0.4896343 ]
 [-0.07224166]
 [-1.9192092 ]
 [-0.5889564 ]
 [ 2.1445801 ]
 [ 0.8055986 ]
 [-3.535244  ]
 [ 0.68588513]
 [-2.022638  ]
 [-2.1780713 ]
 [-2.413337  ]
 [ 0.05404122]
 [-0.06180966]
 [ 1.1017199 ]
 [-1.0558283 ]
 [ 0.37277362]
 [ 0.208593  ]
 [ 1.4739213 ]
 [ 1.2268451 ]
 [-0.5831778 ]
 [ 1.4092368 ]
 [-0.0507584 ]
 [ 2.0943668 ]
 [-2.6033018 ]
 [ 0.01557956]
 [-0.02070454]
 [ 0.15473936]
 [ 0.53635246]
 [ 0.04235889]
 [ 0.2827883 ]
 [-0.01276233]
 [-0.00522998]
 [-0.11716311]
 [-0.17562233]
 [-0.84378093]
 [ 0.9921548 ]
 [-0.89792824]
 [-0.08672057]
 [ 2.063831  ]
 [ 1.9175692 ]
 [-3.0288365 ]
 [-0.2918782 ]
 [ 0.90542734]
 [-1.2685709 ]
 [-0.00386405]
 [-0.15919587]
 [ 0.08109062]
 [ 0.03200393]
 [ 2.0420246 ]
 [ 0.58014244]
 [-0.84453565]
 [-0.3689312 ]
 [ 0.2213487 ]
 [ 0.00915017]
 [ 0.5310651 ]
 [ 0.35931775]
 [ 0.15139787]
 [ 1.4191272 ]
 [ 0.49733147]
 [-0.05204321]
 [-0.02767584]
 [-0.16018713]
 [-0.7819183 ]
 [ 0.2372182 ]
 [ 0.16835605]
 [ 0.2430556 ]
 [ 0.09092356]
 [ 0.30401358]
 [ 0.93714005]
 [ 0.14324264]
 [-0.00780581]
 [-2.272649  ]
 [ 0.1907109 ]
 [ 0.10638811]
 [-0.06447073]
 [-0.61737543]
 [-0.4770478 ]
 [ 0.41100213]]

Layer 4:
[-0.05600061]



Entrenamiento 1:
------------------------------------------------------------------------

Layer 0:
[[ 0.0000000e+00 -2.8296059e-01  0.0000000e+00 ...  0.0000000e+00
   2.3601593e-01  0.0000000e+00]
 [ 0.0000000e+00  0.0000000e+00  0.0000000e+00 ... -1.5367171e-02
  -1.0595187e-02  0.0000000e+00]
 [ 2.0012899e-01  0.0000000e+00  0.0000000e+00 ...  0.0000000e+00
   0.0000000e+00  0.0000000e+00]
 ...
 [ 0.0000000e+00  0.0000000e+00  0.0000000e+00 ...  0.0000000e+00
   3.0085579e-01  0.0000000e+00]
 [ 0.0000000e+00  6.1065298e-02  0.0000000e+00 ... -4.2748607e-06
   0.0000000e+00  0.0000000e+00]
 [ 0.0000000e+00 -6.1807842e-03 -2.9227093e-01 ...  0.0000000e+00
  -2.4580359e-01  0.0000000e+00]]

Layer 1:
[[ 0.11537052 -0.20783004  0.11617544 -0.11346711  0.14595346 -0.08669518
  -0.16158597 -0.14028138  0.16431229 -0.00594582  0.08469483  0.05137321
  -0.0607709  -0.08995923 -0.04298927  0.03635898  0.0007921   0.10265686
  -0.05116285 -0.07127152  0.0795989  -0.09116294  0.02643023 -0.05735721
  -0.08328095 -0.04157938  0.08871206  0.07526072  0.03176889  0.09224886
   0.00764498 -0.05132126 -0.01383747  0.11790202  0.11399167  0.05826087
  -0.06061133  0.18049309  0.19706929  0.02640289 -0.1401791   0.01013056
  -0.01259519 -0.02004811  0.09770151  0.02129726 -0.09304872  0.1260179
   0.09499407  0.11711894  0.08176026 -0.10802185 -0.08927071  0.09434216
  -0.07014646 -0.09798684 -0.16987549  0.0927847  -0.0766324  -0.18825088
  -0.06107618  0.10133769 -0.04424291 -0.15437415  0.10242095  0.0134553
  -0.18739961  0.20212658  0.02997014  0.07733203 -0.01540996 -0.16463104
  -0.02412996 -0.1626508   0.0450801   0.14292559  0.03587275  0.17296436
   0.00994584  0.1122945  -0.13960834  0.10173179 -0.14007907 -0.1240048
  -0.16272065  0.12267855  0.07768991  0.1153964   0.04074861 -0.14247955
   0.04518512  0.17049561 -0.10912265 -0.0737679  -0.13091952 -0.11953034
  -0.13138488 -0.13616797 -0.17092575  0.19124697]]

Layer 2:
[0. 0. 0. 0. 0. 0. 0. 0. 0. 0. 0. 0. 0. 0. 0. 0. 0. 0. 0. 0. 0. 0. 0. 0.
 0. 0. 0. 0. 0. 0. 0. 0. 0. 0. 0. 0. 0. 0. 0. 0. 0. 0. 0. 0. 0. 0. 0. 0.
 0. 0. 0. 0. 0. 0. 0. 0. 0. 0. 0. 0. 0. 0. 0. 0. 0. 0. 0. 0. 0. 0. 0. 0.
 0. 0. 0. 0. 0. 0. 0. 0. 0. 0. 0. 0. 0. 0. 0. 0. 0. 0. 0. 0. 0. 0. 0. 0.
 0. 0. 0. 0.]

Layer 3:
[[-1.0197551e+00]
 [-6.4567411e-01]
 [ 3.0612615e-01]
 [-4.7871578e-01]
 [-8.3948888e-02]
 [-6.1679449e-02]
 [-2.9325692e-02]
 [ 1.7900780e-01]
 [ 4.1987509e-01]
 [-2.0293696e+00]
 [ 9.6294761e-02]
 [ 1.0988462e+00]
 [ 9.3544587e-02]
 [-2.4642603e-01]
 [-5.6802449e+00]
 [ 2.5091519e+00]
 [ 1.8138493e+00]
 [-2.1691675e-01]
 [-1.1833663e+00]
 [-2.5567511e-01]
 [ 2.3944244e+00]
 [ 1.9840427e-01]
 [ 3.6315138e+00]
 [-9.7545914e-02]
 [-1.8006626e+00]
 [-1.7494426e+00]
 [ 2.3222895e+00]
 [ 5.4952025e-01]
 [-2.1233196e+00]
 [ 4.6340507e-01]
 [-5.4870629e-01]
 [-2.2900240e+00]
 [-5.6979108e+00]
 [ 3.8460112e-01]
 [-2.6397482e-01]
 [ 1.3448436e+00]
 [-1.3175967e+00]
 [ 2.9466981e-01]
 [-1.2448589e-01]
 [ 2.5334380e+00]
 [ 1.3737396e+00]
 [ 3.6665052e-01]
 [-1.2489876e+00]
 [-2.4716744e+00]
 [ 2.3083642e+00]
 [-1.6840212e+00]
 [-1.6110754e-01]
 [ 5.7409603e-02]
 [ 2.4826569e-02]
 [ 5.0026709e-01]
 [-8.4779859e-02]
 [ 4.4112164e-01]
 [-4.6125464e-03]
 [ 3.1170528e-02]
 [-3.7646213e-01]
 [ 1.5433118e-01]
 [-2.0469051e-02]
 [ 1.0159843e+00]
 [-8.3404124e-01]
 [ 4.7565896e-02]
 [ 1.7406785e+00]
 [ 1.4162680e+00]
 [-4.2625494e+00]
 [-1.9826891e-01]
 [ 3.8873401e-01]
 [ 1.9704568e+00]
 [-3.0113941e-01]
 [-9.7661898e-02]
 [ 2.1879478e+00]
 [ 4.0950313e-01]
 [-1.6809121e-01]
 [ 4.4516894e-01]
 [-2.2653873e+00]
 [-3.1078932e-01]
 [ 8.7698263e-01]
 [ 6.3699424e-02]
 [ 4.4887877e+00]
 [ 3.2511455e-01]
 [ 1.6368778e+00]
 [ 1.2487345e+00]
 [ 6.0376436e-01]
 [-7.2273868e-01]
 [ 6.1239194e-02]
 [-2.0276210e-01]
 [-6.2480807e-01]
 [-1.2796377e-01]
 [ 5.1892757e-01]
 [ 2.8864461e-01]
 [ 6.7654127e-01]
 [ 2.8720963e-01]
 [ 2.5281599e+00]
 [ 1.0173764e-01]
 [ 8.6800689e-01]
 [-5.1739554e+00]
 [ 1.5722178e-01]
 [-4.8892669e-02]
 [-3.2427391e-01]
 [-3.7972651e-02]
 [-3.8964218e-01]
 [-4.2208177e-01]]

Layer 4:
[0.43579373]



Consenso 1:
------------------------------------------------------------------------

Layer 0:
[[ 0.0000000e+00 -2.8296584e-01  0.0000000e+00 ...  0.0000000e+00
   2.3602031e-01  0.0000000e+00]
 [ 0.0000000e+00  0.0000000e+00  0.0000000e+00 ... -1.5367217e-02
  -1.0595218e-02  0.0000000e+00]
 [ 2.0013270e-01  0.0000000e+00  0.0000000e+00 ...  0.0000000e+00
   0.0000000e+00  0.0000000e+00]
 ...
 [ 0.0000000e+00  0.0000000e+00  0.0000000e+00 ...  0.0000000e+00
   3.0086139e-01  0.0000000e+00]
 [ 0.0000000e+00  6.1065480e-02  0.0000000e+00 ... -6.1012848e-11
   0.0000000e+00  0.0000000e+00]
 [ 0.0000000e+00 -6.1808028e-03 -2.9227635e-01 ...  0.0000000e+00
  -2.4580902e-01  0.0000000e+00]]

Layer 1:
[[ 0.11536999 -0.20783363  0.11617343 -0.1134653   0.14595559 -0.08669378
  -0.1615894  -0.14028148  0.16431849 -0.00594605  0.0846993   0.05137329
  -0.06077136 -0.08996093 -0.04298729  0.03635875  0.0007899   0.10265815
  -0.05116396 -0.07127348  0.07960068 -0.09116763  0.02643043 -0.05736057
  -0.08328256 -0.04157952  0.08871082  0.07526289  0.03177036  0.09224999
   0.00764431 -0.05132154 -0.0138379   0.11790764  0.11399456  0.05825895
  -0.06061225  0.18049695  0.19707035  0.02640016 -0.14018244  0.01013338
  -0.01259515 -0.02004797  0.09770066  0.02130018 -0.09305104  0.12602143
   0.09499963  0.1171179   0.0817657  -0.10802287 -0.08927486  0.09434769
  -0.07015076 -0.0979881  -0.16987713  0.09278585 -0.07663577 -0.18825388
  -0.06107559  0.10134    -0.04424086 -0.1543757   0.102425    0.01345699
  -0.18740216  0.202131    0.02996793  0.07733615 -0.01540678 -0.16463104
  -0.02413206 -0.16265556  0.0450784   0.14292797  0.03587428  0.17296682
   0.00994454  0.11229263 -0.13961314  0.10173337 -0.14008032 -0.12400495
  -0.16272399  0.12268088  0.07768913  0.1154005   0.04074828 -0.14248437
   0.04518868  0.17049947 -0.10912618 -0.07376894 -0.13092199 -0.11953177
  -0.13138752 -0.13616708 -0.17092575  0.19124857]]

Layer 2:
[0. 0. 0. 0. 0. 0. 0. 0. 0. 0. 0. 0. 0. 0. 0. 0. 0. 0. 0. 0. 0. 0. 0. 0.
 0. 0. 0. 0. 0. 0. 0. 0. 0. 0. 0. 0. 0. 0. 0. 0. 0. 0. 0. 0. 0. 0. 0. 0.
 0. 0. 0. 0. 0. 0. 0. 0. 0. 0. 0. 0. 0. 0. 0. 0. 0. 0. 0. 0. 0. 0. 0. 0.
 0. 0. 0. 0. 0. 0. 0. 0. 0. 0. 0. 0. 0. 0. 0. 0. 0. 0. 0. 0. 0. 0. 0. 0.
 0. 0. 0. 0.]

Layer 3:
[[-1.07019174e+00]
 [-3.71164232e-01]
 [ 5.28832138e-01]
 [-5.51531732e-01]
 [ 9.64769050e-02]
 [-3.26197743e-02]
 [-1.93552822e-01]
 [-1.44591570e-01]
 [ 3.79811078e-01]
 [-4.27692413e+00]
 [ 1.28759697e-01]
 [ 1.54602480e+00]
 [-2.32657894e-01]
 [-1.65953532e-01]
 [-5.69523954e+00]
 [ 2.97920966e+00]
 [ 1.96754706e+00]
 [-2.26976752e-01]
 [-1.60162234e+00]
 [-1.41539827e-01]
 [ 3.07802439e+00]
 [-3.35522927e-02]
 [ 4.19271898e+00]
 [-6.10811263e-02]
 [-2.34899712e+00]
 [-2.06759644e+00]
 [ 2.83745122e+00]
 [ 6.45835936e-01]
 [-1.78777468e+00]
 [ 7.30172098e-01]
 [-9.13235426e-01]
 [-2.76306248e+00]
 [-8.64916992e+00]
 [ 2.84258902e-01]
 [-2.21099705e-01]
 [ 1.74643528e+00]
 [-1.50868642e+00]
 [ 2.27862269e-01]
 [-2.91690473e-02]
 [ 3.34794831e+00]
 [ 1.36690915e+00]
 [ 3.67908931e+00]
 [-3.33582115e+00]
 [-3.32991481e+00]
 [ 2.73269701e+00]
 [-1.79695499e+00]
 [-6.46639690e-02]
 [-1.44068882e-01]
 [ 1.52008504e-01]
 [ 4.24486488e-01]
 [-6.79994095e-03]
 [ 3.53138357e-01]
 [-6.20587647e-01]
 [-8.25651661e-02]
 [-6.73865974e-01]
 [-2.24291757e-01]
 [-1.10441685e-01]
 [ 9.27208602e-01]
 [-1.18165922e+00]
 [ 3.27722132e-02]
 [ 1.52965331e+00]
 [ 2.13839936e+00]
 [-4.63124895e+00]
 [ 3.15352231e-02]
 [ 7.90791690e-01]
 [ 3.82809949e+00]
 [-8.58705565e-02]
 [-3.17392170e-01]
 [ 2.88936639e+00]
 [ 9.58991170e-01]
 [-7.64140964e-01]
 [ 7.96370625e-01]
 [-3.03365636e+00]
 [-2.77703971e-01]
 [ 1.09023702e+00]
 [ 1.97970606e-02]
 [ 5.74164867e+00]
 [ 1.08762547e-01]
 [ 2.88991356e+00]
 [ 1.34273899e+00]
 [ 6.96564317e-01]
 [-4.87410456e-01]
 [ 1.18667848e-01]
 [-9.72109437e-02]
 [-8.36570740e-01]
 [-8.65121707e-02]
 [ 3.37796539e-01]
 [ 2.52487510e-01]
 [ 6.51291013e-01]
 [ 2.82089829e-01]
 [ 3.12104964e+00]
 [ 1.96460262e-02]
 [ 4.59392071e-01]
 [-4.30030537e+00]
 [ 2.42940068e-01]
 [ 7.62069896e-02]
 [-2.35182106e-01]
 [-2.38893986e-01]
 [-1.70818940e-01]
 [-2.36907661e-01]]

Layer 4:
[-0.43810633]



Entrenamiento 2:
------------------------------------------------------------------------

Layer 0:
[[ 0.0000000e+00 -2.8296584e-01  0.0000000e+00 ...  0.0000000e+00
   2.3602031e-01  0.0000000e+00]
 [ 0.0000000e+00  0.0000000e+00  0.0000000e+00 ... -1.5367217e-02
  -1.0595218e-02  0.0000000e+00]
 [ 2.0013270e-01  0.0000000e+00  0.0000000e+00 ...  0.0000000e+00
   0.0000000e+00  0.0000000e+00]
 ...
 [ 0.0000000e+00  0.0000000e+00  0.0000000e+00 ...  0.0000000e+00
   3.0086139e-01  0.0000000e+00]
 [ 0.0000000e+00  6.1065480e-02  0.0000000e+00 ... -6.1012848e-11
   0.0000000e+00  0.0000000e+00]
 [ 0.0000000e+00 -6.1808028e-03 -2.9227635e-01 ...  0.0000000e+00
  -2.4580902e-01  0.0000000e+00]]

Layer 1:
[[ 0.11536999 -0.20783363  0.11617343 -0.1134653   0.14595559 -0.08669378
  -0.1615894  -0.14028148  0.16431849 -0.00594605  0.0846993   0.05137329
  -0.06077136 -0.08996093 -0.04298729  0.03635875  0.0007899   0.10265815
  -0.05116396 -0.07127348  0.07960068 -0.09116763  0.02643043 -0.05736057
  -0.08328256 -0.04157952  0.08871082  0.07526289  0.03177036  0.09224999
   0.00764431 -0.05132154 -0.0138379   0.11790764  0.11399456  0.05825895
  -0.06061225  0.18049695  0.19707035  0.02640016 -0.14018244  0.01013338
  -0.01259515 -0.02004797  0.09770066  0.02130018 -0.09305104  0.12602143
   0.09499963  0.1171179   0.0817657  -0.10802287 -0.08927486  0.09434769
  -0.07015076 -0.0979881  -0.16987713  0.09278585 -0.07663577 -0.18825388
  -0.06107559  0.10134    -0.04424086 -0.1543757   0.102425    0.01345699
  -0.18740216  0.202131    0.02996793  0.07733615 -0.01540678 -0.16463104
  -0.02413206 -0.16265556  0.0450784   0.14292797  0.03587428  0.17296682
   0.00994454  0.11229263 -0.13961314  0.10173337 -0.14008032 -0.12400495
  -0.16272399  0.12268088  0.07768913  0.1154005   0.04074828 -0.14248437
   0.04518868  0.17049947 -0.10912618 -0.07376894 -0.13092199 -0.11953177
  -0.13138752 -0.13616708 -0.17092575  0.19124857]]

Layer 2:
[0. 0. 0. 0. 0. 0. 0. 0. 0. 0. 0. 0. 0. 0. 0. 0. 0. 0. 0. 0. 0. 0. 0. 0.
 0. 0. 0. 0. 0. 0. 0. 0. 0. 0. 0. 0. 0. 0. 0. 0. 0. 0. 0. 0. 0. 0. 0. 0.
 0. 0. 0. 0. 0. 0. 0. 0. 0. 0. 0. 0. 0. 0. 0. 0. 0. 0. 0. 0. 0. 0. 0. 0.
 0. 0. 0. 0. 0. 0. 0. 0. 0. 0. 0. 0. 0. 0. 0. 0. 0. 0. 0. 0. 0. 0. 0. 0.
 0. 0. 0. 0.]

Layer 3:
[[-1.12112856e+00]
 [-9.03924763e-01]
 [ 6.74992129e-02]
 [-2.73901701e-01]
 [-1.11770436e-01]
 [-3.53100628e-01]
 [-1.33720309e-01]
 [ 4.76702452e-01]
 [ 6.51930690e-01]
 [-4.78753424e+00]
 [ 2.48230293e-01]
 [ 4.62152749e-01]
 [ 1.17132746e-01]
 [-3.52060080e-01]
 [-5.85520267e+00]
 [ 2.42858100e+00]
 [ 2.00926948e+00]
 [ 9.58824977e-02]
 [-7.11709738e-01]
 [-2.73015082e-01]
 [ 1.85935771e+00]
 [ 1.33179650e-01]
 [ 3.84914827e+00]
 [-4.61045802e-01]
 [-1.16808355e+00]
 [-1.16116881e+00]
 [ 1.60080826e+00]
 [ 7.01104462e-01]
 [-2.40078473e+00]
 [ 3.57964247e-01]
 [-4.33898777e-01]
 [-1.94489133e+00]
 [-9.63952732e+00]
 [ 7.54988134e-01]
 [-1.32546231e-01]
 [ 1.36326754e+00]
 [-1.44584239e+00]
 [ 3.78142238e-01]
 [ 2.36559659e-01]
 [ 3.68352056e+00]
 [ 1.01414466e+00]
 [ 4.70463896e+00]
 [-4.42613363e+00]
 [-3.24870777e+00]
 [ 1.56956303e+00]
 [-1.44892263e+00]
 [-9.25498083e-03]
 [ 1.83941156e-01]
 [ 1.28646001e-01]
 [ 6.78644538e-01]
 [ 1.09228447e-01]
 [ 4.56582874e-01]
 [ 7.38058686e-01]
 [ 8.06987565e-03]
 [-1.75792024e-01]
 [ 7.74571300e-01]
 [ 3.94971102e-01]
 [ 1.21793830e+00]
 [-7.99386203e-01]
 [-3.18864524e-01]
 [ 2.51124644e+00]
 [ 7.90618181e-01]
 [-4.42686415e+00]
 [ 2.45227516e-02]
 [ 3.59404504e-01]
 [ 4.84062099e+00]
 [-5.09747982e-01]
 [-5.62287122e-02]
 [ 2.42158103e+00]
 [-1.53840333e-01]
 [-1.32869232e+00]
 [ 4.94094521e-01]
 [-2.83715081e+00]
 [-5.59140742e-01]
 [ 7.78940499e-01]
 [ 4.36396152e-01]
 [ 5.70126390e+00]
 [ 5.11503816e-01]
 [ 3.63315296e+00]
 [ 1.29274261e+00]
 [ 4.77334738e-01]
 [-2.89178252e-01]
 [-1.49805784e-01]
 [-4.06441182e-01]
 [-1.11221886e+00]
 [-1.48428604e-01]
 [ 8.43677461e-01]
 [ 5.99615991e-01]
 [ 9.10260737e-01]
 [ 7.32642785e-02]
 [ 2.41456652e+00]
 [ 2.53916711e-01]
 [ 1.20699537e+00]
 [-2.49699378e+00]
 [-1.50704622e-01]
 [-2.43431494e-01]
 [-6.12513542e-01]
 [ 1.45462239e-02]
 [-4.63983864e-01]
 [-5.81624746e-01]]

Layer 4:
[-0.08598612]



Consenso 2:
------------------------------------------------------------------------

Layer 0:
[[ 0.0000000e+00 -2.8296584e-01  0.0000000e+00 ...  0.0000000e+00
   2.3602031e-01  0.0000000e+00]
 [ 0.0000000e+00  0.0000000e+00  0.0000000e+00 ... -1.5367217e-02
  -1.0595218e-02  0.0000000e+00]
 [ 2.0013270e-01  0.0000000e+00  0.0000000e+00 ...  0.0000000e+00
   0.0000000e+00  0.0000000e+00]
 ...
 [ 0.0000000e+00  0.0000000e+00  0.0000000e+00 ...  0.0000000e+00
   3.0086139e-01  0.0000000e+00]
 [ 0.0000000e+00  6.1065480e-02  0.0000000e+00 ... -8.7080450e-16
   0.0000000e+00  0.0000000e+00]
 [ 0.0000000e+00 -6.1808028e-03 -2.9227635e-01 ...  0.0000000e+00
  -2.4580902e-01  0.0000000e+00]]

Layer 1:
[[ 0.11536999 -0.20783363  0.11617343 -0.1134653   0.14595559 -0.08669378
  -0.1615894  -0.14028148  0.16431849 -0.00594605  0.0846993   0.05137329
  -0.06077136 -0.08996093 -0.04298729  0.03635875  0.0007899   0.10265815
  -0.05116396 -0.07127348  0.07960068 -0.09116763  0.02643043 -0.05736057
  -0.08328256 -0.04157952  0.08871082  0.07526289  0.03177036  0.09224999
   0.00764431 -0.05132154 -0.0138379   0.11790764  0.11399456  0.05825895
  -0.06061225  0.18049695  0.19707035  0.02640016 -0.14018244  0.01013338
  -0.01259515 -0.02004797  0.09770066  0.02130018 -0.09305104  0.12602143
   0.09499963  0.1171179   0.0817657  -0.10802287 -0.08927486  0.09434769
  -0.07015076 -0.0979881  -0.16987713  0.09278585 -0.07663577 -0.18825388
  -0.06107559  0.10134    -0.04424086 -0.1543757   0.102425    0.01345699
  -0.18740216  0.202131    0.02996793  0.07733615 -0.01540678 -0.16463104
  -0.02413206 -0.16265556  0.0450784   0.14292797  0.03587428  0.17296682
   0.00994454  0.11229263 -0.13961314  0.10173337 -0.14008032 -0.12400495
  -0.16272399  0.12268088  0.07768913  0.1154005   0.04074828 -0.14248437
   0.04518868  0.17049947 -0.10912618 -0.07376894 -0.13092199 -0.11953177
  -0.13138752 -0.13616708 -0.17092575  0.19124857]]

Layer 2:
[0. 0. 0. 0. 0. 0. 0. 0. 0. 0. 0. 0. 0. 0. 0. 0. 0. 0. 0. 0. 0. 0. 0. 0.
 0. 0. 0. 0. 0. 0. 0. 0. 0. 0. 0. 0. 0. 0. 0. 0. 0. 0. 0. 0. 0. 0. 0. 0.
 0. 0. 0. 0. 0. 0. 0. 0. 0. 0. 0. 0. 0. 0. 0. 0. 0. 0. 0. 0. 0. 0. 0. 0.
 0. 0. 0. 0. 0. 0. 0. 0. 0. 0. 0. 0. 0. 0. 0. 0. 0. 0. 0. 0. 0. 0. 0. 0.
 0. 0. 0. 0.]

Layer 3:
[[-1.2325575e+00]
 [-1.0354773e+00]
 [-2.3893228e-01]
 [-1.1059781e-01]
 [-2.8630766e-01]
 [-5.1339763e-01]
 [-3.4210000e-02]
 [ 7.9219007e-01]
 [ 7.1339834e-01]
 [-7.4515171e+00]
 [ 3.1291875e-01]
 [ 6.3258147e-01]
 [ 1.9077277e-01]
 [-3.9527574e-01]
 [-7.4457946e+00]
 [ 3.2863836e+00]
 [ 2.0372682e+00]
 [ 9.2483647e-02]
 [-9.7451264e-01]
 [-3.7328082e-01]
 [ 1.8415923e+00]
 [ 2.4172297e-01]
 [ 5.3387485e+00]
 [-5.1694381e-01]
 [-1.2610478e+00]
 [-1.4722513e+00]
 [ 1.6438563e+00]
 [ 5.3761321e-01]
 [-1.9746512e+00]
 [ 2.2171687e-01]
 [ 1.1943163e-01]
 [-1.9058133e+00]
 [-1.2591048e+01]
 [ 9.6542728e-01]
 [-1.4863209e-01]
 [ 1.4393554e+00]
 [-1.5269395e+00]
 [ 3.8680616e-01]
 [ 2.3534994e-01]
 [ 4.5781188e+00]
 [ 9.9548912e-01]
 [ 8.1852665e+00]
 [-7.0421562e+00]
 [-4.5493231e+00]
 [ 1.5442141e+00]
 [-1.0603837e+00]
 [-1.5859930e-02]
 [ 2.0506719e-01]
 [ 9.3805209e-02]
 [ 6.9967562e-01]
 [ 9.4635710e-02]
 [ 4.9245447e-01]
 [ 9.3642086e-01]
 [-2.4021644e-02]
 [-2.4590117e-01]
 [ 9.7007519e-01]
 [ 7.6310408e-01]
 [ 1.2163473e+00]
 [-6.8874794e-01]
 [-3.5915968e-01]
 [ 2.4580293e+00]
 [ 7.0421243e-01]
 [-4.9245453e+00]
 [ 8.6956695e-02]
 [ 1.2708335e-01]
 [ 7.2913055e+00]
 [-5.9853965e-01]
 [-3.3335701e-02]
 [ 3.4202609e+00]
 [-9.4175726e-02]
 [-2.7507710e+00]
 [ 4.4042152e-01]
 [-3.6771071e+00]
 [-6.1414427e-01]
 [ 9.4219297e-01]
 [ 4.3914518e-01]
 [ 7.6254735e+00]
 [ 5.0981414e-01]
 [ 5.4110875e+00]
 [ 1.1894506e+00]
 [ 4.5603201e-01]
 [-5.0699425e-01]
 [-1.5049239e-01]
 [-4.5591056e-01]
 [-1.2475744e+00]
 [-2.7562052e-01]
 [ 1.0419760e+00]
 [ 6.8693227e-01]
 [ 1.1398295e+00]
 [ 3.9171465e-03]
 [ 3.1100781e+00]
 [ 2.8580165e-01]
 [ 1.6005453e+00]
 [-3.5402849e+00]
 [-1.8244269e-01]
 [-3.2237673e-01]
 [-7.4159229e-01]
 [ 2.3688704e-01]
 [-4.6524811e-01]
 [-8.1732863e-01]]

Layer 4:
[0.3635504]



Entrenamiento 3:
------------------------------------------------------------------------

Layer 0:
[[ 0.0000000e+00 -2.8296584e-01  0.0000000e+00 ...  0.0000000e+00
   2.3602031e-01  0.0000000e+00]
 [ 0.0000000e+00  0.0000000e+00  0.0000000e+00 ... -1.5367217e-02
  -1.0595218e-02  0.0000000e+00]
 [ 2.0013270e-01  0.0000000e+00  0.0000000e+00 ...  0.0000000e+00
   0.0000000e+00  0.0000000e+00]
 ...
 [ 0.0000000e+00  0.0000000e+00  0.0000000e+00 ...  0.0000000e+00
   3.0086139e-01  0.0000000e+00]
 [ 0.0000000e+00  6.1065480e-02  0.0000000e+00 ... -8.7080450e-16
   0.0000000e+00  0.0000000e+00]
 [ 0.0000000e+00 -6.1808028e-03 -2.9227635e-01 ...  0.0000000e+00
  -2.4580902e-01  0.0000000e+00]]

Layer 1:
[[ 0.11536999 -0.20783363  0.11617343 -0.1134653   0.14595559 -0.08669378
  -0.1615894  -0.14028148  0.16431849 -0.00594605  0.0846993   0.05137329
  -0.06077136 -0.08996093 -0.04298729  0.03635875  0.0007899   0.10265815
  -0.05116396 -0.07127348  0.07960068 -0.09116763  0.02643043 -0.05736057
  -0.08328256 -0.04157952  0.08871082  0.07526289  0.03177036  0.09224999
   0.00764431 -0.05132154 -0.0138379   0.11790764  0.11399456  0.05825895
  -0.06061225  0.18049695  0.19707035  0.02640016 -0.14018244  0.01013338
  -0.01259515 -0.02004797  0.09770066  0.02130018 -0.09305104  0.12602143
   0.09499963  0.1171179   0.0817657  -0.10802287 -0.08927486  0.09434769
  -0.07015076 -0.0979881  -0.16987713  0.09278585 -0.07663577 -0.18825388
  -0.06107559  0.10134    -0.04424086 -0.1543757   0.102425    0.01345699
  -0.18740216  0.202131    0.02996793  0.07733615 -0.01540678 -0.16463104
  -0.02413206 -0.16265556  0.0450784   0.14292797  0.03587428  0.17296682
   0.00994454  0.11229263 -0.13961314  0.10173337 -0.14008032 -0.12400495
  -0.16272399  0.12268088  0.07768913  0.1154005   0.04074828 -0.14248437
   0.04518868  0.17049947 -0.10912618 -0.07376894 -0.13092199 -0.11953177
  -0.13138752 -0.13616708 -0.17092575  0.19124857]]

Layer 2:
[0. 0. 0. 0. 0. 0. 0. 0. 0. 0. 0. 0. 0. 0. 0. 0. 0. 0. 0. 0. 0. 0. 0. 0.
 0. 0. 0. 0. 0. 0. 0. 0. 0. 0. 0. 0. 0. 0. 0. 0. 0. 0. 0. 0. 0. 0. 0. 0.
 0. 0. 0. 0. 0. 0. 0. 0. 0. 0. 0. 0. 0. 0. 0. 0. 0. 0. 0. 0. 0. 0. 0. 0.
 0. 0. 0. 0. 0. 0. 0. 0. 0. 0. 0. 0. 0. 0. 0. 0. 0. 0. 0. 0. 0. 0. 0. 0.
 0. 0. 0. 0.]

Layer 3:
[[-9.87586856e-01]
 [-5.87807834e-01]
 [ 1.18187584e-01]
 [-3.19440871e-01]
 [ 1.44828871e-01]
 [-3.51638347e-01]
 [-1.76710173e-01]
 [ 3.80733341e-01]
 [ 6.77480698e-01]
 [-7.73039293e+00]
 [ 2.29911268e-01]
 [-1.95840508e-01]
 [-2.81652305e-02]
 [-4.90573794e-01]
 [-5.64888716e+00]
 [ 2.28859472e+00]
 [ 2.16870713e+00]
 [ 3.98459285e-01]
 [-3.99263799e-01]
 [-3.07492495e-01]
 [ 1.41445851e+00]
 [ 7.12349862e-02]
 [ 3.68610001e+00]
 [-8.99626434e-01]
 [-1.18964267e+00]
 [-6.24933302e-01]
 [ 1.06726515e+00]
 [ 1.20649886e+00]
 [-2.26354837e+00]
 [ 3.97297412e-01]
 [ 9.37246457e-02]
 [-2.28931808e+00]
 [-1.17523260e+01]
 [ 7.38609135e-01]
 [-6.80070138e-03]
 [ 1.29682159e+00]
 [-1.50000238e+00]
 [ 2.96232224e-01]
 [ 2.41504103e-01]
 [ 4.35592604e+00]
 [ 1.00034559e+00]
 [ 8.81263161e+00]
 [-6.60920668e+00]
 [-3.68709683e+00]
 [ 7.79737711e-01]
 [-1.11104441e+00]
 [-5.13743274e-02]
 [ 3.06192905e-01]
 [ 1.93304703e-01]
 [ 8.83627892e-01]
 [ 3.27714920e-01]
 [ 4.63544816e-01]
 [ 1.41542447e+00]
 [ 1.83908060e-01]
 [ 1.42111599e-01]
 [ 9.76658463e-01]
 [ 9.25040245e-02]
 [ 1.54564977e+00]
 [-6.43940568e-01]
 [-2.53576308e-01]
 [ 2.66406012e+00]
 [ 7.59544373e-01]
 [-4.14054680e+00]
 [-2.43527107e-02]
 [ 4.30342585e-01]
 [ 6.54035091e+00]
 [-3.13449979e-01]
 [-1.65121555e-01]
 [ 2.42450500e+00]
 [-9.27012265e-01]
 [-2.24353027e+00]
 [ 5.02240121e-01]
 [-3.50236607e+00]
 [-6.08486116e-01]
 [ 6.30605340e-01]
 [ 3.71563435e-01]
 [ 5.67262363e+00]
 [ 5.99252343e-01]
 [ 5.33659649e+00]
 [ 1.44615483e+00]
 [ 3.71600688e-01]
 [ 4.45949614e-01]
 [-2.95269996e-01]
 [-5.29318273e-01]
 [-1.20027316e+00]
 [ 9.12915617e-02]
 [ 1.06166816e+00]
 [ 7.40705788e-01]
 [ 1.03425133e+00]
 [ 1.34166718e-01]
 [ 1.97973597e+00]
 [ 2.46209800e-01]
 [ 7.97945678e-01]
 [-1.06900549e+00]
 [-2.20618039e-01]
 [-3.17469329e-01]
 [-5.47193646e-01]
 [-1.82206959e-01]
 [-6.64429247e-01]
 [-4.48055357e-01]]

Layer 4:
[-0.35536832]



Consenso 3:
------------------------------------------------------------------------

Layer 0:
[[ 0.0000000e+00 -2.8296584e-01  0.0000000e+00 ...  0.0000000e+00
   2.3602031e-01  0.0000000e+00]
 [ 0.0000000e+00  0.0000000e+00  0.0000000e+00 ... -1.5367217e-02
  -1.0595218e-02  0.0000000e+00]
 [ 2.0013270e-01  0.0000000e+00  0.0000000e+00 ...  0.0000000e+00
   0.0000000e+00  0.0000000e+00]
 ...
 [ 0.0000000e+00  0.0000000e+00  0.0000000e+00 ...  0.0000000e+00
   3.0086139e-01  0.0000000e+00]
 [ 0.0000000e+00  6.1065480e-02  0.0000000e+00 ... -1.2428536e-20
   0.0000000e+00  0.0000000e+00]
 [ 0.0000000e+00 -6.1808028e-03 -2.9227635e-01 ...  0.0000000e+00
  -2.4580902e-01  0.0000000e+00]]

Layer 1:
[[ 0.11536999 -0.20783363  0.11617343 -0.1134653   0.14595559 -0.08669378
  -0.1615894  -0.14028148  0.16431849 -0.00594605  0.0846993   0.05137329
  -0.06077136 -0.08996093 -0.04298729  0.03635875  0.0007899   0.10265815
  -0.05116396 -0.07127348  0.07960068 -0.09116763  0.02643043 -0.05736057
  -0.08328256 -0.04157952  0.08871082  0.07526289  0.03177036  0.09224999
   0.00764431 -0.05132154 -0.0138379   0.11790764  0.11399456  0.05825895
  -0.06061225  0.18049695  0.19707035  0.02640016 -0.14018244  0.01013338
  -0.01259515 -0.02004797  0.09770066  0.02130018 -0.09305104  0.12602143
   0.09499963  0.1171179   0.0817657  -0.10802287 -0.08927486  0.09434769
  -0.07015076 -0.0979881  -0.16987713  0.09278585 -0.07663577 -0.18825388
  -0.06107559  0.10134    -0.04424086 -0.1543757   0.102425    0.01345699
  -0.18740216  0.202131    0.02996793  0.07733615 -0.01540678 -0.16463104
  -0.02413206 -0.16265556  0.0450784   0.14292797  0.03587428  0.17296682
   0.00994454  0.11229263 -0.13961314  0.10173337 -0.14008032 -0.12400495
  -0.16272399  0.12268088  0.07768913  0.1154005   0.04074828 -0.14248437
   0.04518868  0.17049947 -0.10912618 -0.07376894 -0.13092199 -0.11953177
  -0.13138752 -0.13616708 -0.17092575  0.19124857]]

Layer 2:
[0. 0. 0. 0. 0. 0. 0. 0. 0. 0. 0. 0. 0. 0. 0. 0. 0. 0. 0. 0. 0. 0. 0. 0.
 0. 0. 0. 0. 0. 0. 0. 0. 0. 0. 0. 0. 0. 0. 0. 0. 0. 0. 0. 0. 0. 0. 0. 0.
 0. 0. 0. 0. 0. 0. 0. 0. 0. 0. 0. 0. 0. 0. 0. 0. 0. 0. 0. 0. 0. 0. 0. 0.
 0. 0. 0. 0. 0. 0. 0. 0. 0. 0. 0. 0. 0. 0. 0. 0. 0. 0. 0. 0. 0. 0. 0. 0.
 0. 0. 0. 0.]

Layer 3:
[[-1.01115668e+00]
 [-6.57763004e-01]
 [-1.06220186e-01]
 [-2.22899333e-01]
 [ 3.89353000e-02]
 [-4.55944657e-01]
 [-1.33626774e-01]
 [ 6.70172989e-01]
 [ 7.63851225e-01]
 [-1.04313431e+01]
 [ 2.38963544e-01]
 [-4.57912832e-01]
 [ 1.16006307e-01]
 [-5.77504337e-01]
 [-7.96478844e+00]
 [ 3.00003695e+00]
 [ 2.15777612e+00]
 [ 5.28167605e-01]
 [-3.00033599e-01]
 [-3.67316902e-01]
 [ 1.01294303e+00]
 [ 1.40823931e-01]
 [ 5.21339130e+00]
 [-1.10942781e+00]
 [-8.60526860e-01]
 [-4.99525636e-01]
 [ 7.26648211e-01]
 [ 1.20421398e+00]
 [-2.06757975e+00]
 [ 1.99676454e-01]
 [ 7.57457137e-01]
 [-1.98264408e+00]
 [-1.53444958e+01]
 [ 8.57413232e-01]
 [ 3.53775658e-02]
 [ 1.24013877e+00]
 [-1.51405311e+00]
 [ 3.48156214e-01]
 [ 3.22585493e-01]
 [ 5.07590818e+00]
 [ 8.79116476e-01]
 [ 1.22550354e+01]
 [-9.74026299e+00]
 [-4.95218134e+00]
 [ 3.30626875e-01]
 [-6.03148997e-01]
 [ 1.07973283e-02]
 [ 4.21558112e-01]
 [ 1.82399675e-01]
 [ 1.01424944e+00]
 [ 3.82938981e-01]
 [ 5.10466874e-01]
 [ 1.96546805e+00]
 [ 2.07633257e-01]
 [ 3.02037954e-01]
 [ 1.44537663e+00]
 [ 2.88527668e-01]
 [ 1.70207679e+00]
 [-4.22597229e-01]
 [-3.63380760e-01]
 [ 2.95892334e+00]
 [ 1.99002549e-01]
 [-4.57417870e+00]
 [-4.67360690e-02]
 [ 2.34323189e-01]
 [ 9.53090382e+00]
 [-3.86477917e-01]
 [-1.04405344e-01]
 [ 3.23620629e+00]
 [-1.29733086e+00]
 [-3.91028619e+00]
 [ 4.17964935e-01]
 [-4.24868202e+00]
 [-7.05562770e-01]
 [ 6.27109587e-01]
 [ 4.88151908e-01]
 [ 7.92699003e+00]
 [ 7.45034993e-01]
 [ 7.27924395e+00]
 [ 1.42544842e+00]
 [ 2.83982188e-01]
 [ 5.04573703e-01]
 [-4.12057638e-01]
 [-6.32164240e-01]
 [-1.27597845e+00]
 [ 8.73366669e-02]
 [ 1.27335715e+00]
 [ 8.66865695e-01]
 [ 1.19817567e+00]
 [ 8.62146169e-02]
 [ 2.45372486e+00]
 [ 3.14719677e-01]
 [ 1.22616374e+00]
 [-1.58453500e+00]
 [-3.57412547e-01]
 [-4.31520551e-01]
 [-6.47460401e-01]
 [-5.57039604e-02]
 [-8.21545005e-01]
 [-5.72856307e-01]]

Layer 4:
[0.5682185]



Entrenamiento 4:
------------------------------------------------------------------------

Layer 0:
[[ 0.0000000e+00 -2.8296584e-01  0.0000000e+00 ...  0.0000000e+00
   2.3602031e-01  0.0000000e+00]
 [ 0.0000000e+00  0.0000000e+00  0.0000000e+00 ... -1.5367217e-02
  -1.0595218e-02  0.0000000e+00]
 [ 2.0013270e-01  0.0000000e+00  0.0000000e+00 ...  0.0000000e+00
   0.0000000e+00  0.0000000e+00]
 ...
 [ 0.0000000e+00  0.0000000e+00  0.0000000e+00 ...  0.0000000e+00
   3.0086139e-01  0.0000000e+00]
 [ 0.0000000e+00  6.1065480e-02  0.0000000e+00 ... -1.2428536e-20
   0.0000000e+00  0.0000000e+00]
 [ 0.0000000e+00 -6.1808028e-03 -2.9227635e-01 ...  0.0000000e+00
  -2.4580902e-01  0.0000000e+00]]

Layer 1:
[[ 0.11536999 -0.20783363  0.11617343 -0.1134653   0.14595559 -0.08669378
  -0.1615894  -0.14028148  0.16431849 -0.00594605  0.0846993   0.05137329
  -0.06077136 -0.08996093 -0.04298729  0.03635875  0.0007899   0.10265815
  -0.05116396 -0.07127348  0.07960068 -0.09116763  0.02643043 -0.05736057
  -0.08328256 -0.04157952  0.08871082  0.07526289  0.03177036  0.09224999
   0.00764431 -0.05132154 -0.0138379   0.11790764  0.11399456  0.05825895
  -0.06061225  0.18049695  0.19707035  0.02640016 -0.14018244  0.01013338
  -0.01259515 -0.02004797  0.09770066  0.02130018 -0.09305104  0.12602143
   0.09499963  0.1171179   0.0817657  -0.10802287 -0.08927486  0.09434769
  -0.07015076 -0.0979881  -0.16987713  0.09278585 -0.07663577 -0.18825388
  -0.06107559  0.10134    -0.04424086 -0.1543757   0.102425    0.01345699
  -0.18740216  0.202131    0.02996793  0.07733615 -0.01540678 -0.16463104
  -0.02413206 -0.16265556  0.0450784   0.14292797  0.03587428  0.17296682
   0.00994454  0.11229263 -0.13961314  0.10173337 -0.14008032 -0.12400495
  -0.16272399  0.12268088  0.07768913  0.1154005   0.04074828 -0.14248437
   0.04518868  0.17049947 -0.10912618 -0.07376894 -0.13092199 -0.11953177
  -0.13138752 -0.13616708 -0.17092575  0.19124857]]

Layer 2:
[0. 0. 0. 0. 0. 0. 0. 0. 0. 0. 0. 0. 0. 0. 0. 0. 0. 0. 0. 0. 0. 0. 0. 0.
 0. 0. 0. 0. 0. 0. 0. 0. 0. 0. 0. 0. 0. 0. 0. 0. 0. 0. 0. 0. 0. 0. 0. 0.
 0. 0. 0. 0. 0. 0. 0. 0. 0. 0. 0. 0. 0. 0. 0. 0. 0. 0. 0. 0. 0. 0. 0. 0.
 0. 0. 0. 0. 0. 0. 0. 0. 0. 0. 0. 0. 0. 0. 0. 0. 0. 0. 0. 0. 0. 0. 0. 0.
 0. 0. 0. 0.]

Layer 3:
[[-7.6074547e-01]
 [-6.5376677e-02]
 [ 3.9683414e-01]
 [-4.8617917e-01]
 [ 4.5280632e-01]
 [-2.2976981e-01]
 [-1.9267327e-01]
 [ 1.1414220e-01]
 [ 5.8238500e-01]
 [-1.0557170e+01]
 [ 1.5438943e-01]
 [-9.5008475e-01]
 [-2.5190789e-01]
 [-6.0861057e-01]
 [-5.3471189e+00]
 [ 1.9294598e+00]
 [ 2.2893798e+00]
 [ 6.9913393e-01]
 [ 5.4210098e-03]
 [-3.0467841e-01]
 [ 9.9038088e-01]
 [-8.6556844e-02]
 [ 3.3089368e+00]
 [-1.3525954e+00]
 [-1.1189643e+00]
 [ 6.1603831e-03]
 [ 5.0564325e-01]
 [ 1.8345286e+00]
 [-2.1893716e+00]
 [ 5.2679336e-01]
 [ 7.3055321e-01]
 [-2.6804733e+00]
 [-1.3770108e+01]
 [ 5.0979275e-01]
 [ 9.5739312e-02]
 [ 1.2069848e+00]
 [-1.5212789e+00]
 [ 1.3087036e-01]
 [ 1.2457151e-01]
 [ 4.7342229e+00]
 [ 1.0307637e+00]
 [ 1.2486242e+01]
 [-8.6796904e+00]
 [-3.8626280e+00]
 [-5.0151132e-02]
 [-7.9854476e-01]
 [-5.4411624e-02]
 [ 3.8686401e-01]
 [ 2.9725397e-01]
 [ 1.0731287e+00]
 [ 5.7071853e-01]
 [ 4.7213337e-01]
 [ 2.0615678e+00]
 [ 3.7819833e-01]
 [ 5.1244032e-01]
 [ 1.0752159e+00]
 [-4.3692836e-01]
 [ 1.9136140e+00]
 [-5.5129981e-01]
 [-4.4802144e-02]
 [ 2.8055677e+00]
 [ 7.5439554e-01]
 [-3.7013133e+00]
 [-6.7906387e-02]
 [ 6.8088907e-01]
 [ 8.0527954e+00]
 [ 4.9479503e-02]
 [-4.1459638e-01]
 [ 2.1722350e+00]
 [-1.7965153e+00]
 [-2.9631274e+00]
 [ 6.1773169e-01]
 [-4.0782857e+00]
 [-5.3337717e-01]
 [ 4.1657528e-01]
 [ 2.5333133e-01]
 [ 5.3179178e+00]
 [ 5.8797592e-01]
 [ 6.9132309e+00]
 [ 1.6667825e+00]
 [ 3.2140046e-01]
 [ 1.3007876e+00]
 [-3.9893076e-01]
 [-5.7103890e-01]
 [-1.0859591e+00]
 [ 4.0913796e-01]
 [ 1.1438491e+00]
 [ 7.9027641e-01]
 [ 1.0630075e+00]
 [ 2.9550454e-01]
 [ 1.2904061e+00]
 [ 1.3570409e-01]
 [ 1.6871674e-01]
 [ 5.3713208e-01]
 [-2.3074915e-01]
 [-3.1176758e-01]
 [-3.5151982e-01]
 [-4.9250600e-01]
 [-7.7835828e-01]
 [-2.3315136e-01]]

Layer 4:
[-0.07818516]



Consenso 4:
------------------------------------------------------------------------

Layer 0:
[[ 0.0000000e+00 -2.8296584e-01  0.0000000e+00 ...  0.0000000e+00
   2.3602031e-01  0.0000000e+00]
 [ 0.0000000e+00  0.0000000e+00  0.0000000e+00 ... -1.5367217e-02
  -1.0595218e-02  0.0000000e+00]
 [ 2.0013270e-01  0.0000000e+00  0.0000000e+00 ...  0.0000000e+00
   0.0000000e+00  0.0000000e+00]
 ...
 [ 0.0000000e+00  0.0000000e+00  0.0000000e+00 ...  0.0000000e+00
   3.0086139e-01  0.0000000e+00]
 [ 0.0000000e+00  6.1065480e-02  0.0000000e+00 ... -1.7738600e-25
   0.0000000e+00  0.0000000e+00]
 [ 0.0000000e+00 -6.1808028e-03 -2.9227635e-01 ...  0.0000000e+00
  -2.4580902e-01  0.0000000e+00]]

Layer 1:
[[ 0.11536999 -0.20783363  0.11617343 -0.1134653   0.14595559 -0.08669378
  -0.1615894  -0.14028148  0.16431849 -0.00594605  0.0846993   0.05137329
  -0.06077136 -0.08996093 -0.04298729  0.03635875  0.0007899   0.10265815
  -0.05116396 -0.07127348  0.07960068 -0.09116763  0.02643043 -0.05736057
  -0.08328256 -0.04157952  0.08871082  0.07526289  0.03177036  0.09224999
   0.00764431 -0.05132154 -0.0138379   0.11790764  0.11399456  0.05825895
  -0.06061225  0.18049695  0.19707035  0.02640016 -0.14018244  0.01013338
  -0.01259515 -0.02004797  0.09770066  0.02130018 -0.09305104  0.12602143
   0.09499963  0.1171179   0.0817657  -0.10802287 -0.08927486  0.09434769
  -0.07015076 -0.0979881  -0.16987713  0.09278585 -0.07663577 -0.18825388
  -0.06107559  0.10134    -0.04424086 -0.1543757   0.102425    0.01345699
  -0.18740216  0.202131    0.02996793  0.07733615 -0.01540678 -0.16463104
  -0.02413206 -0.16265556  0.0450784   0.14292797  0.03587428  0.17296682
   0.00994454  0.11229263 -0.13961314  0.10173337 -0.14008032 -0.12400495
  -0.16272399  0.12268088  0.07768913  0.1154005   0.04074828 -0.14248437
   0.04518868  0.17049947 -0.10912618 -0.07376894 -0.13092199 -0.11953177
  -0.13138752 -0.13616708 -0.17092575  0.19124857]]

Layer 2:
[0. 0. 0. 0. 0. 0. 0. 0. 0. 0. 0. 0. 0. 0. 0. 0. 0. 0. 0. 0. 0. 0. 0. 0.
 0. 0. 0. 0. 0. 0. 0. 0. 0. 0. 0. 0. 0. 0. 0. 0. 0. 0. 0. 0. 0. 0. 0. 0.
 0. 0. 0. 0. 0. 0. 0. 0. 0. 0. 0. 0. 0. 0. 0. 0. 0. 0. 0. 0. 0. 0. 0. 0.
 0. 0. 0. 0. 0. 0. 0. 0. 0. 0. 0. 0. 0. 0. 0. 0. 0. 0. 0. 0. 0. 0. 0. 0.
 0. 0. 0. 0.]

Layer 3:
[[ -0.6889578 ]
 [ -0.14872982]
 [  0.28885248]
 [ -0.43839976]
 [  0.43194   ]
 [ -0.4026188 ]
 [ -0.1782699 ]
 [  0.33486772]
 [  0.6687495 ]
 [-13.226214  ]
 [  0.25402704]
 [ -1.2655905 ]
 [ -0.1455599 ]
 [ -0.73215604]
 [ -7.6003866 ]
 [  2.4029982 ]
 [  2.1898522 ]
 [  0.8176949 ]
 [  0.20733097]
 [ -0.47069216]
 [  0.5591587 ]
 [ -0.08929352]
 [  4.5878816 ]
 [ -1.5334816 ]
 [ -0.6944704 ]
 [  0.20812029]
 [  0.10954458]
 [  1.8432101 ]
 [ -2.1563368 ]
 [  0.44162828]
 [  1.4487267 ]
 [ -2.3082662 ]
 [-17.545961  ]
 [  0.67577773]
 [  0.15282403]
 [  1.1297188 ]
 [ -1.5532978 ]
 [  0.20029777]
 [  0.15522644]
 [  5.3887186 ]
 [  0.8785717 ]
 [ 15.875969  ]
 [-11.953206  ]
 [ -4.8919277 ]
 [ -0.45204994]
 [ -0.31592795]
 [ -0.06041235]
 [  0.52469796]
 [  0.378654  ]
 [  1.2041749 ]
 [  0.64535093]
 [  0.45997202]
 [  2.6970282 ]
 [  0.44829285]
 [  0.6161608 ]
 [  1.4797674 ]
 [ -0.31816927]
 [  2.0709763 ]
 [ -0.4424891 ]
 [ -0.09902315]
 [  3.0850086 ]
 [  0.1999861 ]
 [ -4.0357676 ]
 [ -0.10142453]
 [  0.5499934 ]
 [ 11.133768  ]
 [ -0.04432384]
 [ -0.3707865 ]
 [  2.7369163 ]
 [ -2.20909   ]
 [ -4.5190425 ]
 [  0.51975125]
 [ -4.708034  ]
 [ -0.6021743 ]
 [  0.41707715]
 [  0.39675465]
 [  7.308871  ]
 [  0.657306  ]
 [  8.825281  ]
 [  1.685321  ]
 [  0.22546497]
 [  1.3325837 ]
 [ -0.5071739 ]
 [ -0.687561  ]
 [ -1.144798  ]
 [  0.44245636]
 [  1.3426843 ]
 [  0.9270316 ]
 [  1.2966377 ]
 [  0.17493792]
 [  1.530092  ]
 [  0.21442632]
 [  0.50946134]
 [  0.3514049 ]
 [ -0.37154633]
 [ -0.45867488]
 [ -0.5262386 ]
 [ -0.40146923]
 [ -0.8027145 ]
 [ -0.3029848 ]]

Layer 4:
[0.3069973]



Entrenamiento 5:
------------------------------------------------------------------------

Layer 0:
[[ 0.0000000e+00 -2.8296584e-01  0.0000000e+00 ...  0.0000000e+00
   2.3602031e-01  0.0000000e+00]
 [ 0.0000000e+00  0.0000000e+00  0.0000000e+00 ... -1.5367217e-02
  -1.0595218e-02  0.0000000e+00]
 [ 2.0013270e-01  0.0000000e+00  0.0000000e+00 ...  0.0000000e+00
   0.0000000e+00  0.0000000e+00]
 ...
 [ 0.0000000e+00  0.0000000e+00  0.0000000e+00 ...  0.0000000e+00
   3.0086139e-01  0.0000000e+00]
 [ 0.0000000e+00  6.1065480e-02  0.0000000e+00 ... -1.7738600e-25
   0.0000000e+00  0.0000000e+00]
 [ 0.0000000e+00 -6.1808028e-03 -2.9227635e-01 ...  0.0000000e+00
  -2.4580902e-01  0.0000000e+00]]

Layer 1:
[[ 0.11536999 -0.20783363  0.11617343 -0.1134653   0.14595559 -0.08669378
  -0.1615894  -0.14028148  0.16431849 -0.00594605  0.0846993   0.05137329
  -0.06077136 -0.08996093 -0.04298729  0.03635875  0.0007899   0.10265815
  -0.05116396 -0.07127348  0.07960068 -0.09116763  0.02643043 -0.05736057
  -0.08328256 -0.04157952  0.08871082  0.07526289  0.03177036  0.09224999
   0.00764431 -0.05132154 -0.0138379   0.11790764  0.11399456  0.05825895
  -0.06061225  0.18049695  0.19707035  0.02640016 -0.14018244  0.01013338
  -0.01259515 -0.02004797  0.09770066  0.02130018 -0.09305104  0.12602143
   0.09499963  0.1171179   0.0817657  -0.10802287 -0.08927486  0.09434769
  -0.07015076 -0.0979881  -0.16987713  0.09278585 -0.07663577 -0.18825388
  -0.06107559  0.10134    -0.04424086 -0.1543757   0.102425    0.01345699
  -0.18740216  0.202131    0.02996793  0.07733615 -0.01540678 -0.16463104
  -0.02413206 -0.16265556  0.0450784   0.14292797  0.03587428  0.17296682
   0.00994454  0.11229263 -0.13961314  0.10173337 -0.14008032 -0.12400495
  -0.16272399  0.12268088  0.07768913  0.1154005   0.04074828 -0.14248437
   0.04518868  0.17049947 -0.10912618 -0.07376894 -0.13092199 -0.11953177
  -0.13138752 -0.13616708 -0.17092575  0.19124857]]

Layer 2:
[0. 0. 0. 0. 0. 0. 0. 0. 0. 0. 0. 0. 0. 0. 0. 0. 0. 0. 0. 0. 0. 0. 0. 0.
 0. 0. 0. 0. 0. 0. 0. 0. 0. 0. 0. 0. 0. 0. 0. 0. 0. 0. 0. 0. 0. 0. 0. 0.
 0. 0. 0. 0. 0. 0. 0. 0. 0. 0. 0. 0. 0. 0. 0. 0. 0. 0. 0. 0. 0. 0. 0. 0.
 0. 0. 0. 0. 0. 0. 0. 0. 0. 0. 0. 0. 0. 0. 0. 0. 0. 0. 0. 0. 0. 0. 0. 0.
 0. 0. 0. 0.]

Layer 3:
[[-5.07764518e-01]
 [ 3.55119318e-01]
 [ 7.48500884e-01]
 [-6.39506638e-01]
 [ 6.72119856e-01]
 [-2.36775711e-01]
 [-9.02461633e-02]
 [-1.19688891e-01]
 [ 3.99582833e-01]
 [-1.32634172e+01]
 [ 2.35619470e-01]
 [-1.37801099e+00]
 [-5.73905289e-01]
 [-7.26042926e-01]
 [-4.78725672e+00]
 [ 1.43209994e+00]
 [ 2.35679936e+00]
 [ 8.59401882e-01]
 [ 2.37094730e-01]
 [-4.73423839e-01]
 [ 8.22864115e-01]
 [-3.06775600e-01]
 [ 2.86443901e+00]
 [-1.65682447e+00]
 [-1.07588446e+00]
 [ 2.73573250e-01]
 [ 1.38119429e-01]
 [ 2.30895948e+00]
 [-2.09849048e+00]
 [ 8.19472015e-01]
 [ 1.60201263e+00]
 [-3.12404132e+00]
 [-1.57916336e+01]
 [ 3.83551240e-01]
 [ 1.17715485e-01]
 [ 1.18731260e+00]
 [-1.61705852e+00]
 [-1.16450265e-01]
 [-2.10800499e-01]
 [ 5.08226252e+00]
 [ 1.10657275e+00]
 [ 1.57234354e+01]
 [-1.07184525e+01]
 [-3.86663485e+00]
 [-4.87126023e-01]
 [-5.27977824e-01]
 [-1.58376202e-01]
 [ 4.00145143e-01]
 [ 4.86851633e-01]
 [ 1.14782286e+00]
 [ 7.72220433e-01]
 [ 4.38782513e-01]
 [ 2.54776430e+00]
 [ 5.62821507e-01]
 [ 6.34809554e-01]
 [ 9.12587702e-01]
 [-7.79004991e-01]
 [ 2.15359426e+00]
 [-7.02484787e-01]
 [ 3.39961290e-01]
 [ 2.68117976e+00]
 [ 9.92390513e-01]
 [-3.22907472e+00]
 [ 1.31444223e-02]
 [ 9.84586060e-01]
 [ 9.47376728e+00]
 [ 3.87565017e-01]
 [-7.90424109e-01]
 [ 1.83662164e+00]
 [-2.37981534e+00]
 [-3.44454575e+00]
 [ 7.86971450e-01]
 [-4.61199427e+00]
 [-3.18457723e-01]
 [ 3.57382387e-01]
 [ 9.68433395e-02]
 [ 4.66207027e+00]
 [ 3.09363067e-01]
 [ 8.40043545e+00]
 [ 1.83932388e+00]
 [ 3.63976538e-01]
 [ 1.80562496e+00]
 [-3.50113630e-01]
 [-5.44931531e-01]
 [-8.78176749e-01]
 [ 6.08274579e-01]
 [ 1.19192755e+00]
 [ 7.90884376e-01]
 [ 1.24731314e+00]
 [ 3.89273554e-01]
 [ 4.94705349e-01]
 [-5.64631969e-02]
 [-4.77454603e-01]
 [ 1.97524738e+00]
 [-1.54084474e-01]
 [-3.00281823e-01]
 [-2.61862576e-01]
 [-6.91183150e-01]
 [-5.15809119e-01]
 [-2.05691308e-01]]

Layer 4:
[-0.01877348]



