Pesos inciales:
------------------------------------------------------------------------

Layer 0:
[[ 0.         -0.         -0.         ...  0.          0.
   0.        ]
 [ 0.          0.          0.         ...  0.         -0.
   0.34634915]
 [ 0.          0.          0.         ...  0.          0.
   0.        ]
 ...
 [ 0.          0.         -0.         ... -0.         -0.
   0.        ]
 [ 0.          0.         -0.         ... -0.          0.2375452
   0.        ]
 [-0.         -0.          0.         ...  0.         -0.
   0.        ]]

Layer 1:
[[-0.34161448 -0.16089474 -0.23305795 -0.04115635  0.06616503  0.20790353
   0.25714287  0.19359419 -0.30544424  0.11711988  0.2904589  -0.25811183
   0.18979123 -0.06926101 -0.04457128  0.23447946  0.05868459 -0.29998899
   0.04479435  0.2777275  -0.00250793  0.04060036  0.19330916  0.29362258
   0.18025461 -0.18410727  0.24910036 -0.28171217 -0.18137789  0.12021491
  -0.07584742 -0.17302887 -0.01520813 -0.32902795  0.16251615  0.00429991
  -0.17774323 -0.00881082  0.30545035  0.06186816 -0.11914484  0.12464336
  -0.14578785 -0.337506    0.30562595  0.27681676  0.21523556  0.08805752
   0.02627721 -0.19616167]]

Layer 2:
[0. 0. 0. 0. 0. 0. 0. 0. 0. 0. 0. 0. 0. 0. 0. 0. 0. 0. 0. 0. 0. 0. 0. 0.
 0. 0. 0. 0. 0. 0. 0. 0. 0. 0. 0. 0. 0. 0. 0. 0. 0. 0. 0. 0. 0. 0. 0. 0.
 0. 0.]

Layer 3:
[[ 0.09370151]
 [ 0.18043157]
 [-0.23635903]
 [-0.11480446]
 [ 0.03076184]
 [ 0.00800383]
 [-0.02494907]
 [-0.03158534]
 [ 0.06086409]
 [ 0.03947011]
 [-0.13782261]
 [ 0.1875703 ]
 [-0.29959393]
 [ 0.00941056]
 [-0.216776  ]
 [ 0.2553657 ]
 [ 0.00641268]
 [-0.33348888]
 [-0.10175122]
 [ 0.21865931]
 [ 0.23213819]
 [ 0.10635796]
 [ 0.00226301]
 [ 0.15738478]
 [ 0.07147482]
 [-0.04398003]
 [ 0.15936765]
 [-0.01525843]
 [ 0.11458963]
 [-0.2746442 ]
 [-0.14233196]
 [ 0.26605138]
 [-0.00548902]
 [-0.02525255]
 [-0.14875422]
 [-0.29936722]
 [ 0.18383709]
 [-0.28337085]
 [ 0.17568949]
 [-0.10068421]
 [ 0.3292152 ]
 [-0.11693196]
 [ 0.17621538]
 [-0.26905775]
 [-0.15930058]
 [ 0.02798006]
 [-0.21637602]
 [-0.11989099]
 [-0.32256252]
 [-0.05790934]]

Layer 4:
[0.]



Entrenamiento 0:
------------------------------------------------------------------------

Layer 0:
[[ 0.         -0.         -0.         ...  0.          0.
   0.        ]
 [ 0.          0.          0.         ...  0.         -0.
   0.34634915]
 [ 0.          0.          0.         ...  0.          0.
   0.        ]
 ...
 [ 0.          0.         -0.         ... -0.         -0.
   0.        ]
 [ 0.          0.         -0.         ... -0.          0.2375452
   0.        ]
 [-0.         -0.          0.         ...  0.         -0.
   0.        ]]

Layer 1:
[[-0.34161448 -0.16089474 -0.23305795 -0.04115635  0.06616503  0.20790353
   0.25714287  0.19359419 -0.30544424  0.11711988  0.2904589  -0.25811183
   0.18979123 -0.06926101 -0.04457128  0.23447946  0.05868459 -0.29998899
   0.04479435  0.2777275  -0.00250793  0.04060036  0.19330916  0.29362258
   0.18025461 -0.18410727  0.24910036 -0.28171217 -0.18137789  0.12021491
  -0.07584742 -0.17302887 -0.01520813 -0.32902795  0.16251615  0.00429991
  -0.17774323 -0.00881082  0.30545035  0.06186816 -0.11914484  0.12464336
  -0.14578785 -0.337506    0.30562595  0.27681676  0.21523556  0.08805752
   0.02627721 -0.19616167]]

Layer 2:
[0. 0. 0. 0. 0. 0. 0. 0. 0. 0. 0. 0. 0. 0. 0. 0. 0. 0. 0. 0. 0. 0. 0. 0.
 0. 0. 0. 0. 0. 0. 0. 0. 0. 0. 0. 0. 0. 0. 0. 0. 0. 0. 0. 0. 0. 0. 0. 0.
 0. 0.]

Layer 3:
[[ -0.23067759]
 [ -0.5108778 ]
 [ -0.83230996]
 [ -3.9437165 ]
 [  7.2629957 ]
 [  0.38484657]
 [  0.4458994 ]
 [  0.7623226 ]
 [ -0.25641352]
 [  1.7446432 ]
 [  0.3413526 ]
 [ -0.1763716 ]
 [  0.18384157]
 [ -2.9347627 ]
 [ -2.7720551 ]
 [  1.0887493 ]
 [  2.7202377 ]
 [ -0.789872  ]
 [  1.4795167 ]
 [  0.85203475]
 [ -6.962255  ]
 [  2.6663833 ]
 [  2.0296566 ]
 [  0.5352979 ]
 [  1.6286836 ]
 [ -1.6755568 ]
 [  0.51157576]
 [ -0.4113052 ]
 [ -0.4276365 ]
 [  2.003595  ]
 [ -1.7795846 ]
 [ -0.65414405]
 [ -2.9436693 ]
 [ -0.3614246 ]
 [  0.8222741 ]
 [  6.633867  ]
 [ -0.63033545]
 [-11.759993  ]
 [  0.49084875]
 [  2.0222003 ]
 [ -0.3149762 ]
 [  5.34629   ]
 [ -0.35534075]
 [ -0.5341056 ]
 [  0.24722116]
 [  0.42102182]
 [  0.95142996]
 [  1.7894155 ]
 [  7.7672257 ]
 [ -0.4497723 ]]

Layer 4:
[0.1407449]



Consenso 0:
------------------------------------------------------------------------

Layer 0:
[[ 0.         -0.         -0.         ...  0.          0.
   0.        ]
 [ 0.          0.          0.         ...  0.         -0.
   0.34634915]
 [ 0.          0.          0.         ...  0.          0.
   0.        ]
 ...
 [ 0.          0.         -0.         ... -0.         -0.
   0.        ]
 [ 0.          0.         -0.         ... -0.          0.2375452
   0.        ]
 [-0.         -0.          0.         ...  0.         -0.
   0.        ]]

Layer 1:
[[-0.34161448 -0.16089474 -0.23305795 -0.04115635  0.06616503  0.20790353
   0.25714287  0.19359419 -0.30544424  0.11711988  0.2904589  -0.25811183
   0.18979123 -0.06926101 -0.04457128  0.23447946  0.05868459 -0.29998899
   0.04479435  0.2777275  -0.00250793  0.04060036  0.19330916  0.29362258
   0.18025461 -0.18410727  0.24910036 -0.28171217 -0.18137789  0.12021491
  -0.07584742 -0.17302887 -0.01520813 -0.32902795  0.16251615  0.00429991
  -0.17774323 -0.00881082  0.30545035  0.06186816 -0.11914484  0.12464336
  -0.14578785 -0.337506    0.30562595  0.27681676  0.21523556  0.08805752
   0.02627721 -0.19616167]]

Layer 2:
[0. 0. 0. 0. 0. 0. 0. 0. 0. 0. 0. 0. 0. 0. 0. 0. 0. 0. 0. 0. 0. 0. 0. 0.
 0. 0. 0. 0. 0. 0. 0. 0. 0. 0. 0. 0. 0. 0. 0. 0. 0. 0. 0. 0. 0. 0. 0. 0.
 0. 0.]

Layer 3:
[[ -0.23067759]
 [ -0.5108778 ]
 [ -0.83230996]
 [ -3.9437165 ]
 [  7.2629957 ]
 [  0.38484657]
 [  0.4458994 ]
 [  0.7623226 ]
 [ -0.25641352]
 [  1.7446432 ]
 [  0.3413526 ]
 [ -0.1763716 ]
 [  0.18384157]
 [ -2.9347627 ]
 [ -2.7720551 ]
 [  1.0887493 ]
 [  2.7202377 ]
 [ -0.789872  ]
 [  1.4795167 ]
 [  0.85203475]
 [ -6.962255  ]
 [  2.6663833 ]
 [  2.0296566 ]
 [  0.5352979 ]
 [  1.6286836 ]
 [ -1.6755568 ]
 [  0.51157576]
 [ -0.4113052 ]
 [ -0.4276365 ]
 [  2.003595  ]
 [ -1.7795846 ]
 [ -0.65414405]
 [ -2.9436693 ]
 [ -0.3614246 ]
 [  0.8222741 ]
 [  6.633867  ]
 [ -0.63033545]
 [-11.759993  ]
 [  0.49084875]
 [  2.0222003 ]
 [ -0.3149762 ]
 [  5.34629   ]
 [ -0.35534075]
 [ -0.5341056 ]
 [  0.24722116]
 [  0.42102182]
 [  0.95142996]
 [  1.7894155 ]
 [  7.7672257 ]
 [ -0.4497723 ]]

Layer 4:
[0.1407449]



Entrenamiento 1:
------------------------------------------------------------------------

Layer 0:
[[ 0.         -0.         -0.         ...  0.          0.
   0.        ]
 [ 0.          0.          0.         ...  0.         -0.
   0.34634915]
 [ 0.          0.          0.         ...  0.          0.
   0.        ]
 ...
 [ 0.          0.         -0.         ... -0.         -0.
   0.        ]
 [ 0.          0.         -0.         ... -0.          0.2375452
   0.        ]
 [-0.         -0.          0.         ...  0.         -0.
   0.        ]]

Layer 1:
[[-0.34161448 -0.16089474 -0.23305795 -0.04115635  0.06616503  0.20790353
   0.25714287  0.19359419 -0.30544424  0.11711988  0.2904589  -0.25811183
   0.18979123 -0.06926101 -0.04457128  0.23447946  0.05868459 -0.29998899
   0.04479435  0.2777275  -0.00250793  0.04060036  0.19330916  0.29362258
   0.18025461 -0.18410727  0.24910036 -0.28171217 -0.18137789  0.12021491
  -0.07584742 -0.17302887 -0.01520813 -0.32902795  0.16251615  0.00429991
  -0.17774323 -0.00881082  0.30545035  0.06186816 -0.11914484  0.12464336
  -0.14578785 -0.337506    0.30562595  0.27681676  0.21523556  0.08805752
   0.02627721 -0.19616167]]

Layer 2:
[0. 0. 0. 0. 0. 0. 0. 0. 0. 0. 0. 0. 0. 0. 0. 0. 0. 0. 0. 0. 0. 0. 0. 0.
 0. 0. 0. 0. 0. 0. 0. 0. 0. 0. 0. 0. 0. 0. 0. 0. 0. 0. 0. 0. 0. 0. 0. 0.
 0. 0.]

Layer 3:
[[-7.8353830e-02]
 [-2.4984604e-01]
 [-3.5394007e-01]
 [-5.3651404e+00]
 [ 9.8737297e+00]
 [ 2.5434282e-01]
 [ 1.9325703e-01]
 [ 1.7275755e-01]
 [-1.5098725e-01]
 [ 1.2478110e+00]
 [-1.1710662e-02]
 [-4.7253728e-02]
 [-6.0137197e-02]
 [-3.0221276e+00]
 [-4.2224774e+00]
 [ 3.4328514e-01]
 [ 3.1479428e+00]
 [-4.8440498e-01]
 [ 1.5349663e+00]
 [ 2.8316638e-01]
 [-1.2563766e+01]
 [ 3.8376832e+00]
 [ 1.2164797e+00]
 [ 3.4006938e-01]
 [ 9.0887523e-01]
 [-8.6696017e-01]
 [ 4.8233324e-01]
 [-2.0368098e-01]
 [-2.2862208e-01]
 [ 1.5493393e+00]
 [-1.6929154e+00]
 [-2.6224446e-01]
 [-4.4070706e+00]
 [-1.9410840e-01]
 [ 5.0217199e-01]
 [ 1.1738572e+01]
 [-1.6383718e-01]
 [-2.0000181e+01]
 [ 4.0444911e-01]
 [ 2.2269676e+00]
 [-2.7822807e-01]
 [ 6.0637827e+00]
 [-2.6100403e-01]
 [-5.3262615e-01]
 [-1.6402479e-02]
 [ 2.2114155e-01]
 [ 1.3770157e-01]
 [ 1.5919067e+00]
 [ 1.2689537e+01]
 [-3.3895281e-01]]

Layer 4:
[0.4164452]



Consenso 1:
------------------------------------------------------------------------

Layer 0:
[[ 0.         -0.         -0.         ...  0.          0.
   0.        ]
 [ 0.          0.          0.         ...  0.         -0.
   0.34634915]
 [ 0.          0.          0.         ...  0.          0.
   0.        ]
 ...
 [ 0.          0.         -0.         ... -0.         -0.
   0.        ]
 [ 0.          0.         -0.         ... -0.          0.2375452
   0.        ]
 [-0.         -0.          0.         ...  0.         -0.
   0.        ]]

Layer 1:
[[-0.34161448 -0.16089474 -0.23305795 -0.04115635  0.06616503  0.20790353
   0.25714287  0.19359419 -0.30544424  0.11711988  0.2904589  -0.25811183
   0.18979123 -0.06926101 -0.04457128  0.23447946  0.05868459 -0.29998899
   0.04479435  0.2777275  -0.00250793  0.04060036  0.19330916  0.29362258
   0.18025461 -0.18410727  0.24910036 -0.28171217 -0.18137789  0.12021491
  -0.07584742 -0.17302887 -0.01520813 -0.32902795  0.16251615  0.00429991
  -0.17774323 -0.00881082  0.30545035  0.06186816 -0.11914484  0.12464336
  -0.14578785 -0.337506    0.30562595  0.27681676  0.21523556  0.08805752
   0.02627721 -0.19616167]]

Layer 2:
[0. 0. 0. 0. 0. 0. 0. 0. 0. 0. 0. 0. 0. 0. 0. 0. 0. 0. 0. 0. 0. 0. 0. 0.
 0. 0. 0. 0. 0. 0. 0. 0. 0. 0. 0. 0. 0. 0. 0. 0. 0. 0. 0. 0. 0. 0. 0. 0.
 0. 0.]

Layer 3:
[[-7.8353830e-02]
 [-2.4984604e-01]
 [-3.5394007e-01]
 [-5.3651404e+00]
 [ 9.8737297e+00]
 [ 2.5434282e-01]
 [ 1.9325703e-01]
 [ 1.7275755e-01]
 [-1.5098725e-01]
 [ 1.2478110e+00]
 [-1.1710662e-02]
 [-4.7253728e-02]
 [-6.0137197e-02]
 [-3.0221276e+00]
 [-4.2224774e+00]
 [ 3.4328514e-01]
 [ 3.1479428e+00]
 [-4.8440498e-01]
 [ 1.5349663e+00]
 [ 2.8316638e-01]
 [-1.2563766e+01]
 [ 3.8376832e+00]
 [ 1.2164797e+00]
 [ 3.4006938e-01]
 [ 9.0887523e-01]
 [-8.6696017e-01]
 [ 4.8233324e-01]
 [-2.0368098e-01]
 [-2.2862208e-01]
 [ 1.5493393e+00]
 [-1.6929154e+00]
 [-2.6224446e-01]
 [-4.4070706e+00]
 [-1.9410840e-01]
 [ 5.0217199e-01]
 [ 1.1738572e+01]
 [-1.6383718e-01]
 [-2.0000181e+01]
 [ 4.0444911e-01]
 [ 2.2269676e+00]
 [-2.7822807e-01]
 [ 6.0637827e+00]
 [-2.6100403e-01]
 [-5.3262615e-01]
 [-1.6402479e-02]
 [ 2.2114155e-01]
 [ 1.3770157e-01]
 [ 1.5919067e+00]
 [ 1.2689537e+01]
 [-3.3895281e-01]]

Layer 4:
[0.4164452]



Entrenamiento 2:
------------------------------------------------------------------------

Layer 0:
[[ 0.         -0.         -0.         ...  0.          0.
   0.        ]
 [ 0.          0.          0.         ...  0.         -0.
   0.34634915]
 [ 0.          0.          0.         ...  0.          0.
   0.        ]
 ...
 [ 0.          0.         -0.         ... -0.         -0.
   0.        ]
 [ 0.          0.         -0.         ... -0.          0.2375452
   0.        ]
 [-0.         -0.          0.         ...  0.         -0.
   0.        ]]

Layer 1:
[[-0.34161448 -0.16089474 -0.23305795 -0.04115635  0.06616503  0.20790353
   0.25714287  0.19359419 -0.30544424  0.11711988  0.2904589  -0.25811183
   0.18979123 -0.06926101 -0.04457128  0.23447946  0.05868459 -0.29998899
   0.04479435  0.2777275  -0.00250793  0.04060036  0.19330916  0.29362258
   0.18025461 -0.18410727  0.24910036 -0.28171217 -0.18137789  0.12021491
  -0.07584742 -0.17302887 -0.01520813 -0.32902795  0.16251615  0.00429991
  -0.17774323 -0.00881082  0.30545035  0.06186816 -0.11914484  0.12464336
  -0.14578785 -0.337506    0.30562595  0.27681676  0.21523556  0.08805752
   0.02627721 -0.19616167]]

Layer 2:
[0. 0. 0. 0. 0. 0. 0. 0. 0. 0. 0. 0. 0. 0. 0. 0. 0. 0. 0. 0. 0. 0. 0. 0.
 0. 0. 0. 0. 0. 0. 0. 0. 0. 0. 0. 0. 0. 0. 0. 0. 0. 0. 0. 0. 0. 0. 0. 0.
 0. 0.]

Layer 3:
[[-4.3934134e-01]
 [-2.5717810e-01]
 [-3.0809626e-01]
 [-5.7281742e+00]
 [ 9.9592400e+00]
 [ 6.4881754e-01]
 [ 3.6468929e-01]
 [-1.0154318e-01]
 [-5.8448303e-01]
 [ 3.8995990e-01]
 [ 4.8818145e-02]
 [-4.2378482e-01]
 [ 1.7297417e-01]
 [-2.2822590e+00]
 [-5.3221660e+00]
 [-1.1279593e-01]
 [ 2.8314970e+00]
 [-5.7154626e-01]
 [ 1.5759863e+00]
 [ 2.4515590e-02]
 [-1.7190008e+01]
 [ 4.6246119e+00]
 [-2.3951007e-01]
 [ 6.3357884e-01]
 [-1.5578185e-01]
 [ 3.6003986e-01]
 [ 9.6866024e-01]
 [-4.7436824e-01]
 [-4.1807044e-01]
 [ 3.8943312e-01]
 [-1.3740606e+00]
 [ 1.1752679e-02]
 [-5.6291595e+00]
 [-5.3543854e-01]
 [ 2.3321703e-01]
 [ 1.5716496e+01]
 [ 9.8411895e-02]
 [-2.6647942e+01]
 [ 8.0835664e-01]
 [ 1.9826697e+00]
 [-5.9506977e-01]
 [ 4.3481774e+00]
 [-5.9315532e-01]
 [-1.0823108e+00]
 [ 1.8622345e-01]
 [ 4.9990171e-01]
 [-7.4134475e-01]
 [ 9.7080719e-01]
 [ 1.5771312e+01]
 [-7.7505279e-01]]

Layer 4:
[1.0628518]



Consenso 2:
------------------------------------------------------------------------

Layer 0:
[[ 0.         -0.         -0.         ...  0.          0.
   0.        ]
 [ 0.          0.          0.         ...  0.         -0.
   0.34634915]
 [ 0.          0.          0.         ...  0.          0.
   0.        ]
 ...
 [ 0.          0.         -0.         ... -0.         -0.
   0.        ]
 [ 0.          0.         -0.         ... -0.          0.2375452
   0.        ]
 [-0.         -0.          0.         ...  0.         -0.
   0.        ]]

Layer 1:
[[-0.34161448 -0.16089474 -0.23305795 -0.04115635  0.06616503  0.20790353
   0.25714287  0.19359419 -0.30544424  0.11711988  0.2904589  -0.25811183
   0.18979123 -0.06926101 -0.04457128  0.23447946  0.05868459 -0.29998899
   0.04479435  0.2777275  -0.00250793  0.04060036  0.19330916  0.29362258
   0.18025461 -0.18410727  0.24910036 -0.28171217 -0.18137789  0.12021491
  -0.07584742 -0.17302887 -0.01520813 -0.32902795  0.16251615  0.00429991
  -0.17774323 -0.00881082  0.30545035  0.06186816 -0.11914484  0.12464336
  -0.14578785 -0.337506    0.30562595  0.27681676  0.21523556  0.08805752
   0.02627721 -0.19616167]]

Layer 2:
[0. 0. 0. 0. 0. 0. 0. 0. 0. 0. 0. 0. 0. 0. 0. 0. 0. 0. 0. 0. 0. 0. 0. 0.
 0. 0. 0. 0. 0. 0. 0. 0. 0. 0. 0. 0. 0. 0. 0. 0. 0. 0. 0. 0. 0. 0. 0. 0.
 0. 0.]

Layer 3:
[[-4.3934134e-01]
 [-2.5717810e-01]
 [-3.0809626e-01]
 [-5.7281742e+00]
 [ 9.9592400e+00]
 [ 6.4881754e-01]
 [ 3.6468929e-01]
 [-1.0154318e-01]
 [-5.8448303e-01]
 [ 3.8995990e-01]
 [ 4.8818145e-02]
 [-4.2378482e-01]
 [ 1.7297417e-01]
 [-2.2822590e+00]
 [-5.3221660e+00]
 [-1.1279593e-01]
 [ 2.8314970e+00]
 [-5.7154626e-01]
 [ 1.5759863e+00]
 [ 2.4515590e-02]
 [-1.7190008e+01]
 [ 4.6246119e+00]
 [-2.3951007e-01]
 [ 6.3357884e-01]
 [-1.5578185e-01]
 [ 3.6003986e-01]
 [ 9.6866024e-01]
 [-4.7436824e-01]
 [-4.1807044e-01]
 [ 3.8943312e-01]
 [-1.3740606e+00]
 [ 1.1752679e-02]
 [-5.6291595e+00]
 [-5.3543854e-01]
 [ 2.3321703e-01]
 [ 1.5716496e+01]
 [ 9.8411895e-02]
 [-2.6647942e+01]
 [ 8.0835664e-01]
 [ 1.9826697e+00]
 [-5.9506977e-01]
 [ 4.3481774e+00]
 [-5.9315532e-01]
 [-1.0823108e+00]
 [ 1.8622345e-01]
 [ 4.9990171e-01]
 [-7.4134475e-01]
 [ 9.7080719e-01]
 [ 1.5771312e+01]
 [-7.7505279e-01]]

Layer 4:
[1.0628518]



Entrenamiento 3:
------------------------------------------------------------------------

Layer 0:
[[ 0.         -0.         -0.         ...  0.          0.
   0.        ]
 [ 0.          0.          0.         ...  0.         -0.
   0.34634915]
 [ 0.          0.          0.         ...  0.          0.
   0.        ]
 ...
 [ 0.          0.         -0.         ... -0.         -0.
   0.        ]
 [ 0.          0.         -0.         ... -0.          0.2375452
   0.        ]
 [-0.         -0.          0.         ...  0.         -0.
   0.        ]]

Layer 1:
[[-0.34161448 -0.16089474 -0.23305795 -0.04115635  0.06616503  0.20790353
   0.25714287  0.19359419 -0.30544424  0.11711988  0.2904589  -0.25811183
   0.18979123 -0.06926101 -0.04457128  0.23447946  0.05868459 -0.29998899
   0.04479435  0.2777275  -0.00250793  0.04060036  0.19330916  0.29362258
   0.18025461 -0.18410727  0.24910036 -0.28171217 -0.18137789  0.12021491
  -0.07584742 -0.17302887 -0.01520813 -0.32902795  0.16251615  0.00429991
  -0.17774323 -0.00881082  0.30545035  0.06186816 -0.11914484  0.12464336
  -0.14578785 -0.337506    0.30562595  0.27681676  0.21523556  0.08805752
   0.02627721 -0.19616167]]

Layer 2:
[0. 0. 0. 0. 0. 0. 0. 0. 0. 0. 0. 0. 0. 0. 0. 0. 0. 0. 0. 0. 0. 0. 0. 0.
 0. 0. 0. 0. 0. 0. 0. 0. 0. 0. 0. 0. 0. 0. 0. 0. 0. 0. 0. 0. 0. 0. 0. 0.
 0. 0.]

Layer 3:
[[ -0.69555986]
 [ -0.23483701]
 [ -0.49076813]
 [ -5.7549834 ]
 [  9.332803  ]
 [  0.99112755]
 [  0.50682104]
 [ -0.05775164]
 [ -0.9114731 ]
 [ -0.31552133]
 [  0.13836156]
 [ -0.70881766]
 [  0.45218235]
 [ -1.6957608 ]
 [ -5.985267  ]
 [ -0.15526633]
 [  2.3665955 ]
 [ -0.616055  ]
 [  1.7314909 ]
 [ -0.0604449 ]
 [-21.309834  ]
 [  5.1078434 ]
 [ -1.4395435 ]
 [  0.86500365]
 [ -1.0241586 ]
 [  1.3566203 ]
 [  1.2956458 ]
 [ -0.69329476]
 [ -0.5630252 ]
 [ -0.6276305 ]
 [ -1.0392927 ]
 [  0.23957707]
 [ -6.857453  ]
 [ -0.78572935]
 [ -0.07399905]
 [ 19.149118  ]
 [  0.23684582]
 [-32.48102   ]
 [  1.0384794 ]
 [  1.6413553 ]
 [ -0.7979738 ]
 [  2.2020247 ]
 [ -0.8483647 ]
 [ -1.4324454 ]
 [  0.36499682]
 [  0.720322  ]
 [ -1.3209872 ]
 [  0.38321635]
 [ 18.029924  ]
 [ -1.1773211 ]]

Layer 4:
[1.0871967]



Consenso 3:
------------------------------------------------------------------------

Layer 0:
[[ 0.         -0.         -0.         ...  0.          0.
   0.        ]
 [ 0.          0.          0.         ...  0.         -0.
   0.34634915]
 [ 0.          0.          0.         ...  0.          0.
   0.        ]
 ...
 [ 0.          0.         -0.         ... -0.         -0.
   0.        ]
 [ 0.          0.         -0.         ... -0.          0.2375452
   0.        ]
 [-0.         -0.          0.         ...  0.         -0.
   0.        ]]

Layer 1:
[[-0.34161448 -0.16089474 -0.23305795 -0.04115635  0.06616503  0.20790353
   0.25714287  0.19359419 -0.30544424  0.11711988  0.2904589  -0.25811183
   0.18979123 -0.06926101 -0.04457128  0.23447946  0.05868459 -0.29998899
   0.04479435  0.2777275  -0.00250793  0.04060036  0.19330916  0.29362258
   0.18025461 -0.18410727  0.24910036 -0.28171217 -0.18137789  0.12021491
  -0.07584742 -0.17302887 -0.01520813 -0.32902795  0.16251615  0.00429991
  -0.17774323 -0.00881082  0.30545035  0.06186816 -0.11914484  0.12464336
  -0.14578785 -0.337506    0.30562595  0.27681676  0.21523556  0.08805752
   0.02627721 -0.19616167]]

Layer 2:
[0. 0. 0. 0. 0. 0. 0. 0. 0. 0. 0. 0. 0. 0. 0. 0. 0. 0. 0. 0. 0. 0. 0. 0.
 0. 0. 0. 0. 0. 0. 0. 0. 0. 0. 0. 0. 0. 0. 0. 0. 0. 0. 0. 0. 0. 0. 0. 0.
 0. 0.]

Layer 3:
[[ -0.69555986]
 [ -0.23483701]
 [ -0.49076813]
 [ -5.7549834 ]
 [  9.332803  ]
 [  0.99112755]
 [  0.50682104]
 [ -0.05775164]
 [ -0.9114731 ]
 [ -0.31552133]
 [  0.13836156]
 [ -0.70881766]
 [  0.45218235]
 [ -1.6957608 ]
 [ -5.985267  ]
 [ -0.15526633]
 [  2.3665955 ]
 [ -0.616055  ]
 [  1.7314909 ]
 [ -0.0604449 ]
 [-21.309834  ]
 [  5.1078434 ]
 [ -1.4395435 ]
 [  0.86500365]
 [ -1.0241586 ]
 [  1.3566203 ]
 [  1.2956458 ]
 [ -0.69329476]
 [ -0.5630252 ]
 [ -0.6276305 ]
 [ -1.0392927 ]
 [  0.23957707]
 [ -6.857453  ]
 [ -0.78572935]
 [ -0.07399905]
 [ 19.149118  ]
 [  0.23684582]
 [-32.48102   ]
 [  1.0384794 ]
 [  1.6413553 ]
 [ -0.7979738 ]
 [  2.2020247 ]
 [ -0.8483647 ]
 [ -1.4324454 ]
 [  0.36499682]
 [  0.720322  ]
 [ -1.3209872 ]
 [  0.38321635]
 [ 18.029924  ]
 [ -1.1773211 ]]

Layer 4:
[1.0871967]



Entrenamiento 4:
------------------------------------------------------------------------

Layer 0:
[[ 0.         -0.         -0.         ...  0.          0.
   0.        ]
 [ 0.          0.          0.         ...  0.         -0.
   0.34634915]
 [ 0.          0.          0.         ...  0.          0.
   0.        ]
 ...
 [ 0.          0.         -0.         ... -0.         -0.
   0.        ]
 [ 0.          0.         -0.         ... -0.          0.2375452
   0.        ]
 [-0.         -0.          0.         ...  0.         -0.
   0.        ]]

Layer 1:
[[-0.34161448 -0.16089474 -0.23305795 -0.04115635  0.06616503  0.20790353
   0.25714287  0.19359419 -0.30544424  0.11711988  0.2904589  -0.25811183
   0.18979123 -0.06926101 -0.04457128  0.23447946  0.05868459 -0.29998899
   0.04479435  0.2777275  -0.00250793  0.04060036  0.19330916  0.29362258
   0.18025461 -0.18410727  0.24910036 -0.28171217 -0.18137789  0.12021491
  -0.07584742 -0.17302887 -0.01520813 -0.32902795  0.16251615  0.00429991
  -0.17774323 -0.00881082  0.30545035  0.06186816 -0.11914484  0.12464336
  -0.14578785 -0.337506    0.30562595  0.27681676  0.21523556  0.08805752
   0.02627721 -0.19616167]]

Layer 2:
[0. 0. 0. 0. 0. 0. 0. 0. 0. 0. 0. 0. 0. 0. 0. 0. 0. 0. 0. 0. 0. 0. 0. 0.
 0. 0. 0. 0. 0. 0. 0. 0. 0. 0. 0. 0. 0. 0. 0. 0. 0. 0. 0. 0. 0. 0. 0. 0.
 0. 0.]

Layer 3:
[[-8.0408812e-01]
 [-2.1949983e-01]
 [-8.4085339e-01]
 [-5.6435003e+00]
 [ 8.3905821e+00]
 [ 1.2330822e+00]
 [ 6.0048306e-01]
 [ 2.6977307e-01]
 [-1.0796224e+00]
 [-7.0071810e-01]
 [ 2.3437898e-01]
 [-8.6379290e-01]
 [ 7.2998780e-01]
 [-1.4414101e+00]
 [-6.3041358e+00]
 [ 1.7322703e-01]
 [ 1.9471209e+00]
 [-6.1945772e-01]
 [ 2.0218949e+00]
 [ 2.8027512e-02]
 [-2.4943239e+01]
 [ 5.3686118e+00]
 [-2.1552386e+00]
 [ 9.9578649e-01]
 [-1.5208919e+00]
 [ 1.9161441e+00]
 [ 1.4267421e+00]
 [-8.2465690e-01]
 [-6.6108298e-01]
 [-1.2737615e+00]
 [-8.1067568e-01]
 [ 3.5830334e-01]
 [-8.0864239e+00]
 [-9.0187073e-01]
 [-3.2079673e-01]
 [ 2.2146734e+01]
 [ 2.1428953e-01]
 [-3.7526550e+01]
 [ 1.0818949e+00]
 [ 1.3503815e+00]
 [-8.8878083e-01]
 [ 1.5653598e-01]
 [-1.0085220e+00]
 [-1.5408033e+00]
 [ 4.8353967e-01]
 [ 8.4841949e-01]
 [-1.4966737e+00]
 [-7.3671304e-03]
 [ 1.9613651e+01]
 [-1.4756242e+00]]

Layer 4:
[0.68655723]



