Pesos inciales:
------------------------------------------------------------------------

Layer 0:
[[-0. -0. -0. -0. -0. -0. -0. -0. -0. -0.]
 [-0. -0.  0. -0.  0. -0.  0.  0.  0.  0.]
 [ 0. -0. -0. -0. -0. -0.  0. -0. -0. -0.]
 [ 0. -0.  0.  0. -0. -0.  0.  0. -0.  0.]
 [ 0. -0.  0. -0. -0.  0. -0.  0. -0.  0.]
 [ 0.  0.  0.  0.  0.  0. -0.  0.  0.  0.]
 [ 0. -0. -0.  0. -0. -0.  0. -0.  0.  0.]
 [-0.  0.  0.  0. -0. -0.  0. -0.  0. -0.]
 [ 0. -0.  0.  0. -0.  0.  0. -0.  0. -0.]
 [-0.  0.  0.  0. -0.  0. -0.  0.  0.  0.]]

Layer 1:
[[-0.48641562 -0.2780053  -0.08153421  0.59092253  0.5213186   0.08308357
  -0.6141406   0.11400896 -0.48085436  0.20760101]]

Layer 2:
[0. 0. 0. 0. 0. 0. 0. 0. 0. 0.]

Layer 3:
[[-0.16764182]
 [ 0.13734978]
 [-0.23156267]
 [ 0.19096005]
 [-0.53254306]
 [ 0.35588557]
 [ 0.27898616]
 [ 0.4720748 ]
 [ 0.19163376]
 [-0.49886703]]

Layer 4:
[0.]



Entrenamiento 0:
------------------------------------------------------------------------

Layer 0:
[[-0. -0. -0. -0. -0. -0. -0. -0. -0. -0.]
 [-0. -0.  0. -0.  0. -0.  0.  0.  0.  0.]
 [ 0. -0. -0. -0. -0. -0.  0. -0. -0. -0.]
 [ 0. -0.  0.  0. -0. -0.  0.  0. -0.  0.]
 [ 0. -0.  0. -0. -0.  0. -0.  0. -0.  0.]
 [ 0.  0.  0.  0.  0.  0. -0.  0.  0.  0.]
 [ 0. -0. -0.  0. -0. -0.  0. -0.  0.  0.]
 [-0.  0.  0.  0. -0. -0.  0. -0.  0. -0.]
 [ 0. -0.  0.  0. -0.  0.  0. -0.  0. -0.]
 [-0.  0.  0.  0. -0.  0. -0.  0.  0.  0.]]

Layer 1:
[[-0.48641562 -0.2780053  -0.08153421  0.59092253  0.5213186   0.08308357
  -0.6141406   0.11400896 -0.48085436  0.20760101]]

Layer 2:
[0. 0. 0. 0. 0. 0. 0. 0. 0. 0.]

Layer 3:
[[-3.8450778]
 [-3.5710423]
 [-4.0942683]
 [ 3.8614714]
 [ 3.1422398]
 [ 4.2152123]
 [-3.3903384]
 [ 4.2790647]
 [-3.4862647]
 [ 3.2341743]]

Layer 4:
[3.609962]



Consenso 0:
------------------------------------------------------------------------

Layer 0:
[[ 0.          0.          0.          0.16130167  0.          0.
   0.          0.          0.          0.        ]
 [ 0.          0.          0.          0.          0.          0.
   0.          0.          0.         -0.18657161]
 [ 0.          0.          0.          0.          0.          0.
   0.          0.          0.          0.        ]
 [ 0.          0.          0.          0.          0.          0.
   0.          0.          0.          0.        ]
 [ 0.          0.          0.          0.          0.          0.
   0.         -0.3378825   0.          0.        ]
 [ 0.          0.          0.          0.          0.          0.
   0.          0.          0.          0.        ]
 [ 0.          0.          0.          0.          0.          0.
   0.          0.          0.          0.        ]
 [ 0.          0.         -0.4489297   0.          0.          0.
  -0.36994228  0.          0.          0.        ]
 [ 0.          0.         -0.34589145  0.          0.          0.
   0.          0.          0.17999998  0.        ]
 [ 0.          0.          0.          0.          0.          0.
   0.          0.          0.          0.        ]]

Layer 1:
[[ 0.08099097 -0.29824486  0.2831227   0.07091767 -0.19463754 -0.0848828
   0.16586322  0.2105029   0.03964421  0.23132712]]

Layer 2:
[0. 0. 0. 0. 0. 0. 0. 0. 0. 0.]

Layer 3:
[[ 0.94262004]
 [-2.9304936 ]
 [ 1.2617202 ]
 [ 1.408519  ]
 [-0.67293596]
 [-1.9913816 ]
 [ 1.7472506 ]
 [ 2.2455163 ]
 [-0.13080692]
 [ 1.7349797 ]]

Layer 4:
[2.9914546]



Entrenamiento 1:
------------------------------------------------------------------------

Layer 0:
[[ 0.          0.          0.          0.16130167  0.          0.
   0.          0.          0.          0.        ]
 [ 0.          0.          0.          0.          0.          0.
   0.          0.          0.         -0.18657161]
 [ 0.          0.          0.          0.          0.          0.
   0.          0.          0.          0.        ]
 [ 0.          0.          0.          0.          0.          0.
   0.          0.          0.          0.        ]
 [ 0.          0.          0.          0.          0.          0.
   0.         -0.3378825   0.          0.        ]
 [ 0.          0.          0.          0.          0.          0.
   0.          0.          0.          0.        ]
 [ 0.          0.          0.          0.          0.          0.
   0.          0.          0.          0.        ]
 [ 0.          0.         -0.4489297   0.          0.          0.
  -0.36994228  0.          0.          0.        ]
 [ 0.          0.         -0.34589145  0.          0.          0.
   0.          0.          0.17999998  0.        ]
 [ 0.          0.          0.          0.          0.          0.
   0.          0.          0.          0.        ]]

Layer 1:
[[ 0.08099097 -0.29824486  0.2831227   0.07091767 -0.19463754 -0.0848828
   0.16586322  0.2105029   0.03964421  0.23132712]]

Layer 2:
[0. 0. 0. 0. 0. 0. 0. 0. 0. 0.]

Layer 3:
[[ 3.7509518]
 [-5.729968 ]
 [ 3.706998 ]
 [ 4.5458355]
 [-3.2230372]
 [-4.6709056]
 [ 4.4393415]
 [ 5.05257  ]
 [ 2.8720028]
 [ 4.5458875]]

Layer 4:
[5.5606155]



Consenso 1:
------------------------------------------------------------------------

Layer 0:
[[ 0.00000000e+00  0.00000000e+00  3.92741710e-02  9.67810005e-02
   0.00000000e+00  0.00000000e+00  0.00000000e+00  0.00000000e+00
   0.00000000e+00  0.00000000e+00]
 [ 0.00000000e+00  0.00000000e+00  0.00000000e+00 -2.04965428e-01
   0.00000000e+00  0.00000000e+00  0.00000000e+00  0.00000000e+00
   0.00000000e+00 -1.11942954e-01]
 [ 0.00000000e+00  0.00000000e+00 -3.59999985e-02  0.00000000e+00
   0.00000000e+00  0.00000000e+00  0.00000000e+00 -1.39629710e-02
   0.00000000e+00  0.00000000e+00]
 [ 0.00000000e+00  0.00000000e+00  0.00000000e+00  3.33353928e-05
   0.00000000e+00  0.00000000e+00  0.00000000e+00  0.00000000e+00
   0.00000000e+00  0.00000000e+00]
 [ 0.00000000e+00  0.00000000e+00  0.00000000e+00  0.00000000e+00
  -1.07999995e-01  0.00000000e+00  0.00000000e+00 -2.02729493e-01
   0.00000000e+00  0.00000000e+00]
 [ 0.00000000e+00  0.00000000e+00  0.00000000e+00  0.00000000e+00
   0.00000000e+00  0.00000000e+00  0.00000000e+00  9.66658369e-02
   0.00000000e+00  5.42002261e-01]
 [ 0.00000000e+00  0.00000000e+00  0.00000000e+00  0.00000000e+00
   0.00000000e+00  0.00000000e+00  0.00000000e+00  0.00000000e+00
   0.00000000e+00  0.00000000e+00]
 [ 0.00000000e+00 -5.13503812e-02 -2.69357800e-01 -2.57231425e-02
   0.00000000e+00  0.00000000e+00 -2.21965358e-01  3.59999947e-02
  -4.91794318e-01 -2.70503499e-02]
 [ 0.00000000e+00  0.00000000e+00 -2.07534865e-01  3.87262195e-01
   0.00000000e+00  0.00000000e+00 -1.51154939e-02  0.00000000e+00
   1.07999995e-01  0.00000000e+00]
 [ 0.00000000e+00  0.00000000e+00  0.00000000e+00  0.00000000e+00
   0.00000000e+00  0.00000000e+00  3.17089081e-01  0.00000000e+00
   0.00000000e+00  0.00000000e+00]]

Layer 1:
[[-0.1957052  -0.26575178  0.20457438  0.0967252  -0.03889538 -0.19130057
  -0.05288669  0.11329485 -0.0346949   0.08333439]]

Layer 2:
[0. 0. 0. 0. 0. 0. 0. 0. 0. 0.]

Layer 3:
[[-1.2497978e+00]
 [-2.2209935e+00]
 [ 9.3227339e-01]
 [ 9.8908949e-01]
 [-1.7309189e-04]
 [-8.3072925e-01]
 [ 7.7725768e-01]
 [ 1.2263496e+00]
 [-7.7664852e-02]
 [ 1.2663686e+00]]

Layer 4:
[2.6446116]



Entrenamiento 2:
------------------------------------------------------------------------

Layer 0:
[[ 0.00000000e+00  0.00000000e+00  3.92741710e-02  9.67810005e-02
   0.00000000e+00  0.00000000e+00  0.00000000e+00  0.00000000e+00
   0.00000000e+00  0.00000000e+00]
 [ 0.00000000e+00  0.00000000e+00  0.00000000e+00 -2.04965428e-01
   0.00000000e+00  0.00000000e+00  0.00000000e+00  0.00000000e+00
   0.00000000e+00 -1.11942954e-01]
 [ 0.00000000e+00  0.00000000e+00 -3.59999985e-02  0.00000000e+00
   0.00000000e+00  0.00000000e+00  0.00000000e+00 -1.39629710e-02
   0.00000000e+00  0.00000000e+00]
 [ 0.00000000e+00  0.00000000e+00  0.00000000e+00  3.33353928e-05
   0.00000000e+00  0.00000000e+00  0.00000000e+00  0.00000000e+00
   0.00000000e+00  0.00000000e+00]
 [ 0.00000000e+00  0.00000000e+00  0.00000000e+00  0.00000000e+00
  -1.07999995e-01  0.00000000e+00  0.00000000e+00 -2.02729493e-01
   0.00000000e+00  0.00000000e+00]
 [ 0.00000000e+00  0.00000000e+00  0.00000000e+00  0.00000000e+00
   0.00000000e+00  0.00000000e+00  0.00000000e+00  9.66658369e-02
   0.00000000e+00  5.42002261e-01]
 [ 0.00000000e+00  0.00000000e+00  0.00000000e+00  0.00000000e+00
   0.00000000e+00  0.00000000e+00  0.00000000e+00  0.00000000e+00
   0.00000000e+00  0.00000000e+00]
 [ 0.00000000e+00 -5.13503812e-02 -2.69357800e-01 -2.57231425e-02
   0.00000000e+00  0.00000000e+00 -2.21965358e-01  3.59999947e-02
  -4.91794318e-01 -2.70503499e-02]
 [ 0.00000000e+00  0.00000000e+00 -2.07534865e-01  3.87262195e-01
   0.00000000e+00  0.00000000e+00 -1.51154939e-02  0.00000000e+00
   1.07999995e-01  0.00000000e+00]
 [ 0.00000000e+00  0.00000000e+00  0.00000000e+00  0.00000000e+00
   0.00000000e+00  0.00000000e+00  3.17089081e-01  0.00000000e+00
   0.00000000e+00  0.00000000e+00]]

Layer 1:
[[-0.1957052  -0.26575178  0.20457438  0.0967252  -0.03889538 -0.19130057
  -0.05288669  0.11329485 -0.0346949   0.08333439]]

Layer 2:
[0. 0. 0. 0. 0. 0. 0. 0. 0. 0.]

Layer 3:
[[-4.515296 ]
 [-5.6848273]
 [ 4.408911 ]
 [ 4.7402163]
 [-4.01906  ]
 [-4.2965317]
 [-2.8928773]
 [ 4.844578 ]
 [-3.4961097]
 [ 5.215453 ]]

Layer 4:
[5.8873186]



Consenso 2:
------------------------------------------------------------------------

Layer 0:
[[ 0.0000000e+00  2.6830209e-03  2.3564503e-02  6.4520672e-02
   0.0000000e+00  0.0000000e+00  0.0000000e+00  0.0000000e+00
   0.0000000e+00  0.0000000e+00]
 [ 3.6966652e-02 -7.1999975e-03  0.0000000e+00 -4.0005302e-01
   0.0000000e+00  0.0000000e+00  0.0000000e+00  0.0000000e+00
   0.0000000e+00 -7.4628636e-02]
 [ 1.4767766e-02  0.0000000e+00 -2.1599993e-02  0.0000000e+00
   0.0000000e+00  0.0000000e+00  0.0000000e+00 -8.3777830e-03
   0.0000000e+00  0.0000000e+00]
 [-6.4634704e-03  0.0000000e+00  0.0000000e+00  2.0001236e-05
   0.0000000e+00 -3.8749285e-03  1.3283324e-02  0.0000000e+00
   0.0000000e+00  0.0000000e+00]
 [ 0.0000000e+00  0.0000000e+00  5.5945795e-03  0.0000000e+00
  -1.3392000e-01  0.0000000e+00  0.0000000e+00 -1.3515300e-01
   0.0000000e+00  0.0000000e+00]
 [ 0.0000000e+00  0.0000000e+00  2.2814764e-02  0.0000000e+00
   0.0000000e+00  0.0000000e+00  0.0000000e+00  1.1986564e-01
   0.0000000e+00  1.0354134e+00]
 [ 0.0000000e+00  0.0000000e+00  0.0000000e+00  0.0000000e+00
   0.0000000e+00  0.0000000e+00  0.0000000e+00  0.0000000e+00
   0.0000000e+00  0.0000000e+00]
 [ 0.0000000e+00 -3.5935588e-02 -1.7957187e-01 -3.1896695e-02
   0.0000000e+00  0.0000000e+00 -1.4797691e-01  9.0719983e-02
  -9.8358864e-01 -1.6230211e-02]
 [ 0.0000000e+00  0.0000000e+00 -1.3835658e-01  7.7452433e-01
   0.0000000e+00  0.0000000e+00 -9.0692956e-03  0.0000000e+00
   7.1999997e-02  0.0000000e+00]
 [ 0.0000000e+00  0.0000000e+00  6.9724503e-03  0.0000000e+00
   0.0000000e+00  0.0000000e+00  6.3417816e-01  0.0000000e+00
   0.0000000e+00 -1.3092372e-02]]

Layer 1:
[[-0.15363878 -0.3477287   0.15162508  0.04887193 -0.1737525  -0.15668753
  -0.16463947  0.04621445 -0.01524094  0.1926325 ]]

Layer 2:
[0. 0. 0. 0. 0. 0. 0. 0. 0. 0.]

Layer 3:
[[-0.5871229 ]
 [-2.8686693 ]
 [ 0.61976886]
 [ 0.78361917]
 [-1.2758021 ]
 [-0.15599251]
 [ 0.41224933]
 [ 0.5296998 ]
 [ 0.6603153 ]
 [ 2.1490443 ]]

Layer 4:
[2.6428568]



Entrenamiento 3:
------------------------------------------------------------------------

Layer 0:
[[ 0.0000000e+00  2.6830209e-03  2.3564503e-02  6.4520672e-02
   0.0000000e+00  0.0000000e+00  0.0000000e+00  0.0000000e+00
   0.0000000e+00  0.0000000e+00]
 [ 3.6966652e-02 -7.1999975e-03  0.0000000e+00 -4.0005302e-01
   0.0000000e+00  0.0000000e+00  0.0000000e+00  0.0000000e+00
   0.0000000e+00 -7.4628636e-02]
 [ 1.4767766e-02  0.0000000e+00 -2.1599993e-02  0.0000000e+00
   0.0000000e+00  0.0000000e+00  0.0000000e+00 -8.3777830e-03
   0.0000000e+00  0.0000000e+00]
 [-6.4634704e-03  0.0000000e+00  0.0000000e+00  2.0001236e-05
   0.0000000e+00 -3.8749285e-03  1.3283324e-02  0.0000000e+00
   0.0000000e+00  0.0000000e+00]
 [ 0.0000000e+00  0.0000000e+00  5.5945795e-03  0.0000000e+00
  -1.3392000e-01  0.0000000e+00  0.0000000e+00 -1.3515300e-01
   0.0000000e+00  0.0000000e+00]
 [ 0.0000000e+00  0.0000000e+00  2.2814764e-02  0.0000000e+00
   0.0000000e+00  0.0000000e+00  0.0000000e+00  1.1986564e-01
   0.0000000e+00  1.0354134e+00]
 [ 0.0000000e+00  0.0000000e+00  0.0000000e+00  0.0000000e+00
   0.0000000e+00  0.0000000e+00  0.0000000e+00  0.0000000e+00
   0.0000000e+00  0.0000000e+00]
 [ 0.0000000e+00 -3.5935588e-02 -1.7957187e-01 -3.1896695e-02
   0.0000000e+00  0.0000000e+00 -1.4797691e-01  9.0719983e-02
  -9.8358864e-01 -1.6230211e-02]
 [ 0.0000000e+00  0.0000000e+00 -1.3835658e-01  7.7452433e-01
   0.0000000e+00  0.0000000e+00 -9.0692956e-03  0.0000000e+00
   7.1999997e-02  0.0000000e+00]
 [ 0.0000000e+00  0.0000000e+00  6.9724503e-03  0.0000000e+00
   0.0000000e+00  0.0000000e+00  6.3417816e-01  0.0000000e+00
   0.0000000e+00 -1.3092372e-02]]

Layer 1:
[[-0.15363878 -0.3477287   0.15162508  0.04887193 -0.1737525  -0.15668753
  -0.16463947  0.04621445 -0.01524094  0.1926325 ]]

Layer 2:
[0. 0. 0. 0. 0. 0. 0. 0. 0. 0.]

Layer 3:
[[-4.0985856]
 [-6.275081 ]
 [ 4.1532416]
 [ 4.7937465]
 [-4.8686376]
 [-3.6310356]
 [-3.2074864]
 [ 4.458159 ]
 [-3.0867112]
 [ 5.87264  ]]

Layer 4:
[5.842613]



Consenso 3:
------------------------------------------------------------------------

Layer 0:
[[ 0.00000000e+00  3.96261504e-03  7.70420209e-03  4.38740551e-02
   0.00000000e+00  0.00000000e+00  0.00000000e+00  0.00000000e+00
   0.00000000e+00  0.00000000e+00]
 [ 4.77722883e-02  0.00000000e+00  0.00000000e+00 -5.57505965e-01
   0.00000000e+00  0.00000000e+00  0.00000000e+00  0.00000000e+00
   0.00000000e+00 -5.07474691e-02]
 [ 0.00000000e+00  0.00000000e+00 -1.38239916e-02  0.00000000e+00
   0.00000000e+00  0.00000000e+00  0.00000000e+00 -5.36178052e-03
   0.00000000e+00  0.00000000e+00]
 [ 9.31322575e-10 -1.33899145e-03  0.00000000e+00 -1.42719946e-03
   0.00000000e+00  4.65661287e-10 -3.44028790e-03  0.00000000e+00
   0.00000000e+00  0.00000000e+00]
 [ 0.00000000e+00  6.79284707e-03  0.00000000e+00  0.00000000e+00
  -1.43424004e-01 -2.13570711e-05  0.00000000e+00 -9.19040293e-02
   0.00000000e+00  0.00000000e+00]
 [ 0.00000000e+00  0.00000000e+00  4.88014147e-02  0.00000000e+00
  -6.25703996e-03  0.00000000e+00  0.00000000e+00  1.28372237e-01
   0.00000000e+00  1.41145134e+00]
 [ 0.00000000e+00  0.00000000e+00  0.00000000e+00  0.00000000e+00
   0.00000000e+00  3.16017610e-03 -1.44000002e-03  0.00000000e+00
   0.00000000e+00  0.00000000e+00]
 [ 0.00000000e+00 -2.72251070e-02 -1.22108877e-01 -3.41603346e-02
   0.00000000e+00  5.11872990e-04 -1.00624293e-01  1.22111976e-01
  -1.33768058e+00 -1.03845820e-02]
 [ 0.00000000e+00  0.00000000e+00 -9.40824747e-02  1.05285084e+00
   0.00000000e+00  0.00000000e+00 -5.80434874e-03  0.00000000e+00
   4.89600003e-02  0.00000000e+00]
 [ 0.00000000e+00  0.00000000e+00  9.90123674e-03  0.00000000e+00
   0.00000000e+00  0.00000000e+00  8.62482309e-01  4.79250355e-03
   0.00000000e+00 -2.76480000e-02]]

Layer 1:
[[-0.16022    -0.3823643   0.10961723  0.04960464 -0.20728081 -0.17343238
  -0.26181835  0.01329518 -0.0037154   0.21535522]]

Layer 2:
[0. 0. 0. 0. 0. 0. 0. 0. 0. 0.]

Layer 3:
[[-0.54910445]
 [-2.9515772 ]
 [ 0.32490945]
 [ 0.75246286]
 [-1.5956261 ]
 [ 0.06245136]
 [-0.03753376]
 [ 0.29345036]
 [ 1.0485713 ]
 [ 2.3148115 ]]

Layer 4:
[2.6098769]



Entrenamiento 4:
------------------------------------------------------------------------

Layer 0:
[[ 0.00000000e+00  3.96261504e-03  7.70420209e-03  4.38740551e-02
   0.00000000e+00  0.00000000e+00  0.00000000e+00  0.00000000e+00
   0.00000000e+00  0.00000000e+00]
 [ 4.77722883e-02  0.00000000e+00  0.00000000e+00 -5.57505965e-01
   0.00000000e+00  0.00000000e+00  0.00000000e+00  0.00000000e+00
   0.00000000e+00 -5.07474691e-02]
 [ 0.00000000e+00  0.00000000e+00 -1.38239916e-02  0.00000000e+00
   0.00000000e+00  0.00000000e+00  0.00000000e+00 -5.36178052e-03
   0.00000000e+00  0.00000000e+00]
 [ 9.31322575e-10 -1.33899145e-03  0.00000000e+00 -1.42719946e-03
   0.00000000e+00  4.65661287e-10 -3.44028790e-03  0.00000000e+00
   0.00000000e+00  0.00000000e+00]
 [ 0.00000000e+00  6.79284707e-03  0.00000000e+00  0.00000000e+00
  -1.43424004e-01 -2.13570711e-05  0.00000000e+00 -9.19040293e-02
   0.00000000e+00  0.00000000e+00]
 [ 0.00000000e+00  0.00000000e+00  4.88014147e-02  0.00000000e+00
  -6.25703996e-03  0.00000000e+00  0.00000000e+00  1.28372237e-01
   0.00000000e+00  1.41145134e+00]
 [ 0.00000000e+00  0.00000000e+00  0.00000000e+00  0.00000000e+00
   0.00000000e+00  3.16017610e-03 -1.44000002e-03  0.00000000e+00
   0.00000000e+00  0.00000000e+00]
 [ 0.00000000e+00 -2.72251070e-02 -1.22108877e-01 -3.41603346e-02
   0.00000000e+00  5.11872990e-04 -1.00624293e-01  1.22111976e-01
  -1.33768058e+00 -1.03845820e-02]
 [ 0.00000000e+00  0.00000000e+00 -9.40824747e-02  1.05285084e+00
   0.00000000e+00  0.00000000e+00 -5.80434874e-03  0.00000000e+00
   4.89600003e-02  0.00000000e+00]
 [ 0.00000000e+00  0.00000000e+00  9.90123674e-03  0.00000000e+00
   0.00000000e+00  0.00000000e+00  8.62482309e-01  4.79250355e-03
   0.00000000e+00 -2.76480000e-02]]

Layer 1:
[[-0.16022    -0.3823643   0.10961723  0.04960464 -0.20728081 -0.17343238
  -0.26181835  0.01329518 -0.0037154   0.21535522]]

Layer 2:
[0. 0. 0. 0. 0. 0. 0. 0. 0. 0.]

Layer 3:
[[-4.24488  ]
 [-6.5304785]
 [ 4.169016 ]
 [ 4.677957 ]
 [-5.2477775]
 [-3.5927947]
 [-3.640138 ]
 [ 4.1543136]
 [-2.9344687]
 [ 6.2796073]]

Layer 4:
[5.992974]



Consenso 4:
------------------------------------------------------------------------

Layer 0:
[[ 0.0000000e+00  5.2504651e-03  5.9956438e-03  2.8389096e-02
   0.0000000e+00  0.0000000e+00  0.0000000e+00  0.0000000e+00
   0.0000000e+00  0.0000000e+00]
 [ 5.8009207e-02 -5.7599985e-04  0.0000000e+00 -6.8625385e-01
   0.0000000e+00  0.0000000e+00  0.0000000e+00  0.0000000e+00
   0.0000000e+00 -3.2836597e-02]
 [ 1.1814213e-03  0.0000000e+00 -1.0310390e-02  0.0000000e+00
   0.0000000e+00  0.0000000e+00  0.0000000e+00 -3.9989948e-03
   0.0000000e+00  0.0000000e+00]
 [-5.1707769e-04 -9.5336174e-04  0.0000000e+00 -1.0157330e-03
   0.0000000e+00 -3.0999430e-04 -1.3868168e-03  0.0000000e+00
   0.0000000e+00  0.0000000e+00]
 [ 0.0000000e+00  4.8365071e-03  4.4756639e-04  0.0000000e+00
  -1.4267521e-01 -1.5206234e-05  0.0000000e+00 -5.9467316e-02
   0.0000000e+00  0.0000000e+00]
 [ 0.0000000e+00  0.0000000e+00  6.3843645e-02  0.0000000e+00
  -4.4550113e-03  0.0000000e+00  0.0000000e+00  1.2770201e-01
   0.0000000e+00  1.7405407e+00]
 [ 0.0000000e+00  0.0000000e+00  0.0000000e+00  0.0000000e+00
   0.0000000e+00  2.2500451e-03 -1.0252798e-03  0.0000000e+00
   0.0000000e+00  0.0000000e+00]
 [ 0.0000000e+00 -1.3554415e-02 -7.9011619e-02 -3.3981986e-02
   0.0000000e+00  3.6445353e-04 -6.5109834e-02  1.5004797e-01
  -1.6484945e+00 -7.7452604e-03]
 [ 0.0000000e+00  0.0000000e+00 -6.0876895e-02  1.2977452e+00
   0.0000000e+00  0.0000000e+00 -4.3290770e-03  0.0000000e+00
   3.1679995e-02  0.0000000e+00]
 [ 0.0000000e+00  0.0000000e+00  1.1575551e-02  0.0000000e+00
   0.0000000e+00  0.0000000e+00  1.0628827e+00  3.4122623e-03
   0.0000000e+00 -3.6183391e-02]]

Layer 1:
[[-0.14942242 -0.4064563   0.08406328  0.04741098 -0.24421228 -0.18253689
  -0.32198393 -0.01590613  0.0013218   0.23345537]]

Layer 2:
[0. 0. 0. 0. 0. 0. 0. 0. 0. 0.]

Layer 3:
[[-0.4042356 ]
 [-3.0030637 ]
 [ 0.14062786]
 [ 0.68464184]
 [-1.9013419 ]
 [ 0.20808554]
 [-0.282331  ]
 [ 0.11277151]
 [ 1.2720852 ]
 [ 2.4390044 ]]

Layer 4:
[2.5565243]



Entrenamiento 5:
------------------------------------------------------------------------

Layer 0:
[[ 0.0000000e+00  5.2504651e-03  5.9956438e-03  2.8389096e-02
   0.0000000e+00  0.0000000e+00  0.0000000e+00  0.0000000e+00
   0.0000000e+00  0.0000000e+00]
 [ 5.8009207e-02 -5.7599985e-04  0.0000000e+00 -6.8625385e-01
   0.0000000e+00  0.0000000e+00  0.0000000e+00  0.0000000e+00
   0.0000000e+00 -3.2836597e-02]
 [ 1.1814213e-03  0.0000000e+00 -1.0310390e-02  0.0000000e+00
   0.0000000e+00  0.0000000e+00  0.0000000e+00 -3.9989948e-03
   0.0000000e+00  0.0000000e+00]
 [-5.1707769e-04 -9.5336174e-04  0.0000000e+00 -1.0157330e-03
   0.0000000e+00 -3.0999430e-04 -1.3868168e-03  0.0000000e+00
   0.0000000e+00  0.0000000e+00]
 [ 0.0000000e+00  4.8365071e-03  4.4756639e-04  0.0000000e+00
  -1.4267521e-01 -1.5206234e-05  0.0000000e+00 -5.9467316e-02
   0.0000000e+00  0.0000000e+00]
 [ 0.0000000e+00  0.0000000e+00  6.3843645e-02  0.0000000e+00
  -4.4550113e-03  0.0000000e+00  0.0000000e+00  1.2770201e-01
   0.0000000e+00  1.7405407e+00]
 [ 0.0000000e+00  0.0000000e+00  0.0000000e+00  0.0000000e+00
   0.0000000e+00  2.2500451e-03 -1.0252798e-03  0.0000000e+00
   0.0000000e+00  0.0000000e+00]
 [ 0.0000000e+00 -1.3554415e-02 -7.9011619e-02 -3.3981986e-02
   0.0000000e+00  3.6445353e-04 -6.5109834e-02  1.5004797e-01
  -1.6484945e+00 -7.7452604e-03]
 [ 0.0000000e+00  0.0000000e+00 -6.0876895e-02  1.2977452e+00
   0.0000000e+00  0.0000000e+00 -4.3290770e-03  0.0000000e+00
   3.1679995e-02  0.0000000e+00]
 [ 0.0000000e+00  0.0000000e+00  1.1575551e-02  0.0000000e+00
   0.0000000e+00  0.0000000e+00  1.0628827e+00  3.4122623e-03
   0.0000000e+00 -3.6183391e-02]]

Layer 1:
[[-0.14942242 -0.4064563   0.08406328  0.04741098 -0.24421228 -0.18253689
  -0.32198393 -0.01590613  0.0013218   0.23345537]]

Layer 2:
[0. 0. 0. 0. 0. 0. 0. 0. 0. 0.]

Layer 3:
[[-3.9597242]
 [-6.4058723]
 [ 3.978671 ]
 [ 4.115312 ]
 [-5.3566103]
 [-3.2822285]
 [-3.6464174]
 [-3.5394082]
 [ 4.7324853]
 [ 6.3796463]]

Layer 4:
[5.753193]



Consenso 5:
------------------------------------------------------------------------

Layer 0:
[[ 0.00000000e+00  8.14152323e-03  8.57187156e-03  2.31758244e-02
   0.00000000e+00  0.00000000e+00  0.00000000e+00  0.00000000e+00
   0.00000000e+00  0.00000000e+00]
 [ 6.27636835e-02 -5.75999729e-05  0.00000000e+00 -6.29902661e-01
   0.00000000e+00  0.00000000e+00  0.00000000e+00  0.00000000e+00
   0.00000000e+00 -2.68066078e-02]
 [ 1.18142110e-04  0.00000000e+00 -1.35590294e-02  0.00000000e+00
   0.00000000e+00  0.00000000e+00  0.00000000e+00 -5.25901327e-03
   0.00000000e+00  0.00000000e+00]
 [-5.17076696e-05 -1.12903747e-03  0.00000000e+00 -1.20165281e-03
   0.00000000e+00 -3.09993920e-05 -2.79458170e-03  0.00000000e+00
   0.00000000e+00  0.00000000e+00]
 [ 0.00000000e+00  5.72772836e-03  4.47565981e-05  0.00000000e+00
  -1.47271678e-01 -1.80082825e-05  0.00000000e+00 -4.85469550e-02
   0.00000000e+00  0.00000000e+00]
 [ 0.00000000e+00  0.00000000e+00  1.00184746e-01  0.00000000e+00
  -5.27593540e-03  0.00000000e+00  0.00000000e+00  1.31816119e-01
   0.00000000e+00  1.58339775e+00]
 [ 0.00000000e+00  0.00000000e+00  0.00000000e+00  0.00000000e+00
   0.00000000e+00  2.66466010e-03 -1.21420785e-03  0.00000000e+00
   0.00000000e+00  0.00000000e+00]
 [ 0.00000000e+00  1.41498242e-02 -6.45022169e-02 -3.50767635e-02
   0.00000000e+00  4.31611290e-04 -5.31533062e-02  1.42433256e-01
  -1.51157904e+00 -1.01859225e-02]
 [ 0.00000000e+00  0.00000000e+00 -4.96976823e-02  1.18986547e+00
   0.00000000e+00  0.00000000e+00 -5.69309993e-03  0.00000000e+00
   2.58623976e-02  0.00000000e+00]
 [ 0.00000000e+00  0.00000000e+00  1.25891734e-02  0.00000000e+00
   0.00000000e+00  0.00000000e+00  9.74605024e-01  4.04103938e-03
   0.00000000e+00 -5.67601025e-02]]

Layer 1:
[[-0.13438776 -0.39972055  0.05809275  0.03712742 -0.22387737 -0.18204941
  -0.32698292 -0.0120262   0.00586817  0.22063667]]

Layer 2:
[0. 0. 0. 0. 0. 0. 0. 0. 0. 0.]

Layer 3:
[[-0.5643685 ]
 [-2.9172053 ]
 [-0.08059359]
 [ 0.6548877 ]
 [-1.9117002 ]
 [ 0.25068402]
 [-0.25189972]
 [ 0.03546166]
 [ 1.2878041 ]
 [ 2.372456  ]]

Layer 4:
[2.52232]



