Pesos inciales:
------------------------------------------------------------------------

Layer 0:
[[-0.8460811   0.         -0.         -0.          0.          0.
  -0.          0.91674954  0.          0.        ]
 [ 0.         -0.         -0.         -0.         -0.         -0.
   0.         -0.          0.         -0.        ]
 [-0.         -0.         -0.         -0.43128166 -0.         -0.
   0.         -0.         -0.          0.        ]
 [ 0.          0.7818287  -0.          0.          0.         -0.
   0.          0.         -0.         -0.        ]
 [-0.          0.          0.          0.         -0.90000004  0.
   0.         -0.          0.         -0.        ]
 [ 0.         -0.         -0.         -1.0846862   0.         -0.
  -0.          0.          0.         -0.        ]
 [-0.          0.          0.         -0.          0.         -0.
   0.7070104   0.         -0.          0.        ]
 [ 0.         -0.         -0.          0.          0.          0.
  -0.         -0.          0.         -0.        ]
 [-0.         -0.          0.          0.         -0.          0.
   0.         -0.          0.         -0.        ]
 [ 0.          0.         -0.         -0.          0.         -0.
   0.          0.         -0.         -0.        ]]

Layer 1:
[[-0.62179255 -0.20977533 -0.07120281  0.12307483 -0.05515313 -0.71675116
  -0.68187547 -0.54702646  0.3135149   0.70960253]]

Layer 2:
[0. 0. 0. 0. 0. 0. 0. 0. 0. 0.]

Layer 3:
[[-0.47820535]
 [ 0.2642216 ]
 [-0.68923295]
 [ 0.6355626 ]
 [ 0.19215387]
 [ 0.5895303 ]
 [ 0.39020604]
 [ 0.3285591 ]
 [ 0.48332816]
 [-0.3625338 ]]

Layer 4:
[0.]



Entrenamiento 0:
------------------------------------------------------------------------

Layer 0:
[[-0.8460811   0.         -0.         -0.          0.          0.
  -0.          0.91674954  0.          0.        ]
 [ 0.         -0.         -0.         -0.         -0.         -0.
   0.         -0.          0.         -0.        ]
 [-0.         -0.         -0.         -0.43128166 -0.         -0.
   0.         -0.         -0.          0.        ]
 [ 0.          0.7818287  -0.          0.          0.         -0.
   0.          0.         -0.         -0.        ]
 [-0.          0.          0.          0.         -0.90000004  0.
   0.         -0.          0.         -0.        ]
 [ 0.         -0.         -0.         -1.0846862   0.         -0.
  -0.          0.          0.         -0.        ]
 [-0.          0.          0.         -0.          0.         -0.
   0.7070104   0.         -0.          0.        ]
 [ 0.         -0.         -0.          0.          0.          0.
  -0.         -0.          0.         -0.        ]
 [-0.         -0.          0.          0.         -0.          0.
   0.         -0.          0.         -0.        ]
 [ 0.          0.         -0.         -0.          0.         -0.
   0.          0.         -0.         -0.        ]]

Layer 1:
[[-0.62179255 -0.20977533 -0.07120281  0.12307483 -0.05515313 -0.71675116
  -0.68187547 -0.54702646  0.3135149   0.70960253]]

Layer 2:
[0. 0. 0. 0. 0. 0. 0. 0. 0. 0.]

Layer 3:
[[-3.0574367]
 [-2.7251267]
 [-3.7363987]
 [ 3.1667933]
 [-3.1672242]
 [-1.9156811]
 [-2.073103 ]
 [-2.1668117]
 [ 3.0927   ]
 [ 2.143553 ]]

Layer 4:
[2.487917]



Consenso 0:
------------------------------------------------------------------------

Layer 0:
[[ 0.0000000e+00  0.0000000e+00  0.0000000e+00  0.0000000e+00
   0.0000000e+00  0.0000000e+00  0.0000000e+00 -5.9604645e-08
   0.0000000e+00  0.0000000e+00]
 [ 0.0000000e+00  0.0000000e+00  0.0000000e+00  0.0000000e+00
   0.0000000e+00  0.0000000e+00  0.0000000e+00  0.0000000e+00
   0.0000000e+00  0.0000000e+00]
 [ 0.0000000e+00  0.0000000e+00  0.0000000e+00  0.0000000e+00
   0.0000000e+00  0.0000000e+00  0.0000000e+00  0.0000000e+00
   0.0000000e+00  0.0000000e+00]
 [ 0.0000000e+00 -1.4285679e+00  0.0000000e+00  0.0000000e+00
   0.0000000e+00  0.0000000e+00  0.0000000e+00  0.0000000e+00
   0.0000000e+00  0.0000000e+00]
 [ 0.0000000e+00  0.0000000e+00  1.4802755e+00  0.0000000e+00
   0.0000000e+00 -9.7478026e-01  0.0000000e+00  0.0000000e+00
   0.0000000e+00  0.0000000e+00]
 [ 0.0000000e+00  0.0000000e+00  0.0000000e+00  0.0000000e+00
  -3.3238247e-02  0.0000000e+00  0.0000000e+00  0.0000000e+00
   0.0000000e+00  0.0000000e+00]
 [ 0.0000000e+00  0.0000000e+00  0.0000000e+00  0.0000000e+00
   1.8104370e-01  0.0000000e+00  0.0000000e+00  0.0000000e+00
   2.3320906e-01  0.0000000e+00]
 [ 0.0000000e+00  0.0000000e+00  0.0000000e+00  0.0000000e+00
   0.0000000e+00  0.0000000e+00  0.0000000e+00  0.0000000e+00
   0.0000000e+00  0.0000000e+00]
 [ 0.0000000e+00  0.0000000e+00  0.0000000e+00  0.0000000e+00
   0.0000000e+00  0.0000000e+00  0.0000000e+00  0.0000000e+00
   0.0000000e+00  0.0000000e+00]
 [ 0.0000000e+00  0.0000000e+00  0.0000000e+00  6.6386163e-01
   0.0000000e+00  0.0000000e+00  0.0000000e+00  0.0000000e+00
   0.0000000e+00  0.0000000e+00]]

Layer 1:
[[-0.09456283 -0.07181962  0.12882881  0.12975785 -0.10509765  0.22384924
  -0.20862502  0.1680327   0.12007345  0.14179009]]

Layer 2:
[0. 0. 0. 0. 0. 0. 0. 0. 0. 0.]

Layer 3:
[[-0.7628825 ]
 [-0.7390183 ]
 [-0.67575383]
 [ 0.8930545 ]
 [-0.8751874 ]
 [ 2.33301   ]
 [-2.0858    ]
 [ 2.590029  ]
 [-1.0225377 ]
 [ 0.57375324]]

Layer 4:
[3.812148]



Entrenamiento 1:
------------------------------------------------------------------------

Layer 0:
[[ 0.0000000e+00  0.0000000e+00  0.0000000e+00  0.0000000e+00
   0.0000000e+00  0.0000000e+00  0.0000000e+00 -5.9604645e-08
   0.0000000e+00  0.0000000e+00]
 [ 0.0000000e+00  0.0000000e+00  0.0000000e+00  0.0000000e+00
   0.0000000e+00  0.0000000e+00  0.0000000e+00  0.0000000e+00
   0.0000000e+00  0.0000000e+00]
 [ 0.0000000e+00  0.0000000e+00  0.0000000e+00  0.0000000e+00
   0.0000000e+00  0.0000000e+00  0.0000000e+00  0.0000000e+00
   0.0000000e+00  0.0000000e+00]
 [ 0.0000000e+00 -1.4285679e+00  0.0000000e+00  0.0000000e+00
   0.0000000e+00  0.0000000e+00  0.0000000e+00  0.0000000e+00
   0.0000000e+00  0.0000000e+00]
 [ 0.0000000e+00  0.0000000e+00  1.4802755e+00  0.0000000e+00
   0.0000000e+00 -9.7478026e-01  0.0000000e+00  0.0000000e+00
   0.0000000e+00  0.0000000e+00]
 [ 0.0000000e+00  0.0000000e+00  0.0000000e+00  0.0000000e+00
  -3.3238247e-02  0.0000000e+00  0.0000000e+00  0.0000000e+00
   0.0000000e+00  0.0000000e+00]
 [ 0.0000000e+00  0.0000000e+00  0.0000000e+00  0.0000000e+00
   1.8104370e-01  0.0000000e+00  0.0000000e+00  0.0000000e+00
   2.3320906e-01  0.0000000e+00]
 [ 0.0000000e+00  0.0000000e+00  0.0000000e+00  0.0000000e+00
   0.0000000e+00  0.0000000e+00  0.0000000e+00  0.0000000e+00
   0.0000000e+00  0.0000000e+00]
 [ 0.0000000e+00  0.0000000e+00  0.0000000e+00  0.0000000e+00
   0.0000000e+00  0.0000000e+00  0.0000000e+00  0.0000000e+00
   0.0000000e+00  0.0000000e+00]
 [ 0.0000000e+00  0.0000000e+00  0.0000000e+00  6.6386163e-01
   0.0000000e+00  0.0000000e+00  0.0000000e+00  0.0000000e+00
   0.0000000e+00  0.0000000e+00]]

Layer 1:
[[-0.09456283 -0.07181962  0.12882881  0.12975785 -0.10509765  0.22384924
  -0.20862502  0.1680327   0.12007345  0.14179009]]

Layer 2:
[0. 0. 0. 0. 0. 0. 0. 0. 0. 0.]

Layer 3:
[[-2.5956876 ]
 [-2.0168235 ]
 [ 2.1350012 ]
 [ 2.2583287 ]
 [-2.7752888 ]
 [ 3.5369976 ]
 [-3.4422665 ]
 [ 4.087239  ]
 [ 0.82860845]
 [ 2.134268  ]]

Layer 4:
[4.364683]



Consenso 1:
------------------------------------------------------------------------

Layer 0:
[[-6.76864907e-02  0.00000000e+00  0.00000000e+00  0.00000000e+00
   0.00000000e+00  0.00000000e+00  0.00000000e+00  7.33399615e-02
   0.00000000e+00  0.00000000e+00]
 [ 0.00000000e+00  0.00000000e+00  0.00000000e+00  0.00000000e+00
   0.00000000e+00  0.00000000e+00  1.92088075e-02  0.00000000e+00
   3.78280786e+03  0.00000000e+00]
 [ 0.00000000e+00  0.00000000e+00  0.00000000e+00 -3.45025323e-02
   0.00000000e+00  0.00000000e+00  0.00000000e+00  0.00000000e+00
  -5.69335595e-02  6.26021400e-02]
 [-6.50652710e+02 -2.23167181e-01  3.23026758e+03  0.00000000e+00
   0.00000000e+00  0.00000000e+00  0.00000000e+00  0.00000000e+00
   0.00000000e+00  0.00000000e+00]
 [-3.68192643e-02  4.41872803e+02 -4.39791162e+03  0.00000000e+00
  -1.07999995e-01 -1.94956064e-01  0.00000000e+00  0.00000000e+00
   0.00000000e+00  0.00000000e+00]
 [ 0.00000000e+00  0.00000000e+00  4.86258453e+02 -8.67748931e-02
  -4.95752563e+02  7.19999969e-02  0.00000000e+00 -2.60760327e+03
   0.00000000e+00  0.00000000e+00]
 [ 0.00000000e+00  0.00000000e+00  0.00000000e+00 -6.76095858e-02
   3.62087190e-02  0.00000000e+00  5.65608330e-02  0.00000000e+00
   4.66418117e-02  0.00000000e+00]
 [ 0.00000000e+00  0.00000000e+00  0.00000000e+00  0.00000000e+00
   0.00000000e+00  0.00000000e+00  0.00000000e+00  0.00000000e+00
   0.00000000e+00  0.00000000e+00]
 [ 0.00000000e+00  0.00000000e+00  0.00000000e+00  5.34475520e-02
   6.28556833e-02  7.29782060e-02  0.00000000e+00 -2.16474683e+03
   0.00000000e+00  0.00000000e+00]
 [ 0.00000000e+00  0.00000000e+00  0.00000000e+00  1.32772326e-01
   0.00000000e+00  0.00000000e+00  0.00000000e+00  0.00000000e+00
   0.00000000e+00  0.00000000e+00]]

Layer 1:
[[-0.12199691 -0.18001229  0.02064026 -0.13040751 -0.19736746  0.0160137
   0.06754974  0.3197977   0.05214238  0.03717993]]

Layer 2:
[0. 0. 0. 0. 0. 0. 0. 0. 0. 0.]

Layer 3:
[[-0.08922291]
 [-1.8686203 ]
 [-0.8473973 ]
 [-1.5426621 ]
 [-2.51042   ]
 [ 0.9500594 ]
 [ 1.2195411 ]
 [ 2.0091908 ]
 [-0.9880101 ]
 [-0.90593743]]

Layer 4:
[3.5056024]



Entrenamiento 2:
------------------------------------------------------------------------

Layer 0:
[[-6.76864907e-02  0.00000000e+00  0.00000000e+00  0.00000000e+00
   0.00000000e+00  0.00000000e+00  0.00000000e+00  7.33399615e-02
   0.00000000e+00  0.00000000e+00]
 [ 0.00000000e+00  0.00000000e+00  0.00000000e+00  0.00000000e+00
   0.00000000e+00  0.00000000e+00  1.92088075e-02  0.00000000e+00
   3.78280786e+03  0.00000000e+00]
 [ 0.00000000e+00  0.00000000e+00  0.00000000e+00 -3.45025323e-02
   0.00000000e+00  0.00000000e+00  0.00000000e+00  0.00000000e+00
  -5.69335595e-02  6.26021400e-02]
 [-6.50652710e+02 -2.23167181e-01  3.23026758e+03  0.00000000e+00
   0.00000000e+00  0.00000000e+00  0.00000000e+00  0.00000000e+00
   0.00000000e+00  0.00000000e+00]
 [-3.68192643e-02  4.41872803e+02 -4.39791162e+03  0.00000000e+00
  -1.07999995e-01 -1.94956064e-01  0.00000000e+00  0.00000000e+00
   0.00000000e+00  0.00000000e+00]
 [ 0.00000000e+00  0.00000000e+00  4.86258453e+02 -8.67748931e-02
  -4.95752563e+02  7.19999969e-02  0.00000000e+00 -2.60760327e+03
   0.00000000e+00  0.00000000e+00]
 [ 0.00000000e+00  0.00000000e+00  0.00000000e+00 -6.76095858e-02
   3.62087190e-02  0.00000000e+00  5.65608330e-02  0.00000000e+00
   4.66418117e-02  0.00000000e+00]
 [ 0.00000000e+00  0.00000000e+00  0.00000000e+00  0.00000000e+00
   0.00000000e+00  0.00000000e+00  0.00000000e+00  0.00000000e+00
   0.00000000e+00  0.00000000e+00]
 [ 0.00000000e+00  0.00000000e+00  0.00000000e+00  5.34475520e-02
   6.28556833e-02  7.29782060e-02  0.00000000e+00 -2.16474683e+03
   0.00000000e+00  0.00000000e+00]
 [ 0.00000000e+00  0.00000000e+00  0.00000000e+00  1.32772326e-01
   0.00000000e+00  0.00000000e+00  0.00000000e+00  0.00000000e+00
   0.00000000e+00  0.00000000e+00]]

Layer 1:
[[-0.12199691 -0.18001229  0.02064026 -0.13040751 -0.19736746  0.0160137
   0.06754974  0.3197977   0.05214238  0.03717993]]

Layer 2:
[0. 0. 0. 0. 0. 0. 0. 0. 0. 0.]

Layer 3:
[[ 0.60134435]
 [-2.333203  ]
 [-0.1843827 ]
 [-4.1263175 ]
 [-3.0861182 ]
 [ 3.269146  ]
 [ 4.460777  ]
 [ 2.5165198 ]
 [-1.4395267 ]
 [ 2.2356431 ]]

Layer 4:
[5.3057766]



Consenso 2:
------------------------------------------------------------------------

Layer 0:
[[-3.24895158e-02  0.00000000e+00  0.00000000e+00  0.00000000e+00
   0.00000000e+00  0.00000000e+00 -9.25006252e-03  3.52031738e-02
   0.00000000e+00  0.00000000e+00]
 [ 0.00000000e+00  0.00000000e+00  0.00000000e+00  0.00000000e+00
   0.00000000e+00  0.00000000e+00  2.99657378e-02  0.00000000e+00
   2.64796533e+03  0.00000000e+00]
 [ 0.00000000e+00  0.00000000e+00 -1.72799975e-02 -1.65612157e-02
   0.00000000e+00  0.00000000e+00  0.00000000e+00  0.00000000e+00
  -8.88163447e-02  9.76593345e-02]
 [-4.55456848e+02 -6.21404707e-01  2.26118726e+03  0.00000000e+00
   0.00000000e+00  0.00000000e+00  0.00000000e+00  0.00000000e+00
   0.00000000e+00  0.00000000e+00]
 [-5.74380532e-02  3.09310974e+02 -3.07807007e+03  0.00000000e+00
  -9.07199979e-02 -4.44499791e-01  0.00000000e+00  0.00000000e+00
   0.00000000e+00  0.00000000e+00]
 [ 0.00000000e+00  0.00000000e+00  3.40380920e+02 -4.16519456e-02
  -3.47037292e+02  1.49759993e-01  0.00000000e+00 -1.82532227e+03
   0.00000000e+00  0.00000000e+00]
 [ 0.00000000e+00  0.00000000e+00  0.00000000e+00 -1.05470955e-01
   8.25559273e-02  0.00000000e+00  2.71491986e-02  0.00000000e+00
   1.06343329e-01  0.00000000e+00]
 [ 0.00000000e+00  0.00000000e+00  1.08788470e-02  0.00000000e+00
   0.00000000e+00  0.00000000e+00  0.00000000e+00  0.00000000e+00
   0.00000000e+00  0.00000000e+00]
 [ 0.00000000e+00  0.00000000e+00  0.00000000e+00  1.11170903e-01
   9.80548710e-02  1.13845989e-01  0.00000000e+00 -1.51532251e+03
   0.00000000e+00  0.00000000e+00]
 [ 0.00000000e+00  0.00000000e+00  0.00000000e+00  3.02720904e-01
   0.00000000e+00  0.00000000e+00  0.00000000e+00  0.00000000e+00
  -9.57983546e-03  0.00000000e+00]]

Layer 1:
[[-0.17570512 -0.1010254   0.07629231 -0.05576362 -0.14651722 -0.12637505
  -0.05100288  0.16864839  0.04141961  0.15473157]]

Layer 2:
[0. 0. 0. 0. 0. 0. 0. 0. 0. 0.]

Layer 3:
[[-1.0926973 ]
 [-1.1840428 ]
 [ 0.39876112]
 [-0.7320483 ]
 [-1.4505496 ]
 [-0.48887134]
 [ 0.43197775]
 [ 1.4773868 ]
 [-0.40296292]
 [ 0.11512733]]

Layer 4:
[3.2220144]



Entrenamiento 3:
------------------------------------------------------------------------

Layer 0:
[[-3.24895158e-02  0.00000000e+00  0.00000000e+00  0.00000000e+00
   0.00000000e+00  0.00000000e+00 -9.25006252e-03  3.52031738e-02
   0.00000000e+00  0.00000000e+00]
 [ 0.00000000e+00  0.00000000e+00  0.00000000e+00  0.00000000e+00
   0.00000000e+00  0.00000000e+00  2.99657378e-02  0.00000000e+00
   2.64796533e+03  0.00000000e+00]
 [ 0.00000000e+00  0.00000000e+00 -1.72799975e-02 -1.65612157e-02
   0.00000000e+00  0.00000000e+00  0.00000000e+00  0.00000000e+00
  -8.88163447e-02  9.76593345e-02]
 [-4.55456848e+02 -6.21404707e-01  2.26118726e+03  0.00000000e+00
   0.00000000e+00  0.00000000e+00  0.00000000e+00  0.00000000e+00
   0.00000000e+00  0.00000000e+00]
 [-5.74380532e-02  3.09310974e+02 -3.07807007e+03  0.00000000e+00
  -9.07199979e-02 -4.44499791e-01  0.00000000e+00  0.00000000e+00
   0.00000000e+00  0.00000000e+00]
 [ 0.00000000e+00  0.00000000e+00  3.40380920e+02 -4.16519456e-02
  -3.47037292e+02  1.49759993e-01  0.00000000e+00 -1.82532227e+03
   0.00000000e+00  0.00000000e+00]
 [ 0.00000000e+00  0.00000000e+00  0.00000000e+00 -1.05470955e-01
   8.25559273e-02  0.00000000e+00  2.71491986e-02  0.00000000e+00
   1.06343329e-01  0.00000000e+00]
 [ 0.00000000e+00  0.00000000e+00  1.08788470e-02  0.00000000e+00
   0.00000000e+00  0.00000000e+00  0.00000000e+00  0.00000000e+00
   0.00000000e+00  0.00000000e+00]
 [ 0.00000000e+00  0.00000000e+00  0.00000000e+00  1.11170903e-01
   9.80548710e-02  1.13845989e-01  0.00000000e+00 -1.51532251e+03
   0.00000000e+00  0.00000000e+00]
 [ 0.00000000e+00  0.00000000e+00  0.00000000e+00  3.02720904e-01
   0.00000000e+00  0.00000000e+00  0.00000000e+00  0.00000000e+00
  -9.57983546e-03  0.00000000e+00]]

Layer 1:
[[-0.17570512 -0.1010254   0.07629231 -0.05576362 -0.14651722 -0.12637505
  -0.05100288  0.16864839  0.04141961  0.15473157]]

Layer 2:
[0. 0. 0. 0. 0. 0. 0. 0. 0. 0.]

Layer 3:
[[ 2.322446 ]
 [ 1.3981819]
 [-2.0867374]
 [-4.656985 ]
 [ 1.2613215]
 [-3.0580957]
 [-2.6042614]
 [ 4.4191236]
 [ 2.2163317]
 [ 3.05001  ]]

Layer 4:
[5.1118355]



Consenso 3:
------------------------------------------------------------------------

Layer 0:
[[-2.3284152e-02  0.0000000e+00  0.0000000e+00  0.0000000e+00
   0.0000000e+00  0.0000000e+00 -4.9333666e-03  2.5228940e-02
   0.0000000e+00  0.0000000e+00]
 [ 0.0000000e+00  0.0000000e+00  0.0000000e+00  0.0000000e+00
   0.0000000e+00  0.0000000e+00  4.8867203e-02  0.0000000e+00
   1.9065350e+03  0.0000000e+00]
 [ 0.0000000e+00  0.0000000e+00 -9.2159957e-03 -1.1868871e-02
   0.0000000e+00  0.0000000e+00  0.0000000e+00  0.0000000e+00
  -1.4483897e-01  1.5925984e-01]
 [-3.2792896e+02 -3.8076878e-01  1.6280549e+03  0.0000000e+00
   0.0000000e+00  0.0000000e+00  0.0000000e+00  0.0000000e+00
   0.0000000e+00  0.0000000e+00]
 [-9.3668208e-02  2.2270389e+02 -2.2162795e+03  0.0000000e+00
  -1.1635199e-01 -2.7449811e-01  0.0000000e+00  0.0000000e+00
   0.0000000e+00  0.0000000e+00]
 [ 0.0000000e+00  0.0000000e+00  2.4507426e+02 -2.9850561e-02
  -2.4986528e+02  1.6703999e-01  0.0000000e+00 -1.3142321e+03
   0.0000000e+00  0.0000000e+00]
 [ 0.0000000e+00  0.0000000e+00  0.0000000e+00 -1.7199880e-01
   5.0981902e-02  0.0000000e+00  1.9456925e-02  0.0000000e+00
   6.5671667e-02  0.0000000e+00]
 [ 0.0000000e+00  0.0000000e+00  5.8020512e-03  0.0000000e+00
   0.0000000e+00  0.0000000e+00  0.0000000e+00  0.0000000e+00
   0.0000000e+00  0.0000000e+00]
 [ 0.0000000e+00  0.0000000e+00  0.0000000e+00  1.2399832e-01
   1.5990487e-01  1.8565655e-01  0.0000000e+00 -1.0910322e+03
   0.0000000e+00  0.0000000e+00]
 [ 0.0000000e+00  0.0000000e+00  0.0000000e+00  1.8694344e-01
   0.0000000e+00  0.0000000e+00  0.0000000e+00  0.0000000e+00
  -5.1092454e-03  0.0000000e+00]]

Layer 1:
[[-0.1834695  -0.14674208  0.00261108 -0.03695359 -0.14321446 -0.11541074
  -0.04611333  0.12952852 -0.00547488  0.1950457 ]]

Layer 2:
[0. 0. 0. 0. 0. 0. 0. 0. 0. 0.]

Layer 3:
[[-1.0509574 ]
 [-1.4602716 ]
 [-0.1118083 ]
 [-0.6947472 ]
 [-1.4260263 ]
 [-0.38392925]
 [ 0.47630978]
 [ 1.7078335 ]
 [-0.85821056]
 [ 0.49154234]]

Layer 4:
[3.007644]



Entrenamiento 4:
------------------------------------------------------------------------

Layer 0:
[[-2.3284152e-02  0.0000000e+00  0.0000000e+00  0.0000000e+00
   0.0000000e+00  0.0000000e+00 -4.9333666e-03  2.5228940e-02
   0.0000000e+00  0.0000000e+00]
 [ 0.0000000e+00  0.0000000e+00  0.0000000e+00  0.0000000e+00
   0.0000000e+00  0.0000000e+00  4.8867203e-02  0.0000000e+00
   1.9065350e+03  0.0000000e+00]
 [ 0.0000000e+00  0.0000000e+00 -9.2159957e-03 -1.1868871e-02
   0.0000000e+00  0.0000000e+00  0.0000000e+00  0.0000000e+00
  -1.4483897e-01  1.5925984e-01]
 [-3.2792896e+02 -3.8076878e-01  1.6280549e+03  0.0000000e+00
   0.0000000e+00  0.0000000e+00  0.0000000e+00  0.0000000e+00
   0.0000000e+00  0.0000000e+00]
 [-9.3668208e-02  2.2270389e+02 -2.2162795e+03  0.0000000e+00
  -1.1635199e-01 -2.7449811e-01  0.0000000e+00  0.0000000e+00
   0.0000000e+00  0.0000000e+00]
 [ 0.0000000e+00  0.0000000e+00  2.4507426e+02 -2.9850561e-02
  -2.4986528e+02  1.6703999e-01  0.0000000e+00 -1.3142321e+03
   0.0000000e+00  0.0000000e+00]
 [ 0.0000000e+00  0.0000000e+00  0.0000000e+00 -1.7199880e-01
   5.0981902e-02  0.0000000e+00  1.9456925e-02  0.0000000e+00
   6.5671667e-02  0.0000000e+00]
 [ 0.0000000e+00  0.0000000e+00  5.8020512e-03  0.0000000e+00
   0.0000000e+00  0.0000000e+00  0.0000000e+00  0.0000000e+00
   0.0000000e+00  0.0000000e+00]
 [ 0.0000000e+00  0.0000000e+00  0.0000000e+00  1.2399832e-01
   1.5990487e-01  1.8565655e-01  0.0000000e+00 -1.0910322e+03
   0.0000000e+00  0.0000000e+00]
 [ 0.0000000e+00  0.0000000e+00  0.0000000e+00  1.8694344e-01
   0.0000000e+00  0.0000000e+00  0.0000000e+00  0.0000000e+00
  -5.1092454e-03  0.0000000e+00]]

Layer 1:
[[-0.1834695  -0.14674208  0.00261108 -0.03695359 -0.14321446 -0.11541074
  -0.04611333  0.12952852 -0.00547488  0.1950457 ]]

Layer 2:
[0. 0. 0. 0. 0. 0. 0. 0. 0. 0.]

Layer 3:
[[ 2.7597754]
 [ 1.3374919]
 [-2.8397858]
 [-4.2765303]
 [ 1.4639957]
 [-3.3579876]
 [-2.9431734]
 [ 4.9306545]
 [ 2.009794 ]
 [ 3.349183 ]]

Layer 4:
[5.0377016]



Consenso 4:
------------------------------------------------------------------------

Layer 0:
[[-1.3212402e-02  0.0000000e+00  0.0000000e+00  0.0000000e+00
   0.0000000e+00  0.0000000e+00 -8.3250552e-03  1.4315956e-02
   0.0000000e+00  0.0000000e+00]
 [ 0.0000000e+00  0.0000000e+00  0.0000000e+00  0.0000000e+00
   0.0000000e+00  0.0000000e+00  4.4441495e-02  0.0000000e+00
   2.3634983e+03  0.0000000e+00]
 [ 0.0000000e+00  0.0000000e+00 -1.5551997e-02 -6.7348941e-03
   0.0000000e+00  0.0000000e+00  0.0000000e+00  0.0000000e+00
  -1.3172148e-01  1.4483631e-01]
 [-4.0652780e+02 -4.5453262e-01  2.0182712e+03  0.0000000e+00
   0.0000000e+00  0.0000000e+00  0.0000000e+00  0.0000000e+00
   0.0000000e+00  0.0000000e+00]
 [-8.5185051e-02  2.7608212e+02 -2.7475164e+03  0.0000000e+00
  -9.7343996e-02 -3.1848019e-01  0.0000000e+00  0.0000000e+00
   0.0000000e+00  0.0000000e+00]
 [ 0.0000000e+00  0.0000000e+00  3.0381430e+02 -1.6938457e-02
  -3.0975290e+02  1.8218879e-01  0.0000000e+00 -1.6292306e+03
   0.0000000e+00  0.0000000e+00]
 [ 0.0000000e+00  0.0000000e+00  0.0000000e+00 -1.5642154e-01
   5.9150595e-02  0.0000000e+00  1.1040674e-02  0.0000000e+00
   7.6194063e-02  0.0000000e+00]
 [ 0.0000000e+00  0.0000000e+00  9.7909616e-03  0.0000000e+00
   0.0000000e+00  0.0000000e+00  0.0000000e+00  0.0000000e+00
   0.0000000e+00  0.0000000e+00]
 [ 0.0000000e+00  0.0000000e+00  0.0000000e+00  1.3524368e-01
   1.4542291e-01  1.6884236e-01  0.0000000e+00 -1.3525337e+03
   0.0000000e+00  0.0000000e+00]
 [ 0.0000000e+00  0.0000000e+00  0.0000000e+00  2.1689688e-01
   0.0000000e+00  0.0000000e+00  0.0000000e+00  0.0000000e+00
  -8.6218510e-03  0.0000000e+00]]

Layer 1:
[[-0.19649568 -0.12786572  0.00817443 -0.03928879 -0.14490336 -0.15449533
  -0.03099949  0.11164518 -0.00616286  0.1871277 ]]

Layer 2:
[0. 0. 0. 0. 0. 0. 0. 0. 0. 0.]

Layer 3:
[[-1.1259351 ]
 [-1.3097104 ]
 [ 0.2658744 ]
 [-0.7142134 ]
 [-1.4338331 ]
 [-0.7946501 ]
 [ 0.66244483]
 [ 1.4253407 ]
 [-0.6657126 ]
 [ 0.459553  ]]

Layer 4:
[2.9329233]



Entrenamiento 5:
------------------------------------------------------------------------

Layer 0:
[[-1.3212402e-02  0.0000000e+00  0.0000000e+00  0.0000000e+00
   0.0000000e+00  0.0000000e+00 -8.3250552e-03  1.4315956e-02
   0.0000000e+00  0.0000000e+00]
 [ 0.0000000e+00  0.0000000e+00  0.0000000e+00  0.0000000e+00
   0.0000000e+00  0.0000000e+00  4.4441495e-02  0.0000000e+00
   2.3634983e+03  0.0000000e+00]
 [ 0.0000000e+00  0.0000000e+00 -1.5551997e-02 -6.7348941e-03
   0.0000000e+00  0.0000000e+00  0.0000000e+00  0.0000000e+00
  -1.3172148e-01  1.4483631e-01]
 [-4.0652780e+02 -4.5453262e-01  2.0182712e+03  0.0000000e+00
   0.0000000e+00  0.0000000e+00  0.0000000e+00  0.0000000e+00
   0.0000000e+00  0.0000000e+00]
 [-8.5185051e-02  2.7608212e+02 -2.7475164e+03  0.0000000e+00
  -9.7343996e-02 -3.1848019e-01  0.0000000e+00  0.0000000e+00
   0.0000000e+00  0.0000000e+00]
 [ 0.0000000e+00  0.0000000e+00  3.0381430e+02 -1.6938457e-02
  -3.0975290e+02  1.8218879e-01  0.0000000e+00 -1.6292306e+03
   0.0000000e+00  0.0000000e+00]
 [ 0.0000000e+00  0.0000000e+00  0.0000000e+00 -1.5642154e-01
   5.9150595e-02  0.0000000e+00  1.1040674e-02  0.0000000e+00
   7.6194063e-02  0.0000000e+00]
 [ 0.0000000e+00  0.0000000e+00  9.7909616e-03  0.0000000e+00
   0.0000000e+00  0.0000000e+00  0.0000000e+00  0.0000000e+00
   0.0000000e+00  0.0000000e+00]
 [ 0.0000000e+00  0.0000000e+00  0.0000000e+00  1.3524368e-01
   1.4542291e-01  1.6884236e-01  0.0000000e+00 -1.3525337e+03
   0.0000000e+00  0.0000000e+00]
 [ 0.0000000e+00  0.0000000e+00  0.0000000e+00  2.1689688e-01
   0.0000000e+00  0.0000000e+00  0.0000000e+00  0.0000000e+00
  -8.6218510e-03  0.0000000e+00]]

Layer 1:
[[-0.19649568 -0.12786572  0.00817443 -0.03928879 -0.14490336 -0.15449533
  -0.03099949  0.11164518 -0.00616286  0.1871277 ]]

Layer 2:
[0. 0. 0. 0. 0. 0. 0. 0. 0. 0.]

Layer 3:
[[ 2.8756428]
 [ 1.3930395]
 [-2.3873518]
 [-4.6313415]
 [ 1.3258005]
 [-3.6525276]
 [-2.7145567]
 [ 4.5168724]
 [ 2.095742 ]
 [ 3.307136 ]]

Layer 4:
[4.937008]



Consenso 5:
------------------------------------------------------------------------

Layer 0:
[[-8.0790594e-03  0.0000000e+00  0.0000000e+00  0.0000000e+00
   0.0000000e+00  0.0000000e+00 -8.5162241e-03  8.7538548e-03
   0.0000000e+00  0.0000000e+00]
 [ 0.0000000e+00  0.0000000e+00  0.0000000e+00  0.0000000e+00
   0.0000000e+00  0.0000000e+00  4.3525621e-02  0.0000000e+00
   2.6449392e+03  0.0000000e+00]
 [ 0.0000000e+00  0.0000000e+00 -1.5909119e-02 -4.1182218e-03
   0.0000000e+00  0.0000000e+00  0.0000000e+00  0.0000000e+00
  -1.2900689e-01  1.4185144e-01]
 [-4.5493637e+02 -4.7664753e-01  2.2586030e+03  0.0000000e+00
   0.0000000e+00  0.0000000e+00  0.0000000e+00  0.0000000e+00
   0.0000000e+00  0.0000000e+00]
 [-8.3429500e-02  3.0895749e+02 -3.0747249e+03  0.0000000e+00
  -9.0167038e-02 -3.3033353e-01  0.0000000e+00  0.0000000e+00
   0.0000000e+00  0.0000000e+00]
 [ 0.0000000e+00  0.0000000e+00  3.3999191e+02 -1.0357451e-02
  -3.4663678e+02  1.9262591e-01  0.0000000e+00 -1.8232363e+03
   0.0000000e+00  0.0000000e+00]
 [ 0.0000000e+00  0.0000000e+00  0.0000000e+00 -1.5319791e-01
   6.1352089e-02  0.0000000e+00  6.7511001e-03  0.0000000e+00
   7.9029888e-02  0.0000000e+00]
 [ 0.0000000e+00  0.0000000e+00  1.0015791e-02  0.0000000e+00
   0.0000000e+00  0.0000000e+00  0.0000000e+00  0.0000000e+00
   0.0000000e+00  0.0000000e+00]
 [ 0.0000000e+00  0.0000000e+00  0.0000000e+00  1.4299145e-01
   1.4242594e-01  1.6536276e-01  0.0000000e+00 -1.5135908e+03
   0.0000000e+00  0.0000000e+00]
 [ 0.0000000e+00  0.0000000e+00  0.0000000e+00  2.2496943e-01
   0.0000000e+00  0.0000000e+00  0.0000000e+00  0.0000000e+00
  -8.8198343e-03  0.0000000e+00]]

Layer 1:
[[-0.20342985 -0.12553737  0.00813706 -0.04209013 -0.143689   -0.17163509
  -0.02449795  0.10340197 -0.01088873  0.18507059]]

Layer 2:
[0. 0. 0. 0. 0. 0. 0. 0. 0. 0.]

Layer 3:
[[-1.1587162 ]
 [-1.2826719 ]
 [ 0.4107771 ]
 [-0.7307131 ]
 [-1.4203261 ]
 [-0.9765353 ]
 [ 0.7586131 ]
 [ 1.2969208 ]
 [-0.62888193]
 [ 0.47074842]]

Layer 4:
[2.89514]



