Pesos inciales:
------------------------------------------------------------------------

Layer 0:
[[ 0.  0.  0. -0. -0.  0.  0. -0.  0. -0.]
 [ 0.  0.  0.  0.  0. -0.  0. -0.  0. -0.]
 [ 0.  0.  0.  0.  0. -0.  0.  0. -0. -0.]
 [-0.  0.  0.  0. -0.  0.  0. -0.  0.  0.]
 [-0.  0. -0. -0. -0.  0. -0.  0. -0.  0.]
 [-0.  0.  0.  0. -0.  0.  0. -0. -0. -0.]
 [ 0.  0.  0.  0. -0. -0.  0. -0.  0.  0.]
 [ 0.  0. -0.  0. -0.  0.  0.  0.  0.  0.]
 [-0.  0. -0. -0.  0. -0. -0.  0.  0.  0.]
 [-0. -0. -0. -0.  0. -0.  0. -0.  0. -0.]]

Layer 1:
[[ 0.18321836 -0.4220193  -0.05469143 -0.3290342  -0.29076222  0.49357814
   0.52912015  0.5679746  -0.0563609  -0.3098198 ]]

Layer 2:
[0. 0. 0. 0. 0. 0. 0. 0. 0. 0.]

Layer 3:
[[-0.20009899]
 [ 0.09304917]
 [-0.07322109]
 [-0.02130473]
 [-0.5313578 ]
 [ 0.7074205 ]
 [ 0.11680889]
 [ 0.12488234]
 [ 0.17992133]
 [ 0.67338055]]

Layer 4:
[0.]



Entrenamiento 0:
------------------------------------------------------------------------

Layer 0:
[[ 0.  0.  0. -0. -0.  0.  0. -0.  0. -0.]
 [ 0.  0.  0.  0.  0. -0.  0. -0.  0. -0.]
 [ 0.  0.  0.  0.  0. -0.  0.  0. -0. -0.]
 [-0.  0.  0.  0. -0.  0.  0. -0.  0.  0.]
 [-0.  0. -0. -0. -0.  0. -0.  0. -0.  0.]
 [-0.  0.  0.  0. -0.  0.  0. -0. -0. -0.]
 [ 0.  0.  0.  0. -0. -0.  0. -0.  0.  0.]
 [ 0.  0. -0.  0. -0.  0.  0.  0.  0.  0.]
 [-0.  0. -0. -0.  0. -0. -0.  0.  0.  0.]
 [-0. -0. -0. -0.  0. -0.  0. -0.  0. -0.]]

Layer 1:
[[ 0.18321836 -0.4220193  -0.05469143 -0.3290342  -0.29076222  0.49357814
   0.52912015  0.5679746  -0.0563609  -0.3098198 ]]

Layer 2:
[0. 0. 0. 0. 0. 0. 0. 0. 0. 0.]

Layer 3:
[[ 3.7805524]
 [-3.8495874]
 [-4.1764145]
 [-3.972162 ]
 [-4.487178 ]
 [ 4.645917 ]
 [ 4.053685 ]
 [ 4.060234 ]
 [-3.919219 ]
 [-3.2798119]]

Layer 4:
[3.9097931]



Consenso 0:
------------------------------------------------------------------------

Layer 0:
[[-0.06768649  0.          0.          0.          0.          0.
  -0.01927096  0.07333995  0.          0.        ]
 [ 0.          0.          0.          0.          0.          0.
   0.03841761  0.          0.          0.        ]
 [ 0.          0.         -0.03599999 -0.03450253  0.          0.
   0.          0.         -0.11386712  0.12520428]
 [ 0.         -0.22316729  0.          0.          0.          0.
   0.          0.          0.          0.        ]
 [-0.07363853  0.          0.2960551   0.         -0.14400001 -0.19495605
   0.          0.          0.          0.        ]
 [ 0.          0.          0.         -0.08677489 -0.00664765  0.072
   0.          0.          0.          0.        ]
 [ 0.          0.          0.         -0.13521917  0.03620874  0.
   0.05656083  0.          0.04664181  0.        ]
 [ 0.          0.          0.02266426  0.          0.          0.
   0.          0.          0.          0.        ]
 [ 0.          0.          0.          0.05344755  0.12571137  0.14595638
   0.          0.          0.          0.        ]
 [ 0.          0.          0.          0.13277233  0.          0.
   0.          0.         -0.01995799  0.        ]]

Layer 1:
[[-0.14927748 -0.07755584  0.0165557  -0.02513841 -0.15824066 -0.05690145
  -0.05188519  0.18463796  0.07518883  0.19489083]]

Layer 2:
[0. 0. 0. 0. 0. 0. 0. 0. 0. 0.]

Layer 3:
[[-0.7086091 ]
 [-1.0869982 ]
 [-0.512413  ]
 [-0.7997277 ]
 [-1.6619303 ]
 [ 0.33894205]
 [ 0.21555686]
 [ 2.1997786 ]
 [-0.23458767]
 [ 0.04811335]]

Layer 4:
[3.1375592]



Entrenamiento 1:
------------------------------------------------------------------------

Layer 0:
[[-0.06768649  0.          0.          0.          0.          0.
  -0.01927096  0.07333995  0.          0.        ]
 [ 0.          0.          0.          0.          0.          0.
   0.03841761  0.          0.          0.        ]
 [ 0.          0.         -0.03599999 -0.03450253  0.          0.
   0.          0.         -0.11386712  0.12520428]
 [ 0.         -0.22316729  0.          0.          0.          0.
   0.          0.          0.          0.        ]
 [-0.07363853  0.          0.2960551   0.         -0.14400001 -0.19495605
   0.          0.          0.          0.        ]
 [ 0.          0.          0.         -0.08677489 -0.00664765  0.072
   0.          0.          0.          0.        ]
 [ 0.          0.          0.         -0.13521917  0.03620874  0.
   0.05656083  0.          0.04664181  0.        ]
 [ 0.          0.          0.02266426  0.          0.          0.
   0.          0.          0.          0.        ]
 [ 0.          0.          0.          0.05344755  0.12571137  0.14595638
   0.          0.          0.          0.        ]
 [ 0.          0.          0.          0.13277233  0.          0.
   0.          0.         -0.01995799  0.        ]]

Layer 1:
[[-0.14927748 -0.07755584  0.0165557  -0.02513841 -0.15824066 -0.05690145
  -0.05188519  0.18463796  0.07518883  0.19489083]]

Layer 2:
[0. 0. 0. 0. 0. 0. 0. 0. 0. 0.]

Layer 3:
[[-4.3923025]
 [-5.278881 ]
 [ 2.7850397]
 [-4.978826 ]
 [-5.796788 ]
 [-3.5043442]
 [-3.5883443]
 [ 6.3248982]
 [ 3.435298 ]
 [ 3.7301412]]

Layer 4:
[7.177897]



Consenso 1:
------------------------------------------------------------------------

Layer 0:
[[-3.24895158e-02  0.00000000e+00  0.00000000e+00  0.00000000e+00
   0.00000000e+00  0.00000000e+00 -1.07917394e-02  3.52031738e-02
   0.00000000e+00  0.00000000e+00]
 [ 0.00000000e+00  0.00000000e+00  0.00000000e+00  0.00000000e+00
   0.00000000e+00  0.00000000e+00  4.22593728e-02  0.00000000e+00
   1.36181091e+03  0.00000000e+00]
 [ 0.00000000e+00  0.00000000e+00 -2.01599915e-02 -1.65612157e-02
   0.00000000e+00  0.00000000e+00  0.00000000e+00  0.00000000e+00
  -1.25253826e-01  1.37724698e-01]
 [-2.34234970e+02 -2.67119855e-01  1.16289636e+03  0.00000000e+00
   0.00000000e+00  0.00000000e+00  0.00000000e+00  0.00000000e+00
   0.00000000e+00  0.00000000e+00]
 [-8.10023844e-02  1.59074203e+02 -1.58304675e+03  0.00000000e+00
  -1.13759995e-01 -2.02754289e-01  0.00000000e+00  0.00000000e+00
   0.00000000e+00  0.00000000e+00]
 [ 0.00000000e+00  0.00000000e+00  1.75053055e+02 -4.16519456e-02
  -1.78475449e+02  1.59839988e-01  0.00000000e+00 -9.38737122e+02
   0.00000000e+00  0.00000000e+00]
 [ 0.00000000e+00  0.00000000e+00  0.00000000e+00 -1.48741081e-01
   3.76570858e-02  0.00000000e+00  2.71491986e-02  0.00000000e+00
   4.85074818e-02  0.00000000e+00]
 [ 0.00000000e+00  0.00000000e+00  1.26919877e-02  0.00000000e+00
   0.00000000e+00  0.00000000e+00  0.00000000e+00  0.00000000e+00
   0.00000000e+00  0.00000000e+00]
 [ 0.00000000e+00  0.00000000e+00  0.00000000e+00  1.18653566e-01
   1.38282508e-01  1.60552040e-01  0.00000000e+00 -7.79308838e+02
   0.00000000e+00  0.00000000e+00]
 [ 0.00000000e+00  0.00000000e+00  0.00000000e+00  1.38083220e-01
   0.00000000e+00  0.00000000e+00  0.00000000e+00  0.00000000e+00
  -1.11764735e-02  0.00000000e+00]]

Layer 1:
[[-0.1725466  -0.15651837  0.02167583 -0.0574805  -0.14256765 -0.0989045
  -0.01550496  0.16757107 -0.00421703  0.19869128]]

Layer 2:
[0. 0. 0. 0. 0. 0. 0. 0. 0. 0.]

Layer 3:
[[-0.88975954]
 [-1.5075488 ]
 [-0.19104385]
 [-0.97003746]
 [-1.444294  ]
 [-0.13327265]
 [ 0.7063091 ]
 [ 2.0160298 ]
 [-0.8999982 ]
 [ 0.38783526]]

Layer 4:
[3.0947428]



Entrenamiento 2:
------------------------------------------------------------------------

Layer 0:
[[-3.24895158e-02  0.00000000e+00  0.00000000e+00  0.00000000e+00
   0.00000000e+00  0.00000000e+00 -1.07917394e-02  3.52031738e-02
   0.00000000e+00  0.00000000e+00]
 [ 0.00000000e+00  0.00000000e+00  0.00000000e+00  0.00000000e+00
   0.00000000e+00  0.00000000e+00  4.22593728e-02  0.00000000e+00
   1.36181091e+03  0.00000000e+00]
 [ 0.00000000e+00  0.00000000e+00 -2.01599915e-02 -1.65612157e-02
   0.00000000e+00  0.00000000e+00  0.00000000e+00  0.00000000e+00
  -1.25253826e-01  1.37724698e-01]
 [-2.34234970e+02 -2.67119855e-01  1.16289636e+03  0.00000000e+00
   0.00000000e+00  0.00000000e+00  0.00000000e+00  0.00000000e+00
   0.00000000e+00  0.00000000e+00]
 [-8.10023844e-02  1.59074203e+02 -1.58304675e+03  0.00000000e+00
  -1.13759995e-01 -2.02754289e-01  0.00000000e+00  0.00000000e+00
   0.00000000e+00  0.00000000e+00]
 [ 0.00000000e+00  0.00000000e+00  1.75053055e+02 -4.16519456e-02
  -1.78475449e+02  1.59839988e-01  0.00000000e+00 -9.38737122e+02
   0.00000000e+00  0.00000000e+00]
 [ 0.00000000e+00  0.00000000e+00  0.00000000e+00 -1.48741081e-01
   3.76570858e-02  0.00000000e+00  2.71491986e-02  0.00000000e+00
   4.85074818e-02  0.00000000e+00]
 [ 0.00000000e+00  0.00000000e+00  1.26919877e-02  0.00000000e+00
   0.00000000e+00  0.00000000e+00  0.00000000e+00  0.00000000e+00
   0.00000000e+00  0.00000000e+00]
 [ 0.00000000e+00  0.00000000e+00  0.00000000e+00  1.18653566e-01
   1.38282508e-01  1.60552040e-01  0.00000000e+00 -7.79308838e+02
   0.00000000e+00  0.00000000e+00]
 [ 0.00000000e+00  0.00000000e+00  0.00000000e+00  1.38083220e-01
   0.00000000e+00  0.00000000e+00  0.00000000e+00  0.00000000e+00
  -1.11764735e-02  0.00000000e+00]]

Layer 1:
[[-0.1725466  -0.15651837  0.02167583 -0.0574805  -0.14256765 -0.0989045
  -0.01550496  0.16757107 -0.00421703  0.19869128]]

Layer 2:
[0. 0. 0. 0. 0. 0. 0. 0. 0. 0.]

Layer 3:
[[ 3.2752237]
 [ 2.5283034]
 [-4.3908567]
 [-5.738991 ]
 [ 2.6122658]
 [-4.6760874]
 [-3.531319 ]
 [ 6.7139487]
 [ 3.514344 ]
 [ 4.9163055]]

Layer 4:
[7.5769105]



Consenso 2:
------------------------------------------------------------------------

Layer 0:
[[-2.3284152e-02  0.0000000e+00  0.0000000e+00  0.0000000e+00
   0.0000000e+00  0.0000000e+00 -8.1708878e-03  2.5228940e-02
   0.0000000e+00  0.0000000e+00]
 [ 0.0000000e+00  0.0000000e+00  0.0000000e+00  0.0000000e+00
   0.0000000e+00  0.0000000e+00  4.7791511e-02  0.0000000e+00
   1.7400916e+03  0.0000000e+00]
 [ 0.0000000e+00  0.0000000e+00 -1.5263995e-02 -1.1868871e-02
   0.0000000e+00  0.0000000e+00  0.0000000e+00  0.0000000e+00
  -1.4165069e-01  1.5575412e-01]
 [-2.9930023e+02 -4.0819728e-01  1.4859231e+03  0.0000000e+00
   0.0000000e+00  0.0000000e+00  0.0000000e+00  0.0000000e+00
   0.0000000e+00  0.0000000e+00]
 [-9.1606326e-02  2.0326149e+02 -2.0227302e+03  0.0000000e+00
  -1.1433599e-01 -2.9321390e-01  0.0000000e+00  0.0000000e+00
   0.0000000e+00  0.0000000e+00]
 [ 0.0000000e+00  0.0000000e+00  2.2367889e+02 -2.9850561e-02
  -2.2805312e+02  1.5580799e-01  0.0000000e+00 -1.1994974e+03
   0.0000000e+00  0.0000000e+00]
 [ 0.0000000e+00  0.0000000e+00  0.0000000e+00 -1.6821265e-01
   5.4457940e-02  0.0000000e+00  1.9456925e-02  0.0000000e+00
   7.0149280e-02  0.0000000e+00]
 [ 0.0000000e+00  0.0000000e+00  9.6096480e-03  0.0000000e+00
   0.0000000e+00  0.0000000e+00  0.0000000e+00  0.0000000e+00
   0.0000000e+00  0.0000000e+00]
 [ 0.0000000e+00  0.0000000e+00  0.0000000e+00  1.1566050e-01
   1.5638494e-01  1.8156977e-01  0.0000000e+00 -9.9578345e+02
   0.0000000e+00  0.0000000e+00]
 [ 0.0000000e+00  0.0000000e+00  0.0000000e+00  1.9968958e-01
   0.0000000e+00  0.0000000e+00  0.0000000e+00  0.0000000e+00
  -8.4621869e-03  0.0000000e+00]]

Layer 1:
[[-0.17614931 -0.12961057 -0.00550972 -0.02358933 -0.14681882 -0.11656078
  -0.0508326   0.11350756  0.0044412   0.19073118]]

Layer 2:
[0. 0. 0. 0. 0. 0. 0. 0. 0. 0.]

Layer 3:
[[-0.9890876 ]
 [-1.3732066 ]
 [-0.10828829]
 [-0.5934353 ]
 [-1.4704196 ]
 [-0.42732573]
 [ 0.39947534]
 [ 1.5909166 ]
 [-0.7071521 ]
 [ 0.47066927]]

Layer 4:
[2.9538083]



Entrenamiento 3:
------------------------------------------------------------------------

Layer 0:
[[-2.3284152e-02  0.0000000e+00  0.0000000e+00  0.0000000e+00
   0.0000000e+00  0.0000000e+00 -8.1708878e-03  2.5228940e-02
   0.0000000e+00  0.0000000e+00]
 [ 0.0000000e+00  0.0000000e+00  0.0000000e+00  0.0000000e+00
   0.0000000e+00  0.0000000e+00  4.7791511e-02  0.0000000e+00
   1.7400916e+03  0.0000000e+00]
 [ 0.0000000e+00  0.0000000e+00 -1.5263995e-02 -1.1868871e-02
   0.0000000e+00  0.0000000e+00  0.0000000e+00  0.0000000e+00
  -1.4165069e-01  1.5575412e-01]
 [-2.9930023e+02 -4.0819728e-01  1.4859231e+03  0.0000000e+00
   0.0000000e+00  0.0000000e+00  0.0000000e+00  0.0000000e+00
   0.0000000e+00  0.0000000e+00]
 [-9.1606326e-02  2.0326149e+02 -2.0227302e+03  0.0000000e+00
  -1.1433599e-01 -2.9321390e-01  0.0000000e+00  0.0000000e+00
   0.0000000e+00  0.0000000e+00]
 [ 0.0000000e+00  0.0000000e+00  2.2367889e+02 -2.9850561e-02
  -2.2805312e+02  1.5580799e-01  0.0000000e+00 -1.1994974e+03
   0.0000000e+00  0.0000000e+00]
 [ 0.0000000e+00  0.0000000e+00  0.0000000e+00 -1.6821265e-01
   5.4457940e-02  0.0000000e+00  1.9456925e-02  0.0000000e+00
   7.0149280e-02  0.0000000e+00]
 [ 0.0000000e+00  0.0000000e+00  9.6096480e-03  0.0000000e+00
   0.0000000e+00  0.0000000e+00  0.0000000e+00  0.0000000e+00
   0.0000000e+00  0.0000000e+00]
 [ 0.0000000e+00  0.0000000e+00  0.0000000e+00  1.1566050e-01
   1.5638494e-01  1.8156977e-01  0.0000000e+00 -9.9578345e+02
   0.0000000e+00  0.0000000e+00]
 [ 0.0000000e+00  0.0000000e+00  0.0000000e+00  1.9968958e-01
   0.0000000e+00  0.0000000e+00  0.0000000e+00  0.0000000e+00
  -8.4621869e-03  0.0000000e+00]]

Layer 1:
[[-0.17614931 -0.12961057 -0.00550972 -0.02358933 -0.14681882 -0.11656078
  -0.0508326   0.11350756  0.0044412   0.19073118]]

Layer 2:
[0. 0. 0. 0. 0. 0. 0. 0. 0. 0.]

Layer 3:
[[ 3.8690093]
 [ 3.0345366]
 [-4.655567 ]
 [-4.9492784]
 [ 2.9438787]
 [-4.9057446]
 [-4.3846188]
 [ 6.257537 ]
 [ 3.6704884]
 [ 4.981652 ]]

Layer 4:
[7.394633]



Consenso 3:
------------------------------------------------------------------------

Layer 0:
[[-1.3212402e-02  0.0000000e+00  0.0000000e+00  0.0000000e+00
   0.0000000e+00  0.0000000e+00 -8.8183926e-03  1.4315956e-02
   0.0000000e+00  0.0000000e+00]
 [ 0.0000000e+00  0.0000000e+00  0.0000000e+00  0.0000000e+00
   0.0000000e+00  0.0000000e+00  4.4380024e-02  0.0000000e+00
   2.3302097e+03  0.0000000e+00]
 [ 0.0000000e+00  0.0000000e+00 -1.6473597e-02 -6.7348941e-03
   0.0000000e+00  0.0000000e+00  0.0000000e+00  0.0000000e+00
  -1.3153930e-01  1.4463598e-01]
 [-4.0080206e+02 -4.3944696e-01  1.9898448e+03  0.0000000e+00
   0.0000000e+00  0.0000000e+00  0.0000000e+00  0.0000000e+00
   0.0000000e+00  0.0000000e+00]
 [-8.5067227e-02  2.7219366e+02 -2.7088276e+03  0.0000000e+00
  -9.7228795e-02 -3.0818653e-01  0.0000000e+00  0.0000000e+00
   0.0000000e+00  0.0000000e+00]
 [ 0.0000000e+00  0.0000000e+00  2.9953522e+02 -1.6938457e-02
  -3.0538998e+02  1.8339840e-01  0.0000000e+00 -1.6062837e+03
   0.0000000e+00  0.0000000e+00]
 [ 0.0000000e+00  0.0000000e+00  0.0000000e+00 -1.5620519e-01
   5.7238776e-02  0.0000000e+00  1.1040674e-02  0.0000000e+00
   7.3731370e-02  0.0000000e+00]
 [ 0.0000000e+00  0.0000000e+00  1.0371167e-02  0.0000000e+00
   0.0000000e+00  0.0000000e+00  0.0000000e+00  0.0000000e+00
   0.0000000e+00  0.0000000e+00]
 [ 0.0000000e+00  0.0000000e+00  0.0000000e+00  1.3614161e-01
   1.4522177e-01  1.6860883e-01  0.0000000e+00 -1.3334839e+03
   0.0000000e+00  0.0000000e+00]
 [ 0.0000000e+00  0.0000000e+00  0.0000000e+00  2.0988651e-01
   0.0000000e+00  0.0000000e+00  0.0000000e+00  0.0000000e+00
  -9.1327755e-03  0.0000000e+00]]

Layer 1:
[[-0.19448361 -0.13065282  0.00692127 -0.03986679 -0.14359206 -0.15448353
  -0.02908021  0.11090393 -0.00847313  0.18886447]]

Layer 2:
[0. 0. 0. 0. 0. 0. 0. 0. 0. 0.]

Layer 3:
[[-1.0991213 ]
 [-1.3313534 ]
 [ 0.25052834]
 [-0.7257538 ]
 [-1.4213991 ]
 [-0.7923813 ]
 [ 0.6831951 ]
 [ 1.4245262 ]
 [-0.67756224]
 [ 0.47748995]]

Layer 4:
[2.9237323]



Entrenamiento 4:
------------------------------------------------------------------------

Layer 0:
[[-1.3212402e-02  0.0000000e+00  0.0000000e+00  0.0000000e+00
   0.0000000e+00  0.0000000e+00 -8.8183926e-03  1.4315956e-02
   0.0000000e+00  0.0000000e+00]
 [ 0.0000000e+00  0.0000000e+00  0.0000000e+00  0.0000000e+00
   0.0000000e+00  0.0000000e+00  4.4380024e-02  0.0000000e+00
   2.3302097e+03  0.0000000e+00]
 [ 0.0000000e+00  0.0000000e+00 -1.6473597e-02 -6.7348941e-03
   0.0000000e+00  0.0000000e+00  0.0000000e+00  0.0000000e+00
  -1.3153930e-01  1.4463598e-01]
 [-4.0080206e+02 -4.3944696e-01  1.9898448e+03  0.0000000e+00
   0.0000000e+00  0.0000000e+00  0.0000000e+00  0.0000000e+00
   0.0000000e+00  0.0000000e+00]
 [-8.5067227e-02  2.7219366e+02 -2.7088276e+03  0.0000000e+00
  -9.7228795e-02 -3.0818653e-01  0.0000000e+00  0.0000000e+00
   0.0000000e+00  0.0000000e+00]
 [ 0.0000000e+00  0.0000000e+00  2.9953522e+02 -1.6938457e-02
  -3.0538998e+02  1.8339840e-01  0.0000000e+00 -1.6062837e+03
   0.0000000e+00  0.0000000e+00]
 [ 0.0000000e+00  0.0000000e+00  0.0000000e+00 -1.5620519e-01
   5.7238776e-02  0.0000000e+00  1.1040674e-02  0.0000000e+00
   7.3731370e-02  0.0000000e+00]
 [ 0.0000000e+00  0.0000000e+00  1.0371167e-02  0.0000000e+00
   0.0000000e+00  0.0000000e+00  0.0000000e+00  0.0000000e+00
   0.0000000e+00  0.0000000e+00]
 [ 0.0000000e+00  0.0000000e+00  0.0000000e+00  1.3614161e-01
   1.4522177e-01  1.6860883e-01  0.0000000e+00 -1.3334839e+03
   0.0000000e+00  0.0000000e+00]
 [ 0.0000000e+00  0.0000000e+00  0.0000000e+00  2.0988651e-01
   0.0000000e+00  0.0000000e+00  0.0000000e+00  0.0000000e+00
  -9.1327755e-03  0.0000000e+00]]

Layer 1:
[[-0.19448361 -0.13065282  0.00692127 -0.03986679 -0.14359206 -0.15448353
  -0.02908021  0.11090393 -0.00847313  0.18886447]]

Layer 2:
[0. 0. 0. 0. 0. 0. 0. 0. 0. 0.]

Layer 3:
[[ 3.6282177]
 [ 3.006109 ]
 [-4.1885357]
 [-5.5305543]
 [ 2.9206967]
 [-5.1842794]
 [-3.9744644]
 [ 5.959024 ]
 [ 3.6380825]
 [ 4.9185967]]

Layer 4:
[7.284964]



Consenso 4:
------------------------------------------------------------------------

Layer 0:
[[-8.0790594e-03  0.0000000e+00  0.0000000e+00  0.0000000e+00
   0.0000000e+00  0.0000000e+00 -8.9663938e-03  8.7538548e-03
   0.0000000e+00  0.0000000e+00]
 [ 0.0000000e+00  0.0000000e+00  0.0000000e+00  0.0000000e+00
   0.0000000e+00  0.0000000e+00  4.4005070e-02  0.0000000e+00
   2.5444680e+03  0.0000000e+00]
 [ 0.0000000e+00  0.0000000e+00 -1.6750077e-02 -4.1182218e-03
   0.0000000e+00  0.0000000e+00  0.0000000e+00  0.0000000e+00
  -1.3042796e-01  1.4341399e-01]
 [-4.3765503e+02 -4.6521899e-01  2.1728071e+03  0.0000000e+00
   0.0000000e+00  0.0000000e+00  0.0000000e+00  0.0000000e+00
   0.0000000e+00  0.0000000e+00]
 [-8.4348515e-02  2.9722131e+02 -2.9579204e+03  0.0000000e+00
  -9.1065593e-02 -3.2253528e-01  0.0000000e+00  0.0000000e+00
   0.0000000e+00  0.0000000e+00]
 [ 0.0000000e+00  0.0000000e+00  3.2707690e+02 -1.0357451e-02
  -3.3346951e+02  1.9286783e-01  0.0000000e+00 -1.7539784e+03
   0.0000000e+00  0.0000000e+00]
 [ 0.0000000e+00  0.0000000e+00  0.0000000e+00 -1.5488544e-01
   5.9903737e-02  0.0000000e+00  6.7511001e-03  0.0000000e+00
   7.7164210e-02  0.0000000e+00]
 [ 0.0000000e+00  0.0000000e+00  1.0545229e-02  0.0000000e+00
   0.0000000e+00  0.0000000e+00  0.0000000e+00  0.0000000e+00
   0.0000000e+00  0.0000000e+00]
 [ 0.0000000e+00  0.0000000e+00  0.0000000e+00  1.4317103e-01
   1.4399482e-01  1.6718429e-01  0.0000000e+00 -1.4560951e+03
   0.0000000e+00  0.0000000e+00]
 [ 0.0000000e+00  0.0000000e+00  0.0000000e+00  2.1965854e-01
   0.0000000e+00  0.0000000e+00  0.0000000e+00  0.0000000e+00
  -9.2860525e-03  0.0000000e+00]]

Layer 1:
[[-0.20262577 -0.12608111  0.00605768 -0.04067756 -0.14316562 -0.1716625
  -0.02429119  0.10097361 -0.01201004  0.18804212]]

Layer 2:
[0. 0. 0. 0. 0. 0. 0. 0. 0. 0.]

Layer 3:
[[-1.1498876 ]
 [-1.2864549 ]
 [ 0.3918934 ]
 [-0.7283697 ]
 [-1.4112802 ]
 [-0.9747796 ]
 [ 0.7587695 ]
 [ 1.3097405 ]
 [-0.63252306]
 [ 0.49115753]]

Layer 4:
[2.8835664]



Entrenamiento 5:
------------------------------------------------------------------------

Layer 0:
[[-8.0790594e-03  0.0000000e+00  0.0000000e+00  0.0000000e+00
   0.0000000e+00  0.0000000e+00 -8.9663938e-03  8.7538548e-03
   0.0000000e+00  0.0000000e+00]
 [ 0.0000000e+00  0.0000000e+00  0.0000000e+00  0.0000000e+00
   0.0000000e+00  0.0000000e+00  4.4005070e-02  0.0000000e+00
   2.5444680e+03  0.0000000e+00]
 [ 0.0000000e+00  0.0000000e+00 -1.6750077e-02 -4.1182218e-03
   0.0000000e+00  0.0000000e+00  0.0000000e+00  0.0000000e+00
  -1.3042796e-01  1.4341399e-01]
 [-4.3765503e+02 -4.6521899e-01  2.1728071e+03  0.0000000e+00
   0.0000000e+00  0.0000000e+00  0.0000000e+00  0.0000000e+00
   0.0000000e+00  0.0000000e+00]
 [-8.4348515e-02  2.9722131e+02 -2.9579204e+03  0.0000000e+00
  -9.1065593e-02 -3.2253528e-01  0.0000000e+00  0.0000000e+00
   0.0000000e+00  0.0000000e+00]
 [ 0.0000000e+00  0.0000000e+00  3.2707690e+02 -1.0357451e-02
  -3.3346951e+02  1.9286783e-01  0.0000000e+00 -1.7539784e+03
   0.0000000e+00  0.0000000e+00]
 [ 0.0000000e+00  0.0000000e+00  0.0000000e+00 -1.5488544e-01
   5.9903737e-02  0.0000000e+00  6.7511001e-03  0.0000000e+00
   7.7164210e-02  0.0000000e+00]
 [ 0.0000000e+00  0.0000000e+00  1.0545229e-02  0.0000000e+00
   0.0000000e+00  0.0000000e+00  0.0000000e+00  0.0000000e+00
   0.0000000e+00  0.0000000e+00]
 [ 0.0000000e+00  0.0000000e+00  0.0000000e+00  1.4317103e-01
   1.4399482e-01  1.6718429e-01  0.0000000e+00 -1.4560951e+03
   0.0000000e+00  0.0000000e+00]
 [ 0.0000000e+00  0.0000000e+00  0.0000000e+00  2.1965854e-01
   0.0000000e+00  0.0000000e+00  0.0000000e+00  0.0000000e+00
  -9.2860525e-03  0.0000000e+00]]

Layer 1:
[[-0.20262577 -0.12608111  0.00605768 -0.04067756 -0.14316562 -0.1716625
  -0.02429119  0.10097361 -0.01201004  0.18804212]]

Layer 2:
[0. 0. 0. 0. 0. 0. 0. 0. 0. 0.]

Layer 3:
[[ 3.546097 ]
 [ 3.0716236]
 [-4.0458045]
 [-5.537718 ]
 [ 2.9498699]
 [-5.3800406]
 [-3.8692832]
 [ 5.8398237]
 [ 3.7082338]
 [ 4.953476 ]]

Layer 4:
[7.258746]



Consenso 5:
------------------------------------------------------------------------

Layer 0:
[[-4.8171114e-03  0.0000000e+00  0.0000000e+00  0.0000000e+00
   0.0000000e+00  0.0000000e+00 -8.6999917e-03  5.2194567e-03
   0.0000000e+00  0.0000000e+00]
 [ 0.0000000e+00  0.0000000e+00  0.0000000e+00  0.0000000e+00
   0.0000000e+00  0.0000000e+00  4.4589020e-02  0.0000000e+00
   2.6386448e+03  0.0000000e+00]
 [ 0.0000000e+00  0.0000000e+00 -1.6252413e-02 -2.4554762e-03
   0.0000000e+00  0.0000000e+00  0.0000000e+00  0.0000000e+00
  -1.3215873e-01  1.4531709e-01]
 [-4.5385367e+02 -4.6880007e-01  2.2532280e+03  0.0000000e+00
   0.0000000e+00  0.0000000e+00  0.0000000e+00  0.0000000e+00
   0.0000000e+00  0.0000000e+00]
 [-8.5467823e-02  3.0822220e+02 -3.0674175e+03  0.0000000e+00
  -8.8690169e-02 -3.2292208e-01  0.0000000e+00  0.0000000e+00
   0.0000000e+00  0.0000000e+00]
 [ 0.0000000e+00  0.0000000e+00  3.3918277e+02 -6.1755949e-03
  -3.4581161e+02  1.9933286e-01  0.0000000e+00 -1.8188973e+03
   0.0000000e+00  0.0000000e+00]
 [ 0.0000000e+00  0.0000000e+00  0.0000000e+00 -1.5694077e-01
   5.9975576e-02  0.0000000e+00  4.0253205e-03  0.0000000e+00
   7.7256747e-02  0.0000000e+00]
 [ 0.0000000e+00  0.0000000e+00  1.0231918e-02  0.0000000e+00
   0.0000000e+00  0.0000000e+00  0.0000000e+00  0.0000000e+00
   0.0000000e+00  0.0000000e+00]
 [ 0.0000000e+00  0.0000000e+00  0.0000000e+00  1.4797020e-01
   1.4590564e-01  1.6940284e-01  0.0000000e+00 -1.5099886e+03
   0.0000000e+00  0.0000000e+00]
 [ 0.0000000e+00  0.0000000e+00  0.0000000e+00  2.1992196e-01
   0.0000000e+00  0.0000000e+00  0.0000000e+00  0.0000000e+00
  -9.0101529e-03  0.0000000e+00]]

Layer 1:
[[-0.20703515 -0.12696655  0.00359389 -0.04041456 -0.14321122 -0.18009424
  -0.0217626   0.09483712 -0.01616077  0.1897297 ]]

Layer 2:
[0. 0. 0. 0. 0. 0. 0. 0. 0. 0.]

Layer 3:
[[-1.185642  ]
 [-1.2798316 ]
 [ 0.44862032]
 [-0.7278714 ]
 [-1.4044387 ]
 [-1.0625405 ]
 [ 0.7950096 ]
 [ 1.2692256 ]
 [-0.6387267 ]
 [ 0.52234125]]

Layer 4:
[2.8602448]



