Pesos inciales:
------------------------------------------------------------------------

Layer 0:
[[ 0. -0. -0.  0. -0.  0. -0. -0.  0.  0.]
 [ 0.  0. -0.  0. -0.  0. -0. -0. -0.  0.]
 [-0. -0.  0. -0. -0. -0. -0. -0.  0. -0.]
 [-0.  0. -0. -0.  0.  0.  0. -0.  0.  0.]
 [ 0.  0.  0. -0.  0. -0.  0. -0. -0.  0.]
 [-0.  0. -0.  0. -0. -0.  0.  0.  0.  0.]
 [ 0. -0.  0.  0. -0. -0. -0.  0.  0. -0.]
 [ 0. -0.  0. -0.  0.  0.  0.  0. -0. -0.]
 [ 0.  0.  0.  0.  0. -0.  0.  0.  0.  0.]
 [-0.  0.  0. -0.  0. -0.  0. -0.  0.  0.]]

Layer 1:
[[ 0.67627615 -0.51255685 -0.16739404  0.04236239 -0.6057529  -0.00128204
   0.58035415  0.04002595 -0.06361783  0.47084564]]

Layer 2:
[0. 0. 0. 0. 0. 0. 0. 0. 0. 0.]

Layer 3:
[[-0.1497621 ]
 [-0.40573156]
 [-0.13103205]
 [ 0.48189622]
 [-0.21589196]
 [ 0.3161592 ]
 [-0.13291562]
 [-0.36003605]
 [ 0.34057075]
 [ 0.6582815 ]]

Layer 4:
[0.]



Entrenamiento 0:
------------------------------------------------------------------------

Layer 0:
[[ 0. -0. -0.  0. -0.  0. -0. -0.  0.  0.]
 [ 0.  0. -0.  0. -0.  0. -0. -0. -0.  0.]
 [-0. -0.  0. -0. -0. -0. -0. -0.  0. -0.]
 [-0.  0. -0. -0.  0.  0.  0. -0.  0.  0.]
 [ 0.  0.  0. -0.  0. -0.  0. -0. -0.  0.]
 [-0.  0. -0.  0. -0. -0.  0.  0.  0.  0.]
 [ 0. -0.  0.  0. -0. -0. -0.  0.  0. -0.]
 [ 0. -0.  0. -0.  0.  0.  0.  0. -0. -0.]
 [ 0.  0.  0.  0.  0. -0.  0.  0.  0.  0.]
 [-0.  0.  0. -0.  0. -0.  0. -0.  0.  0.]]

Layer 1:
[[ 0.67627615 -0.51255685 -0.16739404  0.04236239 -0.6057529  -0.00128204
   0.58035415  0.04002595 -0.06361783  0.47084564]]

Layer 2:
[0. 0. 0. 0. 0. 0. 0. 0. 0. 0.]

Layer 3:
[[ 4.028074 ]
 [-4.5870314]
 [-4.338628 ]
 [ 4.7804275]
 [-4.395016 ]
 [-4.1471205]
 [ 4.0467386]
 [ 3.9440079]
 [-3.922119 ]
 [ 4.8408046]]

Layer 4:
[4.1815443]



Consenso 0:
------------------------------------------------------------------------

Layer 0:
[[ 0.          0.          0.          0.16130167  0.          0.
   0.          0.          0.          0.        ]
 [ 0.          0.          0.          0.          0.          0.
   0.          0.          0.         -0.18657161]
 [ 0.          0.          0.          0.          0.          0.
   0.          0.          0.          0.        ]
 [ 0.          0.          0.          0.          0.          0.
   0.          0.          0.          0.        ]
 [ 0.          0.          0.          0.          0.          0.
   0.         -0.3378825   0.          0.        ]
 [ 0.          0.          0.          0.          0.          0.
   0.          0.          0.          0.        ]
 [ 0.          0.          0.          0.          0.          0.
   0.          0.          0.          0.        ]
 [ 0.          0.         -0.4489297   0.          0.          0.
  -0.36994228  0.          0.          0.        ]
 [ 0.          0.         -0.34589145  0.          0.          0.
   0.          0.          0.17999998  0.        ]
 [ 0.          0.          0.          0.          0.          0.
   0.          0.          0.          0.        ]]

Layer 1:
[[-0.21429509 -0.17372939  0.17336419  0.23468949  0.19307607 -0.27880275
  -0.0741325   0.1404142  -0.07986541 -0.11286616]]

Layer 2:
[0. 0. 0. 0. 0. 0. 0. 0. 0. 0.]

Layer 3:
[[-2.2999382 ]
 [-1.0025313 ]
 [-0.45592284]
 [ 1.1685514 ]
 [ 2.459155  ]
 [-1.9939108 ]
 [ 0.0877862 ]
 [ 2.3921037 ]
 [-1.8497238 ]
 [-0.4484458 ]]

Layer 4:
[2.8651853]



Entrenamiento 1:
------------------------------------------------------------------------

Layer 0:
[[ 0.          0.          0.          0.16130167  0.          0.
   0.          0.          0.          0.        ]
 [ 0.          0.          0.          0.          0.          0.
   0.          0.          0.         -0.18657161]
 [ 0.          0.          0.          0.          0.          0.
   0.          0.          0.          0.        ]
 [ 0.          0.          0.          0.          0.          0.
   0.          0.          0.          0.        ]
 [ 0.          0.          0.          0.          0.          0.
   0.         -0.3378825   0.          0.        ]
 [ 0.          0.          0.          0.          0.          0.
   0.          0.          0.          0.        ]
 [ 0.          0.          0.          0.          0.          0.
   0.          0.          0.          0.        ]
 [ 0.          0.         -0.4489297   0.          0.          0.
  -0.36994228  0.          0.          0.        ]
 [ 0.          0.         -0.34589145  0.          0.          0.
   0.          0.          0.17999998  0.        ]
 [ 0.          0.          0.          0.          0.          0.
   0.          0.          0.          0.        ]]

Layer 1:
[[-0.21429509 -0.17372939  0.17336419  0.23468949  0.19307607 -0.27880275
  -0.0741325   0.1404142  -0.07986541 -0.11286616]]

Layer 2:
[0. 0. 0. 0. 0. 0. 0. 0. 0. 0.]

Layer 3:
[[-5.301165 ]
 [-4.555372 ]
 [ 2.537625 ]
 [ 4.7038145]
 [ 5.4667864]
 [-8.652731 ]
 [-2.9907956]
 [ 6.0045633]
 [-5.459945 ]
 [-3.5334468]]

Layer 4:
[6.330364]



Consenso 1:
------------------------------------------------------------------------

Layer 0:
[[ 0.0000000e+00  0.0000000e+00  3.9274171e-02  1.2904134e-01
   0.0000000e+00  0.0000000e+00  0.0000000e+00  0.0000000e+00
   0.0000000e+00  0.0000000e+00]
 [ 0.0000000e+00 -3.5999987e-02  0.0000000e+00  4.9389180e-02
   0.0000000e+00  0.0000000e+00  0.0000000e+00  0.0000000e+00
   0.0000000e+00 -1.4925727e-01]
 [ 7.3838830e-02  0.0000000e+00 -3.5999998e-02  0.0000000e+00
   0.0000000e+00  0.0000000e+00  0.0000000e+00 -1.3962971e-02
   0.0000000e+00  0.0000000e+00]
 [-3.2317352e-02  0.0000000e+00  0.0000000e+00  3.3335393e-05
   0.0000000e+00 -1.9374643e-02  6.6416621e-02  0.0000000e+00
   0.0000000e+00  0.0000000e+00]
 [ 0.0000000e+00  0.0000000e+00  2.7972898e-02  0.0000000e+00
  -7.1999997e-02  0.0000000e+00  0.0000000e+00 -2.7030599e-01
   0.0000000e+00  0.0000000e+00]
 [ 0.0000000e+00  0.0000000e+00 -5.1139314e-02  0.0000000e+00
   0.0000000e+00  0.0000000e+00  0.0000000e+00  6.4443894e-02
   0.0000000e+00  0.0000000e+00]
 [ 0.0000000e+00  0.0000000e+00  0.0000000e+00  0.0000000e+00
   0.0000000e+00  0.0000000e+00  0.0000000e+00  0.0000000e+00
   0.0000000e+00  0.0000000e+00]
 [ 0.0000000e+00 -3.4233589e-02 -3.5914376e-01 -1.7148761e-02
   0.0000000e+00  0.0000000e+00 -2.9595381e-01  0.0000000e+00
   0.0000000e+00 -2.7050350e-02]
 [ 0.0000000e+00  0.0000000e+00 -2.7671316e-01  0.0000000e+00
   0.0000000e+00  0.0000000e+00 -1.5115494e-02  0.0000000e+00
   1.4399999e-01  0.0000000e+00]
 [ 0.0000000e+00  0.0000000e+00  0.0000000e+00  0.0000000e+00
   0.0000000e+00  0.0000000e+00  0.0000000e+00  0.0000000e+00
   0.0000000e+00  2.8138146e-02]]

Layer 1:
[[-0.07112212 -0.23649108  0.24283385  0.03305374 -0.12260786 -0.10360935
   0.0485663   0.12914893 -0.03087172  0.1835776 ]]

Layer 2:
[0. 0. 0. 0. 0. 0. 0. 0. 0. 0.]

Layer 3:
[[-0.04243946]
 [-2.7262125 ]
 [ 1.0554547 ]
 [ 0.8112004 ]
 [-0.62029934]
 [-0.6702676 ]
 [ 1.1332917 ]
 [ 1.2469139 ]
 [-0.3942933 ]
 [ 1.8822217 ]]

Layer 4:
[2.8421302]



Entrenamiento 2:
------------------------------------------------------------------------

Layer 0:
[[ 0.0000000e+00  0.0000000e+00  3.9274171e-02  1.2904134e-01
   0.0000000e+00  0.0000000e+00  0.0000000e+00  0.0000000e+00
   0.0000000e+00  0.0000000e+00]
 [ 0.0000000e+00 -3.5999987e-02  0.0000000e+00  4.9389180e-02
   0.0000000e+00  0.0000000e+00  0.0000000e+00  0.0000000e+00
   0.0000000e+00 -1.4925727e-01]
 [ 7.3838830e-02  0.0000000e+00 -3.5999998e-02  0.0000000e+00
   0.0000000e+00  0.0000000e+00  0.0000000e+00 -1.3962971e-02
   0.0000000e+00  0.0000000e+00]
 [-3.2317352e-02  0.0000000e+00  0.0000000e+00  3.3335393e-05
   0.0000000e+00 -1.9374643e-02  6.6416621e-02  0.0000000e+00
   0.0000000e+00  0.0000000e+00]
 [ 0.0000000e+00  0.0000000e+00  2.7972898e-02  0.0000000e+00
  -7.1999997e-02  0.0000000e+00  0.0000000e+00 -2.7030599e-01
   0.0000000e+00  0.0000000e+00]
 [ 0.0000000e+00  0.0000000e+00 -5.1139314e-02  0.0000000e+00
   0.0000000e+00  0.0000000e+00  0.0000000e+00  6.4443894e-02
   0.0000000e+00  0.0000000e+00]
 [ 0.0000000e+00  0.0000000e+00  0.0000000e+00  0.0000000e+00
   0.0000000e+00  0.0000000e+00  0.0000000e+00  0.0000000e+00
   0.0000000e+00  0.0000000e+00]
 [ 0.0000000e+00 -3.4233589e-02 -3.5914376e-01 -1.7148761e-02
   0.0000000e+00  0.0000000e+00 -2.9595381e-01  0.0000000e+00
   0.0000000e+00 -2.7050350e-02]
 [ 0.0000000e+00  0.0000000e+00 -2.7671316e-01  0.0000000e+00
   0.0000000e+00  0.0000000e+00 -1.5115494e-02  0.0000000e+00
   1.4399999e-01  0.0000000e+00]
 [ 0.0000000e+00  0.0000000e+00  0.0000000e+00  0.0000000e+00
   0.0000000e+00  0.0000000e+00  0.0000000e+00  0.0000000e+00
   0.0000000e+00  2.8138146e-02]]

Layer 1:
[[-0.07112212 -0.23649108  0.24283385  0.03305374 -0.12260786 -0.10360935
   0.0485663   0.12914893 -0.03087172  0.1835776 ]]

Layer 2:
[0. 0. 0. 0. 0. 0. 0. 0. 0. 0.]

Layer 3:
[[-4.092136 ]
 [-6.6365914]
 [ 4.9582567]
 [ 4.964922 ]
 [-4.2485757]
 [-6.307733 ]
 [ 4.922496 ]
 [ 5.161682 ]
 [-4.4782577]
 [ 5.4217515]]

Layer 4:
[6.6915984]



Consenso 2:
------------------------------------------------------------------------

Layer 0:
[[ 0.00000000e+00  2.06386205e-03 -5.46605512e-03  6.45206645e-02
   0.00000000e+00  0.00000000e+00  0.00000000e+00  0.00000000e+00
   0.00000000e+00  0.00000000e+00]
 [ 2.84358859e-02  0.00000000e+00  0.00000000e+00 -3.68937761e-01
   0.00000000e+00  0.00000000e+00  0.00000000e+00  0.00000000e+00
   0.00000000e+00 -7.46286288e-02]
 [ 0.00000000e+00  0.00000000e+00 -2.87999939e-02  0.00000000e+00
   0.00000000e+00  0.00000000e+00  0.00000000e+00 -1.11703770e-02
   0.00000000e+00  0.00000000e+00]
 [ 3.72529030e-09 -6.69495715e-03  0.00000000e+00 -7.17333332e-03
   0.00000000e+00  1.86264515e-09 -1.72014311e-02  0.00000000e+00
   0.00000000e+00  0.00000000e+00]
 [ 0.00000000e+00  3.39642353e-02  0.00000000e+00  0.00000000e+00
  -1.15199998e-01 -1.06785352e-04  0.00000000e+00 -1.35152981e-01
   0.00000000e+00  0.00000000e+00]
 [ 0.00000000e+00  0.00000000e+00  2.54174061e-02  0.00000000e+00
  -3.12852003e-02  0.00000000e+00  0.00000000e+00  1.03110224e-01
   0.00000000e+00  9.38226342e-01]
 [ 0.00000000e+00  0.00000000e+00  0.00000000e+00  0.00000000e+00
   0.00000000e+00  1.58008803e-02 -7.19999988e-03  0.00000000e+00
   0.00000000e+00  0.00000000e+00]
 [ 0.00000000e+00 -3.34361382e-02 -1.79571867e-01 -2.74380185e-02
   0.00000000e+00  2.55936477e-03 -1.47976905e-01  7.91999921e-02
  -8.85229766e-01 -2.16265172e-02]
 [ 0.00000000e+00  0.00000000e+00 -1.38356581e-01  6.94560647e-01
   0.00000000e+00  0.00000000e+00 -1.20923948e-02  0.00000000e+00
   7.20000044e-02  0.00000000e+00]
 [ 0.00000000e+00  0.00000000e+00  9.81685426e-03  0.00000000e+00
   0.00000000e+00  0.00000000e+00  5.70760369e-01  2.39625182e-02
   0.00000000e+00 -1.44000016e-02]]

Layer 1:
[[-0.15534535 -0.3148449   0.15216705  0.06541295 -0.10589582 -0.1768811
  -0.11904588  0.06912778 -0.00177592  0.13942659]]

Layer 2:
[0. 0. 0. 0. 0. 0. 0. 0. 0. 0.]

Layer 3:
[[-0.84177804]
 [-2.5261803 ]
 [ 0.6824517 ]
 [ 0.81813717]
 [-0.70421576]
 [-0.5259781 ]
 [ 0.61603975]
 [ 0.77933264]
 [ 0.47109556]
 [ 1.6232243 ]]

Layer 4:
[2.6143827]



Entrenamiento 3:
------------------------------------------------------------------------

Layer 0:
[[ 0.00000000e+00  2.06386205e-03 -5.46605512e-03  6.45206645e-02
   0.00000000e+00  0.00000000e+00  0.00000000e+00  0.00000000e+00
   0.00000000e+00  0.00000000e+00]
 [ 2.84358859e-02  0.00000000e+00  0.00000000e+00 -3.68937761e-01
   0.00000000e+00  0.00000000e+00  0.00000000e+00  0.00000000e+00
   0.00000000e+00 -7.46286288e-02]
 [ 0.00000000e+00  0.00000000e+00 -2.87999939e-02  0.00000000e+00
   0.00000000e+00  0.00000000e+00  0.00000000e+00 -1.11703770e-02
   0.00000000e+00  0.00000000e+00]
 [ 3.72529030e-09 -6.69495715e-03  0.00000000e+00 -7.17333332e-03
   0.00000000e+00  1.86264515e-09 -1.72014311e-02  0.00000000e+00
   0.00000000e+00  0.00000000e+00]
 [ 0.00000000e+00  3.39642353e-02  0.00000000e+00  0.00000000e+00
  -1.15199998e-01 -1.06785352e-04  0.00000000e+00 -1.35152981e-01
   0.00000000e+00  0.00000000e+00]
 [ 0.00000000e+00  0.00000000e+00  2.54174061e-02  0.00000000e+00
  -3.12852003e-02  0.00000000e+00  0.00000000e+00  1.03110224e-01
   0.00000000e+00  9.38226342e-01]
 [ 0.00000000e+00  0.00000000e+00  0.00000000e+00  0.00000000e+00
   0.00000000e+00  1.58008803e-02 -7.19999988e-03  0.00000000e+00
   0.00000000e+00  0.00000000e+00]
 [ 0.00000000e+00 -3.34361382e-02 -1.79571867e-01 -2.74380185e-02
   0.00000000e+00  2.55936477e-03 -1.47976905e-01  7.91999921e-02
  -8.85229766e-01 -2.16265172e-02]
 [ 0.00000000e+00  0.00000000e+00 -1.38356581e-01  6.94560647e-01
   0.00000000e+00  0.00000000e+00 -1.20923948e-02  0.00000000e+00
   7.20000044e-02  0.00000000e+00]
 [ 0.00000000e+00  0.00000000e+00  9.81685426e-03  0.00000000e+00
   0.00000000e+00  0.00000000e+00  5.70760369e-01  2.39625182e-02
   0.00000000e+00 -1.44000016e-02]]

Layer 1:
[[-0.15534535 -0.3148449   0.15216705  0.06541295 -0.10589582 -0.1768811
  -0.11904588  0.06912778 -0.00177592  0.13942659]]

Layer 2:
[0. 0. 0. 0. 0. 0. 0. 0. 0. 0.]

Layer 3:
[[-5.075049 ]
 [-6.714967 ]
 [ 4.909412 ]
 [ 5.180842 ]
 [-4.9950075]
 [-5.813015 ]
 [-3.1943161]
 [ 5.072913 ]
 [-3.1686227]
 [ 5.962737 ]]

Layer 4:
[6.77008]



Consenso 3:
------------------------------------------------------------------------

Layer 0:
[[ 0.00000000e+00  3.79750622e-03 -8.03917833e-03  4.38740551e-02
   0.00000000e+00  0.00000000e+00  0.00000000e+00  0.00000000e+00
   0.00000000e+00  0.00000000e+00]
 [ 4.54974174e-02 -2.87999911e-03  0.00000000e+00 -5.28958976e-01
   0.00000000e+00  0.00000000e+00  0.00000000e+00  0.00000000e+00
   0.00000000e+00 -5.07474691e-02]
 [ 5.90710668e-03  0.00000000e+00 -1.67039931e-02  0.00000000e+00
   0.00000000e+00  0.00000000e+00  0.00000000e+00 -6.47881860e-03
   0.00000000e+00  0.00000000e+00]
 [-2.58538825e-03 -4.76680882e-03  0.00000000e+00 -5.11093345e-03
   0.00000000e+00 -1.54997141e-03 -6.93408493e-03  0.00000000e+00
   0.00000000e+00  0.00000000e+00]
 [ 0.00000000e+00  2.41825357e-02  2.23783194e-03  0.00000000e+00
  -1.33632004e-01 -7.60311668e-05  0.00000000e+00 -9.19040293e-02
   0.00000000e+00  0.00000000e+00]
 [ 0.00000000e+00  0.00000000e+00  4.26768735e-02  0.00000000e+00
  -2.22750567e-02  0.00000000e+00  0.00000000e+00  1.19607866e-01
   0.00000000e+00  1.34940135e+00]
 [ 0.00000000e+00  0.00000000e+00  0.00000000e+00  0.00000000e+00
   0.00000000e+00  1.12502249e-02 -5.12639899e-03  0.00000000e+00
   0.00000000e+00  0.00000000e+00]
 [ 0.00000000e+00 -2.42763478e-02 -1.22108869e-01 -3.18281017e-02
   0.00000000e+00  1.82226766e-03 -1.00624293e-01  1.16639979e-01
  -1.27866518e+00 -1.25415633e-02]
 [ 0.00000000e+00  0.00000000e+00 -9.40824747e-02  1.00509357e+00
   0.00000000e+00  0.00000000e+00 -7.01358868e-03  0.00000000e+00
   4.89600003e-02  0.00000000e+00]
 [ 0.00000000e+00  0.00000000e+00  1.17523195e-02  0.00000000e+00
   0.00000000e+00  0.00000000e+00  8.24431598e-01  1.70613118e-02
   0.00000000e+00 -2.42449492e-02]]

Layer 1:
[[-0.14216328 -0.36006096  0.11392139  0.04114375 -0.190056   -0.16412205
  -0.23023151  0.01455985  0.00295984  0.20467499]]

Layer 2:
[0. 0. 0. 0. 0. 0. 0. 0. 0. 0.]

Layer 3:
[[-0.5057554 ]
 [-2.7836275 ]
 [ 0.37620163]
 [ 0.6462321 ]
 [-1.4416819 ]
 [ 0.00793219]
 [ 0.1144321 ]
 [ 0.29918623]
 [ 0.92236304]
 [ 2.1720796 ]]

Layer 4:
[2.5763168]



Entrenamiento 4:
------------------------------------------------------------------------

Layer 0:
[[ 0.00000000e+00  3.79750622e-03 -8.03917833e-03  4.38740551e-02
   0.00000000e+00  0.00000000e+00  0.00000000e+00  0.00000000e+00
   0.00000000e+00  0.00000000e+00]
 [ 4.54974174e-02 -2.87999911e-03  0.00000000e+00 -5.28958976e-01
   0.00000000e+00  0.00000000e+00  0.00000000e+00  0.00000000e+00
   0.00000000e+00 -5.07474691e-02]
 [ 5.90710668e-03  0.00000000e+00 -1.67039931e-02  0.00000000e+00
   0.00000000e+00  0.00000000e+00  0.00000000e+00 -6.47881860e-03
   0.00000000e+00  0.00000000e+00]
 [-2.58538825e-03 -4.76680882e-03  0.00000000e+00 -5.11093345e-03
   0.00000000e+00 -1.54997141e-03 -6.93408493e-03  0.00000000e+00
   0.00000000e+00  0.00000000e+00]
 [ 0.00000000e+00  2.41825357e-02  2.23783194e-03  0.00000000e+00
  -1.33632004e-01 -7.60311668e-05  0.00000000e+00 -9.19040293e-02
   0.00000000e+00  0.00000000e+00]
 [ 0.00000000e+00  0.00000000e+00  4.26768735e-02  0.00000000e+00
  -2.22750567e-02  0.00000000e+00  0.00000000e+00  1.19607866e-01
   0.00000000e+00  1.34940135e+00]
 [ 0.00000000e+00  0.00000000e+00  0.00000000e+00  0.00000000e+00
   0.00000000e+00  1.12502249e-02 -5.12639899e-03  0.00000000e+00
   0.00000000e+00  0.00000000e+00]
 [ 0.00000000e+00 -2.42763478e-02 -1.22108869e-01 -3.18281017e-02
   0.00000000e+00  1.82226766e-03 -1.00624293e-01  1.16639979e-01
  -1.27866518e+00 -1.25415633e-02]
 [ 0.00000000e+00  0.00000000e+00 -9.40824747e-02  1.00509357e+00
   0.00000000e+00  0.00000000e+00 -7.01358868e-03  0.00000000e+00
   4.89600003e-02  0.00000000e+00]
 [ 0.00000000e+00  0.00000000e+00  1.17523195e-02  0.00000000e+00
   0.00000000e+00  0.00000000e+00  8.24431598e-01  1.70613118e-02
   0.00000000e+00 -2.42449492e-02]]

Layer 1:
[[-0.14216328 -0.36006096  0.11392139  0.04114375 -0.190056   -0.16412205
  -0.23023151  0.01455985  0.00295984  0.20467499]]

Layer 2:
[0. 0. 0. 0. 0. 0. 0. 0. 0. 0.]

Layer 3:
[[-4.8659286]
 [-7.1057925]
 [ 4.7795353]
 [ 5.065378 ]
 [-5.800623 ]
 [-5.1156964]
 [-4.187555 ]
 [ 4.6093416]
 [-2.6134918]
 [ 6.622223 ]]

Layer 4:
[6.8762736]



Consenso 4:
------------------------------------------------------------------------

Layer 0:
[[ 0.0000000e+00  4.5900289e-03 -1.8282671e-02  3.2776501e-02
   0.0000000e+00  0.0000000e+00  0.0000000e+00  0.0000000e+00
   0.0000000e+00  0.0000000e+00]
 [ 5.2322030e-02 -2.8799986e-04  0.0000000e+00 -6.1450118e-01
   0.0000000e+00  0.0000000e+00  0.0000000e+00  0.0000000e+00
   0.0000000e+00 -3.7911348e-02]
 [ 5.9071044e-04  0.0000000e+00 -1.1750391e-02  0.0000000e+00
   0.0000000e+00  0.0000000e+00  0.0000000e+00 -4.5575136e-03
   0.0000000e+00  0.0000000e+00]
 [-2.5853841e-04 -5.6451876e-03  0.0000000e+00 -6.0601607e-03
   0.0000000e+00 -1.5499699e-04 -1.3972908e-02  0.0000000e+00
   0.0000000e+00  0.0000000e+00]
 [ 0.0000000e+00  2.8638642e-02  2.2378308e-04  0.0000000e+00
  -1.3864321e-01 -9.0041409e-05  0.0000000e+00 -6.8657719e-02
   0.0000000e+00  0.0000000e+00]
 [ 0.0000000e+00  0.0000000e+00  5.6119189e-02  0.0000000e+00
  -2.6379677e-02  0.0000000e+00  0.0000000e+00  1.2409316e-01
   0.0000000e+00  1.5572315e+00]
 [ 0.0000000e+00  0.0000000e+00  0.0000000e+00  0.0000000e+00
   0.0000000e+00  1.3323301e-02 -6.0710395e-03  0.0000000e+00
   0.0000000e+00  0.0000000e+00]
 [ 0.0000000e+00 -1.8465366e-02 -9.1222510e-02 -3.3021655e-02
   0.0000000e+00  2.1580565e-03 -7.5172268e-02  1.3449597e-01
  -1.4753829e+00 -8.8176290e-03]
 [ 0.0000000e+00  0.0000000e+00 -7.0285141e-02  1.1596689e+00
   0.0000000e+00  0.0000000e+00 -4.9336972e-03  0.0000000e+00
   3.6575999e-02  0.0000000e+00]
 [ 0.0000000e+00  0.0000000e+00  1.3623832e-02  0.0000000e+00
   0.0000000e+00  0.0000000e+00  9.5126724e-01  2.0205196e-02
   0.0000000e+00 -3.1800494e-02]]

Layer 1:
[[-0.14313905 -0.3820513   0.08875643  0.03864106 -0.21510808 -0.16963398
  -0.28642455 -0.00472057  0.01053791  0.22327751]]

Layer 2:
[0. 0. 0. 0. 0. 0. 0. 0. 0. 0.]

Layer 3:
[[-0.43725014]
 [-2.8770823 ]
 [ 0.19865513]
 [ 0.63594484]
 [-1.685082  ]
 [ 0.15852928]
 [-0.14510632]
 [ 0.15679693]
 [ 1.1662159 ]
 [ 2.3120828 ]]

Layer 4:
[2.5724144]



Entrenamiento 5:
------------------------------------------------------------------------

Layer 0:
[[ 0.0000000e+00  4.5900289e-03 -1.8282671e-02  3.2776501e-02
   0.0000000e+00  0.0000000e+00  0.0000000e+00  0.0000000e+00
   0.0000000e+00  0.0000000e+00]
 [ 5.2322030e-02 -2.8799986e-04  0.0000000e+00 -6.1450118e-01
   0.0000000e+00  0.0000000e+00  0.0000000e+00  0.0000000e+00
   0.0000000e+00 -3.7911348e-02]
 [ 5.9071044e-04  0.0000000e+00 -1.1750391e-02  0.0000000e+00
   0.0000000e+00  0.0000000e+00  0.0000000e+00 -4.5575136e-03
   0.0000000e+00  0.0000000e+00]
 [-2.5853841e-04 -5.6451876e-03  0.0000000e+00 -6.0601607e-03
   0.0000000e+00 -1.5499699e-04 -1.3972908e-02  0.0000000e+00
   0.0000000e+00  0.0000000e+00]
 [ 0.0000000e+00  2.8638642e-02  2.2378308e-04  0.0000000e+00
  -1.3864321e-01 -9.0041409e-05  0.0000000e+00 -6.8657719e-02
   0.0000000e+00  0.0000000e+00]
 [ 0.0000000e+00  0.0000000e+00  5.6119189e-02  0.0000000e+00
  -2.6379677e-02  0.0000000e+00  0.0000000e+00  1.2409316e-01
   0.0000000e+00  1.5572315e+00]
 [ 0.0000000e+00  0.0000000e+00  0.0000000e+00  0.0000000e+00
   0.0000000e+00  1.3323301e-02 -6.0710395e-03  0.0000000e+00
   0.0000000e+00  0.0000000e+00]
 [ 0.0000000e+00 -1.8465366e-02 -9.1222510e-02 -3.3021655e-02
   0.0000000e+00  2.1580565e-03 -7.5172268e-02  1.3449597e-01
  -1.4753829e+00 -8.8176290e-03]
 [ 0.0000000e+00  0.0000000e+00 -7.0285141e-02  1.1596689e+00
   0.0000000e+00  0.0000000e+00 -4.9336972e-03  0.0000000e+00
   3.6575999e-02  0.0000000e+00]
 [ 0.0000000e+00  0.0000000e+00  1.3623832e-02  0.0000000e+00
   0.0000000e+00  0.0000000e+00  9.5126724e-01  2.0205196e-02
   0.0000000e+00 -3.1800494e-02]]

Layer 1:
[[-0.14313905 -0.3820513   0.08875643  0.03864106 -0.21510808 -0.16963398
  -0.28642455 -0.00472057  0.01053791  0.22327751]]

Layer 2:
[0. 0. 0. 0. 0. 0. 0. 0. 0. 0.]

Layer 3:
[[-4.760827 ]
 [-7.15699  ]
 [ 4.609202 ]
 [ 4.932541 ]
 [-5.9851475]
 [-4.730396 ]
 [-4.387169 ]
 [-2.1523564]
 [ 5.475987 ]
 [ 6.729377 ]]

Layer 4:
[6.834261]



Consenso 5:
------------------------------------------------------------------------

Layer 0:
[[ 0.00000000e+00  7.06501212e-03 -1.63098052e-02  2.43113879e-02
   0.00000000e+00  0.00000000e+00  0.00000000e+00  0.00000000e+00
   0.00000000e+00  0.00000000e+00]
 [ 5.89873977e-02 -2.30399921e-04  0.00000000e+00 -6.16875768e-01
   0.00000000e+00  0.00000000e+00  0.00000000e+00  0.00000000e+00
   0.00000000e+00 -2.81200707e-02]
 [ 4.72568499e-04  0.00000000e+00 -1.24876704e-02  0.00000000e+00
   0.00000000e+00  0.00000000e+00  0.00000000e+00 -4.84347530e-03
   0.00000000e+00  0.00000000e+00]
 [-2.06831028e-04 -5.43309096e-03  0.00000000e+00 -5.83138224e-03
   0.00000000e+00 -1.23997685e-04 -1.35342320e-02  0.00000000e+00
   0.00000000e+00  0.00000000e+00]
 [ 0.00000000e+00  2.75626536e-02  1.79026552e-04  0.00000000e+00
  -1.42214403e-01 -8.66584523e-05  0.00000000e+00 -5.09256460e-02
   0.00000000e+00  0.00000000e+00]
 [ 0.00000000e+00  0.00000000e+00  8.66815597e-02  0.00000000e+00
  -2.53885631e-02  0.00000000e+00  0.00000000e+00  1.27289578e-01
   0.00000000e+00  1.55454063e+00]
 [ 0.00000000e+00  0.00000000e+00  0.00000000e+00  0.00000000e+00
   0.00000000e+00  1.28227286e-02 -5.84294274e-03  0.00000000e+00
   0.00000000e+00  0.00000000e+00]
 [ 0.00000000e+00  5.42469881e-03 -6.76626787e-02 -3.38722356e-02
   0.00000000e+00  2.07697577e-03 -5.57576977e-02  1.38274536e-01
  -1.48089099e+00 -9.37205646e-03]
 [ 0.00000000e+00  0.00000000e+00 -5.21327555e-02  1.16408587e+00
   0.00000000e+00  0.00000000e+00 -5.24326228e-03  0.00000000e+00
   2.71295980e-02  0.00000000e+00]
 [ 0.00000000e+00  0.00000000e+00  1.47399325e-02  0.00000000e+00
   0.00000000e+00  0.00000000e+00  9.54818666e-01  1.94460601e-02
   0.00000000e+00 -4.91139963e-02]]

Layer 1:
[[-0.12809624 -0.38560265  0.06284061  0.03067996 -0.21314989 -0.17158659
  -0.30979237 -0.01200447  0.01434488  0.22105329]]

Layer 2:
[0. 0. 0. 0. 0. 0. 0. 0. 0. 0.]

Layer 3:
[[-0.49263144]
 [-2.8372326 ]
 [-0.016469  ]
 [ 0.5880604 ]
 [-1.7928915 ]
 [ 0.24427938]
 [-0.20674086]
 [ 0.03649116]
 [ 1.24055   ]
 [ 2.31364   ]]

Layer 4:
[2.529086]



