:
------------------------------------------------------------------------



Entrenamiento 0:
------------------------------------------------------------------------

Layer 0:
[[ 0.09303951  0.         -0.22116446 ...  0.         -0.
  -0.        ]
 [ 0.          0.          0.39669278 ... -0.         -0.
   0.        ]
 [ 0.          0.          0.         ... -0.         -0.
   0.        ]
 ...
 [-0.          0.          0.         ... -0.11707861 -0.
   0.        ]
 [ 0.         -0.         -0.         ...  0.          0.
  -0.        ]
 [ 0.         -0.         -0.         ... -0.         -0.
   0.        ]]

Layer 1:
[[ 0.22144401  0.08987519 -0.12653923 -0.10999602 -0.09991878  0.19092217
   0.07042778  0.04342532  0.23829955 -0.21504259 -0.11916227  0.16808513
   0.18759489 -0.04826094 -0.02327015  0.12805453  0.1096549   0.07969862
   0.16880536  0.16442785  0.12929448  0.22413498 -0.01155384 -0.14079037
   0.05946022 -0.13494393  0.1957823  -0.13942781 -0.13752097 -0.07645908
  -0.02108884 -0.16987309 -0.22572052  0.18709135  0.0113931   0.19562227
  -0.11253685 -0.14322405 -0.22904103 -0.06442851 -0.11763453  0.16022551
  -0.05484718  0.03218088  0.10618901  0.07653329 -0.17432755  0.01040128
  -0.09216049  0.16984043  0.0305675  -0.1179173   0.20711991 -0.17020397
  -0.12661418  0.18694586  0.00213748  0.00341301  0.02527747  0.230382
   0.10665554 -0.06223658 -0.22618128 -0.15536386  0.08549616 -0.05598998
  -0.14711332 -0.11180314  0.11809316  0.07088205  0.19339758  0.1701703
   0.23654291 -0.05271871  0.11746997 -0.00453536  0.00538969  0.20218521
  -0.04549272 -0.22973858 -0.2248885  -0.16037834  0.20345652  0.02438581
  -0.15504245  0.02384463 -0.0937608   0.23779649 -0.04012069 -0.10116693
   0.10731074  0.17995706 -0.10172381 -0.12735684  0.15014663  0.06834459
  -0.00093791 -0.11704896  0.2391367  -0.17536512]]

Layer 2:
[0. 0. 0. 0. 0. 0. 0. 0. 0. 0. 0. 0. 0. 0. 0. 0. 0. 0. 0. 0. 0. 0. 0. 0.
 0. 0. 0. 0. 0. 0. 0. 0. 0. 0. 0. 0. 0. 0. 0. 0. 0. 0. 0. 0. 0. 0. 0. 0.
 0. 0. 0. 0. 0. 0. 0. 0. 0. 0. 0. 0. 0. 0. 0. 0. 0. 0. 0. 0. 0. 0. 0. 0.
 0. 0. 0. 0. 0. 0. 0. 0. 0. 0. 0. 0. 0. 0. 0. 0. 0. 0. 0. 0. 0. 0. 0. 0.
 0. 0. 0. 0.]

Layer 3:
[[ 0.05046222]
 [-0.12370878]
 [-0.08279872]
 [ 0.09109813]
 [-0.07681821]
 [ 0.1743809 ]
 [ 0.10117134]
 [-0.16899121]
 [-0.15879825]
 [-0.18865854]
 [-0.05524786]
 [-0.1827634 ]
 [ 0.1325635 ]
 [-0.19400617]
 [ 0.19697666]
 [ 0.14201105]
 [-0.10620826]
 [ 0.11501563]
 [ 0.11436757]
 [ 0.06009376]
 [-0.10753267]
 [ 0.07873794]
 [ 0.23504129]
 [-0.09480314]
 [ 0.0672507 ]
 [-0.20377025]
 [ 0.11936256]
 [-0.00136699]
 [ 0.13999379]
 [ 0.23390412]
 [-0.02638865]
 [-0.09315082]
 [-0.0679155 ]
 [ 0.09404597]
 [-0.10281396]
 [ 0.22273132]
 [ 0.10425407]
 [ 0.23240846]
 [-0.13262066]
 [-0.2168844 ]
 [ 0.06058264]
 [-0.06198724]
 [ 0.04266942]
 [-0.22843197]
 [-0.16491386]
 [-0.235548  ]
 [ 0.21477905]
 [-0.11928581]
 [-0.22297782]
 [-0.07276459]
 [ 0.14413446]
 [-0.1448283 ]
 [-0.0664582 ]
 [ 0.05407071]
 [ 0.16699812]
 [ 0.18956152]
 [-0.10646081]
 [-0.14943385]
 [-0.06090173]
 [-0.18390597]
 [ 0.0923737 ]
 [-0.23023513]
 [ 0.06486458]
 [-0.18710583]
 [ 0.14895177]
 [-0.23276265]
 [ 0.13565171]
 [ 0.18326959]
 [ 0.06331772]
 [ 0.19741964]
 [ 0.22496882]
 [ 0.22046685]
 [-0.21864295]
 [ 0.0884982 ]
 [-0.15610874]
 [-0.23453903]
 [ 0.12416813]
 [ 0.07900083]
 [ 0.16703707]
 [ 0.11623052]
 [-0.1378558 ]
 [ 0.13526529]
 [-0.23245624]
 [ 0.12039852]
 [ 0.23719794]
 [ 0.13644406]
 [-0.20986983]
 [ 0.22675043]
 [-0.23199432]
 [ 0.19351548]
 [ 0.21611112]
 [ 0.23919126]
 [-0.03192298]
 [ 0.03450263]
 [ 0.10869929]
 [-0.22450967]
 [-0.18440112]
 [ 0.18161827]
 [-0.10951115]
 [ 0.1933462 ]]

Layer 4:
[0.]



Consenso 0:
------------------------------------------------------------------------

Layer 0:
[[-0.00578941  0.0066536  -0.00199485 ... -0.00625109  0.01422775
  -0.01524447]
 [ 0.0036054  -0.01179565  0.0060247  ... -0.00770859 -0.00010735
  -0.00192771]
 [ 0.0231039   0.          0.00351281 ... -0.01040738  0.00900014
   0.01748266]
 ...
 [-0.00687778 -0.00173228  0.00177877 ...  0.00611092 -0.00460716
  -0.00949551]
 [-0.00623854 -0.04279547 -0.02734397 ... -0.00355876  0.00734816
   0.00641444]
 [-0.01111283 -0.02585484 -0.00936075 ...  0.01406169 -0.00589555
  -0.00697392]]

Layer 1:
[[ 0.0207477  -0.01521278 -0.00440203  0.02290998  0.01372973 -0.0129163
  -0.0273006   0.02991509  0.00929506 -0.02007953  0.00979167  0.01856278
  -0.00244171  0.01593311 -0.00919943  0.02939847 -0.02520157 -0.02974317
   0.01416172  0.00922432  0.0143853  -0.00565166  0.01207351 -0.04155101
  -0.0077256  -0.01260429  0.01893583 -0.02140794 -0.02662337 -0.00227075
   0.01657607 -0.01620492  0.00591505  0.00036721  0.03281156  0.01989272
  -0.02094561 -0.04222936 -0.00218538 -0.01432138 -0.02839389 -0.02892354
  -0.04042209 -0.00485406  0.01093728 -0.02205582 -0.02280326 -0.01513559
   0.02979505 -0.02068677  0.00224608  0.00366938  0.01169917  0.0355742
  -0.0343096   0.02169773 -0.03907505 -0.03070133  0.00215062 -0.00286173
   0.01963183 -0.01926551  0.01096219 -0.03770005  0.00600333  0.00045587
   0.02284751  0.00524333  0.01496945  0.02332547  0.00985578 -0.00654387
   0.02632892  0.00406508 -0.01116156  0.00124934  0.00115779 -0.00830173
  -0.03796677  0.00692084  0.01027492  0.00370687  0.0036806  -0.01355392
   0.00470582 -0.00634954 -0.00601437 -0.00582604 -0.00690412 -0.0358458
  -0.0114865   0.01636324 -0.00274183  0.02907228 -0.00065431  0.01573294
   0.02117004  0.00615898  0.0097135  -0.02667702]]

Layer 2:
[0. 0. 0. 0. 0. 0. 0. 0. 0. 0. 0. 0. 0. 0. 0. 0. 0. 0. 0. 0. 0. 0. 0. 0.
 0. 0. 0. 0. 0. 0. 0. 0. 0. 0. 0. 0. 0. 0. 0. 0. 0. 0. 0. 0. 0. 0. 0. 0.
 0. 0. 0. 0. 0. 0. 0. 0. 0. 0. 0. 0. 0. 0. 0. 0. 0. 0. 0. 0. 0. 0. 0. 0.
 0. 0. 0. 0. 0. 0. 0. 0. 0. 0. 0. 0. 0. 0. 0. 0. 0. 0. 0. 0. 0. 0. 0. 0.
 0. 0. 0. 0.]

Layer 3:
[[ 0.01613038]
 [-0.00488247]
 [-0.05399773]
 [ 0.07148089]
 [ 0.01194884]
 [-0.02770802]
 [ 0.00612475]
 [ 0.05460784]
 [ 0.03377224]
 [-0.06792625]
 [-0.02528408]
 [ 0.01219335]
 [ 0.01329524]
 [ 0.03164069]
 [-0.07206907]
 [ 0.02683891]
 [-0.05946739]
 [-0.01727275]
 [ 0.00052512]
 [-0.0113182 ]
 [ 0.04214435]
 [-0.0346898 ]
 [ 0.00163634]
 [-0.03821207]
 [-0.03890387]
 [ 0.02643279]
 [ 0.04414642]
 [ 0.00667051]
 [-0.02317364]
 [ 0.00236548]
 [-0.02261412]
 [ 0.02885211]
 [-0.01312398]
 [-0.01422954]
 [ 0.15030117]
 [ 0.05971333]
 [-0.04889061]
 [-0.06930561]
 [ 0.06002226]
 [-0.02609335]
 [-0.09155572]
 [-0.01369738]
 [-0.13209322]
 [-0.03104023]
 [ 0.01246735]
 [-0.02466698]
 [-0.02521691]
 [-0.04399269]
 [ 0.06581156]
 [-0.03808328]
 [-0.01506843]
 [-0.0517972 ]
 [ 0.0591615 ]
 [ 0.09667142]
 [-0.10255196]
 [ 0.02254461]
 [-0.06169689]
 [-0.06313287]
 [ 0.00689845]
 [-0.02365436]
 [ 0.11071113]
 [ 0.02221086]
 [ 0.01448607]
 [-0.12642556]
 [-0.00742421]
 [ 0.04533646]
 [ 0.07538265]
 [ 0.04408479]
 [ 0.05487885]
 [ 0.03506105]
 [-0.02559544]
 [ 0.0214041 ]
 [ 0.04980256]
 [ 0.02579038]
 [-0.07584036]
 [ 0.10177816]
 [ 0.06801412]
 [ 0.00810484]
 [-0.13112329]
 [-0.00769902]
 [ 0.09300397]
 [ 0.01177246]
 [ 0.01291235]
 [-0.05744814]
 [ 0.0626099 ]
 [-0.03188336]
 [-0.02109359]
 [ 0.03327078]
 [ 0.01095527]
 [ 0.01141238]
 [ 0.0021379 ]
 [-0.01531792]
 [-0.0221407 ]
 [-0.01598799]
 [ 0.01276887]
 [ 0.02807924]
 [-0.01313625]
 [ 0.04793048]
 [ 0.02290006]
 [ 0.00096388]]

Layer 4:
[0.24424739]



Entrenamiento 1:
------------------------------------------------------------------------

Layer 0:
[[-0.00578941  0.0066536  -0.00199485 ... -0.00625109  0.01422775
  -0.01524447]
 [ 0.0036054  -0.01179565  0.0060247  ... -0.00770859 -0.00010735
  -0.00192771]
 [ 0.0231039   0.          0.00351281 ... -0.01040738  0.00900014
   0.01748266]
 ...
 [-0.00687778 -0.00173228  0.00177877 ...  0.00611092 -0.00460716
  -0.00949551]
 [-0.00623854 -0.04279547 -0.02734397 ... -0.00355876  0.00734816
   0.00641444]
 [-0.01111283 -0.02585484 -0.00936075 ...  0.01406169 -0.00589555
  -0.00697392]]

Layer 1:
[[ 0.0207477  -0.01521278 -0.00440203  0.02290998  0.01372973 -0.0129163
  -0.0273006   0.02991509  0.00929506 -0.02007953  0.00979167  0.01856278
  -0.00244171  0.01593311 -0.00919943  0.02939847 -0.02520157 -0.02974317
   0.01416172  0.00922432  0.0143853  -0.00565166  0.01207351 -0.04155101
  -0.0077256  -0.01260429  0.01893583 -0.02140794 -0.02662337 -0.00227075
   0.01657607 -0.01620492  0.00591505  0.00036721  0.03281156  0.01989272
  -0.02094561 -0.04222936 -0.00218538 -0.01432138 -0.02839389 -0.02892354
  -0.04042209 -0.00485406  0.01093728 -0.02205582 -0.02280326 -0.01513559
   0.02979505 -0.02068677  0.00224608  0.00366938  0.01169917  0.0355742
  -0.0343096   0.02169773 -0.03907505 -0.03070133  0.00215062 -0.00286173
   0.01963183 -0.01926551  0.01096219 -0.03770005  0.00600333  0.00045587
   0.02284751  0.00524333  0.01496945  0.02332547  0.00985578 -0.00654387
   0.02632892  0.00406508 -0.01116156  0.00124934  0.00115779 -0.00830173
  -0.03796677  0.00692084  0.01027492  0.00370687  0.0036806  -0.01355392
   0.00470582 -0.00634954 -0.00601437 -0.00582604 -0.00690412 -0.0358458
  -0.0114865   0.01636324 -0.00274183  0.02907228 -0.00065431  0.01573294
   0.02117004  0.00615898  0.0097135  -0.02667702]]

Layer 2:
[0. 0. 0. 0. 0. 0. 0. 0. 0. 0. 0. 0. 0. 0. 0. 0. 0. 0. 0. 0. 0. 0. 0. 0.
 0. 0. 0. 0. 0. 0. 0. 0. 0. 0. 0. 0. 0. 0. 0. 0. 0. 0. 0. 0. 0. 0. 0. 0.
 0. 0. 0. 0. 0. 0. 0. 0. 0. 0. 0. 0. 0. 0. 0. 0. 0. 0. 0. 0. 0. 0. 0. 0.
 0. 0. 0. 0. 0. 0. 0. 0. 0. 0. 0. 0. 0. 0. 0. 0. 0. 0. 0. 0. 0. 0. 0. 0.
 0. 0. 0. 0.]

Layer 3:
[[ 0.01613038]
 [-0.00488247]
 [-0.05399773]
 [ 0.07148089]
 [ 0.01194884]
 [-0.02770802]
 [ 0.00612475]
 [ 0.05460784]
 [ 0.03377224]
 [-0.06792625]
 [-0.02528408]
 [ 0.01219335]
 [ 0.01329524]
 [ 0.03164069]
 [-0.07206907]
 [ 0.02683891]
 [-0.05946739]
 [-0.01727275]
 [ 0.00052512]
 [-0.0113182 ]
 [ 0.04214435]
 [-0.0346898 ]
 [ 0.00163634]
 [-0.03821207]
 [-0.03890387]
 [ 0.02643279]
 [ 0.04414642]
 [ 0.00667051]
 [-0.02317364]
 [ 0.00236548]
 [-0.02261412]
 [ 0.02885211]
 [-0.01312398]
 [-0.01422954]
 [ 0.15030117]
 [ 0.05971333]
 [-0.04889061]
 [-0.06930561]
 [ 0.06002226]
 [-0.02609335]
 [-0.09155572]
 [-0.01369738]
 [-0.13209322]
 [-0.03104023]
 [ 0.01246735]
 [-0.02466698]
 [-0.02521691]
 [-0.04399269]
 [ 0.06581156]
 [-0.03808328]
 [-0.01506843]
 [-0.0517972 ]
 [ 0.0591615 ]
 [ 0.09667142]
 [-0.10255196]
 [ 0.02254461]
 [-0.06169689]
 [-0.06313287]
 [ 0.00689845]
 [-0.02365436]
 [ 0.11071113]
 [ 0.02221086]
 [ 0.01448607]
 [-0.12642556]
 [-0.00742421]
 [ 0.04533646]
 [ 0.07538265]
 [ 0.04408479]
 [ 0.05487885]
 [ 0.03506105]
 [-0.02559544]
 [ 0.0214041 ]
 [ 0.04980256]
 [ 0.02579038]
 [-0.07584036]
 [ 0.10177816]
 [ 0.06801412]
 [ 0.00810484]
 [-0.13112329]
 [-0.00769902]
 [ 0.09300397]
 [ 0.01177246]
 [ 0.01291235]
 [-0.05744814]
 [ 0.0626099 ]
 [-0.03188336]
 [-0.02109359]
 [ 0.03327078]
 [ 0.01095527]
 [ 0.01141238]
 [ 0.0021379 ]
 [-0.01531792]
 [-0.0221407 ]
 [-0.01598799]
 [ 0.01276887]
 [ 0.02807924]
 [-0.01313625]
 [ 0.04793048]
 [ 0.02290006]
 [ 0.00096388]]

Layer 4:
[-0.00018726]



Consenso 1:
------------------------------------------------------------------------

Layer 0:
[[-5.94375003e-03  6.88144239e-03 -2.00801040e-03 ... -6.15059491e-03
   1.44953905e-02 -1.53356157e-02]
 [ 3.59547161e-03 -1.15843648e-02  5.89749916e-03 ... -7.55209243e-03
   4.45576843e-05 -2.08814908e-03]
 [ 2.29697432e-02  0.00000000e+00  3.34562804e-03 ... -1.02085108e-02
   8.89424235e-03  1.73286963e-02]
 ...
 [-7.03223143e-03 -1.75416248e-03  1.51694741e-03 ...  6.08411385e-03
  -4.55186749e-03 -9.32350475e-03]
 [-6.24839356e-03 -4.29181755e-02 -2.78033037e-02 ... -3.73159861e-03
   7.40036042e-03  6.61174254e-03]
 [-1.07850377e-02 -2.56496929e-02 -9.20043793e-03 ...  1.39845619e-02
  -6.17637997e-03 -6.89969584e-03]]

Layer 1:
[[ 0.02054431 -0.01500922 -0.00449931  0.02259611  0.01384361 -0.01303707
  -0.02748615  0.03011742  0.00934117 -0.01997193  0.01032198  0.01845481
  -0.00267529  0.01582566 -0.00884174  0.02938342 -0.02532702 -0.02983441
   0.0142255   0.00933252  0.01450541 -0.00554884  0.01211046 -0.04197435
  -0.00768786 -0.01278619  0.01889542 -0.02096939 -0.02643253 -0.0022245
   0.01674431 -0.01636556  0.00610699  0.0005416   0.03269171  0.01973498
  -0.02045192 -0.04236576 -0.00197955 -0.01413603 -0.02844453 -0.02942038
  -0.04075516 -0.00543757  0.0109355  -0.02184233 -0.02268541 -0.01520964
   0.03064744 -0.02083394  0.00217826  0.00389497  0.01187323  0.03577376
  -0.03453348  0.02170186 -0.03867748 -0.03094331  0.00196206 -0.00308253
   0.01945955 -0.01908657  0.01037482 -0.03719058  0.00601026  0.00061853
   0.02275131  0.00531322  0.01498628  0.02318956  0.01000128 -0.00660075
   0.02595229  0.00439103 -0.01112173  0.00145757  0.00142875 -0.00836867
  -0.03812217  0.00684964  0.01056152  0.00381661  0.00351993 -0.01323998
   0.00476702 -0.00656509 -0.00605615 -0.0056933  -0.00640755 -0.0354389
  -0.01136684  0.0164216  -0.00259924  0.02891446 -0.00017276  0.01563045
   0.02075164  0.00592998  0.00973084 -0.0272574 ]]

Layer 2:
[0. 0. 0. 0. 0. 0. 0. 0. 0. 0. 0. 0. 0. 0. 0. 0. 0. 0. 0. 0. 0. 0. 0. 0.
 0. 0. 0. 0. 0. 0. 0. 0. 0. 0. 0. 0. 0. 0. 0. 0. 0. 0. 0. 0. 0. 0. 0. 0.
 0. 0. 0. 0. 0. 0. 0. 0. 0. 0. 0. 0. 0. 0. 0. 0. 0. 0. 0. 0. 0. 0. 0. 0.
 0. 0. 0. 0. 0. 0. 0. 0. 0. 0. 0. 0. 0. 0. 0. 0. 0. 0. 0. 0. 0. 0. 0. 0.
 0. 0. 0. 0.]

Layer 3:
[[ 0.45766738]
 [-0.33323973]
 [-0.23768519]
 [ 0.5145161 ]
 [ 0.3668113 ]
 [-0.39720634]
 [-0.44306117]
 [ 0.5467993 ]
 [ 0.30053827]
 [-0.50646234]
 [ 0.3011241 ]
 [ 0.40453747]
 [-0.04752986]
 [ 0.439656  ]
 [-0.3909742 ]
 [ 0.52983326]
 [-0.5128458 ]
 [-0.47814173]
 [ 0.3736926 ]
 [ 0.27729875]
 [ 0.4273824 ]
 [-0.24177277]
 [ 0.38238603]
 [-0.5599672 ]
 [-0.30328146]
 [-0.2890927 ]
 [ 0.44109726]
 [-0.39297652]
 [-0.4934925 ]
 [-0.18097669]
 [ 0.39410108]
 [-0.34777978]
 [ 0.24278803]
 [ 0.06152786]
 [ 0.66484755]
 [ 0.49431103]
 [-0.45268464]
 [-0.60500735]
 [ 0.03803011]
 [-0.40683773]
 [-0.56103176]
 [-0.50781184]
 [-0.64285034]
 [-0.13596205]
 [ 0.32799393]
 [-0.44778115]
 [-0.45880285]
 [-0.403604  ]
 [ 0.53596973]
 [-0.45561284]
 [ 0.08174289]
 [ 0.03978645]
 [ 0.38195607]
 [ 0.60613877]
 [-0.60457504]
 [ 0.45078444]
 [-0.5762273 ]
 [-0.551259  ]
 [ 0.10013217]
 [-0.24481091]
 [ 0.53718686]
 [-0.37876597]
 [ 0.31044307]
 [-0.62243485]
 [ 0.21123174]
 [ 0.06788965]
 [ 0.5241383 ]
 [ 0.24518472]
 [ 0.45212618]
 [ 0.47273546]
 [ 0.26863325]
 [-0.27629262]
 [ 0.5053369 ]
 [ 0.18465467]
 [-0.4136495 ]
 [ 0.18467966]
 [ 0.14449245]
 [-0.24879757]
 [-0.62885576]
 [ 0.2553223 ]
 [ 0.37596282]
 [ 0.18114837]
 [ 0.25213262]
 [-0.4238627 ]
 [ 0.17864755]
 [-0.23736249]
 [-0.25429165]
 [-0.17683612]
 [-0.20502573]
 [-0.47701737]
 [-0.3386918 ]
 [ 0.40380785]
 [-0.13255031]
 [ 0.46003312]
 [-0.05534802]
 [ 0.41394284]
 [ 0.40644744]
 [ 0.25765494]
 [ 0.3517957 ]
 [-0.46267956]]

Layer 4:
[0.6709115]



Entrenamiento 2:
------------------------------------------------------------------------

Layer 0:
[[-5.94375003e-03  6.88144239e-03 -2.00801040e-03 ... -6.15059491e-03
   1.44953905e-02 -1.53356157e-02]
 [ 3.59547161e-03 -1.15843648e-02  5.89749916e-03 ... -7.55209243e-03
   4.45576843e-05 -2.08814908e-03]
 [ 2.29697432e-02  0.00000000e+00  3.34562804e-03 ... -1.02085108e-02
   8.89424235e-03  1.73286963e-02]
 ...
 [-7.03223143e-03 -1.75416248e-03  1.51694741e-03 ...  6.08411385e-03
  -4.55186749e-03 -9.32350475e-03]
 [-6.24839356e-03 -4.29181755e-02 -2.78033037e-02 ... -3.73159861e-03
   7.40036042e-03  6.61174254e-03]
 [-1.07850377e-02 -2.56496929e-02 -9.20043793e-03 ...  1.39845619e-02
  -6.17637997e-03 -6.89969584e-03]]

Layer 1:
[[ 0.02054431 -0.01500922 -0.00449931  0.02259611  0.01384361 -0.01303707
  -0.02748615  0.03011742  0.00934117 -0.01997193  0.01032198  0.01845481
  -0.00267529  0.01582566 -0.00884174  0.02938342 -0.02532702 -0.02983441
   0.0142255   0.00933252  0.01450541 -0.00554884  0.01211046 -0.04197435
  -0.00768786 -0.01278619  0.01889542 -0.02096939 -0.02643253 -0.0022245
   0.01674431 -0.01636556  0.00610699  0.0005416   0.03269171  0.01973498
  -0.02045192 -0.04236576 -0.00197955 -0.01413603 -0.02844453 -0.02942038
  -0.04075516 -0.00543757  0.0109355  -0.02184233 -0.02268541 -0.01520964
   0.03064744 -0.02083394  0.00217826  0.00389497  0.01187323  0.03577376
  -0.03453348  0.02170186 -0.03867748 -0.03094331  0.00196206 -0.00308253
   0.01945955 -0.01908657  0.01037482 -0.03719058  0.00601026  0.00061853
   0.02275131  0.00531322  0.01498628  0.02318956  0.01000128 -0.00660075
   0.02595229  0.00439103 -0.01112173  0.00145757  0.00142875 -0.00836867
  -0.03812217  0.00684964  0.01056152  0.00381661  0.00351993 -0.01323998
   0.00476702 -0.00656509 -0.00605615 -0.0056933  -0.00640755 -0.0354389
  -0.01136684  0.0164216  -0.00259924  0.02891446 -0.00017276  0.01563045
   0.02075164  0.00592998  0.00973084 -0.0272574 ]]

Layer 2:
[0. 0. 0. 0. 0. 0. 0. 0. 0. 0. 0. 0. 0. 0. 0. 0. 0. 0. 0. 0. 0. 0. 0. 0.
 0. 0. 0. 0. 0. 0. 0. 0. 0. 0. 0. 0. 0. 0. 0. 0. 0. 0. 0. 0. 0. 0. 0. 0.
 0. 0. 0. 0. 0. 0. 0. 0. 0. 0. 0. 0. 0. 0. 0. 0. 0. 0. 0. 0. 0. 0. 0. 0.
 0. 0. 0. 0. 0. 0. 0. 0. 0. 0. 0. 0. 0. 0. 0. 0. 0. 0. 0. 0. 0. 0. 0. 0.
 0. 0. 0. 0.]

Layer 3:
[[ 0.45766738]
 [-0.33323973]
 [-0.23768519]
 [ 0.5145161 ]
 [ 0.3668113 ]
 [-0.39720634]
 [-0.44306117]
 [ 0.5467993 ]
 [ 0.30053827]
 [-0.50646234]
 [ 0.3011241 ]
 [ 0.40453747]
 [-0.04752986]
 [ 0.439656  ]
 [-0.3909742 ]
 [ 0.52983326]
 [-0.5128458 ]
 [-0.47814173]
 [ 0.3736926 ]
 [ 0.27729875]
 [ 0.4273824 ]
 [-0.24177277]
 [ 0.38238603]
 [-0.5599672 ]
 [-0.30328146]
 [-0.2890927 ]
 [ 0.44109726]
 [-0.39297652]
 [-0.4934925 ]
 [-0.18097669]
 [ 0.39410108]
 [-0.34777978]
 [ 0.24278803]
 [ 0.06152786]
 [ 0.66484755]
 [ 0.49431103]
 [-0.45268464]
 [-0.60500735]
 [ 0.03803011]
 [-0.40683773]
 [-0.56103176]
 [-0.50781184]
 [-0.64285034]
 [-0.13596205]
 [ 0.32799393]
 [-0.44778115]
 [-0.45880285]
 [-0.403604  ]
 [ 0.53596973]
 [-0.45561284]
 [ 0.08174289]
 [ 0.03978645]
 [ 0.38195607]
 [ 0.60613877]
 [-0.60457504]
 [ 0.45078444]
 [-0.5762273 ]
 [-0.551259  ]
 [ 0.10013217]
 [-0.24481091]
 [ 0.53718686]
 [-0.37876597]
 [ 0.31044307]
 [-0.62243485]
 [ 0.21123174]
 [ 0.06788965]
 [ 0.5241383 ]
 [ 0.24518472]
 [ 0.45212618]
 [ 0.47273546]
 [ 0.26863325]
 [-0.27629262]
 [ 0.5053369 ]
 [ 0.18465467]
 [-0.4136495 ]
 [ 0.18467966]
 [ 0.14449245]
 [-0.24879757]
 [-0.62885576]
 [ 0.2553223 ]
 [ 0.37596282]
 [ 0.18114837]
 [ 0.25213262]
 [-0.4238627 ]
 [ 0.17864755]
 [-0.23736249]
 [-0.25429165]
 [-0.17683612]
 [-0.20502573]
 [-0.47701737]
 [-0.3386918 ]
 [ 0.40380785]
 [-0.13255031]
 [ 0.46003312]
 [-0.05534802]
 [ 0.41394284]
 [ 0.40644744]
 [ 0.25765494]
 [ 0.3517957 ]
 [-0.46267956]]

Layer 4:
[0.09986684]



Consenso 2:
------------------------------------------------------------------------

Layer 0:
[[-5.9495205e-03  6.8904762e-03 -2.0082477e-03 ... -6.1480650e-03
   1.4505052e-02 -1.5339851e-02]
 [ 3.5950630e-03 -1.1577242e-02  5.8929268e-03 ... -7.5462749e-03
   4.9003327e-05 -2.0937859e-03]
 [ 2.2965712e-02  0.0000000e+00  3.3395682e-03 ... -1.0201048e-02
   8.8913012e-03  1.7322592e-02]
 ...
 [-7.0377667e-03 -1.7556332e-03  1.5073393e-03 ...  6.0830787e-03
  -4.5499159e-03 -9.3169902e-03]
 [-6.2490632e-03 -4.2922314e-02 -2.7819524e-02 ... -3.7381453e-03
   7.4022906e-03  6.6188741e-03]
 [-1.0773181e-02 -2.5641698e-02 -9.1941562e-03 ...  1.3981644e-02
  -6.1866459e-03 -6.8974635e-03]]

Layer 1:
[[ 0.02053735 -0.01500345 -0.00450367  0.02258451  0.0138488  -0.01304068
  -0.02749325  0.03012362  0.00934356 -0.01996752  0.01034107  0.01845127
  -0.00268465  0.01582237 -0.0088292   0.02938231 -0.02533019 -0.02983626
   0.01422806  0.00933696  0.01451034 -0.00554364  0.01211332 -0.04198963
  -0.00768601 -0.01279156  0.01889337 -0.02095405 -0.02642673 -0.0022217
   0.01674898 -0.01637143  0.00611496  0.00054839  0.032687    0.01972859
  -0.02043409 -0.04237112 -0.00197242 -0.01412998 -0.02844498 -0.02943807
  -0.0407684  -0.00545798  0.01093559 -0.02183507 -0.02268159 -0.01521065
   0.03067787 -0.02083999  0.00217644  0.0039034   0.01187925  0.03578065
  -0.03454088  0.02170247 -0.03866366 -0.03095208  0.00195572 -0.00309005
   0.01945351 -0.01908068  0.0103539  -0.03717246  0.00601211  0.00062392
   0.02274723  0.00531369  0.01498757  0.02318504  0.01000746 -0.00660349
   0.02593816  0.00440328 -0.01111955  0.00146542  0.00143808 -0.00837193
  -0.03812727  0.00684736  0.01057081  0.00382089  0.00351348 -0.01322766
   0.00476869 -0.00657316 -0.00605778 -0.00568771 -0.00638974 -0.03542359
  -0.01136282  0.01642297 -0.00259524  0.02890772 -0.00015659  0.01562794
   0.02073608  0.00592125  0.00973095 -0.02727833]]

Layer 2:
[0. 0. 0. 0. 0. 0. 0. 0. 0. 0. 0. 0. 0. 0. 0. 0. 0. 0. 0. 0. 0. 0. 0. 0.
 0. 0. 0. 0. 0. 0. 0. 0. 0. 0. 0. 0. 0. 0. 0. 0. 0. 0. 0. 0. 0. 0. 0. 0.
 0. 0. 0. 0. 0. 0. 0. 0. 0. 0. 0. 0. 0. 0. 0. 0. 0. 0. 0. 0. 0. 0. 0. 0.
 0. 0. 0. 0. 0. 0. 0. 0. 0. 0. 0. 0. 0. 0. 0. 0. 0. 0. 0. 0. 0. 0. 0. 0.
 0. 0. 0. 0.]

Layer 3:
[[ 0.78041095]
 [-0.6205289 ]
 [-0.41746455]
 [ 0.83862287]
 [ 0.6628019 ]
 [-0.6949207 ]
 [-0.77247185]
 [ 0.87965316]
 [ 0.5485344 ]
 [-0.83345044]
 [ 0.5777977 ]
 [ 0.7158483 ]
 [-0.12092372]
 [ 0.7509073 ]
 [-0.65809923]
 [ 0.87082183]
 [-0.8388322 ]
 [-0.8094736 ]
 [ 0.67265546]
 [ 0.5344191 ]
 [ 0.7355642 ]
 [-0.43425   ]
 [ 0.68300587]
 [-0.8920349 ]
 [-0.54229844]
 [-0.5672701 ]
 [ 0.7563881 ]
 [-0.71159875]
 [-0.8249897 ]
 [-0.34049597]
 [ 0.70921046]
 [-0.6581519 ]
 [ 0.47261226]
 [ 0.13591789]
 [ 1.0036287 ]
 [ 0.8168783 ]
 [-0.77042687]
 [-0.9387014 ]
 [ 0.00364895]
 [-0.7105096 ]
 [-0.89055735]
 [-0.8386658 ]
 [-0.9746083 ]
 [-0.2605442 ]
 [ 0.60167176]
 [-0.768995  ]
 [-0.7816517 ]
 [-0.70088243]
 [ 0.8692841 ]
 [-0.774983  ]
 [ 0.18654804]
 [ 0.14821653]
 [ 0.6573012 ]
 [ 0.9403765 ]
 [-0.93793255]
 [ 0.7776899 ]
 [-0.90994096]
 [-0.8845745 ]
 [ 0.18986054]
 [-0.43715528]
 [ 0.8571762 ]
 [-0.6961831 ]
 [ 0.5724705 ]
 [-0.9546879 ]
 [ 0.41650444]
 [ 0.0935936 ]
 [ 0.8551795 ]
 [ 0.42769128]
 [ 0.7630703 ]
 [ 0.7975883 ]
 [ 0.53448474]
 [-0.52893907]
 [ 0.836261  ]
 [ 0.34691146]
 [-0.69366723]
 [ 0.25472382]
 [ 0.22587495]
 [-0.48599336]
 [-0.9611152 ]
 [ 0.49164036]
 [ 0.63274515]
 [ 0.34312463]
 [ 0.45891094]
 [-0.72206116]
 [ 0.30378106]
 [-0.43868762]
 [-0.4711422 ]
 [-0.37447375]
 [-0.41418368]
 [-0.8087165 ]
 [-0.624261  ]
 [ 0.72002226]
 [-0.24168691]
 [ 0.7909764 ]
 [-0.11713751]
 [ 0.718781  ]
 [ 0.72956425]
 [ 0.45951816]
 [ 0.6259781 ]
 [-0.79400164]]

Layer 4:
[0.7799076]



Entrenamiento 3:
------------------------------------------------------------------------

Layer 0:
[[-5.9495205e-03  6.8904762e-03 -2.0082477e-03 ... -6.1480650e-03
   1.4505052e-02 -1.5339851e-02]
 [ 3.5950630e-03 -1.1577242e-02  5.8929268e-03 ... -7.5462749e-03
   4.9003327e-05 -2.0937859e-03]
 [ 2.2965712e-02  0.0000000e+00  3.3395682e-03 ... -1.0201048e-02
   8.8913012e-03  1.7322592e-02]
 ...
 [-7.0377667e-03 -1.7556332e-03  1.5073393e-03 ...  6.0830787e-03
  -4.5499159e-03 -9.3169902e-03]
 [-6.2490632e-03 -4.2922314e-02 -2.7819524e-02 ... -3.7381453e-03
   7.4022906e-03  6.6188741e-03]
 [-1.0773181e-02 -2.5641698e-02 -9.1941562e-03 ...  1.3981644e-02
  -6.1866459e-03 -6.8974635e-03]]

Layer 1:
[[ 0.02053735 -0.01500345 -0.00450367  0.02258451  0.0138488  -0.01304068
  -0.02749325  0.03012362  0.00934356 -0.01996752  0.01034107  0.01845127
  -0.00268465  0.01582237 -0.0088292   0.02938231 -0.02533019 -0.02983626
   0.01422806  0.00933696  0.01451034 -0.00554364  0.01211332 -0.04198963
  -0.00768601 -0.01279156  0.01889337 -0.02095405 -0.02642673 -0.0022217
   0.01674898 -0.01637143  0.00611496  0.00054839  0.032687    0.01972859
  -0.02043409 -0.04237112 -0.00197242 -0.01412998 -0.02844498 -0.02943807
  -0.0407684  -0.00545798  0.01093559 -0.02183507 -0.02268159 -0.01521065
   0.03067787 -0.02083999  0.00217644  0.0039034   0.01187925  0.03578065
  -0.03454088  0.02170247 -0.03866366 -0.03095208  0.00195572 -0.00309005
   0.01945351 -0.01908068  0.0103539  -0.03717246  0.00601211  0.00062392
   0.02274723  0.00531369  0.01498757  0.02318504  0.01000746 -0.00660349
   0.02593816  0.00440328 -0.01111955  0.00146542  0.00143808 -0.00837193
  -0.03812727  0.00684736  0.01057081  0.00382089  0.00351348 -0.01322766
   0.00476869 -0.00657316 -0.00605778 -0.00568771 -0.00638974 -0.03542359
  -0.01136282  0.01642297 -0.00259524  0.02890772 -0.00015659  0.01562794
   0.02073608  0.00592125  0.00973095 -0.02727833]]

Layer 2:
[0. 0. 0. 0. 0. 0. 0. 0. 0. 0. 0. 0. 0. 0. 0. 0. 0. 0. 0. 0. 0. 0. 0. 0.
 0. 0. 0. 0. 0. 0. 0. 0. 0. 0. 0. 0. 0. 0. 0. 0. 0. 0. 0. 0. 0. 0. 0. 0.
 0. 0. 0. 0. 0. 0. 0. 0. 0. 0. 0. 0. 0. 0. 0. 0. 0. 0. 0. 0. 0. 0. 0. 0.
 0. 0. 0. 0. 0. 0. 0. 0. 0. 0. 0. 0. 0. 0. 0. 0. 0. 0. 0. 0. 0. 0. 0. 0.
 0. 0. 0. 0.]

Layer 3:
[[ 0.78041095]
 [-0.6205289 ]
 [-0.41746455]
 [ 0.83862287]
 [ 0.6628019 ]
 [-0.6949207 ]
 [-0.77247185]
 [ 0.87965316]
 [ 0.5485344 ]
 [-0.83345044]
 [ 0.5777977 ]
 [ 0.7158483 ]
 [-0.12092372]
 [ 0.7509073 ]
 [-0.65809923]
 [ 0.87082183]
 [-0.8388322 ]
 [-0.8094736 ]
 [ 0.67265546]
 [ 0.5344191 ]
 [ 0.7355642 ]
 [-0.43425   ]
 [ 0.68300587]
 [-0.8920349 ]
 [-0.54229844]
 [-0.5672701 ]
 [ 0.7563881 ]
 [-0.71159875]
 [-0.8249897 ]
 [-0.34049597]
 [ 0.70921046]
 [-0.6581519 ]
 [ 0.47261226]
 [ 0.13591789]
 [ 1.0036287 ]
 [ 0.8168783 ]
 [-0.77042687]
 [-0.9387014 ]
 [ 0.00364895]
 [-0.7105096 ]
 [-0.89055735]
 [-0.8386658 ]
 [-0.9746083 ]
 [-0.2605442 ]
 [ 0.60167176]
 [-0.768995  ]
 [-0.7816517 ]
 [-0.70088243]
 [ 0.8692841 ]
 [-0.774983  ]
 [ 0.18654804]
 [ 0.14821653]
 [ 0.6573012 ]
 [ 0.9403765 ]
 [-0.93793255]
 [ 0.7776899 ]
 [-0.90994096]
 [-0.8845745 ]
 [ 0.18986054]
 [-0.43715528]
 [ 0.8571762 ]
 [-0.6961831 ]
 [ 0.5724705 ]
 [-0.9546879 ]
 [ 0.41650444]
 [ 0.0935936 ]
 [ 0.8551795 ]
 [ 0.42769128]
 [ 0.7630703 ]
 [ 0.7975883 ]
 [ 0.53448474]
 [-0.52893907]
 [ 0.836261  ]
 [ 0.34691146]
 [-0.69366723]
 [ 0.25472382]
 [ 0.22587495]
 [-0.48599336]
 [-0.9611152 ]
 [ 0.49164036]
 [ 0.63274515]
 [ 0.34312463]
 [ 0.45891094]
 [-0.72206116]
 [ 0.30378106]
 [-0.43868762]
 [-0.4711422 ]
 [-0.37447375]
 [-0.41418368]
 [-0.8087165 ]
 [-0.624261  ]
 [ 0.72002226]
 [-0.24168691]
 [ 0.7909764 ]
 [-0.11713751]
 [ 0.718781  ]
 [ 0.72956425]
 [ 0.45951816]
 [ 0.6259781 ]
 [-0.79400164]]

Layer 4:
[0.2013206]



Consenso 3:
------------------------------------------------------------------------

Layer 0:
[[-5.9497184e-03  6.8907975e-03 -2.0082474e-03 ... -6.1479928e-03
   1.4505376e-02 -1.5339982e-02]
 [ 3.5950555e-03 -1.1577015e-02  5.8927746e-03 ... -7.5460756e-03
   4.9159557e-05 -2.0939859e-03]
 [ 2.2965634e-02  0.0000000e+00  3.3393521e-03 ... -1.0200804e-02
   8.8912267e-03  1.7322421e-02]
 ...
 [-7.0379549e-03 -1.7556862e-03  1.5069939e-03 ...  6.0830577e-03
  -4.5498582e-03 -9.3167806e-03]
 [-6.2490744e-03 -4.2922333e-02 -2.7820054e-02 ... -3.7383807e-03
   7.4023474e-03  6.6191219e-03]
 [-1.0772775e-02 -2.5641458e-02 -9.1939541e-03 ...  1.3981565e-02
  -6.1870101e-03 -6.8973978e-03]]

Layer 1:
[[ 0.02053715 -0.01500328 -0.00450382  0.02258415  0.01384897 -0.01304078
  -0.02749345  0.03012379  0.00934361 -0.01996742  0.01034174  0.01845121
  -0.00268499  0.01582231 -0.00882877  0.02938231 -0.02533024 -0.02983626
   0.01422812  0.0093371   0.0145105  -0.00554345  0.01211341 -0.04199008
  -0.00768596 -0.01279173  0.01889336 -0.02095355 -0.02642657 -0.0022216
   0.01674908 -0.01637159  0.00611524  0.00054864  0.03268695  0.01972841
  -0.02043349 -0.0423712  -0.00197217 -0.0141298  -0.02844498 -0.02943866
  -0.04076878 -0.00545871  0.01093559 -0.02183487 -0.02268152 -0.01521065
   0.03067893 -0.02084015  0.00217638  0.0039037   0.01187944  0.03578078
  -0.03454102  0.02170247 -0.03866326 -0.03095235  0.00195549 -0.00309031
   0.01945334 -0.01908052  0.01035316 -0.03717191  0.00601217  0.00062411
   0.02274715  0.00531369  0.0149876   0.02318494  0.01000766 -0.00660358
   0.02593771  0.00440372 -0.0111195   0.0014657   0.00143842 -0.00837203
  -0.03812733  0.0068473   0.01057112  0.00382105  0.00351325 -0.01322723
   0.00476874 -0.00657344 -0.00605783 -0.00568751 -0.00638911 -0.03542313
  -0.01136271  0.01642297 -0.00259511  0.02890752 -0.00015601  0.01562791
   0.02073557  0.00592094  0.00973095 -0.02727904]]

Layer 2:
[0. 0. 0. 0. 0. 0. 0. 0. 0. 0. 0. 0. 0. 0. 0. 0. 0. 0. 0. 0. 0. 0. 0. 0.
 0. 0. 0. 0. 0. 0. 0. 0. 0. 0. 0. 0. 0. 0. 0. 0. 0. 0. 0. 0. 0. 0. 0. 0.
 0. 0. 0. 0. 0. 0. 0. 0. 0. 0. 0. 0. 0. 0. 0. 0. 0. 0. 0. 0. 0. 0. 0. 0.
 0. 0. 0. 0. 0. 0. 0. 0. 0. 0. 0. 0. 0. 0. 0. 0. 0. 0. 0. 0. 0. 0. 0. 0.
 0. 0. 0. 0.]

Layer 3:
[[ 0.89212054]
 [-0.76302165]
 [-0.52832264]
 [ 0.94942087]
 [ 0.8031135 ]
 [-0.8303472 ]
 [-0.88743687]
 [ 0.975609  ]
 [ 0.6898844 ]
 [-0.95700735]
 [ 0.70874625]
 [ 0.8466084 ]
 [-0.17958908]
 [ 0.87779266]
 [-0.784099  ]
 [ 0.96909076]
 [-0.9474088 ]
 [-0.9163236 ]
 [ 0.79770774]
 [ 0.66471153]
 [ 0.8724303 ]
 [-0.5396888 ]
 [ 0.8076215 ]
 [-0.9639507 ]
 [-0.67352355]
 [-0.708923  ]
 [ 0.89262784]
 [-0.8529672 ]
 [-0.9260015 ]
 [-0.4106249 ]
 [ 0.83168584]
 [-0.8030524 ]
 [ 0.6015139 ]
 [ 0.17423393]
 [ 1.0971646 ]
 [ 0.9319455 ]
 [-0.9005272 ]
 [-1.006071  ]
 [-0.03421891]
 [-0.8362038 ]
 [-0.99113613]
 [-0.9244415 ]
 [-1.0513436 ]
 [-0.37145934]
 [ 0.74506867]
 [-0.8885083 ]
 [-0.90140396]
 [-0.8396022 ]
 [ 0.9769106 ]
 [-0.8961536 ]
 [ 0.26622263]
 [ 0.23282133]
 [ 0.7918264 ]
 [ 1.023502  ]
 [-1.0245906 ]
 [ 0.90467507]
 [-0.98643357]
 [-0.97922647]
 [ 0.24178052]
 [-0.52235657]
 [ 0.97815216]
 [-0.8279193 ]
 [ 0.7084242 ]
 [-1.0418285 ]
 [ 0.52540463]
 [ 0.11739431]
 [ 0.9746644 ]
 [ 0.5335272 ]
 [ 0.8930288 ]
 [ 0.9127047 ]
 [ 0.6792402 ]
 [-0.64527303]
 [ 0.9511661 ]
 [ 0.44834763]
 [-0.82507354]
 [ 0.28431028]
 [ 0.27917618]
 [-0.61649936]
 [-1.0474639 ]
 [ 0.6194549 ]
 [ 0.77271605]
 [ 0.43421483]
 [ 0.5552156 ]
 [-0.8514432 ]
 [ 0.39822346]
 [-0.56685483]
 [-0.5887971 ]
 [-0.480529  ]
 [-0.53670454]
 [-0.89504486]
 [-0.75383216]
 [ 0.8395141 ]
 [-0.30842587]
 [ 0.8894948 ]
 [-0.14100198]
 [ 0.8479262 ]
 [ 0.85452604]
 [ 0.57938975]
 [ 0.7609436 ]
 [-0.90235   ]]

Layer 4:
[0.61202323]



Entrenamiento 4:
------------------------------------------------------------------------

Layer 0:
[[-5.9497184e-03  6.8907975e-03 -2.0082474e-03 ... -6.1479928e-03
   1.4505376e-02 -1.5339982e-02]
 [ 3.5950555e-03 -1.1577015e-02  5.8927746e-03 ... -7.5460756e-03
   4.9159557e-05 -2.0939859e-03]
 [ 2.2965634e-02  0.0000000e+00  3.3393521e-03 ... -1.0200804e-02
   8.8912267e-03  1.7322421e-02]
 ...
 [-7.0379549e-03 -1.7556862e-03  1.5069939e-03 ...  6.0830577e-03
  -4.5498582e-03 -9.3167806e-03]
 [-6.2490744e-03 -4.2922333e-02 -2.7820054e-02 ... -3.7383807e-03
   7.4023474e-03  6.6191219e-03]
 [-1.0772775e-02 -2.5641458e-02 -9.1939541e-03 ...  1.3981565e-02
  -6.1870101e-03 -6.8973978e-03]]

Layer 1:
[[ 0.02053715 -0.01500328 -0.00450382  0.02258415  0.01384897 -0.01304078
  -0.02749345  0.03012379  0.00934361 -0.01996742  0.01034174  0.01845121
  -0.00268499  0.01582231 -0.00882877  0.02938231 -0.02533024 -0.02983626
   0.01422812  0.0093371   0.0145105  -0.00554345  0.01211341 -0.04199008
  -0.00768596 -0.01279173  0.01889336 -0.02095355 -0.02642657 -0.0022216
   0.01674908 -0.01637159  0.00611524  0.00054864  0.03268695  0.01972841
  -0.02043349 -0.0423712  -0.00197217 -0.0141298  -0.02844498 -0.02943866
  -0.04076878 -0.00545871  0.01093559 -0.02183487 -0.02268152 -0.01521065
   0.03067893 -0.02084015  0.00217638  0.0039037   0.01187944  0.03578078
  -0.03454102  0.02170247 -0.03866326 -0.03095235  0.00195549 -0.00309031
   0.01945334 -0.01908052  0.01035316 -0.03717191  0.00601217  0.00062411
   0.02274715  0.00531369  0.0149876   0.02318494  0.01000766 -0.00660358
   0.02593771  0.00440372 -0.0111195   0.0014657   0.00143842 -0.00837203
  -0.03812733  0.0068473   0.01057112  0.00382105  0.00351325 -0.01322723
   0.00476874 -0.00657344 -0.00605783 -0.00568751 -0.00638911 -0.03542313
  -0.01136271  0.01642297 -0.00259511  0.02890752 -0.00015601  0.01562791
   0.02073557  0.00592094  0.00973095 -0.02727904]]

Layer 2:
[0. 0. 0. 0. 0. 0. 0. 0. 0. 0. 0. 0. 0. 0. 0. 0. 0. 0. 0. 0. 0. 0. 0. 0.
 0. 0. 0. 0. 0. 0. 0. 0. 0. 0. 0. 0. 0. 0. 0. 0. 0. 0. 0. 0. 0. 0. 0. 0.
 0. 0. 0. 0. 0. 0. 0. 0. 0. 0. 0. 0. 0. 0. 0. 0. 0. 0. 0. 0. 0. 0. 0. 0.
 0. 0. 0. 0. 0. 0. 0. 0. 0. 0. 0. 0. 0. 0. 0. 0. 0. 0. 0. 0. 0. 0. 0. 0.
 0. 0. 0. 0.]

Layer 3:
[[ 0.89212054]
 [-0.76302165]
 [-0.52832264]
 [ 0.94942087]
 [ 0.8031135 ]
 [-0.8303472 ]
 [-0.88743687]
 [ 0.975609  ]
 [ 0.6898844 ]
 [-0.95700735]
 [ 0.70874625]
 [ 0.8466084 ]
 [-0.17958908]
 [ 0.87779266]
 [-0.784099  ]
 [ 0.96909076]
 [-0.9474088 ]
 [-0.9163236 ]
 [ 0.79770774]
 [ 0.66471153]
 [ 0.8724303 ]
 [-0.5396888 ]
 [ 0.8076215 ]
 [-0.9639507 ]
 [-0.67352355]
 [-0.708923  ]
 [ 0.89262784]
 [-0.8529672 ]
 [-0.9260015 ]
 [-0.4106249 ]
 [ 0.83168584]
 [-0.8030524 ]
 [ 0.6015139 ]
 [ 0.17423393]
 [ 1.0971646 ]
 [ 0.9319455 ]
 [-0.9005272 ]
 [-1.006071  ]
 [-0.03421891]
 [-0.8362038 ]
 [-0.99113613]
 [-0.9244415 ]
 [-1.0513436 ]
 [-0.37145934]
 [ 0.74506867]
 [-0.8885083 ]
 [-0.90140396]
 [-0.8396022 ]
 [ 0.9769106 ]
 [-0.8961536 ]
 [ 0.26622263]
 [ 0.23282133]
 [ 0.7918264 ]
 [ 1.023502  ]
 [-1.0245906 ]
 [ 0.90467507]
 [-0.98643357]
 [-0.97922647]
 [ 0.24178052]
 [-0.52235657]
 [ 0.97815216]
 [-0.8279193 ]
 [ 0.7084242 ]
 [-1.0418285 ]
 [ 0.52540463]
 [ 0.11739431]
 [ 0.9746644 ]
 [ 0.5335272 ]
 [ 0.8930288 ]
 [ 0.9127047 ]
 [ 0.6792402 ]
 [-0.64527303]
 [ 0.9511661 ]
 [ 0.44834763]
 [-0.82507354]
 [ 0.28431028]
 [ 0.27917618]
 [-0.61649936]
 [-1.0474639 ]
 [ 0.6194549 ]
 [ 0.77271605]
 [ 0.43421483]
 [ 0.5552156 ]
 [-0.8514432 ]
 [ 0.39822346]
 [-0.56685483]
 [-0.5887971 ]
 [-0.480529  ]
 [-0.53670454]
 [-0.89504486]
 [-0.75383216]
 [ 0.8395141 ]
 [-0.30842587]
 [ 0.8894948 ]
 [-0.14100198]
 [ 0.8479262 ]
 [ 0.85452604]
 [ 0.57938975]
 [ 0.7609436 ]
 [-0.90235   ]]

Layer 4:
[0.05784998]



Consenso 4:
------------------------------------------------------------------------

Layer 0:
[[-5.9497179e-03  6.8907971e-03 -2.0082474e-03 ... -6.1479928e-03
   1.4505376e-02 -1.5339982e-02]
 [ 3.5950555e-03 -1.1577015e-02  5.8927746e-03 ... -7.5460761e-03
   4.9165123e-05 -2.0939857e-03]
 [ 2.2965634e-02  0.0000000e+00  3.3393523e-03 ... -1.0200804e-02
   8.8912267e-03  1.7322421e-02]
 ...
 [-7.0379544e-03 -1.7556861e-03  1.5069850e-03 ...  6.0830577e-03
  -4.5498582e-03 -9.3167806e-03]
 [-6.2490744e-03 -4.2922333e-02 -2.7820054e-02 ... -3.7383812e-03
   7.4023474e-03  6.6191214e-03]
 [-1.0772776e-02 -2.5641458e-02 -9.1939541e-03 ...  1.3981565e-02
  -6.1870096e-03 -6.8973978e-03]]

Layer 1:
[[ 0.02053715 -0.01500328 -0.00450382  0.02258415  0.01384897 -0.01304078
  -0.02749345  0.03012379  0.00934361 -0.01996742  0.01034174  0.01845121
  -0.00268499  0.01582231 -0.00882877  0.02938231 -0.02533024 -0.02983626
   0.01422812  0.0093371   0.0145105  -0.00554345  0.01211341 -0.04199008
  -0.00768596 -0.01279173  0.01889336 -0.02095355 -0.02642657 -0.0022216
   0.01674908 -0.01637159  0.00611524  0.00054864  0.03268695  0.01972841
  -0.02043349 -0.0423712  -0.00197217 -0.0141298  -0.02844498 -0.02943866
  -0.04076878 -0.00545872  0.01093559 -0.02183487 -0.02268152 -0.01521065
   0.03067893 -0.02084015  0.00217638  0.00390371  0.01187944  0.03578078
  -0.03454102  0.02170247 -0.03866326 -0.03095235  0.00195549 -0.00309031
   0.01945334 -0.01908052  0.01035316 -0.03717191  0.00601217  0.00062412
   0.02274715  0.00531369  0.0149876   0.02318494  0.01000766 -0.00660358
   0.02593771  0.00440372 -0.0111195   0.00146571  0.00143843 -0.00837203
  -0.03812733  0.0068473   0.01057112  0.00382104  0.00351325 -0.01322723
   0.00476874 -0.00657344 -0.00605783 -0.00568751 -0.0063891  -0.03542313
  -0.01136271  0.01642297 -0.00259511  0.02890752 -0.00015599  0.01562791
   0.02073557  0.00592094  0.00973095 -0.02727904]]

Layer 2:
[0. 0. 0. 0. 0. 0. 0. 0. 0. 0. 0. 0. 0. 0. 0. 0. 0. 0. 0. 0. 0. 0. 0. 0.
 0. 0. 0. 0. 0. 0. 0. 0. 0. 0. 0. 0. 0. 0. 0. 0. 0. 0. 0. 0. 0. 0. 0. 0.
 0. 0. 0. 0. 0. 0. 0. 0. 0. 0. 0. 0. 0. 0. 0. 0. 0. 0. 0. 0. 0. 0. 0. 0.
 0. 0. 0. 0. 0. 0. 0. 0. 0. 0. 0. 0. 0. 0. 0. 0. 0. 0. 0. 0. 0. 0. 0. 0.
 0. 0. 0. 0.]

Layer 3:
[[ 0.92065567]
 [-0.8451235 ]
 [-0.60997164]
 [ 0.97617257]
 [ 0.87943566]
 [-0.8995253 ]
 [-0.9170754 ]
 [ 0.97943074]
 [ 0.7860508 ]
 [-1.0001688 ]
 [ 0.78067255]
 [ 0.9040673 ]
 [-0.23276295]
 [ 0.9302137 ]
 [-0.85232365]
 [ 0.97421217]
 [-0.9703828 ]
 [-0.9348328 ]
 [ 0.85260016]
 [ 0.74236375]
 [ 0.93972343]
 [-0.6089058 ]
 [ 0.86145705]
 [-0.93774307]
 [-0.7595764 ]
 [-0.7938811 ]
 [ 0.9559949 ]
 [-0.921851  ]
 [-0.93793565]
 [-0.4436427 ]
 [ 0.8771406 ]
 [-0.88035625]
 [ 0.68853486]
 [ 0.1971911 ]
 [ 1.0963088 ]
 [ 0.9651314 ]
 [-0.9545414 ]
 [-0.97408766]
 [-0.07456203]
 [-0.89073426]
 [-1.0022535 ]
 [-0.9164345 ]
 [-1.0316851 ]
 [-0.47669294]
 [ 0.83412504]
 [-0.9275046 ]
 [-0.94043255]
 [-0.9129262 ]
 [ 0.99633485]
 [-0.9380697 ]
 [ 0.33520314]
 [ 0.30786744]
 [ 0.86808443]
 [ 1.010849  ]
 [-1.0166534 ]
 [ 0.95255584]
 [-0.96626943]
 [-0.98186994]
 [ 0.27782455]
 [-0.56336045]
 [ 1.0196217 ]
 [-0.8843467 ]
 [ 0.7915397 ]
 [-1.0346086 ]
 [ 0.5941678 ]
 [ 0.14065799]
 [ 1.0113294 ]
 [ 0.60875887]
 [ 0.94999725]
 [ 0.94469744]
 [ 0.7734119 ]
 [-0.70560265]
 [ 0.9802053 ]
 [ 0.52386594]
 [-0.89633006]
 [ 0.29753882]
 [ 0.32086283]
 [-0.7025781 ]
 [-1.039392  ]
 [ 0.7020091 ]
 [ 0.8639501 ]
 [ 0.49564216]
 [ 0.60625666]
 [-0.91261077]
 [ 0.47997132]
 [-0.6637956 ]
 [-0.6646215 ]
 [-0.5486801 ]
 [-0.6224092 ]
 [-0.8870839 ]
 [-0.8196241 ]
 [ 0.88150316]
 [-0.35773626]
 [ 0.8976549 ]
 [-0.14830394]
 [ 0.9064021 ]
 [ 0.9000618 ]
 [ 0.6646065 ]
 [ 0.83888066]
 [-0.9231949 ]]

Layer 4:
[0.37602636]



Entrenamiento 5:
------------------------------------------------------------------------

Layer 0:
[[-5.9497179e-03  6.8907971e-03 -2.0082474e-03 ... -6.1479928e-03
   1.4505376e-02 -1.5339982e-02]
 [ 3.5950555e-03 -1.1577015e-02  5.8927746e-03 ... -7.5460761e-03
   4.9165123e-05 -2.0939857e-03]
 [ 2.2965634e-02  0.0000000e+00  3.3393523e-03 ... -1.0200804e-02
   8.8912267e-03  1.7322421e-02]
 ...
 [-7.0379544e-03 -1.7556861e-03  1.5069850e-03 ...  6.0830577e-03
  -4.5498582e-03 -9.3167806e-03]
 [-6.2490744e-03 -4.2922333e-02 -2.7820054e-02 ... -3.7383812e-03
   7.4023474e-03  6.6191214e-03]
 [-1.0772776e-02 -2.5641458e-02 -9.1939541e-03 ...  1.3981565e-02
  -6.1870096e-03 -6.8973978e-03]]

Layer 1:
[[ 0.02053715 -0.01500328 -0.00450382  0.02258415  0.01384897 -0.01304078
  -0.02749345  0.03012379  0.00934361 -0.01996742  0.01034174  0.01845121
  -0.00268499  0.01582231 -0.00882877  0.02938231 -0.02533024 -0.02983626
   0.01422812  0.0093371   0.0145105  -0.00554345  0.01211341 -0.04199008
  -0.00768596 -0.01279173  0.01889336 -0.02095355 -0.02642657 -0.0022216
   0.01674908 -0.01637159  0.00611524  0.00054864  0.03268695  0.01972841
  -0.02043349 -0.0423712  -0.00197217 -0.0141298  -0.02844498 -0.02943866
  -0.04076878 -0.00545872  0.01093559 -0.02183487 -0.02268152 -0.01521065
   0.03067893 -0.02084015  0.00217638  0.00390371  0.01187944  0.03578078
  -0.03454102  0.02170247 -0.03866326 -0.03095235  0.00195549 -0.00309031
   0.01945334 -0.01908052  0.01035316 -0.03717191  0.00601217  0.00062412
   0.02274715  0.00531369  0.0149876   0.02318494  0.01000766 -0.00660358
   0.02593771  0.00440372 -0.0111195   0.00146571  0.00143843 -0.00837203
  -0.03812733  0.0068473   0.01057112  0.00382104  0.00351325 -0.01322723
   0.00476874 -0.00657344 -0.00605783 -0.00568751 -0.0063891  -0.03542313
  -0.01136271  0.01642297 -0.00259511  0.02890752 -0.00015599  0.01562791
   0.02073557  0.00592094  0.00973095 -0.02727904]]

Layer 2:
[0. 0. 0. 0. 0. 0. 0. 0. 0. 0. 0. 0. 0. 0. 0. 0. 0. 0. 0. 0. 0. 0. 0. 0.
 0. 0. 0. 0. 0. 0. 0. 0. 0. 0. 0. 0. 0. 0. 0. 0. 0. 0. 0. 0. 0. 0. 0. 0.
 0. 0. 0. 0. 0. 0. 0. 0. 0. 0. 0. 0. 0. 0. 0. 0. 0. 0. 0. 0. 0. 0. 0. 0.
 0. 0. 0. 0. 0. 0. 0. 0. 0. 0. 0. 0. 0. 0. 0. 0. 0. 0. 0. 0. 0. 0. 0. 0.
 0. 0. 0. 0.]

Layer 3:
[[ 0.92065567]
 [-0.8451235 ]
 [-0.60997164]
 [ 0.97617257]
 [ 0.87943566]
 [-0.8995253 ]
 [-0.9170754 ]
 [ 0.97943074]
 [ 0.7860508 ]
 [-1.0001688 ]
 [ 0.78067255]
 [ 0.9040673 ]
 [-0.23276295]
 [ 0.9302137 ]
 [-0.85232365]
 [ 0.97421217]
 [-0.9703828 ]
 [-0.9348328 ]
 [ 0.85260016]
 [ 0.74236375]
 [ 0.93972343]
 [-0.6089058 ]
 [ 0.86145705]
 [-0.93774307]
 [-0.7595764 ]
 [-0.7938811 ]
 [ 0.9559949 ]
 [-0.921851  ]
 [-0.93793565]
 [-0.4436427 ]
 [ 0.8771406 ]
 [-0.88035625]
 [ 0.68853486]
 [ 0.1971911 ]
 [ 1.0963088 ]
 [ 0.9651314 ]
 [-0.9545414 ]
 [-0.97408766]
 [-0.07456203]
 [-0.89073426]
 [-1.0022535 ]
 [-0.9164345 ]
 [-1.0316851 ]
 [-0.47669294]
 [ 0.83412504]
 [-0.9275046 ]
 [-0.94043255]
 [-0.9129262 ]
 [ 0.99633485]
 [-0.9380697 ]
 [ 0.33520314]
 [ 0.30786744]
 [ 0.86808443]
 [ 1.010849  ]
 [-1.0166534 ]
 [ 0.95255584]
 [-0.96626943]
 [-0.98186994]
 [ 0.27782455]
 [-0.56336045]
 [ 1.0196217 ]
 [-0.8843467 ]
 [ 0.7915397 ]
 [-1.0346086 ]
 [ 0.5941678 ]
 [ 0.14065799]
 [ 1.0113294 ]
 [ 0.60875887]
 [ 0.94999725]
 [ 0.94469744]
 [ 0.7734119 ]
 [-0.70560265]
 [ 0.9802053 ]
 [ 0.52386594]
 [-0.89633006]
 [ 0.29753882]
 [ 0.32086283]
 [-0.7025781 ]
 [-1.039392  ]
 [ 0.7020091 ]
 [ 0.8639501 ]
 [ 0.49564216]
 [ 0.60625666]
 [-0.91261077]
 [ 0.47997132]
 [-0.6637956 ]
 [-0.6646215 ]
 [-0.5486801 ]
 [-0.6224092 ]
 [-0.8870839 ]
 [-0.8196241 ]
 [ 0.88150316]
 [-0.35773626]
 [ 0.8976549 ]
 [-0.14830394]
 [ 0.9064021 ]
 [ 0.9000618 ]
 [ 0.6646065 ]
 [ 0.83888066]
 [-0.9231949 ]]

Layer 4:
[-6.351853e-06]



Consenso 5:
------------------------------------------------------------------------

Layer 0:
[[-5.9497179e-03  6.8907971e-03 -2.0082474e-03 ... -6.1479928e-03
   1.4505376e-02 -1.5339982e-02]
 [ 3.5950555e-03 -1.1577015e-02  5.8927746e-03 ... -7.5460761e-03
   4.9165210e-05 -2.0939857e-03]
 [ 2.2965634e-02  0.0000000e+00  3.3393523e-03 ... -1.0200804e-02
   8.8912267e-03  1.7322421e-02]
 ...
 [-7.0379544e-03 -1.7556861e-03  1.5069850e-03 ...  6.0830577e-03
  -4.5498582e-03 -9.3167806e-03]
 [-6.2490744e-03 -4.2922333e-02 -2.7820054e-02 ... -3.7383812e-03
   7.4023474e-03  6.6191214e-03]
 [-1.0772776e-02 -2.5641458e-02 -9.1939541e-03 ...  1.3981565e-02
  -6.1870096e-03 -6.8973978e-03]]

Layer 1:
[[ 0.02053715 -0.01500328 -0.00450382  0.02258415  0.01384897 -0.01304078
  -0.02749345  0.03012379  0.00934361 -0.01996742  0.01034174  0.01845121
  -0.00268499  0.01582231 -0.00882877  0.02938231 -0.02533024 -0.02983626
   0.01422812  0.0093371   0.0145105  -0.00554345  0.01211341 -0.04199008
  -0.00768596 -0.01279173  0.01889336 -0.02095355 -0.02642657 -0.0022216
   0.01674908 -0.01637159  0.00611524  0.00054864  0.03268695  0.01972841
  -0.02043349 -0.0423712  -0.00197217 -0.0141298  -0.02844498 -0.02943866
  -0.04076878 -0.00545872  0.01093559 -0.02183487 -0.02268152 -0.01521065
   0.03067893 -0.02084015  0.00217638  0.00390371  0.01187944  0.03578078
  -0.03454102  0.02170247 -0.03866326 -0.03095235  0.00195549 -0.00309031
   0.01945334 -0.01908052  0.01035316 -0.03717191  0.00601217  0.00062412
   0.02274715  0.00531369  0.0149876   0.02318494  0.01000766 -0.00660358
   0.02593771  0.00440372 -0.0111195   0.00146571  0.00143843 -0.00837203
  -0.03812733  0.0068473   0.01057112  0.00382104  0.00351325 -0.01322723
   0.00476874 -0.00657344 -0.00605783 -0.00568751 -0.0063891  -0.03542313
  -0.01136271  0.01642297 -0.00259511  0.02890752 -0.00015599  0.01562791
   0.02073557  0.00592094  0.00973095 -0.02727904]]

Layer 2:
[0. 0. 0. 0. 0. 0. 0. 0. 0. 0. 0. 0. 0. 0. 0. 0. 0. 0. 0. 0. 0. 0. 0. 0.
 0. 0. 0. 0. 0. 0. 0. 0. 0. 0. 0. 0. 0. 0. 0. 0. 0. 0. 0. 0. 0. 0. 0. 0.
 0. 0. 0. 0. 0. 0. 0. 0. 0. 0. 0. 0. 0. 0. 0. 0. 0. 0. 0. 0. 0. 0. 0. 0.
 0. 0. 0. 0. 0. 0. 0. 0. 0. 0. 0. 0. 0. 0. 0. 0. 0. 0. 0. 0. 0. 0. 0. 0.
 0. 0. 0. 0.]

Layer 3:
[[ 0.92691547]
 [-0.9121629 ]
 [-0.68557113]
 [ 0.9807187 ]
 [ 0.9391488 ]
 [-0.95145845]
 [-0.92342883]
 [ 0.95805573]
 [ 0.8715474 ]
 [-1.0229446 ]
 [ 0.83775806]
 [ 0.9420366 ]
 [-0.28729722]
 [ 0.96265876]
 [-0.90611416]
 [ 0.95491874]
 [-0.9706417 ]
 [-0.92938536]
 [ 0.8890314 ]
 [ 0.8065391 ]
 [ 0.98909587]
 [-0.6696933 ]
 [ 0.8967676 ]
 [-0.8848071 ]
 [-0.83501136]
 [-0.86419374]
 [ 1.000001  ]
 [-0.9717596 ]
 [-0.92662734]
 [-0.46681654]
 [ 0.90216523]
 [-0.9406644 ]
 [ 0.76547533]
 [ 0.21645063]
 [ 1.0700575 ]
 [ 0.9770792 ]
 [-0.98834765]
 [-0.91575   ]
 [-0.11821076]
 [-0.9273545 ]
 [-0.9891382 ]
 [-0.8834582 ]
 [-0.9861137 ]
 [-0.5848008 ]
 [ 0.90924287]
 [-0.9452246 ]
 [-0.95823747]
 [-0.9696187 ]
 [ 0.99224025]
 [-0.9587732 ]
 [ 0.4035649 ]
 [ 0.38354686]
 [ 0.92914397]
 [ 0.9725166 ]
 [-0.983355  ]
 [ 0.9803409 ]
 [-0.9206803 ]
 [-0.95980394]
 [ 0.31068513]
 [-0.59277594]
 [ 1.0398376 ]
 [-0.92082983]
 [ 0.8615763 ]
 [-1.0016015 ]
 [ 0.653133  ]
 [ 0.1651321 ]
 [ 1.026675  ]
 [ 0.67829543]
 [ 0.9882962 ]
 [ 0.95473236]
 [ 0.8548615 ]
 [-0.75133157]
 [ 0.9859072 ]
 [ 0.59422886]
 [-0.9528824 ]
 [ 0.3066551 ]
 [ 0.36116257]
 [-0.77829194]
 [-1.0056742 ]
 [ 0.77352625]
 [ 0.9439071 ]
 [ 0.5505034 ]
 [ 0.6456834 ]
 [-0.9566311 ]
 [ 0.5615365 ]
 [-0.75447494]
 [-0.7307381 ]
 [-0.6077347 ]
 [-0.6997838 ]
 [-0.85345155]
 [-0.86891794]
 [ 0.90384257]
 [-0.40399706]
 [ 0.88130844]
 [-0.15050116]
 [ 0.94680005]
 [ 0.9246488 ]
 [ 0.7420892 ]
 [ 0.90214306]
 [-0.92075396]]

Layer 4:
[0.1809242]



Entrenamiento 6:
------------------------------------------------------------------------

Layer 0:
[[-5.9497179e-03  6.8907971e-03 -2.0082474e-03 ... -6.1479928e-03
   1.4505376e-02 -1.5339982e-02]
 [ 3.5950555e-03 -1.1577015e-02  5.8927746e-03 ... -7.5460761e-03
   4.9165210e-05 -2.0939857e-03]
 [ 2.2965634e-02  0.0000000e+00  3.3393523e-03 ... -1.0200804e-02
   8.8912267e-03  1.7322421e-02]
 ...
 [-7.0379544e-03 -1.7556861e-03  1.5069850e-03 ...  6.0830577e-03
  -4.5498582e-03 -9.3167806e-03]
 [-6.2490744e-03 -4.2922333e-02 -2.7820054e-02 ... -3.7383812e-03
   7.4023474e-03  6.6191214e-03]
 [-1.0772776e-02 -2.5641458e-02 -9.1939541e-03 ...  1.3981565e-02
  -6.1870096e-03 -6.8973978e-03]]

Layer 1:
[[ 0.02053715 -0.01500328 -0.00450382  0.02258415  0.01384897 -0.01304078
  -0.02749345  0.03012379  0.00934361 -0.01996742  0.01034174  0.01845121
  -0.00268499  0.01582231 -0.00882877  0.02938231 -0.02533024 -0.02983626
   0.01422812  0.0093371   0.0145105  -0.00554345  0.01211341 -0.04199008
  -0.00768596 -0.01279173  0.01889336 -0.02095355 -0.02642657 -0.0022216
   0.01674908 -0.01637159  0.00611524  0.00054864  0.03268695  0.01972841
  -0.02043349 -0.0423712  -0.00197217 -0.0141298  -0.02844498 -0.02943866
  -0.04076878 -0.00545872  0.01093559 -0.02183487 -0.02268152 -0.01521065
   0.03067893 -0.02084015  0.00217638  0.00390371  0.01187944  0.03578078
  -0.03454102  0.02170247 -0.03866326 -0.03095235  0.00195549 -0.00309031
   0.01945334 -0.01908052  0.01035316 -0.03717191  0.00601217  0.00062412
   0.02274715  0.00531369  0.0149876   0.02318494  0.01000766 -0.00660358
   0.02593771  0.00440372 -0.0111195   0.00146571  0.00143843 -0.00837203
  -0.03812733  0.0068473   0.01057112  0.00382104  0.00351325 -0.01322723
   0.00476874 -0.00657344 -0.00605783 -0.00568751 -0.0063891  -0.03542313
  -0.01136271  0.01642297 -0.00259511  0.02890752 -0.00015599  0.01562791
   0.02073557  0.00592094  0.00973095 -0.02727904]]

Layer 2:
[0. 0. 0. 0. 0. 0. 0. 0. 0. 0. 0. 0. 0. 0. 0. 0. 0. 0. 0. 0. 0. 0. 0. 0.
 0. 0. 0. 0. 0. 0. 0. 0. 0. 0. 0. 0. 0. 0. 0. 0. 0. 0. 0. 0. 0. 0. 0. 0.
 0. 0. 0. 0. 0. 0. 0. 0. 0. 0. 0. 0. 0. 0. 0. 0. 0. 0. 0. 0. 0. 0. 0. 0.
 0. 0. 0. 0. 0. 0. 0. 0. 0. 0. 0. 0. 0. 0. 0. 0. 0. 0. 0. 0. 0. 0. 0. 0.
 0. 0. 0. 0.]

Layer 3:
[[ 0.92691547]
 [-0.9121629 ]
 [-0.68557113]
 [ 0.9807187 ]
 [ 0.9391488 ]
 [-0.95145845]
 [-0.92342883]
 [ 0.95805573]
 [ 0.8715474 ]
 [-1.0229446 ]
 [ 0.83775806]
 [ 0.9420366 ]
 [-0.28729722]
 [ 0.96265876]
 [-0.90611416]
 [ 0.95491874]
 [-0.9706417 ]
 [-0.92938536]
 [ 0.8890314 ]
 [ 0.8065391 ]
 [ 0.98909587]
 [-0.6696933 ]
 [ 0.8967676 ]
 [-0.8848071 ]
 [-0.83501136]
 [-0.86419374]
 [ 1.000001  ]
 [-0.9717596 ]
 [-0.92662734]
 [-0.46681654]
 [ 0.90216523]
 [-0.9406644 ]
 [ 0.76547533]
 [ 0.21645063]
 [ 1.0700575 ]
 [ 0.9770792 ]
 [-0.98834765]
 [-0.91575   ]
 [-0.11821076]
 [-0.9273545 ]
 [-0.9891382 ]
 [-0.8834582 ]
 [-0.9861137 ]
 [-0.5848008 ]
 [ 0.90924287]
 [-0.9452246 ]
 [-0.95823747]
 [-0.9696187 ]
 [ 0.99224025]
 [-0.9587732 ]
 [ 0.4035649 ]
 [ 0.38354686]
 [ 0.92914397]
 [ 0.9725166 ]
 [-0.983355  ]
 [ 0.9803409 ]
 [-0.9206803 ]
 [-0.95980394]
 [ 0.31068513]
 [-0.59277594]
 [ 1.0398376 ]
 [-0.92082983]
 [ 0.8615763 ]
 [-1.0016015 ]
 [ 0.653133  ]
 [ 0.1651321 ]
 [ 1.026675  ]
 [ 0.67829543]
 [ 0.9882962 ]
 [ 0.95473236]
 [ 0.8548615 ]
 [-0.75133157]
 [ 0.9859072 ]
 [ 0.59422886]
 [-0.9528824 ]
 [ 0.3066551 ]
 [ 0.36116257]
 [-0.77829194]
 [-1.0056742 ]
 [ 0.77352625]
 [ 0.9439071 ]
 [ 0.5505034 ]
 [ 0.6456834 ]
 [-0.9566311 ]
 [ 0.5615365 ]
 [-0.75447494]
 [-0.7307381 ]
 [-0.6077347 ]
 [-0.6997838 ]
 [-0.85345155]
 [-0.86891794]
 [ 0.90384257]
 [-0.40399706]
 [ 0.88130844]
 [-0.15050116]
 [ 0.94680005]
 [ 0.9246488 ]
 [ 0.7420892 ]
 [ 0.90214306]
 [-0.92075396]]

Layer 4:
[0.00048839]



Consenso 6:
------------------------------------------------------------------------

Layer 0:
[[-5.9497179e-03  6.8907971e-03 -2.0082474e-03 ... -6.1479928e-03
   1.4505376e-02 -1.5339982e-02]
 [ 3.5950555e-03 -1.1577015e-02  5.8927746e-03 ... -7.5460761e-03
   4.9165210e-05 -2.0939857e-03]
 [ 2.2965634e-02  0.0000000e+00  3.3393523e-03 ... -1.0200804e-02
   8.8912267e-03  1.7322421e-02]
 ...
 [-7.0379544e-03 -1.7556861e-03  1.5069850e-03 ...  6.0830577e-03
  -4.5498582e-03 -9.3167806e-03]
 [-6.2490744e-03 -4.2922333e-02 -2.7820054e-02 ... -3.7383812e-03
   7.4023474e-03  6.6191214e-03]
 [-1.0772776e-02 -2.5641458e-02 -9.1939541e-03 ...  1.3981565e-02
  -6.1870096e-03 -6.8973978e-03]]

Layer 1:
[[ 0.02053715 -0.01500328 -0.00450382  0.02258415  0.01384897 -0.01304078
  -0.02749345  0.03012379  0.00934361 -0.01996742  0.01034174  0.01845121
  -0.00268499  0.01582231 -0.00882877  0.02938231 -0.02533024 -0.02983626
   0.01422812  0.0093371   0.0145105  -0.00554345  0.01211341 -0.04199008
  -0.00768596 -0.01279173  0.01889336 -0.02095355 -0.02642657 -0.0022216
   0.01674908 -0.01637159  0.00611524  0.00054864  0.03268695  0.01972841
  -0.02043349 -0.0423712  -0.00197217 -0.0141298  -0.02844498 -0.02943866
  -0.04076878 -0.00545872  0.01093559 -0.02183487 -0.02268152 -0.01521065
   0.03067893 -0.02084015  0.00217638  0.00390371  0.01187944  0.03578078
  -0.03454102  0.02170247 -0.03866326 -0.03095235  0.00195549 -0.00309031
   0.01945334 -0.01908052  0.01035316 -0.03717191  0.00601217  0.00062412
   0.02274715  0.00531369  0.0149876   0.02318494  0.01000766 -0.00660358
   0.02593771  0.00440372 -0.0111195   0.00146571  0.00143843 -0.00837203
  -0.03812733  0.0068473   0.01057112  0.00382104  0.00351325 -0.01322723
   0.00476874 -0.00657344 -0.00605783 -0.00568751 -0.0063891  -0.03542313
  -0.01136271  0.01642297 -0.00259511  0.02890752 -0.00015599  0.01562791
   0.02073557  0.00592094  0.00973095 -0.02727904]]

Layer 2:
[0. 0. 0. 0. 0. 0. 0. 0. 0. 0. 0. 0. 0. 0. 0. 0. 0. 0. 0. 0. 0. 0. 0. 0.
 0. 0. 0. 0. 0. 0. 0. 0. 0. 0. 0. 0. 0. 0. 0. 0. 0. 0. 0. 0. 0. 0. 0. 0.
 0. 0. 0. 0. 0. 0. 0. 0. 0. 0. 0. 0. 0. 0. 0. 0. 0. 0. 0. 0. 0. 0. 0. 0.
 0. 0. 0. 0. 0. 0. 0. 0. 0. 0. 0. 0. 0. 0. 0. 0. 0. 0. 0. 0. 0. 0. 0. 0.
 0. 0. 0. 0.]

Layer 3:
[[ 0.9247845 ]
 [-0.9742704 ]
 [-0.76045734]
 [ 0.9768346 ]
 [ 0.9934958 ]
 [-0.99735814]
 [-0.92056453]
 [ 0.92637545]
 [ 0.9542563 ]
 [-1.0386376 ]
 [ 0.8902248 ]
 [ 0.97291076]
 [-0.34462187]
 [ 0.9877199 ]
 [-0.9556116 ]
 [ 0.92618084]
 [-0.9620391 ]
 [-0.9143772 ]
 [ 0.9189913 ]
 [ 0.8665652 ]
 [ 1.0325307 ]
 [-0.7284978 ]
 [ 0.9255681 ]
 [-0.82034934]
 [-0.90831524]
 [-0.9297571 ]
 [ 1.0369694 ]
 [-1.0150958 ]
 [-0.9062666 ]
 [-0.48624495]
 [ 0.9197511 ]
 [-0.99533325]
 [ 0.8396908 ]
 [ 0.234756  ]
 [ 1.0335579 ]
 [ 0.9813068 ]
 [-1.0148789 ]
 [-0.8462075 ]
 [-0.16528897]
 [-0.95781446]
 [-0.9663155 ]
 [-0.8404171 ]
 [-0.92951924]
 [-0.6975897 ]
 [ 0.9801669 ]
 [-0.95491713]
 [-0.9680781 ]
 [-1.020761  ]
 [ 0.97888273]
 [-0.9714834 ]
 [ 0.47356662]
 [ 0.4622751 ]
 [ 0.9851166 ]
 [ 0.9235574 ]
 [-0.9396306 ]
 [ 1.0010939 ]
 [-0.8644659 ]
 [-0.9276935 ]
 [ 0.34329382]
 [-0.6181395 ]
 [ 1.0521996 ]
 [-0.9500972 ]
 [ 0.92760664]
 [-0.9577053 ]
 [ 0.7094613 ]
 [ 0.19130416]
 [ 1.0340894 ]
 [ 0.74694085]
 [ 1.0202502 ]
 [ 0.956448  ]
 [ 0.93260515]
 [-0.7921866 ]
 [ 0.9825491 ]
 [ 0.6643539 ]
 [-1.004963  ]
 [ 0.31444263]
 [ 0.40244213]
 [-0.8511293 ]
 [-0.96123195]
 [ 0.8419202 ]
 [ 1.0208619 ]
 [ 0.6039998 ]
 [ 0.6814728 ]
 [-0.9949243 ]
 [ 0.6457369 ]
 [-0.8447335 ]
 [-0.7943542 ]
 [-0.66415304]
 [-0.77548   ]
 [-0.80908924]
 [-0.91264707]
 [ 0.91953045]
 [-0.45028546]
 [ 0.85510164]
 [-0.1503881 ]
 [ 0.98096615]
 [ 0.94167936]
 [ 0.81792945]
 [ 0.96104246]
 [-0.9091274 ]]

Layer 4:
[0.07076562]



Entrenamiento 7:
------------------------------------------------------------------------

Layer 0:
[[-5.9497179e-03  6.8907971e-03 -2.0082474e-03 ... -6.1479928e-03
   1.4505376e-02 -1.5339982e-02]
 [ 3.5950555e-03 -1.1577015e-02  5.8927746e-03 ... -7.5460761e-03
   4.9165210e-05 -2.0939857e-03]
 [ 2.2965634e-02  0.0000000e+00  3.3393523e-03 ... -1.0200804e-02
   8.8912267e-03  1.7322421e-02]
 ...
 [-7.0379544e-03 -1.7556861e-03  1.5069850e-03 ...  6.0830577e-03
  -4.5498582e-03 -9.3167806e-03]
 [-6.2490744e-03 -4.2922333e-02 -2.7820054e-02 ... -3.7383812e-03
   7.4023474e-03  6.6191214e-03]
 [-1.0772776e-02 -2.5641458e-02 -9.1939541e-03 ...  1.3981565e-02
  -6.1870096e-03 -6.8973978e-03]]

Layer 1:
[[ 0.02053715 -0.01500328 -0.00450382  0.02258415  0.01384897 -0.01304078
  -0.02749345  0.03012379  0.00934361 -0.01996742  0.01034174  0.01845121
  -0.00268499  0.01582231 -0.00882877  0.02938231 -0.02533024 -0.02983626
   0.01422812  0.0093371   0.0145105  -0.00554345  0.01211341 -0.04199008
  -0.00768596 -0.01279173  0.01889336 -0.02095355 -0.02642657 -0.0022216
   0.01674908 -0.01637159  0.00611524  0.00054864  0.03268695  0.01972841
  -0.02043349 -0.0423712  -0.00197217 -0.0141298  -0.02844498 -0.02943866
  -0.04076878 -0.00545872  0.01093559 -0.02183487 -0.02268152 -0.01521065
   0.03067893 -0.02084015  0.00217638  0.00390371  0.01187944  0.03578078
  -0.03454102  0.02170247 -0.03866326 -0.03095235  0.00195549 -0.00309031
   0.01945334 -0.01908052  0.01035316 -0.03717191  0.00601217  0.00062412
   0.02274715  0.00531369  0.0149876   0.02318494  0.01000766 -0.00660358
   0.02593771  0.00440372 -0.0111195   0.00146571  0.00143843 -0.00837203
  -0.03812733  0.0068473   0.01057112  0.00382104  0.00351325 -0.01322723
   0.00476874 -0.00657344 -0.00605783 -0.00568751 -0.0063891  -0.03542313
  -0.01136271  0.01642297 -0.00259511  0.02890752 -0.00015599  0.01562791
   0.02073557  0.00592094  0.00973095 -0.02727904]]

Layer 2:
[0. 0. 0. 0. 0. 0. 0. 0. 0. 0. 0. 0. 0. 0. 0. 0. 0. 0. 0. 0. 0. 0. 0. 0.
 0. 0. 0. 0. 0. 0. 0. 0. 0. 0. 0. 0. 0. 0. 0. 0. 0. 0. 0. 0. 0. 0. 0. 0.
 0. 0. 0. 0. 0. 0. 0. 0. 0. 0. 0. 0. 0. 0. 0. 0. 0. 0. 0. 0. 0. 0. 0. 0.
 0. 0. 0. 0. 0. 0. 0. 0. 0. 0. 0. 0. 0. 0. 0. 0. 0. 0. 0. 0. 0. 0. 0. 0.
 0. 0. 0. 0.]

Layer 3:
[[ 0.9247845 ]
 [-0.9742704 ]
 [-0.76045734]
 [ 0.9768346 ]
 [ 0.9934958 ]
 [-0.99735814]
 [-0.92056453]
 [ 0.92637545]
 [ 0.9542563 ]
 [-1.0386376 ]
 [ 0.8902248 ]
 [ 0.97291076]
 [-0.34462187]
 [ 0.9877199 ]
 [-0.9556116 ]
 [ 0.92618084]
 [-0.9620391 ]
 [-0.9143772 ]
 [ 0.9189913 ]
 [ 0.8665652 ]
 [ 1.0325307 ]
 [-0.7284978 ]
 [ 0.9255681 ]
 [-0.82034934]
 [-0.90831524]
 [-0.9297571 ]
 [ 1.0369694 ]
 [-1.0150958 ]
 [-0.9062666 ]
 [-0.48624495]
 [ 0.9197511 ]
 [-0.99533325]
 [ 0.8396908 ]
 [ 0.234756  ]
 [ 1.0335579 ]
 [ 0.9813068 ]
 [-1.0148789 ]
 [-0.8462075 ]
 [-0.16528897]
 [-0.95781446]
 [-0.9663155 ]
 [-0.8404171 ]
 [-0.92951924]
 [-0.6975897 ]
 [ 0.9801669 ]
 [-0.95491713]
 [-0.9680781 ]
 [-1.020761  ]
 [ 0.97888273]
 [-0.9714834 ]
 [ 0.47356662]
 [ 0.4622751 ]
 [ 0.9851166 ]
 [ 0.9235574 ]
 [-0.9396306 ]
 [ 1.0010939 ]
 [-0.8644659 ]
 [-0.9276935 ]
 [ 0.34329382]
 [-0.6181395 ]
 [ 1.0521996 ]
 [-0.9500972 ]
 [ 0.92760664]
 [-0.9577053 ]
 [ 0.7094613 ]
 [ 0.19130416]
 [ 1.0340894 ]
 [ 0.74694085]
 [ 1.0202502 ]
 [ 0.956448  ]
 [ 0.93260515]
 [-0.7921866 ]
 [ 0.9825491 ]
 [ 0.6643539 ]
 [-1.004963  ]
 [ 0.31444263]
 [ 0.40244213]
 [-0.8511293 ]
 [-0.96123195]
 [ 0.8419202 ]
 [ 1.0208619 ]
 [ 0.6039998 ]
 [ 0.6814728 ]
 [-0.9949243 ]
 [ 0.6457369 ]
 [-0.8447335 ]
 [-0.7943542 ]
 [-0.66415304]
 [-0.77548   ]
 [-0.80908924]
 [-0.91264707]
 [ 0.91953045]
 [-0.45028546]
 [ 0.85510164]
 [-0.1503881 ]
 [ 0.98096615]
 [ 0.94167936]
 [ 0.81792945]
 [ 0.96104246]
 [-0.9091274 ]]

Layer 4:
[-3.193796e-05]



Consenso 7:
------------------------------------------------------------------------

Layer 0:
[[-5.9497179e-03  6.8907971e-03 -2.0082474e-03 ... -6.1479928e-03
   1.4505376e-02 -1.5339982e-02]
 [ 3.5950555e-03 -1.1577015e-02  5.8927746e-03 ... -7.5460761e-03
   4.9165210e-05 -2.0939857e-03]
 [ 2.2965634e-02  0.0000000e+00  3.3393523e-03 ... -1.0200804e-02
   8.8912267e-03  1.7322421e-02]
 ...
 [-7.0379544e-03 -1.7556861e-03  1.5069850e-03 ...  6.0830577e-03
  -4.5498582e-03 -9.3167806e-03]
 [-6.2490744e-03 -4.2922333e-02 -2.7820054e-02 ... -3.7383812e-03
   7.4023474e-03  6.6191214e-03]
 [-1.0772776e-02 -2.5641458e-02 -9.1939541e-03 ...  1.3981565e-02
  -6.1870096e-03 -6.8973978e-03]]

Layer 1:
[[ 0.02053715 -0.01500328 -0.00450382  0.02258415  0.01384897 -0.01304078
  -0.02749345  0.03012379  0.00934361 -0.01996742  0.01034174  0.01845121
  -0.00268499  0.01582231 -0.00882877  0.02938231 -0.02533024 -0.02983626
   0.01422812  0.0093371   0.0145105  -0.00554345  0.01211341 -0.04199008
  -0.00768596 -0.01279173  0.01889336 -0.02095355 -0.02642657 -0.0022216
   0.01674908 -0.01637159  0.00611524  0.00054864  0.03268695  0.01972841
  -0.02043349 -0.0423712  -0.00197217 -0.0141298  -0.02844498 -0.02943866
  -0.04076878 -0.00545872  0.01093559 -0.02183487 -0.02268152 -0.01521065
   0.03067893 -0.02084015  0.00217638  0.00390371  0.01187944  0.03578078
  -0.03454102  0.02170247 -0.03866326 -0.03095235  0.00195549 -0.00309031
   0.01945334 -0.01908052  0.01035316 -0.03717191  0.00601217  0.00062412
   0.02274715  0.00531369  0.0149876   0.02318494  0.01000766 -0.00660358
   0.02593771  0.00440372 -0.0111195   0.00146571  0.00143843 -0.00837203
  -0.03812733  0.0068473   0.01057112  0.00382104  0.00351325 -0.01322723
   0.00476874 -0.00657344 -0.00605783 -0.00568751 -0.0063891  -0.03542313
  -0.01136271  0.01642297 -0.00259511  0.02890752 -0.00015599  0.01562791
   0.02073557  0.00592094  0.00973095 -0.02727904]]

Layer 2:
[0. 0. 0. 0. 0. 0. 0. 0. 0. 0. 0. 0. 0. 0. 0. 0. 0. 0. 0. 0. 0. 0. 0. 0.
 0. 0. 0. 0. 0. 0. 0. 0. 0. 0. 0. 0. 0. 0. 0. 0. 0. 0. 0. 0. 0. 0. 0. 0.
 0. 0. 0. 0. 0. 0. 0. 0. 0. 0. 0. 0. 0. 0. 0. 0. 0. 0. 0. 0. 0. 0. 0. 0.
 0. 0. 0. 0. 0. 0. 0. 0. 0. 0. 0. 0. 0. 0. 0. 0. 0. 0. 0. 0. 0. 0. 0. 0.
 0. 0. 0. 0.]

Layer 3:
[[ 0.91863275]
 [-1.0345459 ]
 [-0.8358543 ]
 [ 0.9689233 ]
 [ 1.0454835 ]
 [-1.0407115 ]
 [-0.91300344]
 [ 0.8893932 ]
 [ 1.0362808 ]
 [-1.0515726 ]
 [ 0.9410249 ]
 [ 1.0006522 ]
 [-0.40507442]
 [ 1.0092915 ]
 [-1.0036786 ]
 [ 0.89295816]
 [-0.9492111 ]
 [-0.8946203 ]
 [ 0.9460778 ]
 [ 0.9249715 ]
 [ 1.0735178 ]
 [-0.78712785]
 [ 0.9514909 ]
 [-0.74981415]
 [-0.9813612 ]
 [-0.99325293]
 [ 1.0706482 ]
 [-1.0556107 ]
 [-0.8817143 ]
 [-0.503946  ]
 [ 0.9338777 ]
 [-1.0477427 ]
 [ 0.9130273 ]
 [ 0.2528282 ]
 [ 0.99192405]
 [ 0.98212564]
 [-1.038149  ]
 [-0.7709364 ]
 [-0.21588519]
 [-0.9859538 ]
 [-0.93860596]
 [-0.79238737]
 [-0.8672789 ]
 [-0.8150684 ]
 [ 1.049362  ]
 [-0.96089697]
 [-0.97422117]
 [-1.0696869 ]
 [ 0.9609714 ]
 [-0.9803994 ]
 [ 0.54590774]
 [ 0.5443888 ]
 [ 1.0389395 ]
 [ 0.8691891 ]
 [-0.8906726 ]
 [ 1.018902  ]
 [-0.8029629 ]
 [-0.8905666 ]
 [ 0.3764697 ]
 [-0.64174104]
 [ 1.0608059 ]
 [-0.97602427]
 [ 0.99224186]
 [-0.9081037 ]
 [ 0.76509064]
 [ 0.21922149]
 [ 1.0381298 ]
 [ 0.81645757]
 [ 1.0496508 ]
 [ 0.9543255 ]
 [ 1.0090306 ]
 [-0.8308402 ]
 [ 0.9746877 ]
 [ 0.73536074]
 [-1.0555716 ]
 [ 0.32177302]
 [ 0.4452546 ]
 [-0.9233858 ]
 [-0.9112987 ]
 [ 0.9094243 ]
 [ 1.0973028 ]
 [ 0.65750355]
 [ 0.7157312 ]
 [-1.0311272 ]
 [ 0.7331111 ]
 [-0.93573713]
 [-0.8573843 ]
 [-0.7199685 ]
 [-0.85119426]
 [-0.7591553 ]
 [-0.9541283 ]
 [ 0.9324975 ]
 [-0.49764335]
 [ 0.82395   ]
 [-0.14872545]
 [ 1.0125408 ]
 [ 0.955341  ]
 [ 0.893806  ]
 [ 1.0181408 ]
 [-0.89312065]]

Layer 4:
[0.00611924]



Entrenamiento 8:
------------------------------------------------------------------------

Layer 0:
[[-5.9497179e-03  6.8907971e-03 -2.0082474e-03 ... -6.1479928e-03
   1.4505376e-02 -1.5339982e-02]
 [ 3.5950555e-03 -1.1577015e-02  5.8927746e-03 ... -7.5460761e-03
   4.9165210e-05 -2.0939857e-03]
 [ 2.2965634e-02  0.0000000e+00  3.3393523e-03 ... -1.0200804e-02
   8.8912267e-03  1.7322421e-02]
 ...
 [-7.0379544e-03 -1.7556861e-03  1.5069850e-03 ...  6.0830577e-03
  -4.5498582e-03 -9.3167806e-03]
 [-6.2490744e-03 -4.2922333e-02 -2.7820054e-02 ... -3.7383812e-03
   7.4023474e-03  6.6191214e-03]
 [-1.0772776e-02 -2.5641458e-02 -9.1939541e-03 ...  1.3981565e-02
  -6.1870096e-03 -6.8973978e-03]]

Layer 1:
[[ 0.02053715 -0.01500328 -0.00450382  0.02258415  0.01384897 -0.01304078
  -0.02749345  0.03012379  0.00934361 -0.01996742  0.01034174  0.01845121
  -0.00268499  0.01582231 -0.00882877  0.02938231 -0.02533024 -0.02983626
   0.01422812  0.0093371   0.0145105  -0.00554345  0.01211341 -0.04199008
  -0.00768596 -0.01279173  0.01889336 -0.02095355 -0.02642657 -0.0022216
   0.01674908 -0.01637159  0.00611524  0.00054864  0.03268695  0.01972841
  -0.02043349 -0.0423712  -0.00197217 -0.0141298  -0.02844498 -0.02943866
  -0.04076878 -0.00545872  0.01093559 -0.02183487 -0.02268152 -0.01521065
   0.03067893 -0.02084015  0.00217638  0.00390371  0.01187944  0.03578078
  -0.03454102  0.02170247 -0.03866326 -0.03095235  0.00195549 -0.00309031
   0.01945334 -0.01908052  0.01035316 -0.03717191  0.00601217  0.00062412
   0.02274715  0.00531369  0.0149876   0.02318494  0.01000766 -0.00660358
   0.02593771  0.00440372 -0.0111195   0.00146571  0.00143843 -0.00837203
  -0.03812733  0.0068473   0.01057112  0.00382104  0.00351325 -0.01322723
   0.00476874 -0.00657344 -0.00605783 -0.00568751 -0.0063891  -0.03542313
  -0.01136271  0.01642297 -0.00259511  0.02890752 -0.00015599  0.01562791
   0.02073557  0.00592094  0.00973095 -0.02727904]]

Layer 2:
[0. 0. 0. 0. 0. 0. 0. 0. 0. 0. 0. 0. 0. 0. 0. 0. 0. 0. 0. 0. 0. 0. 0. 0.
 0. 0. 0. 0. 0. 0. 0. 0. 0. 0. 0. 0. 0. 0. 0. 0. 0. 0. 0. 0. 0. 0. 0. 0.
 0. 0. 0. 0. 0. 0. 0. 0. 0. 0. 0. 0. 0. 0. 0. 0. 0. 0. 0. 0. 0. 0. 0. 0.
 0. 0. 0. 0. 0. 0. 0. 0. 0. 0. 0. 0. 0. 0. 0. 0. 0. 0. 0. 0. 0. 0. 0. 0.
 0. 0. 0. 0.]

Layer 3:
[[ 0.91863275]
 [-1.0345459 ]
 [-0.8358543 ]
 [ 0.9689233 ]
 [ 1.0454835 ]
 [-1.0407115 ]
 [-0.91300344]
 [ 0.8893932 ]
 [ 1.0362808 ]
 [-1.0515726 ]
 [ 0.9410249 ]
 [ 1.0006522 ]
 [-0.40507442]
 [ 1.0092915 ]
 [-1.0036786 ]
 [ 0.89295816]
 [-0.9492111 ]
 [-0.8946203 ]
 [ 0.9460778 ]
 [ 0.9249715 ]
 [ 1.0735178 ]
 [-0.78712785]
 [ 0.9514909 ]
 [-0.74981415]
 [-0.9813612 ]
 [-0.99325293]
 [ 1.0706482 ]
 [-1.0556107 ]
 [-0.8817143 ]
 [-0.503946  ]
 [ 0.9338777 ]
 [-1.0477427 ]
 [ 0.9130273 ]
 [ 0.2528282 ]
 [ 0.99192405]
 [ 0.98212564]
 [-1.038149  ]
 [-0.7709364 ]
 [-0.21588519]
 [-0.9859538 ]
 [-0.93860596]
 [-0.79238737]
 [-0.8672789 ]
 [-0.8150684 ]
 [ 1.049362  ]
 [-0.96089697]
 [-0.97422117]
 [-1.0696869 ]
 [ 0.9609714 ]
 [-0.9803994 ]
 [ 0.54590774]
 [ 0.5443888 ]
 [ 1.0389395 ]
 [ 0.8691891 ]
 [-0.8906726 ]
 [ 1.018902  ]
 [-0.8029629 ]
 [-0.8905666 ]
 [ 0.3764697 ]
 [-0.64174104]
 [ 1.0608059 ]
 [-0.97602427]
 [ 0.99224186]
 [-0.9081037 ]
 [ 0.76509064]
 [ 0.21922149]
 [ 1.0381298 ]
 [ 0.81645757]
 [ 1.0496508 ]
 [ 0.9543255 ]
 [ 1.0090306 ]
 [-0.8308402 ]
 [ 0.9746877 ]
 [ 0.73536074]
 [-1.0555716 ]
 [ 0.32177302]
 [ 0.4452546 ]
 [-0.9233858 ]
 [-0.9112987 ]
 [ 0.9094243 ]
 [ 1.0973028 ]
 [ 0.65750355]
 [ 0.7157312 ]
 [-1.0311272 ]
 [ 0.7331111 ]
 [-0.93573713]
 [-0.8573843 ]
 [-0.7199685 ]
 [-0.85119426]
 [-0.7591553 ]
 [-0.9541283 ]
 [ 0.9324975 ]
 [-0.49764335]
 [ 0.82395   ]
 [-0.14872545]
 [ 1.0125408 ]
 [ 0.955341  ]
 [ 0.893806  ]
 [ 1.0181408 ]
 [-0.89312065]]

Layer 4:
[0.00022515]



Consenso 8:
------------------------------------------------------------------------

Layer 0:
[[-5.9497179e-03  6.8907971e-03 -2.0082474e-03 ... -6.1479928e-03
   1.4505376e-02 -1.5339982e-02]
 [ 3.5950555e-03 -1.1577015e-02  5.8927746e-03 ... -7.5460761e-03
   4.9165210e-05 -2.0939857e-03]
 [ 2.2965634e-02  0.0000000e+00  3.3393523e-03 ... -1.0200804e-02
   8.8912267e-03  1.7322421e-02]
 ...
 [-7.0379544e-03 -1.7556861e-03  1.5069850e-03 ...  6.0830577e-03
  -4.5498582e-03 -9.3167806e-03]
 [-6.2490744e-03 -4.2922333e-02 -2.7820054e-02 ... -3.7383812e-03
   7.4023474e-03  6.6191214e-03]
 [-1.0772776e-02 -2.5641458e-02 -9.1939541e-03 ...  1.3981565e-02
  -6.1870096e-03 -6.8973978e-03]]

Layer 1:
[[ 0.02053715 -0.01500328 -0.00450382  0.02258415  0.01384897 -0.01304078
  -0.02749345  0.03012379  0.00934361 -0.01996742  0.01034174  0.01845121
  -0.00268499  0.01582231 -0.00882877  0.02938231 -0.02533024 -0.02983626
   0.01422812  0.0093371   0.0145105  -0.00554345  0.01211341 -0.04199008
  -0.00768596 -0.01279173  0.01889336 -0.02095355 -0.02642657 -0.0022216
   0.01674908 -0.01637159  0.00611524  0.00054864  0.03268695  0.01972841
  -0.02043349 -0.0423712  -0.00197217 -0.0141298  -0.02844498 -0.02943866
  -0.04076878 -0.00545872  0.01093559 -0.02183487 -0.02268152 -0.01521065
   0.03067893 -0.02084015  0.00217638  0.00390371  0.01187944  0.03578078
  -0.03454102  0.02170247 -0.03866326 -0.03095235  0.00195549 -0.00309031
   0.01945334 -0.01908052  0.01035316 -0.03717191  0.00601217  0.00062412
   0.02274715  0.00531369  0.0149876   0.02318494  0.01000766 -0.00660358
   0.02593771  0.00440372 -0.0111195   0.00146571  0.00143843 -0.00837203
  -0.03812733  0.0068473   0.01057112  0.00382104  0.00351325 -0.01322723
   0.00476874 -0.00657344 -0.00605783 -0.00568751 -0.0063891  -0.03542313
  -0.01136271  0.01642297 -0.00259511  0.02890752 -0.00015599  0.01562791
   0.02073557  0.00592094  0.00973095 -0.02727904]]

Layer 2:
[0. 0. 0. 0. 0. 0. 0. 0. 0. 0. 0. 0. 0. 0. 0. 0. 0. 0. 0. 0. 0. 0. 0. 0.
 0. 0. 0. 0. 0. 0. 0. 0. 0. 0. 0. 0. 0. 0. 0. 0. 0. 0. 0. 0. 0. 0. 0. 0.
 0. 0. 0. 0. 0. 0. 0. 0. 0. 0. 0. 0. 0. 0. 0. 0. 0. 0. 0. 0. 0. 0. 0. 0.
 0. 0. 0. 0. 0. 0. 0. 0. 0. 0. 0. 0. 0. 0. 0. 0. 0. 0. 0. 0. 0. 0. 0. 0.
 0. 0. 0. 0.]

Layer 3:
[[ 0.91025597]
 [-1.0946693 ]
 [-0.9123582 ]
 [ 0.9589603 ]
 [ 1.0968184 ]
 [-1.0830768 ]
 [-0.90284747]
 [ 0.849111  ]
 [ 1.1187385 ]
 [-1.0635712 ]
 [ 0.99127436]
 [ 1.0270181 ]
 [-0.46889892]
 [ 1.0291313 ]
 [-1.0516002 ]
 [ 0.8572516 ]
 [-0.93407553]
 [-0.8720978 ]
 [ 0.9719001 ]
 [ 0.9828972 ]
 [ 1.1137766 ]
 [-0.8463224 ]
 [ 0.9761868 ]
 [-0.67522264]
 [-1.0553801 ]
 [-1.0560741 ]
 [ 1.1029583 ]
 [-1.0949981 ]
 [-0.85486877]
 [-0.5205996 ]
 [ 0.94628125]
 [-1.0996768 ]
 [ 0.98653394]
 [ 0.27093112]
 [ 0.9471321 ]
 [ 0.98133266]
 [-1.0599322 ]
 [-0.6919248 ]
 [-0.2699117 ]
 [-1.0133241 ]
 [-0.90808576]
 [-0.7412751 ]
 [-0.801456  ]
 [-0.9374427 ]
 [ 1.1182467 ]
 [-0.96511275]
 [-0.97854865]
 [-1.1181237 ]
 [ 0.94054246]
 [-0.98746973]
 [ 0.62066   ]
 [ 0.62995625]
 [ 1.0919821 ]
 [ 0.81144524]
 [-0.83846366]
 [ 1.0357031 ]
 [-0.7381315 ]
 [-0.8504468 ]
 [ 0.41057724]
 [-0.6643833 ]
 [ 1.0675921 ]
 [-1.0005119 ]
 [ 1.0567777 ]
 [-0.8548915 ]
 [ 0.82078105]
 [ 0.24890445]
 [ 1.0406865 ]
 [ 0.8876223 ]
 [ 1.078149  ]
 [ 0.9502997 ]
 [ 1.0855516 ]
 [-0.868558  ]
 [ 0.9642902 ]
 [ 0.80770355]
 [-1.1060929 ]
 [ 0.3290582 ]
 [ 0.48983583]
 [-0.9961943 ]
 [-0.85790515]
 [ 0.97707915]
 [ 1.1744862 ]
 [ 0.71159816]
 [ 0.74931675]
 [-1.0668188 ]
 [ 0.8239304 ]
 [-1.0282245 ]
 [-0.9209416 ]
 [-0.7760002 ]
 [-0.9277392 ]
 [-0.70562834]
 [-0.9947586 ]
 [ 0.944354  ]
 [-0.54644024]
 [ 0.78973645]
 [-0.14579754]
 [ 1.0431483 ]
 [ 0.9675537 ]
 [ 0.9703865 ]
 [ 1.0748577 ]
 [-0.8747733 ]]

Layer 4:
[-0.03239825]



Entrenamiento 9:
------------------------------------------------------------------------

Layer 0:
[[-5.9497179e-03  6.8907971e-03 -2.0082474e-03 ... -6.1479928e-03
   1.4505376e-02 -1.5339982e-02]
 [ 3.5950555e-03 -1.1577015e-02  5.8927746e-03 ... -7.5460761e-03
   4.9165210e-05 -2.0939857e-03]
 [ 2.2965634e-02  0.0000000e+00  3.3393523e-03 ... -1.0200804e-02
   8.8912267e-03  1.7322421e-02]
 ...
 [-7.0379544e-03 -1.7556861e-03  1.5069850e-03 ...  6.0830577e-03
  -4.5498582e-03 -9.3167806e-03]
 [-6.2490744e-03 -4.2922333e-02 -2.7820054e-02 ... -3.7383812e-03
   7.4023474e-03  6.6191214e-03]
 [-1.0772776e-02 -2.5641458e-02 -9.1939541e-03 ...  1.3981565e-02
  -6.1870096e-03 -6.8973978e-03]]

Layer 1:
[[ 0.02053715 -0.01500328 -0.00450382  0.02258415  0.01384897 -0.01304078
  -0.02749345  0.03012379  0.00934361 -0.01996742  0.01034174  0.01845121
  -0.00268499  0.01582231 -0.00882877  0.02938231 -0.02533024 -0.02983626
   0.01422812  0.0093371   0.0145105  -0.00554345  0.01211341 -0.04199008
  -0.00768596 -0.01279173  0.01889336 -0.02095355 -0.02642657 -0.0022216
   0.01674908 -0.01637159  0.00611524  0.00054864  0.03268695  0.01972841
  -0.02043349 -0.0423712  -0.00197217 -0.0141298  -0.02844498 -0.02943866
  -0.04076878 -0.00545872  0.01093559 -0.02183487 -0.02268152 -0.01521065
   0.03067893 -0.02084015  0.00217638  0.00390371  0.01187944  0.03578078
  -0.03454102  0.02170247 -0.03866326 -0.03095235  0.00195549 -0.00309031
   0.01945334 -0.01908052  0.01035316 -0.03717191  0.00601217  0.00062412
   0.02274715  0.00531369  0.0149876   0.02318494  0.01000766 -0.00660358
   0.02593771  0.00440372 -0.0111195   0.00146571  0.00143843 -0.00837203
  -0.03812733  0.0068473   0.01057112  0.00382104  0.00351325 -0.01322723
   0.00476874 -0.00657344 -0.00605783 -0.00568751 -0.0063891  -0.03542313
  -0.01136271  0.01642297 -0.00259511  0.02890752 -0.00015599  0.01562791
   0.02073557  0.00592094  0.00973095 -0.02727904]]

Layer 2:
[0. 0. 0. 0. 0. 0. 0. 0. 0. 0. 0. 0. 0. 0. 0. 0. 0. 0. 0. 0. 0. 0. 0. 0.
 0. 0. 0. 0. 0. 0. 0. 0. 0. 0. 0. 0. 0. 0. 0. 0. 0. 0. 0. 0. 0. 0. 0. 0.
 0. 0. 0. 0. 0. 0. 0. 0. 0. 0. 0. 0. 0. 0. 0. 0. 0. 0. 0. 0. 0. 0. 0. 0.
 0. 0. 0. 0. 0. 0. 0. 0. 0. 0. 0. 0. 0. 0. 0. 0. 0. 0. 0. 0. 0. 0. 0. 0.
 0. 0. 0. 0.]

Layer 3:
[[ 0.91025597]
 [-1.0946693 ]
 [-0.9123582 ]
 [ 0.9589603 ]
 [ 1.0968184 ]
 [-1.0830768 ]
 [-0.90284747]
 [ 0.849111  ]
 [ 1.1187385 ]
 [-1.0635712 ]
 [ 0.99127436]
 [ 1.0270181 ]
 [-0.46889892]
 [ 1.0291313 ]
 [-1.0516002 ]
 [ 0.8572516 ]
 [-0.93407553]
 [-0.8720978 ]
 [ 0.9719001 ]
 [ 0.9828972 ]
 [ 1.1137766 ]
 [-0.8463224 ]
 [ 0.9761868 ]
 [-0.67522264]
 [-1.0553801 ]
 [-1.0560741 ]
 [ 1.1029583 ]
 [-1.0949981 ]
 [-0.85486877]
 [-0.5205996 ]
 [ 0.94628125]
 [-1.0996768 ]
 [ 0.98653394]
 [ 0.27093112]
 [ 0.9471321 ]
 [ 0.98133266]
 [-1.0599322 ]
 [-0.6919248 ]
 [-0.2699117 ]
 [-1.0133241 ]
 [-0.90808576]
 [-0.7412751 ]
 [-0.801456  ]
 [-0.9374427 ]
 [ 1.1182467 ]
 [-0.96511275]
 [-0.97854865]
 [-1.1181237 ]
 [ 0.94054246]
 [-0.98746973]
 [ 0.62066   ]
 [ 0.62995625]
 [ 1.0919821 ]
 [ 0.81144524]
 [-0.83846366]
 [ 1.0357031 ]
 [-0.7381315 ]
 [-0.8504468 ]
 [ 0.41057724]
 [-0.6643833 ]
 [ 1.0675921 ]
 [-1.0005119 ]
 [ 1.0567777 ]
 [-0.8548915 ]
 [ 0.82078105]
 [ 0.24890445]
 [ 1.0406865 ]
 [ 0.8876223 ]
 [ 1.078149  ]
 [ 0.9502997 ]
 [ 1.0855516 ]
 [-0.868558  ]
 [ 0.9642902 ]
 [ 0.80770355]
 [-1.1060929 ]
 [ 0.3290582 ]
 [ 0.48983583]
 [-0.9961943 ]
 [-0.85790515]
 [ 0.97707915]
 [ 1.1744862 ]
 [ 0.71159816]
 [ 0.74931675]
 [-1.0668188 ]
 [ 0.8239304 ]
 [-1.0282245 ]
 [-0.9209416 ]
 [-0.7760002 ]
 [-0.9277392 ]
 [-0.70562834]
 [-0.9947586 ]
 [ 0.944354  ]
 [-0.54644024]
 [ 0.78973645]
 [-0.14579754]
 [ 1.0431483 ]
 [ 0.9675537 ]
 [ 0.9703865 ]
 [ 1.0748577 ]
 [-0.8747733 ]]

Layer 4:
[-0.00117817]



Consenso 9:
------------------------------------------------------------------------

Layer 0:
[[-5.9497179e-03  6.8907971e-03 -2.0082474e-03 ... -6.1479928e-03
   1.4505376e-02 -1.5339982e-02]
 [ 3.5950555e-03 -1.1577015e-02  5.8927746e-03 ... -7.5460761e-03
   4.9165210e-05 -2.0939857e-03]
 [ 2.2965634e-02  0.0000000e+00  3.3393523e-03 ... -1.0200804e-02
   8.8912267e-03  1.7322421e-02]
 ...
 [-7.0379544e-03 -1.7556861e-03  1.5069850e-03 ...  6.0830577e-03
  -4.5498582e-03 -9.3167806e-03]
 [-6.2490744e-03 -4.2922333e-02 -2.7820054e-02 ... -3.7383812e-03
   7.4023474e-03  6.6191214e-03]
 [-1.0772776e-02 -2.5641458e-02 -9.1939541e-03 ...  1.3981565e-02
  -6.1870096e-03 -6.8973978e-03]]

Layer 1:
[[ 0.02053715 -0.01500328 -0.00450382  0.02258415  0.01384897 -0.01304078
  -0.02749345  0.03012379  0.00934361 -0.01996742  0.01034174  0.01845121
  -0.00268499  0.01582231 -0.00882877  0.02938231 -0.02533024 -0.02983626
   0.01422812  0.0093371   0.0145105  -0.00554345  0.01211341 -0.04199008
  -0.00768596 -0.01279173  0.01889336 -0.02095355 -0.02642657 -0.0022216
   0.01674908 -0.01637159  0.00611524  0.00054864  0.03268695  0.01972841
  -0.02043349 -0.0423712  -0.00197217 -0.0141298  -0.02844498 -0.02943866
  -0.04076878 -0.00545872  0.01093559 -0.02183487 -0.02268152 -0.01521065
   0.03067893 -0.02084015  0.00217638  0.00390371  0.01187944  0.03578078
  -0.03454102  0.02170247 -0.03866326 -0.03095235  0.00195549 -0.00309031
   0.01945334 -0.01908052  0.01035316 -0.03717191  0.00601217  0.00062412
   0.02274715  0.00531369  0.0149876   0.02318494  0.01000766 -0.00660358
   0.02593771  0.00440372 -0.0111195   0.00146571  0.00143843 -0.00837203
  -0.03812733  0.0068473   0.01057112  0.00382104  0.00351325 -0.01322723
   0.00476874 -0.00657344 -0.00605783 -0.00568751 -0.0063891  -0.03542313
  -0.01136271  0.01642297 -0.00259511  0.02890752 -0.00015599  0.01562791
   0.02073557  0.00592094  0.00973095 -0.02727904]]

Layer 2:
[0. 0. 0. 0. 0. 0. 0. 0. 0. 0. 0. 0. 0. 0. 0. 0. 0. 0. 0. 0. 0. 0. 0. 0.
 0. 0. 0. 0. 0. 0. 0. 0. 0. 0. 0. 0. 0. 0. 0. 0. 0. 0. 0. 0. 0. 0. 0. 0.
 0. 0. 0. 0. 0. 0. 0. 0. 0. 0. 0. 0. 0. 0. 0. 0. 0. 0. 0. 0. 0. 0. 0. 0.
 0. 0. 0. 0. 0. 0. 0. 0. 0. 0. 0. 0. 0. 0. 0. 0. 0. 0. 0. 0. 0. 0. 0. 0.
 0. 0. 0. 0.]

Layer 3:
[[ 0.89830655]
 [-1.1530762 ]
 [-0.98880225]
 [ 0.9453967 ]
 [ 1.1460619 ]
 [-1.1230599 ]
 [-0.8885385 ]
 [ 0.80401176]
 [ 1.2001821 ]
 [-1.0730344 ]
 [ 1.0396793 ]
 [ 1.0505788 ]
 [-0.53533274]
 [ 1.0459011 ]
 [-1.0981297 ]
 [ 0.8174374 ]
 [-0.9151627 ]
 [-0.8452924 ]
 [ 0.9950468 ]
 [ 1.0391359 ]
 [ 1.1517829 ]
 [-0.9050201 ]
 [ 0.9983544 ]
 [-0.5950507 ]
 [-1.1289673 ]
 [-1.1168065 ]
 [ 1.1323838 ]
 [-1.131854  ]
 [-0.82416046]
 [-0.5354451 ]
 [ 0.95557654]
 [-1.1495969 ]
 [ 1.0587049 ]
 [ 0.28866348]
 [ 0.89757115]
 [ 0.9774677 ]
 [-1.078845  ]
 [-0.6074951 ]
 [-0.3270715 ]
 [-1.0385246 ]
 [-0.87314844]
 [-0.6855985 ]
 [-0.73039407]
 [-1.0635414 ]
 [ 1.1854122 ]
 [-0.9660645 ]
 [-0.97954386]
 [-1.1645634 ]
 [ 0.91604316]
 [-0.99113923]
 [ 0.69707876]
 [ 0.71820015]
 [ 1.1429384 ]
 [ 0.7487154 ]
 [-0.78140974]
 [ 1.0498443 ]
 [-0.66830534]
 [-0.8057368 ]
 [ 0.44496325]
 [-0.68519443]
 [ 1.0710307 ]
 [-1.0220342 ]
 [ 1.1197528 ]
 [-0.7964581 ]
 [ 0.87536466]
 [ 0.28010666]
 [ 1.040161  ]
 [ 0.959101  ]
 [ 1.1043444 ]
 [ 0.94288814]
 [ 1.1608101 ]
 [-0.9042112 ]
 [ 0.94995165]
 [ 0.8803085 ]
 [-1.1551418 ]
 [ 0.3357769 ]
 [ 0.5356267 ]
 [-1.0681272 ]
 [-0.7995122 ]
 [ 1.0435282 ]
 [ 1.2509648 ]
 [ 0.76531166]
 [ 0.78130406]
 [-1.1005495 ]
 [ 0.91705716]
 [-1.1207833 ]
 [-0.9838268 ]
 [-0.8312339 ]
 [-1.0037041 ]
 [-0.64699715]
 [-1.0332304 ]
 [ 0.9536941 ]
 [-0.59594566]
 [ 0.75100136]
 [-0.14130317]
 [ 1.0713643 ]
 [ 0.97684455]
 [ 1.0464609 ]
 [ 1.1299137 ]
 [-0.8525436 ]]

Layer 4:
[-0.05608458]



Entrenamiento 10:
------------------------------------------------------------------------

Layer 0:
[[-5.9497179e-03  6.8907971e-03 -2.0082474e-03 ... -6.1479928e-03
   1.4505376e-02 -1.5339982e-02]
 [ 3.5950555e-03 -1.1577015e-02  5.8927746e-03 ... -7.5460761e-03
   4.9165210e-05 -2.0939857e-03]
 [ 2.2965634e-02  0.0000000e+00  3.3393523e-03 ... -1.0200804e-02
   8.8912267e-03  1.7322421e-02]
 ...
 [-7.0379544e-03 -1.7556861e-03  1.5069850e-03 ...  6.0830577e-03
  -4.5498582e-03 -9.3167806e-03]
 [-6.2490744e-03 -4.2922333e-02 -2.7820054e-02 ... -3.7383812e-03
   7.4023474e-03  6.6191214e-03]
 [-1.0772776e-02 -2.5641458e-02 -9.1939541e-03 ...  1.3981565e-02
  -6.1870096e-03 -6.8973978e-03]]

Layer 1:
[[ 0.02053715 -0.01500328 -0.00450382  0.02258415  0.01384897 -0.01304078
  -0.02749345  0.03012379  0.00934361 -0.01996742  0.01034174  0.01845121
  -0.00268499  0.01582231 -0.00882877  0.02938231 -0.02533024 -0.02983626
   0.01422812  0.0093371   0.0145105  -0.00554345  0.01211341 -0.04199008
  -0.00768596 -0.01279173  0.01889336 -0.02095355 -0.02642657 -0.0022216
   0.01674908 -0.01637159  0.00611524  0.00054864  0.03268695  0.01972841
  -0.02043349 -0.0423712  -0.00197217 -0.0141298  -0.02844498 -0.02943866
  -0.04076878 -0.00545872  0.01093559 -0.02183487 -0.02268152 -0.01521065
   0.03067893 -0.02084015  0.00217638  0.00390371  0.01187944  0.03578078
  -0.03454102  0.02170247 -0.03866326 -0.03095235  0.00195549 -0.00309031
   0.01945334 -0.01908052  0.01035316 -0.03717191  0.00601217  0.00062412
   0.02274715  0.00531369  0.0149876   0.02318494  0.01000766 -0.00660358
   0.02593771  0.00440372 -0.0111195   0.00146571  0.00143843 -0.00837203
  -0.03812733  0.0068473   0.01057112  0.00382104  0.00351325 -0.01322723
   0.00476874 -0.00657344 -0.00605783 -0.00568751 -0.0063891  -0.03542313
  -0.01136271  0.01642297 -0.00259511  0.02890752 -0.00015599  0.01562791
   0.02073557  0.00592094  0.00973095 -0.02727904]]

Layer 2:
[0. 0. 0. 0. 0. 0. 0. 0. 0. 0. 0. 0. 0. 0. 0. 0. 0. 0. 0. 0. 0. 0. 0. 0.
 0. 0. 0. 0. 0. 0. 0. 0. 0. 0. 0. 0. 0. 0. 0. 0. 0. 0. 0. 0. 0. 0. 0. 0.
 0. 0. 0. 0. 0. 0. 0. 0. 0. 0. 0. 0. 0. 0. 0. 0. 0. 0. 0. 0. 0. 0. 0. 0.
 0. 0. 0. 0. 0. 0. 0. 0. 0. 0. 0. 0. 0. 0. 0. 0. 0. 0. 0. 0. 0. 0. 0. 0.
 0. 0. 0. 0.]

Layer 3:
[[ 0.89830655]
 [-1.1530762 ]
 [-0.98880225]
 [ 0.9453967 ]
 [ 1.1460619 ]
 [-1.1230599 ]
 [-0.8885385 ]
 [ 0.80401176]
 [ 1.2001821 ]
 [-1.0730344 ]
 [ 1.0396793 ]
 [ 1.0505788 ]
 [-0.53533274]
 [ 1.0459011 ]
 [-1.0981297 ]
 [ 0.8174374 ]
 [-0.9151627 ]
 [-0.8452924 ]
 [ 0.9950468 ]
 [ 1.0391359 ]
 [ 1.1517829 ]
 [-0.9050201 ]
 [ 0.9983544 ]
 [-0.5950507 ]
 [-1.1289673 ]
 [-1.1168065 ]
 [ 1.1323838 ]
 [-1.131854  ]
 [-0.82416046]
 [-0.5354451 ]
 [ 0.95557654]
 [-1.1495969 ]
 [ 1.0587049 ]
 [ 0.28866348]
 [ 0.89757115]
 [ 0.9774677 ]
 [-1.078845  ]
 [-0.6074951 ]
 [-0.3270715 ]
 [-1.0385246 ]
 [-0.87314844]
 [-0.6855985 ]
 [-0.73039407]
 [-1.0635414 ]
 [ 1.1854122 ]
 [-0.9660645 ]
 [-0.97954386]
 [-1.1645634 ]
 [ 0.91604316]
 [-0.99113923]
 [ 0.69707876]
 [ 0.71820015]
 [ 1.1429384 ]
 [ 0.7487154 ]
 [-0.78140974]
 [ 1.0498443 ]
 [-0.66830534]
 [-0.8057368 ]
 [ 0.44496325]
 [-0.68519443]
 [ 1.0710307 ]
 [-1.0220342 ]
 [ 1.1197528 ]
 [-0.7964581 ]
 [ 0.87536466]
 [ 0.28010666]
 [ 1.040161  ]
 [ 0.959101  ]
 [ 1.1043444 ]
 [ 0.94288814]
 [ 1.1608101 ]
 [-0.9042112 ]
 [ 0.94995165]
 [ 0.8803085 ]
 [-1.1551418 ]
 [ 0.3357769 ]
 [ 0.5356267 ]
 [-1.0681272 ]
 [-0.7995122 ]
 [ 1.0435282 ]
 [ 1.2509648 ]
 [ 0.76531166]
 [ 0.78130406]
 [-1.1005495 ]
 [ 0.91705716]
 [-1.1207833 ]
 [-0.9838268 ]
 [-0.8312339 ]
 [-1.0037041 ]
 [-0.64699715]
 [-1.0332304 ]
 [ 0.9536941 ]
 [-0.59594566]
 [ 0.75100136]
 [-0.14130317]
 [ 1.0713643 ]
 [ 0.97684455]
 [ 1.0464609 ]
 [ 1.1299137 ]
 [-0.8525436 ]]

Layer 4:
[0.00111839]



Consenso 10:
------------------------------------------------------------------------

Layer 0:
[[-5.9497179e-03  6.8907971e-03 -2.0082474e-03 ... -6.1479928e-03
   1.4505376e-02 -1.5339982e-02]
 [ 3.5950555e-03 -1.1577015e-02  5.8927746e-03 ... -7.5460761e-03
   4.9165210e-05 -2.0939857e-03]
 [ 2.2965634e-02  0.0000000e+00  3.3393523e-03 ... -1.0200804e-02
   8.8912267e-03  1.7322421e-02]
 ...
 [-7.0379544e-03 -1.7556861e-03  1.5069850e-03 ...  6.0830577e-03
  -4.5498582e-03 -9.3167806e-03]
 [-6.2490744e-03 -4.2922333e-02 -2.7820054e-02 ... -3.7383812e-03
   7.4023474e-03  6.6191214e-03]
 [-1.0772776e-02 -2.5641458e-02 -9.1939541e-03 ...  1.3981565e-02
  -6.1870096e-03 -6.8973978e-03]]

Layer 1:
[[ 0.02053715 -0.01500328 -0.00450382  0.02258415  0.01384897 -0.01304078
  -0.02749345  0.03012379  0.00934361 -0.01996742  0.01034174  0.01845121
  -0.00268499  0.01582231 -0.00882877  0.02938231 -0.02533024 -0.02983626
   0.01422812  0.0093371   0.0145105  -0.00554345  0.01211341 -0.04199008
  -0.00768596 -0.01279173  0.01889336 -0.02095355 -0.02642657 -0.0022216
   0.01674908 -0.01637159  0.00611524  0.00054864  0.03268695  0.01972841
  -0.02043349 -0.0423712  -0.00197217 -0.0141298  -0.02844498 -0.02943866
  -0.04076878 -0.00545872  0.01093559 -0.02183487 -0.02268152 -0.01521065
   0.03067893 -0.02084015  0.00217638  0.00390371  0.01187944  0.03578078
  -0.03454102  0.02170247 -0.03866326 -0.03095235  0.00195549 -0.00309031
   0.01945334 -0.01908052  0.01035316 -0.03717191  0.00601217  0.00062412
   0.02274715  0.00531369  0.0149876   0.02318494  0.01000766 -0.00660358
   0.02593771  0.00440372 -0.0111195   0.00146571  0.00143843 -0.00837203
  -0.03812733  0.0068473   0.01057112  0.00382104  0.00351325 -0.01322723
   0.00476874 -0.00657344 -0.00605783 -0.00568751 -0.0063891  -0.03542313
  -0.01136271  0.01642297 -0.00259511  0.02890752 -0.00015599  0.01562791
   0.02073557  0.00592094  0.00973095 -0.02727904]]

Layer 2:
[0. 0. 0. 0. 0. 0. 0. 0. 0. 0. 0. 0. 0. 0. 0. 0. 0. 0. 0. 0. 0. 0. 0. 0.
 0. 0. 0. 0. 0. 0. 0. 0. 0. 0. 0. 0. 0. 0. 0. 0. 0. 0. 0. 0. 0. 0. 0. 0.
 0. 0. 0. 0. 0. 0. 0. 0. 0. 0. 0. 0. 0. 0. 0. 0. 0. 0. 0. 0. 0. 0. 0. 0.
 0. 0. 0. 0. 0. 0. 0. 0. 0. 0. 0. 0. 0. 0. 0. 0. 0. 0. 0. 0. 0. 0. 0. 0.
 0. 0. 0. 0.]

Layer 3:
[[ 0.88762426]
 [-1.2137941 ]
 [-1.0675445 ]
 [ 0.93317425]
 [ 1.1973375 ]
 [-1.1650369 ]
 [-0.8752829 ]
 [ 0.7594336 ]
 [ 1.2838964 ]
 [-1.0848186 ]
 [ 1.09      ]
 [ 1.0760527 ]
 [-0.6053199 ]
 [ 1.0641558 ]
 [-1.1470758 ]
 [ 0.77876675]
 [-0.8975184 ]
 [-0.8194344 ]
 [ 1.0199883 ]
 [ 1.0972174 ]
 [ 1.1917707 ]
 [-0.9659502 ]
 [ 1.022372  ]
 [-0.51473993]
 [-1.2053392 ]
 [-1.1793627 ]
 [ 1.1636301 ]
 [-1.1706889 ]
 [-0.7947245 ]
 [-0.5511438 ]
 [ 0.9665213 ]
 [-1.2017258 ]
 [ 1.1326733 ]
 [ 0.3072373 ]
 [ 0.84876865]
 [ 0.9753422 ]
 [-1.0995976 ]
 [-0.52312535]
 [-0.3875855 ]
 [-1.0660893 ]
 [-0.8390992 ]
 [-0.6306464 ]
 [-0.65964663]
 [-1.1943028 ]
 [ 1.2546569 ]
 [-0.96863943]
 [-0.98212236]
 [-1.2132257 ]
 [ 0.89268553]
 [-0.99634904]
 [ 0.7764425 ]
 [ 0.8103005 ]
 [ 1.1957694 ]
 [ 0.6864195 ]
 [-0.7248923 ]
 [ 1.0661906 ]
 [-0.5989374 ]
 [-0.7617764 ]
 [ 0.48103058]
 [-0.7071581 ]
 [ 1.0759691 ]
 [-1.0452662 ]
 [ 1.1849711 ]
 [-0.73829246]
 [ 0.9318023 ]
 [ 0.31319135]
 [ 1.0415286 ]
 [ 1.0334289 ]
 [ 1.1326405 ]
 [ 0.93711585]
 [ 1.2384726 ]
 [-0.9414552 ]
 [ 0.93679464]
 [ 0.95533115]
 [-1.2064562 ]
 [ 0.34331772]
 [ 0.58377254]
 [-1.1425335 ]
 [-0.7415981 ]
 [ 1.1120477 ]
 [ 1.3302617 ]
 [ 0.8209473 ]
 [ 0.8147487 ]
 [-1.1367292 ]
 [ 1.0139471 ]
 [-1.2160432 ]
 [-1.049068  ]
 [-0.88855463]
 [-1.0820749 ]
 [-0.58862996]
 [-1.0736932 ]
 [ 0.96505105]
 [-0.647832  ]
 [ 0.7129608 ]
 [-0.13638447]
 [ 1.1016009 ]
 [ 0.98797727]
 [ 1.1246402 ]
 [ 1.187094  ]
 [-0.83158106]]

Layer 4:
[-0.06964092]



Entrenamiento 11:
------------------------------------------------------------------------

Layer 0:
[[-5.9497179e-03  6.8907971e-03 -2.0082474e-03 ... -6.1479928e-03
   1.4505376e-02 -1.5339982e-02]
 [ 3.5950555e-03 -1.1577015e-02  5.8927746e-03 ... -7.5460761e-03
   4.9165210e-05 -2.0939857e-03]
 [ 2.2965634e-02  0.0000000e+00  3.3393523e-03 ... -1.0200804e-02
   8.8912267e-03  1.7322421e-02]
 ...
 [-7.0379544e-03 -1.7556861e-03  1.5069850e-03 ...  6.0830577e-03
  -4.5498582e-03 -9.3167806e-03]
 [-6.2490744e-03 -4.2922333e-02 -2.7820054e-02 ... -3.7383812e-03
   7.4023474e-03  6.6191214e-03]
 [-1.0772776e-02 -2.5641458e-02 -9.1939541e-03 ...  1.3981565e-02
  -6.1870096e-03 -6.8973978e-03]]

Layer 1:
[[ 0.02053715 -0.01500328 -0.00450382  0.02258415  0.01384897 -0.01304078
  -0.02749345  0.03012379  0.00934361 -0.01996742  0.01034174  0.01845121
  -0.00268499  0.01582231 -0.00882877  0.02938231 -0.02533024 -0.02983626
   0.01422812  0.0093371   0.0145105  -0.00554345  0.01211341 -0.04199008
  -0.00768596 -0.01279173  0.01889336 -0.02095355 -0.02642657 -0.0022216
   0.01674908 -0.01637159  0.00611524  0.00054864  0.03268695  0.01972841
  -0.02043349 -0.0423712  -0.00197217 -0.0141298  -0.02844498 -0.02943866
  -0.04076878 -0.00545872  0.01093559 -0.02183487 -0.02268152 -0.01521065
   0.03067893 -0.02084015  0.00217638  0.00390371  0.01187944  0.03578078
  -0.03454102  0.02170247 -0.03866326 -0.03095235  0.00195549 -0.00309031
   0.01945334 -0.01908052  0.01035316 -0.03717191  0.00601217  0.00062412
   0.02274715  0.00531369  0.0149876   0.02318494  0.01000766 -0.00660358
   0.02593771  0.00440372 -0.0111195   0.00146571  0.00143843 -0.00837203
  -0.03812733  0.0068473   0.01057112  0.00382104  0.00351325 -0.01322723
   0.00476874 -0.00657344 -0.00605783 -0.00568751 -0.0063891  -0.03542313
  -0.01136271  0.01642297 -0.00259511  0.02890752 -0.00015599  0.01562791
   0.02073557  0.00592094  0.00973095 -0.02727904]]

Layer 2:
[0. 0. 0. 0. 0. 0. 0. 0. 0. 0. 0. 0. 0. 0. 0. 0. 0. 0. 0. 0. 0. 0. 0. 0.
 0. 0. 0. 0. 0. 0. 0. 0. 0. 0. 0. 0. 0. 0. 0. 0. 0. 0. 0. 0. 0. 0. 0. 0.
 0. 0. 0. 0. 0. 0. 0. 0. 0. 0. 0. 0. 0. 0. 0. 0. 0. 0. 0. 0. 0. 0. 0. 0.
 0. 0. 0. 0. 0. 0. 0. 0. 0. 0. 0. 0. 0. 0. 0. 0. 0. 0. 0. 0. 0. 0. 0. 0.
 0. 0. 0. 0.]

Layer 3:
[[ 0.88762426]
 [-1.2137941 ]
 [-1.0675445 ]
 [ 0.93317425]
 [ 1.1973375 ]
 [-1.1650369 ]
 [-0.8752829 ]
 [ 0.7594336 ]
 [ 1.2838964 ]
 [-1.0848186 ]
 [ 1.09      ]
 [ 1.0760527 ]
 [-0.6053199 ]
 [ 1.0641558 ]
 [-1.1470758 ]
 [ 0.77876675]
 [-0.8975184 ]
 [-0.8194344 ]
 [ 1.0199883 ]
 [ 1.0972174 ]
 [ 1.1917707 ]
 [-0.9659502 ]
 [ 1.022372  ]
 [-0.51473993]
 [-1.2053392 ]
 [-1.1793627 ]
 [ 1.1636301 ]
 [-1.1706889 ]
 [-0.7947245 ]
 [-0.5511438 ]
 [ 0.9665213 ]
 [-1.2017258 ]
 [ 1.1326733 ]
 [ 0.3072373 ]
 [ 0.84876865]
 [ 0.9753422 ]
 [-1.0995976 ]
 [-0.52312535]
 [-0.3875855 ]
 [-1.0660893 ]
 [-0.8390992 ]
 [-0.6306464 ]
 [-0.65964663]
 [-1.1943028 ]
 [ 1.2546569 ]
 [-0.96863943]
 [-0.98212236]
 [-1.2132257 ]
 [ 0.89268553]
 [-0.99634904]
 [ 0.7764425 ]
 [ 0.8103005 ]
 [ 1.1957694 ]
 [ 0.6864195 ]
 [-0.7248923 ]
 [ 1.0661906 ]
 [-0.5989374 ]
 [-0.7617764 ]
 [ 0.48103058]
 [-0.7071581 ]
 [ 1.0759691 ]
 [-1.0452662 ]
 [ 1.1849711 ]
 [-0.73829246]
 [ 0.9318023 ]
 [ 0.31319135]
 [ 1.0415286 ]
 [ 1.0334289 ]
 [ 1.1326405 ]
 [ 0.93711585]
 [ 1.2384726 ]
 [-0.9414552 ]
 [ 0.93679464]
 [ 0.95533115]
 [-1.2064562 ]
 [ 0.34331772]
 [ 0.58377254]
 [-1.1425335 ]
 [-0.7415981 ]
 [ 1.1120477 ]
 [ 1.3302617 ]
 [ 0.8209473 ]
 [ 0.8147487 ]
 [-1.1367292 ]
 [ 1.0139471 ]
 [-1.2160432 ]
 [-1.049068  ]
 [-0.88855463]
 [-1.0820749 ]
 [-0.58862996]
 [-1.0736932 ]
 [ 0.96505105]
 [-0.647832  ]
 [ 0.7129608 ]
 [-0.13638447]
 [ 1.1016009 ]
 [ 0.98797727]
 [ 1.1246402 ]
 [ 1.187094  ]
 [-0.83158106]]

Layer 4:
[0.00131972]



Consenso 11:
------------------------------------------------------------------------

Layer 0:
[[-5.9497179e-03  6.8907971e-03 -2.0082474e-03 ... -6.1479928e-03
   1.4505376e-02 -1.5339982e-02]
 [ 3.5950555e-03 -1.1577015e-02  5.8927746e-03 ... -7.5460761e-03
   4.9165210e-05 -2.0939857e-03]
 [ 2.2965634e-02  0.0000000e+00  3.3393523e-03 ... -1.0200804e-02
   8.8912267e-03  1.7322421e-02]
 ...
 [-7.0379544e-03 -1.7556861e-03  1.5069850e-03 ...  6.0830577e-03
  -4.5498582e-03 -9.3167806e-03]
 [-6.2490744e-03 -4.2922333e-02 -2.7820054e-02 ... -3.7383812e-03
   7.4023474e-03  6.6191214e-03]
 [-1.0772776e-02 -2.5641458e-02 -9.1939541e-03 ...  1.3981565e-02
  -6.1870096e-03 -6.8973978e-03]]

Layer 1:
[[ 0.02053715 -0.01500328 -0.00450382  0.02258415  0.01384897 -0.01304078
  -0.02749345  0.03012379  0.00934361 -0.01996742  0.01034174  0.01845121
  -0.00268499  0.01582231 -0.00882877  0.02938231 -0.02533024 -0.02983626
   0.01422812  0.0093371   0.0145105  -0.00554345  0.01211341 -0.04199008
  -0.00768596 -0.01279173  0.01889336 -0.02095355 -0.02642657 -0.0022216
   0.01674908 -0.01637159  0.00611524  0.00054864  0.03268695  0.01972841
  -0.02043349 -0.0423712  -0.00197217 -0.0141298  -0.02844498 -0.02943866
  -0.04076878 -0.00545872  0.01093559 -0.02183487 -0.02268152 -0.01521065
   0.03067893 -0.02084015  0.00217638  0.00390371  0.01187944  0.03578078
  -0.03454102  0.02170247 -0.03866326 -0.03095235  0.00195549 -0.00309031
   0.01945334 -0.01908052  0.01035316 -0.03717191  0.00601217  0.00062412
   0.02274715  0.00531369  0.0149876   0.02318494  0.01000766 -0.00660358
   0.02593771  0.00440372 -0.0111195   0.00146571  0.00143843 -0.00837203
  -0.03812733  0.0068473   0.01057112  0.00382104  0.00351325 -0.01322723
   0.00476874 -0.00657344 -0.00605783 -0.00568751 -0.0063891  -0.03542313
  -0.01136271  0.01642297 -0.00259511  0.02890752 -0.00015599  0.01562791
   0.02073557  0.00592094  0.00973095 -0.02727904]]

Layer 2:
[0. 0. 0. 0. 0. 0. 0. 0. 0. 0. 0. 0. 0. 0. 0. 0. 0. 0. 0. 0. 0. 0. 0. 0.
 0. 0. 0. 0. 0. 0. 0. 0. 0. 0. 0. 0. 0. 0. 0. 0. 0. 0. 0. 0. 0. 0. 0. 0.
 0. 0. 0. 0. 0. 0. 0. 0. 0. 0. 0. 0. 0. 0. 0. 0. 0. 0. 0. 0. 0. 0. 0. 0.
 0. 0. 0. 0. 0. 0. 0. 0. 0. 0. 0. 0. 0. 0. 0. 0. 0. 0. 0. 0. 0. 0. 0. 0.
 0. 0. 0. 0.]

Layer 3:
[[ 0.87614316]
 [-1.2749392 ]
 [-1.1471908 ]
 [ 0.9202344 ]
 [ 1.2487568 ]
 [-1.2068921 ]
 [-0.8609634 ]
 [ 0.7132475 ]
 [ 1.3681427 ]
 [-1.096695  ]
 [ 1.1406432 ]
 [ 1.1013199 ]
 [-0.6782065 ]
 [ 1.0818975 ]
 [-1.1964693 ]
 [ 0.739005  ]
 [-0.8789675 ]
 [-0.7924218 ]
 [ 1.0446754 ]
 [ 1.1554486 ]
 [ 1.2320288 ]
 [-1.0276548 ]
 [ 1.046174  ]
 [-0.43227646]
 [-1.2825457 ]
 [-1.241854  ]
 [ 1.1946123 ]
 [-1.2095913 ]
 [-0.7643618 ]
 [-0.5663013 ]
 [ 0.9769461 ]
 [-1.2541629 ]
 [ 1.2068518 ]
 [ 0.3259584 ]
 [ 0.7984046 ]
 [ 0.9728256 ]
 [-1.1200947 ]
 [-0.43669727]
 [-0.45113054]
 [-1.0937704 ]
 [-0.80379176]
 [-0.5741231 ]
 [-0.58701473]
 [-1.3287249 ]
 [ 1.3241086 ]
 [-0.9706776 ]
 [-0.98412216]
 [-1.2622639 ]
 [ 0.8682567 ]
 [-1.0009825 ]
 [ 0.8577756 ]
 [ 0.9051806 ]
 [ 1.2486218 ]
 [ 0.62236124]
 [-0.6667403 ]
 [ 1.0825257 ]
 [-0.5278174 ]
 [-0.71634376]
 [ 0.5179744 ]
 [-0.7287292 ]
 [ 1.0803254 ]
 [-1.0682137 ]
 [ 1.2504011 ]
 [-0.67824364]
 [ 0.9885255 ]
 [ 0.34791708]
 [ 1.0426002 ]
 [ 1.109153  ]
 [ 1.1608989 ]
 [ 0.9307421 ]
 [ 1.3165728 ]
 [-0.9785342 ]
 [ 0.9225997 ]
 [ 1.0314451 ]
 [-1.2583929 ]
 [ 0.35098404]
 [ 0.6334136 ]
 [-1.2177063 ]
 [-0.6819537 ]
 [ 1.1809356 ]
 [ 1.4104756 ]
 [ 0.8772042 ]
 [ 0.84809816]
 [-1.1731782 ]
 [ 1.1134478 ]
 [-1.3123137 ]
 [-1.1149261 ]
 [-0.9463427 ]
 [-1.1611813 ]
 [-0.5284014 ]
 [-1.1142304 ]
 [ 0.97633773]
 [-0.7010804 ]
 [ 0.6734647 ]
 [-0.1305324 ]
 [ 1.131856  ]
 [ 0.9989735 ]
 [ 1.2034813 ]
 [ 1.2444369 ]
 [-0.8097149 ]]

Layer 4:
[-0.07705299]



Entrenamiento 12:
------------------------------------------------------------------------

Layer 0:
[[-5.9497179e-03  6.8907971e-03 -2.0082474e-03 ... -6.1479928e-03
   1.4505376e-02 -1.5339982e-02]
 [ 3.5950555e-03 -1.1577015e-02  5.8927746e-03 ... -7.5460761e-03
   4.9165210e-05 -2.0939857e-03]
 [ 2.2965634e-02  0.0000000e+00  3.3393523e-03 ... -1.0200804e-02
   8.8912267e-03  1.7322421e-02]
 ...
 [-7.0379544e-03 -1.7556861e-03  1.5069850e-03 ...  6.0830577e-03
  -4.5498582e-03 -9.3167806e-03]
 [-6.2490744e-03 -4.2922333e-02 -2.7820054e-02 ... -3.7383812e-03
   7.4023474e-03  6.6191214e-03]
 [-1.0772776e-02 -2.5641458e-02 -9.1939541e-03 ...  1.3981565e-02
  -6.1870096e-03 -6.8973978e-03]]

Layer 1:
[[ 0.02053715 -0.01500328 -0.00450382  0.02258415  0.01384897 -0.01304078
  -0.02749345  0.03012379  0.00934361 -0.01996742  0.01034174  0.01845121
  -0.00268499  0.01582231 -0.00882877  0.02938231 -0.02533024 -0.02983626
   0.01422812  0.0093371   0.0145105  -0.00554345  0.01211341 -0.04199008
  -0.00768596 -0.01279173  0.01889336 -0.02095355 -0.02642657 -0.0022216
   0.01674908 -0.01637159  0.00611524  0.00054864  0.03268695  0.01972841
  -0.02043349 -0.0423712  -0.00197217 -0.0141298  -0.02844498 -0.02943866
  -0.04076878 -0.00545872  0.01093559 -0.02183487 -0.02268152 -0.01521065
   0.03067893 -0.02084015  0.00217638  0.00390371  0.01187944  0.03578078
  -0.03454102  0.02170247 -0.03866326 -0.03095235  0.00195549 -0.00309031
   0.01945334 -0.01908052  0.01035316 -0.03717191  0.00601217  0.00062412
   0.02274715  0.00531369  0.0149876   0.02318494  0.01000766 -0.00660358
   0.02593771  0.00440372 -0.0111195   0.00146571  0.00143843 -0.00837203
  -0.03812733  0.0068473   0.01057112  0.00382104  0.00351325 -0.01322723
   0.00476874 -0.00657344 -0.00605783 -0.00568751 -0.0063891  -0.03542313
  -0.01136271  0.01642297 -0.00259511  0.02890752 -0.00015599  0.01562791
   0.02073557  0.00592094  0.00973095 -0.02727904]]

Layer 2:
[0. 0. 0. 0. 0. 0. 0. 0. 0. 0. 0. 0. 0. 0. 0. 0. 0. 0. 0. 0. 0. 0. 0. 0.
 0. 0. 0. 0. 0. 0. 0. 0. 0. 0. 0. 0. 0. 0. 0. 0. 0. 0. 0. 0. 0. 0. 0. 0.
 0. 0. 0. 0. 0. 0. 0. 0. 0. 0. 0. 0. 0. 0. 0. 0. 0. 0. 0. 0. 0. 0. 0. 0.
 0. 0. 0. 0. 0. 0. 0. 0. 0. 0. 0. 0. 0. 0. 0. 0. 0. 0. 0. 0. 0. 0. 0. 0.
 0. 0. 0. 0.]

Layer 3:
[[ 0.87614316]
 [-1.2749392 ]
 [-1.1471908 ]
 [ 0.9202344 ]
 [ 1.2487568 ]
 [-1.2068921 ]
 [-0.8609634 ]
 [ 0.7132475 ]
 [ 1.3681427 ]
 [-1.096695  ]
 [ 1.1406432 ]
 [ 1.1013199 ]
 [-0.6782065 ]
 [ 1.0818975 ]
 [-1.1964693 ]
 [ 0.739005  ]
 [-0.8789675 ]
 [-0.7924218 ]
 [ 1.0446754 ]
 [ 1.1554486 ]
 [ 1.2320288 ]
 [-1.0276548 ]
 [ 1.046174  ]
 [-0.43227646]
 [-1.2825457 ]
 [-1.241854  ]
 [ 1.1946123 ]
 [-1.2095913 ]
 [-0.7643618 ]
 [-0.5663013 ]
 [ 0.9769461 ]
 [-1.2541629 ]
 [ 1.2068518 ]
 [ 0.3259584 ]
 [ 0.7984046 ]
 [ 0.9728256 ]
 [-1.1200947 ]
 [-0.43669727]
 [-0.45113054]
 [-1.0937704 ]
 [-0.80379176]
 [-0.5741231 ]
 [-0.58701473]
 [-1.3287249 ]
 [ 1.3241086 ]
 [-0.9706776 ]
 [-0.98412216]
 [-1.2622639 ]
 [ 0.8682567 ]
 [-1.0009825 ]
 [ 0.8577756 ]
 [ 0.9051806 ]
 [ 1.2486218 ]
 [ 0.62236124]
 [-0.6667403 ]
 [ 1.0825257 ]
 [-0.5278174 ]
 [-0.71634376]
 [ 0.5179744 ]
 [-0.7287292 ]
 [ 1.0803254 ]
 [-1.0682137 ]
 [ 1.2504011 ]
 [-0.67824364]
 [ 0.9885255 ]
 [ 0.34791708]
 [ 1.0426002 ]
 [ 1.109153  ]
 [ 1.1608989 ]
 [ 0.9307421 ]
 [ 1.3165728 ]
 [-0.9785342 ]
 [ 0.9225997 ]
 [ 1.0314451 ]
 [-1.2583929 ]
 [ 0.35098404]
 [ 0.6334136 ]
 [-1.2177063 ]
 [-0.6819537 ]
 [ 1.1809356 ]
 [ 1.4104756 ]
 [ 0.8772042 ]
 [ 0.84809816]
 [-1.1731782 ]
 [ 1.1134478 ]
 [-1.3123137 ]
 [-1.1149261 ]
 [-0.9463427 ]
 [-1.1611813 ]
 [-0.5284014 ]
 [-1.1142304 ]
 [ 0.97633773]
 [-0.7010804 ]
 [ 0.6734647 ]
 [-0.1305324 ]
 [ 1.131856  ]
 [ 0.9989735 ]
 [ 1.2034813 ]
 [ 1.2444369 ]
 [-0.8097149 ]]

Layer 4:
[-0.00089613]



Consenso 12:
------------------------------------------------------------------------

Layer 0:
[[-5.9497179e-03  6.8907971e-03 -2.0082474e-03 ... -6.1479928e-03
   1.4505376e-02 -1.5339982e-02]
 [ 3.5950555e-03 -1.1577015e-02  5.8927746e-03 ... -7.5460761e-03
   4.9165210e-05 -2.0939857e-03]
 [ 2.2965634e-02  0.0000000e+00  3.3393523e-03 ... -1.0200804e-02
   8.8912267e-03  1.7322421e-02]
 ...
 [-7.0379544e-03 -1.7556861e-03  1.5069850e-03 ...  6.0830577e-03
  -4.5498582e-03 -9.3167806e-03]
 [-6.2490744e-03 -4.2922333e-02 -2.7820054e-02 ... -3.7383812e-03
   7.4023474e-03  6.6191214e-03]
 [-1.0772776e-02 -2.5641458e-02 -9.1939541e-03 ...  1.3981565e-02
  -6.1870096e-03 -6.8973978e-03]]

Layer 1:
[[ 0.02053715 -0.01500328 -0.00450382  0.02258415  0.01384897 -0.01304078
  -0.02749345  0.03012379  0.00934361 -0.01996742  0.01034174  0.01845121
  -0.00268499  0.01582231 -0.00882877  0.02938231 -0.02533024 -0.02983626
   0.01422812  0.0093371   0.0145105  -0.00554345  0.01211341 -0.04199008
  -0.00768596 -0.01279173  0.01889336 -0.02095355 -0.02642657 -0.0022216
   0.01674908 -0.01637159  0.00611524  0.00054864  0.03268695  0.01972841
  -0.02043349 -0.0423712  -0.00197217 -0.0141298  -0.02844498 -0.02943866
  -0.04076878 -0.00545872  0.01093559 -0.02183487 -0.02268152 -0.01521065
   0.03067893 -0.02084015  0.00217638  0.00390371  0.01187944  0.03578078
  -0.03454102  0.02170247 -0.03866326 -0.03095235  0.00195549 -0.00309031
   0.01945334 -0.01908052  0.01035316 -0.03717191  0.00601217  0.00062412
   0.02274715  0.00531369  0.0149876   0.02318494  0.01000766 -0.00660358
   0.02593771  0.00440372 -0.0111195   0.00146571  0.00143843 -0.00837203
  -0.03812733  0.0068473   0.01057112  0.00382104  0.00351325 -0.01322723
   0.00476874 -0.00657344 -0.00605783 -0.00568751 -0.0063891  -0.03542313
  -0.01136271  0.01642297 -0.00259511  0.02890752 -0.00015599  0.01562791
   0.02073557  0.00592094  0.00973095 -0.02727904]]

Layer 2:
[0. 0. 0. 0. 0. 0. 0. 0. 0. 0. 0. 0. 0. 0. 0. 0. 0. 0. 0. 0. 0. 0. 0. 0.
 0. 0. 0. 0. 0. 0. 0. 0. 0. 0. 0. 0. 0. 0. 0. 0. 0. 0. 0. 0. 0. 0. 0. 0.
 0. 0. 0. 0. 0. 0. 0. 0. 0. 0. 0. 0. 0. 0. 0. 0. 0. 0. 0. 0. 0. 0. 0. 0.
 0. 0. 0. 0. 0. 0. 0. 0. 0. 0. 0. 0. 0. 0. 0. 0. 0. 0. 0. 0. 0. 0. 0. 0.
 0. 0. 0. 0.]

Layer 3:
[[ 0.86235106]
 [-1.3353072 ]
 [-1.2269323 ]
 [ 0.9049778 ]
 [ 1.2991556 ]
 [-1.2474579 ]
 [-0.84402347]
 [ 0.6639361 ]
 [ 1.4519752 ]
 [-1.1071872 ]
 [ 1.1900731 ]
 [ 1.1250638 ]
 [-0.7537374 ]
 [ 1.0977685 ]
 [-1.2451779 ]
 [ 0.6964731 ]
 [-0.8579981 ]
 [-0.762616  ]
 [ 1.0678247 ]
 [ 1.2127241 ]
 [ 1.2708942 ]
 [-1.0893681 ]
 [ 1.0685651 ]
 [-0.34601912]
 [-1.3597475 ]
 [-1.3031895 ]
 [ 1.2239273 ]
 [-1.2470195 ]
 [-0.7314214 ]
 [-0.58025354]
 [ 0.985483  ]
 [-1.3054239 ]
 [ 1.2802565 ]
 [ 0.3443701 ]
 [ 0.744945  ]
 [ 0.96832836]
 [-1.1388901 ]
 [-0.34656957]
 [-0.51780576]
 [-1.1202177 ]
 [-0.7656282 ]
 [-0.51455986]
 [-0.51091754]
 [-1.4664397 ]
 [ 1.3926266 ]
 [-0.97065735]
 [-0.98403966]
 [-1.3102374 ]
 [ 0.841173  ]
 [-1.0035628 ]
 [ 0.940666  ]
 [ 1.0027056 ]
 [ 1.3003285 ]
 [ 0.55495936]
 [-0.60536534]
 [ 1.0973053 ]
 [-0.45327693]
 [-0.66784155]
 [ 0.5554127 ]
 [-0.7490577 ]
 [ 1.0826735 ]
 [-1.0894256 ]
 [ 1.3152319 ]
 [-0.6147512 ]
 [ 1.0447986 ]
 [ 0.3841073 ]
 [ 1.0417513 ]
 [ 1.1854289 ]
 [ 1.1878587 ]
 [ 0.9223379 ]
 [ 1.3939276 ]
 [-1.014245  ]
 [ 0.9058968 ]
 [ 1.1079044 ]
 [-1.3094828 ]
 [ 0.3585101 ]
 [ 0.6841946 ]
 [-1.2924583 ]
 [-0.6190083 ]
 [ 1.2492464 ]
 [ 1.4904432 ]
 [ 0.93338156]
 [ 0.8802877 ]
 [-1.2085541 ]
 [ 1.215283  ]
 [-1.4088202 ]
 [-1.1804368 ]
 [-1.0038801 ]
 [-1.2401834 ]
 [-0.46472365]
 [-1.153551  ]
 [ 0.98613054]
 [-0.7551745 ]
 [ 0.6309492 ]
 [-0.12321278]
 [ 1.1607332 ]
 [ 1.0081344 ]
 [ 1.282038  ]
 [ 1.3008351 ]
 [-0.7853042 ]]

Layer 4:
[-0.08178547]



Entrenamiento 13:
------------------------------------------------------------------------

Layer 0:
[[-5.9497179e-03  6.8907971e-03 -2.0082474e-03 ... -6.1479928e-03
   1.4505376e-02 -1.5339982e-02]
 [ 3.5950555e-03 -1.1577015e-02  5.8927746e-03 ... -7.5460761e-03
   4.9165210e-05 -2.0939857e-03]
 [ 2.2965634e-02  0.0000000e+00  3.3393523e-03 ... -1.0200804e-02
   8.8912267e-03  1.7322421e-02]
 ...
 [-7.0379544e-03 -1.7556861e-03  1.5069850e-03 ...  6.0830577e-03
  -4.5498582e-03 -9.3167806e-03]
 [-6.2490744e-03 -4.2922333e-02 -2.7820054e-02 ... -3.7383812e-03
   7.4023474e-03  6.6191214e-03]
 [-1.0772776e-02 -2.5641458e-02 -9.1939541e-03 ...  1.3981565e-02
  -6.1870096e-03 -6.8973978e-03]]

Layer 1:
[[ 0.02053715 -0.01500328 -0.00450382  0.02258415  0.01384897 -0.01304078
  -0.02749345  0.03012379  0.00934361 -0.01996742  0.01034174  0.01845121
  -0.00268499  0.01582231 -0.00882877  0.02938231 -0.02533024 -0.02983626
   0.01422812  0.0093371   0.0145105  -0.00554345  0.01211341 -0.04199008
  -0.00768596 -0.01279173  0.01889336 -0.02095355 -0.02642657 -0.0022216
   0.01674908 -0.01637159  0.00611524  0.00054864  0.03268695  0.01972841
  -0.02043349 -0.0423712  -0.00197217 -0.0141298  -0.02844498 -0.02943866
  -0.04076878 -0.00545872  0.01093559 -0.02183487 -0.02268152 -0.01521065
   0.03067893 -0.02084015  0.00217638  0.00390371  0.01187944  0.03578078
  -0.03454102  0.02170247 -0.03866326 -0.03095235  0.00195549 -0.00309031
   0.01945334 -0.01908052  0.01035316 -0.03717191  0.00601217  0.00062412
