:
------------------------------------------------------------------------



Entrenamiento 0:
------------------------------------------------------------------------

Layer 0:
[[-0.          0.         -0.         ... -0.          0.
  -0.        ]
 [-0.          0.         -0.         ... -0.          0.15004306
  -0.42503908]
 [ 0.          0.          0.         ... -0.         -0.
  -0.        ]
 ...
 [ 0.         -0.          0.         ...  0.         -0.
   0.        ]
 [ 0.06915181  0.         -0.3734755  ...  0.          0.
   0.        ]
 [ 0.38569364 -0.          0.         ...  0.          0.
  -0.        ]]

Layer 1:
[[-0.19384608  0.09191671 -0.17083982 -0.1749832   0.10987759 -0.20198707
   0.19010374  0.21030578  0.21129125  0.1095039   0.2170606   0.09048533
  -0.18743223  0.19455469  0.20691201  0.11745223  0.12854287 -0.05436388
   0.24190933 -0.00976385  0.03584823  0.04076526 -0.06691314  0.02871573
   0.0342198  -0.1668726  -0.19168767  0.22579718  0.13976994 -0.14086424
   0.14549401  0.00215375  0.23078394  0.07796153  0.19529715 -0.00236736
   0.14333168 -0.13598144 -0.04127325 -0.14613742 -0.22333246 -0.12826906
  -0.16566692 -0.06461819  0.11737201  0.00465582 -0.22952503 -0.0382873
   0.22597039 -0.17173949 -0.16354793  0.24103504  0.16837186  0.2419906
  -0.1183024   0.13571182 -0.05408484  0.13900214 -0.08921923  0.00932947
   0.01946077 -0.22782007 -0.21960828 -0.14571431 -0.09244408  0.15832761
  -0.21307154 -0.20116527 -0.09098905  0.05424917  0.08634916 -0.23696613
  -0.12572923 -0.00178127  0.13503632  0.00277036  0.10995778  0.2152411
   0.21411335  0.11263081  0.130687    0.17473409 -0.21110415  0.05345851
  -0.2239914  -0.17434365  0.07370853  0.11467409 -0.13662031  0.04198238
   0.16665417 -0.00415276  0.05910751 -0.06835812  0.14108732  0.21934387
  -0.2143287  -0.07075861 -0.24204814  0.13621598]]

Layer 2:
[0. 0. 0. 0. 0. 0. 0. 0. 0. 0. 0. 0. 0. 0. 0. 0. 0. 0. 0. 0. 0. 0. 0. 0.
 0. 0. 0. 0. 0. 0. 0. 0. 0. 0. 0. 0. 0. 0. 0. 0. 0. 0. 0. 0. 0. 0. 0. 0.
 0. 0. 0. 0. 0. 0. 0. 0. 0. 0. 0. 0. 0. 0. 0. 0. 0. 0. 0. 0. 0. 0. 0. 0.
 0. 0. 0. 0. 0. 0. 0. 0. 0. 0. 0. 0. 0. 0. 0. 0. 0. 0. 0. 0. 0. 0. 0. 0.
 0. 0. 0. 0.]

Layer 3:
[[ 0.06364587]
 [ 0.01073942]
 [-0.30708998]
 [-0.14505328]
 [ 0.37705112]
 [-0.591472  ]
 [ 0.07906604]
 [-0.01248775]
 [ 0.15621439]
 [ 0.0289793 ]
 [ 0.12439997]
 [ 0.38859883]
 [-0.12545858]
 [ 0.05309533]
 [ 0.13533555]
 [ 0.02536841]
 [ 0.12916622]
 [-0.5320188 ]
 [ 0.09027515]
 [-0.1159294 ]
 [ 0.00945419]
 [ 0.27487123]
 [ 0.01436055]
 [ 0.22915252]
 [ 0.14250602]
 [-0.3238565 ]
 [-0.13518225]
 [-0.05025581]
 [ 0.31961966]
 [-0.49460757]
 [ 0.4311221 ]
 [-0.4584373 ]
 [ 0.26076874]
 [ 0.49022117]
 [ 0.13591622]
 [ 0.64242905]
 [ 0.39693132]
 [-0.09453318]
 [-0.2118621 ]
 [-0.45711666]
 [-0.32828182]
 [-0.23466638]
 [-0.13595988]
 [-0.5236913 ]
 [ 0.0311177 ]
 [ 0.49217558]
 [ 0.01498176]
 [ 0.1485822 ]
 [ 0.03509172]
 [-0.02959681]
 [-0.31806093]
 [ 0.3725041 ]
 [ 0.08502269]
 [ 0.25864673]
 [-0.36925745]
 [ 0.19548838]
 [-0.35807773]
 [ 0.21990612]
 [-0.03958113]
 [ 0.18153496]
 [ 0.05099793]
 [ 0.06426206]
 [-0.18774796]
 [-0.48633763]
 [ 0.0059901 ]
 [-0.03330626]
 [-0.42372584]
 [-0.01168928]
 [-0.08361972]
 [ 0.43194538]
 [ 0.14140676]
 [-0.32683018]
 [-0.14736906]
 [ 0.29941753]
 [ 0.456503  ]
 [ 0.36659345]
 [-0.02015006]
 [ 0.04705214]
 [-0.08647855]
 [ 0.25690416]
 [ 0.07709889]
 [ 0.44221643]
 [-0.34985912]
 [ 0.31681895]
 [ 0.01629203]
 [-0.04249388]
 [ 0.15987468]
 [ 0.18317023]
 [-0.31932265]
 [ 0.39106447]
 [ 0.3168936 ]
 [-0.40179887]
 [ 0.18424515]
 [-0.4707646 ]
 [ 0.20714763]
 [ 0.23422515]
 [-0.21926326]
 [-0.23211612]
 [-0.11091163]
 [ 0.43946204]]

Layer 4:
[0.08321806]



Consenso 0:
------------------------------------------------------------------------

Layer 0:
[[-6.8602134e-03  8.3258944e-03 -2.0404188e-03 ... -5.7732183e-03
   1.6025253e-02 -1.6018417e-02]
 [ 3.5289594e-03 -1.0470924e-02  5.1746005e-03 ... -6.6284058e-03
   7.2635000e-04 -2.9768073e-03]
 [ 2.2345643e-02  0.0000000e+00  2.3900452e-03 ... -9.0217507e-03
   8.4463889e-03  1.6350014e-02]
 ...
 [-7.9074856e-03 -1.9936436e-03 -2.0667921e-06 ...  5.9182378e-03
  -4.2427145e-03 -8.2843350e-03]
 [-6.3624494e-03 -4.3565828e-02 -3.0361185e-02 ... -4.7692815e-03
   7.6993234e-03  7.7398955e-03]
 [-8.9056976e-03 -2.4372572e-02 -8.2003986e-03 ...  1.3517886e-02
  -7.8011253e-03 -6.5554664e-03]]

Layer 1:
[[ 0.01944163 -0.01412645 -0.00519524  0.02076425  0.01467916 -0.01359201
  -0.02861455  0.03108128  0.00973106 -0.01925317  0.01334001  0.01789848
  -0.0041743   0.01531247 -0.00686456  0.02918579 -0.02580212 -0.03010418
   0.01463984  0.010053    0.01529856 -0.00470029  0.01260375 -0.04440547
  -0.00738756 -0.01361896  0.01855647 -0.01854623 -0.02552551 -0.00176419
   0.0174534  -0.01729668  0.00738692  0.00162419  0.03193899  0.01871195
  -0.0176398  -0.04322309 -0.00086213 -0.01319888 -0.02850484 -0.03221246
  -0.04288115 -0.00863555  0.01095515 -0.0207089  -0.02208561 -0.01533446
   0.03544616 -0.02180212  0.00190378  0.00523469  0.01281707  0.03687282
  -0.03569923  0.02181795 -0.03649731 -0.0323435   0.00097073 -0.00425937
   0.01850608 -0.01816171  0.00707251 -0.03433082  0.00633368  0.0014612
   0.0220876   0.00535076  0.01520727  0.02247115  0.01100147 -0.00704201
   0.02371598  0.00633629 -0.01076371  0.00270215  0.00290671 -0.00889846
  -0.0389202   0.00648787  0.0120012   0.00448881  0.00249493 -0.0112802
   0.00502606 -0.00784959 -0.00631649 -0.00480583 -0.00360456 -0.03300812
  -0.01073731  0.01662786 -0.00199372  0.02782741  0.00234803  0.01524507
   0.01829055  0.0045436   0.00973955 -0.03054951]]

Layer 2:
[0. 0. 0. 0. 0. 0. 0. 0. 0. 0. 0. 0. 0. 0. 0. 0. 0. 0. 0. 0. 0. 0. 0. 0.
 0. 0. 0. 0. 0. 0. 0. 0. 0. 0. 0. 0. 0. 0. 0. 0. 0. 0. 0. 0. 0. 0. 0. 0.
 0. 0. 0. 0. 0. 0. 0. 0. 0. 0. 0. 0. 0. 0. 0. 0. 0. 0. 0. 0. 0. 0. 0. 0.
 0. 0. 0. 0. 0. 0. 0. 0. 0. 0. 0. 0. 0. 0. 0. 0. 0. 0. 0. 0. 0. 0. 0. 0.
 0. 0. 0. 0.]

Layer 3:
[[ 0.01910141]
 [-0.00474836]
 [-0.05950907]
 [ 0.06427825]
 [ 0.01418067]
 [-0.03103627]
 [ 0.00601673]
 [ 0.05445403]
 [ 0.0328345 ]
 [-0.06495189]
 [-0.01971358]
 [ 0.01275534]
 [ 0.01147857]
 [ 0.02772391]
 [-0.06894315]
 [ 0.02470772]
 [-0.06348917]
 [-0.01949441]
 [ 0.00066588]
 [-0.01086706]
 [ 0.04244761]
 [-0.02917613]
 [ 0.00041105]
 [-0.044331  ]
 [-0.03947463]
 [ 0.02202417]
 [ 0.04284554]
 [ 0.00942087]
 [-0.01797731]
 [ 0.00725181]
 [-0.01911995]
 [ 0.02498992]
 [-0.01018772]
 [-0.00935524]
 [ 0.14981218]
 [ 0.05605077]
 [-0.03993379]
 [-0.07173654]
 [ 0.06160711]
 [-0.02173748]
 [-0.09244118]
 [-0.01773901]
 [-0.1398406 ]
 [-0.03790803]
 [ 0.01059637]
 [-0.02735743]
 [-0.02133813]
 [-0.04823472]
 [ 0.07224124]
 [-0.04110987]
 [-0.02062664]
 [-0.05074291]
 [ 0.06355219]
 [ 0.09576079]
 [-0.10573702]
 [ 0.02585745]
 [-0.06575   ]
 [-0.06102637]
 [ 0.00748517]
 [-0.02278649]
 [ 0.11031423]
 [ 0.02881915]
 [ 0.00845586]
 [-0.12114917]
 [-0.00597993]
 [ 0.04884724]
 [ 0.06652355]
 [ 0.04468021]
 [ 0.05424351]
 [ 0.03160557]
 [-0.020191  ]
 [ 0.02116939]
 [ 0.04862276]
 [ 0.0260605 ]
 [-0.07153727]
 [ 0.10335357]
 [ 0.06948686]
 [ 0.00807009]
 [-0.13976623]
 [-0.00617798]
 [ 0.0960591 ]
 [ 0.00800484]
 [ 0.01090566]
 [-0.0520227 ]
 [ 0.06656297]
 [-0.02332093]
 [-0.01823879]
 [ 0.03455705]
 [ 0.01469544]
 [ 0.01335321]
 [-0.00132819]
 [-0.02107137]
 [-0.02071095]
 [-0.01855574]
 [ 0.01328904]
 [ 0.02414463]
 [-0.02321646]
 [ 0.04293355]
 [ 0.02445131]
 [-0.00693204]]

Layer 4:
[0.24308343]



Entrenamiento 1:
------------------------------------------------------------------------

Layer 0:
[[-6.8602134e-03  8.3258944e-03 -2.0404188e-03 ... -5.7732183e-03
   1.6025253e-02 -1.6018417e-02]
 [ 3.5289594e-03 -1.0470924e-02  5.1746005e-03 ... -6.6284058e-03
   7.2635000e-04 -2.9768073e-03]
 [ 2.2345643e-02  0.0000000e+00  2.3900452e-03 ... -9.0217507e-03
   8.4463889e-03  1.6350014e-02]
 ...
 [-7.9074856e-03 -1.9936436e-03 -2.0667921e-06 ...  5.9182378e-03
  -4.2427145e-03 -8.2843350e-03]
 [-6.3624494e-03 -4.3565828e-02 -3.0361185e-02 ... -4.7692815e-03
   7.6993234e-03  7.7398955e-03]
 [-8.9056976e-03 -2.4372572e-02 -8.2003986e-03 ...  1.3517886e-02
  -7.8011253e-03 -6.5554664e-03]]

Layer 1:
[[ 0.01944163 -0.01412645 -0.00519524  0.02076425  0.01467916 -0.01359201
  -0.02861455  0.03108128  0.00973106 -0.01925317  0.01334001  0.01789848
  -0.0041743   0.01531247 -0.00686456  0.02918579 -0.02580212 -0.03010418
   0.01463984  0.010053    0.01529856 -0.00470029  0.01260375 -0.04440547
  -0.00738756 -0.01361896  0.01855647 -0.01854623 -0.02552551 -0.00176419
   0.0174534  -0.01729668  0.00738692  0.00162419  0.03193899  0.01871195
  -0.0176398  -0.04322309 -0.00086213 -0.01319888 -0.02850484 -0.03221246
  -0.04288115 -0.00863555  0.01095515 -0.0207089  -0.02208561 -0.01533446
   0.03544616 -0.02180212  0.00190378  0.00523469  0.01281707  0.03687282
  -0.03569923  0.02181795 -0.03649731 -0.0323435   0.00097073 -0.00425937
   0.01850608 -0.01816171  0.00707251 -0.03433082  0.00633368  0.0014612
   0.0220876   0.00535076  0.01520727  0.02247115  0.01100147 -0.00704201
   0.02371598  0.00633629 -0.01076371  0.00270215  0.00290671 -0.00889846
  -0.0389202   0.00648787  0.0120012   0.00448881  0.00249493 -0.0112802
   0.00502606 -0.00784959 -0.00631649 -0.00480583 -0.00360456 -0.03300812
  -0.01073731  0.01662786 -0.00199372  0.02782741  0.00234803  0.01524507
   0.01829055  0.0045436   0.00973955 -0.03054951]]

Layer 2:
[0. 0. 0. 0. 0. 0. 0. 0. 0. 0. 0. 0. 0. 0. 0. 0. 0. 0. 0. 0. 0. 0. 0. 0.
 0. 0. 0. 0. 0. 0. 0. 0. 0. 0. 0. 0. 0. 0. 0. 0. 0. 0. 0. 0. 0. 0. 0. 0.
 0. 0. 0. 0. 0. 0. 0. 0. 0. 0. 0. 0. 0. 0. 0. 0. 0. 0. 0. 0. 0. 0. 0. 0.
 0. 0. 0. 0. 0. 0. 0. 0. 0. 0. 0. 0. 0. 0. 0. 0. 0. 0. 0. 0. 0. 0. 0. 0.
 0. 0. 0. 0.]

Layer 3:
[[ 0.37770835]
 [-0.23307553]
 [-0.17176741]
 [ 0.42842096]
 [ 0.2911354 ]
 [-0.29854327]
 [-0.3990512 ]
 [ 0.5151359 ]
 [ 0.17556286]
 [-0.3791385 ]
 [ 0.241919  ]
 [ 0.35195264]
 [-0.05286358]
 [ 0.32894418]
 [-0.24136628]
 [ 0.4316717 ]
 [-0.46683544]
 [-0.57381886]
 [ 0.28740844]
 [ 0.24856684]
 [ 0.5123333 ]
 [-0.14450367]
 [ 0.30966374]
 [-0.5879071 ]
 [-0.28704607]
 [-0.22932129]
 [ 0.338859  ]
 [-0.25046098]
 [-0.40108246]
 [-0.1395927 ]
 [ 0.33039623]
 [-0.75520533]
 [ 0.14388573]
 [ 0.1533815 ]
 [ 0.5815031 ]
 [ 0.5369604 ]
 [-0.31870055]
 [-0.5646159 ]
 [ 0.0967822 ]
 [-0.29980123]
 [-0.50920117]
 [-0.48862574]
 [-0.62091225]
 [-0.19589414]
 [ 0.20684542]
 [-0.67602634]
 [-0.34802926]
 [-0.35070756]
 [ 0.5153762 ]
 [-0.39064443]
 [ 0.00495951]
 [-0.00344978]
 [ 0.28209513]
 [ 0.55047965]
 [-0.5871939 ]
 [ 0.34990323]
 [-0.62188923]
 [-0.50505555]
 [ 0.05184608]
 [-0.54233146]
 [ 0.46592334]
 [-0.25370568]
 [ 0.14547203]
 [-0.59112114]
 [ 0.1534539 ]
 [ 0.06315382]
 [ 0.40972474]
 [ 0.14613941]
 [ 0.3456856 ]
 [ 0.4358966 ]
 [ 0.17869365]
 [-0.17636472]
 [ 0.42480904]
 [ 0.1477953 ]
 [-0.2987899 ]
 [ 0.21468182]
 [ 0.13667664]
 [-0.15702711]
 [-0.6123797 ]
 [ 0.14536896]
 [ 0.2889719 ]
 [ 0.12707557]
 [ 0.15385933]
 [-0.2828862 ]
 [ 0.12585856]
 [-0.15318142]
 [-0.17172998]
 [-0.07972229]
 [-0.04589116]
 [-0.5414832 ]
 [-0.24737836]
 [ 0.6747104 ]
 [-0.06674942]
 [ 0.44059575]
 [ 0.0137147 ]
 [ 0.29341224]
 [ 0.28050083]
 [ 0.14274064]
 [ 0.22175804]
 [-0.4472646 ]]

Layer 4:
[0.8227938]



Consenso 1:
------------------------------------------------------------------------

Layer 0:
[[-5.9825871e-03  6.9425814e-03 -2.0094388e-03 ... -6.1344123e-03
   1.4560202e-02 -1.5364778e-02]
 [ 3.5926688e-03 -1.1536965e-02  5.8668465e-03 ... -7.5129606e-03
   7.3572817e-05 -2.1258129e-03]
 [ 2.2943161e-02  0.0000000e+00  3.3050193e-03 ... -1.0158209e-02
   8.8750767e-03  1.7287124e-02]
 ...
 [-7.0693251e-03 -1.7644938e-03  1.4524839e-03 ...  6.0770866e-03
  -4.5387587e-03 -9.2795314e-03]
 [-6.2531694e-03 -4.2945996e-02 -2.7911859e-02 ... -3.7756767e-03
   7.4133556e-03  6.6595608e-03]
 [-1.0705504e-02 -2.5595451e-02 -9.1579165e-03 ...  1.3964779e-02
  -6.2452587e-03 -6.8850103e-03]]

Layer 1:
[[ 2.04977039e-02 -1.49716260e-02 -4.52911621e-03  2.25180835e-02
   1.38792498e-02 -1.30608128e-02 -2.75342222e-02  3.01584136e-02
   9.35774576e-03 -1.99417826e-02  1.04498668e-02  1.84311587e-02
  -2.73867650e-03  1.58038326e-02 -8.75793397e-03  2.93752532e-02
  -2.53474340e-02 -2.98459120e-02  1.42429126e-02  9.36279725e-03
   1.45390183e-02 -5.51284803e-03  1.21309236e-02 -4.20772247e-02
  -7.67509732e-03 -1.28214564e-02  1.88810956e-02 -2.08668038e-02
  -2.63941418e-02 -2.20487337e-03  1.67747159e-02 -1.64051708e-02
   6.16120920e-03  5.87431772e-04  3.26595493e-02  1.96914431e-02
  -2.03323234e-02 -4.24023680e-02 -1.93200796e-03 -1.40959257e-02
  -2.84470711e-02 -2.95388754e-02 -4.08452749e-02 -5.57378959e-03
   1.09364651e-02 -2.17938367e-02 -2.26599611e-02 -1.52151985e-02
   3.08510996e-02 -2.08751988e-02  2.16651848e-03  3.95166362e-03
   1.19134421e-02  3.58201228e-02 -3.45829651e-02  2.17067190e-02
  -3.85847315e-02 -3.10024247e-02  1.91994244e-03 -3.13254329e-03
   1.94189269e-02 -1.90472417e-02  1.02348058e-02 -3.70689109e-02
   6.02387032e-03  6.54301839e-04  2.27233768e-02  5.31487772e-03
   1.49955722e-02  2.31593419e-02  1.00434506e-02 -6.61964156e-03
   2.58571282e-02  4.47347248e-03 -1.11065004e-02  1.51040056e-03
   1.49101799e-03 -8.39123875e-03 -3.81563306e-02  6.83451304e-03
   1.06230387e-02  3.84552218e-03  3.47627234e-03 -1.31566618e-02
   4.77789436e-03 -6.61938265e-03 -6.06724806e-03 -5.65524027e-03
  -6.28837571e-03 -3.53353657e-02 -1.13400081e-02  1.64304953e-02
  -2.57328711e-03  2.88683139e-02 -6.53574316e-05  1.56142311e-02
   2.06469242e-02  5.87114925e-03  9.73115582e-03 -2.73977127e-02]]

Layer 2:
[0. 0. 0. 0. 0. 0. 0. 0. 0. 0. 0. 0. 0. 0. 0. 0. 0. 0. 0. 0. 0. 0. 0. 0.
 0. 0. 0. 0. 0. 0. 0. 0. 0. 0. 0. 0. 0. 0. 0. 0. 0. 0. 0. 0. 0. 0. 0. 0.
 0. 0. 0. 0. 0. 0. 0. 0. 0. 0. 0. 0. 0. 0. 0. 0. 0. 0. 0. 0. 0. 0. 0. 0.
 0. 0. 0. 0. 0. 0. 0. 0. 0. 0. 0. 0. 0. 0. 0. 0. 0. 0. 0. 0. 0. 0. 0. 0.
 0. 0. 0. 0.]

Layer 3:
[[ 0.45710364]
 [-0.33328223]
 [-0.24017698]
 [ 0.5139337 ]
 [ 0.3665283 ]
 [-0.39923036]
 [-0.44397786]
 [ 0.54774237]
 [ 0.30090192]
 [-0.50642294]
 [ 0.30291215]
 [ 0.40349835]
 [-0.04974205]
 [ 0.43728906]
 [-0.38763905]
 [ 0.5290655 ]
 [-0.5126894 ]
 [-0.47871712]
 [ 0.37389678]
 [ 0.2778226 ]
 [ 0.42801085]
 [-0.23951496]
 [ 0.38176137]
 [-0.56008524]
 [-0.301628  ]
 [-0.28976706]
 [ 0.44029894]
 [-0.39157856]
 [-0.4927948 ]
 [-0.17975518]
 [ 0.39529976]
 [-0.3500757 ]
 [ 0.24707468]
 [ 0.06343382]
 [ 0.6647258 ]
 [ 0.4935384 ]
 [-0.45054603]
 [-0.60602635]
 [ 0.04035245]
 [-0.40525353]
 [-0.56150204]
 [-0.5074745 ]
 [-0.64267784]
 [-0.1413456 ]
 [ 0.3266303 ]
 [-0.44883952]
 [-0.4568777 ]
 [-0.4040943 ]
 [ 0.53592724]
 [-0.45609426]
 [ 0.07989097]
 [ 0.04112493]
 [ 0.38276836]
 [ 0.6055139 ]
 [-0.60573417]
 [ 0.45358035]
 [-0.5769859 ]
 [-0.54983824]
 [ 0.09849268]
 [-0.24685773]
 [ 0.53660196]
 [-0.37814045]
 [ 0.30588764]
 [-0.62216043]
 [ 0.21133111]
 [ 0.06990724]
 [ 0.5232756 ]
 [ 0.24481785]
 [ 0.45149064]
 [ 0.47345316]
 [ 0.26910844]
 [-0.27667674]
 [ 0.50562   ]
 [ 0.18649587]
 [-0.41392556]
 [ 0.1867008 ]
 [ 0.14666194]
 [-0.24915281]
 [-0.629816  ]
 [ 0.2546409 ]
 [ 0.3765932 ]
 [ 0.1814021 ]
 [ 0.25021014]
 [-0.4232266 ]
 [ 0.1792142 ]
 [-0.23779935]
 [-0.25450712]
 [-0.17521268]
 [-0.20096083]
 [-0.47693   ]
 [-0.3385604 ]
 [ 0.40276343]
 [-0.13129504]
 [ 0.45940077]
 [-0.05176543]
 [ 0.41232282]
 [ 0.40522808]
 [ 0.2549567 ]
 [ 0.35167187]
 [-0.46430352]]

Layer 4:
[0.6680509]



Entrenamiento 2:
------------------------------------------------------------------------

Layer 0:
[[-5.9825871e-03  6.9425814e-03 -2.0094388e-03 ... -6.1344123e-03
   1.4560202e-02 -1.5364778e-02]
 [ 3.5926688e-03 -1.1536965e-02  5.8668465e-03 ... -7.5129606e-03
   7.3572817e-05 -2.1258129e-03]
 [ 2.2943161e-02  0.0000000e+00  3.3050193e-03 ... -1.0158209e-02
   8.8750767e-03  1.7287124e-02]
 ...
 [-7.0693251e-03 -1.7644938e-03  1.4524839e-03 ...  6.0770866e-03
  -4.5387587e-03 -9.2795314e-03]
 [-6.2531694e-03 -4.2945996e-02 -2.7911859e-02 ... -3.7756767e-03
   7.4133556e-03  6.6595608e-03]
 [-1.0705504e-02 -2.5595451e-02 -9.1579165e-03 ...  1.3964779e-02
  -6.2452587e-03 -6.8850103e-03]]

Layer 1:
[[ 2.04977039e-02 -1.49716260e-02 -4.52911621e-03  2.25180835e-02
   1.38792498e-02 -1.30608128e-02 -2.75342222e-02  3.01584136e-02
   9.35774576e-03 -1.99417826e-02  1.04498668e-02  1.84311587e-02
  -2.73867650e-03  1.58038326e-02 -8.75793397e-03  2.93752532e-02
  -2.53474340e-02 -2.98459120e-02  1.42429126e-02  9.36279725e-03
   1.45390183e-02 -5.51284803e-03  1.21309236e-02 -4.20772247e-02
  -7.67509732e-03 -1.28214564e-02  1.88810956e-02 -2.08668038e-02
  -2.63941418e-02 -2.20487337e-03  1.67747159e-02 -1.64051708e-02
   6.16120920e-03  5.87431772e-04  3.26595493e-02  1.96914431e-02
  -2.03323234e-02 -4.24023680e-02 -1.93200796e-03 -1.40959257e-02
  -2.84470711e-02 -2.95388754e-02 -4.08452749e-02 -5.57378959e-03
   1.09364651e-02 -2.17938367e-02 -2.26599611e-02 -1.52151985e-02
   3.08510996e-02 -2.08751988e-02  2.16651848e-03  3.95166362e-03
   1.19134421e-02  3.58201228e-02 -3.45829651e-02  2.17067190e-02
  -3.85847315e-02 -3.10024247e-02  1.91994244e-03 -3.13254329e-03
   1.94189269e-02 -1.90472417e-02  1.02348058e-02 -3.70689109e-02
   6.02387032e-03  6.54301839e-04  2.27233768e-02  5.31487772e-03
   1.49955722e-02  2.31593419e-02  1.00434506e-02 -6.61964156e-03
   2.58571282e-02  4.47347248e-03 -1.11065004e-02  1.51040056e-03
   1.49101799e-03 -8.39123875e-03 -3.81563306e-02  6.83451304e-03
   1.06230387e-02  3.84552218e-03  3.47627234e-03 -1.31566618e-02
   4.77789436e-03 -6.61938265e-03 -6.06724806e-03 -5.65524027e-03
  -6.28837571e-03 -3.53353657e-02 -1.13400081e-02  1.64304953e-02
  -2.57328711e-03  2.88683139e-02 -6.53574316e-05  1.56142311e-02
   2.06469242e-02  5.87114925e-03  9.73115582e-03 -2.73977127e-02]]

Layer 2:
[0. 0. 0. 0. 0. 0. 0. 0. 0. 0. 0. 0. 0. 0. 0. 0. 0. 0. 0. 0. 0. 0. 0. 0.
 0. 0. 0. 0. 0. 0. 0. 0. 0. 0. 0. 0. 0. 0. 0. 0. 0. 0. 0. 0. 0. 0. 0. 0.
 0. 0. 0. 0. 0. 0. 0. 0. 0. 0. 0. 0. 0. 0. 0. 0. 0. 0. 0. 0. 0. 0. 0. 0.
 0. 0. 0. 0. 0. 0. 0. 0. 0. 0. 0. 0. 0. 0. 0. 0. 0. 0. 0. 0. 0. 0. 0. 0.
 0. 0. 0. 0.]

Layer 3:
[[ 0.68231493]
 [-0.5060616 ]
 [-0.31697023]
 [ 0.75198567]
 [ 0.54699886]
 [-0.5669054 ]
 [-0.6879852 ]
 [ 0.8063781 ]
 [ 0.4111068 ]
 [-0.71493185]
 [ 0.44831958]
 [ 0.62568384]
 [-0.07359117]
 [ 0.64046645]
 [-0.5260829 ]
 [ 0.7783687 ]
 [-0.75169367]
 [-0.7716344 ]
 [ 0.5634671 ]
 [ 0.45969   ]
 [ 0.68361586]
 [-0.34087637]
 [ 0.5721398 ]
 [-0.8355517 ]
 [-0.51282746]
 [-0.4499925 ]
 [ 0.6385725 ]
 [-0.590609  ]
 [-0.7372532 ]
 [-0.25715888]
 [ 0.598957  ]
 [-0.6976952 ]
 [ 0.34781492]
 [ 0.12070359]
 [ 0.92330945]
 [ 0.7692893 ]
 [-0.6708235 ]
 [-0.87033224]
 [ 0.04037907]
 [-0.59866816]
 [-0.8109771 ]
 [-0.7615859 ]
 [-0.9052652 ]
 [-0.18328309]
 [ 0.4713322 ]
 [-0.7993346 ]
 [-0.67803   ]
 [-0.60084856]
 [ 0.7780052 ]
 [-0.67590535]
 [ 0.10382816]
 [ 0.07355395]
 [ 0.5364898 ]
 [ 0.86235684]
 [-0.870653  ]
 [ 0.66875046]
 [-0.86678195]
 [-0.79950017]
 [ 0.13560005]
 [-0.5134376 ]
 [ 0.7725567 ]
 [-0.58157784]
 [ 0.4343224 ]
 [-0.89574873]
 [ 0.31869966]
 [ 0.07595031]
 [ 0.7543192 ]
 [ 0.31529704]
 [ 0.64811206]
 [ 0.7237931 ]
 [ 0.4012733 ]
 [-0.4091893 ]
 [ 0.76375127]
 [ 0.2598738 ]
 [-0.5764712 ]
 [ 0.23878995]
 [ 0.17962356]
 [-0.36025342]
 [-0.8913216 ]
 [ 0.36453483]
 [ 0.50290096]
 [ 0.25861397]
 [ 0.34999213]
 [-0.59823895]
 [ 0.21797207]
 [-0.3206337 ]
 [-0.35782966]
 [-0.27014083]
 [-0.2876551 ]
 [-0.7901893 ]
 [-0.5054953 ]
 [ 0.7462661 ]
 [-0.18029931]
 [ 0.7466959 ]
 [-0.08202066]
 [ 0.6004215 ]
 [ 0.6184121 ]
 [ 0.34867194]
 [ 0.4928104 ]
 [-0.71193516]]

Layer 4:
[0.7705366]



Consenso 2:
------------------------------------------------------------------------

Layer 0:
[[-5.9509301e-03  6.8926900e-03 -2.0083038e-03 ... -6.1474768e-03
   1.4507406e-02 -1.5340926e-02]
 [ 3.5949578e-03 -1.1575517e-02  5.8918134e-03 ... -7.5448547e-03
   5.0046674e-05 -2.0951468e-03]
 [ 2.2964722e-02  0.0000000e+00  3.3381006e-03 ... -1.0199214e-02
   8.8905944e-03  1.7321052e-02]
 ...
 [-7.0391125e-03 -1.7560103e-03  1.5050111e-03 ...  6.0828170e-03
  -4.5494321e-03 -9.3153827e-03]
 [-6.2492476e-03 -4.2923361e-02 -2.7823471e-02 ... -3.7397398e-03
   7.4027698e-03  6.6206064e-03]
 [-1.0770298e-02 -2.5639694e-02 -9.1926008e-03 ...  1.3980911e-02
  -6.1891382e-03 -6.8969261e-03]]

Layer 1:
[[ 0.02053563 -0.01500209 -0.00450475  0.02258166  0.01385011 -0.01304155
  -0.02749503  0.03012513  0.00934417 -0.0199664   0.01034569  0.01845039
  -0.00268694  0.01582155 -0.00882616  0.02938194 -0.02533096 -0.02983671
   0.0142287   0.00933807  0.01451158 -0.00554232  0.01211409 -0.04199342
  -0.00768554 -0.01279285  0.01889283 -0.02095031 -0.02642531 -0.00222098
   0.0167501  -0.01637289  0.00611693  0.00055005  0.03268577  0.01972698
  -0.02042974 -0.04237252 -0.0019707  -0.01412852 -0.02844518 -0.02944238
  -0.04077174 -0.0054629   0.01093569 -0.02183328 -0.02268065 -0.01521087
   0.03068524 -0.02084151  0.00217601  0.00390545  0.01188072  0.03578238
  -0.03454273  0.0217027  -0.03866022 -0.03095426  0.0019542  -0.00309185
   0.01945201 -0.01907922  0.01034884 -0.03716798  0.00601261  0.00062521
   0.02274619  0.00531375  0.01498793  0.02318392  0.010009   -0.00660419
   0.02593469  0.00440626 -0.01111898  0.00146733  0.00144033 -0.00837277
  -0.03812857  0.00684681  0.01057304  0.00382194  0.0035119  -0.01322463
   0.00476909 -0.00657512 -0.00605819 -0.00568632 -0.00638544 -0.03541977
  -0.01136183  0.01642335 -0.00259431  0.02890601 -0.00015271  0.01562732
   0.02073226  0.00591912  0.00973103 -0.02728342]]

Layer 2:
[0. 0. 0. 0. 0. 0. 0. 0. 0. 0. 0. 0. 0. 0. 0. 0. 0. 0. 0. 0. 0. 0. 0. 0.
 0. 0. 0. 0. 0. 0. 0. 0. 0. 0. 0. 0. 0. 0. 0. 0. 0. 0. 0. 0. 0. 0. 0. 0.
 0. 0. 0. 0. 0. 0. 0. 0. 0. 0. 0. 0. 0. 0. 0. 0. 0. 0. 0. 0. 0. 0. 0. 0.
 0. 0. 0. 0. 0. 0. 0. 0. 0. 0. 0. 0. 0. 0. 0. 0. 0. 0. 0. 0. 0. 0. 0. 0.
 0. 0. 0. 0.]

Layer 3:
[[ 0.7801187 ]
 [-0.6208567 ]
 [-0.4182933 ]
 [ 0.8388871 ]
 [ 0.6621974 ]
 [-0.6953203 ]
 [-0.7725077 ]
 [ 0.8796895 ]
 [ 0.54864347]
 [-0.83349895]
 [ 0.5771925 ]
 [ 0.7153846 ]
 [-0.12113277]
 [ 0.750091  ]
 [-0.6573987 ]
 [ 0.8704833 ]
 [-0.8384487 ]
 [-0.8096106 ]
 [ 0.67243284]
 [ 0.5341698 ]
 [ 0.7354352 ]
 [-0.43366253]
 [ 0.6822556 ]
 [-0.89160097]
 [-0.54142886]
 [-0.5669746 ]
 [ 0.7560036 ]
 [-0.71139395]
 [-0.82482564]
 [-0.34028977]
 [ 0.7091767 ]
 [-0.658438  ]
 [ 0.47384045]
 [ 0.13600816]
 [ 1.003512  ]
 [ 0.8167787 ]
 [-0.7703355 ]
 [-0.9385948 ]
 [ 0.00432561]
 [-0.71018505]
 [-0.8906091 ]
 [-0.8379416 ]
 [-0.9740203 ]
 [-0.2613103 ]
 [ 0.6011239 ]
 [-0.76949036]
 [-0.780961  ]
 [-0.7010184 ]
 [ 0.8683537 ]
 [-0.7747154 ]
 [ 0.18575874]
 [ 0.1481109 ]
 [ 0.6570071 ]
 [ 0.9397774 ]
 [-0.93798864]
 [ 0.77859056]
 [-0.91021025]
 [-0.88369364]
 [ 0.1894357 ]
 [-0.4374419 ]
 [ 0.85714513]
 [-0.69620353]
 [ 0.5717049 ]
 [-0.9548586 ]
 [ 0.41610938]
 [ 0.09386231]
 [ 0.8551475 ]
 [ 0.42750818]
 [ 0.7626502 ]
 [ 0.7980118 ]
 [ 0.53364223]
 [-0.52871335]
 [ 0.83681667]
 [ 0.34676456]
 [-0.6938747 ]
 [ 0.2548857 ]
 [ 0.22599433]
 [-0.48591882]
 [-0.96102667]
 [ 0.49114418]
 [ 0.63250875]
 [ 0.3426951 ]
 [ 0.4582859 ]
 [-0.72271866]
 [ 0.30372998]
 [-0.43826187]
 [-0.4709855 ]
 [-0.37408492]
 [-0.41353795]
 [-0.80880535]
 [-0.6239854 ]
 [ 0.71952343]
 [-0.24112418]
 [ 0.7909429 ]
 [-0.11644483]
 [ 0.7181464 ]
 [ 0.7297654 ]
 [ 0.45893946]
 [ 0.6255337 ]
 [-0.7937428 ]]

Layer 4:
[0.7774862]



Entrenamiento 3:
------------------------------------------------------------------------

Layer 0:
[[-5.9509301e-03  6.8926900e-03 -2.0083038e-03 ... -6.1474768e-03
   1.4507406e-02 -1.5340926e-02]
 [ 3.5949578e-03 -1.1575517e-02  5.8918134e-03 ... -7.5448547e-03
   5.0046674e-05 -2.0951468e-03]
 [ 2.2964722e-02  0.0000000e+00  3.3381006e-03 ... -1.0199214e-02
   8.8905944e-03  1.7321052e-02]
 ...
 [-7.0391125e-03 -1.7560103e-03  1.5050111e-03 ...  6.0828170e-03
  -4.5494321e-03 -9.3153827e-03]
 [-6.2492476e-03 -4.2923361e-02 -2.7823471e-02 ... -3.7397398e-03
   7.4027698e-03  6.6206064e-03]
 [-1.0770298e-02 -2.5639694e-02 -9.1926008e-03 ...  1.3980911e-02
  -6.1891382e-03 -6.8969261e-03]]

Layer 1:
[[ 0.02053563 -0.01500209 -0.00450475  0.02258166  0.01385011 -0.01304155
  -0.02749503  0.03012513  0.00934417 -0.0199664   0.01034569  0.01845039
  -0.00268694  0.01582155 -0.00882616  0.02938194 -0.02533096 -0.02983671
   0.0142287   0.00933807  0.01451158 -0.00554232  0.01211409 -0.04199342
  -0.00768554 -0.01279285  0.01889283 -0.02095031 -0.02642531 -0.00222098
   0.0167501  -0.01637289  0.00611693  0.00055005  0.03268577  0.01972698
  -0.02042974 -0.04237252 -0.0019707  -0.01412852 -0.02844518 -0.02944238
  -0.04077174 -0.0054629   0.01093569 -0.02183328 -0.02268065 -0.01521087
   0.03068524 -0.02084151  0.00217601  0.00390545  0.01188072  0.03578238
  -0.03454273  0.0217027  -0.03866022 -0.03095426  0.0019542  -0.00309185
   0.01945201 -0.01907922  0.01034884 -0.03716798  0.00601261  0.00062521
   0.02274619  0.00531375  0.01498793  0.02318392  0.010009   -0.00660419
   0.02593469  0.00440626 -0.01111898  0.00146733  0.00144033 -0.00837277
  -0.03812857  0.00684681  0.01057304  0.00382194  0.0035119  -0.01322463
   0.00476909 -0.00657512 -0.00605819 -0.00568632 -0.00638544 -0.03541977
  -0.01136183  0.01642335 -0.00259431  0.02890601 -0.00015271  0.01562732
   0.02073226  0.00591912  0.00973103 -0.02728342]]

Layer 2:
[0. 0. 0. 0. 0. 0. 0. 0. 0. 0. 0. 0. 0. 0. 0. 0. 0. 0. 0. 0. 0. 0. 0. 0.
 0. 0. 0. 0. 0. 0. 0. 0. 0. 0. 0. 0. 0. 0. 0. 0. 0. 0. 0. 0. 0. 0. 0. 0.
 0. 0. 0. 0. 0. 0. 0. 0. 0. 0. 0. 0. 0. 0. 0. 0. 0. 0. 0. 0. 0. 0. 0. 0.
 0. 0. 0. 0. 0. 0. 0. 0. 0. 0. 0. 0. 0. 0. 0. 0. 0. 0. 0. 0. 0. 0. 0. 0.
 0. 0. 0. 0.]

Layer 3:
[[ 0.71481925]
 [-0.5888535 ]
 [-0.40202197]
 [ 0.7723659 ]
 [ 0.62309617]
 [-0.6544726 ]
 [-0.7133323 ]
 [ 0.8024865 ]
 [ 0.5277576 ]
 [-0.78456074]
 [ 0.54055053]
 [ 0.66618013]
 [-0.12048055]
 [ 0.69528085]
 [-0.62025833]
 [ 0.7995575 ]
 [-0.77537286]
 [-0.73571575]
 [ 0.62328416]
 [ 0.4890465 ]
 [ 0.679741  ]
 [-0.4060765 ]
 [ 0.62841314]
 [-0.79558265]
 [-0.5015119 ]
 [-0.53286445]
 [ 0.71205044]
 [-0.67373616]
 [-0.75610465]
 [-0.30843362]
 [ 0.65475965]
 [-0.597403  ]
 [ 0.44916123]
 [ 0.11814292]
 [ 0.9265003 ]
 [ 0.74311864]
 [-0.721782  ]
 [-0.84428364]
 [-0.00289952]
 [-0.6629236 ]
 [-0.8200323 ]
 [-0.75620484]
 [-0.8897132 ]
 [-0.27283204]
 [ 0.571207  ]
 [-0.68644917]
 [-0.72741807]
 [-0.66106945]
 [ 0.80828476]
 [-0.72002834]
 [ 0.18482877]
 [ 0.14620505]
 [ 0.6214889 ]
 [ 0.8585584 ]
 [-0.8561138 ]
 [ 0.7327946 ]
 [-0.8165018 ]
 [-0.8101719 ]
 [ 0.17796297]
 [-0.34814432]
 [ 0.7949526 ]
 [-0.6496901 ]
 [ 0.54137754]
 [-0.87128997]
 [ 0.38563573]
 [ 0.09555513]
 [ 0.7992723 ]
 [ 0.4115566 ]
 [ 0.7136263 ]
 [ 0.73384404]
 [ 0.51059467]
 [-0.4880117 ]
 [ 0.77183175]
 [ 0.33290198]
 [-0.6544114 ]
 [ 0.2350534 ]
 [ 0.21958596]
 [-0.46245396]
 [-0.8834447 ]
 [ 0.46473813]
 [ 0.612072  ]
 [ 0.3204836 ]
 [ 0.421563  ]
 [-0.68094045]
 [ 0.3015893 ]
 [-0.42546523]
 [-0.44651544]
 [-0.34634545]
 [-0.39314815]
 [-0.71188796]
 [-0.58128035]
 [ 0.63147205]
 [-0.22741796]
 [ 0.7070083 ]
 [-0.10102656]
 [ 0.67130244]
 [ 0.67753935]
 [ 0.43640193]
 [ 0.59167904]
 [-0.72998136]]

Layer 4:
[0.46979558]



Consenso 3:
------------------------------------------------------------------------

Layer 0:
[[-5.94978267e-03  6.89089391e-03 -2.00827257e-03 ... -6.14794251e-03
   1.45054832e-02 -1.53400823e-02]
 [ 3.59503040e-03 -1.15769142e-02  5.89272380e-03 ... -7.54601089e-03
   4.91972241e-05 -2.09404132e-03]
 [ 2.29654331e-02  0.00000000e+00  3.33929411e-03 ... -1.02007035e-02
   8.89112614e-03  1.73222199e-02]
 ...
 [-7.03801587e-03 -1.75570359e-03  1.50690763e-03 ...  6.08300744e-03
  -4.54980787e-03 -9.31668002e-03]
 [-6.24912465e-03 -4.29227352e-02 -2.78202556e-02 ... -3.73844244e-03
   7.40239769e-03  6.61920058e-03]
 [-1.07726427e-02 -2.56412569e-02 -9.19385348e-03 ...  1.39814643e-02
  -6.18711440e-03 -6.89734751e-03]]

Layer 1:
[[ 0.02053695 -0.01500318 -0.00450387  0.02258395  0.01384907 -0.01304088
  -0.02749366  0.03012399  0.00934371 -0.01996722  0.01034194  0.01845101
  -0.00268508  0.01582211 -0.00882863  0.02938211 -0.02533044 -0.02983646
   0.01422822  0.0093372   0.0145106  -0.00554339  0.01211351 -0.04199048
  -0.00768591 -0.01279183  0.01889316 -0.02095335 -0.02642637 -0.00222156
   0.01674928 -0.01637179  0.00611533  0.0005487   0.03268655  0.01972821
  -0.02043329 -0.0423716  -0.0019721  -0.01412969 -0.02844518 -0.02943886
  -0.04076918 -0.0054589   0.01093569 -0.02183466 -0.02268132 -0.01521075
   0.03067926 -0.02084036  0.00217636  0.00390378  0.01187954  0.03578118
  -0.03454142  0.02170267 -0.03866286 -0.03095255  0.00195544 -0.00309038
   0.01945314 -0.01908032  0.01035295 -0.03717151  0.00601222  0.00062416
   0.02274694  0.00531374  0.0149877   0.02318474  0.01000776 -0.00660363
   0.02593751  0.00440384 -0.0111194   0.00146577  0.0014385  -0.00837213
  -0.03812773  0.00684725  0.01057122  0.00382109  0.00351318 -0.01322709
   0.00476879 -0.00657353 -0.00605788 -0.00568745 -0.00638894 -0.03542273
  -0.0113626   0.01642317 -0.00259507  0.02890732 -0.00015587  0.01562771
   0.02073536  0.00592085  0.00973103 -0.02727927]]

Layer 2:
[0. 0. 0. 0. 0. 0. 0. 0. 0. 0. 0. 0. 0. 0. 0. 0. 0. 0. 0. 0. 0. 0. 0. 0.
 0. 0. 0. 0. 0. 0. 0. 0. 0. 0. 0. 0. 0. 0. 0. 0. 0. 0. 0. 0. 0. 0. 0. 0.
 0. 0. 0. 0. 0. 0. 0. 0. 0. 0. 0. 0. 0. 0. 0. 0. 0. 0. 0. 0. 0. 0. 0. 0.
 0. 0. 0. 0. 0. 0. 0. 0. 0. 0. 0. 0. 0. 0. 0. 0. 0. 0. 0. 0. 0. 0. 0. 0.
 0. 0. 0. 0.]

Layer 3:
[[ 0.8913912 ]
 [-0.76253223]
 [-0.5283599 ]
 [ 0.94856596]
 [ 0.8023462 ]
 [-0.8296953 ]
 [-0.8866976 ]
 [ 0.97469366]
 [ 0.68971324]
 [-0.9564803 ]
 [ 0.70820594]
 [ 0.84612507]
 [-0.17951283]
 [ 0.87699705]
 [-0.7836805 ]
 [ 0.96831155]
 [-0.94667566]
 [-0.9156453 ]
 [ 0.7970547 ]
 [ 0.66410124]
 [ 0.87176037]
 [-0.5393915 ]
 [ 0.806833  ]
 [-0.9632107 ]
 [-0.6730552 ]
 [-0.70820457]
 [ 0.8918055 ]
 [-0.8526166 ]
 [-0.9252106 ]
 [-0.41044402]
 [ 0.8312324 ]
 [-0.802065  ]
 [ 0.60170585]
 [ 0.17402287]
 [ 1.0963649 ]
 [ 0.9313129 ]
 [-0.89991426]
 [-1.0051472 ]
 [-0.03386022]
 [-0.83576995]
 [-0.9904256 ]
 [-0.9236191 ]
 [-1.0505964 ]
 [-0.37137192]
 [ 0.7444614 ]
 [-0.88791966]
 [-0.90081054]
 [-0.83899856]
 [ 0.9761212 ]
 [-0.89560765]
 [ 0.2657326 ]
 [ 0.23255913]
 [ 0.7914652 ]
 [ 1.0226377 ]
 [-1.0237702 ]
 [ 0.9043343 ]
 [-0.9856735 ]
 [-0.9784669 ]
 [ 0.241597  ]
 [-0.5217442 ]
 [ 0.97752374]
 [-0.827241  ]
 [ 0.70817286]
 [-1.0409606 ]
 [ 0.5249566 ]
 [ 0.11740907]
 [ 0.9740983 ]
 [ 0.5336309 ]
 [ 0.89244795]
 [ 0.9119514 ]
 [ 0.67867607]
 [-0.64456075]
 [ 0.9506041 ]
 [ 0.44790584]
 [-0.82440156]
 [ 0.28424293]
 [ 0.27902377]
 [-0.6163455 ]
 [-1.046642  ]
 [ 0.61883754]
 [ 0.77250576]
 [ 0.43368703]
 [ 0.5545116 ]
 [-0.8510066 ]
 [ 0.39809436]
 [-0.5661449 ]
 [-0.5882726 ]
 [-0.48027512]
 [-0.5365322 ]
 [-0.89430416]
 [-0.7532472 ]
 [ 0.83885735]
 [-0.3081655 ]
 [ 0.8888359 ]
 [-0.14078906]
 [ 0.84739274]
 [ 0.85403335]
 [ 0.5790323 ]
 [ 0.7605891 ]
 [-0.9015004 ]]

Layer 4:
[0.60934687]



Entrenamiento 4:
------------------------------------------------------------------------

Layer 0:
[[-5.94978267e-03  6.89089391e-03 -2.00827257e-03 ... -6.14794251e-03
   1.45054832e-02 -1.53400823e-02]
 [ 3.59503040e-03 -1.15769142e-02  5.89272380e-03 ... -7.54601089e-03
   4.91972241e-05 -2.09404132e-03]
 [ 2.29654331e-02  0.00000000e+00  3.33929411e-03 ... -1.02007035e-02
   8.89112614e-03  1.73222199e-02]
 ...
 [-7.03801587e-03 -1.75570359e-03  1.50690763e-03 ...  6.08300744e-03
  -4.54980787e-03 -9.31668002e-03]
 [-6.24912465e-03 -4.29227352e-02 -2.78202556e-02 ... -3.73844244e-03
   7.40239769e-03  6.61920058e-03]
 [-1.07726427e-02 -2.56412569e-02 -9.19385348e-03 ...  1.39814643e-02
  -6.18711440e-03 -6.89734751e-03]]

Layer 1:
[[ 0.02053695 -0.01500318 -0.00450387  0.02258395  0.01384907 -0.01304088
  -0.02749366  0.03012399  0.00934371 -0.01996722  0.01034194  0.01845101
  -0.00268508  0.01582211 -0.00882863  0.02938211 -0.02533044 -0.02983646
   0.01422822  0.0093372   0.0145106  -0.00554339  0.01211351 -0.04199048
  -0.00768591 -0.01279183  0.01889316 -0.02095335 -0.02642637 -0.00222156
   0.01674928 -0.01637179  0.00611533  0.0005487   0.03268655  0.01972821
  -0.02043329 -0.0423716  -0.0019721  -0.01412969 -0.02844518 -0.02943886
  -0.04076918 -0.0054589   0.01093569 -0.02183466 -0.02268132 -0.01521075
   0.03067926 -0.02084036  0.00217636  0.00390378  0.01187954  0.03578118
  -0.03454142  0.02170267 -0.03866286 -0.03095255  0.00195544 -0.00309038
   0.01945314 -0.01908032  0.01035295 -0.03717151  0.00601222  0.00062416
   0.02274694  0.00531374  0.0149877   0.02318474  0.01000776 -0.00660363
   0.02593751  0.00440384 -0.0111194   0.00146577  0.0014385  -0.00837213
  -0.03812773  0.00684725  0.01057122  0.00382109  0.00351318 -0.01322709
   0.00476879 -0.00657353 -0.00605788 -0.00568745 -0.00638894 -0.03542273
  -0.0113626   0.01642317 -0.00259507  0.02890732 -0.00015587  0.01562771
   0.02073536  0.00592085  0.00973103 -0.02727927]]

Layer 2:
[0. 0. 0. 0. 0. 0. 0. 0. 0. 0. 0. 0. 0. 0. 0. 0. 0. 0. 0. 0. 0. 0. 0. 0.
 0. 0. 0. 0. 0. 0. 0. 0. 0. 0. 0. 0. 0. 0. 0. 0. 0. 0. 0. 0. 0. 0. 0. 0.
 0. 0. 0. 0. 0. 0. 0. 0. 0. 0. 0. 0. 0. 0. 0. 0. 0. 0. 0. 0. 0. 0. 0. 0.
 0. 0. 0. 0. 0. 0. 0. 0. 0. 0. 0. 0. 0. 0. 0. 0. 0. 0. 0. 0. 0. 0. 0. 0.
 0. 0. 0. 0.]

Layer 3:
[[ 0.7199822 ]
 [-0.6495071 ]
 [-0.47490916]
 [ 0.7712113 ]
 [ 0.6789295 ]
 [-0.7084699 ]
 [-0.7176007 ]
 [ 0.7801671 ]
 [ 0.61597264]
 [-0.8102192 ]
 [ 0.6027124 ]
 [ 0.6947904 ]
 [-0.17040451]
 [ 0.72536457]
 [-0.67626905]
 [ 0.78344935]
 [-0.7743259 ]
 [-0.71475494]
 [ 0.6577481 ]
 [ 0.5326389 ]
 [ 0.702949  ]
 [-0.45921057]
 [ 0.6618736 ]
 [-0.743357  ]
 [-0.5365605 ]
 [-0.59867984]
 [ 0.75517726]
 [-0.72217375]
 [-0.7440251 ]
 [-0.33547905]
 [ 0.68071395]
 [-0.6014551 ]
 [ 0.5279503 ]
 [ 0.12793776]
 [ 0.9017094 ]
 [ 0.73476744]
 [-0.74870086]
 [-0.79004395]
 [-0.04110547]
 [-0.6962809 ]
 [-0.80592614]
 [-0.72586507]
 [-0.84739536]
 [-0.37272415]
 [ 0.64520025]
 [-0.6607359 ]
 [-0.74496436]
 [-0.70801044]
 [ 0.8078477 ]
 [-0.7393195 ]
 [ 0.25345647]
 [ 0.21720019]
 [ 0.6823524 ]
 [ 0.82434577]
 [-0.82229424]
 [ 0.7602568 ]
 [-0.7633442 ]
 [-0.7909617 ]
 [ 0.20921955]
 [-0.31256333]
 [ 0.80616045]
 [-0.6855044 ]
 [ 0.6118797 ]
 [-0.8340859 ]
 [ 0.4402157 ]
 [ 0.11808343]
 [ 0.8118862 ]
 [ 0.4824855 ]
 [ 0.7502225 ]
 [ 0.73415124]
 [ 0.5943206 ]
 [-0.5371487 ]
 [ 0.7686535 ]
 [ 0.40043885]
 [-0.7065414 ]
 [ 0.23771231]
 [ 0.25841406]
 [-0.5391391 ]
 [-0.850933  ]
 [ 0.53786224]
 [ 0.69338584]
 [ 0.37243384]
 [ 0.4635723 ]
 [-0.7238926 ]
 [ 0.3788362 ]
 [-0.51556444]
 [-0.5128289 ]
 [-0.4028364 ]
 [-0.46981597]
 [-0.66215634]
 [-0.6295554 ]
 [ 0.60876673]
 [-0.26858708]
 [ 0.67769355]
 [-0.10461024]
 [ 0.7109191 ]
 [ 0.7012493 ]
 [ 0.5078047 ]
 [ 0.65799105]
 [-0.72675514]]

Layer 4:
[0.21967316]



Consenso 4:
------------------------------------------------------------------------

Layer 0:
[[-5.94976824e-03  6.89084735e-03 -2.00827257e-03 ... -6.14794251e-03
   1.45054767e-02 -1.53400823e-02]
 [ 3.59503040e-03 -1.15769142e-02  5.89272426e-03 ... -7.54602579e-03
   4.91665633e-05 -2.09401082e-03]
 [ 2.29654331e-02  0.00000000e+00  3.33932717e-03 ... -1.02007035e-02
   8.89112614e-03  1.73222199e-02]
 ...
 [-7.03800470e-03 -1.75569870e-03  1.50697248e-03 ...  6.08300744e-03
  -4.54980787e-03 -9.31668002e-03]
 [-6.24912465e-03 -4.29227352e-02 -2.78202556e-02 ... -3.73840635e-03
   7.40239769e-03  6.61917171e-03]
 [-1.07726753e-02 -2.56412569e-02 -9.19385348e-03 ...  1.39814643e-02
  -6.18705992e-03 -6.89734751e-03]]

Layer 1:
[[ 0.02053695 -0.01500318 -0.00450387  0.02258395  0.01384907 -0.01304088
  -0.02749366  0.03012399  0.00934371 -0.01996722  0.01034184  0.01845101
  -0.00268502  0.01582211 -0.00882867  0.02938211 -0.02533044 -0.02983646
   0.01422822  0.0093372   0.0145106  -0.0055434   0.01211351 -0.04199048
  -0.00768591 -0.01279183  0.01889316 -0.02095335 -0.02642637 -0.00222157
   0.01674928 -0.01637179  0.00611529  0.00054865  0.03268655  0.01972821
  -0.02043329 -0.0423716  -0.00197214 -0.01412969 -0.02844518 -0.02943886
  -0.04076918 -0.00545877  0.01093569 -0.02183466 -0.02268132 -0.01521075
   0.03067913 -0.02084036  0.00217636  0.00390373  0.01187954  0.03578118
  -0.03454142  0.02170267 -0.03866286 -0.03095255  0.00195547 -0.00309034
   0.01945314 -0.01908032  0.01035306 -0.03717151  0.00601222  0.00062413
   0.02274694  0.00531374  0.0149877   0.02318474  0.01000776 -0.00660363
   0.02593751  0.00440377 -0.0111194   0.00146572  0.00143844 -0.00837213
  -0.03812773  0.00684725  0.01057122  0.00382107  0.00351322 -0.01322713
   0.00476879 -0.00657349 -0.00605788 -0.00568746 -0.00638905 -0.03542273
  -0.0113626   0.01642317 -0.00259508  0.02890732 -0.00015598  0.01562771
   0.02073536  0.00592089  0.00973103 -0.02727924]]

Layer 2:
[0. 0. 0. 0. 0. 0. 0. 0. 0. 0. 0. 0. 0. 0. 0. 0. 0. 0. 0. 0. 0. 0. 0. 0.
 0. 0. 0. 0. 0. 0. 0. 0. 0. 0. 0. 0. 0. 0. 0. 0. 0. 0. 0. 0. 0. 0. 0. 0.
 0. 0. 0. 0. 0. 0. 0. 0. 0. 0. 0. 0. 0. 0. 0. 0. 0. 0. 0. 0. 0. 0. 0. 0.
 0. 0. 0. 0. 0. 0. 0. 0. 0. 0. 0. 0. 0. 0. 0. 0. 0. 0. 0. 0. 0. 0. 0. 0.
 0. 0. 0. 0.]

Layer 3:
[[ 0.91978306]
 [-0.84433645]
 [-0.6097955 ]
 [ 0.9749814 ]
 [ 0.8786849 ]
 [-0.89860344]
 [-0.9161448 ]
 [ 0.9782592 ]
 [ 0.7858412 ]
 [-0.9994373 ]
 [ 0.78034145]
 [ 0.90358704]
 [-0.23274833]
 [ 0.92945516]
 [-0.8519561 ]
 [ 0.97330093]
 [-0.96958697]
 [-0.93393844]
 [ 0.8518699 ]
 [ 0.7416916 ]
 [ 0.93892795]
 [-0.60869795]
 [ 0.8607407 ]
 [-0.9369617 ]
 [-0.7593272 ]
 [-0.7931056 ]
 [ 0.9550453 ]
 [-0.92142314]
 [-0.9369596 ]
 [-0.4434701 ]
 [ 0.876595  ]
 [-0.87905186]
 [ 0.6885013 ]
 [ 0.19698125]
 [ 1.0953076 ]
 [ 0.9643263 ]
 [-0.9536995 ]
 [-0.9729761 ]
 [-0.07421244]
 [-0.89025927]
 [-1.0013354 ]
 [-0.9156641 ]
 [-1.0309321 ]
 [-0.476551  ]
 [ 0.83353066]
 [-0.9265646 ]
 [-0.93988067]
 [-0.9120815 ]
 [ 0.99568564]
 [-0.9374889 ]
 [ 0.33482495]
 [ 0.3076786 ]
 [ 0.86780286]
 [ 1.0099543 ]
 [-1.0156332 ]
 [ 0.9518626 ]
 [-0.9651896 ]
 [-0.981181  ]
 [ 0.27766484]
 [-0.5625619 ]
 [ 1.0188136 ]
 [-0.88340896]
 [ 0.79136026]
 [-1.0334437 ]
 [ 0.59377384]
 [ 0.14067861]
 [ 1.0105455 ]
 [ 0.6089633 ]
 [ 0.9493663 ]
 [ 0.94359964]
 [ 0.7730832 ]
 [-0.7047767 ]
 [ 0.979259  ]
 [ 0.5235008 ]
 [-0.8953912 ]
 [ 0.29752097]
 [ 0.3207763 ]
 [-0.70247483]
 [-1.0383893 ]
 [ 0.70137644]
 [ 0.8638477 ]
 [ 0.49517444]
 [ 0.60551775]
 [-0.91174394]
 [ 0.47987977]
 [-0.66309595]
 [-0.6640199 ]
 [-0.54845357]
 [-0.6222739 ]
 [-0.88610846]
 [-0.81895953]
 [ 0.88084257]
 [-0.3575987 ]
 [ 0.8968212 ]
 [-0.14807175]
 [ 0.9059231 ]
 [ 0.8992787 ]
 [ 0.6642622 ]
 [ 0.838651  ]
 [-0.9222618 ]]

Layer 4:
[0.3730846]



Entrenamiento 5:
------------------------------------------------------------------------

Layer 0:
[[-5.94976824e-03  6.89084735e-03 -2.00827257e-03 ... -6.14794251e-03
   1.45054767e-02 -1.53400823e-02]
 [ 3.59503040e-03 -1.15769142e-02  5.89272426e-03 ... -7.54602579e-03
   4.91665633e-05 -2.09401082e-03]
 [ 2.29654331e-02  0.00000000e+00  3.33932717e-03 ... -1.02007035e-02
   8.89112614e-03  1.73222199e-02]
 ...
 [-7.03800470e-03 -1.75569870e-03  1.50697248e-03 ...  6.08300744e-03
  -4.54980787e-03 -9.31668002e-03]
 [-6.24912465e-03 -4.29227352e-02 -2.78202556e-02 ... -3.73840635e-03
   7.40239769e-03  6.61917171e-03]
 [-1.07726753e-02 -2.56412569e-02 -9.19385348e-03 ...  1.39814643e-02
  -6.18705992e-03 -6.89734751e-03]]

Layer 1:
[[ 0.02053695 -0.01500318 -0.00450387  0.02258395  0.01384907 -0.01304088
  -0.02749366  0.03012399  0.00934371 -0.01996722  0.01034184  0.01845101
  -0.00268502  0.01582211 -0.00882867  0.02938211 -0.02533044 -0.02983646
   0.01422822  0.0093372   0.0145106  -0.0055434   0.01211351 -0.04199048
  -0.00768591 -0.01279183  0.01889316 -0.02095335 -0.02642637 -0.00222157
   0.01674928 -0.01637179  0.00611529  0.00054865  0.03268655  0.01972821
  -0.02043329 -0.0423716  -0.00197214 -0.01412969 -0.02844518 -0.02943886
  -0.04076918 -0.00545877  0.01093569 -0.02183466 -0.02268132 -0.01521075
   0.03067913 -0.02084036  0.00217636  0.00390373  0.01187954  0.03578118
  -0.03454142  0.02170267 -0.03866286 -0.03095255  0.00195547 -0.00309034
   0.01945314 -0.01908032  0.01035306 -0.03717151  0.00601222  0.00062413
   0.02274694  0.00531374  0.0149877   0.02318474  0.01000776 -0.00660363
   0.02593751  0.00440377 -0.0111194   0.00146572  0.00143844 -0.00837213
  -0.03812773  0.00684725  0.01057122  0.00382107  0.00351322 -0.01322713
   0.00476879 -0.00657349 -0.00605788 -0.00568746 -0.00638905 -0.03542273
  -0.0113626   0.01642317 -0.00259508  0.02890732 -0.00015598  0.01562771
   0.02073536  0.00592089  0.00973103 -0.02727924]]

Layer 2:
[0. 0. 0. 0. 0. 0. 0. 0. 0. 0. 0. 0. 0. 0. 0. 0. 0. 0. 0. 0. 0. 0. 0. 0.
 0. 0. 0. 0. 0. 0. 0. 0. 0. 0. 0. 0. 0. 0. 0. 0. 0. 0. 0. 0. 0. 0. 0. 0.
 0. 0. 0. 0. 0. 0. 0. 0. 0. 0. 0. 0. 0. 0. 0. 0. 0. 0. 0. 0. 0. 0. 0. 0.
 0. 0. 0. 0. 0. 0. 0. 0. 0. 0. 0. 0. 0. 0. 0. 0. 0. 0. 0. 0. 0. 0. 0. 0.
 0. 0. 0. 0.]

Layer 3:
[[ 0.7222147 ]
 [-0.70830923]
 [-0.5438775 ]
 [ 0.77136356]
 [ 0.7314911 ]
 [-0.7540687 ]
 [-0.7207052 ]
 [ 0.7577823 ]
 [ 0.69545853]
 [-0.8275999 ]
 [ 0.65376854]
 [ 0.72619575]
 [-0.22111104]
 [ 0.7522012 ]
 [-0.7231064 ]
 [ 0.76223475]
 [-0.7709733 ]
 [-0.7072704 ]
 [ 0.68764555]
 [ 0.5859197 ]
 [ 0.7435326 ]
 [-0.5114642 ]
 [ 0.69067746]
 [-0.69250894]
 [-0.59732836]
 [-0.6614351 ]
 [ 0.79343927]
 [-0.7661769 ]
 [-0.7295369 ]
 [-0.35347548]
 [ 0.7005127 ]
 [-0.65291995]
 [ 0.59866065]
 [ 0.1407242 ]
 [ 0.87471455]
 [ 0.74176395]
 [-0.7764457 ]
 [-0.7329852 ]
 [-0.08223762]
 [-0.7256071 ]
 [-0.7906272 ]
 [-0.692125  ]
 [-0.80220056]
 [-0.47594166]
 [ 0.71337485]
 [-0.6758217 ]
 [-0.7580536 ]
 [-0.7563603 ]
 [ 0.80121815]
 [-0.75525266]
 [ 0.31887528]
 [ 0.28819123]
 [ 0.73673093]
 [ 0.7859501 ]
 [-0.7885299 ]
 [ 0.78216815]
 [-0.7184318 ]
 [-0.76760453]
 [ 0.23791955]
 [-0.3273956 ]
 [ 0.82111806]
 [-0.71633947]
 [ 0.67488253]
 [-0.8011196 ]
 [ 0.4914061 ]
 [ 0.14116949]
 [ 0.82209677]
 [ 0.5461286 ]
 [ 0.7819531 ]
 [ 0.7394355 ]
 [ 0.6698127 ]
 [-0.5763712 ]
 [ 0.7709221 ]
 [ 0.46475857]
 [-0.75464845]
 [ 0.24150634]
 [ 0.29518995]
 [-0.60820395]
 [-0.8168163 ]
 [ 0.6028287 ]
 [ 0.76669955]
 [ 0.42064488]
 [ 0.49646062]
 [-0.7604374 ]
 [ 0.45531532]
 [-0.60027254]
 [-0.5719905 ]
 [-0.45469669]
 [-0.54046506]
 [-0.63042015]
 [-0.6717282 ]
 [ 0.6272502 ]
 [-0.3091266 ]
 [ 0.6604621 ]
 [-0.10415313]
 [ 0.74475974]
 [ 0.7206763 ]
 [ 0.5772129 ]
 [ 0.7150466 ]
 [-0.7212552 ]]

Layer 4:
[0.0200733]



Consenso 5:
------------------------------------------------------------------------

Layer 0:
[[-5.94976824e-03  6.89084735e-03 -2.00827257e-03 ... -6.14794251e-03
   1.45054767e-02 -1.53400823e-02]
 [ 3.59503040e-03 -1.15769142e-02  5.89272426e-03 ... -7.54602579e-03
   4.91656028e-05 -2.09401082e-03]
 [ 2.29654331e-02  0.00000000e+00  3.33932717e-03 ... -1.02007035e-02
   8.89112614e-03  1.73222199e-02]
 ...
 [-7.03800470e-03 -1.75569870e-03  1.50697248e-03 ...  6.08300744e-03
  -4.54980787e-03 -9.31668002e-03]
 [-6.24912465e-03 -4.29227352e-02 -2.78202556e-02 ... -3.73840635e-03
   7.40239769e-03  6.61917171e-03]
 [-1.07726753e-02 -2.56412569e-02 -9.19385348e-03 ...  1.39814643e-02
  -6.18705992e-03 -6.89734751e-03]]

Layer 1:
[[ 0.02053695 -0.01500318 -0.00450387  0.02258395  0.01384907 -0.01304088
  -0.02749366  0.03012399  0.00934371 -0.01996722  0.01034184  0.01845101
  -0.00268502  0.01582211 -0.00882867  0.02938211 -0.02533044 -0.02983646
   0.01422822  0.0093372   0.0145106  -0.0055434   0.01211351 -0.04199048
  -0.00768591 -0.01279183  0.01889316 -0.02095335 -0.02642637 -0.00222157
   0.01674928 -0.01637179  0.00611529  0.00054865  0.03268655  0.01972821
  -0.02043329 -0.0423716  -0.00197214 -0.01412969 -0.02844518 -0.02943886
  -0.04076918 -0.00545877  0.01093569 -0.02183466 -0.02268132 -0.01521075
   0.03067913 -0.02084036  0.00217636  0.00390373  0.01187954  0.03578118
  -0.03454142  0.02170267 -0.03866286 -0.03095255  0.00195547 -0.00309034
   0.01945314 -0.01908032  0.01035306 -0.03717151  0.00601222  0.00062413
   0.02274694  0.00531374  0.0149877   0.02318474  0.01000776 -0.00660363
   0.02593751  0.00440377 -0.0111194   0.00146572  0.00143844 -0.00837213
  -0.03812773  0.00684725  0.01057122  0.00382107  0.00351322 -0.01322713
   0.00476879 -0.00657349 -0.00605788 -0.00568746 -0.00638905 -0.03542273
  -0.0113626   0.01642317 -0.00259508  0.02890732 -0.00015599  0.01562771
   0.02073536  0.00592089  0.00973103 -0.02727924]]

Layer 2:
[0. 0. 0. 0. 0. 0. 0. 0. 0. 0. 0. 0. 0. 0. 0. 0. 0. 0. 0. 0. 0. 0. 0. 0.
 0. 0. 0. 0. 0. 0. 0. 0. 0. 0. 0. 0. 0. 0. 0. 0. 0. 0. 0. 0. 0. 0. 0. 0.
 0. 0. 0. 0. 0. 0. 0. 0. 0. 0. 0. 0. 0. 0. 0. 0. 0. 0. 0. 0. 0. 0. 0. 0.
 0. 0. 0. 0. 0. 0. 0. 0. 0. 0. 0. 0. 0. 0. 0. 0. 0. 0. 0. 0. 0. 0. 0. 0.
 0. 0. 0. 0.]

Layer 3:
[[ 0.9261405 ]
 [-0.91146564]
 [-0.68542725]
 [ 0.97965986]
 [ 0.93853945]
 [-0.9506379 ]
 [-0.9226158 ]
 [ 0.95699084]
 [ 0.8714219 ]
 [-1.0222976 ]
 [ 0.8375621 ]
 [ 0.9416704 ]
 [-0.2873475 ]
 [ 0.96203274]
 [-0.9058649 ]
 [ 0.95410806]
 [-0.9699644 ]
 [-0.92858166]
 [ 0.88841087]
 [ 0.805963  ]
 [ 0.9883998 ]
 [-0.6696    ]
 [ 0.89619404]
 [-0.8841181 ]
 [-0.83492535]
 [-0.86352485]
 [ 0.9991753 ]
 [-0.97144186]
 [-0.9257721 ]
 [-0.46670687]
 [ 0.9017145 ]
 [-0.93951684]
 [ 0.76547754]
 [ 0.21626838]
 [ 1.0691487 ]
 [ 0.9763673 ]
 [-0.9876009 ]
 [-0.91474557]
 [-0.11786315]
 [-0.92697763]
 [-0.98831385]
 [-0.8828186 ]
 [-0.9854642 ]
 [-0.5847063 ]
 [ 0.9087721 ]
 [-0.9443651 ]
 [-0.9577926 ]
 [-0.96887445]
 [ 0.99172795]
 [-0.95829153]
 [ 0.40326455]
 [ 0.3834438 ]
 [ 0.92898965]
 [ 0.97173935]
 [-0.98244905]
 [ 0.979721  ]
 [-0.9196785 ]
 [-0.9592342 ]
 [ 0.31057078]
 [-0.5920315 ]
 [ 1.0391232 ]
 [-0.9199767 ]
 [ 0.8615081 ]
 [-1.0005374 ]
 [ 0.6528432 ]
 [ 0.165169  ]
 [ 1.0259697 ]
 [ 0.6785727 ]
 [ 0.9877596 ]
 [ 0.9537422 ]
 [ 0.8547037 ]
 [-0.75059146]
 [ 0.98505163]
 [ 0.59396476]
 [-0.95205224]
 [ 0.3066764 ]
 [ 0.36113542]
 [-0.7782876 ]
 [-1.0047759 ]
 [ 0.7729904 ]
 [ 0.94392544]
 [ 0.55012083]
 [ 0.6450337 ]
 [-0.9558153 ]
 [ 0.56152016]
 [-0.753877  ]
 [-0.73025495]
 [-0.6075997 ]
 [-0.69973737]
 [-0.8525761 ]
 [-0.86836886]
 [ 0.9033021 ]
 [-0.40394443]
 [ 0.8805609 ]
 [-0.15027376]
 [ 0.9464285 ]
 [ 0.9239368 ]
 [ 0.7418308 ]
 [ 0.90206134]
 [-0.91996664]]

Layer 4:
[0.17779316]



Entrenamiento 6:
------------------------------------------------------------------------

Layer 0:
[[-5.94976824e-03  6.89084735e-03 -2.00827257e-03 ... -6.14794251e-03
   1.45054767e-02 -1.53400823e-02]
 [ 3.59503040e-03 -1.15769142e-02  5.89272426e-03 ... -7.54602579e-03
   4.91656028e-05 -2.09401082e-03]
 [ 2.29654331e-02  0.00000000e+00  3.33932717e-03 ... -1.02007035e-02
   8.89112614e-03  1.73222199e-02]
 ...
 [-7.03800470e-03 -1.75569870e-03  1.50697248e-03 ...  6.08300744e-03
  -4.54980787e-03 -9.31668002e-03]
 [-6.24912465e-03 -4.29227352e-02 -2.78202556e-02 ... -3.73840635e-03
   7.40239769e-03  6.61917171e-03]
 [-1.07726753e-02 -2.56412569e-02 -9.19385348e-03 ...  1.39814643e-02
  -6.18705992e-03 -6.89734751e-03]]

Layer 1:
[[ 0.02053695 -0.01500318 -0.00450387  0.02258395  0.01384907 -0.01304088
  -0.02749366  0.03012399  0.00934371 -0.01996722  0.01034184  0.01845101
  -0.00268502  0.01582211 -0.00882867  0.02938211 -0.02533044 -0.02983646
   0.01422822  0.0093372   0.0145106  -0.0055434   0.01211351 -0.04199048
  -0.00768591 -0.01279183  0.01889316 -0.02095335 -0.02642637 -0.00222157
   0.01674928 -0.01637179  0.00611529  0.00054865  0.03268655  0.01972821
  -0.02043329 -0.0423716  -0.00197214 -0.01412969 -0.02844518 -0.02943886
  -0.04076918 -0.00545877  0.01093569 -0.02183466 -0.02268132 -0.01521075
   0.03067913 -0.02084036  0.00217636  0.00390373  0.01187954  0.03578118
  -0.03454142  0.02170267 -0.03866286 -0.03095255  0.00195547 -0.00309034
   0.01945314 -0.01908032  0.01035306 -0.03717151  0.00601222  0.00062413
   0.02274694  0.00531374  0.0149877   0.02318474  0.01000776 -0.00660363
   0.02593751  0.00440377 -0.0111194   0.00146572  0.00143844 -0.00837213
  -0.03812773  0.00684725  0.01057122  0.00382107  0.00351322 -0.01322713
   0.00476879 -0.00657349 -0.00605788 -0.00568746 -0.00638905 -0.03542273
  -0.0113626   0.01642317 -0.00259508  0.02890732 -0.00015599  0.01562771
   0.02073536  0.00592089  0.00973103 -0.02727924]]

Layer 2:
[0. 0. 0. 0. 0. 0. 0. 0. 0. 0. 0. 0. 0. 0. 0. 0. 0. 0. 0. 0. 0. 0. 0. 0.
 0. 0. 0. 0. 0. 0. 0. 0. 0. 0. 0. 0. 0. 0. 0. 0. 0. 0. 0. 0. 0. 0. 0. 0.
 0. 0. 0. 0. 0. 0. 0. 0. 0. 0. 0. 0. 0. 0. 0. 0. 0. 0. 0. 0. 0. 0. 0. 0.
 0. 0. 0. 0. 0. 0. 0. 0. 0. 0. 0. 0. 0. 0. 0. 0. 0. 0. 0. 0. 0. 0. 0. 0.
 0. 0. 0. 0.]

Layer 3:
[[ 0.7129977 ]
 [-0.7591381 ]
 [-0.6094243 ]
 [ 0.7609089 ]
 [ 0.7748357 ]
 [-0.7897092 ]
 [-0.7117692 ]
 [ 0.72276366]
 [ 0.76807785]
 [-0.83399   ]
 [ 0.69549376]
 [ 0.7478616 ]
 [-0.27360106]
 [ 0.7683284 ]
 [-0.76133484]
 [ 0.7285387 ]
 [-0.7560152 ]
 [-0.68912053]
 [ 0.7075436 ]
 [ 0.63353527]
 [ 0.7773741 ]
 [-0.55914295]
 [ 0.70951295]
 [-0.6284006 ]
 [-0.65607524]
 [-0.7159107 ]
 [ 0.8210106 ]
 [-0.79965526]
 [-0.70354676]
 [-0.36490187]
 [ 0.70919365]
 [-0.70127827]
 [ 0.66303194]
 [ 0.15168613]
 [ 0.8348826 ]
 [ 0.74023014]
 [-0.79401124]
 [-0.6629146 ]
 [-0.12644982]
 [-0.7455929 ]
 [-0.76306564]
 [-0.6456577 ]
 [-0.74388176]
 [-0.582317  ]
 [ 0.77316725]
 [-0.6841493 ]
 [-0.759841  ]
 [-0.7964864 ]
 [ 0.781879  ]
 [-0.7598759 ]
 [ 0.3842026 ]
 [ 0.36050287]
 [ 0.78199655]
 [ 0.7343732 ]
 [-0.7423076 ]
 [ 0.79355097]
 [-0.66211236]
 [-0.7313851 ]
 [ 0.2647484 ]
 [-0.34334305]
 [ 0.8258652 ]
 [-0.73635316]
 [ 0.72995627]
 [-0.7557825 ]
 [ 0.5368933 ]
 [ 0.16548188]
 [ 0.82163084]
 [ 0.6062962 ]
 [ 0.80373734]
 [ 0.73458725]
 [ 0.737003  ]
 [-0.606706  ]
 [ 0.7621178 ]
 [ 0.52603006]
 [-0.79507893]
 [ 0.24299781]
 [ 0.3314102 ]
 [-0.67076164]
 [-0.76976186]
 [ 0.6608538 ]
 [ 0.8329131 ]
 [ 0.46498328]
 [ 0.52213407]
 [-0.7878242 ]
 [ 0.5324983 ]
 [-0.681154  ]
 [-0.625273  ]
 [-0.5011088 ]
 [-0.60598123]
 [-0.5873885 ]
 [-0.7046438 ]
 [ 0.6401632 ]
 [-0.3481681 ]
 [ 0.63214594]
 [-0.10003369]
 [ 0.76870626]
 [ 0.72908854]
 [ 0.6423426 ]
 [ 0.76295716]
 [-0.70384246]]

Layer 4:
[-0.07462733]



Consenso 6:
------------------------------------------------------------------------

Layer 0:
[[-5.94976824e-03  6.89084735e-03 -2.00827257e-03 ... -6.14794251e-03
   1.45054767e-02 -1.53400823e-02]
 [ 3.59503040e-03 -1.15769142e-02  5.89272426e-03 ... -7.54602579e-03
   4.91656028e-05 -2.09401082e-03]
 [ 2.29654331e-02  0.00000000e+00  3.33932717e-03 ... -1.02007035e-02
   8.89112614e-03  1.73222199e-02]
 ...
 [-7.03800470e-03 -1.75569870e-03  1.50697248e-03 ...  6.08300744e-03
  -4.54980787e-03 -9.31668002e-03]
 [-6.24912465e-03 -4.29227352e-02 -2.78202556e-02 ... -3.73840635e-03
   7.40239769e-03  6.61917171e-03]
 [-1.07726753e-02 -2.56412569e-02 -9.19385348e-03 ...  1.39814643e-02
  -6.18705992e-03 -6.89734751e-03]]

Layer 1:
[[ 0.02053695 -0.01500318 -0.00450387  0.02258395  0.01384907 -0.01304088
  -0.02749366  0.03012399  0.00934371 -0.01996722  0.01034184  0.01845101
  -0.00268502  0.01582211 -0.00882867  0.02938211 -0.02533044 -0.02983646
   0.01422822  0.0093372   0.0145106  -0.0055434   0.01211351 -0.04199048
  -0.00768591 -0.01279183  0.01889316 -0.02095335 -0.02642637 -0.00222157
   0.01674928 -0.01637179  0.00611529  0.00054865  0.03268655  0.01972821
  -0.02043329 -0.0423716  -0.00197214 -0.01412969 -0.02844518 -0.02943886
  -0.04076918 -0.00545877  0.01093569 -0.02183466 -0.02268132 -0.01521075
   0.03067913 -0.02084036  0.00217636  0.00390373  0.01187954  0.03578118
  -0.03454142  0.02170267 -0.03866286 -0.03095255  0.00195547 -0.00309034
   0.01945314 -0.01908032  0.01035306 -0.03717151  0.00601222  0.00062413
   0.02274694  0.00531374  0.0149877   0.02318474  0.01000776 -0.00660363
   0.02593751  0.00440377 -0.0111194   0.00146572  0.00143844 -0.00837213
  -0.03812773  0.00684725  0.01057122  0.00382107  0.00351322 -0.01322713
   0.00476879 -0.00657349 -0.00605788 -0.00568746 -0.00638905 -0.03542273
  -0.0113626   0.01642317 -0.00259508  0.02890732 -0.00015599  0.01562771
   0.02073536  0.00592089  0.00973103 -0.02727924]]

Layer 2:
[0. 0. 0. 0. 0. 0. 0. 0. 0. 0. 0. 0. 0. 0. 0. 0. 0. 0. 0. 0. 0. 0. 0. 0.
 0. 0. 0. 0. 0. 0. 0. 0. 0. 0. 0. 0. 0. 0. 0. 0. 0. 0. 0. 0. 0. 0. 0. 0.
 0. 0. 0. 0. 0. 0. 0. 0. 0. 0. 0. 0. 0. 0. 0. 0. 0. 0. 0. 0. 0. 0. 0. 0.
 0. 0. 0. 0. 0. 0. 0. 0. 0. 0. 0. 0. 0. 0. 0. 0. 0. 0. 0. 0. 0. 0. 0. 0.
 0. 0. 0. 0.]

Layer 3:
[[ 0.9239375 ]
 [-0.9735335 ]
 [-0.7602635 ]
 [ 0.97573614]
 [ 0.99285054]
 [-0.9964953 ]
 [-0.9196956 ]
 [ 0.92524976]
 [ 0.9541222 ]
 [-1.0379233 ]
 [ 0.8899839 ]
 [ 0.97249043]
 [-0.34470177]
 [ 0.9870475 ]
 [-0.9553072 ]
 [ 0.9252971 ]
 [-0.96129537]
 [-0.91350937]
 [ 0.91832453]
 [ 0.8659497 ]
 [ 1.0317744 ]
 [-0.7283945 ]
 [ 0.92493844]
 [-0.8195652 ]
 [-0.9082102 ]
 [-0.9290584 ]
 [ 1.0361004 ]
 [-1.014714  ]
 [-0.90535104]
 [-0.48608822]
 [ 0.91922194]
 [-0.994176  ]
 [ 0.8396676 ]
 [ 0.23454875]
 [ 1.0325748 ]
 [ 0.9805168 ]
 [-1.0140737 ]
 [-0.84513247]
 [-0.1649376 ]
 [-0.9573767 ]
 [-0.9654193 ]
 [-0.83969355]
 [-0.92878336]
 [-0.6975256 ]
 [ 0.979662  ]
 [-0.95401204]
 [-0.9675593 ]
 [-1.01997   ]
 [ 0.9782929 ]
 [-0.9709388 ]
 [ 0.47329897]
 [ 0.46219587]
 [ 0.98493224]
 [ 0.92270225]
 [-0.9386607 ]
 [ 1.0004236 ]
 [-0.8633916 ]
 [-0.92703843]
 [ 0.3431694 ]
 [-0.6173465 ]
 [ 1.0514251 ]
 [-0.9491818 ]
 [ 0.92750514]
 [-0.9565824 ]
 [ 0.7091482 ]
 [ 0.19135146]
 [ 1.0333172 ]
 [ 0.74721503]
 [ 1.0196469 ]
 [ 0.9554152 ]
 [ 0.9324478 ]
 [-0.79138875]
 [ 0.98163354]
 [ 0.6640898 ]
 [-1.004107  ]
 [ 0.314454  ]
 [ 0.40242234]
 [-0.85111225]
 [-0.96026886]
 [ 0.8413627 ]
 [ 1.0208693 ]
 [ 0.6036051 ]
 [ 0.68077177]
 [-0.99407136]
 [ 0.6457485 ]
 [-0.8441403 ]
 [-0.7938514 ]
 [-0.66399723]
 [-0.7754151 ]
 [-0.80814016]
 [-0.9120375 ]
 [ 0.9189276 ]
 [-0.4502571 ]
 [ 0.8542763 ]
 [-0.15011823]
 [ 0.9805305 ]
 [ 0.940901  ]
 [ 0.8176579 ]
 [ 0.96092296]
 [-0.90829474]]

Layer 4:
[0.0686766]



Entrenamiento 7:
------------------------------------------------------------------------

Layer 0:
[[-5.94976824e-03  6.89084735e-03 -2.00827257e-03 ... -6.14794251e-03
   1.45054767e-02 -1.53400823e-02]
 [ 3.59503040e-03 -1.15769142e-02  5.89272426e-03 ... -7.54602579e-03
   4.91656028e-05 -2.09401082e-03]
 [ 2.29654331e-02  0.00000000e+00  3.33932717e-03 ... -1.02007035e-02
   8.89112614e-03  1.73222199e-02]
 ...
 [-7.03800470e-03 -1.75569870e-03  1.50697248e-03 ...  6.08300744e-03
  -4.54980787e-03 -9.31668002e-03]
 [-6.24912465e-03 -4.29227352e-02 -2.78202556e-02 ... -3.73840635e-03
   7.40239769e-03  6.61917171e-03]
 [-1.07726753e-02 -2.56412569e-02 -9.19385348e-03 ...  1.39814643e-02
  -6.18705992e-03 -6.89734751e-03]]

Layer 1:
[[ 0.02053695 -0.01500318 -0.00450387  0.02258395  0.01384907 -0.01304088
  -0.02749366  0.03012399  0.00934371 -0.01996722  0.01034184  0.01845101
  -0.00268502  0.01582211 -0.00882867  0.02938211 -0.02533044 -0.02983646
   0.01422822  0.0093372   0.0145106  -0.0055434   0.01211351 -0.04199048
  -0.00768591 -0.01279183  0.01889316 -0.02095335 -0.02642637 -0.00222157
   0.01674928 -0.01637179  0.00611529  0.00054865  0.03268655  0.01972821
  -0.02043329 -0.0423716  -0.00197214 -0.01412969 -0.02844518 -0.02943886
  -0.04076918 -0.00545877  0.01093569 -0.02183466 -0.02268132 -0.01521075
   0.03067913 -0.02084036  0.00217636  0.00390373  0.01187954  0.03578118
  -0.03454142  0.02170267 -0.03866286 -0.03095255  0.00195547 -0.00309034
   0.01945314 -0.01908032  0.01035306 -0.03717151  0.00601222  0.00062413
   0.02274694  0.00531374  0.0149877   0.02318474  0.01000776 -0.00660363
   0.02593751  0.00440377 -0.0111194   0.00146572  0.00143844 -0.00837213
  -0.03812773  0.00684725  0.01057122  0.00382107  0.00351322 -0.01322713
   0.00476879 -0.00657349 -0.00605788 -0.00568746 -0.00638905 -0.03542273
  -0.0113626   0.01642317 -0.00259508  0.02890732 -0.00015599  0.01562771
   0.02073536  0.00592089  0.00973103 -0.02727924]]

Layer 2:
[0. 0. 0. 0. 0. 0. 0. 0. 0. 0. 0. 0. 0. 0. 0. 0. 0. 0. 0. 0. 0. 0. 0. 0.
 0. 0. 0. 0. 0. 0. 0. 0. 0. 0. 0. 0. 0. 0. 0. 0. 0. 0. 0. 0. 0. 0. 0. 0.
 0. 0. 0. 0. 0. 0. 0. 0. 0. 0. 0. 0. 0. 0. 0. 0. 0. 0. 0. 0. 0. 0. 0. 0.
 0. 0. 0. 0. 0. 0. 0. 0. 0. 0. 0. 0. 0. 0. 0. 0. 0. 0. 0. 0. 0. 0. 0. 0.
 0. 0. 0. 0.]

Layer 3:
[[ 0.7087303 ]
 [-0.8154114 ]
 [-0.67898375]
 [ 0.7556785 ]
 [ 0.8236484 ]
 [-0.8298298 ]
 [-0.7070076 ]
 [ 0.6915723 ]
 [ 0.84472275]
 [-0.8455942 ]
 [ 0.7417299 ]
 [ 0.7750749 ]
 [-0.32992792]
 [ 0.7894807 ]
 [-0.8044615 ]
 [ 0.6992776 ]
 [-0.745643  ]
 [-0.67576957]
 [ 0.7326104 ]
 [ 0.68825203]
 [ 0.8186945 ]
 [-0.611854  ]
 [ 0.73369867]
 [-0.5673486 ]
 [-0.7244883 ]
 [-0.7754065 ]
 [ 0.853328  ]
 [-0.8381686 ]
 [-0.68224436]
 [-0.37853706]
 [ 0.7227131 ]
 [-0.7582733 ]
 [ 0.73113626]
 [ 0.16532816]
 [ 0.79897016]
 [ 0.7451933 ]
 [-0.8169637 ]
 [-0.5961572 ]
 [-0.17407092]
 [-0.77114093]
 [-0.7396828 ]
 [-0.6032624 ]
 [-0.688851  ]
 [-0.6943091 ]
 [ 0.8377002 ]
 [-0.69887376]
 [-0.766422  ]
 [-0.84255975]
 [ 0.7665977 ]
 [-0.7692681 ]
 [ 0.45238173]
 [ 0.4375547 ]
 [ 0.83176464]
 [ 0.6863544 ]
 [-0.69995266]
 [ 0.8102165 ]
 [-0.60979474]
 [-0.6990236 ]
 [ 0.29405954]
 [-0.36942282]
 [ 0.8362361 ]
 [-0.76121116]
 [ 0.7896569 ]
 [-0.713977  ]
 [ 0.58705384]
 [ 0.19151331]
 [ 0.8263948 ]
 [ 0.6702104 ]
 [ 0.8311244 ]
 [ 0.7351842 ]
 [ 0.8082096 ]
 [-0.64108217]
 [ 0.75812596]
 [ 0.5912725 ]
 [-0.8413095 ]
 [ 0.24695814]
 [ 0.37033856]
 [-0.737428  ]
 [-0.72617036]
 [ 0.722862  ]
 [ 0.9035455 ]
 [ 0.51312095]
 [ 0.55149066]
 [-0.8204825 ]
 [ 0.61446625]
 [-0.76636165]
 [-0.6826038 ]
 [-0.55160296]
 [-0.6757698 ]
 [-0.54823524]
 [-0.7425304 ]
 [ 0.66082317]
 [-0.39067575]
 [ 0.608475  ]
 [-0.09632719]
 [ 0.79800653]
 [ 0.7426218 ]
 [ 0.7121467 ]
 [ 0.8154497 ]
 [-0.6908184 ]]

Layer 4:
[-0.12624805]



Consenso 7:
------------------------------------------------------------------------

Layer 0:
[[-5.94976824e-03  6.89084735e-03 -2.00827257e-03 ... -6.14794251e-03
   1.45054767e-02 -1.53400823e-02]
 [ 3.59503040e-03 -1.15769142e-02  5.89272426e-03 ... -7.54602579e-03
   4.91656028e-05 -2.09401082e-03]
 [ 2.29654331e-02  0.00000000e+00  3.33932717e-03 ... -1.02007035e-02
   8.89112614e-03  1.73222199e-02]
 ...
 [-7.03800470e-03 -1.75569870e-03  1.50697248e-03 ...  6.08300744e-03
  -4.54980787e-03 -9.31668002e-03]
 [-6.24912465e-03 -4.29227352e-02 -2.78202556e-02 ... -3.73840635e-03
   7.40239769e-03  6.61917171e-03]
 [-1.07726753e-02 -2.56412569e-02 -9.19385348e-03 ...  1.39814643e-02
  -6.18705992e-03 -6.89734751e-03]]

Layer 1:
[[ 0.02053695 -0.01500318 -0.00450387  0.02258395  0.01384907 -0.01304088
  -0.02749366  0.03012399  0.00934371 -0.01996722  0.01034184  0.01845101
  -0.00268502  0.01582211 -0.00882867  0.02938211 -0.02533044 -0.02983646
   0.01422822  0.0093372   0.0145106  -0.0055434   0.01211351 -0.04199048
  -0.00768591 -0.01279183  0.01889316 -0.02095335 -0.02642637 -0.00222157
   0.01674928 -0.01637179  0.00611529  0.00054865  0.03268655  0.01972821
  -0.02043329 -0.0423716  -0.00197214 -0.01412969 -0.02844518 -0.02943886
  -0.04076918 -0.00545877  0.01093569 -0.02183466 -0.02268132 -0.01521075
   0.03067913 -0.02084036  0.00217636  0.00390373  0.01187954  0.03578118
  -0.03454142  0.02170267 -0.03866286 -0.03095255  0.00195547 -0.00309034
   0.01945314 -0.01908032  0.01035306 -0.03717151  0.00601222  0.00062413
   0.02274694  0.00531374  0.0149877   0.02318474  0.01000776 -0.00660363
   0.02593751  0.00440377 -0.0111194   0.00146572  0.00143844 -0.00837213
  -0.03812773  0.00684725  0.01057122  0.00382107  0.00351322 -0.01322713
   0.00476879 -0.00657349 -0.00605788 -0.00568746 -0.00638905 -0.03542273
  -0.0113626   0.01642317 -0.00259508  0.02890732 -0.00015599  0.01562771
   0.02073536  0.00592089  0.00973103 -0.02727924]]

Layer 2:
[0. 0. 0. 0. 0. 0. 0. 0. 0. 0. 0. 0. 0. 0. 0. 0. 0. 0. 0. 0. 0. 0. 0. 0.
 0. 0. 0. 0. 0. 0. 0. 0. 0. 0. 0. 0. 0. 0. 0. 0. 0. 0. 0. 0. 0. 0. 0. 0.
 0. 0. 0. 0. 0. 0. 0. 0. 0. 0. 0. 0. 0. 0. 0. 0. 0. 0. 0. 0. 0. 0. 0. 0.
 0. 0. 0. 0. 0. 0. 0. 0. 0. 0. 0. 0. 0. 0. 0. 0. 0. 0. 0. 0. 0. 0. 0. 0.
 0. 0. 0. 0.]

Layer 3:
[[ 0.91777986]
 [-1.0337874 ]
 [-0.83562744]
 [ 0.96785223]
 [ 1.044819  ]
 [-1.0398523 ]
 [-0.91212666]
 [ 0.88828987]
 [ 1.03612   ]
 [-1.0508423 ]
 [ 0.94073904]
 [ 1.0001966 ]
 [-0.40516317]
 [ 1.0086097 ]
 [-1.0033448 ]
 [ 0.8920743 ]
 [-0.94845617]
 [-0.8937443 ]
 [ 0.9454059 ]
 [ 0.924339  ]
 [ 1.0727447 ]
 [-0.78701514]
 [ 0.95085335]
 [-0.7490254 ]
 [-0.9812396 ]
 [-0.99254   ]
 [ 1.0697652 ]
 [-1.05517   ]
 [-0.88080424]
 [-0.5037927 ]
 [ 0.93332106]
 [-1.0466064 ]
 [ 0.9129627 ]
 [ 0.25261894]
 [ 0.9909514 ]
 [ 0.98132086]
 [-1.037329  ]
 [-0.7698894 ]
 [-0.21550547]
 [-0.98548746]
 [-0.93770605]
 [-0.79165775]
 [-0.86653507]
 [-0.8149814 ]
 [ 1.0488344 ]
 [-0.9599952 ]
 [-0.9736664 ]
 [-1.0688729 ]
 [ 0.9603496 ]
 [-0.97981983]
 [ 0.54565185]
 [ 0.5443105 ]
 [ 1.0387274 ]
 [ 0.8683374 ]
 [-0.889722  ]
 [ 1.0182127 ]
 [-0.80191106]
 [-0.8898867 ]
 [ 0.37634525]
 [-0.64096826]
 [ 1.0600165 ]
 [-0.97510034]
 [ 0.99210656]
 [-0.90700567]
 [ 0.76476634]
 [ 0.21926911]
 [ 1.0373408 ]
 [ 0.816706  ]
 [ 1.0490127 ]
 [ 0.9533137 ]
 [ 1.0088567 ]
 [-0.8300438 ]
 [ 0.973776  ]
 [ 0.7350981 ]
 [-1.0547155 ]
 [ 0.32177278]
 [ 0.44524264]
 [-0.9233401 ]
 [-0.91034645]
 [ 0.9088617 ]
 [ 1.0972646 ]
 [ 0.6571084 ]
 [ 0.7150471 ]
 [-1.0302854 ]
 [ 0.7331134 ]
 [-0.93514234]
 [-0.8568723 ]
 [-0.7198002 ]
 [-0.8511121 ]
 [-0.7582191 ]
 [-0.9534901 ]
 [ 0.9318795 ]
 [-0.4976313 ]
 [ 0.8231166 ]
 [-0.14844406]
 [ 1.0120658 ]
 [ 0.95454216]
 [ 0.8935187 ]
 [ 1.0179893 ]
 [-0.89228946]]

Layer 4:
[0.00484231]



Entrenamiento 8:
------------------------------------------------------------------------

Layer 0:
[[-5.94976824e-03  6.89084735e-03 -2.00827257e-03 ... -6.14794251e-03
   1.45054767e-02 -1.53400823e-02]
 [ 3.59503040e-03 -1.15769142e-02  5.89272426e-03 ... -7.54602579e-03
   4.91656028e-05 -2.09401082e-03]
 [ 2.29654331e-02  0.00000000e+00  3.33932717e-03 ... -1.02007035e-02
   8.89112614e-03  1.73222199e-02]
 ...
 [-7.03800470e-03 -1.75569870e-03  1.50697248e-03 ...  6.08300744e-03
  -4.54980787e-03 -9.31668002e-03]
 [-6.24912465e-03 -4.29227352e-02 -2.78202556e-02 ... -3.73840635e-03
   7.40239769e-03  6.61917171e-03]
 [-1.07726753e-02 -2.56412569e-02 -9.19385348e-03 ...  1.39814643e-02
  -6.18705992e-03 -6.89734751e-03]]

Layer 1:
[[ 0.02053695 -0.01500318 -0.00450387  0.02258395  0.01384907 -0.01304088
  -0.02749366  0.03012399  0.00934371 -0.01996722  0.01034184  0.01845101
  -0.00268502  0.01582211 -0.00882867  0.02938211 -0.02533044 -0.02983646
   0.01422822  0.0093372   0.0145106  -0.0055434   0.01211351 -0.04199048
  -0.00768591 -0.01279183  0.01889316 -0.02095335 -0.02642637 -0.00222157
   0.01674928 -0.01637179  0.00611529  0.00054865  0.03268655  0.01972821
  -0.02043329 -0.0423716  -0.00197214 -0.01412969 -0.02844518 -0.02943886
  -0.04076918 -0.00545877  0.01093569 -0.02183466 -0.02268132 -0.01521075
   0.03067913 -0.02084036  0.00217636  0.00390373  0.01187954  0.03578118
  -0.03454142  0.02170267 -0.03866286 -0.03095255  0.00195547 -0.00309034
   0.01945314 -0.01908032  0.01035306 -0.03717151  0.00601222  0.00062413
   0.02274694  0.00531374  0.0149877   0.02318474  0.01000776 -0.00660363
   0.02593751  0.00440377 -0.0111194   0.00146572  0.00143844 -0.00837213
  -0.03812773  0.00684725  0.01057122  0.00382107  0.00351322 -0.01322713
   0.00476879 -0.00657349 -0.00605788 -0.00568746 -0.00638905 -0.03542273
  -0.0113626   0.01642317 -0.00259508  0.02890732 -0.00015599  0.01562771
   0.02073536  0.00592089  0.00973103 -0.02727924]]

Layer 2:
[0. 0. 0. 0. 0. 0. 0. 0. 0. 0. 0. 0. 0. 0. 0. 0. 0. 0. 0. 0. 0. 0. 0. 0.
 0. 0. 0. 0. 0. 0. 0. 0. 0. 0. 0. 0. 0. 0. 0. 0. 0. 0. 0. 0. 0. 0. 0. 0.
 0. 0. 0. 0. 0. 0. 0. 0. 0. 0. 0. 0. 0. 0. 0. 0. 0. 0. 0. 0. 0. 0. 0. 0.
 0. 0. 0. 0. 0. 0. 0. 0. 0. 0. 0. 0. 0. 0. 0. 0. 0. 0. 0. 0. 0. 0. 0. 0.
 0. 0. 0. 0.]

Layer 3:
[[ 0.7047646 ]
 [-0.8750087 ]
 [-0.7518162 ]
 [ 0.750763  ]
 [ 0.875245  ]
 [-0.87216836]
 [-0.70224327]
 [ 0.6583563 ]
 [ 0.9242813 ]
 [-0.8596428 ]
 [ 0.79022795]
 [ 0.8047489 ]
 [-0.3897796 ]
 [ 0.8120329 ]
 [-0.8506649 ]
 [ 0.6692105 ]
 [-0.73549366]
 [-0.66181827]
 [ 0.75988954]
 [ 0.7463998 ]
 [ 0.8638825 ]
 [-0.6673906 ]
 [ 0.7598101 ]
 [-0.50091404]
 [-0.79938686]
 [-0.83758897]
 [ 0.8874708 ]
 [-0.87928087]
 [-0.66085035]
 [-0.39244783]
 [ 0.73775506]
 [-0.819702  ]
 [ 0.8015872 ]
 [ 0.18094197]
 [ 0.7609568 ]
 [ 0.7515785 ]
 [-0.84231514]
 [-0.5243551 ]
 [-0.22515105]
 [-0.8000029 ]
 [-0.7151819 ]
 [-0.55862504]
 [-0.6298776 ]
 [-0.8125638 ]
 [ 0.9051413 ]
 [-0.71467924]
 [-0.7742912 ]
 [-0.89202076]
 [ 0.7508918 ]
 [-0.77985823]
 [ 0.5242951 ]
 [ 0.51867205]
 [ 0.8840065 ]
 [ 0.6352944 ]
 [-0.6548838 ]
 [ 0.8293453 ]
 [-0.5537587 ]
 [-0.66491693]
 [ 0.3251316 ]
 [-0.3991736 ]
 [ 0.84777594]
 [-0.7880593 ]
 [ 0.85210365]
 [-0.66883725]
 [ 0.6394664 ]
 [ 0.21968302]
 [ 0.8327973 ]
 [ 0.73687583]
 [ 0.8611287 ]
 [ 0.73659176]
 [ 0.88269794]
 [-0.67735404]
 [ 0.7544344 ]
 [ 0.6599491 ]
 [-0.89076495]
 [ 0.25108907]
 [ 0.4118922 ]
 [-0.80708224]
 [-0.6796589 ]
 [ 0.7876788 ]
 [ 0.9779691 ]
 [ 0.5635691 ]
 [ 0.58243597]
 [-0.8565149 ]
 [ 0.700631  ]
 [-0.85501355]
 [-0.7430207 ]
 [-0.6040783 ]
 [-0.7488652 ]
 [-0.50536704]
 [-0.7831151 ]
 [ 0.68351024]
 [-0.43564412]
 [ 0.58313537]
 [-0.0923098 ]
 [ 0.8295582 ]
 [ 0.75777566]
 [ 0.7853213 ]
 [ 0.87054324]
 [-0.67770004]]

Layer 4:
[-0.17253293]



Consenso 8:
------------------------------------------------------------------------

Layer 0:
[[-5.94976824e-03  6.89084735e-03 -2.00827257e-03 ... -6.14794251e-03
   1.45054767e-02 -1.53400823e-02]
 [ 3.59503040e-03 -1.15769142e-02  5.89272426e-03 ... -7.54602579e-03
   4.91656028e-05 -2.09401082e-03]
 [ 2.29654331e-02  0.00000000e+00  3.33932717e-03 ... -1.02007035e-02
   8.89112614e-03  1.73222199e-02]
 ...
 [-7.03800470e-03 -1.75569870e-03  1.50697248e-03 ...  6.08300744e-03
  -4.54980787e-03 -9.31668002e-03]
 [-6.24912465e-03 -4.29227352e-02 -2.78202556e-02 ... -3.73840635e-03
   7.40239769e-03  6.61917171e-03]
 [-1.07726753e-02 -2.56412569e-02 -9.19385348e-03 ...  1.39814643e-02
  -6.18705992e-03 -6.89734751e-03]]

Layer 1:
[[ 0.02053695 -0.01500318 -0.00450387  0.02258395  0.01384907 -0.01304088
  -0.02749366  0.03012399  0.00934371 -0.01996722  0.01034184  0.01845101
  -0.00268502  0.01582211 -0.00882867  0.02938211 -0.02533044 -0.02983646
   0.01422822  0.0093372   0.0145106  -0.0055434   0.01211351 -0.04199048
  -0.00768591 -0.01279183  0.01889316 -0.02095335 -0.02642637 -0.00222157
   0.01674928 -0.01637179  0.00611529  0.00054865  0.03268655  0.01972821
  -0.02043329 -0.0423716  -0.00197214 -0.01412969 -0.02844518 -0.02943886
  -0.04076918 -0.00545877  0.01093569 -0.02183466 -0.02268132 -0.01521075
   0.03067913 -0.02084036  0.00217636  0.00390373  0.01187954  0.03578118
  -0.03454142  0.02170267 -0.03866286 -0.03095255  0.00195547 -0.00309034
   0.01945314 -0.01908032  0.01035306 -0.03717151  0.00601222  0.00062413
   0.02274694  0.00531374  0.0149877   0.02318474  0.01000776 -0.00660363
   0.02593751  0.00440377 -0.0111194   0.00146572  0.00143844 -0.00837213
  -0.03812773  0.00684725  0.01057122  0.00382107  0.00351322 -0.01322713
   0.00476879 -0.00657349 -0.00605788 -0.00568746 -0.00638905 -0.03542273
  -0.0113626   0.01642317 -0.00259508  0.02890732 -0.00015599  0.01562771
   0.02073536  0.00592089  0.00973103 -0.02727924]]

Layer 2:
[0. 0. 0. 0. 0. 0. 0. 0. 0. 0. 0. 0. 0. 0. 0. 0. 0. 0. 0. 0. 0. 0. 0. 0.
 0. 0. 0. 0. 0. 0. 0. 0. 0. 0. 0. 0. 0. 0. 0. 0. 0. 0. 0. 0. 0. 0. 0. 0.
 0. 0. 0. 0. 0. 0. 0. 0. 0. 0. 0. 0. 0. 0. 0. 0. 0. 0. 0. 0. 0. 0. 0. 0.
 0. 0. 0. 0. 0. 0. 0. 0. 0. 0. 0. 0. 0. 0. 0. 0. 0. 0. 0. 0. 0. 0. 0. 0.
 0. 0. 0. 0.]

Layer 3:
[[ 0.9094342 ]
 [-1.0939939 ]
 [-0.91216356]
 [ 0.957956  ]
 [ 1.09622   ]
 [-1.0822812 ]
 [-0.9020165 ]
 [ 0.8480426 ]
 [ 1.1186343 ]
 [-1.0628822 ]
 [ 0.9910135 ]
 [ 1.0265967 ]
 [-0.469018  ]
 [ 1.0284872 ]
 [-1.0512918 ]
 [ 0.85638535]
 [-0.93334335]
 [-0.8712528 ]
 [ 0.9712707 ]
 [ 0.98232085]
 [ 1.1130602 ]
 [-0.84624475]
 [ 0.9755827 ]
 [-0.67440474]
 [-1.0553033 ]
 [-1.0554143 ]
 [ 1.1021397 ]
 [-1.0946023 ]
 [-0.8539924 ]
 [-0.52044165]
 [ 0.94574684]
 [-1.0986613 ]
 [ 0.98651594]
 [ 0.27072516]
 [ 0.9461768 ]
 [ 0.9805653 ]
 [-1.0591724 ]
 [-0.69087714]
 [-0.26953045]
 [-1.0128822 ]
 [-0.9072082 ]
 [-0.74053276]
 [-0.80068797]
 [-0.9374182 ]
 [ 1.1177733 ]
 [-0.96426904]
 [-0.97800624]
 [-1.1173847 ]
 [ 0.93991935]
 [-0.9869147 ]
 [ 0.62044454]
 [ 0.6299189 ]
 [ 1.091806  ]
 [ 0.81058884]
 [-0.83752775]
 [ 1.0350671 ]
 [-0.7370901 ]
 [-0.84975654]
 [ 0.41046563]
 [-0.6636526 ]
 [ 1.0668496 ]
 [-0.9996508 ]
 [ 1.0566729 ]
 [-0.8538179 ]
 [ 0.82048666]
 [ 0.24896863]
 [ 1.0399362 ]
 [ 0.88787514]
 [ 1.0775522 ]
 [ 0.94935066]
 [ 1.0854241 ]
 [-0.86780363]
 [ 0.96343553]
 [ 0.8074801 ]
 [-1.105328  ]
 [ 0.32905918]
 [ 0.48984462]
 [-0.99617314]
 [-0.856965  ]
 [ 0.9765605 ]
 [ 1.1744896 ]
 [ 0.7112322 ]
 [ 0.74865013]
 [-1.0660424 ]
 [ 0.82397914]
 [-1.0276897 ]
 [-0.9204985 ]
 [-0.77585304]
 [-0.9276865 ]
 [-0.70470035]
 [-0.99417186]
 [ 0.9437728 ]
 [-0.54645723]
 [ 0.78891164]
 [-0.14550482]
 [ 1.0426962 ]
 [ 0.9668054 ]
 [ 0.97013927]
 [ 1.0747415 ]
 [-0.87398   ]]

Layer 4:
[-0.03294922]



Entrenamiento 9:
------------------------------------------------------------------------

Layer 0:
[[-5.94976824e-03  6.89084735e-03 -2.00827257e-03 ... -6.14794251e-03
   1.45054767e-02 -1.53400823e-02]
 [ 3.59503040e-03 -1.15769142e-02  5.89272426e-03 ... -7.54602579e-03
   4.91656028e-05 -2.09401082e-03]
 [ 2.29654331e-02  0.00000000e+00  3.33932717e-03 ... -1.02007035e-02
   8.89112614e-03  1.73222199e-02]
 ...
 [-7.03800470e-03 -1.75569870e-03  1.50697248e-03 ...  6.08300744e-03
  -4.54980787e-03 -9.31668002e-03]
 [-6.24912465e-03 -4.29227352e-02 -2.78202556e-02 ... -3.73840635e-03
   7.40239769e-03  6.61917171e-03]
 [-1.07726753e-02 -2.56412569e-02 -9.19385348e-03 ...  1.39814643e-02
  -6.18705992e-03 -6.89734751e-03]]

Layer 1:
[[ 0.02053695 -0.01500318 -0.00450387  0.02258395  0.01384907 -0.01304088
  -0.02749366  0.03012399  0.00934371 -0.01996722  0.01034184  0.01845101
  -0.00268502  0.01582211 -0.00882867  0.02938211 -0.02533044 -0.02983646
   0.01422822  0.0093372   0.0145106  -0.0055434   0.01211351 -0.04199048
  -0.00768591 -0.01279183  0.01889316 -0.02095335 -0.02642637 -0.00222157
   0.01674928 -0.01637179  0.00611529  0.00054865  0.03268655  0.01972821
  -0.02043329 -0.0423716  -0.00197214 -0.01412969 -0.02844518 -0.02943886
  -0.04076918 -0.00545877  0.01093569 -0.02183466 -0.02268132 -0.01521075
   0.03067913 -0.02084036  0.00217636  0.00390373  0.01187954  0.03578118
  -0.03454142  0.02170267 -0.03866286 -0.03095255  0.00195547 -0.00309034
   0.01945314 -0.01908032  0.01035306 -0.03717151  0.00601222  0.00062413
   0.02274694  0.00531374  0.0149877   0.02318474  0.01000776 -0.00660363
   0.02593751  0.00440377 -0.0111194   0.00146572  0.00143844 -0.00837213
  -0.03812773  0.00684725  0.01057122  0.00382107  0.00351322 -0.01322713
   0.00476879 -0.00657349 -0.00605788 -0.00568746 -0.00638905 -0.03542273
  -0.0113626   0.01642317 -0.00259508  0.02890732 -0.00015599  0.01562771
   0.02073536  0.00592089  0.00973103 -0.02727924]]

Layer 2:
[0. 0. 0. 0. 0. 0. 0. 0. 0. 0. 0. 0. 0. 0. 0. 0. 0. 0. 0. 0. 0. 0. 0. 0.
 0. 0. 0. 0. 0. 0. 0. 0. 0. 0. 0. 0. 0. 0. 0. 0. 0. 0. 0. 0. 0. 0. 0. 0.
 0. 0. 0. 0. 0. 0. 0. 0. 0. 0. 0. 0. 0. 0. 0. 0. 0. 0. 0. 0. 0. 0. 0. 0.
 0. 0. 0. 0. 0. 0. 0. 0. 0. 0. 0. 0. 0. 0. 0. 0. 0. 0. 0. 0. 0. 0. 0. 0.
 0. 0. 0. 0.]

Layer 3:
[[ 0.69947904]
 [-0.93469083]
 [-0.82527983]
 [ 0.7447463 ]
 [ 0.9263501 ]
 [-0.9137289 ]
 [-0.69584686]
 [ 0.6235643 ]
 [ 1.0041718 ]
 [-0.873195  ]
 [ 0.83845305]
 [ 0.8332329 ]
 [-0.45322785]
 [ 0.8332691 ]
 [-0.8965575 ]
 [ 0.6382439 ]
 [-0.72402436]
 [-0.6459789 ]
 [ 0.78603935]
 [ 0.8041394 ]
 [ 0.90773433]
 [-0.72359794]
 [ 0.78494525]
 [-0.43416265]
 [-0.87437516]
 [-0.89919794]
 [ 0.920738  ]
 [-0.9197166 ]
 [-0.6383257 ]
 [-0.40534738]
 [ 0.7514199 ]
 [-0.8791505 ]
 [ 0.8719542 ]
 [ 0.19573455]
 [ 0.72182566]
 [ 0.75642747]
 [-0.86637264]
 [-0.4527138 ]
 [-0.28012553]
 [-0.82787484]
 [-0.6893549 ]
 [-0.51293653]
 [-0.57057554]
 [-0.9355994 ]
 [ 0.97220737]
 [-0.7278108 ]
 [-0.78099114]
 [-0.94107485]
 [ 0.7341607 ]
 [-0.7891468 ]
 [ 0.5980747 ]
 [ 0.6035058 ]
 [ 0.9355048 ]
 [ 0.58343256]
 [-0.60891056]
 [ 0.8478671 ]
 [-0.49712116]
 [-0.6297017 ]
 [ 0.35697225]
 [-0.42647272]
 [ 0.8579724 ]
 [-0.8137857 ]
 [ 0.91454756]
 [-0.62257063]
 [ 0.69214225]
 [ 0.24942487]
 [ 0.8383665 ]
 [ 0.8053303 ]
 [ 0.89045674]
 [ 0.7368731 ]
 [ 0.95683086]
 [-0.712488  ]
 [ 0.7488643 ]
 [ 0.7294456 ]
 [-0.9403112 ]
 [ 0.25559935]
 [ 0.45489857]
 [-0.87714714]
 [-0.6322787 ]
 [ 0.85235316]
 [ 1.0528603 ]
 [ 0.614415  ]
 [ 0.61249757]
 [-0.89185244]
 [ 0.790445  ]
 [-0.94493246]
 [-0.80347306]
 [-0.65703654]
 [-0.8224108 ]
 [-0.46089396]
 [-0.8228575 ]
 [ 0.70393926]
 [-0.48199943]
 [ 0.5559771 ]
 [-0.08662289]
 [ 0.8605864 ]
 [ 0.7721172 ]
 [ 0.8588919 ]
 [ 0.92518663]
 [-0.66341144]]

Layer 4:
[-0.18417029]



Consenso 9:
------------------------------------------------------------------------

Layer 0:
[[-5.94976824e-03  6.89084735e-03 -2.00827257e-03 ... -6.14794251e-03
   1.45054767e-02 -1.53400823e-02]
 [ 3.59503040e-03 -1.15769142e-02  5.89272426e-03 ... -7.54602579e-03
   4.91656028e-05 -2.09401082e-03]
 [ 2.29654331e-02  0.00000000e+00  3.33932717e-03 ... -1.02007035e-02
   8.89112614e-03  1.73222199e-02]
 ...
 [-7.03800470e-03 -1.75569870e-03  1.50697248e-03 ...  6.08300744e-03
  -4.54980787e-03 -9.31668002e-03]
 [-6.24912465e-03 -4.29227352e-02 -2.78202556e-02 ... -3.73840635e-03
   7.40239769e-03  6.61917171e-03]
 [-1.07726753e-02 -2.56412569e-02 -9.19385348e-03 ...  1.39814643e-02
  -6.18705992e-03 -6.89734751e-03]]

Layer 1:
[[ 0.02053695 -0.01500318 -0.00450387  0.02258395  0.01384907 -0.01304088
  -0.02749366  0.03012399  0.00934371 -0.01996722  0.01034184  0.01845101
  -0.00268502  0.01582211 -0.00882867  0.02938211 -0.02533044 -0.02983646
   0.01422822  0.0093372   0.0145106  -0.0055434   0.01211351 -0.04199048
  -0.00768591 -0.01279183  0.01889316 -0.02095335 -0.02642637 -0.00222157
   0.01674928 -0.01637179  0.00611529  0.00054865  0.03268655  0.01972821
  -0.02043329 -0.0423716  -0.00197214 -0.01412969 -0.02844518 -0.02943886
  -0.04076918 -0.00545877  0.01093569 -0.02183466 -0.02268132 -0.01521075
   0.03067913 -0.02084036  0.00217636  0.00390373  0.01187954  0.03578118
  -0.03454142  0.02170267 -0.03866286 -0.03095255  0.00195547 -0.00309034
   0.01945314 -0.01908032  0.01035306 -0.03717151  0.00601222  0.00062413
   0.02274694  0.00531374  0.0149877   0.02318474  0.01000776 -0.00660363
   0.02593751  0.00440377 -0.0111194   0.00146572  0.00143844 -0.00837213
  -0.03812773  0.00684725  0.01057122  0.00382107  0.00351322 -0.01322713
   0.00476879 -0.00657349 -0.00605788 -0.00568746 -0.00638905 -0.03542273
  -0.0113626   0.01642317 -0.00259508  0.02890732 -0.00015599  0.01562771
   0.02073536  0.00592089  0.00973103 -0.02727924]]

Layer 2:
[0. 0. 0. 0. 0. 0. 0. 0. 0. 0. 0. 0. 0. 0. 0. 0. 0. 0. 0. 0. 0. 0. 0. 0.
 0. 0. 0. 0. 0. 0. 0. 0. 0. 0. 0. 0. 0. 0. 0. 0. 0. 0. 0. 0. 0. 0. 0. 0.
 0. 0. 0. 0. 0. 0. 0. 0. 0. 0. 0. 0. 0. 0. 0. 0. 0. 0. 0. 0. 0. 0. 0. 0.
 0. 0. 0. 0. 0. 0. 0. 0. 0. 0. 0. 0. 0. 0. 0. 0. 0. 0. 0. 0. 0. 0. 0. 0.
 0. 0. 0. 0.]

Layer 3:
[[ 0.8974956 ]
 [-1.1524141 ]
 [-0.9886042 ]
 [ 0.9444282 ]
 [ 1.1454678 ]
 [-1.1222974 ]
 [-0.8877169 ]
 [ 0.8029678 ]
 [ 1.200067  ]
 [-1.0723448 ]
 [ 1.0393969 ]
 [ 1.0501397 ]
 [-0.5354726 ]
 [ 1.0452648 ]
 [-1.0978194 ]
 [ 0.81657916]
 [-0.91443455]
 [-0.8444489 ]
 [ 0.9944273 ]
 [ 1.0385656 ]
 [ 1.151072  ]
 [-0.90494883]
 [ 0.99775946]
 [-0.59422857]
 [-1.1288888 ]
 [-1.1161593 ]
 [ 1.1315823 ]
 [-1.131436  ]
 [-0.82330036]
 [-0.5352947 ]
 [ 0.955035  ]
 [-1.1486326 ]
 [ 1.0586748 ]
 [ 0.28845966]
 [ 0.89663196]
 [ 0.97671103]
 [-1.0780913 ]
 [-0.6064687 ]
 [-0.32667646]
 [-1.0380772 ]
 [-0.8722774 ]
 [-0.6848561 ]
 [-0.7296224 ]
 [-1.0635366 ]
 [ 1.1849402 ]
 [-0.9652448 ]
 [-0.9789857 ]
 [-1.1638453 ]
 [ 0.9154038 ]
 [-0.9905695 ]
 [ 0.69688725]
 [ 0.7181733 ]
 [ 1.1427512 ]
 [ 0.74786526]
 [-0.78049076]
 [ 1.04921   ]
 [-0.6672844 ]
 [-0.805038  ]
 [ 0.44485757]
 [-0.68449676]
 [ 1.0702927 ]
 [-1.0211862 ]
 [ 1.1196378 ]
 [-0.7954047 ]
 [ 0.8750796 ]
 [ 0.28017423]
 [ 1.0394133 ]
 [ 0.9593462 ]
 [ 1.10374   ]
 [ 0.9419657 ]
 [ 1.1606742 ]
 [-0.9034797 ]
 [ 0.9491201 ]
 [ 0.8800976 ]
 [-1.1544065 ]
 [ 0.33577543]
 [ 0.53564537]
 [-1.068095  ]
 [-0.7985836 ]
 [ 1.0430179 ]
 [ 1.2509478 ]
 [ 0.76496077]
 [ 0.780668  ]
 [-1.0998018 ]
 [ 0.91711813]
 [-1.1202748 ]
 [-0.9834081 ]
 [-0.83108914]
 [-1.0036523 ]
 [-0.6460839 ]
 [-1.0326546 ]
 [ 0.9531173 ]
 [-0.59598213]
 [ 0.75017875]
 [-0.14100525]
 [ 1.0708989 ]
 [ 0.97610265]
 [ 1.0462172 ]
 [ 1.1297852 ]
 [-0.8517667 ]]

Layer 4:
[-0.05625798]



Entrenamiento 10:
------------------------------------------------------------------------

Layer 0:
[[-5.94976824e-03  6.89084735e-03 -2.00827257e-03 ... -6.14794251e-03
   1.45054767e-02 -1.53400823e-02]
 [ 3.59503040e-03 -1.15769142e-02  5.89272426e-03 ... -7.54602579e-03
   4.91656028e-05 -2.09401082e-03]
 [ 2.29654331e-02  0.00000000e+00  3.33932717e-03 ... -1.02007035e-02
   8.89112614e-03  1.73222199e-02]
 ...
 [-7.03800470e-03 -1.75569870e-03  1.50697248e-03 ...  6.08300744e-03
  -4.54980787e-03 -9.31668002e-03]
 [-6.24912465e-03 -4.29227352e-02 -2.78202556e-02 ... -3.73840635e-03
   7.40239769e-03  6.61917171e-03]
 [-1.07726753e-02 -2.56412569e-02 -9.19385348e-03 ...  1.39814643e-02
  -6.18705992e-03 -6.89734751e-03]]

Layer 1:
[[ 0.02053695 -0.01500318 -0.00450387  0.02258395  0.01384907 -0.01304088
  -0.02749366  0.03012399  0.00934371 -0.01996722  0.01034184  0.01845101
  -0.00268502  0.01582211 -0.00882867  0.02938211 -0.02533044 -0.02983646
   0.01422822  0.0093372   0.0145106  -0.0055434   0.01211351 -0.04199048
  -0.00768591 -0.01279183  0.01889316 -0.02095335 -0.02642637 -0.00222157
   0.01674928 -0.01637179  0.00611529  0.00054865  0.03268655  0.01972821
  -0.02043329 -0.0423716  -0.00197214 -0.01412969 -0.02844518 -0.02943886
  -0.04076918 -0.00545877  0.01093569 -0.02183466 -0.02268132 -0.01521075
   0.03067913 -0.02084036  0.00217636  0.00390373  0.01187954  0.03578118
  -0.03454142  0.02170267 -0.03866286 -0.03095255  0.00195547 -0.00309034
   0.01945314 -0.01908032  0.01035306 -0.03717151  0.00601222  0.00062413
   0.02274694  0.00531374  0.0149877   0.02318474  0.01000776 -0.00660363
   0.02593751  0.00440377 -0.0111194   0.00146572  0.00143844 -0.00837213
  -0.03812773  0.00684725  0.01057122  0.00382107  0.00351322 -0.01322713
   0.00476879 -0.00657349 -0.00605788 -0.00568746 -0.00638905 -0.03542273
  -0.0113626   0.01642317 -0.00259508  0.02890732 -0.00015599  0.01562771
   0.02073536  0.00592089  0.00973103 -0.02727924]]

Layer 2:
[0. 0. 0. 0. 0. 0. 0. 0. 0. 0. 0. 0. 0. 0. 0. 0. 0. 0. 0. 0. 0. 0. 0. 0.
 0. 0. 0. 0. 0. 0. 0. 0. 0. 0. 0. 0. 0. 0. 0. 0. 0. 0. 0. 0. 0. 0. 0. 0.
 0. 0. 0. 0. 0. 0. 0. 0. 0. 0. 0. 0. 0. 0. 0. 0. 0. 0. 0. 0. 0. 0. 0. 0.
 0. 0. 0. 0. 0. 0. 0. 0. 0. 0. 0. 0. 0. 0. 0. 0. 0. 0. 0. 0. 0. 0. 0. 0.
 0. 0. 0. 0.]

Layer 3:
[[ 0.6900604 ]
 [-0.9932734 ]
 [-0.8992812 ]
 [ 0.734389  ]
 [ 0.97581995]
 [-0.9534012 ]
 [-0.68471265]
 [ 0.5824294 ]
 [ 1.0835706 ]
 [-0.8843156 ]
 [ 0.88526493]
 [ 0.85912967]
 [-0.5193126 ]
 [ 0.8514675 ]
 [-0.941632  ]
 [ 0.60198736]
 [-0.70811087]
 [-0.6244606 ]
 [ 0.80985785]
 [ 0.86067176]
 [ 0.9494079 ]
 [-0.77971923]
 [ 0.8077586 ]
 [-0.35875174]
 [-0.94983625]
 [-0.9592941 ]
 [ 0.95137125]
 [-0.9579812 ]
 [-0.6109851 ]
 [-0.4165193 ]
 [ 0.7620294 ]
 [-0.9360112 ]
 [ 0.94147944]
 [ 0.21058062]
 [ 0.676276  ]
 [ 0.75732327]
 [-0.887699  ]
 [-0.37263474]
 [-0.33825275]
 [-0.8540691 ]
 [-0.65797424]
 [-0.46096823]
 [-0.50362754]
 [-1.0628161 ]
 [ 1.0382755 ]
 [-0.7361484 ]
 [-0.7841978 ]
 [-0.98864627]
 [ 0.7125413 ]
 [-0.7948848 ]
 [ 0.6739618 ]
 [ 0.6910746 ]
 [ 0.98550606]
 [ 0.52455735]
 [-0.5560885 ]
 [ 0.8638905 ]
 [-0.4327258 ]
 [-0.5884946 ]
 [ 0.38931212]
 [-0.4516287 ]
 [ 0.86441714]
 [-0.8367501 ]
 [ 0.9760012 ]
 [-0.56890213]
 [ 0.7440504 ]
 [ 0.2807831 ]
 [ 0.8405816 ]
 [ 0.87437487]
 [ 0.9177134 ]
 [ 0.7331085 ]
 [ 1.0306168 ]
 [-0.7460717 ]
 [ 0.7385886 ]
 [ 0.7997687 ]
 [-0.98884284]
 [ 0.25926682]
 [ 0.49938902]
 [-0.9468803 ]
 [-0.5779541 ]
 [ 0.916488  ]
 [ 1.1277748 ]
 [ 0.66515267]
 [ 0.64134496]
 [-0.9259063 ]
 [ 0.88276577]
 [-1.0354865 ]
 [-0.86389476]
 [-0.70942646]
 [-0.89594084]
 [-0.40856808]
 [-0.861003  ]
 [ 0.7204316 ]
 [-0.5291406 ]
 [ 0.5224843 ]
 [-0.0795917 ]
 [ 0.88944846]
 [ 0.7834235 ]
 [ 0.93248177]
 [ 0.97882086]
 [-0.64441   ]]

Layer 4:
[-0.20147824]



Consenso 10:
------------------------------------------------------------------------

Layer 0:
[[-5.94976824e-03  6.89084735e-03 -2.00827257e-03 ... -6.14794251e-03
   1.45054767e-02 -1.53400823e-02]
 [ 3.59503040e-03 -1.15769142e-02  5.89272426e-03 ... -7.54602579e-03
   4.91656028e-05 -2.09401082e-03]
 [ 2.29654331e-02  0.00000000e+00  3.33932717e-03 ... -1.02007035e-02
   8.89112614e-03  1.73222199e-02]
 ...
 [-7.03800470e-03 -1.75569870e-03  1.50697248e-03 ...  6.08300744e-03
  -4.54980787e-03 -9.31668002e-03]
 [-6.24912465e-03 -4.29227352e-02 -2.78202556e-02 ... -3.73840635e-03
   7.40239769e-03  6.61917171e-03]
 [-1.07726753e-02 -2.56412569e-02 -9.19385348e-03 ...  1.39814643e-02
  -6.18705992e-03 -6.89734751e-03]]

Layer 1:
[[ 0.02053695 -0.01500318 -0.00450387  0.02258395  0.01384907 -0.01304088
  -0.02749366  0.03012399  0.00934371 -0.01996722  0.01034184  0.01845101
  -0.00268502  0.01582211 -0.00882867  0.02938211 -0.02533044 -0.02983646
   0.01422822  0.0093372   0.0145106  -0.0055434   0.01211351 -0.04199048
  -0.00768591 -0.01279183  0.01889316 -0.02095335 -0.02642637 -0.00222157
   0.01674928 -0.01637179  0.00611529  0.00054865  0.03268655  0.01972821
  -0.02043329 -0.0423716  -0.00197214 -0.01412969 -0.02844518 -0.02943886
  -0.04076918 -0.00545877  0.01093569 -0.02183466 -0.02268132 -0.01521075
   0.03067913 -0.02084036  0.00217636  0.00390373  0.01187954  0.03578118
  -0.03454142  0.02170267 -0.03866286 -0.03095255  0.00195547 -0.00309034
   0.01945314 -0.01908032  0.01035306 -0.03717151  0.00601222  0.00062413
   0.02274694  0.00531374  0.0149877   0.02318474  0.01000776 -0.00660363
   0.02593751  0.00440377 -0.0111194   0.00146572  0.00143844 -0.00837213
  -0.03812773  0.00684725  0.01057122  0.00382107  0.00351322 -0.01322713
   0.00476879 -0.00657349 -0.00605788 -0.00568746 -0.00638905 -0.03542273
  -0.0113626   0.01642317 -0.00259508  0.02890732 -0.00015599  0.01562771
   0.02073536  0.00592089  0.00973103 -0.02727924]]

Layer 2:
[0. 0. 0. 0. 0. 0. 0. 0. 0. 0. 0. 0. 0. 0. 0. 0. 0. 0. 0. 0. 0. 0. 0. 0.
 0. 0. 0. 0. 0. 0. 0. 0. 0. 0. 0. 0. 0. 0. 0. 0. 0. 0. 0. 0. 0. 0. 0. 0.
 0. 0. 0. 0. 0. 0. 0. 0. 0. 0. 0. 0. 0. 0. 0. 0. 0. 0. 0. 0. 0. 0. 0. 0.
 0. 0. 0. 0. 0. 0. 0. 0. 0. 0. 0. 0. 0. 0. 0. 0. 0. 0. 0. 0. 0. 0. 0. 0.
 0. 0. 0. 0.]

Layer 3:
[[ 0.8867975 ]
 [-1.2131559 ]
 [-1.0673554 ]
 [ 0.9322141 ]
 [ 1.1967463 ]
 [-1.1642932 ]
 [-0.8744513 ]
 [ 0.7583758 ]
 [ 1.2837743 ]
 [-1.0841175 ]
 [ 1.089686  ]
 [ 1.0755844 ]
 [-0.60548526]
 [ 1.0635047 ]
 [-1.1467493 ]
 [ 0.7778832 ]
 [-0.8967662 ]
 [-0.81857556]
 [ 1.0193584 ]
 [ 1.096646  ]
 [ 1.1910634 ]
 [-0.9658693 ]
 [ 1.0217596 ]
 [-0.5138602 ]
 [-1.2052475 ]
 [-1.1787289 ]
 [ 1.1628425 ]
 [-1.1702654 ]
 [-0.79384613]
 [-0.5509518 ]
 [ 0.96595126]
 [-1.2008103 ]
 [ 1.1326531 ]
 [ 0.30702004]
 [ 0.8478031 ]
 [ 0.97456694]
 [-1.0988522 ]
 [-0.5220632 ]
 [-0.3871957 ]
 [-1.0656229 ]
 [-0.8382067 ]
 [-0.62985104]
 [-0.6588222 ]
 [-1.1943414 ]
 [ 1.2541913 ]
 [-0.96782064]
 [-0.98153126]
 [-1.212526  ]
 [ 0.89200383]
 [-0.99574566]
 [ 0.7762803 ]
 [ 0.8103017 ]
 [ 1.1955601 ]
 [ 0.68552756]
 [-0.72394556]
 [ 1.0655674 ]
 [-0.5978895 ]
 [-0.76102513]
 [ 0.48092163]
 [-0.70645654]
 [ 1.0752177 ]
 [-1.0444274 ]
 [ 1.1848335 ]
 [-0.7372217 ]
 [ 0.9315055 ]
 [ 0.3132713 ]
 [ 1.0407712 ]
 [ 1.0336473 ]
 [ 1.1320167 ]
 [ 0.9362028 ]
 [ 1.2383238 ]
 [-0.9407229 ]
 [ 0.9359639 ]
 [ 0.95513076]
 [-1.2057438 ]
 [ 0.34328192]
 [ 0.5838004 ]
 [-1.1424834 ]
 [-0.7406442 ]
 [ 1.1115515 ]
 [ 1.3302305 ]
 [ 0.8205897 ]
 [ 0.8141163 ]
 [-1.1360058 ]
 [ 1.0140396 ]
 [-1.2155486 ]
 [-1.0486584 ]
 [-0.8883955 ]
 [-1.0820206 ]
 [-0.587689  ]
 [-1.0731146 ]
 [ 0.96445036]
 [-0.6478689 ]
 [ 0.71210825]
 [-0.13605203]
 [ 1.1011087 ]
 [ 0.9872278 ]
 [ 1.1243998 ]
 [ 1.1869406 ]
 [-0.83078545]]

Layer 4:
[-0.06985825]



Entrenamiento 11:
------------------------------------------------------------------------

Layer 0:
[[-5.94976824e-03  6.89084735e-03 -2.00827257e-03 ... -6.14794251e-03
   1.45054767e-02 -1.53400823e-02]
 [ 3.59503040e-03 -1.15769142e-02  5.89272426e-03 ... -7.54602579e-03
   4.91656028e-05 -2.09401082e-03]
 [ 2.29654331e-02  0.00000000e+00  3.33932717e-03 ... -1.02007035e-02
   8.89112614e-03  1.73222199e-02]
 ...
 [-7.03800470e-03 -1.75569870e-03  1.50697248e-03 ...  6.08300744e-03
  -4.54980787e-03 -9.31668002e-03]
 [-6.24912465e-03 -4.29227352e-02 -2.78202556e-02 ... -3.73840635e-03
   7.40239769e-03  6.61917171e-03]
 [-1.07726753e-02 -2.56412569e-02 -9.19385348e-03 ...  1.39814643e-02
  -6.18705992e-03 -6.89734751e-03]]

Layer 1:
[[ 0.02053695 -0.01500318 -0.00450387  0.02258395  0.01384907 -0.01304088
  -0.02749366  0.03012399  0.00934371 -0.01996722  0.01034184  0.01845101
  -0.00268502  0.01582211 -0.00882867  0.02938211 -0.02533044 -0.02983646
   0.01422822  0.0093372   0.0145106  -0.0055434   0.01211351 -0.04199048
  -0.00768591 -0.01279183  0.01889316 -0.02095335 -0.02642637 -0.00222157
   0.01674928 -0.01637179  0.00611529  0.00054865  0.03268655  0.01972821
  -0.02043329 -0.0423716  -0.00197214 -0.01412969 -0.02844518 -0.02943886
  -0.04076918 -0.00545877  0.01093569 -0.02183466 -0.02268132 -0.01521075
   0.03067913 -0.02084036  0.00217636  0.00390373  0.01187954  0.03578118
  -0.03454142  0.02170267 -0.03866286 -0.03095255  0.00195547 -0.00309034
   0.01945314 -0.01908032  0.01035306 -0.03717151  0.00601222  0.00062413
   0.02274694  0.00531374  0.0149877   0.02318474  0.01000776 -0.00660363
   0.02593751  0.00440377 -0.0111194   0.00146572  0.00143844 -0.00837213
  -0.03812773  0.00684725  0.01057122  0.00382107  0.00351322 -0.01322713
   0.00476879 -0.00657349 -0.00605788 -0.00568746 -0.00638905 -0.03542273
  -0.0113626   0.01642317 -0.00259508  0.02890732 -0.00015599  0.01562771
   0.02073536  0.00592089  0.00973103 -0.02727924]]

Layer 2:
[0. 0. 0. 0. 0. 0. 0. 0. 0. 0. 0. 0. 0. 0. 0. 0. 0. 0. 0. 0. 0. 0. 0. 0.
 0. 0. 0. 0. 0. 0. 0. 0. 0. 0. 0. 0. 0. 0. 0. 0. 0. 0. 0. 0. 0. 0. 0. 0.
 0. 0. 0. 0. 0. 0. 0. 0. 0. 0. 0. 0. 0. 0. 0. 0. 0. 0. 0. 0. 0. 0. 0. 0.
 0. 0. 0. 0. 0. 0. 0. 0. 0. 0. 0. 0. 0. 0. 0. 0. 0. 0. 0. 0. 0. 0. 0. 0.
 0. 0. 0. 0.]

Layer 3:
[[ 0.67739487]
 [-1.0491221 ]
 [-0.97315997]
 [ 0.7204809 ]
 [ 1.0227379 ]
 [-0.9909919 ]
 [-0.6692201 ]
 [ 0.5369039 ]
 [ 1.1616535 ]
 [-0.8927924 ]
 [ 0.9305927 ]
 [ 0.88157713]
 [-0.5878256 ]
 [ 0.86678505]
 [-0.985719  ]
 [ 0.5618628 ]
 [-0.6884327 ]
 [-0.5979712 ]
 [ 0.8312697 ]
 [ 0.91487616]
 [ 0.98742956]
 [-0.8352711 ]
 [ 0.8285704 ]
 [-0.27852944]
 [-1.0225911 ]
 [-1.0169213 ]
 [ 0.97882766]
 [-0.99262834]
 [-0.5799746 ]
 [-0.42731816]
 [ 0.7699533 ]
 [-0.98769546]
 [ 1.0101459 ]
 [ 0.2252318 ]
 [ 0.62646645]
 [ 0.7545776 ]
 [-0.90542024]
 [-0.28813612]
 [-0.39865473]
 [-0.8781349 ]
 [-0.6224755 ]
 [-0.40521237]
 [-0.43214086]
 [-1.1918013 ]
 [ 1.1022731 ]
 [-0.7395133 ]
 [-0.7839001 ]
 [-1.0332977 ]
 [ 0.6867941 ]
 [-0.79728717]
 [ 0.7514996 ]
 [ 0.7808986 ]
 [ 1.0334325 ]
 [ 0.46136534]
 [-0.49887377]
 [ 0.87680346]
 [-0.36364228]
 [-0.5431538 ]
 [ 0.4221278 ]
 [-0.47424948]
 [ 0.8674128 ]
 [-0.85647976]
 [ 1.0358894 ]
 [-0.51027787]
 [ 0.79518694]
 [ 0.31371683]
 [ 0.8394363 ]
 [ 0.9438404 ]
 [ 0.9425847 ]
 [ 0.7256572 ]
 [ 1.1026877 ]
 [-0.7786136 ]
 [ 0.72392607]
 [ 0.87017643]
 [-1.0356344 ]
 [ 0.26283717]
 [ 0.5452445 ]
 [-1.0157404 ]
 [-0.51898336]
 [ 0.979641  ]
 [ 1.2013361 ]
 [ 0.715877  ]
 [ 0.6698551 ]
 [-0.95801604]
 [ 0.976811  ]
 [-1.1256852 ]
 [-0.9237992 ]
 [-0.7614177 ]
 [-0.96895975]
 [-0.35099822]
 [-0.8972327 ]
 [ 0.73285747]
 [-0.57715726]
 [ 0.48435438]
 [-0.07150128]
 [ 0.9159165 ]
 [ 0.7915616 ]
 [ 1.0052804 ]
 [ 1.0309185 ]
 [-0.6214989 ]]

Layer 4:
[-0.20313981]



Consenso 11:
------------------------------------------------------------------------

Layer 0:
[[-5.94976824e-03  6.89084735e-03 -2.00827257e-03 ... -6.14794251e-03
   1.45054767e-02 -1.53400823e-02]
 [ 3.59503040e-03 -1.15769142e-02  5.89272426e-03 ... -7.54602579e-03
   4.91656028e-05 -2.09401082e-03]
 [ 2.29654331e-02  0.00000000e+00  3.33932717e-03 ... -1.02007035e-02
   8.89112614e-03  1.73222199e-02]
 ...
 [-7.03800470e-03 -1.75569870e-03  1.50697248e-03 ...  6.08300744e-03
  -4.54980787e-03 -9.31668002e-03]
 [-6.24912465e-03 -4.29227352e-02 -2.78202556e-02 ... -3.73840635e-03
   7.40239769e-03  6.61917171e-03]
 [-1.07726753e-02 -2.56412569e-02 -9.19385348e-03 ...  1.39814643e-02
  -6.18705992e-03 -6.89734751e-03]]

Layer 1:
[[ 0.02053695 -0.01500318 -0.00450387  0.02258395  0.01384907 -0.01304088
  -0.02749366  0.03012399  0.00934371 -0.01996722  0.01034184  0.01845101
  -0.00268502  0.01582211 -0.00882867  0.02938211 -0.02533044 -0.02983646
   0.01422822  0.0093372   0.0145106  -0.0055434   0.01211351 -0.04199048
  -0.00768591 -0.01279183  0.01889316 -0.02095335 -0.02642637 -0.00222157
   0.01674928 -0.01637179  0.00611529  0.00054865  0.03268655  0.01972821
  -0.02043329 -0.0423716  -0.00197214 -0.01412969 -0.02844518 -0.02943886
  -0.04076918 -0.00545877  0.01093569 -0.02183466 -0.02268132 -0.01521075
   0.03067913 -0.02084036  0.00217636  0.00390373  0.01187954  0.03578118
  -0.03454142  0.02170267 -0.03866286 -0.03095255  0.00195547 -0.00309034
   0.01945314 -0.01908032  0.01035306 -0.03717151  0.00601222  0.00062413
   0.02274694  0.00531374  0.0149877   0.02318474  0.01000776 -0.00660363
   0.02593751  0.00440377 -0.0111194   0.00146572  0.00143844 -0.00837213
  -0.03812773  0.00684725  0.01057122  0.00382107  0.00351322 -0.01322713
   0.00476879 -0.00657349 -0.00605788 -0.00568746 -0.00638905 -0.03542273
  -0.0113626   0.01642317 -0.00259508  0.02890732 -0.00015599  0.01562771
   0.02073536  0.00592089  0.00973103 -0.02727924]]

Layer 2:
[0. 0. 0. 0. 0. 0. 0. 0. 0. 0. 0. 0. 0. 0. 0. 0. 0. 0. 0. 0. 0. 0. 0. 0.
 0. 0. 0. 0. 0. 0. 0. 0. 0. 0. 0. 0. 0. 0. 0. 0. 0. 0. 0. 0. 0. 0. 0. 0.
 0. 0. 0. 0. 0. 0. 0. 0. 0. 0. 0. 0. 0. 0. 0. 0. 0. 0. 0. 0. 0. 0. 0. 0.
 0. 0. 0. 0. 0. 0. 0. 0. 0. 0. 0. 0. 0. 0. 0. 0. 0. 0. 0. 0. 0. 0. 0. 0.
 0. 0. 0. 0.]

Layer 3:
[[ 0.8754019 ]
 [-1.274383  ]
 [-1.147046  ]
 [ 0.9193763 ]
 [ 1.2482426 ]
 [-1.2062507 ]
 [-0.8602117 ]
 [ 0.71228534]
 [ 1.368077  ]
 [-1.0960697 ]
 [ 1.1403863 ]
 [ 1.1009061 ]
 [-0.6783942 ]
 [ 1.081326  ]
 [-1.1961999 ]
 [ 0.7382005 ]
 [-0.8782898 ]
 [-0.7916384 ]
 [ 1.044124  ]
 [ 1.1549466 ]
 [ 1.2314014 ]
 [-1.0276177 ]
 [ 1.0456427 ]
 [-0.43146136]
 [-1.2824957 ]
 [-1.2412905 ]
 [ 1.1939083 ]
 [-1.2092125 ]
 [-0.76356673]
 [-0.56616914]
 [ 0.97644067]
 [-1.2533526 ]
 [ 1.2068814 ]
 [ 0.32575864]
 [ 0.79752487]
 [ 0.97213525]
 [-1.1194277 ]
 [-0.43572286]
 [-0.4507333 ]
 [-1.0933629 ]
 [-0.8029781 ]
 [-0.57340115]
 [-0.58625245]
 [-1.328773  ]
 [ 1.3236988 ]
 [-0.9699434 ]
 [-0.9835888 ]
 [-1.2616491 ]
 [ 0.8676313 ]
 [-1.0004448 ]
 [ 0.8576449 ]
 [ 0.90520644]
 [ 1.2484608 ]
 [ 0.62154686]
 [-0.66587764]
 [ 1.0819739 ]
 [-0.52685493]
 [-0.7156573 ]
 [ 0.51789314]
 [-0.7281035 ]
 [ 1.0796608 ]
 [-1.0674617 ]
 [ 1.2503166 ]
 [-0.677261  ]
 [ 0.9882849 ]
 [ 0.34800404]
 [ 1.0419174 ]
 [ 1.1093862 ]
 [ 1.160355  ]
 [ 0.92992514]
 [ 1.3164601 ]
 [-0.9778912 ]
 [ 0.9218553 ]
 [ 1.031283  ]
 [-1.2577845 ]
 [ 0.35096958]
 [ 0.63346875]
 [-1.217693  ]
 [-0.6810773 ]
 [ 1.1804986 ]
 [ 1.4104767 ]
 [ 0.8768969 ]
 [ 0.8475396 ]
 [-1.1725439 ]
 [ 1.1135713 ]
 [-1.3118886 ]
 [-1.1145957 ]
 [-0.94622743]
 [-1.1611649 ]
 [-0.52753603]
 [-1.1137264 ]
 [ 0.97580594]
 [-0.70115066]
 [ 0.67268324]
 [-0.13021961]
 [ 1.1314253 ]
 [ 0.9983103 ]
 [ 1.2032869 ]
 [ 1.2443378 ]
 [-0.8090003 ]]

Layer 4:
[-0.07703323]



Entrenamiento 12:
------------------------------------------------------------------------

Layer 0:
[[-5.94976824e-03  6.89084735e-03 -2.00827257e-03 ... -6.14794251e-03
   1.45054767e-02 -1.53400823e-02]
 [ 3.59503040e-03 -1.15769142e-02  5.89272426e-03 ... -7.54602579e-03
   4.91656028e-05 -2.09401082e-03]
 [ 2.29654331e-02  0.00000000e+00  3.33932717e-03 ... -1.02007035e-02
   8.89112614e-03  1.73222199e-02]
 ...
 [-7.03800470e-03 -1.75569870e-03  1.50697248e-03 ...  6.08300744e-03
  -4.54980787e-03 -9.31668002e-03]
 [-6.24912465e-03 -4.29227352e-02 -2.78202556e-02 ... -3.73840635e-03
   7.40239769e-03  6.61917171e-03]
 [-1.07726753e-02 -2.56412569e-02 -9.19385348e-03 ...  1.39814643e-02
  -6.18705992e-03 -6.89734751e-03]]

Layer 1:
[[ 0.02053695 -0.01500318 -0.00450387  0.02258395  0.01384907 -0.01304088
  -0.02749366  0.03012399  0.00934371 -0.01996722  0.01034184  0.01845101
  -0.00268502  0.01582211 -0.00882867  0.02938211 -0.02533044 -0.02983646
   0.01422822  0.0093372   0.0145106  -0.0055434   0.01211351 -0.04199048
  -0.00768591 -0.01279183  0.01889316 -0.02095335 -0.02642637 -0.00222157
   0.01674928 -0.01637179  0.00611529  0.00054865  0.03268655  0.01972821
  -0.02043329 -0.0423716  -0.00197214 -0.01412969 -0.02844518 -0.02943886
  -0.04076918 -0.00545877  0.01093569 -0.02183466 -0.02268132 -0.01521075
   0.03067913 -0.02084036  0.00217636  0.00390373  0.01187954  0.03578118
  -0.03454142  0.02170267 -0.03866286 -0.03095255  0.00195547 -0.00309034
   0.01945314 -0.01908032  0.01035306 -0.03717151  0.00601222  0.00062413
   0.02274694  0.00531374  0.0149877   0.02318474  0.01000776 -0.00660363
   0.02593751  0.00440377 -0.0111194   0.00146572  0.00143844 -0.00837213
  -0.03812773  0.00684725  0.01057122  0.00382107  0.00351322 -0.01322713
   0.00476879 -0.00657349 -0.00605788 -0.00568746 -0.00638905 -0.03542273
  -0.0113626   0.01642317 -0.00259508  0.02890732 -0.00015599  0.01562771
   0.02073536  0.00592089  0.00973103 -0.02727924]]

Layer 2:
[0. 0. 0. 0. 0. 0. 0. 0. 0. 0. 0. 0. 0. 0. 0. 0. 0. 0. 0. 0. 0. 0. 0. 0.
 0. 0. 0. 0. 0. 0. 0. 0. 0. 0. 0. 0. 0. 0. 0. 0. 0. 0. 0. 0. 0. 0. 0. 0.
 0. 0. 0. 0. 0. 0. 0. 0. 0. 0. 0. 0. 0. 0. 0. 0. 0. 0. 0. 0. 0. 0. 0. 0.
 0. 0. 0. 0. 0. 0. 0. 0. 0. 0. 0. 0. 0. 0. 0. 0. 0. 0. 0. 0. 0. 0. 0. 0.
 0. 0. 0. 0.]

Layer 3:
[[ 0.6685838 ]
 [-1.1105055 ]
 [-1.0504125 ]
 [ 0.71071535]
 [ 1.0746046 ]
 [-1.0328953 ]
 [-0.6580178 ]
 [ 0.4947725 ]
 [ 1.2440847 ]
 [-0.9064128 ]
 [ 0.98018825]
 [ 0.9089622 ]
 [-0.6602443 ]
 [ 0.8861511 ]
 [-1.0341601 ]
 [ 0.52575314]
 [-0.6729211 ]
 [-0.5756755 ]
 [ 0.8568866 ]
 [ 0.9736086 ]
 [ 1.030731  ]
 [-0.8948194 ]
 [ 0.8533624 ]
 [-0.2013048 ]
 [-1.1012096 ]
 [-1.0790622 ]
 [ 1.0111142 ]
 [-1.032872  ]
 [-0.55302477]
 [-0.43957603]
 [ 0.7819329 ]
 [-1.0452315 ]
 [ 1.0820457 ]
 [ 0.24127784]
 [ 0.58025056]
 [ 0.75618964]
 [-0.92814714]
 [-0.2067152 ]
 [-0.46290937]
 [-0.90691304]
 [-0.59078634]
 [-0.35267156]
 [-0.36410242]
 [-1.3266753 ]
 [ 1.1708529 ]
 [-0.74731505]
 [-0.7881645 ]
 [-1.0834292 ]
 [ 0.6654172 ]
 [-0.80408525]
 [ 0.8320336 ]
 [ 0.8749471 ]
 [ 1.0856929 ]
 [ 0.40155926]
 [-0.44515702]
 [ 0.89499295]
 [-0.29797006]
 [-0.5014452 ]
 [ 0.4570671 ]
 [-0.49943602]
 [ 0.87465125]
 [-0.88096285]
 [ 1.1001589 ]
 [-0.4550684 ]
 [ 0.849785  ]
 [ 0.34852335]
 [ 0.8431629 ]
 [ 1.0172356 ]
 [ 0.9720982 ]
 [ 0.722679  ]
 [ 1.1793777 ]
 [-0.8143184 ]
 [ 0.713459  ]
 [ 0.943981  ]
 [-1.0874364 ]
 [ 0.267935  ]
 [ 0.5935129 ]
 [-1.0890031 ]
 [-0.4636876 ]
 [ 1.0465292 ]
 [ 1.2800897 ]
 [ 0.76953065]
 [ 0.70082915]
 [-0.9949398 ]
 [ 1.0752664 ]
 [-1.219877  ]
 [-0.9875061 ]
 [-0.8168918 ]
 [-1.0458364 ]
 [-0.29662254]
 [-0.93779266]
 [ 0.74969536]
 [-0.628216  ]
 [ 0.4497159 ]
 [-0.06330538]
 [ 0.9470979 ]
 [ 0.8046477 ]
 [ 1.0819231 ]
 [ 1.0872225 ]
 [-0.6028918 ]]

Layer 4:
[-0.20175897]



Consenso 12:
------------------------------------------------------------------------

Layer 0:
[[-5.94976824e-03  6.89084735e-03 -2.00827257e-03 ... -6.14794251e-03
   1.45054767e-02 -1.53400823e-02]
 [ 3.59503040e-03 -1.15769142e-02  5.89272426e-03 ... -7.54602579e-03
   4.91656028e-05 -2.09401082e-03]
 [ 2.29654331e-02  0.00000000e+00  3.33932717e-03 ... -1.02007035e-02
   8.89112614e-03  1.73222199e-02]
 ...
 [-7.03800470e-03 -1.75569870e-03  1.50697248e-03 ...  6.08300744e-03
  -4.54980787e-03 -9.31668002e-03]
 [-6.24912465e-03 -4.29227352e-02 -2.78202556e-02 ... -3.73840635e-03
   7.40239769e-03  6.61917171e-03]
 [-1.07726753e-02 -2.56412569e-02 -9.19385348e-03 ...  1.39814643e-02
  -6.18705992e-03 -6.89734751e-03]]

Layer 1:
[[ 0.02053695 -0.01500318 -0.00450387  0.02258395  0.01384907 -0.01304088
  -0.02749366  0.03012399  0.00934371 -0.01996722  0.01034184  0.01845101
  -0.00268502  0.01582211 -0.00882867  0.02938211 -0.02533044 -0.02983646
   0.01422822  0.0093372   0.0145106  -0.0055434   0.01211351 -0.04199048
  -0.00768591 -0.01279183  0.01889316 -0.02095335 -0.02642637 -0.00222157
   0.01674928 -0.01637179  0.00611529  0.00054865  0.03268655  0.01972821
  -0.02043329 -0.0423716  -0.00197214 -0.01412969 -0.02844518 -0.02943886
  -0.04076918 -0.00545877  0.01093569 -0.02183466 -0.02268132 -0.01521075
   0.03067913 -0.02084036  0.00217636  0.00390373  0.01187954  0.03578118
  -0.03454142  0.02170267 -0.03866286 -0.03095255  0.00195547 -0.00309034
   0.01945314 -0.01908032  0.01035306 -0.03717151  0.00601222  0.00062413
   0.02274694  0.00531374  0.0149877   0.02318474  0.01000776 -0.00660363
   0.02593751  0.00440377 -0.0111194   0.00146572  0.00143844 -0.00837213
  -0.03812773  0.00684725  0.01057122  0.00382107  0.00351322 -0.01322713
   0.00476879 -0.00657349 -0.00605788 -0.00568746 -0.00638905 -0.03542273
  -0.0113626   0.01642317 -0.00259508  0.02890732 -0.00015599  0.01562771
   0.02073536  0.00592089  0.00973103 -0.02727924]]

Layer 2:
[0. 0. 0. 0. 0. 0. 0. 0. 0. 0. 0. 0. 0. 0. 0. 0. 0. 0. 0. 0. 0. 0. 0. 0.
 0. 0. 0. 0. 0. 0. 0. 0. 0. 0. 0. 0. 0. 0. 0. 0. 0. 0. 0. 0. 0. 0. 0. 0.
 0. 0. 0. 0. 0. 0. 0. 0. 0. 0. 0. 0. 0. 0. 0. 0. 0. 0. 0. 0. 0. 0. 0. 0.
 0. 0. 0. 0. 0. 0. 0. 0. 0. 0. 0. 0. 0. 0. 0. 0. 0. 0. 0. 0. 0. 0. 0. 0.
 0. 0. 0. 0.]

Layer 3:
[[ 0.8616018 ]
 [-1.3347703 ]
 [-1.2267907 ]
 [ 0.90412855]
 [ 1.2986435 ]
 [-1.2468178 ]
 [-0.8432709 ]
 [ 0.6629781 ]
 [ 1.4519038 ]
 [-1.1065632 ]
 [ 1.1897944 ]
 [ 1.1246377 ]
 [-0.7539475 ]
 [ 1.0971919 ]
 [-1.2448983 ]
 [ 0.69566184]
 [-0.85731137]
 [-0.76182914]
 [ 1.067271  ]
 [ 1.2122239 ]
 [ 1.2702739 ]
 [-1.0893264 ]
 [ 1.068024  ]
 [-0.34518299]
 [-1.3596896 ]
 [-1.3026356 ]
 [ 1.223233  ]
 [-1.2466338 ]
 [-0.73062253]
 [-0.58010453]
 [ 0.98496556]
 [-1.3046416 ]
 [ 1.2802864 ]
 [ 0.34416386]
 [ 0.74405974]
 [ 0.96763235]
 [-1.1382328 ]
 [-0.3455875 ]
 [-0.5174104 ]
 [-1.1197966 ]
 [-0.76480734]
 [-0.5138127 ]
 [-0.51013255]
 [-1.4665256 ]
 [ 1.3922206 ]
 [-0.9699251 ]
 [-0.9834912 ]
 [-1.3096266 ]
 [ 0.8405316 ]
 [-1.0030113 ]
 [ 0.9405633 ]
 [ 1.0027448 ]
 [ 1.3001522 ]
 [ 0.55413294]
 [-0.60449505]
 [ 1.0967562 ]
 [-0.45230892]
 [-0.66713536]
 [ 0.55533385]
 [-0.7484404 ]
 [ 1.0820059 ]
 [-1.088688  ]
 [ 1.3151312 ]
 [-0.61376673]
 [ 1.044546  ]
 [ 0.38420698]
 [ 1.0410715 ]
 [ 1.185641  ]
 [ 1.1873078 ]
 [ 0.92153   ]
 [ 1.3938088 ]
 [-1.0136037 ]
 [ 0.9051495 ]
 [ 1.1077543 ]
 [-1.308886  ]
 [ 0.35848865]
 [ 0.6842595 ]
 [-1.2924317 ]
 [-0.618125  ]
 [ 1.2488247 ]
 [ 1.4904383 ]
 [ 0.93307704]
 [ 0.8797336 ]
 [-1.2079276 ]
 [ 1.2154317 ]
 [-1.408398  ]
 [-1.1801221 ]
 [-1.0037576 ]
 [-1.2401614 ]
 [-0.4638479 ]
 [-1.153045  ]
