:
------------------------------------------------------------------------



Entrenamiento 0:
------------------------------------------------------------------------

Layer 0:
[[-0.          0.         -0.         ... -0.         -0.
  -0.        ]
 [ 0.         -0.44063517 -0.         ...  0.         -0.
   0.        ]
 [ 0.         -0.          0.         ... -0.          0.
  -0.19968176]
 ...
 [ 0.          0.         -0.         ... -0.          0.
   0.        ]
 [ 0.          0.         -0.         ...  0.22747217  0.
   0.        ]
 [-0.          0.44593507 -0.         ...  0.08298606 -0.
  -0.        ]]

Layer 1:
[[-0.227134   -0.09374838 -0.0363363  -0.18100032 -0.05229469  0.01586029
   0.18081221  0.23182464 -0.13742031 -0.13476251 -0.18729416 -0.15140177
   0.05830714 -0.01773633 -0.14247756 -0.04263867  0.09528753 -0.09814326
  -0.12858269  0.16063938  0.17246562  0.22360593  0.00404751  0.03164601
  -0.07664551  0.2251758  -0.16545975  0.16131246 -0.04566619  0.17933807
  -0.0987321  -0.17184135  0.12204531 -0.2271555  -0.02934055  0.20562118
   0.05114356 -0.06959175  0.05330977 -0.20378989 -0.20286947 -0.08454569
   0.04088956 -0.2325878   0.2310127  -0.01320603 -0.1529288   0.198017
  -0.19508807 -0.04662837 -0.02049682  0.07031679 -0.0407391   0.01342088
   0.03095219 -0.02360329 -0.06722578  0.13712662  0.2010963   0.078778
   0.11420411 -0.137346   -0.05160798 -0.08779657  0.14166337 -0.2251998
   0.08877388  0.13400075 -0.06145616 -0.15793037  0.12077764  0.04285985
   0.21938497  0.22510445 -0.17234382  0.0556792   0.08962438  0.19206521
  -0.08189574  0.09239829 -0.08021744  0.24056405 -0.21305573 -0.2333773
   0.05574295 -0.03769656 -0.19369249  0.17538655  0.15413731 -0.13267437
  -0.00722158 -0.05226475 -0.12764397  0.00586051 -0.1168554   0.22583744
   0.11321023 -0.00362419 -0.1049228  -0.00253792]]

Layer 2:
[0. 0. 0. 0. 0. 0. 0. 0. 0. 0. 0. 0. 0. 0. 0. 0. 0. 0. 0. 0. 0. 0. 0. 0.
 0. 0. 0. 0. 0. 0. 0. 0. 0. 0. 0. 0. 0. 0. 0. 0. 0. 0. 0. 0. 0. 0. 0. 0.
 0. 0. 0. 0. 0. 0. 0. 0. 0. 0. 0. 0. 0. 0. 0. 0. 0. 0. 0. 0. 0. 0. 0. 0.
 0. 0. 0. 0. 0. 0. 0. 0. 0. 0. 0. 0. 0. 0. 0. 0. 0. 0. 0. 0. 0. 0. 0. 0.
 0. 0. 0. 0.]

Layer 3:
[[-0.19510724]
 [-0.31884742]
 [-0.61647004]
 [-0.13420936]
 [-0.19955915]
 [ 0.30210146]
 [ 0.27204052]
 [ 0.31652746]
 [-0.29457024]
 [-0.6241214 ]
 [-0.3832695 ]
 [-0.2154936 ]
 [ 0.315037  ]
 [ 0.01429028]
 [-0.24470629]
 [-0.31560487]
 [ 0.4373863 ]
 [-0.5045299 ]
 [-0.44672662]
 [ 0.5564179 ]
 [ 0.18046129]
 [ 0.5150633 ]
 [ 0.6490321 ]
 [ 0.31608814]
 [-0.46716964]
 [ 0.28282374]
 [-0.534766  ]
 [ 0.4967056 ]
 [-0.43968865]
 [ 0.31977203]
 [-0.4186612 ]
 [-0.41932157]
 [ 0.17650902]
 [-0.4517988 ]
 [-0.4030594 ]
 [ 0.24121179]
 [ 0.4898158 ]
 [-0.18106706]
 [ 0.5355479 ]
 [-0.3733699 ]
 [-0.07227129]
 [-0.54509234]
 [ 0.30821928]
 [-0.45317188]
 [ 0.3873514 ]
 [-0.5754836 ]
 [-0.34075904]
 [ 0.30697355]
 [-0.1009863 ]
 [-0.3046359 ]
 [-0.48819616]
 [ 0.4781621 ]
 [-0.48418   ]
 [-0.04435865]
 [ 0.23305686]
 [-0.24425173]
 [-0.57727146]
 [ 0.2807022 ]
 [ 0.45467323]
 [ 0.61124194]
 [ 0.38502863]
 [-0.3548502 ]
 [-0.21786053]
 [-0.1362451 ]
 [ 0.30248782]
 [-0.25180608]
 [ 0.33112907]
 [ 0.50556403]
 [-0.20733234]
 [-0.42556667]
 [ 0.22577386]
 [ 0.42906293]
 [ 0.28739855]
 [ 0.11418723]
 [-0.34501433]
 [ 0.34676644]
 [ 0.2445057 ]
 [ 0.2558555 ]
 [-0.40422782]
 [ 0.34319156]
 [-0.20194206]
 [ 0.37002143]
 [-0.2371157 ]
 [-0.49862114]
 [ 0.13491172]
 [-0.60491353]
 [-0.16106229]
 [ 0.32954714]
 [ 0.5602109 ]
 [-0.5838393 ]
 [-0.2641332 ]
 [-0.32327467]
 [-0.26697934]
 [ 0.35670906]
 [-0.23379329]
 [ 0.36827758]
 [ 0.13241017]
 [ 0.33902723]
 [-0.25810456]
 [ 0.31695357]]

Layer 4:
[-0.0010057]



Consenso 0:
------------------------------------------------------------------------

Layer 0:
[[ 0.00685176  0.00647489 -0.02573439 ...  0.01486488  0.00427355
  -0.00536754]
 [-0.00325703 -0.00039693  0.02667863 ...  0.01426994  0.00768649
  -0.01527114]
 [ 0.0092704   0.01609725 -0.01678111 ... -0.00491458 -0.00921172
  -0.02226374]
 ...
 [-0.00833324  0.00174986 -0.01949254 ...  0.01540248 -0.00562511
   0.02323039]
 [-0.02207874 -0.00199966 -0.01129213 ...  0.00582601 -0.00199462
   0.03624666]
 [ 0.00060756  0.01060843 -0.01287427 ... -0.0044533  -0.01138967
   0.00324478]]

Layer 1:
[[-1.44539317e-02 -1.61745958e-02  7.28899473e-03  1.05989585e-02
  -4.10836786e-02  7.19539967e-05 -5.29250503e-03  8.27022828e-03
  -2.94627678e-02 -1.55977532e-02 -2.45994646e-02  3.54311732e-03
   5.11076534e-03  6.41656993e-03 -4.89615602e-03  3.05769010e-03
  -6.63783634e-03 -2.10071988e-02  1.71810053e-02  8.72987416e-03
  -7.13714107e-04  4.42662314e-02 -4.29558940e-02  2.31517106e-03
   3.50858159e-02  2.70308554e-02 -3.92017420e-03 -2.53154617e-02
  -2.50668395e-02  1.64072830e-02 -1.18908118e-02 -2.91924402e-02
   5.34785949e-02 -1.19660096e-02 -2.47593820e-02  2.36036330e-02
   6.09219261e-03 -5.58469072e-03 -1.14581473e-02 -2.26388685e-02
  -8.40270612e-03  2.17099264e-02 -3.08144689e-02 -2.42730603e-02
   1.64904655e-03  1.02444226e-03  1.27527462e-02 -3.02262921e-02
   1.56510063e-02  6.68870518e-03 -4.03065048e-03  5.38718961e-02
  -2.17199214e-02 -2.74826866e-02 -2.40984540e-02  6.69989688e-03
  -6.94766361e-03 -1.01547258e-03  2.00723242e-02  2.53552310e-02
   4.68691840e-04 -5.63044753e-03 -1.88674945e-02 -4.98351920e-03
  -2.63249874e-02 -1.05336122e-02 -3.84331085e-02  9.73568484e-03
  -4.51257965e-03  1.35299470e-02  1.60919484e-02 -9.17601027e-03
   1.72785521e-02 -1.38693219e-02 -2.37892196e-02 -4.07338550e-04
  -1.82046816e-02  9.77572426e-03 -7.48157827e-03 -4.21834141e-02
  -1.04094809e-02  1.38607398e-02 -2.68144393e-03 -1.84996370e-02
  -2.29549594e-02  2.54028905e-02 -2.17438675e-02  1.67312324e-02
   2.53027659e-02 -1.61016721e-03 -2.54243035e-02 -1.88143644e-02
   1.11733004e-02  1.13196364e-02 -1.63998194e-02  3.42185609e-02
   1.79033563e-03  1.73256116e-03  2.07856596e-02  1.18620647e-03]]

Layer 2:
[0. 0. 0. 0. 0. 0. 0. 0. 0. 0. 0. 0. 0. 0. 0. 0. 0. 0. 0. 0. 0. 0. 0. 0.
 0. 0. 0. 0. 0. 0. 0. 0. 0. 0. 0. 0. 0. 0. 0. 0. 0. 0. 0. 0. 0. 0. 0. 0.
 0. 0. 0. 0. 0. 0. 0. 0. 0. 0. 0. 0. 0. 0. 0. 0. 0. 0. 0. 0. 0. 0. 0. 0.
 0. 0. 0. 0. 0. 0. 0. 0. 0. 0. 0. 0. 0. 0. 0. 0. 0. 0. 0. 0. 0. 0. 0. 0.
 0. 0. 0. 0.]

Layer 3:
[[-0.09140382]
 [-0.04563174]
 [-0.02223283]
 [ 0.02888948]
 [-0.13969938]
 [ 0.03814135]
 [ 0.01896254]
 [-0.01017887]
 [-0.06383947]
 [-0.0651888 ]
 [-0.04839576]
 [-0.05464985]
 [ 0.0390157 ]
 [ 0.01990065]
 [ 0.02127225]
 [ 0.02728753]
 [-0.02178242]
 [-0.02513576]
 [-0.01971149]
 [ 0.04899893]
 [-0.05194176]
 [ 0.06254652]
 [-0.13127272]
 [-0.01439097]
 [ 0.12633778]
 [ 0.09351581]
 [-0.01214781]
 [-0.04227942]
 [-0.10743336]
 [ 0.07051108]
 [-0.03066806]
 [-0.05028833]
 [ 0.11456206]
 [-0.04856948]
 [-0.01208395]
 [ 0.08426122]
 [ 0.06659216]
 [-0.01739325]
 [ 0.04134192]
 [-0.02021911]
 [ 0.01289272]
 [-0.03127798]
 [-0.07571961]
 [-0.1232613 ]
 [-0.01387451]
 [-0.08301448]
 [-0.00388939]
 [-0.05176658]
 [-0.01088449]
 [ 0.02595282]
 [-0.0656553 ]
 [ 0.10568955]
 [-0.11603785]
 [-0.06169236]
 [ 0.00354215]
 [ 0.0844634 ]
 [-0.03163306]
 [-0.00301034]
 [ 0.00559446]
 [ 0.06186496]
 [-0.03383483]
 [-0.02588685]
 [-0.08176535]
 [ 0.06033877]
 [-0.07549065]
 [-0.06370649]
 [-0.09945484]
 [-0.0373063 ]
 [-0.05474392]
 [ 0.04787612]
 [ 0.05486263]
 [-0.04243463]
 [ 0.03690122]
 [-0.033544  ]
 [-0.04964786]
 [ 0.03710829]
 [-0.06028177]
 [ 0.01958586]
 [-0.03001091]
 [-0.08338448]
 [ 0.0238125 ]
 [ 0.0707196 ]
 [-0.02707593]
 [-0.04163307]
 [-0.14171413]
 [ 0.02669396]
 [-0.04187367]
 [ 0.03669507]
 [ 0.0573586 ]
 [ 0.02908948]
 [-0.06280068]
 [-0.12996337]
 [ 0.04847878]
 [ 0.04546222]
 [-0.05727435]
 [ 0.04225266]
 [ 0.01998029]
 [ 0.02576961]
 [ 0.11232353]
 [ 0.01087447]]

Layer 4:
[0.24416304]



Entrenamiento 1:
------------------------------------------------------------------------

Layer 0:
[[ 0.00685176  0.00647489 -0.02573439 ...  0.01486488  0.00427355
  -0.00536754]
 [-0.00325703 -0.00039693  0.02667863 ...  0.01426994  0.00768649
  -0.01527114]
 [ 0.0092704   0.01609725 -0.01678111 ... -0.00491458 -0.00921172
  -0.02226374]
 ...
 [-0.00833324  0.00174986 -0.01949254 ...  0.01540248 -0.00562511
   0.02323039]
 [-0.02207874 -0.00199966 -0.01129213 ...  0.00582601 -0.00199462
   0.03624666]
 [ 0.00060756  0.01060843 -0.01287427 ... -0.0044533  -0.01138967
   0.00324478]]

Layer 1:
[[-1.44539317e-02 -1.61745958e-02  7.28899473e-03  1.05989585e-02
  -4.10836786e-02  7.19539967e-05 -5.29250503e-03  8.27022828e-03
  -2.94627678e-02 -1.55977532e-02 -2.45994646e-02  3.54311732e-03
   5.11076534e-03  6.41656993e-03 -4.89615602e-03  3.05769010e-03
  -6.63783634e-03 -2.10071988e-02  1.71810053e-02  8.72987416e-03
  -7.13714107e-04  4.42662314e-02 -4.29558940e-02  2.31517106e-03
   3.50858159e-02  2.70308554e-02 -3.92017420e-03 -2.53154617e-02
  -2.50668395e-02  1.64072830e-02 -1.18908118e-02 -2.91924402e-02
   5.34785949e-02 -1.19660096e-02 -2.47593820e-02  2.36036330e-02
   6.09219261e-03 -5.58469072e-03 -1.14581473e-02 -2.26388685e-02
  -8.40270612e-03  2.17099264e-02 -3.08144689e-02 -2.42730603e-02
   1.64904655e-03  1.02444226e-03  1.27527462e-02 -3.02262921e-02
   1.56510063e-02  6.68870518e-03 -4.03065048e-03  5.38718961e-02
  -2.17199214e-02 -2.74826866e-02 -2.40984540e-02  6.69989688e-03
  -6.94766361e-03 -1.01547258e-03  2.00723242e-02  2.53552310e-02
   4.68691840e-04 -5.63044753e-03 -1.88674945e-02 -4.98351920e-03
  -2.63249874e-02 -1.05336122e-02 -3.84331085e-02  9.73568484e-03
  -4.51257965e-03  1.35299470e-02  1.60919484e-02 -9.17601027e-03
   1.72785521e-02 -1.38693219e-02 -2.37892196e-02 -4.07338550e-04
  -1.82046816e-02  9.77572426e-03 -7.48157827e-03 -4.21834141e-02
  -1.04094809e-02  1.38607398e-02 -2.68144393e-03 -1.84996370e-02
  -2.29549594e-02  2.54028905e-02 -2.17438675e-02  1.67312324e-02
   2.53027659e-02 -1.61016721e-03 -2.54243035e-02 -1.88143644e-02
   1.11733004e-02  1.13196364e-02 -1.63998194e-02  3.42185609e-02
   1.79033563e-03  1.73256116e-03  2.07856596e-02  1.18620647e-03]]

Layer 2:
[0. 0. 0. 0. 0. 0. 0. 0. 0. 0. 0. 0. 0. 0. 0. 0. 0. 0. 0. 0. 0. 0. 0. 0.
 0. 0. 0. 0. 0. 0. 0. 0. 0. 0. 0. 0. 0. 0. 0. 0. 0. 0. 0. 0. 0. 0. 0. 0.
 0. 0. 0. 0. 0. 0. 0. 0. 0. 0. 0. 0. 0. 0. 0. 0. 0. 0. 0. 0. 0. 0. 0. 0.
 0. 0. 0. 0. 0. 0. 0. 0. 0. 0. 0. 0. 0. 0. 0. 0. 0. 0. 0. 0. 0. 0. 0. 0.
 0. 0. 0. 0.]

Layer 3:
[[-0.48867255]
 [-0.46515533]
 [ 0.2045109 ]
 [ 0.32433385]
 [-0.67267007]
 [ 0.01887156]
 [-0.19632925]
 [ 0.28886673]
 [-0.5538293 ]
 [-0.43461195]
 [-0.49999332]
 [-0.00770897]
 [ 0.30023217]
 [ 0.53366923]
 [-0.12464369]
 [ 0.12811469]
 [-0.18319619]
 [-0.48790926]
 [ 0.3704059 ]
 [ 0.28648686]
 [-0.1306701 ]
 [ 0.5950147 ]
 [-0.7872705 ]
 [ 0.1203253 ]
 [ 0.5989174 ]
 [ 0.57365936]
 [-0.12405197]
 [-0.48860654]
 [-0.56929433]
 [ 0.5183656 ]
 [-0.42186102]
 [-0.5363495 ]
 [ 0.6622898 ]
 [-0.3985399 ]
 [-0.57486993]
 [ 0.54699296]
 [ 0.21808797]
 [-0.1657939 ]
 [-0.21616578]
 [-0.46484905]
 [-0.29440117]
 [ 0.38605416]
 [-0.5646334 ]
 [-0.58084726]
 [ 0.07932863]
 [ 0.03090282]
 [ 0.26709542]
 [-0.5242144 ]
 [ 0.37899873]
 [ 0.23851691]
 [-0.30231547]
 [ 0.64989704]
 [-0.5784128 ]
 [-0.7250614 ]
 [-0.47038007]
 [ 0.28428197]
 [-0.31068984]
 [-0.02482942]
 [ 0.43925333]
 [ 0.53928596]
 [ 0.02202404]
 [-0.19418804]
 [-0.5416092 ]
 [-0.10784783]
 [-0.56749874]
 [-0.3532217 ]
 [-0.60066617]
 [ 0.18485676]
 [-0.16081494]
 [ 0.4113851 ]
 [ 0.44481334]
 [-0.3117888 ]
 [ 0.43125898]
 [-0.39151242]
 [-0.5247633 ]
 [ 0.12423106]
 [-0.4603371 ]
 [ 0.2318252 ]
 [-0.2353468 ]
 [-0.600689  ]
 [-0.28916115]
 [ 0.44979608]
 [-0.06826238]
 [-0.47434756]
 [-0.55270517]
 [ 0.48648825]
 [-0.44677827]
 [ 0.4704304 ]
 [ 0.5175771 ]
 [-0.06262871]
 [-0.83024   ]
 [-0.57860816]
 [ 0.3632928 ]
 [ 0.4675129 ]
 [-0.4571268 ]
 [ 0.5444756 ]
 [ 0.11667056]
 [ 0.15050624]
 [ 0.49853125]
 [ 0.7232029 ]]

Layer 4:
[-0.00047101]



Consenso 1:
------------------------------------------------------------------------

Layer 0:
[[ 0.00698128  0.00676876 -0.02519709 ...  0.015044    0.00434454
  -0.00545702]
 [-0.00315339 -0.00012616  0.0269177  ...  0.01388907  0.00759929
  -0.01546254]
 [ 0.01011844  0.01590793 -0.01678186 ... -0.00503711 -0.0094027
  -0.02195854]
 ...
 [-0.00770459  0.00160448 -0.01944939 ...  0.0151904  -0.00535495
   0.02323524]
 [-0.02231649 -0.00223413 -0.01138206 ...  0.00578999 -0.00185894
   0.03621547]
 [ 0.00092649  0.01060563 -0.01241155 ... -0.00424357 -0.01145352
   0.003318  ]]

Layer 1:
[[-1.4452685e-02 -1.7033447e-02  7.7998731e-03  9.9631138e-03
  -4.1624803e-02  3.0078143e-05 -5.9499824e-03  8.0058062e-03
  -2.9357173e-02 -1.5847974e-02 -2.4475418e-02  2.9341988e-03
   5.0577931e-03  6.1820303e-03 -5.3127971e-03  2.5189598e-03
  -7.2227041e-03 -2.0572439e-02  1.7890144e-02  9.4281295e-03
  -1.0710364e-03  4.4941984e-02 -4.2554315e-02  2.4505076e-03
   3.4860525e-02  2.7052205e-02 -3.8795476e-03 -2.5218187e-02
  -2.5253378e-02  1.5984466e-02 -1.2014453e-02 -2.7941167e-02
   5.3881921e-02 -1.2793532e-02 -2.4562813e-02  2.3963662e-02
   6.2321769e-03 -5.3464570e-03 -1.1532623e-02 -2.2774365e-02
  -8.7343203e-03  2.0996023e-02 -3.0651446e-02 -2.4240455e-02
   1.8521806e-03 -1.8127185e-04  1.3085963e-02 -2.9563919e-02
   1.5759017e-02  6.8739522e-03 -3.6585785e-03  5.3280257e-02
  -2.1840027e-02 -2.7972551e-02 -2.4740299e-02  6.2024929e-03
  -6.9676177e-03 -4.1201970e-04  2.0136695e-02  2.5550621e-02
  -1.6404610e-04 -5.3368588e-03 -1.9020064e-02 -4.8821168e-03
  -2.6380057e-02 -9.6980017e-03 -3.8824499e-02  9.3142129e-03
  -4.8284642e-03  1.4044001e-02  1.6047530e-02 -9.4242012e-03
   1.6770653e-02 -1.4458140e-02 -2.4064749e-02 -4.5209230e-04
  -1.8092511e-02  1.0058559e-02 -7.2058821e-03 -4.3010060e-02
  -1.0328630e-02  1.3667514e-02 -2.1822329e-03 -1.8216725e-02
  -2.3130892e-02  2.5143638e-02 -2.1665217e-02  1.6601462e-02
   2.5271744e-02 -2.2046124e-03 -2.6313467e-02 -1.8210558e-02
   1.1234914e-02  1.1053279e-02 -1.6684864e-02  3.4076717e-02
   1.7453687e-03  2.5529680e-03  2.1236423e-02  8.6458499e-04]]

Layer 2:
[0. 0. 0. 0. 0. 0. 0. 0. 0. 0. 0. 0. 0. 0. 0. 0. 0. 0. 0. 0. 0. 0. 0. 0.
 0. 0. 0. 0. 0. 0. 0. 0. 0. 0. 0. 0. 0. 0. 0. 0. 0. 0. 0. 0. 0. 0. 0. 0.
 0. 0. 0. 0. 0. 0. 0. 0. 0. 0. 0. 0. 0. 0. 0. 0. 0. 0. 0. 0. 0. 0. 0. 0.
 0. 0. 0. 0. 0. 0. 0. 0. 0. 0. 0. 0. 0. 0. 0. 0. 0. 0. 0. 0. 0. 0. 0. 0.
 0. 0. 0. 0.]

Layer 3:
[[-0.49687198]
 [-0.46298888]
 [ 0.23936893]
 [ 0.3362312 ]
 [-0.66001993]
 [-0.00490121]
 [-0.22338289]
 [ 0.3056174 ]
 [-0.53567815]
 [-0.45235357]
 [-0.49139586]
 [ 0.01861069]
 [ 0.30002785]
 [ 0.26524547]
 [-0.17097321]
 [ 0.13505039]
 [-0.26435676]
 [-0.46931624]
 [ 0.3787218 ]
 [ 0.32647845]
 [-0.14518678]
 [ 0.5869467 ]
 [-0.65599245]
 [ 0.13339028]
 [ 0.62111455]
 [ 0.5697168 ]
 [-0.14482005]
 [-0.48694927]
 [-0.5556194 ]
 [ 0.50272423]
 [-0.41651398]
 [-0.50594676]
 [ 0.64568686]
 [-0.42481986]
 [-0.4518767 ]
 [ 0.52463955]
 [ 0.2174382 ]
 [-0.16313249]
 [-0.23122525]
 [-0.4544681 ]
 [-0.32585895]
 [ 0.38915473]
 [-0.5369044 ]
 [-0.5651905 ]
 [ 0.09237433]
 [-0.04560393]
 [ 0.2897318 ]
 [-0.5233794 ]
 [ 0.38790542]
 [ 0.28421485]
 [-0.18656771]
 [ 0.62691927]
 [-0.55559534]
 [-0.52842945]
 [-0.42898086]
 [ 0.28834873]
 [-0.29625845]
 [-0.01871263]
 [ 0.43373832]
 [ 0.525512  ]
 [-0.01963475]
 [-0.20300147]
 [-0.5261219 ]
 [-0.11136192]
 [-0.5345725 ]
 [-0.35066018]
 [-0.616889  ]
 [ 0.18773043]
 [-0.19353253]
 [ 0.4029233 ]
 [ 0.43862447]
 [-0.3384641 ]
 [ 0.41462475]
 [-0.39372438]
 [-0.50966287]
 [ 0.09452376]
 [-0.47449633]
 [ 0.24971485]
 [-0.25635988]
 [-0.6095227 ]
 [-0.31217778]
 [ 0.45867085]
 [-0.05704261]
 [-0.456698  ]
 [-0.5910161 ]
 [ 0.4787769 ]
 [-0.42971578]
 [ 0.47189593]
 [ 0.506179  ]
 [-0.07348407]
 [-0.53073835]
 [-0.55210245]
 [ 0.4134397 ]
 [ 0.32191667]
 [-0.4785712 ]
 [ 0.52645797]
 [ 0.11944778]
 [ 0.16961326]
 [ 0.5394646 ]
 [ 0.13348208]]

Layer 4:
[0.662637]



Entrenamiento 2:
------------------------------------------------------------------------

Layer 0:
[[ 0.00698128  0.00676876 -0.02519709 ...  0.015044    0.00434454
  -0.00545702]
 [-0.00315339 -0.00012616  0.0269177  ...  0.01388907  0.00759929
  -0.01546254]
 [ 0.01011844  0.01590793 -0.01678186 ... -0.00503711 -0.0094027
  -0.02195854]
 ...
 [-0.00770459  0.00160448 -0.01944939 ...  0.0151904  -0.00535495
   0.02323524]
 [-0.02231649 -0.00223413 -0.01138206 ...  0.00578999 -0.00185894
   0.03621547]
 [ 0.00092649  0.01060563 -0.01241155 ... -0.00424357 -0.01145352
   0.003318  ]]

Layer 1:
[[-1.4452685e-02 -1.7033447e-02  7.7998731e-03  9.9631138e-03
  -4.1624803e-02  3.0078143e-05 -5.9499824e-03  8.0058062e-03
  -2.9357173e-02 -1.5847974e-02 -2.4475418e-02  2.9341988e-03
   5.0577931e-03  6.1820303e-03 -5.3127971e-03  2.5189598e-03
  -7.2227041e-03 -2.0572439e-02  1.7890144e-02  9.4281295e-03
  -1.0710364e-03  4.4941984e-02 -4.2554315e-02  2.4505076e-03
   3.4860525e-02  2.7052205e-02 -3.8795476e-03 -2.5218187e-02
  -2.5253378e-02  1.5984466e-02 -1.2014453e-02 -2.7941167e-02
   5.3881921e-02 -1.2793532e-02 -2.4562813e-02  2.3963662e-02
   6.2321769e-03 -5.3464570e-03 -1.1532623e-02 -2.2774365e-02
  -8.7343203e-03  2.0996023e-02 -3.0651446e-02 -2.4240455e-02
   1.8521806e-03 -1.8127185e-04  1.3085963e-02 -2.9563919e-02
   1.5759017e-02  6.8739522e-03 -3.6585785e-03  5.3280257e-02
  -2.1840027e-02 -2.7972551e-02 -2.4740299e-02  6.2024929e-03
  -6.9676177e-03 -4.1201970e-04  2.0136695e-02  2.5550621e-02
  -1.6404610e-04 -5.3368588e-03 -1.9020064e-02 -4.8821168e-03
  -2.6380057e-02 -9.6980017e-03 -3.8824499e-02  9.3142129e-03
  -4.8284642e-03  1.4044001e-02  1.6047530e-02 -9.4242012e-03
   1.6770653e-02 -1.4458140e-02 -2.4064749e-02 -4.5209230e-04
  -1.8092511e-02  1.0058559e-02 -7.2058821e-03 -4.3010060e-02
  -1.0328630e-02  1.3667514e-02 -2.1822329e-03 -1.8216725e-02
  -2.3130892e-02  2.5143638e-02 -2.1665217e-02  1.6601462e-02
   2.5271744e-02 -2.2046124e-03 -2.6313467e-02 -1.8210558e-02
   1.1234914e-02  1.1053279e-02 -1.6684864e-02  3.4076717e-02
   1.7453687e-03  2.5529680e-03  2.1236423e-02  8.6458499e-04]]

Layer 2:
[0. 0. 0. 0. 0. 0. 0. 0. 0. 0. 0. 0. 0. 0. 0. 0. 0. 0. 0. 0. 0. 0. 0. 0.
 0. 0. 0. 0. 0. 0. 0. 0. 0. 0. 0. 0. 0. 0. 0. 0. 0. 0. 0. 0. 0. 0. 0. 0.
 0. 0. 0. 0. 0. 0. 0. 0. 0. 0. 0. 0. 0. 0. 0. 0. 0. 0. 0. 0. 0. 0. 0. 0.
 0. 0. 0. 0. 0. 0. 0. 0. 0. 0. 0. 0. 0. 0. 0. 0. 0. 0. 0. 0. 0. 0. 0. 0.
 0. 0. 0. 0.]

Layer 3:
[[-0.8087616 ]
 [-0.7873338 ]
 [ 0.4815131 ]
 [ 0.59251446]
 [-0.9972809 ]
 [-0.06312505]
 [-0.43140632]
 [ 0.55465883]
 [-0.8738741 ]
 [-0.7372732 ]
 [-0.824521  ]
 [ 0.07431491]
 [ 0.51636994]
 [ 0.6452993 ]
 [-0.3225265 ]
 [ 0.2435302 ]
 [-0.45929056]
 [-0.8015012 ]
 [ 0.70035744]
 [ 0.5509197 ]
 [-0.22978567]
 [ 0.9201729 ]
 [-1.0413283 ]
 [ 0.25895217]
 [ 0.9614343 ]
 [ 0.9084907 ]
 [-0.2459843 ]
 [-0.8181679 ]
 [-0.88705665]
 [ 0.8234053 ]
 [-0.72427726]
 [-0.8426519 ]
 [ 0.9764838 ]
 [-0.7225187 ]
 [-0.8145819 ]
 [ 0.85842884]
 [ 0.36371177]
 [-0.29835325]
 [-0.48764384]
 [-0.7891522 ]
 [-0.59344697]
 [ 0.7133774 ]
 [-0.8822161 ]
 [-0.89884716]
 [ 0.18371361]
 [ 0.02083271]
 [ 0.55401105]
 [-0.85628164]
 [ 0.7000878 ]
 [ 0.50422984]
 [-0.37078455]
 [ 0.96208256]
 [-0.8883873 ]
 [-0.9357073 ]
 [-0.7944073 ]
 [ 0.47222275]
 [-0.5236171 ]
 [-0.03204591]
 [ 0.757916  ]
 [ 0.85496175]
 [-0.00293426]
 [-0.34491056]
 [-0.85569847]
 [-0.2607236 ]
 [-0.8778011 ]
 [-0.59347796]
 [-0.9501923 ]
 [ 0.39791426]
 [-0.3055432 ]
 [ 0.7088533 ]
 [ 0.75010645]
 [-0.60218894]
 [ 0.72343636]
 [-0.70023423]
 [-0.8455003 ]
 [ 0.14999014]
 [-0.7970035 ]
 [ 0.46402165]
 [-0.43975258]
 [-0.9439446 ]
 [-0.5601544 ]
 [ 0.75500655]
 [-0.08068852]
 [-0.78089225]
 [-0.92205834]
 [ 0.81801325]
 [-0.7536523 ]
 [ 0.78922373]
 [ 0.8389544 ]
 [-0.15685295]
 [-0.95303506]
 [-0.8747819 ]
 [ 0.6906352 ]
 [ 0.6517435 ]
 [-0.78483915]
 [ 0.8609112 ]
 [ 0.20097688]
 [ 0.31350783]
 [ 0.8594972 ]
 [ 0.5409631 ]]

Layer 4:
[0.20986533]



Consenso 2:
------------------------------------------------------------------------

Layer 0:
[[ 0.00698662  0.00677967 -0.02517861 ...  0.01505036  0.00434702
  -0.00546014]
 [-0.0031504  -0.00011727  0.02692651 ...  0.01387496  0.00759526
  -0.01546925]
 [ 0.01014796  0.01590074 -0.01678158 ... -0.00504184 -0.00940928
  -0.0219477 ]
 ...
 [-0.00768133  0.00159913 -0.01944908 ...  0.01518286 -0.00534502
   0.02323522]
 [-0.02232498 -0.00224154 -0.0113852  ...  0.00578942 -0.00185416
   0.03621534]
 [ 0.0009382   0.01060679 -0.01239446 ... -0.00423547 -0.01145595
   0.00332061]]

Layer 1:
[[-1.44524593e-02 -1.70641132e-02  7.81843346e-03  9.93956905e-03
  -4.16442454e-02  2.90655189e-05 -5.97325992e-03  7.99748860e-03
  -2.93523278e-02 -1.58585832e-02 -2.44719442e-02  2.91188271e-03
   5.05480589e-03  6.17405679e-03 -5.32968435e-03  2.49887141e-03
  -7.24255806e-03 -2.05571800e-02  1.79144405e-02  9.45371110e-03
  -1.08357845e-03  4.49657217e-02 -4.25406173e-02  2.45518750e-03
   3.48512903e-02  2.70542949e-02 -3.87908495e-03 -2.52127629e-02
  -2.52602398e-02  1.59687754e-02 -1.20204715e-02 -2.78969482e-02
   5.38972728e-02 -1.28243770e-02 -2.45538540e-02  2.39778087e-02
   6.23680325e-03 -5.33885881e-03 -1.15347542e-02 -2.27794051e-02
  -8.74731597e-03  2.09710281e-02 -3.06442734e-02 -2.42404547e-02
   1.86013151e-03 -2.25473021e-04  1.30975936e-02 -2.95389853e-02
   1.57635212e-02  6.88147219e-03 -3.64561751e-03  5.32601103e-02
  -2.18435228e-02 -2.79885065e-02 -2.47635115e-02  6.18448621e-03
  -6.96958601e-03 -3.91097739e-04  2.01386977e-02  2.55587921e-02
  -1.86778416e-04 -5.32562891e-03 -1.90260448e-02 -4.87820338e-03
  -2.63816770e-02 -9.66861006e-03 -3.88384126e-02  9.30061471e-03
  -4.83946269e-03  1.40624009e-02  1.60471611e-02 -9.43357870e-03
   1.67526938e-02 -1.44783650e-02 -2.40753572e-02 -4.51974978e-04
  -1.80879198e-02  1.00695658e-02 -7.19603291e-03 -4.30399813e-02
  -1.03259590e-02  1.36627303e-02 -2.16713524e-03 -1.82070434e-02
  -2.31370907e-02  2.51337681e-02 -2.16628518e-02  1.65982861e-02
   2.52717175e-02 -2.22671474e-03 -2.63454728e-02 -1.81898139e-02
   1.12374164e-02  1.10452846e-02 -1.66961700e-02  3.40721682e-02
   1.74330547e-03  2.58306228e-03  2.12536696e-02  8.53265985e-04]]

Layer 2:
[0. 0. 0. 0. 0. 0. 0. 0. 0. 0. 0. 0. 0. 0. 0. 0. 0. 0. 0. 0. 0. 0. 0. 0.
 0. 0. 0. 0. 0. 0. 0. 0. 0. 0. 0. 0. 0. 0. 0. 0. 0. 0. 0. 0. 0. 0. 0. 0.
 0. 0. 0. 0. 0. 0. 0. 0. 0. 0. 0. 0. 0. 0. 0. 0. 0. 0. 0. 0. 0. 0. 0. 0.
 0. 0. 0. 0. 0. 0. 0. 0. 0. 0. 0. 0. 0. 0. 0. 0. 0. 0. 0. 0. 0. 0. 0. 0.
 0. 0. 0. 0.]

Layer 3:
[[-0.7980833 ]
 [-0.7669175 ]
 [ 0.47531447]
 [ 0.59570986]
 [-0.97978777]
 [-0.04679596]
 [-0.43625283]
 [ 0.56100154]
 [-0.85491765]
 [-0.75150776]
 [-0.80933714]
 [ 0.10127735]
 [ 0.5176623 ]
 [ 0.4817035 ]
 [-0.3539121 ]
 [ 0.23780622]
 [-0.48552057]
 [-0.78233725]
 [ 0.6838086 ]
 [ 0.56882256]
 [-0.23381284]
 [ 0.90272933]
 [-0.9804209 ]
 [ 0.27053902]
 [ 0.93889093]
 [ 0.8888057 ]
 [-0.27797392]
 [-0.7998177 ]
 [-0.871813  ]
 [ 0.80849683]
 [-0.7087584 ]
 [-0.8235544 ]
 [ 0.9572413 ]
 [-0.71572083]
 [-0.7637767 ]
 [ 0.83517265]
 [ 0.37817916]
 [-0.31630945]
 [-0.4819852 ]
 [-0.7706919 ]
 [-0.59702504]
 [ 0.6989255 ]
 [-0.8542736 ]
 [-0.8782312 ]
 [ 0.19702762]
 [-0.00512557]
 [ 0.5519075 ]
 [-0.84133995]
 [ 0.69208   ]
 [ 0.50981575]
 [-0.30803904]
 [ 0.94228715]
 [-0.8686988 ]
 [-0.84646714]
 [-0.7479502 ]
 [ 0.47101656]
 [-0.52651805]
 [-0.03222191]
 [ 0.7449996 ]
 [ 0.8428447 ]
 [-0.007786  ]
 [-0.37509915]
 [-0.8372647 ]
 [-0.273461  ]
 [-0.84995323]
 [-0.6029485 ]
 [-0.9344465 ]
 [ 0.4107753 ]
 [-0.33381847]
 [ 0.6873659 ]
 [ 0.7365057 ]
 [-0.59167594]
 [ 0.71140945]
 [-0.6811081 ]
 [-0.8248025 ]
 [ 0.14156926]
 [-0.78554046]
 [ 0.47734272]
 [-0.46299076]
 [-0.9285221 ]
 [-0.5860578 ]
 [ 0.751951  ]
 [-0.09688794]
 [-0.76218706]
 [-0.9128694 ]
 [ 0.7927869 ]
 [-0.7354357 ]
 [ 0.77955043]
 [ 0.82348406]
 [-0.17595683]
 [-0.85112625]
 [-0.8577255 ]
 [ 0.6984885 ]
 [ 0.571529  ]
 [-0.78936666]
 [ 0.843679  ]
 [ 0.2129061 ]
 [ 0.30424547]
 [ 0.8538649 ]
 [ 0.24511059]]

Layer 4:
[0.7518196]



Entrenamiento 3:
------------------------------------------------------------------------

Layer 0:
[[ 0.00698662  0.00677967 -0.02517861 ...  0.01505036  0.00434702
  -0.00546014]
 [-0.0031504  -0.00011727  0.02692651 ...  0.01387496  0.00759526
  -0.01546925]
 [ 0.01014796  0.01590074 -0.01678158 ... -0.00504184 -0.00940928
  -0.0219477 ]
 ...
 [-0.00768133  0.00159913 -0.01944908 ...  0.01518286 -0.00534502
   0.02323522]
 [-0.02232498 -0.00224154 -0.0113852  ...  0.00578942 -0.00185416
   0.03621534]
 [ 0.0009382   0.01060679 -0.01239446 ... -0.00423547 -0.01145595
   0.00332061]]

Layer 1:
[[-1.44524593e-02 -1.70641132e-02  7.81843346e-03  9.93956905e-03
  -4.16442454e-02  2.90655189e-05 -5.97325992e-03  7.99748860e-03
  -2.93523278e-02 -1.58585832e-02 -2.44719442e-02  2.91188271e-03
   5.05480589e-03  6.17405679e-03 -5.32968435e-03  2.49887141e-03
  -7.24255806e-03 -2.05571800e-02  1.79144405e-02  9.45371110e-03
  -1.08357845e-03  4.49657217e-02 -4.25406173e-02  2.45518750e-03
   3.48512903e-02  2.70542949e-02 -3.87908495e-03 -2.52127629e-02
  -2.52602398e-02  1.59687754e-02 -1.20204715e-02 -2.78969482e-02
   5.38972728e-02 -1.28243770e-02 -2.45538540e-02  2.39778087e-02
   6.23680325e-03 -5.33885881e-03 -1.15347542e-02 -2.27794051e-02
  -8.74731597e-03  2.09710281e-02 -3.06442734e-02 -2.42404547e-02
   1.86013151e-03 -2.25473021e-04  1.30975936e-02 -2.95389853e-02
   1.57635212e-02  6.88147219e-03 -3.64561751e-03  5.32601103e-02
  -2.18435228e-02 -2.79885065e-02 -2.47635115e-02  6.18448621e-03
  -6.96958601e-03 -3.91097739e-04  2.01386977e-02  2.55587921e-02
  -1.86778416e-04 -5.32562891e-03 -1.90260448e-02 -4.87820338e-03
  -2.63816770e-02 -9.66861006e-03 -3.88384126e-02  9.30061471e-03
  -4.83946269e-03  1.40624009e-02  1.60471611e-02 -9.43357870e-03
   1.67526938e-02 -1.44783650e-02 -2.40753572e-02 -4.51974978e-04
  -1.80879198e-02  1.00695658e-02 -7.19603291e-03 -4.30399813e-02
  -1.03259590e-02  1.36627303e-02 -2.16713524e-03 -1.82070434e-02
  -2.31370907e-02  2.51337681e-02 -2.16628518e-02  1.65982861e-02
   2.52717175e-02 -2.22671474e-03 -2.63454728e-02 -1.81898139e-02
   1.12374164e-02  1.10452846e-02 -1.66961700e-02  3.40721682e-02
   1.74330547e-03  2.58306228e-03  2.12536696e-02  8.53265985e-04]]

Layer 2:
[0. 0. 0. 0. 0. 0. 0. 0. 0. 0. 0. 0. 0. 0. 0. 0. 0. 0. 0. 0. 0. 0. 0. 0.
 0. 0. 0. 0. 0. 0. 0. 0. 0. 0. 0. 0. 0. 0. 0. 0. 0. 0. 0. 0. 0. 0. 0. 0.
 0. 0. 0. 0. 0. 0. 0. 0. 0. 0. 0. 0. 0. 0. 0. 0. 0. 0. 0. 0. 0. 0. 0. 0.
 0. 0. 0. 0. 0. 0. 0. 0. 0. 0. 0. 0. 0. 0. 0. 0. 0. 0. 0. 0. 0. 0. 0. 0.
 0. 0. 0. 0.]

Layer 3:
[[-0.94732016]
 [-0.91055214]
 [ 0.61442554]
 [ 0.7282525 ]
 [-1.0844303 ]
 [-0.07165489]
 [-0.5453231 ]
 [ 0.6849403 ]
 [-0.98541886]
 [-0.89662296]
 [-0.95776176]
 [ 0.1413646 ]
 [ 0.6247179 ]
 [ 0.68025976]
 [-0.4474669 ]
 [ 0.29382682]
 [-0.6033581 ]
 [-0.92347014]
 [ 0.8399345 ]
 [ 0.6964044 ]
 [-0.27753267]
 [ 0.99161226]
 [-1.0988258 ]
 [ 0.339298  ]
 [ 1.051997  ]
 [ 1.0230412 ]
 [-0.3435633 ]
 [-0.9365221 ]
 [-1.0173943 ]
 [ 0.93985647]
 [-0.85498005]
 [-0.96043783]
 [ 1.0360198 ]
 [-0.8636278 ]
 [-0.91034377]
 [ 0.9717585 ]
 [ 0.48011732]
 [-0.40764958]
 [-0.63534373]
 [-0.92250377]
 [-0.73558533]
 [ 0.84181297]
 [-0.9916219 ]
 [-1.0217841 ]
 [ 0.2497553 ]
 [ 0.01911172]
 [ 0.7140533 ]
 [-0.9670736 ]
 [ 0.8416031 ]
 [ 0.6299068 ]
 [-0.41810083]
 [ 1.0315267 ]
 [-1.0138618 ]
 [-1.0012641 ]
 [-0.9148246 ]
 [ 0.574518  ]
 [-0.6485924 ]
 [-0.03878709]
 [ 0.89026016]
 [ 0.9746222 ]
 [-0.00376276]
 [-0.45980036]
 [-0.97826135]
 [-0.35540473]
 [-0.9849456 ]
 [-0.7442053 ]
 [-1.031724  ]
 [ 0.54977965]
 [-0.40979543]
 [ 0.8435374 ]
 [ 0.8924538 ]
 [-0.7371967 ]
 [ 0.866517  ]
 [-0.8399366 ]
 [-0.9578709 ]
 [ 0.16027257]
 [-0.9493309 ]
 [ 0.61695254]
 [-0.57601005]
 [-1.022945  ]
 [-0.7197383 ]
 [ 0.8966131 ]
 [-0.11977002]
 [-0.90881157]
 [-1.0695648 ]
 [ 0.9268212 ]
 [-0.90234464]
 [ 0.91437966]
 [ 0.9664557 ]
 [-0.22412354]
 [-1.0198932 ]
 [-1.0015188 ]
 [ 0.8408744 ]
 [ 0.762554  ]
 [-0.93945247]
 [ 0.9587444 ]
 [ 0.2575707 ]
 [ 0.38692695]
 [ 1.0061555 ]
 [ 0.4476903 ]]

Layer 4:
[0.20789127]



Consenso 3:
------------------------------------------------------------------------

Layer 0:
[[ 0.00698682  0.00678006 -0.02517795 ...  0.01505058  0.0043471
  -0.00546025]
 [-0.00315029 -0.00011695  0.02692681 ...  0.01387444  0.00759512
  -0.01546949]
 [ 0.01014903  0.01590049 -0.01678158 ... -0.00504201 -0.00940951
  -0.02194734]
 ...
 [-0.00768049  0.00159893 -0.01944908 ...  0.01518259 -0.00534466
   0.02323522]
 [-0.02232527 -0.0022418  -0.01138531 ...  0.0057894  -0.00185399
   0.03621534]
 [ 0.00093862  0.01060682 -0.01239384 ... -0.00423518 -0.01145602
   0.0033207 ]]

Layer 1:
[[-1.44524593e-02 -1.70652382e-02  7.81910680e-03  9.93871875e-03
  -4.16449048e-02  2.90291264e-05 -5.97410416e-03  7.99718965e-03
  -2.93521937e-02 -1.58589389e-02 -2.44718604e-02  2.91107688e-03
   5.05470252e-03  6.17376436e-03 -5.33029390e-03  2.49814545e-03
  -7.24327611e-03 -2.05566306e-02  1.79153290e-02  9.45463311e-03
  -1.08403084e-03  4.49665412e-02 -4.25401516e-02  2.45535723e-03
   3.48510519e-02  2.70543527e-02 -3.87907401e-03 -2.52125952e-02
  -2.52604727e-02  1.59682073e-02 -1.20206811e-02 -2.78953519e-02
   5.38978018e-02 -1.28254890e-02 -2.45535467e-02  2.39783153e-02
   6.23696810e-03 -5.33857988e-03 -1.15348045e-02 -2.27795504e-02
  -8.74779001e-03  2.09701117e-02 -3.06440275e-02 -2.42404547e-02
   1.86042045e-03 -2.27069264e-04  1.30980210e-02 -2.95380708e-02
   1.57636330e-02  6.88174972e-03 -3.64514650e-03  5.32594286e-02
  -2.18436066e-02 -2.79890802e-02 -2.47643646e-02  6.18383614e-03
  -6.96965400e-03 -3.90342757e-04  2.01387517e-02  2.55590752e-02
  -1.87599144e-04 -5.32522285e-03 -1.90262385e-02 -4.87806182e-03
  -2.63817143e-02 -9.66755208e-03 -3.88388857e-02  9.30011738e-03
  -4.83986083e-03  1.40630715e-02  1.60471611e-02 -9.43391584e-03
   1.67520512e-02 -1.44790960e-02 -2.40757111e-02 -4.51970671e-04
  -1.80877987e-02  1.00699710e-02 -7.19567621e-03 -4.30410579e-02
  -1.03258779e-02  1.36625683e-02 -2.16658693e-03 -1.82067137e-02
  -2.31372956e-02  2.51334328e-02 -2.16627847e-02  1.65982060e-02
   2.52717175e-02 -2.22751289e-03 -2.63466462e-02 -1.81890558e-02
   1.12374881e-02  1.10449968e-02 -1.66965518e-02  3.40720378e-02
   1.74323004e-03  2.58414890e-03  2.12542899e-02  8.52857542e-04]]

Layer 2:
[0. 0. 0. 0. 0. 0. 0. 0. 0. 0. 0. 0. 0. 0. 0. 0. 0. 0. 0. 0. 0. 0. 0. 0.
 0. 0. 0. 0. 0. 0. 0. 0. 0. 0. 0. 0. 0. 0. 0. 0. 0. 0. 0. 0. 0. 0. 0. 0.
 0. 0. 0. 0. 0. 0. 0. 0. 0. 0. 0. 0. 0. 0. 0. 0. 0. 0. 0. 0. 0. 0. 0. 0.
 0. 0. 0. 0. 0. 0. 0. 0. 0. 0. 0. 0. 0. 0. 0. 0. 0. 0. 0. 0. 0. 0. 0. 0.
 0. 0. 0. 0.]

Layer 3:
[[-0.9219064 ]
 [-0.88510096]
 [ 0.6093308 ]
 [ 0.72302824]
 [-1.0520548 ]
 [-0.06551927]
 [-0.5471754 ]
 [ 0.6873456 ]
 [-0.95373917]
 [-0.8830508 ]
 [-0.92377716]
 [ 0.16990194]
 [ 0.62063575]
 [ 0.603605  ]
 [-0.46117532]
 [ 0.2999472 ]
 [-0.61265516]
 [-0.89305717]
 [ 0.8133613 ]
 [ 0.70490986]
 [-0.28121316]
 [ 0.9628116 ]
 [-1.0554657 ]
 [ 0.34359965]
 [ 1.0219489 ]
 [ 0.99011284]
 [-0.3725868 ]
 [-0.90489906]
 [-0.984452  ]
 [ 0.9153998 ]
 [-0.82703453]
 [-0.9279419 ]
 [ 1.0118353 ]
 [-0.84668154]
 [-0.868239  ]
 [ 0.9407289 ]
 [ 0.4973787 ]
 [-0.42788023]
 [-0.6295319 ]
 [-0.89235693]
 [-0.71999437]
 [ 0.8139204 ]
 [-0.95815766]
 [-0.9878097 ]
 [ 0.2630442 ]
 [ 0.01076315]
 [ 0.7044296 ]
 [-0.938006  ]
 [ 0.8168976 ]
 [ 0.63343966]
 [-0.3897996 ]
 [ 1.0044793 ]
 [-0.98097676]
 [-0.9467074 ]
 [-0.8688377 ]
 [ 0.57770485]
 [-0.64634985]
 [-0.04283146]
 [ 0.8628088 ]
 [ 0.94524175]
 [-0.00598662]
 [-0.48320216]
 [-0.94710064]
 [-0.36361912]
 [-0.9488224 ]
 [-0.7415187 ]
 [-1.0056455 ]
 [ 0.5581182 ]
 [-0.43336278]
 [ 0.82181025]
 [ 0.8707541 ]
 [-0.72724736]
 [ 0.842927  ]
 [-0.81210613]
 [-0.92577463]
 [ 0.15561073]
 [-0.92312133]
 [ 0.6229117 ]
 [-0.5860211 ]
 [-0.99384785]
 [-0.7208094 ]
 [ 0.879554  ]
 [-0.14015062]
 [-0.88023984]
 [-1.0369688 ]
 [ 0.89459956]
 [-0.8739311 ]
 [ 0.8913427 ]
 [ 0.9372409 ]
 [-0.23765354]
 [-0.95792264]
 [-0.9710496 ]
 [ 0.833161  ]
 [ 0.7162803 ]
 [-0.9193583 ]
 [ 0.9288548 ]
 [ 0.26994678]
 [ 0.38074526]
 [ 0.9789999 ]
 [ 0.3106673 ]]

Layer 4:
[0.5790504]



Entrenamiento 4:
------------------------------------------------------------------------

Layer 0:
[[ 0.00698682  0.00678006 -0.02517795 ...  0.01505058  0.0043471
  -0.00546025]
 [-0.00315029 -0.00011695  0.02692681 ...  0.01387444  0.00759512
  -0.01546949]
 [ 0.01014903  0.01590049 -0.01678158 ... -0.00504201 -0.00940951
  -0.02194734]
 ...
 [-0.00768049  0.00159893 -0.01944908 ...  0.01518259 -0.00534466
   0.02323522]
 [-0.02232527 -0.0022418  -0.01138531 ...  0.0057894  -0.00185399
   0.03621534]
 [ 0.00093862  0.01060682 -0.01239384 ... -0.00423518 -0.01145602
   0.0033207 ]]

Layer 1:
[[-1.44524593e-02 -1.70652382e-02  7.81910680e-03  9.93871875e-03
  -4.16449048e-02  2.90291264e-05 -5.97410416e-03  7.99718965e-03
  -2.93521937e-02 -1.58589389e-02 -2.44718604e-02  2.91107688e-03
   5.05470252e-03  6.17376436e-03 -5.33029390e-03  2.49814545e-03
  -7.24327611e-03 -2.05566306e-02  1.79153290e-02  9.45463311e-03
  -1.08403084e-03  4.49665412e-02 -4.25401516e-02  2.45535723e-03
   3.48510519e-02  2.70543527e-02 -3.87907401e-03 -2.52125952e-02
  -2.52604727e-02  1.59682073e-02 -1.20206811e-02 -2.78953519e-02
   5.38978018e-02 -1.28254890e-02 -2.45535467e-02  2.39783153e-02
   6.23696810e-03 -5.33857988e-03 -1.15348045e-02 -2.27795504e-02
  -8.74779001e-03  2.09701117e-02 -3.06440275e-02 -2.42404547e-02
   1.86042045e-03 -2.27069264e-04  1.30980210e-02 -2.95380708e-02
   1.57636330e-02  6.88174972e-03 -3.64514650e-03  5.32594286e-02
  -2.18436066e-02 -2.79890802e-02 -2.47643646e-02  6.18383614e-03
  -6.96965400e-03 -3.90342757e-04  2.01387517e-02  2.55590752e-02
  -1.87599144e-04 -5.32522285e-03 -1.90262385e-02 -4.87806182e-03
  -2.63817143e-02 -9.66755208e-03 -3.88388857e-02  9.30011738e-03
  -4.83986083e-03  1.40630715e-02  1.60471611e-02 -9.43391584e-03
   1.67520512e-02 -1.44790960e-02 -2.40757111e-02 -4.51970671e-04
  -1.80877987e-02  1.00699710e-02 -7.19567621e-03 -4.30410579e-02
  -1.03258779e-02  1.36625683e-02 -2.16658693e-03 -1.82067137e-02
  -2.31372956e-02  2.51334328e-02 -2.16627847e-02  1.65982060e-02
   2.52717175e-02 -2.22751289e-03 -2.63466462e-02 -1.81890558e-02
   1.12374881e-02  1.10449968e-02 -1.66965518e-02  3.40720378e-02
   1.74323004e-03  2.58414890e-03  2.12542899e-02  8.52857542e-04]]

Layer 2:
[0. 0. 0. 0. 0. 0. 0. 0. 0. 0. 0. 0. 0. 0. 0. 0. 0. 0. 0. 0. 0. 0. 0. 0.
 0. 0. 0. 0. 0. 0. 0. 0. 0. 0. 0. 0. 0. 0. 0. 0. 0. 0. 0. 0. 0. 0. 0. 0.
 0. 0. 0. 0. 0. 0. 0. 0. 0. 0. 0. 0. 0. 0. 0. 0. 0. 0. 0. 0. 0. 0. 0. 0.
 0. 0. 0. 0. 0. 0. 0. 0. 0. 0. 0. 0. 0. 0. 0. 0. 0. 0. 0. 0. 0. 0. 0. 0.
 0. 0. 0. 0.]

Layer 3:
[[-1.0040208 ]
 [-0.9543716 ]
 [ 0.703636  ]
 [ 0.80375624]
 [-1.0636102 ]
 [-0.07589323]
 [-0.61315036]
 [ 0.75897133]
 [-1.0001792 ]
 [-0.96921074]
 [-0.9965759 ]
 [ 0.20402463]
 [ 0.68149924]
 [ 0.7303738 ]
 [-0.52856326]
 [ 0.33451664]
 [-0.6960925 ]
 [-0.9565203 ]
 [ 0.90066224]
 [ 0.79024464]
 [-0.3064164 ]
 [ 0.9546276 ]
 [-1.0698639 ]
 [ 0.387365  ]
 [ 1.0441307 ]
 [ 1.0415047 ]
 [-0.42251503]
 [-0.962335  ]
 [-1.0536467 ]
 [ 0.9699312 ]
 [-0.90644735]
 [-0.98385936]
 [ 0.99090195]
 [-0.9316772 ]
 [-0.9282886 ]
 [ 0.9970118 ]
 [ 0.5792963 ]
 [-0.5001922 ]
 [-0.7383197 ]
 [-0.9691899 ]
 [-0.8039686 ]
 [ 0.8826687 ]
 [-1.0113145 ]
 [-1.0537727 ]
 [ 0.29856294]
 [ 0.01969165]
 [ 0.82185787]
 [-0.9799815 ]
 [ 0.899167  ]
 [ 0.7106206 ]
 [-0.4692811 ]
 [ 0.9960974 ]
 [-1.0495372 ]
 [-1.002933  ]
 [-0.9550827 ]
 [ 0.6475239 ]
 [-0.72366214]
 [-0.04753977]
 [ 0.9345781 ]
 [ 0.9965567 ]
 [-0.00643968]
 [-0.54326564]
 [-1.0111954 ]
 [-0.41647467]
 [-0.9996981 ]
 [-0.8400516 ]
 [-1.0087867 ]
 [ 0.66617286]
 [-0.49298698]
 [ 0.915178  ]
 [ 0.96209884]
 [-0.8224538 ]
 [ 0.9344517 ]
 [-0.9087078 ]
 [-0.9766256 ]
 [ 0.1581774 ]
 [-1.0209383 ]
 [ 0.72926116]
 [-0.6687033 ]
 [-0.9926577 ]
 [-0.80591154]
 [ 0.9612759 ]
 [-0.16358207]
 [-0.95419216]
 [-1.1216278 ]
 [ 0.9456707 ]
 [-0.975335  ]
 [ 0.9516822 ]
 [ 1.0026807 ]
 [-0.26944506]
 [-1.028156  ]
 [-1.0419244 ]
 [ 0.918875  ]
 [ 0.8499311 ]
 [-1.004241  ]
 [ 0.9556502 ]
 [ 0.2984256 ]
 [ 0.4347998 ]
 [ 1.0616263 ]
 [ 0.4345793 ]]

Layer 4:
[0.03584984]



Consenso 4:
------------------------------------------------------------------------

Layer 0:
[[ 0.00698682  0.00678007 -0.02517795 ...  0.01505058  0.0043471
  -0.00546025]
 [-0.00315029 -0.00011694  0.02692681 ...  0.01387444  0.00759512
  -0.01546949]
 [ 0.01014906  0.01590049 -0.01678158 ... -0.00504201 -0.00940951
  -0.02194734]
 ...
 [-0.00768047  0.00159893 -0.01944908 ...  0.01518259 -0.00534465
   0.02323522]
 [-0.02232527 -0.00224181 -0.01138531 ...  0.0057894  -0.00185398
   0.03621534]
 [ 0.00093864  0.01060682 -0.01239383 ... -0.00423517 -0.01145602
   0.0033207 ]]

Layer 1:
[[-1.44524593e-02 -1.70652438e-02  7.81911705e-03  9.93869826e-03
  -4.16449048e-02  2.90278022e-05 -5.97412512e-03  7.99718965e-03
  -2.93521937e-02 -1.58589389e-02 -2.44718604e-02  2.91104987e-03
   5.05470252e-03  6.17376249e-03 -5.33031113e-03  2.49812216e-03
  -7.24329520e-03 -2.05566306e-02  1.79153290e-02  9.45465732e-03
  -1.08404632e-03  4.49665412e-02 -4.25401516e-02  2.45536002e-03
   3.48510519e-02  2.70543527e-02 -3.87907401e-03 -2.52125952e-02
  -2.52604727e-02  1.59682073e-02 -1.20206811e-02 -2.78953165e-02
   5.38978018e-02 -1.28255207e-02 -2.45535467e-02  2.39783153e-02
   6.23696810e-03 -5.33857895e-03 -1.15348045e-02 -2.27795504e-02
  -8.74779001e-03  2.09701117e-02 -3.06440275e-02 -2.42404547e-02
   1.86042802e-03 -2.27126846e-04  1.30980210e-02 -2.95380708e-02
   1.57636330e-02  6.88175065e-03 -3.64513509e-03  5.32594286e-02
  -2.18436066e-02 -2.79890802e-02 -2.47643646e-02  6.18381845e-03
  -6.96965400e-03 -3.90315545e-04  2.01387517e-02  2.55590752e-02
  -1.87629004e-04 -5.32521354e-03 -1.90262385e-02 -4.87806182e-03
  -2.63817143e-02 -9.66752227e-03 -3.88388857e-02  9.30011738e-03
  -4.83986922e-03  1.40630808e-02  1.60471611e-02 -9.43391584e-03
   1.67520512e-02 -1.44791100e-02 -2.40757111e-02 -4.51970671e-04
  -1.80877987e-02  1.00699710e-02 -7.19566969e-03 -4.30410579e-02
  -1.03258779e-02  1.36625683e-02 -2.16657366e-03 -1.82067137e-02
  -2.31372956e-02  2.51334328e-02 -2.16627847e-02  1.65982060e-02
   2.52717175e-02 -2.22753943e-03 -2.63466537e-02 -1.81890558e-02
   1.12374881e-02  1.10449968e-02 -1.66965518e-02  3.40720378e-02
   1.74322946e-03  2.58418638e-03  2.12542899e-02  8.52843106e-04]]

Layer 2:
[0. 0. 0. 0. 0. 0. 0. 0. 0. 0. 0. 0. 0. 0. 0. 0. 0. 0. 0. 0. 0. 0. 0. 0.
 0. 0. 0. 0. 0. 0. 0. 0. 0. 0. 0. 0. 0. 0. 0. 0. 0. 0. 0. 0. 0. 0. 0. 0.
 0. 0. 0. 0. 0. 0. 0. 0. 0. 0. 0. 0. 0. 0. 0. 0. 0. 0. 0. 0. 0. 0. 0. 0.
 0. 0. 0. 0. 0. 0. 0. 0. 0. 0. 0. 0. 0. 0. 0. 0. 0. 0. 0. 0. 0. 0. 0. 0.
 0. 0. 0. 0.]

Layer 3:
[[-0.9773909 ]
 [-0.9309936 ]
 [ 0.7026218 ]
 [ 0.7968077 ]
 [-1.0337927 ]
 [-0.07461983]
 [-0.6178566 ]
 [ 0.76220566]
 [-0.9683387 ]
 [-0.94878745]
 [-0.9604874 ]
 [ 0.23340583]
 [ 0.6784963 ]
 [ 0.6871573 ]
 [-0.5391554 ]
 [ 0.34580764]
 [-0.7021917 ]
 [-0.9258347 ]
 [ 0.8741463 ]
 [ 0.79860634]
 [-0.3119779 ]
 [ 0.9298738 ]
 [-1.0389608 ]
 [ 0.39107817]
 [ 1.0166222 ]
 [ 1.008336  ]
 [-0.45208424]
 [-0.9302827 ]
 [-1.0187373 ]
 [ 0.9457381 ]
 [-0.8779709 ]
 [-0.9502671 ]
 [ 0.9726233 ]
 [-0.91518414]
 [-0.8929031 ]
 [ 0.96719545]
 [ 0.59986675]
 [-0.5226727 ]
 [-0.73480004]
 [-0.93825036]
 [-0.78593594]
 [ 0.853114  ]
 [-0.9798059 ]
 [-1.0194312 ]
 [ 0.3138001 ]
 [ 0.01530798]
 [ 0.81203574]
 [-0.95046544]
 [ 0.8718335 ]
 [ 0.71598953]
 [-0.45611107]
 [ 0.9736933 ]
 [-1.0159084 ]
 [-0.9636843 ]
 [-0.91320795]
 [ 0.6541987 ]
 [-0.72190815]
 [-0.05228404]
 [ 0.90576965]
 [ 0.9654484 ]
 [-0.00895158]
 [-0.56532943]
 [-0.9801793 ]
 [-0.42543107]
 [-0.9656193 ]
 [-0.83375096]
 [-0.9855532 ]
 [ 0.6740039 ]
 [-0.5169131 ]
 [ 0.8963596 ]
 [ 0.93996173]
 [-0.81533176]
 [ 0.9087902 ]
 [-0.8825152 ]
 [-0.9451834 ]
 [ 0.15558547]
 [-0.99261856]
 [ 0.734597  ]
 [-0.6753906 ]
 [-0.96679693]
 [-0.8006258 ]
 [ 0.9421497 ]
 [-0.186226  ]
 [-0.9255668 ]
 [-1.084508  ]
 [ 0.9148477 ]
 [-0.94597405]
 [ 0.9274654 ]
 [ 0.97255474]
 [-0.28322712]
 [-0.98296565]
 [-1.0105639 ]
 [ 0.9083317 ]
 [ 0.81804293]
 [-0.97930104]
 [ 0.9266132 ]
 [ 0.31250763]
 [ 0.43427393]
 [ 1.0300756 ]
 [ 0.35738787]]

Layer 4:
[0.34728152]



Entrenamiento 5:
------------------------------------------------------------------------

Layer 0:
[[ 0.00698682  0.00678007 -0.02517795 ...  0.01505058  0.0043471
  -0.00546025]
 [-0.00315029 -0.00011694  0.02692681 ...  0.01387444  0.00759512
  -0.01546949]
 [ 0.01014906  0.01590049 -0.01678158 ... -0.00504201 -0.00940951
  -0.02194734]
 ...
 [-0.00768047  0.00159893 -0.01944908 ...  0.01518259 -0.00534465
   0.02323522]
 [-0.02232527 -0.00224181 -0.01138531 ...  0.0057894  -0.00185398
   0.03621534]
 [ 0.00093864  0.01060682 -0.01239383 ... -0.00423517 -0.01145602
   0.0033207 ]]

Layer 1:
[[-1.44524593e-02 -1.70652438e-02  7.81911705e-03  9.93869826e-03
  -4.16449048e-02  2.90278022e-05 -5.97412512e-03  7.99718965e-03
  -2.93521937e-02 -1.58589389e-02 -2.44718604e-02  2.91104987e-03
   5.05470252e-03  6.17376249e-03 -5.33031113e-03  2.49812216e-03
  -7.24329520e-03 -2.05566306e-02  1.79153290e-02  9.45465732e-03
  -1.08404632e-03  4.49665412e-02 -4.25401516e-02  2.45536002e-03
   3.48510519e-02  2.70543527e-02 -3.87907401e-03 -2.52125952e-02
  -2.52604727e-02  1.59682073e-02 -1.20206811e-02 -2.78953165e-02
   5.38978018e-02 -1.28255207e-02 -2.45535467e-02  2.39783153e-02
   6.23696810e-03 -5.33857895e-03 -1.15348045e-02 -2.27795504e-02
  -8.74779001e-03  2.09701117e-02 -3.06440275e-02 -2.42404547e-02
   1.86042802e-03 -2.27126846e-04  1.30980210e-02 -2.95380708e-02
   1.57636330e-02  6.88175065e-03 -3.64513509e-03  5.32594286e-02
  -2.18436066e-02 -2.79890802e-02 -2.47643646e-02  6.18381845e-03
  -6.96965400e-03 -3.90315545e-04  2.01387517e-02  2.55590752e-02
  -1.87629004e-04 -5.32521354e-03 -1.90262385e-02 -4.87806182e-03
  -2.63817143e-02 -9.66752227e-03 -3.88388857e-02  9.30011738e-03
  -4.83986922e-03  1.40630808e-02  1.60471611e-02 -9.43391584e-03
   1.67520512e-02 -1.44791100e-02 -2.40757111e-02 -4.51970671e-04
  -1.80877987e-02  1.00699710e-02 -7.19566969e-03 -4.30410579e-02
  -1.03258779e-02  1.36625683e-02 -2.16657366e-03 -1.82067137e-02
  -2.31372956e-02  2.51334328e-02 -2.16627847e-02  1.65982060e-02
   2.52717175e-02 -2.22753943e-03 -2.63466537e-02 -1.81890558e-02
   1.12374881e-02  1.10449968e-02 -1.66965518e-02  3.40720378e-02
   1.74322946e-03  2.58418638e-03  2.12542899e-02  8.52843106e-04]]

Layer 2:
[0. 0. 0. 0. 0. 0. 0. 0. 0. 0. 0. 0. 0. 0. 0. 0. 0. 0. 0. 0. 0. 0. 0. 0.
 0. 0. 0. 0. 0. 0. 0. 0. 0. 0. 0. 0. 0. 0. 0. 0. 0. 0. 0. 0. 0. 0. 0. 0.
 0. 0. 0. 0. 0. 0. 0. 0. 0. 0. 0. 0. 0. 0. 0. 0. 0. 0. 0. 0. 0. 0. 0. 0.
 0. 0. 0. 0. 0. 0. 0. 0. 0. 0. 0. 0. 0. 0. 0. 0. 0. 0. 0. 0. 0. 0. 0. 0.
 0. 0. 0. 0.]

Layer 3:
[[-1.0194466 ]
 [-0.9565202 ]
 [ 0.7689334 ]
 [ 0.84585977]
 [-0.9921824 ]
 [-0.07590665]
 [-0.65727913]
 [ 0.8020537 ]
 [-0.9660462 ]
 [-0.99914443]
 [-0.9886913 ]
 [ 0.2634131 ]
 [ 0.71109855]
 [ 0.7714225 ]
 [-0.5896713 ]
 [ 0.3670069 ]
 [-0.7635975 ]
 [-0.9438179 ]
 [ 0.920398  ]
 [ 0.8575155 ]
 [-0.32549664]
 [ 0.8666481 ]
 [-0.99479616]
 [ 0.4190222 ]
 [ 0.9866973 ]
 [ 1.0115926 ]
 [-0.4916043 ]
 [-0.94139415]
 [-1.0430486 ]
 [ 0.95537573]
 [-0.9175823 ]
 [-0.9589913 ]
 [ 0.895377  ]
 [-0.9623739 ]
 [-0.9029568 ]
 [ 0.97665346]
 [ 0.6682012 ]
 [-0.5822055 ]
 [-0.8154612 ]
 [-0.97082317]
 [-0.8366427 ]
 [ 0.8781721 ]
 [-0.9841304 ]
 [-1.0398695 ]
 [ 0.33820456]
 [ 0.01492831]
 [ 0.90105706]
 [-0.9438861 ]
 [ 0.9139191 ]
 [ 0.76651704]
 [-0.5160931 ]
 [ 0.9099521 ]
 [-1.0394655 ]
 [-0.9639634 ]
 [-0.9522714 ]
 [ 0.7028538 ]
 [-0.7714806 ]
 [-0.05584121]
 [ 0.93414336]
 [ 0.9698552 ]
 [-0.01201639]
 [-0.6096485 ]
 [-0.99919885]
 [-0.46021786]
 [-0.96772814]
 [-0.90534985]
 [-0.935058  ]
 [ 0.761544  ]
 [-0.565543  ]
 [ 0.9518611 ]
 [ 0.99241704]
 [-0.8794024 ]
 [ 0.961951  ]
 [-0.94151855]
 [-0.94826454]
 [ 0.14847872]
 [-1.0508053 ]
 [ 0.81913036]
 [-0.7384747 ]
 [-0.911241  ]
 [-0.8558154 ]
 [ 0.98596823]
 [-0.20965081]
 [-0.95656025]
 [-1.1263802 ]
 [ 0.9177595 ]
 [-1.0078496 ]
 [ 0.9440175 ]
 [ 0.9924965 ]
 [-0.30445454]
 [-0.9972069 ]
 [-1.0383744 ]
 [ 0.9595803 ]
 [ 0.91636497]
 [-1.0250776 ]
 [ 0.9026023 ]
 [ 0.33074433]
 [ 0.47015017]
 [ 1.0712292 ]
 [ 0.4353271 ]]

Layer 4:
[0.00153343]



Consenso 5:
------------------------------------------------------------------------

Layer 0:
[[ 0.00698682  0.00678007 -0.02517795 ...  0.01505058  0.0043471
  -0.00546025]
 [-0.00315029 -0.00011694  0.02692681 ...  0.01387444  0.00759512
  -0.01546949]
 [ 0.01014906  0.01590049 -0.01678158 ... -0.00504201 -0.00940951
  -0.02194734]
 ...
 [-0.00768047  0.00159893 -0.01944908 ...  0.01518259 -0.00534465
   0.02323522]
 [-0.02232527 -0.00224181 -0.01138531 ...  0.0057894  -0.00185398
   0.03621534]
 [ 0.00093864  0.01060682 -0.01239383 ... -0.00423517 -0.01145602
   0.0033207 ]]

Layer 1:
[[-1.44524593e-02 -1.70652438e-02  7.81911705e-03  9.93869826e-03
  -4.16449048e-02  2.90277821e-05 -5.97412512e-03  7.99718965e-03
  -2.93521937e-02 -1.58589389e-02 -2.44718604e-02  2.91104987e-03
   5.05470252e-03  6.17376249e-03 -5.33031113e-03  2.49812216e-03
  -7.24329520e-03 -2.05566306e-02  1.79153290e-02  9.45465732e-03
  -1.08404632e-03  4.49665412e-02 -4.25401516e-02  2.45536002e-03
   3.48510519e-02  2.70543527e-02 -3.87907401e-03 -2.52125952e-02
  -2.52604727e-02  1.59682073e-02 -1.20206811e-02 -2.78953165e-02
   5.38978018e-02 -1.28255207e-02 -2.45535467e-02  2.39783153e-02
   6.23696810e-03 -5.33857895e-03 -1.15348045e-02 -2.27795504e-02
  -8.74779001e-03  2.09701117e-02 -3.06440275e-02 -2.42404547e-02
   1.86042802e-03 -2.27128825e-04  1.30980210e-02 -2.95380708e-02
   1.57636330e-02  6.88175065e-03 -3.64513509e-03  5.32594286e-02
  -2.18436066e-02 -2.79890802e-02 -2.47643646e-02  6.18381845e-03
  -6.96965400e-03 -3.90314875e-04  2.01387517e-02  2.55590752e-02
  -1.87629717e-04 -5.32521354e-03 -1.90262385e-02 -4.87806182e-03
  -2.63817143e-02 -9.66752227e-03 -3.88388857e-02  9.30011738e-03
  -4.83986922e-03  1.40630808e-02  1.60471611e-02 -9.43391584e-03
   1.67520512e-02 -1.44791100e-02 -2.40757111e-02 -4.51970671e-04
  -1.80877987e-02  1.00699710e-02 -7.19566969e-03 -4.30410579e-02
  -1.03258779e-02  1.36625683e-02 -2.16657366e-03 -1.82067137e-02
  -2.31372956e-02  2.51334328e-02 -2.16627847e-02  1.65982060e-02
   2.52717175e-02 -2.22753943e-03 -2.63466537e-02 -1.81890558e-02
   1.12374881e-02  1.10449968e-02 -1.66965518e-02  3.40720378e-02
   1.74322946e-03  2.58418638e-03  2.12542899e-02  8.52843106e-04]]

Layer 2:
[0. 0. 0. 0. 0. 0. 0. 0. 0. 0. 0. 0. 0. 0. 0. 0. 0. 0. 0. 0. 0. 0. 0. 0.
 0. 0. 0. 0. 0. 0. 0. 0. 0. 0. 0. 0. 0. 0. 0. 0. 0. 0. 0. 0. 0. 0. 0. 0.
 0. 0. 0. 0. 0. 0. 0. 0. 0. 0. 0. 0. 0. 0. 0. 0. 0. 0. 0. 0. 0. 0. 0. 0.
 0. 0. 0. 0. 0. 0. 0. 0. 0. 0. 0. 0. 0. 0. 0. 0. 0. 0. 0. 0. 0. 0. 0. 0.
 0. 0. 0. 0.]

Layer 3:
[[-1.0138696 ]
 [-0.95556414]
 [ 0.785138  ]
 [ 0.85546976]
 [-0.98948056]
 [-0.08081032]
 [-0.6778156 ]
 [ 0.82252467]
 [-0.9581605 ]
 [-0.99593747]
 [-0.9753458 ]
 [ 0.29828075]
 [ 0.7241742 ]
 [ 0.76044106]
 [-0.6109346 ]
 [ 0.38820386]
 [-0.78261554]
 [-0.9358753 ]
 [ 0.91510844]
 [ 0.88085014]
 [-0.33863664]
 [ 0.86988777]
 [-0.99603856]
 [ 0.43231386]
 [ 0.98508537]
 [ 1.0024829 ]
 [-0.52977145]
 [-0.9325406 ]
 [-1.030549  ]
 [ 0.95370805]
 [-0.91030145]
 [-0.94877803]
 [ 0.90549016]
 [-0.96606094]
 [-0.8941837 ]
 [ 0.97031665]
 [ 0.70050013]
 [-0.6155543 ]
 [-0.8288213 ]
 [-0.9621574 ]
 [-0.836764  ]
 [ 0.87036556]
 [-0.9769408 ]
 [-1.02871   ]
 [ 0.36164248]
 [ 0.01600103]
 [ 0.9077757 ]
 [-0.93825835]
 [ 0.9070742 ]
 [ 0.7875204 ]
 [-0.51998734]
 [ 0.9154228 ]
 [-1.0286367 ]
 [-0.9559803 ]
 [-0.9358405 ]
 [ 0.72347003]
 [-0.78551763]
 [-0.06193389]
 [ 0.9271425 ]
 [ 0.9616559 ]
 [-0.01391745]
 [-0.6418055 ]
 [-0.9913653 ]
 [-0.48053825]
 [-0.9587184 ]
 [-0.91410744]
 [-0.93847835]
 [ 0.78292376]
 [-0.5987092 ]
 [ 0.95364577]
 [ 0.9904972 ]
 [-0.8903072 ]
 [ 0.9561187 ]
 [-0.9362865 ]
 [-0.94099665]
 [ 0.15049477]
 [-1.0427965 ]
 [ 0.8383409 ]
 [-0.7569406 ]
 [-0.91302985]
 [-0.86551535]
 [ 0.9861775 ]
 [-0.23597063]
 [-0.9499648 ]
 [-1.110594  ]
 [ 0.91104794]
 [-0.9989496 ]
 [ 0.94176924]
 [ 0.98489666]
 [-0.3256543 ]
 [-0.98423946]
 [-1.0293325 ]
 [ 0.96673167]
 [ 0.9084501 ]
 [-1.0196795 ]
 [ 0.89857095]
 [ 0.35217184]
 [ 0.48266637]
 [ 1.0600642 ]
 [ 0.39941075]]

Layer 4:
[0.16408683]



Entrenamiento 6:
------------------------------------------------------------------------

Layer 0:
[[ 0.00698682  0.00678007 -0.02517795 ...  0.01505058  0.0043471
  -0.00546025]
 [-0.00315029 -0.00011694  0.02692681 ...  0.01387444  0.00759512
  -0.01546949]
 [ 0.01014906  0.01590049 -0.01678158 ... -0.00504201 -0.00940951
  -0.02194734]
 ...
 [-0.00768047  0.00159893 -0.01944908 ...  0.01518259 -0.00534465
   0.02323522]
 [-0.02232527 -0.00224181 -0.01138531 ...  0.0057894  -0.00185398
   0.03621534]
 [ 0.00093864  0.01060682 -0.01239383 ... -0.00423517 -0.01145602
   0.0033207 ]]

Layer 1:
[[-1.44524593e-02 -1.70652438e-02  7.81911705e-03  9.93869826e-03
  -4.16449048e-02  2.90277821e-05 -5.97412512e-03  7.99718965e-03
  -2.93521937e-02 -1.58589389e-02 -2.44718604e-02  2.91104987e-03
   5.05470252e-03  6.17376249e-03 -5.33031113e-03  2.49812216e-03
  -7.24329520e-03 -2.05566306e-02  1.79153290e-02  9.45465732e-03
  -1.08404632e-03  4.49665412e-02 -4.25401516e-02  2.45536002e-03
   3.48510519e-02  2.70543527e-02 -3.87907401e-03 -2.52125952e-02
  -2.52604727e-02  1.59682073e-02 -1.20206811e-02 -2.78953165e-02
   5.38978018e-02 -1.28255207e-02 -2.45535467e-02  2.39783153e-02
   6.23696810e-03 -5.33857895e-03 -1.15348045e-02 -2.27795504e-02
  -8.74779001e-03  2.09701117e-02 -3.06440275e-02 -2.42404547e-02
   1.86042802e-03 -2.27128825e-04  1.30980210e-02 -2.95380708e-02
   1.57636330e-02  6.88175065e-03 -3.64513509e-03  5.32594286e-02
  -2.18436066e-02 -2.79890802e-02 -2.47643646e-02  6.18381845e-03
  -6.96965400e-03 -3.90314875e-04  2.01387517e-02  2.55590752e-02
  -1.87629717e-04 -5.32521354e-03 -1.90262385e-02 -4.87806182e-03
  -2.63817143e-02 -9.66752227e-03 -3.88388857e-02  9.30011738e-03
  -4.83986922e-03  1.40630808e-02  1.60471611e-02 -9.43391584e-03
   1.67520512e-02 -1.44791100e-02 -2.40757111e-02 -4.51970671e-04
  -1.80877987e-02  1.00699710e-02 -7.19566969e-03 -4.30410579e-02
  -1.03258779e-02  1.36625683e-02 -2.16657366e-03 -1.82067137e-02
  -2.31372956e-02  2.51334328e-02 -2.16627847e-02  1.65982060e-02
   2.52717175e-02 -2.22753943e-03 -2.63466537e-02 -1.81890558e-02
   1.12374881e-02  1.10449968e-02 -1.66965518e-02  3.40720378e-02
   1.74322946e-03  2.58418638e-03  2.12542899e-02  8.52843106e-04]]

Layer 2:
[0. 0. 0. 0. 0. 0. 0. 0. 0. 0. 0. 0. 0. 0. 0. 0. 0. 0. 0. 0. 0. 0. 0. 0.
 0. 0. 0. 0. 0. 0. 0. 0. 0. 0. 0. 0. 0. 0. 0. 0. 0. 0. 0. 0. 0. 0. 0. 0.
 0. 0. 0. 0. 0. 0. 0. 0. 0. 0. 0. 0. 0. 0. 0. 0. 0. 0. 0. 0. 0. 0. 0. 0.
 0. 0. 0. 0. 0. 0. 0. 0. 0. 0. 0. 0. 0. 0. 0. 0. 0. 0. 0. 0. 0. 0. 0. 0.
 0. 0. 0. 0.]

Layer 3:
[[-1.0527589 ]
 [-0.9759073 ]
 [ 0.85290927]
 [ 0.90360254]
 [-0.9361243 ]
 [-0.08035015]
 [-0.71636695]
 [ 0.8604911 ]
 [-0.94767183]
 [-1.0448822 ]
 [-0.9986607 ]
 [ 0.3311065 ]
 [ 0.75468117]
 [ 0.843972  ]
 [-0.66379267]
 [ 0.4092572 ]
 [-0.84627736]
 [-0.94775724]
 [ 0.95859337]
 [ 0.9410163 ]
 [-0.35130176]
 [ 0.79313225]
 [-0.9393564 ]
 [ 0.46025518]
 [ 0.94431925]
 [ 0.9980752 ]
 [-0.57165676]
 [-0.9369603 ]
 [-1.0496241 ]
 [ 0.95647323]
 [-0.94652444]
 [-0.9505357 ]
 [ 0.81383926]
 [-1.0110319 ]
 [-0.8967789 ]
 [ 0.97280633]
 [ 0.77374846]
 [-0.67925996]
 [-0.9123932 ]
 [-0.99023587]
 [-0.88631964]
 [ 0.89031166]
 [-0.9737313 ]
 [-1.0434247 ]
 [ 0.38657486]
 [ 0.01365307]
 [ 1.0004541 ]
 [-0.9232076 ]
 [ 0.9460649 ]
 [ 0.8382028 ]
 [-0.582645  ]
 [ 0.8382732 ]
 [-1.0467421 ]
 [-0.94713676]
 [-0.97048163]
 [ 0.77340865]
 [-0.83493996]
 [-0.0657209 ]
 [ 0.9507348 ]
 [ 0.9586602 ]
 [-0.01784188]
 [-0.6880844 ]
 [-1.0044347 ]
 [-0.5159212 ]
 [-0.95291746]
 [-0.98800445]
 [-0.8754308 ]
 [ 0.87562567]
 [-0.65074223]
 [ 1.0076493 ]
 [ 1.0410703 ]
 [-0.9549179 ]
 [ 1.0075592 ]
 [-0.99425423]
 [-0.9363897 ]
 [ 0.14073282]
 [-1.0995369 ]
 [ 0.92751515]
 [-0.8230771 ]
 [-0.84456205]
 [-0.92090243]
 [ 1.027404  ]
 [-0.2622785 ]
 [-0.97643745]
 [-1.1491321 ]
 [ 0.90621006]
 [-1.0599071 ]
 [ 0.95221   ]
 [ 0.99909854]
 [-0.347153  ]
 [-0.9903834 ]
 [-1.0523132 ]
 [ 1.0167228 ]
 [ 1.0093064 ]
 [-1.0629615 ]
 [ 0.86437607]
 [ 0.37053496]
 [ 0.5189141 ]
 [ 1.0980207 ]
 [ 0.47432923]]

Layer 4:
[-0.00031465]



Consenso 6:
------------------------------------------------------------------------

Layer 0:
[[ 0.00698682  0.00678007 -0.02517795 ...  0.01505058  0.0043471
  -0.00546025]
 [-0.00315029 -0.00011694  0.02692681 ...  0.01387444  0.00759512
  -0.01546949]
 [ 0.01014906  0.01590049 -0.01678158 ... -0.00504201 -0.00940951
  -0.02194734]
 ...
 [-0.00768047  0.00159893 -0.01944908 ...  0.01518259 -0.00534465
   0.02323522]
 [-0.02232527 -0.00224181 -0.01138531 ...  0.0057894  -0.00185398
   0.03621534]
 [ 0.00093864  0.01060682 -0.01239383 ... -0.00423517 -0.01145602
   0.0033207 ]]

Layer 1:
[[-1.44524593e-02 -1.70652438e-02  7.81911705e-03  9.93869826e-03
  -4.16449048e-02  2.90277821e-05 -5.97412512e-03  7.99718965e-03
  -2.93521937e-02 -1.58589389e-02 -2.44718604e-02  2.91104987e-03
   5.05470252e-03  6.17376249e-03 -5.33031113e-03  2.49812216e-03
  -7.24329520e-03 -2.05566306e-02  1.79153290e-02  9.45465732e-03
  -1.08404632e-03  4.49665412e-02 -4.25401516e-02  2.45536002e-03
   3.48510519e-02  2.70543527e-02 -3.87907401e-03 -2.52125952e-02
  -2.52604727e-02  1.59682073e-02 -1.20206811e-02 -2.78953165e-02
   5.38978018e-02 -1.28255207e-02 -2.45535467e-02  2.39783153e-02
   6.23696810e-03 -5.33857895e-03 -1.15348045e-02 -2.27795504e-02
  -8.74779001e-03  2.09701117e-02 -3.06440275e-02 -2.42404547e-02
   1.86042802e-03 -2.27128825e-04  1.30980210e-02 -2.95380708e-02
   1.57636330e-02  6.88175065e-03 -3.64513509e-03  5.32594286e-02
  -2.18436066e-02 -2.79890802e-02 -2.47643646e-02  6.18381845e-03
  -6.96965400e-03 -3.90314875e-04  2.01387517e-02  2.55590752e-02
  -1.87629717e-04 -5.32521354e-03 -1.90262385e-02 -4.87806182e-03
  -2.63817143e-02 -9.66752227e-03 -3.88388857e-02  9.30011738e-03
  -4.83986922e-03  1.40630808e-02  1.60471611e-02 -9.43391584e-03
   1.67520512e-02 -1.44791100e-02 -2.40757111e-02 -4.51970671e-04
  -1.80877987e-02  1.00699710e-02 -7.19566969e-03 -4.30410579e-02
  -1.03258779e-02  1.36625683e-02 -2.16657366e-03 -1.82067137e-02
  -2.31372956e-02  2.51334328e-02 -2.16627847e-02  1.65982060e-02
   2.52717175e-02 -2.22753943e-03 -2.63466537e-02 -1.81890558e-02
   1.12374881e-02  1.10449968e-02 -1.66965518e-02  3.40720378e-02
   1.74322946e-03  2.58418638e-03  2.12542899e-02  8.52843106e-04]]

Layer 2:
[0. 0. 0. 0. 0. 0. 0. 0. 0. 0. 0. 0. 0. 0. 0. 0. 0. 0. 0. 0. 0. 0. 0. 0.
 0. 0. 0. 0. 0. 0. 0. 0. 0. 0. 0. 0. 0. 0. 0. 0. 0. 0. 0. 0. 0. 0. 0. 0.
 0. 0. 0. 0. 0. 0. 0. 0. 0. 0. 0. 0. 0. 0. 0. 0. 0. 0. 0. 0. 0. 0. 0. 0.
 0. 0. 0. 0. 0. 0. 0. 0. 0. 0. 0. 0. 0. 0. 0. 0. 0. 0. 0. 0. 0. 0. 0. 0.
 0. 0. 0. 0.]

Layer 3:
[[-1.044124  ]
 [-0.97219795]
 [ 0.86494726]
 [ 0.9091909 ]
 [-0.934713  ]
 [-0.08589333]
 [-0.73498905]
 [ 0.8779646 ]
 [-0.93829644]
 [-1.0368503 ]
 [-0.9825553 ]
 [ 0.36626574]
 [ 0.7663925 ]
 [ 0.83151615]
 [-0.68287283]
 [ 0.43062627]
 [-0.8616454 ]
 [-0.9376034 ]
 [ 0.9490276 ]
 [ 0.9598657 ]
 [-0.3645308 ]
 [ 0.7988142 ]
 [-0.9425614 ]
 [ 0.47267035]
 [ 0.9429473 ]
 [ 0.98737264]
 [-0.60891575]
 [-0.92603993]
 [-1.034116  ]
 [ 0.9533888 ]
 [-0.9365281 ]
 [-0.93819106]
 [ 0.8263902 ]
 [-1.011163  ]
 [-0.8866378 ]
 [ 0.96446556]
 [ 0.80319375]
 [-0.7102475 ]
 [-0.9197479 ]
 [-0.97797626]
 [-0.8836232 ]
 [ 0.8795687 ]
 [-0.9644091 ]
 [-1.0299252 ]
 [ 0.40999624]
 [ 0.01494379]
 [ 1.000463  ]
 [-0.9163852 ]
 [ 0.9356712 ]
 [ 0.8557972 ]
 [-0.585196  ]
 [ 0.84554183]
 [-1.0335412 ]
 [-0.9387335 ]
 [-0.9506197 ]
 [ 0.7917817 ]
 [-0.84574527]
 [-0.07211705]
 [ 0.9406884 ]
 [ 0.94876176]
 [-0.02011445]
 [-0.7179323 ]
 [-0.9948276 ]
 [-0.5345847 ]
 [-0.9428521 ]
 [-0.9913027 ]
 [-0.880276  ]
 [ 0.8912805 ]
 [-0.6822093 ]
 [ 1.0048304 ]
 [ 1.0344108 ]
 [-0.9616155 ]
 [ 0.99720454]
 [-0.984863  ]
 [-0.9277888 ]
 [ 0.14270979]
 [-1.0864847 ]
 [ 0.9410219 ]
 [-0.8375365 ]
 [-0.8484852 ]
 [-0.92605513]
 [ 1.0239387 ]
 [-0.2895891 ]
 [-0.966889  ]
 [-1.1291996 ]
 [ 0.8980141 ]
 [-1.0453157 ]
 [ 0.94810593]
 [ 0.98862684]
 [-0.36837438]
 [-0.9765026 ]
 [-1.0410547 ]
 [ 1.0195297 ]
 [ 0.9960105 ]
 [-1.053508  ]
 [ 0.8602561 ]
 [ 0.3919562 ]
 [ 0.5306303 ]
 [ 1.0826895 ]
 [ 0.44101495]]

Layer 4:
[0.0602693]



Entrenamiento 7:
------------------------------------------------------------------------

Layer 0:
[[ 0.00698682  0.00678007 -0.02517795 ...  0.01505058  0.0043471
  -0.00546025]
 [-0.00315029 -0.00011694  0.02692681 ...  0.01387444  0.00759512
  -0.01546949]
 [ 0.01014906  0.01590049 -0.01678158 ... -0.00504201 -0.00940951
  -0.02194734]
 ...
 [-0.00768047  0.00159893 -0.01944908 ...  0.01518259 -0.00534465
   0.02323522]
 [-0.02232527 -0.00224181 -0.01138531 ...  0.0057894  -0.00185398
   0.03621534]
 [ 0.00093864  0.01060682 -0.01239383 ... -0.00423517 -0.01145602
   0.0033207 ]]

Layer 1:
[[-1.44524593e-02 -1.70652438e-02  7.81911705e-03  9.93869826e-03
  -4.16449048e-02  2.90277821e-05 -5.97412512e-03  7.99718965e-03
  -2.93521937e-02 -1.58589389e-02 -2.44718604e-02  2.91104987e-03
   5.05470252e-03  6.17376249e-03 -5.33031113e-03  2.49812216e-03
  -7.24329520e-03 -2.05566306e-02  1.79153290e-02  9.45465732e-03
  -1.08404632e-03  4.49665412e-02 -4.25401516e-02  2.45536002e-03
   3.48510519e-02  2.70543527e-02 -3.87907401e-03 -2.52125952e-02
  -2.52604727e-02  1.59682073e-02 -1.20206811e-02 -2.78953165e-02
   5.38978018e-02 -1.28255207e-02 -2.45535467e-02  2.39783153e-02
   6.23696810e-03 -5.33857895e-03 -1.15348045e-02 -2.27795504e-02
  -8.74779001e-03  2.09701117e-02 -3.06440275e-02 -2.42404547e-02
   1.86042802e-03 -2.27128825e-04  1.30980210e-02 -2.95380708e-02
   1.57636330e-02  6.88175065e-03 -3.64513509e-03  5.32594286e-02
  -2.18436066e-02 -2.79890802e-02 -2.47643646e-02  6.18381845e-03
  -6.96965400e-03 -3.90314875e-04  2.01387517e-02  2.55590752e-02
  -1.87629717e-04 -5.32521354e-03 -1.90262385e-02 -4.87806182e-03
  -2.63817143e-02 -9.66752227e-03 -3.88388857e-02  9.30011738e-03
  -4.83986922e-03  1.40630808e-02  1.60471611e-02 -9.43391584e-03
   1.67520512e-02 -1.44791100e-02 -2.40757111e-02 -4.51970671e-04
  -1.80877987e-02  1.00699710e-02 -7.19566969e-03 -4.30410579e-02
  -1.03258779e-02  1.36625683e-02 -2.16657366e-03 -1.82067137e-02
  -2.31372956e-02  2.51334328e-02 -2.16627847e-02  1.65982060e-02
   2.52717175e-02 -2.22753943e-03 -2.63466537e-02 -1.81890558e-02
   1.12374881e-02  1.10449968e-02 -1.66965518e-02  3.40720378e-02
   1.74322946e-03  2.58418638e-03  2.12542899e-02  8.52843106e-04]]

Layer 2:
[0. 0. 0. 0. 0. 0. 0. 0. 0. 0. 0. 0. 0. 0. 0. 0. 0. 0. 0. 0. 0. 0. 0. 0.
 0. 0. 0. 0. 0. 0. 0. 0. 0. 0. 0. 0. 0. 0. 0. 0. 0. 0. 0. 0. 0. 0. 0. 0.
 0. 0. 0. 0. 0. 0. 0. 0. 0. 0. 0. 0. 0. 0. 0. 0. 0. 0. 0. 0. 0. 0. 0. 0.
 0. 0. 0. 0. 0. 0. 0. 0. 0. 0. 0. 0. 0. 0. 0. 0. 0. 0. 0. 0. 0. 0. 0. 0.
 0. 0. 0. 0.]

Layer 3:
[[-1.0793718 ]
 [-0.9880627 ]
 [ 0.9321855 ]
 [ 0.95530546]
 [-0.8757298 ]
 [-0.08427092]
 [-0.77232134]
 [ 0.91380405]
 [-0.92247295]
 [-1.0830948 ]
 [-1.001437  ]
 [ 0.40062025]
 [ 0.7949218 ]
 [ 0.912284  ]
 [-0.73650354]
 [ 0.45148414]
 [-0.92557204]
 [-0.9445999 ]
 [ 0.98892796]
 [ 1.0197784 ]
 [-0.37648168]
 [ 0.7163987 ]
 [-0.88019377]
 [ 0.50013125]
 [ 0.8965051 ]
 [ 0.97771317]
 [-0.6520227 ]
 [-0.92548573]
 [-1.048552  ]
 [ 0.95115906]
 [-0.96898603]
 [-0.9348808 ]
 [ 0.72930825]
 [-1.0531287 ]
 [-0.8838151 ]
 [ 0.9618432 ]
 [ 0.87881005]
 [-0.7759781 ]
 [-1.003096  ]
 [-1.001688  ]
 [-0.930922  ]
 [ 0.8949923 ]
 [-0.95601076]
 [-1.0399579 ]
 [ 0.43503687]
 [ 0.01113364]
 [ 1.0930196 ]
 [-0.89602476]
 [ 0.9710434 ]
 [ 0.9055422 ]
 [-0.64912003]
 [ 0.7629567 ]
 [-1.0470538 ]
 [-0.9239717 ]
 [-0.98064005]
 [ 0.8419297 ]
 [-0.89397645]
 [-0.07601878]
 [ 0.959867  ]
 [ 0.9406228 ]
 [-0.02465283]
 [-0.7649269 ]
 [-1.0031012 ]
 [-0.56990814]
 [-0.9316993 ]
 [-1.0648019 ]
 [-0.8114879 ]
 [ 0.98556423]
 [-0.7361017 ]
 [ 1.0558907 ]
 [ 1.0817837 ]
 [-1.0248966 ]
 [ 1.0456097 ]
 [-1.040015  ]
 [-0.91788656]
 [ 0.1310689 ]
 [-1.1399639 ]
 [ 1.0315672 ]
 [-0.90456355]
 [-0.7743609 ]
 [-0.9799426 ]
 [ 1.0619228 ]
 [-0.31777477]
 [-0.98908156]
 [-1.163755  ]
 [ 0.887855  ]
 [-1.1032758 ]
 [ 0.95381665]
 [ 0.99816424]
 [-0.38987908]
 [-0.97681254]
 [-1.0597484 ]
 [ 1.0670558 ]
 [ 1.095618  ]
 [-1.0933403 ]
 [ 0.8205098 ]
 [ 0.41016263]
 [ 0.5666353 ]
 [ 1.1168545 ]
 [ 0.5113593 ]]

Layer 4:
[3.694759e-05]



Consenso 7:
------------------------------------------------------------------------

Layer 0:
[[ 0.00698682  0.00678007 -0.02517795 ...  0.01505058  0.0043471
  -0.00546025]
 [-0.00315029 -0.00011694  0.02692681 ...  0.01387444  0.00759512
  -0.01546949]
 [ 0.01014906  0.01590049 -0.01678158 ... -0.00504201 -0.00940951
  -0.02194734]
 ...
 [-0.00768047  0.00159893 -0.01944908 ...  0.01518259 -0.00534465
   0.02323522]
 [-0.02232527 -0.00224181 -0.01138531 ...  0.0057894  -0.00185398
   0.03621534]
 [ 0.00093864  0.01060682 -0.01239383 ... -0.00423517 -0.01145602
   0.0033207 ]]

Layer 1:
[[-1.44524593e-02 -1.70652438e-02  7.81911705e-03  9.93869826e-03
  -4.16449048e-02  2.90277821e-05 -5.97412512e-03  7.99718965e-03
  -2.93521937e-02 -1.58589389e-02 -2.44718604e-02  2.91104987e-03
   5.05470252e-03  6.17376249e-03 -5.33031113e-03  2.49812216e-03
  -7.24329520e-03 -2.05566306e-02  1.79153290e-02  9.45465732e-03
  -1.08404632e-03  4.49665412e-02 -4.25401516e-02  2.45536002e-03
   3.48510519e-02  2.70543527e-02 -3.87907401e-03 -2.52125952e-02
  -2.52604727e-02  1.59682073e-02 -1.20206811e-02 -2.78953165e-02
   5.38978018e-02 -1.28255207e-02 -2.45535467e-02  2.39783153e-02
   6.23696810e-03 -5.33857895e-03 -1.15348045e-02 -2.27795504e-02
  -8.74779001e-03  2.09701117e-02 -3.06440275e-02 -2.42404547e-02
   1.86042802e-03 -2.27128825e-04  1.30980210e-02 -2.95380708e-02
   1.57636330e-02  6.88175065e-03 -3.64513509e-03  5.32594286e-02
  -2.18436066e-02 -2.79890802e-02 -2.47643646e-02  6.18381845e-03
  -6.96965400e-03 -3.90314875e-04  2.01387517e-02  2.55590752e-02
  -1.87629717e-04 -5.32521354e-03 -1.90262385e-02 -4.87806182e-03
  -2.63817143e-02 -9.66752227e-03 -3.88388857e-02  9.30011738e-03
  -4.83986922e-03  1.40630808e-02  1.60471611e-02 -9.43391584e-03
   1.67520512e-02 -1.44791100e-02 -2.40757111e-02 -4.51970671e-04
  -1.80877987e-02  1.00699710e-02 -7.19566969e-03 -4.30410579e-02
  -1.03258779e-02  1.36625683e-02 -2.16657366e-03 -1.82067137e-02
  -2.31372956e-02  2.51334328e-02 -2.16627847e-02  1.65982060e-02
   2.52717175e-02 -2.22753943e-03 -2.63466537e-02 -1.81890558e-02
   1.12374881e-02  1.10449968e-02 -1.66965518e-02  3.40720378e-02
   1.74322946e-03  2.58418638e-03  2.12542899e-02  8.52843106e-04]]

Layer 2:
[0. 0. 0. 0. 0. 0. 0. 0. 0. 0. 0. 0. 0. 0. 0. 0. 0. 0. 0. 0. 0. 0. 0. 0.
 0. 0. 0. 0. 0. 0. 0. 0. 0. 0. 0. 0. 0. 0. 0. 0. 0. 0. 0. 0. 0. 0. 0. 0.
 0. 0. 0. 0. 0. 0. 0. 0. 0. 0. 0. 0. 0. 0. 0. 0. 0. 0. 0. 0. 0. 0. 0. 0.
 0. 0. 0. 0. 0. 0. 0. 0. 0. 0. 0. 0. 0. 0. 0. 0. 0. 0. 0. 0. 0. 0. 0. 0.
 0. 0. 0. 0.]

Layer 3:
[[-1.0716618 ]
 [-0.9849166 ]
 [ 0.9440597 ]
 [ 0.96085125]
 [-0.87437904]
 [-0.09024195]
 [-0.7911193 ]
 [ 0.93109703]
 [-0.91346985]
 [-1.0750985 ]
 [-0.98635167]
 [ 0.43747374]
 [ 0.8073841 ]
 [ 0.90190125]
 [-0.75584316]
 [ 0.47381824]
 [-0.9408433 ]
 [-0.9352069 ]
 [ 0.97990507]
 [ 1.0379564 ]
 [-0.39043012]
 [ 0.72169644]
 [-0.8835049 ]
 [ 0.5130744 ]
 [ 0.89511466]
 [ 0.9677205 ]
 [-0.69034106]
 [-0.91530186]
 [-1.0337089 ]
 [ 0.948908  ]
 [-0.96022254]
 [-0.92308605]
 [ 0.7406518 ]
 [-1.0537467 ]
 [-0.87459093]
 [ 0.9540298 ]
 [ 0.9086773 ]
 [-0.8074712 ]
 [-1.009747  ]
 [-0.9899996 ]
 [-0.9291432 ]
 [ 0.884939  ]
 [-0.946851  ]
 [-1.0273678 ]
 [ 0.45942834]
 [ 0.01261959]
 [ 1.0925045 ]
 [-0.8896018 ]
 [ 0.96143985]
 [ 0.92288536]
 [-0.65238374]
 [ 0.76927525]
 [-1.0347167 ]
 [-0.91658956]
 [-0.9619044 ]
 [ 0.86065334]
 [-0.90470445]
 [-0.08292676]
 [ 0.950575  ]
 [ 0.9312904 ]
 [-0.0272922 ]
 [-0.79519385]
 [-0.9946078 ]
 [-0.58890176]
 [-0.9224884 ]
 [-1.0681678 ]
 [-0.8160753 ]
 [ 1.000559  ]
 [-0.7683059 ]
 [ 1.0532658 ]
 [ 1.0753288 ]
 [-1.0314738 ]
 [ 1.0357143 ]
 [-1.0311981 ]
 [-0.91022575]
 [ 0.1328185 ]
 [-1.1273838 ]
 [ 1.0442293 ]
 [-0.91857094]
 [-0.7781335 ]
 [-0.98500997]
 [ 1.0589168 ]
 [-0.3470281 ]
 [-0.9803756 ]
 [-1.1446474 ]
 [ 0.88025796]
 [-1.0888146 ]
 [ 0.9505804 ]
 [ 0.9880585 ]
 [-0.41204888]
 [-0.9644503 ]
 [-1.0496409 ]
 [ 1.0698823 ]
 [ 1.0829208 ]
 [-1.0844331 ]
 [ 0.8164956 ]
 [ 0.43247736]
 [ 0.5790545 ]
 [ 1.1020799 ]
 [ 0.48296973]]

Layer 4:
[-0.00153853]



Entrenamiento 8:
------------------------------------------------------------------------

Layer 0:
[[ 0.00698682  0.00678007 -0.02517795 ...  0.01505058  0.0043471
  -0.00546025]
 [-0.00315029 -0.00011694  0.02692681 ...  0.01387444  0.00759512
  -0.01546949]
 [ 0.01014906  0.01590049 -0.01678158 ... -0.00504201 -0.00940951
  -0.02194734]
 ...
 [-0.00768047  0.00159893 -0.01944908 ...  0.01518259 -0.00534465
   0.02323522]
 [-0.02232527 -0.00224181 -0.01138531 ...  0.0057894  -0.00185398
   0.03621534]
 [ 0.00093864  0.01060682 -0.01239383 ... -0.00423517 -0.01145602
   0.0033207 ]]

Layer 1:
[[-1.44524593e-02 -1.70652438e-02  7.81911705e-03  9.93869826e-03
  -4.16449048e-02  2.90277821e-05 -5.97412512e-03  7.99718965e-03
  -2.93521937e-02 -1.58589389e-02 -2.44718604e-02  2.91104987e-03
   5.05470252e-03  6.17376249e-03 -5.33031113e-03  2.49812216e-03
  -7.24329520e-03 -2.05566306e-02  1.79153290e-02  9.45465732e-03
  -1.08404632e-03  4.49665412e-02 -4.25401516e-02  2.45536002e-03
   3.48510519e-02  2.70543527e-02 -3.87907401e-03 -2.52125952e-02
  -2.52604727e-02  1.59682073e-02 -1.20206811e-02 -2.78953165e-02
   5.38978018e-02 -1.28255207e-02 -2.45535467e-02  2.39783153e-02
   6.23696810e-03 -5.33857895e-03 -1.15348045e-02 -2.27795504e-02
  -8.74779001e-03  2.09701117e-02 -3.06440275e-02 -2.42404547e-02
   1.86042802e-03 -2.27128825e-04  1.30980210e-02 -2.95380708e-02
   1.57636330e-02  6.88175065e-03 -3.64513509e-03  5.32594286e-02
  -2.18436066e-02 -2.79890802e-02 -2.47643646e-02  6.18381845e-03
  -6.96965400e-03 -3.90314875e-04  2.01387517e-02  2.55590752e-02
  -1.87629717e-04 -5.32521354e-03 -1.90262385e-02 -4.87806182e-03
  -2.63817143e-02 -9.66752227e-03 -3.88388857e-02  9.30011738e-03
  -4.83986922e-03  1.40630808e-02  1.60471611e-02 -9.43391584e-03
   1.67520512e-02 -1.44791100e-02 -2.40757111e-02 -4.51970671e-04
  -1.80877987e-02  1.00699710e-02 -7.19566969e-03 -4.30410579e-02
  -1.03258779e-02  1.36625683e-02 -2.16657366e-03 -1.82067137e-02
  -2.31372956e-02  2.51334328e-02 -2.16627847e-02  1.65982060e-02
   2.52717175e-02 -2.22753943e-03 -2.63466537e-02 -1.81890558e-02
   1.12374881e-02  1.10449968e-02 -1.66965518e-02  3.40720378e-02
   1.74322946e-03  2.58418638e-03  2.12542899e-02  8.52843106e-04]]

Layer 2:
[0. 0. 0. 0. 0. 0. 0. 0. 0. 0. 0. 0. 0. 0. 0. 0. 0. 0. 0. 0. 0. 0. 0. 0.
 0. 0. 0. 0. 0. 0. 0. 0. 0. 0. 0. 0. 0. 0. 0. 0. 0. 0. 0. 0. 0. 0. 0. 0.
 0. 0. 0. 0. 0. 0. 0. 0. 0. 0. 0. 0. 0. 0. 0. 0. 0. 0. 0. 0. 0. 0. 0. 0.
 0. 0. 0. 0. 0. 0. 0. 0. 0. 0. 0. 0. 0. 0. 0. 0. 0. 0. 0. 0. 0. 0. 0. 0.
 0. 0. 0. 0.]

Layer 3:
[[-1.0843885 ]
 [-0.9758148 ]
 [ 0.9957429 ]
 [ 0.9888892 ]
 [-0.78373843]
 [-0.0825981 ]
 [-0.81277   ]
 [ 0.94843   ]
 [-0.8694201 ]
 [-1.1015049 ]
 [-0.98026747]
 [ 0.46979856]
 [ 0.81900734]
 [ 0.95957804]
 [-0.79992664]
 [ 0.48648512]
 [-0.9925565 ]
 [-0.91619825]
 [ 0.9971089 ]
 [ 1.0832553 ]
 [-0.39497808]
 [ 0.606223  ]
 [-0.7872801 ]
 [ 0.5309102 ]
 [ 0.81795377]
 [ 0.93034893]
 [-0.7279017 ]
 [-0.88817126]
 [-1.0226678 ]
 [ 0.92054874]
 [-0.9699155 ]
 [-0.89264673]
 [ 0.6095214 ]
 [-1.0744592 ]
 [-0.84339964]
 [ 0.9244685 ]
 [ 0.9774792 ]
 [-0.86647177]
 [-1.0783023 ]
 [-0.98902714]
 [-0.9573799 ]
 [ 0.8755157 ]
 [-0.9103731 ]
 [-1.0115925 ]
 [ 0.4777305 ]
 [ 0.00247089]
 [ 1.1705574 ]
 [-0.8409437 ]
 [ 0.97433585]
 [ 0.9573026 ]
 [-0.70539397]
 [ 0.6533646 ]
 [-1.0227776 ]
 [-0.8705355 ]
 [-0.9660478 ]
 [ 0.8987041 ]
 [-0.93693715]
 [-0.0861383 ]
 [ 0.9451935 ]
 [ 0.89606977]
 [-0.03376464]
 [-0.83316135]
 [-0.97708136]
 [-0.6133328 ]
 [-0.88327783]
 [-1.1269859 ]
 [-0.7152726 ]
 [ 1.0846186 ]
 [-0.81649256]
 [ 1.0834175 ]
 [ 1.1013106 ]
 [-1.0775384 ]
 [ 1.0631553 ]
 [-1.0656722 ]
 [-0.8727409 ]
 [ 0.11418211]
 [-1.1593136 ]
 [ 1.1237917 ]
 [-0.9749096 ]
 [-0.6714982 ]
 [-1.0218836 ]
 [ 1.0756146 ]
 [-0.3757336 ]
 [-0.97828346]
 [-1.1555992 ]
 [ 0.8423109 ]
 [-1.1257181 ]
 [ 0.9310821 ]
 [ 0.9718086 ]
 [-0.4272953 ]
 [-0.934064  ]
 [-1.0439394 ]
 [ 1.0979656 ]
 [ 1.1642953 ]
 [-1.1024356 ]
 [ 0.74683726]
 [ 0.44426185]
 [ 0.60405   ]
 [ 1.1132053 ]
 [ 0.5274004 ]]

Layer 4:
[-0.00034412]



Consenso 8:
------------------------------------------------------------------------

Layer 0:
[[ 0.00698682  0.00678007 -0.02517795 ...  0.01505058  0.0043471
  -0.00546025]
 [-0.00315029 -0.00011694  0.02692681 ...  0.01387444  0.00759512
  -0.01546949]
 [ 0.01014906  0.01590049 -0.01678158 ... -0.00504201 -0.00940951
  -0.02194734]
 ...
 [-0.00768047  0.00159893 -0.01944908 ...  0.01518259 -0.00534465
   0.02323522]
 [-0.02232527 -0.00224181 -0.01138531 ...  0.0057894  -0.00185398
   0.03621534]
 [ 0.00093864  0.01060682 -0.01239383 ... -0.00423517 -0.01145602
   0.0033207 ]]

Layer 1:
[[-1.44524593e-02 -1.70652438e-02  7.81911705e-03  9.93869826e-03
  -4.16449048e-02  2.90277821e-05 -5.97412512e-03  7.99718965e-03
  -2.93521937e-02 -1.58589389e-02 -2.44718604e-02  2.91104987e-03
   5.05470252e-03  6.17376249e-03 -5.33031113e-03  2.49812216e-03
  -7.24329520e-03 -2.05566306e-02  1.79153290e-02  9.45465732e-03
  -1.08404632e-03  4.49665412e-02 -4.25401516e-02  2.45536002e-03
   3.48510519e-02  2.70543527e-02 -3.87907401e-03 -2.52125952e-02
  -2.52604727e-02  1.59682073e-02 -1.20206811e-02 -2.78953165e-02
   5.38978018e-02 -1.28255207e-02 -2.45535467e-02  2.39783153e-02
   6.23696810e-03 -5.33857895e-03 -1.15348045e-02 -2.27795504e-02
  -8.74779001e-03  2.09701117e-02 -3.06440275e-02 -2.42404547e-02
   1.86042802e-03 -2.27128825e-04  1.30980210e-02 -2.95380708e-02
   1.57636330e-02  6.88175065e-03 -3.64513509e-03  5.32594286e-02
  -2.18436066e-02 -2.79890802e-02 -2.47643646e-02  6.18381845e-03
  -6.96965400e-03 -3.90314875e-04  2.01387517e-02  2.55590752e-02
  -1.87629717e-04 -5.32521354e-03 -1.90262385e-02 -4.87806182e-03
  -2.63817143e-02 -9.66752227e-03 -3.88388857e-02  9.30011738e-03
  -4.83986922e-03  1.40630808e-02  1.60471611e-02 -9.43391584e-03
   1.67520512e-02 -1.44791100e-02 -2.40757111e-02 -4.51970671e-04
  -1.80877987e-02  1.00699710e-02 -7.19566969e-03 -4.30410579e-02
  -1.03258779e-02  1.36625683e-02 -2.16657366e-03 -1.82067137e-02
  -2.31372956e-02  2.51334328e-02 -2.16627847e-02  1.65982060e-02
   2.52717175e-02 -2.22753943e-03 -2.63466537e-02 -1.81890558e-02
   1.12374881e-02  1.10449968e-02 -1.66965518e-02  3.40720378e-02
   1.74322946e-03  2.58418638e-03  2.12542899e-02  8.52843106e-04]]

Layer 2:
[0. 0. 0. 0. 0. 0. 0. 0. 0. 0. 0. 0. 0. 0. 0. 0. 0. 0. 0. 0. 0. 0. 0. 0.
 0. 0. 0. 0. 0. 0. 0. 0. 0. 0. 0. 0. 0. 0. 0. 0. 0. 0. 0. 0. 0. 0. 0. 0.
 0. 0. 0. 0. 0. 0. 0. 0. 0. 0. 0. 0. 0. 0. 0. 0. 0. 0. 0. 0. 0. 0. 0. 0.
 0. 0. 0. 0. 0. 0. 0. 0. 0. 0. 0. 0. 0. 0. 0. 0. 0. 0. 0. 0. 0. 0. 0. 0.
 0. 0. 0. 0.]

Layer 3:
[[-1.0992428 ]
 [-0.9964871 ]
 [ 1.024029  ]
 [ 1.0124812 ]
 [-0.8117371 ]
 [-0.09434301]
 [-0.84798205]
 [ 0.9840465 ]
 [-0.8868472 ]
 [-1.1134422 ]
 [-0.9894964 ]
 [ 0.51209664]
 [ 0.8488777 ]
 [ 0.9728935 ]
 [-0.83151364]
 [ 0.51836914]
 [-1.0215188 ]
 [-0.93168736]
 [ 1.0103269 ]
 [ 1.1164904 ]
 [-0.41710427]
 [ 0.6418023 ]
 [-0.822062  ]
 [ 0.5548284 ]
 [ 0.8448398 ]
 [ 0.94658726]
 [-0.7744767 ]
 [-0.90324795]
 [-1.0324029 ]
 [ 0.9433163 ]
 [-0.98406297]
 [-0.906581  ]
 [ 0.65156543]
 [-1.0960875 ]
 [-0.86108184]
 [ 0.94200975]
 [ 1.0172812 ]
 [-0.9076557 ]
 [-1.1004356 ]
 [-1.0010365 ]
 [-0.9755448 ]
 [ 0.88929605]
 [-0.92742777]
 [-1.0238956 ]
 [ 0.5107488 ]
 [ 0.00940255]
 [ 1.1854051 ]
 [-0.86095685]
 [ 0.98707634]
 [ 0.9904216 ]
 [-0.72198236]
 [ 0.68994516]
 [-1.0351415 ]
 [-0.89261216]
 [-0.97258514]
 [ 0.93102425]
 [-0.96435344]
 [-0.09439952]
 [ 0.9596042 ]
 [ 0.9123149 ]
 [-0.03530324]
 [-0.87412226]
 [-0.99359155]
 [-0.64493686]
 [-0.9007318 ]
 [-1.1460128 ]
 [-0.74903   ]
 [ 1.1116982 ]
 [-0.8574623 ]
 [ 1.1012799 ]
 [ 1.1157613 ]
 [-1.1018043 ]
 [ 1.0741152 ]
 [-1.0778183 ]
 [-0.8912066 ]
 [ 0.12154972]
 [-1.1679244 ]
 [ 1.1491294 ]
 [-1.0017804 ]
 [-0.70518583]
 [-1.0444076 ]
 [ 1.0936316 ]
 [-0.4082267 ]
 [-0.9931712 ]
 [-1.1598833 ]
 [ 0.86080277]
 [-1.1319722 ]
 [ 0.95194185]
 [ 0.9862648 ]
 [-0.45735016]
 [-0.95102483]
 [-1.0578951 ]
 [ 1.1201092 ]
 [ 1.1705517 ]
 [-1.1151301 ]
 [ 0.77051777]
 [ 0.4745216 ]
 [ 0.62908506]
 [ 1.1210455 ]
 [ 0.5256323 ]]

Layer 4:
[-0.0360194]



Entrenamiento 9:
------------------------------------------------------------------------

Layer 0:
[[ 0.00698682  0.00678007 -0.02517795 ...  0.01505058  0.0043471
  -0.00546025]
 [-0.00315029 -0.00011694  0.02692681 ...  0.01387444  0.00759512
  -0.01546949]
 [ 0.01014906  0.01590049 -0.01678158 ... -0.00504201 -0.00940951
  -0.02194734]
 ...
 [-0.00768047  0.00159893 -0.01944908 ...  0.01518259 -0.00534465
   0.02323522]
 [-0.02232527 -0.00224181 -0.01138531 ...  0.0057894  -0.00185398
   0.03621534]
 [ 0.00093864  0.01060682 -0.01239383 ... -0.00423517 -0.01145602
   0.0033207 ]]

Layer 1:
[[-1.44524593e-02 -1.70652438e-02  7.81911705e-03  9.93869826e-03
  -4.16449048e-02  2.90277821e-05 -5.97412512e-03  7.99718965e-03
  -2.93521937e-02 -1.58589389e-02 -2.44718604e-02  2.91104987e-03
   5.05470252e-03  6.17376249e-03 -5.33031113e-03  2.49812216e-03
  -7.24329520e-03 -2.05566306e-02  1.79153290e-02  9.45465732e-03
  -1.08404632e-03  4.49665412e-02 -4.25401516e-02  2.45536002e-03
   3.48510519e-02  2.70543527e-02 -3.87907401e-03 -2.52125952e-02
  -2.52604727e-02  1.59682073e-02 -1.20206811e-02 -2.78953165e-02
   5.38978018e-02 -1.28255207e-02 -2.45535467e-02  2.39783153e-02
   6.23696810e-03 -5.33857895e-03 -1.15348045e-02 -2.27795504e-02
  -8.74779001e-03  2.09701117e-02 -3.06440275e-02 -2.42404547e-02
   1.86042802e-03 -2.27128825e-04  1.30980210e-02 -2.95380708e-02
   1.57636330e-02  6.88175065e-03 -3.64513509e-03  5.32594286e-02
  -2.18436066e-02 -2.79890802e-02 -2.47643646e-02  6.18381845e-03
  -6.96965400e-03 -3.90314875e-04  2.01387517e-02  2.55590752e-02
  -1.87629717e-04 -5.32521354e-03 -1.90262385e-02 -4.87806182e-03
  -2.63817143e-02 -9.66752227e-03 -3.88388857e-02  9.30011738e-03
  -4.83986922e-03  1.40630808e-02  1.60471611e-02 -9.43391584e-03
   1.67520512e-02 -1.44791100e-02 -2.40757111e-02 -4.51970671e-04
  -1.80877987e-02  1.00699710e-02 -7.19566969e-03 -4.30410579e-02
  -1.03258779e-02  1.36625683e-02 -2.16657366e-03 -1.82067137e-02
  -2.31372956e-02  2.51334328e-02 -2.16627847e-02  1.65982060e-02
   2.52717175e-02 -2.22753943e-03 -2.63466537e-02 -1.81890558e-02
   1.12374881e-02  1.10449968e-02 -1.66965518e-02  3.40720378e-02
   1.74322946e-03  2.58418638e-03  2.12542899e-02  8.52843106e-04]]

Layer 2:
[0. 0. 0. 0. 0. 0. 0. 0. 0. 0. 0. 0. 0. 0. 0. 0. 0. 0. 0. 0. 0. 0. 0. 0.
 0. 0. 0. 0. 0. 0. 0. 0. 0. 0. 0. 0. 0. 0. 0. 0. 0. 0. 0. 0. 0. 0. 0. 0.
 0. 0. 0. 0. 0. 0. 0. 0. 0. 0. 0. 0. 0. 0. 0. 0. 0. 0. 0. 0. 0. 0. 0. 0.
 0. 0. 0. 0. 0. 0. 0. 0. 0. 0. 0. 0. 0. 0. 0. 0. 0. 0. 0. 0. 0. 0. 0. 0.
 0. 0. 0. 0.]

Layer 3:
[[-1.1110255 ]
 [-0.9854341 ]
 [ 1.0781837 ]
 [ 1.0410496 ]
 [-0.7166054 ]
 [-0.08557139]
 [-0.87049735]
 [ 1.0015436 ]
 [-0.8392235 ]
 [-1.1397152 ]
 [-0.9811827 ]
 [ 0.54730135]
 [ 0.86032486]
 [ 1.0325749 ]
 [-0.8785021 ]
 [ 0.53188425]
 [-1.0759696 ]
 [-0.91010445]
 [ 1.0267308 ]
 [ 1.1641084 ]
 [-0.421532  ]
 [ 0.52167577]
 [-0.72145414]
 [ 0.57342684]
 [ 0.7633811 ]
 [ 0.9058644 ]
 [-0.8145785 ]
 [-0.8731581 ]
 [-1.0190346 ]
 [ 0.9122097 ]
 [-0.99285805]
 [-0.8730507 ]
 [ 0.51582325]
 [-1.1166116 ]
 [-0.8267989 ]
 [ 0.909444  ]
 [ 1.0909772 ]
 [-0.97100043]
 [-1.1720898 ]
 [-0.99808526]
 [-1.004324  ]
 [ 0.8776958 ]
 [-0.8876595 ]
 [-1.0056137 ]
 [ 0.5301282 ]
 [-0.00207935]
 [ 1.2668524 ]
 [-0.8086581 ]
 [ 0.998999  ]
 [ 1.0262612 ]
 [-0.778796  ]
 [ 0.5693431 ]
 [-1.0208844 ]
 [-0.84306943]
 [-0.9748617 ]
 [ 0.9714585 ]
 [-0.9977907 ]
 [-0.09791723]
 [ 0.9522172 ]
 [ 0.87382686]
 [-0.04237636]
 [-0.91473   ]
 [-0.9736422 ]
 [-0.6712341 ]
 [-0.85811704]
 [-1.2075497 ]
 [-0.6436209 ]
 [ 1.2004757 ]
 [-0.9092979 ]
 [ 1.1314809 ]
 [ 1.1413977 ]
 [-1.1494793 ]
 [ 1.1012118 ]
 [-1.112639  ]
 [-0.8504512 ]
 [ 0.10126006]
 [-1.1996614 ]
 [ 1.2331107 ]
 [-1.0615332 ]
 [-0.5939068 ]
 [-1.0826643 ]
 [ 1.1096326 ]
 [-0.4398618 ]
 [-0.98931444]
 [-1.1694127 ]
 [ 0.81954443]
 [-1.1687639 ]
 [ 0.9298822 ]
 [ 0.9674523 ]
 [-0.4733341 ]
 [-0.9174858 ]
 [-1.0502832 ]
 [ 1.1484922 ]
 [ 1.2550544 ]
 [-1.1324034 ]
 [ 0.6966667 ]
 [ 0.48709142]
 [ 0.6554994 ]
 [ 1.1309172 ]
 [ 0.57023174]]

Layer 4:
[-0.00058238]



Consenso 9:
------------------------------------------------------------------------

Layer 0:
[[ 0.00698682  0.00678007 -0.02517795 ...  0.01505058  0.0043471
  -0.00546025]
 [-0.00315029 -0.00011694  0.02692681 ...  0.01387444  0.00759512
  -0.01546949]
 [ 0.01014906  0.01590049 -0.01678158 ... -0.00504201 -0.00940951
  -0.02194734]
 ...
 [-0.00768047  0.00159893 -0.01944908 ...  0.01518259 -0.00534465
   0.02323522]
 [-0.02232527 -0.00224181 -0.01138531 ...  0.0057894  -0.00185398
   0.03621534]
 [ 0.00093864  0.01060682 -0.01239383 ... -0.00423517 -0.01145602
   0.0033207 ]]

Layer 1:
[[-1.44524593e-02 -1.70652438e-02  7.81911705e-03  9.93869826e-03
  -4.16449048e-02  2.90277821e-05 -5.97412512e-03  7.99718965e-03
  -2.93521937e-02 -1.58589389e-02 -2.44718604e-02  2.91104987e-03
   5.05470252e-03  6.17376249e-03 -5.33031113e-03  2.49812216e-03
  -7.24329520e-03 -2.05566306e-02  1.79153290e-02  9.45465732e-03
  -1.08404632e-03  4.49665412e-02 -4.25401516e-02  2.45536002e-03
   3.48510519e-02  2.70543527e-02 -3.87907401e-03 -2.52125952e-02
  -2.52604727e-02  1.59682073e-02 -1.20206811e-02 -2.78953165e-02
   5.38978018e-02 -1.28255207e-02 -2.45535467e-02  2.39783153e-02
   6.23696810e-03 -5.33857895e-03 -1.15348045e-02 -2.27795504e-02
  -8.74779001e-03  2.09701117e-02 -3.06440275e-02 -2.42404547e-02
   1.86042802e-03 -2.27128825e-04  1.30980210e-02 -2.95380708e-02
   1.57636330e-02  6.88175065e-03 -3.64513509e-03  5.32594286e-02
  -2.18436066e-02 -2.79890802e-02 -2.47643646e-02  6.18381845e-03
  -6.96965400e-03 -3.90314875e-04  2.01387517e-02  2.55590752e-02
  -1.87629717e-04 -5.32521354e-03 -1.90262385e-02 -4.87806182e-03
  -2.63817143e-02 -9.66752227e-03 -3.88388857e-02  9.30011738e-03
  -4.83986922e-03  1.40630808e-02  1.60471611e-02 -9.43391584e-03
   1.67520512e-02 -1.44791100e-02 -2.40757111e-02 -4.51970671e-04
  -1.80877987e-02  1.00699710e-02 -7.19566969e-03 -4.30410579e-02
  -1.03258779e-02  1.36625683e-02 -2.16657366e-03 -1.82067137e-02
  -2.31372956e-02  2.51334328e-02 -2.16627847e-02  1.65982060e-02
   2.52717175e-02 -2.22753943e-03 -2.63466537e-02 -1.81890558e-02
   1.12374881e-02  1.10449968e-02 -1.66965518e-02  3.40720378e-02
   1.74322946e-03  2.58418638e-03  2.12542899e-02  8.52843106e-04]]

Layer 2:
[0. 0. 0. 0. 0. 0. 0. 0. 0. 0. 0. 0. 0. 0. 0. 0. 0. 0. 0. 0. 0. 0. 0. 0.
 0. 0. 0. 0. 0. 0. 0. 0. 0. 0. 0. 0. 0. 0. 0. 0. 0. 0. 0. 0. 0. 0. 0. 0.
 0. 0. 0. 0. 0. 0. 0. 0. 0. 0. 0. 0. 0. 0. 0. 0. 0. 0. 0. 0. 0. 0. 0. 0.
 0. 0. 0. 0. 0. 0. 0. 0. 0. 0. 0. 0. 0. 0. 0. 0. 0. 0. 0. 0. 0. 0. 0. 0.
 0. 0. 0. 0.]

Layer 3:
[[-1.126717  ]
 [-1.0070001 ]
 [ 1.104789  ]
 [ 1.0641453 ]
 [-0.7465466 ]
 [-0.09817936]
 [-0.9055215 ]
 [ 1.0367067 ]
 [-0.8583355 ]
 [-1.1518404 ]
 [-0.99194056]
 [ 0.5900904 ]
 [ 0.89079297]
 [ 1.0445814 ]
 [-0.909252  ]
 [ 0.56434375]
 [-1.1036984 ]
 [-0.9269241 ]
 [ 1.0402938 ]
 [ 1.1957065 ]
 [-0.4444629 ]
 [ 0.558907  ]
 [-0.75806373]
 [ 0.5977217 ]
 [ 0.79202044]
 [ 0.9238802 ]
 [-0.8611727 ]
 [-0.8898599 ]
 [-1.0300909 ]
 [ 0.93644106]
 [-1.0079702 ]
 [-0.8885798 ]
 [ 0.55904275]
 [-1.1383125 ]
 [-0.846069  ]
 [ 0.92841005]
 [ 1.1289269 ]
 [-1.0107694 ]
 [-1.1918273 ]
 [-1.011134  ]
 [-1.0227543 ]
 [ 0.892639  ]
 [-0.90606517]
 [-1.0194912 ]
 [ 0.5636744 ]
 [ 0.005379  ]
 [ 1.2792116 ]
 [-0.8303725 ]
 [ 1.0125209 ]
 [ 1.0584484 ]
 [-0.7940635 ]
 [ 0.6074567 ]
 [-1.0347081 ]
 [-0.86681944]
 [-0.9826994 ]
 [ 1.0030403 ]
 [-1.0246242 ]
 [-0.1066008 ]
 [ 0.96770406]
 [ 0.89178234]
 [-0.04416351]
 [-0.9549397 ]
 [-0.9917433 ]
 [-0.7025311 ]
 [-0.87745523]
 [-1.2251382 ]
 [-0.679054  ]
 [ 1.2248422 ]
 [-0.9495767 ]
 [ 1.1490021 ]
 [ 1.1558101 ]
 [-1.1724689 ]
 [ 1.1124042 ]
 [-1.1246339 ]
 [-0.8706419 ]
 [ 0.10874821]
 [-1.2084248 ]
 [ 1.2556242 ]
 [-1.0866742 ]
 [-0.62940353]
 [-1.1044925 ]
 [ 1.1279831 ]
 [-0.47320205]
 [-1.0052783 ]
 [-1.1747351 ]
 [ 0.8396573 ]
 [-1.1748579 ]
 [ 0.9522449 ]
 [ 0.98312736]
 [-0.5042729 ]
 [-0.93629855]
 [-1.0657197 ]
 [ 1.1702498 ]
 [ 1.25921   ]
 [-1.1454788 ]
 [ 0.72216326]
 [ 0.5179154 ]
 [ 0.68067133]
 [ 1.1395158 ]
 [ 0.56934804]]

Layer 4:
[-0.05792923]



Entrenamiento 10:
------------------------------------------------------------------------

Layer 0:
[[ 0.00698682  0.00678007 -0.02517795 ...  0.01505058  0.0043471
  -0.00546025]
 [-0.00315029 -0.00011694  0.02692681 ...  0.01387444  0.00759512
  -0.01546949]
 [ 0.01014906  0.01590049 -0.01678158 ... -0.00504201 -0.00940951
  -0.02194734]
 ...
 [-0.00768047  0.00159893 -0.01944908 ...  0.01518259 -0.00534465
   0.02323522]
 [-0.02232527 -0.00224181 -0.01138531 ...  0.0057894  -0.00185398
   0.03621534]
 [ 0.00093864  0.01060682 -0.01239383 ... -0.00423517 -0.01145602
   0.0033207 ]]

Layer 1:
[[-1.44524593e-02 -1.70652438e-02  7.81911705e-03  9.93869826e-03
  -4.16449048e-02  2.90277821e-05 -5.97412512e-03  7.99718965e-03
  -2.93521937e-02 -1.58589389e-02 -2.44718604e-02  2.91104987e-03
   5.05470252e-03  6.17376249e-03 -5.33031113e-03  2.49812216e-03
  -7.24329520e-03 -2.05566306e-02  1.79153290e-02  9.45465732e-03
  -1.08404632e-03  4.49665412e-02 -4.25401516e-02  2.45536002e-03
   3.48510519e-02  2.70543527e-02 -3.87907401e-03 -2.52125952e-02
  -2.52604727e-02  1.59682073e-02 -1.20206811e-02 -2.78953165e-02
   5.38978018e-02 -1.28255207e-02 -2.45535467e-02  2.39783153e-02
   6.23696810e-03 -5.33857895e-03 -1.15348045e-02 -2.27795504e-02
  -8.74779001e-03  2.09701117e-02 -3.06440275e-02 -2.42404547e-02
   1.86042802e-03 -2.27128825e-04  1.30980210e-02 -2.95380708e-02
   1.57636330e-02  6.88175065e-03 -3.64513509e-03  5.32594286e-02
  -2.18436066e-02 -2.79890802e-02 -2.47643646e-02  6.18381845e-03
  -6.96965400e-03 -3.90314875e-04  2.01387517e-02  2.55590752e-02
  -1.87629717e-04 -5.32521354e-03 -1.90262385e-02 -4.87806182e-03
  -2.63817143e-02 -9.66752227e-03 -3.88388857e-02  9.30011738e-03
  -4.83986922e-03  1.40630808e-02  1.60471611e-02 -9.43391584e-03
   1.67520512e-02 -1.44791100e-02 -2.40757111e-02 -4.51970671e-04
  -1.80877987e-02  1.00699710e-02 -7.19566969e-03 -4.30410579e-02
  -1.03258779e-02  1.36625683e-02 -2.16657366e-03 -1.82067137e-02
  -2.31372956e-02  2.51334328e-02 -2.16627847e-02  1.65982060e-02
   2.52717175e-02 -2.22753943e-03 -2.63466537e-02 -1.81890558e-02
   1.12374881e-02  1.10449968e-02 -1.66965518e-02  3.40720378e-02
   1.74322946e-03  2.58418638e-03  2.12542899e-02  8.52843106e-04]]

Layer 2:
[0. 0. 0. 0. 0. 0. 0. 0. 0. 0. 0. 0. 0. 0. 0. 0. 0. 0. 0. 0. 0. 0. 0. 0.
 0. 0. 0. 0. 0. 0. 0. 0. 0. 0. 0. 0. 0. 0. 0. 0. 0. 0. 0. 0. 0. 0. 0. 0.
 0. 0. 0. 0. 0. 0. 0. 0. 0. 0. 0. 0. 0. 0. 0. 0. 0. 0. 0. 0. 0. 0. 0. 0.
 0. 0. 0. 0. 0. 0. 0. 0. 0. 0. 0. 0. 0. 0. 0. 0. 0. 0. 0. 0. 0. 0. 0. 0.
 0. 0. 0. 0.]

Layer 3:
[[-1.1368263 ]
 [-0.9936776 ]
 [ 1.1589803 ]
 [ 1.0917456 ]
 [-0.6488401 ]
 [-0.08824318]
 [-0.9269705 ]
 [ 1.0526766 ]
 [-0.80841255]
 [-1.1773155 ]
 [-0.982117  ]
 [ 0.62683284]
 [ 0.90059257]
 [ 1.1024375 ]
 [-0.95714104]
 [ 0.5774276 ]
 [-1.1589063 ]
 [-0.9030694 ]
 [ 1.0554129 ]
 [ 1.2434691 ]
 [-0.44816422]
 [ 0.43593687]
 [-0.6553918 ]
 [ 0.6160157 ]
 [ 0.7078692 ]
 [ 0.88088155]
 [-0.9025938 ]
 [-0.8576364 ]
 [-1.0150595 ]
 [ 0.90241355]
 [-1.0147654 ]
 [-0.8530137 ]
 [ 0.42068583]
 [-1.1573808 ]
 [-0.8095018 ]
 [ 0.8935311 ]
 [ 1.2050903 ]
 [-1.0761657 ]
 [-1.2643957 ]
 [-1.0066879 ]
 [-1.0503247 ]
 [ 0.879108  ]
 [-0.8643079 ]
 [-0.9993451 ]
 [ 0.58316123]
 [-0.00750496]
 [ 1.362004  ]
 [-0.77564716]
 [ 1.0229133 ]
 [ 1.0937792 ]
 [-0.85168326]
 [ 0.48446783]
 [-1.018514  ]
 [-0.81505406]
 [-0.9836616 ]
 [ 1.0436529 ]
 [-1.0573995 ]
 [-0.11022099]
 [ 0.95846975]
 [ 0.8509543 ]
 [-0.05188525]
 [-0.9962598 ]
 [-0.969447  ]
 [-0.7285602 ]
 [-0.8324655 ]
 [-1.287267  ]
 [-0.5706957 ]
 [ 1.3159394 ]
 [-1.0032411 ]
 [ 1.1781453 ]
 [ 1.1804228 ]
 [-1.2198156 ]
 [ 1.1386433 ]
 [-1.1585883 ]
 [-0.82736564]
 [ 0.08641835]
 [-1.2394148 ]
 [ 1.3416481 ]
 [-1.1476637 ]
 [-0.51533955]
 [-1.1422287 ]
 [ 1.1425558 ]
 [-0.5064924 ]
 [-0.9995152 ]
 [-1.1831934 ]
 [ 0.7959499 ]
 [-1.2114416 ]
 [ 0.92762494]
 [ 0.96252155]
 [-0.5203245 ]
 [-0.9007374 ]
 [-1.0560976 ]
 [ 1.1975383 ]
 [ 1.3439304 ]
 [-1.1614993 ]
 [ 0.64570165]
 [ 0.5302682 ]
 [ 0.7068129 ]
 [ 1.1481946 ]
 [ 0.61090195]]

Layer 4:
[-0.00019626]



Consenso 10:
------------------------------------------------------------------------

Layer 0:
[[ 0.00698682  0.00678007 -0.02517795 ...  0.01505058  0.0043471
  -0.00546025]
 [-0.00315029 -0.00011694  0.02692681 ...  0.01387444  0.00759512
  -0.01546949]
 [ 0.01014906  0.01590049 -0.01678158 ... -0.00504201 -0.00940951
  -0.02194734]
 ...
 [-0.00768047  0.00159893 -0.01944908 ...  0.01518259 -0.00534465
   0.02323522]
 [-0.02232527 -0.00224181 -0.01138531 ...  0.0057894  -0.00185398
   0.03621534]
 [ 0.00093864  0.01060682 -0.01239383 ... -0.00423517 -0.01145602
   0.0033207 ]]

Layer 1:
[[-1.44524593e-02 -1.70652438e-02  7.81911705e-03  9.93869826e-03
  -4.16449048e-02  2.90277821e-05 -5.97412512e-03  7.99718965e-03
  -2.93521937e-02 -1.58589389e-02 -2.44718604e-02  2.91104987e-03
   5.05470252e-03  6.17376249e-03 -5.33031113e-03  2.49812216e-03
  -7.24329520e-03 -2.05566306e-02  1.79153290e-02  9.45465732e-03
  -1.08404632e-03  4.49665412e-02 -4.25401516e-02  2.45536002e-03
   3.48510519e-02  2.70543527e-02 -3.87907401e-03 -2.52125952e-02
  -2.52604727e-02  1.59682073e-02 -1.20206811e-02 -2.78953165e-02
   5.38978018e-02 -1.28255207e-02 -2.45535467e-02  2.39783153e-02
   6.23696810e-03 -5.33857895e-03 -1.15348045e-02 -2.27795504e-02
  -8.74779001e-03  2.09701117e-02 -3.06440275e-02 -2.42404547e-02
   1.86042802e-03 -2.27128825e-04  1.30980210e-02 -2.95380708e-02
   1.57636330e-02  6.88175065e-03 -3.64513509e-03  5.32594286e-02
  -2.18436066e-02 -2.79890802e-02 -2.47643646e-02  6.18381845e-03
  -6.96965400e-03 -3.90314875e-04  2.01387517e-02  2.55590752e-02
  -1.87629717e-04 -5.32521354e-03 -1.90262385e-02 -4.87806182e-03
  -2.63817143e-02 -9.66752227e-03 -3.88388857e-02  9.30011738e-03
  -4.83986922e-03  1.40630808e-02  1.60471611e-02 -9.43391584e-03
   1.67520512e-02 -1.44791100e-02 -2.40757111e-02 -4.51970671e-04
  -1.80877987e-02  1.00699710e-02 -7.19566969e-03 -4.30410579e-02
  -1.03258779e-02  1.36625683e-02 -2.16657366e-03 -1.82067137e-02
  -2.31372956e-02  2.51334328e-02 -2.16627847e-02  1.65982060e-02
   2.52717175e-02 -2.22753943e-03 -2.63466537e-02 -1.81890558e-02
   1.12374881e-02  1.10449968e-02 -1.66965518e-02  3.40720378e-02
   1.74322946e-03  2.58418638e-03  2.12542899e-02  8.52843106e-04]]

Layer 2:
[0. 0. 0. 0. 0. 0. 0. 0. 0. 0. 0. 0. 0. 0. 0. 0. 0. 0. 0. 0. 0. 0. 0. 0.
 0. 0. 0. 0. 0. 0. 0. 0. 0. 0. 0. 0. 0. 0. 0. 0. 0. 0. 0. 0. 0. 0. 0. 0.
 0. 0. 0. 0. 0. 0. 0. 0. 0. 0. 0. 0. 0. 0. 0. 0. 0. 0. 0. 0. 0. 0. 0. 0.
 0. 0. 0. 0. 0. 0. 0. 0. 0. 0. 0. 0. 0. 0. 0. 0. 0. 0. 0. 0. 0. 0. 0. 0.
 0. 0. 0. 0.]

Layer 3:
[[-1.1526719e+00]
 [-1.0151371e+00]
 [ 1.1851517e+00]
 [ 1.1147037e+00]
 [-6.7740738e-01]
 [-1.0147362e-01]
 [-9.6229249e-01]
 [ 1.0878577e+00]
 [-8.2664484e-01]
 [-1.1890545e+00]
 [-9.9236417e-01]
 [ 6.7099911e-01]
 [ 9.3182212e-01]
 [ 1.1158754e+00]
 [-9.8811418e-01]
 [ 6.1095643e-01]
 [-1.1860856e+00]
 [-9.1966444e-01]
 [ 1.0686015e+00]
 [ 1.2745309e+00]
 [-4.7171283e-01]
 [ 4.7165972e-01]
 [-6.9015872e-01]
 [ 6.4069104e-01]
 [ 7.3534763e-01]
 [ 8.9824653e-01]
 [-9.4962859e-01]
 [-8.7376982e-01]
 [-1.0254443e+00]
 [ 9.2681903e-01]
 [-1.0304837e+00]
 [-8.6780703e-01]
 [ 4.6184224e-01]
 [-1.1790485e+00]
 [-8.2821226e-01]
 [ 9.1189080e-01]
 [ 1.2426914e+00]
 [-1.1159803e+00]
 [-1.2828660e+00]
 [-1.0190456e+00]
 [-1.0693592e+00]
 [ 8.9362741e-01]
 [-8.8156307e-01]
 [-1.0128013e+00]
 [ 6.1753142e-01]
 [ 1.8407589e-04]
 [ 1.3729520e+00]
 [-7.9652756e-01]
 [ 1.0365740e+00]
 [ 1.1257434e+00]
 [-8.6778831e-01]
 [ 5.2054930e-01]
 [-1.0321575e+00]
 [-8.3795381e-01]
 [-9.9090552e-01]
 [ 1.0755326e+00]
 [-1.0842777e+00]
 [-1.1943351e-01]
 [ 9.7352868e-01]
 [ 8.6839992e-01]
 [-5.3990569e-02]
 [-1.0367169e+00]
 [-9.8757553e-01]
 [-7.6051581e-01]
 [-8.5120326e-01]
 [-1.3044624e+00]
 [-6.0477358e-01]
 [ 1.3389175e+00]
 [-1.0439491e+00]
 [ 1.1951454e+00]
 [ 1.1943054e+00]
 [-1.2423065e+00]
 [ 1.1494906e+00]
 [-1.1703404e+00]
 [-8.4719598e-01]
 [ 9.3940482e-02]
 [-1.2476479e+00]
 [ 1.3627831e+00]
 [-1.1722804e+00]
 [-5.4941642e-01]
 [-1.1638060e+00]
 [ 1.1607869e+00]
 [-5.4162705e-01]
 [-1.0153944e+00]
 [-1.1880865e+00]
 [ 8.1548548e-01]
 [-1.2163771e+00]
 [ 9.5000780e-01]
 [ 9.7736645e-01]
 [-5.5192202e-01]
 [-9.1896427e-01]
 [-1.0717402e+00]
 [ 1.2190998e+00]
 [ 1.3477970e+00]
 [-1.1742408e+00]
 [ 6.7010802e-01]
 [ 5.6195378e-01]
 [ 7.3274094e-01]
 [ 1.1564003e+00]
 [ 6.1331618e-01]]

Layer 4:
[-0.07174446]



Entrenamiento 11:
------------------------------------------------------------------------

Layer 0:
[[ 0.00698682  0.00678007 -0.02517795 ...  0.01505058  0.0043471
  -0.00546025]
 [-0.00315029 -0.00011694  0.02692681 ...  0.01387444  0.00759512
  -0.01546949]
 [ 0.01014906  0.01590049 -0.01678158 ... -0.00504201 -0.00940951
  -0.02194734]
 ...
 [-0.00768047  0.00159893 -0.01944908 ...  0.01518259 -0.00534465
   0.02323522]
 [-0.02232527 -0.00224181 -0.01138531 ...  0.0057894  -0.00185398
   0.03621534]
 [ 0.00093864  0.01060682 -0.01239383 ... -0.00423517 -0.01145602
   0.0033207 ]]

Layer 1:
[[-1.44524593e-02 -1.70652438e-02  7.81911705e-03  9.93869826e-03
  -4.16449048e-02  2.90277821e-05 -5.97412512e-03  7.99718965e-03
  -2.93521937e-02 -1.58589389e-02 -2.44718604e-02  2.91104987e-03
   5.05470252e-03  6.17376249e-03 -5.33031113e-03  2.49812216e-03
  -7.24329520e-03 -2.05566306e-02  1.79153290e-02  9.45465732e-03
  -1.08404632e-03  4.49665412e-02 -4.25401516e-02  2.45536002e-03
   3.48510519e-02  2.70543527e-02 -3.87907401e-03 -2.52125952e-02
  -2.52604727e-02  1.59682073e-02 -1.20206811e-02 -2.78953165e-02
   5.38978018e-02 -1.28255207e-02 -2.45535467e-02  2.39783153e-02
   6.23696810e-03 -5.33857895e-03 -1.15348045e-02 -2.27795504e-02
  -8.74779001e-03  2.09701117e-02 -3.06440275e-02 -2.42404547e-02
   1.86042802e-03 -2.27128825e-04  1.30980210e-02 -2.95380708e-02
   1.57636330e-02  6.88175065e-03 -3.64513509e-03  5.32594286e-02
  -2.18436066e-02 -2.79890802e-02 -2.47643646e-02  6.18381845e-03
  -6.96965400e-03 -3.90314875e-04  2.01387517e-02  2.55590752e-02
  -1.87629717e-04 -5.32521354e-03 -1.90262385e-02 -4.87806182e-03
  -2.63817143e-02 -9.66752227e-03 -3.88388857e-02  9.30011738e-03
  -4.83986922e-03  1.40630808e-02  1.60471611e-02 -9.43391584e-03
   1.67520512e-02 -1.44791100e-02 -2.40757111e-02 -4.51970671e-04
  -1.80877987e-02  1.00699710e-02 -7.19566969e-03 -4.30410579e-02
  -1.03258779e-02  1.36625683e-02 -2.16657366e-03 -1.82067137e-02
  -2.31372956e-02  2.51334328e-02 -2.16627847e-02  1.65982060e-02
   2.52717175e-02 -2.22753943e-03 -2.63466537e-02 -1.81890558e-02
   1.12374881e-02  1.10449968e-02 -1.66965518e-02  3.40720378e-02
   1.74322946e-03  2.58418638e-03  2.12542899e-02  8.52843106e-04]]

Layer 2:
[0. 0. 0. 0. 0. 0. 0. 0. 0. 0. 0. 0. 0. 0. 0. 0. 0. 0. 0. 0. 0. 0. 0. 0.
 0. 0. 0. 0. 0. 0. 0. 0. 0. 0. 0. 0. 0. 0. 0. 0. 0. 0. 0. 0. 0. 0. 0. 0.
 0. 0. 0. 0. 0. 0. 0. 0. 0. 0. 0. 0. 0. 0. 0. 0. 0. 0. 0. 0. 0. 0. 0. 0.
 0. 0. 0. 0. 0. 0. 0. 0. 0. 0. 0. 0. 0. 0. 0. 0. 0. 0. 0. 0. 0. 0. 0. 0.
 0. 0. 0. 0.]

Layer 3:
[[-1.1733737 ]
 [-1.0130668 ]
 [ 1.248221  ]
 [ 1.1515583 ]
 [-0.5924875 ]
 [-0.09369872]
 [-0.9919347 ]
 [ 1.11296   ]
 [-0.7888513 ]
 [-1.2245579 ]
 [-0.9939794 ]
 [ 0.7108588 ]
 [ 0.9497751 ]
 [ 1.1840171 ]
 [-1.0427684 ]
 [ 0.62884647]
 [-1.2490927 ]
 [-0.9073512 ]
 [ 1.0946159 ]
 [ 1.3310242 ]
 [-0.47907335]
 [ 0.36176193]
 [-0.6016071 ]
 [ 0.66440207]
 [ 0.66388166]
 [ 0.86726755]
 [-0.99600816]
 [-0.8532441 ]
 [-1.0219404 ]
 [ 0.9041341 ]
 [-1.0477418 ]
 [-0.84411675]
 [ 0.33662975]
 [-1.2084104 ]
 [-0.80405754]
 [ 0.88880336]
 [ 1.3256452 ]
 [-1.1876454 ]
 [-1.3645706 ]
 [-1.025981  ]
 [-1.1063303 ]
 [ 0.8913506 ]
 [-0.85201097]
 [-1.0042572 ]
 [ 0.64114195]
 [-0.01052225]
 [ 1.4649837 ]
 [-0.7538689 ]
 [ 1.0575991 ]
 [ 1.1694541 ]
 [-0.9329802 ]
 [ 0.41055003]
 [-1.0274712 ]
 [-0.7997807 ]
 [-1.0037993 ]
 [ 1.1237323 ]
 [-1.125538  ]
 [-0.12360154]
 [ 0.97548467]
 [ 0.83933383]
 [-0.06123145]
 [-1.0844337 ]
 [-0.97673684]
 [-0.7931834 ]
 [-0.8183642 ]
 [-1.375324  ]
 [-0.5092782 ]
 [ 1.4381298 ]
 [-1.1032226 ]
 [ 1.234612  ]
 [ 1.2293761 ]
 [-1.2988799 ]
 [ 1.1861521 ]
 [-1.214613  ]
 [-0.81586003]
 [ 0.07359951]
 [-1.2893069 ]
 [ 1.4571527 ]
 [-1.2408463 ]
 [-0.44830737]
 [-1.2106438 ]
 [ 1.185541  ]
 [-0.5765937 ]
 [-1.02074   ]
 [-1.2077376 ]
 [ 0.78380936]
 [-1.2637091 ]
 [ 0.93651724]
 [ 0.9683604 ]
 [-0.571897  ]
 [-0.8968794 ]
 [-1.0732443 ]
 [ 1.2560687 ]
 [ 1.4423342 ]
 [-1.200782  ]
 [ 0.6060479 ]
 [ 0.5780334 ]
 [ 0.76510537]
 [ 1.1760837 ]
 [ 0.6645283 ]]

Layer 4:
[0.00018147]



Consenso 11:
------------------------------------------------------------------------

Layer 0:
[[ 0.00698682  0.00678007 -0.02517795 ...  0.01505058  0.0043471
  -0.00546025]
 [-0.00315029 -0.00011694  0.02692681 ...  0.01387444  0.00759512
  -0.01546949]
 [ 0.01014906  0.01590049 -0.01678158 ... -0.00504201 -0.00940951
  -0.02194734]
 ...
 [-0.00768047  0.00159893 -0.01944908 ...  0.01518259 -0.00534465
   0.02323522]
 [-0.02232527 -0.00224181 -0.01138531 ...  0.0057894  -0.00185398
   0.03621534]
 [ 0.00093864  0.01060682 -0.01239383 ... -0.00423517 -0.01145602
   0.0033207 ]]

Layer 1:
[[-1.44524593e-02 -1.70652438e-02  7.81911705e-03  9.93869826e-03
  -4.16449048e-02  2.90277821e-05 -5.97412512e-03  7.99718965e-03
  -2.93521937e-02 -1.58589389e-02 -2.44718604e-02  2.91104987e-03
   5.05470252e-03  6.17376249e-03 -5.33031113e-03  2.49812216e-03
  -7.24329520e-03 -2.05566306e-02  1.79153290e-02  9.45465732e-03
  -1.08404632e-03  4.49665412e-02 -4.25401516e-02  2.45536002e-03
   3.48510519e-02  2.70543527e-02 -3.87907401e-03 -2.52125952e-02
  -2.52604727e-02  1.59682073e-02 -1.20206811e-02 -2.78953165e-02
   5.38978018e-02 -1.28255207e-02 -2.45535467e-02  2.39783153e-02
   6.23696810e-03 -5.33857895e-03 -1.15348045e-02 -2.27795504e-02
  -8.74779001e-03  2.09701117e-02 -3.06440275e-02 -2.42404547e-02
   1.86042802e-03 -2.27128825e-04  1.30980210e-02 -2.95380708e-02
   1.57636330e-02  6.88175065e-03 -3.64513509e-03  5.32594286e-02
  -2.18436066e-02 -2.79890802e-02 -2.47643646e-02  6.18381845e-03
  -6.96965400e-03 -3.90314875e-04  2.01387517e-02  2.55590752e-02
  -1.87629717e-04 -5.32521354e-03 -1.90262385e-02 -4.87806182e-03
  -2.63817143e-02 -9.66752227e-03 -3.88388857e-02  9.30011738e-03
  -4.83986922e-03  1.40630808e-02  1.60471611e-02 -9.43391584e-03
   1.67520512e-02 -1.44791100e-02 -2.40757111e-02 -4.51970671e-04
  -1.80877987e-02  1.00699710e-02 -7.19566969e-03 -4.30410579e-02
  -1.03258779e-02  1.36625683e-02 -2.16657366e-03 -1.82067137e-02
  -2.31372956e-02  2.51334328e-02 -2.16627847e-02  1.65982060e-02
   2.52717175e-02 -2.22753943e-03 -2.63466537e-02 -1.81890558e-02
   1.12374881e-02  1.10449968e-02 -1.66965518e-02  3.40720378e-02
   1.74322946e-03  2.58418638e-03  2.12542899e-02  8.52843106e-04]]

Layer 2:
[0. 0. 0. 0. 0. 0. 0. 0. 0. 0. 0. 0. 0. 0. 0. 0. 0. 0. 0. 0. 0. 0. 0. 0.
 0. 0. 0. 0. 0. 0. 0. 0. 0. 0. 0. 0. 0. 0. 0. 0. 0. 0. 0. 0. 0. 0. 0. 0.
 0. 0. 0. 0. 0. 0. 0. 0. 0. 0. 0. 0. 0. 0. 0. 0. 0. 0. 0. 0. 0. 0. 0. 0.
 0. 0. 0. 0. 0. 0. 0. 0. 0. 0. 0. 0. 0. 0. 0. 0. 0. 0. 0. 0. 0. 0. 0. 0.
 0. 0. 0. 0.]

Layer 3:
[[-1.1794262 ]
 [-1.0233608 ]
 [ 1.2665677 ]
 [ 1.165886  ]
 [-0.6075857 ]
 [-0.10445485]
 [-1.0201746 ]
 [ 1.1394062 ]
 [-0.7946327 ]
 [-1.2271551 ]
 [-0.9932568 ]
 [ 0.75478387]
 [ 0.9737078 ]
 [ 1.1882857 ]
 [-1.0692935 ]
 [ 0.6590237 ]
 [-1.2699732 ]
 [-0.9124751 ]
 [ 1.0975289 ]
 [ 1.3543016 ]
 [-0.4997853 ]
 [ 0.38348663]
 [-0.6215668 ]
 [ 0.6851315 ]
 [ 0.6779011 ]
 [ 0.8724122 ]
 [-1.0402641 ]
 [-0.85762805]
 [-1.0209793 ]
 [ 0.9172071 ]
 [-1.0538284 ]
 [-0.84690833]
 [ 0.36339268]
 [-1.2204089 ]
 [-0.8102327 ]
 [ 0.89511263]
 [ 1.3589338 ]
 [-1.2235398 ]
 [-1.3748162 ]
 [-1.027208  ]
 [-1.1171533 ]
 [ 0.8947695 ]
 [-0.8567375 ]
 [-1.0063772 ]
 [ 0.67289656]
 [-0.00567813]
 [ 1.4678506 ]
 [-0.7622866 ]
 [ 1.0614256 ]
 [ 1.1937516 ]
 [-0.9438563 ]
 [ 0.43265647]
 [-1.0300499 ]
 [-0.80881506]
 [-0.99959475]
 [ 1.1496743 ]
 [-1.1449649 ]
 [-0.132917  ]
 [ 0.97962517]
 [ 0.84487385]
 [-0.06463062]
 [-1.120089  ]
 [-0.9836922 ]
 [-0.82028276]
 [-0.8248472 ]
 [-1.3849095 ]
 [-0.5294832 ]
 [ 1.4544927 ]
 [-1.1408343 ]
 [ 1.2417482 ]
 [ 1.2332876 ]
 [-1.3130338 ]
 [ 1.1873362 ]
 [-1.2170116 ]
 [-0.8235834 ]
 [ 0.07785848]
 [-1.2874484 ]
 [ 1.471439  ]
 [-1.2598383 ]
 [-0.46858957]
 [-1.2240406 ]
 [ 1.1941645 ]
 [-0.6135959 ]
 [-1.0258994 ]
 [-1.2022338 ]
 [ 0.7910102 ]
 [-1.2586012 ]
 [ 0.9478225 ]
 [ 0.9716972 ]
 [-0.60117024]
 [-0.90174407]
 [-1.0784186 ]
 [ 1.2685475 ]
 [ 1.4374965 ]
 [-1.2036169 ]
 [ 0.61745244]
 [ 0.60733855]
 [ 0.7863956 ]
 [ 1.1739757 ]
 [ 0.65831304]]

Layer 4:
[-0.07916689]



Entrenamiento 12:
------------------------------------------------------------------------

Layer 0:
[[ 0.00698682  0.00678007 -0.02517795 ...  0.01505058  0.0043471
  -0.00546025]
 [-0.00315029 -0.00011694  0.02692681 ...  0.01387444  0.00759512
  -0.01546949]
 [ 0.01014906  0.01590049 -0.01678158 ... -0.00504201 -0.00940951
  -0.02194734]
 ...
 [-0.00768047  0.00159893 -0.01944908 ...  0.01518259 -0.00534465
   0.02323522]
 [-0.02232527 -0.00224181 -0.01138531 ...  0.0057894  -0.00185398
   0.03621534]
 [ 0.00093864  0.01060682 -0.01239383 ... -0.00423517 -0.01145602
   0.0033207 ]]

Layer 1:
[[-1.44524593e-02 -1.70652438e-02  7.81911705e-03  9.93869826e-03
  -4.16449048e-02  2.90277821e-05 -5.97412512e-03  7.99718965e-03
  -2.93521937e-02 -1.58589389e-02 -2.44718604e-02  2.91104987e-03
   5.05470252e-03  6.17376249e-03 -5.33031113e-03  2.49812216e-03
  -7.24329520e-03 -2.05566306e-02  1.79153290e-02  9.45465732e-03
  -1.08404632e-03  4.49665412e-02 -4.25401516e-02  2.45536002e-03
   3.48510519e-02  2.70543527e-02 -3.87907401e-03 -2.52125952e-02
  -2.52604727e-02  1.59682073e-02 -1.20206811e-02 -2.78953165e-02
   5.38978018e-02 -1.28255207e-02 -2.45535467e-02  2.39783153e-02
   6.23696810e-03 -5.33857895e-03 -1.15348045e-02 -2.27795504e-02
  -8.74779001e-03  2.09701117e-02 -3.06440275e-02 -2.42404547e-02
   1.86042802e-03 -2.27128825e-04  1.30980210e-02 -2.95380708e-02
   1.57636330e-02  6.88175065e-03 -3.64513509e-03  5.32594286e-02
  -2.18436066e-02 -2.79890802e-02 -2.47643646e-02  6.18381845e-03
  -6.96965400e-03 -3.90314875e-04  2.01387517e-02  2.55590752e-02
  -1.87629717e-04 -5.32521354e-03 -1.90262385e-02 -4.87806182e-03
  -2.63817143e-02 -9.66752227e-03 -3.88388857e-02  9.30011738e-03
  -4.83986922e-03  1.40630808e-02  1.60471611e-02 -9.43391584e-03
