:
------------------------------------------------------------------------



Entrenamiento 0:
------------------------------------------------------------------------

Layer 0:
[[-0.          0.         -0.         ... -0.3624975  -0.
  -0.        ]
 [-0.         -0.33039007  0.         ...  0.         -0.
  -0.        ]
 [ 0.          0.         -0.         ... -0.         -0.
   0.        ]
 ...
 [-0.          0.         -0.         ...  0.34776443 -0.
  -0.        ]
 [-0.3006348   0.          0.         ...  0.30498004  0.
  -0.        ]
 [-0.         -0.          0.         ...  0.          0.
   0.        ]]

Layer 1:
[[-0.04465634 -0.2138357  -0.21365456 -0.06919956  0.05977926 -0.24139829
   0.14602235  0.02451882 -0.07898957 -0.01983353  0.10399872 -0.07696784
   0.05437353 -0.03445886 -0.2074952   0.17576897  0.05966049 -0.05776829
   0.1502833  -0.0259742  -0.15938598 -0.2234387  -0.1519658  -0.16053198
  -0.12040601  0.15176955 -0.13603094  0.1678212   0.10138583  0.18038836
  -0.00682549 -0.09350848  0.10999677 -0.098021   -0.23370817 -0.05032474
   0.1577017  -0.22868754  0.16971838 -0.05750813  0.09434092 -0.16379274
   0.02219254  0.14422187  0.16597939 -0.0411166  -0.07018629 -0.14521876
  -0.22198291 -0.19820774 -0.02039215  0.11808333  0.15107629  0.15627697
  -0.22384414 -0.08266193  0.14907089  0.08323693  0.03858697  0.0281508
   0.16721684 -0.00248411 -0.17294183 -0.08031251 -0.22269553  0.07503578
  -0.1809893   0.05008286 -0.10871841 -0.24004129  0.04751951 -0.16302922
   0.05292013 -0.03471054  0.06674758 -0.20378971 -0.12788239  0.02299684
  -0.08896528 -0.18659155 -0.04721425 -0.03210208  0.06104973  0.09874871
   0.07574078 -0.12814018 -0.21421754 -0.07767969 -0.22332329 -0.23534596
   0.21835712 -0.04545687 -0.11351421 -0.01493476  0.13670567 -0.05990751
  -0.1133246  -0.07162051  0.01819184 -0.16130015]]

Layer 2:
[0. 0. 0. 0. 0. 0. 0. 0. 0. 0. 0. 0. 0. 0. 0. 0. 0. 0. 0. 0. 0. 0. 0. 0.
 0. 0. 0. 0. 0. 0. 0. 0. 0. 0. 0. 0. 0. 0. 0. 0. 0. 0. 0. 0. 0. 0. 0. 0.
 0. 0. 0. 0. 0. 0. 0. 0. 0. 0. 0. 0. 0. 0. 0. 0. 0. 0. 0. 0. 0. 0. 0. 0.
 0. 0. 0. 0. 0. 0. 0. 0. 0. 0. 0. 0. 0. 0. 0. 0. 0. 0. 0. 0. 0. 0. 0. 0.
 0. 0. 0. 0.]

Layer 3:
[[-0.7980471 ]
 [-0.34797603]
 [-0.34110638]
 [-0.407788  ]
 [ 1.7330495 ]
 [-0.42993718]
 [ 0.81737906]
 [ 1.3305379 ]
 [-0.6824825 ]
 [-1.3901109 ]
 [ 0.7771317 ]
 [-0.5259979 ]
 [ 0.94758195]
 [-0.9442023 ]
 [-0.75489336]
 [ 0.47188675]
 [ 1.3751601 ]
 [-0.89418614]
 [ 1.1337383 ]
 [-1.4322956 ]
 [-1.3713939 ]
 [-1.127883  ]
 [-0.66070575]
 [-0.47319922]
 [-0.73824376]
 [ 0.44021103]
 [-0.39007083]
 [ 0.706926  ]
 [ 0.81539696]
 [ 0.3029134 ]
 [-2.2738457 ]
 [-0.57145673]
 [ 0.59016836]
 [-0.98600173]
 [-0.70553076]
 [-0.83592665]
 [ 0.54418486]
 [-0.7238308 ]
 [ 0.73360425]
 [-0.59454453]
 [ 1.1509633 ]
 [-0.68083817]
 [ 1.429241  ]
 [ 0.49441528]
 [ 0.7649595 ]
 [-1.1070687 ]
 [-1.3501997 ]
 [-0.57079285]
 [-0.6002385 ]
 [-0.3546677 ]
 [-1.8568925 ]
 [ 0.79728556]
 [ 0.22192906]
 [ 0.36391526]
 [-0.6436339 ]
 [-1.0431587 ]
 [ 0.7081953 ]
 [ 1.3074784 ]
 [ 1.6265577 ]
 [ 0.72418445]
 [ 0.36941722]
 [-1.4953145 ]
 [-0.7538699 ]
 [-0.6414735 ]
 [-0.5911644 ]
 [ 0.81259835]
 [-0.7886748 ]
 [ 0.45710286]
 [-0.29363564]
 [-0.28041232]
 [ 0.4450646 ]
 [-0.5197262 ]
 [ 1.8646579 ]
 [-2.2689712 ]
 [ 1.3557707 ]
 [-0.39456272]
 [-0.6243208 ]
 [ 0.59468985]
 [-1.7511176 ]
 [-0.5902721 ]
 [-0.96522206]
 [-0.78154665]
 [ 0.76084447]
 [ 0.64240855]
 [ 0.8827389 ]
 [-0.41418   ]
 [-0.6191548 ]
 [-1.1860961 ]
 [-0.44148174]
 [-0.23658693]
 [ 0.6388742 ]
 [-1.2971976 ]
 [-0.5264414 ]
 [-1.3449378 ]
 [ 0.7276136 ]
 [-0.57022876]
 [-1.0629793 ]
 [-0.55861044]
 [ 1.0847269 ]
 [-0.6512881 ]]

Layer 4:
[0.69791186]



Consenso 0:
------------------------------------------------------------------------

Layer 0:
[[ 0.00272145 -0.01708187  0.00139189 ...  0.01824428 -0.01171535
   0.00949234]
 [ 0.01123265 -0.0024333  -0.01990545 ...  0.00737047 -0.01713092
  -0.00299404]
 [ 0.0037539  -0.00448464  0.00678662 ...  0.00973878 -0.023986
   0.02863728]
 ...
 [ 0.01141261 -0.00029585  0.01169052 ...  0.02068632 -0.00660001
   0.01181338]
 [-0.02847854  0.00485179  0.0081047  ...  0.01666359  0.00414153
   0.03719831]
 [-0.00688016  0.00786971  0.01387178 ...  0.01992838  0.00096866
   0.01138105]]

Layer 1:
[[-0.00279849  0.00721254  0.02658032  0.0062486  -0.00827156 -0.02367544
   0.00071063  0.0114194   0.0259886  -0.03228841  0.01813451  0.02664777
   0.00952998 -0.01158839 -0.01244008 -0.0041783   0.03732148 -0.0179045
   0.03327128  0.01667608  0.01655019 -0.0254554  -0.03112454  0.00152126
  -0.00202129  0.02465397 -0.01309077  0.01125976  0.00804403 -0.00362701
   0.01885927 -0.04125678 -0.00899241 -0.02146396 -0.0273823  -0.0173491
   0.02468773 -0.00024142  0.00069331  0.03665145  0.04742758  0.00873017
  -0.02808724 -0.01293796 -0.01970321 -0.01192272 -0.00387791  0.00292699
   0.01410353  0.00425568 -0.01167694  0.02608738 -0.01011399 -0.03584643
  -0.02647685 -0.00071017  0.00602774 -0.017038    0.00338863  0.00105865
   0.01116741  0.01614594  0.03810063  0.00156181  0.02307381  0.00172498
  -0.04204983  0.01604292  0.03283018 -0.02943478 -0.00149914  0.00526962
   0.01688156 -0.0064256  -0.0243649   0.01555662 -0.02264322  0.01120633
   0.01376047  0.0070771   0.00126946  0.00079756  0.03438422  0.01911154
   0.0154646   0.02875876 -0.02608689  0.03259369  0.02755022  0.0099219
  -0.04332212  0.02107147  0.00269598  0.02896601 -0.0010782  -0.02525827
   0.0374118  -0.02382304  0.00641036  0.0003643 ]]

Layer 2:
[0. 0. 0. 0. 0. 0. 0. 0. 0. 0. 0. 0. 0. 0. 0. 0. 0. 0. 0. 0. 0. 0. 0. 0.
 0. 0. 0. 0. 0. 0. 0. 0. 0. 0. 0. 0. 0. 0. 0. 0. 0. 0. 0. 0. 0. 0. 0. 0.
 0. 0. 0. 0. 0. 0. 0. 0. 0. 0. 0. 0. 0. 0. 0. 0. 0. 0. 0. 0. 0. 0. 0. 0.
 0. 0. 0. 0. 0. 0. 0. 0. 0. 0. 0. 0. 0. 0. 0. 0. 0. 0. 0. 0. 0. 0. 0. 0.
 0. 0. 0. 0.]

Layer 3:
[[-0.1679123 ]
 [-0.01319911]
 [ 0.02684263]
 [ 0.08558244]
 [-0.11143824]
 [ 0.01497298]
 [-0.03553721]
 [ 0.04169132]
 [ 0.12774944]
 [-0.04482153]
 [ 0.06031018]
 [ 0.01122149]
 [ 0.1644759 ]
 [ 0.0243127 ]
 [ 0.0960907 ]
 [-0.10712633]
 [-0.01366754]
 [-0.15276468]
 [ 0.02832688]
 [ 0.01456872]
 [-0.1141181 ]
 [-0.0373899 ]
 [-0.25208107]
 [-0.08330532]
 [-0.023965  ]
 [-0.01875769]
 [ 0.0229821 ]
 [-0.01622948]
 [ 0.07868743]
 [-0.06901302]
 [ 0.02796642]
 [-0.04713342]
 [ 0.18723962]
 [-0.14637583]
 [-0.00570795]
 [-0.12782133]
 [ 0.03893449]
 [ 0.01159122]
 [ 0.02509805]
 [ 0.01904182]
 [ 0.07954374]
 [-0.06715363]
 [-0.1197752 ]
 [ 0.04460705]
 [-0.14015813]
 [-0.11387305]
 [-0.07978762]
 [ 0.10444608]
 [ 0.0246687 ]
 [-0.13899548]
 [-0.06874444]
 [-0.00643543]
 [-0.07264759]
 [ 0.02629458]
 [ 0.04374194]
 [-0.07197221]
 [ 0.06170759]
 [ 0.11121371]
 [ 0.01133788]
 [ 0.02132078]
 [ 0.08215681]
 [-0.05351133]
 [ 0.05720147]
 [ 0.07070479]
 [ 0.05500219]
 [ 0.13636497]
 [-0.21246193]
 [ 0.120445  ]
 [-0.0601691 ]
 [ 0.03867733]
 [ 0.01589946]
 [-0.18221165]
 [ 0.0893703 ]
 [-0.05327358]
 [ 0.04578179]
 [-0.05041085]
 [-0.0003122 ]
 [ 0.085885  ]
 [ 0.00186298]
 [ 0.02315505]
 [ 0.02305563]
 [ 0.10417879]
 [ 0.21387394]
 [ 0.04221962]
 [ 0.13672142]
 [ 0.02912611]
 [-0.10061261]
 [-0.06885942]
 [ 0.06086167]
 [-0.1711927 ]
 [-0.12527303]
 [-0.05301618]
 [ 0.0055339 ]
 [ 0.120844  ]
 [-0.03027248]
 [ 0.01410873]
 [ 0.20271575]
 [-0.14740007]
 [ 0.2225174 ]
 [-0.03708378]]

Layer 4:
[0.2952188]



Entrenamiento 1:
------------------------------------------------------------------------

Layer 0:
[[ 0.00272145 -0.01708187  0.00139189 ...  0.01824428 -0.01171535
   0.00949234]
 [ 0.01123265 -0.0024333  -0.01990545 ...  0.00737047 -0.01713092
  -0.00299404]
 [ 0.0037539  -0.00448464  0.00678662 ...  0.00973878 -0.023986
   0.02863728]
 ...
 [ 0.01141261 -0.00029585  0.01169052 ...  0.02068632 -0.00660001
   0.01181338]
 [-0.02847854  0.00485179  0.0081047  ...  0.01666359  0.00414153
   0.03719831]
 [-0.00688016  0.00786971  0.01387178 ...  0.01992838  0.00096866
   0.01138105]]

Layer 1:
[[-0.00279849  0.00721254  0.02658032  0.0062486  -0.00827156 -0.02367544
   0.00071063  0.0114194   0.0259886  -0.03228841  0.01813451  0.02664777
   0.00952998 -0.01158839 -0.01244008 -0.0041783   0.03732148 -0.0179045
   0.03327128  0.01667608  0.01655019 -0.0254554  -0.03112454  0.00152126
  -0.00202129  0.02465397 -0.01309077  0.01125976  0.00804403 -0.00362701
   0.01885927 -0.04125678 -0.00899241 -0.02146396 -0.0273823  -0.0173491
   0.02468773 -0.00024142  0.00069331  0.03665145  0.04742758  0.00873017
  -0.02808724 -0.01293796 -0.01970321 -0.01192272 -0.00387791  0.00292699
   0.01410353  0.00425568 -0.01167694  0.02608738 -0.01011399 -0.03584643
  -0.02647685 -0.00071017  0.00602774 -0.017038    0.00338863  0.00105865
   0.01116741  0.01614594  0.03810063  0.00156181  0.02307381  0.00172498
  -0.04204983  0.01604292  0.03283018 -0.02943478 -0.00149914  0.00526962
   0.01688156 -0.0064256  -0.0243649   0.01555662 -0.02264322  0.01120633
   0.01376047  0.0070771   0.00126946  0.00079756  0.03438422  0.01911154
   0.0154646   0.02875876 -0.02608689  0.03259369  0.02755022  0.0099219
  -0.04332212  0.02107147  0.00269598  0.02896601 -0.0010782  -0.02525827
   0.0374118  -0.02382304  0.00641036  0.0003643 ]]

Layer 2:
[0. 0. 0. 0. 0. 0. 0. 0. 0. 0. 0. 0. 0. 0. 0. 0. 0. 0. 0. 0. 0. 0. 0. 0.
 0. 0. 0. 0. 0. 0. 0. 0. 0. 0. 0. 0. 0. 0. 0. 0. 0. 0. 0. 0. 0. 0. 0. 0.
 0. 0. 0. 0. 0. 0. 0. 0. 0. 0. 0. 0. 0. 0. 0. 0. 0. 0. 0. 0. 0. 0. 0. 0.
 0. 0. 0. 0. 0. 0. 0. 0. 0. 0. 0. 0. 0. 0. 0. 0. 0. 0. 0. 0. 0. 0. 0. 0.
 0. 0. 0. 0.]

Layer 3:
[[-1.2392684 ]
 [ 1.5060163 ]
 [ 1.3523097 ]
 [ 1.4827058 ]
 [-1.4312228 ]
 [-1.3194721 ]
 [ 0.07351056]
 [ 1.6334482 ]
 [ 1.4532092 ]
 [-1.2928784 ]
 [ 1.6072272 ]
 [ 1.3199847 ]
 [ 1.8349637 ]
 [-1.5760942 ]
 [-1.443426  ]
 [-1.2300973 ]
 [ 1.1625189 ]
 [-1.7730613 ]
 [ 1.2716998 ]
 [ 1.4505488 ]
 [ 1.2913454 ]
 [-1.3307346 ]
 [-1.5426521 ]
 [ 0.4893449 ]
 [-0.5023161 ]
 [ 1.3915807 ]
 [-1.558826  ]
 [ 1.5405616 ]
 [ 1.5951782 ]
 [-1.1913892 ]
 [ 1.7976687 ]
 [-1.2126675 ]
 [-1.2960624 ]
 [-1.5946537 ]
 [-1.2727908 ]
 [-1.6899029 ]
 [ 1.4181138 ]
 [-0.21863165]
 [ 0.04592008]
 [ 1.2068717 ]
 [ 1.184373  ]
 [ 1.4570391 ]
 [-1.4008135 ]
 [-1.5660856 ]
 [-1.5127586 ]
 [-1.8717719 ]
 [-1.1473384 ]
 [ 0.99378717]
 [ 1.6037803 ]
 [ 0.9426468 ]
 [-1.6943177 ]
 [ 1.3528107 ]
 [-1.6055375 ]
 [-1.1716567 ]
 [-1.2897455 ]
 [-0.35840133]
 [ 1.5134284 ]
 [-1.3573471 ]
 [ 1.1381843 ]
 [ 0.5610846 ]
 [ 1.7896837 ]
 [ 2.2599912 ]
 [ 1.2170955 ]
 [ 0.37068906]
 [ 1.4217318 ]
 [ 0.7512026 ]
 [-1.4052862 ]
 [ 1.7055993 ]
 [ 1.1296881 ]
 [-1.234569  ]
 [-0.7752498 ]
 [ 1.1380899 ]
 [ 1.4743829 ]
 [-1.16205   ]
 [-1.1734852 ]
 [ 1.5446445 ]
 [-1.4040473 ]
 [ 1.7425487 ]
 [ 1.403374  ]
 [ 1.5109466 ]
 [ 0.488101  ]
 [ 0.541199  ]
 [ 1.4560864 ]
 [ 1.4697381 ]
 [ 1.7887098 ]
 [ 1.2841893 ]
 [-1.4711932 ]
 [ 1.1383654 ]
 [ 1.3852216 ]
 [ 1.4644003 ]
 [-1.25318   ]
 [ 1.2550287 ]
 [ 0.8107745 ]
 [ 1.338753  ]
 [-0.47537056]
 [-1.457582  ]
 [ 1.4360999 ]
 [-1.6197202 ]
 [ 1.7258646 ]
 [ 0.05829133]]

Layer 4:
[0.6088093]



Consenso 1:
------------------------------------------------------------------------

Layer 0:
[[ 0.00270135 -0.01715807  0.00140286 ...  0.01832904 -0.01175346
   0.00945641]
 [ 0.0112934  -0.00237514 -0.01980893 ...  0.00737215 -0.0172146
  -0.00295218]
 [ 0.00362545 -0.00476564  0.0068256  ...  0.00976534 -0.02411393
   0.02863988]
 ...
 [ 0.01135566 -0.00029283  0.01171494 ...  0.0209193  -0.00656958
   0.01198234]
 [-0.02855277  0.00482503  0.00820359 ...  0.01664615  0.00402119
   0.03722225]
 [-0.00688874  0.00770254  0.01396105 ...  0.02012612  0.00094617
   0.01136662]]

Layer 1:
[[-0.00255782  0.00754917  0.02643152  0.0060696  -0.0085958  -0.02392296
   0.00074896  0.01151367  0.02589121 -0.03224701  0.01809338  0.02664755
   0.00945374 -0.01139259 -0.01259123 -0.00413222  0.03733188 -0.01783258
   0.0331684   0.01667968  0.01656327 -0.02554484 -0.03114914  0.00142516
  -0.00189227  0.02472452 -0.01319668  0.01113069  0.00814249 -0.0036271
   0.01880808 -0.0415421  -0.00897603 -0.02149275 -0.02730061 -0.01729415
   0.024593   -0.00021614  0.00055709  0.03656548  0.04747924  0.00872671
  -0.02809723 -0.01314444 -0.01971802 -0.01212895 -0.00402641  0.00279688
   0.01427326  0.00444067 -0.01138166  0.02621388 -0.00988661 -0.03578408
  -0.02652778 -0.00069432  0.00610735 -0.01704064  0.0033174   0.00092781
   0.01120476  0.01607617  0.03839884  0.00154298  0.02315263  0.00160305
  -0.04196393  0.01621049  0.03283529 -0.02942184 -0.00157995  0.00522429
   0.01682558 -0.00631528 -0.02435966  0.01560334 -0.02286506  0.01096134
   0.01375583  0.00705891  0.00120682  0.00068567  0.03419279  0.01914083
   0.01557202  0.02844097 -0.02605305  0.03251439  0.02761467  0.0096679
  -0.04335122  0.02100402  0.00262473  0.02900758 -0.00114538 -0.02518102
   0.03737204 -0.0241761   0.00671847  0.00029636]]

Layer 2:
[0. 0. 0. 0. 0. 0. 0. 0. 0. 0. 0. 0. 0. 0. 0. 0. 0. 0. 0. 0. 0. 0. 0. 0.
 0. 0. 0. 0. 0. 0. 0. 0. 0. 0. 0. 0. 0. 0. 0. 0. 0. 0. 0. 0. 0. 0. 0. 0.
 0. 0. 0. 0. 0. 0. 0. 0. 0. 0. 0. 0. 0. 0. 0. 0. 0. 0. 0. 0. 0. 0. 0. 0.
 0. 0. 0. 0. 0. 0. 0. 0. 0. 0. 0. 0. 0. 0. 0. 0. 0. 0. 0. 0. 0. 0. 0. 0.
 0. 0. 0. 0.]

Layer 3:
[[-0.6102847 ]
 [ 0.68305856]
 [ 0.9353041 ]
 [ 0.7486907 ]
 [-0.8854523 ]
 [-0.886909  ]
 [-0.00419084]
 [ 0.8950947 ]
 [ 1.0380908 ]
 [-0.9327502 ]
 [ 1.0095679 ]
 [ 0.89371616]
 [ 0.96577317]
 [-0.83752894]
 [-0.7642065 ]
 [-0.60318106]
 [ 0.8583581 ]
 [-1.1158739 ]
 [ 0.920457  ]
 [ 0.9031298 ]
 [ 0.8133994 ]
 [-0.9300618 ]
 [-1.1512449 ]
 [ 0.16035965]
 [-0.15224916]
 [ 0.90108794]
 [-0.8728244 ]
 [ 0.87148136]
 [ 0.85421354]
 [-0.5859498 ]
 [ 0.9930368 ]
 [-0.8914641 ]
 [-0.6265651 ]
 [-1.1004446 ]
 [-0.8872739 ]
 [-1.0774096 ]
 [ 0.95338094]
 [-0.09304942]
 [-0.01981571]
 [ 0.87943125]
 [ 0.8871457 ]
 [ 0.7529136 ]
 [-1.0615766 ]
 [-0.86668825]
 [-1.0157533 ]
 [-0.968398  ]
 [-0.5315104 ]
 [ 0.4626893 ]
 [ 0.9210879 ]
 [ 0.29920605]
 [-0.9341435 ]
 [ 0.91482323]
 [-0.9289189 ]
 [-0.8582732 ]
 [-0.8426824 ]
 [-0.17205706]
 [ 0.7108176 ]
 [-0.8139355 ]
 [ 0.53827727]
 [ 0.22516474]
 [ 0.94901145]
 [ 0.8935427 ]
 [ 0.92253476]
 [ 0.14379579]
 [ 0.972953  ]
 [ 0.3462049 ]
 [-1.084172  ]
 [ 1.0761105 ]
 [ 0.79472375]
 [-0.82170737]
 [-0.3411283 ]
 [ 0.44029817]
 [ 0.99507713]
 [-0.74717414]
 [-0.8544275 ]
 [ 0.876918  ]
 [-0.90718526]
 [ 0.9410993 ]
 [ 0.9662134 ]
 [ 0.6924971 ]
 [ 0.21873139]
 [ 0.27637383]
 [ 1.0824448 ]
 [ 0.9540761 ]
 [ 1.1267644 ]
 [ 0.92399496]
 [-1.0292277 ]
 [ 0.8121956 ]
 [ 0.9808334 ]
 [ 0.6486508 ]
 [-0.9688716 ]
 [ 0.86111146]
 [ 0.316188  ]
 [ 1.0087805 ]
 [-0.23660024]
 [-0.96406734]
 [ 1.1154727 ]
 [-1.0811173 ]
 [ 0.9057751 ]
 [-0.03371721]]

Layer 4:
[0.24614765]



Entrenamiento 2:
------------------------------------------------------------------------

Layer 0:
[[ 0.00270135 -0.01715807  0.00140286 ...  0.01832904 -0.01175346
   0.00945641]
 [ 0.0112934  -0.00237514 -0.01980893 ...  0.00737215 -0.0172146
  -0.00295218]
 [ 0.00362545 -0.00476564  0.0068256  ...  0.00976534 -0.02411393
   0.02863988]
 ...
 [ 0.01135566 -0.00029283  0.01171494 ...  0.0209193  -0.00656958
   0.01198234]
 [-0.02855277  0.00482503  0.00820359 ...  0.01664615  0.00402119
   0.03722225]
 [-0.00688874  0.00770254  0.01396105 ...  0.02012612  0.00094617
   0.01136662]]

Layer 1:
[[-0.00255782  0.00754917  0.02643152  0.0060696  -0.0085958  -0.02392296
   0.00074896  0.01151367  0.02589121 -0.03224701  0.01809338  0.02664755
   0.00945374 -0.01139259 -0.01259123 -0.00413222  0.03733188 -0.01783258
   0.0331684   0.01667968  0.01656327 -0.02554484 -0.03114914  0.00142516
  -0.00189227  0.02472452 -0.01319668  0.01113069  0.00814249 -0.0036271
   0.01880808 -0.0415421  -0.00897603 -0.02149275 -0.02730061 -0.01729415
   0.024593   -0.00021614  0.00055709  0.03656548  0.04747924  0.00872671
  -0.02809723 -0.01314444 -0.01971802 -0.01212895 -0.00402641  0.00279688
   0.01427326  0.00444067 -0.01138166  0.02621388 -0.00988661 -0.03578408
  -0.02652778 -0.00069432  0.00610735 -0.01704064  0.0033174   0.00092781
   0.01120476  0.01607617  0.03839884  0.00154298  0.02315263  0.00160305
  -0.04196393  0.01621049  0.03283529 -0.02942184 -0.00157995  0.00522429
   0.01682558 -0.00631528 -0.02435966  0.01560334 -0.02286506  0.01096134
   0.01375583  0.00705891  0.00120682  0.00068567  0.03419279  0.01914083
   0.01557202  0.02844097 -0.02605305  0.03251439  0.02761467  0.0096679
  -0.04335122  0.02100402  0.00262473  0.02900758 -0.00114538 -0.02518102
   0.03737204 -0.0241761   0.00671847  0.00029636]]

Layer 2:
[0. 0. 0. 0. 0. 0. 0. 0. 0. 0. 0. 0. 0. 0. 0. 0. 0. 0. 0. 0. 0. 0. 0. 0.
 0. 0. 0. 0. 0. 0. 0. 0. 0. 0. 0. 0. 0. 0. 0. 0. 0. 0. 0. 0. 0. 0. 0. 0.
 0. 0. 0. 0. 0. 0. 0. 0. 0. 0. 0. 0. 0. 0. 0. 0. 0. 0. 0. 0. 0. 0. 0. 0.
 0. 0. 0. 0. 0. 0. 0. 0. 0. 0. 0. 0. 0. 0. 0. 0. 0. 0. 0. 0. 0. 0. 0. 0.
 0. 0. 0. 0.]

Layer 3:
[[-1.4100478 ]
 [ 1.9388117 ]
 [ 1.279874  ]
 [ 1.8400302 ]
 [-1.8568796 ]
 [-1.2171824 ]
 [ 0.13157406]
 [ 1.8746722 ]
 [ 1.3783394 ]
 [-1.0541334 ]
 [ 1.7542958 ]
 [ 1.1950849 ]
 [ 2.2107637 ]
 [-1.7968812 ]
 [-1.5880479 ]
 [-1.4923166 ]
 [ 0.9923421 ]
 [-1.991573  ]
 [ 1.0964221 ]
 [ 1.5257084 ]
 [ 1.4923784 ]
 [-1.2218322 ]
 [-1.3792835 ]
 [ 0.70777947]
 [-0.7120229 ]
 [ 1.3573104 ]
 [-1.7585479 ]
 [ 1.7739748 ]
 [ 1.807251  ]
 [-1.4402418 ]
 [ 1.7704049 ]
 [-0.86413616]
 [-1.4422299 ]
 [-1.6577822 ]
 [-1.0835767 ]
 [-1.8411463 ]
 [ 1.367918  ]
 [-0.26156968]
 [ 0.08328965]
 [ 0.9524218 ]
 [ 0.7808786 ]
 [ 1.6902604 ]
 [-1.3267593 ]
 [-1.8748419 ]
 [-1.4706161 ]
 [-2.2308667 ]
 [-1.5581732 ]
 [ 1.2629646 ]
 [ 1.8242697 ]
 [ 1.437538  ]
 [-1.8752363 ]
 [ 1.2675909 ]
 [-1.8756388 ]
 [-0.9626623 ]
 [-1.1531249 ]
 [-0.44755787]
 [ 1.8903953 ]
 [-1.5423988 ]
 [ 1.3919806 ]
 [ 0.6219136 ]
 [ 2.2143528 ]
 [ 1.884534  ]
 [ 0.98236305]
 [ 0.663641  ]
 [ 1.3921065 ]
 [ 0.9419859 ]
 [-1.1249794 ]
 [ 1.8866307 ]
 [ 0.8847515 ]
 [-1.0344131 ]
 [-1.0386245 ]
 [ 1.4510534 ]
 [ 1.6363467 ]
 [-1.6432478 ]
 [-1.1800984 ]
 [ 1.7926204 ]
 [-1.340242  ]
 [ 2.0159645 ]
 [ 1.8112777 ]
 [ 1.9420903 ]
 [ 0.6297248 ]
 [ 0.66517925]
 [ 1.1967027 ]
 [ 1.4689682 ]
 [ 2.0960717 ]
 [ 1.1459986 ]
 [-1.418458  ]
 [ 0.9668453 ]
 [ 1.3122252 ]
 [ 1.8547419 ]
 [-0.9396684 ]
 [ 1.2953558 ]
 [ 1.1692338 ]
 [ 1.236294  ]
 [-0.68357944]
 [-1.5161706 ]
 [ 1.2886107 ]
 [-1.6060096 ]
 [ 2.036536  ]
 [ 0.17906564]]

Layer 4:
[-0.15824194]



Consenso 2:
------------------------------------------------------------------------

Layer 0:
[[ 0.00270051 -0.01716082  0.00140323 ...  0.01833214 -0.01175525
   0.00945506]
 [ 0.01129558 -0.00237317 -0.01980573 ...  0.00737231 -0.01721765
  -0.00295083]
 [ 0.00362071 -0.00477572  0.00682729 ...  0.00976636 -0.02411826
   0.02864008]
 ...
 [ 0.01135343 -0.00029278  0.01171586 ...  0.02092758 -0.00656873
   0.01198863]
 [-0.02855554  0.00482413  0.0082072  ...  0.01664564  0.00401736
   0.03722306]
 [-0.00688903  0.00769644  0.01396399 ...  0.0201334   0.00094546
   0.01136606]]

Layer 1:
[[-0.00254916  0.00756114  0.02642589  0.00606327 -0.00860745 -0.02393168
   0.00075056  0.01151682  0.02588735 -0.03224602  0.01809179  0.02664751
   0.00945156 -0.01138531 -0.01259676 -0.0041304   0.03733201 -0.01783025
   0.03316442  0.01667935  0.01656423 -0.02554827 -0.03115008  0.0014214
  -0.00188747  0.02472731 -0.01320022  0.01112601  0.00814588 -0.00362719
   0.01880644 -0.04155236 -0.00897534 -0.0214938  -0.02729758 -0.01729228
   0.02458981 -0.00021528  0.00055247  0.03656212  0.04748116  0.00872625
  -0.02809723 -0.01315157 -0.01971857 -0.01213623 -0.00403137  0.00279212
   0.01427903  0.00444725 -0.01137128  0.02621857 -0.00987874 -0.03578177
  -0.02652962 -0.000694    0.00611023 -0.01704076  0.00331485  0.0009234
   0.01120602  0.01607373  0.0384095   0.00154248  0.0231554   0.0015988
  -0.04196064  0.01621636  0.0328357  -0.02942073 -0.00158291  0.00522243
   0.0168239  -0.00631108 -0.02435954  0.01560518 -0.02287277  0.01095268
   0.01375583  0.0070585   0.00120478  0.00068181  0.03418582  0.01914191
   0.01557642  0.02842965 -0.02605241  0.03251144  0.02761672  0.00965894
  -0.04335194  0.02100132  0.00262156  0.02900945 -0.00114769 -0.02517819
   0.03737058 -0.02418905  0.00672939  0.00029409]]

Layer 2:
[0. 0. 0. 0. 0. 0. 0. 0. 0. 0. 0. 0. 0. 0. 0. 0. 0. 0. 0. 0. 0. 0. 0. 0.
 0. 0. 0. 0. 0. 0. 0. 0. 0. 0. 0. 0. 0. 0. 0. 0. 0. 0. 0. 0. 0. 0. 0. 0.
 0. 0. 0. 0. 0. 0. 0. 0. 0. 0. 0. 0. 0. 0. 0. 0. 0. 0. 0. 0. 0. 0. 0. 0.
 0. 0. 0. 0. 0. 0. 0. 0. 0. 0. 0. 0. 0. 0. 0. 0. 0. 0. 0. 0. 0. 0. 0. 0.
 0. 0. 0. 0.]

Layer 3:
[[-0.8205865 ]
 [ 1.1248724 ]
 [ 0.8880667 ]
 [ 1.0860779 ]
 [-1.2037373 ]
 [-0.804359  ]
 [ 0.03659052]
 [ 1.2098856 ]
 [ 0.9879474 ]
 [-0.71642166]
 [ 1.2014676 ]
 [ 0.8111817 ]
 [ 1.456486  ]
 [-1.1250588 ]
 [-0.98156506]
 [-0.8128288 ]
 [ 0.6754463 ]
 [-1.4208544 ]
 [ 0.76317877]
 [ 1.0056232 ]
 [ 0.9697463 ]
 [-0.8389571 ]
 [-1.0237902 ]
 [ 0.313014  ]
 [-0.3349405 ]
 [ 0.94484687]
 [-1.1321983 ]
 [ 1.1155376 ]
 [ 1.1142895 ]
 [-0.77813303]
 [ 1.1797234 ]
 [-0.5678909 ]
 [-0.80275047]
 [-1.2086823 ]
 [-0.7134585 ]
 [-1.2989414 ]
 [ 0.9533544 ]
 [-0.12499677]
 [ 0.06723493]
 [ 0.63129044]
 [ 0.50131613]
 [ 1.008295  ]
 [-0.9488758 ]
 [-1.2073225 ]
 [-1.0223032 ]
 [-1.4690311 ]
 [-0.851691  ]
 [ 0.6940555 ]
 [ 1.2079971 ]
 [ 0.67368567]
 [-1.1966566 ]
 [ 0.86770236]
 [-1.1796832 ]
 [-0.6336224 ]
 [-0.76727057]
 [-0.25417092]
 [ 1.09262   ]
 [-1.0148298 ]
 [ 0.7730515 ]
 [ 0.31140292]
 [ 1.4570771 ]
 [ 1.1476905 ]
 [ 0.6641428 ]
 [ 0.36467707]
 [ 0.970749  ]
 [ 0.53224796]
 [-0.81546277]
 [ 1.3070389 ]
 [ 0.55427694]
 [-0.6765561 ]
 [-0.51512533]
 [ 0.7177993 ]
 [ 1.1485268 ]
 [-1.105022  ]
 [-0.7894533 ]
 [ 1.1976956 ]
 [-0.9071812 ]
 [ 1.3164356 ]
 [ 1.2558031 ]
 [ 1.1222497 ]
 [ 0.3159043 ]
 [ 0.3797575 ]
 [ 0.86283225]
 [ 0.99349296]
 [ 1.4710988 ]
 [ 0.77818763]
 [-1.0187811 ]
 [ 0.62470204]
 [ 0.919622  ]
 [ 1.1050185 ]
 [-0.64300996]
 [ 0.8541312 ]
 [ 0.598801  ]
 [ 0.87398446]
 [-0.35300255]
 [-1.0831277 ]
 [ 0.95818424]
 [-1.1607955 ]
 [ 1.2518436 ]
 [ 0.08408226]]

Layer 4:
[-0.19246116]



Entrenamiento 3:
------------------------------------------------------------------------

Layer 0:
[[ 0.00270051 -0.01716082  0.00140323 ...  0.01833214 -0.01175525
   0.00945506]
 [ 0.01129558 -0.00237317 -0.01980573 ...  0.00737231 -0.01721765
  -0.00295083]
 [ 0.00362071 -0.00477572  0.00682729 ...  0.00976636 -0.02411826
   0.02864008]
 ...
 [ 0.01135343 -0.00029278  0.01171586 ...  0.02092758 -0.00656873
   0.01198863]
 [-0.02855554  0.00482413  0.0082072  ...  0.01664564  0.00401736
   0.03722306]
 [-0.00688903  0.00769644  0.01396399 ...  0.0201334   0.00094546
   0.01136606]]

Layer 1:
[[-0.00254916  0.00756114  0.02642589  0.00606327 -0.00860745 -0.02393168
   0.00075056  0.01151682  0.02588735 -0.03224602  0.01809179  0.02664751
   0.00945156 -0.01138531 -0.01259676 -0.0041304   0.03733201 -0.01783025
   0.03316442  0.01667935  0.01656423 -0.02554827 -0.03115008  0.0014214
  -0.00188747  0.02472731 -0.01320022  0.01112601  0.00814588 -0.00362719
   0.01880644 -0.04155236 -0.00897534 -0.0214938  -0.02729758 -0.01729228
   0.02458981 -0.00021528  0.00055247  0.03656212  0.04748116  0.00872625
  -0.02809723 -0.01315157 -0.01971857 -0.01213623 -0.00403137  0.00279212
   0.01427903  0.00444725 -0.01137128  0.02621857 -0.00987874 -0.03578177
  -0.02652962 -0.000694    0.00611023 -0.01704076  0.00331485  0.0009234
   0.01120602  0.01607373  0.0384095   0.00154248  0.0231554   0.0015988
  -0.04196064  0.01621636  0.0328357  -0.02942073 -0.00158291  0.00522243
   0.0168239  -0.00631108 -0.02435954  0.01560518 -0.02287277  0.01095268
   0.01375583  0.0070585   0.00120478  0.00068181  0.03418582  0.01914191
   0.01557642  0.02842965 -0.02605241  0.03251144  0.02761672  0.00965894
  -0.04335194  0.02100132  0.00262156  0.02900945 -0.00114769 -0.02517819
   0.03737058 -0.02418905  0.00672939  0.00029409]]

Layer 2:
[0. 0. 0. 0. 0. 0. 0. 0. 0. 0. 0. 0. 0. 0. 0. 0. 0. 0. 0. 0. 0. 0. 0. 0.
 0. 0. 0. 0. 0. 0. 0. 0. 0. 0. 0. 0. 0. 0. 0. 0. 0. 0. 0. 0. 0. 0. 0. 0.
 0. 0. 0. 0. 0. 0. 0. 0. 0. 0. 0. 0. 0. 0. 0. 0. 0. 0. 0. 0. 0. 0. 0. 0.
 0. 0. 0. 0. 0. 0. 0. 0. 0. 0. 0. 0. 0. 0. 0. 0. 0. 0. 0. 0. 0. 0. 0. 0.
 0. 0. 0. 0.]

Layer 3:
[[-1.7085181 ]
 [ 2.4386296 ]
 [ 1.1458956 ]
 [ 2.2493281 ]
 [-2.2191129 ]
 [-1.0463816 ]
 [ 0.2176157 ]
 [ 2.196096  ]
 [ 1.2398672 ]
 [-0.725384  ]
 [ 1.9104049 ]
 [ 1.0194291 ]
 [ 2.741927  ]
 [-2.0844183 ]
 [-1.7854651 ]
 [-1.7891508 ]
 [ 0.70543194]
 [-2.2747488 ]
 [ 0.8349904 ]
 [ 1.5773561 ]
 [ 1.6148881 ]
 [-1.040404  ]
 [-1.1515948 ]
 [ 0.97442174]
 [-1.0467161 ]
 [ 1.3279307 ]
 [-2.0032716 ]
 [ 2.0135715 ]
 [ 2.0801184 ]
 [-1.7050762 ]
 [ 1.889315  ]
 [-0.41387466]
 [-1.6012386 ]
 [-1.7077649 ]
 [-0.8051989 ]
 [-2.0281875 ]
 [ 1.2902515 ]
 [-0.32653198]
 [ 0.22062793]
 [ 0.5866667 ]
 [ 0.26292735]
 [ 1.9476323 ]
 [-1.1160456 ]
 [-2.2149045 ]
 [-1.4038414 ]
 [-2.7532704 ]
 [-2.014693  ]
 [ 1.6196781 ]
 [ 2.09656   ]
 [ 1.9586502 ]
 [-2.133655  ]
 [ 1.1341612 ]
 [-2.1322541 ]
 [-0.62459207]
 [-0.98628765]
 [-0.60087353]
 [ 2.3463442 ]
 [-1.7088792 ]
 [ 1.7112736 ]
 [ 0.77910477]
 [ 2.7541463 ]
 [ 2.048386  ]
 [ 0.6063883 ]
 [ 1.0447011 ]
 [ 1.3116724 ]
 [ 1.2621728 ]
 [-0.736696  ]
 [ 2.0879402 ]
 [ 0.5285595 ]
 [-0.78735393]
 [-1.3109379 ]
 [ 1.795274  ]
 [ 1.7607874 ]
 [-2.1055725 ]
 [-1.033568  ]
 [ 2.0986376 ]
 [-1.2630862 ]
 [ 2.403292  ]
 [ 2.1022685 ]
 [ 2.4477942 ]
 [ 0.81031984]
 [ 0.848655  ]
 [ 0.8638745 ]
 [ 1.4433762 ]
 [ 2.4314713 ]
 [ 0.8994924 ]
 [-1.3267336 ]
 [ 0.671404  ]
 [ 1.162361  ]
 [ 2.3475764 ]
 [-0.48727858]
 [ 1.2176304 ]
 [ 1.6116246 ]
 [ 1.0031103 ]
 [-0.8946767 ]
 [-1.5729508 ]
 [ 1.0253075 ]
 [-1.618514  ]
 [ 2.4308279 ]
 [ 0.37121087]]

Layer 4:
[-0.5489461]



Consenso 3:
------------------------------------------------------------------------

Layer 0:
[[ 0.00270047 -0.01716092  0.00140324 ...  0.01833225 -0.01175531
   0.00945501]
 [ 0.01129566 -0.00237309 -0.01980561 ...  0.00737232 -0.01721776
  -0.00295078]
 [ 0.00362054 -0.00477609  0.00682736 ...  0.0097664  -0.02411842
   0.02864008]
 ...
 [ 0.01135335 -0.00029278  0.0117159  ...  0.02092791 -0.0065687
   0.01198887]
 [-0.02855564  0.00482409  0.00820735 ...  0.01664562  0.00401722
   0.03722309]
 [-0.00688905  0.00769622  0.0139641  ...  0.0201337   0.00094544
   0.01136603]]

Layer 1:
[[-0.00254884  0.00756157  0.02642566  0.00606304 -0.00860788 -0.02393202
   0.00075061  0.01151695  0.02588721 -0.03224597  0.01809172  0.02664751
   0.00945148 -0.01138504 -0.01259696 -0.00413033  0.03733201 -0.01783015
   0.03316425  0.01667935  0.01656428 -0.02554839 -0.03115013  0.00142126
  -0.0018873   0.02472741 -0.01320036  0.01112583  0.00814602 -0.00362719
   0.01880637 -0.04155276 -0.00897531 -0.02149385 -0.02729748 -0.0172922
   0.0245897  -0.00021525  0.0005523   0.03656197  0.04748126  0.00872622
  -0.02809723 -0.01315183 -0.0197186  -0.01213651 -0.00403155  0.00279194
   0.01427924  0.00444749 -0.0113709   0.02621874 -0.00987845 -0.03578167
  -0.0265297  -0.00069399  0.00611033 -0.01704076  0.00331476  0.00092324
   0.01120607  0.01607363  0.03840991  0.00154246  0.0231555   0.00159864
  -0.0419605   0.01621659  0.0328357  -0.02942068 -0.00158302  0.00522235
   0.01682384 -0.00631092 -0.02435954  0.01560525 -0.02287308  0.01095236
   0.01375583  0.00705849  0.00120471  0.00068167  0.03418557  0.01914197
   0.01557659  0.02842923 -0.02605237  0.03251131  0.0276168   0.00965862
  -0.04335195  0.02100122  0.00262144  0.02900953 -0.00114778 -0.02517809
   0.03737048 -0.02418954  0.00672979  0.00029401]]

Layer 2:
[0. 0. 0. 0. 0. 0. 0. 0. 0. 0. 0. 0. 0. 0. 0. 0. 0. 0. 0. 0. 0. 0. 0. 0.
 0. 0. 0. 0. 0. 0. 0. 0. 0. 0. 0. 0. 0. 0. 0. 0. 0. 0. 0. 0. 0. 0. 0. 0.
 0. 0. 0. 0. 0. 0. 0. 0. 0. 0. 0. 0. 0. 0. 0. 0. 0. 0. 0. 0. 0. 0. 0. 0.
 0. 0. 0. 0. 0. 0. 0. 0. 0. 0. 0. 0. 0. 0. 0. 0. 0. 0. 0. 0. 0. 0. 0. 0.
 0. 0. 0. 0.]

Layer 3:
[[-1.0504049 ]
 [ 1.5994985 ]
 [ 0.798385  ]
 [ 1.4450196 ]
 [-1.523944  ]
 [-0.68069327]
 [ 0.09122339]
 [ 1.5190226 ]
 [ 0.8931365 ]
 [-0.4537075 ]
 [ 1.3726249 ]
 [ 0.683559  ]
 [ 1.9748095 ]
 [-1.4044343 ]
 [-1.1780272 ]
 [-1.0389489 ]
 [ 0.44585064]
 [-1.7108804 ]
 [ 0.5581828 ]
 [ 1.0765308 ]
 [ 1.0979364 ]
 [-0.70291543]
 [-0.851142  ]
 [ 0.49618223]
 [-0.5689622 ]
 [ 0.94713914]
 [-1.3778135 ]
 [ 1.3479496 ]
 [ 1.3674301 ]
 [-0.9787406 ]
 [ 1.3399245 ]
 [-0.19901112]
 [-0.9577946 ]
 [-1.280845  ]
 [-0.4946775 ]
 [-1.4971106 ]
 [ 0.9124793 ]
 [-0.16051129]
 [ 0.18667822]
 [ 0.33745226]
 [ 0.07275469]
 [ 1.252665  ]
 [-0.7924202 ]
 [-1.5423721 ]
 [-0.98822546]
 [-1.9928629 ]
 [-1.2205516 ]
 [ 0.9616066 ]
 [ 1.4812973 ]
 [ 1.110879  ]
 [-1.4497255 ]
 [ 0.77871144]
 [-1.4226342 ]
 [-0.36420235]
 [-0.64722466]
 [-0.35669506]
 [ 1.5070332 ]
 [-1.1900612 ]
 [ 1.0230621 ]
 [ 0.4091993 ]
 [ 1.9918212 ]
 [ 1.3803413 ]
 [ 0.3611458 ]
 [ 0.6512167 ]
 [ 0.92757225]
 [ 0.760498  ]
 [-0.5026983 ]
 [ 1.5199853 ]
 [ 0.2679168 ]
 [-0.48511282]
 [-0.7080143 ]
 [ 1.0113363 ]
 [ 1.2741176 ]
 [-1.4855207 ]
 [-0.68202466]
 [ 1.5056229 ]
 [-0.8677927 ]
 [ 1.6932344 ]
 [ 1.5285606 ]
 [ 1.5927274 ]
 [ 0.429495  ]
 [ 0.502141  ]
 [ 0.5975491 ]
 [ 0.99676913]
 [ 1.8069618 ]
 [ 0.58799696]
 [-0.96583027]
 [ 0.39172286]
 [ 0.8173278 ]
 [ 1.5796927 ]
 [-0.2736173 ]
 [ 0.8068153 ]
 [ 0.9388966 ]
 [ 0.6937167 ]
 [-0.48999116]
 [-1.1672573 ]
 [ 0.7561004 ]
 [-1.2046276 ]
 [ 1.6144667 ]
 [ 0.23866086]]

Layer 4:
[-0.31478342]



Entrenamiento 4:
------------------------------------------------------------------------

Layer 0:
[[ 0.00270047 -0.01716092  0.00140324 ...  0.01833225 -0.01175531
   0.00945501]
 [ 0.01129566 -0.00237309 -0.01980561 ...  0.00737232 -0.01721776
  -0.00295078]
 [ 0.00362054 -0.00477609  0.00682736 ...  0.0097664  -0.02411842
   0.02864008]
 ...
 [ 0.01135335 -0.00029278  0.0117159  ...  0.02092791 -0.0065687
   0.01198887]
 [-0.02855564  0.00482409  0.00820735 ...  0.01664562  0.00401722
   0.03722309]
 [-0.00688905  0.00769622  0.0139641  ...  0.0201337   0.00094544
   0.01136603]]

Layer 1:
[[-0.00254884  0.00756157  0.02642566  0.00606304 -0.00860788 -0.02393202
   0.00075061  0.01151695  0.02588721 -0.03224597  0.01809172  0.02664751
   0.00945148 -0.01138504 -0.01259696 -0.00413033  0.03733201 -0.01783015
   0.03316425  0.01667935  0.01656428 -0.02554839 -0.03115013  0.00142126
  -0.0018873   0.02472741 -0.01320036  0.01112583  0.00814602 -0.00362719
   0.01880637 -0.04155276 -0.00897531 -0.02149385 -0.02729748 -0.0172922
   0.0245897  -0.00021525  0.0005523   0.03656197  0.04748126  0.00872622
  -0.02809723 -0.01315183 -0.0197186  -0.01213651 -0.00403155  0.00279194
   0.01427924  0.00444749 -0.0113709   0.02621874 -0.00987845 -0.03578167
  -0.0265297  -0.00069399  0.00611033 -0.01704076  0.00331476  0.00092324
   0.01120607  0.01607363  0.03840991  0.00154246  0.0231555   0.00159864
  -0.0419605   0.01621659  0.0328357  -0.02942068 -0.00158302  0.00522235
   0.01682384 -0.00631092 -0.02435954  0.01560525 -0.02287308  0.01095236
   0.01375583  0.00705849  0.00120471  0.00068167  0.03418557  0.01914197
   0.01557659  0.02842923 -0.02605237  0.03251131  0.0276168   0.00965862
  -0.04335195  0.02100122  0.00262144  0.02900953 -0.00114778 -0.02517809
   0.03737048 -0.02418954  0.00672979  0.00029401]]

Layer 2:
[0. 0. 0. 0. 0. 0. 0. 0. 0. 0. 0. 0. 0. 0. 0. 0. 0. 0. 0. 0. 0. 0. 0. 0.
 0. 0. 0. 0. 0. 0. 0. 0. 0. 0. 0. 0. 0. 0. 0. 0. 0. 0. 0. 0. 0. 0. 0. 0.
 0. 0. 0. 0. 0. 0. 0. 0. 0. 0. 0. 0. 0. 0. 0. 0. 0. 0. 0. 0. 0. 0. 0. 0.
 0. 0. 0. 0. 0. 0. 0. 0. 0. 0. 0. 0. 0. 0. 0. 0. 0. 0. 0. 0. 0. 0. 0. 0.
 0. 0. 0. 0.]

Layer 3:
[[-2.0193841 ]
 [ 2.9554193 ]
 [ 0.98935163]
 [ 2.6639328 ]
 [-2.5706887 ]
 [-0.85636693]
 [ 0.32695362]
 [ 2.5050595 ]
 [ 1.0774124 ]
 [-0.3858632 ]
 [ 2.047549  ]
 [ 0.82223856]
 [ 3.288536  ]
 [-2.3579104 ]
 [-1.9608084 ]
 [-2.0888114 ]
 [ 0.40207058]
 [-2.540706  ]
 [ 0.555783  ]
 [ 1.6038663 ]
 [ 1.7108619 ]
 [-0.8364959 ]
 [-0.90615654]
 [ 1.2844735 ]
 [-1.4552678 ]
 [ 1.2708143 ]
 [-2.2314086 ]
 [ 2.2365296 ]
 [ 2.3381248 ]
 [-1.9657899 ]
 [ 1.993887  ]
 [ 0.03407966]
 [-1.7375259 ]
 [-1.7295378 ]
 [-0.5123294 ]
 [-2.1927102 ]
 [ 1.1876372 ]
 [-0.40399036]
 [ 0.40176004]
 [ 0.214814  ]
 [-0.24447867]
 [ 2.188133  ]
 [-0.8877187 ]
 [-2.5442183 ]
 [-1.3109884 ]
 [-3.2913408 ]
 [-2.501474  ]
 [ 2.008079  ]
 [ 2.3525445 ]
 [ 2.519894  ]
 [-2.3777263 ]
 [ 0.9790204 ]
 [-2.3747237 ]
 [-0.2782287 ]
 [-0.7975846 ]
 [-0.7906655 ]
 [ 2.8172019 ]
 [-1.8508418 ]
 [ 2.0340981 ]
 [ 0.9607706 ]
 [ 3.3108268 ]
 [ 2.2144818 ]
 [ 0.2257374 ]
 [ 1.5158478 ]
 [ 1.2064496 ]
 [ 1.640431  ]
 [-0.3459141 ]
 [ 2.2716234 ]
 [ 0.16439104]
 [-0.5227225 ]
 [-1.5978644 ]
 [ 2.1400075 ]
 [ 1.8573667 ]
 [-2.5781314 ]
 [-0.8627315 ]
 [ 2.3883884 ]
 [-1.162675  ]
 [ 2.784099  ]
 [ 2.369633  ]
 [ 2.976483  ]
 [ 1.0204747 ]
 [ 1.0679169 ]
 [ 0.5216535 ]
 [ 1.3930594 ]
 [ 2.7543435 ]
 [ 0.6365469 ]
 [-1.209825  ]
 [ 0.36310074]
 [ 0.9925877 ]
 [ 2.8473935 ]
 [-0.03879499]
 [ 1.1134129 ]
 [ 2.1101615 ]
 [ 0.7512792 ]
 [-1.1379647 ]
 [-1.6033647 ]
 [ 0.74832964]
 [-1.6068113 ]
 [ 2.8268669 ]
 [ 0.6173166 ]]

Layer 4:
[-0.6292776]



Consenso 4:
------------------------------------------------------------------------

Layer 0:
[[ 0.00270047 -0.01716092  0.00140324 ...  0.01833225 -0.01175531
   0.00945501]
 [ 0.01129566 -0.00237309 -0.01980561 ...  0.00737232 -0.01721776
  -0.00295078]
 [ 0.00362053 -0.0047761   0.00682736 ...  0.0097664  -0.02411842
   0.02864008]
 ...
 [ 0.01135335 -0.00029278  0.0117159  ...  0.02092791 -0.0065687
   0.01198888]
 [-0.02855564  0.00482409  0.00820735 ...  0.01664562  0.00401721
   0.03722309]
 [-0.00688905  0.0076962   0.0139641  ...  0.0201337   0.00094543
   0.01136603]]

Layer 1:
[[-0.00254883  0.00756159  0.02642566  0.00606303 -0.0086079  -0.02393202
   0.00075062  0.01151695  0.02588721 -0.03224597  0.01809172  0.02664751
   0.00945148 -0.01138503 -0.01259697 -0.00413033  0.03733201 -0.01783015
   0.03316425  0.01667935  0.01656428 -0.02554839 -0.03115013  0.00142126
  -0.00188729  0.02472741 -0.01320036  0.01112583  0.00814602 -0.00362719
   0.01880637 -0.04155276 -0.00897531 -0.02149385 -0.02729748 -0.0172922
   0.0245897  -0.00021525  0.00055229  0.03656197  0.04748126  0.00872622
  -0.02809723 -0.01315185 -0.0197186  -0.01213652 -0.00403156  0.00279193
   0.01427925  0.0044475  -0.01137088  0.02621874 -0.00987843 -0.03578167
  -0.0265297  -0.00069399  0.00611034 -0.01704076  0.00331475  0.00092324
   0.01120607  0.01607363  0.03840991  0.00154246  0.0231555   0.00159863
  -0.0419605   0.01621659  0.0328357  -0.02942068 -0.00158302  0.00522235
   0.01682384 -0.00631091 -0.02435954  0.01560525 -0.02287308  0.01095234
   0.01375583  0.00705849  0.0012047   0.00068167  0.03418557  0.01914197
   0.01557659  0.02842921 -0.02605237  0.03251131  0.0276168   0.0096586
  -0.04335195  0.02100122  0.00262144  0.02900953 -0.00114778 -0.02517809
   0.03737048 -0.02418956  0.00672981  0.00029401]]

Layer 2:
[0. 0. 0. 0. 0. 0. 0. 0. 0. 0. 0. 0. 0. 0. 0. 0. 0. 0. 0. 0. 0. 0. 0. 0.
 0. 0. 0. 0. 0. 0. 0. 0. 0. 0. 0. 0. 0. 0. 0. 0. 0. 0. 0. 0. 0. 0. 0. 0.
 0. 0. 0. 0. 0. 0. 0. 0. 0. 0. 0. 0. 0. 0. 0. 0. 0. 0. 0. 0. 0. 0. 0. 0.
 0. 0. 0. 0. 0. 0. 0. 0. 0. 0. 0. 0. 0. 0. 0. 0. 0. 0. 0. 0. 0. 0. 0. 0.
 0. 0. 0. 0.]

Layer 3:
[[-1.2988524 ]
 [ 2.0999515 ]
 [ 0.698604  ]
 [ 1.8243496 ]
 [-1.8491778 ]
 [-0.54911864]
 [ 0.16272745]
 [ 1.8277924 ]
 [ 0.78682166]
 [-0.18662925]
 [ 1.5384417 ]
 [ 0.54560506]
 [ 2.5117567 ]
 [-1.6824878 ]
 [-1.3664947 ]
 [-1.2840406 ]
 [ 0.2112168 ]
 [-1.9960829 ]
 [ 0.34534386]
 [ 1.137238  ]
 [ 1.216509  ]
 [-0.55697864]
 [-0.6710183 ]
 [ 0.71328247]
 [-0.8575778 ]
 [ 0.93596727]
 [-1.6199322 ]
 [ 1.579189  ]
 [ 1.6197046 ]
 [-1.1919154 ]
 [ 1.490684  ]
 [ 0.16703989]
 [-1.1039739 ]
 [-1.3399324 ]
 [-0.27007306]
 [-1.6863666 ]
 [ 0.8604519 ]
 [-0.20076907]
 [ 0.33794454]
 [ 0.04178827]
 [-0.3477375 ]
 [ 1.4926689 ]
 [-0.6283567 ]
 [-1.8779404 ]
 [-0.94156915]
 [-2.5332713 ]
 [-1.6359446 ]
 [ 1.2652725 ]
 [ 1.7499394 ]
 [ 1.6069423 ]
 [-1.7023482 ]
 [ 0.6800346 ]
 [-1.6658056 ]
 [-0.09245141]
 [-0.5170214 ]
 [-0.4825913 ]
 [ 1.9495608 ]
 [-1.3554958 ]
 [ 1.288301  ]
 [ 0.521749  ]
 [ 2.545016  ]
 [ 1.6044247 ]
 [ 0.05776744]
 [ 1.0047014 ]
 [ 0.87288326]
 [ 1.0331806 ]
 [-0.19091173]
 [ 1.7278388 ]
 [-0.02157119]
 [-0.28588882]
 [-0.9210394 ]
 [ 1.3213433 ]
 [ 1.3900775 ]
 [-1.8866205 ]
 [-0.564855  ]
 [ 1.8085443 ]
 [-0.8178728 ]
 [ 2.0722759 ]
 [ 1.7949246 ]
 [ 2.0965805 ]
 [ 0.56311095]
 [ 0.646455  ]
 [ 0.328987  ]
 [ 0.98954993]
 [ 2.1422741 ]
 [ 0.39066586]
 [-0.90162957]
 [ 0.15355109]
 [ 0.7067289 ]
 [ 2.0672457 ]
 [ 0.09191741]
 [ 0.7495351 ]
 [ 1.3357543 ]
 [ 0.5058881 ]
 [-0.65097135]
 [-1.2397171 ]
 [ 0.54857564]
 [-1.2379575 ]
 [ 1.9923389 ]
 [ 0.42961267]]

Layer 4:
[-0.31832215]



Entrenamiento 5:
------------------------------------------------------------------------

Layer 0:
[[ 0.00270047 -0.01716092  0.00140324 ...  0.01833225 -0.01175531
   0.00945501]
 [ 0.01129566 -0.00237309 -0.01980561 ...  0.00737232 -0.01721776
  -0.00295078]
 [ 0.00362053 -0.0047761   0.00682736 ...  0.0097664  -0.02411842
   0.02864008]
 ...
 [ 0.01135335 -0.00029278  0.0117159  ...  0.02092791 -0.0065687
   0.01198888]
 [-0.02855564  0.00482409  0.00820735 ...  0.01664562  0.00401721
   0.03722309]
 [-0.00688905  0.0076962   0.0139641  ...  0.0201337   0.00094543
   0.01136603]]

Layer 1:
[[-0.00254883  0.00756159  0.02642566  0.00606303 -0.0086079  -0.02393202
   0.00075062  0.01151695  0.02588721 -0.03224597  0.01809172  0.02664751
   0.00945148 -0.01138503 -0.01259697 -0.00413033  0.03733201 -0.01783015
   0.03316425  0.01667935  0.01656428 -0.02554839 -0.03115013  0.00142126
  -0.00188729  0.02472741 -0.01320036  0.01112583  0.00814602 -0.00362719
   0.01880637 -0.04155276 -0.00897531 -0.02149385 -0.02729748 -0.0172922
   0.0245897  -0.00021525  0.00055229  0.03656197  0.04748126  0.00872622
  -0.02809723 -0.01315185 -0.0197186  -0.01213652 -0.00403156  0.00279193
   0.01427925  0.0044475  -0.01137088  0.02621874 -0.00987843 -0.03578167
  -0.0265297  -0.00069399  0.00611034 -0.01704076  0.00331475  0.00092324
   0.01120607  0.01607363  0.03840991  0.00154246  0.0231555   0.00159863
  -0.0419605   0.01621659  0.0328357  -0.02942068 -0.00158302  0.00522235
   0.01682384 -0.00631091 -0.02435954  0.01560525 -0.02287308  0.01095234
   0.01375583  0.00705849  0.0012047   0.00068167  0.03418557  0.01914197
   0.01557659  0.02842921 -0.02605237  0.03251131  0.0276168   0.0096586
  -0.04335195  0.02100122  0.00262144  0.02900953 -0.00114778 -0.02517809
   0.03737048 -0.02418956  0.00672981  0.00029401]]

Layer 2:
[0. 0. 0. 0. 0. 0. 0. 0. 0. 0. 0. 0. 0. 0. 0. 0. 0. 0. 0. 0. 0. 0. 0. 0.
 0. 0. 0. 0. 0. 0. 0. 0. 0. 0. 0. 0. 0. 0. 0. 0. 0. 0. 0. 0. 0. 0. 0. 0.
 0. 0. 0. 0. 0. 0. 0. 0. 0. 0. 0. 0. 0. 0. 0. 0. 0. 0. 0. 0. 0. 0. 0. 0.
 0. 0. 0. 0. 0. 0. 0. 0. 0. 0. 0. 0. 0. 0. 0. 0. 0. 0. 0. 0. 0. 0. 0. 0.
 0. 0. 0. 0.]

Layer 3:
[[-2.3038895 ]
 [ 3.4448564 ]
 [ 0.8212883 ]
 [ 3.0464659 ]
 [-2.8812654 ]
 [-0.6574859 ]
 [ 0.45898867]
 [ 2.7745965 ]
 [ 0.90253067]
 [-0.05195878]
 [ 2.154327  ]
 [ 0.61580634]
 [ 3.8033748 ]
 [-2.5932746 ]
 [-2.0984802 ]
 [-2.3592281 ]
 [ 0.10027969]
 [-2.770128  ]
 [ 0.27526504]
 [ 1.6028152 ]
 [ 1.773969  ]
 [-0.623386  ]
 [-0.6576961 ]
 [ 1.6087836 ]
 [-1.908733  ]
 [ 1.1922334 ]
 [-2.4236848 ]
 [ 2.4238377 ]
 [ 2.5565941 ]
 [-2.1932354 ]
 [ 2.0718863 ]
 [ 0.4638715 ]
 [-1.8357308 ]
 [-1.7237974 ]
 [-0.22039813]
 [-2.323122  ]
 [ 1.0679606 ]
 [-0.48716086]
 [ 0.6211778 ]
 [-0.14711931]
 [-0.72703236]
 [ 2.3879282 ]
 [-0.6550146 ]
 [-2.8357358 ]
 [-1.1981791 ]
 [-3.7985933 ]
 [-2.9763172 ]
 [ 2.388133  ]
 [ 2.570628  ]
 [ 3.076153  ]
 [-2.585874  ]
 [ 0.8119831 ]
 [-2.5798624 ]
 [ 0.06042185]
 [-0.5991973 ]
 [-1.0067372 ]
 [ 3.2613795 ]
 [-1.9581143 ]
 [ 2.3249054 ]
 [ 1.1446358 ]
 [ 3.8364036 ]
 [ 2.3566482 ]
 [-0.14395064]
 [ 2.0511985 ]
 [ 1.0843629 ]
 [ 2.0426216 ]
 [ 0.03241661]
 [ 2.4224734 ]
 [-0.19104832]
 [-0.25577638]
 [-1.8654468 ]
 [ 2.4519382 ]
 [ 1.9207662 ]
 [-3.0199432 ]
 [-0.6800458 ]
 [ 2.6394815 ]
 [-1.0455358 ]
 [ 3.1252074 ]
 [ 2.59505   ]
 [ 3.4822183 ]
 [ 1.2398821 ]
 [ 1.3003169 ]
 [ 0.18611424]
 [ 1.3210377 ]
 [ 3.040559  ]
 [ 0.3713866 ]
 [-1.0774441 ]
 [ 0.05736294]
 [ 0.8133663 ]
 [ 3.3109941 ]
 [ 0.3910057 ]
 [ 0.99127716]
 [ 2.6188343 ]
 [ 0.49601552]
 [-1.3921248 ]
 [-1.6084423 ]
 [ 0.47214732]
 [-1.5728474 ]
 [ 3.1896589 ]
 [ 0.90824866]]

Layer 4:
[-0.6246883]



Consenso 5:
------------------------------------------------------------------------

Layer 0:
[[ 0.00270047 -0.01716092  0.00140324 ...  0.01833225 -0.01175531
   0.00945501]
 [ 0.01129566 -0.00237309 -0.01980561 ...  0.00737232 -0.01721776
  -0.00295078]
 [ 0.00362053 -0.0047761   0.00682736 ...  0.0097664  -0.02411842
   0.02864008]
 ...
 [ 0.01135335 -0.00029278  0.0117159  ...  0.02092791 -0.0065687
   0.01198888]
 [-0.02855564  0.00482409  0.00820735 ...  0.01664562  0.00401721
   0.03722309]
 [-0.00688905  0.0076962   0.0139641  ...  0.0201337   0.00094543
   0.01136603]]

Layer 1:
[[-0.00254883  0.00756159  0.02642566  0.00606303 -0.0086079  -0.02393202
   0.00075062  0.01151695  0.02588721 -0.03224597  0.01809172  0.02664751
   0.00945148 -0.01138503 -0.01259697 -0.00413033  0.03733201 -0.01783015
   0.03316425  0.01667935  0.01656428 -0.02554839 -0.03115013  0.00142126
  -0.00188729  0.02472741 -0.01320036  0.01112583  0.00814602 -0.00362719
   0.01880637 -0.04155276 -0.00897531 -0.02149385 -0.02729748 -0.0172922
   0.0245897  -0.00021525  0.00055229  0.03656197  0.04748126  0.00872622
  -0.02809723 -0.01315185 -0.0197186  -0.01213652 -0.00403156  0.00279193
   0.01427925  0.0044475  -0.01137088  0.02621874 -0.00987843 -0.03578167
  -0.0265297  -0.00069399  0.00611034 -0.01704076  0.00331475  0.00092324
   0.01120607  0.01607363  0.03840991  0.00154246  0.0231555   0.00159863
  -0.0419605   0.01621659  0.0328357  -0.02942068 -0.00158302  0.00522235
   0.01682384 -0.00631091 -0.02435954  0.01560525 -0.02287308  0.01095234
   0.01375583  0.00705849  0.0012047   0.00068167  0.03418557  0.01914197
   0.01557659  0.02842921 -0.02605237  0.03251131  0.0276168   0.0096586
  -0.04335195  0.02100122  0.00262144  0.02900953 -0.00114778 -0.02517809
   0.03737048 -0.02418956  0.00672981  0.00029401]]

Layer 2:
[0. 0. 0. 0. 0. 0. 0. 0. 0. 0. 0. 0. 0. 0. 0. 0. 0. 0. 0. 0. 0. 0. 0. 0.
 0. 0. 0. 0. 0. 0. 0. 0. 0. 0. 0. 0. 0. 0. 0. 0. 0. 0. 0. 0. 0. 0. 0. 0.
 0. 0. 0. 0. 0. 0. 0. 0. 0. 0. 0. 0. 0. 0. 0. 0. 0. 0. 0. 0. 0. 0. 0. 0.
 0. 0. 0. 0. 0. 0. 0. 0. 0. 0. 0. 0. 0. 0. 0. 0. 0. 0. 0. 0. 0. 0. 0. 0.
 0. 0. 0. 0.]

Layer 3:
[[-1.554333  ]
 [ 2.6057878 ]
 [ 0.59755546]
 [ 2.208086  ]
 [-2.1661654 ]
 [-0.41887385]
 [ 0.2543332 ]
 [ 2.1244226 ]
 [ 0.6788228 ]
 [ 0.06829403]
 [ 1.694056  ]
 [ 0.4085352 ]
 [ 3.0445626 ]
 [-1.948771  ]
 [-1.5413613 ]
 [-1.5384585 ]
 [-0.01214647]
 [-2.2672002 ]
 [ 0.13999148]
 [ 1.1882112 ]
 [ 1.3239206 ]
 [-0.41221648]
 [-0.49637958]
 [ 0.9605483 ]
 [-1.2036276 ]
 [ 0.91745687]
 [-1.8493828 ]
 [ 1.7999393 ]
 [ 1.8606042 ]
 [-1.407898  ]
 [ 1.6288872 ]
 [ 0.509659  ]
 [-1.2363327 ]
 [-1.3881316 ]
 [-0.05337188]
 [-1.8614672 ]
 [ 0.80444586]
 [-0.24585198]
 [ 0.5231271 ]
 [-0.23795822]
 [-0.737904  ]
 [ 1.7193505 ]
 [-0.4679199 ]
 [-2.2013798 ]
 [-0.888452  ]
 [-3.0690968 ]
 [-2.083968  ]
 [ 1.5956067 ]
 [ 2.0047474 ]
 [ 2.146813  ]
 [-1.944884  ]
 [ 0.58070713]
 [-1.8996586 ]
 [ 0.1651187 ]
 [-0.38742077]
 [-0.63318473]
 [ 2.4008322 ]
 [-1.5070447 ]
 [ 1.5561117 ]
 [ 0.64690256]
 [ 3.0946095 ]
 [ 1.8135519 ]
 [-0.22790587]
 [ 1.4263066 ]
 [ 0.81345624]
 [ 1.348171  ]
 [ 0.10131205]
 [ 1.9232945 ]
 [-0.29719397]
 [-0.0925768 ]
 [-1.1455121 ]
 [ 1.633688  ]
 [ 1.4944025 ]
 [-2.2918675 ]
 [-0.44713482]
 [ 2.0958822 ]
 [-0.7637858 ]
 [ 2.4388459 ]
 [ 2.046127  ]
 [ 2.6128962 ]
 [ 0.7154445 ]
 [ 0.81075895]
 [ 0.07367352]
 [ 0.97567016]
 [ 2.4648838 ]
 [ 0.19943784]
 [-0.8340441 ]
 [-0.07449818]
 [ 0.597103  ]
 [ 2.5485709 ]
 [ 0.43322304]
 [ 0.6886892 ]
 [ 1.7814325 ]
 [ 0.3237295 ]
 [-0.8340309 ]
 [-1.3023086 ]
 [ 0.35054567]
 [-1.2638892 ]
 [ 2.3691516 ]
 [ 0.65844995]]

Layer 4:
[-0.25850385]



Entrenamiento 6:
------------------------------------------------------------------------

Layer 0:
[[ 0.00270047 -0.01716092  0.00140324 ...  0.01833225 -0.01175531
   0.00945501]
 [ 0.01129566 -0.00237309 -0.01980561 ...  0.00737232 -0.01721776
  -0.00295078]
 [ 0.00362053 -0.0047761   0.00682736 ...  0.0097664  -0.02411842
   0.02864008]
 ...
 [ 0.01135335 -0.00029278  0.0117159  ...  0.02092791 -0.0065687
   0.01198888]
 [-0.02855564  0.00482409  0.00820735 ...  0.01664562  0.00401721
   0.03722309]
 [-0.00688905  0.0076962   0.0139641  ...  0.0201337   0.00094543
   0.01136603]]

Layer 1:
[[-0.00254883  0.00756159  0.02642566  0.00606303 -0.0086079  -0.02393202
   0.00075062  0.01151695  0.02588721 -0.03224597  0.01809172  0.02664751
   0.00945148 -0.01138503 -0.01259697 -0.00413033  0.03733201 -0.01783015
   0.03316425  0.01667935  0.01656428 -0.02554839 -0.03115013  0.00142126
  -0.00188729  0.02472741 -0.01320036  0.01112583  0.00814602 -0.00362719
   0.01880637 -0.04155276 -0.00897531 -0.02149385 -0.02729748 -0.0172922
   0.0245897  -0.00021525  0.00055229  0.03656197  0.04748126  0.00872622
  -0.02809723 -0.01315185 -0.0197186  -0.01213652 -0.00403156  0.00279193
   0.01427925  0.0044475  -0.01137088  0.02621874 -0.00987843 -0.03578167
  -0.0265297  -0.00069399  0.00611034 -0.01704076  0.00331475  0.00092324
   0.01120607  0.01607363  0.03840991  0.00154246  0.0231555   0.00159863
  -0.0419605   0.01621659  0.0328357  -0.02942068 -0.00158302  0.00522235
   0.01682384 -0.00631091 -0.02435954  0.01560525 -0.02287308  0.01095234
   0.01375583  0.00705849  0.0012047   0.00068167  0.03418557  0.01914197
   0.01557659  0.02842921 -0.02605237  0.03251131  0.0276168   0.0096586
  -0.04335195  0.02100122  0.00262144  0.02900953 -0.00114778 -0.02517809
   0.03737048 -0.02418956  0.00672981  0.00029401]]

Layer 2:
[0. 0. 0. 0. 0. 0. 0. 0. 0. 0. 0. 0. 0. 0. 0. 0. 0. 0. 0. 0. 0. 0. 0. 0.
 0. 0. 0. 0. 0. 0. 0. 0. 0. 0. 0. 0. 0. 0. 0. 0. 0. 0. 0. 0. 0. 0. 0. 0.
 0. 0. 0. 0. 0. 0. 0. 0. 0. 0. 0. 0. 0. 0. 0. 0. 0. 0. 0. 0. 0. 0. 0. 0.
 0. 0. 0. 0. 0. 0. 0. 0. 0. 0. 0. 0. 0. 0. 0. 0. 0. 0. 0. 0. 0. 0. 0. 0.
 0. 0. 0. 0.]

Layer 3:
[[-2.581661  ]
 [ 3.9388177 ]
 [ 0.6678101 ]
 [ 3.428208  ]
 [-3.1805818 ]
 [-0.4761772 ]
 [ 0.62776065]
 [ 3.0352433 ]
 [ 0.74211097]
 [ 0.24795677]
 [ 2.2597992 ]
 [ 0.42760605]
 [ 4.313884  ]
 [-2.8209643 ]
 [-2.228344  ]
 [-2.6289787 ]
 [-0.16806275]
 [-2.9926336 ]
 [ 0.02274032]
 [ 1.60154   ]
 [ 1.8331233 ]
 [-0.4280175 ]
 [-0.43400916]
 [ 1.9578933 ]
 [-2.4285054 ]
 [ 1.1199149 ]
 [-2.6084867 ]
 [ 2.6045268 ]
 [ 2.7653778 ]
 [-2.4151204 ]
 [ 2.15151   ]
 [ 0.8436353 ]
 [-1.9249535 ]
 [-1.7180794 ]
 [ 0.04424093]
 [-2.4469047 ]
 [ 0.95901525]
 [-0.5812609 ]
 [ 0.8889163 ]
 [-0.4692699 ]
 [-1.1494768 ]
 [ 2.5777698 ]
 [-0.44415486]
 [-3.1198149 ]
 [-1.0915855 ]
 [-4.304532  ]
 [-3.4689364 ]
 [ 2.7781618 ]
 [ 2.7807202 ]
 [ 3.6612866 ]
 [-2.78877   ]
 [ 0.66069365]
 [-2.7794816 ]
 [ 0.36188516]
 [-0.41827956]
 [-1.261744  ]
 [ 3.710217  ]
 [-2.0592048 ]
 [ 2.6070833 ]
 [ 1.3394402 ]
 [ 4.3602285 ]
 [ 2.5024378 ]
 [-0.47104385]
 [ 2.6655302 ]
 [ 0.9712851 ]
 [ 2.4838185 ]
 [ 0.36463445]
 [ 2.5682933 ]
 [-0.51061654]
 [-0.01406989]
 [-2.1309638 ]
 [ 2.7599666 ]
 [ 1.9778908 ]
 [-3.4515991 ]
 [-0.5113408 ]
 [ 2.8805847 ]
 [-0.9381237 ]
 [ 3.4571881 ]
 [ 2.8069265 ]
 [ 3.9968164 ]
 [ 1.478348  ]
 [ 1.5573306 ]
 [-0.1134828 ]
 [ 1.2541009 ]
 [ 3.3193517 ]
 [ 0.13156977]
 [-0.9568951 ]
 [-0.21667397]
 [ 0.652111  ]
 [ 3.769449  ]
 [ 0.76914513]
 [ 0.8787425 ]
 [ 3.1584857 ]
 [ 0.26516455]
 [-1.6679544 ]
 [-1.6160984 ]
 [ 0.22764596]
 [-1.5446402 ]
 [ 3.5502079 ]
 [ 1.2548629 ]]

Layer 4:
[-0.53361356]



Consenso 6:
------------------------------------------------------------------------

Layer 0:
[[ 0.00270047 -0.01716092  0.00140324 ...  0.01833225 -0.01175531
   0.00945501]
 [ 0.01129566 -0.00237309 -0.01980561 ...  0.00737232 -0.01721776
  -0.00295078]
 [ 0.00362053 -0.0047761   0.00682736 ...  0.0097664  -0.02411842
   0.02864008]
 ...
 [ 0.01135335 -0.00029278  0.0117159  ...  0.02092791 -0.0065687
   0.01198888]
 [-0.02855564  0.00482409  0.00820735 ...  0.01664562  0.00401721
   0.03722309]
 [-0.00688905  0.0076962   0.0139641  ...  0.0201337   0.00094543
   0.01136603]]

Layer 1:
[[-0.00254883  0.00756159  0.02642566  0.00606303 -0.0086079  -0.02393202
   0.00075062  0.01151695  0.02588721 -0.03224597  0.01809172  0.02664751
   0.00945148 -0.01138503 -0.01259697 -0.00413033  0.03733201 -0.01783015
   0.03316425  0.01667935  0.01656428 -0.02554839 -0.03115013  0.00142126
  -0.00188729  0.02472741 -0.01320036  0.01112583  0.00814602 -0.00362719
   0.01880637 -0.04155276 -0.00897531 -0.02149385 -0.02729748 -0.0172922
   0.0245897  -0.00021525  0.00055229  0.03656197  0.04748126  0.00872622
  -0.02809723 -0.01315185 -0.0197186  -0.01213652 -0.00403156  0.00279193
   0.01427925  0.0044475  -0.01137088  0.02621874 -0.00987843 -0.03578167
  -0.0265297  -0.00069399  0.00611034 -0.01704076  0.00331475  0.00092324
   0.01120607  0.01607363  0.03840991  0.00154246  0.0231555   0.00159863
  -0.0419605   0.01621659  0.0328357  -0.02942068 -0.00158302  0.00522235
   0.01682384 -0.00631091 -0.02435954  0.01560525 -0.02287308  0.01095234
   0.01375583  0.00705849  0.0012047   0.00068167  0.03418557  0.01914197
   0.01557659  0.02842921 -0.02605237  0.03251131  0.0276168   0.0096586
  -0.04335195  0.02100122  0.00262144  0.02900953 -0.00114778 -0.02517809
   0.03737048 -0.02418956  0.00672981  0.00029401]]

Layer 2:
[0. 0. 0. 0. 0. 0. 0. 0. 0. 0. 0. 0. 0. 0. 0. 0. 0. 0. 0. 0. 0. 0. 0. 0.
 0. 0. 0. 0. 0. 0. 0. 0. 0. 0. 0. 0. 0. 0. 0. 0. 0. 0. 0. 0. 0. 0. 0. 0.
 0. 0. 0. 0. 0. 0. 0. 0. 0. 0. 0. 0. 0. 0. 0. 0. 0. 0. 0. 0. 0. 0. 0. 0.
 0. 0. 0. 0. 0. 0. 0. 0. 0. 0. 0. 0. 0. 0. 0. 0. 0. 0. 0. 0. 0. 0. 0. 0.
 0. 0. 0. 0.]

Layer 3:
[[-1.7968479 ]
 [ 3.0889587 ]
 [ 0.4909076 ]
 [ 2.5739808 ]
 [-2.4562101 ]
 [-0.28702512]
 [ 0.36959448]
 [ 2.3907485 ]
 [ 0.5650539 ]
 [ 0.31005016]
 [ 1.8259467 ]
 [ 0.26955396]
 [ 3.5441644 ]
 [-2.186267  ]
 [-1.6891695 ]
 [-1.7856703 ]
 [-0.22428258]
 [-2.5059507 ]
 [-0.05831647]
 [ 1.2200645 ]
 [ 1.4091554 ]
 [-0.26614943]
 [-0.3253462 ]
 [ 1.226988  ]
 [-1.6058941 ]
 [ 0.88496906]
 [-2.0500085 ]
 [ 1.9944679 ]
 [ 2.0741918 ]
 [-1.611274  ]
 [ 1.741858  ]
 [ 0.8247809 ]
 [-1.3429445 ]
 [-1.415591  ]
 [ 0.15564774]
 [-2.0084312 ]
 [ 0.7387012 ]
 [-0.29143727]
 [ 0.7453915 ]
 [-0.49972266]
 [-1.0921305 ]
 [ 1.9170867 ]
 [-0.308694  ]
 [-2.4937315 ]
 [-0.8232215 ]
 [-3.571869  ]
 [-2.540731  ]
 [ 1.933478  ]
 [ 2.228741  ]
 [ 2.705465  ]
 [-2.1610181 ]
 [ 0.47640815]
 [-2.1091485 ]
 [ 0.40745595]
 [-0.25541365]
 [-0.80639106]
 [ 2.8344834 ]
 [-1.6310678 ]
 [ 1.8070489 ]
 [ 0.77550167]
 [ 3.6114554 ]
 [ 1.9932177 ]
 [-0.49380237]
 [ 1.914287  ]
 [ 0.7435391 ]
 [ 1.6956428 ]
 [ 0.37180912]
 [ 2.0909128 ]
 [-0.55712986]
 [ 0.09544063]
 [-1.3639275 ]
 [ 1.9283853 ]
 [ 1.5753592 ]
 [-2.6771555 ]
 [-0.32536945]
 [ 2.3494396 ]
 [-0.6998448 ]
 [ 2.7716997 ]
 [ 2.2651708 ]
 [ 3.114375  ]
 [ 0.8783737 ]
 [ 0.98667604]
 [-0.16730145]
 [ 0.94781876]
 [ 2.7552192 ]
 [ 0.01331738]
 [-0.7577849 ]
 [-0.29227424]
 [ 0.48421732]
 [ 2.9982    ]
 [ 0.74658054]
 [ 0.61902636]
 [ 2.257184  ]
 [ 0.14592507]
 [-1.0297425 ]
 [-1.3443326 ]
 [ 0.16083084]
 [-1.2736819 ]
 [ 2.7228482 ]
 [ 0.9257955 ]]

Layer 4:
[-0.17764293]



Entrenamiento 7:
------------------------------------------------------------------------

Layer 0:
[[ 0.00270047 -0.01716092  0.00140324 ...  0.01833225 -0.01175531
   0.00945501]
 [ 0.01129566 -0.00237309 -0.01980561 ...  0.00737232 -0.01721776
  -0.00295078]
 [ 0.00362053 -0.0047761   0.00682736 ...  0.0097664  -0.02411842
   0.02864008]
 ...
 [ 0.01135335 -0.00029278  0.0117159  ...  0.02092791 -0.0065687
   0.01198888]
 [-0.02855564  0.00482409  0.00820735 ...  0.01664562  0.00401721
   0.03722309]
 [-0.00688905  0.0076962   0.0139641  ...  0.0201337   0.00094543
   0.01136603]]

Layer 1:
[[-0.00254883  0.00756159  0.02642566  0.00606303 -0.0086079  -0.02393202
   0.00075062  0.01151695  0.02588721 -0.03224597  0.01809172  0.02664751
   0.00945148 -0.01138503 -0.01259697 -0.00413033  0.03733201 -0.01783015
   0.03316425  0.01667935  0.01656428 -0.02554839 -0.03115013  0.00142126
  -0.00188729  0.02472741 -0.01320036  0.01112583  0.00814602 -0.00362719
   0.01880637 -0.04155276 -0.00897531 -0.02149385 -0.02729748 -0.0172922
   0.0245897  -0.00021525  0.00055229  0.03656197  0.04748126  0.00872622
  -0.02809723 -0.01315185 -0.0197186  -0.01213652 -0.00403156  0.00279193
   0.01427925  0.0044475  -0.01137088  0.02621874 -0.00987843 -0.03578167
  -0.0265297  -0.00069399  0.00611034 -0.01704076  0.00331475  0.00092324
   0.01120607  0.01607363  0.03840991  0.00154246  0.0231555   0.00159863
  -0.0419605   0.01621659  0.0328357  -0.02942068 -0.00158302  0.00522235
   0.01682384 -0.00631091 -0.02435954  0.01560525 -0.02287308  0.01095234
   0.01375583  0.00705849  0.0012047   0.00068167  0.03418557  0.01914197
   0.01557659  0.02842921 -0.02605237  0.03251131  0.0276168   0.0096586
  -0.04335195  0.02100122  0.00262144  0.02900953 -0.00114778 -0.02517809
   0.03737048 -0.02418956  0.00672981  0.00029401]]

Layer 2:
[0. 0. 0. 0. 0. 0. 0. 0. 0. 0. 0. 0. 0. 0. 0. 0. 0. 0. 0. 0. 0. 0. 0. 0.
 0. 0. 0. 0. 0. 0. 0. 0. 0. 0. 0. 0. 0. 0. 0. 0. 0. 0. 0. 0. 0. 0. 0. 0.
 0. 0. 0. 0. 0. 0. 0. 0. 0. 0. 0. 0. 0. 0. 0. 0. 0. 0. 0. 0. 0. 0. 0. 0.
 0. 0. 0. 0. 0. 0. 0. 0. 0. 0. 0. 0. 0. 0. 0. 0. 0. 0. 0. 0. 0. 0. 0. 0.
 0. 0. 0. 0.]

Layer 3:
[[-2.8590584 ]
 [ 4.4289474 ]
 [ 0.58834773]
 [ 3.8107102 ]
 [-3.4839783 ]
 [-0.37084198]
 [ 0.8345488 ]
 [ 3.3090038 ]
 [ 0.6553793 ]
 [ 0.45157123]
 [ 2.4041576 ]
 [ 0.31746897]
 [ 4.8168187 ]
 [-3.0654504 ]
 [-2.3848648 ]
 [-2.9075482 ]
 [-0.3403855 ]
 [-3.2407    ]
 [-0.13902387]
 [ 1.6473558 ]
 [ 1.9321277 ]
 [-0.31035647]
 [-0.29675856]
 [ 2.3251107 ]
 [-2.988247  ]
 [ 1.11028   ]
 [-2.8165948 ]
 [ 2.806559  ]
 [ 2.9862533 ]
 [-2.6443303 ]
 [ 2.2744036 ]
 [ 1.1105928 ]
 [-2.0385995 ]
 [-1.7636137 ]
 [ 0.22045435]
 [-2.6047614 ]
 [ 0.91736573]
 [-0.69615525]
 [ 1.1810354 ]
 [-0.68878984]
 [-1.4504335 ]
 [ 2.7815733 ]
 [-0.31578815]
 [-3.4186893 ]
 [-1.0462757 ]
 [-4.8095117 ]
 [-3.9658716 ]
 [ 3.1753976 ]
 [ 3.0125225 ]
 [ 4.255742  ]
 [-3.011871  ]
 [ 0.5833507 ]
 [-2.9971979 ]
 [ 0.5635769 ]
 [-0.31476897]
 [-1.5553848 ]
 [ 4.1562176 ]
 [-2.1951563 ]
 [ 2.8866377 ]
 [ 1.5520569 ]
 [ 4.8797283 ]
 [ 2.683936  ]
 [-0.69347024]
 [ 3.323247  ]
 [ 0.9243077 ]
 [ 2.9475179 ]
 [ 0.58911276]
 [ 2.7455795 ]
 [-0.7310357 ]
 [ 0.14057292]
 [-2.397017  ]
 [ 3.0719082 ]
 [ 2.0738425 ]
 [-3.8730767 ]
 [-0.41607445]
 [ 3.141761  ]
 [-0.8967211 ]
 [ 3.7948532 ]
 [ 3.0366802 ]
 [ 4.5095215 ]
 [ 1.7402207 ]
 [ 1.8354399 ]
 [-0.31492722]
 [ 1.2443631 ]
 [ 3.6169178 ]
 [-0.0219924 ]
 [-0.9062569 ]
 [-0.3973499 ]
 [ 0.567693  ]
 [ 4.2239766 ]
 [ 1.0334843 ]
 [ 0.830776  ]
 [ 3.7107322 ]
 [ 0.11996114]
 [-1.9644235 ]
 [-1.6783572 ]
 [ 0.07705326]
 [-1.5751116 ]
 [ 3.913023  ]
 [ 1.6380006 ]]

Layer 4:
[-0.3492778]



Consenso 7:
------------------------------------------------------------------------

Layer 0:
[[ 0.00270047 -0.01716092  0.00140324 ...  0.01833225 -0.01175531
   0.00945501]
 [ 0.01129566 -0.00237309 -0.01980561 ...  0.00737232 -0.01721776
  -0.00295078]
 [ 0.00362053 -0.0047761   0.00682736 ...  0.0097664  -0.02411842
   0.02864008]
 ...
 [ 0.01135335 -0.00029278  0.0117159  ...  0.02092791 -0.0065687
   0.01198888]
 [-0.02855564  0.00482409  0.00820735 ...  0.01664562  0.00401721
   0.03722309]
 [-0.00688905  0.0076962   0.0139641  ...  0.0201337   0.00094543
   0.01136603]]

Layer 1:
[[-0.00254883  0.00756159  0.02642566  0.00606303 -0.0086079  -0.02393202
   0.00075062  0.01151695  0.02588721 -0.03224597  0.01809172  0.02664751
   0.00945148 -0.01138503 -0.01259697 -0.00413033  0.03733201 -0.01783015
   0.03316425  0.01667935  0.01656428 -0.02554839 -0.03115013  0.00142126
  -0.00188729  0.02472741 -0.01320036  0.01112583  0.00814602 -0.00362719
   0.01880637 -0.04155276 -0.00897531 -0.02149385 -0.02729748 -0.0172922
   0.0245897  -0.00021525  0.00055229  0.03656197  0.04748126  0.00872622
  -0.02809723 -0.01315185 -0.0197186  -0.01213652 -0.00403156  0.00279193
   0.01427925  0.0044475  -0.01137088  0.02621874 -0.00987843 -0.03578167
  -0.0265297  -0.00069399  0.00611034 -0.01704076  0.00331475  0.00092324
   0.01120607  0.01607363  0.03840991  0.00154246  0.0231555   0.00159863
  -0.0419605   0.01621659  0.0328357  -0.02942068 -0.00158302  0.00522235
   0.01682384 -0.00631091 -0.02435954  0.01560525 -0.02287308  0.01095234
   0.01375583  0.00705849  0.0012047   0.00068167  0.03418557  0.01914197
   0.01557659  0.02842921 -0.02605237  0.03251131  0.0276168   0.0096586
  -0.04335195  0.02100122  0.00262144  0.02900953 -0.00114778 -0.02517809
   0.03737048 -0.02418956  0.00672981  0.00029401]]

Layer 2:
[0. 0. 0. 0. 0. 0. 0. 0. 0. 0. 0. 0. 0. 0. 0. 0. 0. 0. 0. 0. 0. 0. 0. 0.
 0. 0. 0. 0. 0. 0. 0. 0. 0. 0. 0. 0. 0. 0. 0. 0. 0. 0. 0. 0. 0. 0. 0. 0.
 0. 0. 0. 0. 0. 0. 0. 0. 0. 0. 0. 0. 0. 0. 0. 0. 0. 0. 0. 0. 0. 0. 0. 0.
 0. 0. 0. 0. 0. 0. 0. 0. 0. 0. 0. 0. 0. 0. 0. 0. 0. 0. 0. 0. 0. 0. 0. 0.
 0. 0. 0. 0.]

Layer 3:
[[-2.0238624e+00]
 [ 3.5419126e+00]
 [ 3.9446226e-01]
 [ 2.9200277e+00]
 [-2.7223721e+00]
 [-1.6979642e-01]
 [ 5.1251084e-01]
 [ 2.6313288e+00]
 [ 4.6172488e-01]
 [ 5.1964247e-01]
 [ 1.9430460e+00]
 [ 1.4553180e-01]
 [ 4.0037847e+00]
 [-2.4002638e+00]
 [-1.8187129e+00]
 [-2.0265346e+00]
 [-4.0655467e-01]
 [-2.7181661e+00]
 [-2.3120007e-01]
 [ 1.2448264e+00]
 [ 1.4832331e+00]
 [-1.3563906e-01]
 [-1.7535061e-01]
 [ 1.5075798e+00]
 [-2.0621586e+00]
 [ 8.5309851e-01]
 [-2.2281761e+00]
 [ 2.1689155e+00]
 [ 2.2660987e+00]
 [-1.8048736e+00]
 [ 1.8397690e+00]
 [ 1.0919032e+00]
 [-1.4332407e+00]
 [-1.4349767e+00]
 [ 3.3895174e-01]
 [-2.1360090e+00]
 [ 6.7827117e-01]
 [-3.3862755e-01]
 [ 9.9975908e-01]
 [-7.2409397e-01]
 [-1.3892344e+00]
 [ 2.0922654e+00]
 [-1.6759157e-01]
 [-2.7585807e+00]
 [-7.6074165e-01]
 [-4.0365152e+00]
 [-2.9954622e+00]
 [ 2.2710183e+00]
 [ 2.4282575e+00]
 [ 3.2670135e+00]
 [-2.3568232e+00]
 [ 3.8304314e-01]
 [-2.3007202e+00]
 [ 6.1564183e-01]
 [-1.3767923e-01]
 [-1.0025133e+00]
 [ 3.2443817e+00]
 [-1.7367922e+00]
 [ 2.0406945e+00]
 [ 9.0679663e-01]
 [ 4.0892639e+00]
 [ 2.1516201e+00]
 [-7.2045732e-01]
 [ 2.4593477e+00]
 [ 6.7799479e-01]
 [ 2.0690827e+00]
 [ 6.0089892e-01]
 [ 2.2382507e+00]
 [-7.8219360e-01]
 [ 2.6023546e-01]
 [-1.5724016e+00]
 [ 2.2054787e+00]
 [ 1.6436288e+00]
 [-3.0394452e+00]
 [-2.1563551e-01]
 [ 2.5744991e+00]
 [-6.4083660e-01]
 [ 3.0726209e+00]
 [ 2.4585662e+00]
 [ 3.5927148e+00]
 [ 1.0510054e+00]
 [ 1.1711627e+00]
 [-3.7490764e-01]
 [ 9.1968185e-01]
 [ 3.0173466e+00]
 [-1.4990203e-01]
 [-6.8816239e-01]
 [-4.8108751e-01]
 [ 3.8391453e-01]
 [ 3.4128311e+00]
 [ 1.0116385e+00]
 [ 5.5554324e-01]
 [ 2.7499766e+00]
 [-9.8405425e-03]
 [-1.2355378e+00]
 [-1.3779359e+00]
 [-2.4543935e-03]
 [-1.2804471e+00]
 [ 3.0521371e+00]
 [ 1.2264953e+00]]

Layer 4:
[-0.09354305]



Entrenamiento 8:
------------------------------------------------------------------------

Layer 0:
[[ 0.00270047 -0.01716092  0.00140324 ...  0.01833225 -0.01175531
   0.00945501]
 [ 0.01129566 -0.00237309 -0.01980561 ...  0.00737232 -0.01721776
  -0.00295078]
 [ 0.00362053 -0.0047761   0.00682736 ...  0.0097664  -0.02411842
   0.02864008]
 ...
 [ 0.01135335 -0.00029278  0.0117159  ...  0.02092791 -0.0065687
   0.01198888]
 [-0.02855564  0.00482409  0.00820735 ...  0.01664562  0.00401721
   0.03722309]
 [-0.00688905  0.0076962   0.0139641  ...  0.0201337   0.00094543
   0.01136603]]

Layer 1:
[[-0.00254883  0.00756159  0.02642566  0.00606303 -0.0086079  -0.02393202
   0.00075062  0.01151695  0.02588721 -0.03224597  0.01809172  0.02664751
   0.00945148 -0.01138503 -0.01259697 -0.00413033  0.03733201 -0.01783015
   0.03316425  0.01667935  0.01656428 -0.02554839 -0.03115013  0.00142126
  -0.00188729  0.02472741 -0.01320036  0.01112583  0.00814602 -0.00362719
   0.01880637 -0.04155276 -0.00897531 -0.02149385 -0.02729748 -0.0172922
   0.0245897  -0.00021525  0.00055229  0.03656197  0.04748126  0.00872622
  -0.02809723 -0.01315185 -0.0197186  -0.01213652 -0.00403156  0.00279193
   0.01427925  0.0044475  -0.01137088  0.02621874 -0.00987843 -0.03578167
  -0.0265297  -0.00069399  0.00611034 -0.01704076  0.00331475  0.00092324
   0.01120607  0.01607363  0.03840991  0.00154246  0.0231555   0.00159863
  -0.0419605   0.01621659  0.0328357  -0.02942068 -0.00158302  0.00522235
   0.01682384 -0.00631091 -0.02435954  0.01560525 -0.02287308  0.01095234
   0.01375583  0.00705849  0.0012047   0.00068167  0.03418557  0.01914197
   0.01557659  0.02842921 -0.02605237  0.03251131  0.0276168   0.0096586
  -0.04335195  0.02100122  0.00262144  0.02900953 -0.00114778 -0.02517809
   0.03737048 -0.02418956  0.00672981  0.00029401]]

Layer 2:
[0. 0. 0. 0. 0. 0. 0. 0. 0. 0. 0. 0. 0. 0. 0. 0. 0. 0. 0. 0. 0. 0. 0. 0.
 0. 0. 0. 0. 0. 0. 0. 0. 0. 0. 0. 0. 0. 0. 0. 0. 0. 0. 0. 0. 0. 0. 0. 0.
 0. 0. 0. 0. 0. 0. 0. 0. 0. 0. 0. 0. 0. 0. 0. 0. 0. 0. 0. 0. 0. 0. 0. 0.
 0. 0. 0. 0. 0. 0. 0. 0. 0. 0. 0. 0. 0. 0. 0. 0. 0. 0. 0. 0. 0. 0. 0. 0.
 0. 0. 0. 0.]

Layer 3:
[[-3.0415075 ]
 [ 4.8227034 ]
 [ 0.42726493]
 [ 4.1019626 ]
 [-3.6858454 ]
 [-0.18975732]
 [ 1.0877882 ]
 [ 3.4775884 ]
 [ 0.48736382]
 [ 0.7147919 ]
 [ 2.4472976 ]
 [ 0.13077764]
 [ 5.211499  ]
 [-3.2062602 ]
 [-2.4396079 ]
 [-3.1032073 ]
 [-0.57621676]
 [-3.377829  ]
 [-0.368202  ]
 [ 1.5986428 ]
 [ 1.9332151 ]
 [-0.11718197]
 [-0.08785805]
 [ 2.6381247 ]
 [-3.5722735 ]
 [ 1.0100876 ]
 [-2.9195824 ]
 [ 2.907092  ]
 [ 3.1062584 ]
 [-2.7851586 ]
 [ 2.295588  ]
 [ 1.4217777 ]
 [-2.053172  ]
 [-1.71117   ]
 [ 0.46174294]
 [-2.657039  ]
 [ 0.7899862 ]
 [-0.77865   ]
 [ 1.5555385 ]
 [-0.9633648 ]
 [-1.7861788 ]
 [ 2.8826878 ]
 [-0.11364853]
 [-3.610777  ]
 [-0.9142439 ]
 [-5.2071414 ]
 [-4.3941994 ]
 [ 3.4983864 ]
 [ 3.137254  ]
 [ 4.794403  ]
 [-3.1340764 ]
 [ 0.42549053]
 [-3.1172998 ]
 [ 0.82376516]
 [-0.13407087]
 [-1.8512917 ]
 [ 4.5104456 ]
 [-2.2259355 ]
 [ 3.0700405 ]
 [ 1.6972902 ]
 [ 5.2919865 ]
 [ 2.7614338 ]
 [-0.96923965]
 [ 4.039359  ]
 [ 0.7909359 ]
 [ 3.377149  ]
 [ 0.86562943]
 [ 2.817446  ]
 [-1.0082206 ]
 [ 0.36368552]
 [-2.5719593 ]
 [ 3.291561  ]
 [ 2.0696857 ]
 [-4.1962442 ]
 [-0.24207342]
 [ 3.291641  ]
 [-0.7698956 ]
 [ 4.023917  ]
 [ 3.1574302 ]
 [ 4.934891  ]
 [ 1.9470277 ]
 [ 2.0631192 ]
 [-0.57522476]
 [ 1.1454705 ]
 [ 3.8051536 ]
 [-0.24407649]
 [-0.7705687 ]
 [-0.6411846 ]
 [ 0.40392333]
 [ 4.5733223 ]
 [ 1.3422829 ]
 [ 0.6994628 ]
 [ 4.2161655 ]
 [-0.09483888]
 [-2.204827  ]
 [-1.6410038 ]
 [-0.14126794]
 [-1.5119278 ]
 [ 4.1795444 ]
 [ 2.0906565 ]]

Layer 4:
[-0.27656755]



Consenso 8:
------------------------------------------------------------------------

Layer 0:
[[ 0.00270047 -0.01716092  0.00140324 ...  0.01833225 -0.01175531
   0.00945501]
 [ 0.01129566 -0.00237309 -0.01980561 ...  0.00737232 -0.01721776
  -0.00295078]
 [ 0.00362053 -0.0047761   0.00682736 ...  0.0097664  -0.02411842
   0.02864008]
 ...
 [ 0.01135335 -0.00029278  0.0117159  ...  0.02092791 -0.0065687
   0.01198888]
 [-0.02855564  0.00482409  0.00820735 ...  0.01664562  0.00401721
   0.03722309]
 [-0.00688905  0.0076962   0.0139641  ...  0.0201337   0.00094543
   0.01136603]]

Layer 1:
[[-0.00254883  0.00756159  0.02642566  0.00606303 -0.0086079  -0.02393202
   0.00075062  0.01151695  0.02588721 -0.03224597  0.01809172  0.02664751
   0.00945148 -0.01138503 -0.01259697 -0.00413033  0.03733201 -0.01783015
   0.03316425  0.01667935  0.01656428 -0.02554839 -0.03115013  0.00142126
  -0.00188729  0.02472741 -0.01320036  0.01112583  0.00814602 -0.00362719
   0.01880637 -0.04155276 -0.00897531 -0.02149385 -0.02729748 -0.0172922
   0.0245897  -0.00021525  0.00055229  0.03656197  0.04748126  0.00872622
  -0.02809723 -0.01315185 -0.0197186  -0.01213652 -0.00403156  0.00279193
   0.01427925  0.0044475  -0.01137088  0.02621874 -0.00987843 -0.03578167
  -0.0265297  -0.00069399  0.00611034 -0.01704076  0.00331475  0.00092324
   0.01120607  0.01607363  0.03840991  0.00154246  0.0231555   0.00159863
  -0.0419605   0.01621659  0.0328357  -0.02942068 -0.00158302  0.00522235
   0.01682384 -0.00631091 -0.02435954  0.01560525 -0.02287308  0.01095234
   0.01375583  0.00705849  0.0012047   0.00068167  0.03418557  0.01914197
   0.01557659  0.02842921 -0.02605237  0.03251131  0.0276168   0.0096586
  -0.04335195  0.02100122  0.00262144  0.02900953 -0.00114778 -0.02517809
   0.03737048 -0.02418956  0.00672981  0.00029401]]

Layer 2:
[0. 0. 0. 0. 0. 0. 0. 0. 0. 0. 0. 0. 0. 0. 0. 0. 0. 0. 0. 0. 0. 0. 0. 0.
 0. 0. 0. 0. 0. 0. 0. 0. 0. 0. 0. 0. 0. 0. 0. 0. 0. 0. 0. 0. 0. 0. 0. 0.
 0. 0. 0. 0. 0. 0. 0. 0. 0. 0. 0. 0. 0. 0. 0. 0. 0. 0. 0. 0. 0. 0. 0. 0.
 0. 0. 0. 0. 0. 0. 0. 0. 0. 0. 0. 0. 0. 0. 0. 0. 0. 0. 0. 0. 0. 0. 0. 0.
 0. 0. 0. 0.]

Layer 3:
[[-2.2241354 ]
 [ 3.9496546 ]
 [ 0.30728704]
 [ 3.2352214 ]
 [-2.9570515 ]
 [-0.06719694]
 [ 0.6880173 ]
 [ 2.8389456 ]
 [ 0.36813098]
 [ 0.69546515]
 [ 2.0403085 ]
 [ 0.03640606]
 [ 4.4082017 ]
 [-2.5838618 ]
 [-1.925391  ]
 [-2.253238  ]
 [-0.55831856]
 [-2.8961506 ]
 [-0.3779609 ]
 [ 1.2596183 ]
 [ 1.5426532 ]
 [-0.0208187 ]
 [-0.04642849]
 [ 1.7892447 ]
 [-2.5669332 ]
 [ 0.8199368 ]
 [-2.377379  ]
 [ 2.3169582 ]
 [ 2.4302843 ]
 [-1.982312  ]
 [ 1.9179072 ]
 [ 1.3082361 ]
 [-1.5036908 ]
 [-1.4431034 ]
 [ 0.49534917]
 [-2.2388058 ]
 [ 0.62174207]
 [-0.38392818]
 [ 1.2825572 ]
 [-0.90925896]
 [-1.6257827 ]
 [ 2.239212  ]
 [-0.04455787]
 [-2.987914  ]
 [-0.69998646]
 [-4.4482074 ]
 [-3.4297984 ]
 [ 2.5920932 ]
 [ 2.5966086 ]
 [ 3.8095143 ]
 [-2.5258892 ]
 [ 0.29976174]
 [-2.4688182 ]
 [ 0.7883634 ]
 [-0.03399684]
 [-1.2178773 ]
 [ 3.6158676 ]
 [-1.8192259 ]
 [ 2.2478893 ]
 [ 1.0332446 ]
 [ 4.512933  ]
 [ 2.2830634 ]
 [-0.9060521 ]
 [ 3.050827  ]
 [ 0.61543447]
 [ 2.454705  ]
 [ 0.78691304]
 [ 2.3592691 ]
 [-0.9704023 ]
 [ 0.4010251 ]
 [-1.7595803 ]
 [ 2.4552138 ]
 [ 1.6952877 ]
 [-3.3668613 ]
 [-0.11758216]
 [ 2.7634134 ]
 [-0.58538675]
 [ 3.332362  ]
 [ 2.6195168 ]
 [ 4.0320754 ]
 [ 1.2250037 ]
 [ 1.3539287 ]
 [-0.54766554]
 [ 0.8894791 ]
 [ 3.242663  ]
 [-0.28939435]
 [-0.62373626]
 [-0.6397703 ]
 [ 0.29532585]
 [ 3.7802782 ]
 [ 1.2258728 ]
 [ 0.49719977]
 [ 3.2379322 ]
 [-0.14299424]
 [-1.4413229 ]
 [-1.3990902 ]
 [-0.13922392]
 [-1.2811018 ]
 [ 3.3464446 ]
 [ 1.5545224 ]]

Layer 4:
[-0.02675254]



Entrenamiento 9:
------------------------------------------------------------------------

Layer 0:
[[ 0.00270047 -0.01716092  0.00140324 ...  0.01833225 -0.01175531
   0.00945501]
 [ 0.01129566 -0.00237309 -0.01980561 ...  0.00737232 -0.01721776
  -0.00295078]
 [ 0.00362053 -0.0047761   0.00682736 ...  0.0097664  -0.02411842
   0.02864008]
 ...
 [ 0.01135335 -0.00029278  0.0117159  ...  0.02092791 -0.0065687
   0.01198888]
 [-0.02855564  0.00482409  0.00820735 ...  0.01664562  0.00401721
   0.03722309]
 [-0.00688905  0.0076962   0.0139641  ...  0.0201337   0.00094543
   0.01136603]]

Layer 1:
[[-0.00254883  0.00756159  0.02642566  0.00606303 -0.0086079  -0.02393202
   0.00075062  0.01151695  0.02588721 -0.03224597  0.01809172  0.02664751
   0.00945148 -0.01138503 -0.01259697 -0.00413033  0.03733201 -0.01783015
   0.03316425  0.01667935  0.01656428 -0.02554839 -0.03115013  0.00142126
  -0.00188729  0.02472741 -0.01320036  0.01112583  0.00814602 -0.00362719
   0.01880637 -0.04155276 -0.00897531 -0.02149385 -0.02729748 -0.0172922
   0.0245897  -0.00021525  0.00055229  0.03656197  0.04748126  0.00872622
  -0.02809723 -0.01315185 -0.0197186  -0.01213652 -0.00403156  0.00279193
   0.01427925  0.0044475  -0.01137088  0.02621874 -0.00987843 -0.03578167
  -0.0265297  -0.00069399  0.00611034 -0.01704076  0.00331475  0.00092324
   0.01120607  0.01607363  0.03840991  0.00154246  0.0231555   0.00159863
  -0.0419605   0.01621659  0.0328357  -0.02942068 -0.00158302  0.00522235
   0.01682384 -0.00631091 -0.02435954  0.01560525 -0.02287308  0.01095234
   0.01375583  0.00705849  0.0012047   0.00068167  0.03418557  0.01914197
   0.01557659  0.02842921 -0.02605237  0.03251131  0.0276168   0.0096586
  -0.04335195  0.02100122  0.00262144  0.02900953 -0.00114778 -0.02517809
   0.03737048 -0.02418956  0.00672981  0.00029401]]

Layer 2:
[0. 0. 0. 0. 0. 0. 0. 0. 0. 0. 0. 0. 0. 0. 0. 0. 0. 0. 0. 0. 0. 0. 0. 0.
 0. 0. 0. 0. 0. 0. 0. 0. 0. 0. 0. 0. 0. 0. 0. 0. 0. 0. 0. 0. 0. 0. 0. 0.
 0. 0. 0. 0. 0. 0. 0. 0. 0. 0. 0. 0. 0. 0. 0. 0. 0. 0. 0. 0. 0. 0. 0. 0.
 0. 0. 0. 0. 0. 0. 0. 0. 0. 0. 0. 0. 0. 0. 0. 0. 0. 0. 0. 0. 0. 0. 0. 0.
 0. 0. 0. 0.]

Layer 3:
[[-3.2075732 ]
 [ 5.1826653 ]
 [ 0.2996759 ]
 [ 4.373721  ]
 [-3.8681014 ]
 [-0.04919586]
 [ 1.385738  ]
 [ 3.6251786 ]
 [ 0.35366344]
 [ 0.91180974]
 [ 2.4842088 ]
 [-0.01493816]
 [ 5.561063  ]
 [-3.3295693 ]
 [-2.486286  ]
 [-3.295115  ]
 [-0.7515658 ]
 [-3.4906764 ]
 [-0.5418441 ]
 [ 1.5581415 ]
 [ 1.9353358 ]
 [ 0.03379136]
 [ 0.07218663]
 [ 2.945421  ]
 [-4.176313  ]
 [ 0.9289482 ]
 [-3.0067048 ]
 [ 2.9953146 ]
 [ 3.2139049 ]
 [-2.923568  ]
 [ 2.3123443 ]
 [ 1.6448616 ]
 [-2.0657926 ]
 [-1.664814  ]
 [ 0.6456129 ]
 [-2.6979153 ]
 [ 0.6885061 ]
 [-0.8686041 ]
 [ 1.9378996 ]
 [-1.165073  ]
 [-2.0215213 ]
 [ 2.9712572 ]
 [ 0.04329675]
 [-3.7780323 ]
 [-0.80633694]
 [-5.559805  ]
 [-4.8073177 ]
 [ 3.805049  ]
 [ 3.242738  ]
 [ 5.317376  ]
 [-3.2433739 ]
 [ 0.30174395]
 [-3.2285645 ]
 [ 1.0161754 ]
 [ 0.00681681]
 [-2.1669283 ]
 [ 4.8386045 ]
 [-2.2472808 ]
 [ 3.2401469 ]
 [ 1.8361003 ]
 [ 5.658691  ]
 [ 2.827125  ]
 [-1.1701838 ]
 [ 4.760806  ]
 [ 0.68291366]
 [ 3.8064306 ]
 [ 1.0653082 ]
 [ 2.8759096 ]
 [-1.214774  ]
 [ 0.5337197 ]
 [-2.7351882 ]
 [ 3.4966857 ]
 [ 2.064031  ]
 [-4.489927  ]
 [-0.10481314]
 [ 3.4157982 ]
 [-0.6688041 ]
 [ 4.223161  ]
 [ 3.2567523 ]
 [ 5.332005  ]
 [ 2.148399  ]
 [ 2.2848518 ]
 [-0.76832545]
 [ 1.0650321 ]
 [ 3.966147  ]
 [-0.41341588]
 [-0.66261977]
 [-0.82413757]
 [ 0.27634564]
 [ 4.8860946 ]
 [ 1.563405  ]
 [ 0.595728  ]
 [ 4.7102723 ]
 [-0.25855258]
 [-2.4388819 ]
 [-1.6074717 ]
 [-0.304495  ]
 [-1.4607788 ]
 [ 4.4241486 ]
 [ 2.566364  ]]

Layer 4:
[-0.1440266]



Consenso 9:
------------------------------------------------------------------------

Layer 0:
[[ 0.00270047 -0.01716092  0.00140324 ...  0.01833225 -0.01175531
   0.00945501]
 [ 0.01129566 -0.00237309 -0.01980561 ...  0.00737232 -0.01721776
  -0.00295078]
 [ 0.00362053 -0.0047761   0.00682736 ...  0.0097664  -0.02411842
   0.02864008]
 ...
 [ 0.01135335 -0.00029278  0.0117159  ...  0.02092791 -0.0065687
   0.01198888]
 [-0.02855564  0.00482409  0.00820735 ...  0.01664562  0.00401721
   0.03722309]
 [-0.00688905  0.0076962   0.0139641  ...  0.0201337   0.00094543
   0.01136603]]

Layer 1:
[[-0.00254883  0.00756159  0.02642566  0.00606303 -0.0086079  -0.02393202
   0.00075062  0.01151695  0.02588721 -0.03224597  0.01809172  0.02664751
   0.00945148 -0.01138503 -0.01259697 -0.00413033  0.03733201 -0.01783015
   0.03316425  0.01667935  0.01656428 -0.02554839 -0.03115013  0.00142126
  -0.00188729  0.02472741 -0.01320036  0.01112583  0.00814602 -0.00362719
   0.01880637 -0.04155276 -0.00897531 -0.02149385 -0.02729748 -0.0172922
   0.0245897  -0.00021525  0.00055229  0.03656197  0.04748126  0.00872622
  -0.02809723 -0.01315185 -0.0197186  -0.01213652 -0.00403156  0.00279193
   0.01427925  0.0044475  -0.01137088  0.02621874 -0.00987843 -0.03578167
  -0.0265297  -0.00069399  0.00611034 -0.01704076  0.00331475  0.00092324
   0.01120607  0.01607363  0.03840991  0.00154246  0.0231555   0.00159863
  -0.0419605   0.01621659  0.0328357  -0.02942068 -0.00158302  0.00522235
   0.01682384 -0.00631091 -0.02435954  0.01560525 -0.02287308  0.01095234
   0.01375583  0.00705849  0.0012047   0.00068167  0.03418557  0.01914197
   0.01557659  0.02842921 -0.02605237  0.03251131  0.0276168   0.0096586
  -0.04335195  0.02100122  0.00262144  0.02900953 -0.00114778 -0.02517809
   0.03737048 -0.02418956  0.00672981  0.00029401]]

Layer 2:
[0. 0. 0. 0. 0. 0. 0. 0. 0. 0. 0. 0. 0. 0. 0. 0. 0. 0. 0. 0. 0. 0. 0. 0.
 0. 0. 0. 0. 0. 0. 0. 0. 0. 0. 0. 0. 0. 0. 0. 0. 0. 0. 0. 0. 0. 0. 0. 0.
 0. 0. 0. 0. 0. 0. 0. 0. 0. 0. 0. 0. 0. 0. 0. 0. 0. 0. 0. 0. 0. 0. 0. 0.
 0. 0. 0. 0. 0. 0. 0. 0. 0. 0. 0. 0. 0. 0. 0. 0. 0. 0. 0. 0. 0. 0. 0. 0.
 0. 0. 0. 0.]

Layer 3:
[[-2.394415  ]
 [ 4.30724   ]
 [ 0.22978438]
 [ 3.5165818 ]
 [-3.1594384 ]
 [ 0.02056852]
 [ 0.9021996 ]
 [ 3.0133953 ]
 [ 0.28480232]
 [ 0.83805937]
 [ 2.1179748 ]
 [-0.05753978]
 [ 4.753644  ]
 [-2.7370415 ]
 [-2.009962  ]
 [-2.4637027 ]
 [-0.6802362 ]
 [-3.039916  ]
 [-0.49885905]
 [ 1.2652978 ]
 [ 1.5880917 ]
 [ 0.07800801]
 [ 0.06154158]
 [ 2.0621145 ]
 [-3.1144247 ]
 [ 0.78624237]
 [-2.4977756 ]
 [ 2.4386961 ]
 [ 2.5669236 ]
 [-2.1425858 ]
 [ 1.9769878 ]
 [ 1.4753484 ]
 [-1.555456  ]
 [-1.4409281 ]
 [ 0.62502104]
 [-2.3174505 ]
 [ 0.5696932 ]
 [-0.42479035]
 [ 1.5880336 ]
 [-1.0561695 ]
 [-1.8039261 ]
 [ 2.3584197 ]
 [ 0.06033247]
 [-3.1813307 ]
 [-0.64187187]
 [-4.8034086 ]
 [-3.8332102 ]
 [ 2.887835  ]
 [ 2.734038  ]
 [ 4.319068  ]
 [-2.6680768 ]
 [ 0.22689447]
 [-2.6133783 ]
 [ 0.9264318 ]
 [ 0.05531527]
 [-1.4488466 ]
 [ 3.9445531 ]
 [-1.8791348 ]
 [ 2.4265583 ]
 [ 1.149618  ]
 [ 4.878204  ]
 [ 2.3881044 ]
 [-1.0517436 ]
 [ 3.6764257 ]
 [ 0.5565271 ]
 [ 2.8397894 ]
 [ 0.9312195 ]
 [ 2.4543405 ]
 [-1.1224189 ]
 [ 0.5178681 ]
 [-1.920364  ]
 [ 2.6756036 ]
 [ 1.7312015 ]
 [-3.6558318 ]
 [-0.03164628]
 [ 2.9162457 ]
 [-0.53406334]
 [ 3.5502288 ]
 [ 2.748354  ]
 [ 4.426471  ]
 [ 1.3945326 ]
 [ 1.5257063 ]
 [-0.68627095]
 [ 0.85801774]
 [ 3.4308643 ]
 [-0.405272  ]
 [-0.56504387]
 [-0.7687612 ]
 [ 0.21860614]
 [ 4.0979824 ]
 [ 1.3909162 ]
 [ 0.44450054]
 [ 3.7041285 ]
 [-0.2536251 ]
 [-1.638998  ]
 [-1.4085828 ]
 [-0.24999039]
 [-1.2762043 ]
 [ 3.6038194 ]
 [ 1.9040473 ]]

Layer 4:
[0.0283977]



Entrenamiento 10:
------------------------------------------------------------------------

Layer 0:
[[ 0.00270047 -0.01716092  0.00140324 ...  0.01833225 -0.01175531
   0.00945501]
 [ 0.01129566 -0.00237309 -0.01980561 ...  0.00737232 -0.01721776
  -0.00295078]
 [ 0.00362053 -0.0047761   0.00682736 ...  0.0097664  -0.02411842
   0.02864008]
 ...
 [ 0.01135335 -0.00029278  0.0117159  ...  0.02092791 -0.0065687
   0.01198888]
 [-0.02855564  0.00482409  0.00820735 ...  0.01664562  0.00401721
   0.03722309]
 [-0.00688905  0.0076962   0.0139641  ...  0.0201337   0.00094543
   0.01136603]]

Layer 1:
[[-0.00254883  0.00756159  0.02642566  0.00606303 -0.0086079  -0.02393202
   0.00075062  0.01151695  0.02588721 -0.03224597  0.01809172  0.02664751
   0.00945148 -0.01138503 -0.01259697 -0.00413033  0.03733201 -0.01783015
   0.03316425  0.01667935  0.01656428 -0.02554839 -0.03115013  0.00142126
  -0.00188729  0.02472741 -0.01320036  0.01112583  0.00814602 -0.00362719
   0.01880637 -0.04155276 -0.00897531 -0.02149385 -0.02729748 -0.0172922
   0.0245897  -0.00021525  0.00055229  0.03656197  0.04748126  0.00872622
  -0.02809723 -0.01315185 -0.0197186  -0.01213652 -0.00403156  0.00279193
   0.01427925  0.0044475  -0.01137088  0.02621874 -0.00987843 -0.03578167
  -0.0265297  -0.00069399  0.00611034 -0.01704076  0.00331475  0.00092324
   0.01120607  0.01607363  0.03840991  0.00154246  0.0231555   0.00159863
  -0.0419605   0.01621659  0.0328357  -0.02942068 -0.00158302  0.00522235
   0.01682384 -0.00631091 -0.02435954  0.01560525 -0.02287308  0.01095234
   0.01375583  0.00705849  0.0012047   0.00068167  0.03418557  0.01914197
   0.01557659  0.02842921 -0.02605237  0.03251131  0.0276168   0.0096586
  -0.04335195  0.02100122  0.00262144  0.02900953 -0.00114778 -0.02517809
   0.03737048 -0.02418956  0.00672981  0.00029401]]

Layer 2:
[0. 0. 0. 0. 0. 0. 0. 0. 0. 0. 0. 0. 0. 0. 0. 0. 0. 0. 0. 0. 0. 0. 0. 0.
 0. 0. 0. 0. 0. 0. 0. 0. 0. 0. 0. 0. 0. 0. 0. 0. 0. 0. 0. 0. 0. 0. 0. 0.
 0. 0. 0. 0. 0. 0. 0. 0. 0. 0. 0. 0. 0. 0. 0. 0. 0. 0. 0. 0. 0. 0. 0. 0.
 0. 0. 0. 0. 0. 0. 0. 0. 0. 0. 0. 0. 0. 0. 0. 0. 0. 0. 0. 0. 0. 0. 0. 0.
 0. 0. 0. 0.]

Layer 3:
[[-3.3354797e+00]
 [ 5.4863839e+00]
 [ 2.0188019e-01]
 [ 4.6065426e+00]
 [-4.0207233e+00]
 [ 5.6642871e-02]
 [ 1.7243336e+00]
 [ 3.7480786e+00]
 [ 2.5026214e-01]
 [ 1.0576077e+00]
 [ 2.5184941e+00]
 [-1.2565683e-01]
 [ 5.8494558e+00]
 [-3.4319646e+00]
 [-2.5244019e+00]
 [-3.4652755e+00]
 [-8.7878799e-01]
 [-3.5836747e+00]
 [-6.7079860e-01]
 [ 1.5268154e+00]
 [ 1.9406850e+00]
 [ 1.4926843e-01]
 [ 1.9189085e-01]
 [ 3.2134535e+00]
 [-4.7688289e+00]
 [ 8.6769158e-01]
 [-3.0775828e+00]
 [ 3.0680177e+00]
 [ 3.3007691e+00]
 [-3.0417218e+00]
 [ 2.3285332e+00]
 [ 1.8031586e+00]
 [-2.0717285e+00]
 [-1.6275210e+00]
 [ 7.8395301e-01]
 [-2.7312517e+00]
 [ 6.1158669e-01]
 [-9.4110036e-01]
 [ 2.3220887e+00]
 [-1.3112240e+00]
 [-2.1850286e+00]
 [ 3.0402999e+00]
 [ 1.6245545e-01]
 [-3.9188707e+00]
 [-7.2073531e-01]
 [-5.8573809e+00]
 [-5.1706476e+00]
 [ 4.0681896e+00]
 [ 3.3298333e+00]
 [ 5.7856326e+00]
 [-3.3359826e+00]
 [ 2.0841256e-01]
 [-3.3246775e+00]
 [ 1.1561561e+00]
 [ 1.1330097e-01]
 [-2.4697769e+00]
 [ 5.1161742e+00]
 [-2.2623947e+00]
 [ 3.3750443e+00]
 [ 1.9447944e+00]
 [ 5.9664373e+00]
 [ 2.8832915e+00]
 [-1.3141638e+00]
 [ 5.4550147e+00]
 [ 5.9874582e-01]
 [ 4.1954422e+00]
 [ 1.2066797e+00]
 [ 2.9237874e+00]
 [-1.3675021e+00]
 [ 6.6051340e-01]
 [-2.8588567e+00]
 [ 3.6694832e+00]
 [ 2.0596907e+00]
 [-4.7358146e+00]
 [ 3.9845880e-04]
 [ 3.5167584e+00]
 [-5.9208709e-01]
 [ 4.3863134e+00]
 [ 3.3358114e+00]
 [ 5.6753492e+00]
 [ 2.3205960e+00]
 [ 2.4642649e+00]
 [-9.0923613e-01]
 [ 1.0028851e+00]
 [ 4.1019502e+00]
 [-5.4001582e-01]
 [-5.8054656e-01]
 [-9.5895010e-01]
 [ 1.8060283e-01]
 [ 5.1484523e+00]
 [ 1.7201086e+00]
 [ 5.1741523e-01]
 [ 5.1512551e+00]
 [-3.8033846e-01]
 [-2.6368949e+00]
 [-1.5821636e+00]
 [-4.2282397e-01]
 [-1.4243366e+00]
 [ 4.6301222e+00]
 [ 3.0380421e+00]]

Layer 4:
[-0.07722571]



Consenso 10:
------------------------------------------------------------------------

Layer 0:
[[ 0.00270047 -0.01716092  0.00140324 ...  0.01833225 -0.01175531
   0.00945501]
 [ 0.01129566 -0.00237309 -0.01980561 ...  0.00737232 -0.01721776
  -0.00295078]
 [ 0.00362053 -0.0047761   0.00682736 ...  0.0097664  -0.02411842
   0.02864008]
 ...
 [ 0.01135335 -0.00029278  0.0117159  ...  0.02092791 -0.0065687
   0.01198888]
 [-0.02855564  0.00482409  0.00820735 ...  0.01664562  0.00401721
   0.03722309]
 [-0.00688905  0.0076962   0.0139641  ...  0.0201337   0.00094543
   0.01136603]]

Layer 1:
[[-0.00254883  0.00756159  0.02642566  0.00606303 -0.0086079  -0.02393202
   0.00075062  0.01151695  0.02588721 -0.03224597  0.01809172  0.02664751
   0.00945148 -0.01138503 -0.01259697 -0.00413033  0.03733201 -0.01783015
   0.03316425  0.01667935  0.01656428 -0.02554839 -0.03115013  0.00142126
  -0.00188729  0.02472741 -0.01320036  0.01112583  0.00814602 -0.00362719
   0.01880637 -0.04155276 -0.00897531 -0.02149385 -0.02729748 -0.0172922
   0.0245897  -0.00021525  0.00055229  0.03656197  0.04748126  0.00872622
  -0.02809723 -0.01315185 -0.0197186  -0.01213652 -0.00403156  0.00279193
   0.01427925  0.0044475  -0.01137088  0.02621874 -0.00987843 -0.03578167
  -0.0265297  -0.00069399  0.00611034 -0.01704076  0.00331475  0.00092324
   0.01120607  0.01607363  0.03840991  0.00154246  0.0231555   0.00159863
  -0.0419605   0.01621659  0.0328357  -0.02942068 -0.00158302  0.00522235
   0.01682384 -0.00631091 -0.02435954  0.01560525 -0.02287308  0.01095234
   0.01375583  0.00705849  0.0012047   0.00068167  0.03418557  0.01914197
   0.01557659  0.02842921 -0.02605237  0.03251131  0.0276168   0.0096586
  -0.04335195  0.02100122  0.00262144  0.02900953 -0.00114778 -0.02517809
   0.03737048 -0.02418956  0.00672981  0.00029401]]

Layer 2:
[0. 0. 0. 0. 0. 0. 0. 0. 0. 0. 0. 0. 0. 0. 0. 0. 0. 0. 0. 0. 0. 0. 0. 0.
 0. 0. 0. 0. 0. 0. 0. 0. 0. 0. 0. 0. 0. 0. 0. 0. 0. 0. 0. 0. 0. 0. 0. 0.
 0. 0. 0. 0. 0. 0. 0. 0. 0. 0. 0. 0. 0. 0. 0. 0. 0. 0. 0. 0. 0. 0. 0. 0.
 0. 0. 0. 0. 0. 0. 0. 0. 0. 0. 0. 0. 0. 0. 0. 0. 0. 0. 0. 0. 0. 0. 0. 0.
 0. 0. 0. 0.]

Layer 3:
[[-2.5352411 ]
 [ 4.613855  ]
 [ 0.16337685]
 [ 3.763806  ]
 [-3.3311431 ]
 [ 0.092421  ]
 [ 1.1587543 ]
 [ 3.1568277 ]
 [ 0.21321584]
 [ 0.947495  ]
 [ 2.178173  ]
 [-0.13517442]
 [ 5.0406485 ]
 [-2.861945  ]
 [-2.075047  ]
 [-2.6571534 ]
 [-0.7723469 ]
 [-3.1519191 ]
 [-0.5935104 ]
 [ 1.2641406 ]
 [ 1.6217757 ]
 [ 0.15973185]
 [ 0.14789964]
 [ 2.316956  ]
 [-3.6922731 ]
 [ 0.7539259 ]
 [-2.59182   ]
 [ 2.5363104 ]
 [ 2.678424  ]
 [-2.286291  ]
 [ 2.019398  ]
 [ 1.5945098 ]
 [-1.591573  ]
 [-1.4309354 ]
 [ 0.7275549 ]
 [-2.3745573 ]
 [ 0.523734  ]
 [-0.45913777]
 [ 1.9048319 ]
 [-1.1653405 ]
 [-1.9256246 ]
 [ 2.4526696 ]
 [ 0.14615604]
 [-3.3407438 ]
 [-0.5884244 ]
 [-5.102175  ]
 [-4.198651  ]
 [ 3.1523132 ]
 [ 2.84297   ]
 [ 4.7845135 ]
 [-2.7853448 ]
 [ 0.16570456]
 [-2.7361994 ]
 [ 1.0301543 ]
 [ 0.12912612]
 [-1.6887474 ]
 [ 4.2292747 ]
 [-1.9193313 ]
 [ 2.5780146 ]
 [ 1.2533319 ]
 [ 5.1850986 ]
 [ 2.469313  ]
 [-1.1582338 ]
 [ 4.317479  ]
 [ 0.50310534]
 [ 3.2097447 ]
 [ 1.0347103 ]
 [ 2.5259714 ]
 [-1.2384659 ]
 [ 0.61023694]
 [-2.0539813 ]
 [ 2.8669682 ]
 [ 1.7538669 ]
 [-3.9061282 ]
 [ 0.04085652]
 [ 3.0355806 ]
 [-0.48850933]
 [ 3.728349  ]
 [ 2.847774  ]
 [ 4.773339  ]
 [ 1.5541126 ]
 [ 1.6789122 ]
 [-0.79094934]
 [ 0.8272919 ]
 [ 3.5838983 ]
 [-0.49697453]
 [-0.5136277 ]
 [-0.8679537 ]
 [ 0.15490896]
 [ 4.3667135 ]
 [ 1.5080903 ]
 [ 0.39899418]
 [ 4.132559  ]
 [-0.3411608 ]
 [-1.8214023 ]
 [-1.4086851 ]
 [-0.33458585]
 [-1.2676554 ]
 [ 3.8248773 ]
 [ 2.2627525 ]]

Layer 4:
[0.06607582]



Entrenamiento 11:
------------------------------------------------------------------------

Layer 0:
[[ 0.00270047 -0.01716092  0.00140324 ...  0.01833225 -0.01175531
   0.00945501]
 [ 0.01129566 -0.00237309 -0.01980561 ...  0.00737232 -0.01721776
  -0.00295078]
 [ 0.00362053 -0.0047761   0.00682736 ...  0.0097664  -0.02411842
   0.02864008]
 ...
 [ 0.01135335 -0.00029278  0.0117159  ...  0.02092791 -0.0065687
   0.01198888]
 [-0.02855564  0.00482409  0.00820735 ...  0.01664562  0.00401721
   0.03722309]
 [-0.00688905  0.0076962   0.0139641  ...  0.0201337   0.00094543
   0.01136603]]

Layer 1:
[[-0.00254883  0.00756159  0.02642566  0.00606303 -0.0086079  -0.02393202
   0.00075062  0.01151695  0.02588721 -0.03224597  0.01809172  0.02664751
   0.00945148 -0.01138503 -0.01259697 -0.00413033  0.03733201 -0.01783015
   0.03316425  0.01667935  0.01656428 -0.02554839 -0.03115013  0.00142126
  -0.00188729  0.02472741 -0.01320036  0.01112583  0.00814602 -0.00362719
   0.01880637 -0.04155276 -0.00897531 -0.02149385 -0.02729748 -0.0172922
   0.0245897  -0.00021525  0.00055229  0.03656197  0.04748126  0.00872622
  -0.02809723 -0.01315185 -0.0197186  -0.01213652 -0.00403156  0.00279193
   0.01427925  0.0044475  -0.01137088  0.02621874 -0.00987843 -0.03578167
  -0.0265297  -0.00069399  0.00611034 -0.01704076  0.00331475  0.00092324
   0.01120607  0.01607363  0.03840991  0.00154246  0.0231555   0.00159863
  -0.0419605   0.01621659  0.0328357  -0.02942068 -0.00158302  0.00522235
   0.01682384 -0.00631091 -0.02435954  0.01560525 -0.02287308  0.01095234
   0.01375583  0.00705849  0.0012047   0.00068167  0.03418557  0.01914197
   0.01557659  0.02842921 -0.02605237  0.03251131  0.0276168   0.0096586
  -0.04335195  0.02100122  0.00262144  0.02900953 -0.00114778 -0.02517809
   0.03737048 -0.02418956  0.00672981  0.00029401]]

Layer 2:
[0. 0. 0. 0. 0. 0. 0. 0. 0. 0. 0. 0. 0. 0. 0. 0. 0. 0. 0. 0. 0. 0. 0. 0.
 0. 0. 0. 0. 0. 0. 0. 0. 0. 0. 0. 0. 0. 0. 0. 0. 0. 0. 0. 0. 0. 0. 0. 0.
 0. 0. 0. 0. 0. 0. 0. 0. 0. 0. 0. 0. 0. 0. 0. 0. 0. 0. 0. 0. 0. 0. 0. 0.
 0. 0. 0. 0. 0. 0. 0. 0. 0. 0. 0. 0. 0. 0. 0. 0. 0. 0. 0. 0. 0. 0. 0. 0.
 0. 0. 0. 0.]

Layer 3:
[[-3.470088  ]
 [ 5.7856894 ]
 [ 0.11968215]
 [ 4.8479996 ]
 [-4.176885  ]
 [ 0.14272688]
 [ 2.1541708 ]
 [ 3.8703809 ]
 [ 0.16314477]
 [ 1.1733086 ]
 [ 2.5542364 ]
 [-0.21703075]
 [ 6.122524  ]
 [-3.5353518 ]
 [-2.5661802 ]
 [-3.6564636 ]
 [-0.97823566]
 [-3.6688673 ]
 [-0.7745    ]
 [ 1.503078  ]
 [ 1.9514079 ]
 [ 0.24462727]
 [ 0.28938398]
 [ 3.4968553 ]
 [-5.4359975 ]
 [ 0.81594974]
 [-3.1472957 ]
 [ 3.1434174 ]
 [ 3.3930104 ]
 [-3.1781476 ]
 [ 2.3458545 ]
 [ 1.921505  ]
 [-2.0855026 ]
 [-1.5947282 ]
 [ 0.8958385 ]
 [-2.7625453 ]
 [ 0.54772085]
 [-1.0205644 ]
 [ 2.740049  ]
 [-1.4243463 ]
 [-2.3019998 ]
 [ 3.1134636 ]
 [ 0.260767  ]
 [-4.0561147 ]
 [-0.64833254]
 [-6.1397824 ]
 [-5.545666  ]
 [ 4.34205   ]
 [ 3.4142218 ]
 [ 6.264854  ]
 [-3.4316673 ]
 [ 0.13156474]
 [-3.4285269 ]
 [ 1.2653692 ]
 [ 0.20115557]
 [-2.8092213 ]
 [ 5.395768  ]
 [-2.2770584 ]
 [ 3.5191498 ]
 [ 2.063092  ]
 [ 6.258253  ]
 [ 2.938497  ]
 [-1.4238851 ]
 [ 6.211797  ]
 [ 0.52710164]
 [ 4.6091733 ]
 [ 1.3124737 ]
 [ 2.9698071 ]
 [-1.4885551 ]
 [ 0.76299375]
 [-2.9892273 ]
 [ 3.8526225 ]
 [ 2.0586994 ]
 [-4.9830327 ]
 [ 0.08801816]
 [ 3.610072  ]
 [-0.52837455]
 [ 4.543913  ]
 [ 3.4108    ]
 [ 6.0195355 ]
 [ 2.5083764 ]
 [ 2.6504693 ]
 [-1.0196362 ]
 [ 0.95196474]
 [ 4.230233  ]
 [-0.64217204]
 [-0.511784  ]
 [-1.0657936 ]
 [ 0.10192078]
 [ 5.403259  ]
 [ 1.8364571 ]
 [ 0.45409966]
 [ 5.604551  ]
 [-0.4786579 ]
 [-2.8474972 ]
 [-1.5591905 ]
 [-0.51614743]
 [-1.394584  ]
 [ 4.840885  ]
 [ 3.5625188 ]]

Layer 4:
[-0.04759225]



Consenso 11:
------------------------------------------------------------------------

Layer 0:
[[ 0.00270047 -0.01716092  0.00140324 ...  0.01833225 -0.01175531
   0.00945501]
 [ 0.01129566 -0.00237309 -0.01980561 ...  0.00737232 -0.01721776
  -0.00295078]
 [ 0.00362053 -0.0047761   0.00682736 ...  0.0097664  -0.02411842
   0.02864008]
 ...
 [ 0.01135335 -0.00029278  0.0117159  ...  0.02092791 -0.0065687
   0.01198888]
 [-0.02855564  0.00482409  0.00820735 ...  0.01664562  0.00401721
   0.03722309]
 [-0.00688905  0.0076962   0.0139641  ...  0.0201337   0.00094543
   0.01136603]]

Layer 1:
[[-0.00254883  0.00756159  0.02642566  0.00606303 -0.0086079  -0.02393202
   0.00075062  0.01151695  0.02588721 -0.03224597  0.01809172  0.02664751
   0.00945148 -0.01138503 -0.01259697 -0.00413033  0.03733201 -0.01783015
   0.03316425  0.01667935  0.01656428 -0.02554839 -0.03115013  0.00142126
  -0.00188729  0.02472741 -0.01320036  0.01112583  0.00814602 -0.00362719
   0.01880637 -0.04155276 -0.00897531 -0.02149385 -0.02729748 -0.0172922
   0.0245897  -0.00021525  0.00055229  0.03656197  0.04748126  0.00872622
  -0.02809723 -0.01315185 -0.0197186  -0.01213652 -0.00403156  0.00279193
   0.01427925  0.0044475  -0.01137088  0.02621874 -0.00987843 -0.03578167
  -0.0265297  -0.00069399  0.00611034 -0.01704076  0.00331475  0.00092324
   0.01120607  0.01607363  0.03840991  0.00154246  0.0231555   0.00159863
  -0.0419605   0.01621659  0.0328357  -0.02942068 -0.00158302  0.00522235
   0.01682384 -0.00631091 -0.02435954  0.01560525 -0.02287308  0.01095234
   0.01375583  0.00705849  0.0012047   0.00068167  0.03418557  0.01914197
   0.01557659  0.02842921 -0.02605237  0.03251131  0.0276168   0.0096586
  -0.04335195  0.02100122  0.00262144  0.02900953 -0.00114778 -0.02517809
   0.03737048 -0.02418956  0.00672981  0.00029401]]

Layer 2:
[0. 0. 0. 0. 0. 0. 0. 0. 0. 0. 0. 0. 0. 0. 0. 0. 0. 0. 0. 0. 0. 0. 0. 0.
 0. 0. 0. 0. 0. 0. 0. 0. 0. 0. 0. 0. 0. 0. 0. 0. 0. 0. 0. 0. 0. 0. 0. 0.
 0. 0. 0. 0. 0. 0. 0. 0. 0. 0. 0. 0. 0. 0. 0. 0. 0. 0. 0. 0. 0. 0. 0. 0.
 0. 0. 0. 0. 0. 0. 0. 0. 0. 0. 0. 0. 0. 0. 0. 0. 0. 0. 0. 0. 0. 0. 0. 0.
 0. 0. 0. 0.]

Layer 3:
[[-2.641506  ]
 [ 4.865809  ]
 [ 0.09540653]
 [ 3.9718797 ]
 [-3.4668653 ]
 [ 0.16158588]
 [ 1.4648151 ]
 [ 3.263685  ]
 [ 0.14066029]
 [ 1.0401605 ]
 [ 2.212832  ]
 [-0.209957  ]
 [ 5.266648  ]
 [-2.9526887 ]
 [-2.113567  ]
 [-2.8267708 ]
 [-0.85091615]
 [-3.2259352 ]
 [-0.67732286]
 [ 1.2469169 ]
 [ 1.6351616 ]
 [ 0.23785177]
 [ 0.22723125]
 [ 2.5427604 ]
 [-4.2927    ]
 [ 0.71188927]
 [-2.6532192 ]
 [ 2.6034362 ]
 [ 2.759024  ]
 [-2.4069552 ]
 [ 2.0370157 ]
 [ 1.6848749 ]
 [-1.6049982 ]
 [-1.4035606 ]
 [ 0.8180735 ]
 [-2.4028394 ]
 [ 0.47203028]
 [-0.47829774]
 [ 2.2349026 ]
 [-1.2541195 ]
 [-2.0116487 ]
 [ 2.5161092 ]
 [ 0.22691104]
 [-3.4607127 ]
 [-0.52851087]
 [-5.3413177 ]
 [-4.519065  ]
 [ 3.3781953 ]
 [ 2.9172356 ]
 [ 5.1971064 ]
 [-2.8713772 ]
 [ 0.10341788]
 [-2.83071   ]
 [ 1.1163535 ]
 [ 0.20075601]
 [-1.9277803 ]
 [ 4.465705  ]
 [-1.9322355 ]
 [ 2.6971452 ]
 [ 1.3353268 ]
 [ 5.4307117 ]
 [ 2.5197992 ]
 [-1.243255  ]
 [ 4.9695315 ]
 [ 0.44359896]
 [ 3.5498521 ]
 [ 1.1155944 ]
 [ 2.5671172 ]
 [-1.3353353 ]
 [ 0.6929952 ]
 [-2.1544852 ]
 [ 3.024016  ]
 [ 1.7549237 ]
 [-4.1132517 ]
 [ 0.11276131]
 [ 3.1157444 ]
 [-0.43712917]
 [ 3.8622437 ]
 [ 2.9118347 ]
 [ 5.068363  ]
 [ 1.6934683 ]
 [ 1.8015983 ]
 [-0.87833536]
 [ 0.78675634]
 [ 3.696184  ]
 [-0.57929486]
 [-0.45737356]
 [-0.9532651 ]
 [ 0.09112267]
 [ 4.5829825 ]
 [ 1.5966665 ]
 [ 0.34899148]
 [ 4.509633  ]
 [-0.4202616 ]
 [-1.9778976 ]
 [-1.3896863 ]
 [-0.40873784]
 [-1.2450327 ]
 [ 4.005082  ]
 [ 2.6310363 ]]

Layer 4:
[0.09033562]



Entrenamiento 12:
------------------------------------------------------------------------

Layer 0:
[[ 0.00270047 -0.01716092  0.00140324 ...  0.01833225 -0.01175531
   0.00945501]
 [ 0.01129566 -0.00237309 -0.01980561 ...  0.00737232 -0.01721776
  -0.00295078]
 [ 0.00362053 -0.0047761   0.00682736 ...  0.0097664  -0.02411842
   0.02864008]
 ...
 [ 0.01135335 -0.00029278  0.0117159  ...  0.02092791 -0.0065687
   0.01198888]
 [-0.02855564  0.00482409  0.00820735 ...  0.01664562  0.00401721
   0.03722309]
 [-0.00688905  0.0076962   0.0139641  ...  0.0201337   0.00094543
   0.01136603]]

Layer 1:
[[-0.00254883  0.00756159  0.02642566  0.00606303 -0.0086079  -0.02393202
   0.00075062  0.01151695  0.02588721 -0.03224597  0.01809172  0.02664751
   0.00945148 -0.01138503 -0.01259697 -0.00413033  0.03733201 -0.01783015
   0.03316425  0.01667935  0.01656428 -0.02554839 -0.03115013  0.00142126
  -0.00188729  0.02472741 -0.01320036  0.01112583  0.00814602 -0.00362719
   0.01880637 -0.04155276 -0.00897531 -0.02149385 -0.02729748 -0.0172922
   0.0245897  -0.00021525  0.00055229  0.03656197  0.04748126  0.00872622
  -0.02809723 -0.01315185 -0.0197186  -0.01213652 -0.00403156  0.00279193
   0.01427925  0.0044475  -0.01137088  0.02621874 -0.00987843 -0.03578167
  -0.0265297  -0.00069399  0.00611034 -0.01704076  0.00331475  0.00092324
   0.01120607  0.01607363  0.03840991  0.00154246  0.0231555   0.00159863
  -0.0419605   0.01621659  0.0328357  -0.02942068 -0.00158302  0.00522235
   0.01682384 -0.00631091 -0.02435954  0.01560525 -0.02287308  0.01095234
   0.01375583  0.00705849  0.0012047   0.00068167  0.03418557  0.01914197
   0.01557659  0.02842921 -0.02605237  0.03251131  0.0276168   0.0096586
  -0.04335195  0.02100122  0.00262144  0.02900953 -0.00114778 -0.02517809
   0.03737048 -0.02418956  0.00672981  0.00029401]]

Layer 2:
[0. 0. 0. 0. 0. 0. 0. 0. 0. 0. 0. 0. 0. 0. 0. 0. 0. 0. 0. 0. 0. 0. 0. 0.
 0. 0. 0. 0. 0. 0. 0. 0. 0. 0. 0. 0. 0. 0. 0. 0. 0. 0. 0. 0. 0. 0. 0. 0.
 0. 0. 0. 0. 0. 0. 0. 0. 0. 0. 0. 0. 0. 0. 0. 0. 0. 0. 0. 0. 0. 0. 0. 0.
 0. 0. 0. 0. 0. 0. 0. 0. 0. 0. 0. 0. 0. 0. 0. 0. 0. 0. 0. 0. 0. 0. 0. 0.
 0. 0. 0. 0.]

Layer 3:
[[-3.5621898 ]
 [ 6.015994  ]
 [ 0.07539709]
 [ 5.039629  ]
 [-4.2984757 ]
 [ 0.18752858]
 [ 2.619113  ]
 [ 3.9648478 ]
 [ 0.11446325]
 [ 1.2271459 ]
 [ 2.5891192 ]
 [-0.2650917 ]
 [ 6.325019  ]
 [-3.6148062 ]
 [-2.599236  ]
 [-3.8163238 ]
 [-1.0174485 ]
 [-3.7360559 ]
 [-0.82262987]
 [ 1.491347  ]
 [ 1.9668461 ]
 [ 0.29610664]
 [ 0.3365523 ]
 [ 3.7232711 ]
 [-6.059959  ]
 [ 0.7906587 ]
 [-3.2001293 ]
 [ 3.2009754 ]
 [ 3.4613142 ]
 [-3.2885735 ]
 [ 2.3649516 ]
 [ 1.9623636 ]
 [-2.0926802 ]
 [-1.5769949 ]
 [ 0.9532414 ]
 [-2.7887297 ]
 [ 0.5154972 ]
 [-1.0756283 ]
 [ 3.1188378 ]
 [-1.4702166 ]
 [-2.3327503 ]
 [ 3.1653974 ]
 [ 0.3123732 ]
 [-4.1633916 ]
 [-0.60380906]
 [-6.3570347 ]
 [-5.8494716 ]
 [ 4.5564957 ]
 [ 3.4798996 ]
 [ 6.6581116 ]
 [-3.507626  ]
 [ 0.0930243 ]
 [-3.5131052 ]
 [ 1.3106602 ]
 [ 0.24681449]
 [-3.108412  ]
 [ 5.612143  ]
 [-2.2893414 ]
 [ 3.6243412 ]
 [ 2.1501307 ]
 [ 6.4810395 ]
 [ 2.9835863 ]
 [-1.4645995 ]
 [ 6.8924756 ]
 [ 0.48582944]
 [ 4.952295  ]
 [ 1.3468274 ]
 [ 3.0068083 ]
 [-1.5449073 ]
 [ 0.8131615 ]
 [-3.0774271 ]
 [ 3.9944837 ]
 [ 2.0619285 ]
 [-5.174621  ]
 [ 0.13642365]
 [ 3.6805768 ]
 [-0.49480137]
 [ 4.6614385 ]
 [ 3.4658313 ]
 [ 6.293562  ]
 [ 2.6580842 ]
 [ 2.7836864 ]
 [-1.0671301 ]
 [ 0.9235149 ]
 [ 4.331233  ]
 [-0.69247735]
 [-0.47676876]
 [-1.1139401 ]
 [ 0.06348559]
 [ 5.59889   ]
 [ 1.8746867 ]
 [ 0.4212882 ]
 [ 5.9682465 ]
 [-0.5262146 ]
 [-3.0109594 ]
 [-1.5516899 ]
 [-0.55284345]
 [-1.3852462 ]
 [ 5.0034704 ]
 [ 4.032837  ]]

Layer 4:
[0.03387073]



Consenso 12:
------------------------------------------------------------------------

Layer 0:
[[ 0.00270047 -0.01716092  0.00140324 ...  0.01833225 -0.01175531
   0.00945501]
 [ 0.01129566 -0.00237309 -0.01980561 ...  0.00737232 -0.01721776
  -0.00295078]
 [ 0.00362053 -0.0047761   0.00682736 ...  0.0097664  -0.02411842
   0.02864008]
 ...
 [ 0.01135335 -0.00029278  0.0117159  ...  0.02092791 -0.0065687
   0.01198888]
 [-0.02855564  0.00482409  0.00820735 ...  0.01664562  0.00401721
   0.03722309]
 [-0.00688905  0.0076962   0.0139641  ...  0.0201337   0.00094543
   0.01136603]]

Layer 1:
[[-0.00254883  0.00756159  0.02642566  0.00606303 -0.0086079  -0.02393202
   0.00075062  0.01151695  0.02588721 -0.03224597  0.01809172  0.02664751
   0.00945148 -0.01138503 -0.01259697 -0.00413033  0.03733201 -0.01783015
   0.03316425  0.01667935  0.01656428 -0.02554839 -0.03115013  0.00142126
  -0.00188729  0.02472741 -0.01320036  0.01112583  0.00814602 -0.00362719
   0.01880637 -0.04155276 -0.00897531 -0.02149385 -0.02729748 -0.0172922
   0.0245897  -0.00021525  0.00055229  0.03656197  0.04748126  0.00872622
  -0.02809723 -0.01315185 -0.0197186  -0.01213652 -0.00403156  0.00279193
   0.01427925  0.0044475  -0.01137088  0.02621874 -0.00987843 -0.03578167
  -0.0265297  -0.00069399  0.00611034 -0.01704076  0.00331475  0.00092324
   0.01120607  0.01607363  0.03840991  0.00154246  0.0231555   0.00159863
  -0.0419605   0.01621659  0.0328357  -0.02942068 -0.00158302  0.00522235
   0.01682384 -0.00631091 -0.02435954  0.01560525 -0.02287308  0.01095234
   0.01375583  0.00705849  0.0012047   0.00068167  0.03418557  0.01914197
   0.01557659  0.02842921 -0.02605237  0.03251131  0.0276168   0.0096586
  -0.04335195  0.02100122  0.00262144  0.02900953 -0.00114778 -0.02517809
   0.03737048 -0.02418956  0.00672981  0.00029401]]

Layer 2:
[0. 0. 0. 0. 0. 0. 0. 0. 0. 0. 0. 0. 0. 0. 0. 0. 0. 0. 0. 0. 0. 0. 0. 0.
 0. 0. 0. 0. 0. 0. 0. 0. 0. 0. 0. 0. 0. 0. 0. 0. 0. 0. 0. 0. 0. 0. 0. 0.
 0. 0. 0. 0. 0. 0. 0. 0. 0. 0. 0. 0. 0. 0. 0. 0. 0. 0. 0. 0. 0. 0. 0. 0.
 0. 0. 0. 0. 0. 0. 0. 0. 0. 0. 0. 0. 0. 0. 0. 0. 0. 0. 0. 0. 0. 0. 0. 0.
 0. 0. 0. 0.]

Layer 3:
[[-2.732353  ]
 [ 5.083176  ]
 [ 0.04284757]
 [ 4.1594076 ]
 [-3.5861418 ]
 [ 0.21196306]
 [ 1.8244535 ]
 [ 3.3541932 ]
 [ 0.08403321]
 [ 1.1019341 ]
 [ 2.2415636 ]
 [-0.26563188]
 [ 5.4536004 ]
 [-3.0293496 ]
 [-2.145082  ]
 [-2.989186  ]
 [-0.9012105 ]
 [-3.283169  ]
 [-0.73515457]
 [ 1.2321956 ]
 [ 1.64719   ]
 [ 0.29627004]
 [ 0.28381467]
 [ 2.750183  ]
 [-4.9030704 ]
 [ 0.6782284 ]
 [-2.7022657 ]
 [ 2.659845  ]
 [ 2.828296  ]
 [-2.5218873 ]
 [ 2.049642  ]
 [ 1.7342489 ]
 [-1.6148167 ]
 [-1.3779645 ]
 [ 0.8818011 ]
 [-2.4225783 ]
 [ 0.43204662]
 [-0.4925122 ]
 [ 2.556441  ]
 [-1.3089455 ]
 [-2.0509536 ]
 [ 2.5685177 ]
 [ 0.28662828]
 [-3.5618172 ]
 [-0.47963205]
 [-5.5424795 ]
 [-4.8095775 ]
 [ 3.581217  ]
 [ 2.9773362 ]
 [ 5.5688543 ]
 [-2.9458027 ]
 [ 0.05684036]
 [-2.9158723 ]
 [ 1.1709995 ]
 [ 0.25387037]
 [-2.1655602 ]
 [ 4.673213  ]
 [-1.9379984 ]
 [ 2.8027823 ]
 [ 1.4095974 ]
 [ 5.6367784 ]
 [ 2.5598466 ]
 [-1.2934262 ]
 [ 5.610654  ]
 [ 0.39558128]
 [ 3.8628333 ]
 [ 1.1606333 ]
 [ 2.5980952 ]
 [-1.3992785 ]
 [ 0.7509152 ]
 [-2.239824  ]
 [ 3.1655395 ]
 [ 1.7537127 ]
 [-4.296547  ]
 [ 0.16752209]
 [ 3.1780024 ]
 [-0.39732617]
 [ 3.9729695 ]
 [ 2.9613278 ]
 [ 5.3302684 ]
 [ 1.8240509 ]
 [ 1.9032897 ]
 [-0.93439007]
 [ 0.7542549 ]
 [ 3.7887874 ]
 [-0.6370195 ]
 [-0.41370332]
 [-1.0101143 ]
 [ 0.0439348 ]
 [ 4.767647  ]
 [ 1.6443832 ]
 [ 0.31155232]
 [ 4.843235  ]
 [-0.47555587]
 [-2.119679  ]
 [-1.3711267 ]
 [-0.45718002]
 [-1.226963  ]
 [ 4.1639466 ]
 [ 2.9906998 ]]

Layer 4:
[0.12858072]



Entrenamiento 13:
------------------------------------------------------------------------

Layer 0:
[[ 0.00270047 -0.01716092  0.00140324 ...  0.01833225 -0.01175531
   0.00945501]
 [ 0.01129566 -0.00237309 -0.01980561 ...  0.00737232 -0.01721776
  -0.00295078]
 [ 0.00362053 -0.0047761   0.00682736 ...  0.0097664  -0.02411842
   0.02864008]
 ...
 [ 0.01135335 -0.00029278  0.0117159  ...  0.02092791 -0.0065687
   0.01198888]
 [-0.02855564  0.00482409  0.00820735 ...  0.01664562  0.00401721
   0.03722309]
 [-0.00688905  0.0076962   0.0139641  ...  0.0201337   0.00094543
   0.01136603]]

Layer 1:
[[-0.00254883  0.00756159  0.02642566  0.00606303 -0.0086079  -0.02393202
   0.00075062  0.01151695  0.02588721 -0.03224597  0.01809172  0.02664751
   0.00945148 -0.01138503 -0.01259697 -0.00413033  0.03733201 -0.01783015
   0.03316425  0.01667935  0.01656428 -0.02554839 -0.03115013  0.00142126
  -0.00188729  0.02472741 -0.01320036  0.01112583  0.00814602 -0.00362719
   0.01880637 -0.04155276 -0.00897531 -0.02149385 -0.02729748 -0.0172922
   0.0245897  -0.00021525  0.00055229  0.03656197  0.04748126  0.00872622
  -0.02809723 -0.01315185 -0.0197186  -0.01213652 -0.00403156  0.00279193
   0.01427925  0.0044475  -0.01137088  0.02621874 -0.00987843 -0.03578167
  -0.0265297  -0.00069399  0.00611034 -0.01704076  0.00331475  0.00092324
   0.01120607  0.01607363  0.03840991  0.00154246  0.0231555   0.00159863
  -0.0419605   0.01621659  0.0328357  -0.02942068 -0.00158302  0.00522235
   0.01682384 -0.00631091 -0.02435954  0.01560525 -0.02287308  0.01095234
   0.01375583  0.00705849  0.0012047   0.00068167  0.03418557  0.01914197
   0.01557659  0.02842921 -0.02605237  0.03251131  0.0276168   0.0096586
  -0.04335195  0.02100122  0.00262144  0.02900953 -0.00114778 -0.02517809
   0.03737048 -0.02418956  0.00672981  0.00029401]]

Layer 2:
[0. 0. 0. 0. 0. 0. 0. 0. 0. 0. 0. 0. 0. 0. 0. 0. 0. 0. 0. 0. 0. 0. 0. 0.
 0. 0. 0. 0. 0. 0. 0. 0. 0. 0. 0. 0. 0. 0. 0. 0. 0. 0. 0. 0. 0. 0. 0. 0.
 0. 0. 0. 0. 0. 0. 0. 0. 0. 0. 0. 0. 0. 0. 0. 0. 0. 0. 0. 0. 0. 0. 0. 0.
 0. 0. 0. 0. 0. 0. 0. 0. 0. 0. 0. 0. 0. 0. 0. 0. 0. 0. 0. 0. 0. 0. 0. 0.
 0. 0. 0. 0.]

Layer 3:
[[-3.609074  ]
 [ 6.1799064 ]
 [ 0.01692153]
 [ 5.177115  ]
 [-4.370764  ]
 [ 0.24216685]
 [ 3.1161337 ]
 [ 4.010141  ]
 [ 0.05225617]
 [ 1.2794453 ]
 [ 2.5858357 ]
 [-0.32350227]
 [ 6.4578166 ]
 [-3.6479018 ]
 [-2.5945587 ]
 [-3.9336605 ]
 [-1.0602534 ]
 [-3.7527754 ]
 [-0.8752825 ]
 [ 1.453088  ]
 [ 1.9505464 ]
 [ 0.35696888]
 [ 0.39128906]
 [ 3.897215  ]
 [-6.6643434 ]
 [ 0.743612  ]
 [-3.2093725 ]
 [ 3.21679   ]
 [ 3.4874504 ]
 [-3.3603976 ]
 [ 2.3477516 ]
 [ 1.9920584 ]
 [-2.0675688 ]
 [-1.5306493 ]
 [ 1.0122838 ]
 [-2.775391  ]
 [ 0.46487972]
 [-1.0972283 ]
 [ 3.4672856 ]
 [-1.5122869 ]
 [-2.3470535 ]
 [ 3.1757545 ]
 [ 0.3724356 ]
 [-4.2183094 ]
 [-0.54216594]
 [-6.5030413 ]
 [-6.0918655 ]
 [ 4.714455  ]
 [ 3.4988742 ]
 [ 6.9820457 ]
 [-3.5399814 ]
 [ 0.04005881]
 [-3.555745  ]
 [ 1.3548473 ]
 [ 0.30316386]
 [-3.3658266 ]
 [ 5.767956  ]
 [-2.2630935 ]
 [ 3.685279  ]
 [ 2.1946623 ]
 [ 6.6318846 ]
 [ 2.9867675 ]
 [-1.5012484 ]
 [ 7.5559793 ]
 [ 0.4271613 ]
 [ 5.2351565 ]
 [ 1.3772291 ]
 [ 3.0019944 ]
 [-1.5971628 ]
 [ 0.8677672 ]
 [-3.1208081 ]
 [ 4.088548  ]
 [ 2.033003  ]
 [-5.3095775 ]
 [ 0.19627772]
 [ 3.70055   ]
 [-0.44376895]
 [ 4.7230453 ]
 [ 3.474694  ]
 [ 6.502916  ]
 [ 2.7598898 ]
 [ 2.8596044 ]
 [-1.1131676 ]
 [ 0.874366  ]
 [ 4.3792152 ]
 [-0.74749213]
 [-0.4240754 ]
 [-1.1637772 ]
 [ 0.01129482]
 [ 5.730397  ]
 [ 1.9028763 ]
