:
------------------------------------------------------------------------



Entrenamiento 0:
------------------------------------------------------------------------

Layer 0:
[[ 0.         -0.         -0.         ...  0.          0.
  -0.        ]
 [ 0.         -0.         -0.         ... -0.         -0.
  -0.        ]
 [ 0.          0.          0.         ... -0.         -0.
   0.        ]
 ...
 [-0.         -0.         -0.         ...  0.         -0.
   0.        ]
 [ 0.          0.         -0.         ... -0.         -0.
   0.22197735]
 [-0.         -0.         -0.         ... -0.         -0.
  -0.        ]]

Layer 1:
[[ 0.18835631 -0.22547477 -0.03881681  0.07998133 -0.1737662   0.09470928
  -0.12306317  0.13528138 -0.16256993  0.06218866 -0.07917133 -0.00381264
   0.01143128 -0.24341083 -0.17927288 -0.2154113   0.00797573 -0.10145028
   0.2084944  -0.07774054 -0.02649772 -0.20263791 -0.07672     0.10450697
   0.14626428  0.15605295  0.11025167 -0.19264813 -0.02791776  0.03614652
   0.09615618  0.16151232  0.22304565 -0.11728199 -0.21344124  0.01129454
   0.10310462  0.21766758 -0.13979971  0.13727877 -0.16254319  0.03477725
   0.22996452  0.09332952 -0.12967545  0.23975319  0.07954091  0.14014506
   0.09631756 -0.17090867 -0.12873754  0.1835748   0.03080451 -0.04940617
   0.02396742  0.00025354 -0.03622821  0.23663571 -0.00407042  0.19165102
   0.23440218  0.11584699 -0.09078968  0.09315512  0.11139014  0.11135069
   0.15656123  0.10168138 -0.19329478  0.15636098  0.2410413  -0.12708744
   0.17572021  0.14502972 -0.16157734 -0.08315621  0.23087364  0.05008602
   0.16291201 -0.17498408  0.14300305 -0.2229192   0.04136041  0.02487272
  -0.03727125 -0.0510962   0.02077806 -0.06778388 -0.06689286 -0.1739209
   0.05025434 -0.16722894 -0.24245015 -0.19419229 -0.18929125  0.05092844
  -0.15302062  0.02855104  0.11010301  0.14755991]]

Layer 2:
[0. 0. 0. 0. 0. 0. 0. 0. 0. 0. 0. 0. 0. 0. 0. 0. 0. 0. 0. 0. 0. 0. 0. 0.
 0. 0. 0. 0. 0. 0. 0. 0. 0. 0. 0. 0. 0. 0. 0. 0. 0. 0. 0. 0. 0. 0. 0. 0.
 0. 0. 0. 0. 0. 0. 0. 0. 0. 0. 0. 0. 0. 0. 0. 0. 0. 0. 0. 0. 0. 0. 0. 0.
 0. 0. 0. 0. 0. 0. 0. 0. 0. 0. 0. 0. 0. 0. 0. 0. 0. 0. 0. 0. 0. 0. 0. 0.
 0. 0. 0. 0.]

Layer 3:
[[ 4.95641269e-02]
 [-1.13839880e-02]
 [-4.19926554e-01]
 [ 2.26574332e-01]
 [-1.11644551e-01]
 [-1.62396226e-02]
 [-4.68381830e-02]
 [ 3.36444348e-01]
 [-8.16406459e-02]
 [ 1.95294544e-01]
 [-5.94921708e-01]
 [-2.53352553e-01]
 [ 4.18351114e-01]
 [-1.53940603e-01]
 [ 3.13873962e-02]
 [ 6.62003979e-02]
 [ 2.73506612e-01]
 [-4.15083438e-01]
 [ 9.61422175e-02]
 [-4.12248790e-01]
 [-3.04089338e-01]
 [-2.90872753e-01]
 [-4.67662394e-01]
 [ 2.18780547e-01]
 [ 7.10432604e-02]
 [ 5.37821651e-01]
 [ 3.83560777e-01]
 [ 3.30344699e-02]
 [-2.59270102e-01]
 [ 3.83029431e-01]
 [ 3.80524427e-01]
 [ 4.36868012e-01]
 [ 1.39097422e-01]
 [-5.56053780e-02]
 [-1.57356009e-01]
 [ 1.70140758e-01]
 [ 4.14456993e-01]
 [ 3.31252755e-04]
 [-5.00750393e-02]
 [ 3.67874205e-01]
 [ 1.59708355e-02]
 [ 2.76922584e-01]
 [ 3.29028107e-02]
 [ 6.22553468e-01]
 [-2.00282201e-01]
 [ 8.93332716e-03]
 [ 3.50250512e-01]
 [ 8.37967247e-02]
 [ 2.10074991e-01]
 [-4.28673893e-01]
 [-1.29350960e-01]
 [ 2.20872745e-01]
 [ 2.47417614e-01]
 [-3.26332659e-01]
 [ 3.22013140e-01]
 [ 1.13924809e-01]
 [-2.18262061e-01]
 [ 1.21486364e-02]
 [-3.02662849e-01]
 [ 1.71553083e-02]
 [ 9.81981028e-03]
 [ 2.27389038e-01]
 [-3.73756826e-01]
 [ 2.60846794e-01]
 [ 1.16827123e-01]
 [ 3.22487026e-01]
 [ 4.96533439e-02]
 [ 1.56990439e-01]
 [-2.49447316e-01]
 [ 4.07199234e-01]
 [-4.10510339e-02]
 [-1.03482395e-01]
 [ 1.81144357e-01]
 [ 2.65128225e-01]
 [ 4.91976328e-02]
 [-3.05010319e-01]
 [-4.04241011e-02]
 [ 3.95869970e-01]
 [ 4.70649540e-01]
 [-3.80064011e-01]
 [ 5.79064302e-02]
 [ 2.25216877e-02]
 [ 4.13567036e-01]
 [-6.38953224e-02]
 [-2.44111001e-01]
 [-1.45879149e-01]
 [-2.00970769e-01]
 [-2.90064842e-01]
 [-1.77092567e-01]
 [-2.51772225e-01]
 [ 4.80810292e-02]
 [-4.57375705e-01]
 [-3.82781029e-01]
 [-1.71511695e-01]
 [-3.57881278e-01]
 [ 3.64571512e-01]
 [-4.63497460e-01]
 [-4.16949362e-01]
 [ 1.70209691e-01]
 [ 1.79839835e-01]]

Layer 4:
[0.10957292]



Consenso 0:
------------------------------------------------------------------------

Layer 0:
[[ 0.00724775  0.00719595 -0.02450686 ...  0.01530747  0.00445566
  -0.005597  ]
 [-0.00318396  0.00024078  0.02726323 ...  0.01333212  0.00738362
  -0.01571566]
 [ 0.01133475  0.01565006 -0.01680472 ... -0.0051903  -0.00970898
  -0.02153419]
 ...
 [-0.00684963  0.00139501 -0.01936958 ...  0.01481644 -0.00496011
   0.02315295]
 [-0.0226775  -0.00255138 -0.01140943 ...  0.00578567 -0.00165481
   0.03618562]
 [ 0.00139497  0.01054937 -0.01175343 ... -0.00393151 -0.01152123
   0.00343025]]

Layer 1:
[[-1.44793699e-02 -1.82660837e-02  8.66895635e-03  9.06892680e-03
  -4.24914323e-02 -1.62321776e-05 -6.86263992e-03  7.68084964e-03
  -2.91614309e-02 -1.62356589e-02 -2.41615102e-02  2.09719618e-03
   4.82583698e-03  5.89985214e-03 -5.95937204e-03  1.78516936e-03
  -7.85279833e-03 -1.98240206e-02  1.88201703e-02  1.04811201e-02
  -1.59497827e-03  4.57725264e-02 -4.21565250e-02  2.66843894e-03
   3.45550887e-02  2.71748733e-02 -3.81849171e-03 -2.49355398e-02
  -2.53878254e-02  1.54370517e-02 -1.22429347e-02 -2.62985658e-02
   5.45154773e-02 -1.38218012e-02 -2.42966022e-02  2.44242046e-02
   6.28864067e-03 -4.98393690e-03 -1.16235726e-02 -2.29430180e-02
  -9.37881228e-03  2.00715587e-02 -3.03843692e-02 -2.42424496e-02
   2.23830901e-03 -1.91855931e-03  1.35276606e-02 -2.86902301e-02
   1.58762597e-02  7.11188326e-03 -3.09592159e-03  5.24914712e-02
  -2.18753945e-02 -2.86342800e-02 -2.56179590e-02  5.44374064e-03
  -7.00445008e-03  5.50493423e-04  2.01845951e-02  2.58556511e-02
  -9.03612236e-04 -4.93934657e-03 -1.93005595e-02 -4.77240328e-03
  -2.64765136e-02 -8.54639709e-03 -3.93544398e-02  8.83749314e-03
  -5.25207771e-03  1.47963585e-02  1.60291027e-02 -9.60690621e-03
   1.61520876e-02 -1.52418232e-02 -2.45479308e-02 -5.51637204e-04
  -1.79455187e-02  1.04606319e-02 -6.93837041e-03 -4.42690067e-02
  -1.01596741e-02  1.34675344e-02 -1.56221085e-03 -1.77264046e-02
  -2.33884323e-02  2.47374885e-02 -2.15480924e-02  1.65070128e-02
   2.52045467e-02 -3.04722739e-03 -2.75644176e-02 -1.72754880e-02
   1.13161551e-02  1.06521482e-02 -1.70735624e-02  3.37990075e-02
   1.68731192e-03  3.67800985e-03  2.19542272e-02  3.30578943e-04]]

Layer 2:
[0. 0. 0. 0. 0. 0. 0. 0. 0. 0. 0. 0. 0. 0. 0. 0. 0. 0. 0. 0. 0. 0. 0. 0.
 0. 0. 0. 0. 0. 0. 0. 0. 0. 0. 0. 0. 0. 0. 0. 0. 0. 0. 0. 0. 0. 0. 0. 0.
 0. 0. 0. 0. 0. 0. 0. 0. 0. 0. 0. 0. 0. 0. 0. 0. 0. 0. 0. 0. 0. 0. 0. 0.
 0. 0. 0. 0. 0. 0. 0. 0. 0. 0. 0. 0. 0. 0. 0. 0. 0. 0. 0. 0. 0. 0. 0. 0.
 0. 0. 0. 0.]

Layer 3:
[[-0.09292113]
 [-0.04870002]
 [-0.02233133]
 [ 0.02475946]
 [-0.14114647]
 [ 0.03746898]
 [ 0.01591464]
 [-0.01193264]
 [-0.06519389]
 [-0.06454124]
 [-0.04888385]
 [-0.05609436]
 [ 0.03693687]
 [ 0.01764024]
 [ 0.02071294]
 [ 0.02896999]
 [-0.0251998 ]
 [-0.02222338]
 [-0.01716028]
 [ 0.0540475 ]
 [-0.05080215]
 [ 0.06548703]
 [-0.12938823]
 [-0.01322657]
 [ 0.12369166]
 [ 0.09501024]
 [-0.01242597]
 [-0.0393375 ]
 [-0.10545754]
 [ 0.06700024]
 [-0.03158713]
 [-0.04566497]
 [ 0.11771742]
 [-0.05031753]
 [-0.01182691]
 [ 0.08739998]
 [ 0.06556555]
 [-0.01574162]
 [ 0.04174309]
 [-0.0207151 ]
 [ 0.00644833]
 [-0.03359229]
 [-0.07779366]
 [-0.1229175 ]
 [-0.0155144 ]
 [-0.08664776]
 [-0.00074032]
 [-0.04731756]
 [-0.01146344]
 [ 0.02867326]
 [-0.06317747]
 [ 0.10113224]
 [-0.11572336]
 [-0.06486537]
 [ 0.00087252]
 [ 0.08348523]
 [-0.03125635]
 [-0.00015029]
 [ 0.00295204]
 [ 0.06016123]
 [-0.03704473]
 [-0.023522  ]
 [-0.08386217]
 [ 0.06012047]
 [-0.07661068]
 [-0.05902438]
 [-0.10224453]
 [-0.04057151]
 [-0.05698116]
 [ 0.05086111]
 [ 0.05253425]
 [-0.04102309]
 [ 0.03546819]
 [-0.03811711]
 [-0.05057987]
 [ 0.03414185]
 [-0.0603527 ]
 [ 0.01907258]
 [-0.02840476]
 [-0.09020498]
 [ 0.02170822]
 [ 0.06959078]
 [-0.02295063]
 [-0.03829781]
 [-0.14510871]
 [ 0.02497533]
 [-0.04131642]
 [ 0.03197037]
 [ 0.05553955]
 [ 0.02939603]
 [-0.06850738]
 [-0.1255814 ]
 [ 0.04744361]
 [ 0.04179264]
 [-0.05891475]
 [ 0.04049089]
 [ 0.01916925]
 [ 0.02781714]
 [ 0.11403823]
 [ 0.00867866]]

Layer 4:
[0.24510714]



Entrenamiento 1:
------------------------------------------------------------------------

Layer 0:
[[ 0.00724775  0.00719595 -0.02450686 ...  0.01530747  0.00445566
  -0.005597  ]
 [-0.00318396  0.00024078  0.02726323 ...  0.01333212  0.00738362
  -0.01571566]
 [ 0.01133475  0.01565006 -0.01680472 ... -0.0051903  -0.00970898
  -0.02153419]
 ...
 [-0.00684963  0.00139501 -0.01936958 ...  0.01481644 -0.00496011
   0.02315295]
 [-0.0226775  -0.00255138 -0.01140943 ...  0.00578567 -0.00165481
   0.03618562]
 [ 0.00139497  0.01054937 -0.01175343 ... -0.00393151 -0.01152123
   0.00343025]]

Layer 1:
[[-1.44793699e-02 -1.82660837e-02  8.66895635e-03  9.06892680e-03
  -4.24914323e-02 -1.62321776e-05 -6.86263992e-03  7.68084964e-03
  -2.91614309e-02 -1.62356589e-02 -2.41615102e-02  2.09719618e-03
   4.82583698e-03  5.89985214e-03 -5.95937204e-03  1.78516936e-03
  -7.85279833e-03 -1.98240206e-02  1.88201703e-02  1.04811201e-02
  -1.59497827e-03  4.57725264e-02 -4.21565250e-02  2.66843894e-03
   3.45550887e-02  2.71748733e-02 -3.81849171e-03 -2.49355398e-02
  -2.53878254e-02  1.54370517e-02 -1.22429347e-02 -2.62985658e-02
   5.45154773e-02 -1.38218012e-02 -2.42966022e-02  2.44242046e-02
   6.28864067e-03 -4.98393690e-03 -1.16235726e-02 -2.29430180e-02
  -9.37881228e-03  2.00715587e-02 -3.03843692e-02 -2.42424496e-02
   2.23830901e-03 -1.91855931e-03  1.35276606e-02 -2.86902301e-02
   1.58762597e-02  7.11188326e-03 -3.09592159e-03  5.24914712e-02
  -2.18753945e-02 -2.86342800e-02 -2.56179590e-02  5.44374064e-03
  -7.00445008e-03  5.50493423e-04  2.01845951e-02  2.58556511e-02
  -9.03612236e-04 -4.93934657e-03 -1.93005595e-02 -4.77240328e-03
  -2.64765136e-02 -8.54639709e-03 -3.93544398e-02  8.83749314e-03
  -5.25207771e-03  1.47963585e-02  1.60291027e-02 -9.60690621e-03
   1.61520876e-02 -1.52418232e-02 -2.45479308e-02 -5.51637204e-04
  -1.79455187e-02  1.04606319e-02 -6.93837041e-03 -4.42690067e-02
  -1.01596741e-02  1.34675344e-02 -1.56221085e-03 -1.77264046e-02
  -2.33884323e-02  2.47374885e-02 -2.15480924e-02  1.65070128e-02
   2.52045467e-02 -3.04722739e-03 -2.75644176e-02 -1.72754880e-02
   1.13161551e-02  1.06521482e-02 -1.70735624e-02  3.37990075e-02
   1.68731192e-03  3.67800985e-03  2.19542272e-02  3.30578943e-04]]

Layer 2:
[0. 0. 0. 0. 0. 0. 0. 0. 0. 0. 0. 0. 0. 0. 0. 0. 0. 0. 0. 0. 0. 0. 0. 0.
 0. 0. 0. 0. 0. 0. 0. 0. 0. 0. 0. 0. 0. 0. 0. 0. 0. 0. 0. 0. 0. 0. 0. 0.
 0. 0. 0. 0. 0. 0. 0. 0. 0. 0. 0. 0. 0. 0. 0. 0. 0. 0. 0. 0. 0. 0. 0. 0.
 0. 0. 0. 0. 0. 0. 0. 0. 0. 0. 0. 0. 0. 0. 0. 0. 0. 0. 0. 0. 0. 0. 0. 0.
 0. 0. 0. 0.]

Layer 3:
[[-0.34647855]
 [-0.33901405]
 [ 0.2289043 ]
 [ 0.20406882]
 [-0.6095043 ]
 [ 0.01185304]
 [-0.15423746]
 [ 0.17893666]
 [-0.4386556 ]
 [-0.38186917]
 [-0.49520716]
 [-0.05157721]
 [ 0.6412141 ]
 [ 0.14174025]
 [-0.06618717]
 [ 0.07779837]
 [-0.28543538]
 [-0.35582587]
 [ 0.26036137]
 [ 0.20950513]
 [-0.20549408]
 [ 0.5527978 ]
 [-0.63005936]
 [ 0.07324234]
 [ 0.5510682 ]
 [ 0.5091353 ]
 [-0.06904276]
 [-0.3935312 ]
 [-0.612222  ]
 [ 0.45860168]
 [-0.3471056 ]
 [-0.42411837]
 [ 0.60255724]
 [-0.3144375 ]
 [-0.33224726]
 [ 0.46712548]
 [ 0.13589296]
 [-0.07112204]
 [-0.10150929]
 [-0.35058448]
 [-0.16126865]
 [ 0.36798832]
 [-0.45820904]
 [-0.52436477]
 [ 0.04561414]
 [-0.09602978]
 [ 0.2111851 ]
 [-0.43304735]
 [ 0.2725237 ]
 [ 0.1790324 ]
 [-0.11785448]
 [ 0.57649183]
 [-0.43931043]
 [-0.48960093]
 [-0.49154732]
 [ 0.3706063 ]
 [-0.22525758]
 [ 0.00681951]
 [ 0.801303  ]
 [ 0.4200613 ]
 [-0.04640064]
 [-0.10513348]
 [-0.49161574]
 [-0.03501334]
 [-0.46314636]
 [-0.19271106]
 [-0.56072634]
 [ 0.06053324]
 [-0.11363991]
 [ 0.2950825 ]
 [ 0.26878965]
 [-0.23818183]
 [ 0.29632857]
 [-0.27489465]
 [-0.40324545]
 [ 0.07870179]
 [-0.30778107]
 [ 0.14856686]
 [-0.12598245]
 [-0.6143787 ]
 [-0.16309825]
 [ 0.30889878]
 [ 0.01598848]
 [-0.47404933]
 [-0.56077695]
 [ 0.40156633]
 [-0.44268256]
 [ 0.40094838]
 [ 0.4031953 ]
 [-0.02785402]
 [-0.46442187]
 [-0.46299896]
 [ 0.260341  ]
 [ 0.17241317]
 [-0.32108092]
 [ 0.53208035]
 [ 0.07031076]
 [ 0.41585773]
 [ 0.4614531 ]
 [ 0.04998658]]

Layer 4:
[0.81102866]



Consenso 1:
------------------------------------------------------------------------

Layer 0:
[[ 0.00699436  0.00679495 -0.02515289 ...  0.01505932  0.00435053
  -0.00546457]
 [-0.00314683 -0.00010477  0.02693886 ...  0.01385516  0.00758936
  -0.01547861]
 [ 0.01018953  0.01589073 -0.01678125 ... -0.00504832 -0.00941869
  -0.02193255]
 ...
 [-0.00764899  0.00159163 -0.01944822 ...  0.01517197 -0.00533109
   0.02323468]
 [-0.022337   -0.00225199 -0.01138921 ...  0.0057887  -0.0018474
   0.03621471]
 [ 0.00095464  0.01060805 -0.01237057 ... -0.00422413 -0.01145923
   0.0033243 ]]

Layer 1:
[[-1.44522386e-02 -1.71072017e-02  7.84501806e-03  9.90670361e-03
  -4.16718833e-02  2.76327446e-05 -6.00583944e-03  7.98586942e-03
  -2.93455273e-02 -1.58733297e-02 -2.44663898e-02  2.88078701e-03
   5.05012739e-03  6.16302202e-03 -5.35331061e-03  2.47095129e-03
  -7.26971542e-03 -2.05351803e-02  1.79483537e-02  9.48974676e-03
  -1.10126217e-03  4.49985042e-02 -4.25220057e-02  2.46187998e-03
   3.48386616e-02  2.70574614e-02 -3.87828681e-03 -2.52048448e-02
  -2.52693128e-02  1.59470476e-02 -1.20289018e-02 -2.78354250e-02
   5.39189614e-02 -1.28668463e-02 -2.45416071e-02  2.39972752e-02
   6.24275394e-03 -5.32796839e-03 -1.15377279e-02 -2.27863267e-02
  -8.76610354e-03  2.09362637e-02 -3.06342356e-02 -2.42405813e-02
   1.87158608e-03 -2.87389819e-04  1.31138256e-02 -2.95044631e-02
   1.57695506e-02  6.89179637e-03 -3.62725626e-03  5.32319620e-02
  -2.18479522e-02 -2.80109774e-02 -2.47959048e-02  6.15905272e-03
  -6.97221141e-03 -3.61241080e-04  2.01414116e-02  2.55702101e-02
  -2.17975423e-04 -5.31005953e-03 -1.90346241e-02 -4.87289531e-03
  -2.63841078e-02 -9.62747540e-03 -3.88578661e-02  9.28184111e-03
  -4.85482393e-03  1.40883010e-02  1.60465594e-02 -9.44595411e-03
   1.67279094e-02 -1.45066269e-02 -2.40904782e-02 -4.52196138e-04
  -1.80816539e-02  1.00848908e-02 -7.18273036e-03 -4.30822708e-02
  -1.03219645e-02  1.36560416e-02 -2.14595231e-03 -1.81930531e-02
  -2.31458340e-02  2.51198653e-02 -2.16594096e-02  1.65940095e-02
   2.52711959e-02 -2.25757598e-03 -2.63903029e-02 -1.81602687e-02
   1.12408465e-02  1.10337576e-02 -1.67117715e-02  3.40653136e-02
   1.74049858e-03  2.62498204e-03  2.12780237e-02  8.37053987e-04]]

Layer 2:
[0. 0. 0. 0. 0. 0. 0. 0. 0. 0. 0. 0. 0. 0. 0. 0. 0. 0. 0. 0. 0. 0. 0. 0.
 0. 0. 0. 0. 0. 0. 0. 0. 0. 0. 0. 0. 0. 0. 0. 0. 0. 0. 0. 0. 0. 0. 0. 0.
 0. 0. 0. 0. 0. 0. 0. 0. 0. 0. 0. 0. 0. 0. 0. 0. 0. 0. 0. 0. 0. 0. 0. 0.
 0. 0. 0. 0. 0. 0. 0. 0. 0. 0. 0. 0. 0. 0. 0. 0. 0. 0. 0. 0. 0. 0. 0. 0.
 0. 0. 0. 0.]

Layer 3:
[[-0.4966133 ]
 [-0.46375135]
 [ 0.24116533]
 [ 0.33521244]
 [-0.65960467]
 [-0.00507075]
 [-0.22510968]
 [ 0.30556706]
 [-0.53607893]
 [-0.45319706]
 [-0.49062493]
 [ 0.01572971]
 [ 0.29982814]
 [ 0.26529938]
 [-0.17224167]
 [ 0.13350844]
 [-0.26641425]
 [-0.4689931 ]
 [ 0.3780833 ]
 [ 0.32817215]
 [-0.1461337 ]
 [ 0.58731365]
 [-0.65562433]
 [ 0.13378665]
 [ 0.62049216]
 [ 0.56944555]
 [-0.1454873 ]
 [-0.48571888]
 [-0.55578905]
 [ 0.5026162 ]
 [-0.4164955 ]
 [-0.5054205 ]
 [ 0.6454725 ]
 [-0.4257526 ]
 [-0.45164174]
 [ 0.5249068 ]
 [ 0.21791114]
 [-0.16243476]
 [-0.2313583 ]
 [-0.45446423]
 [-0.32703832]
 [ 0.3884627 ]
 [-0.5362043 ]
 [-0.5650081 ]
 [ 0.09308299]
 [-0.04939627]
 [ 0.2904781 ]
 [-0.52253735]
 [ 0.38832977]
 [ 0.2848067 ]
 [-0.18517406]
 [ 0.6262326 ]
 [-0.5558957 ]
 [-0.52859956]
 [-0.4296468 ]
 [ 0.28693995]
 [-0.2965289 ]
 [-0.01661552]
 [ 0.4327185 ]
 [ 0.5255934 ]
 [-0.02188876]
 [-0.2023383 ]
 [-0.52601457]
 [-0.11075401]
 [-0.53398925]
 [-0.3486974 ]
 [-0.6168073 ]
 [ 0.18626587]
 [-0.19514257]
 [ 0.40330523]
 [ 0.43874055]
 [-0.33926165]
 [ 0.41408193]
 [-0.39513823]
 [-0.509717  ]
 [ 0.09430683]
 [-0.47316483]
 [ 0.25054258]
 [-0.2547118 ]
 [-0.61008734]
 [-0.31171167]
 [ 0.45671695]
 [-0.05525367]
 [-0.45592356]
 [-0.59138626]
 [ 0.4780987 ]
 [-0.4298509 ]
 [ 0.471306  ]
 [ 0.50545114]
 [-0.07533774]
 [-0.5312906 ]
 [-0.55082697]
 [ 0.41357344]
 [ 0.32099614]
 [-0.47985807]
 [ 0.52624685]
 [ 0.11930516]
 [ 0.17294724]
 [ 0.5401736 ]
 [ 0.13168186]]

Layer 4:
[0.66402346]



Entrenamiento 2:
------------------------------------------------------------------------

Layer 0:
[[ 0.00699436  0.00679495 -0.02515289 ...  0.01505932  0.00435053
  -0.00546457]
 [-0.00314683 -0.00010477  0.02693886 ...  0.01385516  0.00758936
  -0.01547861]
 [ 0.01018953  0.01589073 -0.01678125 ... -0.00504832 -0.00941869
  -0.02193255]
 ...
 [-0.00764899  0.00159163 -0.01944822 ...  0.01517197 -0.00533109
   0.02323468]
 [-0.022337   -0.00225199 -0.01138921 ...  0.0057887  -0.0018474
   0.03621471]
 [ 0.00095464  0.01060805 -0.01237057 ... -0.00422413 -0.01145923
   0.0033243 ]]

Layer 1:
[[-1.44522386e-02 -1.71072017e-02  7.84501806e-03  9.90670361e-03
  -4.16718833e-02  2.76327446e-05 -6.00583944e-03  7.98586942e-03
  -2.93455273e-02 -1.58733297e-02 -2.44663898e-02  2.88078701e-03
   5.05012739e-03  6.16302202e-03 -5.35331061e-03  2.47095129e-03
  -7.26971542e-03 -2.05351803e-02  1.79483537e-02  9.48974676e-03
  -1.10126217e-03  4.49985042e-02 -4.25220057e-02  2.46187998e-03
   3.48386616e-02  2.70574614e-02 -3.87828681e-03 -2.52048448e-02
  -2.52693128e-02  1.59470476e-02 -1.20289018e-02 -2.78354250e-02
   5.39189614e-02 -1.28668463e-02 -2.45416071e-02  2.39972752e-02
   6.24275394e-03 -5.32796839e-03 -1.15377279e-02 -2.27863267e-02
  -8.76610354e-03  2.09362637e-02 -3.06342356e-02 -2.42405813e-02
   1.87158608e-03 -2.87389819e-04  1.31138256e-02 -2.95044631e-02
   1.57695506e-02  6.89179637e-03 -3.62725626e-03  5.32319620e-02
  -2.18479522e-02 -2.80109774e-02 -2.47959048e-02  6.15905272e-03
  -6.97221141e-03 -3.61241080e-04  2.01414116e-02  2.55702101e-02
  -2.17975423e-04 -5.31005953e-03 -1.90346241e-02 -4.87289531e-03
  -2.63841078e-02 -9.62747540e-03 -3.88578661e-02  9.28184111e-03
  -4.85482393e-03  1.40883010e-02  1.60465594e-02 -9.44595411e-03
   1.67279094e-02 -1.45066269e-02 -2.40904782e-02 -4.52196138e-04
  -1.80816539e-02  1.00848908e-02 -7.18273036e-03 -4.30822708e-02
  -1.03219645e-02  1.36560416e-02 -2.14595231e-03 -1.81930531e-02
  -2.31458340e-02  2.51198653e-02 -2.16594096e-02  1.65940095e-02
   2.52711959e-02 -2.25757598e-03 -2.63903029e-02 -1.81602687e-02
   1.12408465e-02  1.10337576e-02 -1.67117715e-02  3.40653136e-02
   1.74049858e-03  2.62498204e-03  2.12780237e-02  8.37053987e-04]]

Layer 2:
[0. 0. 0. 0. 0. 0. 0. 0. 0. 0. 0. 0. 0. 0. 0. 0. 0. 0. 0. 0. 0. 0. 0. 0.
 0. 0. 0. 0. 0. 0. 0. 0. 0. 0. 0. 0. 0. 0. 0. 0. 0. 0. 0. 0. 0. 0. 0. 0.
 0. 0. 0. 0. 0. 0. 0. 0. 0. 0. 0. 0. 0. 0. 0. 0. 0. 0. 0. 0. 0. 0. 0. 0.
 0. 0. 0. 0. 0. 0. 0. 0. 0. 0. 0. 0. 0. 0. 0. 0. 0. 0. 0. 0. 0. 0. 0. 0.
 0. 0. 0. 0.]

Layer 3:
[[-0.63540196]
 [-0.61905074]
 [ 0.39501292]
 [ 0.4473385 ]
 [-0.878644  ]
 [-0.0181763 ]
 [-0.31147444]
 [ 0.41421247]
 [-0.733457  ]
 [-0.6397009 ]
 [-0.70762557]
 [ 0.0428447 ]
 [ 0.5558325 ]
 [ 0.33882266]
 [-0.22379039]
 [ 0.16325472]
 [-0.41290498]
 [-0.65174705]
 [ 0.5303951 ]
 [ 0.43506086]
 [-0.21102804]
 [ 0.8048312 ]
 [-0.8865154 ]
 [ 0.1796554 ]
 [ 0.8321308 ]
 [ 0.7724788 ]
 [-0.17670685]
 [-0.6749947 ]
 [-0.79840386]
 [ 0.7005041 ]
 [-0.59970105]
 [-0.71403617]
 [ 0.8623683 ]
 [-0.56556517]
 [-0.6298506 ]
 [ 0.7214968 ]
 [ 0.2644405 ]
 [-0.1980099 ]
 [-0.322865  ]
 [-0.63287646]
 [-0.42619994]
 [ 0.59865576]
 [-0.73420626]
 [-0.78868765]
 [ 0.1205479 ]
 [-0.03791917]
 [ 0.40973344]
 [-0.7207076 ]
 [ 0.54494584]
 [ 0.37290895]
 [-0.22007746]
 [ 0.84827465]
 [-0.72746825]
 [-0.7391494 ]
 [-0.67439145]
 [ 0.45293304]
 [-0.4043287 ]
 [-0.01804091]
 [ 0.7352627 ]
 [ 0.7148286 ]
 [-0.01713172]
 [-0.25574738]
 [-0.7236276 ]
 [-0.17453377]
 [-0.73142546]
 [-0.45368528]
 [-0.82633436]
 [ 0.25579205]
 [-0.23032404]
 [ 0.53938454]
 [ 0.5694985 ]
 [-0.44691068]
 [ 0.56647193]
 [-0.52278924]
 [-0.6943744 ]
 [ 0.1186654 ]
 [-0.6148843 ]
 [ 0.33064696]
 [-0.32172403]
 [-0.83622706]
 [-0.42431614]
 [ 0.5883955 ]
 [-0.05753295]
 [-0.6832609 ]
 [-0.80137014]
 [ 0.67282254]
 [-0.65750676]
 [ 0.6682918 ]
 [ 0.689546  ]
 [-0.10666017]
 [-0.7304688 ]
 [-0.73045164]
 [ 0.5326459 ]
 [ 0.4025442 ]
 [-0.62976617]
 [ 0.7569894 ]
 [ 0.14914724]
 [ 0.34125397]
 [ 0.72328997]
 [ 0.16176645]]

Layer 4:
[0.6871644]



Consenso 2:
------------------------------------------------------------------------

Layer 0:
[[ 0.0069871   0.00678062 -0.02517697 ...  0.01505093  0.00434724
  -0.00546042]
 [-0.00315014 -0.0001165   0.02692731 ...  0.01387371  0.0075949
  -0.01546985]
 [ 0.01015054  0.01590006 -0.01678139 ... -0.00504225 -0.00940987
  -0.02194672]
 ...
 [-0.00767931  0.00159866 -0.01944887 ...  0.01518218 -0.00534415
   0.02323506]
 [-0.02232576 -0.00224218 -0.0113855  ...  0.00578935 -0.00185374
   0.03621493]
 [ 0.00093921  0.01060692 -0.01239296 ... -0.00423476 -0.01145618
   0.00332084]]

Layer 1:
[[-1.44523615e-02 -1.70668140e-02  7.82006234e-03  9.93751269e-03
  -4.16460112e-02  2.89781310e-05 -5.97528042e-03  7.99674448e-03
  -2.93518733e-02 -1.58595368e-02 -2.44716275e-02  2.90994928e-03
   5.05453395e-03  6.17335644e-03 -5.33115491e-03  2.49713054e-03
  -7.24427961e-03 -2.05558073e-02  1.79165900e-02  9.45594348e-03
  -1.08466519e-03  4.49678637e-02 -4.25393172e-02  2.45559798e-03
   3.48504409e-02  2.70545520e-02 -3.87904351e-03 -2.52122413e-02
  -2.52608899e-02  1.59673654e-02 -1.20210163e-02 -2.78930850e-02
   5.38987033e-02 -1.28270611e-02 -2.45530419e-02  2.39790771e-02
   6.23721164e-03 -5.33818919e-03 -1.15349451e-02 -2.27798801e-02
  -8.74846336e-03  2.09688228e-02 -3.06435954e-02 -2.42405813e-02
   1.86082290e-03 -2.29301295e-04  1.30986264e-02 -2.95367837e-02
   1.57639310e-02  6.88213576e-03 -3.64449178e-03  5.32582887e-02
  -2.18438357e-02 -2.79899370e-02 -2.47655734e-02  6.18292019e-03
  -6.96976855e-03 -3.89284425e-04  2.01389510e-02  2.55595427e-02
  -1.88744336e-04 -5.32464683e-03 -1.90266185e-02 -4.87785228e-03
  -2.63819136e-02 -9.66604985e-03 -3.88397314e-02  9.29941889e-03
  -4.84042382e-03  1.40640149e-02  1.60469618e-02 -9.43440851e-03
   1.67510975e-02 -1.44801345e-02 -2.40763128e-02 -4.51964617e-04
  -1.80874951e-02  1.00705456e-02 -7.19517190e-03 -4.30426635e-02
  -1.03257038e-02  1.36622982e-02 -2.16582720e-03 -1.82061642e-02
  -2.31376849e-02  2.51328740e-02 -2.16625854e-02  1.65979955e-02
   2.52715312e-02 -2.22862978e-03 -2.63482872e-02 -1.81879718e-02
   1.12376530e-02  1.10445665e-02 -1.66971870e-02  3.40716392e-02
   1.74312422e-03  2.58566858e-03  2.12552100e-02  8.52284604e-04]]

Layer 2:
[0. 0. 0. 0. 0. 0. 0. 0. 0. 0. 0. 0. 0. 0. 0. 0. 0. 0. 0. 0. 0. 0. 0. 0.
 0. 0. 0. 0. 0. 0. 0. 0. 0. 0. 0. 0. 0. 0. 0. 0. 0. 0. 0. 0. 0. 0. 0. 0.
 0. 0. 0. 0. 0. 0. 0. 0. 0. 0. 0. 0. 0. 0. 0. 0. 0. 0. 0. 0. 0. 0. 0. 0.
 0. 0. 0. 0. 0. 0. 0. 0. 0. 0. 0. 0. 0. 0. 0. 0. 0. 0. 0. 0. 0. 0. 0. 0.
 0. 0. 0. 0.]

Layer 3:
[[-0.79811454]
 [-0.766891  ]
 [ 0.47576842]
 [ 0.5959891 ]
 [-0.9796725 ]
 [-0.04696181]
 [-0.43633634]
 [ 0.5613614 ]
 [-0.8551851 ]
 [-0.75182325]
 [-0.8092613 ]
 [ 0.10072447]
 [ 0.5178028 ]
 [ 0.4820929 ]
 [-0.35383394]
 [ 0.23772256]
 [-0.48589465]
 [-0.7825633 ]
 [ 0.68310237]
 [ 0.56889224]
 [-0.23392364]
 [ 0.90286183]
 [-0.9805171 ]
 [ 0.27057585]
 [ 0.9389758 ]
 [ 0.88884103]
 [-0.27856395]
 [-0.7996959 ]
 [-0.87197703]
 [ 0.80886555]
 [-0.70887053]
 [-0.8239698 ]
 [ 0.9573073 ]
 [-0.7156292 ]
 [-0.76394165]
 [ 0.8352725 ]
 [ 0.3784103 ]
 [-0.31631184]
 [-0.48218697]
 [-0.770784  ]
 [-0.59719497]
 [ 0.69912255]
 [-0.8541486 ]
 [-0.8783347 ]
 [ 0.19735357]
 [-0.0055739 ]
 [ 0.55186945]
 [-0.8414524 ]
 [ 0.6924215 ]
 [ 0.50994074]
 [-0.3079275 ]
 [ 0.9424427 ]
 [-0.8689218 ]
 [-0.8464301 ]
 [-0.7480024 ]
 [ 0.47093028]
 [-0.5267524 ]
 [-0.03191693]
 [ 0.74471927]
 [ 0.8430365 ]
 [-0.00808786]
 [-0.37533614]
 [-0.83724755]
 [-0.27326798]
 [-0.84986585]
 [-0.603098  ]
 [-0.9345209 ]
 [ 0.4106105 ]
 [-0.33432472]
 [ 0.68723124]
 [ 0.7367363 ]
 [-0.5919992 ]
 [ 0.71172315]
 [-0.6812216 ]
 [-0.82484907]
 [ 0.14158678]
 [-0.7852479 ]
 [ 0.47748846]
 [-0.46255186]
 [-0.92863744]
 [-0.58597094]
 [ 0.75152   ]
 [-0.09661406]
 [-0.76225626]
 [-0.9128463 ]
 [ 0.7928406 ]
 [-0.7356938 ]
 [ 0.7796666 ]
 [ 0.82338727]
 [-0.17634165]
 [-0.8510589 ]
 [-0.85773927]
 [ 0.6986629 ]
 [ 0.57159674]
 [-0.7898404 ]
 [ 0.8438254 ]
 [ 0.2128833 ]
 [ 0.30487067]
 [ 0.85403097]
 [ 0.24459067]]

Layer 4:
[0.75332177]



Entrenamiento 3:
------------------------------------------------------------------------

Layer 0:
[[ 0.0069871   0.00678062 -0.02517697 ...  0.01505093  0.00434724
  -0.00546042]
 [-0.00315014 -0.0001165   0.02692731 ...  0.01387371  0.0075949
  -0.01546985]
 [ 0.01015054  0.01590006 -0.01678139 ... -0.00504225 -0.00940987
  -0.02194672]
 ...
 [-0.00767931  0.00159866 -0.01944887 ...  0.01518218 -0.00534415
   0.02323506]
 [-0.02232576 -0.00224218 -0.0113855  ...  0.00578935 -0.00185374
   0.03621493]
 [ 0.00093921  0.01060692 -0.01239296 ... -0.00423476 -0.01145618
   0.00332084]]

Layer 1:
[[-1.44523615e-02 -1.70668140e-02  7.82006234e-03  9.93751269e-03
  -4.16460112e-02  2.89781310e-05 -5.97528042e-03  7.99674448e-03
  -2.93518733e-02 -1.58595368e-02 -2.44716275e-02  2.90994928e-03
   5.05453395e-03  6.17335644e-03 -5.33115491e-03  2.49713054e-03
  -7.24427961e-03 -2.05558073e-02  1.79165900e-02  9.45594348e-03
  -1.08466519e-03  4.49678637e-02 -4.25393172e-02  2.45559798e-03
   3.48504409e-02  2.70545520e-02 -3.87904351e-03 -2.52122413e-02
  -2.52608899e-02  1.59673654e-02 -1.20210163e-02 -2.78930850e-02
   5.38987033e-02 -1.28270611e-02 -2.45530419e-02  2.39790771e-02
   6.23721164e-03 -5.33818919e-03 -1.15349451e-02 -2.27798801e-02
  -8.74846336e-03  2.09688228e-02 -3.06435954e-02 -2.42405813e-02
   1.86082290e-03 -2.29301295e-04  1.30986264e-02 -2.95367837e-02
   1.57639310e-02  6.88213576e-03 -3.64449178e-03  5.32582887e-02
  -2.18438357e-02 -2.79899370e-02 -2.47655734e-02  6.18292019e-03
  -6.96976855e-03 -3.89284425e-04  2.01389510e-02  2.55595427e-02
  -1.88744336e-04 -5.32464683e-03 -1.90266185e-02 -4.87785228e-03
  -2.63819136e-02 -9.66604985e-03 -3.88397314e-02  9.29941889e-03
  -4.84042382e-03  1.40640149e-02  1.60469618e-02 -9.43440851e-03
   1.67510975e-02 -1.44801345e-02 -2.40763128e-02 -4.51964617e-04
  -1.80874951e-02  1.00705456e-02 -7.19517190e-03 -4.30426635e-02
  -1.03257038e-02  1.36622982e-02 -2.16582720e-03 -1.82061642e-02
  -2.31376849e-02  2.51328740e-02 -2.16625854e-02  1.65979955e-02
   2.52715312e-02 -2.22862978e-03 -2.63482872e-02 -1.81879718e-02
   1.12376530e-02  1.10445665e-02 -1.66971870e-02  3.40716392e-02
   1.74312422e-03  2.58566858e-03  2.12552100e-02  8.52284604e-04]]

Layer 2:
[0. 0. 0. 0. 0. 0. 0. 0. 0. 0. 0. 0. 0. 0. 0. 0. 0. 0. 0. 0. 0. 0. 0. 0.
 0. 0. 0. 0. 0. 0. 0. 0. 0. 0. 0. 0. 0. 0. 0. 0. 0. 0. 0. 0. 0. 0. 0. 0.
 0. 0. 0. 0. 0. 0. 0. 0. 0. 0. 0. 0. 0. 0. 0. 0. 0. 0. 0. 0. 0. 0. 0. 0.
 0. 0. 0. 0. 0. 0. 0. 0. 0. 0. 0. 0. 0. 0. 0. 0. 0. 0. 0. 0. 0. 0. 0. 0.
 0. 0. 0. 0.]

Layer 3:
[[-0.72144514]
 [-0.6782453 ]
 [ 0.40142766]
 [ 0.5341388 ]
 [-0.84995353]
 [-0.0364192 ]
 [-0.38593277]
 [ 0.496283  ]
 [-0.7465695 ]
 [-0.6581748 ]
 [-0.6981573 ]
 [ 0.09524185]
 [ 0.36511725]
 [ 0.44160557]
 [-0.33032653]
 [ 0.21864884]
 [-0.4189107 ]
 [-0.67985016]
 [ 0.6044074 ]
 [ 0.51506084]
 [-0.19137216]
 [ 0.7629362 ]
 [-0.846243  ]
 [ 0.24374096]
 [ 0.8132553 ]
 [ 0.77685046]
 [-0.26584148]
 [-0.6956387 ]
 [-0.75074047]
 [ 0.6875938 ]
 [-0.6054878 ]
 [-0.71179324]
 [ 0.812971  ]
 [-0.6392149 ]
 [-0.6648725 ]
 [ 0.726314  ]
 [ 0.364096  ]
 [-0.30324697]
 [-0.44383198]
 [-0.6786465 ]
 [-0.5417143 ]
 [ 0.5856775 ]
 [-0.7489072 ]
 [-0.75974774]
 [ 0.18151365]
 [-0.01775438]
 [ 0.5071029 ]
 [-0.7285016 ]
 [ 0.6074288 ]
 [ 0.4618255 ]
 [-0.28999263]
 [ 0.8042194 ]
 [-0.77510655]
 [-0.73098195]
 [-0.63140684]
 [ 0.3821928 ]
 [-0.46637237]
 [-0.03011166]
 [ 0.59009373]
 [ 0.73676986]
 [-0.01342987]
 [-0.34909078]
 [-0.72515565]
 [-0.23754615]
 [-0.73989064]
 [-0.5535308 ]
 [-0.80165094]
 [ 0.38790926]
 [-0.32136908]
 [ 0.6176302 ]
 [ 0.66901237]
 [-0.53686696]
 [ 0.6341813 ]
 [-0.6174953 ]
 [-0.7188054 ]
 [ 0.12060858]
 [-0.71713084]
 [ 0.44904324]
 [-0.43307152]
 [-0.7867141 ]
 [-0.52650815]
 [ 0.6785586 ]
 [-0.10067572]
 [-0.6390266 ]
 [-0.811112  ]
 [ 0.6828008 ]
 [-0.63458264]
 [ 0.6636281 ]
 [ 0.7250945 ]
 [-0.1591985 ]
 [-0.74470663]
 [-0.75603616]
 [ 0.6339538 ]
 [ 0.5371618 ]
 [-0.71235424]
 [ 0.709803  ]
 [ 0.19480109]
 [ 0.21453474]
 [ 0.7627545 ]
 [ 0.22548327]]

Layer 4:
[0.36979297]



Consenso 3:
------------------------------------------------------------------------

Layer 0:
[[ 0.00698687  0.00678012 -0.02517775 ...  0.01505068  0.00434715
  -0.00546029]
 [-0.00315026 -0.00011692  0.02692701 ...  0.01387434  0.00759507
  -0.01546959]
 [ 0.01014916  0.01590029 -0.01678139 ... -0.00504206 -0.00940961
  -0.02194714]
 ...
 [-0.00768041  0.00159891 -0.01944887 ...  0.01518249 -0.0053446
   0.02323506]
 [-0.02232547 -0.00224184 -0.01138541 ...  0.00578935 -0.00185397
   0.03621493]
 [ 0.00093866  0.01060692 -0.01239373 ... -0.00423512 -0.01145612
   0.00332073]]

Layer 1:
[[-1.44523615e-02 -1.70654431e-02  7.81921670e-03  9.93859861e-03
  -4.16453034e-02  2.90259359e-05 -5.97418100e-03  7.99709000e-03
  -2.93519944e-02 -1.58591382e-02 -2.44716611e-02  2.91099981e-03
   5.05465269e-03  6.17371267e-03 -5.33036096e-03  2.49807583e-03
  -7.24334596e-03 -2.05564313e-02  1.79155283e-02  9.45475698e-03
  -1.08407345e-03  4.49669398e-02 -4.25397530e-02  2.45538494e-03
   3.48506533e-02  2.70545520e-02 -3.87904909e-03 -2.52123959e-02
  -2.52606720e-02  1.59680080e-02 -1.20207807e-02 -2.78951172e-02
   5.38982004e-02 -1.28256204e-02 -2.45533474e-02  2.39785146e-02
   6.23701792e-03 -5.33852912e-03 -1.15349041e-02 -2.27797497e-02
  -8.74788966e-03  2.09699124e-02 -3.06438282e-02 -2.42405813e-02
   1.86044711e-03 -2.27207522e-04  1.30981207e-02 -2.95378715e-02
   1.57638323e-02  6.88180048e-03 -3.64510412e-03  5.32590300e-02
  -2.18438059e-02 -2.79892795e-02 -2.47645639e-02  6.18376862e-03
  -6.96970383e-03 -3.90276895e-04  2.01389510e-02  2.55592745e-02
  -1.87670390e-04 -5.32516371e-03 -1.90264378e-02 -4.87801200e-03
  -2.63819136e-02 -9.66742262e-03 -3.88392843e-02  9.30001773e-03
  -4.83991904e-03  1.40631804e-02  1.60469618e-02 -9.43401549e-03
   1.67518519e-02 -1.44792097e-02 -2.40759104e-02 -4.51967586e-04
  -1.80875994e-02  1.00700706e-02 -7.19561987e-03 -4.30414565e-02
  -1.03257783e-02  1.36624686e-02 -2.16653734e-03 -1.82065144e-02
  -2.31374949e-02  2.51332335e-02 -2.16625854e-02  1.65980067e-02
   2.52715312e-02 -2.22758926e-03 -2.63468530e-02 -1.81888565e-02
   1.12375878e-02  1.10448971e-02 -1.66967511e-02  3.40716392e-02
   1.74321700e-03  2.58424785e-03  2.12544892e-02  8.52820638e-04]]

Layer 2:
[0. 0. 0. 0. 0. 0. 0. 0. 0. 0. 0. 0. 0. 0. 0. 0. 0. 0. 0. 0. 0. 0. 0. 0.
 0. 0. 0. 0. 0. 0. 0. 0. 0. 0. 0. 0. 0. 0. 0. 0. 0. 0. 0. 0. 0. 0. 0. 0.
 0. 0. 0. 0. 0. 0. 0. 0. 0. 0. 0. 0. 0. 0. 0. 0. 0. 0. 0. 0. 0. 0. 0. 0.
 0. 0. 0. 0. 0. 0. 0. 0. 0. 0. 0. 0. 0. 0. 0. 0. 0. 0. 0. 0. 0. 0. 0. 0.
 0. 0. 0. 0.]

Layer 3:
[[-0.9224079 ]
 [-0.8854472 ]
 [ 0.6096888 ]
 [ 0.7234446 ]
 [-1.0525277 ]
 [-0.06564642]
 [-0.5471994 ]
 [ 0.687875  ]
 [-0.9542395 ]
 [-0.88338494]
 [-0.9242643 ]
 [ 0.16968863]
 [ 0.62101513]
 [ 0.603881  ]
 [-0.46108684]
 [ 0.30015993]
 [-0.6126723 ]
 [-0.8936201 ]
 [ 0.8135439 ]
 [ 0.7049671 ]
 [-0.28132236]
 [ 0.9633332 ]
 [-1.0558348 ]
 [ 0.34395656]
 [ 1.0224594 ]
 [ 0.9905312 ]
 [-0.37311742]
 [-0.9054347 ]
 [-0.98488283]
 [ 0.9159232 ]
 [-0.8274844 ]
 [-0.92838013]
 [ 1.0124216 ]
 [-0.84681886]
 [-0.86865634]
 [ 0.9411276 ]
 [ 0.4975043 ]
 [-0.42792952]
 [-0.6298162 ]
 [-0.8927863 ]
 [-0.72025955]
 [ 0.8143061 ]
 [-0.958488  ]
 [-0.9882257 ]
 [ 0.26327968]
 [ 0.01084027]
 [ 0.70457613]
 [-0.9384621 ]
 [ 0.8173667 ]
 [ 0.6335241 ]
 [-0.38992587]
 [ 1.0050089 ]
 [-0.9813833 ]
 [-0.9471628 ]
 [-0.8692262 ]
 [ 0.5779484 ]
 [-0.6465925 ]
 [-0.04282394]
 [ 0.8631069 ]
 [ 0.9455849 ]
 [-0.00593569]
 [-0.48340398]
 [-0.94750065]
 [-0.36374572]
 [-0.9492672 ]
 [-0.7418282 ]
 [-1.0062244 ]
 [ 0.55846876]
 [-0.43356863]
 [ 0.8220313 ]
 [ 0.8712309 ]
 [-0.7276601 ]
 [ 0.8433366 ]
 [-0.8122027 ]
 [-0.92633826]
 [ 0.15574197]
 [-0.9234636 ]
 [ 0.6230726 ]
 [-0.5861898 ]
 [-0.99438715]
 [-0.720961  ]
 [ 0.88002473]
 [-0.14012365]
 [-0.88078403]
 [-1.0373985 ]
 [ 0.8950692 ]
 [-0.8743265 ]
 [ 0.8917801 ]
 [ 0.9377372 ]
 [-0.23770681]
 [-0.9583869 ]
 [-0.9712874 ]
 [ 0.83354086]
 [ 0.71662337]
 [-0.9198471 ]
 [ 0.9293959 ]
 [ 0.26992232]
 [ 0.38077465]
 [ 0.9793881 ]
 [ 0.310632  ]]

Layer 4:
[0.5808392]



Entrenamiento 4:
------------------------------------------------------------------------

Layer 0:
[[ 0.00698687  0.00678012 -0.02517775 ...  0.01505068  0.00434715
  -0.00546029]
 [-0.00315026 -0.00011692  0.02692701 ...  0.01387434  0.00759507
  -0.01546959]
 [ 0.01014916  0.01590029 -0.01678139 ... -0.00504206 -0.00940961
  -0.02194714]
 ...
 [-0.00768041  0.00159891 -0.01944887 ...  0.01518249 -0.0053446
   0.02323506]
 [-0.02232547 -0.00224184 -0.01138541 ...  0.00578935 -0.00185397
   0.03621493]
 [ 0.00093866  0.01060692 -0.01239373 ... -0.00423512 -0.01145612
   0.00332073]]

Layer 1:
[[-1.44523615e-02 -1.70654431e-02  7.81921670e-03  9.93859861e-03
  -4.16453034e-02  2.90259359e-05 -5.97418100e-03  7.99709000e-03
  -2.93519944e-02 -1.58591382e-02 -2.44716611e-02  2.91099981e-03
   5.05465269e-03  6.17371267e-03 -5.33036096e-03  2.49807583e-03
  -7.24334596e-03 -2.05564313e-02  1.79155283e-02  9.45475698e-03
  -1.08407345e-03  4.49669398e-02 -4.25397530e-02  2.45538494e-03
   3.48506533e-02  2.70545520e-02 -3.87904909e-03 -2.52123959e-02
  -2.52606720e-02  1.59680080e-02 -1.20207807e-02 -2.78951172e-02
   5.38982004e-02 -1.28256204e-02 -2.45533474e-02  2.39785146e-02
   6.23701792e-03 -5.33852912e-03 -1.15349041e-02 -2.27797497e-02
  -8.74788966e-03  2.09699124e-02 -3.06438282e-02 -2.42405813e-02
   1.86044711e-03 -2.27207522e-04  1.30981207e-02 -2.95378715e-02
   1.57638323e-02  6.88180048e-03 -3.64510412e-03  5.32590300e-02
  -2.18438059e-02 -2.79892795e-02 -2.47645639e-02  6.18376862e-03
  -6.96970383e-03 -3.90276895e-04  2.01389510e-02  2.55592745e-02
  -1.87670390e-04 -5.32516371e-03 -1.90264378e-02 -4.87801200e-03
  -2.63819136e-02 -9.66742262e-03 -3.88392843e-02  9.30001773e-03
  -4.83991904e-03  1.40631804e-02  1.60469618e-02 -9.43401549e-03
   1.67518519e-02 -1.44792097e-02 -2.40759104e-02 -4.51967586e-04
  -1.80875994e-02  1.00700706e-02 -7.19561987e-03 -4.30414565e-02
  -1.03257783e-02  1.36624686e-02 -2.16653734e-03 -1.82065144e-02
  -2.31374949e-02  2.51332335e-02 -2.16625854e-02  1.65980067e-02
   2.52715312e-02 -2.22758926e-03 -2.63468530e-02 -1.81888565e-02
   1.12375878e-02  1.10448971e-02 -1.66967511e-02  3.40716392e-02
   1.74321700e-03  2.58424785e-03  2.12544892e-02  8.52820638e-04]]

Layer 2:
[0. 0. 0. 0. 0. 0. 0. 0. 0. 0. 0. 0. 0. 0. 0. 0. 0. 0. 0. 0. 0. 0. 0. 0.
 0. 0. 0. 0. 0. 0. 0. 0. 0. 0. 0. 0. 0. 0. 0. 0. 0. 0. 0. 0. 0. 0. 0. 0.
 0. 0. 0. 0. 0. 0. 0. 0. 0. 0. 0. 0. 0. 0. 0. 0. 0. 0. 0. 0. 0. 0. 0. 0.
 0. 0. 0. 0. 0. 0. 0. 0. 0. 0. 0. 0. 0. 0. 0. 0. 0. 0. 0. 0. 0. 0. 0. 0.
 0. 0. 0. 0.]

Layer 3:
[[-0.76638645]
 [-0.70979965]
 [ 0.4521768 ]
 [ 0.5952962 ]
 [-0.80987465]
 [-0.0459646 ]
 [-0.4453117 ]
 [ 0.55748314]
 [-0.74089617]
 [-0.69069177]
 [-0.7018673 ]
 [ 0.14867191]
 [ 0.34252796]
 [ 0.51890403]
 [-0.40831205]
 [ 0.261288  ]
 [-0.46671107]
 [-0.6912223 ]
 [ 0.6508911 ]
 [ 0.590653  ]
 [-0.19864357]
 [ 0.710164  ]
 [-0.8046462 ]
 [ 0.2888448 ]
 [ 0.78579795]
 [ 0.7715932 ]
 [-0.34268767]
 [-0.6997655 ]
 [-0.7441144 ]
 [ 0.6876307 ]
 [-0.62435746]
 [-0.70687085]
 [ 0.7548975 ]
 [-0.6914833 ]
 [-0.6722899 ]
 [ 0.727725  ]
 [ 0.45844895]
 [-0.3948165 ]
 [-0.5405812 ]
 [-0.7045909 ]
 [-0.6062113 ]
 [ 0.59086925]
 [-0.74882597]
 [-0.7556707 ]
 [ 0.23070984]
 [-0.01183261]
 [ 0.59632945]
 [-0.7197519 ]
 [ 0.64496934]
 [ 0.5331455 ]
 [-0.35049358]
 [ 0.7523459 ]
 [-0.79345393]
 [-0.72238547]
 [-0.6332156 ]
 [ 0.39599127]
 [-0.52249694]
 [-0.0389378 ]
 [ 0.57253164]
 [ 0.73757255]
 [-0.01568181]
 [-0.42540577]
 [-0.73005813]
 [-0.289252  ]
 [-0.7343876 ]
 [-0.63135713]
 [-0.7627617 ]
 [ 0.4980481 ]
 [-0.40149024]
 [ 0.67620575]
 [ 0.7292872 ]
 [-0.6104593 ]
 [ 0.68088704]
 [-0.67697245]
 [-0.72010887]
 [ 0.11745186]
 [-0.77685946]
 [ 0.551639  ]
 [-0.518163  ]
 [-0.7367412 ]
 [-0.59595084]
 [ 0.73115253]
 [-0.14362411]
 [-0.64161617]
 [-0.8279816 ]
 [ 0.68075603]
 [-0.65995634]
 [ 0.66984385]
 [ 0.7404276 ]
 [-0.20221019]
 [-0.74753475]
 [-0.7708374 ]
 [ 0.6997785 ]
 [ 0.6359064 ]
 [-0.7590834 ]
 [ 0.6783264 ]
 [ 0.23309682]
 [ 0.20162317]
 [ 0.7908334 ]
 [ 0.27174512]]

Layer 4:
[0.15616062]



Consenso 4:
------------------------------------------------------------------------

Layer 0:
[[ 0.00698687  0.00678012 -0.02517775 ...  0.01505068  0.00434715
  -0.00546029]
 [-0.00315026 -0.00011694  0.02692701 ...  0.01387434  0.00759507
  -0.01546959]
 [ 0.01014916  0.01590029 -0.01678139 ... -0.00504206 -0.00940961
  -0.02194714]
 ...
 [-0.00768042  0.00159892 -0.01944887 ...  0.01518249 -0.0053446
   0.02323506]
 [-0.02232547 -0.00224184 -0.01138541 ...  0.00578935 -0.00185397
   0.03621493]
 [ 0.00093864  0.01060692 -0.01239373 ... -0.00423512 -0.01145612
   0.00332073]]

Layer 1:
[[-1.44523615e-02 -1.70654431e-02  7.81921670e-03  9.93859861e-03
  -4.16453034e-02  2.90275875e-05 -5.97417494e-03  7.99709000e-03
  -2.93519944e-02 -1.58591382e-02 -2.44716611e-02  2.91102496e-03
   5.05465269e-03  6.17371267e-03 -5.33036096e-03  2.49809725e-03
  -7.24334503e-03 -2.05564313e-02  1.79155283e-02  9.45475698e-03
  -1.08405878e-03  4.49669398e-02 -4.25397530e-02  2.45538494e-03
   3.48506533e-02  2.70545520e-02 -3.87904909e-03 -2.52123959e-02
  -2.52606720e-02  1.59680080e-02 -1.20207807e-02 -2.78951172e-02
   5.38982004e-02 -1.28256204e-02 -2.45533474e-02  2.39785146e-02
   6.23701792e-03 -5.33852912e-03 -1.15349041e-02 -2.27797497e-02
  -8.74788966e-03  2.09699124e-02 -3.06438282e-02 -2.42405813e-02
   1.86044048e-03 -2.27132245e-04  1.30981207e-02 -2.95378715e-02
   1.57638323e-02  6.88180048e-03 -3.64511018e-03  5.32590300e-02
  -2.18438059e-02 -2.79892795e-02 -2.47645639e-02  6.18376862e-03
  -6.96970383e-03 -3.90311761e-04  2.01389510e-02  2.55592745e-02
  -1.87631682e-04 -5.32516371e-03 -1.90264378e-02 -4.87801200e-03
  -2.63819136e-02 -9.66742262e-03 -3.88392843e-02  9.30001773e-03
  -4.83991904e-03  1.40631804e-02  1.60469618e-02 -9.43401549e-03
   1.67518519e-02 -1.44792097e-02 -2.40759104e-02 -4.51967586e-04
  -1.80875994e-02  1.00700706e-02 -7.19561987e-03 -4.30414565e-02
  -1.03257783e-02  1.36624686e-02 -2.16654874e-03 -1.82065144e-02
  -2.31374949e-02  2.51332335e-02 -2.16625854e-02  1.65980067e-02
   2.52715312e-02 -2.22756434e-03 -2.63468530e-02 -1.81888565e-02
   1.12375878e-02  1.10448971e-02 -1.66967511e-02  3.40716392e-02
   1.74321700e-03  2.58421130e-03  2.12544892e-02  8.52836878e-04]]

Layer 2:
[0. 0. 0. 0. 0. 0. 0. 0. 0. 0. 0. 0. 0. 0. 0. 0. 0. 0. 0. 0. 0. 0. 0. 0.
 0. 0. 0. 0. 0. 0. 0. 0. 0. 0. 0. 0. 0. 0. 0. 0. 0. 0. 0. 0. 0. 0. 0. 0.
 0. 0. 0. 0. 0. 0. 0. 0. 0. 0. 0. 0. 0. 0. 0. 0. 0. 0. 0. 0. 0. 0. 0. 0.
 0. 0. 0. 0. 0. 0. 0. 0. 0. 0. 0. 0. 0. 0. 0. 0. 0. 0. 0. 0. 0. 0. 0. 0.
 0. 0. 0. 0.]

Layer 3:
[[-0.9779728 ]
 [-0.9314578 ]
 [ 0.70298165]
 [ 0.79716325]
 [-1.0344107 ]
 [-0.07472105]
 [-0.6179166 ]
 [ 0.76272047]
 [-0.96884984]
 [-0.94909704]
 [-0.9610785 ]
 [ 0.2331497 ]
 [ 0.67891365]
 [ 0.6873036 ]
 [-0.53917474]
 [ 0.34600842]
 [-0.7021112 ]
 [-0.9264082 ]
 [ 0.8746308 ]
 [ 0.79869795]
 [-0.31214133]
 [ 0.93047166]
 [-1.0393785 ]
 [ 0.3915329 ]
 [ 1.0171928 ]
 [ 1.0088154 ]
 [-0.45257124]
 [-0.93095535]
 [-1.0192109 ]
 [ 0.9462353 ]
 [-0.8784677 ]
 [-0.9506252 ]
 [ 0.9732983 ]
 [-0.9154114 ]
 [-0.893343  ]
 [ 0.9676514 ]
 [ 0.59992605]
 [-0.52265686]
 [-0.735076  ]
 [-0.93874913]
 [-0.7862247 ]
 [ 0.85347974]
 [-0.9802251 ]
 [-1.0198954 ]
 [ 0.31401008]
 [ 0.0153647 ]
 [ 0.8122576 ]
 [-0.95095754]
 [ 0.87230176]
 [ 0.71602833]
 [-0.45623145]
 [ 0.9742687 ]
 [-1.0163175 ]
 [-0.9642564 ]
 [-0.91368306]
 [ 0.65444374]
 [-0.7221065 ]
 [-0.05228602]
 [ 0.9062328 ]
 [ 0.9657911 ]
 [-0.00888136]
 [-0.56541574]
 [-0.9806759 ]
 [-0.42565855]
 [-0.96618694]
 [-0.83398026]
 [-0.98623973]
 [ 0.6744843 ]
 [-0.51700854]
 [ 0.8966959 ]
 [ 0.94047356]
 [-0.81574595]
 [ 0.90914655]
 [-0.8826613 ]
 [-0.94585747]
 [ 0.15575844]
 [-0.9931179 ]
 [ 0.7347616 ]
 [-0.67572117]
 [-0.9674275 ]
 [-0.8008118 ]
 [ 0.9428531 ]
 [-0.18619852]
 [-0.9261862 ]
 [-1.0850484 ]
 [ 0.91538364]
 [-0.946369  ]
 [ 0.9279668 ]
 [ 0.97315747]
 [-0.283232  ]
 [-0.98356366]
 [-1.0108036 ]
 [ 0.9087268 ]
 [ 0.81839603]
 [-0.97977644]
 [ 0.9272067 ]
 [ 0.312454  ]
 [ 0.43420622]
 [ 1.0305103 ]
 [ 0.35746643]]

Layer 4:
[0.34927556]



Entrenamiento 5:
------------------------------------------------------------------------

Layer 0:
[[ 0.00698687  0.00678012 -0.02517775 ...  0.01505068  0.00434715
  -0.00546029]
 [-0.00315026 -0.00011694  0.02692701 ...  0.01387434  0.00759507
  -0.01546959]
 [ 0.01014916  0.01590029 -0.01678139 ... -0.00504206 -0.00940961
  -0.02194714]
 ...
 [-0.00768042  0.00159892 -0.01944887 ...  0.01518249 -0.0053446
   0.02323506]
 [-0.02232547 -0.00224184 -0.01138541 ...  0.00578935 -0.00185397
   0.03621493]
 [ 0.00093864  0.01060692 -0.01239373 ... -0.00423512 -0.01145612
   0.00332073]]

Layer 1:
[[-1.44523615e-02 -1.70654431e-02  7.81921670e-03  9.93859861e-03
  -4.16453034e-02  2.90275875e-05 -5.97417494e-03  7.99709000e-03
  -2.93519944e-02 -1.58591382e-02 -2.44716611e-02  2.91102496e-03
   5.05465269e-03  6.17371267e-03 -5.33036096e-03  2.49809725e-03
  -7.24334503e-03 -2.05564313e-02  1.79155283e-02  9.45475698e-03
  -1.08405878e-03  4.49669398e-02 -4.25397530e-02  2.45538494e-03
   3.48506533e-02  2.70545520e-02 -3.87904909e-03 -2.52123959e-02
  -2.52606720e-02  1.59680080e-02 -1.20207807e-02 -2.78951172e-02
   5.38982004e-02 -1.28256204e-02 -2.45533474e-02  2.39785146e-02
   6.23701792e-03 -5.33852912e-03 -1.15349041e-02 -2.27797497e-02
  -8.74788966e-03  2.09699124e-02 -3.06438282e-02 -2.42405813e-02
   1.86044048e-03 -2.27132245e-04  1.30981207e-02 -2.95378715e-02
   1.57638323e-02  6.88180048e-03 -3.64511018e-03  5.32590300e-02
  -2.18438059e-02 -2.79892795e-02 -2.47645639e-02  6.18376862e-03
  -6.96970383e-03 -3.90311761e-04  2.01389510e-02  2.55592745e-02
  -1.87631682e-04 -5.32516371e-03 -1.90264378e-02 -4.87801200e-03
  -2.63819136e-02 -9.66742262e-03 -3.88392843e-02  9.30001773e-03
  -4.83991904e-03  1.40631804e-02  1.60469618e-02 -9.43401549e-03
   1.67518519e-02 -1.44792097e-02 -2.40759104e-02 -4.51967586e-04
  -1.80875994e-02  1.00700706e-02 -7.19561987e-03 -4.30414565e-02
  -1.03257783e-02  1.36624686e-02 -2.16654874e-03 -1.82065144e-02
  -2.31374949e-02  2.51332335e-02 -2.16625854e-02  1.65980067e-02
   2.52715312e-02 -2.22756434e-03 -2.63468530e-02 -1.81888565e-02
   1.12375878e-02  1.10448971e-02 -1.66967511e-02  3.40716392e-02
   1.74321700e-03  2.58421130e-03  2.12544892e-02  8.52836878e-04]]

Layer 2:
[0. 0. 0. 0. 0. 0. 0. 0. 0. 0. 0. 0. 0. 0. 0. 0. 0. 0. 0. 0. 0. 0. 0. 0.
 0. 0. 0. 0. 0. 0. 0. 0. 0. 0. 0. 0. 0. 0. 0. 0. 0. 0. 0. 0. 0. 0. 0. 0.
 0. 0. 0. 0. 0. 0. 0. 0. 0. 0. 0. 0. 0. 0. 0. 0. 0. 0. 0. 0. 0. 0. 0. 0.
 0. 0. 0. 0. 0. 0. 0. 0. 0. 0. 0. 0. 0. 0. 0. 0. 0. 0. 0. 0. 0. 0. 0. 0.
 0. 0. 0. 0.]

Layer 3:
[[-0.79375005]
 [-0.7264481 ]
 [ 0.5164177 ]
 [ 0.643778  ]
 [-0.76264   ]
 [-0.05103252]
 [-0.49537387]
 [ 0.6074961 ]
 [-0.7248961 ]
 [-0.7255229 ]
 [-0.7079725 ]
 [ 0.20539689]
 [ 0.374961  ]
 [ 0.58403283]
 [-0.47398812]
 [ 0.2986037 ]
 [-0.52786237]
 [-0.69350904]
 [ 0.68283796]
 [ 0.66096234]
 [-0.21286023]
 [ 0.6493855 ]
 [-0.7595507 ]
 [ 0.32435274]
 [ 0.7511157 ]
 [ 0.75942403]
 [-0.4146379 ]
 [-0.6946972 ]
 [-0.74831945]
 [ 0.688342  ]
 [-0.64486253]
 [-0.698458  ]
 [ 0.68835497]
 [-0.7319801 ]
 [-0.6665036 ]
 [ 0.72371626]
 [ 0.550472  ]
 [-0.48103702]
 [-0.6253618 ]
 [-0.71992725]
 [-0.649167  ]
 [ 0.5995413 ]
 [-0.73966724]
 [-0.75717175]
 [ 0.27423087]
 [-0.01193446]
 [ 0.6794856 ]
 [-0.7019382 ]
 [ 0.670383  ]
 [ 0.59472597]
 [-0.40766194]
 [ 0.69338554]
 [-0.7981168 ]
 [-0.70910287]
 [-0.64711535]
 [ 0.44233856]
 [-0.57358116]
 [-0.0474827 ]
 [ 0.5913956 ]
 [ 0.7273644 ]
 [-0.02061268]
 [-0.49399745]
 [-0.73291004]
 [-0.33491307]
 [-0.72083396]
 [-0.6997595 ]
 [-0.7141565 ]
 [ 0.5985426 ]
 [-0.47681668]
 [ 0.72319037]
 [ 0.7713414 ]
 [-0.6745652 ]
 [ 0.71741587]
 [-0.72075176]
 [-0.7093552 ]
 [ 0.10978019]
 [-0.81819224]
 [ 0.64583224]
 [-0.59169525]
 [-0.68214864]
 [-0.6506898 ]
 [ 0.7665275 ]
 [-0.18958111]
 [-0.6572904 ]
 [-0.84432167]
 [ 0.6706464 ]
 [-0.70035297]
 [ 0.6761102 ]
 [ 0.7451906 ]
 [-0.2398878 ]
 [-0.74198014]
 [-0.7799983 ]
 [ 0.74903584]
 [ 0.71876365]
 [-0.7899283 ]
 [ 0.6475736 ]
 [ 0.26748982]
 [ 0.22559023]
 [ 0.81105494]
 [ 0.30998397]]

Layer 4:
[-0.00463373]



Consenso 5:
------------------------------------------------------------------------

Layer 0:
[[ 0.00698687  0.00678012 -0.02517775 ...  0.01505068  0.00434715
  -0.00546029]
 [-0.00315026 -0.00011694  0.02692701 ...  0.01387434  0.00759507
  -0.01546959]
 [ 0.01014916  0.01590029 -0.01678139 ... -0.00504206 -0.00940961
  -0.02194714]
 ...
 [-0.00768042  0.00159892 -0.01944887 ...  0.01518249 -0.0053446
   0.02323506]
 [-0.02232547 -0.00224184 -0.01138541 ...  0.00578935 -0.00185397
   0.03621493]
 [ 0.00093864  0.01060692 -0.01239373 ... -0.00423512 -0.01145612
   0.00332073]]

Layer 1:
[[-1.44523615e-02 -1.70654431e-02  7.81921670e-03  9.93859861e-03
  -4.16453034e-02  2.90275875e-05 -5.97417494e-03  7.99709000e-03
  -2.93519944e-02 -1.58591382e-02 -2.44716611e-02  2.91102496e-03
   5.05465269e-03  6.17371267e-03 -5.33036096e-03  2.49809725e-03
  -7.24334503e-03 -2.05564313e-02  1.79155283e-02  9.45475698e-03
  -1.08405878e-03  4.49669398e-02 -4.25397530e-02  2.45538494e-03
   3.48506533e-02  2.70545520e-02 -3.87904909e-03 -2.52123959e-02
  -2.52606720e-02  1.59680080e-02 -1.20207807e-02 -2.78951172e-02
   5.38982004e-02 -1.28256204e-02 -2.45533474e-02  2.39785146e-02
   6.23701792e-03 -5.33852912e-03 -1.15349041e-02 -2.27797497e-02
  -8.74788966e-03  2.09699124e-02 -3.06438282e-02 -2.42405813e-02
   1.86044048e-03 -2.27130382e-04  1.30981207e-02 -2.95378715e-02
   1.57638323e-02  6.88180048e-03 -3.64511018e-03  5.32590300e-02
  -2.18438059e-02 -2.79892795e-02 -2.47645639e-02  6.18376862e-03
  -6.96970383e-03 -3.90311761e-04  2.01389510e-02  2.55592745e-02
  -1.87631274e-04 -5.32516371e-03 -1.90264378e-02 -4.87801200e-03
  -2.63819136e-02 -9.66742262e-03 -3.88392843e-02  9.30001773e-03
  -4.83991904e-03  1.40631804e-02  1.60469618e-02 -9.43401549e-03
   1.67518519e-02 -1.44792097e-02 -2.40759104e-02 -4.51967586e-04
  -1.80875994e-02  1.00700706e-02 -7.19561987e-03 -4.30414565e-02
  -1.03257783e-02  1.36624686e-02 -2.16654874e-03 -1.82065144e-02
  -2.31374949e-02  2.51332335e-02 -2.16625854e-02  1.65980067e-02
   2.52715312e-02 -2.22756434e-03 -2.63468530e-02 -1.81888565e-02
   1.12375878e-02  1.10448971e-02 -1.66967511e-02  3.40716392e-02
   1.74321700e-03  2.58421130e-03  2.12544892e-02  8.52836878e-04]]

Layer 2:
[0. 0. 0. 0. 0. 0. 0. 0. 0. 0. 0. 0. 0. 0. 0. 0. 0. 0. 0. 0. 0. 0. 0. 0.
 0. 0. 0. 0. 0. 0. 0. 0. 0. 0. 0. 0. 0. 0. 0. 0. 0. 0. 0. 0. 0. 0. 0. 0.
 0. 0. 0. 0. 0. 0. 0. 0. 0. 0. 0. 0. 0. 0. 0. 0. 0. 0. 0. 0. 0. 0. 0. 0.
 0. 0. 0. 0. 0. 0. 0. 0. 0. 0. 0. 0. 0. 0. 0. 0. 0. 0. 0. 0. 0. 0. 0. 0.
 0. 0. 0. 0.]

Layer 3:
[[-1.014499  ]
 [-0.95610774]
 [ 0.78553706]
 [ 0.8558549 ]
 [-0.99016184]
 [-0.08092068]
 [-0.677936  ]
 [ 0.82308155]
 [-0.9587148 ]
 [-0.9962883 ]
 [-0.9759937 ]
 [ 0.29800597]
 [ 0.7246464 ]
 [ 0.76058584]
 [-0.6110382 ]
 [ 0.38841435]
 [-0.78255147]
 [-0.93648106]
 [ 0.9157131 ]
 [ 0.8809949 ]
 [-0.33884326]
 [ 0.8705374 ]
 [-0.9965305 ]
 [ 0.43281722]
 [ 0.98570734]
 [ 1.0030174 ]
 [-0.53026706]
 [-0.9332689 ]
 [-1.0310837 ]
 [ 0.95424587]
 [-0.9108446 ]
 [-0.94918096]
 [ 0.9062062 ]
 [-0.9663708 ]
 [-0.89468503]
 [ 0.9708388 ]
 [ 0.7005595 ]
 [-0.61554164]
 [-0.8291366 ]
 [-0.96272075]
 [-0.83711964]
 [ 0.87078565]
 [-0.97743386]
 [-1.0292375 ]
 [ 0.3618644 ]
 [ 0.01605192]
 [ 0.90806943]
 [-0.9388085 ]
 [ 0.9075978 ]
 [ 0.78758764]
 [-0.5201241 ]
 [ 0.9160441 ]
 [-1.0291003 ]
 [-0.9566221 ]
 [-0.93638223]
 [ 0.7237431 ]
 [-0.78574526]
 [-0.06193552]
 [ 0.9277054 ]
 [ 0.96205986]
 [-0.01384098]
 [-0.64187515]
 [-0.99193853]
 [-0.48083192]
 [-0.95935535]
 [-0.9143602 ]
 [-0.9392218 ]
 [ 0.78346294]
 [-0.5987905 ]
 [ 0.95406485]
 [ 0.9910659 ]
 [-0.8907641 ]
 [ 0.9565217 ]
 [-0.936529  ]
 [-0.9417232 ]
 [ 0.1507027 ]
 [-1.0433767 ]
 [ 0.8385426 ]
 [-0.757349  ]
 [-0.913716  ]
 [-0.8657664 ]
 [ 0.98696977]
 [-0.2359378 ]
 [-0.95063585]
 [-1.111199  ]
 [ 0.9116443 ]
 [-0.99939686]
 [ 0.94234234]
 [ 0.98554784]
 [-0.32566366]
 [-0.98489743]
 [-1.0296414 ]
 [ 0.9671809 ]
 [ 0.90885305]
 [-1.0202037 ]
 [ 0.8992102 ]
 [ 0.35211718]
 [ 0.48260108]
 [ 1.0605645 ]
 [ 0.39956215]]

Layer 4:
[0.16603912]



Entrenamiento 6:
------------------------------------------------------------------------

Layer 0:
[[ 0.00698687  0.00678012 -0.02517775 ...  0.01505068  0.00434715
  -0.00546029]
 [-0.00315026 -0.00011694  0.02692701 ...  0.01387434  0.00759507
  -0.01546959]
 [ 0.01014916  0.01590029 -0.01678139 ... -0.00504206 -0.00940961
  -0.02194714]
 ...
 [-0.00768042  0.00159892 -0.01944887 ...  0.01518249 -0.0053446
   0.02323506]
 [-0.02232547 -0.00224184 -0.01138541 ...  0.00578935 -0.00185397
   0.03621493]
 [ 0.00093864  0.01060692 -0.01239373 ... -0.00423512 -0.01145612
   0.00332073]]

Layer 1:
[[-1.44523615e-02 -1.70654431e-02  7.81921670e-03  9.93859861e-03
  -4.16453034e-02  2.90275875e-05 -5.97417494e-03  7.99709000e-03
  -2.93519944e-02 -1.58591382e-02 -2.44716611e-02  2.91102496e-03
   5.05465269e-03  6.17371267e-03 -5.33036096e-03  2.49809725e-03
  -7.24334503e-03 -2.05564313e-02  1.79155283e-02  9.45475698e-03
  -1.08405878e-03  4.49669398e-02 -4.25397530e-02  2.45538494e-03
   3.48506533e-02  2.70545520e-02 -3.87904909e-03 -2.52123959e-02
  -2.52606720e-02  1.59680080e-02 -1.20207807e-02 -2.78951172e-02
   5.38982004e-02 -1.28256204e-02 -2.45533474e-02  2.39785146e-02
   6.23701792e-03 -5.33852912e-03 -1.15349041e-02 -2.27797497e-02
  -8.74788966e-03  2.09699124e-02 -3.06438282e-02 -2.42405813e-02
   1.86044048e-03 -2.27130382e-04  1.30981207e-02 -2.95378715e-02
   1.57638323e-02  6.88180048e-03 -3.64511018e-03  5.32590300e-02
  -2.18438059e-02 -2.79892795e-02 -2.47645639e-02  6.18376862e-03
  -6.96970383e-03 -3.90311761e-04  2.01389510e-02  2.55592745e-02
  -1.87631274e-04 -5.32516371e-03 -1.90264378e-02 -4.87801200e-03
  -2.63819136e-02 -9.66742262e-03 -3.88392843e-02  9.30001773e-03
  -4.83991904e-03  1.40631804e-02  1.60469618e-02 -9.43401549e-03
   1.67518519e-02 -1.44792097e-02 -2.40759104e-02 -4.51967586e-04
  -1.80875994e-02  1.00700706e-02 -7.19561987e-03 -4.30414565e-02
  -1.03257783e-02  1.36624686e-02 -2.16654874e-03 -1.82065144e-02
  -2.31374949e-02  2.51332335e-02 -2.16625854e-02  1.65980067e-02
   2.52715312e-02 -2.22756434e-03 -2.63468530e-02 -1.81888565e-02
   1.12375878e-02  1.10448971e-02 -1.66967511e-02  3.40716392e-02
   1.74321700e-03  2.58421130e-03  2.12544892e-02  8.52836878e-04]]

Layer 2:
[0. 0. 0. 0. 0. 0. 0. 0. 0. 0. 0. 0. 0. 0. 0. 0. 0. 0. 0. 0. 0. 0. 0. 0.
 0. 0. 0. 0. 0. 0. 0. 0. 0. 0. 0. 0. 0. 0. 0. 0. 0. 0. 0. 0. 0. 0. 0. 0.
 0. 0. 0. 0. 0. 0. 0. 0. 0. 0. 0. 0. 0. 0. 0. 0. 0. 0. 0. 0. 0. 0. 0. 0.
 0. 0. 0. 0. 0. 0. 0. 0. 0. 0. 0. 0. 0. 0. 0. 0. 0. 0. 0. 0. 0. 0. 0. 0.
 0. 0. 0. 0.]

Layer 3:
[[-0.8202563 ]
 [-0.74179083]
 [ 0.58915395]
 [ 0.69221646]
 [-0.71533346]
 [-0.05499592]
 [-0.54594904]
 [ 0.65756613]
 [-0.70854825]
 [-0.7648759 ]
 [-0.7179219 ]
 [ 0.26746434]
 [ 0.42191857]
 [ 0.6487836 ]
 [-0.5398747 ]
 [ 0.33659497]
 [-0.598283  ]
 [-0.6961859 ]
 [ 0.7142744 ]
 [ 0.7333999 ]
 [-0.2313273 ]
 [ 0.5873833 ]
 [-0.71487415]
 [ 0.35957357]
 [ 0.71573937]
 [ 0.7479581 ]
 [-0.4886692 ]
 [-0.6900691 ]
 [-0.7575554 ]
 [ 0.69104457]
 [-0.66975933]
 [-0.6917943 ]
 [ 0.6197659 ]
 [-0.7729302 ]
 [-0.6600616 ]
 [ 0.72058547]
 [ 0.6463582 ]
 [-0.5699296 ]
 [-0.71055293]
 [-0.73572797]
 [-0.6901181 ]
 [ 0.61171   ]
 [-0.73049414]
 [-0.7625301 ]
 [ 0.31834623]
 [-0.01378456]
 [ 0.7656224 ]
 [-0.68403083]
 [ 0.69633603]
 [ 0.6568802 ]
 [-0.46699357]
 [ 0.6333756 ]
 [-0.80250794]
 [-0.69644934]
 [-0.66682893]
 [ 0.50295854]
 [-0.62702334]
 [-0.05669069]
 [ 0.61739975]
 [ 0.71680886]
 [-0.02668239]
 [-0.5640155 ]
 [-0.73809826]
 [-0.38234398]
 [-0.70784163]
 [-0.77036446]
 [-0.66380614]
 [ 0.7006378 ]
 [-0.5547118 ]
 [ 0.7704283 ]
 [ 0.81179583]
 [-0.739578  ]
 [ 0.7551742 ]
 [-0.7644329 ]
 [-0.69813675]
 [ 0.10052609]
 [-0.8584734 ]
 [ 0.74187136]
 [-0.6659288 ]
 [-0.6270645 ]
 [-0.70550525]
 [ 0.8004794 ]
 [-0.23961394]
 [-0.67836624]
 [-0.86436325]
 [ 0.66064006]
 [-0.7482258 ]
 [ 0.6846747 ]
 [ 0.75003976]
 [-0.27825943]
 [-0.73692584]
 [-0.791271  ]
 [ 0.7972279 ]
 [ 0.8008137 ]
 [-0.82060164]
 [ 0.617603  ]
 [ 0.30295774]
 [ 0.2647612 ]
 [ 0.8330381 ]
 [ 0.3476554 ]]

Layer 4:
[-0.09080815]



Consenso 6:
------------------------------------------------------------------------

Layer 0:
[[ 0.00698687  0.00678012 -0.02517775 ...  0.01505068  0.00434715
  -0.00546029]
 [-0.00315026 -0.00011694  0.02692701 ...  0.01387434  0.00759507
  -0.01546959]
 [ 0.01014916  0.01590029 -0.01678139 ... -0.00504206 -0.00940961
  -0.02194714]
 ...
 [-0.00768042  0.00159892 -0.01944887 ...  0.01518249 -0.0053446
   0.02323506]
 [-0.02232547 -0.00224184 -0.01138541 ...  0.00578935 -0.00185397
   0.03621493]
 [ 0.00093864  0.01060692 -0.01239373 ... -0.00423512 -0.01145612
   0.00332073]]

Layer 1:
[[-1.44523615e-02 -1.70654431e-02  7.81921670e-03  9.93859861e-03
  -4.16453034e-02  2.90275875e-05 -5.97417494e-03  7.99709000e-03
  -2.93519944e-02 -1.58591382e-02 -2.44716611e-02  2.91102496e-03
   5.05465269e-03  6.17371267e-03 -5.33036096e-03  2.49809725e-03
  -7.24334503e-03 -2.05564313e-02  1.79155283e-02  9.45475698e-03
  -1.08405878e-03  4.49669398e-02 -4.25397530e-02  2.45538494e-03
   3.48506533e-02  2.70545520e-02 -3.87904909e-03 -2.52123959e-02
  -2.52606720e-02  1.59680080e-02 -1.20207807e-02 -2.78951172e-02
   5.38982004e-02 -1.28256204e-02 -2.45533474e-02  2.39785146e-02
   6.23701792e-03 -5.33852912e-03 -1.15349041e-02 -2.27797497e-02
  -8.74788966e-03  2.09699124e-02 -3.06438282e-02 -2.42405813e-02
   1.86044048e-03 -2.27130382e-04  1.30981207e-02 -2.95378715e-02
   1.57638323e-02  6.88180048e-03 -3.64511018e-03  5.32590300e-02
  -2.18438059e-02 -2.79892795e-02 -2.47645639e-02  6.18376862e-03
  -6.96970383e-03 -3.90311761e-04  2.01389510e-02  2.55592745e-02
  -1.87631274e-04 -5.32516371e-03 -1.90264378e-02 -4.87801200e-03
  -2.63819136e-02 -9.66742262e-03 -3.88392843e-02  9.30001773e-03
  -4.83991904e-03  1.40631804e-02  1.60469618e-02 -9.43401549e-03
   1.67518519e-02 -1.44792097e-02 -2.40759104e-02 -4.51967586e-04
  -1.80875994e-02  1.00700706e-02 -7.19561987e-03 -4.30414565e-02
  -1.03257783e-02  1.36624686e-02 -2.16654874e-03 -1.82065144e-02
  -2.31374949e-02  2.51332335e-02 -2.16625854e-02  1.65980067e-02
   2.52715312e-02 -2.22756434e-03 -2.63468530e-02 -1.81888565e-02
   1.12375878e-02  1.10448971e-02 -1.66967511e-02  3.40716392e-02
   1.74321700e-03  2.58421130e-03  2.12544892e-02  8.52836878e-04]]

Layer 2:
[0. 0. 0. 0. 0. 0. 0. 0. 0. 0. 0. 0. 0. 0. 0. 0. 0. 0. 0. 0. 0. 0. 0. 0.
 0. 0. 0. 0. 0. 0. 0. 0. 0. 0. 0. 0. 0. 0. 0. 0. 0. 0. 0. 0. 0. 0. 0. 0.
 0. 0. 0. 0. 0. 0. 0. 0. 0. 0. 0. 0. 0. 0. 0. 0. 0. 0. 0. 0. 0. 0. 0. 0.
 0. 0. 0. 0. 0. 0. 0. 0. 0. 0. 0. 0. 0. 0. 0. 0. 0. 0. 0. 0. 0. 0. 0. 0.
 0. 0. 0. 0.]

Layer 3:
[[-1.0447805 ]
 [-0.9727866 ]
 [ 0.8653602 ]
 [ 0.90959615]
 [-0.9354748 ]
 [-0.08600085]
 [-0.735142  ]
 [ 0.87854636]
 [-0.938909  ]
 [-1.0372293 ]
 [-0.9832393 ]
 [ 0.36598003]
 [ 0.7668947 ]
 [ 0.83166385]
 [-0.6830022 ]
 [ 0.43084407]
 [-0.861597  ]
 [-0.9382435 ]
 [ 0.9496809 ]
 [ 0.9600386 ]
 [-0.36475915]
 [ 0.799553  ]
 [-0.94315326]
 [ 0.4731892 ]
 [ 0.9436359 ]
 [ 0.9879666 ]
 [-0.6094152 ]
 [-0.9268112 ]
 [-1.0347046 ]
 [ 0.9539688 ]
 [-0.9370931 ]
 [-0.93865806]
 [ 0.8271867 ]
 [-1.0115218 ]
 [-0.88719445]
 [ 0.96504414]
 [ 0.80324507]
 [-0.7102264 ]
 [-0.92008   ]
 [-0.97859234]
 [-0.88400304]
 [ 0.88004446]
 [-0.96496737]
 [-1.0305079 ]
 [ 0.41022155]
 [ 0.01499115]
 [ 1.0007715 ]
 [-0.917003  ]
 [ 0.9362341 ]
 [ 0.8558741 ]
 [-0.58533317]
 [ 0.84625006]
 [-1.0340581 ]
 [-0.9394269 ]
 [-0.9512146 ]
 [ 0.7920647 ]
 [-0.8459903 ]
 [-0.07211884]
 [ 0.9413086 ]
 [ 0.94923055]
 [-0.02003269]
 [-0.71799016]
 [-0.9954497 ]
 [-0.5349163 ]
 [-0.9435471 ]
 [-0.99157375]
 [-0.88109267]
 [ 0.89182276]
 [-0.68227315]
 [ 1.0052915 ]
 [ 1.0350094 ]
 [-0.9620999 ]
 [ 0.9976407 ]
 [-0.98516417]
 [-0.92856026]
 [ 0.14293873]
 [-1.0870935 ]
 [ 0.9412403 ]
 [-0.837957  ]
 [-0.8492555 ]
 [-0.92633975]
 [ 1.0247424 ]
 [-0.2895445 ]
 [-0.9675916 ]
 [-1.1298515 ]
 [ 0.8986621 ]
 [-1.0458056 ]
 [ 0.9487262 ]
 [ 0.9893144 ]
 [-0.36838207]
 [-0.9772097 ]
 [-1.0414283 ]
 [ 1.0200025 ]
 [ 0.9964256 ]
 [-1.0540686 ]
 [ 0.86095816]
 [ 0.39189404]
 [ 0.5305632 ]
 [ 1.0832404 ]
 [ 0.44118372]]

Layer 4:
[0.06165175]



Entrenamiento 7:
------------------------------------------------------------------------

Layer 0:
[[ 0.00698687  0.00678012 -0.02517775 ...  0.01505068  0.00434715
  -0.00546029]
 [-0.00315026 -0.00011694  0.02692701 ...  0.01387434  0.00759507
  -0.01546959]
 [ 0.01014916  0.01590029 -0.01678139 ... -0.00504206 -0.00940961
  -0.02194714]
 ...
 [-0.00768042  0.00159892 -0.01944887 ...  0.01518249 -0.0053446
   0.02323506]
 [-0.02232547 -0.00224184 -0.01138541 ...  0.00578935 -0.00185397
   0.03621493]
 [ 0.00093864  0.01060692 -0.01239373 ... -0.00423512 -0.01145612
   0.00332073]]

Layer 1:
[[-1.44523615e-02 -1.70654431e-02  7.81921670e-03  9.93859861e-03
  -4.16453034e-02  2.90275875e-05 -5.97417494e-03  7.99709000e-03
  -2.93519944e-02 -1.58591382e-02 -2.44716611e-02  2.91102496e-03
   5.05465269e-03  6.17371267e-03 -5.33036096e-03  2.49809725e-03
  -7.24334503e-03 -2.05564313e-02  1.79155283e-02  9.45475698e-03
  -1.08405878e-03  4.49669398e-02 -4.25397530e-02  2.45538494e-03
   3.48506533e-02  2.70545520e-02 -3.87904909e-03 -2.52123959e-02
  -2.52606720e-02  1.59680080e-02 -1.20207807e-02 -2.78951172e-02
   5.38982004e-02 -1.28256204e-02 -2.45533474e-02  2.39785146e-02
   6.23701792e-03 -5.33852912e-03 -1.15349041e-02 -2.27797497e-02
  -8.74788966e-03  2.09699124e-02 -3.06438282e-02 -2.42405813e-02
   1.86044048e-03 -2.27130382e-04  1.30981207e-02 -2.95378715e-02
   1.57638323e-02  6.88180048e-03 -3.64511018e-03  5.32590300e-02
  -2.18438059e-02 -2.79892795e-02 -2.47645639e-02  6.18376862e-03
  -6.96970383e-03 -3.90311761e-04  2.01389510e-02  2.55592745e-02
  -1.87631274e-04 -5.32516371e-03 -1.90264378e-02 -4.87801200e-03
  -2.63819136e-02 -9.66742262e-03 -3.88392843e-02  9.30001773e-03
  -4.83991904e-03  1.40631804e-02  1.60469618e-02 -9.43401549e-03
   1.67518519e-02 -1.44792097e-02 -2.40759104e-02 -4.51967586e-04
  -1.80875994e-02  1.00700706e-02 -7.19561987e-03 -4.30414565e-02
  -1.03257783e-02  1.36624686e-02 -2.16654874e-03 -1.82065144e-02
  -2.31374949e-02  2.51332335e-02 -2.16625854e-02  1.65980067e-02
   2.52715312e-02 -2.22756434e-03 -2.63468530e-02 -1.81888565e-02
   1.12375878e-02  1.10448971e-02 -1.66967511e-02  3.40716392e-02
   1.74321700e-03  2.58421130e-03  2.12544892e-02  8.52836878e-04]]

Layer 2:
[0. 0. 0. 0. 0. 0. 0. 0. 0. 0. 0. 0. 0. 0. 0. 0. 0. 0. 0. 0. 0. 0. 0. 0.
 0. 0. 0. 0. 0. 0. 0. 0. 0. 0. 0. 0. 0. 0. 0. 0. 0. 0. 0. 0. 0. 0. 0. 0.
 0. 0. 0. 0. 0. 0. 0. 0. 0. 0. 0. 0. 0. 0. 0. 0. 0. 0. 0. 0. 0. 0. 0. 0.
 0. 0. 0. 0. 0. 0. 0. 0. 0. 0. 0. 0. 0. 0. 0. 0. 0. 0. 0. 0. 0. 0. 0. 0.
 0. 0. 0. 0.]

Layer 3:
[[-0.8446551 ]
 [-0.753927  ]
 [ 0.6633572 ]
 [ 0.73884577]
 [-0.66383064]
 [-0.05814884]
 [-0.59624034]
 [ 0.7061215 ]
 [-0.68817866]
 [-0.8030612 ]
 [-0.7258318 ]
 [ 0.33300766]
 [ 0.46990734]
 [ 0.71318495]
 [-0.6069381 ]
 [ 0.3754755 ]
 [-0.6710358 ]
 [-0.6958233 ]
 [ 0.7431217 ]
 [ 0.80595666]
 [-0.2505728 ]
 [ 0.52084106]
 [-0.6658068 ]
 [ 0.39476475]
 [ 0.6758848 ]
 [ 0.73289466]
 [-0.5648175 ]
 [-0.68216294]
 [-0.7638409 ]
 [ 0.69097906]
 [-0.69336855]
 [-0.6816559 ]
 [ 0.5459731 ]
 [-0.8122613 ]
 [-0.6500596 ]
 [ 0.71398073]
 [ 0.745305  ]
 [-0.6613709 ]
 [-0.79483885]
 [-0.7485848 ]
 [-0.7296959 ]
 [ 0.62125003]
 [-0.71723586]
 [-0.7654703 ]
 [ 0.36352855]
 [-0.01716578]
 [ 0.8515575 ]
 [-0.6622897 ]
 [ 0.7203053 ]
 [ 0.71809006]
 [-0.52869177]
 [ 0.5683038 ]
 [-0.8042699 ]
 [-0.6798786 ]
 [-0.68403476]
 [ 0.5678353 ]
 [-0.68013406]
 [-0.0665024 ]
 [ 0.6398676 ]
 [ 0.70273244]
 [-0.03388853]
 [-0.63496137]
 [-0.7409855 ]
 [-0.4304129 ]
 [-0.69148993]
 [-0.84042704]
 [-0.60877067]
 [ 0.80354387]
 [-0.6352398 ]
 [ 0.8153369 ]
 [ 0.8494401 ]
 [-0.80386186]
 [ 0.7911992 ]
 [-0.8063775 ]
 [-0.68340456]
 [ 0.08900261]
 [-0.89608073]
 [ 0.8388122 ]
 [-0.7406859 ]
 [-0.56763077]
 [-0.7589933 ]
 [ 0.83207184]
 [-0.2938003 ]
 [-0.6973559 ]
 [-0.882309  ]
 [ 0.6469599 ]
 [-0.79500633]
 [ 0.6907232 ]
 [ 0.7517002 ]
 [-0.317615  ]
 [-0.72841746]
 [-0.800854  ]
 [ 0.8431607 ]
 [ 0.8818768 ]
 [-0.8489775 ]
 [ 0.58339345]
 [ 0.33915544]
 [ 0.3077208 ]
 [ 0.8527296 ]
 [ 0.3850552 ]]

Layer 4:
[-0.1429002]



Consenso 7:
------------------------------------------------------------------------

Layer 0:
[[ 0.00698687  0.00678012 -0.02517775 ...  0.01505068  0.00434715
  -0.00546029]
 [-0.00315026 -0.00011694  0.02692701 ...  0.01387434  0.00759507
  -0.01546959]
 [ 0.01014916  0.01590029 -0.01678139 ... -0.00504206 -0.00940961
  -0.02194714]
 ...
 [-0.00768042  0.00159892 -0.01944887 ...  0.01518249 -0.0053446
   0.02323506]
 [-0.02232547 -0.00224184 -0.01138541 ...  0.00578935 -0.00185397
   0.03621493]
 [ 0.00093864  0.01060692 -0.01239373 ... -0.00423512 -0.01145612
   0.00332073]]

Layer 1:
[[-1.44523615e-02 -1.70654431e-02  7.81921670e-03  9.93859861e-03
  -4.16453034e-02  2.90275875e-05 -5.97417494e-03  7.99709000e-03
  -2.93519944e-02 -1.58591382e-02 -2.44716611e-02  2.91102496e-03
   5.05465269e-03  6.17371267e-03 -5.33036096e-03  2.49809725e-03
  -7.24334503e-03 -2.05564313e-02  1.79155283e-02  9.45475698e-03
  -1.08405878e-03  4.49669398e-02 -4.25397530e-02  2.45538494e-03
   3.48506533e-02  2.70545520e-02 -3.87904909e-03 -2.52123959e-02
  -2.52606720e-02  1.59680080e-02 -1.20207807e-02 -2.78951172e-02
   5.38982004e-02 -1.28256204e-02 -2.45533474e-02  2.39785146e-02
   6.23701792e-03 -5.33852912e-03 -1.15349041e-02 -2.27797497e-02
  -8.74788966e-03  2.09699124e-02 -3.06438282e-02 -2.42405813e-02
   1.86044048e-03 -2.27130382e-04  1.30981207e-02 -2.95378715e-02
   1.57638323e-02  6.88180048e-03 -3.64511018e-03  5.32590300e-02
  -2.18438059e-02 -2.79892795e-02 -2.47645639e-02  6.18376862e-03
  -6.96970383e-03 -3.90311761e-04  2.01389510e-02  2.55592745e-02
  -1.87631274e-04 -5.32516371e-03 -1.90264378e-02 -4.87801200e-03
  -2.63819136e-02 -9.66742262e-03 -3.88392843e-02  9.30001773e-03
  -4.83991904e-03  1.40631804e-02  1.60469618e-02 -9.43401549e-03
   1.67518519e-02 -1.44792097e-02 -2.40759104e-02 -4.51967586e-04
  -1.80875994e-02  1.00700706e-02 -7.19561987e-03 -4.30414565e-02
  -1.03257783e-02  1.36624686e-02 -2.16654874e-03 -1.82065144e-02
  -2.31374949e-02  2.51332335e-02 -2.16625854e-02  1.65980067e-02
   2.52715312e-02 -2.22756434e-03 -2.63468530e-02 -1.81888565e-02
   1.12375878e-02  1.10448971e-02 -1.66967511e-02  3.40716392e-02
   1.74321700e-03  2.58421130e-03  2.12544892e-02  8.52836878e-04]]

Layer 2:
[0. 0. 0. 0. 0. 0. 0. 0. 0. 0. 0. 0. 0. 0. 0. 0. 0. 0. 0. 0. 0. 0. 0. 0.
 0. 0. 0. 0. 0. 0. 0. 0. 0. 0. 0. 0. 0. 0. 0. 0. 0. 0. 0. 0. 0. 0. 0. 0.
 0. 0. 0. 0. 0. 0. 0. 0. 0. 0. 0. 0. 0. 0. 0. 0. 0. 0. 0. 0. 0. 0. 0. 0.
 0. 0. 0. 0. 0. 0. 0. 0. 0. 0. 0. 0. 0. 0. 0. 0. 0. 0. 0. 0. 0. 0. 0. 0.
 0. 0. 0. 0.]

Layer 3:
[[-1.072252  ]
 [-0.98545104]
 [ 0.9444424 ]
 [ 0.9612175 ]
 [-0.87506455]
 [-0.09034874]
 [-0.79124624]
 [ 0.9316327 ]
 [-0.9140194 ]
 [-1.0754308 ]
 [-0.9869673 ]
 [ 0.43716604]
 [ 0.8078618 ]
 [ 0.90201414]
 [-0.75594866]
 [ 0.47401989]
 [-0.9407716 ]
 [-0.9357794 ]
 [ 0.9804873 ]
 [ 1.038105  ]
 [-0.39065984]
 [ 0.7223646 ]
 [-0.8840441 ]
 [ 0.51357454]
 [ 0.8957363 ]
 [ 0.96825093]
 [-0.6908188 ]
 [-0.9159948 ]
 [-1.0342381 ]
 [ 0.94943327]
 [-0.96073043]
 [-0.92351013]
 [ 0.7413717 ]
 [-1.0540602 ]
 [-0.87509674]
 [ 0.9545553 ]
 [ 0.90870404]
 [-0.80742645]
 [-1.0100402 ]
 [-0.99055225]
 [-0.92948806]
 [ 0.8853682 ]
 [-0.9473535 ]
 [-1.0278955 ]
 [ 0.4596406 ]
 [ 0.01265903]
 [ 1.0927775 ]
 [-0.89016205]
 [ 0.96195114]
 [ 0.92293066]
 [-0.6525032 ]
 [ 0.7699167 ]
 [-1.0351797 ]
 [-0.91721594]
 [-0.9624364 ]
 [ 0.8609101 ]
 [-0.90491647]
 [-0.08292589]
 [ 0.9511409 ]
 [ 0.93171394]
 [-0.02720825]
 [-0.7952166 ]
 [-0.9951749 ]
 [-0.5892198 ]
 [-0.923114  ]
 [-1.0684112 ]
 [-0.81682   ]
 [ 1.0010753 ]
 [-0.7683435 ]
 [ 1.0536838 ]
 [ 1.0758741 ]
 [-1.0319155 ]
 [ 1.0361106 ]
 [-1.0314702 ]
 [-0.910923  ]
 [ 0.13305789]
 [-1.1279365 ]
 [ 1.0444216 ]
 [-0.91895413]
 [-0.77883154]
 [-0.98526   ]
 [ 1.0596485 ]
 [-0.34697014]
 [-0.9810112 ]
 [-1.1452283 ]
 [ 0.88084555]
 [-1.0892566 ]
 [ 0.9511482 ]
 [ 0.98867184]
 [-0.41203588]
 [-0.96508056]
 [-1.0499792 ]
 [ 1.0703131 ]
 [ 1.0833014 ]
 [-1.084947  ]
 [ 0.81712884]
 [ 0.4323941 ]
 [ 0.57896554]
 [ 1.1025746 ]
 [ 0.48313436]]

Layer 4:
[-0.00071052]



Entrenamiento 8:
------------------------------------------------------------------------

Layer 0:
[[ 0.00698687  0.00678012 -0.02517775 ...  0.01505068  0.00434715
  -0.00546029]
 [-0.00315026 -0.00011694  0.02692701 ...  0.01387434  0.00759507
  -0.01546959]
 [ 0.01014916  0.01590029 -0.01678139 ... -0.00504206 -0.00940961
  -0.02194714]
 ...
 [-0.00768042  0.00159892 -0.01944887 ...  0.01518249 -0.0053446
   0.02323506]
 [-0.02232547 -0.00224184 -0.01138541 ...  0.00578935 -0.00185397
   0.03621493]
 [ 0.00093864  0.01060692 -0.01239373 ... -0.00423512 -0.01145612
   0.00332073]]

Layer 1:
[[-1.44523615e-02 -1.70654431e-02  7.81921670e-03  9.93859861e-03
  -4.16453034e-02  2.90275875e-05 -5.97417494e-03  7.99709000e-03
  -2.93519944e-02 -1.58591382e-02 -2.44716611e-02  2.91102496e-03
   5.05465269e-03  6.17371267e-03 -5.33036096e-03  2.49809725e-03
  -7.24334503e-03 -2.05564313e-02  1.79155283e-02  9.45475698e-03
  -1.08405878e-03  4.49669398e-02 -4.25397530e-02  2.45538494e-03
   3.48506533e-02  2.70545520e-02 -3.87904909e-03 -2.52123959e-02
  -2.52606720e-02  1.59680080e-02 -1.20207807e-02 -2.78951172e-02
   5.38982004e-02 -1.28256204e-02 -2.45533474e-02  2.39785146e-02
   6.23701792e-03 -5.33852912e-03 -1.15349041e-02 -2.27797497e-02
  -8.74788966e-03  2.09699124e-02 -3.06438282e-02 -2.42405813e-02
   1.86044048e-03 -2.27130382e-04  1.30981207e-02 -2.95378715e-02
   1.57638323e-02  6.88180048e-03 -3.64511018e-03  5.32590300e-02
  -2.18438059e-02 -2.79892795e-02 -2.47645639e-02  6.18376862e-03
  -6.96970383e-03 -3.90311761e-04  2.01389510e-02  2.55592745e-02
  -1.87631274e-04 -5.32516371e-03 -1.90264378e-02 -4.87801200e-03
  -2.63819136e-02 -9.66742262e-03 -3.88392843e-02  9.30001773e-03
  -4.83991904e-03  1.40631804e-02  1.60469618e-02 -9.43401549e-03
   1.67518519e-02 -1.44792097e-02 -2.40759104e-02 -4.51967586e-04
  -1.80875994e-02  1.00700706e-02 -7.19561987e-03 -4.30414565e-02
  -1.03257783e-02  1.36624686e-02 -2.16654874e-03 -1.82065144e-02
  -2.31374949e-02  2.51332335e-02 -2.16625854e-02  1.65980067e-02
   2.52715312e-02 -2.22756434e-03 -2.63468530e-02 -1.81888565e-02
   1.12375878e-02  1.10448971e-02 -1.66967511e-02  3.40716392e-02
   1.74321700e-03  2.58421130e-03  2.12544892e-02  8.52836878e-04]]

Layer 2:
[0. 0. 0. 0. 0. 0. 0. 0. 0. 0. 0. 0. 0. 0. 0. 0. 0. 0. 0. 0. 0. 0. 0. 0.
 0. 0. 0. 0. 0. 0. 0. 0. 0. 0. 0. 0. 0. 0. 0. 0. 0. 0. 0. 0. 0. 0. 0. 0.
 0. 0. 0. 0. 0. 0. 0. 0. 0. 0. 0. 0. 0. 0. 0. 0. 0. 0. 0. 0. 0. 0. 0. 0.
 0. 0. 0. 0. 0. 0. 0. 0. 0. 0. 0. 0. 0. 0. 0. 0. 0. 0. 0. 0. 0. 0. 0. 0.
 0. 0. 0. 0.]

Layer 3:
[[-0.86844516]
 [-0.76383466]
 [ 0.7393672 ]
 [ 0.785705  ]
 [-0.60450447]
 [-0.06097041]
 [-0.6469429 ]
 [ 0.7542884 ]
 [-0.6631135 ]
 [-0.8405304 ]
 [-0.73089194]
 [ 0.40215817]
 [ 0.51813745]
 [ 0.77841157]
 [-0.6759114 ]
 [ 0.41554505]
 [-0.7467284 ]
 [-0.692718  ]
 [ 0.7705999 ]
 [ 0.87864465]
 [-0.27155375]
 [ 0.44488722]
 [-0.60865223]
 [ 0.43124422]
 [ 0.62899244]
 [ 0.71362525]
 [-0.6437028 ]
 [-0.6707599 ]
 [-0.7665988 ]
 [ 0.6878607 ]
 [-0.7169811 ]
 [-0.6673454 ]
 [ 0.46103734]
 [-0.85105586]
 [-0.63660735]
 [ 0.7036069 ]
 [ 0.84744906]
 [-0.75575966]
 [-0.87962425]
 [-0.758947  ]
 [-0.77003807]
 [ 0.62802416]
 [-0.6992306 ]
 [-0.76491785]
 [ 0.4103947 ]
 [-0.02119226]
 [ 0.9385999 ]
 [-0.6354973 ]
 [ 0.7433737 ]
 [ 0.7799209 ]
 [-0.5926065 ]
 [ 0.4929354 ]
 [-0.80352634]
 [-0.65859085]
 [-0.69827   ]
 [ 0.6349775 ]
 [-0.7341781 ]
 [-0.07696614]
 [ 0.6578298 ]
 [ 0.68467504]
 [-0.04182446]
 [-0.707899  ]
 [-0.74136025]
 [-0.47969115]
 [-0.67112637]
 [-0.9122995 ]
 [-0.5453537 ]
 [ 0.9084249 ]
 [-0.71848387]
 [ 0.8597006 ]
 [ 0.88594913]
 [-0.86866665]
 [ 0.826547  ]
 [-0.84815264]
 [-0.6650371 ]
 [ 0.07628737]
 [-0.93299675]
 [ 0.9370978 ]
 [-0.8170028 ]
 [-0.49911574]
 [-0.8130483 ]
 [ 0.8629088 ]
 [-0.3511751 ]
 [-0.71379733]
 [-0.89820457]
 [ 0.6291804 ]
 [-0.8398857 ]
 [ 0.6941885 ]
 [ 0.7498788 ]
 [-0.3584915 ]
 [-0.7161853 ]
 [-0.80863833]
 [ 0.8888623 ]
 [ 0.9637086 ]
 [-0.8765868 ]
 [ 0.54206026]
 [ 0.37677935]
 [ 0.35448757]
 [ 0.8707163 ]
 [ 0.42426547]]

Layer 4:
[-0.18176985]



Consenso 8:
------------------------------------------------------------------------

Layer 0:
[[ 0.00698687  0.00678012 -0.02517775 ...  0.01505068  0.00434715
  -0.00546029]
 [-0.00315026 -0.00011694  0.02692701 ...  0.01387434  0.00759507
  -0.01546959]
 [ 0.01014916  0.01590029 -0.01678139 ... -0.00504206 -0.00940961
  -0.02194714]
 ...
 [-0.00768042  0.00159892 -0.01944887 ...  0.01518249 -0.0053446
   0.02323506]
 [-0.02232547 -0.00224184 -0.01138541 ...  0.00578935 -0.00185397
   0.03621493]
 [ 0.00093864  0.01060692 -0.01239373 ... -0.00423512 -0.01145612
   0.00332073]]

Layer 1:
[[-1.44523615e-02 -1.70654431e-02  7.81921670e-03  9.93859861e-03
  -4.16453034e-02  2.90275875e-05 -5.97417494e-03  7.99709000e-03
  -2.93519944e-02 -1.58591382e-02 -2.44716611e-02  2.91102496e-03
   5.05465269e-03  6.17371267e-03 -5.33036096e-03  2.49809725e-03
  -7.24334503e-03 -2.05564313e-02  1.79155283e-02  9.45475698e-03
  -1.08405878e-03  4.49669398e-02 -4.25397530e-02  2.45538494e-03
   3.48506533e-02  2.70545520e-02 -3.87904909e-03 -2.52123959e-02
  -2.52606720e-02  1.59680080e-02 -1.20207807e-02 -2.78951172e-02
   5.38982004e-02 -1.28256204e-02 -2.45533474e-02  2.39785146e-02
   6.23701792e-03 -5.33852912e-03 -1.15349041e-02 -2.27797497e-02
  -8.74788966e-03  2.09699124e-02 -3.06438282e-02 -2.42405813e-02
   1.86044048e-03 -2.27130382e-04  1.30981207e-02 -2.95378715e-02
   1.57638323e-02  6.88180048e-03 -3.64511018e-03  5.32590300e-02
  -2.18438059e-02 -2.79892795e-02 -2.47645639e-02  6.18376862e-03
  -6.96970383e-03 -3.90311761e-04  2.01389510e-02  2.55592745e-02
  -1.87631274e-04 -5.32516371e-03 -1.90264378e-02 -4.87801200e-03
  -2.63819136e-02 -9.66742262e-03 -3.88392843e-02  9.30001773e-03
  -4.83991904e-03  1.40631804e-02  1.60469618e-02 -9.43401549e-03
   1.67518519e-02 -1.44792097e-02 -2.40759104e-02 -4.51967586e-04
  -1.80875994e-02  1.00700706e-02 -7.19561987e-03 -4.30414565e-02
  -1.03257783e-02  1.36624686e-02 -2.16654874e-03 -1.82065144e-02
  -2.31374949e-02  2.51332335e-02 -2.16625854e-02  1.65980067e-02
   2.52715312e-02 -2.22756434e-03 -2.63468530e-02 -1.81888565e-02
   1.12375878e-02  1.10448971e-02 -1.66967511e-02  3.40716392e-02
   1.74321700e-03  2.58421130e-03  2.12544892e-02  8.52836878e-04]]

Layer 2:
[0. 0. 0. 0. 0. 0. 0. 0. 0. 0. 0. 0. 0. 0. 0. 0. 0. 0. 0. 0. 0. 0. 0. 0.
 0. 0. 0. 0. 0. 0. 0. 0. 0. 0. 0. 0. 0. 0. 0. 0. 0. 0. 0. 0. 0. 0. 0. 0.
 0. 0. 0. 0. 0. 0. 0. 0. 0. 0. 0. 0. 0. 0. 0. 0. 0. 0. 0. 0. 0. 0. 0. 0.
 0. 0. 0. 0. 0. 0. 0. 0. 0. 0. 0. 0. 0. 0. 0. 0. 0. 0. 0. 0. 0. 0. 0. 0.
 0. 0. 0. 0.]

Layer 3:
[[-1.0998003 ]
 [-0.9970049 ]
 [ 1.0243924 ]
 [ 1.0128351 ]
 [-0.81241465]
 [-0.094448  ]
 [-0.84810954]
 [ 0.9845618 ]
 [-0.8873906 ]
 [-1.113769  ]
 [-0.9900894 ]
 [ 0.51176786]
 [ 0.84932745]
 [ 0.9729984 ]
 [-0.8316179 ]
 [ 0.5185632 ]
 [-1.0214462 ]
 [-0.9322349 ]
 [ 1.0108781 ]
 [ 1.1166306 ]
 [-0.41732264]
 [ 0.64246714]
 [-0.822618  ]
 [ 0.5552898 ]
 [ 0.84545535]
 [ 0.9471118 ]
 [-0.7749409 ]
 [-0.9039157 ]
 [-1.032926  ]
 [ 0.94382906]
 [-0.98454356]
 [-0.9070169 ]
 [ 0.6522809 ]
 [-1.0963937 ]
 [-0.86158794]
 [ 0.9425316 ]
 [ 1.0172967 ]
 [-0.9075982 ]
 [-1.1007192 ]
 [-1.0015814 ]
 [-0.9758835 ]
 [ 0.8897264 ]
 [-0.9279287 ]
 [-1.0244181 ]
 [ 0.5109556 ]
 [ 0.00943625]
 [ 1.1856631 ]
 [-0.8615157 ]
 [ 0.9875727 ]
 [ 0.99046093]
 [-0.72209525]
 [ 0.6905932 ]
 [-1.0355998 ]
 [-0.8932264 ]
 [-0.9731055 ]
 [ 0.9312696 ]
 [-0.9645539 ]
 [-0.09439714]
 [ 0.9601514 ]
 [ 0.91274357]
 [-0.03521925]
 [-0.874124  ]
 [-0.9941432 ]
 [-0.6452591 ]
 [-0.9013443 ]
 [-1.1462487 ]
 [-0.7497651 ]
 [ 1.112197  ]
 [-0.85748917]
 [ 1.1016846 ]
 [ 1.1162897 ]
 [-1.1022311 ]
 [ 1.074507  ]
 [-1.0781003 ]
 [-0.89187604]
 [ 0.12178379]
 [-1.1684602 ]
 [ 1.1493143 ]
 [-1.0021302 ]
 [-0.705878  ]
 [-1.0446554 ]
 [ 1.0943172 ]
 [-0.40815333]
 [-0.99377906]
 [-1.1604398 ]
 [ 0.8613821 ]
 [-1.1324116 ]
 [ 0.9525003 ]
 [ 0.98685575]
 [-0.45732597]
 [-0.95163465]
 [-1.05824   ]
 [ 1.1205248 ]
 [ 1.1709216 ]
 [-1.1156309 ]
 [ 0.77114266]
 [ 0.47442415]
 [ 0.6289874 ]
 [ 1.1215272 ]
 [ 0.52580446]]

Layer 4:
[-0.03565418]



Entrenamiento 9:
------------------------------------------------------------------------

Layer 0:
[[ 0.00698687  0.00678012 -0.02517775 ...  0.01505068  0.00434715
  -0.00546029]
 [-0.00315026 -0.00011694  0.02692701 ...  0.01387434  0.00759507
  -0.01546959]
 [ 0.01014916  0.01590029 -0.01678139 ... -0.00504206 -0.00940961
  -0.02194714]
 ...
 [-0.00768042  0.00159892 -0.01944887 ...  0.01518249 -0.0053446
   0.02323506]
 [-0.02232547 -0.00224184 -0.01138541 ...  0.00578935 -0.00185397
   0.03621493]
 [ 0.00093864  0.01060692 -0.01239373 ... -0.00423512 -0.01145612
   0.00332073]]

Layer 1:
[[-1.44523615e-02 -1.70654431e-02  7.81921670e-03  9.93859861e-03
  -4.16453034e-02  2.90275875e-05 -5.97417494e-03  7.99709000e-03
  -2.93519944e-02 -1.58591382e-02 -2.44716611e-02  2.91102496e-03
   5.05465269e-03  6.17371267e-03 -5.33036096e-03  2.49809725e-03
  -7.24334503e-03 -2.05564313e-02  1.79155283e-02  9.45475698e-03
  -1.08405878e-03  4.49669398e-02 -4.25397530e-02  2.45538494e-03
   3.48506533e-02  2.70545520e-02 -3.87904909e-03 -2.52123959e-02
  -2.52606720e-02  1.59680080e-02 -1.20207807e-02 -2.78951172e-02
   5.38982004e-02 -1.28256204e-02 -2.45533474e-02  2.39785146e-02
   6.23701792e-03 -5.33852912e-03 -1.15349041e-02 -2.27797497e-02
  -8.74788966e-03  2.09699124e-02 -3.06438282e-02 -2.42405813e-02
   1.86044048e-03 -2.27130382e-04  1.30981207e-02 -2.95378715e-02
   1.57638323e-02  6.88180048e-03 -3.64511018e-03  5.32590300e-02
  -2.18438059e-02 -2.79892795e-02 -2.47645639e-02  6.18376862e-03
  -6.96970383e-03 -3.90311761e-04  2.01389510e-02  2.55592745e-02
  -1.87631274e-04 -5.32516371e-03 -1.90264378e-02 -4.87801200e-03
  -2.63819136e-02 -9.66742262e-03 -3.88392843e-02  9.30001773e-03
  -4.83991904e-03  1.40631804e-02  1.60469618e-02 -9.43401549e-03
   1.67518519e-02 -1.44792097e-02 -2.40759104e-02 -4.51967586e-04
  -1.80875994e-02  1.00700706e-02 -7.19561987e-03 -4.30414565e-02
  -1.03257783e-02  1.36624686e-02 -2.16654874e-03 -1.82065144e-02
  -2.31374949e-02  2.51332335e-02 -2.16625854e-02  1.65980067e-02
   2.52715312e-02 -2.22756434e-03 -2.63468530e-02 -1.81888565e-02
   1.12375878e-02  1.10448971e-02 -1.66967511e-02  3.40716392e-02
   1.74321700e-03  2.58421130e-03  2.12544892e-02  8.52836878e-04]]

Layer 2:
[0. 0. 0. 0. 0. 0. 0. 0. 0. 0. 0. 0. 0. 0. 0. 0. 0. 0. 0. 0. 0. 0. 0. 0.
 0. 0. 0. 0. 0. 0. 0. 0. 0. 0. 0. 0. 0. 0. 0. 0. 0. 0. 0. 0. 0. 0. 0. 0.
 0. 0. 0. 0. 0. 0. 0. 0. 0. 0. 0. 0. 0. 0. 0. 0. 0. 0. 0. 0. 0. 0. 0. 0.
 0. 0. 0. 0. 0. 0. 0. 0. 0. 0. 0. 0. 0. 0. 0. 0. 0. 0. 0. 0. 0. 0. 0. 0.
 0. 0. 0. 0.]

Layer 3:
[[-0.8987648 ]
 [-0.77996117]
 [ 0.82224184]
 [ 0.8378485 ]
 [-0.55389184]
 [-0.06431782]
 [-0.70296615]
 [ 0.80789644]
 [-0.64517504]
 [-0.8851601 ]
 [-0.74348235]
 [ 0.47565016]
 [ 0.5729294 ]
 [ 0.8479213 ]
 [-0.7498766 ]
 [ 0.45880115]
 [-0.82932943]
 [-0.69638425]
 [ 0.80457944]
 [ 0.95720685]
 [-0.29658684]
 [ 0.37812015]
 [-0.56013054]
 [ 0.47119072]
 [ 0.5898599 ]
 [ 0.70161074]
 [-0.726573  ]
 [-0.66645867]
 [-0.7764945 ]
 [ 0.6916344 ]
 [-0.7476246 ]
 [-0.66030294]
 [ 0.38584432]
 [-0.8961176 ]
 [-0.6299218 ]
 [ 0.70001996]
 [ 0.9545278 ]
 [-0.854596  ]
 [-0.9690615 ]
 [-0.77606267]
 [-0.816066  ]
 [ 0.641682  ]
 [-0.6882467 ]
 [-0.77181906]
 [ 0.4604717 ]
 [-0.02531244]
 [ 1.0311884 ]
 [-0.6160653 ]
 [ 0.7732877 ]
 [ 0.8464663 ]
 [-0.66089326]
 [ 0.4270812 ]
 [-0.8099177 ]
 [-0.6443276 ]
 [-0.71977603]
 [ 0.7105836 ]
 [-0.7940347 ]
 [-0.08828679]
 [ 0.682165  ]
 [ 0.67369515]
 [-0.05021688]
 [-0.78512555]
 [-0.7489092 ]
 [-0.5342173 ]
 [-0.658045  ]
 [-0.98969716]
 [-0.49024138]
 [ 1.0176976 ]
 [-0.80643106]
 [ 0.9096934 ]
 [ 0.92814535]
 [-0.9389017 ]
 [ 0.8684942 ]
 [-0.89600796]
 [-0.65371495]
 [ 0.06369207]
 [-0.9757566 ]
 [ 1.0403934 ]
 [-0.898442  ]
 [-0.4396417 ]
 [-0.87284416]
 [ 0.89974946]
 [-0.41254854]
 [-0.7372308 ]
 [-0.9216489 ]
 [ 0.618278  ]
 [-0.89192194]
 [ 0.7043721 ]
 [ 0.75510263]
 [-0.40248576]
 [-0.71109456]
 [-0.8238832 ]
 [ 0.940029  ]
 [ 1.0497892 ]
 [-0.9105757 ]
 [ 0.50856936]
 [ 0.41747263]
 [ 0.4087765 ]
 [ 0.89578265]
 [ 0.4652857 ]]

Layer 4:
[-0.19230983]



Consenso 9:
------------------------------------------------------------------------

Layer 0:
[[ 0.00698687  0.00678012 -0.02517775 ...  0.01505068  0.00434715
  -0.00546029]
 [-0.00315026 -0.00011694  0.02692701 ...  0.01387434  0.00759507
  -0.01546959]
 [ 0.01014916  0.01590029 -0.01678139 ... -0.00504206 -0.00940961
  -0.02194714]
 ...
 [-0.00768042  0.00159892 -0.01944887 ...  0.01518249 -0.0053446
   0.02323506]
 [-0.02232547 -0.00224184 -0.01138541 ...  0.00578935 -0.00185397
   0.03621493]
 [ 0.00093864  0.01060692 -0.01239373 ... -0.00423512 -0.01145612
   0.00332073]]

Layer 1:
[[-1.44523615e-02 -1.70654431e-02  7.81921670e-03  9.93859861e-03
  -4.16453034e-02  2.90275875e-05 -5.97417494e-03  7.99709000e-03
  -2.93519944e-02 -1.58591382e-02 -2.44716611e-02  2.91102496e-03
   5.05465269e-03  6.17371267e-03 -5.33036096e-03  2.49809725e-03
  -7.24334503e-03 -2.05564313e-02  1.79155283e-02  9.45475698e-03
  -1.08405878e-03  4.49669398e-02 -4.25397530e-02  2.45538494e-03
   3.48506533e-02  2.70545520e-02 -3.87904909e-03 -2.52123959e-02
  -2.52606720e-02  1.59680080e-02 -1.20207807e-02 -2.78951172e-02
   5.38982004e-02 -1.28256204e-02 -2.45533474e-02  2.39785146e-02
   6.23701792e-03 -5.33852912e-03 -1.15349041e-02 -2.27797497e-02
  -8.74788966e-03  2.09699124e-02 -3.06438282e-02 -2.42405813e-02
   1.86044048e-03 -2.27130382e-04  1.30981207e-02 -2.95378715e-02
   1.57638323e-02  6.88180048e-03 -3.64511018e-03  5.32590300e-02
  -2.18438059e-02 -2.79892795e-02 -2.47645639e-02  6.18376862e-03
  -6.96970383e-03 -3.90311761e-04  2.01389510e-02  2.55592745e-02
  -1.87631274e-04 -5.32516371e-03 -1.90264378e-02 -4.87801200e-03
  -2.63819136e-02 -9.66742262e-03 -3.88392843e-02  9.30001773e-03
  -4.83991904e-03  1.40631804e-02  1.60469618e-02 -9.43401549e-03
   1.67518519e-02 -1.44792097e-02 -2.40759104e-02 -4.51967586e-04
  -1.80875994e-02  1.00700706e-02 -7.19561987e-03 -4.30414565e-02
  -1.03257783e-02  1.36624686e-02 -2.16654874e-03 -1.82065144e-02
  -2.31374949e-02  2.51332335e-02 -2.16625854e-02  1.65980067e-02
   2.52715312e-02 -2.22756434e-03 -2.63468530e-02 -1.81888565e-02
   1.12375878e-02  1.10448971e-02 -1.66967511e-02  3.40716392e-02
   1.74321700e-03  2.58421130e-03  2.12544892e-02  8.52836878e-04]]

Layer 2:
[0. 0. 0. 0. 0. 0. 0. 0. 0. 0. 0. 0. 0. 0. 0. 0. 0. 0. 0. 0. 0. 0. 0. 0.
 0. 0. 0. 0. 0. 0. 0. 0. 0. 0. 0. 0. 0. 0. 0. 0. 0. 0. 0. 0. 0. 0. 0. 0.
 0. 0. 0. 0. 0. 0. 0. 0. 0. 0. 0. 0. 0. 0. 0. 0. 0. 0. 0. 0. 0. 0. 0. 0.
 0. 0. 0. 0. 0. 0. 0. 0. 0. 0. 0. 0. 0. 0. 0. 0. 0. 0. 0. 0. 0. 0. 0. 0.
 0. 0. 0. 0.]

Layer 3:
[[-1.1271988 ]
 [-1.0074495 ]
 [ 1.1051066 ]
 [ 1.0644466 ]
 [-0.7471511 ]
 [-0.09828096]
 [-0.9056137 ]
 [ 1.0371622 ]
 [-0.85880965]
 [-1.1521103 ]
 [-0.99245507]
 [ 0.5897392 ]
 [ 0.8911998 ]
 [ 1.0446402 ]
 [-0.90933704]
 [ 0.56451786]
 [-1.1035925 ]
 [-0.9273974 ]
 [ 1.040766  ]
 [ 1.1958095 ]
 [-0.44467264]
 [ 0.5595043 ]
 [-0.75856256]
 [ 0.598143  ]
 [ 0.7925664 ]
 [ 0.92433643]
 [-0.86159617]
 [-0.8904426 ]
 [-1.0305455 ]
 [ 0.93688905]
 [-1.0083834 ]
 [-0.888961  ]
 [ 0.55968857]
 [-1.1385616 ]
 [-0.84651256]
 [ 0.9288684 ]
 [ 1.1289036 ]
 [-1.0106802 ]
 [-1.1920569 ]
 [-1.0116028 ]
 [-1.023039  ]
 [ 0.8930115 ]
 [-0.90650207]
 [-1.0199462 ]
 [ 0.56385535]
 [ 0.00540444]
 [ 1.2794213 ]
 [-0.83086467]
 [ 1.0129509 ]
 [ 1.0584494 ]
 [-0.794149  ]
 [ 0.60804   ]
 [-1.0351028 ]
 [-0.86735946]
 [-0.9831472 ]
 [ 1.003247  ]
 [-1.0247836 ]
 [-0.10659474]
 [ 0.9681855 ]
 [ 0.89215654]
 [-0.04407867]
 [-0.9549012 ]
 [-0.99222785]
 [-0.7028256 ]
 [-0.8779927 ]
 [-1.2253253 ]
 [-0.6797145 ]
 [ 1.2252715 ]
 [-0.9495634 ]
 [ 1.1493443 ]
 [ 1.1562679 ]
 [-1.1728334 ]
 [ 1.112743  ]
 [-1.1248707 ]
 [-0.8712294 ]
 [ 0.10898963]
 [-1.2088791 ]
 [ 1.2557578 ]
 [-1.0869821 ]
 [-0.63002616]
 [-1.1046842 ]
 [ 1.1285872 ]
 [-0.4731106 ]
 [-1.0058085 ]
 [-1.1752127 ]
 [ 0.84016395]
 [-1.17523   ]
 [ 0.9527347 ]
 [ 0.983636  ]
 [-0.5042251 ]
 [-0.9368263 ]
 [-1.0660169 ]
 [ 1.1706071 ]
 [ 1.2595241 ]
 [-1.1459103 ]
 [ 0.72271603]
 [ 0.5177932 ]
 [ 0.6805528 ]
 [ 1.1399299 ]
 [ 0.5695009 ]]

Layer 4:
[-0.05775521]



Entrenamiento 10:
------------------------------------------------------------------------

Layer 0:
[[ 0.00698687  0.00678012 -0.02517775 ...  0.01505068  0.00434715
  -0.00546029]
 [-0.00315026 -0.00011694  0.02692701 ...  0.01387434  0.00759507
  -0.01546959]
 [ 0.01014916  0.01590029 -0.01678139 ... -0.00504206 -0.00940961
  -0.02194714]
 ...
 [-0.00768042  0.00159892 -0.01944887 ...  0.01518249 -0.0053446
   0.02323506]
 [-0.02232547 -0.00224184 -0.01138541 ...  0.00578935 -0.00185397
   0.03621493]
 [ 0.00093864  0.01060692 -0.01239373 ... -0.00423512 -0.01145612
   0.00332073]]

Layer 1:
[[-1.44523615e-02 -1.70654431e-02  7.81921670e-03  9.93859861e-03
  -4.16453034e-02  2.90275875e-05 -5.97417494e-03  7.99709000e-03
  -2.93519944e-02 -1.58591382e-02 -2.44716611e-02  2.91102496e-03
   5.05465269e-03  6.17371267e-03 -5.33036096e-03  2.49809725e-03
  -7.24334503e-03 -2.05564313e-02  1.79155283e-02  9.45475698e-03
  -1.08405878e-03  4.49669398e-02 -4.25397530e-02  2.45538494e-03
   3.48506533e-02  2.70545520e-02 -3.87904909e-03 -2.52123959e-02
  -2.52606720e-02  1.59680080e-02 -1.20207807e-02 -2.78951172e-02
   5.38982004e-02 -1.28256204e-02 -2.45533474e-02  2.39785146e-02
   6.23701792e-03 -5.33852912e-03 -1.15349041e-02 -2.27797497e-02
  -8.74788966e-03  2.09699124e-02 -3.06438282e-02 -2.42405813e-02
   1.86044048e-03 -2.27130382e-04  1.30981207e-02 -2.95378715e-02
   1.57638323e-02  6.88180048e-03 -3.64511018e-03  5.32590300e-02
  -2.18438059e-02 -2.79892795e-02 -2.47645639e-02  6.18376862e-03
  -6.96970383e-03 -3.90311761e-04  2.01389510e-02  2.55592745e-02
  -1.87631274e-04 -5.32516371e-03 -1.90264378e-02 -4.87801200e-03
  -2.63819136e-02 -9.66742262e-03 -3.88392843e-02  9.30001773e-03
  -4.83991904e-03  1.40631804e-02  1.60469618e-02 -9.43401549e-03
   1.67518519e-02 -1.44792097e-02 -2.40759104e-02 -4.51967586e-04
  -1.80875994e-02  1.00700706e-02 -7.19561987e-03 -4.30414565e-02
  -1.03257783e-02  1.36624686e-02 -2.16654874e-03 -1.82065144e-02
  -2.31374949e-02  2.51332335e-02 -2.16625854e-02  1.65980067e-02
   2.52715312e-02 -2.22756434e-03 -2.63468530e-02 -1.81888565e-02
   1.12375878e-02  1.10448971e-02 -1.66967511e-02  3.40716392e-02
   1.74321700e-03  2.58421130e-03  2.12544892e-02  8.52836878e-04]]

Layer 2:
[0. 0. 0. 0. 0. 0. 0. 0. 0. 0. 0. 0. 0. 0. 0. 0. 0. 0. 0. 0. 0. 0. 0. 0.
 0. 0. 0. 0. 0. 0. 0. 0. 0. 0. 0. 0. 0. 0. 0. 0. 0. 0. 0. 0. 0. 0. 0. 0.
 0. 0. 0. 0. 0. 0. 0. 0. 0. 0. 0. 0. 0. 0. 0. 0. 0. 0. 0. 0. 0. 0. 0. 0.
 0. 0. 0. 0. 0. 0. 0. 0. 0. 0. 0. 0. 0. 0. 0. 0. 0. 0. 0. 0. 0. 0. 0. 0.
 0. 0. 0. 0.]

Layer 3:
[[-0.91870683]
 [-0.7839572 ]
 [ 0.8957761 ]
 [ 0.88100046]
 [-0.48669884]
 [-0.06566134]
 [-0.7521435 ]
 [ 0.8522023 ]
 [-0.6125186 ]
 [-0.9181783 ]
 [-0.7424687 ]
 [ 0.5506113 ]
 [ 0.6134241 ]
 [ 0.9114948 ]
 [-0.8214438 ]
 [ 0.50020087]
 [-0.9037108 ]
 [-0.6865604 ]
 [ 0.82764953]
 [ 1.0284845 ]
 [-0.3157944 ]
 [ 0.29397523]
 [-0.4946377 ]
 [ 0.5075957 ]
 [ 0.53448325]
 [ 0.6750658 ]
 [-0.8092646 ]
 [-0.6484459 ]
 [-0.77166265]
 [ 0.68102   ]
 [-0.7661486 ]
 [-0.63870704]
 [ 0.29263726]
 [-0.9309403 ]
 [-0.6096544 ]
 [ 0.68214715]
 [ 1.0612639 ]
 [-0.9534854 ]
 [-1.0523169 ]
 [-0.7806235 ]
 [-0.85458493]
 [ 0.64132833]
 [-0.6626836 ]
 [-0.7644911 ]
 [ 0.5093021 ]
 [-0.03227158]
 [ 1.116832  ]
 [-0.5817654 ]
 [ 0.79210865]
 [ 0.9059489 ]
 [-0.72837216]
 [ 0.34353563]
 [-0.8038443 ]
 [-0.6150424 ]
 [-0.72727287]
 [ 0.7769374 ]
 [-0.8457722 ]
 [-0.10001405]
 [ 0.6903316 ]
 [ 0.64866877]
 [-0.06033384]
 [-0.8594363 ]
 [-0.7428876 ]
 [-0.58445126]
 [-0.6306165 ]
 [-1.0603203 ]
 [-0.41827932]
 [ 1.1238719 ]
 [-0.89459485]
 [ 0.94958806]
 [ 0.9603742 ]
 [-1.0010661 ]
 [ 0.89987177]
 [-0.93474287]
 [-0.62845254]
 [ 0.04627381]
 [-1.008597  ]
 [ 1.1395847 ]
 [-0.9760329 ]
 [-0.36285186]
 [-0.92454076]
 [ 0.92632025]
 [-0.4782155 ]
 [-0.74650323]
 [-0.93233466]
 [ 0.5929083 ]
 [-0.9313104 ]
 [ 0.70058656]
 [ 0.7470056 ]
 [-0.4450251 ]
 [-0.69209886]
 [-0.8266822 ]
 [ 0.98185647]
 [ 1.1304499 ]
 [-0.93371725]
 [ 0.45853052]
 [ 0.4563367 ]
 [ 0.4534932 ]
 [ 0.9087647 ]
 [ 0.5037507 ]]

Layer 4:
[-0.19277453]



Consenso 10:
------------------------------------------------------------------------

Layer 0:
[[ 0.00698687  0.00678012 -0.02517775 ...  0.01505068  0.00434715
  -0.00546029]
 [-0.00315026 -0.00011694  0.02692701 ...  0.01387434  0.00759507
  -0.01546959]
 [ 0.01014916  0.01590029 -0.01678139 ... -0.00504206 -0.00940961
  -0.02194714]
 ...
 [-0.00768042  0.00159892 -0.01944887 ...  0.01518249 -0.0053446
   0.02323506]
 [-0.02232547 -0.00224184 -0.01138541 ...  0.00578935 -0.00185397
   0.03621493]
 [ 0.00093864  0.01060692 -0.01239373 ... -0.00423512 -0.01145612
   0.00332073]]

Layer 1:
[[-1.44523615e-02 -1.70654431e-02  7.81921670e-03  9.93859861e-03
  -4.16453034e-02  2.90275875e-05 -5.97417494e-03  7.99709000e-03
  -2.93519944e-02 -1.58591382e-02 -2.44716611e-02  2.91102496e-03
   5.05465269e-03  6.17371267e-03 -5.33036096e-03  2.49809725e-03
  -7.24334503e-03 -2.05564313e-02  1.79155283e-02  9.45475698e-03
  -1.08405878e-03  4.49669398e-02 -4.25397530e-02  2.45538494e-03
   3.48506533e-02  2.70545520e-02 -3.87904909e-03 -2.52123959e-02
  -2.52606720e-02  1.59680080e-02 -1.20207807e-02 -2.78951172e-02
   5.38982004e-02 -1.28256204e-02 -2.45533474e-02  2.39785146e-02
   6.23701792e-03 -5.33852912e-03 -1.15349041e-02 -2.27797497e-02
  -8.74788966e-03  2.09699124e-02 -3.06438282e-02 -2.42405813e-02
   1.86044048e-03 -2.27130382e-04  1.30981207e-02 -2.95378715e-02
   1.57638323e-02  6.88180048e-03 -3.64511018e-03  5.32590300e-02
  -2.18438059e-02 -2.79892795e-02 -2.47645639e-02  6.18376862e-03
  -6.96970383e-03 -3.90311761e-04  2.01389510e-02  2.55592745e-02
  -1.87631274e-04 -5.32516371e-03 -1.90264378e-02 -4.87801200e-03
  -2.63819136e-02 -9.66742262e-03 -3.88392843e-02  9.30001773e-03
  -4.83991904e-03  1.40631804e-02  1.60469618e-02 -9.43401549e-03
   1.67518519e-02 -1.44792097e-02 -2.40759104e-02 -4.51967586e-04
  -1.80875994e-02  1.00700706e-02 -7.19561987e-03 -4.30414565e-02
  -1.03257783e-02  1.36624686e-02 -2.16654874e-03 -1.82065144e-02
  -2.31374949e-02  2.51332335e-02 -2.16625854e-02  1.65980067e-02
   2.52715312e-02 -2.22756434e-03 -2.63468530e-02 -1.81888565e-02
   1.12375878e-02  1.10448971e-02 -1.66967511e-02  3.40716392e-02
   1.74321700e-03  2.58421130e-03  2.12544892e-02  8.52836878e-04]]

Layer 2:
[0. 0. 0. 0. 0. 0. 0. 0. 0. 0. 0. 0. 0. 0. 0. 0. 0. 0. 0. 0. 0. 0. 0. 0.
 0. 0. 0. 0. 0. 0. 0. 0. 0. 0. 0. 0. 0. 0. 0. 0. 0. 0. 0. 0. 0. 0. 0. 0.
 0. 0. 0. 0. 0. 0. 0. 0. 0. 0. 0. 0. 0. 0. 0. 0. 0. 0. 0. 0. 0. 0. 0. 0.
 0. 0. 0. 0. 0. 0. 0. 0. 0. 0. 0. 0. 0. 0. 0. 0. 0. 0. 0. 0. 0. 0. 0. 0.
 0. 0. 0. 0.]

Layer 3:
[[-1.15317726e+00]
 [-1.01562190e+00]
 [ 1.18549836e+00]
 [ 1.11503708e+00]
 [-6.78048015e-01]
 [-1.01582959e-01]
 [-9.62416053e-01]
 [ 1.08833206e+00]
 [-8.27158809e-01]
 [-1.18936491e+00]
 [-9.92910385e-01]
 [ 6.70659661e-01]
 [ 9.32252944e-01]
 [ 1.11596024e+00]
 [-9.88225996e-01]
 [ 6.11141920e-01]
 [-1.18601501e+00]
 [-9.20169473e-01]
 [ 1.06910348e+00]
 [ 1.27467465e+00]
 [-4.71943796e-01]
 [ 4.72294927e-01]
 [-6.90707624e-01]
 [ 6.41120076e-01]
 [ 7.35930800e-01]
 [ 8.98741424e-01]
 [-9.50056970e-01]
 [-8.74377310e-01]
 [-1.02593732e+00]
 [ 9.27299023e-01]
 [-1.03092360e+00]
 [-8.68237436e-01]
 [ 4.62522179e-01]
 [-1.17934084e+00]
 [-8.28696728e-01]
 [ 9.12390232e-01]
 [ 1.24268973e+00]
 [-1.11591756e+00]
 [-1.28312743e+00]
 [-1.01955247e+00]
 [-1.06967545e+00]
 [ 8.94046128e-01]
 [-8.82044137e-01]
 [-1.01329458e+00]
 [ 6.17723942e-01]
 [ 2.12451705e-04]
 [ 1.37319744e+00]
 [-7.97061682e-01]
 [ 1.03703856e+00]
 [ 1.12577629e+00]
 [-8.67886841e-01]
 [ 5.21172941e-01]
 [-1.03259385e+00]
 [-8.38528395e-01]
 [-9.91389275e-01]
 [ 1.07575846e+00]
 [-1.08446872e+00]
 [-1.19428575e-01]
 [ 9.74043190e-01]
 [ 8.68824124e-01]
 [-5.39002679e-02]
 [-1.03670168e+00]
 [-9.88093436e-01]
 [-7.60835707e-01]
 [-8.51772606e-01]
 [-1.30468667e+00]
 [-6.05466664e-01]
 [ 1.33937252e+00]
 [-1.04395330e+00]
 [ 1.19552362e+00]
 [ 1.19479239e+00]
 [-1.24269450e+00]
 [ 1.14987087e+00]
 [-1.17062187e+00]
 [-8.47812831e-01]
 [ 9.42030326e-02]
 [-1.24813008e+00]
 [ 1.36295402e+00]
 [-1.17261183e+00]
 [-5.50076962e-01]
 [-1.16403401e+00]
 [ 1.16140127e+00]
 [-5.41532457e-01]
 [-1.01595175e+00]
 [-1.18859661e+00]
 [ 8.16027343e-01]
 [-1.21678722e+00]
 [ 9.50526237e-01]
 [ 9.77906048e-01]
 [-5.51880121e-01]
 [-9.19523954e-01]
 [-1.07208514e+00]
 [ 1.21948612e+00]
 [ 1.34814441e+00]
 [-1.17470503e+00]
 [ 6.70696437e-01]
 [ 5.61838686e-01]
 [ 7.32638121e-01]
 [ 1.15685236e+00]
 [ 6.13487542e-01]]

Layer 4:
[-0.07165141]



Entrenamiento 11:
------------------------------------------------------------------------

Layer 0:
[[ 0.00698687  0.00678012 -0.02517775 ...  0.01505068  0.00434715
  -0.00546029]
 [-0.00315026 -0.00011694  0.02692701 ...  0.01387434  0.00759507
  -0.01546959]
 [ 0.01014916  0.01590029 -0.01678139 ... -0.00504206 -0.00940961
  -0.02194714]
 ...
 [-0.00768042  0.00159892 -0.01944887 ...  0.01518249 -0.0053446
   0.02323506]
 [-0.02232547 -0.00224184 -0.01138541 ...  0.00578935 -0.00185397
   0.03621493]
 [ 0.00093864  0.01060692 -0.01239373 ... -0.00423512 -0.01145612
   0.00332073]]

Layer 1:
[[-1.44523615e-02 -1.70654431e-02  7.81921670e-03  9.93859861e-03
  -4.16453034e-02  2.90275875e-05 -5.97417494e-03  7.99709000e-03
  -2.93519944e-02 -1.58591382e-02 -2.44716611e-02  2.91102496e-03
   5.05465269e-03  6.17371267e-03 -5.33036096e-03  2.49809725e-03
  -7.24334503e-03 -2.05564313e-02  1.79155283e-02  9.45475698e-03
  -1.08405878e-03  4.49669398e-02 -4.25397530e-02  2.45538494e-03
   3.48506533e-02  2.70545520e-02 -3.87904909e-03 -2.52123959e-02
  -2.52606720e-02  1.59680080e-02 -1.20207807e-02 -2.78951172e-02
   5.38982004e-02 -1.28256204e-02 -2.45533474e-02  2.39785146e-02
   6.23701792e-03 -5.33852912e-03 -1.15349041e-02 -2.27797497e-02
  -8.74788966e-03  2.09699124e-02 -3.06438282e-02 -2.42405813e-02
   1.86044048e-03 -2.27130382e-04  1.30981207e-02 -2.95378715e-02
   1.57638323e-02  6.88180048e-03 -3.64511018e-03  5.32590300e-02
  -2.18438059e-02 -2.79892795e-02 -2.47645639e-02  6.18376862e-03
  -6.96970383e-03 -3.90311761e-04  2.01389510e-02  2.55592745e-02
  -1.87631274e-04 -5.32516371e-03 -1.90264378e-02 -4.87801200e-03
  -2.63819136e-02 -9.66742262e-03 -3.88392843e-02  9.30001773e-03
  -4.83991904e-03  1.40631804e-02  1.60469618e-02 -9.43401549e-03
   1.67518519e-02 -1.44792097e-02 -2.40759104e-02 -4.51967586e-04
  -1.80875994e-02  1.00700706e-02 -7.19561987e-03 -4.30414565e-02
  -1.03257783e-02  1.36624686e-02 -2.16654874e-03 -1.82065144e-02
  -2.31374949e-02  2.51332335e-02 -2.16625854e-02  1.65980067e-02
   2.52715312e-02 -2.22756434e-03 -2.63468530e-02 -1.81888565e-02
   1.12375878e-02  1.10448971e-02 -1.66967511e-02  3.40716392e-02
   1.74321700e-03  2.58421130e-03  2.12544892e-02  8.52836878e-04]]

Layer 2:
[0. 0. 0. 0. 0. 0. 0. 0. 0. 0. 0. 0. 0. 0. 0. 0. 0. 0. 0. 0. 0. 0. 0. 0.
 0. 0. 0. 0. 0. 0. 0. 0. 0. 0. 0. 0. 0. 0. 0. 0. 0. 0. 0. 0. 0. 0. 0. 0.
 0. 0. 0. 0. 0. 0. 0. 0. 0. 0. 0. 0. 0. 0. 0. 0. 0. 0. 0. 0. 0. 0. 0. 0.
 0. 0. 0. 0. 0. 0. 0. 0. 0. 0. 0. 0. 0. 0. 0. 0. 0. 0. 0. 0. 0. 0. 0. 0.
 0. 0. 0. 0.]

Layer 3:
[[-0.94627583]
 [-0.7948363 ]
 [ 0.9780778 ]
 [ 0.93139756]
 [-0.4252895 ]
 [-0.06798147]
 [-0.8072359 ]
 [ 0.90301937]
 [-0.58671016]
 [-0.9598265 ]
 [-0.74939287]
 [ 0.63024014]
 [ 0.6630907 ]
 [ 0.9807564 ]
 [-0.8982502 ]
 [ 0.5449812 ]
 [-0.98763645]
 [-0.6840869 ]
 [ 0.8582103 ]
 [ 1.1065454 ]
 [-0.34084505]
 [ 0.21481937]
 [-0.43510628]
 [ 0.54837835]
 [ 0.48497093]
 [ 0.65555793]
 [-0.89641833]
 [-0.6375586 ]
 [-0.77468085]
 [ 0.6772631 ]
 [-0.7931658 ]
 [-0.6243654 ]
 [ 0.20388654]
 [-0.9731406 ]
 [-0.5963637 ]
 [ 0.67124975]
 [ 1.1734818 ]
 [-1.0572349 ]
 [-1.1419652 ]
 [-0.79276353]
 [-0.90016764]
 [ 0.64859414]
 [-0.64394575]
 [-0.7647254 ]
 [ 0.5616473 ]
 [-0.03864478]
 [ 1.2102919 ]
 [-0.5539668 ]
 [ 0.81894803]
 [ 0.9717561 ]
 [-0.8003505 ]
 [ 0.2651205 ]
 [-0.8052372 ]
 [-0.5926625 ]
 [-0.7429792 ]
 [ 0.8527292 ]
 [-0.90497047]
 [-0.1126237 ]
 [ 0.7060859 ]
 [ 0.63061154]
 [-0.07074584]
 [-0.93906146]
 [-0.7443069 ]
 [-0.6400221 ]
 [-0.61017704]
 [-1.138977  ]
 [-0.35138476]
 [ 1.2363534 ]
 [-0.9875528 ]
 [ 0.996885  ]
 [ 0.999825  ]
 [-1.0703583 ]
 [ 0.9394202 ]
 [-0.9809598 ]
 [-0.6100321 ]
 [ 0.02944656]
 [-1.0493313 ]
 [ 1.2452015 ]
 [-1.0596776 ]
 [-0.29121518]
 [-0.9834914 ]
 [ 0.9602888 ]
 [-0.5467528 ]
 [-0.76366574]
 [-0.95148647]
 [ 0.5744105 ]
 [-0.97919506]
 [ 0.70408434]
 [ 0.74598944]
 [-0.49109566]
 [-0.6804115 ]
 [-0.83726186]
 [ 1.0309064 ]
 [ 1.2173613 ]
 [-0.96465105]
 [ 0.41449392]
 [ 0.49856037]
 [ 0.50841093]
 [ 0.9299089 ]
 [ 0.5459252 ]]

Layer 4:
[-0.19256338]



Consenso 11:
------------------------------------------------------------------------

Layer 0:
[[ 0.00698687  0.00678012 -0.02517775 ...  0.01505068  0.00434715
  -0.00546029]
 [-0.00315026 -0.00011694  0.02692701 ...  0.01387434  0.00759507
  -0.01546959]
 [ 0.01014916  0.01590029 -0.01678139 ... -0.00504206 -0.00940961
  -0.02194714]
 ...
 [-0.00768042  0.00159892 -0.01944887 ...  0.01518249 -0.0053446
   0.02323506]
 [-0.02232547 -0.00224184 -0.01138541 ...  0.00578935 -0.00185397
   0.03621493]
 [ 0.00093864  0.01060692 -0.01239373 ... -0.00423512 -0.01145612
   0.00332073]]

Layer 1:
[[-1.44523615e-02 -1.70654431e-02  7.81921670e-03  9.93859861e-03
  -4.16453034e-02  2.90275875e-05 -5.97417494e-03  7.99709000e-03
  -2.93519944e-02 -1.58591382e-02 -2.44716611e-02  2.91102496e-03
   5.05465269e-03  6.17371267e-03 -5.33036096e-03  2.49809725e-03
  -7.24334503e-03 -2.05564313e-02  1.79155283e-02  9.45475698e-03
  -1.08405878e-03  4.49669398e-02 -4.25397530e-02  2.45538494e-03
   3.48506533e-02  2.70545520e-02 -3.87904909e-03 -2.52123959e-02
  -2.52606720e-02  1.59680080e-02 -1.20207807e-02 -2.78951172e-02
   5.38982004e-02 -1.28256204e-02 -2.45533474e-02  2.39785146e-02
   6.23701792e-03 -5.33852912e-03 -1.15349041e-02 -2.27797497e-02
  -8.74788966e-03  2.09699124e-02 -3.06438282e-02 -2.42405813e-02
   1.86044048e-03 -2.27130382e-04  1.30981207e-02 -2.95378715e-02
   1.57638323e-02  6.88180048e-03 -3.64511018e-03  5.32590300e-02
  -2.18438059e-02 -2.79892795e-02 -2.47645639e-02  6.18376862e-03
  -6.96970383e-03 -3.90311761e-04  2.01389510e-02  2.55592745e-02
  -1.87631274e-04 -5.32516371e-03 -1.90264378e-02 -4.87801200e-03
  -2.63819136e-02 -9.66742262e-03 -3.88392843e-02  9.30001773e-03
  -4.83991904e-03  1.40631804e-02  1.60469618e-02 -9.43401549e-03
   1.67518519e-02 -1.44792097e-02 -2.40759104e-02 -4.51967586e-04
  -1.80875994e-02  1.00700706e-02 -7.19561987e-03 -4.30414565e-02
  -1.03257783e-02  1.36624686e-02 -2.16654874e-03 -1.82065144e-02
  -2.31374949e-02  2.51332335e-02 -2.16625854e-02  1.65980067e-02
   2.52715312e-02 -2.22756434e-03 -2.63468530e-02 -1.81888565e-02
   1.12375878e-02  1.10448971e-02 -1.66967511e-02  3.40716392e-02
   1.74321700e-03  2.58421130e-03  2.12544892e-02  8.52836878e-04]]

Layer 2:
[0. 0. 0. 0. 0. 0. 0. 0. 0. 0. 0. 0. 0. 0. 0. 0. 0. 0. 0. 0. 0. 0. 0. 0.
 0. 0. 0. 0. 0. 0. 0. 0. 0. 0. 0. 0. 0. 0. 0. 0. 0. 0. 0. 0. 0. 0. 0. 0.
 0. 0. 0. 0. 0. 0. 0. 0. 0. 0. 0. 0. 0. 0. 0. 0. 0. 0. 0. 0. 0. 0. 0. 0.
 0. 0. 0. 0. 0. 0. 0. 0. 0. 0. 0. 0. 0. 0. 0. 0. 0. 0. 0. 0. 0. 0. 0. 0.
 0. 0. 0. 0.]

Layer 3:
[[-1.1798787 ]
 [-1.0237976 ]
 [ 1.2668681 ]
 [ 1.1661762 ]
 [-0.6081938 ]
 [-0.10455812]
 [-1.0202733 ]
 [ 1.1398313 ]
 [-0.79511184]
 [-1.2274243 ]
 [-0.99375045]
 [ 0.754422  ]
 [ 0.97409225]
 [ 1.1883389 ]
 [-1.0693713 ]
 [ 0.6591909 ]
 [-1.2698773 ]
 [-0.9129345 ]
 [ 1.0979668 ]
 [ 1.354408  ]
 [-0.4999997 ]
 [ 0.38409725]
 [-0.6220945 ]
 [ 0.68551904]
 [ 0.6784517 ]
 [ 0.87286985]
 [-1.0406591 ]
 [-0.85818505]
 [-1.0214294 ]
 [ 0.91764694]
 [-1.0542197 ]
 [-0.8473094 ]
 [ 0.3640463 ]
 [-1.2206584 ]
 [-0.81068206]
 [ 0.89557576]
 [ 1.3588997 ]
 [-1.2234452 ]
 [-1.3750317 ]
 [-1.0276697 ]
 [-1.1174269 ]
 [ 0.8951535 ]
 [-0.8571814 ]
 [-1.0068301 ]
 [ 0.67306703]
 [-0.00565527]
 [ 1.4680405 ]
 [-0.7627848 ]
 [ 1.0618411 ]
 [ 1.1937537 ]
 [-0.94392514]
 [ 0.4332564 ]
 [-1.0304483 ]
 [-0.8093455 ]
 [-1.0000292 ]
 [ 1.1498605 ]
 [-1.1451223 ]
 [-0.1329097 ]
 [ 0.9800889 ]
 [ 0.8452696 ]
 [-0.06454136]
 [-1.1200383 ]
 [-0.9841652 ]
 [-0.82058054]
 [-0.8253737 ]
 [-1.3850926 ]
 [-0.5301438 ]
 [ 1.4548954 ]
 [-1.1408068 ]
 [ 1.2420759 ]
 [ 1.2337214 ]
 [-1.3133731 ]
 [ 1.1876707 ]
 [-1.2172571 ]
 [-0.82415056]
 [ 0.07811864]
 [-1.2878737 ]
 [ 1.4715676 ]
 [-1.2601104 ]
 [-0.46922114]
 [-1.2242323 ]
 [ 1.1947072 ]
 [-0.6134762 ]
 [-1.0264038 ]
 [-1.2026869 ]
 [ 0.79151297]
 [-1.2589628 ]
 [ 0.948299  ]
 [ 0.9721862 ]
 [-0.6011095 ]
 [-0.90225387]
 [-1.0787343 ]
 [ 1.268886  ]
 [ 1.4377902 ]
 [-1.2040313 ]
 [ 0.61800724]
 [ 0.6072049 ]
 [ 0.78627175]
 [ 1.1743776 ]
 [ 0.65845877]]

Layer 4:
[-0.07909805]



Entrenamiento 12:
------------------------------------------------------------------------

Layer 0:
[[ 0.00698687  0.00678012 -0.02517775 ...  0.01505068  0.00434715
  -0.00546029]
 [-0.00315026 -0.00011694  0.02692701 ...  0.01387434  0.00759507
  -0.01546959]
 [ 0.01014916  0.01590029 -0.01678139 ... -0.00504206 -0.00940961
  -0.02194714]
 ...
 [-0.00768042  0.00159892 -0.01944887 ...  0.01518249 -0.0053446
   0.02323506]
 [-0.02232547 -0.00224184 -0.01138541 ...  0.00578935 -0.00185397
   0.03621493]
 [ 0.00093864  0.01060692 -0.01239373 ... -0.00423512 -0.01145612
   0.00332073]]

Layer 1:
[[-1.44523615e-02 -1.70654431e-02  7.81921670e-03  9.93859861e-03
  -4.16453034e-02  2.90275875e-05 -5.97417494e-03  7.99709000e-03
  -2.93519944e-02 -1.58591382e-02 -2.44716611e-02  2.91102496e-03
   5.05465269e-03  6.17371267e-03 -5.33036096e-03  2.49809725e-03
  -7.24334503e-03 -2.05564313e-02  1.79155283e-02  9.45475698e-03
  -1.08405878e-03  4.49669398e-02 -4.25397530e-02  2.45538494e-03
   3.48506533e-02  2.70545520e-02 -3.87904909e-03 -2.52123959e-02
