:
------------------------------------------------------------------------



Entrenamiento 0:
------------------------------------------------------------------------

Layer 0:
[[-0.          0.         -0.         ...  0.          0.
  -0.        ]
 [-0.          0.         -0.         ...  0.          0.
  -0.        ]
 [ 0.          0.          0.4529766  ...  0.         -0.
  -0.        ]
 ...
 [-0.          0.          0.         ... -0.         -0.
  -0.        ]
 [-0.         -0.         -0.         ...  0.         -0.
  -0.        ]
 [-0.32228607 -0.          0.         ...  0.1672764   0.23557517
   0.        ]]

Layer 1:
[[ 0.13005063  0.09309468  0.21240747  0.20369157  0.11761343  0.01576179
  -0.21558215 -0.1804606  -0.08587143 -0.04930855 -0.224095    0.00780484
  -0.12651679  0.06247175 -0.19452928 -0.09730212 -0.14217249 -0.23610744
   0.01648852  0.22381565  0.05018055 -0.04979929 -0.13591571 -0.09487246
  -0.18485875  0.18077084  0.13718972  0.04779941 -0.00205798 -0.04460572
   0.19376436  0.13445929 -0.1381471  -0.00599369  0.228017   -0.11818439
   0.04393774 -0.04360947 -0.24020888 -0.01263881 -0.11916988 -0.10658418
   0.05227208 -0.1038284   0.22411859  0.00563137 -0.06618217 -0.17700487
  -0.0768021   0.07396653 -0.09795447  0.23834649  0.05502239 -0.1561594
   0.05631182 -0.10862978  0.00117865  0.06427965  0.07511476  0.17969242
  -0.20761618  0.22265723  0.00190666 -0.10420653  0.16251165 -0.02100627
  -0.01380591 -0.00082923  0.19599667 -0.11354496 -0.05670463  0.22764009
   0.2016365   0.19080311  0.2007882  -0.13612136  0.24309221  0.06017244
   0.11236256 -0.04896495 -0.0300395  -0.20089337 -0.22126979  0.11673284
   0.20461646  0.08348221 -0.03808565  0.00154051  0.04980388 -0.14376308
   0.06612238 -0.11406656 -0.06070741  0.20878404  0.16896474 -0.08361022
   0.21756348  0.06520686 -0.11501148  0.08064967]]

Layer 2:
[0. 0. 0. 0. 0. 0. 0. 0. 0. 0. 0. 0. 0. 0. 0. 0. 0. 0. 0. 0. 0. 0. 0. 0.
 0. 0. 0. 0. 0. 0. 0. 0. 0. 0. 0. 0. 0. 0. 0. 0. 0. 0. 0. 0. 0. 0. 0. 0.
 0. 0. 0. 0. 0. 0. 0. 0. 0. 0. 0. 0. 0. 0. 0. 0. 0. 0. 0. 0. 0. 0. 0. 0.
 0. 0. 0. 0. 0. 0. 0. 0. 0. 0. 0. 0. 0. 0. 0. 0. 0. 0. 0. 0. 0. 0. 0. 0.
 0. 0. 0. 0.]

Layer 3:
[[ 2.48572037e-01]
 [ 1.02868617e-01]
 [ 3.00361514e-01]
 [ 2.13423222e-01]
 [ 6.00785203e-02]
 [ 7.21676499e-02]
 [ 6.13391772e-03]
 [-2.85805631e-02]
 [-3.41996551e-01]
 [-4.45123613e-01]
 [-7.93647766e-02]
 [-6.34666719e-03]
 [ 4.97473702e-02]
 [-5.62226474e-02]
 [-2.37086937e-01]
 [-2.17188478e-01]
 [-1.83099806e-01]
 [ 1.25232972e-02]
 [ 1.27083763e-01]
 [ 3.53521883e-01]
 [ 1.29747301e-01]
 [-3.51483941e-01]
 [-1.04894191e-01]
 [-7.66117722e-02]
 [-3.52639258e-01]
 [ 1.41164333e-01]
 [ 2.76620716e-01]
 [ 1.09406255e-01]
 [-6.54450059e-02]
 [-8.55129287e-02]
 [ 1.13636076e-01]
 [ 2.16969565e-01]
 [-2.42744520e-01]
 [-1.63707182e-01]
 [ 2.57409155e-01]
 [-2.27505416e-02]
 [ 2.43732989e-01]
 [-1.41124219e-01]
 [-1.86591640e-01]
 [-1.39973193e-01]
 [-3.88189226e-01]
 [-1.88100889e-01]
 [ 4.46555614e-01]
 [ 9.54587758e-03]
 [ 1.49090663e-01]
 [ 1.85196146e-01]
 [-3.84891778e-01]
 [-7.51083940e-02]
 [-4.98211756e-02]
 [ 3.19394618e-01]
 [-7.18153417e-02]
 [-5.21913767e-02]
 [ 1.63366556e-01]
 [-2.62679100e-01]
 [-5.36909364e-02]
 [-1.48063883e-01]
 [ 3.34365070e-01]
 [ 1.31592855e-01]
 [ 4.64448422e-01]
 [ 2.56119192e-01]
 [ 1.25049790e-02]
 [-6.41078427e-02]
 [-3.31698172e-02]
 [ 2.13566050e-02]
 [ 2.34103110e-02]
 [-2.41870254e-01]
 [ 1.87102959e-01]
 [-1.23758480e-01]
 [ 2.68651694e-01]
 [-3.78693163e-01]
 [-4.68508452e-01]
 [ 2.04274416e-01]
 [ 2.93718338e-01]
 [ 3.99010628e-01]
 [ 2.67056167e-01]
 [-7.87302181e-02]
 [ 2.88681746e-01]
 [ 2.38656551e-01]
 [ 1.02786459e-01]
 [-1.39732519e-02]
 [-2.44504496e-01]
 [-2.10988581e-01]
 [-1.72707834e-04]
 [ 2.36912534e-01]
 [-4.99461628e-02]
 [ 4.04383615e-02]
 [-2.96881087e-02]
 [ 1.68302670e-01]
 [ 6.92693293e-02]
 [-1.84755951e-01]
 [ 2.71776736e-01]
 [-6.73045404e-04]
 [-4.24391776e-01]
 [ 8.45904425e-02]
 [ 5.03906831e-02]
 [-2.75946379e-01]
 [ 1.61065817e-01]
 [ 3.95196587e-01]
 [-4.13576245e-01]
 [ 2.28969276e-01]]

Layer 4:
[0.00017444]



Consenso 0:
------------------------------------------------------------------------

Layer 0:
[[-5.65048307e-03  6.37621386e-03 -2.01890408e-03 ... -6.16845256e-03
   1.40346326e-02 -1.50461355e-02]
 [ 3.62017192e-03 -1.18756378e-02  6.11349940e-03 ... -7.84483925e-03
  -6.94245246e-05 -1.83444167e-03]
 [ 2.30883006e-02  0.00000000e+00  3.63505050e-03 ... -1.05911940e-02
   8.95305816e-03  1.76740550e-02]
 ...
 [-6.77222805e-03 -1.62245263e-03  1.98707497e-03 ...  6.14037132e-03
  -4.64168610e-03 -9.66373272e-03]
 [-6.18600007e-03 -4.27452698e-02 -2.70642228e-02 ... -3.39276064e-03
   7.30573572e-03  6.27144193e-03]
 [-1.13528697e-02 -2.60881651e-02 -9.54537839e-03 ...  1.41381649e-02
  -5.67673147e-03 -6.96476316e-03]]

Layer 1:
[[ 0.02084498 -0.0151376  -0.00421575  0.02317218  0.01349667 -0.01293452
  -0.02710905  0.02992123  0.00916002 -0.02023625  0.00941927  0.018593
  -0.00214362  0.01593083 -0.00940416  0.02949569 -0.02530115 -0.02987791
   0.01407774  0.00906777  0.01421321 -0.00593511  0.01182682 -0.04123836
  -0.00782095 -0.01263878  0.01905074 -0.02165647 -0.02661355 -0.00246261
   0.01665216 -0.01607651  0.00563026  0.00017325  0.0329554   0.02010616
  -0.02130002 -0.04206544 -0.00228928 -0.01436251 -0.02854108 -0.02860053
  -0.04000341 -0.00453328  0.01091313 -0.02214636 -0.02282968 -0.01531747
   0.02923433 -0.02047585  0.0022059   0.00346723  0.01161155  0.03546627
  -0.03423813  0.02162165 -0.03929269 -0.03051577  0.00221908 -0.00276853
   0.01973419 -0.01931822  0.01134338 -0.03803238  0.00577243  0.00040719
   0.02300541  0.00548167  0.01485836  0.02337386  0.00961859 -0.00640743
   0.02667304  0.0037638  -0.01129539  0.00105425  0.00102338 -0.00813407
  -0.03792263  0.0069335   0.01022001  0.00358602  0.00388482 -0.01391656
   0.0047357  -0.00615367 -0.00596608 -0.00603089 -0.00723969 -0.03623046
  -0.01153139  0.01642113 -0.00268102  0.02933528 -0.00082428  0.01564488
   0.02153331  0.00638737  0.00977421 -0.02626757]]

Layer 2:
[0. 0. 0. 0. 0. 0. 0. 0. 0. 0. 0. 0. 0. 0. 0. 0. 0. 0. 0. 0. 0. 0. 0. 0.
 0. 0. 0. 0. 0. 0. 0. 0. 0. 0. 0. 0. 0. 0. 0. 0. 0. 0. 0. 0. 0. 0. 0. 0.
 0. 0. 0. 0. 0. 0. 0. 0. 0. 0. 0. 0. 0. 0. 0. 0. 0. 0. 0. 0. 0. 0. 0. 0.
 0. 0. 0. 0. 0. 0. 0. 0. 0. 0. 0. 0. 0. 0. 0. 0. 0. 0. 0. 0. 0. 0. 0. 0.
 0. 0. 0. 0.]

Layer 3:
[[ 0.01598719]
 [-0.00443846]
 [-0.05298372]
 [ 0.07217355]
 [ 0.01147254]
 [-0.02760103]
 [ 0.00596214]
 [ 0.05494832]
 [ 0.03393165]
 [-0.06848976]
 [-0.02575961]
 [ 0.01215134]
 [ 0.01391893]
 [ 0.03181544]
 [-0.07253405]
 [ 0.0272957 ]
 [-0.05915015]
 [-0.01743337]
 [ 0.0006357 ]
 [-0.0115936 ]
 [ 0.04215831]
 [-0.0357261 ]
 [ 0.00153206]
 [-0.03764908]
 [-0.03906363]
 [ 0.02675495]
 [ 0.04448657]
 [ 0.00661723]
 [-0.02352761]
 [ 0.00173895]
 [-0.02281205]
 [ 0.02930176]
 [-0.01384372]
 [-0.01501756]
 [ 0.15078425]
 [ 0.0602009 ]
 [-0.04960833]
 [-0.06899057]
 [ 0.06020537]
 [-0.02642062]
 [-0.09185077]
 [-0.01327755]
 [-0.13109547]
 [-0.0305346 ]
 [ 0.01271482]
 [-0.0244086 ]
 [-0.02548775]
 [-0.04385449]
 [ 0.06515249]
 [-0.03745532]
 [-0.01450557]
 [-0.0518524 ]
 [ 0.05879633]
 [ 0.09699536]
 [-0.10241727]
 [ 0.0219172 ]
 [-0.06105065]
 [-0.06346966]
 [ 0.00669756]
 [-0.02388997]
 [ 0.11079812]
 [ 0.0216235 ]
 [ 0.0152464 ]
 [-0.12684786]
 [-0.0079061 ]
 [ 0.04497818]
 [ 0.07635407]
 [ 0.04458832]
 [ 0.05496264]
 [ 0.03542145]
 [-0.02651433]
 [ 0.02184024]
 [ 0.04982725]
 [ 0.02582289]
 [-0.07631294]
 [ 0.10190635]
 [ 0.06781071]
 [ 0.00840083]
 [-0.13067074]
 [-0.00807113]
 [ 0.09277763]
 [ 0.01219155]
 [ 0.01318537]
 [-0.05837528]
 [ 0.06208441]
 [-0.03278792]
 [-0.02159104]
 [ 0.03301253]
 [ 0.01059685]
 [ 0.01101489]
 [ 0.00274277]
 [-0.01456407]
 [-0.02214163]
 [-0.01562543]
 [ 0.01303513]
 [ 0.02818349]
 [-0.01208634]
 [ 0.04869185]
 [ 0.02289316]
 [ 0.00202063]]

Layer 4:
[0.24447924]



Entrenamiento 1:
------------------------------------------------------------------------

Layer 0:
[[-5.65048307e-03  6.37621386e-03 -2.01890408e-03 ... -6.16845256e-03
   1.40346326e-02 -1.50461355e-02]
 [ 3.62017192e-03 -1.18756378e-02  6.11349940e-03 ... -7.84483925e-03
  -6.94245246e-05 -1.83444167e-03]
 [ 2.30883006e-02  0.00000000e+00  3.63505050e-03 ... -1.05911940e-02
   8.95305816e-03  1.76740550e-02]
 ...
 [-6.77222805e-03 -1.62245263e-03  1.98707497e-03 ...  6.14037132e-03
  -4.64168610e-03 -9.66373272e-03]
 [-6.18600007e-03 -4.27452698e-02 -2.70642228e-02 ... -3.39276064e-03
   7.30573572e-03  6.27144193e-03]
 [-1.13528697e-02 -2.60881651e-02 -9.54537839e-03 ...  1.41381649e-02
  -5.67673147e-03 -6.96476316e-03]]

Layer 1:
[[ 0.02084498 -0.0151376  -0.00421575  0.02317218  0.01349667 -0.01293452
  -0.02710905  0.02992123  0.00916002 -0.02023625  0.00941927  0.018593
  -0.00214362  0.01593083 -0.00940416  0.02949569 -0.02530115 -0.02987791
   0.01407774  0.00906777  0.01421321 -0.00593511  0.01182682 -0.04123836
  -0.00782095 -0.01263878  0.01905074 -0.02165647 -0.02661355 -0.00246261
   0.01665216 -0.01607651  0.00563026  0.00017325  0.0329554   0.02010616
  -0.02130002 -0.04206544 -0.00228928 -0.01436251 -0.02854108 -0.02860053
  -0.04000341 -0.00453328  0.01091313 -0.02214636 -0.02282968 -0.01531747
   0.02923433 -0.02047585  0.0022059   0.00346723  0.01161155  0.03546627
  -0.03423813  0.02162165 -0.03929269 -0.03051577  0.00221908 -0.00276853
   0.01973419 -0.01931822  0.01134338 -0.03803238  0.00577243  0.00040719
   0.02300541  0.00548167  0.01485836  0.02337386  0.00961859 -0.00640743
   0.02667304  0.0037638  -0.01129539  0.00105425  0.00102338 -0.00813407
  -0.03792263  0.0069335   0.01022001  0.00358602  0.00388482 -0.01391656
   0.0047357  -0.00615367 -0.00596608 -0.00603089 -0.00723969 -0.03623046
  -0.01153139  0.01642113 -0.00268102  0.02933528 -0.00082428  0.01564488
   0.02153331  0.00638737  0.00977421 -0.02626757]]

Layer 2:
[0. 0. 0. 0. 0. 0. 0. 0. 0. 0. 0. 0. 0. 0. 0. 0. 0. 0. 0. 0. 0. 0. 0. 0.
 0. 0. 0. 0. 0. 0. 0. 0. 0. 0. 0. 0. 0. 0. 0. 0. 0. 0. 0. 0. 0. 0. 0. 0.
 0. 0. 0. 0. 0. 0. 0. 0. 0. 0. 0. 0. 0. 0. 0. 0. 0. 0. 0. 0. 0. 0. 0. 0.
 0. 0. 0. 0. 0. 0. 0. 0. 0. 0. 0. 0. 0. 0. 0. 0. 0. 0. 0. 0. 0. 0. 0. 0.
 0. 0. 0. 0.]

Layer 3:
[[ 2.68486828e-01]
 [-1.35175526e-01]
 [-8.27245116e-02]
 [ 3.14548850e-01]
 [ 1.57690182e-01]
 [-1.56135052e-01]
 [-2.05977827e-01]
 [ 2.78945297e-01]
 [ 1.35106623e-01]
 [-4.03685927e-01]
 [ 5.58993369e-02]
 [ 3.04743230e-01]
 [-3.01109464e-03]
 [ 2.39901498e-01]
 [-1.80529609e-01]
 [ 3.55103701e-01]
 [-3.37395906e-01]
 [-2.68905431e-01]
 [ 1.76194355e-01]
 [ 7.86290467e-02]
 [ 2.01150998e-01]
 [-1.79337993e-01]
 [ 1.53207764e-01]
 [-4.64799970e-01]
 [-1.22387148e-01]
 [-6.38740510e-02]
 [ 2.07143947e-01]
 [-1.32224947e-01]
 [-5.46759069e-01]
 [-1.69841677e-01]
 [ 1.76286057e-01]
 [-8.92532691e-02]
 [ 4.23801132e-02]
 [ 2.70492455e-05]
 [ 4.29570735e-01]
 [ 2.75571406e-01]
 [-2.21231863e-01]
 [-5.22758424e-01]
 [ 5.01083918e-02]
 [-4.09379900e-01]
 [-3.65096658e-01]
 [-4.19700295e-01]
 [-7.11525619e-01]
 [-3.87533233e-02]
 [ 1.04356162e-01]
 [-3.04675519e-01]
 [-2.72812754e-01]
 [-1.88117698e-01]
 [ 3.42291832e-01]
 [-2.90796250e-01]
 [-1.59967281e-02]
 [-3.28385830e-02]
 [ 2.50642031e-01]
 [ 4.67795610e-01]
 [-3.90542448e-01]
 [ 2.82327682e-01]
 [-7.60340869e-01]
 [-4.83067662e-01]
 [ 8.65795091e-02]
 [-8.75158384e-02]
 [ 2.90124148e-01]
 [-1.19356573e-01]
 [ 1.25967085e-01]
 [-4.30164129e-01]
 [ 8.01878422e-02]
 [ 2.86686085e-02]
 [ 6.72610223e-01]
 [ 5.12908816e-01]
 [ 2.13137716e-01]
 [ 2.80692041e-01]
 [ 1.81030050e-01]
 [-7.35906437e-02]
 [ 2.70801634e-01]
 [ 6.72866404e-02]
 [-1.81236640e-01]
 [ 1.13378555e-01]
 [ 9.11282226e-02]
 [-2.25888714e-01]
 [-4.72951800e-01]
 [ 7.29589313e-02]
 [ 3.04386407e-01]
 [ 6.07507937e-02]
 [ 7.95690790e-02]
 [-3.40100020e-01]
 [ 8.72099176e-02]
 [-6.77717477e-02]
 [-1.61218882e-01]
 [-1.54145673e-01]
 [-8.16107765e-02]
 [-2.98378289e-01]
 [-1.28433511e-01]
 [ 1.55549780e-01]
 [-1.75185636e-01]
 [ 2.62248874e-01]
 [-8.38361774e-03]
 [ 1.69602439e-01]
 [ 2.34774709e-01]
 [ 1.63282275e-01]
 [ 1.28755942e-01]
 [-3.19560587e-01]]

Layer 4:
[0.00056098]



Consenso 1:
------------------------------------------------------------------------

Layer 0:
[[-5.9395107e-03  6.8745208e-03 -2.0079797e-03 ... -6.1517619e-03
   1.4488476e-02 -1.5332052e-02]
 [ 3.5957980e-03 -1.1589150e-02  5.9007569e-03 ... -7.5563486e-03
   4.1991549e-05 -2.0842126e-03]
 [ 2.2972174e-02  0.0000000e+00  3.3499580e-03 ... -1.0214015e-02
   8.8958396e-03  1.7333405e-02]
 ...
 [-7.0282966e-03 -1.7527383e-03  1.5238847e-03 ...  6.0848985e-03
  -4.5532454e-03 -9.3283514e-03]
 [-6.2477221e-03 -4.2915359e-02 -2.7791921e-02 ... -3.7267581e-03
   7.3989760e-03  6.6066408e-03]
 [-1.0793538e-02 -2.5655769e-02 -9.2052063e-03 ...  1.3986744e-02
  -6.1689806e-03 -6.9010342e-03]]

Layer 1:
[[ 0.0205491  -0.01501244 -0.00449574  0.02260453  0.01383929 -0.01303492
  -0.02748084  0.0301136   0.00933905 -0.01997543  0.01030838  0.01845716
  -0.00266807  0.0158277  -0.00885048  0.02938461 -0.02532553 -0.02983389
   0.0142235   0.009329    0.01450152 -0.00555342  0.01210748 -0.04196336
  -0.00768946 -0.01278301  0.01889725 -0.02098009 -0.02643611 -0.00222715
   0.01674179 -0.0163613   0.00610069  0.00053647  0.03269533  0.01973996
  -0.02046465 -0.04236165 -0.00198445 -0.01413996 -0.02844492 -0.02940788
  -0.04074493 -0.00542343  0.01093531 -0.02184724 -0.02268792 -0.0152099
   0.03062594 -0.02082919  0.00217919  0.00388878  0.01186909  0.03576894
  -0.03452853  0.02170107 -0.0386871  -0.03093696  0.0019663  -0.00307744
   0.01946379 -0.01909049  0.0103896  -0.0372034   0.006008    0.00061496
   0.0227546   0.00531407  0.01498494  0.02319261  0.00999631 -0.00659841
   0.02596267  0.00438201 -0.01112372  0.00145178  0.0014223  -0.00836585
  -0.03811879  0.00685113  0.01055552  0.0038134   0.00352488 -0.01324933
   0.00476612 -0.00655915 -0.0060549  -0.00569772 -0.00642016 -0.03545023
  -0.01136955  0.01642101 -0.00260142  0.0289199  -0.00018356  0.01563162
   0.020763    0.00593647  0.00973107 -0.02724251]]

Layer 2:
[0. 0. 0. 0. 0. 0. 0. 0. 0. 0. 0. 0. 0. 0. 0. 0. 0. 0. 0. 0. 0. 0. 0. 0.
 0. 0. 0. 0. 0. 0. 0. 0. 0. 0. 0. 0. 0. 0. 0. 0. 0. 0. 0. 0. 0. 0. 0. 0.
 0. 0. 0. 0. 0. 0. 0. 0. 0. 0. 0. 0. 0. 0. 0. 0. 0. 0. 0. 0. 0. 0. 0. 0.
 0. 0. 0. 0. 0. 0. 0. 0. 0. 0. 0. 0. 0. 0. 0. 0. 0. 0. 0. 0. 0. 0. 0. 0.
 0. 0. 0. 0.]

Layer 3:
[[ 0.45768297]
 [-0.3332569 ]
 [-0.23741013]
 [ 0.5145861 ]
 [ 0.36681724]
 [-0.39706367]
 [-0.44295764]
 [ 0.5467317 ]
 [ 0.30052748]
 [-0.50653595]
 [ 0.30085954]
 [ 0.40468252]
 [-0.04726252]
 [ 0.44000807]
 [-0.39138544]
 [ 0.5299234 ]
 [-0.51291287]
 [-0.4780653 ]
 [ 0.3737021 ]
 [ 0.2772479 ]
 [ 0.427299  ]
 [-0.2420933 ]
 [ 0.38244122]
 [-0.5599791 ]
 [-0.30345282]
 [-0.2890723 ]
 [ 0.44121373]
 [-0.39307165]
 [-0.4935827 ]
 [-0.18115623]
 [ 0.39400598]
 [-0.3474449 ]
 [ 0.24234009]
 [ 0.06130478]
 [ 0.6648876 ]
 [ 0.49434674]
 [-0.45283052]
 [-0.6048644 ]
 [ 0.03784965]
 [-0.4070284 ]
 [-0.5609867 ]
 [-0.50782776]
 [-0.6428431 ]
 [-0.13542992]
 [ 0.328173  ]
 [-0.44768253]
 [-0.45898834]
 [-0.4036248 ]
 [ 0.53596187]
 [-0.45558342]
 [ 0.08194741]
 [ 0.03967312]
 [ 0.381892  ]
 [ 0.60624284]
 [-0.6044509 ]
 [ 0.45048615]
 [-0.57616234]
 [-0.5514223 ]
 [ 0.10030827]
 [-0.24461283]
 [ 0.5372502 ]
 [-0.37884048]
 [ 0.31102628]
 [-0.6224522 ]
 [ 0.21123913]
 [ 0.0676826 ]
 [ 0.52426994]
 [ 0.24535099]
 [ 0.45212096]
 [ 0.47263473]
 [ 0.2686079 ]
 [-0.27627218]
 [ 0.5052601 ]
 [ 0.18446991]
 [-0.4135434 ]
 [ 0.18445869]
 [ 0.14426501]
 [-0.24878897]
 [-0.6287673 ]
 [ 0.25544927]
 [ 0.3759293 ]
 [ 0.18113798]
 [ 0.25242034]
 [-0.42398697]
 [ 0.17858157]
 [-0.23740424]
 [-0.25428766]
 [-0.17703454]
 [-0.20550641]
 [-0.47699985]
 [-0.33866292]
 [ 0.4038641 ]
 [-0.13265578]
 [ 0.46005288]
 [-0.05572477]
 [ 0.4140829 ]
 [ 0.4065547 ]
 [ 0.25795192]
 [ 0.35191002]
 [-0.4625753 ]]

Layer 4:
[0.6710997]



Entrenamiento 2:
------------------------------------------------------------------------

Layer 0:
[[-5.9395107e-03  6.8745208e-03 -2.0079797e-03 ... -6.1517619e-03
   1.4488476e-02 -1.5332052e-02]
 [ 3.5957980e-03 -1.1589150e-02  5.9007569e-03 ... -7.5563486e-03
   4.1991549e-05 -2.0842126e-03]
 [ 2.2972174e-02  0.0000000e+00  3.3499580e-03 ... -1.0214015e-02
   8.8958396e-03  1.7333405e-02]
 ...
 [-7.0282966e-03 -1.7527383e-03  1.5238847e-03 ...  6.0848985e-03
  -4.5532454e-03 -9.3283514e-03]
 [-6.2477221e-03 -4.2915359e-02 -2.7791921e-02 ... -3.7267581e-03
   7.3989760e-03  6.6066408e-03]
 [-1.0793538e-02 -2.5655769e-02 -9.2052063e-03 ...  1.3986744e-02
  -6.1689806e-03 -6.9010342e-03]]

Layer 1:
[[ 0.0205491  -0.01501244 -0.00449574  0.02260453  0.01383929 -0.01303492
  -0.02748084  0.0301136   0.00933905 -0.01997543  0.01030838  0.01845716
  -0.00266807  0.0158277  -0.00885048  0.02938461 -0.02532553 -0.02983389
   0.0142235   0.009329    0.01450152 -0.00555342  0.01210748 -0.04196336
  -0.00768946 -0.01278301  0.01889725 -0.02098009 -0.02643611 -0.00222715
   0.01674179 -0.0163613   0.00610069  0.00053647  0.03269533  0.01973996
  -0.02046465 -0.04236165 -0.00198445 -0.01413996 -0.02844492 -0.02940788
  -0.04074493 -0.00542343  0.01093531 -0.02184724 -0.02268792 -0.0152099
   0.03062594 -0.02082919  0.00217919  0.00388878  0.01186909  0.03576894
  -0.03452853  0.02170107 -0.0386871  -0.03093696  0.0019663  -0.00307744
   0.01946379 -0.01909049  0.0103896  -0.0372034   0.006008    0.00061496
   0.0227546   0.00531407  0.01498494  0.02319261  0.00999631 -0.00659841
   0.02596267  0.00438201 -0.01112372  0.00145178  0.0014223  -0.00836585
  -0.03811879  0.00685113  0.01055552  0.0038134   0.00352488 -0.01324933
   0.00476612 -0.00655915 -0.0060549  -0.00569772 -0.00642016 -0.03545023
  -0.01136955  0.01642101 -0.00260142  0.0289199  -0.00018356  0.01563162
   0.020763    0.00593647  0.00973107 -0.02724251]]

Layer 2:
[0. 0. 0. 0. 0. 0. 0. 0. 0. 0. 0. 0. 0. 0. 0. 0. 0. 0. 0. 0. 0. 0. 0. 0.
 0. 0. 0. 0. 0. 0. 0. 0. 0. 0. 0. 0. 0. 0. 0. 0. 0. 0. 0. 0. 0. 0. 0. 0.
 0. 0. 0. 0. 0. 0. 0. 0. 0. 0. 0. 0. 0. 0. 0. 0. 0. 0. 0. 0. 0. 0. 0. 0.
 0. 0. 0. 0. 0. 0. 0. 0. 0. 0. 0. 0. 0. 0. 0. 0. 0. 0. 0. 0. 0. 0. 0. 0.
 0. 0. 0. 0.]

Layer 3:
[[ 0.576866  ]
 [-0.41637218]
 [-0.25801602]
 [ 0.6332023 ]
 [ 0.44258344]
 [-0.46359056]
 [-0.55493754]
 [ 0.66758704]
 [ 0.36857393]
 [-0.66917086]
 [ 0.35197112]
 [ 0.5517646 ]
 [-0.05410746]
 [ 0.54001147]
 [-0.44339067]
 [ 0.6995304 ]
 [-0.6508    ]
 [-0.60710907]
 [ 0.46386632]
 [ 0.32276377]
 [ 0.5098148 ]
 [-0.30828837]
 [ 0.47142103]
 [-0.75188076]
 [-0.3431334 ]
 [-0.34434536]
 [ 0.52698636]
 [-0.47479844]
 [-0.7142462 ]
 [-0.24805143]
 [ 0.49150077]
 [-0.42474756]
 [ 0.28402075]
 [ 0.07236123]
 [ 0.80278057]
 [ 0.615289  ]
 [-0.5503061 ]
 [-0.805176  ]
 [ 0.035427  ]
 [-0.5838406 ]
 [-0.696131  ]
 [-0.6899401 ]
 [-0.8878565 ]
 [-0.14428145]
 [ 0.37600833]
 [-0.5947313 ]
 [-0.58423096]
 [-0.4787877 ]
 [ 0.6940594 ]
 [-0.5962625 ]
 [ 0.09469859]
 [ 0.05041235]
 [ 0.47692105]
 [ 0.7940101 ]
 [-0.7549568 ]
 [ 0.604831  ]
 [-0.82989603]
 [-0.75394624]
 [ 0.12711987]
 [-0.28153777]
 [ 0.63670176]
 [-0.4626925 ]
 [ 0.37207127]
 [-0.7695111 ]
 [ 0.25017518]
 [ 0.06836552]
 [ 0.7683723 ]
 [ 0.45489854]
 [ 0.5316321 ]
 [ 0.6073836 ]
 [ 0.40753794]
 [-0.33554244]
 [ 0.61592406]
 [ 0.20546485]
 [-0.4782683 ]
 [ 0.2005581 ]
 [ 0.15317152]
 [-0.3894425 ]
 [-0.8068836 ]
 [ 0.30355576]
 [ 0.51187694]
 [ 0.2198126 ]
 [ 0.28877187]
 [-0.5753101 ]
 [ 0.19199601]
 [-0.2684595 ]
 [-0.32101902]
 [-0.27600747]
 [-0.25872454]
 [-0.6241152 ]
 [-0.41632646]
 [ 0.4995196 ]
 [-0.20062539]
 [ 0.5941271 ]
 [-0.06622416]
 [ 0.49880564]
 [ 0.52114534]
 [ 0.30863276]
 [ 0.4191085 ]
 [-0.6401226 ]]

Layer 4:
[0.19918273]



Consenso 2:
------------------------------------------------------------------------

Layer 0:
[[-5.94937010e-03  6.89023826e-03 -2.00824300e-03 ... -6.14812551e-03
   1.45048015e-02 -1.53397378e-02]
 [ 3.59507487e-03 -1.15774265e-02  5.89304604e-03 ... -7.54642673e-03
   4.88944534e-05 -2.09364132e-03]
 [ 2.29658242e-02  0.00000000e+00  3.33972462e-03 ... -1.02012428e-02
   8.89137108e-03  1.73227545e-02]
 ...
 [-7.03762332e-03 -1.75559183e-03  1.50758738e-03 ...  6.08310848e-03
  -4.54996619e-03 -9.31716152e-03]
 [-6.24904362e-03 -4.29222248e-02 -2.78191082e-02 ... -3.73797538e-03
   7.40224076e-03  6.61868928e-03]
 [-1.07734883e-02 -2.56419070e-02 -9.19432193e-03 ...  1.39817204e-02
  -6.18638005e-03 -6.89751841e-03]]

Layer 1:
[[ 0.02053753 -0.0150036  -0.00450355  0.02258482  0.01384866 -0.01304059
  -0.02749306  0.03012346  0.00934349 -0.01996764  0.01034058  0.01845137
  -0.0026844   0.01582246 -0.00882952  0.02938234 -0.02533011 -0.02983622
   0.01422799  0.00933684  0.01451021 -0.00554378  0.01211324 -0.04198923
  -0.00768606 -0.01279143  0.01889342 -0.02095445 -0.02642687 -0.00222178
   0.01674886 -0.01637128  0.00611475  0.00054821  0.03268712  0.01972876
  -0.02043455 -0.04237098 -0.0019726  -0.01413014 -0.02844495 -0.02943761
  -0.04076804 -0.00545746  0.01093557 -0.02183526 -0.0226817  -0.01521063
   0.03067709 -0.02083983  0.00217648  0.00390318  0.01187909  0.03578045
  -0.03454067  0.02170243 -0.03866401 -0.03095186  0.00195588 -0.00308985
   0.01945366 -0.01908083  0.01035444 -0.03717292  0.00601205  0.00062379
   0.02274735  0.00531368  0.01498754  0.02318516  0.01000729 -0.00660342
   0.02593854  0.00440296 -0.01111961  0.00146521  0.00143785 -0.00837184
  -0.03812714  0.00684742  0.01057057  0.00382078  0.00351365 -0.01322798
   0.00476865 -0.00657295 -0.00605774 -0.00568786 -0.0063902  -0.03542399
  -0.01136293  0.01642293 -0.00259534  0.0289079  -0.000157    0.01562799
   0.02073648  0.00592148  0.00973097 -0.02727779]]

Layer 2:
[0. 0. 0. 0. 0. 0. 0. 0. 0. 0. 0. 0. 0. 0. 0. 0. 0. 0. 0. 0. 0. 0. 0. 0.
 0. 0. 0. 0. 0. 0. 0. 0. 0. 0. 0. 0. 0. 0. 0. 0. 0. 0. 0. 0. 0. 0. 0. 0.
 0. 0. 0. 0. 0. 0. 0. 0. 0. 0. 0. 0. 0. 0. 0. 0. 0. 0. 0. 0. 0. 0. 0. 0.
 0. 0. 0. 0. 0. 0. 0. 0. 0. 0. 0. 0. 0. 0. 0. 0. 0. 0. 0. 0. 0. 0. 0. 0.
 0. 0. 0. 0.]

Layer 3:
[[ 0.7804797 ]
 [-0.6205653 ]
 [-0.41741985]
 [ 0.8386524 ]
 [ 0.66290855]
 [-0.6949575 ]
 [-0.77252024]
 [ 0.8797056 ]
 [ 0.54858387]
 [-0.8335178 ]
 [ 0.5778772 ]
 [ 0.71595776]
 [-0.12091805]
 [ 0.7510912 ]
 [-0.6582393 ]
 [ 0.8709143 ]
 [-0.8389362 ]
 [-0.80950344]
 [ 0.6727368 ]
 [ 0.53450775]
 [ 0.7356244 ]
 [-0.4343694 ]
 [ 0.6831426 ]
 [-0.89213973]
 [-0.5424159 ]
 [-0.5673692 ]
 [ 0.75648195]
 [-0.7116615 ]
 [-0.82507086]
 [-0.34056315]
 [ 0.70927376]
 [-0.6581442 ]
 [ 0.47254798]
 [ 0.13591923]
 [ 1.0036988 ]
 [ 0.81691813]
 [-0.77046216]
 [-0.9387656 ]
 [ 0.00358869]
 [-0.71060634]
 [-0.8905982 ]
 [-0.83879036]
 [-0.9747266 ]
 [-0.26049492]
 [ 0.6017874 ]
 [-0.7690031 ]
 [-0.78177494]
 [-0.70093966]
 [ 0.8694276 ]
 [-0.7750742 ]
 [ 0.18665406]
 [ 0.14826152]
 [ 0.6573913 ]
 [ 0.9405075 ]
 [-0.9379823 ]
 [ 0.77765423]
 [-0.9099715 ]
 [-0.884721  ]
 [ 0.18992302]
 [-0.43715748]
 [ 0.8572321 ]
 [-0.6962366 ]
 [ 0.5726365 ]
 [-0.9547222 ]
 [ 0.41660643]
 [ 0.09357466]
 [ 0.85524714]
 [ 0.42778683]
 [ 0.763133  ]
 [ 0.7975913 ]
 [ 0.5346514 ]
 [-0.52903193]
 [ 0.83623916]
 [ 0.34696466]
 [-0.6936562 ]
 [ 0.2547051 ]
 [ 0.22587365]
 [-0.48607156]
 [-0.9611821 ]
 [ 0.49177173]
 [ 0.6328179 ]
 [ 0.34321508]
 [ 0.45904258]
 [-0.7220536 ]
 [ 0.30379906]
 [-0.43881372]
 [-0.4712018 ]
 [-0.37455127]
 [-0.4143153 ]
 [-0.8087537 ]
 [-0.6243306 ]
 [ 0.7201    ]
 [-0.24176712]
 [ 0.7910246 ]
 [-0.1172291 ]
 [ 0.7188989 ]
 [ 0.7295814 ]
 [ 0.45960623]
 [ 0.6261138 ]
 [-0.7941096 ]]

Layer 4:
[0.78020185]



Entrenamiento 3:
------------------------------------------------------------------------

Layer 0:
[[-5.94937010e-03  6.89023826e-03 -2.00824300e-03 ... -6.14812551e-03
   1.45048015e-02 -1.53397378e-02]
 [ 3.59507487e-03 -1.15774265e-02  5.89304604e-03 ... -7.54642673e-03
   4.88944534e-05 -2.09364132e-03]
 [ 2.29658242e-02  0.00000000e+00  3.33972462e-03 ... -1.02012428e-02
   8.89137108e-03  1.73227545e-02]
 ...
 [-7.03762332e-03 -1.75559183e-03  1.50758738e-03 ...  6.08310848e-03
  -4.54996619e-03 -9.31716152e-03]
 [-6.24904362e-03 -4.29222248e-02 -2.78191082e-02 ... -3.73797538e-03
   7.40224076e-03  6.61868928e-03]
 [-1.07734883e-02 -2.56419070e-02 -9.19432193e-03 ...  1.39817204e-02
  -6.18638005e-03 -6.89751841e-03]]

Layer 1:
[[ 0.02053753 -0.0150036  -0.00450355  0.02258482  0.01384866 -0.01304059
  -0.02749306  0.03012346  0.00934349 -0.01996764  0.01034058  0.01845137
  -0.0026844   0.01582246 -0.00882952  0.02938234 -0.02533011 -0.02983622
   0.01422799  0.00933684  0.01451021 -0.00554378  0.01211324 -0.04198923
  -0.00768606 -0.01279143  0.01889342 -0.02095445 -0.02642687 -0.00222178
   0.01674886 -0.01637128  0.00611475  0.00054821  0.03268712  0.01972876
  -0.02043455 -0.04237098 -0.0019726  -0.01413014 -0.02844495 -0.02943761
  -0.04076804 -0.00545746  0.01093557 -0.02183526 -0.0226817  -0.01521063
   0.03067709 -0.02083983  0.00217648  0.00390318  0.01187909  0.03578045
  -0.03454067  0.02170243 -0.03866401 -0.03095186  0.00195588 -0.00308985
   0.01945366 -0.01908083  0.01035444 -0.03717292  0.00601205  0.00062379
   0.02274735  0.00531368  0.01498754  0.02318516  0.01000729 -0.00660342
   0.02593854  0.00440296 -0.01111961  0.00146521  0.00143785 -0.00837184
  -0.03812714  0.00684742  0.01057057  0.00382078  0.00351365 -0.01322798
   0.00476865 -0.00657295 -0.00605774 -0.00568786 -0.0063902  -0.03542399
  -0.01136293  0.01642293 -0.00259534  0.0289079  -0.000157    0.01562799
   0.02073648  0.00592148  0.00973097 -0.02727779]]

Layer 2:
[0. 0. 0. 0. 0. 0. 0. 0. 0. 0. 0. 0. 0. 0. 0. 0. 0. 0. 0. 0. 0. 0. 0. 0.
 0. 0. 0. 0. 0. 0. 0. 0. 0. 0. 0. 0. 0. 0. 0. 0. 0. 0. 0. 0. 0. 0. 0. 0.
 0. 0. 0. 0. 0. 0. 0. 0. 0. 0. 0. 0. 0. 0. 0. 0. 0. 0. 0. 0. 0. 0. 0. 0.
 0. 0. 0. 0. 0. 0. 0. 0. 0. 0. 0. 0. 0. 0. 0. 0. 0. 0. 0. 0. 0. 0. 0. 0.
 0. 0. 0. 0.]

Layer 3:
[[ 6.28081143e-01]
 [-5.30661523e-01]
 [-3.90862405e-01]
 [ 6.91755593e-01]
 [ 5.72211266e-01]
 [-6.10733449e-01]
 [-6.42326057e-01]
 [ 7.29405165e-01]
 [ 4.71304566e-01]
 [-6.49000347e-01]
 [ 5.08959234e-01]
 [ 5.49896896e-01]
 [-1.15924075e-01]
 [ 6.22619808e-01]
 [-5.88794529e-01]
 [ 6.72095776e-01]
 [-6.74326599e-01]
 [-6.60256326e-01]
 [ 5.55727363e-01]
 [ 4.74788398e-01]
 [ 6.35279238e-01]
 [-3.48208785e-01]
 [ 5.61157584e-01]
 [-6.65303767e-01]
 [-4.96082544e-01]
 [-5.01171350e-01]
 [ 6.57065928e-01]
 [-6.25208139e-01]
 [-5.75826108e-01]
 [-2.25731224e-01]
 [ 5.83300054e-01]
 [-5.72545052e-01]
 [ 4.15604502e-01]
 [ 1.14988111e-01]
 [ 8.37788880e-01]
 [ 6.65575802e-01]
 [-6.59813464e-01]
 [-7.03092039e-01]
 [ 6.32154697e-04]
 [-5.01742899e-01]
 [-7.27411270e-01]
 [-6.14338875e-01]
 [-7.07791388e-01]
 [-2.64118373e-01]
 [ 5.45201421e-01]
 [-5.97781181e-01]
 [-6.35301352e-01]
 [-6.14874482e-01]
 [ 6.90792978e-01]
 [-6.07564688e-01]
 [ 1.76752299e-01]
 [ 1.39973596e-01]
 [ 5.40176809e-01]
 [ 7.20272720e-01]
 [-7.56294191e-01]
 [ 6.08444452e-01]
 [-6.34057045e-01]
 [-6.51846528e-01]
 [ 1.52590916e-01]
 [-3.74460787e-01]
 [ 7.32935250e-01]
 [-5.97056210e-01]
 [ 5.00213802e-01]
 [-7.81918466e-01]
 [ 3.62062812e-01]
 [ 9.56558734e-02]
 [ 5.98656714e-01]
 [ 2.01780975e-01]
 [ 6.62850916e-01]
 [ 6.37765348e-01]
 [ 3.82548124e-01]
 [-4.39356059e-01]
 [ 7.06240654e-01]
 [ 3.20178986e-01]
 [-6.11712158e-01]
 [ 2.27182418e-01]
 [ 2.12914407e-01]
 [-3.23043108e-01]
 [-7.58890629e-01]
 [ 4.29006308e-01]
 [ 4.91783053e-01]
 [ 2.86269307e-01]
 [ 3.99163961e-01]
 [-5.43906808e-01]
 [ 2.93978810e-01]
 [-4.04834569e-01]
 [-3.83193433e-01]
 [-2.43363440e-01]
 [-3.50453883e-01]
 [-6.31855428e-01]
 [-5.22907436e-01]
 [ 5.96652746e-01]
 [-1.50264338e-01]
 [ 6.26859009e-01]
 [-9.82324705e-02]
 [ 6.13328695e-01]
 [ 5.95190883e-01]
 [ 3.96588475e-01]
 [ 5.40394306e-01]
 [-5.90395331e-01]]

Layer 4:
[0.24159098]



Consenso 3:
------------------------------------------------------------------------

Layer 0:
[[-5.94970910e-03  6.89078821e-03 -2.00824277e-03 ... -6.14800211e-03
   1.45053575e-02 -1.53399631e-02]
 [ 3.59506020e-03 -1.15770334e-02  5.89278387e-03 ... -7.54608493e-03
   4.91555547e-05 -2.09398125e-03]
 [ 2.29656715e-02  0.00000000e+00  3.33935674e-03 ... -1.02008227e-02
   8.89124535e-03  1.73224583e-02]
 ...
 [-7.03794556e-03 -1.75568392e-03  1.50700274e-03 ...  6.08306704e-03
  -4.54986747e-03 -9.31679923e-03]
 [-6.24906505e-03 -4.29222584e-02 -2.78200172e-02 ... -3.73837585e-03
   7.40233809e-03  6.61911257e-03]
 [-1.07727936e-02 -2.56414954e-02 -9.19397268e-03 ...  1.39815835e-02
  -6.18700078e-03 -6.89740712e-03]]

Layer 1:
[[ 0.02053719 -0.0150033  -0.00450381  0.02258419  0.01384895 -0.01304076
  -0.02749342  0.03012375  0.0093436  -0.01996746  0.01034172  0.01845125
  -0.00268498  0.01582235 -0.00882879  0.02938234 -0.0253302  -0.02983622
   0.0142281   0.00933708  0.01451048 -0.00554346  0.01211339 -0.04199
  -0.00768597 -0.01279171  0.0188934  -0.02095359 -0.02642661 -0.0022216
   0.01674904 -0.01637155  0.00611524  0.00054863  0.03268703  0.01972845
  -0.02043353 -0.04237112 -0.00197217 -0.01412981 -0.02844495 -0.02943862
  -0.0407687  -0.00545869  0.01093557 -0.0218349  -0.02268156 -0.01521063
   0.03067889 -0.02084012  0.00217639  0.00390369  0.01187942  0.0357807
  -0.03454095  0.02170243 -0.03866334 -0.03095231  0.0019555  -0.00309031
   0.01945338 -0.01908056  0.01035318 -0.03717198  0.00601216  0.00062411
   0.02274718  0.00531368  0.01498758  0.02318498  0.01000764 -0.00660357
   0.02593774  0.00440371 -0.01111952  0.00146569  0.00143841 -0.00837201
  -0.03812725  0.00684731  0.0105711   0.00382104  0.00351325 -0.01322725
   0.00476873 -0.00657343 -0.00605782 -0.00568752 -0.00638913 -0.03542321
  -0.01136272  0.01642293 -0.00259511  0.02890756 -0.00015602  0.01562795
   0.0207356   0.00592095  0.00973097 -0.027279  ]]

Layer 2:
[0. 0. 0. 0. 0. 0. 0. 0. 0. 0. 0. 0. 0. 0. 0. 0. 0. 0. 0. 0. 0. 0. 0. 0.
 0. 0. 0. 0. 0. 0. 0. 0. 0. 0. 0. 0. 0. 0. 0. 0. 0. 0. 0. 0. 0. 0. 0. 0.
 0. 0. 0. 0. 0. 0. 0. 0. 0. 0. 0. 0. 0. 0. 0. 0. 0. 0. 0. 0. 0. 0. 0. 0.
 0. 0. 0. 0. 0. 0. 0. 0. 0. 0. 0. 0. 0. 0. 0. 0. 0. 0. 0. 0. 0. 0. 0. 0.
 0. 0. 0. 0.]

Layer 3:
[[ 0.89230585]
 [-0.7631651 ]
 [-0.5283772 ]
 [ 0.9496152 ]
 [ 0.803295  ]
 [-0.8305108 ]
 [-0.8876148 ]
 [ 0.97581375]
 [ 0.6899824 ]
 [-0.9571555 ]
 [ 0.70890605]
 [ 0.84675235]
 [-0.17961745]
 [ 0.87798274]
 [-0.7842282 ]
 [ 0.9692766 ]
 [-0.9475859 ]
 [-0.9164977 ]
 [ 0.7978671 ]
 [ 0.66486245]
 [ 0.87259585]
 [-0.53977937]
 [ 0.8077994 ]
 [-0.96413475]
 [-0.6736419 ]
 [-0.7090891 ]
 [ 0.8928109 ]
 [-0.85311073]
 [-0.92618066]
 [-0.41068926]
 [ 0.8318373 ]
 [-0.80323476]
 [ 0.6015726 ]
 [ 0.17427611]
 [ 1.0973545 ]
 [ 0.93211037]
 [-0.9006867 ]
 [-1.00628   ]
 [-0.03424608]
 [-0.83633447]
 [-0.991312  ]
 [-0.92463   ]
 [-1.0515194 ]
 [-0.37150216]
 [ 0.74522656]
 [-0.8886672 ]
 [-0.9015656 ]
 [-0.83975744]
 [ 0.97709894]
 [-0.89630884]
 [ 0.26630017]
 [ 0.23288882]
 [ 0.7919515 ]
 [ 1.023699  ]
 [-1.0247831 ]
 [ 0.90480655]
 [-0.98661095]
 [-0.9793978 ]
 [ 0.24182563]
 [-0.52247345]
 [ 0.97831994]
 [-0.8280901 ]
 [ 0.70853466]
 [-1.0420237 ]
 [ 0.5255193 ]
 [ 0.11740115]
 [ 0.97481334]
 [ 0.5335641 ]
 [ 0.89318544]
 [ 0.9128818 ]
 [ 0.67937803]
 [-0.64543694]
 [ 0.95132416]
 [ 0.448444  ]
 [-0.8252071 ]
 [ 0.2843345 ]
 [ 0.2792196 ]
 [-0.6165856 ]
 [-1.0476537 ]
 [ 0.6196102 ]
 [ 0.7728123 ]
 [ 0.43432802]
 [ 0.555361  ]
 [-0.8515691 ]
 [ 0.39825866]
 [-0.56701607]
 [-0.58891785]
 [-0.48060673]
 [-0.5367838 ]
 [-0.8952348 ]
 [-0.75398785]
 [ 0.8396748 ]
 [-0.3084806 ]
 [ 0.889674  ]
 [-0.14104317]
 [ 0.84808487]
 [ 0.8546783 ]
 [ 0.57947737]
 [ 0.7610797 ]
 [-0.9025389 ]]

Layer 4:
[0.6124635]



Entrenamiento 4:
------------------------------------------------------------------------

Layer 0:
[[-5.94970910e-03  6.89078821e-03 -2.00824277e-03 ... -6.14800211e-03
   1.45053575e-02 -1.53399631e-02]
 [ 3.59506020e-03 -1.15770334e-02  5.89278387e-03 ... -7.54608493e-03
   4.91555547e-05 -2.09398125e-03]
 [ 2.29656715e-02  0.00000000e+00  3.33935674e-03 ... -1.02008227e-02
   8.89124535e-03  1.73224583e-02]
 ...
 [-7.03794556e-03 -1.75568392e-03  1.50700274e-03 ...  6.08306704e-03
  -4.54986747e-03 -9.31679923e-03]
 [-6.24906505e-03 -4.29222584e-02 -2.78200172e-02 ... -3.73837585e-03
   7.40233809e-03  6.61911257e-03]
 [-1.07727936e-02 -2.56414954e-02 -9.19397268e-03 ...  1.39815835e-02
  -6.18700078e-03 -6.89740712e-03]]

Layer 1:
[[ 0.02053719 -0.0150033  -0.00450381  0.02258419  0.01384895 -0.01304076
  -0.02749342  0.03012375  0.0093436  -0.01996746  0.01034172  0.01845125
  -0.00268498  0.01582235 -0.00882879  0.02938234 -0.0253302  -0.02983622
   0.0142281   0.00933708  0.01451048 -0.00554346  0.01211339 -0.04199
  -0.00768597 -0.01279171  0.0188934  -0.02095359 -0.02642661 -0.0022216
   0.01674904 -0.01637155  0.00611524  0.00054863  0.03268703  0.01972845
  -0.02043353 -0.04237112 -0.00197217 -0.01412981 -0.02844495 -0.02943862
  -0.0407687  -0.00545869  0.01093557 -0.0218349  -0.02268156 -0.01521063
   0.03067889 -0.02084012  0.00217639  0.00390369  0.01187942  0.0357807
  -0.03454095  0.02170243 -0.03866334 -0.03095231  0.0019555  -0.00309031
   0.01945338 -0.01908056  0.01035318 -0.03717198  0.00601216  0.00062411
   0.02274718  0.00531368  0.01498758  0.02318498  0.01000764 -0.00660357
   0.02593774  0.00440371 -0.01111952  0.00146569  0.00143841 -0.00837201
  -0.03812725  0.00684731  0.0105711   0.00382104  0.00351325 -0.01322725
   0.00476873 -0.00657343 -0.00605782 -0.00568752 -0.00638913 -0.03542321
  -0.01136272  0.01642293 -0.00259511  0.02890756 -0.00015602  0.01562795
   0.0207356   0.00592095  0.00973097 -0.027279  ]]

Layer 2:
[0. 0. 0. 0. 0. 0. 0. 0. 0. 0. 0. 0. 0. 0. 0. 0. 0. 0. 0. 0. 0. 0. 0. 0.
 0. 0. 0. 0. 0. 0. 0. 0. 0. 0. 0. 0. 0. 0. 0. 0. 0. 0. 0. 0. 0. 0. 0. 0.
 0. 0. 0. 0. 0. 0. 0. 0. 0. 0. 0. 0. 0. 0. 0. 0. 0. 0. 0. 0. 0. 0. 0. 0.
 0. 0. 0. 0. 0. 0. 0. 0. 0. 0. 0. 0. 0. 0. 0. 0. 0. 0. 0. 0. 0. 0. 0. 0.
 0. 0. 0. 0.]

Layer 3:
[[ 0.64217395]
 [-0.6047696 ]
 [-0.4817956 ]
 [ 0.7065569 ]
 [ 0.6461834 ]
 [-0.68559784]
 [-0.6671574 ]
 [ 0.7279325 ]
 [ 0.55398244]
 [-0.65809125]
 [ 0.59042144]
 [ 0.5726568 ]
 [-0.16937628]
 [ 0.66335505]
 [-0.66524863]
 [ 0.6529283 ]
 [-0.67767143]
 [-0.66758734]
 [ 0.6010058 ]
 [ 0.5616    ]
 [ 0.7001945 ]
 [-0.39275673]
 [ 0.6047243 ]
 [-0.6141226 ]
 [-0.5915589 ]
 [-0.59311956]
 [ 0.7208341 ]
 [-0.70012164]
 [-0.5484473 ]
 [-0.2247167 ]
 [ 0.6211259 ]
 [-0.65248466]
 [ 0.5034762 ]
 [ 0.13948128]
 [ 0.8262148 ]
 [ 0.68274796]
 [-0.7102241 ]
 [-0.64589685]
 [-0.0376613 ]
 [-0.50713116]
 [-0.72394586]
 [-0.57814854]
 [-0.6543444 ]
 [-0.37263703]
 [ 0.64553463]
 [-0.6087201 ]
 [-0.65697086]
 [-0.6893401 ]
 [ 0.68563575]
 [-0.6220403 ]
 [ 0.24696377]
 [ 0.21649   ]
 [ 0.59319293]
 [ 0.68098027]
 [-0.73212963]
 [ 0.6251931 ]
 [-0.58031124]
 [-0.62085485]
 [ 0.17779547]
 [-0.41822934]
 [ 0.7693278 ]
 [-0.65708435]
 [ 0.5823443 ]
 [-0.7607632 ]
 [ 0.43203396]
 [ 0.11984457]
 [ 0.58687687]
 [ 0.18073477]
 [ 0.72209954]
 [ 0.64950556]
 [ 0.42341676]
 [-0.49557978]
 [ 0.7318294 ]
 [ 0.40119165]
 [-0.6841264 ]
 [ 0.2381603 ]
 [ 0.25665727]
 [-0.34733886]
 [-0.726083  ]
 [ 0.5111251 ]
 [ 0.53167665]
 [ 0.3375045 ]
 [ 0.45566222]
 [-0.5625445 ]
 [ 0.3786799 ]
 [-0.50552845]
 [-0.43864653]
 [-0.26302198]
 [-0.42550412]
 [-0.60915685]
 [-0.58192766]
 [ 0.6328644 ]
 [-0.15321305]
 [ 0.62156594]
 [-0.10979398]
 [ 0.66818213]
 [ 0.6284219 ]
 [ 0.4701039 ]
 [ 0.6138764 ]
 [-0.5788073 ]]

Layer 4:
[0.07899831]



Consenso 4:
------------------------------------------------------------------------

Layer 0:
[[-5.94970863e-03  6.89078774e-03 -2.00824277e-03 ... -6.14800211e-03
   1.45053575e-02 -1.53399631e-02]
 [ 3.59506020e-03 -1.15770334e-02  5.89278387e-03 ... -7.54608540e-03
   4.91649735e-05 -2.09398102e-03]
 [ 2.29656715e-02  0.00000000e+00  3.33935698e-03 ... -1.02008227e-02
   8.89124535e-03  1.73224583e-02]
 ...
 [-7.03794509e-03 -1.75568380e-03  1.50698738e-03 ...  6.08306704e-03
  -4.54986747e-03 -9.31679923e-03]
 [-6.24906505e-03 -4.29222584e-02 -2.78200172e-02 ... -3.73837654e-03
   7.40233809e-03  6.61911210e-03]
 [-1.07727945e-02 -2.56414954e-02 -9.19397268e-03 ...  1.39815835e-02
  -6.18700031e-03 -6.89740712e-03]]

Layer 1:
[[ 0.02053719 -0.0150033  -0.00450381  0.02258419  0.01384895 -0.01304076
  -0.02749342  0.03012375  0.0093436  -0.01996746  0.01034172  0.01845125
  -0.00268499  0.01582235 -0.00882879  0.02938234 -0.0253302  -0.02983622
   0.0142281   0.00933708  0.01451048 -0.00554346  0.01211339 -0.04199
  -0.00768597 -0.01279171  0.0188934  -0.02095359 -0.02642661 -0.0022216
   0.01674904 -0.01637155  0.00611523  0.00054864  0.03268703  0.01972845
  -0.02043353 -0.04237112 -0.00197217 -0.01412981 -0.02844495 -0.02943862
  -0.0407687  -0.00545871  0.01093557 -0.0218349  -0.02268156 -0.01521063
   0.03067889 -0.02084012  0.00217639  0.0039037   0.01187942  0.0357807
  -0.03454095  0.02170243 -0.03866334 -0.03095231  0.0019555  -0.00309031
   0.01945338 -0.01908056  0.01035318 -0.03717198  0.00601216  0.00062412
   0.02274718  0.00531368  0.01498758  0.02318498  0.01000764 -0.00660357
   0.02593774  0.00440371 -0.01111952  0.00146571  0.00143842 -0.00837201
  -0.03812725  0.00684731  0.0105711   0.00382104  0.00351325 -0.01322725
   0.00476873 -0.00657343 -0.00605782 -0.00568752 -0.00638911 -0.03542321
  -0.01136272  0.01642293 -0.00259511  0.02890756 -0.00015599  0.01562795
   0.0207356   0.00592095  0.00973097 -0.027279  ]]

Layer 2:
[0. 0. 0. 0. 0. 0. 0. 0. 0. 0. 0. 0. 0. 0. 0. 0. 0. 0. 0. 0. 0. 0. 0. 0.
 0. 0. 0. 0. 0. 0. 0. 0. 0. 0. 0. 0. 0. 0. 0. 0. 0. 0. 0. 0. 0. 0. 0. 0.
 0. 0. 0. 0. 0. 0. 0. 0. 0. 0. 0. 0. 0. 0. 0. 0. 0. 0. 0. 0. 0. 0. 0. 0.
 0. 0. 0. 0. 0. 0. 0. 0. 0. 0. 0. 0. 0. 0. 0. 0. 0. 0. 0. 0. 0. 0. 0. 0.
 0. 0. 0. 0.]

Layer 3:
[[ 0.9208744 ]
 [-0.8453016 ]
 [-0.6100509 ]
 [ 0.9764141 ]
 [ 0.8796332 ]
 [-0.8997193 ]
 [-0.9172859 ]
 [ 0.9796753 ]
 [ 0.78615636]
 [-1.0003434 ]
 [ 0.7808358 ]
 [ 0.90421927]
 [-0.23278385]
 [ 0.93039805]
 [-0.85245085]
 [ 0.9744231 ]
 [-0.97057456]
 [-0.93504465]
 [ 0.8527754 ]
 [ 0.74252623]
 [ 0.9399159 ]
 [-0.60898536]
 [ 0.86163634]
 [-0.93794113]
 [-0.759687  ]
 [-0.7940584 ]
 [ 0.9562029 ]
 [-0.9220206 ]
 [-0.93814284]
 [-0.44370303]
 [ 0.87731296]
 [-0.8805877 ]
 [ 0.6886182 ]
 [ 0.19723459]
 [ 1.096531  ]
 [ 0.965334  ]
 [-0.95474523]
 [-0.97432905]
 [-0.07458678]
 [-0.89087456]
 [-1.0024657 ]
 [-0.91663045]
 [-1.0318727 ]
 [-0.4767414 ]
 [ 0.83429146]
 [-0.9277101 ]
 [-0.9406018 ]
 [-0.91311115]
 [ 0.9965245 ]
 [-0.93823683]
 [ 0.3352686 ]
 [ 0.30792716]
 [ 0.8682077 ]
 [ 1.0110568 ]
 [-1.0168781 ]
 [ 0.9527338 ]
 [-0.96649134]
 [-0.98204315]
 [ 0.2778684 ]
 [-0.5635011 ]
 [ 1.0198215 ]
 [-0.8845566 ]
 [ 0.7916384 ]
 [-1.034847  ]
 [ 0.59427476]
 [ 0.1406635 ]
 [ 1.0115098 ]
 [ 0.6087758 ]
 [ 0.9501793 ]
 [ 0.9449246 ]
 [ 0.77352166]
 [-0.705782  ]
 [ 0.9804205 ]
 [ 0.5239557 ]
 [-0.89650595]
 [ 0.29756418]
 [ 0.32090455]
 [-0.70265603]
 [-1.0396115 ]
 [ 0.70216674]
 [ 0.8640421 ]
 [ 0.49575028]
 [ 0.6064049 ]
 [-0.9127864 ]
 [ 0.48000443]
 [-0.6639545 ]
 [-0.6647552 ]
 [-0.5487584 ]
 [-0.62248087]
 [-0.8873137 ]
 [-0.8198021 ]
 [ 0.8816833 ]
 [-0.35777795]
 [ 0.89786804]
 [-0.14834556]
 [ 0.90656817]
 [ 0.9002621 ]
 [ 0.66469866]
 [ 0.83900326]
 [-0.9233954 ]]

Layer 4:
[0.37649593]



Entrenamiento 5:
------------------------------------------------------------------------

Layer 0:
[[-5.94970863e-03  6.89078774e-03 -2.00824277e-03 ... -6.14800211e-03
   1.45053575e-02 -1.53399631e-02]
 [ 3.59506020e-03 -1.15770334e-02  5.89278387e-03 ... -7.54608540e-03
   4.91649735e-05 -2.09398102e-03]
 [ 2.29656715e-02  0.00000000e+00  3.33935698e-03 ... -1.02008227e-02
   8.89124535e-03  1.73224583e-02]
 ...
 [-7.03794509e-03 -1.75568380e-03  1.50698738e-03 ...  6.08306704e-03
  -4.54986747e-03 -9.31679923e-03]
 [-6.24906505e-03 -4.29222584e-02 -2.78200172e-02 ... -3.73837654e-03
   7.40233809e-03  6.61911210e-03]
 [-1.07727945e-02 -2.56414954e-02 -9.19397268e-03 ...  1.39815835e-02
  -6.18700031e-03 -6.89740712e-03]]

Layer 1:
[[ 0.02053719 -0.0150033  -0.00450381  0.02258419  0.01384895 -0.01304076
  -0.02749342  0.03012375  0.0093436  -0.01996746  0.01034172  0.01845125
  -0.00268499  0.01582235 -0.00882879  0.02938234 -0.0253302  -0.02983622
   0.0142281   0.00933708  0.01451048 -0.00554346  0.01211339 -0.04199
  -0.00768597 -0.01279171  0.0188934  -0.02095359 -0.02642661 -0.0022216
   0.01674904 -0.01637155  0.00611523  0.00054864  0.03268703  0.01972845
  -0.02043353 -0.04237112 -0.00197217 -0.01412981 -0.02844495 -0.02943862
  -0.0407687  -0.00545871  0.01093557 -0.0218349  -0.02268156 -0.01521063
   0.03067889 -0.02084012  0.00217639  0.0039037   0.01187942  0.0357807
  -0.03454095  0.02170243 -0.03866334 -0.03095231  0.0019555  -0.00309031
   0.01945338 -0.01908056  0.01035318 -0.03717198  0.00601216  0.00062412
   0.02274718  0.00531368  0.01498758  0.02318498  0.01000764 -0.00660357
   0.02593774  0.00440371 -0.01111952  0.00146571  0.00143842 -0.00837201
  -0.03812725  0.00684731  0.0105711   0.00382104  0.00351325 -0.01322725
   0.00476873 -0.00657343 -0.00605782 -0.00568752 -0.00638911 -0.03542321
  -0.01136272  0.01642293 -0.00259511  0.02890756 -0.00015599  0.01562795
   0.0207356   0.00592095  0.00973097 -0.027279  ]]

Layer 2:
[0. 0. 0. 0. 0. 0. 0. 0. 0. 0. 0. 0. 0. 0. 0. 0. 0. 0. 0. 0. 0. 0. 0. 0.
 0. 0. 0. 0. 0. 0. 0. 0. 0. 0. 0. 0. 0. 0. 0. 0. 0. 0. 0. 0. 0. 0. 0. 0.
 0. 0. 0. 0. 0. 0. 0. 0. 0. 0. 0. 0. 0. 0. 0. 0. 0. 0. 0. 0. 0. 0. 0. 0.
 0. 0. 0. 0. 0. 0. 0. 0. 0. 0. 0. 0. 0. 0. 0. 0. 0. 0. 0. 0. 0. 0. 0. 0.
 0. 0. 0. 0.]

Layer 3:
[[ 0.649805  ]
 [-0.6672964 ]
 [-0.55643684]
 [ 0.71223956]
 [ 0.7030737 ]
 [-0.7362975 ]
 [-0.6754097 ]
 [ 0.7110401 ]
 [ 0.6323614 ]
 [-0.6839451 ]
 [ 0.6463647 ]
 [ 0.61049753]
 [-0.22092956]
 [ 0.69415176]
 [-0.71744114]
 [ 0.6429843 ]
 [-0.68089813]
 [-0.6653872 ]
 [ 0.63454825]
 [ 0.62489486]
 [ 0.7470997 ]
 [-0.44333863]
 [ 0.63707006]
 [-0.57857704]
 [-0.66566086]
 [-0.66227967]
 [ 0.763906  ]
 [-0.74986035]
 [-0.5557863 ]
 [-0.23699664]
 [ 0.64503676]
 [-0.7107575 ]
 [ 0.57676303]
 [ 0.15725744]
 [ 0.8059445 ]
 [ 0.6949746 ]
 [-0.74312735]
 [-0.60648876]
 [-0.07840133]
 [-0.5476686 ]
 [-0.71525073]
 [-0.559437  ]
 [-0.6354316 ]
 [-0.47769123]
 [ 0.72053653]
 [-0.6286406 ]
 [-0.674938  ]
 [-0.74368304]
 [ 0.68735665]
 [-0.6443667 ]
 [ 0.31274176]
 [ 0.2889572 ]
 [ 0.6480004 ]
 [ 0.6574098 ]
 [-0.70665   ]
 [ 0.65410495]
 [-0.5629909 ]
 [-0.615235  ]
 [ 0.20442297]
 [-0.44496727]
 [ 0.7893186 ]
 [-0.69326943]
 [ 0.6485885 ]
 [-0.735083  ]
 [ 0.48765442]
 [ 0.14337744]
 [ 0.62153316]
 [ 0.2464941 ]
 [ 0.75882137]
 [ 0.66135883]
 [ 0.49671057]
 [-0.5371553 ]
 [ 0.739467  ]
 [ 0.4695496 ]
 [-0.7372825 ]
 [ 0.2447395 ]
 [ 0.29488394]
 [-0.41335735]
 [-0.70409703]
 [ 0.5786582 ]
 [ 0.601727  ]
 [ 0.3854358 ]
 [ 0.49300522]
 [-0.6050366 ]
 [ 0.4572873 ]
 [-0.59323764]
 [-0.49549246]
 [-0.3095434 ]
 [-0.4958577 ]
 [-0.5830751 ]
 [-0.6273684 ]
 [ 0.6533853 ]
 [-0.18329617]
 [ 0.60998154]
 [-0.11249673]
 [ 0.70598894]
 [ 0.6525263 ]
 [ 0.5402315 ]
 [ 0.6730791 ]
 [-0.58561087]]

Layer 4:
[0.00078289]



Consenso 5:
------------------------------------------------------------------------

Layer 0:
[[-5.94970863e-03  6.89078774e-03 -2.00824277e-03 ... -6.14800211e-03
   1.45053575e-02 -1.53399631e-02]
 [ 3.59506020e-03 -1.15770334e-02  5.89278387e-03 ... -7.54608540e-03
   4.91651372e-05 -2.09398102e-03]
 [ 2.29656715e-02  0.00000000e+00  3.33935698e-03 ... -1.02008227e-02
   8.89124535e-03  1.73224583e-02]
 ...
 [-7.03794509e-03 -1.75568380e-03  1.50698738e-03 ...  6.08306704e-03
  -4.54986747e-03 -9.31679923e-03]
 [-6.24906505e-03 -4.29222584e-02 -2.78200172e-02 ... -3.73837654e-03
   7.40233809e-03  6.61911210e-03]
 [-1.07727945e-02 -2.56414954e-02 -9.19397268e-03 ...  1.39815835e-02
  -6.18700031e-03 -6.89740712e-03]]

Layer 1:
[[ 0.02053719 -0.0150033  -0.00450381  0.02258419  0.01384895 -0.01304076
  -0.02749342  0.03012375  0.0093436  -0.01996746  0.01034172  0.01845125
  -0.00268499  0.01582235 -0.00882879  0.02938234 -0.0253302  -0.02983622
   0.0142281   0.00933708  0.01451048 -0.00554346  0.01211339 -0.04199
  -0.00768597 -0.01279171  0.0188934  -0.02095359 -0.02642661 -0.0022216
   0.01674904 -0.01637155  0.00611523  0.00054864  0.03268703  0.01972845
  -0.02043353 -0.04237112 -0.00197217 -0.01412981 -0.02844495 -0.02943862
  -0.0407687  -0.00545871  0.01093557 -0.0218349  -0.02268156 -0.01521063
   0.03067889 -0.02084012  0.00217639  0.0039037   0.01187942  0.0357807
  -0.03454095  0.02170243 -0.03866334 -0.03095231  0.0019555  -0.00309031
   0.01945338 -0.01908056  0.01035318 -0.03717198  0.00601216  0.00062412
   0.02274718  0.00531368  0.01498758  0.02318498  0.01000764 -0.00660357
   0.02593774  0.00440371 -0.01111952  0.00146571  0.00143842 -0.00837201
  -0.03812725  0.00684731  0.0105711   0.00382104  0.00351325 -0.01322725
   0.00476873 -0.00657343 -0.00605782 -0.00568752 -0.00638911 -0.03542321
  -0.01136272  0.01642293 -0.00259511  0.02890756 -0.00015599  0.01562795
   0.0207356   0.00592095  0.00973097 -0.027279  ]]

Layer 2:
[0. 0. 0. 0. 0. 0. 0. 0. 0. 0. 0. 0. 0. 0. 0. 0. 0. 0. 0. 0. 0. 0. 0. 0.
 0. 0. 0. 0. 0. 0. 0. 0. 0. 0. 0. 0. 0. 0. 0. 0. 0. 0. 0. 0. 0. 0. 0. 0.
 0. 0. 0. 0. 0. 0. 0. 0. 0. 0. 0. 0. 0. 0. 0. 0. 0. 0. 0. 0. 0. 0. 0. 0.
 0. 0. 0. 0. 0. 0. 0. 0. 0. 0. 0. 0. 0. 0. 0. 0. 0. 0. 0. 0. 0. 0. 0. 0.
 0. 0. 0. 0.]

Layer 3:
[[ 0.92712593]
 [-0.91233397]
 [-0.68564886]
 [ 0.9809484 ]
 [ 0.9393362 ]
 [-0.95164335]
 [-0.92363036]
 [ 0.9582908 ]
 [ 0.8716465 ]
 [-1.0231131 ]
 [ 0.8379115 ]
 [ 0.94217986]
 [-0.28731167]
 [ 0.9628291 ]
 [-0.90623087]
 [ 0.95512086]
 [-0.97082293]
 [-0.92959034]
 [ 0.8891975 ]
 [ 0.80669373]
 [ 0.9892811 ]
 [-0.66976154]
 [ 0.8969335 ]
 [-0.88499624]
 [-0.8351095 ]
 [-0.8643625 ]
 [ 1.0001996 ]
 [-0.9719217 ]
 [-0.92682457]
 [-0.46686974]
 [ 0.90232974]
 [-0.94088435]
 [ 0.7655559 ]
 [ 0.21649148]
 [ 1.0702716 ]
 [ 0.97727585]
 [-0.9885459 ]
 [-0.9159807 ]
 [-0.11823431]
 [-0.9274874 ]
 [-0.98934364]
 [-0.88364196]
 [-0.98629487]
 [-0.58484614]
 [ 0.90939987]
 [-0.94542456]
 [-0.9583977 ]
 [-0.96979535]
 [ 0.99241877]
 [-0.9589325 ]
 [ 0.40362284]
 [ 0.38359895]
 [ 0.92925656]
 [ 0.9727129 ]
 [-0.9835691 ]
 [ 0.98051447]
 [-0.9208975 ]
 [-0.9599674 ]
 [ 0.31072485]
 [-0.5929122 ]
 [ 1.0400301 ]
 [-0.9210343 ]
 [ 0.8616642 ]
 [-1.0018313 ]
 [ 0.6532293 ]
 [ 0.1651359 ]
 [ 1.0268514 ]
 [ 0.6783052 ]
 [ 0.9884715 ]
 [ 0.9549514 ]
 [ 0.8549542 ]
 [-0.7515031 ]
 [ 0.98611647]
 [ 0.59430945]
 [-0.95305145]
 [ 0.30667916]
 [ 0.36119992]
 [-0.77836066]
 [-1.005885  ]
 [ 0.7736744 ]
 [ 0.9439896 ]
 [ 0.55060357]
 [ 0.6458219 ]
 [-0.95680404]
 [ 0.5615635 ]
 [-0.754624  ]
 [-0.7308615 ]
 [-0.6078059 ]
 [-0.6998462 ]
 [-0.8536722 ]
 [-0.8690865 ]
 [ 0.9040153 ]
 [-0.40403062]
 [ 0.8815139 ]
 [-0.1505415 ]
 [ 0.9469578 ]
 [ 0.9248453 ]
 [ 0.7421748 ]
 [ 0.9022504 ]
 [-0.92094064]]

Layer 4:
[0.18138371]



Entrenamiento 6:
------------------------------------------------------------------------

Layer 0:
[[-5.94970863e-03  6.89078774e-03 -2.00824277e-03 ... -6.14800211e-03
   1.45053575e-02 -1.53399631e-02]
 [ 3.59506020e-03 -1.15770334e-02  5.89278387e-03 ... -7.54608540e-03
   4.91651372e-05 -2.09398102e-03]
 [ 2.29656715e-02  0.00000000e+00  3.33935698e-03 ... -1.02008227e-02
   8.89124535e-03  1.73224583e-02]
 ...
 [-7.03794509e-03 -1.75568380e-03  1.50698738e-03 ...  6.08306704e-03
  -4.54986747e-03 -9.31679923e-03]
 [-6.24906505e-03 -4.29222584e-02 -2.78200172e-02 ... -3.73837654e-03
   7.40233809e-03  6.61911210e-03]
 [-1.07727945e-02 -2.56414954e-02 -9.19397268e-03 ...  1.39815835e-02
  -6.18700031e-03 -6.89740712e-03]]

Layer 1:
[[ 0.02053719 -0.0150033  -0.00450381  0.02258419  0.01384895 -0.01304076
  -0.02749342  0.03012375  0.0093436  -0.01996746  0.01034172  0.01845125
  -0.00268499  0.01582235 -0.00882879  0.02938234 -0.0253302  -0.02983622
   0.0142281   0.00933708  0.01451048 -0.00554346  0.01211339 -0.04199
  -0.00768597 -0.01279171  0.0188934  -0.02095359 -0.02642661 -0.0022216
   0.01674904 -0.01637155  0.00611523  0.00054864  0.03268703  0.01972845
  -0.02043353 -0.04237112 -0.00197217 -0.01412981 -0.02844495 -0.02943862
  -0.0407687  -0.00545871  0.01093557 -0.0218349  -0.02268156 -0.01521063
   0.03067889 -0.02084012  0.00217639  0.0039037   0.01187942  0.0357807
  -0.03454095  0.02170243 -0.03866334 -0.03095231  0.0019555  -0.00309031
   0.01945338 -0.01908056  0.01035318 -0.03717198  0.00601216  0.00062412
   0.02274718  0.00531368  0.01498758  0.02318498  0.01000764 -0.00660357
   0.02593774  0.00440371 -0.01111952  0.00146571  0.00143842 -0.00837201
  -0.03812725  0.00684731  0.0105711   0.00382104  0.00351325 -0.01322725
   0.00476873 -0.00657343 -0.00605782 -0.00568752 -0.00638911 -0.03542321
  -0.01136272  0.01642293 -0.00259511  0.02890756 -0.00015599  0.01562795
   0.0207356   0.00592095  0.00973097 -0.027279  ]]

Layer 2:
[0. 0. 0. 0. 0. 0. 0. 0. 0. 0. 0. 0. 0. 0. 0. 0. 0. 0. 0. 0. 0. 0. 0. 0.
 0. 0. 0. 0. 0. 0. 0. 0. 0. 0. 0. 0. 0. 0. 0. 0. 0. 0. 0. 0. 0. 0. 0. 0.
 0. 0. 0. 0. 0. 0. 0. 0. 0. 0. 0. 0. 0. 0. 0. 0. 0. 0. 0. 0. 0. 0. 0. 0.
 0. 0. 0. 0. 0. 0. 0. 0. 0. 0. 0. 0. 0. 0. 0. 0. 0. 0. 0. 0. 0. 0. 0. 0.
 0. 0. 0. 0.]

Layer 3:
[[ 0.62953836]
 [-0.70787436]
 [-0.6231939 ]
 [ 0.6895815 ]
 [ 0.7377493 ]
 [-0.7651121 ]
 [-0.65314966]
 [ 0.6624043 ]
 [ 0.69431657]
 [-0.680752  ]
 [ 0.6837932 ]
 [ 0.62075436]
 [-0.27268067]
 [ 0.6998703 ]
 [-0.75172645]
 [ 0.5996608 ]
 [-0.65408134]
 [-0.63149184]
 [ 0.6447458 ]
 [ 0.67127126]
 [ 0.770476  ]
 [-0.4814529 ]
 [ 0.64675766]
 [-0.5051934 ]
 [-0.72551686]
 [-0.7121371 ]
 [ 0.7813583 ]
 [-0.77357394]
 [-0.52735966]
 [-0.23847839]
 [ 0.6434299 ]
 [-0.74551475]
 [ 0.6368793 ]
 [ 0.17091173]
 [ 0.75274944]
 [ 0.6800055 ]
 [-0.74906695]
 [-0.5289702 ]
 [-0.12172497]
 [-0.5619054 ]
 [-0.67512655]
 [-0.5065122 ]
 [-0.5747085 ]
 [-0.58306277]
 [ 0.77739733]
 [-0.61952394]
 [-0.6645    ]
 [-0.77544624]
 [ 0.6562733 ]
 [-0.6381886 ]
 [ 0.3762485 ]
 [ 0.36045283]
 [ 0.6819932 ]
 [ 0.59773505]
 [-0.64771795]
 [ 0.65385103]
 [-0.50388664]
 [-0.57356644]
 [ 0.22609502]
 [-0.45868406]
 [ 0.7824611 ]
 [-0.7035407 ]
 [ 0.6970687 ]
 [-0.6752786 ]
 [ 0.53078514]
 [ 0.16762361]
 [ 0.6201427 ]
 [ 0.29519525]
 [ 0.7718238 ]
 [ 0.64400077]
 [ 0.5488543 ]
 [-0.5614545 ]
 [ 0.7169263 ]
 [ 0.53078514]
 [-0.7711528 ]
 [ 0.2462957 ]
 [ 0.33095306]
 [-0.4615213 ]
 [-0.6461209 ]
 [ 0.6316243 ]
 [ 0.65132535]
 [ 0.42436844]
 [ 0.51724577]
 [-0.6231985 ]
 [ 0.53379714]
 [-0.6713443 ]
 [-0.53844506]
 [-0.34262305]
 [-0.55378985]
 [-0.52337664]
 [-0.6517911 ]
 [ 0.64919645]
 [-0.20640314]
 [ 0.56694216]
 [-0.10988525]
 [ 0.72038126]
 [ 0.64891696]
 [ 0.59879494]
 [ 0.7131176 ]
 [-0.5593564 ]]

Layer 4:
[0.00015836]



Consenso 6:
------------------------------------------------------------------------

Layer 0:
[[-5.94970863e-03  6.89078774e-03 -2.00824277e-03 ... -6.14800211e-03
   1.45053575e-02 -1.53399631e-02]
 [ 3.59506020e-03 -1.15770334e-02  5.89278387e-03 ... -7.54608540e-03
   4.91651372e-05 -2.09398102e-03]
 [ 2.29656715e-02  0.00000000e+00  3.33935698e-03 ... -1.02008227e-02
   8.89124535e-03  1.73224583e-02]
 ...
 [-7.03794509e-03 -1.75568380e-03  1.50698738e-03 ...  6.08306704e-03
  -4.54986747e-03 -9.31679923e-03]
 [-6.24906505e-03 -4.29222584e-02 -2.78200172e-02 ... -3.73837654e-03
   7.40233809e-03  6.61911210e-03]
 [-1.07727945e-02 -2.56414954e-02 -9.19397268e-03 ...  1.39815835e-02
  -6.18700031e-03 -6.89740712e-03]]

Layer 1:
[[ 0.02053719 -0.0150033  -0.00450381  0.02258419  0.01384895 -0.01304076
  -0.02749342  0.03012375  0.0093436  -0.01996746  0.01034172  0.01845125
  -0.00268499  0.01582235 -0.00882879  0.02938234 -0.0253302  -0.02983622
   0.0142281   0.00933708  0.01451048 -0.00554346  0.01211339 -0.04199
  -0.00768597 -0.01279171  0.0188934  -0.02095359 -0.02642661 -0.0022216
   0.01674904 -0.01637155  0.00611523  0.00054864  0.03268703  0.01972845
  -0.02043353 -0.04237112 -0.00197217 -0.01412981 -0.02844495 -0.02943862
  -0.0407687  -0.00545871  0.01093557 -0.0218349  -0.02268156 -0.01521063
   0.03067889 -0.02084012  0.00217639  0.0039037   0.01187942  0.0357807
  -0.03454095  0.02170243 -0.03866334 -0.03095231  0.0019555  -0.00309031
   0.01945338 -0.01908056  0.01035318 -0.03717198  0.00601216  0.00062412
   0.02274718  0.00531368  0.01498758  0.02318498  0.01000764 -0.00660357
   0.02593774  0.00440371 -0.01111952  0.00146571  0.00143842 -0.00837201
  -0.03812725  0.00684731  0.0105711   0.00382104  0.00351325 -0.01322725
   0.00476873 -0.00657343 -0.00605782 -0.00568752 -0.00638911 -0.03542321
  -0.01136272  0.01642293 -0.00259511  0.02890756 -0.00015599  0.01562795
   0.0207356   0.00592095  0.00973097 -0.027279  ]]

Layer 2:
[0. 0. 0. 0. 0. 0. 0. 0. 0. 0. 0. 0. 0. 0. 0. 0. 0. 0. 0. 0. 0. 0. 0. 0.
 0. 0. 0. 0. 0. 0. 0. 0. 0. 0. 0. 0. 0. 0. 0. 0. 0. 0. 0. 0. 0. 0. 0. 0.
 0. 0. 0. 0. 0. 0. 0. 0. 0. 0. 0. 0. 0. 0. 0. 0. 0. 0. 0. 0. 0. 0. 0. 0.
 0. 0. 0. 0. 0. 0. 0. 0. 0. 0. 0. 0. 0. 0. 0. 0. 0. 0. 0. 0. 0. 0. 0. 0.
 0. 0. 0. 0.]

Layer 3:
[[ 0.92499954]
 [-0.9744448 ]
 [-0.76054144]
 [ 0.9770664 ]
 [ 0.9936856 ]
 [-0.9975465 ]
 [-0.9207704 ]
 [ 0.92661446]
 [ 0.9543561 ]
 [-1.0388125 ]
 [ 0.89038116]
 [ 0.97305834]
 [-0.34463364]
 [ 0.9878932 ]
 [-0.9557344 ]
 [ 0.926388  ]
 [-0.96222544]
 [-0.91458637]
 [ 0.9191615 ]
 [ 0.86672443]
 [ 1.0327204 ]
 [-0.7285673 ]
 [ 0.92573863]
 [-0.8205457 ]
 [-0.90841633]
 [-0.92992854]
 [ 1.0371716 ]
 [-1.0152622 ]
 [-0.90646887]
 [-0.48630282]
 [ 0.91992205]
 [-0.9955541 ]
 [ 0.83977383]
 [ 0.23479961]
 [ 1.0337776 ]
 [ 0.98150945]
 [-1.0150814 ]
 [-0.8464417 ]
 [-0.16531195]
 [-0.9579529 ]
 [-0.9665266 ]
 [-0.840607  ]
 [-0.9297081 ]
 [-0.69763255]
 [ 0.9803273 ]
 [-0.9551204 ]
 [-0.96824396]
 [-1.020942  ]
 [ 0.9790665 ]
 [-0.97164786]
 [ 0.47362125]
 [ 0.46232557]
 [ 0.98523176]
 [ 0.9237591 ]
 [-0.9398487 ]
 [ 1.0012712 ]
 [-0.8646892 ]
 [-0.92786473]
 [ 0.34333476]
 [-0.61828154]
 [ 1.0523965 ]
 [-0.95030695]
 [ 0.92769736]
 [-0.9579393 ]
 [ 0.7095608 ]
 [ 0.19130695]
 [ 1.0342724 ]
 [ 0.74695075]
 [ 1.0204303 ]
 [ 0.95666987]
 [ 0.9326968 ]
 [-0.79236424]
 [ 0.9827627 ]
 [ 0.6644352 ]
 [-1.0051358 ]
 [ 0.31446877]
 [ 0.40247986]
 [-0.85119855]
 [-0.9614475 ]
 [ 0.84207034]
 [ 1.020945  ]
 [ 0.6041019 ]
 [ 0.68161696]
 [-0.99510056]
 [ 0.6457617 ]
 [-0.8448824 ]
 [-0.79447967]
 [-0.66422665]
 [-0.77554387]
 [-0.809314  ]
 [-0.91282016]
 [ 0.9197082 ]
 [-0.45031655]
 [ 0.8553117 ]
 [-0.1504329 ]
 [ 0.9811289 ]
 [ 0.94188076]
 [ 0.8180171 ]
 [ 0.961153  ]
 [-0.90931714]]

Layer 4:
[0.07110845]



Entrenamiento 7:
------------------------------------------------------------------------

Layer 0:
[[-5.94970863e-03  6.89078774e-03 -2.00824277e-03 ... -6.14800211e-03
   1.45053575e-02 -1.53399631e-02]
 [ 3.59506020e-03 -1.15770334e-02  5.89278387e-03 ... -7.54608540e-03
   4.91651372e-05 -2.09398102e-03]
 [ 2.29656715e-02  0.00000000e+00  3.33935698e-03 ... -1.02008227e-02
   8.89124535e-03  1.73224583e-02]
 ...
 [-7.03794509e-03 -1.75568380e-03  1.50698738e-03 ...  6.08306704e-03
  -4.54986747e-03 -9.31679923e-03]
 [-6.24906505e-03 -4.29222584e-02 -2.78200172e-02 ... -3.73837654e-03
   7.40233809e-03  6.61911210e-03]
 [-1.07727945e-02 -2.56414954e-02 -9.19397268e-03 ...  1.39815835e-02
  -6.18700031e-03 -6.89740712e-03]]

Layer 1:
[[ 0.02053719 -0.0150033  -0.00450381  0.02258419  0.01384895 -0.01304076
  -0.02749342  0.03012375  0.0093436  -0.01996746  0.01034172  0.01845125
  -0.00268499  0.01582235 -0.00882879  0.02938234 -0.0253302  -0.02983622
   0.0142281   0.00933708  0.01451048 -0.00554346  0.01211339 -0.04199
  -0.00768597 -0.01279171  0.0188934  -0.02095359 -0.02642661 -0.0022216
   0.01674904 -0.01637155  0.00611523  0.00054864  0.03268703  0.01972845
  -0.02043353 -0.04237112 -0.00197217 -0.01412981 -0.02844495 -0.02943862
  -0.0407687  -0.00545871  0.01093557 -0.0218349  -0.02268156 -0.01521063
   0.03067889 -0.02084012  0.00217639  0.0039037   0.01187942  0.0357807
  -0.03454095  0.02170243 -0.03866334 -0.03095231  0.0019555  -0.00309031
   0.01945338 -0.01908056  0.01035318 -0.03717198  0.00601216  0.00062412
   0.02274718  0.00531368  0.01498758  0.02318498  0.01000764 -0.00660357
   0.02593774  0.00440371 -0.01111952  0.00146571  0.00143842 -0.00837201
  -0.03812725  0.00684731  0.0105711   0.00382104  0.00351325 -0.01322725
   0.00476873 -0.00657343 -0.00605782 -0.00568752 -0.00638911 -0.03542321
  -0.01136272  0.01642293 -0.00259511  0.02890756 -0.00015599  0.01562795
   0.0207356   0.00592095  0.00973097 -0.027279  ]]

Layer 2:
[0. 0. 0. 0. 0. 0. 0. 0. 0. 0. 0. 0. 0. 0. 0. 0. 0. 0. 0. 0. 0. 0. 0. 0.
 0. 0. 0. 0. 0. 0. 0. 0. 0. 0. 0. 0. 0. 0. 0. 0. 0. 0. 0. 0. 0. 0. 0. 0.
 0. 0. 0. 0. 0. 0. 0. 0. 0. 0. 0. 0. 0. 0. 0. 0. 0. 0. 0. 0. 0. 0. 0. 0.
 0. 0. 0. 0. 0. 0. 0. 0. 0. 0. 0. 0. 0. 0. 0. 0. 0. 0. 0. 0. 0. 0. 0. 0.
 0. 0. 0. 0.]

Layer 3:
[[ 0.61893415]
 [-0.7577899 ]
 [-0.6927609 ]
 [ 0.6767154 ]
 [ 0.7800481 ]
 [-0.7991694 ]
 [-0.639911  ]
 [ 0.62205654]
 [ 0.76525164]
 [-0.6927558 ]
 [ 0.7253466 ]
 [ 0.64544266]
 [-0.32854667]
 [ 0.7142701 ]
 [-0.79037285]
 [ 0.5688405 ]
 [-0.638762  ]
 [-0.6080232 ]
 [ 0.66333133]
 [ 0.7211715 ]
 [ 0.80194247]
 [-0.528443  ]
 [ 0.6644304 ]
 [-0.44220874]
 [-0.79001725]
 [-0.7667255 ]
 [ 0.80626184]
 [-0.8047058 ]
 [-0.5122239 ]
 [-0.24658316]
 [ 0.6501825 ]
 [-0.78806704]
 [ 0.70139164]
 [ 0.185499  ]
 [ 0.7095205 ]
 [ 0.6757651 ]
 [-0.7639428 ]
 [-0.4621166 ]
 [-0.16892862]
 [-0.591955  ]
 [-0.6452774 ]
 [-0.46459246]
 [-0.52558196]
 [-0.69523257]
 [ 0.83824414]
 [-0.62353086]
 [-0.66558635]
 [-0.81451595]
 [ 0.6383886 ]
 [-0.6446457 ]
 [ 0.44371447]
 [ 0.43694976]
 [ 0.7266547 ]
 [ 0.5495914 ]
 [-0.5992829 ]
 [ 0.66906524]
 [-0.45623538]
 [-0.54424626]
 [ 0.25176623]
 [-0.4743365 ]
 [ 0.78388155]
 [-0.7207911 ]
 [ 0.7517213 ]
 [-0.6255738 ]
 [ 0.5777412 ]
 [ 0.1939507 ]
 [ 0.6343841 ]
 [ 0.36623776]
 [ 0.7918295 ]
 [ 0.6383994 ]
 [ 0.6190229 ]
 [-0.59072715]
 [ 0.7031394 ]
 [ 0.5954844 ]
 [-0.81148756]
 [ 0.24907964]
 [ 0.3695939 ]
 [-0.5278099 ]
 [-0.600197  ]
 [ 0.68960345]
 [ 0.7196019 ]
 [ 0.4683914 ]
 [ 0.54360294]
 [-0.65672314]
 [ 0.61531276]
 [-0.7544867 ]
 [-0.59029216]
 [-0.38853747]
 [-0.61887467]
 [-0.4736349 ]
 [-0.6836247 ]
 [ 0.6538675 ]
 [-0.2408923 ]
 [ 0.53375465]
 [-0.10642607]
 [ 0.74268067]
 [ 0.65593135]
 [ 0.66416764]
 [ 0.7601613 ]
 [-0.546635  ]]

Layer 4:
[-0.00070499]



Consenso 7:
------------------------------------------------------------------------

Layer 0:
[[-5.94970863e-03  6.89078774e-03 -2.00824277e-03 ... -6.14800211e-03
   1.45053575e-02 -1.53399631e-02]
 [ 3.59506020e-03 -1.15770334e-02  5.89278387e-03 ... -7.54608540e-03
   4.91651372e-05 -2.09398102e-03]
 [ 2.29656715e-02  0.00000000e+00  3.33935698e-03 ... -1.02008227e-02
   8.89124535e-03  1.73224583e-02]
 ...
 [-7.03794509e-03 -1.75568380e-03  1.50698738e-03 ...  6.08306704e-03
  -4.54986747e-03 -9.31679923e-03]
 [-6.24906505e-03 -4.29222584e-02 -2.78200172e-02 ... -3.73837654e-03
   7.40233809e-03  6.61911210e-03]
 [-1.07727945e-02 -2.56414954e-02 -9.19397268e-03 ...  1.39815835e-02
  -6.18700031e-03 -6.89740712e-03]]

Layer 1:
[[ 0.02053719 -0.0150033  -0.00450381  0.02258419  0.01384895 -0.01304076
  -0.02749342  0.03012375  0.0093436  -0.01996746  0.01034172  0.01845125
  -0.00268499  0.01582235 -0.00882879  0.02938234 -0.0253302  -0.02983622
   0.0142281   0.00933708  0.01451048 -0.00554346  0.01211339 -0.04199
  -0.00768597 -0.01279171  0.0188934  -0.02095359 -0.02642661 -0.0022216
   0.01674904 -0.01637155  0.00611523  0.00054864  0.03268703  0.01972845
  -0.02043353 -0.04237112 -0.00197217 -0.01412981 -0.02844495 -0.02943862
  -0.0407687  -0.00545871  0.01093557 -0.0218349  -0.02268156 -0.01521063
   0.03067889 -0.02084012  0.00217639  0.0039037   0.01187942  0.0357807
  -0.03454095  0.02170243 -0.03866334 -0.03095231  0.0019555  -0.00309031
   0.01945338 -0.01908056  0.01035318 -0.03717198  0.00601216  0.00062412
   0.02274718  0.00531368  0.01498758  0.02318498  0.01000764 -0.00660357
   0.02593774  0.00440371 -0.01111952  0.00146571  0.00143842 -0.00837201
  -0.03812725  0.00684731  0.0105711   0.00382104  0.00351325 -0.01322725
   0.00476873 -0.00657343 -0.00605782 -0.00568752 -0.00638911 -0.03542321
  -0.01136272  0.01642293 -0.00259511  0.02890756 -0.00015599  0.01562795
   0.0207356   0.00592095  0.00973097 -0.027279  ]]

Layer 2:
[0. 0. 0. 0. 0. 0. 0. 0. 0. 0. 0. 0. 0. 0. 0. 0. 0. 0. 0. 0. 0. 0. 0. 0.
 0. 0. 0. 0. 0. 0. 0. 0. 0. 0. 0. 0. 0. 0. 0. 0. 0. 0. 0. 0. 0. 0. 0. 0.
 0. 0. 0. 0. 0. 0. 0. 0. 0. 0. 0. 0. 0. 0. 0. 0. 0. 0. 0. 0. 0. 0. 0. 0.
 0. 0. 0. 0. 0. 0. 0. 0. 0. 0. 0. 0. 0. 0. 0. 0. 0. 0. 0. 0. 0. 0. 0. 0.
 0. 0. 0. 0.]

Layer 3:
[[ 0.9188417 ]
 [-1.0347198 ]
 [-0.83594066]
 [ 0.96914715]
 [ 1.0456711 ]
 [-1.0408968 ]
 [-0.9132057 ]
 [ 0.88962454]
 [ 1.0363821 ]
 [-1.0517457 ]
 [ 0.9411798 ]
 [ 1.0007997 ]
 [-0.4050848 ]
 [ 1.0094622 ]
 [-1.0038023 ]
 [ 0.8931604 ]
 [-0.9493942 ]
 [-0.89482474]
 [ 0.9462453 ]
 [ 0.9251299 ]
 [ 1.0737057 ]
 [-0.78719705]
 [ 0.9516587 ]
 [-0.75000554]
 [-0.98146236]
 [-0.9934236 ]
 [ 1.070848  ]
 [-1.0557771 ]
 [-0.8819117 ]
 [-0.504002  ]
 [ 0.93404657]
 [-1.047958  ]
 [ 0.9131129 ]
 [ 0.25287133]
 [ 0.9921375 ]
 [ 0.98232394]
 [-1.0383476 ]
 [-0.77116144]
 [-0.21590936]
 [-0.986092  ]
 [-0.9388126 ]
 [-0.7925726 ]
 [-0.86746496]
 [-0.81511354]
 [ 1.0495213 ]
 [-0.96109575]
 [-0.97438616]
 [-1.0698671 ]
 [ 0.9611529 ]
 [-0.98056334]
 [ 0.545961  ]
 [ 0.54443914]
 [ 1.0390544 ]
 [ 0.8693853 ]
 [-0.8908833 ]
 [ 1.0190775 ]
 [-0.8031795 ]
 [-0.89073664]
 [ 0.37651   ]
 [-0.6418793 ]
 [ 1.0609998 ]
 [-0.97623086]
 [ 0.99233454]
 [-0.9083301 ]
 [ 0.7651899 ]
 [ 0.21922404]
 [ 1.0383112 ]
 [ 0.8164695 ]
 [ 1.0498284 ]
 [ 0.9545407 ]
 [ 1.0091217 ]
 [-0.83101463]
 [ 0.9748957 ]
 [ 0.7354409 ]
 [-1.0557423 ]
 [ 0.32180133]
 [ 0.44529134]
 [-0.9234567 ]
 [-0.9115081 ]
 [ 0.9095725 ]
 [ 1.0973885 ]
 [ 0.6576043 ]
 [ 0.7158716 ]
 [-1.0313001 ]
 [ 0.7331364 ]
 [-0.9358846 ]
 [-0.8575089 ]
 [-0.72004235]
 [-0.8512586 ]
 [-0.759372  ]
 [-0.9542992 ]
 [ 0.93267244]
 [-0.49767175]
 [ 0.82415444]
 [-0.14877063]
 [ 1.0127034 ]
 [ 0.9555392 ]
 [ 0.89389414]
 [ 1.0182519 ]
 [-0.8933064 ]]

Layer 4:
[0.00636597]



Entrenamiento 8:
------------------------------------------------------------------------

Layer 0:
[[-5.94970863e-03  6.89078774e-03 -2.00824277e-03 ... -6.14800211e-03
   1.45053575e-02 -1.53399631e-02]
 [ 3.59506020e-03 -1.15770334e-02  5.89278387e-03 ... -7.54608540e-03
   4.91651372e-05 -2.09398102e-03]
 [ 2.29656715e-02  0.00000000e+00  3.33935698e-03 ... -1.02008227e-02
   8.89124535e-03  1.73224583e-02]
 ...
 [-7.03794509e-03 -1.75568380e-03  1.50698738e-03 ...  6.08306704e-03
  -4.54986747e-03 -9.31679923e-03]
 [-6.24906505e-03 -4.29222584e-02 -2.78200172e-02 ... -3.73837654e-03
   7.40233809e-03  6.61911210e-03]
 [-1.07727945e-02 -2.56414954e-02 -9.19397268e-03 ...  1.39815835e-02
  -6.18700031e-03 -6.89740712e-03]]

Layer 1:
[[ 0.02053719 -0.0150033  -0.00450381  0.02258419  0.01384895 -0.01304076
  -0.02749342  0.03012375  0.0093436  -0.01996746  0.01034172  0.01845125
  -0.00268499  0.01582235 -0.00882879  0.02938234 -0.0253302  -0.02983622
   0.0142281   0.00933708  0.01451048 -0.00554346  0.01211339 -0.04199
  -0.00768597 -0.01279171  0.0188934  -0.02095359 -0.02642661 -0.0022216
   0.01674904 -0.01637155  0.00611523  0.00054864  0.03268703  0.01972845
  -0.02043353 -0.04237112 -0.00197217 -0.01412981 -0.02844495 -0.02943862
  -0.0407687  -0.00545871  0.01093557 -0.0218349  -0.02268156 -0.01521063
   0.03067889 -0.02084012  0.00217639  0.0039037   0.01187942  0.0357807
  -0.03454095  0.02170243 -0.03866334 -0.03095231  0.0019555  -0.00309031
   0.01945338 -0.01908056  0.01035318 -0.03717198  0.00601216  0.00062412
   0.02274718  0.00531368  0.01498758  0.02318498  0.01000764 -0.00660357
   0.02593774  0.00440371 -0.01111952  0.00146571  0.00143842 -0.00837201
  -0.03812725  0.00684731  0.0105711   0.00382104  0.00351325 -0.01322725
   0.00476873 -0.00657343 -0.00605782 -0.00568752 -0.00638911 -0.03542321
  -0.01136272  0.01642293 -0.00259511  0.02890756 -0.00015599  0.01562795
   0.0207356   0.00592095  0.00973097 -0.027279  ]]

Layer 2:
[0. 0. 0. 0. 0. 0. 0. 0. 0. 0. 0. 0. 0. 0. 0. 0. 0. 0. 0. 0. 0. 0. 0. 0.
 0. 0. 0. 0. 0. 0. 0. 0. 0. 0. 0. 0. 0. 0. 0. 0. 0. 0. 0. 0. 0. 0. 0. 0.
 0. 0. 0. 0. 0. 0. 0. 0. 0. 0. 0. 0. 0. 0. 0. 0. 0. 0. 0. 0. 0. 0. 0. 0.
 0. 0. 0. 0. 0. 0. 0. 0. 0. 0. 0. 0. 0. 0. 0. 0. 0. 0. 0. 0. 0. 0. 0. 0.
 0. 0. 0. 0.]

Layer 3:
[[ 0.6151942 ]
 [-0.8132709 ]
 [-0.7649792 ]
 [ 0.67053956]
 [ 0.8272532 ]
 [-0.8375532 ]
 [-0.63189733]
 [ 0.5873178 ]
 [ 0.84152323]
 [-0.7131556 ]
 [ 0.77080715]
 [ 0.67818373]
 [-0.3879585 ]
 [ 0.7350007 ]
 [-0.83298284]
 [ 0.5452084 ]
 [-0.63027656]
 [-0.5905514 ]
 [ 0.6881501 ]
 [ 0.77432203]
 [ 0.8389256 ]
 [-0.5822178 ]
 [ 0.6886483 ]
 [-0.38521186]
 [-0.85797197]
 [-0.82452434]
 [ 0.8359641 ]
 [-0.84013045]
 [-0.5037408 ]
 [-0.2615805 ]
 [ 0.66304225]
 [-0.83533   ]
 [ 0.7694592 ]
 [ 0.2013711 ]
 [ 0.67259127]
 [ 0.6787956 ]
 [-0.78434056]
 [-0.40152732]
 [-0.21951227]
 [-0.6307166 ]
 [-0.6218303 ]
 [-0.42937663]
 [-0.48190004]
 [-0.811687  ]
 [ 0.90195364]
 [-0.6348084 ]
 [-0.6734671 ]
 [-0.8584221 ]
 [ 0.62716895]
 [-0.6582796 ]
 [ 0.5142926 ]
 [ 0.5175211 ]
 [ 0.77819324]
 [ 0.50765014]
 [-0.55725884]
 [ 0.69221395]
 [-0.41407153]
 [-0.52126324]
 [ 0.2811752 ]
 [-0.4931715 ]
 [ 0.79116946]
 [-0.74265057]
 [ 0.81082743]
 [-0.5818535 ]
 [ 0.62837964]
 [ 0.22167817]
 [ 0.65567005]
 [ 0.44931462]
 [ 0.81728476]
 [ 0.64007497]
 [ 0.6982451 ]
 [-0.62472916]
 [ 0.69475377]
 [ 0.6632036 ]
 [-0.85688454]
 [ 0.25344548]
 [ 0.41087818]
 [-0.60390264]
 [-0.56051266]
 [ 0.7517653 ]
 [ 0.7969094 ]
 [ 0.5167613 ]
 [ 0.5730034 ]
 [-0.6993427 ]
 [ 0.70092285]
 [-0.8411675 ]
 [-0.64829564]
 [-0.44362932]
 [-0.6889235 ]
 [-0.43000427]
 [-0.7213201 ]
 [ 0.6652737 ]
 [-0.28351778]
 [ 0.50684214]
 [-0.10292616]
 [ 0.7707965 ]
 [ 0.66959685]
 [ 0.73443025]
 [ 0.8123238 ]
 [-0.5408035 ]]

Layer 4:
[-8.8943576e-05]



Consenso 8:
------------------------------------------------------------------------

Layer 0:
[[-5.94970863e-03  6.89078774e-03 -2.00824277e-03 ... -6.14800211e-03
   1.45053575e-02 -1.53399631e-02]
 [ 3.59506020e-03 -1.15770334e-02  5.89278387e-03 ... -7.54608540e-03
   4.91651372e-05 -2.09398102e-03]
 [ 2.29656715e-02  0.00000000e+00  3.33935698e-03 ... -1.02008227e-02
   8.89124535e-03  1.73224583e-02]
 ...
 [-7.03794509e-03 -1.75568380e-03  1.50698738e-03 ...  6.08306704e-03
  -4.54986747e-03 -9.31679923e-03]
 [-6.24906505e-03 -4.29222584e-02 -2.78200172e-02 ... -3.73837654e-03
   7.40233809e-03  6.61911210e-03]
 [-1.07727945e-02 -2.56414954e-02 -9.19397268e-03 ...  1.39815835e-02
  -6.18700031e-03 -6.89740712e-03]]

Layer 1:
[[ 0.02053719 -0.0150033  -0.00450381  0.02258419  0.01384895 -0.01304076
  -0.02749342  0.03012375  0.0093436  -0.01996746  0.01034172  0.01845125
  -0.00268499  0.01582235 -0.00882879  0.02938234 -0.0253302  -0.02983622
   0.0142281   0.00933708  0.01451048 -0.00554346  0.01211339 -0.04199
  -0.00768597 -0.01279171  0.0188934  -0.02095359 -0.02642661 -0.0022216
   0.01674904 -0.01637155  0.00611523  0.00054864  0.03268703  0.01972845
  -0.02043353 -0.04237112 -0.00197217 -0.01412981 -0.02844495 -0.02943862
  -0.0407687  -0.00545871  0.01093557 -0.0218349  -0.02268156 -0.01521063
   0.03067889 -0.02084012  0.00217639  0.0039037   0.01187942  0.0357807
  -0.03454095  0.02170243 -0.03866334 -0.03095231  0.0019555  -0.00309031
   0.01945338 -0.01908056  0.01035318 -0.03717198  0.00601216  0.00062412
   0.02274718  0.00531368  0.01498758  0.02318498  0.01000764 -0.00660357
   0.02593774  0.00440371 -0.01111952  0.00146571  0.00143842 -0.00837201
  -0.03812725  0.00684731  0.0105711   0.00382104  0.00351325 -0.01322725
   0.00476873 -0.00657343 -0.00605782 -0.00568752 -0.00638911 -0.03542321
  -0.01136272  0.01642293 -0.00259511  0.02890756 -0.00015599  0.01562795
   0.0207356   0.00592095  0.00973097 -0.027279  ]]

Layer 2:
[0. 0. 0. 0. 0. 0. 0. 0. 0. 0. 0. 0. 0. 0. 0. 0. 0. 0. 0. 0. 0. 0. 0. 0.
 0. 0. 0. 0. 0. 0. 0. 0. 0. 0. 0. 0. 0. 0. 0. 0. 0. 0. 0. 0. 0. 0. 0. 0.
 0. 0. 0. 0. 0. 0. 0. 0. 0. 0. 0. 0. 0. 0. 0. 0. 0. 0. 0. 0. 0. 0. 0. 0.
 0. 0. 0. 0. 0. 0. 0. 0. 0. 0. 0. 0. 0. 0. 0. 0. 0. 0. 0. 0. 0. 0. 0. 0.
 0. 0. 0. 0.]

Layer 3:
[[ 0.91046596]
 [-1.0948409 ]
 [-0.9124462 ]
 [ 0.9591822 ]
 [ 1.0970042 ]
 [-1.0832614 ]
 [-0.90305054]
 [ 0.8493429 ]
 [ 1.1188394 ]
 [-1.0637473 ]
 [ 0.99143094]
 [ 1.0271683 ]
 [-0.46890855]
 [ 1.0293034 ]
 [-1.0517272 ]
 [ 0.85745656]
 [-0.93426174]
 [-0.8723041 ]
 [ 0.97206867]
 [ 0.9830557 ]
 [ 1.1139635 ]
 [-0.8463928 ]
 [ 0.97635585]
 [-0.67542106]
 [-1.0554826 ]
 [-1.0562452 ]
 [ 1.1031572 ]
 [-1.095166  ]
 [-0.85506874]
 [-0.52066   ]
 [ 0.94645274]
 [-1.0998862 ]
 [ 0.98661965]
 [ 0.27097556]
 [ 0.94734836]
 [ 0.98153216]
 [-1.06013   ]
 [-0.6921531 ]
 [-0.26993674]
 [-1.0134672 ]
 [-0.9082951 ]
 [-0.7414661 ]
 [-0.80165005]
 [-0.9374853 ]
 [ 1.1184064 ]
 [-0.9653113 ]
 [-0.9787176 ]
 [-1.1183023 ]
 [ 0.94072914]
 [-0.9876371 ]
 [ 0.6207116 ]
 [ 0.6300056 ]
 [ 1.0920998 ]
 [ 0.8116464 ]
 [-0.8386772 ]
 [ 1.035879  ]
 [-0.7383522 ]
 [-0.8506241 ]
 [ 0.41061854]
 [-0.66452163]
 [ 1.0677859 ]
 [-1.0007176 ]
 [ 1.0568737 ]
 [-0.85511976]
 [ 0.82088244]
 [ 0.2489059 ]
 [ 1.0408708 ]
 [ 0.8876404 ]
 [ 1.0783273 ]
 [ 0.9505138 ]
 [ 1.0856448 ]
 [-0.86873317]
 [ 0.96449757]
 [ 0.80778426]
 [-1.1062604 ]
 [ 0.32908896]
 [ 0.48987266]
 [-0.9962689 ]
 [-0.85811824]
 [ 0.9772278 ]
 [ 1.1745733 ]
 [ 0.7117001 ]
 [ 0.74945956]
 [-1.0669913 ]
 [ 0.8239551 ]
 [-1.0283704 ]
 [-0.92106396]
 [-0.7760777 ]
 [-0.92780584]
 [-0.7058481 ]
 [-0.99492985]
 [ 0.94453067]
 [-0.54646903]
 [ 0.7899442 ]
 [-0.14584504]
 [ 1.043313  ]
 [ 0.9677519 ]
 [ 0.97047645]
 [ 1.0749704 ]
 [-0.8749612 ]]

Layer 4:
[-0.03222584]



Entrenamiento 9:
------------------------------------------------------------------------

Layer 0:
[[-5.94970863e-03  6.89078774e-03 -2.00824277e-03 ... -6.14800211e-03
   1.45053575e-02 -1.53399631e-02]
 [ 3.59506020e-03 -1.15770334e-02  5.89278387e-03 ... -7.54608540e-03
   4.91651372e-05 -2.09398102e-03]
 [ 2.29656715e-02  0.00000000e+00  3.33935698e-03 ... -1.02008227e-02
   8.89124535e-03  1.73224583e-02]
 ...
 [-7.03794509e-03 -1.75568380e-03  1.50698738e-03 ...  6.08306704e-03
  -4.54986747e-03 -9.31679923e-03]
 [-6.24906505e-03 -4.29222584e-02 -2.78200172e-02 ... -3.73837654e-03
   7.40233809e-03  6.61911210e-03]
 [-1.07727945e-02 -2.56414954e-02 -9.19397268e-03 ...  1.39815835e-02
  -6.18700031e-03 -6.89740712e-03]]

Layer 1:
[[ 0.02053719 -0.0150033  -0.00450381  0.02258419  0.01384895 -0.01304076
  -0.02749342  0.03012375  0.0093436  -0.01996746  0.01034172  0.01845125
  -0.00268499  0.01582235 -0.00882879  0.02938234 -0.0253302  -0.02983622
   0.0142281   0.00933708  0.01451048 -0.00554346  0.01211339 -0.04199
  -0.00768597 -0.01279171  0.0188934  -0.02095359 -0.02642661 -0.0022216
   0.01674904 -0.01637155  0.00611523  0.00054864  0.03268703  0.01972845
  -0.02043353 -0.04237112 -0.00197217 -0.01412981 -0.02844495 -0.02943862
  -0.0407687  -0.00545871  0.01093557 -0.0218349  -0.02268156 -0.01521063
   0.03067889 -0.02084012  0.00217639  0.0039037   0.01187942  0.0357807
  -0.03454095  0.02170243 -0.03866334 -0.03095231  0.0019555  -0.00309031
   0.01945338 -0.01908056  0.01035318 -0.03717198  0.00601216  0.00062412
   0.02274718  0.00531368  0.01498758  0.02318498  0.01000764 -0.00660357
   0.02593774  0.00440371 -0.01111952  0.00146571  0.00143842 -0.00837201
  -0.03812725  0.00684731  0.0105711   0.00382104  0.00351325 -0.01322725
   0.00476873 -0.00657343 -0.00605782 -0.00568752 -0.00638911 -0.03542321
  -0.01136272  0.01642293 -0.00259511  0.02890756 -0.00015599  0.01562795
   0.0207356   0.00592095  0.00973097 -0.027279  ]]

Layer 2:
[0. 0. 0. 0. 0. 0. 0. 0. 0. 0. 0. 0. 0. 0. 0. 0. 0. 0. 0. 0. 0. 0. 0. 0.
 0. 0. 0. 0. 0. 0. 0. 0. 0. 0. 0. 0. 0. 0. 0. 0. 0. 0. 0. 0. 0. 0. 0. 0.
 0. 0. 0. 0. 0. 0. 0. 0. 0. 0. 0. 0. 0. 0. 0. 0. 0. 0. 0. 0. 0. 0. 0. 0.
 0. 0. 0. 0. 0. 0. 0. 0. 0. 0. 0. 0. 0. 0. 0. 0. 0. 0. 0. 0. 0. 0. 0. 0.
 0. 0. 0. 0.]

Layer 3:
[[ 0.60622287]
 [-0.86868536]
 [-0.8378544 ]
 [ 0.6596983 ]
 [ 0.87328845]
 [-0.8739603 ]
 [-0.6199372 ]
 [ 0.5464066 ]
 [ 0.9184272 ]
 [-0.7294768 ]
 [ 0.81469554]
 [ 0.7070468 ]
 [-0.45106214]
 [ 0.75186145]
 [-0.8745265 ]
 [ 0.5145215 ]
 [-0.61666   ]
 [-0.5682114 ]
 [ 0.70997304]
 [ 0.8260895 ]
 [ 0.87442034]
 [-0.6353394 ]
 [ 0.709314  ]
 [-0.31756198]
 [-0.9266831 ]
 [-0.88137394]
 [ 0.8636888 ]
 [-0.8746853 ]
 [-0.48651594]
 [-0.27213374]
 [ 0.67224985]
 [-0.8821846 ]
 [ 0.8368854 ]
 [ 0.21650337]
 [ 0.6291135 ]
 [ 0.6775937 ]
 [-0.8025925 ]
 [-0.33011842]
 [-0.2739321 ]
 [-0.6642185 ]
 [-0.59240544]
 [-0.38483432]
 [-0.4269051 ]
 [-0.93457645]
 [ 0.9650243 ]
 [-0.6415726 ]
 [-0.67768896]
 [-0.9015461 ]
 [ 0.6105219 ]
 [-0.66732174]
 [ 0.58761513]
 [ 0.6018786 ]
 [ 0.8277381 ]
 [ 0.45664403]
 [-0.50793576]
 [ 0.71230865]
 [-0.3605471 ]
 [-0.48929703]
 [ 0.31044194]
 [-0.50910616]
 [ 0.79477894]
 [-0.7623655 ]
 [ 0.86933374]
 [-0.53083694]
 [ 0.6780039 ]
 [ 0.25167525]
 [ 0.6693592 ]
 [ 0.5292492 ]
 [ 0.84065646]
 [ 0.63713664]
 [ 0.77652735]
 [-0.65591717]
 [ 0.6823117 ]
 [ 0.73190105]
 [-0.9014022 ]
 [ 0.2569662 ]
 [ 0.45358905]
 [-0.6787982 ]
 [-0.51271576]
 [ 0.81321496]
 [ 0.8752237 ]
 [ 0.5646434 ]
 [ 0.60004556]
 [-0.7381748 ]
 [ 0.79028994]
 [-0.92934275]
 [-0.70594746]
 [-0.496631  ]
 [-0.7593957 ]
 [-0.37881622]
 [-0.75671065]
 [ 0.673681  ]
 [-0.32627085]
 [ 0.47359055]
 [-0.09731667]
 [ 0.7967627 ]
 [ 0.6803005 ]
 [ 0.8048924 ]
 [ 0.8631517 ]
 [-0.52845436]]

Layer 4:
[-0.00018946]



Consenso 9:
------------------------------------------------------------------------

Layer 0:
[[-5.94970863e-03  6.89078774e-03 -2.00824277e-03 ... -6.14800211e-03
   1.45053575e-02 -1.53399631e-02]
 [ 3.59506020e-03 -1.15770334e-02  5.89278387e-03 ... -7.54608540e-03
   4.91651372e-05 -2.09398102e-03]
 [ 2.29656715e-02  0.00000000e+00  3.33935698e-03 ... -1.02008227e-02
   8.89124535e-03  1.73224583e-02]
 ...
 [-7.03794509e-03 -1.75568380e-03  1.50698738e-03 ...  6.08306704e-03
  -4.54986747e-03 -9.31679923e-03]
 [-6.24906505e-03 -4.29222584e-02 -2.78200172e-02 ... -3.73837654e-03
   7.40233809e-03  6.61911210e-03]
 [-1.07727945e-02 -2.56414954e-02 -9.19397268e-03 ...  1.39815835e-02
  -6.18700031e-03 -6.89740712e-03]]

Layer 1:
[[ 0.02053719 -0.0150033  -0.00450381  0.02258419  0.01384895 -0.01304076
  -0.02749342  0.03012375  0.0093436  -0.01996746  0.01034172  0.01845125
  -0.00268499  0.01582235 -0.00882879  0.02938234 -0.0253302  -0.02983622
   0.0142281   0.00933708  0.01451048 -0.00554346  0.01211339 -0.04199
  -0.00768597 -0.01279171  0.0188934  -0.02095359 -0.02642661 -0.0022216
   0.01674904 -0.01637155  0.00611523  0.00054864  0.03268703  0.01972845
  -0.02043353 -0.04237112 -0.00197217 -0.01412981 -0.02844495 -0.02943862
  -0.0407687  -0.00545871  0.01093557 -0.0218349  -0.02268156 -0.01521063
   0.03067889 -0.02084012  0.00217639  0.0039037   0.01187942  0.0357807
  -0.03454095  0.02170243 -0.03866334 -0.03095231  0.0019555  -0.00309031
   0.01945338 -0.01908056  0.01035318 -0.03717198  0.00601216  0.00062412
   0.02274718  0.00531368  0.01498758  0.02318498  0.01000764 -0.00660357
   0.02593774  0.00440371 -0.01111952  0.00146571  0.00143842 -0.00837201
  -0.03812725  0.00684731  0.0105711   0.00382104  0.00351325 -0.01322725
   0.00476873 -0.00657343 -0.00605782 -0.00568752 -0.00638911 -0.03542321
  -0.01136272  0.01642293 -0.00259511  0.02890756 -0.00015599  0.01562795
   0.0207356   0.00592095  0.00973097 -0.027279  ]]

Layer 2:
[0. 0. 0. 0. 0. 0. 0. 0. 0. 0. 0. 0. 0. 0. 0. 0. 0. 0. 0. 0. 0. 0. 0. 0.
 0. 0. 0. 0. 0. 0. 0. 0. 0. 0. 0. 0. 0. 0. 0. 0. 0. 0. 0. 0. 0. 0. 0. 0.
 0. 0. 0. 0. 0. 0. 0. 0. 0. 0. 0. 0. 0. 0. 0. 0. 0. 0. 0. 0. 0. 0. 0. 0.
 0. 0. 0. 0. 0. 0. 0. 0. 0. 0. 0. 0. 0. 0. 0. 0. 0. 0. 0. 0. 0. 0. 0. 0.
 0. 0. 0. 0.]

Layer 3:
[[ 0.8985051 ]
 [-1.1532397 ]
 [-0.9888874 ]
 [ 0.9456054 ]
 [ 1.1462392 ]
 [-1.123234  ]
 [-0.8887315 ]
 [ 0.80423087]
 [ 1.2002786 ]
 [-1.0732025 ]
 [ 1.0398289 ]
 [ 1.0507236 ]
 [-0.53533846]
 [ 1.0460645 ]
 [-1.098251  ]
 [ 0.8176319 ]
 [-0.9153395 ]
 [-0.8454884 ]
 [ 0.9952071 ]
 [ 1.0392876 ]
 [ 1.1519608 ]
 [-0.9050861 ]
 [ 0.99851465]
 [-0.5952387 ]
 [-1.1290643 ]
 [-1.11697   ]
 [ 1.1325728 ]
 [-1.1320142 ]
 [-0.8243497 ]
 [-0.5355008 ]
 [ 0.9557398 ]
 [-1.1497929 ]
 [ 1.0587873 ]
 [ 0.28870595]
 [ 0.8977755 ]
 [ 0.9776562 ]
 [-1.0790325 ]
 [-0.6077096 ]
 [-0.32709616]
 [-1.0386606 ]
 [-0.8733477 ]
 [-0.68577933]
 [-0.7305791 ]
 [-1.0635804 ]
 [ 1.1855651 ]
 [-0.966252  ]
 [-0.97970563]
 [-1.164733  ]
 [ 0.91622114]
 [-0.9912996 ]
 [ 0.6971263 ]
 [ 0.71824706]
 [ 1.1430506 ]
 [ 0.7489058 ]
 [-0.78161114]
 [ 1.050012  ]
 [-0.668514  ]
 [-0.8059058 ]
 [ 0.44500196]
 [-0.685325  ]
 [ 1.0712148 ]
 [-1.02223   ]
 [ 1.119844  ]
 [-0.7966741 ]
 [ 0.8754607 ]
 [ 0.28010768]
 [ 1.0403371 ]
 [ 0.9591174 ]
 [ 1.1045138 ]
 [ 0.94309044]
 [ 1.1608993 ]
 [-0.9043778 ]
 [ 0.95014703]
 [ 0.8803846 ]
 [-1.1553003 ]
 [ 0.33580747]
 [ 0.53566134]
 [-1.068199  ]
 [-0.79971397]
 [ 1.0436704 ]
 [ 1.2510484 ]
 [ 0.76540846]
 [ 0.7814388 ]
 [-1.1007127 ]
 [ 0.9170784 ]
 [-1.1209219 ]
 [-0.983942  ]
 [-0.8313076 ]
 [-1.0037664 ]
 [-0.64720416]
 [-1.0333921 ]
 [ 0.9538619 ]
 [-0.5959705 ]
 [ 0.75119805]
 [-0.14134955]
 [ 1.0715224 ]
 [ 0.9770326 ]
 [ 1.0465467 ]
 [ 1.1300211 ]
 [-0.8527212 ]]

Layer 4:
[-0.05596719]



Entrenamiento 10:
------------------------------------------------------------------------

Layer 0:
[[-5.94970863e-03  6.89078774e-03 -2.00824277e-03 ... -6.14800211e-03
   1.45053575e-02 -1.53399631e-02]
 [ 3.59506020e-03 -1.15770334e-02  5.89278387e-03 ... -7.54608540e-03
   4.91651372e-05 -2.09398102e-03]
 [ 2.29656715e-02  0.00000000e+00  3.33935698e-03 ... -1.02008227e-02
   8.89124535e-03  1.73224583e-02]
 ...
 [-7.03794509e-03 -1.75568380e-03  1.50698738e-03 ...  6.08306704e-03
  -4.54986747e-03 -9.31679923e-03]
 [-6.24906505e-03 -4.29222584e-02 -2.78200172e-02 ... -3.73837654e-03
   7.40233809e-03  6.61911210e-03]
 [-1.07727945e-02 -2.56414954e-02 -9.19397268e-03 ...  1.39815835e-02
  -6.18700031e-03 -6.89740712e-03]]

Layer 1:
[[ 0.02053719 -0.0150033  -0.00450381  0.02258419  0.01384895 -0.01304076
  -0.02749342  0.03012375  0.0093436  -0.01996746  0.01034172  0.01845125
  -0.00268499  0.01582235 -0.00882879  0.02938234 -0.0253302  -0.02983622
   0.0142281   0.00933708  0.01451048 -0.00554346  0.01211339 -0.04199
  -0.00768597 -0.01279171  0.0188934  -0.02095359 -0.02642661 -0.0022216
   0.01674904 -0.01637155  0.00611523  0.00054864  0.03268703  0.01972845
  -0.02043353 -0.04237112 -0.00197217 -0.01412981 -0.02844495 -0.02943862
  -0.0407687  -0.00545871  0.01093557 -0.0218349  -0.02268156 -0.01521063
   0.03067889 -0.02084012  0.00217639  0.0039037   0.01187942  0.0357807
  -0.03454095  0.02170243 -0.03866334 -0.03095231  0.0019555  -0.00309031
   0.01945338 -0.01908056  0.01035318 -0.03717198  0.00601216  0.00062412
   0.02274718  0.00531368  0.01498758  0.02318498  0.01000764 -0.00660357
   0.02593774  0.00440371 -0.01111952  0.00146571  0.00143842 -0.00837201
  -0.03812725  0.00684731  0.0105711   0.00382104  0.00351325 -0.01322725
   0.00476873 -0.00657343 -0.00605782 -0.00568752 -0.00638911 -0.03542321
  -0.01136272  0.01642293 -0.00259511  0.02890756 -0.00015599  0.01562795
   0.0207356   0.00592095  0.00973097 -0.027279  ]]

Layer 2:
[0. 0. 0. 0. 0. 0. 0. 0. 0. 0. 0. 0. 0. 0. 0. 0. 0. 0. 0. 0. 0. 0. 0. 0.
 0. 0. 0. 0. 0. 0. 0. 0. 0. 0. 0. 0. 0. 0. 0. 0. 0. 0. 0. 0. 0. 0. 0. 0.
 0. 0. 0. 0. 0. 0. 0. 0. 0. 0. 0. 0. 0. 0. 0. 0. 0. 0. 0. 0. 0. 0. 0. 0.
 0. 0. 0. 0. 0. 0. 0. 0. 0. 0. 0. 0. 0. 0. 0. 0. 0. 0. 0. 0. 0. 0. 0. 0.
 0. 0. 0. 0.]

Layer 3:
[[ 0.60886395]
 [-0.93322194]
 [-0.91428053]
 [ 0.66010076]
 [ 0.9285678 ]
 [-0.9186804 ]
 [-0.6177133 ]
 [ 0.51585233]
 [ 1.0045073 ]
 [-0.75840557]
 [ 0.8659281 ]
 [ 0.74750286]
 [-0.51744956]
 [ 0.77973706]
 [-0.924151  ]
 [ 0.49545532]
 [-0.6145558 ]
 [-0.5562572 ]
 [ 0.7425452 ]
 [ 0.88417953]
 [ 0.91977626]
 [-0.6989265 ]
 [ 0.7413499 ]
 [-0.26079354]
 [-1.001256  ]
 [-0.94502074]
 [ 0.90036577]
 [-0.91734135]
 [-0.4814831 ]
 [-0.29519925]
 [ 0.6924166 ]
 [-0.9376521 ]
 [ 0.91086376]
 [ 0.23432304]
 [ 0.5963035 ]
 [ 0.68844277]
 [-0.83059597]
 [-0.26986372]
 [-0.33099633]
 [-0.7114536 ]
 [-0.57382864]
 [-0.3523224 ]
 [-0.3826683 ]
 [-1.060853  ]
 [ 1.0339752 ]
 [-0.6603847 ]
 [-0.69310635]
 [-0.95335615]
 [ 0.60501117]
 [-0.6882535 ]
 [ 0.6639119 ]
 [ 0.69004935]
 [ 0.8885038 ]
 [ 0.41704193]
 [-0.4697312 ]
 [ 0.74433494]
 [-0.31822708]
 [-0.46880868]
 [ 0.3448825 ]
 [-0.5317594 ]
 [ 0.8088654 ]
 [-0.79114264]
 [ 0.9357965 ]
 [-0.49009687]
 [ 0.7339831 ]
 [ 0.28311834]
 [ 0.69511265]
 [ 0.624124  ]
 [ 0.8739572 ]
 [ 0.6456773 ]
 [ 0.86742043]
 [-0.69680274]
 [ 0.6798922 ]
 [ 0.8045249 ]
 [-0.9550793 ]
 [ 0.263976  ]
 [ 0.49916652]
 [-0.7679257 ]
 [-0.47570884]
 [ 0.88183343]
 [ 0.96663207]
 [ 0.6201692 ]
 [ 0.63386273]
 [-0.7902237 ]
 [ 0.88318455]
 [-1.0221545 ]
 [-0.7743857 ]
 [-0.56332475]
 [-0.83804566]
 [-0.3383509 ]
 [-0.8022058 ]
 [ 0.69348836]
 [-0.38167673]
 [ 0.4514077 ]
 [-0.09272075]
 [ 0.83290005]
 [ 0.70218045]
 [ 0.88353854]
 [ 0.9231779 ]
 [-0.527915  ]]

Layer 4:
[-0.00067484]



Consenso 10:
------------------------------------------------------------------------

Layer 0:
[[-5.94970863e-03  6.89078774e-03 -2.00824277e-03 ... -6.14800211e-03
   1.45053575e-02 -1.53399631e-02]
 [ 3.59506020e-03 -1.15770334e-02  5.89278387e-03 ... -7.54608540e-03
   4.91651372e-05 -2.09398102e-03]
 [ 2.29656715e-02  0.00000000e+00  3.33935698e-03 ... -1.02008227e-02
   8.89124535e-03  1.73224583e-02]
 ...
 [-7.03794509e-03 -1.75568380e-03  1.50698738e-03 ...  6.08306704e-03
  -4.54986747e-03 -9.31679923e-03]
 [-6.24906505e-03 -4.29222584e-02 -2.78200172e-02 ... -3.73837654e-03
   7.40233809e-03  6.61911210e-03]
 [-1.07727945e-02 -2.56414954e-02 -9.19397268e-03 ...  1.39815835e-02
  -6.18700031e-03 -6.89740712e-03]]

Layer 1:
[[ 0.02053719 -0.0150033  -0.00450381  0.02258419  0.01384895 -0.01304076
  -0.02749342  0.03012375  0.0093436  -0.01996746  0.01034172  0.01845125
  -0.00268499  0.01582235 -0.00882879  0.02938234 -0.0253302  -0.02983622
   0.0142281   0.00933708  0.01451048 -0.00554346  0.01211339 -0.04199
  -0.00768597 -0.01279171  0.0188934  -0.02095359 -0.02642661 -0.0022216
   0.01674904 -0.01637155  0.00611523  0.00054864  0.03268703  0.01972845
  -0.02043353 -0.04237112 -0.00197217 -0.01412981 -0.02844495 -0.02943862
  -0.0407687  -0.00545871  0.01093557 -0.0218349  -0.02268156 -0.01521063
   0.03067889 -0.02084012  0.00217639  0.0039037   0.01187942  0.0357807
  -0.03454095  0.02170243 -0.03866334 -0.03095231  0.0019555  -0.00309031
   0.01945338 -0.01908056  0.01035318 -0.03717198  0.00601216  0.00062412
   0.02274718  0.00531368  0.01498758  0.02318498  0.01000764 -0.00660357
   0.02593774  0.00440371 -0.01111952  0.00146571  0.00143842 -0.00837201
  -0.03812725  0.00684731  0.0105711   0.00382104  0.00351325 -0.01322725
   0.00476873 -0.00657343 -0.00605782 -0.00568752 -0.00638911 -0.03542321
  -0.01136272  0.01642293 -0.00259511  0.02890756 -0.00015599  0.01562795
   0.0207356   0.00592095  0.00973097 -0.027279  ]]

Layer 2:
[0. 0. 0. 0. 0. 0. 0. 0. 0. 0. 0. 0. 0. 0. 0. 0. 0. 0. 0. 0. 0. 0. 0. 0.
 0. 0. 0. 0. 0. 0. 0. 0. 0. 0. 0. 0. 0. 0. 0. 0. 0. 0. 0. 0. 0. 0. 0. 0.
 0. 0. 0. 0. 0. 0. 0. 0. 0. 0. 0. 0. 0. 0. 0. 0. 0. 0. 0. 0. 0. 0. 0. 0.
 0. 0. 0. 0. 0. 0. 0. 0. 0. 0. 0. 0. 0. 0. 0. 0. 0. 0. 0. 0. 0. 0. 0. 0.
 0. 0. 0. 0.]

Layer 3:
[[ 0.8878238 ]
 [-1.2139578 ]
 [-1.067631  ]
 [ 0.9333821 ]
 [ 1.1975152 ]
 [-1.165211  ]
 [-0.8754775 ]
 [ 0.7596533 ]
 [ 1.2839966 ]
 [-1.0849901 ]
 [ 1.0901523 ]
 [ 1.0762023 ]
 [-0.6053247 ]
 [ 1.0643222 ]
 [-1.1472008 ]
 [ 0.7789637 ]
 [-0.89769846]
 [-0.8196319 ]
 [ 1.0201509 ]
 [ 1.0973713 ]
 [ 1.1919496 ]
 [-0.9660199 ]
 [ 1.0225347 ]
 [-0.51493245]
 [-1.2054396 ]
 [-1.1795267 ]
 [ 1.1638188 ]
 [-1.1708502 ]
 [-0.79491645]
 [-0.5512057 ]
 [ 0.966688  ]
 [-1.201919  ]
 [ 1.1327565 ]
 [ 0.3072815 ]
 [ 0.8489753 ]
 [ 0.9755327 ]
 [-1.0997847 ]
 [-0.52334136]
 [-0.38760984]
 [-1.0662297 ]
 [-0.8393006 ]
 [-0.6308322 ]
 [-0.6598369 ]
 [-1.1943405 ]
 [ 1.2548107 ]
 [-0.9688281 ]
 [-0.98228836]
 [-1.2133956 ]
 [ 0.89286786]
 [-0.9965141 ]
 [ 0.776488  ]
 [ 0.81034654]
 [ 1.1958857 ]
 [ 0.68661356]
 [-0.72509587]
 [ 1.066359  ]
 [-0.5991483 ]
 [-0.7619514 ]
 [ 0.48107076]
 [-0.7072906 ]
 [ 1.076155  ]
 [-1.045462  ]
 [ 1.1850682 ]
 [-0.7385094 ]
 [ 0.9319021 ]
 [ 0.31319115]
 [ 1.0417078 ]
 [ 1.0334527 ]
 [ 1.1328119 ]
 [ 0.93731767]
 [ 1.2385666 ]
 [-0.9416231 ]
 [ 0.93699   ]
 [ 0.95540845]
 [-1.2066145 ]
 [ 0.3433539 ]
 [ 0.58380693]
 [-1.1426108 ]
 [-0.7418021 ]
 [ 1.1121898 ]
 [ 1.3303502 ]
 [ 0.8210464 ]
 [ 0.8148843 ]
 [-1.1368924 ]
 [ 1.0139676 ]
 [-1.2161828 ]
 [-1.0491844 ]
 [-0.88863266]
 [-1.0821404 ]
 [-0.5888384 ]
 [-1.0738559 ]
 [ 0.9652222 ]
 [-0.64785886]
 [ 0.71315944]
 [-0.13643484]
 [ 1.1017622 ]
 [ 0.98816663]
 [ 1.124728  ]
 [ 1.187206  ]
 [-0.83176196]]

Layer 4:
[-0.06952457]



Entrenamiento 11:
------------------------------------------------------------------------

Layer 0:
[[-5.94970863e-03  6.89078774e-03 -2.00824277e-03 ... -6.14800211e-03
   1.45053575e-02 -1.53399631e-02]
 [ 3.59506020e-03 -1.15770334e-02  5.89278387e-03 ... -7.54608540e-03
   4.91651372e-05 -2.09398102e-03]
 [ 2.29656715e-02  0.00000000e+00  3.33935698e-03 ... -1.02008227e-02
   8.89124535e-03  1.73224583e-02]
 ...
 [-7.03794509e-03 -1.75568380e-03  1.50698738e-03 ...  6.08306704e-03
  -4.54986747e-03 -9.31679923e-03]
 [-6.24906505e-03 -4.29222584e-02 -2.78200172e-02 ... -3.73837654e-03
   7.40233809e-03  6.61911210e-03]
 [-1.07727945e-02 -2.56414954e-02 -9.19397268e-03 ...  1.39815835e-02
  -6.18700031e-03 -6.89740712e-03]]

Layer 1:
[[ 0.02053719 -0.0150033  -0.00450381  0.02258419  0.01384895 -0.01304076
  -0.02749342  0.03012375  0.0093436  -0.01996746  0.01034172  0.01845125
  -0.00268499  0.01582235 -0.00882879  0.02938234 -0.0253302  -0.02983622
   0.0142281   0.00933708  0.01451048 -0.00554346  0.01211339 -0.04199
  -0.00768597 -0.01279171  0.0188934  -0.02095359 -0.02642661 -0.0022216
   0.01674904 -0.01637155  0.00611523  0.00054864  0.03268703  0.01972845
  -0.02043353 -0.04237112 -0.00197217 -0.01412981 -0.02844495 -0.02943862
  -0.0407687  -0.00545871  0.01093557 -0.0218349  -0.02268156 -0.01521063
   0.03067889 -0.02084012  0.00217639  0.0039037   0.01187942  0.0357807
  -0.03454095  0.02170243 -0.03866334 -0.03095231  0.0019555  -0.00309031
   0.01945338 -0.01908056  0.01035318 -0.03717198  0.00601216  0.00062412
   0.02274718  0.00531368  0.01498758  0.02318498  0.01000764 -0.00660357
   0.02593774  0.00440371 -0.01111952  0.00146571  0.00143842 -0.00837201
  -0.03812725  0.00684731  0.0105711   0.00382104  0.00351325 -0.01322725
   0.00476873 -0.00657343 -0.00605782 -0.00568752 -0.00638911 -0.03542321
  -0.01136272  0.01642293 -0.00259511  0.02890756 -0.00015599  0.01562795
   0.0207356   0.00592095  0.00973097 -0.027279  ]]

Layer 2:
[0. 0. 0. 0. 0. 0. 0. 0. 0. 0. 0. 0. 0. 0. 0. 0. 0. 0. 0. 0. 0. 0. 0. 0.
 0. 0. 0. 0. 0. 0. 0. 0. 0. 0. 0. 0. 0. 0. 0. 0. 0. 0. 0. 0. 0. 0. 0. 0.
 0. 0. 0. 0. 0. 0. 0. 0. 0. 0. 0. 0. 0. 0. 0. 0. 0. 0. 0. 0. 0. 0. 0. 0.
 0. 0. 0. 0. 0. 0. 0. 0. 0. 0. 0. 0. 0. 0. 0. 0. 0. 0. 0. 0. 0. 0. 0. 0.
 0. 0. 0. 0.]

Layer 3:
[[ 0.6043536 ]
 [-0.9965962 ]
 [-0.9913768 ]
 [ 0.6540533 ]
 [ 0.98119813]
 [-0.9606038 ]
 [-0.6102364 ]
 [ 0.47773838]
 [ 1.0890062 ]
 [-0.7811156 ]
 [ 0.91464335]
 [ 0.7826277 ]
 [-0.58769464]
 [ 0.80188817]
 [-0.97129905]
 [ 0.46798116]
 [-0.60538816]
 [-0.53804874]
 [ 0.7701589 ]
 [ 0.9403639 ]
 [ 0.96181613]
 [-0.7593942 ]
 [ 0.7677374 ]
 [-0.19295247]
 [-1.0762149 ]
 [-1.0068575 ]
 [ 0.93417513]
 [-0.9586454 ]
 [-0.46626076]
 [-0.30927563]
 [ 0.70694226]
 [-0.99172515]
 [ 0.9826089 ]
 [ 0.2506895 ]
 [ 0.55583245]
 [ 0.6927808 ]
 [-0.855297  ]
 [-0.19839238]
 [-0.39246252]
 [-0.7507    ]
 [-0.5478756 ]
 [-0.3092068 ]
 [-0.32716614]
 [-1.194036  ]
 [ 1.1020662 ]
 [-0.6723613 ]
 [-0.70292896]
 [-1.0034267 ]
 [ 0.59238166]
 [-0.702299  ]
 [ 0.7433285 ]
 [ 0.7823459 ]
 [ 0.9448793 ]
 [ 0.36710423]
 [-0.42274234]
 [ 0.7711865 ]
 [-0.2642556 ]
 [-0.43816146]
 [ 0.37840664]
 [-0.5498872 ]
 [ 0.81770456]
 [-0.8165937 ]
 [ 1.0005499 ]
 [-0.44110036]
 [ 0.7878929 ]
 [ 0.31684193]
 [ 0.7121418 ]
 [ 0.7126315 ]
 [ 0.9036773 ]
 [ 0.64808565]
 [ 0.9544315 ]
 [-0.7323044 ]
 [ 0.6721403 ]
 [ 0.87800735]
 [-1.006128  ]
 [ 0.26899508]
 [ 0.54630464]
 [-0.85142034]
 [-0.42967448]
 [ 0.9485831 ]
 [ 1.0550531 ]
 [ 0.67296135]
 [ 0.6635114 ]
 [-0.836025  ]
 [ 0.9803452 ]
 [-1.1164367 ]
 [-0.83939296]
 [-0.62415034]
 [-0.91518223]
 [-0.28909966]
 [-0.8437052 ]
 [ 0.708181  ]
 [-0.43331954]
 [ 0.42125016]
 [-0.08563601]
 [ 0.8652754 ]
 [ 0.7192136 ]
 [ 0.9601978 ]
 [ 0.9803212 ]
 [-0.5190353 ]]

Layer 4:
[0.00031439]



Consenso 11:
------------------------------------------------------------------------

Layer 0:
[[-5.94970863e-03  6.89078774e-03 -2.00824277e-03 ... -6.14800211e-03
   1.45053575e-02 -1.53399631e-02]
 [ 3.59506020e-03 -1.15770334e-02  5.89278387e-03 ... -7.54608540e-03
   4.91651372e-05 -2.09398102e-03]
 [ 2.29656715e-02  0.00000000e+00  3.33935698e-03 ... -1.02008227e-02
   8.89124535e-03  1.73224583e-02]
 ...
 [-7.03794509e-03 -1.75568380e-03  1.50698738e-03 ...  6.08306704e-03
  -4.54986747e-03 -9.31679923e-03]
 [-6.24906505e-03 -4.29222584e-02 -2.78200172e-02 ... -3.73837654e-03
   7.40233809e-03  6.61911210e-03]
 [-1.07727945e-02 -2.56414954e-02 -9.19397268e-03 ...  1.39815835e-02
  -6.18700031e-03 -6.89740712e-03]]

Layer 1:
[[ 0.02053719 -0.0150033  -0.00450381  0.02258419  0.01384895 -0.01304076
  -0.02749342  0.03012375  0.0093436  -0.01996746  0.01034172  0.01845125
  -0.00268499  0.01582235 -0.00882879  0.02938234 -0.0253302  -0.02983622
   0.0142281   0.00933708  0.01451048 -0.00554346  0.01211339 -0.04199
  -0.00768597 -0.01279171  0.0188934  -0.02095359 -0.02642661 -0.0022216
   0.01674904 -0.01637155  0.00611523  0.00054864  0.03268703  0.01972845
  -0.02043353 -0.04237112 -0.00197217 -0.01412981 -0.02844495 -0.02943862
  -0.0407687  -0.00545871  0.01093557 -0.0218349  -0.02268156 -0.01521063
   0.03067889 -0.02084012  0.00217639  0.0039037   0.01187942  0.0357807
  -0.03454095  0.02170243 -0.03866334 -0.03095231  0.0019555  -0.00309031
   0.01945338 -0.01908056  0.01035318 -0.03717198  0.00601216  0.00062412
   0.02274718  0.00531368  0.01498758  0.02318498  0.01000764 -0.00660357
   0.02593774  0.00440371 -0.01111952  0.00146571  0.00143842 -0.00837201
  -0.03812725  0.00684731  0.0105711   0.00382104  0.00351325 -0.01322725
   0.00476873 -0.00657343 -0.00605782 -0.00568752 -0.00638911 -0.03542321
  -0.01136272  0.01642293 -0.00259511  0.02890756 -0.00015599  0.01562795
   0.0207356   0.00592095  0.00973097 -0.027279  ]]

Layer 2:
[0. 0. 0. 0. 0. 0. 0. 0. 0. 0. 0. 0. 0. 0. 0. 0. 0. 0. 0. 0. 0. 0. 0. 0.
 0. 0. 0. 0. 0. 0. 0. 0. 0. 0. 0. 0. 0. 0. 0. 0. 0. 0. 0. 0. 0. 0. 0. 0.
 0. 0. 0. 0. 0. 0. 0. 0. 0. 0. 0. 0. 0. 0. 0. 0. 0. 0. 0. 0. 0. 0. 0. 0.
 0. 0. 0. 0. 0. 0. 0. 0. 0. 0. 0. 0. 0. 0. 0. 0. 0. 0. 0. 0. 0. 0. 0. 0.
 0. 0. 0. 0.]

Layer 3:
[[ 0.87633204]
 [-1.2750939 ]
 [-1.147273  ]
 [ 0.92043096]
 [ 1.2489245 ]
 [-1.2070549 ]
 [-0.86114925]
 [ 0.7134565 ]
 [ 1.3682374 ]
 [-1.0968587 ]
 [ 1.1407869 ]
 [ 1.1014631 ]
 [-0.67820996]
 [ 1.0820551 ]
 [-1.1965879 ]
 [ 0.7391937 ]
 [-0.87913954]
 [-0.79261094]
 [ 1.0448296 ]
 [ 1.1555948 ]
 [ 1.2321982 ]
 [-1.0277212 ]
 [ 1.046328  ]
 [-0.43246245]
 [-1.2826419 ]
 [-1.2420105 ]
 [ 1.1947918 ]
 [-1.2097466 ]
 [-0.7645451 ]
 [-0.5663568 ]
 [ 0.9771048 ]
 [-1.2543449 ]
 [ 1.2069298 ]
 [ 0.32600054]
 [ 0.79860216]
 [ 0.973006  ]
 [-1.1202726 ]
 [-0.43690372]
 [-0.45115614]
 [-1.0939044 ]
 [-0.8039845 ]
 [-0.57430077]
 [-0.587199  ]
 [-1.328763  ]
 [ 1.3242548 ]
 [-0.97085714]
 [-0.9842817 ]
 [-1.2624246 ]
 [ 0.86843276]
 [-1.0011406 ]
 [ 0.8578184 ]
 [ 0.9052253 ]
 [ 1.2487327 ]
 [ 0.6225472 ]
 [-0.6669348 ]
 [ 1.0826867 ]
 [-0.5280198 ]
 [-0.71651304]
 [ 0.5180123 ]
 [-0.7288536 ]
 [ 1.0805014 ]
 [-1.0683997 ]
 [ 1.2504929 ]
 [-0.6784515 ]
 [ 0.98862   ]
 [ 0.34791648]
 [ 1.0427719 ]
 [ 1.1091772 ]
 [ 1.1610605 ]
 [ 0.9309336 ]
 [ 1.3166629 ]
 [-0.9786919 ]
 [ 0.92278534]
 [ 1.0315193 ]
 [-1.2585409 ]
 [ 0.3510197 ]
 [ 0.63344574]
 [-1.2177811 ]
 [-0.68214977]
 [ 1.1810713 ]
 [ 1.410561  ]
 [ 0.87729836]
 [ 0.848226  ]
 [-1.1733322 ]
 [ 1.1134672 ]
 [-1.3124462 ]
 [-1.1150341 ]
 [-0.94641757]
 [-1.1612442 ]
 [-0.528601  ]
 [-1.1143832 ]
 [ 0.97650045]
 [-0.70110494]
 [ 0.6736551 ]
 [-0.13058043]
 [ 1.1320095 ]
 [ 0.9991528 ]
 [ 1.2035656 ]
 [ 1.2445426 ]
 [-0.80988777]]

Layer 4:
[-0.07696319]



Entrenamiento 12:
------------------------------------------------------------------------

Layer 0:
[[-5.94970863e-03  6.89078774e-03 -2.00824277e-03 ... -6.14800211e-03
   1.45053575e-02 -1.53399631e-02]
 [ 3.59506020e-03 -1.15770334e-02  5.89278387e-03 ... -7.54608540e-03
   4.91651372e-05 -2.09398102e-03]
 [ 2.29656715e-02  0.00000000e+00  3.33935698e-03 ... -1.02008227e-02
   8.89124535e-03  1.73224583e-02]
 ...
 [-7.03794509e-03 -1.75568380e-03  1.50698738e-03 ...  6.08306704e-03
  -4.54986747e-03 -9.31679923e-03]
 [-6.24906505e-03 -4.29222584e-02 -2.78200172e-02 ... -3.73837654e-03
   7.40233809e-03  6.61911210e-03]
 [-1.07727945e-02 -2.56414954e-02 -9.19397268e-03 ...  1.39815835e-02
  -6.18700031e-03 -6.89740712e-03]]

Layer 1:
[[ 0.02053719 -0.0150033  -0.00450381  0.02258419  0.01384895 -0.01304076
  -0.02749342  0.03012375  0.0093436  -0.01996746  0.01034172  0.01845125
  -0.00268499  0.01582235 -0.00882879  0.02938234 -0.0253302  -0.02983622
   0.0142281   0.00933708  0.01451048 -0.00554346  0.01211339 -0.04199
  -0.00768597 -0.01279171  0.0188934  -0.02095359 -0.02642661 -0.0022216
   0.01674904 -0.01637155  0.00611523  0.00054864  0.03268703  0.01972845
  -0.02043353 -0.04237112 -0.00197217 -0.01412981 -0.02844495 -0.02943862
  -0.0407687  -0.00545871  0.01093557 -0.0218349  -0.02268156 -0.01521063
   0.03067889 -0.02084012  0.00217639  0.0039037   0.01187942  0.0357807
  -0.03454095  0.02170243 -0.03866334 -0.03095231  0.0019555  -0.00309031
   0.01945338 -0.01908056  0.01035318 -0.03717198  0.00601216  0.00062412
   0.02274718  0.00531368  0.01498758  0.02318498  0.01000764 -0.00660357
   0.02593774  0.00440371 -0.01111952  0.00146571  0.00143842 -0.00837201
  -0.03812725  0.00684731  0.0105711   0.00382104  0.00351325 -0.01322725
   0.00476873 -0.00657343 -0.00605782 -0.00568752 -0.00638911 -0.03542321
  -0.01136272  0.01642293 -0.00259511  0.02890756 -0.00015599  0.01562795
   0.0207356   0.00592095  0.00973097 -0.027279  ]]

Layer 2:
[0. 0. 0. 0. 0. 0. 0. 0. 0. 0. 0. 0. 0. 0. 0. 0. 0. 0. 0. 0. 0. 0. 0. 0.
 0. 0. 0. 0. 0. 0. 0. 0. 0. 0. 0. 0. 0. 0. 0. 0. 0. 0. 0. 0. 0. 0. 0. 0.
 0. 0. 0. 0. 0. 0. 0. 0. 0. 0. 0. 0. 0. 0. 0. 0. 0. 0. 0. 0. 0. 0. 0. 0.
 0. 0. 0. 0. 0. 0. 0. 0. 0. 0. 0. 0. 0. 0. 0. 0. 0. 0. 0. 0. 0. 0. 0. 0.
 0. 0. 0. 0.]

Layer 3:
[[ 0.5955295 ]
 [-1.0545    ]
 [-1.0681351 ]
 [ 0.6432516 ]
 [ 1.0296323 ]
 [-0.99943393]
 [-0.59632057]
 [ 0.4340312 ]
 [ 1.1689901 ]
 [-0.79723793]
 [ 0.96167034]
 [ 0.81108826]
 [-0.6594663 ]
 [ 0.8202264 ]
 [-1.0169113 ]
 [ 0.43391633]
 [-0.59003484]
 [-0.513076  ]
 [ 0.79438007]
 [ 0.9947414 ]
 [ 0.99985766]
 [-0.8183793 ]
 [ 0.7917687 ]
 [-0.11824539]
 [-1.1490551 ]
 [-1.065074  ]
 [ 0.96296275]
 [-0.994033  ]
 [-0.4437309 ]
 [-0.3247926 ]
 [ 0.71762586]
 [-1.0405638 ]
 [ 1.0527667 ]
 [ 0.26754144]
 [ 0.5091675 ]
 [ 0.6925744 ]
 [-0.87437385]
 [-0.12014158]
 [-0.45577598]
 [-0.7840365 ]
 [-0.51596856]
 [-0.2600225 ]
 [-0.26355907]
 [-1.3266469 ]
 [ 1.1671379 ]
 [-0.67779875]
 [-0.7065961 ]
 [-1.0491512 ]
 [ 0.57194865]
 [-0.7101611 ]
 [ 0.82259625]
 [ 0.8755921 ]
 [ 0.99697423]
 [ 0.30993953]
 [-0.36934945]
 [ 0.790513  ]
 [-0.20236033]
 [-0.40011442]
 [ 0.41236937]
 [-0.568537  ]
 [ 0.82222337]
 [-0.8372554 ]
 [ 1.0620649 ]
 [-0.38534135]
 [ 0.840963  ]
 [ 0.35107052]
 [ 0.72093683]
 [ 0.79505306]
 [ 0.92997766]
 [ 0.64472187]
 [ 1.033947  ]
 [-0.76709485]
 [ 0.658381  ]
 [ 0.95107853]
 [-1.0547702 ]
 [ 0.27437654]
 [ 0.59456134]
 [-0.9288847 ]
 [-0.37595975]
 [ 1.0135568 ]
 [ 1.135229  ]
 [ 0.725484  ]
 [ 0.6937415 ]
 [-0.8764521 ]
 [ 1.0779418 ]
 [-1.2087054 ]
 [-0.9021122 ]
 [-0.68283325]
 [-0.98992735]
 [-0.23341638]
 [-0.8825332 ]
 [ 0.7195575 ]
 [-0.48396245]
 [ 0.38518733]
 [-0.07840953]
 [ 0.8940176 ]
 [ 0.7309255 ]
 [ 1.0347592 ]
 [ 1.0346781 ]
 [-0.5026948 ]]

Layer 4:
[0.00028387]



Consenso 12:
------------------------------------------------------------------------

Layer 0:
[[-5.94970863e-03  6.89078774e-03 -2.00824277e-03 ... -6.14800211e-03
   1.45053575e-02 -1.53399631e-02]
 [ 3.59506020e-03 -1.15770334e-02  5.89278387e-03 ... -7.54608540e-03
   4.91651372e-05 -2.09398102e-03]
 [ 2.29656715e-02  0.00000000e+00  3.33935698e-03 ... -1.02008227e-02
   8.89124535e-03  1.73224583e-02]
 ...
 [-7.03794509e-03 -1.75568380e-03  1.50698738e-03 ...  6.08306704e-03
  -4.54986747e-03 -9.31679923e-03]
 [-6.24906505e-03 -4.29222584e-02 -2.78200172e-02 ... -3.73837654e-03
   7.40233809e-03  6.61911210e-03]
 [-1.07727945e-02 -2.56414954e-02 -9.19397268e-03 ...  1.39815835e-02
  -6.18700031e-03 -6.89740712e-03]]

Layer 1:
[[ 0.02053719 -0.0150033  -0.00450381  0.02258419  0.01384895 -0.01304076
  -0.02749342  0.03012375  0.0093436  -0.01996746  0.01034172  0.01845125
  -0.00268499  0.01582235 -0.00882879  0.02938234 -0.0253302  -0.02983622
   0.0142281   0.00933708  0.01451048 -0.00554346  0.01211339 -0.04199
  -0.00768597 -0.01279171  0.0188934  -0.02095359 -0.02642661 -0.0022216
   0.01674904 -0.01637155  0.00611523  0.00054864  0.03268703  0.01972845
  -0.02043353 -0.04237112 -0.00197217 -0.01412981 -0.02844495 -0.02943862
  -0.0407687  -0.00545871  0.01093557 -0.0218349  -0.02268156 -0.01521063
   0.03067889 -0.02084012  0.00217639  0.0039037   0.01187942  0.0357807
  -0.03454095  0.02170243 -0.03866334 -0.03095231  0.0019555  -0.00309031
   0.01945338 -0.01908056  0.01035318 -0.03717198  0.00601216  0.00062412
   0.02274718  0.00531368  0.01498758  0.02318498  0.01000764 -0.00660357
   0.02593774  0.00440371 -0.01111952  0.00146571  0.00143842 -0.00837201
  -0.03812725  0.00684731  0.0105711   0.00382104  0.00351325 -0.01322725
   0.00476873 -0.00657343 -0.00605782 -0.00568752 -0.00638911 -0.03542321
  -0.01136272  0.01642293 -0.00259511  0.02890756 -0.00015599  0.01562795
   0.0207356   0.00592095  0.00973097 -0.027279  ]]

Layer 2:
[0. 0. 0. 0. 0. 0. 0. 0. 0. 0. 0. 0. 0. 0. 0. 0. 0. 0. 0. 0. 0. 0. 0. 0.
 0. 0. 0. 0. 0. 0. 0. 0. 0. 0. 0. 0. 0. 0. 0. 0. 0. 0. 0. 0. 0. 0. 0. 0.
 0. 0. 0. 0. 0. 0. 0. 0. 0. 0. 0. 0. 0. 0. 0. 0. 0. 0. 0. 0. 0. 0. 0. 0.
 0. 0. 0. 0. 0. 0. 0. 0. 0. 0. 0. 0. 0. 0. 0. 0. 0. 0. 0. 0. 0. 0. 0. 0.
 0. 0. 0. 0.]

Layer 3:
[[ 0.86253434]
 [-1.3354557 ]
 [-1.2270118 ]
 [ 0.90516734]
 [ 1.2993164 ]
 [-1.2476157 ]
 [-0.8442035 ]
 [ 0.66413826]
 [ 1.4520662 ]
 [-1.1073457 ]
 [ 1.1902132 ]
 [ 1.1252035 ]
 [-0.7537377 ]
 [ 1.0979208 ]
 [-1.2452929 ]
 [ 0.6966563 ]
 [-0.8581655 ]
 [-0.7627995 ]
 [ 1.0679736 ]
 [ 1.2128661 ]
 [ 1.2710565 ]
 [-1.0894325 ]
 [ 1.0687144 ]
 [-0.34620094]
 [-1.3598404 ]
 [-1.3033402 ]
 [ 1.2241    ]
 [-1.2471693 ]
 [-0.73159957]
 [-0.5803088 ]
 [ 0.9856367 ]
 [-1.305598  ]
 [ 1.2803305 ]
 [ 0.34441146]
 [ 0.7451369 ]
 [ 0.96850306]
 [-1.139061  ]
 [-0.34677008]
 [-0.5178299 ]
 [-1.1203486 ]
 [-0.76581556]
 [-0.514734  ]
 [-0.5110982 ]
 [-1.4664721 ]
 [ 1.3927674 ]
 [-0.97083104]
 [-0.98419505]
 [-1.3103929 ]
 [ 0.8413444 ]
 [-1.003717  ]
 [ 0.94070446]
 [ 1.0027483 ]
 [ 1.3004361 ]
 [ 0.5551405 ]
 [-0.60555446]
 [ 1.0974605 ]
 [-0.45347404]
 [-0.66800755]
 [ 0.55544907]
 [-0.74917805]
 [ 1.0828437 ]
 [-1.089604  ]
 [ 1.3153216 ]
